 -4.6037103e-002
  2.6196492e-001
  2.6451701e-001
 -1.8259535e-001
  6.3549745e-002
 -1.7505068e-001
 -3.8014202e-001
  2.7145680e-001
 -2.2295246e-001
  2.3034980e-001
  1.6661341e-001
  2.2568231e-002
  0.0000000e+000
  0.0000000e+000
 -1.1086318e-001
  1.7031191e-001
  9.4499959e-002
  3.0705731e-001
  9.9123551e-002
  4.6331574e-002
 -1.8765456e-001
 -1.5354590e-001
 -1.7697038e-001
 -5.2139712e-002
  1.4253008e-001
 -2.2738922e-002
  8.7229463e-002
  7.1747391e-002
  0.0000000e+000
  0.0000000e+000
  4.3263140e-003
 -9.8743105e-002
  4.0475632e-002
 -6.1614839e-002
  6.6167635e-002
  1.9802204e-002
  8.0033480e-002
 -3.7374973e-002
  7.8984527e-002
 -5.8078820e-002
 -9.1837901e-003
  1.8247557e-003
 -6.6791409e-002
  9.2316468e-002
  0.0000000e+000
  0.0000000e+000
 -4.1566153e-002
 -8.6988666e-002
 -1.2069051e-002
 -5.4326884e-002
 -2.4631343e-002
  5.7218794e-002
  1.2676543e-003
  9.0323313e-002
 -5.0881115e-002
 -1.9557963e-002
  2.2024269e-002
 -2.6507042e-002
 -5.4621729e-002
 -5.3451420e-002
  0.0000000e+000
  0.0000000e+000
  1.3739192e-002
 -3.0031514e-002
  4.8608874e-002
  3.3080919e-001
 -3.8893418e-003
  6.4668629e-002
 -3.5432199e-002
 -1.5731703e-001
  2.4020072e-002
  8.8860813e-002
  1.8233437e-002
  7.7194619e-002
 -8.4484212e-002
  2.5153370e-003
  0.0000000e+000
  0.0000000e+000
  9.2729314e-002
  1.7809242e-002
  6.5580853e-003
  9.2368049e-003
  2.3901770e-002
  4.5955457e-002
  9.4814109e-002
 -1.5427895e-001
  1.8863566e-002
 -6.6985146e-002
 -3.9131715e-002
  2.3231837e-003
  7.9691194e-002
  8.8609194e-002
  0.0000000e+000
  0.0000000e+000
  8.9066705e-002
 -9.6962586e-003
  8.9479686e-002
 -2.5096458e-002
 -5.5003252e-002
 -8.3923101e-003
  2.5361388e-001
 -1.4739497e-001
  3.0664572e-003
 -5.0657173e-002
 -1.3338741e-001
  4.7441523e-002
 -1.0006549e-001
 -7.3499383e-002
  0.0000000e+000
  0.0000000e+000
  3.2280827e-002
 -7.6998654e-002
 -1.7569366e-001
  2.0301796e-001
 -1.0717692e-001
  7.9791581e-002
  8.8893122e-002
 -8.9322630e-002
  9.9899865e-003
  2.1764025e-002
  3.0226371e-002
  6.9408432e-002
 -2.2879083e-002
 -1.7878252e-001
  0.0000000e+000
  0.0000000e+000
  1.4743733e-002
 -6.1382335e-002
  3.5155652e-002
  9.1570727e-002
  1.2491796e-002
  3.0236075e-002
 -8.0049632e-002
  3.3615336e-002
  5.6627679e-002
  1.1216463e-001
 -9.2178052e-003
  1.1876032e-002
 -6.1187781e-002
 -3.3322166e-002
  0.0000000e+000
  0.0000000e+000
 -9.9824711e-002
  4.8473547e-002
  6.1422673e-002
 -1.4310879e-001
  1.5220892e-002
 -2.3913758e-002
 -9.4779889e-004
  1.2688855e-001
 -7.3934885e-002
 -3.3229639e-002
  8.2208845e-002
 -7.8681063e-002
 -6.8198885e-002
  9.9262087e-002
  0.0000000e+000
  0.0000000e+000
 -1.6042841e-002
  4.2989906e-002
