0.000000, 0.000000, 0.000000, 0.000000, 0.000000, 0.000000, 0.000000, 0.000000, 0.000000, 0.000000, 0.000000, 0.000000, 0.000000, 0.000000, 0.000000, 0.000000, 0.000000, 0.000000, 0.000000, 0.000000, 0.000000, 0.000000, 0.000000, 0.000000, 0.000000, 0.000000, 0.000000, 0.000000, 0.000000, 0.000000, 0.000000, 0.000000, 0.000000, 0.000000, 0.000000, 0.000000, 0.000000, 0.000000, 0.000000, 0.000000, 0.000000, 0.000000, 0.000000, 0.000000, 0.000000, 0.000000, 0.000000, 0.000000, 0.000000, 0.000000, 0.000000, 0.000000, 0.000000, 0.000000, 0.000000, 0.000000, 0.000000, 0.000000, 0.000000, 0.000000, 0.000000, 0.000000, 0.000000, 0.000000, 0.000000, 0.000000, 0.000000, 0.000000, 0.000000, 0.000000, 0.000000, 0.000000, 0.000000, 0.000000, 0.000000, 0.000000, 0.000000, 0.000000, 0.000000, 0.000000, 0.000000, 0.000000, 0.000000, 0.000000, 0.000000, 0.000000, 0.000000, 0.000000, 0.000000, 0.000000, 0.000000, 0.000000, 0.000000, 0.000000, 0.000000, 0.000000, 0.000000, 0.000000, 0.000000, 0.000000, 0.000000, 0.000000, 0.000000, 0.000000, 0.000000, 0.000000, 0.000000, 0.000000, 0.000000, 0.000000, 0.000000, 0.000000, 0.000000, 0.000000, 0.000000, 0.000000, 0.000000, 0.000000, 0.000000, 0.000000, 0.000000, 0.000000, 0.000000, 0.000000, 0.000000, 0.000000, 0.000000, 0.000000, 0.000000, 0.000000, 0.000000, 0.000000, 0.000000, 0.000000, 0.000000, 0.000000, 0.000000, 0.000000, 0.000000, 0.000000, 0.000000, 0.000000, 0.000000, 0.000000, 0.000000, 0.000000, 0.000000, 0.000000, 0.000000, 0.000000, 0.000000, 0.000000, 0.000000, 0.000000, 0.000000, 0.000000, 0.000000, 0.000000, 0.000000, 0.000000, 
-0.024801, 0.094529, -0.016071, 0.074354, -0.057060, -0.096593, 0.006975, -0.079126, 0.007605, 0.155086, -0.065399, 0.072971, 0.000000, 0.000000, -0.029135, 0.016601, 0.069483, -0.043565, 0.043448, -0.012059, -0.126996, 0.049890, 0.005022, 0.046285, 0.060267, -0.052156, 0.008330, -0.062776, 0.000000, 0.000000, 0.010839, 0.007011, -0.007112, 0.018687, -0.015920, 0.011555, -0.025059, 0.040624, 0.009628, 0.005056, 0.007478, -0.009913, -0.046778, 0.005676, 0.000000, 0.000000, 0.020827, -0.019154, 0.043479, -0.030838, -0.014352, -0.024191, -0.038695, -0.022595, 0.006037, 0.027661, 0.009591, 0.020540, -0.025310, -0.001015, 0.000000, 0.000000, 0.010701, -0.012521, 0.018373, -0.031240, -0.003643, -0.003267, -0.009394, 0.001470, 0.013127, 0.013336, -0.003919, 0.029523, -0.019397, -0.000568, 0.000000, 0.000000, -0.025475, 0.006707, 0.000716, -0.024838, 0.022945, 0.014202, -0.009592, -0.013000, -0.017975, 0.026578, 0.045271, -0.028598, 0.013652, -0.017870, 0.000000, 0.000000, 0.016174, -0.002899, 0.018474, -0.012851, -0.009416, 0.044680, 0.010540, -0.043242, 0.035821, -0.044802, 0.002178, -0.024342, 0.032423, 0.009774, 0.000000, 0.000000, 0.016031, -0.002503, 0.026589, 0.005951, -0.032909, 0.006331, 0.006329, 0.052607, 0.026031, 0.015283, -0.050155, -0.000150, -0.021913, -0.010086, 0.000000, 0.000000, 0.018801, -0.020932, 0.002481, -0.003495, -0.010978, -0.014412, 0.007947, 0.052418, 0.024702, 0.017002, -0.017836, 0.015937, -0.023807, -0.009894, 0.000000, 0.000000, 0.001516, -0.017599, -0.019790, -0.004990, -0.001047, -0.007190, -0.026863, -0.016222, -0.030016, -0.001451, 0.051527, -0.036606, 0.023747, -0.000210, 0.000000, 0.000000, -0.019024, 0.031239, 
-0.062453, 0.085076, -0.095665, 0.066918, 0.021474, -0.086934, 0.006278, -0.071213, 0.006845, 0.139578, 0.021872, 0.059365, 0.000000, 0.000000, -0.026221, 0.102586, 0.028756, -0.039208, 0.061383, -0.010853, -0.114297, 0.021678, -0.023966, 0.065767, 0.054302, -0.046941, 0.086039, -0.056831, 0.000000, 0.000000, 0.002573, 0.002330, -0.015492, 0.036218, 0.064601, -0.008951, -0.020478, -0.061511, -0.082015, 0.072665, -0.099811, 0.150737, -0.017769, -0.028441, 0.000000, 0.000000, -0.017337, -0.042600, 0.054967, -0.043294, 0.029693, -0.021772, -0.089867, 0.041976, 0.004952, -0.086819, 0.052210, -0.036050, -0.008828, 0.021342, 0.000000, 0.000000, 0.046739, -0.029457, 0.087861, -0.024875, -0.070753, 0.003510, -0.024042, 0.007516, 0.070407, -0.022623, -0.020397, 0.039299, -0.063702, -0.016924, 0.000000, 0.000000, -0.039977, -0.021714, 0.016496, 0.052945, -0.010195, 0.038390, -0.008633, -0.055951, -0.049985, 0.134567, 0.010013, -0.052026, 0.058713, -0.072546, 0.000000, 0.000000, 0.017646, 0.034721, 0.024046, 0.012229, 0.088190, -0.003622, 0.009486, -0.157603, 0.032239, -0.040322, -0.013554, 0.067475, 0.030359, 0.047791, 0.000000, 0.000000, -0.039366, 0.021860, 0.023930, -0.015773, 0.007315, 0.008435, 0.005696, 0.007681, 0.023428, -0.055123, -0.042166, -0.000135, 0.075283, 0.020661, 0.000000, 0.000000, -0.023157, 0.022269, 0.032896, -0.013486, -0.133317, 0.040084, 0.050672, 0.087715, 0.063541, 0.047282, -0.049308, 0.036322, -0.036255, -0.048550, 0.000000, 0.000000, -0.030309, 0.015342, -0.048023, -0.027817, -0.040297, -0.023223, -0.020335, -0.014599, -0.046400, 0.070024, 0.057750, -0.074678, 0.017782, -0.053624, 0.000000, 0.000000, 0.015735, 0.028115, 
-0.096339, 0.076568, -0.167299, 0.060226, 0.092154, -0.078241, 0.005650, -0.064092, 0.006160, 0.125620, 0.100415, 0.047120, 0.000000, 0.000000, -0.023599, 0.179973, -0.007898, -0.035287, 0.077524, -0.009768, -0.102867, -0.003712, -0.050054, 0.083300, 0.048935, -0.042247, 0.155977, -0.051480, 0.000000, 0.000000, -0.004867, -0.001883, -0.023034, 0.051996, 0.137069, -0.027407, -0.016354, -0.153432, -0.164493, 0.133514, -0.196371, 0.295322, 0.008339, -0.059147, 0.000000, 0.000000, -0.051685, -0.063701, 0.065307, -0.054505, 0.069333, -0.019595, -0.135922, 0.100091, 0.003976, -0.189851, 0.090567, -0.086982, 0.006005, 0.041464, 0.000000, 0.000000, 0.079172, -0.044699, 0.150401, -0.019146, -0.131152, 0.009608, -0.037226, 0.012958, 0.121959, -0.054985, -0.035227, 0.048097, -0.103577, -0.031645, 0.000000, 0.000000, -0.053029, -0.047294, 0.030697, 0.122950, -0.040021, 0.060159, -0.007769, -0.094607, -0.078795, 0.231758, -0.021720, -0.073111, 0.099268, -0.121754, 0.000000, 0.000000, 0.018970, 0.068579, 0.029061, 0.034801, 0.176036, -0.047094, 0.008537, -0.260529, 0.029015, -0.036290, -0.027713, 0.150111, 0.028503, 0.082007, 0.000000, 0.000000, -0.089223, 0.043786, 0.021537, -0.035324, 0.043517, 0.010329, 0.005126, -0.032753, 0.021085, -0.118489, -0.034976, -0.000121, 0.162760, 0.048333, 0.000000, 0.000000, -0.060919, 0.061150, 0.060270, -0.022479, -0.243423, 0.089129, 0.089124, 0.119482, 0.098496, 0.074534, -0.077632, 0.054668, -0.047458, -0.083341, 0.000000, 0.000000, -0.058951, 0.044989, -0.073434, -0.048362, -0.075622, -0.037652, -0.014459, -0.013139, -0.061145, 0.134351, 0.063350, -0.108942, 0.012413, -0.101697, 0.000000, 0.000000, 0.047018, 0.025303, 
-0.091171, 0.090890, -0.156812, 0.059674, 0.074026, -0.091658, -0.009397, -0.066588, 0.009604, 0.121341, 0.093002, 0.038612, 0.000000, 0.000000, -0.008935, 0.158877, -0.006617, -0.047636, 0.062994, 0.000453, -0.083987, 0.012353, -0.027429, 0.055228, 0.032402, -0.025001, 0.114558, -0.023818, 0.000000, 0.000000, -0.006924, -0.005648, -0.014328, 0.055848, 0.111738, -0.021335, -0.009349, -0.148866, -0.145214, 0.120195, -0.172575, 0.268670, 0.019087, -0.059524, 0.000000, 0.000000, -0.059188, -0.057578, 0.072362, -0.059953, 0.066160, -0.014807, -0.132613, 0.093639, -0.001392, -0.172681, 0.087005, -0.077862, -0.001879, 0.041375, 0.000000, 0.000000, 0.075843, -0.049604, 0.147666, -0.011023, -0.116153, -0.003342, -0.027057, -0.001634, 0.114900, -0.043042, -0.038337, 0.046827, -0.093796, -0.030458, 0.000000, 0.000000, -0.057288, -0.049301, 0.021385, 0.115775, -0.033644, 0.052761, -0.007874, -0.077120, -0.078844, 0.212187, -0.022589, -0.055821, 0.088855, -0.105740, 0.000000, 0.000000, 0.015579, 0.062804, 0.030351, 0.023342, 0.144407, -0.033710, 0.002697, -0.227911, 0.042581, -0.035138, -0.017582, 0.132467, 0.021728, 0.072541, 0.000000, 0.000000, -0.079022, 0.041459, 0.023309, -0.042215, 0.036018, 0.011427, 0.008182, -0.036656, 0.028902, -0.102362, -0.019272, 0.009180, 0.140594, 0.037910, 0.000000, 0.000000, -0.048488, 0.045959, 0.063683, -0.000406, -0.237410, 0.091095, 0.084148, 0.097450, 0.089716, 0.059409, -0.066027, 0.041317, -0.036668, -0.071049, 0.000000, 0.000000, -0.051845, 0.040914, -0.061906, -0.043279, -0.073344, -0.025305, -0.026440, 0.001266, -0.060357, 0.112428, 0.055760, -0.093434, -0.000748, -0.085226, 0.000000, 0.000000, 0.037131, 0.019891, 
-0.092378, 0.094709, -0.133166, 0.043819, 0.065953, -0.088020, -0.015458, -0.060427, -0.011176, 0.117276, 0.093492, 0.033558, 0.000000, 0.000000, -0.014009, 0.154480, 0.012389, -0.065227, 0.068241, -0.018237, -0.080502, 0.030450, -0.021174, 0.048887, 0.027904, -0.033961, 0.099401, -0.018740, 0.000000, 0.000000, 0.005924, -0.006111, -0.009698, 0.062517, 0.106277, -0.017105, -0.014226, -0.131677, -0.132299, 0.109667, -0.157534, 0.246614, 0.024307, -0.060870, 0.000000, 0.000000, -0.072679, -0.052950, 0.060026, -0.054507, 0.069440, -0.022967, -0.108327, 0.083969, -0.009150, -0.143089, 0.075840, -0.068268, -0.005989, 0.029194, 0.000000, 0.000000, 0.075590, -0.051381, 0.143241, -0.010602, -0.113041, -0.001324, -0.025238, -0.007473, 0.115466, -0.038812, -0.036550, 0.050203, -0.091738, -0.015906, 0.000000, 0.000000, -0.058848, -0.039789, 0.031166, 0.094648, -0.036170, 0.052073, -0.017355, -0.066065, -0.075313, 0.192610, -0.017002, -0.053045, 0.086902, -0.099635, 0.000000, 0.000000, 0.004848, 0.062204, 0.020318, 0.026003, 0.129945, -0.016807, 0.012330, -0.202722, 0.026794, -0.044947, -0.012293, 0.120488, 0.017531, 0.065967, 0.000000, 0.000000, -0.077801, 0.031140, -0.000809, -0.038382, 0.035306, 0.012041, 0.027387, -0.033176, 0.021683, -0.090336, -0.022853, 0.015148, 0.131451, 0.035719, 0.000000, 0.000000, -0.045671, 0.051769, 0.074134, 0.001953, -0.209521, 0.073200, 0.069303, 0.093190, 0.085089, 0.069415, -0.073296, 0.037917, -0.036597, -0.072472, 0.000000, 0.000000, -0.042690, 0.040617, -0.048162, -0.039867, -0.069476, -0.013860, -0.031982, 0.002360, -0.056221, 0.090783, 0.052667, -0.086999, -0.002162, -0.074515, 0.000000, 0.000000, 0.039912, 0.021875, 
-0.078680, 0.090141, -0.100946, 0.014990, 0.079700, -0.091822, -0.021433, -0.036577, -0.019523, 0.081187, 0.094485, 0.031225, 0.000000, 0.000000, -0.004692, 0.139086, 0.021144, -0.047412, 0.059127, -0.027585, -0.086930, 0.011085, -0.010403, 0.043724, 0.038749, -0.047266, 0.096714, -0.015966, 0.000000, 0.000000, 0.011258, -0.004545, -0.010457, 0.069482, 0.085325, -0.008466, -0.026144, -0.115927, -0.115271, 0.096751, -0.140007, 0.228086, 0.018325, -0.055606, 0.000000, 0.000000, -0.067625, -0.036941, 0.054010, -0.049843, 0.057615, -0.031295, -0.103751, 0.077547, -0.002558, -0.130871, 0.061965, -0.054389, -0.011785, 0.037626, 0.000000, 0.000000, 0.075416, -0.048917, 0.133791, -0.008019, -0.111507, 0.003563, -0.026749, -0.005586, 0.096528, -0.041492, -0.035885, 0.048210, -0.067567, -0.019326, 0.000000, 0.000000, -0.066948, -0.037133, 0.011085, 0.090170, -0.036828, 0.054814, -0.003084, -0.055108, -0.064885, 0.162945, -0.009567, -0.058187, 0.078713, -0.091880, 0.000000, 0.000000, 0.013214, 0.056435, 0.033808, 0.018962, 0.119376, -0.019869, -0.001299, -0.184628, 0.034561, -0.031085, -0.009566, 0.097887, 0.011583, 0.064480, 0.000000, 0.000000, -0.079334, 0.023816, -0.023335, -0.031357, 0.022697, 0.005663, 0.029199, -0.025610, 0.024783, -0.073182, -0.028624, 0.024205, 0.109662, 0.027582, 0.000000, 0.000000, -0.044648, 0.045675, 0.067348, -0.000278, -0.182246, 0.075180, 0.080409, 0.102545, 0.061863, 0.052072, -0.073749, 0.028743, -0.036116, -0.067371, 0.000000, 0.000000, -0.032129, 0.034922, -0.026486, -0.044191, -0.055289, -0.011834, -0.042154, -0.007158, -0.061155, 0.073145, 0.042588, -0.081799, 0.006070, -0.062990, 0.000000, 0.000000, 0.040670, 0.024779, 
-0.059203, 0.100768, -0.100578, 0.016888, 0.047796, -0.112218, -0.004305, -0.045154, -0.025817, 0.067702, 0.085662, 0.044868, 0.000000, 0.000000, -0.000954, 0.140442, 0.050208, -0.082792, 0.070593, -0.028299, -0.100800, 0.032568, -0.019661, 0.034019, 0.032161, -0.045610, 0.081976, -0.002926, 0.000000, 0.000000, 0.019335, -0.009986, 0.001238, 0.056718, 0.071159, -0.008445, -0.015657, -0.107031, -0.115931, 0.090600, -0.133149, 0.210097, 0.016694, -0.042253, 0.000000, 0.000000, -0.074402, -0.038076, 0.045822, -0.038193, 0.049415, -0.023254, -0.083778, 0.061454, 0.005343, -0.117833, 0.034322, -0.049279, -0.011721, 0.028618, 0.000000, 0.000000, 0.070639, -0.031442, 0.121863, 0.018405, -0.109351, 0.007519, -0.019455, -0.003770, 0.095557, -0.054115, -0.015841, 0.036405, -0.064668, -0.008065, 0.000000, 0.000000, -0.058934, -0.037476, -0.005636, 0.077778, -0.026154, 0.061436, 0.012013, -0.045163, -0.060032, 0.127385, -0.004353, -0.051607, 0.069095, -0.078538, 0.000000, 0.000000, 0.016500, 0.055472, 0.040632, 0.015867, 0.119025, -0.011857, 0.018209, -0.175379, 0.024138, -0.018573, -0.019161, 0.076689, 0.012474, 0.056428, 0.000000, 0.000000, -0.069780, 0.021406, -0.017450, -0.030075, 0.021218, 0.005419, 0.007502, -0.018290, 0.009753, -0.046195, -0.032642, 0.024850, 0.103140, 0.010937, 0.000000, 0.000000, -0.041849, 0.046959, 0.071660, 0.005365, -0.175010, 0.064546, 0.051225, 0.085660, 0.052589, 0.035197, -0.056466, 0.038269, -0.028693, -0.050628, 0.000000, 0.000000, -0.031700, 0.027543, -0.029205, -0.041113, -0.045676, -0.008081, -0.026849, -0.020952, -0.050379, 0.066164, 0.035480, -0.070998, -0.013277, -0.043290, 0.000000, 0.000000, 0.034967, 0.019882, 
-0.068773, 0.119205, -0.080276, -0.004447, 0.083295, -0.156957, -0.001244, -0.005580, -0.070017, 0.105568, 0.075253, 0.024597, 0.000000, 0.000000, -0.013293, 0.136110, 0.065227, -0.075065, 0.065570, -0.010103, -0.113178, 0.024123, -0.026262, 0.016989, 0.050428, -0.034640, 0.070261, 0.000488, 0.000000, 0.000000, 0.014231, -0.010041, -0.000258, 0.054881, 0.050468, -0.014792, 0.003986, -0.097414, -0.097276, 0.077728, -0.122614, 0.189813, 0.011204, -0.024285, 0.000000, 0.000000, -0.071728, -0.039270, 0.044287, -0.043981, 0.047261, -0.019851, -0.067501, 0.052296, 0.013612, -0.115171, 0.028000, -0.049412, -0.015067, 0.028871, 0.000000, 0.000000, 0.070956, -0.029240, 0.127224, 0.001733, -0.093616, 0.025642, -0.015362, 0.011092, 0.091050, -0.058771, -0.010368, 0.034315, -0.052903, -0.007301, 0.000000, 0.000000, -0.054678, -0.039994, -0.006612, 0.075803, -0.032686, 0.063623, 0.016753, -0.041812, -0.054155, 0.118912, 0.000300, -0.046939, 0.063870, -0.080229, 0.000000, 0.000000, 0.007313, 0.055646, 0.026137, 0.024878, 0.104979, -0.004866, 0.023766, -0.152192, 0.029907, -0.005952, -0.025823, 0.057501, 0.014184, 0.054207, 0.000000, 0.000000, -0.071941, 0.029185, -0.008063, -0.037858, 0.013409, 0.008021, 0.005965, -0.013571, -0.002925, -0.034959, -0.042358, 0.009099, 0.097402, 0.006398, 0.000000, 0.000000, -0.033970, 0.040702, 0.077982, 0.008485, -0.176352, 0.060484, 0.036073, 0.068747, 0.038899, 0.031465, -0.053150, 0.038780, -0.034756, -0.052933, 0.000000, 0.000000, -0.018140, 0.029586, -0.009456, -0.046034, -0.056009, 0.005639, -0.030284, -0.008324, -0.044559, 0.062705, 0.038492, -0.071011, -0.000438, -0.041118, 0.000000, 0.000000, 0.033870, 0.023910, 
-0.071459, 0.115885, -0.075592, -0.005335, 0.089704, -0.145341, -0.003196, -0.005032, -0.092988, 0.110250, 0.063330, 0.025571, 0.000000, 0.000000, -0.007262, 0.130617, 0.060102, -0.077654, 0.058499, -0.005621, -0.098423, 0.033826, -0.018763, 0.006308, 0.048637, -0.046905, 0.057803, 0.001264, 0.000000, 0.000000, 0.023990, -0.008543, 0.004907, 0.052943, 0.047967, -0.005862, 0.007563, -0.095666, -0.079737, 0.062296, -0.112531, 0.171748, 0.008329, -0.018220, 0.000000, 0.000000, -0.071680, -0.037462, 0.029987, -0.026559, 0.030394, -0.011024, -0.054074, 0.036998, 0.022640, -0.110840, 0.023613, -0.029469, -0.034033, 0.027017, 0.000000, 0.000000, 0.058633, -0.025345, 0.119099, 0.015724, -0.089454, 0.028474, -0.012638, 0.005999, 0.093072, -0.050117, -0.012475, 0.027094, -0.054778, -0.005309, 0.000000, 0.000000, -0.040776, -0.032998, 0.019884, 0.054707, -0.041364, 0.055431, 0.005212, -0.049835, -0.037198, 0.105810, 0.006401, -0.043736, 0.059203, -0.078518, 0.000000, 0.000000, 0.003051, 0.057966, 0.033398, 0.012757, 0.108549, -0.016156, 0.016104, -0.143551, 0.023700, 0.002533, -0.015168, 0.050554, 0.009911, 0.045824, 0.000000, 0.000000, -0.053869, 0.018866, -0.006610, -0.031337, 0.016826, 0.021521, 0.019537, -0.023091, -0.023222, -0.035575, -0.037258, 0.019292, 0.089932, -0.001520, 0.000000, 0.000000, -0.016755, 0.036551, 0.084410, 0.004951, -0.171616, 0.063366, 0.040297, 0.073962, 0.029261, 0.021738, -0.060581, 0.029511, -0.027342, -0.046042, 0.000000, 0.000000, -0.030879, 0.031801, -0.012123, -0.040939, -0.050829, 0.002388, -0.029858, -0.004375, -0.049275, 0.046021, 0.018315, -0.076780, 0.012388, -0.030920, 0.000000, 0.000000, 0.028709, 0.027801, 
-0.058492, 0.087107, -0.048984, -0.011392, 0.075171, -0.128905, -0.011995, 0.002766, -0.097963, 0.107308, 0.059042, 0.010565, 0.000000, 0.000000, 0.003620, 0.111764, 0.021276, -0.047906, 0.033926, 0.001583, -0.056344, 0.034726, -0.003446, -0.012573, 0.026897, -0.053485, 0.044350, 0.025928, 0.000000, 0.000000, 0.026210, 0.006347, 0.016000, 0.054008, 0.033182, -0.013783, 0.010070, -0.084080, -0.069408, 0.060744, -0.094940, 0.160557, 0.009888, -0.013373, 0.000000, 0.000000, -0.076018, -0.042109, 0.035833, -0.033684, 0.028279, -0.008248, -0.050057, 0.032475, 0.022026, -0.088979, 0.022146, -0.032230, -0.028420, 0.006830, 0.000000, 0.000000, 0.050961, -0.010327, 0.113632, 0.012786, -0.098352, 0.053940, -0.002542, 0.009480, 0.095194, -0.070375, -0.035271, 0.033334, -0.059125, -0.005441, 0.000000, 0.000000, -0.036310, -0.016869, 0.014917, 0.032654, -0.038558, 0.060090, 0.025488, -0.054230, -0.043820, 0.098617, -0.009343, -0.042878, 0.044162, -0.069008, 0.000000, 0.000000, 0.003024, 0.055690, 0.035239, 0.004976, 0.085699, -0.037094, -0.006700, -0.106513, 0.013370, 0.013765, 0.004101, 0.033770, 0.020184, 0.041863, 0.000000, 0.000000, -0.048746, 0.015550, -0.013496, -0.003117, -0.003850, 0.008917, 0.011899, -0.009533, -0.019122, -0.028800, -0.037953, 0.036470, 0.067040, 0.005854, 0.000000, 0.000000, -0.003535, 0.023247, 0.066585, 0.023730, -0.145100, 0.075804, 0.046960, 0.047173, 0.036278, 0.009801, -0.057475, 0.026088, -0.014561, -0.048486, 0.000000, 0.000000, -0.028668, 0.031634, -0.002372, -0.053235, -0.038208, 0.002865, -0.036314, -0.002068, -0.042907, 0.038540, 0.031388, -0.072838, 0.011925, -0.025293, 0.000000, 0.000000, 0.027113, 0.042230, 
-0.065806, 0.060930, -0.046949, -0.030439, 0.080712, -0.134983, 0.007294, 0.030363, -0.062313, 0.088910, 0.057764, 0.006740, 0.000000, 0.000000, 0.005637, 0.088546, 0.008785, -0.049648, 0.036189, -0.001337, -0.055841, 0.009908, -0.009407, 0.000392, 0.028446, -0.026629, 0.042611, 0.003560, 0.000000, 0.000000, 0.027774, 0.001396, 0.020973, 0.053330, 0.022948, 0.010933, 0.014332, -0.071577, -0.053307, 0.040608, -0.086639, 0.138372, 0.008039, -0.013490, 0.000000, 0.000000, -0.065745, -0.035705, 0.027699, -0.029226, 0.018058, -0.005198, -0.025152, 0.018790, 0.031820, -0.076746, -0.004401, 0.000143, -0.041826, 0.010767, 0.000000, 0.000000, 0.056366, -0.018724, 0.104975, 0.003786, -0.097902, 0.046461, -0.003268, 0.026123, 0.078713, -0.063547, -0.020805, 0.012555, -0.040378, -0.018259, 0.000000, 0.000000, -0.029462, -0.020040, 0.035068, 0.015532, -0.040324, 0.054895, -0.010362, -0.042087, -0.040066, 0.091271, 0.003122, -0.043843, 0.032074, -0.053515, 0.000000, 0.000000, -0.004788, 0.069089, 0.038539, 0.007990, 0.074984, -0.023522, 0.013151, -0.091707, 0.009745, 0.017889, -0.029151, 0.040984, 0.017850, 0.027706, 0.000000, 0.000000, -0.054387, 0.004533, 0.012543, -0.010242, 0.021998, 0.010930, 0.001321, -0.009924, -0.028417, -0.010608, -0.041652, 0.032189, 0.045577, -0.001480, 0.000000, 0.000000, -0.006469, 0.009235, 0.069977, 0.032132, -0.138024, 0.067994, 0.021088, 0.028678, 0.030873, 0.001151, -0.003936, 0.023478, -0.007205, -0.051441, 0.000000, 0.000000, -0.038158, 0.019849, -0.007458, -0.068526, -0.050567, 0.019319, -0.001902, 0.001564, -0.023952, 0.039127, 0.020251, -0.076278, 0.015599, -0.048086, 0.000000, 0.000000, 0.020798, 0.043914, 
-0.056223, 0.061402, -0.050054, -0.020421, 0.052355, -0.129605, 0.000898, 0.023033, -0.053531, 0.087844, 0.068554, 0.002759, 0.000000, 0.000000, -0.026182, 0.087971, 0.020753, -0.068483, 0.040284, -0.007587, -0.042658, 0.015569, -0.024188, 0.018906, 0.015543, -0.013680, 0.034115, 0.002359, 0.000000, 0.000000, 0.029895, 0.000220, 0.028763, 0.035525, 0.021658, 0.007256, 0.008635, -0.069382, -0.050798, 0.047048, -0.077759, 0.127417, 0.010707, -0.017675, 0.000000, 0.000000, -0.060030, -0.032252, 0.024024, -0.030932, 0.015020, -0.003101, -0.018584, 0.015509, 0.036268, -0.072339, -0.005777, 0.002902, -0.046947, -0.000482, 0.000000, 0.000000, 0.061578, -0.026841, 0.099393, 0.005830, -0.086686, 0.044332, -0.004249, 0.021458, 0.076932, -0.067806, -0.009499, 0.004380, -0.039452, -0.014594, 0.000000, 0.000000, -0.027633, -0.018586, 0.019175, 0.008566, -0.038335, 0.051801, -0.005655, -0.017451, -0.048219, 0.082302, -0.001284, -0.035963, 0.034390, -0.062951, 0.000000, 0.000000, 0.001052, 0.066831, 0.026784, 0.010876, 0.067152, -0.019380, 0.012506, -0.075536, -0.014802, 0.020643, -0.018566, 0.032921, 0.031251, 0.010805, 0.000000, 0.000000, -0.071374, 0.001794, 0.030429, -0.020235, 0.008618, 0.009477, -0.004912, -0.004247, -0.027235, 0.005744, -0.044839, 0.018148, 0.029120, 0.004961, 0.000000, 0.000000, -0.008952, 0.008132, 0.078000, 0.034461, -0.155589, 0.074205, 0.022502, 0.011567, 0.053178, -0.002800, 0.007362, 0.023274, -0.019664, -0.047892, 0.000000, 0.000000, -0.025876, 0.013416, -0.007158, -0.065356, -0.042810, 0.033651, -0.005910, 0.005508, -0.030077, 0.025379, 0.015199, -0.077536, 0.030725, -0.045455, 0.000000, 0.000000, 0.015723, 0.064380, 
-0.047597, 0.061828, -0.052849, -0.011404, 0.026834, -0.124766, -0.004859, 0.016437, -0.045627, 0.086885, 0.078266, -0.000823, 0.000000, 0.000000, -0.054819, 0.087454, 0.031524, -0.085434, 0.043970, -0.013212, -0.030794, 0.020664, -0.037490, 0.035569, 0.003929, -0.002027, 0.026469, 0.001277, 0.000000, 0.000000, 0.031804, -0.000838, 0.035774, 0.019500, 0.020497, 0.003947, 0.003507, -0.067407, -0.048541, 0.052843, -0.069767, 0.117557, 0.013108, -0.021440, 0.000000, 0.000000, -0.054886, -0.029145, 0.020716, -0.032467, 0.012287, -0.001214, -0.012673, 0.012557, 0.040272, -0.068373, -0.007015, 0.005385, -0.051556, -0.010606, 0.000000, 0.000000, 0.066269, -0.034146, 0.094369, 0.007670, -0.076591, 0.042415, -0.005132, 0.017260, 0.075330, -0.071638, 0.000676, -0.002977, -0.038618, -0.011296, 0.000000, 0.000000, -0.025986, -0.017277, 0.004871, 0.002297, -0.036546, 0.049017, -0.001419, 0.004722, -0.055556, 0.074229, -0.005249, -0.028870, 0.036475, -0.071444, 0.000000, 0.000000, 0.006308, 0.064799, 0.016205, 0.013474, 0.060103, -0.015652, 0.011925, -0.060981, -0.036893, 0.023121, -0.009039, 0.025666, 0.043312, -0.004406, 0.000000, 0.000000, -0.086662, -0.000671, 0.046527, -0.029229, -0.003423, 0.008170, -0.010522, 0.000862, -0.026170, 0.020461, -0.047707, 0.005511, 0.014308, 0.010759, 0.000000, 0.000000, -0.011186, 0.007139, 0.085221, 0.036557, -0.171397, 0.079794, 0.023774, -0.003832, 0.073252, -0.006356, 0.017529, 0.023090, -0.030877, -0.044697, 0.000000, 0.000000, -0.014822, 0.007626, -0.006889, -0.062503, -0.035829, 0.046549, -0.009518, 0.009057, -0.035589, 0.013006, 0.010651, -0.078669, 0.044339, -0.043086, 0.000000, 0.000000, 0.011155, 0.082799, 
0.003003, 0.006566, -0.007800, 0.006975, -0.020286, -0.008121, -0.005667, -0.004293, 0.002551, 0.007825, 0.016567, -0.003307, 0.000000, 0.000000, -0.031255, 0.008280, 0.012847, -0.023800, 0.007714, -0.006384, 0.007598, 0.006652, -0.015721, 0.018553, -0.010059, 0.010286, -0.004235, -0.000846, 0.000000, 0.000000, 0.004898, -0.001036, 0.009888, -0.012472, 0.001005, -0.002583, -0.004264, -0.004963, -0.002822, 0.010500, 0.000216, 0.002882, 0.003472, -0.005533, 0.000000, 0.000000, -0.000859, -0.000118, -0.000905, -0.004628, -0.001232, 0.001577, 0.004053, -0.001402, 0.007630, -0.003268, -0.001816, 0.002773, -0.009304, -0.010172, 0.000000, 0.000000, 0.010848, -0.009989, 0.004915, 0.002422, 0.001426, 0.002517, -0.001307, -0.002053, 0.006091, -0.010613, 0.009226, -0.006919, -0.003112, 0.001839, 0.000000, 0.000000, -0.001117, -0.000550, -0.012386, -0.005413, -0.002044, 0.002396, 0.003671, 0.020427, -0.012159, 0.000158, -0.004093, 0.003496, 0.005524, -0.014788, 0.000000, 0.000000, 0.005361, 0.004651, -0.007901, 0.003686, -0.000334, 0.001790, 0.000670, 0.007001, -0.023572, 0.004542, 0.007670, -0.003964, 0.015186, -0.014130, 0.000000, 0.000000, -0.022426, -0.002285, 0.019141, -0.011018, -0.011180, -0.000360, -0.006101, 0.004685, -0.001659, 0.015291, -0.007352, -0.010822, -0.011900, 0.006293, 0.000000, 0.000000, -0.003130, -0.000180, 0.015021, 0.005543, -0.031367, 0.013010, 0.003523, -0.014242, 0.025392, -0.003836, 0.010904, 0.002143, -0.013179, -0.001594, 0.000000, 0.000000, 0.008466, -0.004448, -0.000446, -0.003682, 0.002700, 0.016264, -0.004198, 0.004100, -0.008520, -0.009835, -0.003027, -0.008886, 0.016686, -0.002177, 0.000000, 0.000000, -0.002995, 0.024857, 
0.005706, 0.012475, -0.014820, 0.013252, -0.038543, -0.015430, -0.010767, -0.008157, 0.004846, 0.014868, 0.031477, -0.006283, 0.000000, 0.000000, -0.059385, 0.015732, 0.024409, -0.045220, 0.014657, -0.012130, 0.014437, 0.012638, -0.029870, 0.035252, -0.019112, 0.019543, -0.008046, -0.001607, 0.000000, 0.000000, 0.009307, -0.001969, 0.018786, -0.023697, 0.001909, -0.004908, -0.008102, -0.009429, -0.005363, 0.019950, 0.000410, 0.005476, 0.006597, -0.010513, 0.000000, 0.000000, -0.001632, -0.000224, -0.001719, -0.008794, -0.002340, 0.002997, 0.007701, -0.002663, 0.014497, -0.006209, -0.003451, 0.005269, -0.017677, -0.019327, 0.000000, 0.000000, 0.020612, -0.018979, 0.009339, 0.004603, 0.002709, 0.004782, -0.002484, -0.003900, 0.011573, -0.020165, 0.017528, -0.013147, -0.005912, 0.003494, 0.000000, 0.000000, -0.002122, -0.001045, -0.023534, -0.010284, -0.003884, 0.004552, 0.006974, 0.038812, -0.023103, 0.000299, -0.007778, 0.006642, 0.010495, -0.028098, 0.000000, 0.000000, 0.010186, 0.008836, -0.015012, 0.007003, -0.000635, 0.003401, 0.001272, 0.013301, -0.044787, 0.008630, 0.014573, -0.007531, 0.028854, -0.026848, 0.000000, 0.000000, -0.042609, -0.004342, 0.036368, -0.020933, -0.021242, -0.000683, -0.011593, 0.008901, -0.003152, 0.029054, -0.013969, -0.020562, -0.022610, 0.011957, 0.000000, 0.000000, -0.005947, -0.000341, 0.028539, 0.010531, -0.059598, 0.024719, 0.006693, -0.027061, 0.048245, -0.007289, 0.020717, 0.004073, -0.025040, -0.003029, 0.000000, 0.000000, 0.016086, -0.008451, -0.000848, -0.006997, 0.005130, 0.030901, -0.007977, 0.007791, -0.016188, -0.018686, -0.005752, -0.016883, 0.031704, -0.004136, 0.000000, 0.000000, -0.005691, 0.047229, 
-0.001099, 0.028367, -0.027606, 0.026196, -0.056093, -0.022906, 0.019003, -0.055331, -0.004193, 0.014739, 0.034138, 0.012870, 0.000000, 0.000000, -0.052846, 0.031531, 0.026112, -0.014597, 0.018283, -0.011494, 0.004484, -0.009266, -0.019241, 0.023293, -0.013368, 0.046744, -0.023055, 0.009628, 0.000000, 0.000000, 0.004477, -0.014930, 0.031138, -0.034123, 0.004562, -0.003933, -0.004191, -0.002647, -0.011650, 0.028137, -0.005246, 0.009973, 0.009987, -0.019416, 0.000000, 0.000000, -0.007845, -0.000621, 0.000818, -0.009769, 0.005204, -0.007067, 0.004285, -0.010342, 0.016359, 0.000939, -0.005532, 0.016880, -0.021792, -0.018627, 0.000000, 0.000000, 0.010041, -0.005298, 0.016206, 0.007455, -0.005629, 0.008369, -0.012967, -0.007587, 0.014720, -0.019757, 0.013564, -0.010924, -0.010606, 0.004457, 0.000000, 0.000000, 0.016542, -0.006575, -0.023403, -0.010711, 0.003215, 0.006050, 0.015184, 0.033507, -0.034544, -0.004397, -0.010271, 0.007898, 0.009565, -0.016832, 0.000000, 0.000000, 0.025795, 0.001972, -0.018886, 0.010971, -0.010573, 0.007151, 0.001041, 0.019005, -0.038869, 0.006331, 0.022413, -0.005791, 0.033152, -0.032602, 0.000000, 0.000000, -0.051728, -0.008460, 0.051282, -0.029721, -0.029504, 0.003792, -0.030471, 0.017950, -0.001380, 0.032625, -0.019141, -0.011372, -0.026156, 0.005518, 0.000000, 0.000000, -0.002462, 0.005648, 0.030942, 0.017151, -0.064770, 0.018746, 0.022484, -0.037113, 0.054836, -0.002452, 0.026548, 0.003825, -0.028595, -0.003478, 0.000000, 0.000000, 0.002650, -0.008705, -0.008261, -0.004138, 0.014031, 0.029304, 0.010397, 0.013989, -0.033882, -0.023385, -0.002531, -0.022872, 0.031251, -0.003020, 0.000000, 0.000000, -0.011891, 0.029626, 
-0.002015, 0.035535, -0.055425, 0.045660, -0.064181, -0.027916, 0.053874, -0.048357, 0.034324, -0.018206, 0.014419, -0.002201, 0.000000, 0.000000, -0.036766, 0.017301, 0.065894, -0.028957, 0.009072, -0.010732, -0.055262, 0.006923, -0.001667, 0.011820, 0.015208, 0.028804, -0.031783, 0.012707, 0.000000, 0.000000, -0.003782, -0.009305, 0.060880, -0.036883, -0.000049, -0.006967, -0.009399, 0.001486, -0.003874, 0.016849, -0.007208, -0.000701, 0.012477, -0.006307, 0.000000, 0.000000, -0.018918, 0.001743, 0.002224, -0.010882, 0.012808, -0.003332, -0.000741, 0.000323, 0.002084, -0.003065, 0.005576, 0.014337, -0.029620, -0.011311, 0.000000, 0.000000, 0.014918, -0.005540, 0.014892, 0.016881, -0.009231, 0.010311, -0.015071, -0.010715, 0.017353, -0.008046, 0.004880, 0.007139, -0.023699, -0.005931, 0.000000, 0.000000, 0.016265, -0.004318, -0.001520, -0.014798, -0.009285, 0.004159, -0.005401, 0.020064, -0.035735, 0.006398, 0.009550, 0.005120, 0.017412, -0.015350, 0.000000, 0.000000, 0.023999, -0.009321, -0.002741, 0.038033, -0.020393, -0.002341, -0.007158, 0.003880, -0.021071, 0.007086, 0.021502, -0.010563, 0.015504, -0.030383, 0.000000, 0.000000, -0.053365, -0.003385, 0.026805, -0.022325, -0.032069, 0.014964, -0.011242, 0.008060, 0.001341, 0.017300, -0.036657, -0.006820, -0.033439, 0.012855, 0.000000, 0.000000, -0.017461, 0.017324, 0.031196, -0.002533, -0.052311, 0.021352, 0.048417, -0.039688, 0.048894, -0.003268, 0.016216, 0.000786, -0.012081, -0.015535, 0.000000, 0.000000, 0.010948, -0.005148, 0.000894, -0.000921, 0.001007, 0.026352, -0.005110, 0.022929, -0.029791, -0.031120, 0.016821, -0.020214, 0.030304, 0.002514, 0.000000, 0.000000, 0.002411, 0.017197, 
0.001080, 0.069189, -0.040902, 0.025068, -0.042569, -0.094452, 0.044082, -0.016324, 0.052755, 0.010873, 0.013907, -0.011538, 0.000000, 0.000000, -0.024374, -0.007081, 0.021190, -0.032917, -0.006814, -0.007384, -0.013880, 0.022848, -0.001152, 0.011273, 0.015621, 0.021868, -0.046845, 0.017124, 0.000000, 0.000000, 0.009088, -0.003255, 0.059483, -0.031729, -0.001039, -0.006204, 0.001020, -0.004457, 0.004695, 0.015143, -0.031019, 0.007896, 0.004793, -0.006079, 0.000000, 0.000000, -0.025540, 0.005100, 0.018545, -0.025805, 0.019038, -0.005570, -0.000251, -0.003858, 0.002259, 0.007780, 0.013456, 0.033715, -0.048784, -0.005422, 0.000000, 0.000000, 0.022499, -0.001066, 0.019061, 0.012224, -0.009018, 0.012199, -0.018022, 0.002097, 0.003279, -0.008464, 0.021924, -0.005574, -0.007659, 0.009627, 0.000000, 0.000000, 0.018448, -0.014568, -0.024019, -0.021724, 0.006340, 0.002831, -0.001819, 0.016996, -0.036843, 0.003087, -0.003926, 0.008417, 0.020642, -0.020497, 0.000000, 0.000000, 0.011676, -0.011241, -0.005563, 0.050352, -0.026787, 0.007086, -0.022697, 0.008167, -0.031365, 0.000571, 0.025509, -0.006112, -0.000252, -0.028522, 0.000000, 0.000000, -0.048614, 0.002143, 0.053063, -0.023856, -0.046052, 0.005247, -0.033453, 0.024552, 0.000592, 0.013885, -0.014791, -0.021591, -0.047188, -0.000466, 0.000000, 0.000000, -0.009065, 0.023248, 0.043728, -0.003105, -0.065646, 0.022463, 0.077141, -0.033063, 0.037164, -0.007374, 0.005522, 0.001397, -0.015013, -0.017725, 0.000000, 0.000000, 0.015853, -0.017828, -0.005416, -0.009041, 0.002774, 0.026271, 0.001911, 0.028870, -0.037909, -0.013342, 0.008771, -0.028617, 0.037693, 0.020032, 0.000000, 0.000000, 0.003661, 0.005748, 
-0.004423, 0.075761, -0.045166, 0.013817, -0.031522, -0.105278, 0.064500, -0.011687, 0.010232, 0.023173, -0.003914, -0.001870, 0.000000, 0.000000, -0.026578, 0.021623, 0.009126, -0.039920, 0.008766, -0.009147, -0.003417, 0.035673, -0.015238, 0.024688, 0.015271, 0.014305, -0.024200, 0.004345, 0.000000, 0.000000, 0.001399, -0.001158, 0.066650, -0.028923, 0.003505, -0.006809, -0.001363, 0.002931, -0.003517, 0.019733, -0.025190, 0.003666, -0.003658, 0.005203, 0.000000, 0.000000, -0.029976, 0.005823, 0.022570, -0.025145, 0.024952, -0.002804, -0.023745, 0.003256, 0.001886, 0.000009, 0.037896, 0.021206, -0.046840, -0.004504, 0.000000, 0.000000, 0.017583, -0.000583, 0.020361, 0.003822, -0.024989, 0.020326, -0.006925, -0.006765, -0.000234, -0.012326, 0.023110, 0.000429, 0.001291, 0.003353, 0.000000, 0.000000, 0.005084, -0.015024, -0.030006, -0.026950, 0.003517, 0.012633, 0.014062, 0.027166, -0.026138, 0.011367, -0.007637, 0.003669, 0.013339, -0.018308, 0.000000, 0.000000, 0.017403, -0.003072, -0.000204, 0.048351, 0.005264, 0.007393, -0.008871, 0.003405, -0.021610, 0.001775, -0.007883, -0.001775, -0.005276, -0.018596, 0.000000, 0.000000, -0.034701, 0.008535, 0.037302, -0.000361, -0.046351, -0.004066, -0.040744, -0.007545, 0.006403, 0.007590, -0.008011, 0.012263, -0.045991, -0.010914, 0.000000, 0.000000, 0.002848, 0.011112, 0.034464, 0.013723, -0.067170, 0.038690, 0.065011, -0.035677, 0.037758, -0.028666, 0.024644, -0.004960, -0.010766, -0.001205, 0.000000, 0.000000, -0.000073, -0.024942, -0.017823, -0.021514, 0.004118, 0.034570, 0.022849, 0.023866, -0.022199, -0.010138, 0.005733, -0.040625, 0.027906, 0.019592, 0.000000, 0.000000, -0.003244, 0.018959, 
-0.012103, 0.071749, -0.038848, 0.022338, -0.021131, -0.111592, 0.057546, -0.011731, 0.021175, 0.008080, -0.001481, -0.007436, 0.000000, 0.000000, -0.022069, 0.020614, 0.009711, -0.068107, 0.009673, 0.004226, -0.007186, 0.072097, -0.013375, 0.003080, -0.003103, 0.009465, -0.039255, 0.022726, 0.000000, 0.000000, 0.012540, -0.010599, 0.067428, -0.023522, 0.009520, -0.014372, 0.002206, -0.007933, -0.000285, 0.030135, -0.031107, 0.011938, -0.006764, 0.003585, 0.000000, 0.000000, -0.035192, 0.006920, 0.013947, -0.034599, 0.032429, -0.013556, -0.010923, 0.013398, -0.003447, 0.004566, 0.035717, 0.007437, -0.047725, -0.003605, 0.000000, 0.000000, 0.015830, -0.005425, 0.012413, 0.012386, -0.027006, 0.022018, 0.001993, -0.007388, -0.002631, -0.016278, 0.025332, -0.005109, 0.001572, -0.005344, 0.000000, 0.000000, 0.001406, -0.017836, -0.033536, -0.025383, -0.002096, 0.019917, 0.017240, 0.024208, -0.021500, 0.010241, -0.008911, -0.005512, 0.015585, -0.011391, 0.000000, 0.000000, 0.026024, -0.000918, -0.000791, 0.062538, -0.006792, 0.015209, 0.001102, -0.017720, -0.018255, -0.004814, -0.001776, 0.003944, -0.017680, -0.011653, 0.000000, 0.000000, -0.034728, 0.015347, 0.045587, -0.000096, -0.044400, 0.005003, -0.050648, 0.003925, -0.009742, 0.013078, -0.003387, 0.015023, -0.044302, -0.012686, 0.000000, 0.000000, 0.010348, 0.011592, 0.031939, 0.010211, -0.056478, 0.029142, 0.070919, -0.032057, 0.034552, -0.027456, 0.018909, -0.013369, 0.002928, 0.001948, 0.000000, 0.000000, 0.002742, -0.026134, -0.022867, -0.016322, -0.004411, 0.030894, 0.017591, 0.012347, -0.006566, -0.018469, 0.000250, -0.029315, 0.009849, 0.023000, 0.000000, 0.000000, -0.006791, 0.014715, 
-0.005805, 0.069893, -0.024129, 0.001499, -0.012888, -0.111704, 0.040546, 0.013211, 0.001415, 0.016774, 0.001926, -0.016880, 0.000000, 0.000000, -0.011311, 0.022370, 0.015206, -0.058289, 0.016314, 0.011821, -0.017750, 0.067569, -0.003853, -0.014332, 0.005750, 0.011772, -0.043092, 0.029196, 0.000000, 0.000000, 0.002328, -0.006850, 0.071255, -0.030431, 0.013265, -0.013610, 0.003825, -0.007226, 0.004176, 0.031721, -0.032981, 0.014246, -0.006844, 0.004628, 0.000000, 0.000000, -0.049559, 0.009299, 0.014429, -0.033533, 0.034873, -0.014716, -0.009490, 0.011262, -0.009452, 0.008262, 0.039830, 0.009354, -0.050662, -0.000799, 0.000000, 0.000000, 0.020503, -0.009306, 0.011842, 0.010135, -0.017548, 0.016309, -0.003815, 0.007188, -0.008473, -0.021236, 0.023191, -0.020024, -0.001236, -0.001303, 0.000000, 0.000000, 0.004176, -0.014656, -0.043986, -0.028040, 0.001874, 0.026460, 0.038421, 0.016328, -0.020800, 0.005621, -0.008753, -0.006192, 0.008021, -0.004985, 0.000000, 0.000000, 0.022740, 0.003441, 0.009270, 0.046936, -0.013976, 0.019068, 0.009816, -0.026158, -0.012611, 0.001744, 0.003272, 0.008689, -0.002955, -0.021705, 0.000000, 0.000000, -0.032937, -0.003383, 0.041220, -0.001356, -0.048449, 0.012682, -0.036063, 0.004007, -0.011011, 0.016647, -0.020938, 0.022757, -0.048572, -0.014591, 0.000000, 0.000000, 0.018414, 0.010751, 0.030117, 0.014948, -0.043340, 0.017186, 0.060503, -0.023011, 0.034556, -0.025072, 0.021570, -0.024099, 0.000736, 0.004513, 0.000000, 0.000000, 0.002839, -0.014604, -0.019136, -0.012803, -0.003927, 0.023735, 0.002234, 0.007244, 0.000177, -0.016273, 0.006869, -0.028548, -0.003266, 0.024736, 0.000000, 0.000000, 0.002774, 0.009857, 
-0.019754, 0.073210, -0.018455, 0.008894, -0.000532, -0.105554, 0.030104, 0.003878, 0.009927, -0.000495, 0.015178, -0.008173, 0.000000, 0.000000, -0.010847, 0.018598, 0.020547, -0.051097, 0.024056, 0.007417, -0.017681, 0.052204, -0.015854, -0.011064, -0.012200, 0.041198, -0.054507, 0.035890, 0.000000, 0.000000, -0.003404, -0.000576, 0.063296, -0.023883, 0.007393, -0.007683, 0.006964, -0.006232, -0.004167, 0.024548, -0.040194, 0.019497, -0.003311, 0.003508, 0.000000, 0.000000, -0.052602, 0.013974, 0.011793, -0.027017, 0.028360, -0.023777, -0.016047, 0.012955, -0.010310, 0.025198, 0.032795, 0.003327, -0.047968, -0.003098, 0.000000, 0.000000, 0.018115, -0.009570, 0.008881, 0.003634, -0.008077, 0.009616, 0.009763, -0.005819, -0.000041, -0.010973, 0.041454, -0.025539, 0.002301, -0.001157, 0.000000, 0.000000, 0.009936, -0.022870, -0.019290, -0.026874, -0.008139, 0.024831, 0.024749, 0.002065, -0.015341, 0.009499, -0.005671, 0.007733, -0.001059, -0.011793, 0.000000, 0.000000, 0.022357, 0.003278, 0.022358, 0.030740, -0.027375, 0.008483, 0.008356, -0.021266, -0.004423, 0.007672, -0.015543, 0.024065, -0.002176, -0.022936, 0.000000, 0.000000, -0.030153, 0.003631, 0.024098, 0.004966, -0.044598, -0.004889, -0.056858, 0.019442, -0.004151, 0.013679, -0.006353, 0.013532, -0.044957, -0.005131, 0.000000, 0.000000, 0.012563, 0.020578, 0.029997, 0.030891, -0.037088, 0.017148, 0.041886, -0.030610, 0.028095, -0.031455, 0.032943, -0.030572, 0.009498, -0.001447, 0.000000, 0.000000, -0.005217, -0.023055, -0.005937, -0.014236, -0.007376, 0.037319, 0.009878, 0.007824, -0.010994, -0.002525, -0.007532, -0.026133, -0.001287, 0.006666, 0.000000, 0.000000, 0.017244, 0.004998, 
-0.032308, 0.076196, -0.013348, 0.015551, 0.010588, -0.100019, 0.020707, -0.004522, 0.017588, -0.016037, 0.027104, -0.000336, 0.000000, 0.000000, -0.010429, 0.015203, 0.025355, -0.044623, 0.031024, 0.003454, -0.017619, 0.038376, -0.026656, -0.008123, -0.028354, 0.067680, -0.064781, 0.041915, 0.000000, 0.000000, -0.008563, 0.005071, 0.056133, -0.017990, 0.002108, -0.002348, 0.009789, -0.005337, -0.011675, 0.018092, -0.046686, 0.024222, -0.000131, 0.002501, 0.000000, 0.000000, -0.055341, 0.018182, 0.009420, -0.021153, 0.022499, -0.031932, -0.021948, 0.014478, -0.011083, 0.040441, 0.026463, -0.002098, -0.045543, -0.005166, 0.000000, 0.000000, 0.015966, -0.009808, 0.006217, -0.002216, 0.000448, 0.003591, 0.021984, -0.017526, 0.007547, -0.001737, 0.057891, -0.030503, 0.005484, -0.001025, 0.000000, 0.000000, 0.015121, -0.030262, 0.002936, -0.025825, -0.017151, 0.023365, 0.012445, -0.010772, -0.010427, 0.012990, -0.002897, 0.020266, -0.009231, -0.017919, 0.000000, 0.000000, 0.022011, 0.003132, 0.034138, 0.016165, -0.039434, -0.001043, 0.007043, -0.016864, 0.002947, 0.013007, -0.032477, 0.037904, -0.001476, -0.024045, 0.000000, 0.000000, -0.027647, 0.009944, 0.008688, 0.010655, -0.041131, -0.020703, -0.075574, 0.033334, 0.002023, 0.011007, 0.006773, 0.005230, -0.041703, 0.003383, 0.000000, 0.000000, 0.007298, 0.029422, 0.029888, 0.045239, -0.031460, 0.017113, 0.025131, -0.037449, 0.022281, -0.037200, 0.043179, -0.036398, 0.017383, -0.006811, 0.000000, 0.000000, -0.012467, -0.030660, 0.005943, -0.015526, -0.010481, 0.049544, 0.016757, 0.008346, -0.021048, 0.009848, -0.020492, -0.023959, 0.000494, -0.009597, 0.000000, 0.000000, 0.030268, 0.000624, 
-0.029781, 0.063307, -0.009435, 0.034931, 0.024365, -0.094600, 0.005238, -0.021980, -0.009055, -0.007130, 0.032851, -0.002242, 0.000000, 0.000000, -0.008247, 0.020258, 0.016927, -0.052665, 0.034758, -0.001211, -0.006176, 0.054384, -0.034927, 0.003974, -0.033551, 0.051120, -0.050237, 0.032986, 0.000000, 0.000000, -0.008739, 0.005091, 0.056255, -0.015007, 0.004032, 0.000176, 0.012340, -0.009169, -0.010795, 0.011672, -0.045710, 0.019675, 0.002609, 0.011520, 0.000000, 0.000000, -0.057274, 0.021252, 0.002190, -0.020027, 0.014889, -0.015930, -0.007465, 0.004577, 0.009783, 0.021663, 0.015847, -0.005443, -0.040272, -0.002386, 0.000000, 0.000000, 0.011921, -0.001411, 0.019277, -0.009300, 0.004255, 0.014850, 0.019933, -0.015396, 0.008378, -0.000718, 0.050946, -0.027513, 0.007042, -0.009792, 0.000000, 0.000000, 0.016375, -0.023604, -0.004507, -0.025368, -0.026738, 0.025714, 0.011392, -0.003717, -0.021850, 0.013428, 0.006576, 0.018921, -0.002848, -0.012477, 0.000000, 0.000000, 0.022188, 0.004222, 0.033727, 0.028248, -0.038132, -0.005728, 0.001779, -0.027763, -0.010932, 0.004552, -0.018859, 0.022776, -0.005730, 0.004883, 0.000000, 0.000000, -0.027755, 0.011284, 0.019860, 0.013594, -0.038826, -0.015935, -0.071133, 0.037653, 0.002230, 0.013992, -0.006710, 0.013578, -0.039962, 0.000058, 0.000000, 0.000000, -0.006070, 0.033994, 0.033110, 0.046821, -0.037741, 0.030504, 0.033622, -0.032074, 0.041010, -0.037246, 0.024793, -0.019067, 0.017572, -0.026238, 0.000000, 0.000000, -0.022188, -0.030806, -0.002920, -0.015973, -0.011462, 0.048670, 0.022656, 0.005190, -0.027887, 0.008492, -0.012654, -0.030059, 0.002862, -0.018315, 0.000000, 0.000000, 0.042320, -0.001677, 
-0.008486, 0.060001, -0.004515, 0.027424, 0.007373, -0.094137, 0.006227, -0.023151, 0.004874, -0.034703, 0.041515, 0.000022, 0.000000, 0.000000, -0.007294, 0.023623, 0.029295, -0.036076, 0.027372, 0.002881, -0.011530, 0.031284, -0.030082, -0.001949, -0.029111, 0.043247, -0.047734, 0.030341, 0.000000, 0.000000, -0.007262, 0.009138, 0.057567, -0.014169, 0.007892, -0.001623, 0.012648, 0.003311, -0.010034, 0.003810, -0.056204, 0.019136, 0.000161, 0.011166, 0.000000, 0.000000, -0.057944, 0.017994, -0.007568, -0.021248, 0.018208, -0.015032, 0.004832, 0.003208, 0.008153, 0.007853, 0.009788, 0.005523, -0.042041, -0.005985, 0.000000, 0.000000, 0.021904, 0.004340, 0.024188, -0.018913, 0.006884, 0.014408, 0.028283, -0.006181, -0.003625, 0.000202, 0.053366, -0.032404, 0.011441, -0.019671, 0.000000, 0.000000, 0.003851, -0.015718, -0.009526, -0.020631, -0.020079, 0.022096, -0.001107, -0.004493, -0.018109, 0.016346, 0.018271, 0.016184, -0.018156, 0.001790, 0.000000, 0.000000, 0.010935, -0.007416, 0.024727, 0.029378, -0.048950, -0.000150, -0.006453, -0.029776, -0.002673, 0.009455, -0.030364, 0.027413, -0.014581, 0.004141, 0.000000, 0.000000, -0.021649, 0.002118, 0.015191, 0.016388, -0.048085, -0.012984, -0.068381, 0.042876, -0.005625, 0.013057, 0.007079, -0.008660, -0.027901, -0.000034, 0.000000, 0.000000, -0.005391, 0.038412, 0.039040, 0.050840, -0.023390, 0.016628, 0.042302, -0.026411, 0.051993, -0.044737, 0.027412, -0.020590, 0.015621, -0.020192, 0.000000, 0.000000, -0.018115, -0.019606, 0.009788, -0.031733, -0.003872, 0.052022, 0.018859, 0.007548, -0.036602, 0.013946, -0.019776, -0.016173, -0.004456, -0.026405, 0.000000, 0.000000, 0.050126, 0.002932, 
-0.012638, 0.045264, 0.008557, 0.026448, 0.007999, -0.086309, 0.006108, -0.038505, -0.007867, -0.020013, 0.039248, 0.004362, 0.000000, 0.000000, -0.008467, 0.023698, 0.028169, -0.027413, 0.040602, -0.003675, -0.014908, 0.025710, -0.029084, -0.007337, -0.033553, 0.052891, -0.047810, 0.026446, 0.000000, 0.000000, -0.013310, 0.014892, 0.045360, -0.011678, 0.006078, -0.001177, 0.012645, -0.000609, -0.014791, 0.003275, -0.062448, 0.025036, 0.005759, 0.010013, 0.000000, 0.000000, -0.061316, 0.015547, -0.000145, -0.025171, 0.015136, -0.015712, 0.012133, -0.000492, 0.015220, 0.017735, 0.007641, 0.008804, -0.043777, 0.000569, 0.000000, 0.000000, 0.009235, 0.001650, 0.021146, 0.001782, -0.005904, 0.021739, 0.031336, -0.022222, 0.004888, 0.001585, 0.068035, -0.040933, -0.000073, -0.014532, 0.000000, 0.000000, 0.012496, -0.023931, -0.003588, -0.040787, -0.004457, 0.013419, 0.000668, 0.006040, -0.022607, 0.021040, 0.028773, 0.011598, -0.015217, -0.000266, 0.000000, 0.000000, 0.019124, -0.013881, 0.011143, 0.037619, -0.038728, 0.002980, -0.009344, -0.028779, -0.020779, 0.018507, -0.044594, 0.038729, -0.003394, -0.005192, 0.000000, 0.000000, -0.038591, 0.006353, 0.027838, 0.016981, -0.051223, -0.010982, -0.078024, 0.040451, 0.001957, 0.012808, 0.012794, -0.010927, -0.026988, 0.001997, 0.000000, 0.000000, 0.006866, 0.019370, 0.049963, 0.037768, -0.023941, 0.017127, 0.039425, -0.026543, 0.057383, -0.048937, 0.024097, -0.018939, 0.006922, -0.012701, 0.000000, 0.000000, -0.006239, -0.021784, 0.003604, -0.025802, -0.009465, 0.042969, 0.004938, 0.008213, -0.038166, 0.019760, -0.013511, -0.008162, -0.008098, -0.031383, 0.000000, 0.000000, 0.044737, 0.011657, 
-0.023419, 0.046212, 0.003412, 0.029188, 0.032592, -0.094421, 0.014922, -0.045696, -0.019553, -0.008831, 0.038449, 0.001969, 0.000000, 0.000000, -0.015504, 0.032293, 0.030938, -0.013508, 0.044711, 0.002149, -0.019207, 0.004888, -0.030735, -0.003830, -0.022623, 0.054526, -0.033727, 0.011976, 0.000000, 0.000000, -0.010755, 0.005419, 0.039729, -0.009357, 0.013491, -0.002003, 0.016846, -0.006436, -0.012875, 0.000414, -0.071161, 0.033337, -0.000638, 0.007805, 0.000000, 0.000000, -0.070757, 0.018605, 0.011646, -0.019083, 0.018049, -0.020481, 0.004025, -0.009063, 0.010138, 0.020632, 0.006625, 0.018294, -0.047274, 0.001648, 0.000000, 0.000000, 0.007714, 0.000160, 0.022713, 0.024734, -0.014705, 0.039216, 0.026649, -0.010973, 0.003997, -0.012685, 0.064932, -0.048935, -0.005477, -0.008905, 0.000000, 0.000000, 0.016665, -0.024588, -0.014487, -0.040658, -0.016528, 0.020255, 0.011878, 0.025091, -0.026130, 0.020657, 0.038198, -0.001671, -0.011924, -0.010124, 0.000000, 0.000000, 0.024486, -0.020027, 0.018551, 0.034888, -0.023452, -0.014233, -0.017092, -0.023202, -0.015416, 0.025608, -0.036322, 0.034558, -0.005237, -0.010225, 0.000000, 0.000000, -0.042165, 0.005220, 0.018055, 0.022033, -0.049172, 0.001908, -0.092812, 0.031502, -0.007970, 0.015675, 0.007868, -0.001308, -0.023036, 0.004542, 0.000000, 0.000000, -0.004537, 0.032546, 0.052224, 0.025423, -0.028887, 0.023651, 0.038614, -0.018251, 0.058182, -0.046107, 0.015277, -0.013080, 0.005459, -0.008658, 0.000000, 0.000000, -0.011677, -0.027976, 0.011580, -0.024561, -0.012415, 0.032946, 0.012094, 0.001029, -0.036103, 0.038899, -0.007475, -0.001874, -0.019200, -0.023092, 0.000000, 0.000000, 0.038313, 0.013902, 
-0.041498, 0.083694, -0.007032, 0.025146, 0.014195, -0.120668, 0.028461, -0.043730, -0.021730, 0.010338, 0.019495, 0.003769, 0.000000, 0.000000, -0.005632, 0.057341, 0.034356, -0.010861, 0.025152, 0.012846, -0.015482, 0.010622, -0.019223, -0.024907, -0.041064, 0.045727, -0.031330, 0.024066, 0.000000, 0.000000, -0.000613, 0.016009, 0.033202, 0.000244, -0.007391, 0.007611, 0.039687, -0.025206, 0.008584, -0.010848, -0.052705, 0.026823, -0.007998, 0.014522, 0.000000, 0.000000, -0.057777, 0.002838, 0.005756, -0.008726, 0.009598, -0.007805, 0.020310, -0.028425, 0.005684, 0.017523, -0.004777, 0.023351, -0.043264, 0.006585, 0.000000, 0.000000, 0.007175, 0.007517, 0.034091, 0.030750, 0.001057, 0.020950, 0.016361, 0.000102, 0.002426, -0.005332, 0.057181, -0.044645, -0.007588, -0.005038, 0.000000, 0.000000, 0.001639, -0.021124, -0.014434, -0.049400, -0.003651, 0.027859, 0.012601, 0.032741, -0.022491, 0.006623, 0.040502, -0.000127, -0.008004, -0.009510, 0.000000, 0.000000, 0.021105, -0.023345, 0.023272, 0.029072, -0.026756, -0.000313, -0.020169, -0.011258, -0.006894, 0.011870, -0.027913, 0.027035, -0.002675, -0.003543, 0.000000, 0.000000, -0.045976, 0.000999, 0.023015, 0.008742, -0.041406, 0.001038, -0.117347, 0.045740, -0.017073, 0.013501, 0.005554, -0.014121, -0.011760, 0.004662, 0.000000, 0.000000, -0.002421, 0.037496, 0.053993, 0.029435, -0.034925, 0.013958, 0.054936, -0.019081, 0.051153, -0.025692, -0.001938, -0.009326, -0.006999, 0.001050, 0.000000, 0.000000, -0.011563, -0.031905, 0.010856, -0.025300, -0.013445, 0.026996, 0.014797, -0.015166, -0.030219, 0.035703, -0.002382, 0.008995, -0.031770, -0.015289, 0.000000, 0.000000, 0.043055, 0.014594, 
-0.057769, 0.117427, -0.016431, 0.021509, -0.002362, -0.144291, 0.040646, -0.041961, -0.023689, 0.027590, 0.002437, 0.005389, 0.000000, 0.000000, 0.003253, 0.079885, 0.037432, -0.008478, 0.007549, 0.022474, -0.012129, 0.015782, -0.008862, -0.043876, -0.057662, 0.037807, -0.029172, 0.034948, 0.000000, 0.000000, 0.008515, 0.025539, 0.027328, 0.008884, -0.026185, 0.016263, 0.060243, -0.042098, 0.027897, -0.020984, -0.036096, 0.020961, -0.014622, 0.020568, 0.000000, 0.000000, -0.046094, -0.011352, 0.000454, 0.000596, 0.001993, 0.003603, 0.034966, -0.045851, 0.001676, 0.014725, -0.015040, 0.027904, -0.039654, 0.011027, 0.000000, 0.000000, 0.006689, 0.014138, 0.044331, 0.036164, 0.015244, 0.004511, 0.007102, 0.010069, 0.001012, 0.001287, 0.050205, -0.040784, -0.009489, -0.001557, 0.000000, 0.000000, -0.011884, -0.018006, -0.014386, -0.057268, 0.007938, 0.034703, 0.013252, 0.039626, -0.019215, -0.006008, 0.042576, 0.001262, -0.004476, -0.008956, 0.000000, 0.000000, 0.018062, -0.026331, 0.027521, 0.023837, -0.029730, 0.012214, -0.022938, -0.000508, 0.000775, -0.000494, -0.020346, 0.020264, -0.000370, 0.002470, 0.000000, 0.000000, -0.049405, -0.002801, 0.027479, -0.003221, -0.034416, 0.000255, -0.139428, 0.058554, -0.025265, 0.011544, 0.003470, -0.025653, -0.001612, 0.004770, 0.000000, 0.000000, -0.000516, 0.041952, 0.055585, 0.033045, -0.040359, 0.005234, 0.069626, -0.019828, 0.044827, -0.007319, -0.017432, -0.005947, -0.018211, 0.009787, 0.000000, 0.000000, -0.011461, -0.035440, 0.010205, -0.025965, -0.014371, 0.021642, 0.017229, -0.029741, -0.024924, 0.032827, 0.002202, 0.018777, -0.043084, -0.008267, 0.000000, 0.000000, 0.047322, 0.015217, 
-0.052142, 0.115320, -0.000733, 0.010480, 0.006521, -0.155658, 0.023304, -0.032753, -0.035237, 0.049018, 0.004719, 0.010480, 0.000000, 0.000000, -0.004908, 0.070992, 0.019949, 0.005027, 0.002595, 0.032306, 0.003185, 0.006149, -0.016168, -0.050858, -0.061400, 0.033462, -0.019201, 0.041216, 0.000000, 0.000000, 0.008189, 0.031577, 0.025423, 0.005992, -0.024428, 0.017672, 0.059770, -0.037088, 0.024725, -0.027803, -0.043971, 0.026290, -0.006309, 0.019286, 0.000000, 0.000000, -0.061613, -0.015725, 0.006013, -0.002210, 0.000091, 0.006195, 0.034063, -0.041153, -0.003415, 0.015575, -0.014845, 0.033036, -0.051480, 0.014577, 0.000000, 0.000000, 0.014830, 0.019952, 0.038804, 0.030103, 0.013790, -0.002732, 0.005058, 0.021268, -0.003957, 0.006594, 0.043953, -0.051297, 0.001375, -0.016059, 0.000000, 0.000000, -0.014264, -0.015821, -0.009528, -0.048848, 0.012097, 0.027264, 0.004837, 0.035162, -0.012505, -0.005410, 0.052920, -0.001482, -0.002491, -0.019411, 0.000000, 0.000000, 0.011403, -0.019946, 0.026264, 0.033196, -0.036007, 0.012399, -0.010640, -0.006517, 0.002720, 0.008530, -0.017945, 0.018968, -0.001299, -0.002804, 0.000000, 0.000000, -0.048188, 0.002391, 0.031881, -0.022548, -0.033376, 0.014389, -0.143168, 0.068365, -0.025102, 0.002162, 0.005640, -0.031908, 0.005759, 0.008731, 0.000000, 0.000000, 0.002884, 0.031562, 0.055447, 0.026712, -0.032193, 0.016881, 0.056936, -0.020616, 0.026746, -0.021388, -0.015792, -0.010825, -0.011225, 0.012345, 0.000000, 0.000000, -0.011201, -0.038042, 0.006485, -0.016667, -0.004538, 0.010455, 0.017115, -0.029714, -0.029072, 0.031853, 0.005812, 0.021508, -0.045978, -0.014383, 0.000000, 0.000000, 0.046682, 0.018843, 
-0.067140, 0.128433, -0.024419, 0.049933, 0.041685, -0.180735, 0.046725, -0.061110, -0.043516, 0.044171, -0.002997, 0.022987, 0.000000, 0.000000, -0.009599, 0.077444, 0.010598, -0.028619, 0.000156, 0.047817, -0.013429, 0.062619, -0.022655, -0.066829, -0.032394, 0.008860, 0.000850, 0.037079, 0.000000, 0.000000, 0.008618, 0.013450, 0.027438, 0.008685, -0.027305, 0.005103, 0.054219, -0.027426, 0.024151, -0.015476, -0.039602, 0.018715, -0.006383, 0.014920, 0.000000, 0.000000, -0.061758, -0.012246, 0.010367, -0.001800, 0.007604, -0.004122, 0.028945, -0.042282, -0.008607, 0.026079, -0.013138, 0.030132, -0.041832, 0.018854, 0.000000, 0.000000, 0.017307, 0.016338, 0.056181, 0.038576, 0.011080, 0.003162, 0.027691, -0.005508, 0.006111, 0.005558, 0.021831, -0.037350, -0.002824, -0.013734, 0.000000, 0.000000, -0.011579, -0.010776, -0.030239, -0.036203, 0.007071, 0.033740, 0.012555, 0.025400, -0.006046, -0.015101, 0.043662, 0.002525, -0.009841, -0.019174, 0.000000, 0.000000, -0.005088, -0.007373, 0.022790, 0.024125, -0.037963, -0.000230, -0.006178, 0.003742, -0.001939, -0.006778, -0.021547, 0.014022, -0.013717, 0.010091, 0.000000, 0.000000, -0.045735, 0.011782, 0.055356, -0.034261, -0.035951, 0.009302, -0.138083, 0.076318, -0.036933, 0.030699, 0.000658, -0.042994, 0.018828, 0.006157, 0.000000, 0.000000, 0.005148, 0.007393, 0.060676, 0.039178, -0.026264, 0.002446, 0.065351, -0.032104, 0.029999, -0.012773, -0.021389, -0.014247, 0.002624, 0.015843, 0.000000, 0.000000, -0.020210, -0.037418, -0.007977, -0.018152, -0.012670, 0.011138, 0.029259, -0.033113, -0.022249, 0.023212, 0.009820, 0.024203, -0.053975, -0.010319, 0.000000, 0.000000, 0.043987, 0.040324, 
-0.065030, 0.141786, 0.004475, 0.026680, 0.043871, -0.180167, 0.004038, -0.027853, -0.061459, 0.062789, 0.013964, 0.022945, 0.000000, 0.000000, -0.019726, 0.086731, 0.018988, 0.004948, 0.010053, 0.047668, -0.030852, 0.041002, -0.038087, -0.065360, -0.014901, 0.005700, 0.009488, 0.040546, 0.000000, 0.000000, 0.008188, 0.002230, 0.028742, 0.001655, -0.017958, 0.006573, 0.056800, -0.028421, 0.029634, -0.019737, -0.036560, 0.017026, -0.012424, 0.022660, 0.000000, 0.000000, -0.059739, -0.019720, 0.008123, -0.007053, 0.004381, 0.002012, 0.026177, -0.029022, -0.012834, 0.021515, -0.009621, 0.024468, -0.043111, 0.011624, 0.000000, 0.000000, 0.016951, 0.011701, 0.055424, 0.067800, 0.009583, 0.009313, 0.021379, -0.020689, 0.007902, 0.013888, 0.021471, -0.025896, -0.010990, -0.012109, 0.000000, 0.000000, -0.001148, -0.007918, -0.026559, -0.031659, 0.008754, 0.034961, 0.020781, 0.007433, -0.003555, -0.020289, 0.035382, 0.002505, -0.000888, -0.008396, 0.000000, 0.000000, 0.004328, -0.007605, 0.029459, 0.019203, -0.039667, -0.001046, 0.019801, -0.011372, -0.001438, -0.011166, -0.032731, 0.017364, -0.022352, 0.001732, 0.000000, 0.000000, -0.037934, 0.002904, 0.032251, -0.010533, -0.043073, 0.016351, -0.115385, 0.059754, -0.032241, 0.029806, 0.003615, -0.031754, 0.014657, -0.012337, 0.000000, 0.000000, 0.006108, 0.000516, 0.058124, 0.044417, -0.022388, 0.005225, 0.050811, -0.025532, 0.032662, -0.000279, -0.020172, -0.011635, -0.003757, 0.010926, 0.000000, 0.000000, -0.028171, -0.028829, -0.001037, -0.030648, -0.009881, 0.007633, 0.026238, -0.017113, -0.027417, 0.017567, 0.017059, 0.013914, -0.055397, 0.000639, 0.000000, 0.000000, 0.037984, 0.040590, 
