52
8.5253061e-002
-2.4139849e-001
-2.1649624e-001
-1.9180789e-001
2.7927723e-001
-1.1558712e+000
9.4195485e-001
4.1819999e-003
5.2422644e-001
-5.9901175e-001
2.9142786e-001
-3.3036875e-001
0.0000000e+000
0.0000000e+000
-1.3765444e-001
-7.8632701e-002
7.2753442e-001
6.4061373e-002
-2.1672671e-001
3.1119276e-001
-8.1473117e-001
-3.9935137e-001
6.4480527e-001
-1.9156833e-001
3.7774327e-001
4.4298634e-001
-7.8698974e-001
3.2921088e-001
0.0000000e+000
0.0000000e+000
-2.0169206e-002
1.5703214e-001
3.7338673e-001
-2.6882061e-001
-1.6585959e-001
-1.2538006e-001
-4.8097776e-001
3.3050674e-001
-4.8834425e-003
1.8773867e-001
-1.5285142e-001
5.7615648e-002
-2.8325832e-001
2.5652163e-002
0.0000000e+000
0.0000000e+000
-1.1502376e-001
1.5569715e-002
4.4760515e-001
2.7664018e-002
-1.5105870e-001
3.1237581e-001
-6.2921255e-001
1.1914258e-001
-5.4867216e-001
4.1875544e-001
2.7705642e-001
-2.3329498e-001
1.8694776e-001
-1.7622358e-001
0.0000000e+000
0.0000000e+000
-1.2097034e-001
7.3244845e-002
-2.8129595e-001
-1.8988412e-001
-6.0932220e-002
-3.1808129e-001
-1.2830326e-001
3.6484502e-001
2.9521313e-002
-1.2001407e-001
3.5575464e-001
-1.5389137e-001
-2.2622172e-001
-5.3975560e-002
0.0000000e+000
0.0000000e+000
8.9313363e-002
3.3721278e-002
9.1781690e-002
-2.0235185e-001
2.4776713e-001
-6.5731146e-002
1.0589673e-001
-5.3807651e-002
1.5904144e-001
1.5152082e-001
-8.8887227e-002
3.0609354e-003
-4.1454596e-002
6.4724141e-003
0.0000000e+000
0.0000000e+000
4.7862156e-002
1.5686997e-001
2.2314746e-001
1.3116330e-001
-1.8208549e-003
5.4524601e-001
-8.5943543e-002
-2.5023774e-001
4.0409406e-002
-9.9464872e-003
-3.0275088e-001
-2.7419139e-002
2.4729525e-002
1.6886537e-001
0.0000000e+000
0.0000000e+000
-2.7963920e-002
-6.7322799e-002
8.1230209e-002
1.4556794e-001
-3.9379556e-001
2.2142269e-001
3.1250202e-001
-2.2495991e-001
1.9663075e-001
4.7164808e-002
-9.7091534e-002
-2.5939085e-001
-2.8583736e-001
-3.2806754e-002
0.0000000e+000
0.0000000e+000
1.6701382e-001
-1.1621189e-002
-4.5121098e-002
-2.5504167e-001
-4.7231123e-001
8.5454598e-002
-4.9726716e-002
2.1114324e-001
2.3030062e-001
6.0859333e-002
1.4172539e-001
4.5750036e-003
1.1230669e-001
-3.8437753e-003
0.0000000e+000
0.0000000e+000
-1.5123879e-001
7.1889634e-002
-4.3473131e-001
1.5580551e-001
-5.9852867e-002
-2.8137843e-002
2.4714841e-001
-2.4832340e-002
-3.1898017e-002
-1.6614279e-001
-1.4858771e-001
2.0078573e-001
2.6190292e-001
-1.9879846e-002
0.0000000e+000
0.0000000e+000
-1.8250864e-001
1.1929546e-001
56
-6.1756551e-001
0.0000000e+000
-2.1807049e-001
0.0000000e+000
6.1296533e-001
0.0000000e+000
0.0000000e+000
0.0000000e+000
0.0000000e+000
0.0000000e+000
4.7099822e-001
5.2693403e-001
0.0000000e+000
0.0000000e+000
0.0000000e+000
4.3778733e-002
-2.6355658e-002
0.0000000e+000
-2.3934359e-001
0.0000000e+000
0.0000000e+000
4.7025862e-001
-6.8102032e-001
2.5286857e-001
-2.8638119e-001
0.0000000e+000
5.9662903e-001
-1.8067194e-001
0.0000000e+000
0.0000000e+000
-1.2073626e-001
4.1732884e-001
6.4178575e-002
3.0757174e-001
2.3321659e-002
-3.4336148e-001
-1.6294303e-001
-6.8679308e-002
-6.4704558e-001
2.9895724e-001
-1.3445919e-001
2.7600572e-001
6.9012064e-001
1.2190476e-001
0.0000000e+000
0.0000000e+000
-2.6797135e-001
-2.7653277e-001
2.7585947e-001
2.3907202e-001
-1.5520048e-001
0.0000000e+000
-6.8556225e-001
8.4703025e-002
7.3191469e-001
-4.9626689e-001
4.9432103e-001
-3.7143983e-001
-4.7516416e-001
2.2616703e-001
0.0000000e+000
0.0000000e+000
1.8043094e-001
1.4522224e-001
-3.9758166e-002
7.5502612e-003
-2.9382765e-002
1.6511169e-001
-6.1154268e-001
-1.2660960e-001
-7.0154484e-002
-1.9972402e-002
-3.6696440e-002
-9.8757943e-002
-3.3419759e-001
6.9720390e-002
0.0000000e+000
0.0000000e+000
-1.4518858e-001
2.9941543e-001
8.2147553e-001
-6.5883468e-002
-1.0879252e-001
5.6538072e-001
0.0000000e+000
2.7574210e-001
-3.6518827e-001
2.1549382e-001
-2.0293665e-001
-7.4107984e-001
6.5041242e-001
-3.1279947e-001
0.0000000e+000
0.0000000e+000
-2.5612667e-001
1.2190084e-001
2.5568150e-002
1.7451441e-001
5.6538573e-001
-5.8950287e-001
0.0000000e+000
-2.3992403e-001
0.0000000e+000
0.0000000e+000
-3.0333400e-001
4.2208005e-001
4.9994179e-001
1.6393028e-001
0.0000000e+000
0.0000000e+000
-5.3395114e-001
4.9695862e-001
0.0000000e+000
-2.9115106e-001
8.7689203e-002
-4.3190856e-001
0.0000000e+000
-4.4921749e-001
0.0000000e+000
9.1307168e-002
5.5095531e-001
0.0000000e+000
8.3545303e-001
-7.9337471e-002
0.0000000e+000
0.0000000e+000
-4.8625321e-002
-1.6396178e-001
-1.1654399e-001
-4.1650789e-001
-7.7242684e-001
7.2571393e-001
5.1790680e-001
3.9504426e-001
-3.1835903e-001
1.3233354e-001
2.1320500e-002
3.6537459e-003
1.9716586e-001
-7.8953057e-001
0.0000000e+000
0.0000000e+000
1.2995323e-001
2.1950321e-001
-1.3308101e-001
-3.2382318e-001
-2.3144939e-001
-1.0520254e-001
7.6459990e-001
0.0000000e+000
4.0220349e-001
2.9788097e-001
-2.9989307e-001
-2.0461947e-001
-8.1351776e-001
-5.1059917e-002
0.0000000e+000
0.0000000e+000
2.8674153e-001
0.0000000e+000
50
49
1.3806995e-002
9.6362819e-003
-3.3067162e-002
5.2090655e-002
2.2452319e-001
-1.7724527e-001
1.2998002e-001
-1.0363292e-001
-2.1772392e-001
-8.6831939e-002
-1.1287952e-001
9.4999504e-002
0.0000000e+000
0.0000000e+000
1.2983740e-001
6.7333785e-002
-7.8321471e-002
-2.1069573e-001
6.1171238e-002
-4.1966659e-002
2.3454482e-001
-5.2383348e-002
1.7087924e-001
-3.6156710e-002
-1.2513389e-001
2.5707522e-001
-1.6952843e-001
-4.9660734e-004
0.0000000e+000
0.0000000e+000
-8.0925782e-003
-1.3287249e-001
9.0433445e-002
-7.7533933e-002
-3.6459662e-002
6.9896851e-002
-9.4107827e-002
5.8783119e-002
6.4106275e-002
2.5954117e-003
-4.4551737e-002
-3.2414886e-002
-3.0149208e-002
3.5107773e-003
0.0000000e+000
0.0000000e+000
-1.0239718e-001
1.6531502e-002
-6.2394134e-002
-5.0890360e-002
6.0875213e-002
-1.1511965e-002
1.1243247e-002
-2.5015428e-002
-8.7942599e-002
2.9687242e-002
4.2637868e-002
5.8320089e-003
-2.7226078e-002
5.1678865e-002
0.0000000e+000
0.0000000e+000
-3.1989191e-002
1.2801920e-003
2.1207046e-002
9.1965529e-003
5.4550222e-002
-9.0468540e-002
2.0862990e-002
-6.7611035e-002
-6.5727740e-002
2.3083988e-002
-6.3233450e-003
-1.8082176e-002
6.3149164e-002
-3.5905476e-002
0.0000000e+000
0.0000000e+000
-8.8858632e-002
1.9648631e-002
4.3675067e-002
-3.2392044e-002
2.5903485e-002
-1.2403903e-001
-1.9553646e-001
8.7112076e-002
4.9620386e-002
7.4301821e-002
1.3733379e-001
-2.0473237e-002
-1.0364905e-001
9.4528021e-003
0.0000000e+000
0.0000000e+000
-4.5735823e-002
-7.5773208e-003
1.0400503e-001
-5.8504075e-002
-7.5038616e-002
9.9511878e-002
-6.7869012e-002
-3.9195855e-002
1.3226674e-001
2.6841663e-002
-8.9875267e-002
-6.6020401e-002
-1.1304025e-001
2.9924964e-002
0.0000000e+000
0.0000000e+000
5.0956722e-003
1.2314552e-001
5.3671669e-002
2.1018796e-002
4.5324385e-002
6.0706517e-002
-1.1566542e-001
-4.1109399e-004
1.0948468e-001
-3.8504659e-002
-9.9343945e-002
6.4132670e-002
-2.0258942e-002
2.0663185e-002
0.0000000e+000
0.0000000e+000
1.5747492e-001
4.2660007e-002
1.0603729e-001
-7.4174585e-002
-1.1661566e-001
1.5626931e-002
-3.2654218e-002
1.5080372e-001
-1.0827063e-001
-1.3326631e-002
-1.2350358e-002
-8.8105769e-002
2.6420467e-002
2.4711980e-002
0.0000000e+000
0.0000000e+000
5.9044970e-002
8.5355133e-003
-2.2030082e-002
2.9285158e-002
-9.1054998e-003
2.2661677e-002
-2.1994569e-002
2.3086125e-002
-6.2572956e-002
6.5384044e-002
5.9679799e-002
-2.1854853e-002
-5.4703748e-002
-9.7914366e-003
0.0000000e+000
0.0000000e+000
-1.6458402e-001
6.3006619e-002
52
49
1.7949539e-002
-1.0936408e-001
6.5593377e-002
-1.2260992e-001
9.4099290e-003
7.2174306e-002
-1.0626918e-002
6.5106815e-002
-1.3162379e-001
1.3862271e-001
-6.7579087e-003
4.7041571e-002
0.0000000e+000
0.0000000e+000
-6.2694119e-002
3.3477662e-002
7.5860353e-003
-1.4905173e-001
1.0392120e-001
-9.6352383e-002
1.6382719e-001
-3.3091892e-002
1.8140037e-002
-2.6269374e-002
-9.2835540e-002
3.5273870e-002
7.4530460e-003
3.4703352e-002
0.0000000e+000
0.0000000e+000
3.3326708e-003
1.1889880e-002
1.1261608e-001
-5.5233460e-002
3.2268166e-002
6.4810413e-002
-1.0074139e-002
3.7876204e-002
-2.4908818e-002
-2.6854231e-002
-2.6224556e-002
-4.0198723e-002
5.8057238e-003
-4.3302414e-002
0.0000000e+000
0.0000000e+000
-9.1073379e-002
5.0463557e-002
-2.5108766e-002
-1.6562903e-002
8.2927397e-002
-5.6409889e-002
-2.6717382e-002
5.8382848e-002
-2.3339550e-002
3.1412725e-002
-3.9034621e-002
6.8957483e-002
-7.7487685e-002
-2.6290354e-002
0.0000000e+000
0.0000000e+000
4.2757520e-002
-1.0213579e-002
1.5473415e-002
-8.2290791e-002
5.2298612e-002
3.5029613e-002
-6.3289002e-002
-5.8956332e-003
-1.0580027e-002
-2.9398582e-002
-1.9372296e-002
1.4548055e-002
-1.5703292e-002
-4.3316969e-002
0.0000000e+000
0.0000000e+000
-9.3029632e-003
-1.2445468e-002
2.1758658e-002
1.8244326e-002
2.7831090e-002
5.0725089e-002
-1.3117609e-001
3.5230979e-003
5.5213970e-002
-2.0093086e-003
8.2468544e-002
-1.1826913e-002
2.1036115e-002
-2.2800615e-002
0.0000000e+000
0.0000000e+000
-3.1106235e-002
-1.6010828e-003
6.9242078e-002
-6.0628224e-002
-5.5583838e-002
1.0726205e-001
3.7843885e-002
-1.1101818e-003
4.7502277e-002
-1.3148098e-001
-5.3012795e-004
2.9633677e-002
-9.3897934e-002
1.1862645e-001
0.0000000e+000
0.0000000e+000
1.7106720e-002
8.0366455e-003
6.0294001e-002
3.4640391e-002
8.1698520e-003
4.4778458e-003
-6.7879976e-003
-3.7303796e-002
-3.3696828e-002
1.1324544e-002
-1.0830819e-001
1.3237625e-002
1.1923613e-001
1.4723122e-002
0.0000000e+000
0.0000000e+000
-1.8729270e-002
8.9529225e-002
7.2054105e-003
-5.4370734e-002
-2.3832290e-002
-7.4006222e-002
1.5089738e-002
8.0525524e-002
1.2885375e-005
5.4310345e-002
-1.8063126e-001
2.1490089e-002
-1.4725962e-002
-4.7095488e-003
0.0000000e+000
0.0000000e+000
-3.2537560e-002
7.7611551e-002
9.1071954e-003
-2.4848353e-002
1.4845757e-002
1.2384768e-002
1.8782488e-002
2.4328153e-003
5.7515717e-002
4.5017071e-002
8.7424686e-002
-4.4906550e-003
-1.1428268e-002
-9.3060156e-002
0.0000000e+000
0.0000000e+000
3.9625746e-002
-2.1351150e-002
53
51
1.9637333e-002
-7.2795888e-002
1.5462236e-001
-2.3691911e-001
3.1916972e-001
-3.7514704e-002
-1.3011124e-003
2.0248434e-001
-2.5246780e-001
1.3030614e-001
2.8518876e-002
-4.8436241e-002
0.0000000e+000
0.0000000e+000
-6.3647466e-002
8.2878293e-002
-2.5699176e-002
7.3460556e-002
9.0597230e-003
6.2323419e-002
-1.6463709e-001
1.3372231e-002
-3.0759935e-001
8.9094422e-002
9.1055379e-002
-1.5498233e-001
1.4807975e-001
-6.6632232e-003
0.0000000e+000
0.0000000e+000
-3.2589258e-003
2.6279932e-002
2.1597108e-002
-4.4377868e-002
3.1144328e-002
6.2817207e-002
-1.1690487e-001
8.6286918e-002
3.5686508e-002
-1.9454148e-002
-6.2629742e-002
1.4017811e-001
-5.8984775e-002
-4.2848418e-002
0.0000000e+000
0.0000000e+000
-6.5529259e-002
-3.0144272e-002
2.6814087e-001
-3.0001734e-002
-4.0324481e-002
1.5070163e-002
-1.6406337e-001
-1.0731668e-001
1.2936770e-001
6.3754601e-003
-1.5378673e-002
1.0253813e-001
-1.2527723e-001
-3.8472291e-002
0.0000000e+000
0.0000000e+000
-2.5233839e-002
1.0439596e-002
-3.7100630e-002
-3.4163586e-002
8.8340027e-003
1.3683390e-001
-2.2871014e-001
-4.1577259e-002
-3.9478146e-002
-4.8359549e-003
2.0621388e-001
-1.0243679e-001
1.5417402e-001
-7.4966100e-002
0.0000000e+000
0.0000000e+000
-2.7031627e-001
-1.2322135e-001
-2.5785491e-001
2.1401015e-001
5.5472740e-003
1.4494392e-001
5.4459592e-002
1.4485780e-001
-1.4347258e-001
-1.9946667e-002
-3.5330753e-003
-2.9865960e-002
-8.4668508e-003
2.6244090e-002
0.0000000e+000
0.0000000e+000
-4.0254298e-002
1.2447124e-001
7.5343832e-002
-9.7314777e-002
-4.1315840e-002
-2.8323434e-001
-5.7623851e-002
7.9052816e-002
2.7065228e-001
6.2925396e-002
1.0956380e-001
-1.7894645e-001
-1.6354838e-001
6.5218248e-002
0.0000000e+000
0.0000000e+000
2.5023107e-001
-4.3226605e-002
-1.8980103e-001
-1.6577037e-002
-3.8206304e-002
-3.6910883e-002
1.5139612e-001
-1.2291647e-002
2.5141596e-001
-9.6617606e-002
-2.5654330e-003
-7.0286269e-003
3.6311373e-002
-1.3557089e-001
0.0000000e+000
0.0000000e+000
-8.4959239e-002
-6.1501746e-002
1.9472898e-001
-2.3025479e-001
-5.4495109e-002
1.7116484e-001
-1.2813512e-001
2.0996296e-001
-1.7597821e-001
-7.6288268e-002
6.2238804e-002
-3.0028615e-002
-3.8167632e-002
2.8056002e-002
0.0000000e+000
0.0000000e+000
-2.1344252e-001
5.9088785e-003
1.6390978e-001
-1.4983525e-001
5.4434242e-002
1.3459540e-001
-5.9076292e-002
-5.1232097e-002
7.2595194e-002
1.9891400e-002
-1.5913680e-001
1.4122254e-002
-1.0209643e-001
1.7324769e-001
0.0000000e+000
0.0000000e+000
9.7226257e-002
5.0256221e-002
54
53
1.4296586e-001
9.2803752e-002
1.3551186e-002
-1.1147833e-001
-3.0102414e-001
-1.2027044e-002
-9.6772069e-002
2.5569071e-001
3.4367259e-001
-2.4478536e-001
6.3301816e-002
-3.0785335e-002
0.0000000e+000
0.0000000e+000
9.3831606e-002
-2.9786205e-002
-1.1395010e-001
7.8967332e-002
9.7310336e-002
-2.4194865e-002
8.4509947e-002
2.6462622e-002
-1.8159810e-001
1.1135963e-001
-2.6952540e-003
5.8940234e-002
-3.3177480e-002
-5.9325697e-002
0.0000000e+000
0.0000000e+000
5.4382831e-002
3.7766129e-002
7.0930670e-002
-5.0275973e-002
-6.2651731e-003
1.7377520e-001
1.5511759e-001
6.9828762e-002
-8.8191068e-002
-1.3498594e-001
-1.3645922e-001
8.9854366e-002
-3.7628037e-002
-1.2459687e-002
0.0000000e+000
0.0000000e+000
-1.4152372e-001
-9.7730321e-003
1.6764189e-001
-2.1893970e-002
3.6269624e-002
1.5479525e-001
-1.4293857e-001
3.6538387e-002
-1.0095521e-002
-6.3161105e-002
-3.0972806e-002
-4.5589204e-002
8.1363225e-003
4.2842632e-002
0.0000000e+000
0.0000000e+000
1.9529233e-002
-2.5589456e-002
9.9210715e-002
-1.4427941e-001
-1.1138062e-001
9.9297415e-002
-1.1132612e-001
9.9282349e-002
9.0051236e-002
-1.0540068e-002
4.7576692e-002
-3.1870392e-003
-5.8024080e-002
-1.1606199e-001
0.0000000e+000
0.0000000e+000
1.2778525e-001
-3.0577806e-002
6.0184864e-002
-3.1048854e-002
3.4794325e-004
5.6663674e-002
1.7047449e-001
-4.1544011e-002
1.8625906e-002
-2.2197922e-002
-4.8474901e-002
5.8025424e-003
7.8303109e-003
6.6762711e-002
0.0000000e+000
0.0000000e+000
-3.2045211e-002
1.0857469e-002
6.6640476e-002
-2.0322283e-001
6.7870988e-002
8.7227583e-002
8.9424235e-002
-5.8856575e-002
1.4328152e-001
-6.5745711e-003
-8.7188406e-002
-8.4748416e-002
-7.2465524e-002
-7.5386443e-002
0.0000000e+000
0.0000000e+000
-1.0056389e-001
-4.2881199e-003
7.1202812e-002
-5.1726572e-002
-1.0828489e-001
6.2585593e-002
-3.1402218e-001
1.7026140e-001
-8.2480368e-002
1.7670914e-001
-1.8152083e-002
-1.5427872e-001
1.2821691e-001
-4.2519251e-002
0.0000000e+000
0.0000000e+000
1.7129192e-003
3.4631149e-002
7.5156797e-003
1.2118137e-001
-1.2075763e-001
3.0644993e-002
-1.0274821e-001
6.2752170e-002
-1.7277921e-001
1.0017367e-001
-1.5223436e-002
2.5692119e-002
2.9232494e-002
-2.6383470e-002
0.0000000e+000
0.0000000e+000
-1.1933534e-002
8.2600131e-002
-4.1273506e-002
7.7760732e-002
1.0357680e-001
2.0384726e-002
2.0204146e-001
-1.8742589e-001
1.1298593e-001
3.9336745e-002
-3.0204144e-002
4.7531995e-002
-5.9840685e-002
-1.3037566e-001
0.0000000e+000
0.0000000e+000
7.8666985e-002
3.5474911e-002
55
55
-9.3855642e-002
-1.2395022e-002
1.3350165e-001
-1.0609799e-001
2.2435392e-001
7.4610399e-002
-1.0305959e-001
1.1430817e-001
-1.6871499e-001
-5.3082919e-002
-1.7982246e-002
-2.6126942e-002
0.0000000e+000
0.0000000e+000
1.0586554e-001
7.2990983e-002
-2.5849816e-001
9.9481485e-002
-4.3447228e-002
1.5537599e-001
2.1670395e-001
-4.1869202e-002
-1.2982751e-001
-4.0594219e-002
-9.9135375e-002
2.5562426e-001
-1.6485158e-002
2.0006084e-002
0.0000000e+000
0.0000000e+000
-1.2864195e-001
-8.5710505e-002
1.6254544e-001
4.8163551e-003
-3.2592971e-003
-2.8249036e-002
-1.8674210e-002
-2.8094540e-002
9.0766079e-002
-1.8172669e-002
1.1422180e-002
5.1494204e-002
-5.1921457e-002
3.8864993e-002
0.0000000e+000
0.0000000e+000
-5.9361128e-002
-1.0682575e-002
-3.0799896e-002
4.7393536e-002
-2.7261145e-002
-6.2436760e-002
6.2697678e-002
-8.8865573e-002
7.8003287e-002
-1.2149577e-002
-6.1188151e-002
7.0565670e-002
-6.6154835e-002
3.6992345e-002
0.0000000e+000
0.0000000e+000
2.0825504e-002
-1.0451411e-001
5.6430817e-002
-1.6290360e-001
-3.8635440e-002
-6.5429462e-002
-1.5063215e-001
5.4750882e-002
6.7613759e-002
-3.6596083e-003
-2.5800233e-002
3.6910309e-002
2.5623902e-002
5.1323720e-002
0.0000000e+000
0.0000000e+000
-7.3624088e-002
2.6230050e-002
-4.2154032e-002
-1.9718011e-002
-5.8393967e-002
3.4391213e-002
2.1771467e-001
5.4538018e-002
1.3746782e-001
7.2151304e-002
-7.5509826e-002
-2.9790706e-002
-7.9049492e-002
-1.1234904e-001
0.0000000e+000
0.0000000e+000
-8.3213721e-003
5.5084874e-003
2.3567368e-002
6.3334299e-002
-7.5746929e-002
1.1712166e-001
3.1265263e-002
-3.4952209e-002
1.6637892e-001
-8.5415838e-002
4.9942325e-002
-1.1964579e-001
-8.0287057e-003
7.2523564e-002
0.0000000e+000
0.0000000e+000
-1.5420413e-002
1.4150040e-002
4.9076957e-002
7.5837968e-002
2.2159309e-003
3.6985838e-002
-1.4782398e-001
-1.1848936e-001
-1.1184448e-001
-2.8362391e-003
-1.1898057e-001
2.1642984e-001
-3.3208324e-002
1.4586251e-001
0.0000000e+000
0.0000000e+000
-2.6572871e-003
-6.8675701e-002
4.6449618e-002
-3.7497428e-002
-8.8857019e-003
1.5180905e-002
-1.0727671e-001
1.2791733e-001
-8.9326637e-002
2.7203533e-002
-1.0314917e-001
7.5719618e-002
-3.3297682e-002
-1.0760621e-001
0.0000000e+000
0.0000000e+000
2.7727542e-002
-7.3134817e-002
6.8824495e-002
8.2223148e-002
-5.7726846e-002
1.0305534e-001
8.8464816e-003
1.2016500e-001
-2.5512227e-002
-1.2065329e-003
5.8332353e-002
-3.0496924e-002
6.6723400e-002
-1.1178700e-001
0.0000000e+000
0.0000000e+000
1.5390100e-003
1.7352697e-002
57
49
-7.7684960e-002
5.3402857e-003
4.2821946e-002
-2.3132156e-001
-4.4531305e-002
3.0727041e-001
-2.4978889e-001
4.8099911e-001
-2.7138140e-001
1.4836838e-001
1.8825177e-001
-2.4338365e-001
0.0000000e+000
0.0000000e+000
-1.3911776e-001
2.2416208e-002
-7.8997608e-003
2.8173782e-002
4.9879786e-003
-7.3626543e-002
2.3509810e-001
-2.5111377e-001
-1.9271235e-002
4.6873854e-002
-2.4893050e-003
-3.3122651e-003
-1.0594615e-001
2.1664122e-002
0.0000000e+000
0.0000000e+000
1.3551248e-002
3.0453579e-002
1.3029124e-001
2.7992871e-002
-1.2817949e-002
9.3273410e-002
-6.4614513e-002
-4.5499105e-002
1.7570124e-002
-9.5553688e-003
-1.0576650e-001
1.2918657e-001
-1.5781496e-003
-1.6251057e-002
0.0000000e+000
0.0000000e+000
-1.0580420e-001
-9.2417617e-003
-2.2895887e-002
1.1966526e-002
-1.4714466e-001
-1.4780830e-002
3.6860617e-002
5.2813305e-002
1.4312786e-001
-2.9414357e-002
4.8086773e-002
9.0148152e-002
-5.7879038e-002
5.0107184e-002
0.0000000e+000
0.0000000e+000
3.3157844e-002
-1.2638207e-001
-2.1315810e-002
-3.0323831e-001
1.5909763e-002
-1.0344463e-001
-2.3406895e-002
2.7555895e-001
1.5822683e-001
2.1874818e-001
-9.7725709e-002
-1.3974607e-001
-2.3307136e-001
3.9073588e-002
0.0000000e+000
0.0000000e+000
1.6616247e-001
1.3996639e-001
9.7946039e-002
-1.5169351e-001
1.7028920e-001
5.5338417e-002
-1.4810193e-001
1.7180953e-002
-8.4318770e-002
-4.4467841e-002
-7.9303146e-002
-6.4079765e-002
9.5042058e-004
-2.1185404e-001
0.0000000e+000
0.0000000e+000
1.8912643e-002
-1.0942224e-001
1.4260911e-001
-1.4186176e-001
-7.1890208e-002
2.7429138e-003
-9.3173466e-002
-9.8176012e-002
5.5194605e-003
-3.6254792e-002
-3.6996142e-002
7.7231180e-002
3.4223002e-002
6.9203393e-002
0.0000000e+000
0.0000000e+000
-7.6829429e-002
6.2449651e-002
-2.2007670e-001
8.3425951e-002
-2.8476598e-002
1.0084124e-001
1.2652288e-001
-2.7730655e-001
-5.8954936e-002
-1.7056104e-001
6.9027833e-003
4.2505394e-001
-1.5578429e-001
2.8596403e-001
0.0000000e+000
0.0000000e+000
2.2965480e-002
8.8155670e-002
-3.5765423e-002
-4.6532241e-004
1.2789668e-001
-6.3634380e-003
1.6551335e-001
1.3292034e-001
-6.7546163e-002
2.0299830e-002
1.1610559e-001
-1.6204915e-001
-1.2467545e-001
3.3428016e-002
0.0000000e+000
0.0000000e+000
-6.8109239e-003
-1.2383937e-001
1.3245447e-001
-1.8934903e-001
6.6075403e-002
6.0844361e-002
-2.3372192e-001
1.9692106e-001
-9.4064881e-002
1.0422651e-001
1.1870875e-001
-1.9943889e-001
9.6476303e-002
7.1582874e-003
0.0000000e+000
0.0000000e+000
1.4177086e-001
9.4383649e-003
49
48
52
2.1362280e-002
-5.7269648e-002
-1.8389461e-001
-7.5505172e-002
8.9105869e-002
-5.6648229e-002
9.8230522e-002
1.0233642e-001
1.5861623e-001
-9.4690100e-002
-6.0536034e-002
-3.6671728e-002
0.0000000e+000
0.0000000e+000
5.1508923e-002
-1.4672201e-001
8.2402840e-002
4.1095973e-002
1.4656126e-001
-1.1319709e-001
-1.3388711e-001
5.3861108e-002
-4.6002330e-002
-5.3159988e-002
1.0222701e-001
-8.0381375e-002
-6.9850928e-002
9.8685980e-002
0.0000000e+000
0.0000000e+000
1.9662963e-001
-1.3974565e-001
4.5383352e-002
-9.9985715e-003
-3.6787002e-002
9.3643496e-003
2.4482241e-002
6.3734290e-002
-4.7163871e-002
9.1956737e-003
-9.1314150e-002
4.6272599e-003
4.1762903e-003
6.9449672e-002
0.0000000e+000
0.0000000e+000
-3.9146972e-002
5.1608256e-002
8.9890581e-003
-4.8374394e-002
-4.7401186e-002
7.2831060e-002
6.0423265e-002
3.0081698e-002
9.7475389e-002
-1.6255791e-001
4.9075426e-002
-2.0379902e-002
-9.9939533e-002
-3.6071904e-003
0.0000000e+000
0.0000000e+000
6.2886847e-002
3.9513197e-002
2.5026620e-002
-4.3347366e-002
7.5516669e-003
1.4464502e-001
-1.3466515e-001
2.2156567e-002
1.5105816e-002
-8.3384521e-002
7.0112904e-002
-3.8631727e-002
-5.9640937e-002
-1.0876747e-001
0.0000000e+000
0.0000000e+000
4.9344140e-002
2.8981256e-002
1.1215512e-001
1.2635240e-002
-1.8824252e-002
-1.2378361e-002
-1.2773443e-001
-2.4471703e-002
-2.0116502e-002
1.4086893e-002
1.1129862e-002
2.5883827e-003
6.3349140e-003
-3.0578961e-002
0.0000000e+000
0.0000000e+000
-4.4965941e-002
5.8371523e-002
6.7320830e-002
-1.7376826e-001
-7.6810765e-002
-8.3782129e-002
2.0567379e-001
1.0959288e-001
-3.1074511e-003
-5.5685106e-002
-5.5053634e-002
-8.3967613e-002
5.3123170e-003
4.8269166e-003
0.0000000e+000
0.0000000e+000
-3.1333986e-002
6.8305816e-002
8.1360368e-002
1.6065734e-002
1.5031870e-002
1.1448466e-002
-6.3824686e-002
3.5157794e-002
-1.3578156e-001
8.0902485e-002
3.6889888e-002
1.8016707e-003
4.7183323e-002
-6.3103585e-002
0.0000000e+000
0.0000000e+000
1.0145774e-001
7.8938591e-002
2.8219039e-002
7.6846700e-003
-1.8926116e-002
4.2224894e-002
-1.8154823e-001
1.2553589e-001
-1.2924399e-001
2.8044432e-002
-3.6993174e-003
1.8331056e-003
1.8449088e-002
-1.4917499e-002
0.0000000e+000
0.0000000e+000
4.1946195e-002
-5.3081100e-002
-4.4350726e-002
-1.3784861e-002
-1.3752905e-002
7.4062872e-002
5.0943415e-002
-1.3474802e-002
3.0453093e-002
-2.7347608e-002
-8.0329651e-003
-4.8780467e-002
1.1873758e-001
7.1457657e-002
0.0000000e+000
0.0000000e+000
-8.0512593e-002
2.1134738e-002
49
49
54
-1.7853612e-001
-1.8138217e-002
3.8500167e-002
-3.4518421e-001
1.5149056e-001
3.0338878e-002
1.8102322e-001
5.3195725e-001
2.7929422e-001
-4.5340275e-001
-2.2620249e-001
-1.9682268e-001
0.0000000e+000
0.0000000e+000
4.0985598e-001
-1.6298801e-001
5.5329050e-002
8.5582953e-002
-1.5956454e-001
1.8952200e-001
-6.1001316e-003
-1.4107114e-001
-1.6392786e-002
-2.3005846e-002
1.8452349e-003
1.6306064e-001
-2.3116748e-001
1.6344088e-001
0.0000000e+000
0.0000000e+000
3.3405164e-002
-1.1065569e-001
9.4896095e-002
1.5711027e-002
-9.7362313e-002
1.4371050e-001
-1.0107287e-001
9.8181939e-002
1.2512403e-001
4.2782781e-004
-1.0774420e-002
-5.6735154e-002
-2.5969609e-001
-9.5473880e-002
0.0000000e+000
0.0000000e+000
3.8908878e-002
1.2916116e-002
1.0259146e-001
1.1371538e-001
-3.7339548e-002
-1.5396829e-001
-1.1793380e-001
-3.3588397e-002
2.1793048e-001
2.2120299e-001
-9.9417268e-002
2.6339993e-001
-2.0014197e-001
3.0079158e-002
0.0000000e+000
0.0000000e+000
1.4717113e-002
-1.0865668e-001
-2.3546200e-001
2.1678049e-003
7.1647929e-002
-4.5646521e-002
-2.9536410e-003
-1.1990530e-001
-4.0241607e-002
1.3991166e-001
9.0015763e-002
-1.2096391e-001
1.6218344e-001
-1.0945215e-001
0.0000000e+000
0.0000000e+000
-8.1059033e-002
6.4817874e-002
8.0136969e-002
1.9532564e-002
1.4282973e-001
1.3142444e-002
5.2985506e-002
-1.1711142e-001
5.0927603e-002
-8.5572198e-002
1.7710800e-003
-2.8335618e-002
7.1862893e-002
-2.2987992e-002
0.0000000e+000
0.0000000e+000
-1.3000143e-001
2.4700428e-001
2.7543290e-001
-2.2559828e-001
-2.2584114e-001
-1.0366401e-001
-1.3090802e-001
1.7187047e-001
1.9839179e-001
-2.3089066e-002
-3.8381175e-002
-3.0852923e-001
-8.5973779e-002
-2.3801691e-003
0.0000000e+000
0.0000000e+000
2.1581701e-001
8.7123116e-002
-5.2377389e-003
-1.1142740e-001
3.7134693e-002
-1.1840894e-001
-6.1398898e-002
4.2319153e-002
-2.7509443e-001
1.2366048e-001
1.1319923e-001
1.9244259e-002
-5.8232837e-002
-1.7007953e-001
0.0000000e+000
0.0000000e+000
-3.0724812e-002
-3.4475839e-001
-8.1330558e-002
-3.3563638e-002
-4.0427087e-002
-8.8376134e-002
1.0366453e-001
1.8388816e-001
-2.0010391e-001
2.5289665e-001
-7.4566261e-003
1.2700350e-001
-7.4474566e-002
-1.1538040e-001
0.0000000e+000
0.0000000e+000
-2.6527057e-001
-9.2939454e-002
2.9607068e-002
8.5114978e-002
-1.0431196e-001
8.2228527e-002
-1.8272149e-001
2.2777976e-001
6.3848844e-002
1.6716047e-001
-3.7208792e-001
4.8792060e-002
4.3631194e-002
-2.8592800e-002
0.0000000e+000
0.0000000e+000
6.9421773e-002
2.3893401e-001
49
50
56
2.4067284e-002
-1.4625984e-002
-1.4928105e-001
3.0282754e-001
-3.0783211e-001
2.2787063e-001
1.0378664e-001
-1.5113738e-001
-9.8945716e-002
1.1567545e-002
-1.4329534e-001
4.0953351e-002
0.0000000e+000
0.0000000e+000
4.4769050e-002
1.8834152e-001
-2.0108628e-001
8.8180418e-002
8.2007204e-002
-1.2830001e-001
2.8620071e-001
-2.5280863e-001
-1.0556765e-001
9.5642355e-002
-5.5342798e-002
-6.3064149e-002
2.2164909e-001
-5.9547198e-002
0.0000000e+000
0.0000000e+000
-1.0405280e-002
1.2518246e-002
1.8156222e-002
-1.4896661e-001
3.1039123e-002
-1.0679972e-001
4.1528332e-002
-6.2880947e-002
3.1840793e-002
6.0688232e-002
-7.2216296e-002
-8.0149164e-002
1.6821337e-002
-1.0472723e-002
0.0000000e+000
0.0000000e+000
-8.2128843e-002
4.1867948e-002
1.5356349e-001
-6.9720458e-003
1.3597396e-001
-1.2836035e-001
-1.2997485e-001
8.9829948e-002
-7.6062364e-002
9.7472595e-002
1.1756891e-002
-1.7861210e-001
8.3404446e-002
-1.3690913e-001
0.0000000e+000
0.0000000e+000
-5.0313091e-003
1.1771772e-001
4.6893693e-003
-5.9140059e-002
1.2513438e-002
1.2921333e-001
-1.8061356e-001
6.0847144e-002
-1.9588822e-001
-8.0849425e-003
1.1389638e-002
-9.1040003e-002
7.8266828e-002
6.0687726e-002
0.0000000e+000
0.0000000e+000
-1.0319698e-002
-2.8953962e-002
-6.2231285e-002
-5.4414822e-002
-2.7228836e-002
-4.0476089e-002
-9.1512979e-003
6.6786716e-002
-4.6550218e-002
1.1732568e-001
1.9363182e-001
-7.4585190e-002
6.7742900e-002
-3.6310319e-002
0.0000000e+000
0.0000000e+000
-4.5107408e-002
-5.8987210e-002
-2.2829364e-002
-1.7100371e-001
-5.2422242e-002
-8.2648427e-003
2.1562306e-001
8.3916786e-002
9.7469678e-002
-1.4044794e-003
2.0617619e-001
-4.3216238e-002
3.3051270e-003
-2.3274771e-002
0.0000000e+000
0.0000000e+000
-2.1349250e-001
-1.2521172e-001
-1.6867334e-002
-1.0941455e-001
-2.1211889e-002
6.4991206e-002
-1.8041388e-001
8.2147399e-002
2.4810807e-001
9.8963379e-002
-4.2860727e-002
-2.2499400e-002
-1.9289176e-001
2.8438464e-002
0.0000000e+000
0.0000000e+000
2.1454439e-001
9.2497138e-002
8.4044796e-002
1.0674386e-002
-6.6527595e-002
-1.5257896e-002
-1.4804078e-001
-7.8169691e-002
-1.6702956e-001
-8.3297398e-002
-5.1686804e-002
-5.0069808e-002
1.3347157e-001
-2.0669625e-003
0.0000000e+000
0.0000000e+000
2.3473237e-002
1.5374858e-001
6.8414660e-002
-6.9635687e-003
-2.1160091e-002
-4.9079174e-002
1.9764831e-001
6.2114654e-002
-6.7371702e-002
-1.9259553e-002
-2.2079078e-001
-2.2922541e-002
-2.9346068e-002
3.4430139e-002
0.0000000e+000
0.0000000e+000
-3.3848854e-002
-2.4711317e-002
49
52
55
-4.4203714e-002
-1.7042985e-002
-2.2373981e-002
1.2053997e-002
-2.0530610e-001
3.5366079e-001
-8.3728920e-002
-5.2858638e-002
2.0103388e-001
-2.7601953e-001
-9.5760510e-003
5.0503419e-002
0.0000000e+000
0.0000000e+000
9.6888572e-002
-3.1829510e-002
3.0495715e-002
-2.9020463e-001
1.7001371e-001
-5.6306635e-002
1.6237774e-001
1.5320466e-001
-7.1130828e-002
9.4459897e-002
-6.9443411e-003
-1.2568964e-001
5.0659413e-002
1.3664878e-002
0.0000000e+000
0.0000000e+000
7.6831174e-003
3.6929217e-002
6.1416768e-002
-1.3322874e-001
7.8803946e-002
1.1958072e-001
-4.5226318e-002
7.8641621e-002
2.9272953e-002
-1.3456627e-001
-6.9108522e-002
3.5412411e-002
-4.8665020e-002
1.7047653e-004
0.0000000e+000
0.0000000e+000
-2.2760309e-002
4.8636675e-002
3.9097632e-002
8.8127252e-002
-4.3092963e-002
3.2459188e-002
-1.3967756e-001
2.3264487e-002
-7.5254369e-002
7.1501211e-003
-3.7388391e-002
1.1789120e-001
-4.8061354e-002
7.0076631e-002
0.0000000e+000
0.0000000e+000
1.9064570e-002
2.7569542e-002
5.4621279e-002
3.1349021e-003
7.0384682e-002
-1.2080313e-001
-2.3483150e-002
3.2184750e-002
2.4570878e-002
-6.3717399e-002
-4.0452581e-002
-4.5117165e-002
-8.9888992e-002
1.3425492e-001
0.0000000e+000
0.0000000e+000
1.2672145e-001
3.0294036e-002
-3.8830894e-002
-3.9648920e-002
1.3710173e-001
-7.4211940e-002
8.1550099e-002
-2.8335234e-002
-8.9180322e-002
6.0896393e-002
-5.4398621e-002
5.5122117e-002
-4.3058968e-002
1.9608637e-002
0.0000000e+000
0.0000000e+000
1.6760707e-002
4.4347594e-003
4.2802347e-002
2.3745221e-002
-5.0656840e-002
-8.0559843e-003
-9.2805869e-002
3.1878402e-003
-3.2334840e-002
1.1190097e-001
7.4900122e-002
3.4633276e-002
7.2150536e-002
-2.1971508e-001
0.0000000e+000
0.0000000e+000
-9.6377922e-002
-7.7242538e-002
-4.2370599e-002
7.5898108e-002
2.8660546e-002
6.4852242e-003
-4.9686326e-002
2.1266960e-002
6.1448035e-002
3.9639884e-003
4.4903807e-002
-7.9969271e-002
1.0089755e-001
-4.7514059e-002
0.0000000e+000
0.0000000e+000
7.0539595e-003
3.1973169e-002
8.9393748e-002
-1.0785482e-001
-1.8331374e-002
-4.5569946e-002
1.9258267e-002
3.5021890e-002
-3.5000533e-002
-6.9369276e-003
-3.8212120e-002
3.7453740e-002
-1.5105368e-001
5.5115492e-002
0.0000000e+000
0.0000000e+000
2.0723273e-002
8.6682641e-002
-2.2555511e-002
2.6447097e-002
3.8783435e-002
5.3744273e-002
3.9849220e-002
-6.1847971e-002
-5.6408018e-002
4.1860862e-004
-4.7902129e-003
3.8298237e-002
-1.0450367e-001
7.5069406e-002
0.0000000e+000
0.0000000e+000
5.4238483e-002
-4.7299117e-002
49
53
57
4.4245092e-002
-6.7788899e-002
3.2645289e-002
1.7151529e-001
-1.4557795e-001
3.9013674e-002
4.7539368e-002
-2.2287962e-001
1.0004649e-001
9.2934230e-002
4.7408572e-002
5.4524930e-002
0.0000000e+000
0.0000000e+000
-2.0463756e-001
-2.8216152e-002
4.0445389e-002
-3.9605154e-002
1.4920888e-001
-1.7924373e-001
-2.1594948e-002
2.2677108e-001
-4.1498016e-001
6.1473162e-002
5.6606607e-002
-2.9734273e-001
3.7833209e-001
-9.9774992e-002
0.0000000e+000
0.0000000e+000
-8.2047199e-002
1.6617820e-001
3.1597303e-002
-9.0005600e-002
-5.8719330e-002
3.2060071e-002
-5.1184574e-002
1.9325096e-001
-5.2454845e-002
9.7254520e-002
6.7745511e-002
-2.0316613e-001
-2.4383792e-002
-1.1167323e-001
0.0000000e+000
0.0000000e+000
-6.9041952e-002
2.9380373e-002
9.0943704e-002
-7.4537338e-003
-4.3846665e-002
1.0137284e-001
1.1702501e-001
-1.8166732e-001
7.5396123e-003
4.7207857e-002
-2.3578696e-001
1.2664681e-001
-6.0367721e-003
-9.4629138e-003
0.0000000e+000
0.0000000e+000
1.4240414e-001
6.8534422e-002
1.0914546e-001
7.6506834e-002
-1.0589886e-001
1.7194556e-002
-1.2812022e-001
-4.4220339e-002
-1.0350301e-001
-4.8501219e-003
-5.8272512e-002
1.2023770e-002
-8.0626423e-002
1.3557852e-001
0.0000000e+000
0.0000000e+000
9.9732408e-002
-1.6922975e-002
6.2935885e-002
-3.8030015e-002
1.2290251e-001
-3.1747838e-002
-5.5614973e-002
-4.5137202e-002
-7.0510989e-002
5.5180014e-002
8.3309373e-002
1.0055293e-001
-1.5595761e-002
-1.3550608e-001
0.0000000e+000
0.0000000e+000
-1.2094253e-002
-3.8229926e-002
-2.3804359e-002
-8.1166957e-002
2.0669632e-002
-7.3415010e-002
9.7130509e-002
1.2494162e-001
1.4847705e-001
-6.8648019e-002
2.3482018e-002
-2.3523100e-001
7.1041682e-002
-9.9510811e-002
0.0000000e+000
0.0000000e+000
1.4940914e-002
8.7152890e-002
-1.1873291e-001
9.7375455e-002
-1.3328228e-001
-1.1136660e-001
4.2477150e-001
-1.6211686e-001
3.9109997e-002
1.4536639e-001
-3.5754094e-001
1.4916477e-002
-1.0495465e-001
-1.2840855e-001
0.0000000e+000
0.0000000e+000
4.6456390e-002
7.7573874e-002
9.3024123e-002
-7.4006892e-002
-8.3489077e-002
6.4841774e-002
-3.0963723e-001
1.8006165e-001
-6.9444875e-002
1.7678361e-001
8.2851060e-003
-6.3094841e-002
1.4084577e-002
-2.3895053e-002
0.0000000e+000
0.0000000e+000
-1.3718921e-001
2.3426337e-002
5.5874093e-002
6.2526919e-002
2.0665692e-001
8.1036704e-002
-2.7043351e-001
5.6478190e-002
-7.9860964e-002
-1.0948325e-001
2.6996783e-001
-1.0130609e-001
2.9319998e-001
5.7164627e-002
0.0000000e+000
0.0000000e+000
-6.9760595e-002
5.8245384e-002
49
55
49
-1.0400183e-001
-7.8842868e-002
2.1533940e-001
-1.8121263e-001
-2.2192421e-001
1.4353977e-001
-3.1996385e-002
1.3024765e-001
3.6301374e-001
-3.8026161e-002
2.1706286e-001
-3.0460955e-003
0.0000000e+000
0.0000000e+000
-2.4856863e-001
-2.5334149e-001
-3.4151662e-001
1.3192872e-001
-1.5145480e-001
7.5731871e-002
3.6912876e-001
1.1944924e-001
-1.7422569e-001
-6.6105825e-002
-5.7655033e-002
-9.2974581e-002
-1.6026302e-001
6.9980203e-002
0.0000000e+000
0.0000000e+000
2.4112648e-001
-2.5707936e-002
2.4820456e-002
6.1720316e-002
-2.2922808e-003
1.1066579e-001
-3.2705791e-002
-3.8042721e-002
2.1201529e-002
-1.1814428e-001
-3.7222928e-002
-8.9725958e-002
-1.4998255e-002
1.3924170e-001
0.0000000e+000
0.0000000e+000
-8.5395597e-002
1.6344125e-001
-2.4976859e-002
-4.3700284e-002
-8.7399527e-002
6.5930681e-002
1.1672052e-001
5.4883721e-002
5.8544163e-002
9.0257496e-002
-7.6575159e-002
9.2576872e-002
-5.8382359e-002
-1.4967867e-001
0.0000000e+000
0.0000000e+000
-3.9809479e-002
9.4162717e-002
-1.3494341e-002
-1.8888142e-001
-2.1738646e-001
1.2333241e-001
-1.6166367e-001
9.3272244e-002
-3.9137191e-002
6.4655918e-003
9.1364872e-002
1.5721172e-001
1.0998999e-001
1.6960980e-001
0.0000000e+000
0.0000000e+000
-4.4727595e-002
-6.2018311e-002
2.5483164e-002
-1.5054638e-001
2.7742638e-001
-3.9722273e-002
-1.4413813e-001
-1.1077402e-001
1.0156575e-001
-1.2658609e-001
-1.7102628e-002
2.3399988e-001
-1.3101197e-001
-1.0968969e-002
0.0000000e+000
0.0000000e+000
8.7897264e-002
-9.3803897e-002
1.7478505e-001
2.2843004e-001
1.5586904e-001
1.0293957e-001
4.0618882e-003
-1.9182189e-002
1.4236690e-002
-2.3686677e-001
-1.9815841e-001
-2.0302494e-002
-1.7083152e-001
-1.1245444e-001
0.0000000e+000
0.0000000e+000
5.2306955e-002
1.5355070e-001
5.1193023e-002
1.7522109e-001
-3.8806443e-001
4.0818301e-002
-2.9772076e-002
3.3350737e-002
4.3444729e-001
7.3046078e-002
-5.7140697e-002
3.0083325e-002
-3.6855472e-001
-1.8345323e-001
0.0000000e+000
0.0000000e+000
-1.8389011e-001
2.1945715e-001
-5.6365007e-002
-1.4142262e-001
-6.1450889e-002
-1.3585240e-002
1.1192026e-001
8.5738454e-002
-1.3171986e-001
-2.1208186e-003
-2.0328883e-001
9.7494911e-002
-1.5418532e-001
8.5683877e-002
0.0000000e+000
0.0000000e+000
-2.6083563e-003
1.3883021e-002
4.6074441e-002
-2.0071797e-001
1.5910998e-001
3.8349490e-002
-2.3092513e-002
-3.6177994e-002
-8.0624295e-002
9.7566819e-003
7.6894534e-002
4.2073314e-002
1.2499531e-001
2.6104875e-001
0.0000000e+000
0.0000000e+000
-6.1533347e-002
-6.9955787e-002
49
56
51
-6.7941628e-002
1.3417073e-001
1.0553939e-001
2.2384986e-001
2.2921842e-001
7.2812496e-002
-3.8282137e-001
-7.4882583e-002
-6.2281357e-001
4.4254425e-001
1.5389435e-001
1.0547097e-001
0.0000000e+000
0.0000000e+000
-3.0867808e-001
1.2245087e-001
6.4298788e-002
-1.7121245e-002
-7.4508430e-002
6.7833539e-002
-6.8557211e-002
4.9591000e-002
-1.8143877e-001
4.8996684e-002
1.6258091e-001
6.2791922e-002
4.2931399e-002
2.7953830e-003
0.0000000e+000
0.0000000e+000
3.7856256e-002
1.1974019e-002
9.9237256e-002
-1.0635400e-001
6.7708373e-002
1.3311725e-001
-5.3601653e-002
1.8231108e-001
6.3188648e-002
-1.1925244e-001
-6.9650613e-002
4.4809808e-002
-1.0972414e-001
1.9848774e-001
0.0000000e+000
0.0000000e+000
-9.0559243e-002
-1.0375444e-001
8.4708138e-002
5.6965299e-002
-4.4473729e-002
-7.6826946e-002
1.1502144e-002
-1.0068034e-001
6.8631759e-002
1.1464763e-001
1.5634905e-001
-1.5935409e-001
-4.7128848e-002
-1.3518497e-002
0.0000000e+000
0.0000000e+000
3.8083322e-003
-9.4971144e-002
-2.5968115e-002
3.5866274e-002
-2.1323731e-001
1.1003673e-001
-4.1823910e-002
6.3854616e-002
9.6024811e-002
-1.2329179e-001
1.6097558e-001
-1.2899542e-001
-1.6295832e-001
-3.6369353e-002
0.0000000e+000
0.0000000e+000
2.3245067e-001
-1.2116090e-001
1.1834469e-002
2.3006137e-002
-6.6362448e-002
1.3564925e-001
-9.4082112e-002
1.5775075e-001
-1.0463169e-001
-7.2837775e-002
1.3579947e-001
1.8305329e-001
-2.1267312e-001
2.7246080e-001
0.0000000e+000
0.0000000e+000
3.6173937e-002
-1.4039237e-001
-1.0784736e-001
-8.2541350e-002
2.2281375e-001
-7.7235364e-002
3.0278545e-001
-9.8668556e-003
-6.2669514e-002
-1.0698562e-002
-2.0719436e-001
1.0659653e-001
-2.9969443e-002
8.8886454e-002
0.0000000e+000
0.0000000e+000
-6.0776476e-002
3.7813853e-002
-8.0077822e-002
2.5349423e-001
1.8300675e-002
-2.1039612e-002
-5.3338582e-003
-2.2246459e-001
1.4977649e-001
-7.7662857e-003
-1.6313328e-001
2.3255747e-001
-4.3133867e-002
-1.8523066e-001
0.0000000e+000
0.0000000e+000
1.0557146e-001
1.5599738e-003
1.3764280e-001
-2.6060170e-001
-3.3272768e-001
1.2961182e-001
-2.3355852e-001
2.5763664e-001
2.0699996e-004
-1.1099568e-002
1.8114073e-001
-6.6472462e-002
-1.4659568e-002
-3.3682817e-002
0.0000000e+000
0.0000000e+000
-5.3690180e-002
-6.1368728e-003
1.2982596e-001
-2.1955613e-001
-1.4393098e-002
-3.6542559e-002
-1.5268574e-001
1.3673292e-001
3.6108662e-002
2.3493419e-002
3.4189004e-002
1.6042447e-002
-6.6022965e-002
6.6086076e-002
0.0000000e+000
0.0000000e+000
2.1658459e-002
2.3668099e-001
49
57
53
-5.6011582e-002
-5.7241052e-003
9.1279841e-002
8.8645745e-002
2.0142502e-001
8.7184099e-003
9.1072668e-003
-2.7841405e-001
-2.3664058e-001
6.1651991e-002
5.1397669e-004
1.1079542e-001
0.0000000e+000
0.0000000e+000
4.8951964e-002
5.7987290e-002
2.2872110e-001
-3.6429315e-001
1.3866694e-001
9.6104018e-002
-2.1689516e-001
2.5846870e-001
-8.6638975e-002
-8.0892996e-002
6.5626522e-002
-7.5489265e-002
-1.8691439e-001
1.9609249e-002
0.0000000e+000
0.0000000e+000
7.2694594e-002
-3.5665304e-002
6.6486969e-002
-6.2447457e-002
-9.7480869e-002
1.9980773e-001
8.4053875e-002
-9.2607108e-002
-3.5756309e-002
-1.3640047e-001
-1.2917065e-001
-3.8806060e-002
-9.8566851e-002
1.2095964e-001
0.0000000e+000
0.0000000e+000
4.6128228e-002
4.2733655e-002
-4.9371211e-002
-1.9018763e-002
6.0755094e-002
-1.6358884e-001
-6.2303629e-003
9.7648209e-002
-4.5282294e-002
1.0256596e-001
-3.1808169e-002
-3.2768026e-002
7.4288961e-002
-1.2478428e-001
0.0000000e+000
0.0000000e+000
1.3666680e-001
-1.0955230e-001
9.2747014e-002
-1.4592949e-003
1.3587307e-001
-1.0587618e-001
-1.6165561e-001
4.7507198e-002
8.6331027e-002
3.6932071e-002
-9.8821471e-003
8.3877958e-002
-2.5848677e-002
2.0083121e-002
0.0000000e+000
0.0000000e+000
-1.4418140e-001
-5.9817909e-002
1.8318974e-001
-1.2460308e-001
1.2561557e-001
2.5409853e-002
-1.6274923e-002
1.0031155e-002
1.1215928e-001
-2.8908363e-002
9.1882108e-002
-1.5342570e-001
-3.6463433e-002
7.2954291e-002
0.0000000e+000
0.0000000e+000
-2.9608582e-002
-4.7239768e-002
-3.7388833e-002
3.5629026e-003
-5.3051168e-002
6.6962261e-002
-3.4282717e-002
3.8301680e-002
-5.3258401e-002
1.9302737e-002
-2.4497983e-002
9.0281660e-002
-2.2363909e-002
-1.7685952e-001
0.0000000e+000
0.0000000e+000
1.4697273e-001
4.2655850e-002
-1.1362825e-001
-7.4487236e-003
-2.2864516e-001
8.1364209e-002
4.3178883e-002
7.1626795e-002
-2.1981261e-001
1.3478304e-001
-7.1000111e-002
2.0007814e-002
1.2011532e-001
-9.6099042e-002
0.0000000e+000
0.0000000e+000
4.7909002e-002
-3.0510226e-002
1.5705572e-001
-1.8856551e-002
-7.0036632e-002
-6.7731255e-002
-2.3603188e-001
-9.9454349e-002
1.1193196e-001
2.4825982e-002
2.0742511e-002
4.8934369e-003
-9.7874496e-004
1.1612012e-001
0.0000000e+000
0.0000000e+000
-1.5580863e-001
-7.4924687e-003
1.2928545e-002
-8.9017781e-002
9.6310397e-002
-6.0976556e-002
-5.7020598e-002
2.6606246e-002
9.0855121e-002
-2.5030445e-004
-8.9636324e-002
-3.3716932e-002
-7.2496717e-002
9.2989522e-003
0.0000000e+000
0.0000000e+000
4.5495266e-002
8.6840009e-002
50
48
55
-4.3020065e-002
-3.4006558e-002
1.2766365e-001
-1.4793663e-001
1.1775249e-001
5.7051745e-003
1.2285418e-002
1.8886214e-001
-2.6936398e-001
1.9108399e-002
-1.2581846e-001
-1.0957619e-001
0.0000000e+000
0.0000000e+000
1.5554113e-001
1.4893287e-001
-1.3148965e-001
8.0902236e-002
7.8675897e-002
7.6049148e-002
1.8932243e-001
-3.4026266e-002
-1.5389545e-001
-9.1047186e-003
-1.1289186e-001
5.1097926e-002
5.8419784e-004
4.2400450e-002
0.0000000e+000
0.0000000e+000
-3.1547152e-002
5.7399019e-002
5.0995832e-002
-6.1500050e-002
2.2142642e-002
-1.1597482e-003
-3.8465861e-002
1.3404397e-001
-1.3242905e-002
1.9897070e-002
-7.2845220e-002
-9.1801955e-003
-1.9305671e-002
1.3037217e-002
0.0000000e+000
0.0000000e+000
-1.5454336e-001
9.6673586e-002
2.9227156e-004
2.3437174e-002
-2.6182181e-002
8.2244396e-003
-7.2346371e-002
2.5396158e-002
-2.5838877e-002
-3.0841295e-002
1.0452424e-001
-5.5820139e-002
4.6078047e-002
-5.2744350e-002
0.0000000e+000
0.0000000e+000
-1.3399975e-002
2.2179093e-002
-1.5057860e-002
-1.0171705e-001
8.9077736e-002
-6.5726938e-003
-4.1839089e-002
1.2211786e-001
1.3214757e-002
9.8699088e-002
-1.4123249e-002
-7.7785044e-002
-1.6673514e-001
7.9126880e-003
0.0000000e+000
0.0000000e+000
8.9107549e-002
4.4029192e-002
-5.1405019e-002
9.0813876e-002
7.5297170e-002
1.1097715e-001
1.8533655e-001
-1.4231671e-001
2.2027343e-002
-1.3254486e-001
-5.6457273e-002
-3.4976857e-002
-9.9240620e-003
-4.1440092e-002
0.0000000e+000
0.0000000e+000
5.1850912e-002
2.5564599e-002
3.8281819e-002
-1.2096192e-001
-4.3011337e-002
3.7951780e-002
6.2291159e-002
4.3155524e-002
1.3284303e-001
-5.9883522e-003
-9.7942432e-002
5.6090006e-002
7.1801249e-002
-7.4597196e-002
0.0000000e+000
0.0000000e+000
-8.1489526e-002
-8.8981539e-002
-9.8120432e-002
5.0752357e-002
-5.7120711e-002
2.2126556e-002
-7.2557048e-003
-1.5562942e-002
-2.1590609e-002
1.1350488e-001
1.9693372e-002
6.7371155e-002
-1.6733261e-001
1.6238117e-002
0.0000000e+000
0.0000000e+000
-2.9833501e-002
5.5533849e-002
-5.0340555e-002
2.0198516e-002
-4.6789078e-002
-5.7804912e-002
-8.1316017e-002
1.5894957e-001
-1.3061772e-001
4.2234296e-002
8.7972979e-002
-1.3921358e-001
4.1840164e-002
5.1381863e-002
0.0000000e+000
0.0000000e+000
5.8168029e-002
1.0211252e-001
4.4946969e-002
-1.0417600e-001
6.2685116e-002
3.3974079e-002
8.3005378e-002
5.3325578e-002
4.4752033e-002
-1.0573766e-001
2.2609059e-002
-9.0498187e-002
1.0464966e-001
6.7586716e-002
0.0000000e+000
0.0000000e+000
4.1022174e-002
-6.6307285e-002
50
50
48
-4.1794586e-002
-1.1270042e-001
-1.7327543e-002
-7.2024796e-002
1.5366796e-001
9.5227730e-002
4.1424000e-002
1.1023269e-001
-1.0306668e-001
-1.9470370e-002
-2.3826194e-002
1.4426981e-004
0.0000000e+000
0.0000000e+000
1.6827590e-002
-4.0918219e-003
-7.6309564e-002
-1.2961312e-001
5.2860273e-002
-1.0193323e-001
5.7789379e-002
8.1506322e-002
8.1788490e-002
-1.0158406e-001
-8.4165376e-002
-4.9736765e-002
4.3144193e-002
-1.6247683e-002
0.0000000e+000
0.0000000e+000
-8.5538811e-003
5.2613361e-003
1.0238416e-001
-1.7204274e-002
-2.7287438e-002
3.7048205e-003
-2.5770316e-002
-3.0914087e-002
2.9195599e-002
-1.7282297e-002
-1.3851605e-002
-8.1194851e-002
4.1628673e-002
-6.0871662e-003
0.0000000e+000
0.0000000e+000
-1.0926092e-001
7.9012472e-002
5.8472362e-002
-7.1938301e-002
-1.7619797e-002
-3.4180431e-002
3.9879520e-002
1.2841712e-002
4.2869789e-002
4.1862927e-002
-9.7807157e-002
2.4453065e-002
-2.5880069e-002
-8.6529395e-002
0.0000000e+000
0.0000000e+000
1.7218582e-002
6.5192625e-002
6.3024439e-002
-1.5176188e-001
-6.5883465e-002
3.3269123e-002
-9.0142663e-002
1.5229135e-001
-4.6510324e-003
5.6682750e-002
-1.5697313e-001
-1.0252030e-003
5.6024762e-003
-3.5462779e-002
0.0000000e+000
0.0000000e+000
6.3488302e-002
-8.1295057e-002
8.9193860e-002
-1.1265729e-001
1.0989036e-001
-3.8292635e-002
-1.6118804e-001
1.1276147e-001
2.0880439e-002
1.0371120e-001
1.2169583e-001
-1.9337574e-003
1.6269497e-002
-4.5144198e-002
0.0000000e+000
0.0000000e+000
-5.2448850e-002
-9.5071348e-002
1.1336793e-002
1.4705808e-001
-1.5162186e-001
8.1233052e-002
1.8393953e-001
-7.8755777e-002
2.3674049e-002
-1.5304355e-001
1.2788587e-002
-5.8099399e-002
8.5441313e-002
6.5046073e-002
0.0000000e+000
0.0000000e+000
-6.2245940e-002
3.1674357e-002
1.4702106e-001
-5.9581714e-002
3.1045106e-002
2.1831365e-002
-1.9755997e-001
7.3086611e-002
-1.0298963e-001
6.2308167e-003
-2.1509470e-001
-8.1984637e-002
1.7070306e-002
-4.5372482e-002
0.0000000e+000
0.0000000e+000
1.6800092e-002
1.7240388e-001
8.4470179e-002
-1.5853612e-001
6.9651504e-002
5.0951915e-002
-9.5693451e-002
1.0408477e-001
-6.5324346e-002
9.9455480e-002
1.7226945e-002
6.8899598e-002
-4.8943900e-002
4.2979904e-003
0.0000000e+000
0.0000000e+000
-3.5563446e-002
-1.0041806e-002
-6.8094565e-002
3.3422871e-002
1.8166474e-002
-4.8212419e-002
1.8205733e-001
-9.7302070e-002
6.7690783e-002
6.0444505e-002
6.0234925e-002
1.6190726e-002
7.3006451e-002
-1.6213940e-002
0.0000000e+000
0.0000000e+000
-9.0625554e-002
-1.1067717e-001
50
51
53
-4.1725314e-003
-5.2423336e-002
-4.0394005e-002
3.7893110e-002
2.4409026e-003
8.0189337e-002
-1.1813625e-002
-6.1943068e-003
5.0556477e-002
-5.8133815e-002
-9.4247051e-002
-7.5034919e-002
0.0000000e+000
0.0000000e+000
1.4214371e-001
5.9187046e-002
-1.9975703e-002
-4.9069935e-002
3.1557610e-002
-2.4182771e-003
1.1262298e-001
1.0084840e-001
-1.3229953e-001
1.1888301e-001
1.2420195e-001
-1.7250133e-001
4.3161620e-002
-1.0283554e-001
0.0000000e+000
0.0000000e+000
3.0166487e-002
-5.1682366e-002
2.6451385e-002
-8.5107815e-002
1.6020874e-002
-8.8729316e-003
5.0197002e-003
2.0154848e-002
-1.3792613e-004
-8.7348398e-002
-1.3542959e-002
-8.0910529e-002
1.4026896e-002
9.5731858e-002
0.0000000e+000
0.0000000e+000
4.5573264e-002
5.4446423e-002
-2.4595684e-002
5.9988264e-003
-9.4026955e-002
1.8666805e-001
2.2959722e-002
-3.4364003e-002
3.9479902e-002
-6.2709755e-002
-1.0151835e-001
-6.5911243e-003
8.4480197e-002
6.6436847e-003
0.0000000e+000
0.0000000e+000
4.5541923e-002
2.2601394e-002
1.0712694e-001
1.9098554e-002
-5.8628948e-003
7.9532811e-003
-7.2830304e-003
-2.9591461e-002
-1.4184251e-002
3.5760068e-002
-1.1226137e-001
6.5673006e-002
1.1932860e-003
-4.9532149e-002
0.0000000e+000
0.0000000e+000
-8.6304592e-002
3.4623285e-002
5.9709979e-002
1.4640297e-001
-4.5629533e-002
3.1423427e-003
-4.3088638e-002
-8.3516193e-002
-5.2458187e-002
-4.4391042e-002
4.8471157e-002
7.9403386e-002
-2.3379298e-002
-1.9554568e-002
0.0000000e+000
0.0000000e+000
-1.0849597e-001
1.3471988e-001
-7.4914209e-002
-9.0156339e-002
2.2439355e-002
-1.7378355e-002
2.3774671e-002
2.1544203e-001
-1.4012774e-001
-1.3028647e-001
-6.9150832e-002
-8.0494287e-002
3.9983142e-002
1.2026462e-001
0.0000000e+000
0.0000000e+000
-1.4148449e-002
-8.6859740e-003
1.0112703e-001
-5.1841626e-003
7.6480869e-002
3.4444825e-002
1.1816368e-002
-1.0588084e-002
2.1637307e-002
5.0656141e-002
1.1230478e-001
5.3854848e-002
1.4835340e-001
-1.2334986e-001
0.0000000e+000
0.0000000e+000
3.3667142e-002
-1.4518264e-001
1.7076684e-001
-5.4695538e-002
-1.8373339e-001
1.3408168e-001
-9.7933217e-003
5.8010806e-002
2.7798394e-001
-1.2172151e-002
-6.9782847e-002
6.4963746e-002
1.5642634e-002
-1.7187801e-001
0.0000000e+000
0.0000000e+000
8.4694530e-004
-3.1261044e-002
-9.9617262e-002
3.7637410e-002
5.3059963e-002
1.7993782e-002
-1.0327471e-001
7.3769060e-002
-8.0095267e-004
5.7199610e-002
-1.0328861e-001
-5.5815372e-002
-1.4199453e-001
-1.4105888e-001
0.0000000e+000
0.0000000e+000
4.4066105e-002
8.0054141e-002
50
52
55
7.0322530e-002
-2.0227931e-001
-8.9424677e-002
-9.7155940e-002
2.8849587e-002
2.6010356e-002
3.5614946e-001
1.7056048e-001
3.8089847e-001
-2.4102298e-001
-1.9796540e-001
-4.8467698e-002
0.0000000e+000
0.0000000e+000
1.4882174e-001
-1.4078123e-001
2.6840722e-001
-7.4527236e-002
1.7394379e-001
-4.5403431e-002
-1.0870481e-001
-1.4831910e-001
-7.5465634e-002
2.4867606e-002
4.6628478e-002
1.4063500e-002
1.0079019e-001
-2.5250886e-002
0.0000000e+000
0.0000000e+000
-1.3123991e-002
-1.5058592e-001
-6.7985960e-002
-6.0107239e-003
3.8108929e-002
-5.9075596e-002
-6.8785478e-002
8.6102490e-002
-1.2796105e-001
1.6639441e-001
-1.2627185e-001
2.4541195e-002
3.6113940e-002
8.1372178e-002
0.0000000e+000
0.0000000e+000
-1.3029350e-001
2.4432607e-002
-8.0681784e-002
-2.5495856e-002
-9.4145585e-002
2.0226865e-002
1.4813229e-002
1.2295753e-002
2.7857905e-002
-2.2040332e-002
-4.4878715e-003
1.8035780e-002
-4.3227767e-002
-1.4228535e-002
0.0000000e+000
0.0000000e+000
-8.4211195e-003
1.0910515e-002
-2.7081115e-003
4.9044931e-002
-1.3284407e-001
9.3047564e-002
-4.4528334e-002
1.7085565e-001
7.0276792e-002
3.5329059e-003
-7.1604440e-002
-4.1557685e-002
-1.1997357e-001
-1.5520564e-001
0.0000000e+000
0.0000000e+000
-3.4130777e-002
1.1356081e-001
-1.1108222e-001
1.1263212e-001
-7.9570197e-003
1.3771181e-002
5.7579256e-002
-3.6200195e-003
1.2454166e-001
-1.5922090e-001
-1.6114671e-002
6.7934315e-002
-1.4709708e-001
1.2163245e-001
0.0000000e+000
0.0000000e+000
-1.4985002e-002
1.2162858e-002
1.5336545e-001
-1.6375135e-001
-1.4514907e-001
1.9684497e-001
-1.4060088e-001
-7.3211908e-002
1.3939615e-001
-1.5880422e-001
-8.7577004e-003
7.9346641e-002
-7.8018509e-002
1.1651871e-001
0.0000000e+000
0.0000000e+000
1.2846776e-001
8.1965894e-002
1.6393309e-001
-3.1832240e-002
-6.7749732e-002
1.1731432e-001
-4.8596878e-002
-7.6229565e-002
4.5735792e-002
4.2437607e-002
2.4812395e-002
4.4844850e-003
-1.1607068e-001
-1.1520433e-001
0.0000000e+000
0.0000000e+000
8.8797266e-002
-3.3708539e-002
9.5566284e-002
-3.8025224e-002
3.6055221e-002
6.0977234e-002
3.8826301e-002
1.5172772e-001
-3.7871192e-002
-7.5146587e-002
3.2663895e-002
-1.3471830e-001
-1.1101988e-001
-1.9443490e-002
0.0000000e+000
0.0000000e+000
-1.2826865e-001
-6.7435029e-002
-7.1708046e-002
3.7251912e-002
8.8555324e-002
-7.7406408e-002
-1.0859189e-001
1.8886689e-002
2.3463341e-002
-1.6983341e-002
4.1525951e-002
4.7581635e-002
1.4557984e-001
1.3329579e-001
0.0000000e+000
0.0000000e+000
-6.7692058e-002
4.2176521e-002
50
54
50
-6.4454663e-002
1.2679343e-001
-1.2222943e-001
1.3606476e-002
2.1194238e-002
6.8113166e-002
-3.2166928e-002
5.4677667e-002
1.5217294e-002
4.6099198e-003
-1.6552898e-002
-2.3295192e-002
0.0000000e+000
0.0000000e+000
3.7774986e-002
-6.5479780e-002
-1.9131905e-001
1.5874034e-001
-6.0038101e-002
-1.2509671e-002
1.5486661e-001
-1.6984734e-001
3.9872932e-002
7.9318284e-002
2.4257215e-002
-8.8458378e-003
7.1446967e-002
-1.3206734e-001
0.0000000e+000
0.0000000e+000
-9.0418634e-003
8.3553892e-003
1.4092589e-001
-1.0673109e-003
1.0067082e-002
6.8957883e-003
2.0006806e-002
-9.8726465e-002
8.6729976e-005
-3.1952606e-002
4.1382024e-002
2.1927033e-002
1.4096602e-003
9.9526350e-002
0.0000000e+000
0.0000000e+000
-5.5917800e-002
-2.6644403e-002
2.5077303e-002
-1.9663966e-002
-1.7440842e-002
-5.3896071e-002
6.8925188e-002
-1.6673346e-002
-4.1664974e-002
1.3102842e-002
-8.7609193e-002
4.1947670e-002
3.3679335e-002
6.6231320e-002
0.0000000e+000
0.0000000e+000
-3.1567615e-002
1.1400614e-001
3.9124707e-002
-1.6825475e-001
9.3286420e-002
-9.3273783e-003
-2.4308176e-002
1.3424766e-001
4.3828414e-002
5.3308895e-003
-1.6455914e-001
-4.5198211e-003
-3.9452955e-002
3.5726862e-002
0.0000000e+000
0.0000000e+000
-3.6271258e-002
9.3702834e-002
2.9167581e-002
5.6725145e-002
-5.7648130e-002
9.5016001e-002
-2.2099112e-002
-1.2747447e-001
8.4960589e-002
-1.4167312e-002
1.7489484e-002
6.4288738e-002
-7.1762491e-003
-8.4998521e-003
0.0000000e+000
0.0000000e+000
-8.8053041e-003
-1.6061269e-003
-2.4492575e-002
-1.0079697e-001
-3.1559039e-003
3.0427784e-003
3.8308249e-002
1.9762180e-002
1.8931217e-002
-2.7571847e-002
1.3788338e-001
-8.9330004e-002
-3.0823601e-002
-4.3327912e-002
0.0000000e+000
0.0000000e+000
-3.9613556e-003
-9.8164488e-002
-4.4368094e-002
5.0482451e-002
-3.1773125e-002
8.1627570e-002
4.2499043e-002
-5.9273166e-002
7.3683057e-002
-1.1026590e-002
-3.4686828e-002
6.6334488e-002
-3.5225990e-002
4.4621544e-002
0.0000000e+000
0.0000000e+000
-1.0704435e-002
3.4441053e-002
8.5757386e-002
6.5701052e-002
-1.1741014e-001
1.4778422e-002
-1.6970406e-002
3.7347996e-002
-1.5234762e-002
4.7941848e-002
-1.2674434e-001
3.5838126e-002
-2.5926918e-002
-4.0405301e-002
0.0000000e+000
0.0000000e+000
2.0760499e-002
1.5579272e-001
1.2856401e-002
1.3048360e-002
-5.9564215e-002
3.5298279e-002
-1.4528798e-002
2.2443301e-002
-1.0312303e-001
6.7767639e-002
-1.4084789e-001
-3.0687770e-002
-2.1173044e-003
4.2955052e-002
0.0000000e+000
0.0000000e+000
1.5495784e-002
5.1332539e-002
50
55
53
2.5567496e-002
7.2631109e-002
-1.3611299e-001
8.9092329e-002
-1.5135161e-002
3.1266832e-002
-7.0445420e-002
-1.0406687e-001
-1.8300678e-002
6.7872839e-002
1.6611044e-002
4.8372501e-002
0.0000000e+000
0.0000000e+000
2.5551569e-002
-7.1742261e-002
-2.1268211e-001
1.0070168e-002
6.8745511e-002
-9.2156873e-002
1.3454407e-001
1.2956431e-001
-1.2970655e-002
4.8548785e-002
-8.0454025e-002
-1.2272569e-001
-2.3882000e-002
1.4180858e-003
0.0000000e+000
0.0000000e+000
5.8639867e-002
9.5561285e-002
3.9019089e-002
-8.3085755e-002
4.5951473e-002
5.3117472e-002
2.9445340e-002
4.4372855e-002
-1.3515035e-002
-1.1211304e-002
-8.3667478e-002
4.8843585e-002
-3.7432113e-002
-1.3477031e-002
0.0000000e+000
0.0000000e+000
-1.7458440e-001
4.2790066e-002
1.2906121e-001
-5.7176090e-002
8.9097550e-002
-1.5817114e-002
-1.6660441e-001
6.1928750e-002
-7.0463186e-003
1.4263314e-002
8.2601370e-002
3.2634153e-003
-8.5730083e-002
-7.6129420e-002
0.0000000e+000
0.0000000e+000
-4.8663526e-003
-1.1454169e-001
5.9110006e-003
-8.3899005e-002
-8.4125974e-003
-1.1239745e-002
-7.4748781e-002
-1.9542313e-002
1.7365425e-001
-2.7154439e-002
-5.5911583e-002
3.6409082e-002
-1.8281106e-001
-3.0687327e-002
0.0000000e+000
0.0000000e+000
-3.8956298e-002
2.9348716e-002
-4.4283459e-002
9.6322920e-002
-5.0895165e-003
1.1767707e-001
1.2622506e-001
-1.0865869e-001
1.5336669e-001
-1.1081711e-001
-1.9549355e-001
1.5165455e-001
-1.0119223e-001
-1.3652216e-002
0.0000000e+000
0.0000000e+000
-1.7604419e-002
4.5640859e-002
8.8483626e-002
-4.9127921e-002
-2.5696454e-002
-5.7185392e-002
-1.4779893e-002
2.9086649e-003
-8.6429636e-002
1.1745333e-001
7.4010598e-002
1.2838914e-001
-1.1792087e-002
3.6033102e-002
0.0000000e+000
0.0000000e+000
-2.7503442e-002
-1.9046903e-002
6.2608631e-003
1.0414319e-001
2.7742648e-002
3.3237080e-002
-1.9872328e-001
1.3969510e-002
5.0456349e-002
-1.6283638e-001
8.4765116e-002
2.7942276e-002
-1.2198835e-001
1.5779256e-001
0.0000000e+000
0.0000000e+000
5.4269717e-002
-7.0549800e-002
1.1877429e-001
-1.2392697e-001
-4.6655180e-002
4.1012336e-002
-8.8850513e-002
9.7146817e-003
2.3474577e-002
-1.8180030e-002
-7.5739407e-002
-5.1546758e-002
-1.3025479e-001
4.1416234e-002
0.0000000e+000
0.0000000e+000
7.5401950e-002
1.5440519e-001
2.3851847e-002
3.1065057e-002
-2.7842421e-002
7.8551945e-002
2.1064162e-002
-2.0119227e-002
-8.5276693e-002
3.7876019e-002
2.8040673e-002
-1.8186351e-002
1.1961633e-001
-9.6670612e-002
0.0000000e+000
0.0000000e+000
1.4455412e-002
1.2889403e-001
50
56
55
4.6261598e-002
5.3243642e-002
-9.8021714e-002
-8.6727878e-003
1.5889152e-001
-1.7127736e-001
-6.0353846e-002
-4.4184705e-002
-2.0839992e-001
1.8348775e-001
1.6941752e-001
-1.3444567e-001
0.0000000e+000
0.0000000e+000
-2.3899626e-001
1.6903120e-001
-4.9894678e-002
-1.3774183e-001
8.2337397e-002
-4.4766054e-002
1.5233182e-001
6.6284404e-002
-1.4324913e-001
-2.7015358e-002
-1.3073645e-001
-1.6148789e-002
-5.2636866e-002
1.4019171e-001
0.0000000e+000
0.0000000e+000
8.9958794e-003
7.4507758e-002
5.2496160e-002
-1.0597038e-001
-8.4114814e-002
7.2170095e-002
-7.8590718e-003
9.4228267e-002
-5.5900018e-002
-6.1826966e-002
-1.1456595e-002
3.7994886e-002
-1.6689666e-002
6.5536708e-002
0.0000000e+000
0.0000000e+000
-1.2025815e-001
2.0992032e-002
2.9199687e-003
1.0631869e-002
-4.8042359e-002
3.1228884e-002
-8.3981171e-002
-5.3816561e-002
-5.1366772e-002
2.2578036e-002
-1.1509761e-002
4.5966276e-002
1.5730272e-002
-1.7645604e-002
0.0000000e+000
0.0000000e+000
4.1041108e-002
4.3342342e-002
-7.0626246e-002
-8.4024640e-002
8.3125942e-002
1.0037722e-001
1.2239375e-001
1.6438678e-002
9.5263176e-002
3.8475044e-002
-9.1355809e-002
6.7320387e-002
-1.0099723e-001
-1.0121971e-001
0.0000000e+000
0.0000000e+000
-1.8846433e-002
-8.3426012e-002
-2.2715096e-001
8.5526388e-002
8.7773724e-002
7.3549716e-002
1.9446021e-001
-1.7967311e-001
-4.9429471e-002
-2.0765814e-002
5.1596622e-002
8.9133783e-002
1.0472209e-001
2.3023893e-002
0.0000000e+000
0.0000000e+000
2.8728343e-002
-7.6173898e-002
8.1491016e-002
-3.6851885e-002
-1.8246504e-001
7.4406851e-002
-1.2394913e-001
1.0040191e-001
-6.3925154e-002
5.0431072e-002
5.3210632e-002
-9.5943939e-002
-1.6469521e-001
1.3583639e-001
0.0000000e+000
0.0000000e+000
-6.9717638e-002
1.3021722e-001
-8.8436206e-002
2.9458816e-002
-6.2471164e-002
-4.7865342e-002
-5.2879759e-002
8.8881796e-002
6.6663749e-002
5.8389290e-002
6.0712599e-002
-3.1962703e-001
4.3165572e-003
-1.2011303e-001
0.0000000e+000
0.0000000e+000
9.0222349e-002
-7.8028193e-002
7.8806758e-002
-1.0152732e-001
4.4045350e-002
-4.4511218e-002
2.7710003e-003
5.3485876e-002
2.3776658e-001
5.9460528e-004
-4.2343777e-002
-6.0879406e-002
1.0740018e-002
-1.3804323e-001
0.0000000e+000
0.0000000e+000
6.4124533e-003
-3.0290188e-002
2.9113394e-002
3.3495266e-002
1.1393366e-001
5.7651011e-002
1.5079875e-001
-2.1639604e-001
6.3818455e-002
4.0373277e-003
2.3116818e-002
3.7521142e-001
-1.3361080e-001
1.5772222e-002
0.0000000e+000
0.0000000e+000
-1.4210712e-001
1.1566903e-001
51
48
54
-6.3696074e-002
8.6930069e-002
9.6678966e-002
-6.4798270e-002
-2.0004785e-001
2.9275035e-001
-9.7665045e-002
-4.2839825e-002
1.7558333e-001
-4.4176012e-002
6.2641973e-002
3.8334398e-002
0.0000000e+000
0.0000000e+000
-1.0300250e-002
-1.5024742e-001
1.4513121e-001
8.7168552e-002
-2.7808103e-001
2.5797798e-001
-2.6726451e-001
2.2056822e-002
6.8194173e-002
-3.5452435e-002
1.3005049e-001
-2.7882745e-002
-4.3391137e-002
-3.0489578e-002
0.0000000e+000
0.0000000e+000
-4.9152528e-002
1.3986848e-002
1.0453471e-002
8.5823986e-002
2.8425759e-002
1.1776993e-001
-8.2595051e-002
2.5841163e-002
3.5402417e-002
-6.9278959e-002
-3.6172658e-002
4.1196291e-002
-4.2094072e-002
5.8450539e-002
0.0000000e+000
0.0000000e+000
-1.0957215e-001
-4.6662042e-002
-1.6282185e-002
1.3565573e-002
-3.0319492e-003
2.5967247e-002
4.6079990e-002
-9.7712395e-002
7.0286954e-002
-5.5011623e-002
-8.1456472e-002
5.2950458e-002
8.6045658e-002
2.2574585e-002
0.0000000e+000
0.0000000e+000
-6.4292906e-002
5.7257223e-002
1.3854220e-001
-1.0699919e-003
5.0147234e-002
-1.2722382e-001
-1.3048504e-001
6.6261199e-002
-1.1575696e-001
2.7966921e-002
9.3582163e-002
-3.8344858e-002
4.3566363e-002
-5.7380617e-003
0.0000000e+000
0.0000000e+000
2.3755288e-002
-6.5669953e-002
-2.9706232e-002
5.1607106e-002
6.6714234e-002
5.8646125e-002
-6.7689462e-003
8.7451857e-002
-8.8342765e-002
6.7099127e-002
8.0919240e-002
-8.0124650e-002
6.9209634e-002
1.7453619e-002
0.0000000e+000
0.0000000e+000
9.3259312e-003
1.0438118e-003
-3.6711754e-002
-1.8163223e-001
-1.4486780e-001
8.2075275e-002
-1.8985861e-002
2.7197774e-001
1.0176457e-001
-3.0249391e-002
4.0085874e-003
-1.1487960e-001
-7.3319859e-002
-4.3170393e-003
0.0000000e+000
0.0000000e+000
-3.8545896e-002
1.0819582e-001
9.7284259e-002
-3.6400868e-002
4.4112454e-002
-1.3729716e-001
2.1295299e-002
-3.7402014e-002
7.4992073e-003
-2.1582203e-002
-2.9926144e-002
1.5051514e-001
-2.0405160e-001
-3.3341962e-002
0.0000000e+000
0.0000000e+000
4.4744059e-002
1.5691458e-001
5.3163670e-002
1.7673944e-002
-3.3902081e-002
4.3589110e-002
4.8656839e-003
8.4157740e-002
-6.3777853e-002
3.0441402e-002
-1.2546394e-001
5.6662394e-002
5.2325505e-002
-1.2275941e-002
0.0000000e+000
0.0000000e+000
-8.5697881e-002
-1.0594661e-001
3.7531147e-003
-1.0385433e-001
6.3779360e-002
1.6579297e-001
5.8358335e-002
1.4894215e-003
1.2649405e-001
-2.5556214e-002
-1.5048981e-001
-1.7096367e-002
1.1713742e-001
-6.3224663e-002
0.0000000e+000
0.0000000e+000
-3.8015455e-002
1.9811050e-002
51
49
56
2.5509779e-002
-3.9449701e-001
1.0510840e-001
1.6789379e-001
1.6954218e-001
4.4798453e-002
2.9618210e-001
-1.5982260e-001
-1.2511560e-001
-1.3563621e-001
1.9667219e-002
-5.2708098e-002
0.0000000e+000
0.0000000e+000
-2.3944514e-002
5.3120415e-002
3.3393555e-001
-1.3098679e-001
1.1729645e-001
-5.6604881e-002
-3.2326777e-001
1.8421643e-001
-1.1057052e-001
-1.3801960e-002
5.5541103e-002
-1.0874809e-001
9.8272644e-002
-9.4236047e-003
0.0000000e+000
0.0000000e+000
-7.3744353e-002
1.5800250e-002
9.0589231e-003
5.7964695e-002
-3.8103301e-002
-2.3758376e-002
-8.7664277e-002
7.5402959e-002
-3.7917632e-002
2.6343430e-002
-2.6534972e-002
-7.8787137e-002
2.7617631e-002
3.2795834e-002
0.0000000e+000
0.0000000e+000
-6.9649675e-002
1.8909398e-002
8.9161646e-002
-2.9129387e-002
1.6541149e-002
3.9374562e-002
-6.0917638e-002
-8.2912501e-002
-6.3587710e-002
1.4567992e-001
5.8423383e-002
1.8847732e-002
9.5833823e-002
3.5428075e-002
0.0000000e+000
0.0000000e+000
1.4784327e-003
-5.4727526e-002
1.4552661e-001
-1.4765929e-001
1.1579303e-001
-4.5955437e-002
-6.5484075e-002
3.0877987e-002
-4.8861344e-003
1.9434060e-002
7.2756802e-002
-1.0066520e-001
7.1842600e-004
6.8126615e-002
0.0000000e+000
0.0000000e+000
6.0112262e-002
-3.4605280e-002
-3.1024762e-002
3.5988474e-002
-3.0819348e-002
-1.1657540e-001
3.2886253e-002
-2.5548197e-002
9.0505057e-002
-5.1993361e-002
2.4719468e-002
3.3697213e-002
-1.4819639e-001
5.7449917e-002
0.0000000e+000
0.0000000e+000
-6.4463295e-003
3.2202982e-002
-1.4305097e-001
7.4909982e-002
-8.3419611e-002
4.2876033e-003
5.8545803e-002
1.4894132e-001
-7.5926287e-002
7.6496200e-002
-1.4416422e-001
4.2427131e-002
-1.4801504e-003
-7.2510874e-002
0.0000000e+000
0.0000000e+000
-1.0660967e-001
9.3438366e-002
-2.4000026e-002
-3.7219361e-002
-7.4127322e-002
1.1059409e-001
9.6428265e-002
7.1114139e-002
1.5722926e-003
5.1576782e-002
5.4883519e-002
-7.8045213e-002
2.4515989e-002
8.1126497e-002
0.0000000e+000
0.0000000e+000
-2.3224140e-002
-1.4260442e-003
1.7223085e-001
-1.2776692e-001
-1.9511780e-001
1.1804047e-001
-8.4090082e-002
-5.1438812e-002
2.1969508e-002
-1.4960145e-001
-8.5303114e-002
-2.7490176e-002
4.6527491e-002
2.3144356e-002
0.0000000e+000
0.0000000e+000
-6.9802703e-002
7.8242828e-002
4.4393133e-002
1.4402597e-001
-4.4202905e-002
8.1166383e-002
-2.3287786e-001
-1.0543323e-001
4.7801000e-002
6.6692337e-002
1.5288972e-002
1.1063296e-001
-7.8376589e-002
-1.0993720e-001
0.0000000e+000
0.0000000e+000
3.2172775e-002
-1.7620184e-002
51
51
48
1.6191243e-002
-2.2115729e-002
2.9919327e-002
-9.9975829e-002
-2.6472723e-001
5.0317865e-001
-1.3169459e-001
1.1114072e-001
1.8997635e-001
-3.5281566e-001
-2.0673918e-002
7.4186606e-002
0.0000000e+000
0.0000000e+000
1.6409660e-002
-9.3906717e-002
3.0646217e-002
8.3214680e-002
6.8366149e-003
5.9716336e-002
-2.0378094e-002
-1.0861451e-001
-3.3228401e-002
4.7608126e-002
-7.5678059e-002
2.9652078e-001
-4.4147424e-002
-4.9460229e-002
0.0000000e+000
0.0000000e+000
-5.2914436e-002
2.7215014e-002
7.7741866e-002
-8.1315010e-002
-2.8973372e-002
4.1295359e-002
-7.4919809e-002
4.6293042e-002
1.7804677e-002
-9.8854916e-002
-1.9402977e-001
1.1186159e-001
-5.6067506e-002
1.1142626e-001
0.0000000e+000
0.0000000e+000
-8.1837294e-002
-7.0267703e-003
7.7889775e-002
-2.8410525e-002
-5.5051153e-002
9.9727527e-003
-2.5120127e-002
-6.9280462e-002
-5.1224358e-003
-7.0871403e-002
-2.9936215e-003
1.1229404e-002
-8.6564466e-002
5.3596563e-002
0.0000000e+000
0.0000000e+000
7.5775632e-003
-8.4018497e-002
1.1267355e-001
2.5898818e-002
-7.1363655e-002
9.6409553e-002
-1.6569760e-003
5.7112956e-002
1.0391199e-001
-1.3665001e-001
5.8138061e-002
-1.9881437e-001
-6.4901318e-002
8.1348537e-002
0.0000000e+000
0.0000000e+000
1.9523802e-003
9.2891841e-002
-2.5648588e-002
-5.2048152e-002
7.7161699e-002
3.9373096e-002
1.8119092e-002
1.3038894e-001
-9.0773695e-002
-1.4394588e-002
9.0401307e-002
-1.2392291e-001
2.1923204e-001
4.2585081e-003
0.0000000e+000
0.0000000e+000
1.5033163e-002
-2.4045373e-002
6.5404516e-002
-9.2723521e-002
1.3313378e-002
1.8806501e-002
4.8010388e-002
-8.0690668e-002
2.0748356e-002
1.5942856e-001
-2.1441677e-002
-2.0946887e-002
-3.6274950e-002
-6.0788434e-002
0.0000000e+000
0.0000000e+000
1.8889128e-002
-9.4692777e-002
2.4751005e-002
-1.9238236e-001
-7.5250679e-003
-1.8933590e-002
-6.9689425e-002
-4.6326163e-002
-1.4121775e-001
1.8286242e-001
-4.7196460e-002
2.5399752e-002
7.9190462e-003
-1.8271687e-001
0.0000000e+000
0.0000000e+000
5.7723901e-002
-2.2123358e-002
4.9054138e-002
3.0926152e-002
-1.6059512e-001
-3.2027576e-002
-1.0182760e-001
1.3752729e-001
-8.1073130e-002
-5.5565785e-002
-1.3679456e-002
-1.1093153e-001
-4.0244314e-002
-2.8040392e-002
0.0000000e+000
0.0000000e+000
-6.8737469e-002
1.5715770e-001
-1.0272985e-001
7.1216228e-002
4.9359308e-002
-4.7282315e-002
8.4753034e-002
-8.5783410e-002
9.5680058e-002
1.3949423e-002
1.1311203e-001
2.7554012e-002
2.5092938e-002
5.8800260e-002
0.0000000e+000
0.0000000e+000
-5.1946986e-002
3.7860057e-002
