  1.6191243e-002
 -2.2115729e-002
  2.9919327e-002
 -9.9975829e-002
 -2.6472723e-001
  5.0317865e-001
 -1.3169459e-001
  1.1114072e-001
  1.8997635e-001
 -3.5281566e-001
 -2.0673918e-002
  7.4186606e-002
  0.0000000e+000
  0.0000000e+000
  1.6409660e-002
 -9.3906717e-002
  3.0646217e-002
  8.3214680e-002
  6.8366149e-003
  5.9716336e-002
 -2.0378094e-002
 -1.0861451e-001
 -3.3228401e-002
  4.7608126e-002
 -7.5678059e-002
  2.9652078e-001
 -4.4147424e-002
 -4.9460229e-002
  0.0000000e+000
  0.0000000e+000
 -5.2914436e-002
  2.7215014e-002
  7.7741866e-002
 -8.1315010e-002
 -2.8973372e-002
  4.1295359e-002
 -7.4919809e-002
  4.6293042e-002
  1.7804677e-002
 -9.8854916e-002
 -1.9402977e-001
  1.1186159e-001
 -5.6067506e-002
  1.1142626e-001
  0.0000000e+000
  0.0000000e+000
 -8.1837294e-002
 -7.0267703e-003
  7.7889775e-002
 -2.8410525e-002
 -5.5051153e-002
  9.9727527e-003
 -2.5120127e-002
 -6.9280462e-002
 -5.1224358e-003
 -7.0871403e-002
 -2.9936215e-003
  1.1229404e-002
 -8.6564466e-002
  5.3596563e-002
  0.0000000e+000
  0.0000000e+000
  7.5775632e-003
 -8.4018497e-002
  1.1267355e-001
  2.5898818e-002
 -7.1363655e-002
  9.6409553e-002
 -1.6569760e-003
  5.7112956e-002
  1.0391199e-001
 -1.3665001e-001
  5.8138061e-002
 -1.9881437e-001
 -6.4901318e-002
  8.1348537e-002
  0.0000000e+000
  0.0000000e+000
  1.9523802e-003
  9.2891841e-002
 -2.5648588e-002
 -5.2048152e-002
  7.7161699e-002
  3.9373096e-002
  1.8119092e-002
  1.3038894e-001
 -9.0773695e-002
 -1.4394588e-002
  9.0401307e-002
 -1.2392291e-001
  2.1923204e-001
  4.2585081e-003
  0.0000000e+000
  0.0000000e+000
  1.5033163e-002
 -2.4045373e-002
  6.5404516e-002
 -9.2723521e-002
  1.3313378e-002
  1.8806501e-002
  4.8010388e-002
 -8.0690668e-002
  2.0748356e-002
  1.5942856e-001
 -2.1441677e-002
 -2.0946887e-002
 -3.6274950e-002
 -6.0788434e-002
  0.0000000e+000
  0.0000000e+000
  1.8889128e-002
 -9.4692777e-002
  2.4751005e-002
 -1.9238236e-001
 -7.5250679e-003
 -1.8933590e-002
 -6.9689425e-002
 -4.6326163e-002
 -1.4121775e-001
  1.8286242e-001
 -4.7196460e-002
  2.5399752e-002
  7.9190462e-003
 -1.8271687e-001
  0.0000000e+000
  0.0000000e+000
  5.7723901e-002
 -2.2123358e-002
  4.9054138e-002
  3.0926152e-002
 -1.6059512e-001
 -3.2027576e-002
 -1.0182760e-001
  1.3752729e-001
 -8.1073130e-002
 -5.5565785e-002
 -1.3679456e-002
 -1.1093153e-001
 -4.0244314e-002
 -2.8040392e-002
  0.0000000e+000
  0.0000000e+000
 -6.8737469e-002
  1.5715770e-001
 -1.0272985e-001
  7.1216228e-002
  4.9359308e-002
 -4.7282315e-002
  8.4753034e-002
 -8.5783410e-002
  9.5680058e-002
  1.3949423e-002
  1.1311203e-001
  2.7554012e-002
  2.5092938e-002
  5.8800260e-002
  0.0000000e+000
  0.0000000e+000
 -5.1946986e-002
  3.7860057e-002
