32,-2.1372852e-001,2.3501557e-002,1.1174159e-001,1.7505648e-002,4.8717019e-001,-2.7640959e-001,1.2758195e-001,-1.6576580e-002,-2.2171602e-001,7.7046834e-002,6.6269407e-003,-1.0879517e-001,0.0000000e+000,0.0000000e+000,-1.7134351e-001,-1.5660756e-001,9.2972873e-002,-2.8324420e-001,9.0737466e-002,1.1557864e-001,-1.0906884e-001,3.3000303e-001,-3.6112253e-002,-1.2434881e-001,-1.9707861e-002,-1.0907527e-001,-3.1606747e-002,7.3325650e-002,0.0000000e+000,0.0000000e+000,4.6471786e-002,8.2088931e-003,1.9027096e-001,-1.6359338e-001,2.7217800e-001,-3.5685070e-002,-6.1825406e-002,-2.9361181e-001,4.1420181e-002,-1.1856452e-001,7.1309052e-003,5.0620187e-002,9.9113461e-002,-3.9643652e-002,0.0000000e+000,0.0000000e+000,-2.2834648e-001,1.6952768e-001,-5.0858838e-002,-1.0489373e-001,1.3198735e-001,-4.4874586e-002,3.6925635e-002,9.0664869e-002,8.2570805e-002,2.9057270e-002,-4.9381234e-002,-3.7482890e-002,-3.6941155e-002,-3.4073298e-002,0.0000000e+000,0.0000000e+000,-1.2993736e-002,-1.4499628e-001,-8.5089647e-002,1.9624690e-002,-2.9144759e-001,-2.4253671e-001,8.4848980e-002,1.9965532e-001,4.4783363e-002,1.9252266e-001,-1.1448206e-001,-4.9845611e-002,-4.1660415e-002,2.1363498e-001,0.0000000e+000,0.0000000e+000,1.7930025e-002,2.0946541e-001,-1.5564163e-002,1.4643946e-001,-7.2024532e-002,8.5860665e-002,-4.6221039e-002,-1.1242605e-001,6.1809116e-002,-1.9868107e-001,-1.1506133e-001,-8.1433922e-002,1.6691865e-001,-9.5135016e-002,0.0000000e+000,0.0000000e+000,-7.4571804e-002,7.4186733e-002,3.8410154e-002,6.5554637e-002,9.0136094e-002,4.3869126e-003,3.5276397e-001,-8.0674479e-002,2.4158906e-004,-6.1963943e-002,4.4231471e-002,-7.5633750e-002,3.4504334e-001,-1.9000334e-001,0.0000000e+000,0.0000000e+000,2.2147078e-002,-1.1649711e-001,2.1525098e-001,-1.5025707e-001,-1.4803545e-001,1.8632335e-002,-1.1082422e-001,1.2793191e-001,1.2773507e-001,-1.2530653e-002,7.5576306e-002,-5.7460261e-002,-8.6760129e-002,1.5452918e-001,0.0000000e+000,0.0000000e+000,1.3441430e-001,-1.0701536e-001,-2.6577492e-001,4.3164272e-002,-2.3515585e-001,1.6320400e-001,-2.4506254e-001,4.7926095e-002,1.4666541e-001,-2.9571815e-001,4.3299628e-003,-1.6445297e-001,-2.6477756e-001,1.6455377e-001,0.0000000e+000,0.0000000e+000,-1.4738972e-001,1.6945096e-001,2.9607328e-002,9.4991611e-002,2.0989805e-001,-6.3080587e-002,9.1824534e-003,-7.9534243e-002,3.2209441e-004,5.6697282e-002,-1.2386414e-002,-1.3264117e-001,8.7216932e-002,-2.0215677e-001,0.0000000e+000,0.0000000e+000,-9.0243827e-003,1.4892749e-001,
,42,-4.0660506e-003,-1.6533511e-002,-2.7427768e-003,5.7802120e-002,8.1032168e-002,-4.2238292e-002,5.6477242e-002,-5.9907552e-002,-6.0184960e-002,4.5604013e-002,-9.2022067e-002,9.0817484e-002,0.0000000e+000,0.0000000e+000,6.6736762e-003,5.5577317e-002,-5.9002141e-002,1.0712630e-002,-3.7421331e-002,6.3339657e-002,6.8319538e-002,2.1600059e-002,2.2028225e-003,1.4783112e-002,-2.2994469e-002,-1.2265929e-002,2.2592886e-002,1.8577881e-002,0.0000000e+000,0.0000000e+000,1.5547539e-002,-2.6265222e-003,1.0118310e-001,-4.3217479e-002,7.3013371e-002,-5.8908894e-002,-3.9821556e-002,1.9259595e-002,-1.7589748e-002,6.3363338e-003,-3.5854347e-002,5.2337666e-002,-1.9617470e-002,1.1227766e-002,0.0000000e+000,0.0000000e+000,-4.1365289e-002,-3.9185621e-002,-1.6039157e-002,2.4099500e-002,-2.1732517e-002,3.4032757e-002,3.6767671e-002,-6.3986606e-003,7.8903524e-002,-3.3333783e-002,-7.9676733e-002,-2.1680178e-002,9.1975145e-003,1.7802281e-002,0.0000000e+000,0.0000000e+000,3.1936375e-003,2.1860909e-002,-8.7820346e-002,-2.7774844e-002,-6.8509026e-003,-4.1403809e-002,9.9751616e-002,7.5256952e-002,-3.9921916e-002,-2.7503238e-003,-4.0919688e-002,2.4873354e-002,3.4500563e-002,3.2745499e-002,0.0000000e+000,0.0000000e+000,-1.1407125e-001,-1.9848447e-002,-6.3260478e-002,-2.2465462e-002,-5.0572239e-002,-1.0554078e-003,-3.1976687e-002,-3.0948072e-002,6.3578631e-002,1.7943007e-002,7.2220071e-002,1.2226197e-002,1.3161655e-003,-2.9679627e-002,0.0000000e+000,0.0000000e+000,-8.1331198e-003,4.8858899e-002,7.6918086e-002,-1.2798299e-002,6.0517049e-003,8.2112772e-002,-3.3440061e-002,-9.2569929e-002,-2.1208522e-002,-3.1596951e-002,-8.4229199e-003,6.6336421e-002,3.5916773e-002,-2.6391070e-002,0.0000000e+000,0.0000000e+000,1.2948246e-002,-3.7710661e-002,-2.4934028e-002,-5.3723117e-002,-7.7339495e-002,7.3499445e-002,2.4890073e-002,1.8986890e-002,-4.5036964e-002,-2.7983499e-002,5.7036799e-002,-3.5366792e-003,-3.4304559e-002,1.0497041e-002,0.0000000e+000,0.0000000e+000,3.8358536e-002,-5.0698458e-002,5.8879260e-002,3.0819353e-002,-4.0058062e-002,1.4219958e-002,-1.0365183e-002,8.4870705e-002,1.9119867e-002,-3.1925347e-002,-9.1396283e-003,-6.2375703e-002,6.8346660e-002,1.9488338e-002,0.0000000e+000,0.0000000e+000,-1.1149327e-002,5.7798274e-002,4.0041214e-002,1.2284870e-002,3.6641942e-002,-5.6385422e-002,-5.7326422e-002,-1.2923948e-002,3.6339735e-002,5.4444283e-002,-2.0835314e-002,1.6760491e-003,5.4899228e-003,-5.2897080e-003,0.0000000e+000,0.0000000e+000,3.4420497e-002,2.7629184e-002,
,46,0.0000000e+000,0.0000000e+000,-3.6443766e-001,0.0000000e+000,0.0000000e+000,0.0000000e+000,0.0000000e+000,0.0000000e+000,0.0000000e+000,-7.6383968e-001,0.0000000e+000,4.5138363e-001,0.0000000e+000,0.0000000e+000,5.4497772e-001,1.7754765e-001,4.9666599e-001,0.0000000e+000,4.4727601e-001,-8.5044274e-001,0.0000000e+000,-8.6779047e-001,-5.4086236e-001,1.0073498e+000,-3.8792551e-002,4.7924272e-001,0.0000000e+000,-2.4659969e-001,0.0000000e+000,0.0000000e+000,3.9926576e-001,-1.2050967e-001,-2.5046371e-001,0.0000000e+000,0.0000000e+000,3.0858069e-001,6.4273552e-001,4.4804849e-001,-2.8273260e-001,0.0000000e+000,2.2296798e-002,0.0000000e+000,0.0000000e+000,-9.3167702e-001,0.0000000e+000,0.0000000e+000,-2.3595703e-001,-5.1337617e-001,0.0000000e+000,-9.3220968e-002,0.0000000e+000,1.8605879e-001,8.1675890e-002,3.6382630e-001,-2.7929134e-001,-3.9477827e-001,0.0000000e+000,2.8916623e-002,0.0000000e+000,-2.8594562e-001,0.0000000e+000,0.0000000e+000,-1.3144772e-001,3.8718041e-001,6.0507985e-001,3.1987584e-001,-6.8452492e-001,0.0000000e+000,-6.7003241e-001,4.2689169e-001,-8.5715559e-001,6.6370593e-001,0.0000000e+000,-5.9813293e-001,3.0356195e-001,0.0000000e+000,0.0000000e+000,0.0000000e+000,-2.0779376e-001,1.2161114e+000,-1.9106920e-001,2.3783799e-001,4.4794288e-001,-2.1992096e-002,0.0000000e+000,-2.6293937e-001,-3.4215816e-001,2.8346900e-001,-1.0386612e-002,2.2658880e-001,-1.2313285e-001,3.6610821e-002,0.0000000e+000,0.0000000e+000,8.0495400e-002,-3.0849825e-001,-2.3788584e-001,3.6446394e-001,2.4797104e-001,2.8180109e-001,1.5426333e-001,0.0000000e+000,3.7141610e-001,0.0000000e+000,-3.0006427e-001,8.2005497e-002,-6.8325328e-001,6.1456082e-002,0.0000000e+000,0.0000000e+000,9.3964180e-001,-1.2674529e-001,8.5030101e-001,-2.6902131e-001,-1.1721384e-001,2.1344795e-001,-8.0423656e-001,0.0000000e+000,0.0000000e+000,3.7511135e-002,1.5421704e-001,0.0000000e+000,2.6841653e-001,6.0404239e-001,0.0000000e+000,0.0000000e+000,-8.0369879e-001,2.6624491e-001,0.0000000e+000,-4.0870992e-001,0.0000000e+000,0.0000000e+000,0.0000000e+000,6.5724844e-001,-7.4033439e-001,-2.9533306e-001,-2.3016116e-001,0.0000000e+000,-7.7769894e-002,-5.3401096e-001,0.0000000e+000,0.0000000e+000,-4.3907381e-001,-8.5759299e-002,-7.5944289e-001,1.0351560e-002,3.5349800e-001,-3.6479139e-001,1.4224628e-001,0.0000000e+000,1.4034458e-001,-1.3393071e-001,0.0000000e+000,-1.7858377e-001,-3.2105871e-001,-2.7855027e-001,0.0000000e+000,0.0000000e+000,3.4146909e-001,4.7010937e-001,
,52,4.8171713e-002,-8.0857420e-002,3.3149688e-001,-2.5504610e-001,1.6262011e-001,-2.0560365e-001,-2.1399842e-002,2.9916703e-001,-7.1790745e-002,-7.0218439e-002,-7.7446966e-002,-1.1312780e-001,0.0000000e+000,0.0000000e+000,1.1925869e-001,1.0659049e-001,-1.8644380e-002,-2.0962319e-001,2.9220631e-002,8.9051856e-002,1.2420572e-001,2.0586127e-001,-6.1672257e-002,-6.2647240e-002,-6.3049692e-002,-7.7246761e-002,7.1764961e-002,4.0736949e-002,0.0000000e+000,0.0000000e+000,9.3781514e-002,-7.7006932e-003,-4.2385017e-002,1.2248496e-001,-1.5612585e-003,3.2544825e-002,1.9380859e-001,-1.5188276e-001,2.6753116e-002,6.7103455e-002,-1.6452045e-001,8.3118414e-002,-1.1380597e-001,9.6823013e-002,0.0000000e+000,0.0000000e+000,1.1181731e-001,4.1511779e-002,-2.4696337e-002,3.5074703e-002,-7.7668904e-002,1.5393013e-001,-4.9706399e-002,2.4156355e-002,-7.2383555e-002,-7.2433018e-002,-1.2429933e-001,4.4123388e-002,1.5389747e-001,9.0871958e-002,0.0000000e+000,0.0000000e+000,8.7508530e-002,-1.3857993e-001,6.6991216e-002,-7.7842105e-002,3.2790831e-002,1.8034940e-001,1.1017682e-003,2.0496920e-001,-1.4307858e-001,-3.0317186e-001,-4.8352091e-002,-6.2525951e-002,9.4380161e-002,4.2590876e-002,0.0000000e+000,0.0000000e+000,-6.1784164e-002,4.2594473e-002,1.9102432e-002,-1.9050695e-001,3.8564123e-002,-3.2046265e-002,-1.4741200e-002,1.1411244e-001,3.4160037e-002,3.9602992e-002,1.3116525e-001,-8.1488188e-002,-3.9811905e-002,-3.2346441e-002,0.0000000e+000,0.0000000e+000,3.2700492e-002,1.0525544e-001,3.5273879e-002,1.1700228e-001,-4.1357354e-002,3.2436765e-002,-1.9553265e-001,-1.2155415e-001,-1.4112329e-002,1.2100040e-001,-6.3246852e-002,2.2567009e-001,-6.1994271e-002,-4.0500133e-002,0.0000000e+000,0.0000000e+000,6.1027117e-002,-2.2134803e-001,-4.6245647e-003,-9.8526888e-002,1.8687150e-002,2.2825146e-002,5.5333021e-002,2.3056044e-002,1.0722078e-001,-7.2792998e-002,-5.5010568e-002,-1.4273224e-001,5.3315084e-002,-7.8246018e-002,0.0000000e+000,0.0000000e+000,-1.1183314e-001,-4.1784034e-002,-3.1474819e-004,-3.4847575e-002,8.3151395e-002,9.3452014e-002,9.8386053e-002,7.5996072e-002,3.5908967e-002,-1.7492657e-001,2.2389569e-001,-5.8045582e-002,-1.2908989e-002,7.1894582e-003,0.0000000e+000,0.0000000e+000,-1.9833670e-001,-7.1860039e-002,-4.6743112e-002,3.6662161e-002,-7.0665272e-002,5.7979215e-002,6.1544050e-003,-4.1184380e-002,-8.8301990e-002,-2.8048655e-002,-1.4076421e-001,1.5849133e-001,-1.1220167e-001,-5.9899567e-002,0.0000000e+000,0.0000000e+000,2.7417242e-001,-3.5814323e-002,
,56,-5.1762807e-001,5.0937920e-001,-1.3961444e-001,0.0000000e+000,0.0000000e+000,0.0000000e+000,0.0000000e+000,0.0000000e+000,6.1142350e-001,0.0000000e+000,2.3735275e-001,-4.3048699e-001,0.0000000e+000,0.0000000e+000,0.0000000e+000,0.0000000e+000,0.0000000e+000,2.1161792e-001,0.0000000e+000,3.0196711e-001,0.0000000e+000,0.0000000e+000,0.0000000e+000,-9.9485146e-002,2.3824203e-001,0.0000000e+000,3.1044730e-001,-2.7285275e-001,0.0000000e+000,0.0000000e+000,-1.4318098e-002,-2.5732020e-001,0.0000000e+000,0.0000000e+000,0.0000000e+000,0.0000000e+000,-4.3956996e-001,3.8649965e-002,-5.5485280e-001,0.0000000e+000,0.0000000e+000,0.0000000e+000,0.0000000e+000,-7.2121576e-002,0.0000000e+000,0.0000000e+000,7.5052759e-002,-5.9215250e-001,-6.8930916e-001,0.0000000e+000,0.0000000e+000,0.0000000e+000,0.0000000e+000,4.3153191e-001,0.0000000e+000,-2.9638686e-001,0.0000000e+000,1.4983010e-003,4.7227290e-001,6.6409066e-001,0.0000000e+000,0.0000000e+000,-4.0628839e-001,5.9928931e-001,3.8304573e-001,0.0000000e+000,-2.5262401e-001,-1.4384574e-001,-4.5709715e-001,0.0000000e+000,-7.7739415e-002,-1.0248256e-002,0.0000000e+000,0.0000000e+000,2.7009760e-003,0.0000000e+000,0.0000000e+000,0.0000000e+000,0.0000000e+000,0.0000000e+000,3.2796154e-001,-6.5098514e-001,1.7686474e-002,-4.4800266e-002,0.0000000e+000,1.9089631e-001,-4.4148595e-001,1.6697233e-001,8.4926028e-002,0.0000000e+000,-4.3863274e-001,1.2063021e-002,0.0000000e+000,0.0000000e+000,3.1844954e-001,7.2199167e-001,4.3923975e-001,3.5543663e-001,0.0000000e+000,0.0000000e+000,0.0000000e+000,-6.6255603e-001,1.8964297e-001,-1.2944966e-001,2.8225669e-001,6.9009550e-003,0.0000000e+000,2.0765451e-001,0.0000000e+000,0.0000000e+000,0.0000000e+000,-1.7264230e-001,0.0000000e+000,3.4024322e-001,-3.7885846e-001,3.1938645e-001,3.1543943e-001,0.0000000e+000,5.3244542e-001,-1.4979028e-001,2.3887648e-001,0.0000000e+000,0.0000000e+000,-3.0729799e-001,0.0000000e+000,0.0000000e+000,5.8859693e-003,-8.0547075e-001,-3.8794236e-001,0.0000000e+000,0.0000000e+000,2.1573653e-002,2.2206147e-001,0.0000000e+000,0.0000000e+000,0.0000000e+000,0.0000000e+000,0.0000000e+000,0.0000000e+000,0.0000000e+000,0.0000000e+000,0.0000000e+000,2.5000274e-001,0.0000000e+000,2.9643624e-001,-2.9645369e-001,2.8805495e-001,0.0000000e+000,0.0000000e+000,-8.5640456e-001,1.5087048e-001,0.0000000e+000,0.0000000e+000,2.2091861e-001,0.0000000e+000,2.0422045e-002,0.0000000e+000,0.0000000e+000,0.0000000e+000,-1.6617067e-001,
,60,3.8115054e-001,0.0000000e+000,2.2875870e-001,0.0000000e+000,-3.1394328e-001,0.0000000e+000,0.0000000e+000,0.0000000e+000,0.0000000e+000,7.0422526e-001,0.0000000e+000,-1.5338598e-001,0.0000000e+000,0.0000000e+000,0.0000000e+000,-6.0413289e-001,-5.6826258e-001,4.1712589e-001,6.0887643e-001,0.0000000e+000,0.0000000e+000,0.0000000e+000,0.0000000e+000,-2.6123511e-001,-3.4679328e-002,0.0000000e+000,-2.3591251e-001,6.2729296e-002,0.0000000e+000,0.0000000e+000,4.5029043e-001,-5.3707104e-001,-2.8656694e-001,0.0000000e+000,0.0000000e+000,0.0000000e+000,5.9284518e-001,0.0000000e+000,0.0000000e+000,7.0270296e-001,3.1880045e-001,0.0000000e+000,2.2289430e-001,0.0000000e+000,0.0000000e+000,0.0000000e+000,-2.3595211e-001,0.0000000e+000,-4.8291698e-001,1.9588923e-001,0.0000000e+000,-3.8512587e-001,0.0000000e+000,0.0000000e+000,3.6034260e-001,0.0000000e+000,0.0000000e+000,-1.7557862e-001,-9.8561761e-001,4.8272270e-001,0.0000000e+000,0.0000000e+000,5.4708592e-002,6.0194717e-001,-6.8229832e-001,0.0000000e+000,4.3260129e-001,0.0000000e+000,3.2509750e-001,0.0000000e+000,0.0000000e+000,1.1391808e-001,5.5638336e-001,0.0000000e+000,3.1213614e-001,0.0000000e+000,0.0000000e+000,0.0000000e+000,-2.6848942e-001,-4.7710295e-001,-6.9831687e-001,0.0000000e+000,2.4465016e-001,-2.0497375e-001,5.8590518e-001,0.0000000e+000,7.6018040e-002,4.7327378e-002,1.6637728e-001,-3.0338808e-001,0.0000000e+000,-1.3923154e-001,0.0000000e+000,0.0000000e+000,2.5683925e-002,-4.9184489e-001,-3.9929883e-001,0.0000000e+000,1.0894743e-001,-6.9850777e-001,0.0000000e+000,1.0468926e+000,0.0000000e+000,0.0000000e+000,0.0000000e+000,-5.9534127e-002,0.0000000e+000,2.3834044e-001,0.0000000e+000,0.0000000e+000,1.7762441e-001,7.7352672e-002,0.0000000e+000,9.7363512e-001,0.0000000e+000,8.1974695e-001,0.0000000e+000,-5.0764692e-001,1.7596845e-001,0.0000000e+000,0.0000000e+000,0.0000000e+000,-1.0711127e+000,-3.1107947e-001,0.0000000e+000,0.0000000e+000,0.0000000e+000,0.0000000e+000,0.0000000e+000,-6.9552009e-001,0.0000000e+000,0.0000000e+000,3.4150831e-001,0.0000000e+000,7.2985061e-002,-2.5522910e-002,-5.7319089e-002,0.0000000e+000,-5.0295431e-003,0.0000000e+000,0.0000000e+000,0.0000000e+000,0.0000000e+000,0.0000000e+000,0.0000000e+000,0.0000000e+000,-3.1722186e-001,-1.8010906e-001,-5.7962894e-001,0.0000000e+000,8.3121661e-001,2.0825715e-001,0.0000000e+000,5.5489045e-002,0.0000000e+000,-1.7883089e-001,0.0000000e+000,0.0000000e+000,2.3610870e-001,-2.8580092e-001,
,64,-2.2106705e-001,0.0000000e+000,-3.8255625e-001,-2.8376519e-001,0.0000000e+000,0.0000000e+000,4.4198712e-001,0.0000000e+000,0.0000000e+000,3.4113329e-001,1.8659802e-001,2.6235977e-001,0.0000000e+000,0.0000000e+000,-6.5461665e-001,-5.6433952e-001,0.0000000e+000,1.0611375e-001,0.0000000e+000,-5.0107798e-003,0.0000000e+000,0.0000000e+000,0.0000000e+000,6.8099647e-002,1.6416626e-001,0.0000000e+000,-1.7691068e-001,5.3428279e-001,0.0000000e+000,0.0000000e+000,-2.2176226e-001,-1.5953971e-001,-1.7078031e-001,-1.8418874e-001,-1.8828533e-001,3.1351834e-002,6.3324585e-001,0.0000000e+000,0.0000000e+000,0.0000000e+000,0.0000000e+000,1.6904019e-001,0.0000000e+000,0.0000000e+000,0.0000000e+000,0.0000000e+000,-1.2627342e-003,4.4282619e-001,0.0000000e+000,3.6589623e-002,-7.1109224e-001,0.0000000e+000,-9.3706462e-003,0.0000000e+000,-9.7371481e-002,-4.3798529e-002,-4.2253833e-001,-1.3042322e-002,-1.4663702e-001,6.1015614e-001,0.0000000e+000,0.0000000e+000,5.6824253e-002,0.0000000e+000,-1.1559356e-001,8.3787737e-002,3.7096563e-001,0.0000000e+000,0.0000000e+000,0.0000000e+000,0.0000000e+000,0.0000000e+000,0.0000000e+000,-4.5156662e-001,-1.2721956e-002,0.0000000e+000,0.0000000e+000,0.0000000e+000,0.0000000e+000,-1.0772727e-002,9.7284728e-001,-6.7937898e-002,-2.6607487e-001,6.9734944e-001,-7.5808543e-001,2.9459009e-001,-5.2224277e-001,0.0000000e+000,0.0000000e+000,6.7952595e-002,1.0683039e-001,0.0000000e+000,0.0000000e+000,0.0000000e+000,-2.9391450e-001,-2.9627381e-001,0.0000000e+000,3.2885493e-001,0.0000000e+000,0.0000000e+000,0.0000000e+000,-1.9352240e-001,0.0000000e+000,0.0000000e+000,0.0000000e+000,0.0000000e+000,0.0000000e+000,-2.8619519e-001,0.0000000e+000,0.0000000e+000,0.0000000e+000,0.0000000e+000,0.0000000e+000,-3.5116252e-001,0.0000000e+000,0.0000000e+000,1.4620106e+000,0.0000000e+000,-8.4751551e-002,0.0000000e+000,-8.8154684e-001,-3.3210227e-001,-8.4729976e-002,-3.1087387e-002,0.0000000e+000,0.0000000e+000,0.0000000e+000,5.1609175e-001,-4.3253934e-001,0.0000000e+000,-1.7873454e-001,-3.1996457e-001,2.4587436e-001,0.0000000e+000,-3.2344064e-001,0.0000000e+000,1.5988114e-001,-2.1955124e-001,8.4420511e-001,0.0000000e+000,0.0000000e+000,0.0000000e+000,0.0000000e+000,0.0000000e+000,0.0000000e+000,3.6643554e-001,0.0000000e+000,1.8483021e-001,0.0000000e+000,0.0000000e+000,0.0000000e+000,0.0000000e+000,0.0000000e+000,0.0000000e+000,0.0000000e+000,0.0000000e+000,0.0000000e+000,0.0000000e+000,4.7037743e-001,-3.8610247e-001,
,68,1.3929813e-001,0.0000000e+000,-2.1201930e-001,0.0000000e+000,-2.4799222e-001,0.0000000e+000,0.0000000e+000,5.5033672e-002,0.0000000e+000,-2.7324446e-001,0.0000000e+000,0.0000000e+000,0.0000000e+000,0.0000000e+000,-3.7388358e-002,2.8989503e-001,8.9243755e-002,0.0000000e+000,-1.1051865e-001,0.0000000e+000,0.0000000e+000,0.0000000e+000,6.5462827e-002,1.8948219e-001,0.0000000e+000,-6.4459638e-001,0.0000000e+000,3.6041600e-002,0.0000000e+000,0.0000000e+000,6.7532725e-001,-2.0785405e-001,2.6855602e-001,0.0000000e+000,0.0000000e+000,0.0000000e+000,-4.2401630e-001,0.0000000e+000,0.0000000e+000,-7.6203869e-001,-1.4120536e-001,0.0000000e+000,3.3679657e-001,-5.9118441e-002,0.0000000e+000,0.0000000e+000,-2.5011273e-001,-4.6967056e-001,-3.8204200e-001,0.0000000e+000,5.1295075e-003,0.0000000e+000,0.0000000e+000,-5.1463178e-001,4.4843941e-001,0.0000000e+000,7.2813306e-002,6.6421846e-001,0.0000000e+000,-7.3391370e-002,0.0000000e+000,0.0000000e+000,-1.9987762e-002,0.0000000e+000,-9.0902070e-002,0.0000000e+000,0.0000000e+000,0.0000000e+000,1.2450266e-001,0.0000000e+000,-1.0272096e-001,5.8142318e-001,0.0000000e+000,0.0000000e+000,0.0000000e+000,0.0000000e+000,0.0000000e+000,0.0000000e+000,0.0000000e+000,5.6788546e-001,0.0000000e+000,-8.9751681e-001,5.7770205e-001,2.3800766e-001,6.7482475e-001,0.0000000e+000,-2.7545662e-001,0.0000000e+000,0.0000000e+000,5.7376317e-003,0.0000000e+000,2.7414682e-001,0.0000000e+000,0.0000000e+000,-4.3208318e-002,-1.6086052e-001,0.0000000e+000,-4.0074564e-001,0.0000000e+000,0.0000000e+000,1.7168021e-002,0.0000000e+000,0.0000000e+000,2.0918231e-001,0.0000000e+000,8.0992743e-002,1.2900657e-001,0.0000000e+000,0.0000000e+000,0.0000000e+000,0.0000000e+000,-6.9735045e-001,3.6247443e-001,0.0000000e+000,0.0000000e+000,-7.3431482e-002,0.0000000e+000,0.0000000e+000,9.1192414e-002,-1.0231656e-003,-4.4161139e-001,2.4337101e-001,0.0000000e+000,-2.9304735e-001,0.0000000e+000,0.0000000e+000,0.0000000e+000,0.0000000e+000,-1.3581470e-002,0.0000000e+000,0.0000000e+000,0.0000000e+000,0.0000000e+000,-4.1215627e-001,1.9546403e-001,0.0000000e+000,3.2213473e-001,0.0000000e+000,0.0000000e+000,0.0000000e+000,0.0000000e+000,0.0000000e+000,-1.6018943e-001,0.0000000e+000,0.0000000e+000,2.5946879e-001,-2.8812183e-001,0.0000000e+000,0.0000000e+000,2.9151904e-001,0.0000000e+000,0.0000000e+000,0.0000000e+000,0.0000000e+000,0.0000000e+000,-2.0007965e-001,0.0000000e+000,0.0000000e+000,4.6402547e-001,0.0000000e+000,
,72,-6.2887805e-001,0.0000000e+000,1.2102522e-001,0.0000000e+000,0.0000000e+000,5.6294264e-001,0.0000000e+000,0.0000000e+000,-6.5469673e-001,0.0000000e+000,0.0000000e+000,-3.4672484e-002,0.0000000e+000,0.0000000e+000,-9.5840044e-002,0.0000000e+000,1.0620069e-001,-2.5934016e-001,0.0000000e+000,9.0918939e-002,0.0000000e+000,0.0000000e+000,0.0000000e+000,-2.2530477e-001,6.2367171e-001,0.0000000e+000,2.8994493e-001,-2.8733823e-002,0.0000000e+000,0.0000000e+000,-1.1413461e-001,0.0000000e+000,2.6482951e-001,0.0000000e+000,0.0000000e+000,0.0000000e+000,0.0000000e+000,0.0000000e+000,-5.7170584e-002,0.0000000e+000,0.0000000e+000,5.3646621e-001,0.0000000e+000,3.6879749e-001,0.0000000e+000,0.0000000e+000,-7.8570324e-001,0.0000000e+000,8.1443727e-002,0.0000000e+000,6.6502504e-002,2.9083866e-001,0.0000000e+000,4.9085825e-001,-2.5530771e-001,0.0000000e+000,-2.1406905e-001,-1.3468797e-001,-1.8891012e-001,5.3273806e-002,0.0000000e+000,0.0000000e+000,0.0000000e+000,-1.6384534e-001,2.6833777e-001,-2.3587612e-001,0.0000000e+000,-1.0972362e-001,-1.1832564e-002,5.9859335e-001,-4.1629297e-001,0.0000000e+000,0.0000000e+000,7.6507776e-003,0.0000000e+000,-2.5593831e-002,0.0000000e+000,0.0000000e+000,-5.4246827e-002,0.0000000e+000,-3.0480379e-001,0.0000000e+000,2.7557056e-005,0.0000000e+000,6.1270156e-001,-3.0137856e-001,0.0000000e+000,-2.7278500e-001,0.0000000e+000,0.0000000e+000,0.0000000e+000,4.8455561e-001,0.0000000e+000,0.0000000e+000,8.5717464e-002,3.1090158e-001,-3.1711974e-001,0.0000000e+000,-4.5057107e-001,-2.9153997e-001,7.5685408e-002,0.0000000e+000,5.3842174e-001,0.0000000e+000,0.0000000e+000,0.0000000e+000,-1.3381378e-002,0.0000000e+000,0.0000000e+000,0.0000000e+000,0.0000000e+000,-6.6429132e-002,0.0000000e+000,0.0000000e+000,-1.1765990e-001,2.6699437e-001,-6.5220810e-001,0.0000000e+000,0.0000000e+000,-2.7708714e-001,6.9453157e-002,0.0000000e+000,5.0206797e-002,0.0000000e+000,0.0000000e+000,0.0000000e+000,-4.3262320e-002,0.0000000e+000,0.0000000e+000,5.4163957e-001,0.0000000e+000,0.0000000e+000,-4.0427914e-001,1.7975779e-001,0.0000000e+000,0.0000000e+000,0.0000000e+000,0.0000000e+000,0.0000000e+000,0.0000000e+000,0.0000000e+000,0.0000000e+000,0.0000000e+000,0.0000000e+000,3.7497439e-001,0.0000000e+000,0.0000000e+000,0.0000000e+000,0.0000000e+000,1.5103710e-001,-3.7035105e-001,0.0000000e+000,0.0000000e+000,0.0000000e+000,0.0000000e+000,1.9602243e-001,0.0000000e+000,0.0000000e+000,0.0000000e+000,0.0000000e+000,
,76,0.0000000e+000,0.0000000e+000,-5.4906721e-001,-4.9170231e-001,3.0399330e-001,0.0000000e+000,0.0000000e+000,0.0000000e+000,0.0000000e+000,-7.4356003e-001,0.0000000e+000,0.0000000e+000,0.0000000e+000,0.0000000e+000,0.0000000e+000,0.0000000e+000,-8.2039872e-001,0.0000000e+000,-1.2579206e-001,0.0000000e+000,0.0000000e+000,0.0000000e+000,0.0000000e+000,9.9013498e-002,7.1119661e-001,0.0000000e+000,0.0000000e+000,6.2632325e-001,0.0000000e+000,0.0000000e+000,0.0000000e+000,-1.2611285e-001,3.6701922e-001,0.0000000e+000,0.0000000e+000,-4.7571325e-001,5.5159227e-001,2.0765244e-001,0.0000000e+000,1.4087579e+000,4.1522152e-002,0.0000000e+000,-7.4100788e-001,0.0000000e+000,0.0000000e+000,0.0000000e+000,8.6363930e-002,-6.8913056e-001,4.2304757e-002,9.5501461e-001,2.5628406e-001,-1.5627436e-001,0.0000000e+000,0.0000000e+000,0.0000000e+000,5.9860938e-001,-1.1725420e-003,3.8151995e-001,-8.8974942e-001,-5.1135865e-001,0.0000000e+000,0.0000000e+000,2.3231882e-001,-2.6936626e-001,-3.2955711e-001,-8.6579402e-002,-1.2837816e-001,7.7524020e-001,0.0000000e+000,0.0000000e+000,0.0000000e+000,0.0000000e+000,6.5729722e-002,0.0000000e+000,0.0000000e+000,-1.4324713e+000,0.0000000e+000,0.0000000e+000,4.8827545e-001,0.0000000e+000,0.0000000e+000,-7.0880965e-002,6.6799036e-002,3.8431883e-001,0.0000000e+000,0.0000000e+000,5.2479118e-001,0.0000000e+000,0.0000000e+000,0.0000000e+000,0.0000000e+000,-3.0138662e-002,0.0000000e+000,0.0000000e+000,7.3362430e-003,0.0000000e+000,0.0000000e+000,8.5777826e-001,-2.7669453e-002,0.0000000e+000,-1.2788250e-001,0.0000000e+000,0.0000000e+000,2.8829184e-001,0.0000000e+000,0.0000000e+000,-1.5199820e-002,0.0000000e+000,0.0000000e+000,0.0000000e+000,-1.0094352e+000,3.5443091e-001,0.0000000e+000,0.0000000e+000,6.4063712e-001,0.0000000e+000,-2.0148363e-001,-1.3242740e-001,0.0000000e+000,-1.4885213e+000,-1.7602566e-002,0.0000000e+000,-4.4741313e-001,9.5503979e-001,0.0000000e+000,0.0000000e+000,5.7461797e-001,-4.8346587e-002,-1.2683149e+000,0.0000000e+000,0.0000000e+000,4.5825812e-001,0.0000000e+000,0.0000000e+000,0.0000000e+000,0.0000000e+000,0.0000000e+000,-4.1785652e-001,0.0000000e+000,0.0000000e+000,0.0000000e+000,0.0000000e+000,0.0000000e+000,0.0000000e+000,0.0000000e+000,0.0000000e+000,4.4739801e-001,0.0000000e+000,0.0000000e+000,-7.4346199e-001,0.0000000e+000,0.0000000e+000,0.0000000e+000,8.6602711e-001,0.0000000e+000,-7.1865758e-001,0.0000000e+000,0.0000000e+000,-5.9211439e-001,2.1890443e-001,
,80,0.0000000e+000,5.8738252e-001,0.0000000e+000,0.0000000e+000,-7.1344039e-001,0.0000000e+000,1.1795330e-001,0.0000000e+000,0.0000000e+000,1.4296047e-001,0.0000000e+000,3.6217432e-002,0.0000000e+000,0.0000000e+000,0.0000000e+000,0.0000000e+000,1.2954743e-001,-7.3867915e-001,3.9522575e-001,-4.4459633e-001,0.0000000e+000,0.0000000e+000,0.0000000e+000,0.0000000e+000,4.7090694e-001,0.0000000e+000,3.3292845e-001,-2.8703529e-001,0.0000000e+000,0.0000000e+000,-8.2727150e-002,-3.2219370e-001,0.0000000e+000,0.0000000e+000,3.2439063e-001,0.0000000e+000,0.0000000e+000,8.3546899e-001,-8.4876711e-001,0.0000000e+000,7.9366422e-002,0.0000000e+000,0.0000000e+000,-7.0696738e-001,0.0000000e+000,0.0000000e+000,0.0000000e+000,0.0000000e+000,5.1842292e-002,-7.1561358e-002,0.0000000e+000,2.2849706e-001,-1.8542321e-001,0.0000000e+000,0.0000000e+000,1.2815374e-001,3.7644143e-001,0.0000000e+000,3.0230740e-002,6.0205614e-003,0.0000000e+000,0.0000000e+000,4.0710338e-001,-5.4095194e-001,3.9073900e-001,0.0000000e+000,6.8302391e-001,0.0000000e+000,-9.7772667e-003,0.0000000e+000,0.0000000e+000,-9.4032765e-001,-2.1173959e-001,0.0000000e+000,0.0000000e+000,3.3179183e-001,0.0000000e+000,0.0000000e+000,-3.8443472e-001,0.0000000e+000,2.8007150e-001,0.0000000e+000,1.7947513e-001,-1.4351823e-001,0.0000000e+000,-4.3192166e-001,1.6004804e-001,-9.9769096e-002,1.8100849e-001,1.0937349e-001,0.0000000e+000,-1.5169256e-001,0.0000000e+000,0.0000000e+000,-2.2284940e-001,2.8093480e-001,0.0000000e+000,2.4818727e-001,-2.1507147e-001,0.0000000e+000,-2.4686096e-001,0.0000000e+000,0.0000000e+000,-2.9556250e-001,0.0000000e+000,-1.8229545e-001,0.0000000e+000,0.0000000e+000,0.0000000e+000,0.0000000e+000,2.5258362e-001,-3.4900188e-001,0.0000000e+000,0.0000000e+000,-2.3239215e-001,4.4766261e-001,1.5828535e-001,0.0000000e+000,0.0000000e+000,1.9254765e-001,0.0000000e+000,-4.8103731e-001,0.0000000e+000,7.9957453e-001,0.0000000e+000,0.0000000e+000,0.0000000e+000,0.0000000e+000,-1.2771355e-002,-3.6463635e-001,0.0000000e+000,0.0000000e+000,0.0000000e+000,0.0000000e+000,5.5447938e-001,5.6711948e-001,0.0000000e+000,0.0000000e+000,0.0000000e+000,0.0000000e+000,0.0000000e+000,0.0000000e+000,0.0000000e+000,2.7867962e-001,0.0000000e+000,0.0000000e+000,0.0000000e+000,0.0000000e+000,0.0000000e+000,-3.2060674e-001,-1.4909632e-001,0.0000000e+000,0.0000000e+000,0.0000000e+000,-4.7098802e-001,-3.6377383e-001,0.0000000e+000,0.0000000e+000,0.0000000e+000,-1.4456290e-001,
,84,-7.4903681e-001,0.0000000e+000,5.5867931e-001,0.0000000e+000,0.0000000e+000,0.0000000e+000,0.0000000e+000,2.2344764e-001,-9.0153969e-001,-7.5256674e-002,0.0000000e+000,0.0000000e+000,0.0000000e+000,0.0000000e+000,1.6140388e-001,1.4610795e+000,0.0000000e+000,0.0000000e+000,-5.0984177e-002,0.0000000e+000,-8.4916225e-002,0.0000000e+000,0.0000000e+000,5.4829010e-001,0.0000000e+000,3.4766060e-001,2.0034881e-001,-3.3901586e-001,0.0000000e+000,0.0000000e+000,5.6522633e-001,-9.3098011e-001,2.9234022e-001,8.4722281e-001,0.0000000e+000,-9.9710856e-001,-1.9444814e-001,0.0000000e+000,0.0000000e+000,0.0000000e+000,0.0000000e+000,1.0241278e-003,5.2005854e-001,0.0000000e+000,0.0000000e+000,0.0000000e+000,-1.1332700e+000,-4.9672723e-001,0.0000000e+000,6.5154559e-001,8.1702089e-002,-6.1764714e-001,0.0000000e+000,0.0000000e+000,2.8006719e-001,0.0000000e+000,0.0000000e+000,0.0000000e+000,-6.4630398e-001,5.2670894e-001,0.0000000e+000,0.0000000e+000,2.8104097e-001,-5.8323026e-002,-4.5199096e-001,-3.5653834e-001,9.3913496e-001,0.0000000e+000,4.6305423e-001,0.0000000e+000,-7.5865043e-001,0.0000000e+000,0.0000000e+000,1.3501569e-001,0.0000000e+000,-2.0380175e-001,0.0000000e+000,0.0000000e+000,-4.4543275e-001,-3.4673178e-002,-6.0793742e-001,3.1287238e-001,-5.4606769e-001,-3.9722696e-001,0.0000000e+000,0.0000000e+000,6.1830882e-002,2.9748862e-001,5.2308708e-001,1.2970234e-002,0.0000000e+000,-9.3577935e-002,0.0000000e+000,0.0000000e+000,4.8153883e-001,5.9749575e-001,0.0000000e+000,1.6402734e-001,0.0000000e+000,0.0000000e+000,0.0000000e+000,0.0000000e+000,3.2274700e-001,1.2749294e-001,-2.6981587e-002,-1.9283814e-001,0.0000000e+000,0.0000000e+000,0.0000000e+000,0.0000000e+000,0.0000000e+000,0.0000000e+000,-4.7031626e-001,0.0000000e+000,-2.1748766e-001,3.8255498e-001,0.0000000e+000,1.4165770e-001,0.0000000e+000,0.0000000e+000,4.4703539e-001,0.0000000e+000,5.6656400e-001,0.0000000e+000,0.0000000e+000,0.0000000e+000,-6.8647984e-001,-3.7234232e-001,4.4505004e-001,3.2773004e-001,8.3758002e-003,0.0000000e+000,-9.5324714e-001,0.0000000e+000,0.0000000e+000,0.0000000e+000,0.0000000e+000,0.0000000e+000,0.0000000e+000,0.0000000e+000,0.0000000e+000,0.0000000e+000,0.0000000e+000,4.3650491e-002,0.0000000e+000,1.8699950e-001,-2.2177803e-001,0.0000000e+000,0.0000000e+000,-2.7863326e-001,7.0802009e-001,-6.6489886e-001,-4.1522695e-001,0.0000000e+000,0.0000000e+000,-2.6742888e-002,0.0000000e+000,0.0000000e+000,1.9538718e-001,0.0000000e+000,
,96,1.8914494e-001,-8.9791666e-002,8.1752939e-002,5.5923069e-002,-2.5454950e-001,-6.9154612e-002,1.0501880e-001,-1.4559628e-001,-1.9255108e-001,1.8859679e-001,-2.7328303e-001,1.6915899e-001,0.0000000e+000,0.0000000e+000,-1.1606304e-002,2.3633628e-001,-1.9383041e-001,-4.6286537e-002,-5.1263660e-002,-8.8008781e-003,3.1940712e-001,-1.1924046e-001,7.6174008e-002,-3.9640665e-002,-3.1327140e-002,-8.6569350e-002,1.9934257e-001,2.1785089e-002,0.0000000e+000,0.0000000e+000,6.5278252e-002,1.6357770e-001,-1.3748432e-001,1.2315316e-001,-1.0208955e-001,9.5029876e-002,-1.4999822e-001,-7.4358497e-002,3.2443894e-001,-2.0194208e-001,1.9394800e-001,2.3139129e-002,-1.8428848e-001,1.0934848e-001,0.0000000e+000,0.0000000e+000,-2.0850349e-001,-1.9707793e-001,1.9993500e-001,5.1849852e-002,-1.6219772e-001,-6.4604492e-002,-1.0369091e-001,-7.0867151e-002,1.5806304e-001,-9.5441084e-002,1.0421405e-001,-9.6379067e-002,1.0481038e-001,-5.1425922e-003,0.0000000e+000,0.0000000e+000,5.8044743e-002,-5.5931341e-002,8.3168041e-002,-2.8507124e-001,-2.6443281e-002,1.4470366e-001,-1.3411186e-002,7.9647182e-002,3.2996084e-001,-2.0390823e-001,-4.9817999e-002,4.9288715e-002,-3.0288540e-001,3.2085350e-002,0.0000000e+000,0.0000000e+000,9.6297931e-002,2.9946606e-002,-1.4069764e-002,-4.7896271e-002,1.0096469e-001,1.6305185e-001,-6.1736516e-002,2.0608571e-001,-1.9526517e-001,1.5325831e-001,-2.8306757e-001,-4.1387870e-002,4.5603221e-002,-1.1893688e-001,0.0000000e+000,0.0000000e+000,8.1670514e-002,-6.9025148e-003,1.3005536e-001,2.1020633e-001,-9.9601662e-002,-2.1502755e-001,-2.0544449e-001,-7.9042130e-002,-3.1309509e-001,3.1064508e-001,-2.9526078e-001,7.6044264e-002,2.4206136e-001,1.1675438e-001,0.0000000e+000,0.0000000e+000,-1.7005743e-001,-9.5902766e-002,-9.5045467e-002,-2.8207543e-002,-4.9221579e-001,7.3483502e-002,1.5643977e-001,1.0804844e-002,2.7664138e-001,-5.1880436e-002,1.5321766e-001,-2.3222544e-002,-1.2219313e-001,8.2755133e-002,0.0000000e+000,0.0000000e+000,-1.0175425e-001,-1.8213102e-001,1.6452689e-001,-3.2373114e-002,9.2921305e-002,1.7433327e-001,2.8900229e-001,-2.5420402e-003,6.4307372e-002,-2.9752635e-001,-6.4150813e-002,-2.5316262e-002,7.2313616e-002,-6.1894370e-002,0.0000000e+000,0.0000000e+000,1.0516370e-001,9.4645513e-002,3.2321755e-002,4.1132523e-002,9.6951416e-002,1.3485640e-001,-8.7665839e-002,-4.0692612e-002,-4.2406943e-002,6.0184649e-002,1.0788902e-001,5.1209457e-003,-5.0972798e-002,-2.1336153e-001,0.0000000e+000,0.0000000e+000,-9.8250896e-002,2.8477588e-001,
,108,8.7622891e-002,3.3654029e-002,1.2818794e-001,-6.3316065e-002,-1.4708071e-001,-1.5263939e-001,5.8984143e-002,9.6812632e-002,3.4383286e-001,-1.5388084e-001,-5.7360664e-002,-2.6471670e-002,0.0000000e+000,0.0000000e+000,6.4415128e-002,-2.2024548e-001,5.6029819e-002,3.3015045e-001,-6.0667027e-002,4.4079112e-003,2.2222110e-001,-2.8342848e-001,9.3185978e-002,-2.5600647e-002,-1.3927268e-001,1.6000054e-002,-1.5414487e-002,-4.6092523e-002,0.0000000e+000,0.0000000e+000,9.7681512e-002,2.2315232e-001,-9.0714946e-002,-8.2370263e-002,-2.7659384e-002,-1.6474782e-001,6.8873841e-002,7.5290264e-002,-1.3606618e-001,9.8081982e-002,-2.3808460e-002,-2.0092929e-002,1.4402240e-001,-2.5677374e-001,0.0000000e+000,0.0000000e+000,1.0636322e-001,-1.5701390e-001,1.8274643e-001,-2.5916323e-001,-2.2807743e-002,-6.8165289e-002,2.5116334e-001,3.0540175e-001,-1.9489029e-001,-2.1846896e-003,-1.5713188e-001,-1.4060603e-001,8.7492333e-002,1.1335738e-001,0.0000000e+000,0.0000000e+000,-3.1820533e-002,-4.5869714e-002,-2.2414459e-002,2.3058059e-001,2.9693907e-002,-8.9061560e-002,6.9621108e-003,-4.0382626e-002,8.3034916e-002,-6.6534423e-002,8.1397898e-002,7.0050873e-003,5.0592237e-002,1.3479858e-001,0.0000000e+000,0.0000000e+000,-2.6139099e-001,-9.3810409e-002,1.2132694e-001,-1.9621221e-001,-8.4664898e-002,-7.8153745e-002,-2.7505373e-001,2.4659006e-001,1.1160127e-001,2.2581963e-001,1.9965832e-001,-1.5045341e-002,-2.2248481e-001,-7.2635991e-002,0.0000000e+000,0.0000000e+000,1.2465819e-001,-2.2933863e-001,3.3956028e-001,-8.4306881e-002,-3.3659079e-001,2.5230493e-001,1.3673379e-001,3.1349364e-001,-2.3820256e-001,-3.7149076e-002,-2.9578844e-001,-3.7594798e-001,6.1295502e-002,9.1454634e-002,0.0000000e+000,0.0000000e+000,2.0516518e-001,2.3585303e-002,9.0310229e-002,-2.3796259e-001,-9.3534959e-002,2.8035156e-001,-1.5632086e-002,6.2181018e-002,-3.1909345e-001,-2.6982869e-001,2.5827588e-001,3.5048674e-002,1.7087550e-001,1.6740315e-001,0.0000000e+000,0.0000000e+000,6.3290137e-002,5.1321575e-002,-3.3026161e-002,3.5622580e-002,-1.7952372e-001,1.2097620e-002,-1.8891623e-001,-5.1600147e-002,2.0284771e-001,-2.0725877e-001,3.1885752e-001,-4.5993521e-002,7.7346029e-002,-1.7269585e-002,0.0000000e+000,0.0000000e+000,-2.0364352e-001,3.9979153e-003,4.7075651e-002,7.1517129e-002,-2.6727442e-002,-2.5810197e-002,9.2130594e-002,-9.6059706e-002,1.9246632e-001,3.3386118e-001,-2.6626780e-002,-1.2148473e-001,-1.0764761e-001,-3.0900325e-001,0.0000000e+000,0.0000000e+000,-1.3360082e-001,1.4710300e-001,
,120,4.0491355e-002,2.5120909e-002,1.4677189e-001,-2.6475853e-001,3.4026106e-001,-6.3090099e-001,-1.2172137e-001,3.1599951e-001,-5.4978805e-001,8.0736598e-001,3.4922971e-001,-1.8914516e-001,0.0000000e+000,0.0000000e+000,-3.5981345e-001,2.1091854e-001,4.0925306e-002,-2.0813910e-001,4.6104460e-001,-4.9437310e-001,-1.5631439e-001,5.0516137e-003,-8.0210052e-002,2.1735528e-001,1.3980116e-001,3.6894911e-001,-2.8530446e-001,2.6244652e-001,0.0000000e+000,0.0000000e+000,7.0959923e-002,-2.9106600e-001,-9.0468970e-002,1.7788540e-001,-1.2982441e-001,4.9867039e-002,6.1313540e-002,1.0013751e-001,1.3001629e-002,7.3797420e-002,-1.3202981e-001,-4.5605955e-002,-2.2286790e-002,-1.7923355e-001,0.0000000e+000,0.0000000e+000,-1.8128394e-001,-6.4667365e-002,-2.5819091e-001,2.5571581e-001,1.1992966e-001,-2.4718711e-001,2.7028551e-001,-3.4025765e-001,1.3384406e-002,4.9754216e-002,-1.5139773e-002,2.4330750e-001,-5.9190627e-002,-2.5909683e-001,0.0000000e+000,0.0000000e+000,3.7592409e-002,-9.9670000e-002,1.0489295e-001,-5.3496040e-002,-1.1759974e-001,7.8497289e-002,-2.0832935e-001,9.5686626e-002,1.5097869e-001,-1.0543879e-001,2.2079384e-001,2.4405302e-001,1.2302604e-001,-4.7090717e-002,0.0000000e+000,0.0000000e+000,-2.1980454e-001,-2.1076410e-001,-6.9583379e-002,-2.7012835e-002,6.1874323e-002,6.6312025e-002,-1.2562750e-001,4.3417421e-001,-2.9921629e-001,2.9040473e-001,1.1373354e-002,-3.2118001e-001,1.2102513e-002,2.1229904e-002,0.0000000e+000,0.0000000e+000,-1.1328964e-001,1.8467580e-001,-6.3999123e-002,7.5069449e-002,1.2853618e-001,-1.1956009e-001,4.5684064e-002,3.8616467e-002,-2.4692578e-001,-3.5318148e-002,-1.2676985e-001,-4.7051401e-002,1.3370233e-001,3.7418914e-001,0.0000000e+000,0.0000000e+000,8.9461205e-002,8.8164894e-002,-8.8417952e-002,-4.8027031e-002,1.8803419e-001,-9.5709561e-002,1.3676353e-002,-3.6630760e-001,2.8752918e-002,-2.0290521e-001,-2.7469945e-002,1.9539739e-001,-8.9016235e-003,-1.8954242e-001,0.0000000e+000,0.0000000e+000,-4.0279492e-002,4.8285421e-002,5.8258801e-002,-6.0598185e-002,-1.6734674e-001,-4.3480409e-002,4.8521091e-002,1.2665237e-002,2.4893214e-001,1.3814216e-001,-2.9222209e-002,8.4393852e-003,-1.8775592e-001,-1.4491065e-001,0.0000000e+000,0.0000000e+000,-9.0937870e-002,-2.3208554e-002,-1.1043701e-001,1.9142818e-002,-6.5511486e-002,5.7091307e-002,8.1196981e-002,2.0336627e-001,-1.2375799e-001,1.2755410e-001,5.5608629e-002,1.1887954e-001,3.7867876e-002,1.5767627e-001,0.0000000e+000,0.0000000e+000,6.8510254e-002,2.0411825e-001,
,133,-7.8313686e-002,1.6183804e-001,-2.0346605e-001,-3.3800885e-002,-3.4249150e-001,1.0402039e-001,3.8433220e-001,-1.2850809e-002,6.4246895e-001,-6.3080225e-001,-1.7141406e-001,5.6414947e-002,0.0000000e+000,0.0000000e+000,2.0692492e-001,-2.1434098e-001,3.7181269e-002,1.2525138e-001,2.8429436e-001,-1.4117002e-001,8.3313673e-002,-8.3396409e-002,-3.1616434e-001,1.0405923e-001,-2.2887234e-001,4.6371359e-002,2.7466854e-001,-3.4788615e-002,0.0000000e+000,0.0000000e+000,4.5665229e-002,2.3248217e-001,-1.7787955e-002,1.7743495e-001,-9.3116928e-002,1.8988476e-001,7.3704883e-002,1.0570127e-001,-8.7293870e-003,1.7539129e-001,-1.1562634e-001,3.8010354e-001,-1.7262962e-001,-1.5282067e-001,0.0000000e+000,0.0000000e+000,-2.6284616e-001,1.2300008e-001,9.3086503e-003,-2.2141051e-001,1.4062680e-001,-2.1376341e-001,-3.5055223e-001,8.6875718e-002,-2.3453428e-001,2.2808947e-001,-6.3200283e-002,1.1375450e-001,6.5026829e-002,2.1731073e-001,0.0000000e+000,0.0000000e+000,-2.1193194e-001,-9.9229120e-002,1.5136901e-001,-9.1147608e-002,-8.6886438e-002,-4.0196979e-002,-1.4403772e-001,1.0549377e-001,1.8486027e-001,-1.3298251e-001,-2.4127213e-002,-2.5146949e-001,5.7424823e-002,2.8806345e-001,0.0000000e+000,0.0000000e+000,-5.6747760e-003,-9.3182966e-002,-5.7417921e-002,-2.9373386e-003,-3.2676600e-002,3.6638139e-001,6.4651830e-002,1.3431288e-002,-7.6147611e-002,-5.0283777e-002,-5.7021352e-002,1.3042667e-001,-1.4967549e-002,-1.0654594e-001,0.0000000e+000,0.0000000e+000,1.6642289e-001,2.5102220e-002,3.2658669e-002,1.3772869e-001,-3.5013729e-001,1.3743279e-002,-7.6096492e-002,1.2440138e-001,3.7386119e-003,1.3440032e-001,2.4081772e-002,9.1654538e-002,-3.2777011e-002,-1.9307037e-001,0.0000000e+000,0.0000000e+000,6.1638462e-002,4.2461252e-002,8.8384416e-003,2.9345626e-002,-3.2166241e-001,1.4800222e-001,1.8822291e-001,1.3445789e-001,1.6415211e-001,7.2412662e-002,5.2016437e-002,-1.8708296e-001,1.9714141e-001,-3.3364373e-002,0.0000000e+000,0.0000000e+000,-1.3034003e-001,7.3276018e-002,-1.2998079e-002,7.1728256e-002,-2.1342855e-002,1.8658593e-001,2.1120066e-002,1.6148629e-001,4.9819878e-002,-3.2407005e-002,2.3107757e-001,-1.4771157e-001,6.4904477e-002,-3.4703648e-001,0.0000000e+000,0.0000000e+000,-1.4494575e-001,-2.3521806e-001,-1.8282410e-001,-1.9996877e-001,1.1259548e-001,8.9598138e-002,7.6082667e-002,-1.0958062e-002,-2.2493243e-001,5.0109076e-002,4.8280671e-002,-7.2306552e-002,-7.6111131e-002,-5.1643565e-002,0.0000000e+000,0.0000000e+000,4.8475792e-003,8.4967404e-002,
,145,-2.1029701e-001,-7.2826314e-002,-1.1132183e-001,-3.3958025e-001,1.4772876e-001,-2.2723836e-001,3.3135823e-001,6.4607156e-001,-1.6342968e-001,2.7832360e-001,1.5752129e-001,-2.9971954e-001,0.0000000e+000,0.0000000e+000,-4.8905649e-001,1.7560192e-001,-3.8397776e-002,-6.3544221e-002,3.8037330e-001,-1.6307586e-001,1.3002383e-002,2.1108245e-001,-4.2471173e-001,1.6227793e-002,1.2943866e-001,-3.6201471e-001,3.9139622e-001,-2.1350323e-002,0.0000000e+000,0.0000000e+000,1.7136144e-002,6.3858390e-002,-2.8314962e-003,-9.3849245e-003,1.6078086e-001,-2.9901906e-001,4.0607946e-002,-2.8823629e-001,3.8251732e-001,3.1794542e-001,3.8766529e-001,-2.7871997e-001,-4.9547252e-001,4.2043919e-002,0.0000000e+000,0.0000000e+000,2.3253465e-001,-8.0910220e-002,-1.7685386e-001,1.2222370e-001,1.3244650e-001,-1.2911077e-002,3.5954176e-001,-3.8823166e-001,-2.6661809e-002,2.5245754e-002,-2.1413154e-002,4.8683738e-001,-2.4108708e-001,1.8904316e-001,0.0000000e+000,0.0000000e+000,-1.9197477e-001,-1.7072088e-002,1.2300094e-001,7.2596109e-002,1.0757806e-001,2.4040886e-001,2.5374834e-002,-2.8810349e-001,1.7671188e-002,-2.4844817e-001,-3.0187726e-001,2.2389786e-001,1.8043297e-001,-9.4843797e-002,0.0000000e+000,0.0000000e+000,-2.1827677e-002,-5.5546983e-002,-7.3759599e-002,-2.3767170e-001,1.0604749e-001,1.9514592e-001,5.8633002e-002,4.3940298e-001,-1.5760039e-001,-6.4614031e-002,-4.8150854e-002,-4.3818691e-001,3.2678929e-001,-1.1239058e-001,0.0000000e+000,0.0000000e+000,-1.1036478e-002,-4.2624299e-002,2.3977843e-001,2.4091823e-001,-4.3873008e-002,-3.9452676e-001,-2.6144090e-001,3.5101787e-002,1.6521556e-001,2.0482393e-001,2.9711007e-001,-4.0757091e-001,-1.2198906e-002,6.7373944e-002,0.0000000e+000,0.0000000e+000,3.3394032e-002,5.5773406e-002,-1.1862589e-001,1.0633965e-001,1.7186215e-001,1.6694063e-001,1.9114458e-001,-3.4265832e-001,-1.7982271e-001,5.2177138e-002,-2.4733607e-001,4.4800217e-001,-4.2474323e-001,2.6347369e-002,0.0000000e+000,0.0000000e+000,-4.4924779e-002,4.0810148e-001,-1.7299369e-001,2.7235119e-001,-4.1346238e-001,1.1815489e-001,4.2258701e-003,-5.7137515e-001,3.0624208e-001,-2.2563680e-001,-2.5130278e-002,1.1873727e-001,2.0400556e-001,1.2200260e-001,0.0000000e+000,0.0000000e+000,-2.6853237e-001,-2.2958407e-002,2.5543697e-001,-4.1512489e-001,-2.6486020e-001,3.0551288e-001,-1.9244247e-001,1.4172707e-001,-6.0689147e-002,-9.6723264e-002,5.1796546e-001,-2.5546378e-001,-1.0066169e-001,2.0284154e-001,0.0000000e+000,0.0000000e+000,9.8342004e-002,-3.4231708e-001,
,158,1.5645197e-003,9.9595523e-002,-2.3985647e-002,-4.2206131e-002,2.2223222e-001,-5.3351426e-001,1.9608380e-001,4.5854361e-002,-7.9919808e-002,9.4668613e-002,4.0750757e-002,-1.3959118e-001,0.0000000e+000,0.0000000e+000,5.7255810e-002,3.9413785e-002,-1.3100604e-001,1.4776400e-001,3.6403437e-002,6.9172953e-002,2.9081502e-001,-3.3617449e-001,-5.9630461e-003,-4.9082363e-002,-3.0795915e-001,4.9989113e-001,-8.6544864e-002,1.4198167e-001,0.0000000e+000,0.0000000e+000,2.3017946e-002,-6.0564495e-002,2.3715042e-001,-4.9476245e-002,-2.6750814e-001,-5.4702229e-002,1.5292142e-001,3.2352489e-002,-5.9723606e-002,-1.2388156e-001,-1.0515761e-001,5.5399334e-003,1.7305070e-001,2.2161385e-001,0.0000000e+000,0.0000000e+000,-1.8123566e-001,7.1486477e-002,-8.8365299e-002,9.6360938e-002,1.8672735e-001,-2.0359405e-001,-1.9709282e-002,-7.2384817e-002,-2.7619308e-002,-1.4861661e-001,1.1722913e-001,-8.5527311e-002,-2.5911582e-002,-2.3595623e-002,0.0000000e+000,0.0000000e+000,1.7483151e-003,1.3181217e-001,-7.0895758e-002,6.9712903e-002,1.0027249e-002,8.5273239e-002,6.8355765e-002,-3.9976680e-002,1.5905267e-001,-2.0441908e-001,-8.7065037e-002,-9.3315554e-002,8.1856965e-002,1.9698710e-001,0.0000000e+000,0.0000000e+000,-1.7823877e-001,1.4734381e-001,1.4636165e-001,-2.8535071e-001,-2.0504303e-002,1.7620816e-001,1.6108064e-001,2.2253653e-001,-1.8666037e-001,1.8884126e-001,-1.6671249e-001,-9.2079559e-002,1.3613499e-001,-2.0026278e-001,0.0000000e+000,0.0000000e+000,-2.4380316e-001,1.8903830e-001,-1.0938210e-001,-1.0079418e-001,4.6644149e-002,1.0700371e-001,1.3715274e-001,2.0852611e-001,-1.0364461e-001,-8.8813648e-002,1.3758861e-001,-6.2821944e-003,-1.0090436e-001,-1.5004591e-001,0.0000000e+000,0.0000000e+000,2.9669285e-003,-3.5430845e-001,2.1325276e-001,5.0001970e-002,-2.3413270e-003,-1.3934484e-001,-5.8060096e-001,2.1351161e-001,2.6633285e-002,3.7748791e-002,1.9669030e-001,-1.3390091e-001,-1.9220089e-001,2.0944901e-001,0.0000000e+000,0.0000000e+000,1.4952427e-001,1.4147577e-001,1.6156503e-001,3.8286993e-001,-1.4891395e-001,1.0801236e-002,-1.1998160e-001,7.7119065e-003,-8.8147386e-002,7.6912958e-003,-1.3919400e-002,1.2899391e-002,2.4952518e-001,-4.0396939e-002,0.0000000e+000,0.0000000e+000,-1.2750363e-001,9.6152567e-002,-8.6827383e-002,6.6589016e-002,-2.2345979e-001,1.0063520e-001,3.1885595e-001,2.5473028e-002,-8.5437048e-002,-1.1675800e-002,-1.0188370e-001,4.1959403e-002,-4.8943383e-002,8.8805263e-003,0.0000000e+000,0.0000000e+000,1.7358935e-002,-1.9177126e-001,
,170,8.2497379e-002,3.1520138e-001,4.5561359e-002,9.1670042e-002,9.7796373e-004,-3.3903617e-001,4.5450910e-002,-2.7898312e-001,-7.1882627e-002,7.8986491e-002,1.1017885e-002,1.5025068e-001,0.0000000e+000,0.0000000e+000,5.4095679e-002,1.8793480e-001,-2.1563454e-001,4.2651704e-002,7.5786854e-002,-1.2731724e-002,3.3359582e-001,-6.4439569e-002,6.6789640e-004,-6.5418159e-002,-5.9188695e-002,-1.3774622e-001,1.4301450e-001,6.0821198e-002,0.0000000e+000,0.0000000e+000,-1.9580069e-002,1.3665259e-002,2.5100556e-001,1.3098993e-001,-4.5759987e-002,-5.8459298e-002,-9.6366678e-003,-3.5672703e-001,5.0799329e-002,9.2792135e-002,1.4378228e-002,3.6215042e-002,2.2908177e-001,-1.9666592e-001,0.0000000e+000,0.0000000e+000,-2.7931366e-001,1.3102546e-001,-2.1500660e-002,-2.6705306e-003,1.6157893e-001,1.0888778e-001,9.4325076e-003,-1.0633542e-002,-2.5356226e-001,-6.8573116e-002,-2.0292826e-001,9.4050102e-002,5.9505586e-002,-2.0257174e-001,0.0000000e+000,0.0000000e+000,2.2086623e-002,1.4092356e-001,-1.9192455e-001,1.3546417e-001,-4.6773735e-002,8.8739035e-003,3.3734204e-002,9.4299261e-002,-2.4939273e-002,5.0183599e-002,-4.1048879e-002,3.0776166e-002,8.4250557e-002,-3.7848694e-001,0.0000000e+000,0.0000000e+000,1.4865672e-002,-6.8481536e-002,-1.7444654e-001,1.1835999e-001,-1.0475460e-001,1.0572209e-001,3.4212869e-002,2.1424583e-001,-2.6848878e-002,2.5931848e-002,-3.7550652e-003,1.3892922e-001,-6.5330851e-002,7.4947522e-002,0.0000000e+000,0.0000000e+000,-3.3945352e-002,-5.1381472e-002,9.5753294e-002,2.4743067e-001,-1.0522486e-002,5.3525494e-002,4.3447571e-003,-1.4015581e-002,-1.3868645e-001,-2.2898436e-001,1.0712593e-001,-8.4734120e-002,6.9288306e-002,1.8979373e-001,0.0000000e+000,0.0000000e+000,-1.1381414e-001,-1.7218180e-001,6.5670992e-002,-1.3728907e-001,8.5243936e-003,-2.1006287e-002,-9.6030055e-003,4.0403075e-002,-6.5781837e-005,-3.7311550e-002,7.3443623e-002,1.4640892e-002,-1.4663971e-001,-3.3811918e-002,0.0000000e+000,0.0000000e+000,5.9872064e-002,1.1791145e-001,1.2915877e-002,9.5668094e-002,-1.1212623e-001,-7.6581352e-003,3.8392599e-003,-7.8493123e-002,2.6896110e-001,-1.8382667e-002,5.6453495e-002,1.3265313e-002,-1.6404044e-002,-1.5139913e-001,0.0000000e+000,0.0000000e+000,5.0406716e-002,1.4819071e-001,1.3969459e-001,-2.2135788e-001,-4.0377068e-002,1.2897773e-001,2.6657403e-002,1.1026642e-001,-9.4140133e-002,3.0010672e-001,-2.3149294e-001,-1.6281682e-001,-1.0884479e-002,-2.8311060e-001,0.0000000e+000,0.0000000e+000,-2.1214860e-002,1.1063111e-002,
,182,1.2918624e-002,1.0582993e-001,-1.1781689e-002,-3.5938576e-003,3.2523351e-002,-3.5879829e-001,-9.9411018e-003,2.3633538e-002,-2.7916698e-001,2.6818596e-001,7.6968528e-002,2.2631360e-002,0.0000000e+000,0.0000000e+000,-1.0489371e-001,1.7957364e-001,-2.2992846e-002,-2.4510866e-001,1.9694774e-001,-8.4609786e-002,-5.5836620e-002,5.3885403e-001,-1.1833157e-001,-1.2195318e-001,-1.8967988e-001,-9.1165582e-002,2.5638575e-004,1.2696294e-001,0.0000000e+000,0.0000000e+000,-4.2048580e-002,1.3587380e-001,1.2370136e-001,-3.5857458e-002,7.2084175e-002,-2.1098953e-001,1.5978740e-001,-1.1299366e-001,9.5608766e-002,2.1693357e-001,-1.2886708e-001,1.6257384e-001,-6.5962059e-002,-2.8920680e-002,0.0000000e+000,0.0000000e+000,-2.5066514e-001,5.2392310e-002,7.0375753e-002,4.5583633e-002,-7.8229376e-002,1.5710348e-002,-1.3880436e-001,4.8926007e-002,-1.0254414e-001,-9.9181774e-002,9.2641117e-002,-4.3849645e-002,1.7587520e-002,6.5108531e-002,0.0000000e+000,0.0000000e+000,3.0278919e-004,5.3849115e-002,-4.0801387e-002,1.7925918e-001,-2.0950651e-001,9.2436134e-002,-2.4515059e-001,-1.2091817e-001,2.9489837e-002,-1.0179413e-001,1.7483109e-001,1.3344256e-002,4.1256284e-002,-1.3403554e-001,0.0000000e+000,0.0000000e+000,7.2233486e-002,1.1587404e-001,-5.0510203e-002,-4.4831299e-002,-5.9433159e-002,1.7523528e-001,-5.2400841e-002,1.8349016e-001,-4.1812804e-002,1.1894918e-002,6.9524241e-003,-1.7863990e-002,-1.5029566e-001,1.8658143e-001,0.0000000e+000,0.0000000e+000,-7.0895823e-002,-1.1716249e-001,1.4108056e-002,-1.2601031e-001,8.7150546e-002,5.0265056e-002,1.6255610e-001,1.1503780e-001,2.6195460e-002,-2.5206989e-001,-2.7855505e-001,1.2443714e-001,-8.0444936e-002,7.1564958e-002,0.0000000e+000,0.0000000e+000,1.0072706e-001,-1.3586824e-001,1.7479527e-001,1.4274718e-001,-4.0775937e-001,3.1994225e-001,-1.3891141e-001,-2.2179208e-002,-9.4513458e-003,1.5324821e-001,1.0679511e-002,-1.0082758e-001,-3.2683751e-002,3.1679384e-002,0.0000000e+000,0.0000000e+000,7.0163563e-002,2.3099121e-001,1.5507049e-001,2.2458165e-001,-3.2975846e-002,1.6800084e-001,-9.9456330e-002,-1.3891305e-001,1.3711419e-002,1.0434721e-001,-1.0059363e-001,8.9959903e-002,-9.5571362e-002,-9.7667649e-003,0.0000000e+000,0.0000000e+000,-2.2214679e-001,7.4317916e-002,-1.6498830e-001,-1.2400550e-001,3.2682933e-001,-1.6300491e-001,1.6583809e-003,2.3678108e-001,-1.8616740e-001,-1.0820406e-001,4.0289267e-002,-1.8111155e-001,-4.2990302e-002,-6.5592986e-002,0.0000000e+000,0.0000000e+000,-7.3665773e-003,2.2246099e-002,
,194,-3.7471507e-001,3.5335289e-001,-1.5077625e-001,3.0771340e-002,2.7306512e-001,-1.9882574e-001,-1.9646229e-001,4.1580071e-002,-2.5187621e-001,1.2116433e-001,2.5869839e-001,-1.7207400e-001,0.0000000e+000,0.0000000e+000,-1.2201891e-001,1.6250869e-001,-1.1112374e-001,-7.4442751e-002,1.4330443e-002,1.2036604e-001,-2.6412600e-002,7.5050039e-002,-2.8980117e-002,-8.5724596e-002,3.0598649e-001,1.3565311e-001,-1.0956521e-001,1.9180920e-001,0.0000000e+000,0.0000000e+000,9.0355567e-002,-1.8764702e-001,-1.4963997e-001,9.8272537e-002,5.6840839e-002,1.1213543e-001,-1.5368110e-001,-1.4840333e-001,2.0818959e-001,-6.9523162e-002,-1.1301775e-001,2.7411216e-002,-1.3676914e-001,1.7105309e-001,0.0000000e+000,0.0000000e+000,-1.4837607e-001,2.0958892e-001,4.9029131e-002,-1.7983129e-001,-1.1177139e-001,1.4914258e-001,-7.4592494e-002,1.9531889e-001,5.0382419e-002,7.8332071e-002,2.9808490e-002,-3.1630806e-001,1.4784672e-001,-1.2558496e-001,0.0000000e+000,0.0000000e+000,-7.4774994e-004,1.3283129e-001,6.5409133e-002,2.7610302e-001,1.9181878e-002,-3.3225563e-001,1.0719824e-002,5.5661305e-002,-1.3483419e-001,2.0551158e-001,-9.5185514e-002,-1.0958065e-001,1.0121332e-001,4.6672291e-003,0.0000000e+000,0.0000000e+000,-2.8626257e-001,-2.4651490e-002,-2.2871597e-001,5.2255931e-002,-1.4177949e-001,1.4589170e-001,1.7896691e-002,-9.9523658e-002,-1.8119835e-001,-8.7925329e-002,2.4331407e-001,-3.8796621e-002,-4.0558153e-002,1.6258500e-001,0.0000000e+000,0.0000000e+000,1.4982506e-002,-5.7845596e-002,2.6835115e-002,-2.6941284e-001,-3.5018329e-002,1.8992713e-001,1.0567513e-001,2.1314641e-001,6.4871046e-002,-1.8566246e-001,2.9403761e-002,1.2097103e-001,-2.9548779e-002,-1.7339810e-001,0.0000000e+000,0.0000000e+000,5.1716128e-002,1.6429304e-001,-3.7689424e-002,-1.7075610e-002,-3.4651918e-002,2.5345996e-001,5.5263851e-002,1.1424648e-002,6.2676524e-002,-6.0224073e-002,-1.6393112e-001,-9.0191475e-002,9.2411491e-002,-9.2161816e-002,0.0000000e+000,0.0000000e+000,3.8820878e-002,5.3388361e-002,-1.7498207e-002,1.1021673e-001,-8.4673189e-002,2.0965563e-001,-7.4021143e-002,-1.2026867e-001,-4.0744078e-002,4.9438656e-003,1.2369665e-001,-2.1095234e-001,5.8720047e-002,1.0129646e-001,0.0000000e+000,0.0000000e+000,1.3847840e-001,-8.9588804e-002,1.2459159e-001,-2.6509812e-002,-9.8848155e-002,-1.7521114e-001,-2.0661503e-002,-1.6308212e-001,7.9134984e-002,-5.3088034e-003,2.1369835e-001,3.1011008e-001,-4.0354403e-001,1.6618273e-001,0.0000000e+000,0.0000000e+000,-1.6265878e-001,2.8842147e-001,
,206,3.8559232e-002,8.4249460e-002,-9.8714290e-002,1.8047679e-001,2.8471745e-001,-3.4575624e-001,6.6862267e-002,-4.6870749e-002,-3.0775376e-002,-1.1456468e-001,2.6074635e-001,-2.9856610e-001,0.0000000e+000,0.0000000e+000,8.7209525e-002,2.0927439e-002,3.1817198e-002,1.1244751e-001,2.3201407e-001,1.2998028e-001,-5.4148272e-002,-8.7994817e-002,-2.3344153e-001,-5.0714057e-002,1.6749243e-001,-2.6650978e-002,1.7462710e-001,-1.4245183e-002,0.0000000e+000,0.0000000e+000,-5.0176355e-002,8.9628514e-003,7.5184341e-002,3.9314589e-002,-1.8998634e-001,1.3058738e-001,1.0096676e-001,3.1486727e-002,6.0257766e-002,-1.2289094e-001,-3.0029962e-001,3.8804251e-001,-3.5448916e-001,1.3897838e-001,0.0000000e+000,0.0000000e+000,-1.1189258e-001,-1.1529599e-001,1.0983710e-001,-2.1754140e-001,1.0105516e-001,-9.7606833e-002,1.4687185e-001,-1.0738312e-001,-2.1882183e-002,-8.8026291e-002,-9.1999891e-002,-1.4573081e-001,7.8167639e-002,1.0668832e-001,0.0000000e+000,0.0000000e+000,1.5319643e-001,-6.4004771e-002,6.9966602e-002,4.2435023e-002,-1.3512455e-001,-5.4372055e-003,3.8962582e-002,-5.4378980e-002,9.0960271e-002,-2.9734914e-001,8.2657355e-002,-1.2565538e-001,1.4164087e-001,-2.4056396e-002,0.0000000e+000,0.0000000e+000,-4.5183764e-002,1.6758565e-001,-1.0809179e-001,3.1180458e-002,-4.3976418e-002,1.3999930e-001,-1.2754499e-001,-1.0139495e-001,-3.3003981e-002,1.3587900e-001,-1.0538366e-001,8.5735721e-002,-6.7772187e-003,-7.9020299e-002,0.0000000e+000,0.0000000e+000,-1.0650969e-001,2.2563998e-001,1.0720044e-001,4.7581488e-002,-1.4180405e-001,2.8082951e-001,3.4949856e-002,-8.3567457e-002,1.9823727e-001,-1.7779370e-002,-9.1532340e-002,-4.1557562e-002,-5.4482286e-002,2.8538953e-002,0.0000000e+000,0.0000000e+000,-5.5553783e-002,-2.7631700e-002,1.2160390e-001,-3.0787383e-001,6.2041799e-002,4.3262529e-002,9.9625331e-003,-1.8028414e-002,3.9181604e-002,-1.2079900e-001,9.1579580e-003,4.7564961e-002,-2.4597955e-001,-1.2606755e-001,0.0000000e+000,0.0000000e+000,1.5339001e-001,4.0868109e-002,1.0857913e-001,-8.1734392e-002,-8.8012961e-002,7.7317337e-002,1.4077463e-001,1.2661499e-001,2.6816145e-001,-2.4742160e-001,4.3810904e-002,-2.1453842e-001,-1.5923055e-001,1.8139272e-001,0.0000000e+000,0.0000000e+000,2.6722755e-001,-2.4607466e-001,1.9430581e-001,-1.5456920e-002,-3.5320909e-001,9.7729155e-002,-3.2627595e-002,2.0478687e-001,3.1514206e-002,1.8311269e-001,-3.1447788e-002,-4.6796925e-002,-1.4674447e-002,1.7898061e-001,0.0000000e+000,0.0000000e+000,-1.0908845e-001,-2.1133589e-002,
,218,-9.6452045e-003,-6.7195509e-002,-1.1347879e-001,-2.8967502e-002,3.9737099e-002,-2.7057317e-002,4.1830576e-001,2.1472258e-001,-6.3969899e-004,-3.0689437e-001,-2.6969164e-001,-3.0072869e-002,0.0000000e+000,0.0000000e+000,1.6546324e-001,9.8848093e-002,-4.8387981e-002,-8.2757680e-002,1.7332715e-001,-5.6618912e-003,2.3758636e-001,-2.4599339e-002,-4.5479263e-001,9.3708470e-002,-3.2980929e-001,7.5622187e-002,4.8446574e-001,7.3980463e-003,0.0000000e+000,0.0000000e+000,-2.6443969e-001,2.7097514e-001,6.4195628e-002,1.0063368e-001,3.2019923e-002,6.6653785e-002,5.2861402e-002,-4.6070567e-002,2.8146836e-002,-2.0659245e-001,3.0630230e-002,9.0070479e-002,3.0017552e-002,1.5028218e-001,0.0000000e+000,0.0000000e+000,-1.4368985e-001,-1.4679297e-001,1.5026338e-001,-1.2274026e-001,1.1287995e-001,1.4156337e-002,-3.0766969e-001,2.0297460e-001,-1.1266044e-001,5.2584551e-002,1.5962102e-001,5.8038511e-002,1.5643279e-001,-2.0369482e-001,0.0000000e+000,0.0000000e+000,-1.5373417e-001,-1.0397845e-001,9.8252132e-002,-1.2992275e-001,-5.6958683e-002,-4.5565782e-002,-2.3874824e-002,2.9287680e-002,1.4743287e-001,6.3219424e-002,-1.0522200e-001,2.1875585e-002,-4.4192526e-002,-2.5939075e-001,0.0000000e+000,0.0000000e+000,4.8815652e-002,6.8842662e-002,5.1268181e-002,-3.8927685e-002,4.8654556e-002,1.2732041e-001,7.7627849e-003,-1.6517222e-001,3.8531767e-002,-4.5038414e-002,-1.5004034e-002,-6.6136174e-002,8.5405068e-002,-5.4010586e-002,0.0000000e+000,0.0000000e+000,1.2661507e-001,1.0378957e-002,7.9051327e-002,1.3694680e-001,5.6778815e-002,4.0781318e-002,-7.8529069e-003,-1.2088248e-001,1.6690263e-001,-4.2918439e-001,-2.6457699e-002,6.9794495e-002,7.6278978e-002,1.5711318e-001,0.0000000e+000,0.0000000e+000,-8.1812251e-003,-8.6201922e-002,3.5465209e-002,-8.0273891e-002,-3.0308374e-002,-2.5693207e-002,-6.4030050e-002,3.7538522e-001,-7.8324599e-002,4.5882153e-003,1.4242378e-001,-2.0618298e-001,1.7339722e-001,-1.3902647e-002,0.0000000e+000,0.0000000e+000,-1.3927101e-001,-2.3192501e-001,1.8633436e-001,1.3656357e-001,-1.0793803e-001,-4.1155930e-002,9.6804784e-002,1.3211183e-001,-1.2229579e-001,9.6604738e-002,8.4738339e-003,-6.5022519e-002,-9.2032615e-002,-8.6004321e-002,0.0000000e+000,0.0000000e+000,2.0521214e-002,7.4846677e-002,-1.4308328e-002,-5.8375364e-002,-1.9952701e-001,2.1631974e-001,-2.2854738e-001,1.1008247e-001,2.7697906e-002,-3.1993359e-002,1.1022000e-003,-1.1139022e-001,-1.5007937e-001,1.4415354e-001,0.0000000e+000,0.0000000e+000,-4.3665850e-002,2.9793933e-001,
,230,-1.9509531e-002,-2.0014423e-001,-3.7554365e-002,-3.9214599e-002,6.2102990e-002,7.0111758e-004,2.7351667e-001,-1.9284640e-001,3.1645394e-002,-1.4157529e-001,-8.9592324e-002,1.7955675e-001,0.0000000e+000,0.0000000e+000,8.9330690e-002,6.4545731e-002,-1.1092779e-001,-1.0272824e-001,3.0977361e-001,-1.9862805e-001,5.4408970e-002,2.9615457e-001,-3.0119816e-001,4.4654161e-002,1.9271448e-001,-2.7023396e-001,2.2803815e-001,-5.0628753e-002,0.0000000e+000,0.0000000e+000,2.3232982e-002,-6.3296090e-002,9.4973498e-002,-2.6605490e-001,1.0822517e-001,3.9762810e-001,6.9299717e-002,3.1329250e-002,-9.2443294e-002,-4.7624168e-001,2.5263663e-002,2.5860930e-001,3.5542052e-001,4.4682797e-003,0.0000000e+000,0.0000000e+000,-2.7465716e-001,-2.1515312e-001,5.1022848e-002,-1.1199652e-001,-1.2932374e-001,-1.9031667e-001,1.6664361e-001,-1.0704611e-001,6.8085810e-002,7.2385165e-002,-6.9511890e-002,1.4598067e-001,-9.2536919e-002,-1.2205416e-001,0.0000000e+000,0.0000000e+000,1.8969172e-002,1.3640147e-001,1.5543873e-001,5.0355062e-002,-1.4186117e-002,5.0731147e-003,1.1942265e-001,2.5379445e-003,1.6046383e-001,9.6342650e-002,-6.0159932e-002,1.3542428e-002,3.3946524e-002,-5.8291851e-002,0.0000000e+000,0.0000000e+000,-1.3370707e-001,-2.4058819e-002,1.2043031e-003,7.8263659e-002,-1.6264456e-001,2.1927196e-001,-1.8853213e-001,5.9690278e-002,4.2965055e-002,8.3441221e-004,-9.1025184e-002,-1.3548866e-001,-3.1861178e-002,5.3375543e-002,0.0000000e+000,0.0000000e+000,1.9410517e-002,8.6655657e-002,7.7432035e-002,-1.5409223e-001,-1.1868576e-001,1.8563896e-002,1.9744980e-001,3.2480349e-002,1.5527459e-001,-1.4425630e-001,-8.3112045e-002,1.5494616e-001,-1.4303665e-002,-1.7288771e-001,0.0000000e+000,0.0000000e+000,1.8128667e-001,-6.4128460e-002,1.8022557e-001,1.8739048e-002,-8.8638386e-002,1.5794074e-001,-1.1608805e-001,1.5886924e-001,-2.1970586e-001,2.1355541e-001,3.0501984e-002,7.1370625e-002,-1.7731411e-001,1.0614889e-001,0.0000000e+000,0.0000000e+000,1.7562749e-001,-2.9488403e-002,2.5650856e-001,-6.7035590e-002,-1.8916446e-001,2.1634455e-001,-2.1064670e-001,8.2225138e-002,4.8343208e-002,-7.6623710e-002,1.1482209e-001,-1.1240346e-001,9.3431376e-003,2.2477396e-001,0.0000000e+000,0.0000000e+000,-1.1114563e-001,2.4896528e-002,-3.2267824e-001,1.4741131e-001,-1.3321174e-001,-6.6432247e-002,9.0685654e-002,-8.6248496e-002,2.2619622e-001,-9.4173524e-002,1.3729604e-001,-1.8721912e-001,-4.3838135e-002,-1.7649070e-001,0.0000000e+000,0.0000000e+000,-1.6026855e-001,-1.8551287e-001,
,242,-6.0309310e-002,-6.1848047e-002,-1.7986987e-001,-6.9940973e-002,-2.5745316e-001,2.2918790e-001,-7.0174249e-002,2.4716335e-002,3.4440678e-002,-1.5507712e-002,1.5005857e-001,2.6416229e-001,0.0000000e+000,0.0000000e+000,-1.7986381e-001,1.8790336e-002,-1.3003957e-001,1.3292901e-001,-4.0833956e-001,3.6990037e-001,-1.6799050e-001,-5.1339030e-002,2.5738569e-002,-1.4490403e-001,3.2810171e-001,-1.2779068e-001,1.4933493e-002,1.2468114e-001,0.0000000e+000,0.0000000e+000,2.2273345e-001,-1.0415018e-001,2.5391030e-001,6.1506759e-002,1.5243528e-001,-1.0688950e-001,2.7775797e-001,-3.0387802e-001,1.5537719e-002,2.4430258e-001,-4.6699901e-002,1.2942247e-001,2.0295889e-001,-1.8873118e-001,0.0000000e+000,0.0000000e+000,-2.7538210e-001,1.5784057e-001,2.8935368e-001,-8.0354314e-002,1.7044200e-001,-1.7791901e-002,-1.1255753e-001,-5.5670425e-002,3.1570391e-002,-4.2473872e-003,2.4976709e-002,-1.4541765e-002,-2.1949724e-002,-1.3116536e-002,0.0000000e+000,0.0000000e+000,-1.0327186e-001,1.2220695e-002,2.8837977e-003,-8.4768312e-003,-2.0267788e-001,-6.1202280e-002,1.0550455e-001,2.5231078e-001,6.3571751e-002,4.6431457e-002,-3.5548799e-002,-1.0709870e-001,1.4893529e-002,1.2262322e-001,0.0000000e+000,0.0000000e+000,-1.5628776e-001,-4.6323883e-002,-2.2740643e-001,-1.1130826e-001,-3.1229236e-002,1.8563084e-001,2.4392254e-001,-1.3097471e-001,-2.4120462e-002,-1.5029313e-001,-1.5804675e-002,-1.2686605e-002,-1.5253649e-001,9.5609764e-002,0.0000000e+000,0.0000000e+000,1.3351185e-001,-3.4762006e-002,2.4380907e-001,-2.6531043e-002,-3.6072512e-001,1.9211823e-001,-7.9260311e-002,-1.4416824e-001,6.4249529e-002,-5.4472184e-003,1.7640404e-001,9.0528679e-002,-1.5992138e-001,2.3400748e-001,0.0000000e+000,0.0000000e+000,-1.5666548e-001,-2.5353006e-001,2.0503179e-001,2.3307290e-001,-2.4054993e-001,1.2910102e-001,-3.3460576e-001,-2.6452805e-001,2.2269739e-001,9.5044840e-002,1.5885776e-001,-4.1766204e-002,-1.8765402e-001,-6.0658093e-002,0.0000000e+000,0.0000000e+000,1.1285120e-001,5.1585114e-002,1.3722817e-001,-1.2349182e-002,7.5264738e-002,4.3586639e-002,4.6399363e-002,-1.5857551e-001,3.5300349e-001,-1.7025535e-001,-6.1451279e-003,1.1778281e-001,2.4837398e-001,-1.5252571e-001,0.0000000e+000,0.0000000e+000,-1.2616956e-001,6.0228309e-002,6.3862520e-002,-2.8768535e-001,3.3450195e-001,1.2315149e-002,9.3837658e-002,7.5386834e-002,-3.6954390e-001,-1.9140608e-001,-2.6625380e-001,1.2418404e-001,1.2858459e-001,-1.4734231e-002,0.0000000e+000,0.0000000e+000,-2.0719602e-001,3.6558008e-002,
,