32,-5.2300599e-002,-2.5876099e-001,9.5985779e-003,-4.4521488e-002,4.9194283e-001,-1.1768802e-001,6.6511229e-002,9.8009043e-002,-5.0902114e-001,2.4361166e-001,-6.2111960e-002,-2.0999690e-001,0.0000000e+000,0.0000000e+000,-5.2957108e-002,2.5307502e-001,-2.0972686e-001,-1.1659826e-001,1.1277354e-002,1.5860643e-002,3.2462333e-001,7.5650009e-002,7.2517541e-002,-7.4467985e-002,-1.3305490e-001,-2.9839520e-002,-1.1466897e-002,-1.6588753e-002,0.0000000e+000,0.0000000e+000,3.7176707e-002,6.4913394e-002,-1.2135617e-001,-9.3563989e-002,1.3757858e-001,-1.5779801e-001,-1.5688389e-001,2.0890646e-001,-7.1155243e-002,9.7828116e-002,-8.7761510e-002,-1.0573147e-001,6.9965874e-002,3.2425023e-002,0.0000000e+000,0.0000000e+000,2.8113717e-002,1.3998995e-001,1.7572235e-001,-2.2846656e-001,1.2825776e-001,-1.2187972e-001,-1.0939899e-001,2.3202661e-001,1.7367333e-001,5.1290950e-002,2.1038974e-001,-2.6605490e-001,3.0181995e-002,-2.8778347e-002,0.0000000e+000,0.0000000e+000,-3.4451239e-003,3.6370675e-003,5.1700099e-002,1.8823672e-001,-1.3604379e-001,1.1317006e-001,5.9467996e-002,-2.5879573e-001,9.0076919e-002,-3.6530362e-002,-1.6628375e-001,1.6994717e-001,-3.6201723e-002,4.0062947e-002,0.0000000e+000,0.0000000e+000,-2.4266979e-002,7.2148489e-002,-7.1488883e-002,1.0961784e-001,-3.5146360e-002,1.0751626e-001,2.6209271e-002,-3.0023631e-002,-4.8318633e-002,-2.5454248e-002,-4.1854414e-002,-3.8010394e-002,-4.2578282e-002,5.4742673e-002,0.0000000e+000,0.0000000e+000,9.3096577e-002,-4.2835703e-002,1.6546096e-001,-3.6921125e-001,1.2323395e-001,-2.9634743e-001,-1.0385676e-001,1.2918510e-001,-3.7123164e-002,2.1453404e-001,1.0360211e-001,-2.4988340e-001,-3.8416289e-002,7.0980450e-002,0.0000000e+000,0.0000000e+000,-1.8241217e-001,-2.8914325e-001,2.8112538e-002,5.1958377e-003,1.1234465e-001,-9.8743947e-005,-1.7311555e-002,1.3441637e-002,1.1891802e-003,6.1721979e-002,-1.6277208e-002,-1.3307387e-002,-1.5722680e-001,9.0512592e-002,0.0000000e+000,0.0000000e+000,-3.2990151e-002,7.2387807e-002,-2.3419707e-001,1.0599204e-001,2.9586803e-002,7.4751341e-002,2.3731439e-002,1.1540006e-001,1.0657918e-001,9.6829682e-002,2.6304955e-001,-2.7599714e-002,-2.6275951e-001,-1.8906792e-001,0.0000000e+000,0.0000000e+000,2.1638532e-001,2.1793940e-002,-5.4504130e-002,9.0146899e-002,-1.8824459e-001,8.4508206e-002,-9.6880921e-002,1.8440043e-002,7.0305200e-002,-6.2483073e-002,-1.8613565e-002,3.3869658e-002,-5.9067703e-003,-5.3813810e-002,0.0000000e+000,0.0000000e+000,1.0472306e-001,5.6870815e-002,
,42,-3.9620632e-002,2.4885416e-002,-8.3700614e-002,2.5469953e-002,-8.7232492e-002,2.2015629e-002,4.8253283e-002,7.3696978e-002,-1.2767051e-002,3.9941962e-002,7.9723764e-003,-1.2089792e-001,0.0000000e+000,0.0000000e+000,-4.1972470e-002,1.3162338e-001,9.5380924e-002,-2.5514224e-002,-3.0220827e-002,2.9076451e-002,-1.0019751e-001,-3.4969126e-003,4.6965810e-002,-6.2131974e-002,1.2040080e-001,-6.5187019e-002,1.2067715e-002,-8.9332642e-003,0.0000000e+000,0.0000000e+000,-2.2822693e-003,-8.1729704e-003,5.8741692e-002,-1.2388939e-001,7.6183457e-002,-3.9082554e-002,-4.3873059e-002,7.5255282e-002,-1.1401703e-001,6.6715323e-002,-5.6073430e-003,-3.6531912e-002,5.3883686e-002,1.4062651e-002,0.0000000e+000,0.0000000e+000,-9.5316568e-002,4.2218637e-002,-1.5625743e-002,2.3146347e-002,-4.6688772e-002,7.8607277e-003,-3.9190033e-003,-2.7482106e-002,3.8627835e-002,2.0700996e-002,3.9381471e-002,-1.5352809e-002,-5.4816334e-002,2.5925032e-002,0.0000000e+000,0.0000000e+000,3.8965020e-002,-1.3259943e-002,-4.5652111e-003,-8.9853220e-002,-4.4005756e-002,5.4051749e-002,-3.9958200e-002,5.9794371e-002,-1.7755719e-002,-6.7503118e-002,-1.6404494e-002,1.1455216e-002,-5.6656145e-002,3.7737014e-002,0.0000000e+000,0.0000000e+000,4.0507564e-002,-3.1522783e-003,5.0654222e-002,-6.2388585e-002,8.2016748e-002,-4.3113794e-002,-7.3703986e-002,7.9675467e-003,-1.4573233e-002,5.6656919e-002,1.5674548e-002,-4.8445912e-003,2.5196716e-002,-8.3353341e-003,0.0000000e+000,0.0000000e+000,1.4618909e-002,1.6291562e-002,3.5527000e-002,-3.6243741e-002,2.6669859e-002,-7.6305958e-002,7.8247219e-002,-6.6984950e-002,7.1720841e-002,3.8343581e-002,-9.8022207e-002,-9.4167879e-003,-1.8463216e-002,6.3162485e-003,0.0000000e+000,0.0000000e+000,-1.3345401e-002,-7.9092117e-002,2.1789962e-003,1.4106527e-002,-1.9434290e-002,-1.0303640e-002,5.2822880e-003,-1.2883336e-002,-1.5388141e-002,1.1543460e-002,-4.2224875e-002,7.5119410e-002,-4.4127560e-002,4.2507386e-002,0.0000000e+000,0.0000000e+000,-1.6034979e-002,-4.3350658e-002,1.4720004e-002,-1.1155853e-001,7.9001408e-002,9.3903815e-003,-4.4653396e-002,9.1494560e-002,2.1971307e-002,-4.0067782e-002,2.7866833e-003,2.9964675e-002,-1.2647737e-002,2.8103509e-002,0.0000000e+000,0.0000000e+000,-1.2810330e-002,4.4333700e-002,6.8870811e-002,-2.2853376e-002,-1.3995294e-002,4.9500067e-002,-5.1408015e-002,-4.4327803e-002,4.3842233e-002,2.2035068e-002,5.3640640e-002,-2.5378646e-002,-1.6750219e-002,3.9253952e-002,0.0000000e+000,0.0000000e+000,-8.2674512e-003,3.9607628e-004,
,46,0.0000000e+000,0.0000000e+000,-3.2016206e-002,0.0000000e+000,0.0000000e+000,0.0000000e+000,0.0000000e+000,0.0000000e+000,0.0000000e+000,-3.3601910e-001,0.0000000e+000,-4.8383964e-001,0.0000000e+000,0.0000000e+000,7.6717928e-004,5.3908588e-001,-2.0156828e-001,0.0000000e+000,1.5074816e-001,-5.4470383e-001,0.0000000e+000,2.6395990e-001,5.7043536e-001,3.2554081e-001,4.9088702e-001,-2.1846566e-001,0.0000000e+000,-1.1494864e-001,0.0000000e+000,0.0000000e+000,1.7794159e-001,-2.3423665e-001,2.2929488e-001,0.0000000e+000,0.0000000e+000,1.6695447e-002,-1.9852423e-001,-6.0329786e-001,5.0194333e-001,0.0000000e+000,5.6789273e-003,0.0000000e+000,0.0000000e+000,-1.6071803e-001,0.0000000e+000,0.0000000e+000,1.5975893e-002,-3.6541190e-001,0.0000000e+000,-2.2844809e-001,0.0000000e+000,7.8649448e-001,-1.4743813e-001,1.7516151e-001,-8.9736994e-002,-2.2233715e-001,0.0000000e+000,-3.1204763e-001,0.0000000e+000,-2.2467646e-001,0.0000000e+000,0.0000000e+000,-2.0572531e-001,1.3688004e-001,-6.0920353e-001,8.1614009e-001,-1.6500306e-001,0.0000000e+000,2.7207872e-001,-3.9480469e-001,6.6313972e-002,-1.5778239e-001,0.0000000e+000,5.8039979e-001,-1.7916472e-001,0.0000000e+000,0.0000000e+000,0.0000000e+000,-3.5336979e-001,-2.4716226e-001,-1.1573126e-001,3.5655889e-001,-3.4526488e-001,5.6873519e-002,0.0000000e+000,-7.4734088e-003,1.1310483e-001,-6.3259841e-004,-1.2620513e-001,3.3803815e-001,-1.2140268e-001,-4.4885784e-002,0.0000000e+000,0.0000000e+000,9.1857730e-002,3.2353240e-002,2.4400548e-001,-4.4450775e-001,1.2623709e-001,2.7735125e-001,-7.6831443e-001,0.0000000e+000,-2.1307536e-001,0.0000000e+000,5.6373788e-001,-3.9056614e-001,6.7427226e-001,-8.1917524e-002,0.0000000e+000,0.0000000e+000,3.0289948e-001,-2.8818817e-001,-7.8925406e-002,-3.4265170e-001,6.6266381e-001,-2.7905615e-001,1.7111280e-001,0.0000000e+000,0.0000000e+000,-2.7240301e-001,2.2663266e-001,0.0000000e+000,-3.0755837e-001,1.5423734e-001,0.0000000e+000,0.0000000e+000,1.9240206e-001,3.9923003e-001,0.0000000e+000,4.6760514e-001,0.0000000e+000,0.0000000e+000,0.0000000e+000,-4.8710567e-001,3.5208232e-001,1.8051181e-002,2.6040547e-001,0.0000000e+000,-2.5919851e-001,-1.3566626e-001,0.0000000e+000,0.0000000e+000,-4.2771280e-001,-2.4870224e-001,-3.2888003e-001,3.8179084e-001,-2.7708897e-001,5.7613543e-001,-4.0268082e-002,0.0000000e+000,2.6208543e-002,1.4699977e-001,0.0000000e+000,1.2215992e-001,-1.1415723e-001,1.9276627e-001,0.0000000e+000,0.0000000e+000,8.9500226e-002,-3.1936440e-001,
,52,1.2971238e-002,-9.1016680e-002,-5.0958602e-002,3.9421169e-002,-1.4528504e-001,1.7936856e-001,2.2048621e-001,-2.1026917e-002,1.9668146e-001,-3.1103356e-001,9.5068073e-002,-1.5724619e-001,0.0000000e+000,0.0000000e+000,4.9804838e-002,1.1151406e-002,-3.9660268e-002,-4.7516900e-002,-1.5992780e-002,1.4132791e-002,1.1364416e-001,7.0737431e-002,-7.2517459e-003,-1.8896254e-002,-7.3486199e-002,-4.2371379e-002,9.1393938e-002,-1.0530298e-003,0.0000000e+000,0.0000000e+000,-5.8119833e-002,6.6513890e-002,-7.3491324e-002,-4.3656030e-003,-8.9271725e-002,7.9536882e-003,-2.5864012e-002,7.2356362e-002,7.3597320e-002,-4.3469403e-003,-8.6448169e-002,6.1421062e-002,-8.2175343e-002,-4.0510028e-002,0.0000000e+000,0.0000000e+000,-4.2519112e-003,2.8206875e-002,1.4180916e-001,5.1322656e-003,9.4515392e-003,-1.2786896e-002,-2.3580123e-001,7.0980309e-002,-6.7363041e-002,3.3430262e-002,9.7651300e-002,8.7108736e-002,-5.0996223e-002,7.2755685e-002,0.0000000e+000,0.0000000e+000,-8.1788704e-002,-9.4807861e-002,-9.1720079e-003,1.0812356e-002,-6.2289787e-004,5.0821288e-002,-8.7373777e-002,1.7140536e-002,3.1518773e-002,-8.1644730e-002,5.4278865e-002,-9.0660091e-002,8.3046053e-002,3.0042679e-003,0.0000000e+000,0.0000000e+000,-7.2916812e-002,2.1400397e-002,-4.1527455e-002,-4.2312903e-002,-5.7912140e-004,9.5609558e-002,1.6051845e-002,5.3588259e-002,-8.0167151e-002,5.8270269e-002,-1.2502732e-002,-1.6348024e-002,-2.7458295e-003,-6.4361301e-002,0.0000000e+000,0.0000000e+000,6.5227681e-002,-1.7710632e-002,5.3573220e-002,-9.2395017e-002,2.1754404e-002,3.7374283e-002,-1.8823629e-002,-3.9472332e-002,-6.1179396e-002,-1.1991632e-001,-4.7957895e-002,6.5259263e-003,8.5954534e-002,-1.6588681e-002,0.0000000e+000,0.0000000e+000,5.9960667e-003,9.7660747e-002,1.1944261e-001,-2.3524349e-002,1.9359485e-002,1.9744847e-002,-7.0284892e-002,-1.1695502e-001,-6.4787146e-003,3.9031190e-003,8.2567679e-002,5.9151412e-002,6.1994272e-002,8.2743380e-003,0.0000000e+000,0.0000000e+000,-8.0286170e-002,-3.7647205e-002,-1.3722762e-001,-7.3742032e-002,-1.1466757e-001,-2.3214995e-002,1.7498414e-003,6.5109320e-002,2.1729134e-001,3.4842682e-003,3.1788962e-002,4.9862026e-002,-1.5796035e-001,2.9928144e-002,0.0000000e+000,0.0000000e+000,-9.4707188e-003,1.6545727e-002,3.7945963e-002,3.0437374e-002,5.0217791e-002,3.9841692e-002,1.0923360e-001,7.1328552e-003,1.6666798e-002,1.6033639e-002,-5.8025296e-002,-4.9366327e-002,-1.6671399e-002,5.1934721e-002,0.0000000e+000,0.0000000e+000,1.6688250e-002,-3.1814814e-002,
,56,3.8241197e-002,-3.9684932e-003,-7.9200922e-002,0.0000000e+000,0.0000000e+000,0.0000000e+000,0.0000000e+000,0.0000000e+000,4.0742931e-001,0.0000000e+000,-8.5186591e-002,1.8012851e-001,0.0000000e+000,0.0000000e+000,0.0000000e+000,0.0000000e+000,0.0000000e+000,3.2929405e-001,0.0000000e+000,3.9788351e-001,0.0000000e+000,0.0000000e+000,0.0000000e+000,-6.1333286e-001,1.4802210e-001,0.0000000e+000,6.3061029e-001,-1.4572821e-001,0.0000000e+000,0.0000000e+000,-4.1828014e-001,-1.6456092e-001,0.0000000e+000,0.0000000e+000,0.0000000e+000,0.0000000e+000,-2.9302495e-001,2.7039838e-001,1.0807985e-001,0.0000000e+000,0.0000000e+000,0.0000000e+000,0.0000000e+000,9.6677120e-002,0.0000000e+000,0.0000000e+000,7.3214551e-003,-6.0268065e-001,-9.4581071e-002,0.0000000e+000,0.0000000e+000,0.0000000e+000,0.0000000e+000,1.8544840e-002,0.0000000e+000,-1.3518639e-001,0.0000000e+000,-2.8371447e-001,-3.8802534e-001,4.2409142e-001,0.0000000e+000,0.0000000e+000,3.0989334e-001,2.7801795e-002,-7.8489569e-002,0.0000000e+000,-1.3456781e-001,5.1026484e-002,-1.6507566e-001,0.0000000e+000,-3.3328968e-001,1.5013211e-001,0.0000000e+000,0.0000000e+000,4.7917801e-003,0.0000000e+000,0.0000000e+000,0.0000000e+000,0.0000000e+000,0.0000000e+000,4.0742733e-002,-3.0539983e-001,-2.7690557e-001,5.2475847e-001,0.0000000e+000,-2.0580006e-001,5.9326520e-001,-5.4455969e-001,-2.9413426e-001,0.0000000e+000,-1.7665101e-001,1.6654461e-001,0.0000000e+000,0.0000000e+000,2.3242567e-001,1.1212537e-001,-4.5941070e-002,2.3326794e-001,0.0000000e+000,0.0000000e+000,0.0000000e+000,-2.7722197e-002,2.8171106e-001,-2.5698111e-001,-4.4000597e-001,1.8188276e-002,0.0000000e+000,3.0001546e-001,0.0000000e+000,0.0000000e+000,0.0000000e+000,3.6814134e-001,0.0000000e+000,5.7579664e-001,-3.3203830e-001,-2.1099135e-001,4.7770028e-001,0.0000000e+000,-4.0189975e-001,5.9653298e-001,-2.4782589e-001,0.0000000e+000,0.0000000e+000,-4.3018617e-001,0.0000000e+000,0.0000000e+000,-1.1926067e-001,1.7292277e-001,-7.8719957e-002,0.0000000e+000,0.0000000e+000,1.1287661e-001,1.4080326e-001,0.0000000e+000,0.0000000e+000,0.0000000e+000,0.0000000e+000,0.0000000e+000,0.0000000e+000,0.0000000e+000,0.0000000e+000,0.0000000e+000,-1.3587720e-002,0.0000000e+000,-3.1339461e-001,-9.2694413e-002,6.4270450e-002,0.0000000e+000,0.0000000e+000,2.1435623e-001,1.1209191e-001,0.0000000e+000,0.0000000e+000,3.5852966e-001,0.0000000e+000,5.5774367e-001,0.0000000e+000,0.0000000e+000,0.0000000e+000,-4.3009069e-001,
,60,3.9459357e-001,0.0000000e+000,-5.7444515e-001,0.0000000e+000,-1.2255134e-001,0.0000000e+000,0.0000000e+000,0.0000000e+000,0.0000000e+000,9.5374446e-001,0.0000000e+000,6.9498969e-001,0.0000000e+000,0.0000000e+000,0.0000000e+000,-9.0913692e-001,2.1546916e-001,-2.7384588e-001,1.4988509e+000,0.0000000e+000,0.0000000e+000,0.0000000e+000,0.0000000e+000,-8.1507091e-001,-6.2231739e-002,0.0000000e+000,-4.1546699e-001,1.6077350e-001,0.0000000e+000,0.0000000e+000,6.8994778e-001,-9.4142496e-001,-4.1908878e-001,0.0000000e+000,0.0000000e+000,0.0000000e+000,7.8970805e-001,0.0000000e+000,0.0000000e+000,1.5478307e+000,5.9951838e-002,0.0000000e+000,9.4657972e-002,0.0000000e+000,0.0000000e+000,0.0000000e+000,4.1328872e-001,0.0000000e+000,-4.8835530e-001,2.7105438e-001,0.0000000e+000,-6.9847199e-001,0.0000000e+000,0.0000000e+000,1.8456403e-001,0.0000000e+000,0.0000000e+000,2.8705303e-001,-1.0483429e+000,1.0084922e+000,0.0000000e+000,0.0000000e+000,-1.5117798e-001,4.4583015e-001,-7.6503877e-001,0.0000000e+000,1.2224235e+000,0.0000000e+000,5.2910597e-001,0.0000000e+000,0.0000000e+000,-7.6411788e-002,-2.6660435e-002,0.0000000e+000,7.9758672e-002,0.0000000e+000,0.0000000e+000,0.0000000e+000,-7.2083682e-001,-1.0951834e+000,-5.9284959e-001,0.0000000e+000,2.8113738e-001,-1.2300803e-001,3.9313198e-001,0.0000000e+000,2.3522701e-001,1.1704968e-001,4.1529650e-001,-5.0385140e-001,0.0000000e+000,-2.0761930e-001,0.0000000e+000,0.0000000e+000,-1.0059407e-001,-7.6985263e-001,1.3200231e-001,0.0000000e+000,-1.1104598e+000,-3.1952984e-001,0.0000000e+000,8.0904710e-001,0.0000000e+000,0.0000000e+000,0.0000000e+000,-1.0210415e-001,0.0000000e+000,9.3966704e-001,0.0000000e+000,0.0000000e+000,2.8163525e-001,2.9875642e-001,0.0000000e+000,7.5685185e-001,0.0000000e+000,1.4361893e+000,0.0000000e+000,4.6881937e-002,-5.7886271e-001,0.0000000e+000,0.0000000e+000,0.0000000e+000,-1.0947824e+000,-2.5771546e-001,0.0000000e+000,0.0000000e+000,0.0000000e+000,0.0000000e+000,0.0000000e+000,-1.5844410e+000,0.0000000e+000,0.0000000e+000,1.2562369e-001,0.0000000e+000,7.9753671e-001,-4.4607624e-001,3.1773330e-001,0.0000000e+000,-1.8419857e-001,0.0000000e+000,0.0000000e+000,0.0000000e+000,0.0000000e+000,0.0000000e+000,0.0000000e+000,0.0000000e+000,-3.4511404e-001,-2.6817003e-001,-9.5031510e-002,0.0000000e+000,6.2119305e-001,2.7677520e-001,0.0000000e+000,5.5663479e-003,0.0000000e+000,-1.5022931e-001,0.0000000e+000,0.0000000e+000,3.4314429e-001,-8.9638148e-001,
,64,-2.6364526e-001,0.0000000e+000,4.4804268e-001,-4.6641442e-001,0.0000000e+000,0.0000000e+000,-2.7784077e-001,0.0000000e+000,0.0000000e+000,-3.9187150e-001,-3.5207938e-002,3.3509807e-001,0.0000000e+000,0.0000000e+000,2.2242639e-001,1.3313743e-001,0.0000000e+000,-1.7026802e-001,0.0000000e+000,6.2121857e-001,0.0000000e+000,0.0000000e+000,0.0000000e+000,-3.9227280e-001,-1.5353470e-002,0.0000000e+000,7.8050147e-002,-6.5341366e-002,0.0000000e+000,0.0000000e+000,8.3193941e-002,1.3605208e-002,-1.3970650e-002,-4.2356963e-002,-1.8547881e-002,1.5217506e-001,1.7065604e-001,0.0000000e+000,0.0000000e+000,0.0000000e+000,0.0000000e+000,9.4937489e-003,0.0000000e+000,0.0000000e+000,0.0000000e+000,0.0000000e+000,-2.2915322e-001,-2.3479314e-001,0.0000000e+000,3.6029150e-001,-3.4872948e-001,0.0000000e+000,-1.6405213e-001,0.0000000e+000,-4.5293108e-001,2.2428186e-001,3.2389401e-001,-6.3921599e-002,4.8093783e-002,-2.5462107e-001,0.0000000e+000,0.0000000e+000,1.1617979e-001,0.0000000e+000,3.7911990e-002,-4.4413532e-001,-8.8517613e-002,0.0000000e+000,0.0000000e+000,0.0000000e+000,0.0000000e+000,0.0000000e+000,0.0000000e+000,-3.2347825e-001,-7.6014732e-002,0.0000000e+000,0.0000000e+000,0.0000000e+000,0.0000000e+000,3.2947495e-001,-2.7816567e-001,4.1320522e-002,1.7118635e-001,5.6194603e-002,4.3083546e-001,-6.4079348e-001,5.2411882e-001,0.0000000e+000,0.0000000e+000,7.6416497e-002,-2.3683981e-002,0.0000000e+000,0.0000000e+000,0.0000000e+000,1.4090424e-001,-2.1115572e-002,0.0000000e+000,-2.1048998e-001,0.0000000e+000,0.0000000e+000,0.0000000e+000,-2.1480593e-001,0.0000000e+000,0.0000000e+000,0.0000000e+000,0.0000000e+000,0.0000000e+000,4.9841152e-001,0.0000000e+000,0.0000000e+000,0.0000000e+000,0.0000000e+000,0.0000000e+000,-3.5424233e-001,0.0000000e+000,0.0000000e+000,-3.8930794e-001,0.0000000e+000,2.6443602e-001,0.0000000e+000,-3.3948794e-002,-2.2016966e-001,7.0988978e-002,-3.8973532e-001,0.0000000e+000,0.0000000e+000,0.0000000e+000,-1.3458179e-001,3.5588967e-002,0.0000000e+000,-2.7464070e-002,6.0555882e-001,1.1043401e-002,0.0000000e+000,-6.7485178e-002,0.0000000e+000,-2.1421052e-001,1.0502384e-001,3.1951065e-001,0.0000000e+000,0.0000000e+000,0.0000000e+000,0.0000000e+000,0.0000000e+000,0.0000000e+000,5.3116536e-001,0.0000000e+000,-3.1058990e-001,0.0000000e+000,0.0000000e+000,0.0000000e+000,0.0000000e+000,0.0000000e+000,0.0000000e+000,0.0000000e+000,0.0000000e+000,0.0000000e+000,0.0000000e+000,1.6214453e-001,4.9161476e-001,
,68,-2.3834410e-001,0.0000000e+000,-4.1624791e-001,0.0000000e+000,-1.0422871e-001,0.0000000e+000,0.0000000e+000,2.3415439e-001,0.0000000e+000,5.0120120e-002,0.0000000e+000,0.0000000e+000,0.0000000e+000,0.0000000e+000,4.8463001e-001,1.9835972e-001,-3.2065788e-001,0.0000000e+000,-1.3987549e-002,0.0000000e+000,0.0000000e+000,0.0000000e+000,5.8611103e-002,2.7401648e-002,0.0000000e+000,2.2340378e-001,0.0000000e+000,-8.0944949e-002,0.0000000e+000,0.0000000e+000,-5.0799244e-001,3.6089946e-001,2.2925008e-001,0.0000000e+000,0.0000000e+000,0.0000000e+000,8.6325616e-002,0.0000000e+000,0.0000000e+000,-2.4911553e-001,-3.6505143e-001,0.0000000e+000,4.6882791e-001,-1.5996893e-001,0.0000000e+000,0.0000000e+000,-1.4686878e-001,2.3279318e-001,2.8120072e-001,0.0000000e+000,-3.7488128e-003,0.0000000e+000,0.0000000e+000,-6.5900988e-002,-1.0201892e-001,0.0000000e+000,2.6078857e-001,-9.9057339e-002,0.0000000e+000,2.8366866e-002,0.0000000e+000,0.0000000e+000,2.9701370e-002,0.0000000e+000,2.8299918e-001,0.0000000e+000,0.0000000e+000,0.0000000e+000,-1.2720672e-001,0.0000000e+000,-4.1702924e-001,-9.4914287e-003,0.0000000e+000,0.0000000e+000,0.0000000e+000,0.0000000e+000,0.0000000e+000,0.0000000e+000,0.0000000e+000,-2.5071378e-001,0.0000000e+000,5.9774278e-001,-6.2497253e-001,3.6811307e-001,4.4040481e-002,0.0000000e+000,6.1831417e-001,0.0000000e+000,0.0000000e+000,-2.4534817e-001,0.0000000e+000,-3.0623514e-001,0.0000000e+000,0.0000000e+000,-2.6163004e-001,-2.0079059e-002,0.0000000e+000,-1.1714770e-001,0.0000000e+000,0.0000000e+000,-3.7389397e-001,0.0000000e+000,0.0000000e+000,-1.9667755e-002,0.0000000e+000,1.8745010e-002,4.4435707e-001,0.0000000e+000,0.0000000e+000,0.0000000e+000,0.0000000e+000,4.1193881e-001,-7.3895209e-003,0.0000000e+000,0.0000000e+000,-3.7510541e-001,0.0000000e+000,0.0000000e+000,-1.8234090e-001,4.7348765e-001,1.8123983e-001,-1.4572975e-001,0.0000000e+000,-1.5053045e-001,0.0000000e+000,0.0000000e+000,0.0000000e+000,0.0000000e+000,-2.7194482e-001,0.0000000e+000,0.0000000e+000,0.0000000e+000,0.0000000e+000,-5.1092978e-002,-1.5079652e-001,0.0000000e+000,-1.3647637e-001,0.0000000e+000,0.0000000e+000,0.0000000e+000,0.0000000e+000,0.0000000e+000,-2.0560698e-001,0.0000000e+000,0.0000000e+000,-2.6679608e-001,4.1459034e-001,0.0000000e+000,0.0000000e+000,5.0100146e-001,0.0000000e+000,0.0000000e+000,0.0000000e+000,0.0000000e+000,0.0000000e+000,-1.0314864e-001,0.0000000e+000,0.0000000e+000,-3.6268915e-001,0.0000000e+000,
,72,1.3665396e-001,0.0000000e+000,3.5411882e-001,0.0000000e+000,0.0000000e+000,-8.8155241e-002,0.0000000e+000,0.0000000e+000,-4.6523853e-001,0.0000000e+000,0.0000000e+000,1.7287676e-001,0.0000000e+000,0.0000000e+000,-5.1024301e-001,0.0000000e+000,-3.9600924e-001,8.3754695e-001,0.0000000e+000,1.4422937e-001,0.0000000e+000,0.0000000e+000,0.0000000e+000,-2.9450615e-001,1.7688153e-001,0.0000000e+000,-1.1973554e-001,7.0201974e-002,0.0000000e+000,0.0000000e+000,2.5368544e-001,0.0000000e+000,-3.0928521e-001,0.0000000e+000,0.0000000e+000,0.0000000e+000,0.0000000e+000,0.0000000e+000,1.6093091e-001,0.0000000e+000,0.0000000e+000,-5.6688771e-001,0.0000000e+000,-5.0022080e-001,0.0000000e+000,0.0000000e+000,2.2202425e-001,0.0000000e+000,1.6295926e-001,0.0000000e+000,-6.4151535e-001,7.0995017e-001,0.0000000e+000,-1.0730587e-001,7.4754395e-001,0.0000000e+000,3.3033260e-001,9.9830136e-002,6.2370684e-002,4.4929885e-001,0.0000000e+000,0.0000000e+000,0.0000000e+000,-6.6061697e-001,5.4631085e-001,6.7635527e-001,0.0000000e+000,-4.5113306e-001,-1.8383415e-001,3.7788266e-001,-6.5137686e-001,0.0000000e+000,0.0000000e+000,4.9434789e-001,0.0000000e+000,-1.5322053e-001,0.0000000e+000,0.0000000e+000,-1.0027067e-001,0.0000000e+000,-4.4660101e-002,0.0000000e+000,2.6342106e-001,0.0000000e+000,3.1902223e-001,-2.2349099e-001,0.0000000e+000,-4.7663942e-001,0.0000000e+000,0.0000000e+000,0.0000000e+000,2.5192391e-001,0.0000000e+000,0.0000000e+000,1.4726722e-001,1.9534859e-001,-7.8437973e-001,0.0000000e+000,-5.6162402e-002,-1.1440361e-001,8.1982863e-001,0.0000000e+000,-1.0573579e-001,0.0000000e+000,0.0000000e+000,0.0000000e+000,-1.7301434e-001,0.0000000e+000,0.0000000e+000,0.0000000e+000,0.0000000e+000,-4.7359213e-002,0.0000000e+000,0.0000000e+000,1.4280404e-001,6.8987426e-002,-1.3389140e-001,0.0000000e+000,0.0000000e+000,9.4285856e-002,4.4488598e-002,0.0000000e+000,1.2513970e-003,0.0000000e+000,0.0000000e+000,0.0000000e+000,-3.7721354e-001,0.0000000e+000,0.0000000e+000,-5.6813218e-001,0.0000000e+000,0.0000000e+000,-3.2304288e-001,3.4683710e-001,0.0000000e+000,0.0000000e+000,0.0000000e+000,0.0000000e+000,0.0000000e+000,0.0000000e+000,0.0000000e+000,0.0000000e+000,0.0000000e+000,0.0000000e+000,1.6639800e-002,0.0000000e+000,0.0000000e+000,0.0000000e+000,0.0000000e+000,-3.7108555e-001,4.5039166e-001,0.0000000e+000,0.0000000e+000,0.0000000e+000,0.0000000e+000,-3.9269012e-001,0.0000000e+000,0.0000000e+000,0.0000000e+000,0.0000000e+000,
,76,0.0000000e+000,0.0000000e+000,-3.1743912e-001,4.8485737e-001,-2.7088806e-001,0.0000000e+000,0.0000000e+000,0.0000000e+000,0.0000000e+000,2.7240699e-001,0.0000000e+000,0.0000000e+000,0.0000000e+000,0.0000000e+000,0.0000000e+000,0.0000000e+000,4.2858147e-001,0.0000000e+000,3.2682906e-002,0.0000000e+000,0.0000000e+000,0.0000000e+000,0.0000000e+000,-1.3289063e-005,-5.8709649e-001,0.0000000e+000,0.0000000e+000,-5.4981683e-001,0.0000000e+000,0.0000000e+000,0.0000000e+000,2.7825266e-001,1.8745698e-001,0.0000000e+000,0.0000000e+000,-3.7351139e-004,-3.7131511e-001,3.1454418e-001,0.0000000e+000,1.9690455e-001,1.6933811e-001,0.0000000e+000,6.3116870e-002,0.0000000e+000,0.0000000e+000,0.0000000e+000,-1.1669815e-001,-3.4093440e-001,2.4545596e-001,-1.4244455e-001,8.7798200e-001,-6.1485052e-001,0.0000000e+000,0.0000000e+000,0.0000000e+000,-8.9051911e-002,-3.3178807e-001,2.1338166e-001,9.5117266e-002,9.8835194e-002,0.0000000e+000,0.0000000e+000,-3.9912086e-002,4.2062976e-001,2.0423599e-001,2.3369412e-001,-3.8853604e-001,1.2854009e-001,0.0000000e+000,0.0000000e+000,0.0000000e+000,0.0000000e+000,1.8039480e-001,0.0000000e+000,0.0000000e+000,-1.6798616e-001,0.0000000e+000,0.0000000e+000,-4.9742346e-001,0.0000000e+000,0.0000000e+000,-3.4002357e-001,1.6646187e-001,1.2860442e-001,0.0000000e+000,0.0000000e+000,2.3309681e-003,0.0000000e+000,0.0000000e+000,0.0000000e+000,0.0000000e+000,3.8805071e-002,0.0000000e+000,0.0000000e+000,-1.7759329e-001,0.0000000e+000,0.0000000e+000,-2.2344554e-001,1.5315782e-001,0.0000000e+000,3.5098497e-001,0.0000000e+000,0.0000000e+000,9.4761963e-003,0.0000000e+000,0.0000000e+000,1.6595750e-001,0.0000000e+000,0.0000000e+000,0.0000000e+000,-8.5749513e-002,-3.9351396e-001,0.0000000e+000,0.0000000e+000,2.9506252e-001,0.0000000e+000,2.7266096e-001,-7.1478751e-001,0.0000000e+000,1.8178982e-001,7.5433558e-002,0.0000000e+000,1.2198816e-001,-3.5834864e-001,0.0000000e+000,0.0000000e+000,-3.5833787e-001,3.7510346e-001,5.3821908e-002,0.0000000e+000,0.0000000e+000,3.0455740e-001,0.0000000e+000,0.0000000e+000,0.0000000e+000,0.0000000e+000,0.0000000e+000,-4.3403642e-001,0.0000000e+000,0.0000000e+000,0.0000000e+000,0.0000000e+000,0.0000000e+000,0.0000000e+000,0.0000000e+000,0.0000000e+000,6.4299813e-002,0.0000000e+000,0.0000000e+000,-1.4663846e-002,0.0000000e+000,0.0000000e+000,0.0000000e+000,-5.4476999e-002,0.0000000e+000,2.7038416e-001,0.0000000e+000,0.0000000e+000,2.1545058e-001,-2.4293041e-001,
,80,0.0000000e+000,-4.1998329e-002,0.0000000e+000,0.0000000e+000,1.6831404e-001,0.0000000e+000,-4.0740471e-001,0.0000000e+000,0.0000000e+000,1.7456535e-001,0.0000000e+000,-1.4581454e-001,0.0000000e+000,0.0000000e+000,0.0000000e+000,0.0000000e+000,-6.4920996e-001,-8.9301469e-002,-3.1382897e-002,1.0959431e-002,0.0000000e+000,0.0000000e+000,0.0000000e+000,0.0000000e+000,-3.8344498e-001,0.0000000e+000,-3.3342351e-001,5.7014737e-001,0.0000000e+000,0.0000000e+000,-8.6946043e-002,5.4181991e-001,0.0000000e+000,0.0000000e+000,-4.1307547e-001,0.0000000e+000,0.0000000e+000,8.9600716e-001,-1.2785430e-001,0.0000000e+000,-7.0595113e-001,0.0000000e+000,0.0000000e+000,-3.7775012e-002,0.0000000e+000,0.0000000e+000,0.0000000e+000,0.0000000e+000,5.9920075e-001,-2.0368241e-001,0.0000000e+000,2.8201241e-001,4.1317983e-001,0.0000000e+000,0.0000000e+000,-2.6423955e-001,-4.9151790e-001,0.0000000e+000,-5.6836858e-002,3.2364292e-001,0.0000000e+000,0.0000000e+000,1.4062723e+000,8.6301123e-002,4.7248548e-001,0.0000000e+000,-2.5861245e-002,0.0000000e+000,-7.9164923e-001,0.0000000e+000,0.0000000e+000,-4.1889540e-001,-7.4171103e-001,0.0000000e+000,0.0000000e+000,-5.2374832e-001,0.0000000e+000,0.0000000e+000,2.8531847e-001,0.0000000e+000,-6.0064019e-002,0.0000000e+000,7.9071575e-001,-4.5584794e-002,0.0000000e+000,4.2418049e-002,-3.9548605e-001,-1.9799685e-001,-1.9585394e-001,9.5318780e-001,0.0000000e+000,1.1082374e-001,0.0000000e+000,0.0000000e+000,-3.2523775e-001,-5.0052201e-001,0.0000000e+000,-3.8017918e-001,-3.5570246e-001,0.0000000e+000,9.9845018e-001,0.0000000e+000,0.0000000e+000,-1.4390146e-002,0.0000000e+000,-9.5585425e-001,0.0000000e+000,0.0000000e+000,0.0000000e+000,0.0000000e+000,2.4284968e-001,9.4790360e-002,0.0000000e+000,0.0000000e+000,-1.2320791e+000,-3.1960053e-002,2.1039870e-001,0.0000000e+000,0.0000000e+000,-4.0749409e-001,0.0000000e+000,5.0048378e-002,0.0000000e+000,7.9662773e-001,0.0000000e+000,0.0000000e+000,0.0000000e+000,0.0000000e+000,-2.0829052e-001,6.1810460e-001,0.0000000e+000,0.0000000e+000,0.0000000e+000,0.0000000e+000,1.1064864e+000,-2.6193396e-003,0.0000000e+000,0.0000000e+000,0.0000000e+000,0.0000000e+000,0.0000000e+000,0.0000000e+000,0.0000000e+000,-2.6499967e-001,0.0000000e+000,0.0000000e+000,0.0000000e+000,0.0000000e+000,0.0000000e+000,-4.0327404e-001,8.0619748e-001,0.0000000e+000,0.0000000e+000,0.0000000e+000,-8.7906381e-002,8.5947593e-002,0.0000000e+000,0.0000000e+000,0.0000000e+000,5.3679881e-001,
,84,2.3923804e-001,0.0000000e+000,-4.4635224e-001,0.0000000e+000,0.0000000e+000,0.0000000e+000,0.0000000e+000,-1.9767539e-001,-2.9620542e-001,5.1828835e-001,0.0000000e+000,0.0000000e+000,0.0000000e+000,0.0000000e+000,-2.0654428e-001,-3.3869899e-001,0.0000000e+000,0.0000000e+000,6.8602528e-001,0.0000000e+000,5.4040319e-001,0.0000000e+000,0.0000000e+000,-5.4172666e-001,0.0000000e+000,1.7156798e-001,-3.1850519e-002,3.4172461e-001,0.0000000e+000,0.0000000e+000,-1.0064710e-001,-1.5593729e-001,-6.1086272e-002,3.0004114e-002,0.0000000e+000,3.3815713e-002,2.3980931e-001,0.0000000e+000,0.0000000e+000,0.0000000e+000,0.0000000e+000,8.2512994e-001,5.2726685e-001,0.0000000e+000,0.0000000e+000,0.0000000e+000,1.3213091e-001,-3.2452910e-001,0.0000000e+000,-2.8091874e-001,-2.8651885e-001,-8.4663833e-001,0.0000000e+000,0.0000000e+000,4.1794429e-001,0.0000000e+000,0.0000000e+000,0.0000000e+000,-4.6291730e-002,-1.1921581e-001,0.0000000e+000,0.0000000e+000,1.5464472e-001,3.3167135e-002,-1.5663482e-001,-5.0421821e-001,-8.0033681e-002,0.0000000e+000,-5.7502902e-001,0.0000000e+000,-6.2774829e-001,0.0000000e+000,0.0000000e+000,-5.0392364e-001,0.0000000e+000,4.3127380e-001,0.0000000e+000,0.0000000e+000,3.2052523e-001,3.6618535e-001,-1.3794006e-004,2.7111506e-001,6.0819312e-002,6.5100087e-001,0.0000000e+000,0.0000000e+000,-2.9817147e-001,-1.8467776e-001,-6.8271042e-001,3.0178541e-001,0.0000000e+000,1.8640293e-001,0.0000000e+000,0.0000000e+000,-3.8955092e-001,3.8985737e-001,0.0000000e+000,6.0255462e-001,0.0000000e+000,0.0000000e+000,0.0000000e+000,0.0000000e+000,4.0602683e-002,-2.6367726e-001,-3.5069626e-001,3.2616396e-001,0.0000000e+000,0.0000000e+000,0.0000000e+000,0.0000000e+000,0.0000000e+000,0.0000000e+000,1.1414607e-001,0.0000000e+000,3.2413726e-001,-2.1426458e-001,0.0000000e+000,-1.7133728e-001,0.0000000e+000,0.0000000e+000,-3.7103074e-003,0.0000000e+000,3.1770560e-001,0.0000000e+000,0.0000000e+000,0.0000000e+000,-1.7393404e-001,1.0593897e-001,2.1913238e-001,-7.8984081e-001,-1.8030364e-001,0.0000000e+000,4.9176614e-001,0.0000000e+000,0.0000000e+000,0.0000000e+000,0.0000000e+000,0.0000000e+000,0.0000000e+000,0.0000000e+000,0.0000000e+000,0.0000000e+000,0.0000000e+000,8.8529864e-002,0.0000000e+000,2.8120744e-001,-3.9056892e-002,0.0000000e+000,0.0000000e+000,3.3017492e-001,-4.1015366e-001,-2.3605261e-001,5.7631912e-003,0.0000000e+000,0.0000000e+000,2.4433824e-002,0.0000000e+000,0.0000000e+000,3.9713235e-001,0.0000000e+000,
,96,-5.9254850e-002,1.3106887e-001,-3.5815613e-002,-7.3888177e-002,2.9452228e-001,-1.4401406e-001,-5.9909036e-002,-3.0038649e-002,-2.6711759e-001,2.0468072e-001,1.0648000e-001,1.2298774e-001,0.0000000e+000,0.0000000e+000,-1.4352823e-001,-1.7864344e-002,4.4907961e-001,-2.3423654e-001,4.6567666e-001,-2.5615546e-001,-5.8511788e-001,2.2741960e-001,-2.1311183e-001,-3.3406210e-002,3.9342299e-001,-3.4887842e-001,6.5612227e-002,1.3564148e-001,0.0000000e+000,0.0000000e+000,1.4959003e-001,-1.7550518e-001,1.2302670e-001,1.3188932e-001,-1.3979539e-001,-6.6875362e-002,-2.2657608e-001,-1.1966177e-001,-2.4696008e-003,2.6332110e-002,1.8069921e-001,-2.2106564e-001,-1.1582045e-001,1.4367054e-002,0.0000000e+000,0.0000000e+000,-8.0579065e-002,2.6430866e-002,-5.9685777e-002,1.3330349e-001,-2.0989824e-001,-8.0095165e-002,1.3499469e-001,-1.2549331e-001,3.4344528e-001,-1.4883337e-001,-8.8206613e-002,4.2116687e-002,-1.0140441e-001,-8.1701726e-002,0.0000000e+000,0.0000000e+000,-1.0568034e-001,-7.0051283e-002,-1.6483500e-001,2.4584854e-002,7.7821577e-002,-4.9433524e-002,1.3784856e-001,8.3366020e-002,-2.0022824e-001,2.0911304e-001,-8.3143016e-003,8.3962571e-002,-2.6777040e-002,-2.2590459e-001,0.0000000e+000,0.0000000e+000,-2.2930319e-001,1.3618537e-001,1.0975174e-001,-5.0863996e-002,1.7402791e-001,1.4771537e-001,2.2573541e-001,2.4051751e-001,-7.1195450e-002,5.3093340e-002,-1.1372527e-001,-1.2860252e-001,1.2313369e-001,-8.8969072e-002,0.0000000e+000,0.0000000e+000,1.9302252e-001,-1.6682217e-001,1.1868799e-002,-2.3887736e-001,-6.8556386e-002,7.2265782e-002,-2.4839233e-001,1.0133474e-001,1.4936932e-001,-1.9954313e-001,1.3265266e-002,-1.6691223e-001,-1.0803583e-001,2.7621529e-001,0.0000000e+000,0.0000000e+000,2.5136158e-001,-1.7495377e-001,2.1240928e-002,-2.5613009e-001,-7.8808193e-003,2.5524964e-001,1.9946287e-001,-9.5659198e-002,1.4885505e-001,-2.4534793e-001,2.6189116e-002,-3.2441922e-001,1.1543493e-001,-1.8147110e-001,0.0000000e+000,0.0000000e+000,1.8468239e-001,-3.3344819e-002,-4.2945722e-003,-9.2103280e-002,-2.0892653e-002,-1.4182815e-001,1.5585276e-001,2.5227759e-001,1.8082900e-002,1.7522930e-001,-1.0625424e-001,1.3276855e-002,-6.5761629e-002,1.5610124e-002,0.0000000e+000,0.0000000e+000,4.7268373e-002,1.8463908e-001,2.9623924e-002,6.7320816e-003,1.6812992e-001,1.6090693e-001,-1.3389053e-001,3.2629562e-002,-8.5271689e-003,1.0128851e-001,1.3705142e-001,-1.3092355e-001,-2.3405858e-001,2.8347816e-001,0.0000000e+000,0.0000000e+000,-2.3974568e-001,-9.6101422e-003,
,108,-5.7602676e-002,-1.1581268e-001,4.1851469e-002,2.4312345e-001,6.1679289e-002,2.2942439e-001,-5.4453684e-002,-1.8664069e-001,9.2111535e-002,-4.6457385e-001,5.3671932e-002,-3.9841710e-003,0.0000000e+000,0.0000000e+000,2.4325978e-001,6.5290756e-002,1.1620819e-001,-4.3583955e-002,-2.3134307e-001,2.9941592e-001,-1.4437968e-001,2.7593094e-001,-7.9887571e-002,-2.1658903e-001,-8.2938643e-002,-2.7595751e-001,6.2077510e-002,1.9163642e-001,0.0000000e+000,0.0000000e+000,-6.8372782e-002,1.4512194e-001,-6.4585043e-002,-2.1282376e-001,-1.7707587e-001,2.3742392e-001,1.4810127e-001,2.0424231e-001,1.2967759e-001,-3.1578555e-001,-2.2926062e-001,9.0904749e-002,-2.0429320e-001,1.5229546e-001,0.0000000e+000,0.0000000e+000,3.5777307e-002,1.0125926e-001,-1.6819771e-001,5.7559297e-002,-8.5984730e-002,3.1538400e-002,6.1998047e-002,8.2400375e-002,-3.5053064e-001,9.1246210e-002,4.6319759e-002,-1.6750078e-001,3.1216237e-001,2.1050126e-003,0.0000000e+000,0.0000000e+000,-1.5174174e-001,-8.2305538e-003,3.6712860e-002,8.1575669e-002,-6.1769757e-002,7.8781017e-003,1.4974892e-002,-8.8681662e-002,1.1173808e-001,-1.4501308e-001,1.2457848e-001,-1.0384411e-001,5.6692798e-002,-1.1437939e-001,0.0000000e+000,0.0000000e+000,-3.2135562e-003,-4.7565730e-002,2.5313750e-001,8.7759073e-004,2.7081612e-001,-5.4310697e-002,-8.7426819e-002,-1.5441096e-002,-9.1309308e-003,6.6591598e-002,1.0584843e-001,2.4837524e-002,-1.1226516e-001,2.9175656e-002,0.0000000e+000,0.0000000e+000,2.8748962e-002,4.4924099e-002,-1.9802652e-001,-5.2162283e-002,-3.5399625e-002,-2.8805787e-002,-1.6857810e-001,2.0080682e-001,-2.3393175e-001,2.7738649e-002,7.6452755e-003,-1.5657823e-001,8.8807859e-002,-9.4085053e-002,0.0000000e+000,0.0000000e+000,-1.3400659e-001,-1.5322062e-001,8.7684039e-002,-1.7243553e-001,-5.6440496e-002,-1.9730577e-001,-2.2071635e-001,3.4337475e-001,-1.9520320e-001,1.4237533e-001,-9.6759649e-003,-5.6914832e-003,2.5455519e-001,4.3267781e-002,0.0000000e+000,0.0000000e+000,-3.0946296e-002,2.0512608e-002,5.3600752e-002,4.3355245e-002,-1.2857013e-002,2.4647742e-001,8.2615531e-002,-7.0476264e-002,1.4078652e-001,3.3225260e-003,2.3818365e-001,-1.8297469e-002,-9.6806689e-002,3.1279158e-002,0.0000000e+000,0.0000000e+000,-2.9283179e-001,2.8089250e-002,-4.4688317e-002,1.9982303e-001,-9.5069830e-002,1.5040673e-001,1.0060538e-001,-2.0731121e-001,1.3964758e-001,-6.9365489e-002,-6.9786628e-002,6.5791153e-002,4.6944498e-002,1.0998909e-002,0.0000000e+000,0.0000000e+000,-1.4262854e-001,8.1790183e-002,
,120,9.8052830e-003,-3.1044491e-001,2.0006335e-001,4.6782347e-002,4.8828316e-001,-8.5350193e-002,-2.1741407e-001,8.6601562e-002,-5.3384854e-001,1.2827572e-001,3.9337700e-001,-8.5408485e-002,0.0000000e+000,0.0000000e+000,-2.7552586e-001,1.8669325e-001,4.1601176e-002,1.4411951e-001,-1.0422804e-001,4.9433198e-002,-6.9475174e-002,-1.5142734e-001,1.0222332e-001,-1.2150223e-001,4.9026266e-002,2.3371771e-001,-3.8526689e-001,1.6373099e-001,0.0000000e+000,0.0000000e+000,-5.1246569e-003,-1.3736266e-001,6.7143176e-002,-2.0435936e-001,-4.3486079e-002,2.0477577e-001,-5.9558910e-002,1.0883968e-001,1.5283960e-001,-4.7188597e-001,7.5768244e-003,3.5160035e-003,-7.5047475e-002,1.3607100e-001,0.0000000e+000,0.0000000e+000,-1.7190112e-001,-9.1254160e-002,3.3190317e-001,7.6346039e-002,-5.3254505e-002,-2.1085234e-002,-3.0808466e-001,7.1726087e-002,-3.7673103e-002,-1.7840260e-001,3.8681544e-002,1.7632496e-001,2.2766373e-001,-5.5613916e-002,0.0000000e+000,0.0000000e+000,-5.2089656e-002,1.0046682e-001,5.4188983e-002,-3.2980228e-002,9.0136913e-003,7.2471389e-002,-1.5326557e-001,2.4041793e-001,-1.6965833e-002,-6.0930383e-002,-7.0484190e-002,2.8318516e-002,-1.5546682e-001,9.9045814e-002,0.0000000e+000,0.0000000e+000,-1.0717683e-001,-1.2657244e-001,-2.5770618e-003,4.1852810e-002,2.1806710e-001,-7.2444691e-002,1.1105338e-001,-9.3252643e-002,-1.4671419e-001,1.9609766e-001,-1.1046489e-001,-2.2701670e-002,-2.2259498e-001,8.2990821e-002,0.0000000e+000,0.0000000e+000,7.2794452e-002,-2.8614274e-001,2.1769153e-002,-2.0126849e-001,4.6496207e-002,-1.2483432e-001,1.3243260e-001,-1.2470516e-001,5.9727791e-003,8.9280511e-002,8.5828511e-003,-3.5371454e-002,1.0725624e-001,2.0024324e-001,0.0000000e+000,0.0000000e+000,6.2568475e-002,-3.2440607e-002,6.0363192e-002,-3.7249322e-001,1.7185137e-001,3.1764215e-002,-1.3858048e-001,1.8960184e-001,1.1755906e-001,-1.6928319e-001,-7.8560586e-003,-9.2088816e-002,2.7262034e-003,4.6384819e-002,0.0000000e+000,0.0000000e+000,-3.0636805e-002,2.6930493e-001,3.2232607e-002,2.7885283e-003,-2.1079214e-001,-8.3827935e-002,-3.5296832e-001,3.4010892e-001,2.1872213e-001,1.7055872e-002,-3.5020903e-002,-1.3549370e-002,-1.1774429e-001,1.0539316e-001,0.0000000e+000,0.0000000e+000,-2.0417924e-001,-9.9610505e-002,1.2901888e-001,2.9665416e-001,9.7650528e-002,-2.2265189e-002,-3.7729296e-001,-2.2525353e-001,-1.1789002e-001,9.8357102e-002,2.4085825e-001,1.2356446e-001,-5.1828335e-002,1.1020819e-001,0.0000000e+000,0.0000000e+000,-3.2077234e-002,8.8576724e-002,
,133,3.9368779e-002,-4.9232400e-001,2.0055583e-001,-2.8089547e-001,-1.2835612e-001,1.8688375e-001,2.1913278e-001,1.1428865e-001,2.4318100e-001,-1.4872340e-001,-2.9713427e-002,2.8221989e-001,0.0000000e+000,0.0000000e+000,-5.0795941e-002,2.7855344e-002,5.4140408e-002,-4.3227531e-001,1.9678023e-001,1.4876652e-001,-9.2251210e-002,7.0962475e-001,-4.4997109e-001,-2.7389149e-002,-3.1700395e-002,-2.7871971e-001,3.3525850e-001,-9.2351921e-002,0.0000000e+000,0.0000000e+000,-7.6415074e-002,9.3553775e-002,-1.3891811e-002,-2.9956375e-001,-1.7310567e-001,3.9236837e-002,1.5477819e-001,3.0730349e-001,3.3443159e-002,4.9449894e-002,-1.7579003e-001,1.8179343e-001,-1.9332654e-001,1.0566681e-001,0.0000000e+000,0.0000000e+000,-1.7338564e-001,-2.5386506e-002,-8.6351425e-002,-1.9956720e-001,-1.2489476e-001,-6.3055090e-002,-1.3155161e-002,3.9281366e-001,-1.5124330e-001,6.8255524e-002,-1.4558835e-001,7.5260873e-002,6.4347499e-002,-8.8463067e-002,0.0000000e+000,0.0000000e+000,-2.5358671e-001,1.4959686e-001,7.3955390e-002,-1.1340005e-001,-2.2239588e-001,8.6273283e-002,-3.3427758e-001,3.6739095e-001,1.3705011e-001,-1.8561160e-001,3.0627519e-001,-7.9730146e-002,-1.9595275e-001,1.4722980e-001,0.0000000e+000,0.0000000e+000,6.6682072e-002,6.1639741e-003,5.4136456e-002,-1.7187896e-002,9.8122121e-002,-1.6727923e-001,-7.8821062e-002,1.4557736e-001,3.5243082e-004,-1.9502705e-002,-7.4232609e-002,-9.3316477e-002,1.5500716e-001,-8.9312426e-002,0.0000000e+000,0.0000000e+000,6.8172602e-002,1.9607569e-002,-1.9627735e-001,1.1507634e-001,4.6540527e-001,-2.2659541e-001,1.4178874e-001,-9.1268823e-002,-4.6204530e-001,4.1205764e-001,1.8024250e-002,1.2000006e-001,2.9491129e-001,-1.4461503e-001,0.0000000e+000,0.0000000e+000,-2.9180702e-001,1.0845242e-001,1.4753433e-001,-1.1309815e-002,-3.9598492e-002,2.5283420e-001,-3.0235775e-001,6.7998865e-003,1.3464249e-001,1.9845588e-001,2.2744951e-001,1.8961139e-001,-2.4753547e-001,1.6204038e-001,0.0000000e+000,0.0000000e+000,2.2840273e-002,-7.6093002e-002,1.3660682e-001,-6.1469903e-002,-1.5749888e-001,3.0392746e-001,-2.0543761e-001,1.2482903e-001,6.6819661e-002,-1.3964771e-001,-3.0235729e-001,9.3626313e-002,4.7765994e-002,-2.1783019e-001,0.0000000e+000,0.0000000e+000,1.9240723e-001,-1.2968867e-001,2.1328735e-001,-2.5739340e-001,1.6664939e-001,-4.0461468e-002,8.4766937e-002,-3.0397012e-001,-1.0850842e-001,-1.3528212e-001,-2.0947621e-001,-3.0385332e-002,-6.8383933e-002,1.0663536e-001,0.0000000e+000,0.0000000e+000,-1.5632985e-002,1.3989828e-001,
,145,1.2326067e-001,-3.3981426e-001,5.4494514e-001,7.0741530e-001,2.0866229e-001,4.3793401e-001,-7.1723205e-001,-6.8581029e-001,-4.9261670e-001,5.3405281e-001,3.3349717e-001,2.2099810e-001,0.0000000e+000,0.0000000e+000,-6.3974752e-001,8.4441523e-002,-6.3084867e-001,1.5973562e-001,1.7021967e-002,2.0628858e-001,7.4751914e-001,-7.8642210e-002,9.8662525e-002,-2.6596804e-001,-4.3786760e-001,4.4102661e-001,-2.2814773e-001,2.4329525e-001,0.0000000e+000,0.0000000e+000,1.6735004e-001,3.7240938e-002,-8.8128702e-002,-2.7636210e-001,-2.0087835e-001,-8.9767331e-002,2.9498287e-002,1.9236608e-001,4.0307106e-002,-2.0862546e-002,-4.3009101e-001,7.4616415e-002,9.0406522e-003,2.2890489e-001,0.0000000e+000,0.0000000e+000,-2.0640053e-001,3.8367702e-002,-1.5889511e-001,5.3351709e-001,8.7616433e-003,-1.8664447e-001,5.1105621e-002,-2.7354887e-001,2.1231302e-001,6.2615387e-002,-5.9537105e-002,-1.0989837e-001,-3.1072750e-001,7.2891471e-002,0.0000000e+000,0.0000000e+000,9.6793392e-002,-1.0813349e-001,1.3907125e-001,3.2543097e-001,-1.3154589e-001,-3.5838812e-001,-1.0163545e-001,1.3663542e-001,-1.0139515e-001,2.2945350e-001,-2.8782353e-003,5.8134688e-002,2.1677835e-001,-3.7202574e-001,0.0000000e+000,0.0000000e+000,1.8585013e-003,8.7917336e-002,1.7563488e-001,1.2934775e-001,6.1403555e-002,-5.1244294e-001,1.7414773e-001,-3.6618457e-002,-1.4046398e-001,3.8889821e-001,-2.2525864e-001,3.1300710e-003,1.0796459e-001,-2.1402552e-001,0.0000000e+000,0.0000000e+000,7.0226717e-003,-2.0639597e-002,-6.3892588e-002,4.5882113e-002,7.4771224e-002,3.3435303e-001,-3.0517767e-001,-3.4574702e-001,3.5360930e-002,-1.0882647e-001,5.3809606e-002,-2.8030485e-001,2.0863421e-001,5.9131856e-002,0.0000000e+000,0.0000000e+000,2.0943293e-001,1.2914935e-001,-2.2273710e-001,-7.0738678e-002,1.7103444e-001,2.2763161e-001,1.6226706e-001,8.9274529e-002,-4.7797079e-002,1.8519589e-001,-1.4499951e-001,1.8277366e-001,-1.9030065e-001,9.5905682e-002,0.0000000e+000,0.0000000e+000,-9.4846616e-002,-2.6337928e-001,1.8736254e-001,-1.2031686e-001,-1.3243000e-001,6.7511022e-003,-2.6778948e-002,5.9828275e-002,2.7424734e-001,-3.1791494e-001,-3.3926743e-001,7.5301069e-001,-2.3190155e-001,-2.4827000e-002,0.0000000e+000,0.0000000e+000,-7.0756451e-002,-2.2821209e-001,-5.0589852e-002,4.2300257e-001,-3.0561212e-001,1.4652858e-001,3.1957411e-002,-2.2190098e-001,-1.2488175e-001,5.3050819e-002,-4.0427032e-002,-7.1004283e-003,3.7223508e-001,-3.0361392e-001,0.0000000e+000,0.0000000e+000,1.2524494e-001,-7.8224039e-002,
,158,2.7194518e-001,-3.6131341e-001,-4.3305005e-002,-4.1454666e-002,-2.5420631e-001,4.4313119e-001,-9.2102252e-002,6.2479310e-002,-7.6003153e-002,-2.9253009e-001,-2.7512831e-002,1.7485201e-002,0.0000000e+000,0.0000000e+000,2.1397831e-001,8.3883438e-002,3.2369617e-002,-1.8558984e-001,1.0053059e-001,7.2891120e-002,-8.8132870e-002,3.2986881e-001,-1.9798428e-001,-8.7082077e-002,2.1842519e-002,-2.7935603e-001,1.3112380e-001,7.5325857e-002,0.0000000e+000,0.0000000e+000,-2.9072728e-002,-2.0949756e-002,-1.0949594e-002,4.6562851e-002,-1.0385571e-001,-1.0749103e-001,-8.2302352e-002,9.1590940e-002,-1.3961062e-001,-3.2439588e-002,-2.3322630e-001,5.6115675e-003,2.2645670e-001,1.1837902e-001,0.0000000e+000,0.0000000e+000,-2.2445490e-001,9.3834119e-002,-2.6539904e-002,-8.5458039e-002,3.2714853e-001,-5.1968209e-002,1.8760773e-001,-2.3096375e-001,3.7311482e-002,1.4778376e-001,5.6430322e-002,1.0005348e-001,-1.2725826e-001,3.2139977e-002,0.0000000e+000,0.0000000e+000,4.2479692e-002,-1.3285194e-002,-8.6053017e-002,-1.6659384e-002,-2.3103145e-001,3.4650299e-001,-4.7163229e-002,1.6095388e-001,2.0165416e-001,-3.7322398e-001,7.2487279e-002,-9.9080538e-002,-2.2408896e-001,2.4463057e-001,0.0000000e+000,0.0000000e+000,-1.2686661e-001,-1.1488020e-003,-6.4456598e-002,2.3010752e-001,-5.5148028e-003,-1.6950981e-001,-8.6025490e-003,8.5393777e-002,-9.0040930e-003,-1.4391312e-001,-4.3216134e-002,-1.1661335e-001,-2.7780089e-002,6.4948840e-002,0.0000000e+000,0.0000000e+000,2.0026898e-002,7.6864270e-003,-6.3862430e-002,-1.3523743e-001,-1.7754622e-001,5.1920495e-002,2.1573012e-001,-3.4541433e-001,2.0531477e-001,-6.8379347e-002,-9.9115336e-002,1.5036231e-001,6.2281833e-002,-1.0340510e-001,0.0000000e+000,0.0000000e+000,7.8124457e-002,1.0905873e-002,2.1109780e-001,-1.5281777e-001,-7.1975394e-002,3.4269453e-001,-2.1258133e-001,1.6485908e-001,-2.5759462e-002,1.2308195e-001,-2.3824973e-002,1.9032951e-001,-3.6208140e-001,2.3118929e-001,0.0000000e+000,0.0000000e+000,-1.2679099e-001,1.7417343e-001,2.1245878e-001,2.4799009e-001,8.2292302e-002,9.1025090e-002,-1.9059740e-001,2.1159081e-001,-3.4212245e-001,1.5239574e-001,2.5068731e-001,-2.8904478e-001,-1.2809235e-001,-3.8515115e-002,0.0000000e+000,0.0000000e+000,-7.2807911e-002,2.7592152e-002,-1.0449363e-001,2.4881929e-001,1.0928325e-001,-1.5245646e-001,1.0240558e-001,-1.1996872e-002,2.5162431e-001,-1.9040733e-001,-1.1159385e-001,-8.7075888e-002,9.9900996e-002,-1.0840179e-001,0.0000000e+000,0.0000000e+000,1.4298551e-002,-1.3211804e-002,
,170,8.1407567e-002,1.3757942e-002,-3.0853893e-002,1.8537799e-001,1.9074467e-002,-6.4770346e-002,4.0537810e-002,-1.9374243e-001,1.6250032e-001,-1.8352556e-001,-2.3010947e-002,1.5492847e-001,0.0000000e+000,0.0000000e+000,1.2141970e-001,-1.0634637e-001,1.5302976e-001,-9.1281868e-002,-1.0759575e-001,1.9996523e-001,1.6216345e-001,-2.8064111e-001,1.6744707e-001,-2.2497992e-001,-6.1133233e-003,9.0995356e-002,1.3494558e-002,1.2541591e-001,0.0000000e+000,0.0000000e+000,-1.0093884e-003,-1.3022246e-001,1.1399375e-001,-3.9810574e-002,-2.9918194e-002,-2.0478273e-001,2.9583166e-002,-1.1675398e-001,-2.2226881e-003,1.0378928e-001,-8.6250769e-002,2.8254584e-002,-7.1381080e-002,-1.3585109e-002,0.0000000e+000,0.0000000e+000,-1.0434418e-001,1.9340869e-001,-5.0595591e-002,-3.5860580e-002,1.6926300e-002,6.7736764e-002,-4.4208899e-003,-5.6116247e-002,1.0119128e-001,-1.0953256e-001,5.0535536e-002,-1.2471682e-001,2.0725448e-001,-1.8765533e-001,0.0000000e+000,0.0000000e+000,-1.8461291e-002,9.8212209e-002,2.4452623e-001,-1.3890283e-001,-7.3105687e-002,6.9780325e-002,-2.9156926e-001,1.1987152e-001,-7.0702328e-002,9.7415081e-002,3.5652585e-002,7.5726080e-002,-2.4312013e-002,-1.8797745e-001,0.0000000e+000,0.0000000e+000,-1.6204508e-001,8.0685712e-002,-1.4816195e-001,1.1452477e-001,-4.2108466e-002,1.2923844e-001,7.6854969e-002,-1.7346883e-002,-8.2451650e-002,3.4899612e-002,-1.5284417e-001,-4.8527454e-002,-1.1283527e-001,-3.0886514e-002,0.0000000e+000,0.0000000e+000,-4.1762009e-002,1.6884579e-001,-5.6439114e-002,-9.3663029e-002,1.2880894e-001,-1.7003809e-001,1.8571494e-001,1.4467087e-001,-9.0641866e-002,7.8207248e-002,-2.0914144e-001,-4.8678380e-002,7.1465706e-002,-3.9894893e-002,0.0000000e+000,0.0000000e+000,-1.8698318e-002,1.2679311e-001,1.1101248e-001,-2.7770995e-002,8.1044079e-002,-2.2000643e-002,-5.1903860e-002,-1.4686677e-001,1.3449267e-001,1.8493984e-001,1.1844422e-001,-1.0434944e-001,6.5759230e-002,-4.4868205e-002,0.0000000e+000,0.0000000e+000,1.3711711e-001,5.1233658e-002,-3.8646285e-002,1.3652133e-001,-2.5500147e-001,1.0105752e-001,-2.7263521e-002,1.5031229e-002,1.3698799e-001,-1.4723023e-001,8.0458280e-004,-1.3581648e-001,-2.2694236e-001,1.8572181e-002,0.0000000e+000,0.0000000e+000,2.8173047e-001,-1.7282434e-001,9.4471075e-002,-1.5091193e-001,2.0937020e-001,1.8706174e-001,1.1908767e-002,2.0739955e-001,-2.0516040e-002,2.5804264e-002,-1.1204307e-001,3.9887261e-002,7.7503740e-002,-5.2547765e-002,0.0000000e+000,0.0000000e+000,-2.0222322e-001,3.9576535e-002,
,182,-1.2556038e-002,-2.8402602e-002,5.8491556e-002,2.2943107e-001,3.2971208e-001,-4.3978906e-001,-1.3033874e-002,-1.5969451e-002,-3.2297726e-001,3.1958628e-001,1.7683526e-001,-1.1189802e-002,0.0000000e+000,0.0000000e+000,-8.5103686e-002,1.3503555e-001,2.3937202e-001,-3.6231426e-001,2.5547066e-001,-4.7361550e-001,-9.3490834e-002,3.3327325e-001,-2.3429271e-002,2.4963594e-001,-2.5178755e-001,-1.0969582e-001,-1.7151390e-001,-6.5382863e-002,0.0000000e+000,0.0000000e+000,1.5312414e-001,1.3772085e-001,-2.2723326e-002,-1.1802303e-001,-1.6536288e-001,-2.7110213e-002,-2.2150858e-001,1.0557399e-001,2.1527575e-001,2.9050118e-002,-1.5828217e-001,1.5337971e-001,-1.6232475e-001,-4.8949120e-003,0.0000000e+000,0.0000000e+000,-7.2386399e-002,6.4120865e-002,2.2663915e-001,-5.6739575e-002,5.9470030e-002,-4.1817804e-002,-1.5878380e-002,1.9522610e-001,1.6760353e-001,-1.3978627e-001,-7.1726272e-004,-2.0117658e-001,-6.3279762e-002,1.8718400e-001,0.0000000e+000,0.0000000e+000,2.7342539e-002,-7.1243021e-002,9.6419709e-002,-2.1712768e-001,-2.7439593e-002,-1.4611030e-001,-1.0698307e-001,7.6378138e-002,-8.8011290e-002,1.7168373e-001,-1.7681736e-002,1.2223108e-001,1.4491156e-001,-1.6474841e-001,0.0000000e+000,0.0000000e+000,-1.3119576e-001,-5.0477534e-002,-1.1235637e-002,-8.3022234e-002,-5.5624552e-002,1.9015368e-001,-8.3879224e-002,1.6396488e-001,4.1091924e-002,-2.1311394e-001,2.3398113e-002,-1.7929308e-001,-2.5332554e-002,1.6282647e-001,0.0000000e+000,0.0000000e+000,1.1645155e-002,-1.0294387e-001,6.4296523e-002,1.7705074e-001,-2.0978184e-002,2.6315740e-002,-1.4777371e-001,2.3254067e-001,1.3450208e-001,-9.0535351e-002,-4.7372057e-002,-1.4662374e-001,-1.0110030e-001,-4.6537950e-002,0.0000000e+000,0.0000000e+000,4.5471071e-002,-1.1270532e-001,-9.7806647e-004,8.1647412e-002,3.7511449e-002,-4.1966908e-002,2.9124543e-001,-1.0745802e-002,-2.6497720e-002,-2.4977807e-002,-2.0352712e-001,1.6570308e-001,1.9011464e-001,1.1815690e-001,0.0000000e+000,0.0000000e+000,-8.2457374e-002,4.5997459e-002,2.4532842e-001,-3.4680487e-001,-5.2243936e-002,7.7440490e-002,-1.4338716e-001,-9.5231912e-004,3.3946796e-002,1.6525637e-001,2.4001815e-002,1.1734237e-001,-9.1138671e-002,-1.0255681e-001,0.0000000e+000,0.0000000e+000,-2.1046640e-001,9.7555890e-002,2.1305895e-002,-8.5629502e-002,2.5711809e-001,5.6257166e-002,-2.7048454e-001,6.7432144e-004,2.1985803e-001,-9.8559991e-002,2.8753639e-001,-9.9138982e-002,-2.2025200e-001,-2.1445107e-002,0.0000000e+000,0.0000000e+000,7.4845378e-002,-6.7167399e-002,
,194,-1.9084196e-001,9.7281061e-002,-1.9103550e-001,4.6656053e-002,6.5168414e-002,2.6597764e-002,1.2113735e-001,-7.4838189e-002,-9.1893588e-002,-1.1582738e-001,7.1017779e-002,8.0364578e-002,0.0000000e+000,0.0000000e+000,-1.3820743e-001,2.4359261e-001,1.0388457e-001,-3.9734471e-001,1.1666015e-001,1.1156000e-001,-5.5297768e-002,3.5976634e-001,-1.2331315e-001,-1.3006292e-001,-5.7830004e-003,-1.4032157e-001,5.8209367e-002,6.8083065e-002,0.0000000e+000,0.0000000e+000,1.3203743e-001,-7.9476847e-002,-8.4051831e-002,1.0255729e-001,-9.6781888e-002,2.0561777e-001,-1.0196434e-001,7.5135841e-002,5.4856498e-002,-1.5386181e-001,-1.3600355e-001,-6.4323455e-002,-2.2058062e-001,1.0035887e-001,0.0000000e+000,0.0000000e+000,-2.4442623e-002,2.3979417e-002,-2.0041842e-001,1.1514981e-001,-1.5446429e-001,-1.9447923e-003,2.0957869e-001,9.0502750e-003,2.5957973e-002,1.8225380e-001,-1.3413014e-002,-2.4276099e-001,1.3774261e-001,-4.1418649e-002,0.0000000e+000,0.0000000e+000,7.3984888e-002,1.2652833e-001,-1.9660697e-002,8.6029196e-002,-4.8904255e-002,-1.2005910e-001,-3.6958909e-002,7.0405782e-002,-1.9874236e-001,8.6078872e-002,1.4509099e-001,-3.1758573e-001,2.1236486e-001,-4.8591959e-002,0.0000000e+000,0.0000000e+000,-1.1570074e-001,-1.3700960e-001,-4.5474229e-003,1.7821312e-001,-2.5072043e-001,4.3466085e-002,-1.1935069e-001,-8.6987757e-002,1.9717872e-001,2.0579666e-002,5.6721155e-002,1.0181181e-001,-1.9800340e-002,6.7843403e-002,0.0000000e+000,0.0000000e+000,2.0727277e-002,-9.8590400e-003,1.3882365e-001,-1.3632491e-001,-9.7980008e-002,1.3600939e-001,1.0112068e-001,-1.1475200e-001,2.1703309e-001,-5.0506104e-002,-8.7290260e-002,3.5267037e-002,-2.1072377e-001,7.8145125e-002,0.0000000e+000,0.0000000e+000,7.9945955e-002,7.0407310e-002,-1.0055353e-001,1.0217295e-001,-1.2504924e-001,1.3957519e-001,-7.8062172e-002,7.8226580e-002,-1.5409219e-001,-5.6551125e-002,-1.2828865e-002,4.5463844e-002,-7.7104323e-002,-5.0091307e-003,0.0000000e+000,0.0000000e+000,-9.4375616e-002,-8.9555020e-002,-7.7262787e-002,-6.8736726e-002,1.0488911e-001,-1.4633722e-001,-1.6121859e-001,1.2909071e-001,-1.0149997e-001,-3.1231597e-002,3.8347786e-002,-1.2256051e-001,7.7008120e-002,-4.8894649e-002,0.0000000e+000,0.0000000e+000,-4.0271973e-002,4.0357354e-003,-1.8880577e-002,1.5140414e-001,8.1067784e-002,1.2205657e-002,2.3330306e-001,-4.7232379e-002,7.8139149e-002,2.2856654e-001,1.9331329e-001,-3.8357211e-002,4.4487703e-002,1.0642743e-001,0.0000000e+000,0.0000000e+000,-1.9179778e-003,-3.5570430e-002,
,206,-1.5042424e-001,2.4092984e-001,-1.4800153e-001,1.7532260e-001,5.3843128e-001,-5.4749586e-001,2.8657877e-003,1.5988239e-002,-1.2648393e-001,2.6062391e-001,2.2271884e-001,-1.2111500e-001,0.0000000e+000,0.0000000e+000,-1.8505146e-001,5.7968579e-002,-2.6801594e-001,2.6332836e-002,-3.0926514e-002,1.7879746e-001,1.4751297e-001,5.8548189e-002,1.6517822e-001,-3.1397882e-001,1.4416408e-001,-2.4194671e-001,-3.9269976e-004,5.8398195e-002,0.0000000e+000,0.0000000e+000,-3.6654601e-002,-1.0247186e-001,1.7261799e-001,-4.8662801e-002,-2.3697526e-001,2.6027034e-001,-2.5139995e-001,2.0851485e-001,-3.4001482e-002,-2.9257318e-001,5.1394025e-002,3.2538163e-002,2.5329463e-002,1.7225262e-001,0.0000000e+000,0.0000000e+000,-1.7844429e-001,-1.2881878e-001,1.0503529e-001,1.9667011e-001,-5.5619948e-002,-2.1614463e-001,1.1075237e-001,-1.7574947e-001,-2.9449535e-002,2.1577973e-001,4.3848580e-002,9.8526126e-003,-2.1543437e-001,-4.9075112e-002,0.0000000e+000,0.0000000e+000,2.3544000e-001,2.9509988e-002,2.2518929e-001,-1.4659783e-001,-1.9673674e-001,1.7673755e-001,-9.0503658e-002,-1.6743068e-001,1.2479331e-001,-1.6065063e-003,-1.0076467e-001,-3.8648768e-002,1.0968532e-001,-1.3807671e-001,0.0000000e+000,0.0000000e+000,1.1776180e-001,8.7477554e-002,6.4066033e-002,-5.7682074e-002,-6.3738708e-002,9.2434213e-002,-1.0768106e-001,1.1457928e-001,-3.3330295e-002,3.8812649e-002,2.9380744e-002,-2.0840939e-001,-6.6153620e-002,1.8683896e-002,0.0000000e+000,0.0000000e+000,2.2905251e-001,7.7401994e-002,-2.8197285e-002,1.2571687e-001,-6.8639336e-002,3.5921599e-002,-2.2765104e-001,1.4615632e-001,-5.4659495e-002,-1.5233480e-002,4.1222353e-002,-6.4687388e-003,-2.6232146e-001,1.4604503e-001,0.0000000e+000,0.0000000e+000,-6.9067072e-002,1.5725577e-001,1.0856610e-001,-9.7268150e-002,1.0361564e-001,6.6474827e-002,1.5254571e-001,-9.7338704e-002,1.1319770e-001,-1.0720659e-002,-8.8917831e-002,1.3989953e-001,-2.0837497e-001,3.0697764e-002,0.0000000e+000,0.0000000e+000,-1.1216752e-001,1.6258463e-002,1.0472112e-001,-2.9601369e-001,-1.1378657e-001,3.8770405e-002,1.8185199e-001,9.6110674e-002,9.9709905e-002,-7.2748331e-002,3.5799839e-002,-8.7430600e-002,1.0699234e-002,-1.0787841e-001,0.0000000e+000,0.0000000e+000,6.9062374e-002,-7.3081955e-002,-1.0661912e-001,-6.1087888e-002,-1.4509616e-001,7.8219627e-003,-7.1509437e-003,3.7401577e-001,8.3995261e-002,2.2555519e-001,-4.8344329e-002,-3.1741434e-001,-8.2001954e-002,-1.6667532e-001,0.0000000e+000,0.0000000e+000,-8.0335791e-002,1.7321364e-001,
,218,2.8767385e-001,-3.1373092e-001,6.5286464e-002,1.4299860e-001,1.0250056e-001,-8.1043474e-002,2.6406464e-001,-3.7273822e-002,-6.1869760e-002,-2.6286309e-001,9.9203827e-004,-4.2542019e-002,0.0000000e+000,0.0000000e+000,2.5782544e-001,9.2286586e-002,-2.0505404e-001,-8.9974723e-002,2.0400653e-001,-4.4352088e-002,3.4334317e-001,3.3035394e-002,-1.9418048e-001,1.1250738e-003,-3.0937053e-001,1.3859530e-001,1.8955633e-001,3.2362918e-002,0.0000000e+000,0.0000000e+000,-6.1680628e-002,6.0308934e-003,6.2871517e-002,-3.7231834e-002,-9.0575671e-002,-1.0073734e-001,4.9377250e-002,7.6503521e-002,-9.7535892e-002,-9.2978515e-003,6.1380515e-002,1.3081611e-003,-4.3631427e-002,-1.4967339e-001,0.0000000e+000,0.0000000e+000,-8.3490515e-002,-2.4956627e-001,8.3474171e-002,1.2344649e-001,-1.1715650e-001,6.7405509e-002,-8.1860927e-002,-1.0701780e-001,2.2765944e-001,8.7265896e-002,-8.6056759e-002,5.8218506e-002,-1.2193992e-001,-1.5893808e-002,0.0000000e+000,0.0000000e+000,-3.8624151e-002,1.7085138e-002,-1.0553505e-001,-8.2339349e-002,1.5424253e-001,-2.1436095e-002,9.5715674e-002,8.1988650e-003,1.3240044e-002,4.6115400e-002,-1.7362269e-001,1.2078186e-002,-2.0402048e-001,-2.9753717e-002,0.0000000e+000,0.0000000e+000,7.4764665e-002,1.2471036e-001,-2.0135903e-001,1.9264515e-001,-5.3312152e-002,3.4728721e-002,8.4657298e-002,-2.9326013e-002,-3.7649501e-002,-5.4607070e-002,-1.1063032e-001,1.0765470e-001,-9.1547248e-002,2.3883752e-001,0.0000000e+000,0.0000000e+000,7.9976361e-002,3.7975525e-002,7.0693222e-002,-1.6443989e-001,-2.0977206e-001,1.2589696e-001,-1.8297890e-001,2.1569306e-001,6.9536325e-002,-2.4025415e-001,1.7492452e-004,-4.9833142e-002,9.0807679e-002,1.2085210e-001,0.0000000e+000,0.0000000e+000,4.0098279e-002,-1.3536560e-002,-1.0243798e-001,8.3363762e-002,-1.6745832e-001,9.9178658e-002,1.2620888e-001,-1.2573049e-001,7.0414033e-002,3.7747512e-002,-3.6961616e-003,-8.0773747e-002,1.2934172e-001,-1.7209013e-001,0.0000000e+000,0.0000000e+000,-2.1664131e-001,-7.9388519e-002,-2.2167285e-002,-1.2233718e-001,1.5979213e-001,-1.3032480e-001,-8.2054874e-002,1.7032969e-001,-1.5431122e-001,2.5120689e-001,9.5943330e-002,9.0910033e-002,-1.3877321e-001,-2.0752948e-001,0.0000000e+000,0.0000000e+000,-1.5438480e-001,1.7728230e-001,1.4786440e-001,2.5898493e-003,5.6430233e-002,-1.1679819e-001,-3.7131231e-001,3.1553851e-001,-1.4124938e-001,3.4360919e-001,3.4403958e-002,-4.9116798e-002,1.0705765e-002,9.8972000e-002,0.0000000e+000,0.0000000e+000,1.3471990e-001,2.0978108e-002,
,230,2.3079723e-001,-1.3537457e-001,3.1940716e-002,-3.5281414e-002,-5.6419354e-002,-4.4549136e-002,2.0524976e-001,-2.2748248e-001,-7.1913449e-002,-4.0420601e-002,-1.7455565e-002,1.4501041e-001,0.0000000e+000,0.0000000e+000,2.2759770e-002,8.7143878e-002,-1.5140319e-001,-2.0532415e-001,4.0049299e-001,-2.5272190e-001,6.1441067e-002,3.9813408e-001,-1.4358611e-001,1.0224035e-001,1.3906237e-001,-1.6302498e-001,4.6691466e-002,-8.6566586e-003,0.0000000e+000,0.0000000e+000,-7.4160886e-002,-2.4632929e-001,7.4717320e-002,-3.9742790e-001,-5.9204621e-002,3.1488549e-001,1.4235872e-002,5.3846842e-001,-1.7256733e-001,-2.6401646e-001,2.6026699e-004,-1.5793688e-001,2.4709804e-001,9.5732866e-002,0.0000000e+000,0.0000000e+000,-2.2595272e-001,5.7917959e-002,1.2418663e-002,-1.5586494e-001,-8.0331168e-002,7.6769532e-002,1.6852885e-001,-3.4828699e-002,1.2762149e-001,1.3407632e-001,-1.3627376e-002,1.1169107e-001,-1.5277682e-001,-1.0235849e-002,0.0000000e+000,0.0000000e+000,-6.3041905e-002,1.3767153e-001,1.0707345e-001,-2.5938651e-001,-5.2063935e-002,-1.6399898e-001,-9.9777763e-002,1.8231180e-001,1.1330478e-001,1.9510278e-001,-2.3918232e-001,1.8670453e-001,9.1092788e-003,-9.0257743e-002,0.0000000e+000,0.0000000e+000,-1.2714522e-001,4.0153170e-002,1.2716532e-001,1.5090682e-001,-7.8601058e-002,1.0337263e-001,-1.3154399e-001,-5.2917293e-002,1.9025754e-001,-8.0311831e-002,-2.1419518e-001,1.3710498e-001,-1.5271898e-001,2.2768989e-001,0.0000000e+000,0.0000000e+000,1.7176798e-002,-1.0516845e-001,-5.5510671e-002,5.9814435e-002,-1.3674831e-001,9.1010935e-002,1.6533720e-001,1.4933675e-001,-1.5307673e-003,-2.0915277e-001,1.0055398e-001,-3.7482979e-002,-1.7069047e-001,1.8031384e-003,0.0000000e+000,0.0000000e+000,3.6559400e-002,4.7740612e-002,-1.9836262e-001,1.6871332e-001,7.7651908e-002,1.7955433e-001,2.7954541e-001,-7.6605265e-002,-3.1285783e-001,1.8713605e-001,-6.6643059e-002,-1.1371418e-001,-1.4266507e-002,-1.8219166e-001,0.0000000e+000,0.0000000e+000,-1.1223299e-001,2.1948487e-001,-5.2486910e-002,-2.6213885e-001,-7.8289177e-002,-1.4499101e-001,-1.9034999e-001,1.9388590e-001,1.0343998e-001,4.4357398e-002,1.3306714e-001,2.3633697e-002,-2.0098336e-002,1.8396410e-002,0.0000000e+000,0.0000000e+000,-1.4614541e-001,6.9767318e-002,1.3005561e-001,1.5990820e-001,-1.5878597e-001,2.8449624e-003,-3.0113737e-001,-1.2635656e-001,4.5127196e-001,-1.9816218e-001,1.5414753e-001,1.7493107e-002,3.2313819e-002,-1.0765893e-001,0.0000000e+000,0.0000000e+000,5.6757852e-002,-2.0943213e-001,
,242,-1.9679404e-001,-1.3550012e-001,5.6381889e-002,-1.7780876e-001,3.5618705e-002,1.3942968e-001,3.1913864e-001,7.9711813e-002,8.6359629e-002,-2.3488729e-001,-4.9440684e-001,1.9447462e-001,0.0000000e+000,0.0000000e+000,3.3165898e-001,3.2969797e-002,3.3396076e-002,1.4624498e-001,-9.5685683e-003,5.7982734e-002,8.3308725e-003,-2.7858987e-001,1.3569820e-001,-1.0993615e-001,2.6692551e-001,1.6356168e-001,-9.8093646e-002,6.0661942e-002,0.0000000e+000,0.0000000e+000,4.3883005e-002,-1.0668256e-001,1.1200144e-002,-1.5190211e-002,-1.0206020e-001,1.9395848e-001,4.6174431e-002,-8.5541336e-002,8.4553877e-002,-4.2611110e-003,-5.7073996e-002,-1.8523421e-001,-1.0366422e-001,-7.4095440e-002,0.0000000e+000,0.0000000e+000,2.6249155e-001,-2.9118164e-002,-4.8571231e-002,3.2191357e-001,-2.4455724e-001,-8.9244923e-002,-1.1595551e-001,9.9107329e-002,1.8921099e-001,1.1794175e-001,-6.5805171e-002,-2.2299457e-002,-1.5267812e-001,-5.5159926e-002,0.0000000e+000,0.0000000e+000,-2.3309951e-002,4.7656103e-002,-9.8216100e-002,-2.0708888e-001,-1.0848910e-001,-2.5877754e-001,-2.4954717e-001,1.3443553e-001,1.2431650e-001,1.4208673e-001,2.6569294e-001,-2.3884705e-001,7.9727343e-002,-3.5650054e-001,0.0000000e+000,0.0000000e+000,-2.2817311e-001,5.2628815e-002,-2.0617239e-001,6.2318090e-002,-7.4801228e-002,1.6159753e-001,2.6586631e-001,-9.9393683e-002,-2.9587629e-001,-3.7704985e-003,-1.1962964e-001,2.3220124e-001,5.6023957e-002,-1.4079088e-002,0.0000000e+000,0.0000000e+000,2.1581847e-001,-4.6619691e-002,2.1349411e-001,-2.3184182e-001,-1.9224018e-001,3.9605497e-001,-1.1388661e-001,2.0444998e-001,9.7544161e-002,-6.6048267e-002,-8.8965673e-003,7.4047617e-002,-2.4986764e-002,1.0217334e-001,0.0000000e+000,0.0000000e+000,4.4448785e-002,4.1064716e-001,4.0408820e-001,-2.2161823e-001,2.4387394e-001,5.3847330e-003,-2.4943629e-001,-3.0526333e-002,2.5318287e-001,1.3098033e-001,1.9843764e-001,-2.0043883e-001,-1.4420402e-001,1.6623455e-002,0.0000000e+000,0.0000000e+000,-2.7996510e-001,2.4892378e-001,-8.4228643e-002,-1.6582027e-002,2.4871736e-001,-3.7312655e-001,-7.6760809e-002,-2.5388108e-002,-1.0254950e-001,-2.2967157e-001,3.7032305e-001,-6.0667797e-002,2.0846329e-003,1.1894789e-001,0.0000000e+000,0.0000000e+000,-1.0191003e-001,-2.4425085e-001,-8.9943126e-002,5.0443017e-002,-5.1303027e-002,6.4680705e-002,2.0050674e-001,3.9034311e-002,1.6437439e-003,-2.2465623e-001,-1.6592921e-001,1.0633348e-001,1.9775493e-001,1.9396921e-001,0.0000000e+000,0.0000000e+000,-8.9376365e-002,-3.0297050e-001,
,