0.000000, 0.000000, 0.000000, 0.000000, 0.000000, 0.000000, 0.000000, 0.000000, 0.000000, 0.000000, 0.000000, 0.000000, 0.000000, 0.000000, 0.000000, 0.000000, 0.000000, 0.000000, 0.000000, 0.000000, 0.000000, 0.000000, 0.000000, 0.000000, 0.000000, 0.000000, 0.000000, 0.000000, 0.000000, 0.000000, 0.000000, 0.000000, 0.000000, 0.000000, 0.000000, 0.000000, 0.000000, 0.000000, 0.000000, 0.000000, 0.000000, 0.000000, 0.000000, 0.000000, 0.000000, 0.000000, 0.000000, 0.000000, 0.000000, 0.000000, 0.000000, 0.000000, 0.000000, 0.000000, 0.000000, 0.000000, 0.000000, 0.000000, 0.000000, 0.000000, 0.000000, 0.000000, 0.000000, 0.000000, 0.000000, 0.000000, 0.000000, 0.000000, 0.000000, 0.000000, 0.000000, 0.000000, 0.000000, 0.000000, 0.000000, 0.000000, 0.000000, 0.000000, 0.000000, 0.000000, 0.000000, 0.000000, 0.000000, 0.000000, 0.000000, 0.000000, 0.000000, 0.000000, 0.000000, 0.000000, 0.000000, 0.000000, 0.000000, 0.000000, 0.000000, 0.000000, 0.000000, 0.000000, 0.000000, 0.000000, 0.000000, 0.000000, 0.000000, 0.000000, 0.000000, 0.000000, 0.000000, 0.000000, 0.000000, 0.000000, 0.000000, 0.000000, 0.000000, 0.000000, 0.000000, 0.000000, 0.000000, 0.000000, 0.000000, 0.000000, 0.000000, 0.000000, 0.000000, 0.000000, 0.000000, 0.000000, 0.000000, 0.000000, 0.000000, 0.000000, 0.000000, 0.000000, 0.000000, 0.000000, 0.000000, 0.000000, 0.000000, 0.000000, 0.000000, 0.000000, 0.000000, 0.000000, 0.000000, 0.000000, 0.000000, 0.000000, 0.000000, 0.000000, 0.000000, 0.000000, 0.000000, 0.000000, 0.000000, 0.000000, 0.000000, 0.000000, 0.000000, 0.000000, 0.000000, 0.000000, 
-0.005230, -0.025876, 0.000960, -0.004452, 0.049194, -0.011769, 0.006651, 0.009801, -0.050902, 0.024361, -0.006211, -0.021000, 0.000000, 0.000000, -0.005296, 0.025308, -0.020973, -0.011660, 0.001128, 0.001586, 0.032462, 0.007565, 0.007252, -0.007447, -0.013305, -0.002984, -0.001147, -0.001659, 0.000000, 0.000000, 0.003718, 0.006491, -0.012136, -0.009356, 0.013758, -0.015780, -0.015688, 0.020891, -0.007116, 0.009783, -0.008776, -0.010573, 0.006997, 0.003243, 0.000000, 0.000000, 0.002811, 0.013999, 0.017572, -0.022847, 0.012826, -0.012188, -0.010940, 0.023203, 0.017367, 0.005129, 0.021039, -0.026605, 0.003018, -0.002878, 0.000000, 0.000000, -0.000345, 0.000364, 0.005170, 0.018824, -0.013604, 0.011317, 0.005947, -0.025880, 0.009008, -0.003653, -0.016628, 0.016995, -0.003620, 0.004006, 0.000000, 0.000000, -0.002427, 0.007215, -0.007149, 0.010962, -0.003515, 0.010752, 0.002621, -0.003002, -0.004832, -0.002545, -0.004185, -0.003801, -0.004258, 0.005474, 0.000000, 0.000000, 0.009310, -0.004284, 0.016546, -0.036921, 0.012323, -0.029635, -0.010386, 0.012919, -0.003712, 0.021453, 0.010360, -0.024988, -0.003842, 0.007098, 0.000000, 0.000000, -0.018241, -0.028914, 0.002811, 0.000520, 0.011234, -0.000010, -0.001731, 0.001344, 0.000119, 0.006172, -0.001628, -0.001331, -0.015723, 0.009051, 0.000000, 0.000000, -0.003299, 0.007239, -0.023420, 0.010599, 0.002959, 0.007475, 0.002373, 0.011540, 0.010658, 0.009683, 0.026305, -0.002760, -0.026276, -0.018907, 0.000000, 0.000000, 0.021639, 0.002179, -0.005450, 0.009015, -0.018824, 0.008451, -0.009688, 0.001844, 0.007031, -0.006248, -0.001861, 0.003387, -0.000591, -0.005381, 0.000000, 0.000000, 0.010472, 0.005687, 
-0.008669, -0.020800, -0.007506, -0.001460, 0.035552, -0.008390, 0.010811, 0.016191, -0.047089, 0.025919, -0.004793, -0.030990, 0.000000, 0.000000, -0.008963, 0.035939, -0.009337, -0.013045, -0.002007, 0.004335, 0.019196, 0.006459, 0.011223, -0.012915, 0.000065, -0.009204, 0.000175, -0.002386, 0.000000, 0.000000, 0.003118, 0.005025, -0.005048, -0.020810, 0.020000, -0.018110, -0.018507, 0.026327, -0.017806, 0.015476, -0.008459, -0.013169, 0.011685, 0.004325, 0.000000, 0.000000, -0.007001, 0.016821, 0.014252, -0.018247, 0.006874, -0.010183, -0.010238, 0.018134, 0.019493, 0.006686, 0.022873, -0.025480, -0.002765, 0.000002, 0.000000, 0.000000, 0.003586, -0.000999, 0.004196, 0.007956, -0.016645, 0.015590, 0.001356, -0.017312, 0.006331, -0.010038, -0.016606, 0.016441, -0.008924, 0.007379, 0.000000, 0.000000, 0.001867, 0.006178, -0.001369, 0.003627, 0.005039, 0.005365, -0.005012, -0.001905, -0.005806, 0.003375, -0.002199, -0.003905, -0.001312, 0.004093, 0.000000, 0.000000, 0.009841, -0.002226, 0.018444, -0.036853, 0.013758, -0.034302, -0.001522, 0.004928, 0.003831, 0.023142, -0.000478, -0.023431, -0.005304, 0.007020, 0.000000, 0.000000, -0.017752, -0.033932, 0.002748, 0.001878, 0.008168, -0.001039, -0.001030, -0.000079, -0.001432, 0.006709, -0.005687, 0.006314, -0.018563, 0.012397, 0.000000, 0.000000, -0.004573, 0.002180, -0.019606, -0.001617, 0.010563, 0.007667, -0.002330, 0.019535, 0.011789, 0.004708, 0.023953, 0.000512, -0.024913, -0.014206, 0.000000, 0.000000, 0.018194, 0.006395, 0.001982, 0.005828, -0.018342, 0.012556, -0.013860, -0.002773, 0.010712, -0.003420, 0.003689, 0.000510, -0.002207, -0.000918, 0.000000, 0.000000, 0.008598, 0.005158, 
-0.007802, -0.018720, -0.009957, -0.001314, 0.031996, -0.007551, 0.009730, 0.014571, -0.042380, -0.010275, -0.004314, -0.076275, 0.000000, 0.000000, -0.007990, 0.086254, -0.028560, -0.011741, 0.013268, -0.050569, 0.017277, 0.032209, 0.067144, 0.020930, 0.049147, -0.030130, 0.000157, -0.013643, 0.000000, 0.000000, 0.020600, -0.018901, 0.018386, -0.018729, 0.018000, -0.014630, -0.036509, -0.036635, 0.034169, 0.013928, -0.007045, -0.011852, 0.010517, -0.012180, 0.000000, 0.000000, -0.004704, -0.021402, 0.012827, -0.039267, 0.006187, 0.069485, -0.023958, 0.033837, 0.008570, -0.016216, 0.020586, -0.054137, -0.002489, -0.022465, 0.000000, 0.000000, -0.017345, 0.012789, -0.057144, 0.088774, -0.031480, 0.014031, 0.028429, -0.055061, 0.012330, -0.024812, -0.014945, 0.072837, -0.025948, 0.006641, 0.000000, 0.000000, -0.033657, -0.019156, -0.012805, 0.038920, -0.029992, 0.010516, -0.004510, -0.002462, 0.006085, 0.002974, -0.014600, 0.030289, -0.013321, -0.000805, 0.000000, 0.000000, 0.018042, 0.001232, 0.041000, -0.077619, 0.025006, -0.003137, -0.078202, 0.004435, -0.017860, 0.020828, 0.055944, -0.060145, 0.062654, -0.001874, 0.000000, 0.000000, 0.014313, -0.059358, -0.005419, -0.032575, 0.073617, -0.028841, 0.016184, -0.000071, -0.001289, -0.021202, 0.017545, 0.005683, -0.047463, 0.026581, 0.000000, 0.000000, 0.015125, 0.041885, -0.017645, 0.045306, 0.009507, 0.006900, -0.002097, -0.031129, 0.045819, 0.006042, 0.047598, 0.000461, -0.048342, -0.026352, 0.000000, 0.000000, -0.026397, -0.019115, -0.031104, 0.043424, -0.044216, 0.068914, -0.016501, -0.002496, 0.012261, 0.011622, 0.003320, 0.012675, -0.013402, 0.018451, 0.000000, 0.000000, 0.016689, -0.027294, 
-0.005725, -0.025950, -0.014057, 0.002760, 0.014268, 0.011141, 0.030806, 0.011012, -0.018474, -0.040350, 0.005625, -0.084372, 0.000000, 0.000000, -0.002211, 0.078744, -0.029670, -0.015318, 0.010342, -0.044099, 0.026913, 0.036062, 0.059705, 0.016948, 0.036884, -0.031354, 0.009281, -0.012384, 0.000000, 0.000000, 0.012728, -0.010360, 0.009199, -0.017292, 0.007273, -0.012371, -0.035444, -0.025736, 0.038112, 0.012101, -0.014986, -0.004525, 0.001248, -0.015013, 0.000000, 0.000000, -0.004659, -0.016441, 0.025725, -0.034827, 0.006513, 0.061258, -0.045142, 0.037551, 0.000977, -0.011251, 0.028292, -0.040012, -0.007339, -0.012943, 0.000000, 0.000000, -0.023789, 0.002030, -0.052346, 0.080978, -0.028395, 0.017710, 0.016848, -0.047841, 0.014249, -0.030496, -0.008023, 0.056487, -0.015048, 0.006278, 0.000000, 0.000000, -0.037583, -0.015100, -0.015677, 0.030797, -0.027051, 0.019025, -0.002454, 0.003143, -0.002540, 0.008504, -0.014390, 0.025625, -0.012264, -0.007160, 0.000000, 0.000000, 0.022761, -0.000662, 0.042258, -0.079096, 0.024681, 0.000915, -0.072264, 0.000045, -0.022192, 0.006754, 0.045553, -0.053478, 0.064984, -0.003345, 0.000000, 0.000000, 0.013482, -0.043656, 0.007067, -0.031670, 0.068191, -0.023982, 0.007538, -0.011759, -0.001808, -0.018691, 0.024047, 0.011030, -0.036517, 0.024750, 0.000000, 0.000000, 0.005584, 0.033932, -0.029603, 0.033401, -0.002911, 0.003888, -0.001712, -0.021505, 0.062966, 0.005786, 0.046017, 0.005401, -0.059304, -0.020724, 0.000000, 0.000000, -0.024704, -0.015549, -0.024199, 0.042125, -0.034773, 0.066007, -0.003927, -0.001533, 0.012702, 0.012063, -0.002815, 0.006471, -0.013729, 0.021799, 0.000000, 0.000000, 0.016688, -0.027746, 
-0.001328, -0.023752, -0.020572, 0.002484, 0.012841, 0.010027, 0.027725, 0.009910, 0.024117, -0.036315, -0.003457, -0.057922, 0.000000, 0.000000, -0.001990, 0.070869, -0.026703, 0.019143, 0.009308, 0.000100, 0.024222, 0.032456, 0.053734, -0.046080, 0.047998, -0.028219, 0.071414, -0.025718, 0.000000, 0.000000, -0.030373, -0.025780, 0.008279, -0.015563, 0.006546, -0.011134, -0.061202, 0.003877, 0.045109, 0.010891, -0.013487, -0.004072, 0.001123, -0.003844, 0.000000, 0.000000, -0.003461, -0.075065, 0.013695, -0.031345, 0.005862, 0.055132, -0.040628, 0.035651, 0.000879, -0.023645, 0.025463, -0.064383, -0.045408, 0.030760, 0.000000, 0.000000, 0.009579, 0.004607, -0.054961, 0.072880, -0.039012, 0.021042, -0.001344, -0.043057, -0.020505, -0.012433, -0.007221, 0.050838, -0.013064, 0.005650, 0.000000, 0.000000, -0.033825, -0.013590, -0.010035, -0.002823, -0.052036, 0.069599, -0.002209, -0.017751, 0.057040, -0.046803, -0.042365, 0.023063, -0.028703, 0.010210, 0.000000, 0.000000, 0.043727, 0.010616, 0.033438, -0.047860, 0.022213, 0.000823, -0.065037, -0.002732, 0.008199, -0.019620, -0.003003, -0.046311, 0.058486, 0.026991, 0.000000, 0.000000, 0.012134, -0.002476, 0.006360, 0.029077, 0.028168, -0.042683, 0.054554, -0.010583, -0.041817, 0.042831, -0.003140, 0.009927, -0.032865, -0.020743, 0.000000, 0.000000, -0.006901, 0.047831, -0.034515, 0.030061, -0.002620, 0.014787, 0.012540, -0.019354, 0.056669, 0.005208, 0.041416, 0.004861, -0.053373, -0.018651, 0.000000, 0.000000, -0.023593, -0.013994, -0.053119, 0.028644, -0.024869, 0.059406, -0.003535, 0.020056, 0.022641, 0.010857, -0.002533, 0.041677, -0.012356, 0.075393, 0.000000, 0.000000, 0.015020, -0.067981, 
0.038264, -0.021376, -0.075959, 0.002235, -0.000698, 0.009024, 0.024953, 0.008919, 0.021705, 0.062691, -0.003111, 0.017369, 0.000000, 0.000000, -0.001791, -0.027131, -0.002486, -0.010156, 0.158262, 0.000090, 0.021800, 0.029210, 0.048361, -0.122979, 0.036975, -0.025397, 0.022726, -0.007069, 0.000000, 0.000000, 0.041659, -0.117344, -0.034458, -0.014007, 0.005891, -0.010021, 0.023889, 0.003490, 0.040598, 0.164585, -0.006143, -0.003665, 0.010476, -0.003459, 0.000000, 0.000000, 0.038214, -0.067559, -0.036510, -0.001105, 0.005276, -0.020229, -0.036565, 0.032086, 0.019248, -0.021280, 0.022917, -0.029239, -0.145702, 0.128533, 0.000000, 0.000000, -0.006497, 0.048729, -0.125968, 0.065592, 0.087132, 0.018938, 0.051701, -0.038751, -0.018455, -0.018831, -0.009165, 0.045754, -0.003782, 0.005085, 0.000000, 0.000000, -0.102526, -0.121750, -0.068317, -0.002541, -0.018719, 0.050338, 0.037325, -0.015976, 0.074859, -0.030417, 0.003401, -0.029629, -0.025832, -0.011573, 0.000000, 0.000000, 0.029295, -0.067431, 0.043294, -0.043074, -0.091055, -0.031212, -0.058534, 0.078446, 0.007379, -0.017658, -0.002702, -0.051890, 0.052637, 0.118258, 0.000000, 0.000000, 0.039084, 0.027647, 0.005724, 0.101854, 0.025352, 0.105204, 0.049098, -0.004837, -0.095521, 0.038548, -0.002826, 0.008934, -0.139057, -0.044441, 0.000000, 0.000000, -0.006211, 0.043048, -0.031064, -0.131389, -0.002358, 0.013309, 0.023848, -0.017419, 0.130756, -0.039921, 0.069047, 0.004375, -0.066456, -0.016786, 0.000000, 0.000000, -0.021233, -0.012595, -0.047807, 0.025779, -0.056893, 0.026648, -0.012684, 0.018050, 0.082496, 0.037449, -0.002280, 0.038066, -0.011120, 0.052831, 0.000000, 0.000000, 0.047832, -0.150821, 
0.008073, -0.019239, -0.023559, -0.044630, -0.000628, 0.008122, -0.005327, 0.008027, 0.019535, 0.017234, -0.006321, 0.049142, 0.000000, 0.000000, 0.020631, -0.011105, -0.002237, -0.026167, 0.142436, 0.062203, 0.019620, 0.026289, 0.043525, -0.149909, 0.031742, -0.022857, 0.028258, -0.012896, 0.000000, 0.000000, 0.045813, -0.104249, -0.032409, -0.016842, 0.003447, 0.006199, 0.038566, 0.003141, 0.036538, 0.148126, -0.005529, -0.002349, 0.009429, -0.003113, 0.000000, 0.000000, 0.011478, -0.084282, -0.032859, 0.035035, -0.030125, -0.018206, -0.049314, 0.028877, -0.027970, 0.003276, 0.053015, -0.032707, -0.126322, 0.090218, 0.000000, 0.000000, 0.005771, 0.043856, -0.109580, 0.014620, 0.069567, 0.017044, 0.046531, -0.034876, -0.016609, -0.016948, -0.008248, 0.008831, -0.011005, 0.004576, 0.000000, 0.000000, -0.092273, -0.076627, -0.089301, 0.001845, 0.000272, 0.050924, 0.076676, -0.078458, 0.119785, -0.027376, 0.003061, -0.019024, -0.025617, -0.010415, 0.000000, 0.000000, 0.040456, -0.062799, 0.038965, -0.059816, -0.081949, -0.028091, -0.052680, 0.049121, 0.006641, -0.015892, -0.002432, -0.046701, 0.047373, 0.156274, 0.000000, 0.000000, 0.035175, 0.024882, 0.005152, 0.056245, 0.022816, 0.094684, 0.005258, -0.004353, -0.059526, 0.034693, -0.005939, -0.013976, -0.118052, -0.078970, 0.000000, 0.000000, -0.005590, 0.025285, -0.024398, -0.118250, -0.004868, 0.072534, 0.022568, -0.015677, 0.110932, -0.035929, 0.040722, 0.014440, -0.027859, -0.015108, 0.000000, 0.000000, -0.019110, -0.011335, -0.043026, 0.076318, -0.051204, -0.007076, -0.011416, 0.016245, 0.074247, 0.033704, -0.002052, 0.034259, -0.010008, 0.047548, 0.000000, 0.000000, 0.059263, -0.086577, 
-0.016569, -0.017315, -0.062828, -0.040167, -0.010988, 0.007309, -0.004794, 0.030640, 0.017581, 0.020523, -0.005689, 0.044228, 0.000000, 0.000000, 0.067031, 0.009842, -0.034080, -0.023550, 0.126794, 0.055982, 0.017658, 0.023660, 0.045033, -0.132178, 0.028568, 0.001769, 0.025432, -0.019701, 0.000000, 0.000000, -0.009568, -0.057735, -0.006243, -0.015158, 0.003103, 0.005579, 0.043342, 0.002827, 0.032884, 0.108402, -0.041481, -0.002114, 0.055369, -0.018799, 0.000000, 0.000000, -0.004357, -0.052575, -0.001453, 0.031531, -0.027487, -0.016385, -0.044382, 0.019399, -0.035375, 0.002948, 0.073792, -0.039342, -0.113690, 0.084033, 0.000000, 0.000000, 0.008164, 0.039471, -0.070322, 0.013158, 0.062610, 0.015340, 0.029157, -0.031389, -0.056651, -0.016202, -0.007423, 0.007948, -0.009905, 0.004119, 0.000000, 0.000000, -0.083046, -0.094036, -0.080371, 0.061435, -0.062253, 0.082643, 0.073413, -0.070612, 0.169638, -0.024638, 0.002755, -0.041657, -0.023056, -0.039997, 0.000000, 0.000000, 0.010247, -0.058527, 0.035068, -0.065549, -0.073754, -0.025282, -0.084802, 0.044209, 0.005977, -0.016270, -0.002189, -0.040157, 0.087072, 0.140646, 0.000000, 0.000000, 0.031658, 0.063588, 0.003898, 0.050620, 0.020535, 0.047705, 0.004732, -0.003918, -0.071807, 0.078573, 0.012779, -0.027152, -0.106247, -0.086126, 0.000000, 0.000000, -0.005031, 0.022756, -0.049153, -0.106425, -0.004382, 0.065280, 0.020311, -0.019219, 0.084759, -0.032336, 0.023002, 0.012996, -0.025073, -0.013597, 0.000000, 0.000000, -0.037760, -0.010202, -0.038724, 0.042006, -0.004624, -0.006368, -0.010274, 0.064721, 0.066822, 0.030333, -0.001847, 0.030833, -0.009007, 0.032478, 0.000000, 0.000000, 0.017068, -0.077920, 
-0.001246, -0.015583, -0.021133, -0.036150, -0.009889, -0.002237, -0.004315, 0.027576, -0.030701, 0.018471, -0.005120, 0.057093, 0.000000, 0.000000, 0.009303, 0.008858, -0.070273, 0.062559, 0.114114, 0.064807, 0.015892, 0.021294, 0.040530, -0.148411, 0.043399, 0.001592, 0.010916, -0.010711, 0.000000, 0.000000, 0.016758, -0.051961, -0.036548, -0.013642, 0.002792, 0.005021, 0.039007, 0.002544, 0.045689, 0.097562, -0.037333, -0.058592, 0.049832, -0.066941, 0.000000, 0.000000, 0.018281, -0.047317, 0.014988, 0.028378, -0.088890, 0.056248, -0.039944, 0.006729, 0.042917, 0.002653, 0.099446, -0.025425, -0.096084, 0.120559, 0.000000, 0.000000, 0.007348, -0.030538, -0.008659, 0.079477, 0.056349, -0.031308, 0.007858, 0.009539, -0.116124, -0.014582, -0.006681, 0.056588, -0.008914, -0.011615, 0.000000, 0.000000, -0.084768, -0.084632, -0.076800, 0.055292, -0.029685, 0.074378, 0.097974, -0.085900, 0.152674, -0.069838, 0.002480, -0.037491, -0.020750, -0.010805, 0.000000, 0.000000, 0.023949, -0.033139, -0.046877, -0.058994, -0.071995, -0.034194, 0.005661, 0.039788, -0.005194, -0.014643, -0.001970, -0.036141, 0.061063, 0.126582, 0.000000, 0.000000, 0.028492, 0.052493, 0.003508, 0.045558, 0.032762, 0.049833, -0.009130, -0.003526, -0.064626, 0.080144, 0.015950, -0.024436, -0.095497, -0.077513, 0.000000, 0.000000, -0.042249, 0.020481, -0.044238, -0.152596, -0.003943, 0.058752, -0.014025, 0.017387, 0.076283, -0.029102, 0.020702, 0.011696, -0.022566, -0.012237, 0.000000, 0.000000, -0.033984, -0.009181, -0.033187, 0.037806, -0.004162, -0.005731, -0.009247, 0.021140, 0.105179, 0.027300, -0.001662, 0.027750, -0.008107, -0.010038, 0.000000, 0.000000, 0.015361, -0.070128, 
-0.001122, -0.014025, -0.050764, 0.015951, -0.035989, -0.002013, -0.003883, 0.024819, -0.027631, 0.043864, -0.004608, 0.051384, 0.000000, 0.000000, 0.008373, 0.007972, -0.020387, 0.056303, 0.105971, 0.058326, 0.014303, 0.019165, 0.036477, -0.133571, -0.019650, 0.001433, 0.009824, -0.064621, 0.000000, 0.000000, 0.015082, -0.018940, -0.014147, -0.012278, 0.002513, 0.004482, -0.002025, 0.033744, 0.041120, 0.107496, -0.016666, -0.052732, 0.051160, -0.060247, 0.000000, 0.000000, 0.004783, -0.076679, 0.038035, 0.011296, 0.007797, -0.010862, -0.035950, 0.006056, 0.038625, -0.006517, 0.056323, -0.001544, -0.076964, 0.118387, 0.000000, 0.000000, 0.002622, 0.014579, 0.012630, 0.094899, 0.011861, -0.015323, 0.007072, 0.008585, -0.104511, -0.013124, 0.012027, 0.050929, -0.008023, -0.027252, 0.000000, 0.000000, -0.126034, -0.076169, -0.069120, 0.015760, -0.010071, 0.079801, 0.088176, -0.077310, 0.137640, -0.062854, 0.002232, -0.033742, -0.018675, -0.005844, 0.000000, 0.000000, 0.003795, -0.029826, -0.042189, -0.075439, -0.049480, -0.030775, 0.040194, 0.035809, -0.004675, -0.012231, -0.001773, -0.032527, 0.071552, 0.113923, 0.000000, 0.000000, 0.017068, 0.007893, 0.003157, 0.041002, 0.058992, 0.044850, 0.019049, -0.074652, -0.058164, 0.090308, 0.021899, -0.021993, -0.073749, -0.105597, 0.000000, 0.000000, -0.073858, 0.055943, -0.034432, -0.137336, -0.003549, 0.083333, -0.012622, 0.015648, 0.068655, -0.026192, 0.018631, -0.032877, -0.020309, -0.011013, 0.000000, 0.000000, -0.030585, -0.008263, -0.029869, 0.034025, 0.002684, -0.005158, -0.008322, 0.017560, 0.094661, 0.024570, -0.001496, 0.019527, -0.007296, 0.018004, 0.000000, 0.000000, 0.035370, -0.087408, 
-0.001010, -0.016822, -0.045687, 0.014356, -0.015559, -0.001812, -0.044235, 0.022337, -0.024868, 0.056934, -0.004147, 0.031664, 0.000000, 0.000000, 0.007536, 0.007175, -0.083269, 0.041743, 0.092236, 0.053590, 0.012873, 0.017248, 0.032829, -0.120214, -0.056030, 0.001289, -0.024501, -0.001144, 0.000000, 0.000000, 0.004879, 0.037136, -0.012732, -0.011050, -0.039046, 0.004033, -0.001822, 0.119970, 0.024223, 0.096747, -0.085594, -0.047459, 0.046044, -0.058000, 0.000000, 0.000000, 0.004305, -0.069011, 0.094151, -0.010202, 0.007018, 0.018426, 0.008963, 0.005450, 0.034763, -0.032289, 0.001539, -0.001390, -0.074951, 0.138913, 0.000000, 0.000000, 0.142987, 0.021751, 0.058616, 0.085409, 0.008088, -0.013791, -0.072800, 0.007726, -0.094060, -0.053701, -0.063347, 0.045836, -0.007221, -0.076902, 0.000000, 0.000000, -0.084899, -0.068552, -0.068215, 0.014184, 0.070008, 0.067262, 0.079359, -0.065337, 0.084327, -0.076369, -0.017577, 0.064951, -0.016808, 0.005823, 0.000000, 0.000000, -0.029108, -0.076895, -0.037970, -0.105913, -0.080102, -0.027697, 0.136019, 0.032228, -0.004207, -0.012447, -0.001596, -0.124860, 0.064397, 0.102531, 0.000000, 0.000000, 0.039646, 0.016582, 0.002841, 0.036902, -0.070115, 0.037169, 0.038184, -0.067187, -0.052347, 0.040528, 0.019709, -0.014789, -0.066374, -0.015375, 0.000000, 0.000000, -0.066472, 0.050349, -0.051818, -0.061792, -0.003194, 0.074999, -0.011360, 0.014083, 0.172438, -0.023835, 0.016768, -0.029589, -0.018278, -0.009912, 0.000000, 0.000000, -0.027527, -0.033937, -0.026882, 0.030623, 0.002416, -0.004642, -0.007490, -0.024524, 0.165815, 0.022113, -0.001346, 0.017575, -0.015357, 0.024798, 0.000000, 0.000000, 0.031833, -0.024987, 
0.023015, -0.015140, -0.085754, 0.012920, -0.014003, -0.001631, -0.039812, 0.000335, -0.052002, 0.103070, -0.003732, 0.028497, 0.000000, 0.000000, -0.013872, -0.027413, -0.074942, 0.037569, 0.151615, 0.048231, 0.065626, 0.015523, 0.029546, -0.162365, -0.050427, 0.018317, -0.025236, 0.033142, 0.000000, 0.000000, -0.005674, 0.017829, -0.017568, -0.006945, -0.035141, 0.007012, 0.022341, 0.107973, 0.021800, 0.087072, -0.077035, 0.039800, 0.094166, -0.052200, 0.000000, 0.000000, 0.017087, -0.094563, 0.084736, -0.037274, -0.022336, -0.068081, 0.008067, 0.004905, 0.073081, -0.029060, 0.001385, -0.001251, -0.072085, 0.113100, 0.000000, 0.000000, 0.144153, 0.022892, 0.037091, 0.026446, -0.000724, -0.012412, -0.123023, 0.006954, -0.147429, -0.048331, -0.057012, -0.009140, -0.006499, -0.026084, 0.000000, 0.000000, -0.044356, -0.025078, -0.061407, 0.039877, 0.069089, 0.125636, 0.071423, -0.058804, 0.046077, -0.087200, -0.084090, 0.088635, -0.015127, 0.023881, 0.000000, 0.000000, -0.065152, -0.030220, -0.034173, -0.035066, -0.072092, -0.024927, 0.122417, 0.029005, 0.000274, -0.037570, -0.036506, -0.079757, 0.057958, 0.092278, 0.000000, 0.000000, 0.035681, 0.014924, 0.013972, 0.033212, -0.030690, 0.012025, 0.034365, -0.077602, -0.047113, 0.036475, 0.017367, -0.013310, -0.027966, -0.013837, 0.000000, 0.000000, -0.077218, 0.055908, -0.024723, -0.134597, -0.020905, 0.067500, 0.038953, 0.012675, 0.155194, -0.021451, 0.015092, -0.026630, -0.016451, -0.008921, 0.000000, 0.000000, -0.024774, -0.021690, -0.024194, 0.055681, -0.001731, -0.004178, -0.006741, 0.010946, 0.108218, -0.003703, -0.000635, 0.015817, -0.013821, 0.024762, 0.000000, 0.000000, 0.068363, -0.022488, 
0.014788, -0.000519, -0.080760, 0.004239, 0.016850, -0.015869, -0.041821, -0.002702, -0.073513, 0.113231, 0.007289, 0.037946, 0.000000, 0.000000, -0.026838, -0.026458, -0.022540, 0.010388, 0.183021, 0.017792, 0.000551, 0.036713, 0.005281, -0.149469, -0.006042, -0.018402, -0.016151, 0.043392, 0.000000, 0.000000, 0.009853, -0.001504, -0.003508, 0.006939, -0.045607, -0.000377, -0.002551, 0.085210, 0.019373, 0.080998, -0.051262, 0.013713, 0.073168, -0.045543, 0.000000, 0.000000, 0.007321, -0.082463, 0.070294, -0.020216, -0.041092, -0.069282, 0.020760, -0.008135, 0.100117, -0.041038, -0.007574, 0.003086, -0.075017, 0.093620, 0.000000, 0.000000, 0.119169, 0.013598, 0.016898, 0.026260, 0.007131, -0.016114, -0.096936, 0.014595, -0.152709, -0.022586, -0.052143, 0.000171, -0.008526, -0.046066, 0.000000, 0.000000, -0.062851, -0.008952, -0.044291, 0.030803, 0.079583, 0.127844, 0.086854, -0.028871, 0.034350, -0.073170, -0.087054, 0.066911, -0.001301, 0.012596, 0.000000, 0.000000, -0.039335, -0.043880, -0.029569, -0.055447, -0.071738, -0.015208, 0.085336, 0.036238, 0.015183, -0.053767, -0.031529, -0.088473, 0.041358, 0.110672, 0.000000, 0.000000, 0.057249, -0.004064, 0.014699, 0.004278, -0.028409, 0.036348, 0.050875, -0.079408, -0.027516, 0.008293, 0.018249, -0.044421, -0.013626, -0.030600, 0.000000, 0.000000, -0.051028, 0.046982, -0.022680, -0.130348, -0.020904, 0.046567, 0.050643, 0.036635, 0.141483, -0.001783, 0.002957, -0.022640, -0.021382, -0.006468, 0.000000, 0.000000, -0.017570, -0.001057, -0.018812, 0.050786, 0.015255, 0.012330, -0.019456, 0.013115, 0.096543, 0.006796, 0.013133, 0.001143, -0.035845, 0.050633, 0.000000, 0.000000, 0.037552, -0.021201, 
0.007549, -0.012049, -0.068499, 0.028128, 0.021333, 0.008660, -0.043085, -0.021096, -0.056951, 0.055450, 0.011927, 0.033753, 0.000000, 0.000000, 0.000172, -0.017283, -0.008665, 0.004991, 0.141585, 0.045954, -0.013942, 0.060635, -0.003236, -0.156181, -0.013732, -0.044158, -0.008328, 0.058217, 0.000000, 0.000000, 0.002030, 0.013158, -0.009616, -0.015037, -0.058754, 0.023403, 0.012514, 0.097113, 0.030404, 0.041320, -0.069061, 0.021432, 0.045422, -0.025759, 0.000000, 0.000000, 0.010166, -0.064091, 0.046445, -0.012438, -0.045582, -0.059200, 0.024883, 0.000919, 0.055052, -0.027809, -0.002185, -0.013973, -0.036299, 0.084468, 0.000000, 0.000000, 0.092078, 0.011415, 0.018880, 0.031792, 0.000241, -0.013715, -0.085745, 0.004267, -0.126264, -0.034829, -0.034471, -0.010231, -0.002004, -0.052898, 0.000000, 0.000000, -0.056887, -0.012813, -0.014548, 0.027811, 0.098706, 0.109629, 0.069426, -0.027528, 0.030002, -0.059194, -0.067764, 0.062704, -0.012397, 0.014254, 0.000000, 0.000000, -0.032527, -0.035000, -0.046415, -0.055119, -0.068104, -0.016568, 0.059945, 0.052695, -0.009728, -0.045617, -0.027611, -0.095283, 0.046103, 0.090196, 0.000000, 0.000000, 0.038124, -0.018979, 0.021997, -0.013394, -0.031212, 0.012982, 0.023716, -0.037129, -0.044285, 0.021701, 0.015457, -0.040548, 0.013192, -0.023214, 0.000000, 0.000000, -0.049020, 0.044335, -0.015052, -0.112978, -0.020099, 0.066558, 0.053840, 0.025924, 0.141413, -0.001273, 0.026480, -0.022205, -0.028924, -0.002693, 0.000000, 0.000000, -0.045096, 0.001857, -0.021399, 0.065690, 0.004222, 0.026138, -0.007450, -0.008928, 0.100854, -0.000820, 0.004841, 0.007608, -0.027566, 0.046670, 0.000000, 0.000000, 0.019534, -0.010902, 
0.007775, -0.041888, -0.041643, 0.029993, 0.068028, -0.000741, -0.060518, -0.010326, -0.104640, 0.062733, 0.050072, 0.021837, 0.000000, 0.000000, -0.027398, 0.003115, -0.003639, 0.018904, 0.117003, 0.046302, -0.019495, 0.039429, 0.007310, -0.152713, -0.007456, -0.016370, -0.046022, 0.068768, 0.000000, 0.000000, 0.001315, -0.001894, -0.001940, -0.033970, -0.057227, 0.041540, 0.005307, 0.098286, 0.042647, -0.010001, -0.061398, 0.019641, 0.033375, -0.009576, 0.000000, 0.000000, -0.008040, -0.066807, 0.074991, -0.003560, -0.046349, -0.055388, -0.008413, 0.008000, 0.045780, -0.042869, 0.001902, 0.005057, -0.009903, 0.070460, 0.000000, 0.000000, 0.077661, 0.020320, 0.022411, 0.025315, 0.001118, -0.005096, -0.092497, 0.027882, -0.115334, -0.037439, -0.038072, -0.006376, -0.017351, -0.037703, 0.000000, 0.000000, -0.061916, -0.024189, -0.013351, 0.029215, 0.110642, 0.091421, 0.073589, -0.034101, 0.012330, -0.033665, -0.072034, 0.054163, -0.033417, 0.021127, 0.000000, 0.000000, -0.021994, -0.060114, -0.039596, -0.069734, -0.056644, -0.027395, 0.067194, 0.034955, -0.008158, -0.032127, -0.023992, -0.089292, 0.052218, 0.101201, 0.000000, 0.000000, 0.040568, -0.020325, 0.025834, -0.049304, -0.010906, 0.014861, 0.007486, -0.014456, -0.028100, 0.002603, 0.013125, -0.045702, 0.012146, -0.016254, 0.000000, 0.000000, -0.047182, 0.066832, -0.010323, -0.101401, -0.039168, 0.051519, 0.013159, 0.057343, 0.149144, 0.000560, 0.020330, -0.021340, -0.037806, 0.008116, 0.000000, 0.000000, -0.061004, -0.008289, -0.006358, 0.088786, 0.013565, 0.021298, -0.044434, -0.030561, 0.078979, 0.009097, 0.028443, 0.019204, -0.029992, 0.053024, 0.000000, 0.000000, 0.014373, -0.000954, 
0.007978, -0.068744, -0.017472, 0.031672, 0.110053, -0.009202, -0.076207, -0.000633, -0.147561, 0.069287, 0.084403, 0.011113, 0.000000, 0.000000, -0.052211, 0.021473, 0.000885, 0.031425, 0.094880, 0.046615, -0.024493, 0.020343, 0.016801, -0.149592, -0.001808, 0.008639, -0.079946, 0.078264, 0.000000, 0.000000, 0.000671, -0.015441, 0.004968, -0.051009, -0.055853, 0.057864, -0.001180, 0.099341, 0.053667, -0.056189, -0.054500, 0.018028, 0.022533, 0.004988, 0.000000, 0.000000, -0.024426, -0.069252, 0.100682, 0.004431, -0.047039, -0.051958, -0.038380, 0.014372, 0.037435, -0.056422, 0.005580, 0.022184, 0.013854, 0.057853, 0.000000, 0.000000, 0.064686, 0.028335, 0.025588, 0.019485, 0.001908, 0.002661, -0.098574, 0.049136, -0.105498, -0.039788, -0.041313, -0.002907, -0.031162, -0.024028, 0.000000, 0.000000, -0.066442, -0.034428, -0.012274, 0.030479, 0.121385, 0.075035, 0.077335, -0.040016, -0.003574, -0.010689, -0.075877, 0.046477, -0.052335, 0.027314, 0.000000, 0.000000, -0.012516, -0.082717, -0.033460, -0.082887, -0.046330, -0.037139, 0.073718, 0.018989, -0.006745, -0.019986, -0.020734, -0.083900, 0.057722, 0.111105, 0.000000, 0.000000, 0.042768, -0.021537, 0.029287, -0.081623, 0.007370, 0.016551, -0.007120, 0.005950, -0.013534, -0.014586, 0.011027, -0.050341, 0.011204, -0.009990, 0.000000, 0.000000, -0.045527, 0.087080, -0.006068, -0.090982, -0.056331, 0.037985, -0.023454, 0.085619, 0.156102, 0.002210, 0.014795, -0.020561, -0.045800, 0.017843, 0.000000, 0.000000, -0.075322, -0.017422, 0.007180, 0.109573, 0.021974, 0.016941, -0.077720, -0.050030, 0.059292, 0.018023, 0.049685, 0.029640, -0.032176, 0.058742, 0.000000, 0.000000, 0.009728, 0.007999, 
0.011117, -0.111102, 0.004331, 0.000415, 0.086212, 0.010407, -0.046673, 0.010859, -0.108487, 0.047486, 0.072991, 0.038223, 0.000000, 0.000000, -0.052069, 0.022111, 0.006211, -0.014945, 0.105070, 0.056830, -0.031269, 0.089271, -0.029876, -0.137372, -0.004797, -0.020097, -0.038426, 0.061203, 0.000000, 0.000000, -0.007038, -0.004541, 0.003082, -0.075864, -0.067578, 0.056001, 0.014416, 0.120137, 0.051644, -0.045626, -0.066629, 0.034405, 0.000947, 0.015056, 0.000000, 0.000000, -0.039322, -0.064866, 0.081979, -0.015969, -0.054825, -0.053068, -0.035858, 0.052216, 0.018567, -0.043954, -0.009537, 0.027491, 0.018903, 0.043221, 0.000000, 0.000000, 0.032859, 0.040461, 0.030425, 0.006197, -0.020523, 0.011022, -0.122144, 0.080961, -0.081243, -0.054371, -0.006554, -0.010589, -0.047641, -0.006903, 0.000000, 0.000000, -0.053130, -0.030368, -0.005633, 0.025712, 0.119059, 0.050803, 0.061720, -0.021457, -0.003181, -0.011570, -0.075712, 0.032497, -0.031601, 0.015651, 0.000000, 0.000000, -0.004447, -0.072484, -0.049741, -0.063091, 0.004843, -0.056084, 0.080525, 0.007963, -0.052275, 0.023218, -0.016858, -0.063510, 0.081441, 0.085533, 0.000000, 0.000000, 0.009311, -0.008538, 0.041112, -0.074591, 0.002673, 0.040179, -0.036644, 0.006035, 0.001283, 0.006718, 0.032669, -0.026345, -0.014670, 0.007213, 0.000000, 0.000000, -0.038690, 0.070762, 0.008200, -0.088031, -0.066448, 0.064579, -0.041652, 0.089540, 0.147174, -0.011976, -0.016921, -0.009142, -0.036443, -0.005724, 0.000000, 0.000000, -0.048549, -0.028648, 0.027791, 0.072876, 0.036441, 0.011201, -0.061471, -0.075424, 0.042512, 0.002693, 0.023769, 0.023637, -0.035797, 0.063532, 0.000000, 0.000000, 0.007192, 0.021189, 
0.022331, -0.133973, 0.058392, 0.071115, 0.098457, 0.053160, -0.113729, -0.058808, -0.146900, 0.096143, 0.099042, 0.056501, 0.000000, 0.000000, -0.110837, 0.028344, -0.057495, 0.002523, 0.096265, 0.071776, 0.046610, 0.072480, -0.017022, -0.150231, -0.048104, 0.026015, -0.057398, 0.079412, 0.000000, 0.000000, 0.010401, -0.000363, -0.006039, -0.095914, -0.080908, 0.041424, 0.015924, 0.127360, 0.050511, -0.043149, -0.102975, 0.038426, 0.001756, 0.036441, 0.000000, 0.000000, -0.056030, -0.054542, 0.057891, 0.038980, -0.048466, -0.066426, -0.027162, 0.019640, 0.037941, -0.033297, -0.014537, 0.013752, -0.014060, 0.046188, 0.000000, 0.000000, 0.039252, 0.025602, 0.041290, 0.038120, -0.031625, -0.025919, -0.120093, 0.086529, -0.083258, -0.025988, -0.006187, -0.003717, -0.021199, -0.043415, 0.000000, 0.000000, -0.047631, -0.018540, 0.012494, 0.036076, 0.113293, -0.005521, 0.072962, -0.022973, -0.016910, 0.028477, -0.090667, 0.029561, -0.017644, -0.007317, 0.000000, 0.000000, -0.003300, -0.067300, -0.051157, -0.052194, 0.011836, -0.017040, 0.041954, -0.027408, -0.043512, 0.010014, -0.009792, -0.085190, 0.094160, 0.082893, 0.000000, 0.000000, 0.029323, 0.005231, 0.014727, -0.074206, 0.019509, 0.058925, -0.016753, 0.014359, -0.003625, 0.024566, 0.014902, -0.005434, -0.032233, 0.016082, 0.000000, 0.000000, -0.044306, 0.037348, 0.026116, -0.091259, -0.073046, 0.058796, -0.040165, 0.086569, 0.159881, -0.042570, -0.049155, 0.067073, -0.055989, -0.007634, 0.000000, 0.000000, -0.050770, -0.048605, 0.019953, 0.107889, 0.002236, 0.024734, -0.052128, -0.090072, 0.025773, 0.007729, 0.017349, 0.020563, 0.005006, 0.026817, 0.000000, 0.000000, 0.018997, 0.011248, 
0.032424, -0.154557, 0.107047, 0.134745, 0.109478, 0.091637, -0.174079, -0.121508, -0.181472, 0.139934, 0.122487, 0.072951, 0.000000, 0.000000, -0.163728, 0.033954, -0.114831, 0.018245, 0.088341, 0.085228, 0.116701, 0.057368, -0.005454, -0.161805, -0.087080, 0.067516, -0.074473, 0.095800, 0.000000, 0.000000, 0.026096, 0.003397, -0.014248, -0.113959, -0.092905, 0.028305, 0.017282, 0.133861, 0.049490, -0.040921, -0.135687, 0.042045, 0.002484, 0.055688, 0.000000, 0.000000, -0.071067, -0.045251, 0.036213, 0.088433, -0.042743, -0.078447, -0.019335, -0.009679, 0.055379, -0.023706, -0.019037, 0.001387, -0.043727, 0.048858, 0.000000, 0.000000, 0.045007, 0.012228, 0.051068, 0.066851, -0.041617, -0.059166, -0.118247, 0.091539, -0.085072, -0.000444, -0.005856, 0.002469, 0.002598, -0.076276, 0.000000, 0.000000, -0.042682, -0.007894, 0.028808, 0.045403, 0.108104, -0.056213, 0.083081, -0.024337, -0.029265, 0.064519, -0.104126, 0.026917, -0.005083, -0.027987, 0.000000, 0.000000, -0.002268, -0.062634, -0.052430, -0.042386, 0.018130, 0.018099, 0.007241, -0.059242, -0.035624, -0.001870, -0.003432, -0.104701, 0.105608, 0.080517, 0.000000, 0.000000, 0.047334, 0.017623, -0.009020, -0.073859, 0.034662, 0.075795, 0.001149, 0.021850, -0.008042, 0.040629, -0.001088, 0.013387, -0.048040, 0.024065, 0.000000, 0.000000, -0.049360, 0.007275, 0.042241, -0.094165, -0.078984, 0.053592, -0.038826, 0.083895, 0.171318, -0.070104, -0.078167, 0.135667, -0.073580, -0.009354, 0.000000, 0.000000, -0.052768, -0.066565, 0.012898, 0.139400, -0.028549, 0.036913, -0.043720, -0.103254, 0.010707, 0.012261, 0.011571, 0.017797, 0.041729, -0.006226, 0.000000, 0.000000, 0.029622, 0.002301, 
0.056376, -0.175233, 0.092012, 0.117125, 0.073109, 0.126786, -0.165882, -0.103109, -0.170925, 0.096687, 0.107487, 0.067404, 0.000000, 0.000000, -0.125957, 0.038947, -0.100110, -0.002139, 0.089560, 0.083994, 0.096217, 0.084618, -0.024707, -0.154333, -0.076188, 0.032829, -0.053913, 0.093753, 0.000000, 0.000000, 0.020579, 0.000963, -0.013918, -0.097907, -0.094000, 0.014726, 0.007323, 0.129634, 0.030580, -0.040072, -0.145441, 0.038402, 0.024882, 0.061957, 0.000000, 0.000000, -0.086406, -0.031343, 0.029937, 0.071044, -0.005754, -0.075799, 0.001359, -0.031807, 0.053572, -0.006557, -0.011490, 0.011254, -0.052080, 0.047187, 0.000000, 0.000000, 0.044754, 0.009677, 0.037356, 0.058500, -0.060559, -0.018599, -0.111139, 0.098481, -0.056399, -0.037722, 0.001978, -0.007686, -0.020070, -0.044185, 0.000000, 0.000000, -0.051100, -0.007220, 0.019482, 0.063873, 0.096742, -0.067543, 0.073913, -0.013364, -0.027239, 0.043676, -0.098035, 0.012564, -0.007353, -0.018694, 0.000000, 0.000000, -0.000038, -0.055602, -0.053573, -0.051671, -0.001438, 0.021481, 0.028090, -0.087859, -0.011530, -0.008521, -0.013000, -0.079195, 0.101275, 0.062125, 0.000000, 0.000000, 0.050413, 0.016951, 0.012992, -0.081755, 0.023998, 0.102485, -0.020224, 0.036151, -0.009814, 0.048874, -0.003361, 0.031081, -0.079444, 0.044777, 0.000000, 0.000000, -0.057103, 0.023965, 0.059262, -0.059950, -0.062857, 0.057335, -0.054003, 0.096665, 0.119974, -0.047854, -0.045281, 0.093196, -0.079032, -0.012270, 0.000000, 0.000000, -0.054772, -0.057150, 0.001159, 0.150342, -0.014766, 0.017976, -0.029107, -0.094129, 0.034799, -0.008006, -0.000745, 0.007310, 0.047546, -0.016444, 0.000000, 0.000000, 0.028090, 0.000749, 
0.058879, -0.156334, 0.079726, 0.123951, 0.067706, 0.107631, -0.145240, -0.112173, -0.137582, 0.068666, 0.094437, 0.076156, 0.000000, 0.000000, -0.101220, 0.024417, -0.074796, -0.011053, 0.069844, 0.095591, 0.102812, 0.048092, -0.005491, -0.161398, -0.069181, 0.038646, -0.047173, 0.096919, 0.000000, 0.000000, 0.018420, -0.012156, -0.001127, -0.092097, -0.087592, -0.007225, 0.009549, 0.104995, 0.027300, -0.025686, -0.139522, 0.037387, 0.015255, 0.054402, 0.000000, 0.000000, -0.088200, -0.008868, 0.021884, 0.060354, -0.003486, -0.061446, 0.000781, -0.034238, 0.058334, -0.016855, -0.005288, -0.002343, -0.026146, 0.023702, 0.000000, 0.000000, 0.038432, 0.018530, 0.058073, 0.038760, -0.061813, -0.009761, -0.129182, 0.100620, -0.057829, -0.024208, 0.005346, 0.000655, -0.020495, -0.058565, 0.000000, 0.000000, -0.062195, 0.001571, 0.002717, 0.068938, 0.082857, -0.047865, 0.074207, -0.013763, -0.032760, 0.042798, -0.103516, 0.006455, -0.017901, -0.019913, 0.000000, 0.000000, -0.004210, -0.033157, -0.053860, -0.055870, 0.011587, 0.002329, 0.043853, -0.064606, -0.019442, 0.000152, -0.032614, -0.076143, 0.098294, 0.051923, 0.000000, 0.000000, 0.043502, 0.027935, 0.022794, -0.076357, 0.029703, 0.090037, -0.023392, 0.017849, 0.004617, 0.062481, 0.008819, 0.017538, -0.064924, 0.035813, 0.000000, 0.000000, -0.037681, 0.026692, 0.049472, -0.040303, -0.082071, 0.061707, -0.051329, 0.088501, 0.121675, -0.057792, -0.040673, 0.070295, -0.093823, -0.009186, 0.000000, 0.000000, -0.021122, -0.068717, 0.010490, 0.120217, 0.007648, 0.034885, -0.025006, -0.063976, 0.029268, -0.004625, -0.011875, 0.010567, 0.050542, -0.020054, 0.000000, 0.000000, 0.005058, 0.004632, 
0.051736, -0.143541, 0.077602, 0.134499, 0.093906, 0.052889, -0.132019, -0.102552, -0.156122, 0.093758, 0.102677, 0.067422, 0.000000, 0.000000, -0.099608, 0.035479, -0.043380, -0.046179, 0.088407, 0.038670, 0.083182, 0.076610, -0.007285, -0.120294, -0.087441, 0.023811, -0.059607, 0.080689, 0.000000, 0.000000, 0.031891, 0.002832, -0.003286, -0.094690, -0.095369, -0.009214, -0.013556, 0.105053, 0.046097, -0.020213, -0.141398, 0.048986, -0.002503, 0.048473, 0.000000, 0.000000, -0.086618, -0.001569, 0.042360, 0.048644, 0.002809, -0.059483, -0.000885, -0.011292, 0.069261, -0.029148, -0.004831, -0.022226, -0.029860, 0.040051, 0.000000, 0.000000, 0.037323, 0.009553, 0.061908, 0.013171, -0.058376, -0.023396, -0.126962, 0.098196, -0.060848, -0.004619, 0.003043, 0.012813, -0.003954, -0.069183, 0.000000, 0.000000, -0.069095, -0.003634, 0.001322, 0.053742, 0.069009, -0.024063, 0.058398, 0.004010, -0.025375, 0.017207, -0.090825, -0.012120, -0.018644, -0.001639, 0.000000, 0.000000, -0.002625, -0.040136, -0.042044, -0.032578, 0.008330, 0.004728, 0.024690, -0.034891, -0.004047, -0.008917, -0.034090, -0.083191, 0.078355, 0.042077, 0.000000, 0.000000, 0.043699, 0.013871, 0.020417, -0.060556, 0.030483, 0.076836, 0.008072, 0.014990, 0.001505, 0.053735, -0.012416, 0.032355, -0.039420, 0.044047, 0.000000, 0.000000, -0.042159, 0.028623, 0.069057, -0.070953, -0.079088, 0.063280, -0.060535, 0.079556, 0.112902, -0.035487, -0.034205, 0.074999, -0.093554, -0.018523, 0.000000, 0.000000, -0.040057, -0.052090, 0.011572, 0.099632, 0.032595, 0.037022, -0.049554, -0.057511, 0.048327, -0.014018, 0.018066, -0.000403, 0.023463, -0.020193, 0.000000, 0.000000, 0.012037, -0.002548, 
0.027478, -0.119458, 0.050738, 0.125714, 0.091033, 0.050260, -0.106704, -0.099781, -0.149699, 0.072800, 0.099511, 0.068716, 0.000000, 0.000000, -0.103468, 0.056290, -0.028653, -0.081296, 0.091232, 0.045959, 0.069334, 0.104926, -0.018888, -0.121271, -0.079275, 0.007398, -0.047825, 0.079428, 0.000000, 0.000000, 0.041905, -0.005399, -0.011363, -0.074965, -0.095510, 0.012269, -0.022397, 0.102061, 0.046973, -0.033578, -0.140858, 0.037655, -0.024310, 0.053661, 0.000000, 0.000000, -0.080401, 0.000986, 0.018082, 0.055295, -0.012918, -0.053729, 0.020162, -0.009258, 0.064931, -0.008008, -0.005689, -0.044280, -0.013099, 0.031904, 0.000000, 0.000000, 0.040989, 0.021251, 0.053751, 0.020457, -0.057429, -0.033062, -0.117962, 0.095417, -0.074637, 0.004451, 0.017248, -0.020227, 0.017678, -0.067124, 0.000000, 0.000000, -0.073756, -0.016971, 0.000735, 0.066189, 0.037036, -0.017310, 0.040623, -0.005090, -0.003120, 0.017544, -0.076070, -0.000726, -0.018760, 0.005309, 0.000000, 0.000000, -0.000290, -0.037108, -0.023958, -0.042953, -0.002301, 0.017856, 0.032333, -0.042877, 0.018061, -0.013076, -0.039410, -0.071345, 0.049447, 0.045683, 0.000000, 0.000000, 0.047324, 0.019525, 0.008320, -0.044283, 0.014930, 0.083110, -0.000542, 0.021313, -0.014054, 0.042706, -0.012457, 0.033666, -0.043188, 0.039141, 0.000000, 0.000000, -0.047380, 0.016805, 0.054425, -0.070731, -0.060691, 0.042319, -0.070603, 0.084509, 0.091462, -0.035062, -0.026950, 0.055243, -0.076498, -0.021560, 0.000000, 0.000000, -0.040078, -0.046477, 0.008527, 0.104809, 0.037442, 0.034541, -0.021268, -0.056483, 0.051308, 0.010240, 0.035591, -0.004199, 0.025565, -0.007531, 0.000000, 0.000000, 0.010642, -0.005850, 
0.009688, -0.083420, 0.030864, 0.130675, 0.135773, -0.009516, -0.095747, -0.088204, -0.147377, 0.091582, 0.111832, 0.049733, 0.000000, 0.000000, -0.111626, 0.056458, -0.052589, -0.070533, 0.079016, 0.059243, 0.077152, 0.100288, -0.000481, -0.140542, -0.056931, -0.017536, -0.043082, 0.077325, 0.000000, 0.000000, 0.034049, -0.015106, 0.007035, -0.072335, -0.109657, 0.037069, -0.045298, 0.112707, 0.038876, -0.059477, -0.121633, 0.037144, -0.019346, 0.065520, 0.000000, 0.000000, -0.090205, -0.011994, 0.026777, 0.069432, -0.017188, -0.069971, 0.029221, -0.025907, 0.055493, 0.014371, -0.000735, -0.038867, -0.033333, 0.023806, 0.000000, 0.000000, 0.060435, 0.022077, 0.070895, 0.003751, -0.071360, -0.012082, -0.115216, 0.069132, -0.054694, 0.003845, 0.005447, -0.022069, 0.026879, -0.074219, 0.000000, 0.000000, -0.054604, -0.006527, 0.007068, 0.053802, 0.026959, -0.006336, 0.025793, 0.006877, -0.006141, 0.019671, -0.065525, -0.021495, -0.023499, 0.006647, 0.000000, 0.000000, 0.022645, -0.025657, -0.024381, -0.026086, -0.008935, 0.019663, 0.006335, -0.023974, 0.010789, -0.013292, -0.031347, -0.064858, 0.018270, 0.055720, 0.000000, 0.000000, 0.035684, 0.033298, 0.018344, -0.049582, 0.023799, 0.081447, 0.014767, 0.009448, -0.001329, 0.037364, -0.020103, 0.044289, -0.059707, 0.038297, 0.000000, 0.000000, -0.053859, 0.016750, 0.059455, -0.093259, -0.066000, 0.041964, -0.045358, 0.085669, 0.092287, -0.038830, -0.020675, 0.040976, -0.067778, -0.030192, 0.000000, 0.000000, -0.029164, -0.049138, -0.002988, 0.088220, 0.019188, 0.031869, -0.019856, -0.013433, 0.054577, 0.031772, 0.027197, -0.035520, 0.014809, -0.023446, 0.000000, 0.000000, 0.001544, 0.012056, 
0.037486, -0.106451, 0.034307, 0.131907, 0.132445, -0.016669, -0.059765, -0.083111, -0.138827, 0.056137, 0.100748, 0.040505, 0.000000, 0.000000, -0.074681, 0.060041, -0.067836, -0.072477, 0.091515, 0.048884, 0.103771, 0.093563, -0.019851, -0.126375, -0.082175, -0.001923, -0.019818, 0.072829, 0.000000, 0.000000, 0.024476, -0.012993, 0.012619, -0.068824, -0.107749, 0.023289, -0.035830, 0.109086, 0.025235, -0.054459, -0.103332, 0.033560, -0.021775, 0.044001, 0.000000, 0.000000, -0.089534, -0.035752, 0.032447, 0.074834, -0.027185, -0.056233, 0.018113, -0.034018, 0.072709, 0.021661, -0.009267, -0.029158, -0.042194, 0.019836, 0.000000, 0.000000, 0.050529, 0.021577, 0.053252, -0.004858, -0.048799, -0.013018, -0.094123, 0.063039, -0.047901, 0.008072, -0.012460, -0.018655, 0.003789, -0.069773, 0.000000, 0.000000, -0.041667, 0.006597, -0.013775, 0.067687, 0.018932, -0.002229, 0.031679, 0.003257, -0.009292, 0.012243, -0.070035, -0.008580, -0.030304, 0.029866, 0.000000, 0.000000, 0.028378, -0.019294, -0.014874, -0.039921, -0.029018, 0.030286, -0.012597, -0.000007, 0.016664, -0.035988, -0.028195, -0.063355, 0.025524, 0.062233, 0.000000, 0.000000, 0.036126, 0.028614, 0.006266, -0.036287, 0.004673, 0.083220, 0.025911, -0.004070, 0.005845, 0.037402, -0.018462, 0.031783, -0.040802, 0.017258, 0.000000, 0.000000, -0.070137, 0.007136, 0.051293, -0.096167, -0.043421, 0.024735, -0.049028, 0.094135, 0.067627, -0.009827, -0.009013, 0.045969, -0.074878, -0.047926, 0.000000, 0.000000, -0.041686, -0.026496, 0.012097, 0.079657, 0.022913, 0.017002, -0.055002, 0.019464, 0.034994, 0.062955, 0.027918, -0.036880, 0.014398, -0.011204, 0.000000, 0.000000, 0.014861, 0.012948, 
0.056818, -0.109343, 0.034070, 0.115189, 0.113559, -0.019457, -0.033264, -0.097548, -0.132135, 0.046482, 0.088928, 0.050956, 0.000000, 0.000000, -0.064937, 0.062751, -0.076193, -0.085762, 0.122413, 0.018723, 0.099538, 0.124020, -0.032225, -0.103514, -0.060052, -0.018033, -0.013167, 0.064681, 0.000000, 0.000000, 0.014613, -0.036326, 0.018829, -0.101685, -0.102894, 0.052448, -0.030823, 0.152024, 0.005454, -0.075415, -0.092973, 0.014410, 0.005112, 0.049174, 0.000000, 0.000000, -0.103176, -0.026385, 0.030444, 0.051764, -0.032500, -0.042933, 0.033154, -0.034099, 0.078200, 0.032902, -0.009703, -0.015073, -0.053252, 0.016829, 0.000000, 0.000000, 0.039172, 0.033187, 0.058634, -0.030311, -0.049126, -0.028116, -0.094688, 0.074966, -0.031780, 0.026775, -0.035132, 0.001881, 0.004321, -0.071821, 0.000000, 0.000000, -0.050215, 0.009953, 0.000319, 0.076009, 0.009178, 0.008331, 0.015357, -0.002360, 0.010663, 0.002988, -0.084451, 0.005989, -0.042546, 0.049648, 0.000000, 0.000000, 0.027258, -0.027881, -0.018938, -0.029948, -0.039791, 0.036358, 0.005197, 0.014927, 0.014844, -0.053304, -0.015320, -0.060768, 0.005902, 0.056190, 0.000000, 0.000000, 0.036169, 0.030527, -0.014197, -0.015787, 0.011971, 0.092853, 0.051275, -0.011323, -0.026025, 0.052376, -0.023280, 0.017233, -0.038149, -0.002687, 0.000000, 0.000000, -0.074347, 0.028371, 0.040915, -0.112764, -0.046908, 0.007762, -0.063160, 0.104111, 0.071208, -0.004408, 0.005195, 0.043736, -0.069400, -0.041293, 0.000000, 0.000000, -0.052132, -0.016869, 0.023893, 0.087682, 0.004743, 0.015586, -0.079615, 0.004882, 0.076622, 0.036844, 0.040541, -0.031443, 0.016190, -0.020849, 0.000000, 0.000000, 0.019051, -0.009290, 
0.031456, -0.111959, 0.036301, 0.085889, 0.105765, -0.003568, 0.001976, -0.079822, -0.110286, 0.018345, 0.030594, 0.065308, 0.000000, 0.000000, -0.025277, 0.059773, -0.065234, -0.062561, 0.109215, 0.022649, 0.090417, 0.083759, -0.015432, -0.104156, -0.027354, 0.000126, -0.021660, 0.064279, 0.000000, 0.000000, 0.017540, -0.043362, 0.018066, -0.093035, -0.102811, 0.066599, -0.023124, 0.128268, 0.013364, -0.068300, -0.089383, -0.005554, -0.005765, 0.036847, 0.000000, 0.000000, -0.066609, -0.026658, 0.022542, 0.078779, -0.053705, -0.047564, 0.018243, -0.020778, 0.089301, 0.041406, -0.015314, -0.015796, -0.063195, 0.009630, 0.000000, 0.000000, 0.032923, 0.034634, 0.042949, -0.047988, -0.055062, -0.051182, -0.110174, 0.080913, -0.016170, 0.038306, -0.005050, -0.022192, 0.011861, -0.100289, 0.000000, 0.000000, -0.068011, 0.014220, -0.020330, 0.074640, 0.000780, 0.023658, 0.040408, -0.012064, -0.019991, 0.002312, -0.087969, 0.028610, -0.032689, 0.043275, 0.000000, 0.000000, 0.046114, -0.029755, 0.004306, -0.050137, -0.055036, 0.072328, -0.006712, 0.033879, 0.023114, -0.054579, -0.014677, -0.047286, 0.002814, 0.060788, 0.000000, 0.000000, 0.036997, 0.068539, 0.027632, -0.036370, 0.035161, 0.084106, 0.021204, -0.013244, 0.001896, 0.060236, -0.001109, -0.004534, -0.048754, -0.000756, 0.000000, 0.000000, -0.094909, 0.050426, 0.028400, -0.103146, -0.017345, -0.030326, -0.064520, 0.091161, 0.053833, -0.026934, 0.041708, 0.033295, -0.062251, -0.025269, 0.000000, 0.000000, -0.057110, -0.039608, 0.012510, 0.083958, -0.000862, 0.020496, -0.051603, 0.008297, 0.069124, 0.010694, 0.019894, -0.017665, 0.034346, 0.000633, 0.000000, 0.000000, 0.008208, -0.038658, 
0.008631, -0.114313, 0.038309, 0.059519, 0.098750, 0.010732, 0.033693, -0.063869, -0.090621, -0.006978, -0.021906, 0.078225, 0.000000, 0.000000, 0.010416, 0.057093, -0.055371, -0.041681, 0.097337, 0.026182, 0.082209, 0.047524, -0.000319, -0.104734, 0.002074, 0.016470, -0.029303, 0.063917, 0.000000, 0.000000, 0.020174, -0.049694, 0.017379, -0.085251, -0.102736, 0.079335, -0.016194, 0.106887, 0.020483, -0.061896, -0.086152, -0.023522, -0.015555, 0.025753, 0.000000, 0.000000, -0.033699, -0.026904, 0.015431, 0.103092, -0.072791, -0.051732, 0.004823, -0.008790, 0.099292, 0.049060, -0.020363, -0.016446, -0.072143, 0.003151, 0.000000, 0.000000, 0.027300, 0.035936, 0.028832, -0.063898, -0.060405, -0.071942, -0.124111, 0.086265, -0.002122, 0.048684, 0.022024, -0.043857, 0.018648, -0.125910, 0.000000, 0.000000, -0.084027, 0.018061, -0.038914, 0.073407, -0.006778, 0.037452, 0.062954, -0.020797, -0.047579, 0.001704, -0.091135, 0.048969, -0.023817, 0.037540, 0.000000, 0.000000, 0.063084, -0.031442, 0.025224, -0.068308, -0.068757, 0.104701, -0.017429, 0.050936, 0.030557, -0.055726, -0.014099, -0.035153, 0.000033, 0.064927, 0.000000, 0.000000, 0.037742, 0.102750, 0.065277, -0.054895, 0.056032, 0.076234, -0.005860, -0.014972, 0.027024, 0.067310, 0.018846, -0.024125, -0.058299, 0.000982, 0.000000, 0.000000, -0.113414, 0.070276, 0.017137, -0.094490, 0.009261, -0.064606, -0.065744, 0.079506, 0.038194, -0.047208, 0.074569, 0.023899, -0.055818, -0.010847, 0.000000, 0.000000, -0.061590, -0.060072, 0.002264, 0.080606, -0.005906, 0.024914, -0.026392, 0.011371, 0.062376, -0.012841, 0.001312, -0.005265, 0.050687, 0.019966, 0.000000, 0.000000, -0.001550, -0.065089, 
