 -1.9679404e-001
 -1.3550012e-001
  5.6381889e-002
 -1.7780876e-001
  3.5618705e-002
  1.3942968e-001
  3.1913864e-001
  7.9711813e-002
  8.6359629e-002
 -2.3488729e-001
 -4.9440684e-001
  1.9447462e-001
  0.0000000e+000
  0.0000000e+000
  3.3165898e-001
  3.2969797e-002
  3.3396076e-002
  1.4624498e-001
 -9.5685683e-003
  5.7982734e-002
  8.3308725e-003
 -2.7858987e-001
  1.3569820e-001
 -1.0993615e-001
  2.6692551e-001
  1.6356168e-001
 -9.8093646e-002
  6.0661942e-002
  0.0000000e+000
  0.0000000e+000
  4.3883005e-002
 -1.0668256e-001
  1.1200144e-002
 -1.5190211e-002
 -1.0206020e-001
  1.9395848e-001
  4.6174431e-002
 -8.5541336e-002
  8.4553877e-002
 -4.2611110e-003
 -5.7073996e-002
 -1.8523421e-001
 -1.0366422e-001
 -7.4095440e-002
  0.0000000e+000
  0.0000000e+000
  2.6249155e-001
 -2.9118164e-002
 -4.8571231e-002
  3.2191357e-001
 -2.4455724e-001
 -8.9244923e-002
 -1.1595551e-001
  9.9107329e-002
  1.8921099e-001
  1.1794175e-001
 -6.5805171e-002
 -2.2299457e-002
 -1.5267812e-001
 -5.5159926e-002
  0.0000000e+000
  0.0000000e+000
 -2.3309951e-002
  4.7656103e-002
 -9.8216100e-002
 -2.0708888e-001
 -1.0848910e-001
 -2.5877754e-001
 -2.4954717e-001
  1.3443553e-001
  1.2431650e-001
  1.4208673e-001
  2.6569294e-001
 -2.3884705e-001
  7.9727343e-002
 -3.5650054e-001
  0.0000000e+000
  0.0000000e+000
 -2.2817311e-001
  5.2628815e-002
 -2.0617239e-001
  6.2318090e-002
 -7.4801228e-002
  1.6159753e-001
  2.6586631e-001
 -9.9393683e-002
 -2.9587629e-001
 -3.7704985e-003
 -1.1962964e-001
  2.3220124e-001
  5.6023957e-002
 -1.4079088e-002
  0.0000000e+000
  0.0000000e+000
  2.1581847e-001
 -4.6619691e-002
  2.1349411e-001
 -2.3184182e-001
 -1.9224018e-001
  3.9605497e-001
 -1.1388661e-001
  2.0444998e-001
  9.7544161e-002
 -6.6048267e-002
 -8.8965673e-003
  7.4047617e-002
 -2.4986764e-002
  1.0217334e-001
  0.0000000e+000
  0.0000000e+000
  4.4448785e-002
  4.1064716e-001
  4.0408820e-001
 -2.2161823e-001
  2.4387394e-001
  5.3847330e-003
 -2.4943629e-001
 -3.0526333e-002
  2.5318287e-001
  1.3098033e-001
  1.9843764e-001
 -2.0043883e-001
 -1.4420402e-001
  1.6623455e-002
  0.0000000e+000
  0.0000000e+000
 -2.7996510e-001
  2.4892378e-001
 -8.4228643e-002
 -1.6582027e-002
  2.4871736e-001
 -3.7312655e-001
 -7.6760809e-002
 -2.5388108e-002
 -1.0254950e-001
 -2.2967157e-001
  3.7032305e-001
 -6.0667797e-002
  2.0846329e-003
  1.1894789e-001
  0.0000000e+000
  0.0000000e+000
 -1.0191003e-001
 -2.4425085e-001
 -8.9943126e-002
  5.0443017e-002
 -5.1303027e-002
  6.4680705e-002
  2.0050674e-001
  3.9034311e-002
  1.6437439e-003
 -2.2465623e-001
 -1.6592921e-001
  1.0633348e-001
  1.9775493e-001
  1.9396921e-001
  0.0000000e+000
  0.0000000e+000
 -8.9376365e-002
 -3.0297050e-001
