12,-3.6211140e-001,2.7736943e-001,-2.3120049e-001,1.1281980e-001,-7.8214031e-002,3.5070303e-001,1.1659582e-001,-1.6728859e-001,-3.7349749e-002,-7.7601130e-002,-1.4911203e-001,-2.9342546e-002,0.0000000e+000,0.0000000e+000,8.5143026e-002,-2.6031555e-002,-2.2676114e-002,3.1487509e-002,-2.1024545e-001,1.0047468e-001,-9.0588640e-002,1.8893214e-001,8.1566697e-002,4.6471554e-003,9.7675868e-002,2.6037849e-002,-1.7371748e-001,-5.9619911e-002,0.0000000e+000,0.0000000e+000,8.6044557e-004,-9.1725136e-002,-6.3214300e-003,-2.8673511e-002,-6.1812743e-002,-3.6432252e-002,1.6623613e-002,-6.7658148e-002,5.8867682e-002,-2.6339609e-002,4.1630207e-003,2.3959277e-002,-2.3381348e-002,2.3614272e-002,0.0000000e+000,0.0000000e+000,-1.2913866e-001,-4.7173822e-002,-9.1349521e-002,5.1403118e-002,-7.1510663e-002,9.8815012e-002,8.1443762e-002,1.1587383e-002,-3.9372153e-002,7.6431079e-002,7.6800578e-002,5.7799958e-002,-1.1840297e-001,7.8994259e-002,0.0000000e+000,0.0000000e+000,9.0833979e-002,-1.1212042e-002,1.6874504e-001,-9.5960521e-002,1.9362427e-002,-4.4498558e-003,1.7520839e-002,3.7233129e-001,-8.1776877e-002,-5.9463777e-002,-1.3195563e-001,8.2439721e-002,1.2172345e-001,-9.0816026e-003,0.0000000e+000,0.0000000e+000,-2.3005357e-001,6.9309514e-002,-8.7337242e-002,-8.8926350e-002,9.6802628e-002,9.0997729e-002,4.5483016e-002,1.1105065e-002,2.7457914e-002,-1.4114065e-001,-3.9356147e-002,-4.0183046e-002,-6.4310026e-002,-5.1250077e-002,0.0000000e+000,0.0000000e+000,1.1242472e-001,-6.5246220e-003,4.4742618e-002,2.9562021e-001,-1.2049377e-001,3.2762297e-003,-2.1875810e-001,-1.4702166e-001,5.7081399e-002,1.4388005e-001,1.7896800e-001,-3.0948969e-002,-1.3217886e-001,2.4155731e-002,0.0000000e+000,0.0000000e+000,9.5863836e-003,-9.7080137e-003,1.0334659e-001,-3.4709467e-002,6.9410325e-002,9.9747770e-002,-2.1657555e-002,6.4757199e-002,-5.4007352e-002,-3.1422805e-003,-2.1499544e-003,1.0222453e-001,-2.0589055e-001,-2.2785379e-002,0.0000000e+000,0.0000000e+000,5.2875118e-002,5.8162356e-002,3.9536873e-002,-9.2746491e-002,8.1247355e-004,1.1285100e-002,8.5857324e-002,-1.1595467e-001,-6.5363229e-002,2.0205816e-002,4.9945227e-002,-1.1204806e-001,1.1074291e-001,-5.3614632e-002,0.0000000e+000,0.0000000e+000,-6.7318800e-002,-1.5214842e-001,-6.9961211e-002,-2.1730804e-002,-1.2656285e-001,-7.8959337e-002,9.1687200e-002,6.1836893e-002,2.9236410e-003,1.6251564e-001,-1.5914790e-001,-1.6532486e-002,3.1918855e-002,-8.1922958e-002,0.0000000e+000,0.0000000e+000,6.2579338e-002,-8.9691394e-002,
,24,-2.5319954e-001,1.2328622e-003,4.5699015e-002,-1.8500975e-001,1.7883854e-001,1.5974581e-002,4.0341751e-002,9.9692885e-002,-1.9695470e-001,-2.9305428e-001,4.8468864e-002,-9.4045718e-002,0.0000000e+000,0.0000000e+000,-4.3013622e-002,2.3374462e-001,1.7514131e-002,-1.3266756e-001,9.6545090e-002,-3.3358235e-002,-9.8800560e-003,1.8867727e-001,7.8546748e-002,-3.5781844e-002,1.1714256e-001,-3.2958278e-001,4.1782141e-002,7.2066268e-002,0.0000000e+000,0.0000000e+000,9.4892722e-002,8.4176243e-003,6.6321106e-002,7.0233197e-003,-1.4402527e-001,3.3863022e-002,-1.2024648e-001,-1.2571104e-001,1.3186818e-001,5.9120415e-004,1.1917707e-001,8.7659979e-003,7.9068090e-002,2.1815379e-002,0.0000000e+000,0.0000000e+000,-1.1425555e-001,-1.6058080e-002,-1.2289421e-001,1.0049086e-001,-8.8719479e-002,3.2487380e-002,6.8353018e-002,-4.0485463e-002,-5.3727036e-002,7.2980425e-002,-6.3856454e-002,-4.5280024e-002,4.5968017e-002,-8.5056331e-002,0.0000000e+000,0.0000000e+000,8.5838525e-002,2.3739288e-002,-5.2482820e-002,7.3698158e-002,-7.6536461e-002,-3.8679484e-002,1.1100537e-001,-1.1932138e-002,1.3703090e-002,-5.2779612e-003,1.4547210e-001,-6.8095188e-003,-6.2495006e-002,7.0102122e-002,0.0000000e+000,0.0000000e+000,-1.0183392e-001,-5.3495943e-003,-7.6526443e-003,-3.6985857e-002,9.8794643e-002,-8.0566997e-002,5.5723312e-002,5.9677635e-002,-7.2052057e-002,3.5490584e-002,-9.3841820e-002,-2.3655083e-002,3.7915258e-002,-1.1693955e-003,0.0000000e+000,0.0000000e+000,-6.5613167e-003,5.6246073e-002,-1.2457804e-001,-2.0231951e-002,-7.7114191e-002,1.9045000e-002,-1.4267255e-001,1.6144059e-001,1.0315539e-001,-7.7975248e-002,8.5544804e-002,-7.9735233e-002,-1.9047572e-002,-3.4441755e-002,0.0000000e+000,0.0000000e+000,9.9100852e-003,7.7642010e-002,6.2356002e-002,-6.4913764e-002,-1.0132586e-001,-2.8892863e-002,-1.6810581e-001,1.3100014e-001,9.4286415e-002,9.5333109e-002,1.0246648e-001,-1.1003733e-001,-4.5611502e-002,-2.0941240e-002,0.0000000e+000,0.0000000e+000,5.4290563e-002,-9.1783676e-003,2.3380078e-002,7.9754470e-003,-4.7141345e-002,9.3203011e-003,2.6543045e-001,-1.6868006e-001,1.8070832e-001,6.9198671e-002,-6.9708881e-002,3.3554823e-002,2.3875973e-002,-1.9790497e-002,0.0000000e+000,0.0000000e+000,-2.0014190e-001,-5.1584882e-002,-8.8539974e-002,2.4881341e-002,-1.0439787e-001,3.7760866e-002,-4.8980077e-004,2.5515243e-003,2.2356877e-002,-6.4233956e-002,4.4126935e-002,1.1023105e-001,-1.5381596e-001,9.0955391e-002,0.0000000e+000,0.0000000e+000,2.6837413e-002,-3.4725233e-002,
,36,8.1596278e-002,-1.2366225e-001,-4.9982297e-002,-3.1548604e-002,9.2256179e-002,-2.8040512e-001,2.0556913e-001,-1.0934349e-001,7.1393795e-002,8.9657476e-002,-7.1584184e-002,9.4959869e-002,0.0000000e+000,0.0000000e+000,7.1953374e-002,-8.3972976e-002,1.9749873e-001,-3.5494806e-002,1.1117392e-002,-4.4445405e-002,-1.8802163e-001,-1.7857822e-002,-7.8356005e-002,4.0560606e-002,1.6324024e-001,8.4255214e-002,1.7582062e-002,9.5006651e-003,0.0000000e+000,0.0000000e+000,-7.9017933e-003,-3.3081357e-002,4.5310065e-002,-1.4569178e-002,-8.7338348e-002,6.8063540e-002,1.4851660e-002,-3.5805181e-002,1.0136268e-002,-3.9557029e-002,-1.7641220e-002,1.6398239e-001,1.0290374e-001,-9.7964618e-003,0.0000000e+000,0.0000000e+000,-1.9750765e-001,-1.0417940e-001,-9.4456146e-002,2.2991477e-002,9.5122148e-002,-1.4314520e-002,1.3613807e-002,1.1937870e-001,-9.6843644e-002,-1.3400365e-002,-5.8619179e-002,-6.5919218e-002,1.4344750e-002,1.2625422e-001,0.0000000e+000,0.0000000e+000,8.3358977e-002,5.7767378e-002,1.1875484e-001,2.9506764e-002,9.6881739e-002,-2.0310219e-002,-6.0597749e-002,-1.9788427e-002,6.4986879e-002,8.0166005e-003,-7.3482518e-002,3.7247306e-002,-6.3100675e-002,-6.4028457e-002,0.0000000e+000,0.0000000e+000,-1.1392069e-003,3.2411791e-002,7.3048843e-002,-1.4677935e-001,1.0171076e-001,-5.7700269e-002,-6.3119870e-002,-5.9538161e-002,3.7353635e-002,-5.4016885e-002,-5.2685260e-002,1.1830637e-001,-1.2210101e-001,2.5450846e-002,0.0000000e+000,0.0000000e+000,2.4893704e-002,2.4058395e-002,-7.2646741e-002,-2.3835095e-002,-2.1223901e-001,8.6528059e-002,8.2668003e-002,-6.3939311e-002,1.4466900e-001,-1.7368915e-001,-1.0568905e-001,-8.2284821e-002,4.6040597e-002,6.8339014e-002,0.0000000e+000,0.0000000e+000,-4.5066539e-002,2.3722994e-003,6.2457382e-002,1.8742863e-002,1.8167305e-002,5.3433267e-002,-1.2320971e-001,9.6061256e-002,-7.9098164e-002,1.0359109e-001,6.5126553e-002,-1.2757128e-001,5.4507262e-002,-7.8704670e-002,0.0000000e+000,0.0000000e+000,-5.2840545e-002,-6.7993046e-003,1.7602542e-001,4.1586350e-002,-1.3057684e-001,-6.4608711e-002,-9.1608376e-002,4.2874734e-002,6.0761670e-002,2.4388543e-002,6.0002981e-002,5.4689701e-002,7.0932189e-002,-2.3717335e-002,0.0000000e+000,0.0000000e+000,-5.1569752e-002,-4.1272533e-003,-4.6894276e-002,-6.1494718e-003,-4.4082696e-002,9.5161215e-002,5.9628866e-002,7.3305289e-003,-1.0016381e-002,-1.0130824e-001,-5.3761296e-003,-1.7259252e-002,8.0125024e-002,-7.1350205e-002,0.0000000e+000,0.0000000e+000,8.3354713e-002,1.7403641e-002,
,48,-5.9184481e-002,1.5924264e-001,-1.0356374e-001,-9.8182974e-002,3.5756942e-001,-3.0552286e-001,2.0777653e-001,7.0566839e-002,-5.0910975e-001,2.3373420e-001,-1.7476610e-001,2.0269512e-002,0.0000000e+000,0.0000000e+000,-5.1754600e-002,1.8153289e-001,8.6704108e-002,-3.8033930e-002,3.2706340e-002,7.2355553e-002,-1.4606850e-001,9.9525957e-002,-6.8273577e-003,-6.2364649e-002,5.5810005e-002,-1.1899561e-001,-6.4985072e-002,8.0354204e-002,0.0000000e+000,0.0000000e+000,6.0800981e-002,-4.1444912e-002,2.7098761e-002,1.8667626e-002,-1.8702703e-001,6.8008084e-002,5.8830885e-002,-1.4149485e-002,1.1162015e-001,-1.9208301e-002,-1.2362231e-001,1.1650910e-001,5.9828702e-002,-8.7894203e-002,0.0000000e+000,0.0000000e+000,-1.5486520e-001,5.5658248e-002,8.4524584e-002,-4.6758936e-003,5.5825050e-002,-2.7036854e-002,-6.9144436e-002,-3.4872266e-002,-6.0862204e-002,7.7377213e-002,-3.6295535e-002,1.1629565e-001,-1.4393854e-001,-7.6792599e-003,0.0000000e+000,0.0000000e+000,4.5057771e-002,-9.2237805e-002,1.0428157e-001,6.6496906e-002,-1.2907579e-001,2.6159223e-002,5.8144022e-002,-7.8060458e-002,4.2984244e-002,-6.9902771e-002,-1.0412590e-001,7.6666315e-002,-1.1288147e-002,8.0017134e-002,0.0000000e+000,0.0000000e+000,-1.4882422e-001,3.8988475e-002,-2.5451261e-001,1.0842038e-001,7.5227401e-003,3.7551651e-002,1.3327117e-001,-6.6012765e-002,3.8185965e-002,1.3550509e-001,3.2834377e-002,-3.2815650e-002,-1.0712431e-001,-2.5522743e-002,0.0000000e+000,0.0000000e+000,4.0916789e-002,-2.7478511e-002,1.1203208e-001,-7.7066396e-002,9.0019511e-002,-8.2750519e-003,-1.2410267e-001,5.6998119e-002,-7.6382506e-002,-1.4913625e-002,3.4731765e-002,-1.0804795e-001,1.2029134e-001,-5.1402076e-002,0.0000000e+000,0.0000000e+000,8.7525248e-002,-6.5845441e-002,9.9862867e-003,-1.3593892e-001,-7.1097350e-003,-3.9458860e-002,5.2867020e-002,4.4887578e-002,-4.7910073e-002,-2.2786535e-002,-1.4593267e-001,5.9615719e-002,2.7280109e-002,8.7914588e-002,0.0000000e+000,0.0000000e+000,-5.4569327e-002,7.8122083e-002,-3.8447029e-002,1.2572649e-001,-1.2908670e-001,1.8379475e-002,4.7936645e-002,-4.6225694e-002,1.2730550e-001,7.0313970e-003,6.8444766e-002,5.2657299e-002,-1.0760465e-001,1.2769460e-001,0.0000000e+000,0.0000000e+000,-8.3937547e-003,2.6566831e-002,-2.5601658e-002,-2.1774581e-002,2.3027082e-002,7.6060324e-002,7.7944033e-003,-8.3170086e-002,9.6868984e-002,1.2787411e-002,6.3275969e-002,-1.0414665e-001,-7.2874540e-002,-1.0903324e-001,0.0000000e+000,0.0000000e+000,-3.2924168e-003,2.8576628e-003,
,62,6.3833917e-003,1.1274601e-001,9.3171383e-003,-9.4997516e-002,1.3144418e-001,-3.2649312e-001,3.8981797e-002,1.1580350e-001,-2.8137111e-001,1.7323096e-001,-3.7200993e-002,-6.5068645e-002,0.0000000e+000,0.0000000e+000,9.3673305e-003,6.3548665e-002,1.0367919e-001,-3.6260974e-003,-4.4293201e-003,4.8732796e-002,-8.0951003e-002,5.6685896e-002,-2.8572375e-002,-2.8264640e-002,-6.4843762e-003,2.3440089e-002,-8.4303532e-002,-3.7764616e-002,0.0000000e+000,0.0000000e+000,-2.6299640e-003,8.8327399e-003,1.9155631e-002,-7.3411653e-002,5.7460448e-002,-5.0257806e-002,6.8149457e-002,-2.0248117e-002,-5.8292340e-003,-1.5651342e-002,-6.1120560e-002,8.5541653e-002,1.3530183e-002,1.8278460e-002,0.0000000e+000,0.0000000e+000,-1.4580610e-001,9.3021096e-002,2.1034291e-002,-2.3242894e-002,1.7408085e-002,-3.3351133e-002,-2.7722521e-002,2.9006078e-002,7.2605557e-003,3.1438351e-002,-5.8398335e-002,3.3219283e-002,-7.4722483e-002,-5.7990162e-002,0.0000000e+000,0.0000000e+000,7.5195115e-002,1.3446175e-002,1.0443928e-001,-6.0882629e-002,-7.7902043e-003,1.7477109e-003,2.6459079e-002,-3.3173125e-002,9.4947528e-002,-8.5177661e-002,-6.5121904e-002,4.9698758e-002,-4.9191439e-002,1.4724370e-002,0.0000000e+000,0.0000000e+000,-8.0894606e-002,6.0712627e-002,-1.0068526e-001,2.9523168e-002,-2.4939228e-002,1.6134375e-002,7.0252777e-002,-3.1954376e-002,-2.9617610e-003,1.1460387e-002,5.4104986e-002,-1.8356826e-002,-1.2964836e-002,-7.8868294e-002,0.0000000e+000,0.0000000e+000,9.7846013e-003,3.9218758e-002,-3.4547870e-003,-1.3591340e-002,-1.0881804e-001,4.8979332e-002,3.8679741e-002,-4.1052028e-002,4.6803143e-002,-2.4584431e-002,2.0650154e-002,9.7179469e-003,5.4420346e-002,-5.9962975e-002,0.0000000e+000,0.0000000e+000,-1.4045159e-002,-8.3087000e-003,-6.5326876e-002,4.4924287e-002,-6.5316686e-002,8.0978656e-002,1.1039936e-001,-6.8401289e-002,-1.2250523e-002,4.7914216e-003,-6.8505097e-002,-2.4226250e-003,-1.1478336e-001,1.4124775e-001,0.0000000e+000,0.0000000e+000,4.8608459e-002,1.7166045e-002,5.7526693e-003,3.1828167e-002,-6.6920431e-004,-7.2355336e-002,-3.4526626e-002,8.0172346e-002,1.0244856e-001,7.3692040e-002,5.9540937e-002,-1.9775646e-002,-2.8070312e-002,-3.3065346e-002,0.0000000e+000,0.0000000e+000,-6.9751418e-002,-3.1330312e-002,4.3506266e-002,-7.7157817e-002,3.7223476e-002,-5.9339762e-002,-3.4781839e-002,-2.7664587e-002,-5.9068493e-003,7.3742825e-002,-4.5466289e-002,1.1260387e-002,-2.7702103e-002,-5.7909780e-002,0.0000000e+000,0.0000000e+000,2.2496456e-002,5.6355228e-002,
,76,-1.6121941e-001,5.0205562e-002,1.7048374e-002,-1.9620403e-002,1.1808445e-001,1.5461253e-002,-3.4357223e-002,-2.3848002e-002,-1.9164798e-001,-2.3538608e-002,1.1935400e-001,-2.9666499e-002,0.0000000e+000,0.0000000e+000,1.6113705e-002,3.7785446e-002,2.2239882e-001,-7.0373263e-002,1.1274110e-001,-2.8507653e-002,-9.5554258e-002,-3.3253999e-002,4.9417744e-002,-2.1391475e-001,-6.3596869e-003,5.7073094e-002,-7.2710417e-002,7.4919057e-002,0.0000000e+000,0.0000000e+000,7.0361365e-002,-1.9121802e-002,9.8358445e-002,1.1213716e-002,3.2107184e-003,7.7923243e-002,8.1774782e-002,-4.5245858e-003,2.6492638e-002,-7.5195025e-002,-3.9826070e-002,-2.2291776e-002,1.1748893e-002,6.7513014e-002,0.0000000e+000,0.0000000e+000,-1.1383394e-001,5.9843331e-002,5.0064688e-002,-5.2879545e-002,-2.4846897e-002,2.3276266e-002,-5.7027651e-002,6.7663173e-002,4.1290554e-002,7.8798594e-003,5.4837487e-002,-5.4796869e-002,-3.1226539e-002,9.8912552e-004,0.0000000e+000,0.0000000e+000,2.6081880e-002,-1.9542926e-002,2.8536602e-002,-7.2353834e-002,-3.1571348e-002,-3.6745226e-002,-3.2714959e-002,3.4428901e-002,-2.9472851e-002,-3.4648384e-004,2.2265370e-002,6.7061575e-002,6.1324997e-002,-5.0827778e-002,0.0000000e+000,0.0000000e+000,-1.5070568e-001,8.4341374e-002,-1.0295668e-001,3.6479667e-002,-2.4020987e-002,-4.0361203e-002,1.1552490e-002,1.8455378e-002,-6.9076673e-002,8.4387539e-002,7.9550656e-003,-2.4505397e-002,1.0853143e-004,-5.8821138e-002,0.0000000e+000,0.0000000e+000,1.1327203e-001,4.6209456e-002,5.5705664e-002,4.5009875e-002,-7.1751172e-002,-4.9725625e-003,2.4875601e-001,2.1070660e-002,1.6394925e-001,-9.7248610e-003,-1.3552499e-001,-3.7701369e-002,-1.1879827e-001,4.3238084e-002,0.0000000e+000,0.0000000e+000,1.3155735e-001,-2.1593579e-002,6.4718403e-002,-5.4266672e-002,8.2242619e-002,-3.0760836e-002,-2.4254887e-002,1.2760447e-001,-1.3964812e-001,9.5288634e-002,1.0389182e-001,-1.2238452e-001,1.6848575e-002,3.3839646e-002,0.0000000e+000,0.0000000e+000,6.0921438e-002,-2.7231089e-002,1.0749290e-001,-1.4690332e-002,1.4614892e-002,3.5614760e-002,-1.6715037e-001,-4.7559947e-002,-4.8978838e-002,-1.2487352e-003,1.3974121e-001,6.9054428e-004,1.0483177e-001,-4.1687542e-002,0.0000000e+000,0.0000000e+000,-9.7599025e-002,-2.6565482e-002,-4.2642316e-002,-3.6662917e-002,3.0593033e-002,-2.8836034e-002,3.3072182e-002,-4.5319171e-002,-2.8750076e-004,2.8153193e-002,-1.1284312e-001,2.2104747e-002,-6.7968147e-002,1.0165795e-002,0.0000000e+000,0.0000000e+000,-3.0883681e-002,5.1499799e-002,
,88,-1.5926373e-001,2.6834917e-001,-8.2415433e-002,-2.9233715e-002,9.0340436e-002,-3.0530242e-001,8.5990812e-002,6.1771800e-002,-1.2224693e-001,1.9671135e-001,-1.4990230e-001,2.7171688e-002,0.0000000e+000,0.0000000e+000,5.5619838e-002,-2.0727738e-002,2.2143614e-001,-1.3054219e-001,5.7509759e-002,-6.9558409e-002,-1.3702611e-001,-1.3458089e-001,1.7548757e-001,-1.0072954e-001,1.4907790e-001,1.5748034e-002,-5.0868828e-002,-3.9936940e-002,0.0000000e+000,0.0000000e+000,1.0060368e-002,-9.1392518e-002,1.3681473e-001,-3.9756619e-002,-5.5134119e-002,-3.0412785e-002,5.4156562e-003,-2.6148829e-002,-5.9061487e-003,1.3541905e-002,-1.5101057e-002,6.0980776e-002,5.6779489e-002,-8.6019097e-002,0.0000000e+000,0.0000000e+000,-1.4451003e-001,-7.8807296e-004,-2.8613800e-002,-2.2023065e-002,-3.8364825e-002,1.3047463e-001,9.7263595e-003,2.9112976e-002,-3.1455788e-002,-6.9263915e-002,-5.0175731e-002,3.6551440e-002,-9.4848181e-002,4.6249110e-002,0.0000000e+000,0.0000000e+000,6.9000013e-002,-2.6667328e-003,-5.8588051e-002,-4.0311911e-002,-6.8669516e-003,1.8856738e-002,-9.0638092e-002,6.5033259e-002,-2.0485986e-002,-6.0847022e-002,5.2428246e-002,-4.1450086e-002,-7.2521610e-002,-4.5834455e-002,0.0000000e+000,0.0000000e+000,-6.1010707e-002,-5.8499884e-002,-8.5050316e-002,3.7222346e-003,-2.8534978e-003,1.2397075e-001,-1.5302322e-002,6.1517837e-002,2.5868704e-002,-1.0675378e-002,-1.2116106e-002,-9.6889890e-002,2.0235396e-002,5.5737823e-002,0.0000000e+000,0.0000000e+000,8.6320930e-002,-2.9147319e-003,5.3876394e-002,1.7174376e-001,-9.0314670e-002,1.8554829e-002,6.6075087e-002,4.1781850e-002,-2.3936238e-002,-6.9579783e-002,-4.2545431e-002,2.8603436e-002,-2.7474711e-002,9.2253329e-002,0.0000000e+000,0.0000000e+000,-3.1522205e-002,9.9950849e-003,-2.0924825e-002,-3.2552413e-002,-8.2994106e-004,-7.3727432e-002,8.9632594e-002,-8.4393386e-002,5.5356983e-003,8.3548504e-002,-9.4689510e-003,-9.6187029e-002,-9.3210210e-002,-2.8586698e-002,0.0000000e+000,0.0000000e+000,4.5479794e-002,1.4435308e-001,5.6392311e-002,-4.1486075e-002,2.2483728e-002,2.7866740e-002,-1.6024219e-002,-7.1140889e-002,1.1896155e-001,-5.5821323e-002,1.0190529e-001,-1.1048243e-001,1.0965417e-001,2.4067991e-002,0.0000000e+000,0.0000000e+000,-1.6914570e-002,1.8831330e-002,-9.7159562e-003,2.9002850e-002,-9.1366015e-002,7.3919380e-002,-6.8627193e-002,1.2499489e-001,-3.1940837e-002,9.7800682e-002,2.8700171e-002,5.2717794e-002,-1.0641755e-001,-1.1057424e-001,0.0000000e+000,0.0000000e+000,-1.1143475e-002,-6.7992791e-002,
,100,3.1531363e-002,4.1340873e-002,-1.7458258e-001,1.4043941e-001,3.9079052e-002,-3.2963938e-001,3.0092575e-001,-2.0601719e-001,-2.1741957e-001,9.9355932e-002,-2.0707775e-001,1.5242505e-001,0.0000000e+000,0.0000000e+000,4.9773528e-002,9.5715257e-002,1.4711413e-001,-8.0198648e-002,-1.7451980e-002,9.3453643e-002,-1.3884325e-001,1.6041034e-001,1.0728826e-002,-3.4683354e-002,-3.0232975e-002,-4.0156901e-002,-7.9938912e-002,1.3386841e-002,0.0000000e+000,0.0000000e+000,4.4874035e-002,1.1575860e-001,1.3887369e-001,-1.6319173e-001,-2.7403687e-002,2.2185372e-002,8.3646719e-002,9.3744459e-002,1.0830479e-001,-5.0979143e-002,-1.0002826e-001,5.8607563e-002,1.9672437e-002,-3.9238858e-002,0.0000000e+000,0.0000000e+000,-1.0838353e-001,-1.1716658e-002,5.1438768e-002,5.8207114e-003,1.8602639e-002,5.8521842e-002,-1.9915802e-002,3.6216177e-002,-6.4001499e-002,1.1750810e-001,-1.5139289e-002,-1.0466381e-002,1.5920881e-002,-1.3840285e-001,0.0000000e+000,0.0000000e+000,1.0529431e-001,3.2026362e-002,1.1293925e-001,7.6512201e-002,-9.3517674e-002,1.2872428e-002,7.0108605e-002,-1.0144222e-001,-7.4231899e-003,1.4489496e-002,1.6136597e-002,-1.2771873e-001,1.2835626e-001,-7.3944074e-002,0.0000000e+000,0.0000000e+000,3.2825623e-002,9.6077816e-003,5.0638125e-002,-7.6294484e-002,3.0583882e-002,-4.5063827e-002,-2.0353365e-001,3.0816655e-002,-5.2549511e-002,7.4942985e-002,1.1320814e-001,9.8944418e-004,-1.6437563e-002,-9.6697120e-002,0.0000000e+000,0.0000000e+000,1.2128731e-001,3.0398405e-002,2.6942029e-002,-1.1833476e-001,-2.8274424e-002,-1.3396997e-001,-6.8936220e-002,1.7565267e-001,1.0094093e-001,-1.9254840e-003,-2.1883391e-003,-3.2017745e-002,-1.9980075e-001,5.4952020e-002,0.0000000e+000,0.0000000e+000,2.4106023e-002,4.7663772e-002,-5.8987931e-002,-5.7700430e-002,8.5430032e-002,1.9309947e-002,-1.1302827e-001,7.3447215e-002,4.3445918e-002,-1.1815816e-001,5.8200350e-002,-8.1744392e-002,-3.9362418e-002,9.3112857e-002,0.0000000e+000,0.0000000e+000,-1.5076240e-002,7.3410304e-002,1.2176204e-002,8.2207348e-002,-1.4207279e-001,6.0824722e-002,1.4176383e-001,-3.0474475e-002,8.8798822e-002,-7.5645696e-002,2.8528739e-002,3.0516528e-002,8.1613809e-002,-3.3430287e-002,0.0000000e+000,0.0000000e+000,-1.4420480e-001,9.5557083e-003,4.5164376e-003,2.2948959e-002,-9.3560530e-002,1.5794215e-001,6.3727473e-002,-1.0485637e-001,-5.6383270e-002,2.9369826e-002,1.8852520e-002,9.5011723e-002,3.4923851e-002,-1.7756691e-002,0.0000000e+000,0.0000000e+000,6.5342336e-002,-1.7413139e-001,
,112,-1.5545345e-002,9.2743509e-002,-7.9536720e-003,1.5658310e-002,-1.7370178e-001,3.4507261e-002,5.7889201e-002,-3.7242679e-002,1.6531410e-001,-2.9386467e-001,4.9041794e-002,-1.5130409e-001,0.0000000e+000,0.0000000e+000,1.7173344e-001,7.3685494e-002,1.0075488e-001,-6.7612484e-002,4.2439794e-002,1.7645767e-002,-4.6938189e-002,9.8142280e-002,-3.6394928e-002,2.5114377e-002,1.0708648e-001,-1.0512960e-001,1.3149682e-001,-8.0484029e-002,0.0000000e+000,0.0000000e+000,3.9498966e-004,4.9640902e-002,5.3460219e-002,-1.2979331e-001,-3.4034704e-002,8.1196290e-002,2.7755735e-002,1.6307145e-001,-1.6922997e-002,-2.4496959e-002,-5.1214393e-002,-5.9283767e-002,-2.1863140e-002,4.9336188e-002,0.0000000e+000,0.0000000e+000,-4.7120822e-002,6.1366654e-002,-1.5128049e-001,5.0188090e-002,-1.4785024e-002,3.6513929e-002,1.4096605e-004,-5.8050365e-002,-4.1067923e-002,5.9952473e-002,3.0021376e-002,5.7177323e-002,-8.8368354e-002,-3.9059539e-003,0.0000000e+000,0.0000000e+000,3.0271684e-002,6.5133906e-003,-1.1842694e-001,-9.3776799e-002,-4.5865878e-002,5.0402808e-002,9.5921480e-002,4.4160595e-002,9.6262067e-002,-5.1117086e-002,-5.6941790e-002,2.0058294e-002,3.5980062e-002,-2.8606892e-002,0.0000000e+000,0.0000000e+000,-7.1751398e-002,1.6185158e-002,2.4387040e-001,-1.0956642e-001,2.1578123e-002,-5.3783784e-002,-2.7222971e-001,8.7190670e-002,4.4079858e-002,3.1438640e-002,-3.0712602e-002,-7.9819764e-002,5.0611585e-003,9.2522845e-003,0.0000000e+000,0.0000000e+000,6.2013564e-002,5.8106288e-002,6.9752002e-002,1.2850064e-001,-9.8925843e-002,-6.3870848e-002,-1.7312335e-001,3.0601160e-003,1.2421530e-001,-7.5972822e-002,5.0862439e-002,-5.2590303e-002,3.4475861e-002,3.9521500e-002,0.0000000e+000,0.0000000e+000,-7.8854594e-002,-2.4831203e-002,1.4845071e-001,-1.8545601e-002,2.7129329e-002,1.2655179e-001,-1.2270215e-001,-2.4618240e-002,3.7785881e-002,7.2633612e-002,-6.3191305e-002,7.1692176e-002,-1.5757103e-001,8.5677457e-003,0.0000000e+000,0.0000000e+000,-9.5183156e-002,1.4858655e-001,2.0143345e-001,-1.2835103e-001,6.4776622e-002,1.1374035e-002,1.0474757e-002,-4.7605367e-002,2.3902033e-002,-7.3145673e-003,7.9222366e-003,2.5424335e-002,-4.8181488e-002,-4.6417470e-003,0.0000000e+000,0.0000000e+000,6.2127872e-002,1.0630141e-001,-8.8777177e-002,2.5069867e-002,-1.3779075e-001,2.9484642e-002,-3.5830206e-002,2.0436411e-002,-5.2464107e-002,-4.7087050e-002,-1.4696413e-001,-4.1884127e-002,6.5162178e-002,-4.3809697e-002,0.0000000e+000,0.0000000e+000,7.8777264e-002,-8.1903920e-002,
,124,1.8339063e-002,1.9602859e-002,-1.2737419e-002,-2.1612392e-001,-1.1721592e-001,6.8394881e-002,9.2972832e-002,1.5709737e-001,-7.9948358e-002,-1.6126279e-001,-1.3327701e-001,-1.7769504e-002,0.0000000e+000,0.0000000e+000,2.4058999e-001,2.4939860e-002,9.6720480e-002,-1.3411559e-001,3.9504905e-002,-5.6077832e-002,8.2675904e-002,1.0402582e-001,7.1026044e-002,-1.0577446e-001,-1.2778405e-001,-1.2963049e-002,-1.0396401e-001,9.6027187e-002,0.0000000e+000,0.0000000e+000,6.2449929e-004,1.5310326e-001,1.2932629e-001,-2.5970658e-002,-5.5757889e-002,7.3248689e-002,1.6118812e-003,4.9650841e-002,8.6485914e-002,-5.9257551e-002,1.5433043e-002,3.6324647e-002,-5.7694304e-002,1.2850397e-001,0.0000000e+000,0.0000000e+000,-2.2638748e-002,-6.3820184e-002,-2.2735657e-002,4.1833839e-002,-9.2130839e-003,2.1738096e-002,-2.6132166e-002,-6.6068409e-002,8.1925781e-002,-7.3607324e-002,8.1502955e-002,-5.4708941e-002,2.5780199e-002,2.0798562e-002,0.0000000e+000,0.0000000e+000,1.5584625e-001,-2.2837900e-002,1.5242700e-001,-1.4821636e-001,9.8048131e-002,-3.0087017e-002,-8.4326021e-002,9.5076946e-003,-1.8702528e-002,8.4620998e-002,-5.0460330e-002,8.3842300e-002,-6.9119642e-002,-8.7913356e-002,0.0000000e+000,0.0000000e+000,-3.2150842e-002,9.0603726e-002,2.3552825e-002,1.3076469e-002,1.7032653e-002,-2.8065828e-002,-2.4609655e-001,1.0689198e-001,-3.2132961e-002,8.8536930e-002,8.4341273e-002,-2.4757908e-002,-8.5033215e-002,1.0914404e-001,0.0000000e+000,0.0000000e+000,2.2067220e-002,-5.7818072e-002,-2.9691913e-002,1.7205297e-001,-8.7891028e-002,4.6224872e-002,1.4072761e-001,-3.9113049e-002,8.5913134e-002,-7.2739532e-002,3.4436159e-002,3.2041440e-002,-2.9760377e-002,6.9197816e-002,0.0000000e+000,0.0000000e+000,4.3464120e-002,-9.1900684e-002,-1.8002198e-001,-5.5463624e-002,-8.0270182e-002,2.2723523e-001,3.4633492e-001,-1.0810326e-001,-4.4223797e-002,1.6139596e-002,-8.3068230e-002,2.4108182e-002,5.2241262e-002,-1.2487974e-001,0.0000000e+000,0.0000000e+000,-2.6029176e-002,1.0096932e-001,1.2159092e-001,9.1585139e-002,-1.0070924e-001,1.0876849e-001,-7.4007520e-002,-9.4934479e-002,-9.3622730e-002,-2.6949719e-002,4.9490652e-002,-1.4271886e-001,8.9183739e-002,4.7943339e-002,0.0000000e+000,0.0000000e+000,-1.4117739e-001,7.2510294e-002,8.1890282e-002,-6.6644553e-002,1.0477994e-001,-7.4075291e-002,-2.4318692e-001,-3.9651603e-003,-2.7191381e-003,2.0352822e-002,6.9184501e-002,-2.4591941e-002,8.3682730e-003,2.6657634e-002,0.0000000e+000,0.0000000e+000,4.5959804e-002,-4.1835462e-002,
,136,-8.0037097e-003,1.5227580e-002,-1.1808702e-002,-4.2746931e-002,-1.6713119e-001,1.6284200e-001,7.0825458e-002,-1.2540123e-001,-8.6661496e-002,-2.9785528e-001,-8.8464769e-002,2.3993384e-001,0.0000000e+000,0.0000000e+000,2.4154013e-001,1.2808954e-001,-1.8001666e-001,2.2061173e-001,6.9097439e-003,8.8621442e-002,1.7676509e-001,-2.7267760e-001,6.5136479e-002,-2.5394740e-002,1.6816322e-001,9.1651775e-002,-1.2233276e-001,1.4062304e-001,0.0000000e+000,0.0000000e+000,6.0504683e-002,-5.7146937e-002,7.2767483e-002,-5.2456003e-003,-1.1826435e-002,5.0649639e-003,-7.1254949e-002,-1.4495673e-002,-3.7262349e-002,-2.2038664e-002,4.3882450e-002,-6.2536447e-003,7.4644969e-002,5.1603592e-003,0.0000000e+000,0.0000000e+000,-1.8756297e-001,8.0977639e-002,-1.4347977e-001,-7.3361323e-002,3.1905520e-002,-3.2403179e-002,3.8108556e-002,8.9503611e-002,-1.0634649e-002,-6.9222958e-002,-1.1871083e-001,7.1276133e-002,-1.7292982e-001,1.4344378e-001,0.0000000e+000,0.0000000e+000,5.7738248e-002,1.0800560e-001,1.6585854e-001,7.4878586e-002,-4.7449185e-002,1.0791077e-001,-3.2995289e-003,-1.3853357e-001,-3.7111987e-002,1.9023941e-002,2.2254676e-001,-2.5297657e-002,2.7908308e-002,-5.7051196e-002,0.0000000e+000,0.0000000e+000,-4.1903478e-002,2.0246469e-003,2.0647323e-001,4.7047833e-002,-8.4107938e-002,3.7798702e-002,-2.4503823e-001,-1.8086997e-002,-2.0108871e-002,1.1613409e-001,5.4244840e-003,-6.3059385e-002,2.0217372e-002,-1.9972262e-002,0.0000000e+000,0.0000000e+000,8.5194744e-002,-8.7190546e-002,-5.1445501e-002,8.4261905e-002,1.6006287e-002,4.6633095e-003,2.3930677e-001,-2.6901962e-002,1.0695379e-002,8.0235475e-002,-1.6614053e-001,-2.1824866e-002,-5.6320125e-003,-1.5448031e-001,0.0000000e+000,0.0000000e+000,1.0676872e-002,1.6346134e-001,-9.8157435e-002,1.4269606e-001,-3.2610359e-002,1.1933899e-001,2.1308833e-001,-1.5107880e-001,3.1239771e-002,4.8589693e-002,1.7603101e-001,7.0002337e-003,4.9037940e-002,5.7908587e-002,0.0000000e+000,0.0000000e+000,-3.2725825e-002,1.1586484e-001,-1.5759063e-002,8.8248640e-002,-8.7989594e-002,1.1846033e-001,-2.8953738e-001,1.2580411e-001,1.8862499e-002,-6.9283099e-002,-3.7618464e-003,-1.6442306e-002,-3.3991429e-002,-4.8758140e-003,0.0000000e+000,0.0000000e+000,-7.1240187e-002,-1.0779978e-001,1.6315469e-001,-2.0541964e-001,-8.2981441e-002,-2.3793494e-002,-1.9097457e-001,9.3596504e-003,7.6022201e-002,-2.5978585e-002,-1.5805750e-001,-3.1284859e-002,-7.8170258e-002,-3.5982218e-002,0.0000000e+000,0.0000000e+000,1.2374956e-001,-1.7446242e-002,
,148,-8.6787350e-002,1.4157795e-001,-1.5433044e-001,1.1734183e-001,1.1503602e-001,-1.5294190e-001,1.6945457e-001,-1.0754670e-001,-2.1397030e-001,-4.9187862e-002,-8.4095497e-002,-9.7290619e-002,0.0000000e+000,0.0000000e+000,1.1270118e-001,1.6660492e-001,1.4072549e-001,1.5728623e-002,6.9757903e-002,-7.3758334e-002,-6.2260779e-002,-8.7669444e-002,4.9080227e-002,8.3371750e-002,2.1528798e-002,8.7507359e-002,-1.6065409e-001,4.5355239e-002,0.0000000e+000,0.0000000e+000,-4.5634953e-002,1.1288027e-001,8.1701714e-002,-9.1804605e-002,-1.4449428e-002,2.1550349e-002,-4.1508210e-002,-2.4231175e-002,5.8099943e-002,9.4831328e-003,3.3048593e-002,3.6985518e-002,2.4054465e-002,-7.8150556e-002,0.0000000e+000,0.0000000e+000,-8.1867826e-002,-2.6229711e-002,5.6632909e-002,-7.8362520e-004,-2.6834646e-002,1.0313381e-001,-1.0345499e-001,8.9380397e-002,1.3874589e-003,-5.6722016e-002,3.7429167e-002,9.4738581e-003,-9.1169131e-002,3.0996751e-002,0.0000000e+000,0.0000000e+000,9.6067880e-002,5.0902073e-002,1.3940392e-001,3.4556343e-002,7.7265820e-002,6.4256511e-002,-7.2639597e-002,-1.0415237e-001,-6.4845488e-002,8.2554457e-002,-1.5461532e-002,8.5452474e-002,1.5122108e-002,-8.2957783e-002,0.0000000e+000,0.0000000e+000,-6.5311179e-002,-7.9603638e-002,-1.4058143e-003,-4.3334132e-002,-1.2684117e-001,1.1135099e-001,-3.7491854e-002,1.7768622e-001,-1.3829224e-001,5.1556591e-002,-8.1326462e-002,-1.1312323e-001,1.9792252e-001,-1.2302055e-001,0.0000000e+000,0.0000000e+000,-3.8146881e-002,6.8396000e-002,-1.0366022e-001,1.2551526e-001,1.8647045e-002,-1.2021522e-002,5.8007730e-002,-2.6470759e-001,1.1028402e-001,-7.1922023e-002,1.8094962e-001,-1.0854117e-001,2.8439204e-002,-6.3205129e-002,0.0000000e+000,0.0000000e+000,-7.4573211e-003,1.5644947e-001,2.3147023e-002,-6.1737065e-002,-3.5391534e-002,9.6317003e-002,5.1775023e-003,-2.2336131e-002,1.2108926e-001,-1.5826195e-001,-7.3067861e-002,1.9951548e-001,-2.1756033e-001,-7.9523012e-003,0.0000000e+000,0.0000000e+000,-2.7654043e-002,3.1049400e-003,8.9890159e-002,-1.2799763e-001,-6.9666681e-002,7.0051212e-003,9.9709279e-002,5.5860069e-002,-6.0510978e-003,1.4385814e-001,1.0789975e-002,1.1773359e-001,4.0616450e-004,-6.8341670e-002,0.0000000e+000,0.0000000e+000,-1.3514744e-001,-5.9048563e-002,-2.7193357e-003,6.8888907e-003,-4.7027431e-002,1.3477062e-001,-3.1886693e-003,1.7059463e-003,-1.3717559e-001,1.2012312e-001,-1.7347895e-002,-1.8145344e-001,1.6564712e-001,2.1395255e-002,0.0000000e+000,0.0000000e+000,1.0299821e-001,1.4360228e-001,
,160,-1.2145951e-002,1.1476708e-001,-1.2762871e-001,1.4912669e-002,3.7104322e-002,-2.5828598e-001,2.3453649e-001,-6.8065047e-002,-5.8309116e-002,-2.2713801e-001,1.9978046e-001,-1.2127282e-001,0.0000000e+000,0.0000000e+000,-1.6078666e-001,1.7763773e-001,-1.2776215e-001,-1.6165723e-003,-6.1506233e-002,1.8896302e-002,1.8535856e-001,5.2840655e-002,-1.3649143e-001,-6.6331337e-002,3.2424865e-003,-1.4636894e-001,1.5061104e-001,1.2858923e-001,0.0000000e+000,0.0000000e+000,1.2346892e-002,1.8660867e-003,2.9504246e-002,-6.2235124e-002,-2.6369891e-002,9.1323773e-002,-2.0762621e-002,7.7172007e-002,-4.3775991e-002,-8.0664620e-002,-6.8982591e-002,7.5845042e-002,-1.6885602e-002,-7.4653772e-002,0.0000000e+000,0.0000000e+000,-1.9854258e-001,3.0114735e-003,9.2106976e-002,-9.4458021e-003,-6.1129563e-002,7.2520593e-003,-1.0082814e-001,8.4088543e-002,-6.1070117e-002,8.3743521e-002,7.4259927e-002,9.2987940e-002,-1.6797236e-001,3.5680523e-002,0.0000000e+000,0.0000000e+000,4.3818513e-002,-7.6842465e-002,9.5042516e-002,9.9188865e-002,-1.2333562e-001,1.6784519e-001,9.3505361e-002,-8.7761554e-002,-4.7913030e-002,-7.3050996e-003,-4.3615014e-002,3.9541984e-002,2.7152565e-002,3.0565215e-002,0.0000000e+000,0.0000000e+000,4.7795768e-003,9.8663958e-003,-3.2358174e-001,1.4251731e-001,-1.2851848e-001,-1.8077905e-002,2.2889148e-001,-1.2525713e-001,-1.4605142e-001,1.8702629e-001,-1.5921766e-001,-4.4210915e-002,9.8303056e-002,-9.1182655e-002,0.0000000e+000,0.0000000e+000,3.8348766e-002,1.8565336e-001,-2.3739757e-002,1.4995379e-002,5.2465802e-003,3.5106206e-002,1.5008562e-002,-1.5144524e-001,-1.4831813e-001,-7.9056264e-002,-4.4643603e-002,4.5102306e-002,5.0876776e-002,2.5360929e-002,0.0000000e+000,0.0000000e+000,1.3856514e-001,9.5930666e-003,2.0833942e-001,-7.6024128e-002,-2.2211474e-001,2.5151749e-001,-1.1125924e-001,6.0235757e-002,-1.0367740e-001,-1.5479917e-001,6.6546583e-002,-2.7257523e-002,2.2394472e-001,-6.8711645e-002,0.0000000e+000,0.0000000e+000,2.1604153e-002,-9.1954419e-002,1.3921823e-001,6.7115097e-002,-8.9345160e-002,-2.4956488e-002,-1.4408464e-001,-1.2039185e-004,9.7683754e-002,2.0317471e-002,4.8642951e-002,-8.0292478e-002,-2.3848915e-002,-1.2825370e-001,0.0000000e+000,0.0000000e+000,-1.6279281e-001,-1.1037388e-001,-2.9516161e-002,1.0121629e-002,1.7647175e-001,-2.4729080e-002,-7.6639017e-002,2.3345381e-002,7.6532449e-002,2.2663486e-002,-3.0762678e-002,5.4793770e-002,-2.7546546e-001,-3.0236915e-002,0.0000000e+000,0.0000000e+000,1.5502639e-001,-3.8535672e-002,
,172,-1.3801898e-002,-1.4177935e-001,-2.0818853e-001,9.6611839e-002,-4.0877275e-001,5.2958870e-001,6.5602406e-002,1.8101319e-003,3.8670402e-001,-4.9293364e-001,-1.1182186e-002,-9.4747777e-002,0.0000000e+000,0.0000000e+000,-1.6569148e-002,-6.0116369e-002,-5.0575528e-002,8.0551151e-002,-1.0311375e-001,2.1923465e-002,-1.1925657e-002,-9.3253036e-002,2.6819247e-001,-1.7607780e-001,1.7122619e-001,5.0675915e-002,-3.4344941e-001,3.0080397e-001,0.0000000e+000,0.0000000e+000,1.2035976e-001,-1.6891444e-001,5.6777725e-002,-4.6339326e-002,4.3045086e-002,-4.7366948e-003,5.1159199e-002,2.5163052e-002,-8.4478442e-002,1.5888660e-002,3.5111864e-002,-4.3677865e-002,8.0673844e-002,6.7307791e-002,0.0000000e+000,0.0000000e+000,-5.3390219e-002,-4.5687032e-002,1.0224970e-001,-1.0865236e-002,1.0433678e-001,-2.0645105e-001,-1.0468183e-001,-5.0149783e-002,-2.9347494e-002,1.6618292e-001,-5.8305335e-002,-5.3254719e-002,-2.0838003e-002,-1.4859245e-001,0.0000000e+000,0.0000000e+000,3.4183663e-002,1.3771939e-003,-1.3658754e-001,2.1069320e-001,-1.0835971e-001,5.5559870e-002,-4.8140790e-002,-7.4341617e-003,-4.2382012e-002,-9.3092891e-003,5.5498193e-002,-9.0035039e-002,-2.5627253e-002,-1.2040173e-001,0.0000000e+000,0.0000000e+000,-1.0667470e-001,-5.9038804e-002,-6.1537997e-002,-7.5557306e-002,-9.4076364e-002,1.4773080e-001,2.8667882e-002,8.5092791e-002,6.6237041e-002,-1.1950868e-001,1.2139986e-001,2.9092012e-002,-3.7505330e-002,9.2371313e-002,0.0000000e+000,0.0000000e+000,8.3300355e-002,-1.5148563e-001,8.8641316e-002,-5.5184061e-002,-1.2147149e-001,6.5505713e-002,3.3077000e-002,8.3050956e-002,9.2425120e-002,5.6367634e-003,2.2354370e-002,2.4429496e-002,4.1437098e-002,7.2197347e-002,0.0000000e+000,0.0000000e+000,-1.2263613e-001,1.2811846e-002,9.2127065e-002,-6.8809624e-002,-6.3202659e-002,6.5673559e-002,-1.4917075e-001,1.3830596e-002,-5.0840016e-002,4.9007905e-002,-2.0774560e-002,-3.8556708e-002,-4.0093884e-002,5.3172294e-002,0.0000000e+000,0.0000000e+000,-2.3257945e-002,8.1838448e-002,-1.0331676e-002,1.8718868e-002,1.0604440e-001,-6.5131879e-002,7.6399843e-002,6.8236272e-002,2.8776556e-002,7.2354909e-002,-6.8790698e-002,4.0965441e-002,-1.7680167e-001,-9.7078004e-002,0.0000000e+000,0.0000000e+000,4.5650888e-002,-1.3402659e-002,-1.3543337e-002,-1.3114993e-001,7.2705333e-002,-6.9107440e-002,8.3897626e-002,-3.5545675e-002,3.4019580e-002,-2.7846834e-002,7.1466195e-002,6.2449743e-003,-1.4725876e-001,4.0687719e-002,0.0000000e+000,0.0000000e+000,5.7451953e-002,-6.6762498e-002,
,184,-5.5758572e-002,1.2864852e-001,-1.2706903e-001,1.7130513e-001,-1.1637010e-001,-1.5982051e-001,1.2233301e-001,-2.5364454e-001,-1.0956477e-001,1.0797127e-001,1.6177246e-001,-1.1887116e-002,0.0000000e+000,0.0000000e+000,-8.6564603e-002,1.2788948e-001,1.0554044e-001,-1.6728565e-001,7.8988655e-002,3.4371852e-002,-1.3115690e-001,2.0065352e-001,7.9336129e-002,-1.1878525e-001,5.2622220e-002,-7.9326942e-002,-2.6243494e-001,1.7106796e-001,0.0000000e+000,0.0000000e+000,1.6804454e-001,5.2562405e-002,-1.8624710e-002,-4.2147213e-002,2.7382978e-002,3.9402611e-002,-8.7610877e-002,-4.8080542e-002,1.9546752e-002,-1.1029959e-001,8.5174009e-002,5.6987453e-002,5.5090801e-002,5.4540736e-002,0.0000000e+000,0.0000000e+000,-1.8611186e-001,3.8908155e-002,7.5472069e-002,-1.0745419e-001,-4.6662854e-002,-6.9612476e-002,-8.7212922e-002,3.5256016e-002,9.0203059e-002,3.8129308e-003,-3.2483436e-002,6.0396205e-002,-1.5981957e-001,4.4547197e-002,0.0000000e+000,0.0000000e+000,1.9340627e-002,7.0707968e-002,-2.9340520e-002,-4.7273788e-002,5.4162049e-002,9.8344273e-002,-4.4723651e-002,5.9263486e-003,1.1358562e-001,-1.2485492e-001,-6.3101646e-002,4.3451864e-002,-2.3792756e-002,4.2355813e-002,0.0000000e+000,0.0000000e+000,-1.8820002e-001,5.2557929e-002,9.6608761e-002,-7.4660518e-002,6.5313847e-002,8.7119714e-002,-1.6165962e-001,5.7086794e-002,-1.3508419e-001,1.3534154e-002,3.6404364e-002,4.4877579e-002,1.2919417e-002,-1.2186008e-001,0.0000000e+000,0.0000000e+000,1.4011353e-001,2.3140802e-002,1.8648298e-002,4.1897868e-002,5.7074807e-002,-2.5515186e-002,-1.3072398e-002,8.9303135e-003,9.1545330e-002,1.2472305e-001,8.0573597e-002,-1.4318495e-001,-2.7240069e-002,5.8378239e-002,0.0000000e+000,0.0000000e+000,-8.8439729e-003,-5.0609631e-002,-1.3741256e-001,7.7812062e-002,-9.7324372e-002,-5.1619339e-002,2.4755674e-001,-3.7494175e-002,6.6732304e-002,1.5627980e-001,-2.0972627e-001,6.2262520e-002,-5.1499731e-002,3.6091125e-002,0.0000000e+000,0.0000000e+000,-1.1797938e-002,5.7650598e-002,5.7748757e-002,1.2637789e-001,-1.1347788e-001,-6.2917072e-002,-3.8410932e-002,9.6675492e-002,1.7352473e-002,-3.6224598e-002,6.9882844e-002,-4.7752156e-003,4.3994203e-003,-4.0593381e-002,0.0000000e+000,0.0000000e+000,7.4004416e-002,-5.9191992e-003,2.3974586e-002,-1.0444441e-001,9.2352742e-002,-1.2192953e-002,-1.0344783e-001,3.2054602e-002,-5.5899609e-002,-8.1817084e-002,2.2823484e-002,-1.1941258e-001,1.5119758e-001,1.7980219e-003,0.0000000e+000,0.0000000e+000,-5.0045069e-002,-8.4067098e-002,
,196,1.1002327e-002,-1.7077761e-001,1.0556284e-002,-9.5894905e-002,-4.9442766e-002,1.5902362e-001,-5.0349676e-002,1.8291170e-001,-1.3411316e-001,-1.4794012e-001,7.7956098e-002,-9.3270727e-002,0.0000000e+000,0.0000000e+000,4.4868918e-002,1.1928820e-001,-1.3289058e-001,1.7292651e-001,-4.1695759e-002,8.0188813e-002,1.7029122e-001,-2.1701903e-001,3.3553756e-002,-7.9969663e-002,-2.5461565e-002,-4.1940866e-003,1.2450058e-001,-1.6283799e-001,0.0000000e+000,0.0000000e+000,6.2638302e-002,6.7002276e-002,5.2954831e-002,-1.8835590e-002,-5.0416391e-002,5.3447670e-002,-1.9395648e-002,3.7864787e-002,4.9918444e-002,-2.1134133e-002,2.4654529e-003,2.5968054e-002,-4.7722228e-002,-6.5923828e-002,0.0000000e+000,0.0000000e+000,-8.6605765e-002,-4.1576909e-002,-8.6474524e-002,-1.2986585e-001,3.8912766e-002,3.5665616e-002,1.4677645e-001,1.3435401e-001,7.2898132e-003,-2.8138365e-003,3.0716967e-002,-1.2936044e-001,-2.9509139e-002,-4.3981024e-002,0.0000000e+000,0.0000000e+000,1.3906988e-001,6.9533252e-002,5.2805530e-002,6.4209389e-002,-2.9294100e-002,-5.0761715e-002,8.6068387e-002,-1.6068786e-001,2.3152781e-002,2.8703979e-002,2.4902198e-003,1.3682919e-001,1.2223504e-001,3.5438213e-002,0.0000000e+000,0.0000000e+000,-1.7215500e-001,3.3007848e-002,-1.5585180e-001,1.3321047e-001,3.4252537e-003,1.2597627e-001,1.5168648e-001,-2.4658980e-002,-6.1983376e-002,-1.0618185e-001,-1.1040297e-001,-2.9851736e-002,2.1093849e-002,1.0265614e-002,0.0000000e+000,0.0000000e+000,-1.8390609e-003,1.2535776e-001,5.9378402e-002,-1.2252869e-001,-1.1932703e-001,1.1618181e-001,-2.6152446e-001,3.3558846e-002,7.3565803e-002,-1.8286773e-001,4.7032726e-002,4.3081704e-002,8.3427670e-002,-5.7496554e-002,0.0000000e+000,0.0000000e+000,-1.0764035e-001,-2.7956687e-002,-2.3104306e-002,-7.2826772e-002,-7.4129321e-002,-1.4888906e-001,-7.3947292e-002,4.9136238e-002,-4.7828718e-002,8.2298632e-002,1.7260810e-001,-4.5543830e-002,-9.3252201e-002,1.0362613e-001,0.0000000e+000,0.0000000e+000,9.6221666e-002,1.4630505e-002,-7.8084919e-002,1.6772299e-001,-6.2641878e-002,6.7424113e-002,1.2554968e-001,-1.0327545e-001,-1.3041129e-002,-8.7137204e-002,4.3503297e-002,6.5270227e-002,-5.8430312e-002,-2.9286592e-003,0.0000000e+000,0.0000000e+000,-7.1280269e-002,4.5484884e-002,3.3024763e-002,-2.9698497e-002,5.6361099e-002,2.3732409e-001,2.9204634e-002,-1.1095401e-001,5.2881366e-002,-1.2050012e-001,-7.8325144e-002,6.8559457e-002,2.0192531e-002,-1.5404201e-001,0.0000000e+000,0.0000000e+000,-6.6074912e-002,4.0801133e-004,
,208,-2.1349824e-002,7.5847505e-002,-7.4786445e-002,-2.1629926e-002,1.1580140e-001,-1.4674469e-001,9.2768572e-002,-6.0525699e-002,-1.3295318e-001,-6.3051839e-002,-7.5068590e-002,-5.7592216e-002,0.0000000e+000,0.0000000e+000,1.7885590e-001,5.1808635e-002,3.4349653e-001,-1.6048391e-001,1.5815480e-001,-1.3471537e-001,-3.1710890e-001,8.1575060e-002,4.3608356e-002,-1.0389860e-001,6.4064939e-002,-6.5482836e-002,-1.7718516e-002,1.0995535e-002,0.0000000e+000,0.0000000e+000,3.8830043e-002,3.3318303e-002,5.7867254e-002,6.9006203e-002,4.5098987e-002,-5.5046458e-002,-5.8858516e-002,-3.2301168e-002,4.6226368e-002,3.0007355e-002,9.7739703e-002,-3.4205042e-002,6.3935078e-002,-7.6818612e-003,0.0000000e+000,0.0000000e+000,-9.8306376e-002,-3.2021591e-002,1.4816743e-004,-2.1861193e-002,4.3552306e-002,1.5488638e-002,7.3969369e-003,4.6800264e-002,-2.2343486e-002,-9.8856128e-004,2.7604813e-002,7.8013122e-004,-3.8660252e-002,1.7837903e-002,0.0000000e+000,0.0000000e+000,1.2779204e-001,-9.7788520e-002,-6.1248086e-002,-2.1479944e-001,6.9067451e-002,-6.1026435e-003,-6.0983438e-002,8.9815088e-002,1.0360684e-002,1.0472154e-003,-3.5203341e-002,1.0588776e-001,-2.7504279e-002,3.7621735e-002,0.0000000e+000,0.0000000e+000,-7.3244075e-002,9.2800222e-003,7.8802262e-002,-2.0221329e-001,1.6864303e-001,-2.1217835e-002,-1.1691993e-002,2.3793546e-002,4.1460904e-002,3.2443816e-002,5.7397191e-002,-6.7416268e-002,4.8203334e-002,1.4918878e-002,0.0000000e+000,0.0000000e+000,7.7668868e-002,-9.6808664e-002,5.6380556e-002,3.5720194e-001,-2.0779388e-002,6.4507835e-002,1.4700291e-002,-5.0151015e-002,-1.1413400e-001,3.8886590e-002,2.2718000e-001,-3.6263796e-002,1.7772087e-001,-9.3165085e-002,0.0000000e+000,0.0000000e+000,-1.5343516e-001,5.7686560e-003,-4.6443594e-002,1.7425242e-001,-2.9642417e-001,1.3325926e-001,3.8454919e-002,-1.4778757e-001,-8.3318148e-002,2.1305754e-001,6.7300025e-002,5.5713335e-002,-9.9498123e-002,7.8715469e-003,0.0000000e+000,0.0000000e+000,5.3170291e-003,3.1504062e-002,7.7246456e-002,-2.2696384e-001,1.0264875e-001,-2.2049968e-002,-2.3578267e-001,8.4762395e-002,-1.1047172e-002,2.1929520e-002,-5.6180547e-003,-7.9046805e-003,-7.7056379e-002,-8.6860417e-002,0.0000000e+000,0.0000000e+000,1.3682460e-001,-1.0728657e-001,2.8518485e-002,-5.3398707e-002,-1.1205447e-001,2.0915560e-001,-1.2589660e-001,1.7892412e-001,4.2539659e-002,-6.7189285e-002,7.4116894e-003,-1.5183382e-001,2.9343363e-002,-1.5242110e-001,0.0000000e+000,0.0000000e+000,-1.1313588e-001,-1.9422262e-002,
,220,-8.1420455e-002,1.1052786e-001,-8.7269389e-003,-1.6503792e-001,8.2157947e-002,-1.2224842e-001,-1.0994498e-002,7.6748440e-002,-4.3041701e-001,6.3381101e-002,-3.3868014e-002,-4.5152967e-002,0.0000000e+000,0.0000000e+000,1.4895520e-001,3.8170235e-001,-2.0108403e-001,-1.0790112e-001,-5.0432486e-002,3.7960365e-002,3.3336809e-001,1.1630617e-001,-1.6746030e-001,9.3315029e-002,-1.1900124e-001,-1.1605028e-002,5.6929900e-002,-1.3929581e-002,0.0000000e+000,0.0000000e+000,-9.3934028e-002,1.5520753e-001,7.9983431e-002,-2.9375127e-002,6.3719016e-002,-2.2224214e-001,1.7912674e-002,-1.1260195e-002,9.7834761e-002,3.0633125e-001,-2.2156652e-002,1.1822484e-001,-1.2473780e-001,-5.1124227e-002,0.0000000e+000,0.0000000e+000,-4.9650566e-002,3.2697824e-002,-2.0216784e-002,-1.0308520e-001,7.8566973e-002,-1.6151645e-002,-7.5397583e-003,8.8170408e-003,5.6766074e-002,-1.3881317e-001,-1.3058907e-001,-2.4930053e-002,-1.5601616e-002,8.3116854e-002,0.0000000e+000,0.0000000e+000,6.9926733e-002,2.1275151e-001,1.1270214e-001,7.9362366e-002,-7.8370897e-002,-5.5019115e-002,5.2655110e-002,-9.5816501e-002,1.5304116e-001,6.8898788e-002,6.8023386e-002,1.8305807e-002,4.2395754e-003,-7.6487603e-002,0.0000000e+000,0.0000000e+000,-5.6463200e-002,-1.2201173e-002,-1.6153641e-001,5.4648171e-002,1.6661278e-001,1.8738644e-002,-3.5086787e-002,1.5458020e-001,-1.1525397e-002,2.7649349e-002,5.0027297e-002,-2.0750404e-001,-4.1478030e-002,-4.1081102e-002,0.0000000e+000,0.0000000e+000,1.2404467e-001,-1.3651652e-001,7.3779826e-002,-3.1812917e-002,-5.9807571e-002,1.9767056e-002,-1.3225218e-001,1.1848384e-001,-3.3741732e-002,-7.9350119e-002,2.9896893e-002,-8.4974652e-002,3.1310844e-002,1.2971440e-001,0.0000000e+000,0.0000000e+000,6.4988280e-003,-4.1569646e-002,2.0178418e-001,8.7465898e-002,-3.0314779e-002,8.6636413e-002,-1.4366032e-001,-1.1090515e-001,-8.9467744e-002,1.3864997e-001,-2.4787715e-002,3.9116341e-003,4.8504967e-003,-2.9839789e-002,0.0000000e+000,0.0000000e+000,-8.4594630e-002,4.1963862e-002,-9.0511691e-002,-3.7508945e-002,1.6067653e-001,1.2861788e-002,9.2765463e-002,6.0875541e-002,2.4115449e-002,5.0860100e-002,-4.9164569e-002,4.6901792e-002,2.0910069e-002,-8.9005694e-002,0.0000000e+000,0.0000000e+000,-3.2256961e-002,4.2876650e-002,2.9245897e-002,-1.8300511e-001,6.8252689e-002,8.3833534e-002,2.7387879e-002,2.4470417e-002,-4.6036000e-003,-9.7295074e-002,-3.5622407e-002,-2.7903543e-002,4.7939857e-002,-1.4976344e-001,0.0000000e+000,0.0000000e+000,7.2582392e-002,-1.3977945e-001,
,232,-1.3518542e-001,1.2267284e-001,-4.6195014e-002,1.8325818e-004,-1.1911474e-001,3.4216282e-001,-3.1062666e-001,1.8477592e-001,-7.5143012e-002,-5.9171124e-002,2.0616497e-001,-1.5121411e-001,0.0000000e+000,0.0000000e+000,-3.1309016e-002,8.7917641e-002,-2.1148920e-002,-8.8550757e-002,-1.4290288e-002,7.1206011e-002,-4.7585655e-002,2.2666614e-001,-5.5607892e-002,-1.7093739e-001,5.5771851e-002,-1.5974360e-001,1.6265460e-002,1.4096533e-001,0.0000000e+000,0.0000000e+000,1.5799068e-002,9.0167096e-002,7.6265031e-002,3.5609843e-002,-7.1515694e-003,2.2591302e-002,-1.2473401e-001,7.7057958e-003,3.5279799e-002,-1.1739599e-001,2.2793351e-003,4.1234569e-003,7.6336001e-002,1.5582675e-002,0.0000000e+000,0.0000000e+000,-1.1674218e-001,-2.9729304e-002,1.5951040e-001,1.9146738e-002,1.6925148e-002,-5.0399370e-002,-1.7065908e-001,-9.5655133e-002,5.9422856e-002,-5.6273530e-002,5.2875363e-002,4.0273392e-002,-9.4518641e-002,5.3092925e-002,0.0000000e+000,0.0000000e+000,6.5700909e-002,-1.4845061e-002,-7.0983609e-002,-1.7215132e-002,6.6446327e-003,-2.5975476e-004,-7.3808150e-002,2.0669298e-001,1.5644168e-001,1.2468282e-001,-1.9880905e-001,8.4003430e-002,-1.2507719e-002,-2.6233905e-002,0.0000000e+000,0.0000000e+000,-5.9602941e-002,1.6505369e-001,-6.3886325e-002,1.7370814e-001,-2.5362555e-001,2.5638790e-001,-1.7001886e-001,1.1911033e-001,-1.5250583e-001,2.2193162e-002,-1.8294345e-001,3.3686361e-002,-5.5164015e-002,1.9664756e-001,0.0000000e+000,0.0000000e+000,-5.6503199e-002,7.3767644e-002,3.6748080e-002,2.4868855e-001,-3.7841181e-001,7.2890531e-002,-4.4068950e-002,-3.5174092e-002,-9.0112362e-002,-8.1406239e-002,2.0898163e-001,-7.6105465e-002,3.6436315e-002,1.5438321e-002,0.0000000e+000,0.0000000e+000,4.9412191e-002,-1.3667316e-002,-7.8913720e-002,4.7246697e-002,-1.8766556e-002,6.6387717e-002,-8.9224521e-002,-1.0532295e-001,-3.2355499e-002,1.9037450e-001,1.6734363e-001,-1.9918942e-001,-1.0905746e-002,-2.4360700e-001,0.0000000e+000,0.0000000e+000,5.6929304e-002,6.7922492e-002,1.3099574e-001,-5.8474867e-002,1.3322413e-001,6.5100434e-004,2.2315793e-001,-1.5956994e-001,3.4240862e-002,-2.5940496e-002,-6.7131941e-003,4.9755371e-002,-6.5660252e-003,5.5055562e-002,0.0000000e+000,0.0000000e+000,-1.3811669e-001,-2.0182013e-002,8.2955406e-002,2.3722263e-002,-1.4022419e-001,4.6201777e-002,7.5187915e-002,-1.2467808e-001,8.3671247e-002,8.4275309e-002,-1.1832734e-001,2.2485975e-001,-7.4939080e-002,4.2584638e-002,0.0000000e+000,0.0000000e+000,-1.3189110e-002,-5.7979103e-002,
,244,-2.9180586e-002,-1.3040501e-001,-6.8642528e-002,-4.4120581e-001,-1.0870086e-001,3.6643207e-001,-8.4236138e-002,3.3269387e-001,-2.6180572e-001,-3.4289103e-001,8.7488191e-003,-8.8749459e-002,0.0000000e+000,0.0000000e+000,2.1859897e-001,2.2306818e-001,-2.2192571e-001,1.2102740e-001,1.4080533e-002,1.0082242e-001,3.0948152e-001,-1.1949247e-001,1.6966833e-001,-2.5744500e-001,-4.3367716e-002,3.7898828e-002,-9.7543648e-002,1.8592721e-001,0.0000000e+000,0.0000000e+000,-1.3512222e-001,1.1754909e-001,6.2336606e-002,-1.5620543e-001,1.3512344e-001,-3.8189940e-002,7.8772238e-002,1.3935221e-001,-5.6918110e-002,6.6251786e-002,-5.0401482e-002,-3.6691314e-002,7.6431323e-002,1.0766242e-002,0.0000000e+000,0.0000000e+000,-1.9234515e-001,1.1022671e-001,-2.9516317e-001,-1.2067371e-001,1.1702066e-001,2.7735337e-002,1.5962007e-001,1.3198810e-001,-1.3461717e-001,3.3767920e-002,-9.1565019e-002,-9.4708448e-002,1.7414759e-001,-7.7341605e-002,0.0000000e+000,0.0000000e+000,-4.3046099e-002,5.8860201e-002,-1.1436362e-001,7.0440618e-002,-2.2448536e-001,3.9609653e-002,3.9930911e-001,-2.3893679e-002,1.4254123e-001,-1.4854030e-002,-9.0929144e-002,1.5063856e-001,-2.3263294e-002,-2.3117995e-002,0.0000000e+000,0.0000000e+000,-8.8279448e-002,-1.3103896e-001,-9.6195368e-002,-1.5696504e-001,-6.1263388e-002,2.5741071e-003,1.5501725e-001,5.9761976e-003,1.1139310e-001,1.5674318e-001,5.5155614e-002,1.5591857e-001,-1.9816498e-001,-1.2557510e-001,0.0000000e+000,0.0000000e+000,-9.0435397e-002,-1.6049734e-001,-7.8621789e-002,2.8002599e-001,1.6886208e-001,-1.2154439e-001,-2.2707491e-001,-6.8822913e-002,-1.0930833e-001,-1.3151854e-002,-7.5400498e-003,-1.0634822e-001,-2.1896936e-002,1.0466178e-001,0.0000000e+000,0.0000000e+000,-1.5694068e-001,-8.2241735e-002,2.1495509e-002,8.5486981e-002,3.9164077e-003,3.4800866e-002,-2.1838134e-001,-1.5266202e-002,-1.3819457e-001,-4.3731534e-002,2.8352851e-001,-6.5130595e-002,-1.1023169e-001,1.5728301e-001,0.0000000e+000,0.0000000e+000,5.8536267e-002,6.4620471e-002,1.1375497e-001,5.6573070e-002,6.1176538e-002,-4.5290941e-002,-1.3789381e-001,8.9779173e-002,3.5686011e-002,1.0902547e-001,9.0717970e-002,6.7221950e-002,-1.0217054e-001,-5.9899033e-002,0.0000000e+000,0.0000000e+000,-3.2809854e-002,4.1936271e-002,9.6473645e-002,-2.7576440e-002,-1.9393416e-001,1.2236147e-001,-4.0894858e-002,-6.1457757e-002,-4.0311974e-002,1.6557201e-001,-7.9894840e-002,-7.4107429e-002,2.7872131e-001,-1.1067525e-001,0.0000000e+000,0.0000000e+000,-1.7927956e-002,4.0148454e-002,
,256,4.8838537e-002,2.5673587e-002,-5.9363133e-002,1.9667076e-001,2.4144035e-001,-3.0859052e-002,-3.0723714e-002,-6.8014511e-002,-3.2227616e-001,-1.7931911e-002,-8.5153208e-002,-1.9737322e-002,0.0000000e+000,0.0000000e+000,6.2176002e-002,1.0731703e-001,1.6839272e-001,-1.0639317e-001,-4.9544523e-002,-4.6385627e-003,-2.9933152e-002,3.6767501e-002,6.9349433e-002,-5.6872603e-002,-3.6196583e-002,-9.8742088e-002,1.0994343e-003,7.7419501e-002,0.0000000e+000,0.0000000e+000,1.6815790e-002,2.2753327e-001,-9.1895092e-002,-8.5069560e-003,-6.6061200e-002,-1.2941069e-003,6.0801231e-002,1.1684202e-001,3.8895790e-002,-1.6742999e-002,6.5262506e-003,-3.9601201e-002,-8.4324677e-002,9.6172019e-002,0.0000000e+000,0.0000000e+000,4.7610787e-002,-1.5887748e-002,-4.3961869e-002,2.3528610e-002,6.1388017e-003,1.0721676e-001,4.7714946e-002,6.1809454e-002,-3.7459075e-002,9.7274234e-003,-1.0199153e-002,-3.0657525e-004,1.1881288e-002,5.7033772e-003,0.0000000e+000,0.0000000e+000,1.6878035e-001,-1.4767211e-002,1.0496832e-001,-1.2559538e-001,-4.9385432e-002,-1.1405621e-002,6.5847034e-003,-1.3620772e-001,1.5402394e-001,5.3230605e-003,4.9618375e-002,-9.8610142e-002,-2.2646452e-003,-9.9936450e-002,0.0000000e+000,0.0000000e+000,1.0414786e-001,-1.9326861e-002,7.4493040e-002,2.0172206e-001,-1.5413705e-001,-5.2109790e-003,-5.5510871e-002,-5.5089935e-002,-4.9926198e-003,1.9478155e-001,-3.1123749e-002,1.2068364e-001,-9.4099250e-002,-1.9659399e-001,0.0000000e+000,0.0000000e+000,-6.0020582e-002,6.1556141e-002,-7.9105717e-002,1.6561101e-001,-1.3895207e-001,-1.7084873e-003,2.5043355e-001,1.7371338e-001,9.3033649e-002,-1.1129837e-002,6.2938537e-002,7.6896077e-002,-1.4377675e-001,7.0093318e-002,0.0000000e+000,0.0000000e+000,-1.6736504e-001,-7.4493551e-002,-7.2971005e-002,-1.4896226e-001,-1.4466038e-002,2.4121595e-002,1.2720071e-001,1.4115750e-001,7.4818224e-002,2.8364738e-002,-2.6916921e-002,-1.3462509e-001,-1.0202707e-002,3.9301364e-002,0.0000000e+000,0.0000000e+000,9.2687630e-002,7.3439707e-002,1.3297007e-001,3.5427768e-002,-2.6581507e-002,-4.1217421e-003,-2.3320062e-001,-1.0469863e-001,3.7106849e-002,7.9027790e-002,-6.2900265e-002,2.7111033e-002,9.0752878e-002,-8.8249504e-002,0.0000000e+000,0.0000000e+000,2.8995308e-002,-5.8351342e-003,3.0573748e-002,1.6859337e-002,-1.9067619e-002,-6.4250703e-002,-3.0044179e-002,-1.4397934e-001,-5.8527832e-002,1.3316025e-001,-6.9764552e-002,6.6102337e-002,3.5992898e-002,3.0771326e-002,0.0000000e+000,0.0000000e+000,-1.8599273e-001,-5.0314484e-002,
,268,-5.9137993e-002,5.9849352e-002,8.9129930e-003,1.6434231e-002,7.8570742e-002,-7.1786191e-002,1.2900136e-001,-1.5979289e-001,-1.4345249e-001,-3.2069731e-001,-2.2197371e-002,1.7850512e-001,0.0000000e+000,0.0000000e+000,5.3862805e-003,3.2509029e-001,3.1265050e-001,3.8475702e-002,7.7976940e-002,-2.8104996e-002,-5.3411675e-001,4.9598472e-002,6.2937920e-003,5.9884648e-002,2.4553177e-001,-1.0420519e-001,3.2126928e-002,-1.5350233e-002,0.0000000e+000,0.0000000e+000,1.0624670e-001,-1.5975215e-001,6.6846322e-002,-1.8268584e-001,4.2569740e-002,-1.1495199e-001,7.9522864e-002,1.3882707e-003,7.5690329e-002,-2.0050276e-002,-9.3500868e-003,1.4593898e-002,-9.3604022e-002,-7.8377357e-002,0.0000000e+000,0.0000000e+000,-1.4809938e-001,1.4874328e-002,-3.7509061e-002,6.8346246e-002,4.9256847e-002,-1.3947651e-002,1.5296757e-001,-6.6499271e-002,-4.4956793e-003,-1.2457101e-002,-1.3372105e-001,-3.5323181e-002,-9.6714086e-002,5.5940120e-002,0.0000000e+000,0.0000000e+000,8.2416218e-002,-2.9063550e-002,1.6162606e-001,-1.3225545e-001,-1.3794419e-002,4.7052958e-002,-2.2336217e-001,1.0997461e-001,-5.5008850e-003,8.2046271e-002,1.3730481e-001,2.9138253e-002,1.6310025e-003,-1.0777742e-001,0.0000000e+000,0.0000000e+000,1.2377873e-002,6.9445581e-002,3.0787163e-002,-8.6081743e-002,-1.9497127e-001,1.8505952e-001,-9.1769684e-002,1.2435496e-001,7.7784722e-002,2.7127245e-002,1.5258387e-001,-1.6590470e-001,2.2416386e-002,-5.7129537e-002,0.0000000e+000,0.0000000e+000,1.0500788e-001,-7.3744791e-002,5.3180864e-002,1.4550176e-001,1.0189755e-001,9.0796624e-002,8.5514054e-002,-2.1079030e-001,-9.2019942e-002,-2.3683733e-001,-7.3812038e-002,8.1127141e-002,1.2905835e-001,1.1936253e-001,0.0000000e+000,0.0000000e+000,3.3590524e-002,-1.1877602e-001,2.3221094e-001,-1.3233339e-001,-1.8179754e-002,6.0865943e-002,-2.9921472e-001,6.0057592e-002,-1.5921884e-001,3.8119820e-002,-2.6736927e-001,1.8357517e-001,-1.0005427e-001,8.1436900e-002,0.0000000e+000,0.0000000e+000,-3.0978354e-002,1.1689492e-001,-5.8422840e-002,8.7134137e-002,-1.7042178e-001,1.0985523e-001,2.1627098e-001,1.1958412e-002,7.8057071e-002,1.7076246e-001,4.5306875e-002,-8.6237725e-002,-1.1044101e-001,-1.3919607e-001,0.0000000e+000,0.0000000e+000,-7.9138219e-002,5.7564377e-002,-1.0336216e-001,1.0600937e-001,2.1889099e-002,3.4384151e-002,1.6519262e-001,4.7154874e-002,1.6755970e-002,3.9472844e-002,-8.4622162e-003,-1.1316934e-001,-1.4824383e-001,3.9177225e-002,0.0000000e+000,0.0000000e+000,5.1962710e-002,-5.0618062e-002,
,280,-2.2879938e-001,2.3497297e-001,-1.6685945e-001,-4.7378510e-002,1.7138129e-001,-1.1314848e-001,1.8027737e-001,-1.2331949e-003,-3.0427595e-001,-1.4443858e-001,-9.8706150e-003,-2.9527449e-002,0.0000000e+000,0.0000000e+000,3.9495819e-002,2.4585761e-001,2.0139731e-001,-2.3111199e-002,-9.0854023e-002,4.7508730e-002,-2.3259458e-001,-5.5082518e-002,1.9918400e-001,-2.4459808e-001,2.7908821e-001,-5.2724511e-002,-2.6289210e-001,1.8528458e-001,0.0000000e+000,0.0000000e+000,2.4298332e-001,-9.4417209e-002,4.9506787e-002,4.7653932e-002,5.6410695e-002,4.6415842e-002,-9.4825066e-002,-1.1072553e-001,-5.7136098e-002,-1.0848370e-001,7.7803197e-002,2.0004295e-001,6.0888170e-002,-5.7324248e-003,0.0000000e+000,0.0000000e+000,-2.2656133e-001,-4.2872895e-002,-2.9809055e-002,3.0382258e-002,-3.6891609e-002,1.1240307e-001,2.9398309e-002,8.4265948e-002,-1.6906483e-001,1.4328242e-001,6.3401757e-002,-1.0695971e-001,1.2843754e-001,-1.8978159e-003,0.0000000e+000,0.0000000e+000,6.4906061e-002,-1.0825996e-001,-4.7619982e-003,7.7324708e-002,-7.4189780e-002,-2.7601082e-002,-9.8782169e-003,6.0721949e-002,6.8581763e-002,-6.0684363e-002,-4.9019266e-002,-8.3408621e-002,4.0042238e-002,6.0006922e-002,0.0000000e+000,0.0000000e+000,-5.0850118e-002,3.8018820e-002,9.4957127e-002,5.1138898e-002,3.8974380e-003,-9.6449997e-002,-8.5375423e-002,-4.8167435e-002,-5.8649874e-002,1.7968419e-001,-1.7507884e-001,-6.7126728e-002,-1.0786904e-001,-2.6377058e-002,0.0000000e+000,0.0000000e+000,-1.3324177e-002,4.6668000e-002,-2.5940379e-002,-5.3281288e-002,1.0407772e-001,-3.7117299e-002,9.5266609e-002,1.4620130e-002,9.6045616e-002,-1.1340878e-001,1.1310740e-001,-9.1102990e-002,-4.7873304e-002,-1.7937242e-002,0.0000000e+000,0.0000000e+000,1.8164106e-002,-1.1037025e-004,4.8108148e-003,-1.6656258e-001,2.2394664e-002,6.4973607e-002,8.7666842e-002,2.4953538e-002,2.0150741e-001,5.9067861e-002,-9.0881513e-002,-1.5090428e-002,-4.8753446e-002,-1.0401202e-001,0.0000000e+000,0.0000000e+000,5.0775353e-002,7.0125084e-002,-2.5720912e-002,1.3283848e-001,-1.0674394e-001,5.7348586e-002,7.3465056e-002,-5.0131549e-002,-1.6362902e-003,1.0853172e-001,2.8291854e-002,7.2273689e-002,-8.1224627e-003,-3.4130213e-002,0.0000000e+000,0.0000000e+000,-2.9210607e-002,-1.1892304e-001,-1.7812081e-001,1.3032030e-002,8.4796383e-004,1.5370993e-001,-1.1249658e-001,6.1938084e-002,-1.1377495e-001,-2.0194302e-001,1.5471085e-001,-6.3591483e-002,5.1054886e-002,4.6526041e-002,0.0000000e+000,0.0000000e+000,1.7390160e-003,2.2237193e-002,
,292,-9.9897372e-002,-4.8426007e-002,-1.3986822e-001,2.1863834e-001,-4.5990992e-003,-1.3778764e-001,1.1266825e-001,-7.3456643e-002,9.1582774e-002,1.2061951e-001,1.8483629e-001,-1.2343763e-001,0.0000000e+000,0.0000000e+000,-1.7259334e-001,8.9025649e-002,8.0269878e-002,-1.1981795e-001,1.3897296e-001,-3.2914360e-001,-6.0460326e-002,-5.9013740e-002,7.0046244e-002,5.0706062e-002,3.2546443e-002,4.5288764e-002,4.3842846e-004,3.1333236e-002,0.0000000e+000,0.0000000e+000,7.8729873e-002,2.2045974e-002,-1.8405753e-002,-3.9464571e-002,1.5204502e-001,-1.1926194e-001,-9.6048301e-002,4.4679982e-002,-4.2230195e-002,5.6937022e-002,-9.8851637e-003,6.7270029e-002,8.6405118e-002,-8.1485713e-002,0.0000000e+000,0.0000000e+000,-2.2047912e-001,-1.9398426e-002,1.5144742e-001,-1.0498807e-001,6.7515201e-002,-8.0140589e-002,-2.3010433e-001,1.3603906e-001,-1.2392330e-001,1.1403571e-001,1.8671208e-002,-6.3403888e-003,-1.0579349e-002,-4.2805821e-002,0.0000000e+000,0.0000000e+000,2.4227556e-001,2.1078320e-002,4.8707367e-002,1.7012427e-001,-1.1473187e-001,-1.0604580e-002,-1.2516905e-001,-1.0734635e-001,-1.8581149e-002,1.3057895e-002,-2.4979452e-002,1.2304020e-001,-3.4555003e-002,-1.1373355e-001,0.0000000e+000,0.0000000e+000,-1.1393147e-001,3.1513165e-002,-1.0715551e-001,-4.6135399e-002,-9.8686210e-002,-3.7279481e-002,-3.9421219e-002,-3.2799937e-002,2.1464907e-001,1.1952460e-001,2.8207476e-001,-1.3349904e-001,-1.2422348e-001,1.9919590e-001,0.0000000e+000,0.0000000e+000,7.7042070e-002,-2.0387059e-001,8.2572573e-002,1.9076018e-001,1.9001776e-001,-5.8396430e-002,2.9269239e-001,-3.0958337e-001,1.6094717e-001,-4.3640648e-002,-9.6761545e-002,9.2031521e-002,-7.9841693e-002,-6.3842676e-002,0.0000000e+000,0.0000000e+000,1.3906205e-001,-8.7463730e-002,-9.0147074e-002,3.0297584e-002,-9.7939095e-003,-3.6196756e-002,1.1134707e-001,1.1154969e-001,-3.9642956e-001,2.2160663e-001,-4.4751084e-002,1.0581945e-001,8.6386059e-002,-2.8717912e-001,0.0000000e+000,0.0000000e+000,7.7809310e-002,6.5330793e-002,1.1351221e-001,-9.4904577e-002,-2.9813983e-001,8.7786845e-002,-2.3599746e-001,-3.4116799e-002,1.7323724e-001,-1.7667540e-003,1.2169300e-001,-4.0868767e-002,-1.8775468e-001,7.8529292e-002,0.0000000e+000,0.0000000e+000,-1.4322728e-001,1.0574508e-001,7.5417283e-002,-1.0728929e-001,5.4322398e-002,1.0681112e-001,-2.2358382e-001,4.1159183e-002,1.0680612e-001,-1.5177677e-001,4.9711515e-004,1.1206695e-002,1.7207062e-002,4.0265942e-002,0.0000000e+000,0.0000000e+000,-9.7137261e-002,4.6180567e-002,
,304,-2.2489480e-001,-3.7515374e-002,-2.8845002e-002,2.4316868e-001,3.8495330e-001,1.7105862e-002,8.3962863e-002,-2.6815549e-001,-4.9185535e-001,3.6501783e-002,-9.9422522e-002,9.3909774e-002,0.0000000e+000,0.0000000e+000,7.3652671e-002,1.4080386e-001,-8.2396627e-002,8.4534310e-002,8.4111302e-002,-8.4301491e-002,1.2950311e-001,-2.5517427e-002,-1.3908253e-001,1.0955435e-001,-8.9887252e-002,1.1213166e-002,-6.8903885e-002,1.5255634e-001,0.0000000e+000,0.0000000e+000,7.3773191e-002,-3.8537251e-002,5.5944303e-002,3.9311710e-002,-4.7496213e-002,-5.7569373e-002,-3.8879373e-002,1.4103494e-002,5.3442321e-002,7.8721369e-002,8.4248639e-002,-1.8170141e-001,2.2348390e-002,-1.0680517e-001,0.0000000e+000,0.0000000e+000,-1.7161086e-002,-2.9162040e-003,-3.6864184e-002,1.1924603e-002,-8.0143931e-002,-4.1659869e-003,1.2969280e-003,-6.5296218e-002,7.8146635e-003,8.8435189e-002,9.4990387e-002,3.2365663e-002,-9.5279607e-002,-1.4599965e-001,0.0000000e+000,0.0000000e+000,8.2515154e-002,-2.2843689e-002,-1.7067975e-002,-4.4248354e-002,-1.0412777e-001,3.4829806e-002,6.3195372e-002,-3.9300546e-002,6.0429412e-002,-2.4068665e-001,-1.2868899e-001,5.8038063e-002,6.5592779e-002,2.7184757e-001,0.0000000e+000,0.0000000e+000,-1.8919893e-001,7.8878311e-002,-1.1362004e-001,-4.3692135e-002,-2.6144489e-002,-1.8192619e-002,5.2152287e-002,1.4400148e-001,3.5677268e-002,-1.3754263e-001,-1.9443072e-001,-1.5077816e-001,-4.5258811e-002,8.2363904e-002,0.0000000e+000,0.0000000e+000,1.9618896e-001,-7.9097942e-002,5.0013873e-002,1.4853542e-001,1.5192947e-001,6.2525523e-002,-2.6871451e-002,-1.2532597e-001,1.4752230e-001,2.1009316e-001,9.0848815e-002,-1.1349265e-001,-8.5303940e-002,-2.6315911e-001,0.0000000e+000,0.0000000e+000,2.0697629e-002,-3.2765570e-002,9.6582234e-002,5.0540114e-002,1.5881416e-001,-9.4863311e-002,-2.1462478e-002,-1.6120077e-001,-7.3763804e-002,2.1696745e-002,2.3612112e-002,1.3702505e-002,7.8328227e-002,3.0547229e-002,0.0000000e+000,0.0000000e+000,-4.6947864e-002,4.0602525e-002,2.5460449e-002,-2.1283551e-002,-2.0351240e-001,3.1078525e-002,-1.3977238e-001,1.4452058e-001,-2.0797231e-001,-8.6324904e-002,-5.2816676e-002,2.0302565e-001,1.7748889e-002,6.4754003e-002,0.0000000e+000,0.0000000e+000,-4.4048783e-002,-2.3816361e-002,-1.7239458e-001,-5.0030067e-002,-2.1253788e-001,1.1306759e-001,-3.5346966e-002,1.7261116e-001,1.1180935e-001,1.6282964e-001,1.2849130e-001,-7.3147201e-002,-2.2214522e-001,3.6379259e-002,0.0000000e+000,0.0000000e+000,1.9172341e-001,-7.1017934e-002,
,316,-1.1747789e-001,7.2933290e-002,-1.6887491e-001,-2.1005192e-002,9.2153266e-003,-2.6493102e-001,3.1027347e-001,3.7416883e-002,-2.2806857e-001,1.6780961e-001,-9.6648778e-003,-3.9005989e-003,0.0000000e+000,0.0000000e+000,-1.2598736e-001,2.0151854e-001,2.0100333e-002,2.3095878e-003,-6.9915224e-002,9.4791322e-002,7.2969603e-002,-4.9507642e-002,-4.6938288e-002,-6.3176899e-002,-9.8847357e-002,6.0496811e-002,1.1795670e-001,1.2369970e-001,0.0000000e+000,0.0000000e+000,-9.6885914e-002,1.7485239e-001,8.8686155e-002,4.2055182e-002,-6.1041777e-002,-2.5896618e-002,-8.1513214e-002,-8.0533773e-003,6.6470090e-002,-2.7950381e-003,1.5249980e-001,-1.0036898e-001,-1.1117831e-001,9.4176414e-002,0.0000000e+000,0.0000000e+000,-2.3813478e-002,4.2543797e-002,-1.9123386e-002,4.2174464e-002,-5.5318258e-002,1.1305950e-001,-1.2905648e-001,5.1880863e-002,2.0275819e-002,3.2517288e-002,2.1761050e-001,1.2269797e-002,-2.0225124e-001,1.9676627e-002,0.0000000e+000,0.0000000e+000,1.4205721e-001,-4.4587302e-002,5.5152428e-003,-2.8748710e-003,1.4040763e-001,8.9898020e-003,-2.5057912e-002,1.1364579e-002,5.4104207e-002,-9.0553224e-002,-6.5169397e-002,6.7540955e-002,-5.1643282e-002,-4.9125466e-003,0.0000000e+000,0.0000000e+000,-1.1287583e-001,4.1149093e-002,-1.0371707e-001,4.2425792e-002,6.3058588e-002,1.3279915e-001,2.0279013e-001,-1.3163182e-001,-9.2961520e-002,-2.3830237e-002,-8.1637784e-002,-3.2278186e-002,2.3141614e-001,1.0770455e-001,0.0000000e+000,0.0000000e+000,-1.0302565e-001,-7.6043239e-002,1.8494326e-002,2.0502695e-001,-5.3331783e-002,1.4776671e-001,4.5602634e-002,2.4738894e-002,-1.1984599e-001,2.7370768e-003,9.6626218e-002,-1.0758517e-002,2.0071063e-003,-1.5054805e-001,0.0000000e+000,0.0000000e+000,-7.6280603e-002,-9.7767114e-002,-1.5070782e-001,-5.1374539e-002,-7.1034731e-003,5.5924979e-002,-1.5180572e-001,2.3133592e-001,-1.2982839e-002,1.2624217e-001,-4.0741843e-001,2.3376965e-002,-2.8349745e-002,-2.8578542e-002,0.0000000e+000,0.0000000e+000,9.5625867e-002,4.7857493e-002,6.4696534e-002,6.4537270e-002,2.0929574e-003,-3.2338712e-002,-9.6042997e-003,-1.0978089e-002,5.3618048e-002,-5.1511614e-002,2.8139141e-002,-1.2423857e-001,-1.3608008e-002,9.8068886e-003,0.0000000e+000,0.0000000e+000,3.1372338e-002,2.0813322e-002,-1.8854221e-002,1.1598550e-001,-3.0454810e-002,-4.3496324e-003,1.4309631e-001,-1.5454252e-001,-1.7657820e-001,-9.1303914e-002,3.2883888e-002,-4.4213505e-002,4.1097275e-002,-2.3889215e-002,0.0000000e+000,0.0000000e+000,3.4140194e-002,4.4679354e-002,
,328,1.6387409e-001,-2.7990237e-002,1.7466869e-001,-1.2453673e-001,4.7817654e-002,-2.1354916e-001,-3.0119375e-002,2.3417352e-001,-2.6549975e-001,3.8532534e-001,-2.8889958e-001,-6.1916289e-002,0.0000000e+000,0.0000000e+000,7.0329983e-002,-2.1082047e-002,2.5977648e-001,-2.1789658e-001,2.4082291e-001,-1.9834227e-001,-8.1039878e-003,-3.6186308e-002,9.8662884e-002,3.5570958e-002,-6.3865264e-002,3.3579249e-001,-3.3243293e-001,8.8438414e-002,0.0000000e+000,0.0000000e+000,-4.6801006e-002,-4.3813814e-002,-9.4551490e-002,2.3098084e-001,-1.2623993e-001,1.1542741e-002,5.8964562e-002,-4.1380215e-002,1.6985868e-002,-3.3001248e-002,-4.1060806e-002,-7.1091946e-002,-7.5353671e-002,3.0733197e-002,0.0000000e+000,0.0000000e+000,-1.0302928e-002,-7.1952321e-002,1.6563239e-001,-8.7456586e-003,-1.0778768e-001,3.6061421e-002,-3.1275495e-001,1.1722324e-001,1.6445412e-001,5.1629646e-002,-1.3876703e-001,-2.2442684e-002,-3.1880998e-001,2.7465701e-001,0.0000000e+000,0.0000000e+000,-3.7567508e-002,4.2298018e-002,1.0171521e-001,-5.6937377e-002,1.2037423e-001,9.2105405e-002,4.8350007e-002,1.6841602e-001,-2.5240109e-001,-1.9349065e-002,1.0731534e-001,1.0744937e-001,9.6218974e-002,-3.8425024e-003,0.0000000e+000,0.0000000e+000,-2.6679461e-001,-1.2308177e-001,1.3022160e-001,-2.3849291e-002,-1.7689468e-001,-8.1090795e-002,4.2175329e-002,-1.0011165e-002,5.2224082e-002,-6.8506499e-002,2.4647620e-002,-7.9742769e-002,1.2048487e-001,5.9241261e-002,0.0000000e+000,0.0000000e+000,-4.3519999e-003,1.5510560e-001,-4.4265308e-002,6.7153576e-002,2.4342273e-002,-5.8063932e-002,-2.2399430e-002,-7.3507033e-002,2.4761208e-001,9.5010968e-002,1.8829624e-001,-3.5070167e-002,-1.3595563e-001,4.9551265e-002,0.0000000e+000,0.0000000e+000,1.3778014e-001,-6.9526027e-002,1.4492821e-001,-1.0192773e-001,-7.9075722e-002,1.0106866e-001,-3.5616404e-001,7.9766905e-002,-6.5483893e-002,2.4306715e-001,-8.7585322e-002,5.4205891e-002,-2.4446845e-001,-5.3676063e-002,0.0000000e+000,0.0000000e+000,-6.0063272e-002,-7.1516161e-002,1.1509441e-001,-6.8524258e-002,-2.6816283e-003,9.9823407e-002,-6.4190252e-002,-1.6499338e-001,-2.2961667e-002,-3.1241978e-003,-2.8337191e-002,1.2997025e-001,5.2384206e-002,-1.0525731e-001,0.0000000e+000,0.0000000e+000,-1.5336638e-001,9.0738312e-002,-6.9364108e-002,3.1744583e-002,-1.3427974e-001,1.7638852e-001,1.9060046e-001,-9.9749322e-002,-3.3544137e-002,-1.0959069e-001,7.8528755e-002,-2.2342656e-001,1.5712943e-001,7.6465224e-002,0.0000000e+000,0.0000000e+000,4.6108845e-002,-5.5135611e-002,
,340,-9.3849888e-002,-1.4793549e-001,-7.7563394e-002,-7.2274205e-002,7.5849162e-002,-6.2139238e-002,-5.4314013e-002,-4.9657093e-002,1.0209999e-001,1.2886473e-001,2.6680588e-001,1.0053654e-002,0.0000000e+000,0.0000000e+000,-2.7899417e-001,6.6521004e-002,-2.6346378e-001,1.2245367e-001,-6.5546119e-002,1.4095004e-002,2.1889357e-001,-2.0836509e-001,2.2642304e-001,-1.7052364e-001,-9.4402758e-002,1.0230903e-002,-1.4373703e-001,1.6568128e-001,0.0000000e+000,0.0000000e+000,4.3080846e-002,-5.8892233e-003,-8.3189796e-002,-9.3146362e-002,4.2633351e-002,-1.4504308e-002,9.5423281e-002,-2.0906376e-002,1.8806196e-001,-4.6869849e-002,9.2356698e-004,6.0013174e-002,-1.8234670e-001,6.7698926e-002,0.0000000e+000,0.0000000e+000,-8.9827398e-002,-3.0685551e-002,-5.0419139e-002,-1.2583628e-001,5.9332606e-002,-5.0725898e-002,2.4450046e-001,-2.8906383e-002,6.3691685e-002,-1.5693015e-001,-2.3231025e-001,2.2323415e-001,-2.1823885e-001,3.4641373e-001,0.0000000e+000,0.0000000e+000,-1.5710878e-001,3.0706335e-002,6.3431166e-002,-8.6439191e-002,6.6441037e-002,-1.2948067e-001,-2.6214843e-002,5.3038065e-002,-4.6425151e-002,1.0962793e-001,2.1392326e-001,-2.5252967e-001,3.2976151e-001,-2.7633114e-001,0.0000000e+000,0.0000000e+000,-6.0407745e-002,6.0223646e-002,-4.3190270e-001,3.2486780e-001,-1.5159791e-001,-1.6659608e-002,-1.2745565e-001,2.1248627e-002,-7.3300321e-002,2.7854705e-001,-2.3294560e-002,-1.5502919e-002,3.5421036e-002,-1.1688401e-001,0.0000000e+000,0.0000000e+000,8.5974117e-002,4.1698148e-002,4.5411569e-002,1.9347346e-002,-4.3031871e-002,-2.2164163e-002,2.7522406e-001,6.0761577e-002,1.2584107e-002,1.1326406e-001,-8.6807587e-002,1.2602265e-001,-5.1433509e-002,-6.0644001e-002,0.0000000e+000,0.0000000e+000,-1.2693642e-001,-1.8552091e-002,2.2901264e-001,-1.4395582e-001,2.7739364e-002,-1.4876326e-001,-8.6339965e-002,-2.1521375e-002,7.8629545e-002,-1.4940490e-001,1.3094574e-001,4.7461260e-002,-1.9704212e-001,1.2053878e-001,0.0000000e+000,0.0000000e+000,-8.3155227e-002,1.1818253e-001,1.1196252e-001,1.0367700e-001,-5.2138494e-002,2.3298128e-001,-2.1862191e-001,-2.6584727e-002,3.0311064e-002,-1.1628504e-003,1.3802454e-001,-8.8324887e-002,-1.3429995e-002,1.5197467e-002,0.0000000e+000,0.0000000e+000,-7.1444366e-002,-2.9054548e-002,6.0018995e-002,-1.9625416e-002,3.4181322e-002,1.3614224e-001,-1.9172109e-001,-1.1980179e-001,-2.0557217e-002,2.7981454e-002,8.0267106e-002,2.9437977e-002,-9.7522030e-003,-6.2024823e-002,0.0000000e+000,0.0000000e+000,3.9807070e-002,-9.0111378e-002,
,352,-1.9661874e-001,7.4672120e-002,-9.3922035e-002,6.7058001e-002,-1.4009408e-001,-8.2461777e-003,2.5697576e-001,3.6588328e-002,5.5418567e-001,-4.0571545e-001,1.6053826e-002,-2.2313044e-001,0.0000000e+000,0.0000000e+000,1.1946578e-001,-2.3698252e-001,4.4297583e-001,-3.8770109e-002,-1.3440778e-001,1.4772521e-001,-1.6114011e-001,-2.0389449e-001,8.0697621e-002,-9.0355413e-002,9.1637891e-002,1.9939738e-001,-1.2372835e-001,1.2706446e-001,0.0000000e+000,0.0000000e+000,-1.8882663e-002,-7.8737280e-002,1.7332810e-001,-2.5066793e-002,5.7350187e-002,-7.2132090e-002,1.1449710e-001,-1.6246965e-001,7.0657292e-002,6.9437104e-002,-1.3497360e-001,3.5866329e-002,-1.1647158e-002,-8.9718962e-002,0.0000000e+000,0.0000000e+000,-1.3193952e-001,1.0004349e-001,9.7416136e-002,-1.6710422e-002,1.2613929e-001,-4.9973586e-003,-1.1280308e-001,1.1526786e-001,-2.7762255e-001,1.9173562e-001,-3.6823872e-002,2.6104486e-002,1.0728393e-001,-7.2198137e-002,0.0000000e+000,0.0000000e+000,3.1568602e-002,4.3085335e-002,3.9359952e-002,3.6299748e-002,-2.5045585e-001,1.4205308e-001,-3.1079123e-002,1.7238124e-001,-1.4923007e-002,-2.0944508e-002,1.9799540e-001,-1.9441283e-001,1.2243820e-001,-9.2454210e-002,0.0000000e+000,0.0000000e+000,-2.2499938e-001,6.4365028e-003,-4.8903566e-002,-3.9407623e-002,-2.8290666e-001,-9.2828396e-002,-4.9657518e-002,5.4145137e-002,3.1981513e-001,-9.6604228e-003,-4.8099662e-002,8.4262914e-002,-3.2012849e-001,1.4595303e-001,0.0000000e+000,0.0000000e+000,5.8389254e-002,9.9819551e-002,4.6989937e-002,5.4522005e-002,1.2250250e-001,-1.0555450e-001,-2.3866256e-001,-8.4382354e-002,1.2386110e-002,3.4801229e-001,-8.1601109e-002,1.7340311e-001,-1.5886322e-001,-7.1082584e-002,0.0000000e+000,0.0000000e+000,2.3438154e-001,-3.7312820e-002,-4.7433402e-002,1.1684553e-001,-6.1488459e-002,2.4349850e-001,-1.8136519e-002,-3.2714110e-002,-2.2261242e-001,1.9841626e-002,-3.3163074e-002,6.4761381e-003,3.7958920e-002,-7.2577004e-002,0.0000000e+000,0.0000000e+000,6.4721007e-002,1.2204369e-001,-5.0223970e-002,3.2963324e-002,-6.7160998e-002,2.3490989e-002,1.3495616e-001,1.0999070e-001,-7.7537588e-002,-1.6451800e-001,7.3117763e-002,-1.4347344e-001,-2.5538768e-002,5.6406475e-002,0.0000000e+000,0.0000000e+000,-9.5371943e-003,7.6411328e-002,-2.4863685e-001,2.2985337e-002,-1.0627787e-002,-5.2474041e-003,5.3442118e-003,1.1020630e-001,1.3694735e-002,-4.9862263e-002,4.8550824e-002,-1.0447628e-001,9.4572363e-002,7.7608092e-002,0.0000000e+000,0.0000000e+000,-2.2499068e-002,-5.2083939e-002,
,364,-2.2503651e-001,3.0049430e-001,-1.6913659e-001,1.1802154e-001,1.1738915e-001,-2.1191462e-001,1.1467432e-001,-1.1356976e-001,-6.2542383e-002,-2.1297530e-001,1.4445007e-001,-4.9806641e-002,0.0000000e+000,0.0000000e+000,-1.3555054e-001,2.0082490e-001,1.8931365e-001,-1.4459023e-002,2.3333896e-002,-4.8631917e-002,-3.4048374e-001,8.8979028e-002,-2.3290749e-001,1.9139794e-001,1.4241498e-001,-1.0843326e-001,1.3532801e-001,-8.6352599e-002,0.0000000e+000,0.0000000e+000,-1.0292288e-001,3.3280296e-002,8.9485586e-002,-5.7033804e-003,-1.3729038e-001,1.4454343e-001,-3.1846093e-002,8.3782646e-003,-6.0255981e-002,-1.4190820e-001,-8.1948958e-002,6.9809927e-002,1.0389631e-001,1.5328730e-001,0.0000000e+000,0.0000000e+000,-1.1542444e-001,2.8570357e-002,-1.4904763e-001,-1.7138581e-002,6.0703689e-003,-8.9050351e-002,2.8442277e-001,-9.3668451e-002,1.2689326e-001,-5.8388880e-002,-1.7795207e-001,1.3392535e-001,-1.0256920e-001,1.1550212e-001,0.0000000e+000,0.0000000e+000,8.2139305e-002,7.2611397e-002,4.3547355e-002,-1.1544243e-001,1.2820379e-001,-1.0864639e-001,5.4369086e-003,9.6783497e-002,6.6863067e-002,1.0233764e-001,-2.2396426e-001,1.1145358e-001,-3.5509889e-002,-6.0991083e-002,0.0000000e+000,0.0000000e+000,-2.0375021e-001,6.3974248e-002,-3.0363654e-002,-9.8464367e-002,1.4537484e-002,5.7464146e-002,1.3187454e-001,-1.1893006e-001,2.6331988e-002,5.1862565e-002,-1.4507629e-002,-1.8202989e-002,-9.0482219e-002,-2.1567237e-001,0.0000000e+000,0.0000000e+000,2.5902439e-002,3.4481687e-002,4.9053666e-002,-8.3199515e-002,-5.0939511e-002,-1.6200866e-002,2.7594516e-001,-1.4702255e-001,-1.4554626e-002,1.9702139e-002,2.9210342e-002,6.4488245e-002,-1.9504722e-002,1.3095280e-001,0.0000000e+000,0.0000000e+000,-1.0600475e-001,-5.0721549e-002,1.5301524e-001,1.2884555e-001,5.0059653e-002,1.8424212e-001,-2.7161191e-001,1.8121962e-002,6.7434947e-002,-5.2010257e-003,1.8479368e-001,2.6233526e-003,-7.5254386e-003,-1.1400969e-003,0.0000000e+000,0.0000000e+000,-9.0137126e-002,4.6396041e-002,1.4282826e-001,2.4504375e-001,-6.8970518e-002,6.9941962e-002,-1.4409390e-001,-1.7129543e-001,5.7669849e-002,-2.4232599e-001,1.7703072e-002,1.2355884e-001,1.4399728e-002,6.9275720e-002,0.0000000e+000,0.0000000e+000,5.3466999e-003,2.0448666e-002,-1.2368298e-001,1.5268531e-003,-5.4328677e-002,-3.1648117e-002,9.7933592e-002,1.3671689e-001,9.9550832e-002,-3.1497860e-002,-1.9552099e-002,-1.3906458e-001,-1.0595903e-001,-1.8797352e-002,0.0000000e+000,0.0000000e+000,-4.3709896e-002,5.5986833e-002,
,376,-1.1124217e-001,-1.0261901e-001,-4.8098511e-002,-1.6587648e-002,2.3938601e-001,1.5776812e-001,7.6682674e-002,-7.0311595e-002,-6.3805992e-002,-4.5856019e-001,-1.2007813e-002,6.5715802e-004,0.0000000e+000,0.0000000e+000,1.5107636e-001,2.5632405e-001,-1.2840784e-001,-3.9888367e-003,-2.1089835e-003,-6.0224073e-002,1.0823885e-001,8.1130400e-002,-7.3792488e-002,1.6786120e-001,-1.7997292e-002,6.6911442e-002,5.9557494e-002,-5.0889962e-002,0.0000000e+000,0.0000000e+000,-7.9292752e-002,-9.2929818e-002,1.3691287e-001,-1.0362761e-001,-1.1010670e-002,-4.0321302e-002,1.9524953e-002,5.2563096e-002,-1.2157270e-002,1.8295333e-002,-1.7823712e-001,9.5493406e-002,-7.6712930e-002,4.1412430e-002,0.0000000e+000,0.0000000e+000,-1.6792984e-001,1.1019692e-001,1.0406454e-001,-2.3341750e-002,2.2622333e-003,-6.0561000e-002,-1.3307751e-001,5.8081373e-002,7.3070639e-004,3.7378014e-003,7.8912828e-002,-6.1652787e-002,-8.8387909e-002,1.3542531e-001,0.0000000e+000,0.0000000e+000,1.8113528e-001,-1.0784370e-002,-6.0949336e-002,2.1074570e-001,-4.9790795e-002,-1.8040821e-002,-4.7347526e-002,-8.9246937e-002,2.3243721e-002,1.3714568e-002,3.0861455e-003,1.2550846e-001,-1.1092457e-002,-2.6167659e-002,0.0000000e+000,0.0000000e+000,-1.0745548e-001,-9.6758439e-002,-1.8671417e-004,-4.4723357e-002,1.3082099e-001,8.3799525e-002,-2.9047931e-001,5.2826214e-002,-8.7363502e-002,1.4582525e-001,-2.5324547e-002,6.8758990e-002,-7.1382521e-002,-8.4033245e-002,0.0000000e+000,0.0000000e+000,8.3016099e-002,4.8811835e-002,1.3644851e-001,-2.0706893e-001,-1.7570479e-001,-4.8597527e-002,-2.7864270e-002,7.0208789e-002,2.4266836e-002,-6.1367270e-002,1.3017142e-001,-1.7380660e-002,7.9475559e-002,-2.6209622e-002,0.0000000e+000,0.0000000e+000,3.1373283e-002,5.4395881e-002,1.4767500e-001,-2.6590164e-002,-6.8694481e-002,-2.1817651e-002,-7.3837824e-002,8.9177568e-003,-8.6764817e-002,-9.6372261e-003,2.4369714e-002,-2.0723457e-002,-4.5453921e-002,-5.8230175e-003,0.0000000e+000,0.0000000e+000,-3.1524443e-002,8.2954032e-002,1.0173825e-002,1.2121190e-001,1.3471380e-001,3.5424216e-002,3.8845038e-002,-8.8107772e-003,-5.2755228e-002,8.0252261e-003,-8.2084153e-002,6.7676388e-002,-1.0268502e-002,5.5384715e-002,0.0000000e+000,0.0000000e+000,-1.6761465e-001,-8.0981196e-002,-1.0199307e-001,1.3058799e-001,-7.7472756e-002,1.2318847e-001,9.9805849e-002,-1.0113290e-001,1.3624612e-002,-8.6425522e-002,2.3569260e-002,1.1849559e-001,2.0591229e-002,-8.2143092e-002,0.0000000e+000,0.0000000e+000,6.6079853e-002,-1.2127761e-001,
,388,1.2155525e-001,-3.4006495e-001,1.3300266e-001,2.0073869e-001,-1.3637002e-001,3.3451952e-001,5.9138426e-003,-2.2909324e-001,-7.8703063e-002,-1.1516965e-001,-5.5134435e-002,9.1929616e-002,0.0000000e+000,0.0000000e+000,-4.8667446e-002,6.0313141e-002,1.5372975e-001,-9.3642363e-002,6.4750838e-002,4.5797708e-002,-4.8644390e-002,2.0987974e-001,2.8134434e-001,-2.7371659e-001,-5.0922659e-002,-3.1010361e-001,-1.3849487e-001,1.4529461e-001,0.0000000e+000,0.0000000e+000,5.2475642e-002,4.3240968e-002,1.0209145e-001,-4.9879124e-002,4.3070680e-002,5.8278418e-002,-9.3308274e-002,2.6382430e-002,1.4992284e-001,-1.4424141e-002,1.7993889e-002,1.0217525e-001,-9.2273882e-002,-9.8637387e-003,0.0000000e+000,0.0000000e+000,-4.2080648e-002,-9.9315827e-002,5.5339590e-002,7.1492670e-002,2.4145563e-002,-8.4563834e-002,4.0626387e-002,-9.0620991e-002,5.5201555e-002,6.9041751e-002,-7.8072545e-002,-4.3063613e-002,-6.7499989e-002,6.8261336e-002,0.0000000e+000,0.0000000e+000,1.9323915e-001,4.8017064e-002,-4.9667010e-002,8.9401075e-002,6.9552192e-002,-3.2633459e-003,1.2257540e-001,-5.6168478e-002,-1.4996341e-001,-9.6959989e-002,1.5701962e-001,-4.5076147e-002,1.2836312e-001,-7.9382748e-003,0.0000000e+000,0.0000000e+000,-2.6407179e-001,-7.1660848e-003,-1.6581838e-001,-1.1108722e-001,7.6062298e-002,1.2480775e-001,2.2254464e-002,1.3431460e-002,-4.3074372e-002,8.4846333e-002,-4.2912248e-002,-1.4317798e-001,-4.7072972e-003,-1.3760002e-001,0.0000000e+000,0.0000000e+000,7.4080353e-002,1.3677927e-002,2.2395127e-001,-3.8743151e-002,-2.1663422e-001,-7.8445385e-002,1.2542303e-001,-4.6299069e-002,1.0326576e-001,1.3034110e-002,-2.0326758e-001,2.3056776e-001,-7.4606707e-002,1.1802598e-001,0.0000000e+000,0.0000000e+000,-1.1072504e-001,2.5918547e-002,1.5990264e-001,-7.8280753e-002,6.1003498e-002,-5.1911772e-002,-3.8510223e-002,7.7126827e-002,9.7205358e-002,-6.4773469e-002,8.8159824e-002,1.8675951e-002,-1.0531307e-004,-4.8905138e-002,0.0000000e+000,0.0000000e+000,-3.8849755e-002,-7.1586294e-002,-3.3205790e-002,-4.8023532e-002,9.5585370e-002,-7.1606864e-002,-5.8896104e-002,-4.8420775e-002,2.3651899e-002,1.5502815e-001,1.3609496e-001,-1.9825113e-001,1.6697180e-001,-8.9735489e-002,0.0000000e+000,0.0000000e+000,1.1719211e-001,1.2304182e-001,-5.4539965e-002,3.0849715e-002,-1.7420521e-001,1.3418151e-003,1.8019547e-001,4.6173887e-003,-5.1888701e-002,1.1863600e-001,-1.8689111e-001,-1.5444042e-002,-2.0804985e-001,1.4046801e-001,0.0000000e+000,0.0000000e+000,1.9066529e-001,-6.2736044e-002,
,400,-1.4548349e-001,1.3438535e-001,1.1422673e-001,-6.8243710e-002,-9.9997552e-002,8.7176751e-002,-2.1511952e-001,2.2665827e-001,1.3765297e-001,-2.2893455e-001,1.6511757e-001,-2.0492058e-001,0.0000000e+000,0.0000000e+000,7.2048600e-003,-4.4469300e-002,2.3859270e-001,-8.1278399e-003,2.1748840e-002,-1.7432124e-001,-2.3321031e-001,7.4487913e-002,-1.1644748e-001,1.8408053e-001,2.0778287e-001,-1.4803053e-001,2.1393947e-001,-1.5094930e-001,0.0000000e+000,0.0000000e+000,-2.8741346e-002,5.7447384e-002,8.6046657e-002,7.1755525e-002,-6.8440285e-002,7.0956317e-002,-7.0023978e-003,-1.6514880e-001,1.1691249e-001,2.3311828e-002,3.9184654e-002,1.5111710e-001,4.6535745e-003,-1.2694372e-001,0.0000000e+000,0.0000000e+000,-2.3178921e-001,-8.2501460e-002,-4.3686668e-002,-9.8718123e-003,2.1754567e-002,6.9267822e-002,-3.6976142e-002,1.0664817e-001,5.0495120e-002,-4.0748048e-002,-1.5080775e-001,3.0783741e-002,-1.5147553e-001,8.8937007e-002,0.0000000e+000,0.0000000e+000,5.0441237e-002,-1.1798419e-002,-9.4715162e-002,3.4346834e-002,-3.2065822e-002,9.1607794e-002,1.5353194e-001,1.4692365e-001,4.9714739e-002,-5.8752170e-004,-2.1061715e-001,1.8398648e-001,5.2843042e-002,4.8933989e-002,0.0000000e+000,0.0000000e+000,-1.0442381e-002,9.6753062e-002,2.5361764e-001,-1.5750457e-001,1.0802813e-001,1.3576545e-001,-1.0759692e-001,8.0247187e-002,-1.6425799e-001,2.3463693e-001,3.5440378e-002,-1.0595890e-002,-2.4660714e-002,1.1993331e-002,0.0000000e+000,0.0000000e+000,3.4021597e-002,5.5396505e-002,1.0743626e-001,1.4814531e-001,-1.0265249e-001,5.9331599e-002,-1.4830318e-001,-1.0721042e-001,9.0380578e-002,-3.3231884e-002,1.1993896e-001,-2.1890587e-002,2.6131085e-002,-1.9309648e-002,0.0000000e+000,0.0000000e+000,-6.7925521e-002,-1.0784202e-001,3.5013854e-002,-3.5543784e-002,1.4832048e-001,-6.0781287e-002,-1.0866704e-001,-9.3589540e-003,-1.3853539e-001,-7.7585782e-002,-1.3822210e-001,-4.2743388e-002,1.2934149e-001,-2.0220788e-002,0.0000000e+000,0.0000000e+000,1.3160558e-001,-5.9843704e-002,4.5081515e-002,2.4163680e-002,1.3384147e-001,-7.5737703e-002,4.5372923e-002,-9.0662033e-002,-9.4043513e-002,1.0859551e-001,-1.7734353e-001,-6.5941988e-002,-1.3765414e-002,-1.8451957e-002,0.0000000e+000,0.0000000e+000,1.3604532e-002,4.4792497e-003,-3.3608638e-002,1.1220619e-001,-1.0655888e-001,2.3647185e-001,-1.5179740e-001,5.1364237e-002,7.8516539e-002,-1.2344590e-001,1.7665136e-001,2.3280127e-002,-2.6663302e-001,7.8133209e-002,0.0000000e+000,0.0000000e+000,-1.4674323e-001,3.1883371e-002,
,412,1.9921992e-001,3.4728884e-003,1.8447142e-002,2.7191512e-002,-5.8153725e-002,-4.6206718e-002,-8.9346495e-002,-1.5821440e-001,-6.3668825e-001,1.7442765e-001,1.4883876e-001,1.6404099e-001,0.0000000e+000,0.0000000e+000,-2.4293308e-001,3.3501858e-001,2.4034645e-001,-2.2901332e-001,2.0636632e-001,-9.5747694e-002,-1.8960555e-001,2.2490478e-001,-4.7752867e-001,1.1195583e-001,3.4597481e-001,-3.4741781e-001,3.6230487e-001,-2.7863805e-002,0.0000000e+000,0.0000000e+000,6.7182759e-002,-1.4431362e-001,-6.5805088e-002,8.3525507e-003,-1.0304955e-001,5.5385092e-002,7.4537213e-002,-4.8678047e-002,-3.6547493e-002,5.6917719e-002,-1.3923029e-001,1.0912184e-001,6.1460557e-002,-1.1791064e-001,0.0000000e+000,0.0000000e+000,-1.1113648e-001,3.9768368e-002,7.1132554e-003,1.2463936e-001,9.1912457e-002,-1.5439545e-001,-2.5674414e-001,1.5485841e-002,1.6693118e-001,-1.5629793e-003,2.6219102e-001,-2.4618599e-002,-6.4461843e-002,5.3812007e-002,0.0000000e+000,0.0000000e+000,-6.3061210e-002,-3.5903656e-002,-1.9848300e-001,8.3769761e-002,2.6285264e-001,-1.0180821e-001,4.8872320e-002,-5.1961670e-002,-1.2893810e-001,1.3185228e-001,8.0855222e-002,-1.8663749e-001,1.9197631e-001,-6.9371879e-002,0.0000000e+000,0.0000000e+000,-1.8738806e-001,-9.1600066e-004,2.8895665e-001,-3.7483084e-001,1.1593122e-001,5.1491663e-003,-7.8998535e-002,1.0154985e-002,2.4044207e-001,-3.6640794e-002,2.6721324e-001,-1.8358549e-001,-1.9073443e-001,6.4671239e-002,0.0000000e+000,0.0000000e+000,-4.1496377e-002,7.6373206e-002,6.9362838e-002,2.6549986e-002,-9.1051140e-002,6.6355612e-002,-1.0043002e-001,-3.6271129e-002,2.0393639e-001,-4.0259364e-002,-1.0407537e-001,1.8325183e-001,-2.0878226e-001,-1.5192263e-001,0.0000000e+000,0.0000000e+000,3.5295103e-002,4.5179192e-002,-4.7459510e-002,-2.1420099e-003,-1.0217043e-001,1.7056118e-001,1.1364513e-001,1.7534965e-001,-9.7435379e-002,1.9068163e-001,-6.2121728e-004,-2.3107751e-001,2.4129350e-001,-1.1890088e-001,0.0000000e+000,0.0000000e+000,7.2820087e-002,1.8769272e-001,2.3158062e-001,3.3288493e-003,-3.9446478e-003,-2.1989705e-001,9.9047910e-002,-6.8120241e-003,1.1072895e-001,1.6788649e-001,-9.5216659e-002,-3.7411026e-002,-7.0521155e-002,2.4764117e-002,0.0000000e+000,0.0000000e+000,-1.0823913e-002,4.0636725e-002,8.6993084e-002,-1.3768978e-002,-3.8429206e-003,-1.7092684e-001,-3.6155565e-001,-1.0542805e-001,-1.5284760e-002,-1.8476184e-002,-1.3207007e-001,2.9944472e-001,-1.2866666e-001,-4.9072581e-002,0.0000000e+000,0.0000000e+000,7.9807785e-003,9.1978786e-002,
,424,1.3155939e-002,1.9889395e-001,2.0168669e-002,-7.0941011e-002,1.2591740e-001,-3.8956228e-001,1.0814216e-001,1.5460152e-001,-7.2053651e-002,1.2084058e-001,-6.6195890e-002,-1.1617935e-001,0.0000000e+000,0.0000000e+000,6.4181947e-002,9.5311293e-002,-5.3734137e-002,8.2392250e-002,2.4738737e-002,-7.8898218e-002,1.4592598e-001,-2.1072894e-001,-2.3480002e-001,1.9733772e-001,-1.3712120e-001,1.5738361e-001,1.6942255e-001,-1.2665703e-001,0.0000000e+000,0.0000000e+000,-1.2669017e-001,2.2709659e-002,-2.3293846e-002,6.9654569e-002,-6.1860615e-002,1.4607576e-001,-3.4322131e-002,1.5419459e-002,4.6033581e-004,-1.8402899e-001,-4.1678925e-002,-4.4030880e-002,-2.6782529e-003,1.0063597e-001,0.0000000e+000,0.0000000e+000,-4.5970468e-003,-6.0346041e-002,-1.1979454e-001,7.7346891e-002,-3.6735891e-002,4.9215319e-002,1.5796097e-001,-2.8364593e-002,1.0993454e-001,-1.5837347e-001,-1.9268270e-001,3.1474331e-002,-1.1486365e-001,1.0304556e-001,0.0000000e+000,0.0000000e+000,1.1164329e-001,-1.8565990e-002,1.7048345e-001,-1.1516928e-002,-7.7848186e-002,-7.9443847e-002,-6.1297006e-004,-4.2589755e-002,-3.1564921e-002,1.0257183e-002,6.7015755e-002,2.8913428e-002,-2.2809292e-002,9.2603018e-002,0.0000000e+000,0.0000000e+000,-1.2944130e-001,-9.0486138e-003,1.5547800e-001,-1.1976995e-001,-1.0593588e-002,5.4757211e-002,-1.2732202e-001,6.8905509e-002,-1.1457071e-002,8.6111323e-002,9.7344301e-002,-1.1140665e-001,-1.0668503e-002,-3.5416456e-002,0.0000000e+000,0.0000000e+000,-2.8471575e-002,6.2782654e-003,-6.8896404e-002,1.0187675e-001,3.7577974e-003,1.5190951e-001,6.8949183e-002,-7.2291415e-002,7.3320151e-002,-7.7989906e-002,-4.2879727e-002,1.0877815e-002,-1.2513716e-004,-2.6138538e-002,0.0000000e+000,0.0000000e+000,8.2440671e-002,2.1965803e-002,-1.7213227e-001,2.4453595e-003,-9.9294483e-003,4.7748428e-002,1.2525358e-001,-4.0395346e-002,-1.1615480e-001,3.5274196e-002,2.5054954e-002,1.4024894e-002,4.8616214e-002,-7.3148692e-002,0.0000000e+000,0.0000000e+000,4.9540066e-002,6.0261523e-003,-3.8062197e-002,-2.0901593e-002,-7.0464911e-002,-3.0163357e-003,-3.8124281e-002,1.5298446e-001,1.2742111e-002,-1.3253949e-001,1.0480165e-001,-3.7599415e-003,-1.4035189e-002,1.9995256e-002,0.0000000e+000,0.0000000e+000,-7.1372905e-002,-1.8691984e-002,1.6546114e-001,-1.3484504e-001,-5.9021678e-002,1.1648293e-001,-4.7773447e-002,5.9919871e-002,-9.7456534e-003,1.3175796e-002,1.7575742e-002,-4.9988356e-002,-3.2129566e-002,4.1703422e-002,0.0000000e+000,0.0000000e+000,-1.7065674e-002,2.8330534e-002,
,436,8.7653892e-002,8.8052080e-003,9.7149733e-003,-5.3340197e-002,3.2167439e-001,-4.4996452e-001,3.0897842e-001,4.6369989e-002,-1.1865328e-001,-1.8715251e-002,9.2725033e-003,-1.9666895e-001,0.0000000e+000,0.0000000e+000,1.3921476e-001,-4.9007976e-002,4.5754614e-001,-2.8319036e-002,1.3336115e-001,-8.1405337e-003,-2.2266363e-001,-1.3708823e-001,-1.1738125e-001,6.0016975e-002,1.2499041e-001,-3.7544619e-002,-3.4949056e-002,-8.0047460e-002,0.0000000e+000,0.0000000e+000,8.8842011e-002,5.6274360e-002,2.9197775e-002,-1.7995748e-001,1.3903516e-001,-1.7839282e-001,1.3255637e-001,1.9069866e-002,-4.9407284e-002,1.5546550e-002,-9.4198101e-002,9.2304397e-002,8.3181046e-002,1.3167312e-001,0.0000000e+000,0.0000000e+000,-1.0854993e-001,5.6634949e-002,-3.9747995e-002,1.2625548e-001,9.9830544e-003,-4.5463122e-002,-2.6618367e-001,7.1990691e-003,2.2036797e-002,8.9875633e-002,4.6769593e-002,-2.8535884e-002,-3.0458199e-002,-4.0634840e-002,0.0000000e+000,0.0000000e+000,9.2307598e-002,1.8696979e-002,6.9582179e-003,1.1239012e-001,1.5353901e-001,-2.2415145e-001,5.1794640e-002,5.9157786e-002,-9.7657119e-003,1.7828530e-001,-7.4085847e-002,3.3282970e-002,-1.5295111e-001,-1.1671483e-001,0.0000000e+000,0.0000000e+000,1.0493311e-001,3.9806326e-002,-1.0573447e-001,5.8357437e-002,4.1715644e-001,-7.7227007e-002,2.6167987e-001,-1.0182563e-001,-1.0013529e-001,3.7602868e-002,-1.3410019e-001,4.2125459e-002,-1.4308167e-001,2.6532668e-001,0.0000000e+000,0.0000000e+000,8.8724376e-002,-4.9986013e-002,-3.2093750e-002,5.4604446e-002,-1.0650749e-001,-5.1131409e-002,3.1279405e-002,-2.6440088e-002,1.5440565e-002,4.4860918e-002,-6.2318459e-002,5.1244968e-002,-1.5204795e-002,-3.2325442e-003,0.0000000e+000,0.0000000e+000,-5.6446974e-002,-1.4238606e-002,3.9466939e-001,-2.5931069e-001,-4.4783225e-002,-1.2249088e-001,-1.9412514e-001,-1.4546465e-001,1.7988048e-001,-4.8021224e-002,2.3388111e-001,-6.8474861e-002,1.0604647e-001,-2.0204041e-001,0.0000000e+000,0.0000000e+000,-4.2402427e-002,1.5185638e-001,2.3459534e-001,4.8469963e-002,-6.9047958e-002,8.5248003e-002,-1.1426984e-001,-4.9882075e-002,2.4625831e-001,-4.0091472e-002,1.0278126e-001,4.6102151e-002,-1.3794723e-001,-1.2971667e-002,0.0000000e+000,0.0000000e+000,-5.3740963e-002,9.1061556e-002,-3.0329308e-001,5.6588001e-002,4.3203506e-002,-1.2290016e-001,1.5448343e-001,1.4365838e-001,-1.6227042e-001,1.7609498e-001,-2.7345568e-001,1.4265004e-002,-6.7986816e-002,7.1701868e-002,0.0000000e+000,0.0000000e+000,-7.6747176e-002,7.0939640e-003,
,448,-1.6254013e-001,3.0210726e-002,7.7927704e-002,-2.5976019e-001,4.8303999e-002,2.1044416e-002,-7.8496411e-002,2.1112746e-001,-1.7844449e-001,1.3219251e-001,-7.4940151e-002,-1.3619287e-002,0.0000000e+000,0.0000000e+000,-1.5587480e-002,1.2260325e-001,2.6528974e-002,-1.9037913e-001,4.1952372e-002,-1.0900383e-001,-4.2244324e-002,9.5712910e-002,6.6751159e-002,8.9739608e-002,4.2444234e-001,-3.6048436e-001,1.8585509e-002,-6.7311144e-002,0.0000000e+000,0.0000000e+000,8.6259003e-002,-5.1810136e-002,1.8620138e-002,-1.1886048e-001,1.0738885e-002,2.1738203e-002,8.5632222e-002,-3.8478760e-002,4.5035635e-002,3.3785400e-002,-1.0844048e-001,2.5407533e-002,1.0176787e-001,-2.1012361e-001,0.0000000e+000,0.0000000e+000,-1.9926516e-001,-1.0378352e-001,1.5507436e-001,-3.1809400e-002,2.0808532e-002,-4.6069965e-003,-6.7913417e-002,5.6064229e-002,7.5163012e-002,8.3742621e-002,-7.8600243e-002,-1.0999952e-001,-5.1878808e-002,-1.5303990e-001,0.0000000e+000,0.0000000e+000,2.1136013e-001,1.7117148e-001,8.9165052e-002,1.6877103e-001,-3.5490382e-002,1.2769310e-001,-2.4361091e-001,-1.3144742e-002,-5.6103248e-002,7.3041440e-002,1.7031161e-002,1.5581568e-001,-1.9422392e-001,5.2690588e-002,0.0000000e+000,0.0000000e+000,-9.0795716e-002,1.6508289e-001,-4.8839860e-001,-2.0624585e-003,-7.1625098e-002,3.1450960e-002,2.1570086e-001,-1.8868620e-001,5.8751666e-003,7.9807624e-002,-3.2789358e-001,1.5337035e-001,-1.7564414e-001,1.0828740e-001,0.0000000e+000,0.0000000e+000,-2.0275906e-001,1.9817381e-002,-1.9970136e-001,7.7166395e-002,-2.1368707e-001,8.3034734e-002,1.6868232e-001,3.8775820e-002,1.0523260e-001,-3.0295504e-002,-4.2676682e-002,2.0036187e-002,-1.4567992e-001,-1.1463256e-001,0.0000000e+000,0.0000000e+000,-1.2618321e-001,-5.0826940e-002,1.4033859e-001,-4.9287264e-002,-1.0326649e-001,2.8854971e-001,-1.0590182e-001,4.7079905e-002,-1.3567477e-001,-2.4462707e-002,2.9980447e-001,-2.4253973e-002,1.8624455e-001,1.7765939e-002,0.0000000e+000,0.0000000e+000,-8.3122307e-002,3.1358041e-002,8.6852545e-002,-1.0605732e-001,1.2579444e-001,3.9654819e-002,2.5524783e-002,1.1366462e-001,-1.3533123e-002,-8.2406812e-002,1.6414566e-001,-1.6503490e-001,-3.1110818e-002,2.4133614e-001,0.0000000e+000,0.0000000e+000,1.9448185e-001,-3.2148098e-002,-9.9079388e-002,4.5131739e-002,-8.2490800e-002,6.1889420e-002,2.1458263e-001,-1.6528578e-002,-1.7517619e-002,5.2183945e-002,-1.2030117e-001,-2.2433701e-002,-2.1191458e-001,-1.0029661e-001,0.0000000e+000,0.0000000e+000,1.6108194e-001,1.4313528e-001,
,460,-5.2688097e-002,6.5438114e-002,-7.2224159e-002,1.1047704e-001,-1.1139201e-001,-1.2080741e-003,1.1562489e-001,-1.1050363e-001,9.8380504e-002,-2.5162191e-001,-1.3351419e-002,1.3080597e-002,0.0000000e+000,0.0000000e+000,7.9248125e-002,-2.6125060e-002,-2.4652372e-001,1.3234329e-001,2.6760911e-003,-1.8429716e-001,5.0850684e-001,-2.8571922e-001,-2.1042534e-002,2.0975535e-001,-2.6372621e-001,2.0942497e-001,-7.1752019e-002,-7.7972584e-002,0.0000000e+000,0.0000000e+000,2.3348524e-002,1.0185355e-001,6.2048863e-002,-6.8757475e-002,-7.3915432e-002,3.5701112e-003,6.3249281e-002,1.6368701e-002,-2.5858393e-002,-1.3043801e-002,-1.2420579e-001,1.2321231e-001,-1.2458779e-001,-1.1981581e-003,0.0000000e+000,0.0000000e+000,-1.2852627e-001,3.8052136e-002,2.3769874e-001,-1.7537972e-001,8.5802728e-002,-9.9984647e-002,-1.2117987e-001,1.6053011e-001,-2.6224497e-001,1.3357972e-001,1.1366402e-001,-6.8822272e-002,9.1333052e-002,-1.6754390e-002,0.0000000e+000,0.0000000e+000,3.8366530e-003,4.3926694e-002,2.0806372e-002,-7.0487460e-003,-2.9152713e-002,-2.6558359e-002,2.4204692e-003,-1.1743163e-002,6.7577293e-002,5.8959360e-002,-7.0415783e-002,-1.8887846e-002,4.6796501e-002,-5.3212073e-002,0.0000000e+000,0.0000000e+000,-1.4965336e-001,2.3766923e-001,-2.8970350e-002,-4.8172438e-003,-2.5409549e-002,3.0592112e-001,9.1914002e-002,-1.6639069e-001,-3.6914503e-002,-1.0875539e-001,-1.0542832e-001,1.3971133e-001,-4.3361578e-003,8.4833470e-002,0.0000000e+000,0.0000000e+000,-2.0825558e-002,8.0433346e-002,6.0444775e-002,1.2871482e-001,-2.3481477e-002,1.0006589e-001,3.4847505e-002,-2.1637379e-001,6.6555551e-002,-7.7533264e-002,5.2242020e-002,6.0556881e-002,1.4674893e-002,-1.6958296e-001,0.0000000e+000,0.0000000e+000,-2.5510645e-002,-1.0523425e-001,7.0973022e-002,-1.0342723e-001,1.3748513e-001,-1.4769519e-001,1.0196144e-001,6.8362515e-002,1.1566105e-001,6.2856124e-002,-1.4498340e-001,4.5300350e-002,-1.0669534e-001,-1.0974065e-001,0.0000000e+000,0.0000000e+000,9.1781932e-002,-1.5077435e-001,1.9162609e-001,-7.9257456e-002,-2.9225103e-002,-7.3456575e-002,-4.5178070e-002,5.2243383e-002,7.6020364e-002,5.9520955e-002,-1.3622524e-002,-1.2444910e-001,-2.7605270e-002,1.1830186e-002,0.0000000e+000,0.0000000e+000,2.4549107e-003,1.1636421e-002,-1.2487460e-002,7.4241047e-002,-1.3713720e-001,9.1930978e-002,-4.4271523e-002,-6.8178864e-002,-8.4814150e-002,1.6946848e-001,1.1652637e-001,-1.1398012e-001,2.5248910e-002,-5.0492453e-002,0.0000000e+000,0.0000000e+000,-3.2596884e-002,-1.1768244e-001,
,472,5.2593522e-002,1.0131531e-001,-1.2114092e-001,3.9983827e-002,-2.3478028e-001,-1.5314251e-001,1.7589541e-001,-2.9739039e-002,2.2358238e-001,-1.6652727e-001,6.4108816e-003,3.1909575e-002,0.0000000e+000,0.0000000e+000,-8.1022244e-002,7.6704914e-002,-6.9187042e-002,7.2745174e-003,3.9178460e-001,-1.0708812e-001,6.6760116e-002,9.2725374e-003,-2.3731161e-001,-8.4124918e-002,1.1840906e-002,-2.1144789e-002,2.4538967e-001,-3.6986380e-002,0.0000000e+000,0.0000000e+000,-6.2889213e-002,1.0105865e-002,-1.2865402e-002,-1.7203364e-001,5.2178780e-003,-1.4578076e-002,2.4870139e-002,2.3807184e-002,9.4547730e-002,7.5400110e-003,8.4686538e-002,-9.4824042e-002,-3.4226830e-002,1.4791607e-003,0.0000000e+000,0.0000000e+000,-1.0963342e-001,1.1546619e-001,1.6569653e-001,4.3097367e-002,-8.9253921e-002,1.6235419e-002,-1.1133232e-001,-5.8169450e-002,-7.1128537e-002,-1.1498817e-002,-4.5181173e-003,-4.1931180e-002,9.5796669e-004,3.8204690e-002,0.0000000e+000,0.0000000e+000,-3.3892992e-002,7.8149334e-002,6.8159298e-002,1.5854194e-001,-1.8543370e-001,2.2313640e-002,1.6272635e-002,1.9503468e-003,-5.6073426e-002,2.1711438e-001,-2.3754743e-002,3.5511981e-002,1.2631782e-002,-5.0316936e-002,0.0000000e+000,0.0000000e+000,-5.3248495e-002,1.4828021e-002,-7.1228197e-002,3.2780109e-002,-7.7346163e-002,2.4721768e-001,4.2205681e-002,4.1241986e-002,1.0314056e-002,1.8210922e-001,1.6423128e-002,-5.5673845e-002,-1.3360447e-001,-1.1670369e-002,0.0000000e+000,0.0000000e+000,1.1896041e-001,-3.2581680e-002,-2.3138399e-002,5.9276459e-002,-1.4793342e-001,1.2065320e-001,-1.1822672e-001,-1.0029586e-001,1.1533660e-001,-1.8912437e-001,-8.9666833e-004,2.1329071e-001,8.4772060e-002,-8.2691289e-003,0.0000000e+000,0.0000000e+000,-9.3888341e-002,-7.5121600e-003,-8.3500917e-002,-2.3350274e-001,1.2249858e-001,-1.9864471e-001,-2.2775167e-001,2.1668154e-001,7.6081751e-003,-1.2470508e-001,-2.0919677e-001,7.1436441e-002,4.2592461e-002,-6.2624689e-002,0.0000000e+000,0.0000000e+000,6.5195928e-002,1.1506227e-002,-4.1092127e-002,-5.8123746e-002,-6.6147111e-002,7.6337413e-002,1.9253345e-001,1.0253300e-001,5.5321530e-002,-7.4607530e-002,4.1336697e-003,-7.1308545e-002,-1.8694436e-002,3.7121172e-002,0.0000000e+000,0.0000000e+000,-5.3889419e-002,-5.1737834e-002,-1.3925478e-001,6.5171061e-002,-1.3168326e-001,1.9820844e-002,6.7852608e-002,-4.0859518e-002,6.4036914e-002,1.4835840e-001,2.3087998e-001,1.7251589e-002,-1.7643022e-001,-9.3642418e-002,0.0000000e+000,0.0000000e+000,5.7340596e-002,-6.6075778e-002,
,484,-1.4358713e-001,2.3379004e-001,-9.5937424e-002,-2.8719272e-001,2.2228578e-001,-1.6631393e-001,4.6102881e-003,2.9444454e-001,-5.3441651e-001,2.2875244e-001,2.3291547e-001,-2.8605913e-001,0.0000000e+000,0.0000000e+000,-1.6863290e-001,3.0378714e-001,1.8134376e-001,-1.1258235e-001,2.1199880e-001,-9.4486161e-002,1.3218552e-001,-2.1047723e-001,2.2128845e-001,-9.6696828e-002,9.5471089e-002,4.8536657e-002,-2.3728156e-001,7.2633043e-002,0.0000000e+000,0.0000000e+000,1.1737211e-001,-2.0356946e-001,1.6524068e-001,-8.4880936e-002,5.2926898e-002,2.7608565e-001,5.6127531e-002,-2.2297133e-001,-2.5637473e-002,-2.2033193e-001,-6.1029650e-002,-1.3668205e-002,1.8821751e-001,-1.4543864e-001,0.0000000e+000,0.0000000e+000,-1.0715077e-001,1.0535597e-002,1.5067337e-001,5.3967946e-002,-1.9008371e-001,9.3216912e-002,-1.6113906e-001,1.0561297e-001,8.6542185e-002,-2.0764329e-002,-2.7556882e-002,-1.9314016e-002,-1.5429322e-001,-6.2250927e-004,0.0000000e+000,0.0000000e+000,-3.5829670e-002,-5.7419770e-002,-4.5223937e-002,-4.5793624e-002,3.2578290e-002,-1.4463960e-001,-7.1559766e-002,-8.3659238e-002,1.3915832e-002,7.7488897e-002,-2.0610764e-002,8.1646936e-002,4.5266386e-002,-7.6991526e-003,0.0000000e+000,0.0000000e+000,-1.7044930e-001,3.8978229e-002,-8.7918449e-002,6.2191128e-003,8.0035709e-003,-1.4329970e-001,2.6537626e-001,-8.7058274e-002,-1.6432542e-001,3.1723367e-001,-7.3898779e-002,-1.0632239e-002,1.6800928e-001,-3.1386359e-001,0.0000000e+000,0.0000000e+000,1.0312880e-001,-2.5793551e-002,9.9101589e-002,1.9320320e-001,-3.1036856e-002,3.4604078e-002,-4.1671783e-002,1.0785939e-001,2.3132969e-002,3.0358142e-002,-9.7916617e-003,-3.4902017e-002,3.6650618e-002,-9.9602538e-002,0.0000000e+000,0.0000000e+000,4.3095306e-003,-8.5962001e-002,-1.5399891e-001,-1.4715340e-001,2.2483526e-002,4.7199629e-002,-7.7475060e-002,2.3442254e-001,1.9802073e-001,-1.4782451e-001,-2.0766572e-001,-1.3592790e-001,-1.1473558e-001,1.7874636e-001,0.0000000e+000,0.0000000e+000,-9.9893360e-002,2.1982831e-001,2.1745314e-002,-1.7490228e-001,2.6030839e-002,-5.6499293e-002,-1.1411419e-001,-1.5861946e-001,4.0082356e-002,1.1398055e-001,5.9719869e-002,1.6506104e-002,1.1530907e-002,-8.3072471e-002,0.0000000e+000,0.0000000e+000,-6.0182804e-002,7.9571039e-002,6.9757849e-002,3.3897069e-002,3.9817525e-002,1.7163573e-002,-5.9767940e-002,8.3246175e-002,-2.7347858e-001,1.1971258e-002,2.4502813e-001,4.7769909e-003,9.8628454e-002,-2.3252111e-002,0.0000000e+000,0.0000000e+000,1.1013229e-001,-1.5544765e-001,
