 -4.1887463e-002
 -8.1862789e-002
  1.0283417e-001
  4.9599017e-003
 -2.2470976e-001
  8.7048243e-002
  1.4187912e-001
  3.8053989e-002
  7.1708617e-002
  8.8401606e-002
  2.1349159e-001
 -1.0287931e-001
  0.0000000e+000
  0.0000000e+000
 -2.2911193e-001
  1.4194909e-001
 -5.7071730e-002
 -1.8567092e-001
  9.8246508e-002
 -1.2631915e-001
  6.9663412e-002
  1.7464219e-001
  1.0720345e-001
  2.6531583e-002
 -8.0041501e-004
 -1.9597176e-001
  2.7639351e-002
  1.0633253e-002
  0.0000000e+000
  0.0000000e+000
 -8.7854852e-003
  1.8438082e-001
 -2.0441874e-002
 -2.9682966e-002
  9.6364778e-002
  1.3345843e-001
 -5.1771221e-002
 -7.9975857e-002
  5.6280234e-002
 -2.0584815e-002
 -1.2159137e-001
  1.1219998e-001
 -8.2770480e-002
 -4.9617466e-003
  0.0000000e+000
  0.0000000e+000
  2.3594756e-002
 -1.9438606e-003
 -1.0077373e-001
  9.0689523e-002
 -9.4587530e-002
  1.9049503e-001
  1.2551135e-001
 -1.2974309e-001
 -3.2592127e-002
 -5.8819347e-002
 -1.1513405e-001
  1.8353568e-001
  1.8341018e-002
 -8.4453443e-002
  0.0000000e+000
  0.0000000e+000
  5.3615065e-002
 -1.9711188e-001
  1.8411737e-001
  1.2563043e-001
 -2.3153864e-001
 -9.2318575e-002
  9.8422009e-002
 -3.4354605e-003
  7.8773287e-002
 -2.0205961e-003
 -1.3002941e-001
  1.3814778e-001
  5.8360573e-002
  1.1094783e-001
  0.0000000e+000
  0.0000000e+000
 -1.1514183e-001
  1.2430107e-001
  1.1809772e-001
 -4.0326729e-002
  3.0614425e-003
  3.3636710e-002
 -1.7417322e-001
  6.3198765e-002
 -2.7850708e-001
  2.1439811e-002
  1.0794279e-001
 -8.2466503e-002
  2.8592262e-002
  1.6382894e-001
  0.0000000e+000
  0.0000000e+000
 -2.7026801e-002
  4.3352623e-002
 -5.3477814e-002
  9.8815348e-002
  2.1350478e-001
  1.2838834e-001
  2.9590360e-002
  4.7017556e-002
  4.4298133e-002
 -1.1063744e-001
 -1.5277322e-001
 -1.3694115e-001
  4.3097901e-002
  7.0971958e-002
  0.0000000e+000
  0.0000000e+000
  8.5261967e-002
 -3.3052683e-002
 -1.7575533e-001
  7.3441301e-002
 -1.5481944e-001
  7.2195206e-002
  3.6954987e-001
 -1.6695275e-001
  2.3419814e-001
  8.2181680e-002
  5.4622337e-002
  1.4591531e-001
 -2.1927570e-001
  1.4954601e-001
  0.0000000e+000
  0.0000000e+000
  8.2803946e-002
 -1.8647939e-001
  1.1418163e-001
  1.0307770e-001
 -8.6928547e-002
 -1.4419412e-001
 -6.1445375e-002
 -8.3728500e-002
  1.2578718e-002
  7.1883949e-003
 -6.2930858e-002
  4.7891183e-002
  1.2023810e-001
 -2.1365229e-002
  0.0000000e+000
  0.0000000e+000
 -4.9686761e-002
 -6.9285457e-002
  1.0647279e-001
 -1.6624362e-001
  5.7063315e-002
  9.8726120e-002
 -1.7419968e-001
 -1.1073026e-002
 -7.1544383e-002
 -2.8345577e-002
 -1.9955310e-001
 -1.3865059e-001
  2.5068597e-001
 -3.9173530e-002
  0.0000000e+000
  0.0000000e+000
 -6.5041537e-002
  2.4113518e-001
