 -3.6190261e-002
 -7.2159028e-002
  1.2308319e-002
  4.6991884e-002
 -7.7849770e-002
  1.9464400e-001
  1.5927228e-001
  1.3088697e-001
  3.9196607e-001
 -6.8764697e-001
 -5.3181006e-002
 -1.3061332e-001
  0.0000000e+000
  0.0000000e+000
  2.0960402e-001
 -5.7300778e-002
 -3.1349997e-002
  1.0959365e-002
 -1.6139736e-001
  1.7865552e-001
 -6.4066136e-002
  4.6134873e-002
  2.2958252e-002
 -1.8546411e-001
  6.6818809e-003
  1.6273591e-001
 -1.0978776e-001
  1.5633143e-001
  0.0000000e+000
  0.0000000e+000
 -9.4066569e-002
 -2.5979851e-002
 -5.5957444e-002
 -8.8351009e-002
  1.8746703e-003
  2.3595175e-002
 -1.1050979e-001
  7.7638996e-002
  3.9461012e-002
  8.9165311e-003
 -5.1878274e-003
 -7.6090540e-002
 -1.0911706e-001
 -3.3031677e-002
  0.0000000e+000
  0.0000000e+000
  2.8509826e-002
  7.2023498e-002
 -5.9379445e-002
 -2.5110516e-002
  6.8709795e-002
  7.4518613e-002
  1.1014386e-001
 -1.1895034e-002
 -8.4637635e-002
  2.1117498e-002
 -1.5967006e-001
  1.8364340e-002
 -5.7679919e-002
  1.3562123e-002
  0.0000000e+000
  0.0000000e+000
  3.0446384e-002
  1.0714362e-001
  7.6805595e-002
  1.2993076e-001
  2.5933193e-002
 -1.1849611e-001
  1.5469810e-001
 -1.4419079e-001
  9.0415691e-002
  4.5237895e-002
 -3.0852257e-002
  8.3714212e-003
 -1.0794950e-001
 -6.7650163e-003
  0.0000000e+000
  0.0000000e+000
 -6.8554047e-002
 -1.6908308e-002
  7.7373974e-002
  1.7284128e-001
 -2.9041515e-001
  1.3257411e-001
 -1.9419225e-001
 -1.3701274e-004
 -6.9219818e-002
  3.9999879e-001
  1.7984906e-001
  2.2421819e-002
  4.2799678e-002
 -8.4017017e-002
  0.0000000e+000
  0.0000000e+000
 -7.7346161e-002
 -2.2497569e-002
  1.2747055e-001
 -1.0545010e-001
 -2.9644561e-002
  6.6601026e-002
 -5.3774976e-002
  1.8984618e-001
 -2.3590092e-002
 -1.4666485e-001
 -3.5703530e-002
  2.3109978e-002
 -2.8682706e-001
  1.4164053e-001
  0.0000000e+000
  0.0000000e+000
  7.4254646e-003
  1.0049350e-002
 -2.7112258e-001
  1.2441811e-001
  1.2553793e-001
 -1.2613102e-001
  2.0770254e-002
  6.4083309e-002
  6.8007360e-002
  5.8863882e-002
  1.6863305e-001
  4.1361666e-002
 -2.3628747e-001
  8.3963155e-002
  0.0000000e+000
  0.0000000e+000
  8.0286483e-002
 -1.6775032e-001
 -8.3520477e-002
 -4.0976029e-003
  4.2000282e-002
 -1.8555472e-002
 -1.4542341e-001
  1.3353417e-002
 -1.0624612e-003
  4.5805010e-002
 -3.9029419e-002
  6.9352719e-002
  3.2629924e-002
  6.1659964e-002
  0.0000000e+000
  0.0000000e+000
 -1.1550337e-001
  1.3894593e-002
 -4.5316622e-002
  2.5461590e-002
  5.4155500e-002
  2.5876437e-002
 -4.1407733e-002
  4.0517617e-002
 -1.3881218e-001
  1.3804772e-001
 -9.4352420e-002
 -3.6881750e-002
  1.7804652e-001
 -1.3877174e-001
  0.0000000e+000
  0.0000000e+000
 -7.7215238e-002
  9.5365058e-002
