 -4.7441997e-002
  1.0577588e-001
 -1.9650394e-002
  3.5524112e-002
 -2.7818071e-001
  6.9318508e-002
  6.5165688e-002
  1.9233972e-003
  2.2132413e-001
 -6.0325861e-002
 -4.9386027e-002
  5.5942470e-002
  0.0000000e+000
  0.0000000e+000
  2.4259947e-002
 -5.5583650e-002
 -4.7003216e-002
 -4.0892389e-002
  2.5278259e-001
 -2.2218025e-001
  3.3133613e-001
 -1.9582872e-001
 -1.1924720e-001
  4.2974458e-002
 -1.7105580e-001
  2.1191826e-001
  1.8013370e-001
 -1.0272429e-001
  0.0000000e+000
  0.0000000e+000
 -2.1592251e-001
  1.1558159e-001
  8.1610893e-002
  1.5576033e-002
 -3.5818123e-002
  3.6433718e-002
 -8.3823690e-003
  3.0760813e-002
 -1.3046489e-001
  7.9621722e-003
  8.9212717e-003
  2.0080299e-002
  6.9301710e-002
 -5.2384413e-002
  0.0000000e+000
  0.0000000e+000
 -2.8999479e-001
 -7.2734130e-002
 -5.1632303e-002
 -9.7193842e-003
  2.7994402e-003
 -1.0850504e-001
  7.2290205e-002
 -6.1151905e-002
 -1.0412748e-001
  2.2166800e-003
 -6.0343733e-002
 -2.4347223e-003
  8.7541090e-002
 -4.3126754e-002
  0.0000000e+000
  0.0000000e+000
 -4.5499932e-002
  1.0066820e-001
 -9.5856900e-002
 -7.4336572e-003
  4.1576972e-002
  6.2028236e-002
  1.3954175e-001
 -3.1327661e-002
  4.1052361e-002
 -7.2038649e-002
  2.3985975e-002
 -1.0755600e-001
  5.2079615e-002
  2.3701082e-002
  0.0000000e+000
  0.0000000e+000
  1.6728689e-002
 -3.5433551e-002
  1.2797058e-001
 -1.4815944e-002
 -8.2036283e-002
  2.3225411e-001
  4.6572818e-002
 -3.2334413e-002
 -3.9207952e-002
  5.6802162e-003
  4.7292161e-002
  4.8561805e-002
 -4.7181045e-002
 -5.3892572e-002
  0.0000000e+000
  0.0000000e+000
 -4.8469014e-002
 -8.9475172e-002
  1.3632858e-002
  2.5563062e-001
 -1.8223769e-001
  3.2545000e-002
 -6.8718815e-002
 -1.5335859e-001
  8.7458004e-002
  3.0492774e-002
  3.1315781e-002
  2.2686356e-002
 -1.3983363e-002
  9.4731564e-002
  0.0000000e+000
  0.0000000e+000
  3.9070119e-002
 -1.2324979e-002
 -1.4018740e-001
  1.0915448e-001
  1.0652278e-001
  5.5981874e-002
 -2.6967852e-002
  3.3451363e-002
 -1.2031858e-001
 -1.0261276e-001
 -9.7319382e-002
 -6.2101719e-002
  2.1594285e-002
 -3.7469612e-002
  0.0000000e+000
  0.0000000e+000
 -4.0571554e-002
  1.8838792e-001
  5.4767652e-002
  2.9141090e-002
 -5.7180382e-002
  3.1925060e-002
 -4.6734012e-002
  8.5557882e-002
 -8.5114805e-002
  1.2965807e-002
  5.1589557e-003
 -5.5224435e-003
  1.4626841e-001
 -1.7076416e-001
  0.0000000e+000
  0.0000000e+000
 -1.1860835e-001
  1.4791273e-002
 -3.3297166e-002
 -6.0602038e-002
 -1.4538061e-001
  6.7354350e-002
  1.2317667e-001
 -9.1052548e-002
  9.5887829e-002
  8.0359048e-002
 -7.8156430e-002
  9.9499477e-002
 -1.1085440e-001
  8.9975573e-003
  0.0000000e+000
  0.0000000e+000
  2.3920119e-002
 -7.7597429e-002
