  7.1497888e-002
 -1.2102707e-001
 -3.6679759e-002
  1.0710805e-001
 -1.8904755e-002
  2.2019103e-001
  5.8180639e-002
 -2.0640646e-001
  2.6477411e-001
 -3.0824813e-001
 -1.9842235e-001
  2.3823591e-001
  0.0000000e+000
  0.0000000e+000
  1.1299308e-001
 -2.1124095e-002
 -2.0235098e-002
 -1.0254532e-001
  1.3000574e-001
 -7.0872174e-002
  4.3775769e-002
 -1.9327673e-002
 -6.2418515e-002
  1.2850824e-001
  1.2505602e-002
  4.9864796e-002
  3.7253647e-002
 -8.5735195e-002
  0.0000000e+000
  0.0000000e+000
  4.8645611e-002
 -9.8671574e-002
  6.0498862e-003
 -7.0439345e-002
 -3.7562130e-002
  5.5601389e-003
 -1.2906356e-001
  1.4298257e-001
 -4.7058804e-002
  9.5051571e-002
 -7.1917885e-002
 -5.2706496e-002
  2.8061530e-002
 -1.1936669e-001
  0.0000000e+000
  0.0000000e+000
 -1.5830916e-001
  1.8497289e-002
  1.3969267e-001
 -4.0721740e-002
  1.2306143e-002
  3.9433265e-003
 -1.4605718e-001
  1.7055337e-002
  4.9315781e-002
  1.6354864e-002
  2.3483392e-002
 -2.3630383e-002
 -1.2924106e-001
  1.3135616e-002
  0.0000000e+000
  0.0000000e+000
  9.5702588e-003
  6.3570909e-002
 -5.4042673e-002
 -3.2265965e-002
 -6.9713661e-002
 -4.2159596e-002
 -1.8964069e-002
  1.2535530e-001
  1.5540947e-002
 -1.5277209e-002
  9.3295313e-003
  1.8095167e-002
  4.3308932e-003
  3.6551409e-002
  0.0000000e+000
  0.0000000e+000
  3.8635035e-002
 -3.5872880e-002
 -1.2314231e-001
  3.1273966e-002
 -7.2308785e-002
  8.9772723e-002
  9.2169170e-002
  1.9818757e-002
 -1.0983766e-001
  1.3373092e-001
 -1.1362830e-001
  8.2588207e-002
  2.3307325e-002
  4.5315412e-002
  0.0000000e+000
  0.0000000e+000
  2.6102516e-002
  9.4301313e-003
 -6.2506220e-004
 -5.4251535e-002
 -8.2855491e-002
  2.6247616e-002
 -8.9247773e-002
  1.8955948e-001
 -3.9770766e-002
  3.1926419e-002
  1.8304615e-002
  3.4987638e-002
 -3.5689840e-002
 -3.6545002e-002
  0.0000000e+000
  0.0000000e+000
 -1.0555537e-001
 -4.1260035e-002
  7.1560552e-002
  9.2768632e-002
 -4.4021078e-002
  7.1784947e-003
 -1.9054346e-001
  1.2655835e-001
  3.4373883e-002
  1.4766145e-001
  5.3320131e-002
 -1.0157494e-001
  1.2025114e-002
 -1.1886665e-001
  0.0000000e+000
  0.0000000e+000
 -4.3372883e-002
 -7.8319992e-003
  3.3154169e-002
 -1.1133047e-001
 -1.0850576e-002
 -6.4589950e-003
  1.6856004e-002
  8.9838411e-003
 -4.8957676e-002
 -4.7531339e-002
  7.6677951e-002
  1.6914328e-002
 -1.0535621e-002
  3.8398617e-002
  0.0000000e+000
  0.0000000e+000
  3.4887382e-002
  4.7928583e-002
 -1.2300323e-003
 -4.9191567e-002
  8.2554380e-003
 -1.1024902e-001
  5.3336852e-003
 -6.9134346e-002
 -1.1028180e-001
  2.0931961e-002
 -4.1018147e-002
  5.8576420e-002
  2.4407635e-003
  2.2753923e-003
  0.0000000e+000
  0.0000000e+000
 -2.2478966e-002
  2.9044128e-002
