0.000000, 0.000000, 0.000000, 0.000000, 0.000000, 0.000000, 0.000000, 0.000000, 0.000000, 0.000000, 0.000000, 0.000000, 0.000000, 0.000000, 0.000000, 0.000000, 0.000000, 0.000000, 0.000000, 0.000000, 0.000000, 0.000000, 0.000000, 0.000000, 0.000000, 0.000000, 0.000000, 0.000000, 0.000000, 0.000000, 0.000000, 0.000000, 0.000000, 0.000000, 0.000000, 0.000000, 0.000000, 0.000000, 0.000000, 0.000000, 0.000000, 0.000000, 0.000000, 0.000000, 0.000000, 0.000000, 0.000000, 0.000000, 0.000000, 0.000000, 0.000000, 0.000000, 0.000000, 0.000000, 0.000000, 0.000000, 0.000000, 0.000000, 0.000000, 0.000000, 0.000000, 0.000000, 0.000000, 0.000000, 0.000000, 0.000000, 0.000000, 0.000000, 0.000000, 0.000000, 0.000000, 0.000000, 0.000000, 0.000000, 0.000000, 0.000000, 0.000000, 0.000000, 0.000000, 0.000000, 0.000000, 0.000000, 0.000000, 0.000000, 0.000000, 0.000000, 0.000000, 0.000000, 0.000000, 0.000000, 0.000000, 0.000000, 0.000000, 0.000000, 0.000000, 0.000000, 0.000000, 0.000000, 0.000000, 0.000000, 0.000000, 0.000000, 0.000000, 0.000000, 0.000000, 0.000000, 0.000000, 0.000000, 0.000000, 0.000000, 0.000000, 0.000000, 0.000000, 0.000000, 0.000000, 0.000000, 0.000000, 0.000000, 0.000000, 0.000000, 0.000000, 0.000000, 0.000000, 0.000000, 0.000000, 0.000000, 0.000000, 0.000000, 0.000000, 0.000000, 0.000000, 0.000000, 0.000000, 0.000000, 0.000000, 0.000000, 0.000000, 0.000000, 0.000000, 0.000000, 0.000000, 0.000000, 0.000000, 0.000000, 0.000000, 0.000000, 0.000000, 0.000000, 0.000000, 0.000000, 0.000000, 0.000000, 0.000000, 0.000000, 0.000000, 0.000000, 0.000000, 0.000000, 0.000000, 0.000000, 
-0.011624, 0.011187, -0.009620, 0.012229, 0.010693, -0.009583, -0.003448, 0.001804, -0.001894, 0.004589, -0.008125, 0.011485, 0.000000, 0.000000, 0.004195, 0.005316, -0.005485, -0.009386, 0.003832, -0.020800, 0.006705, 0.006857, -0.006644, 0.024047, -0.023975, -0.012480, 0.013729, -0.024214, 0.000000, 0.000000, -0.008586, 0.035635, 0.008766, -0.004760, -0.004924, 0.009453, -0.006600, 0.004505, 0.007770, 0.003259, -0.001325, 0.001480, -0.012011, -0.000152, 0.000000, 0.000000, -0.005565, -0.003858, 0.010804, -0.011517, -0.006761, 0.013364, 0.000494, -0.001824, 0.002583, -0.000862, -0.007294, -0.001559, 0.011319, -0.007690, 0.000000, 0.000000, -0.000431, 0.000100, -0.013918, 0.005787, 0.018939, -0.005630, 0.004600, 0.000115, -0.009084, 0.002074, 0.001212, 0.003280, -0.011505, 0.008805, 0.000000, 0.000000, 0.009219, 0.003624, 0.005421, -0.010311, -0.001670, -0.004999, 0.003807, 0.018252, 0.011395, -0.003011, 0.020803, 0.010599, -0.017132, -0.002413, 0.000000, 0.000000, -0.020604, -0.001970, -0.021767, -0.001581, 0.004015, -0.000423, 0.014123, 0.003350, 0.006833, 0.005599, -0.009841, -0.001494, -0.006102, 0.005924, 0.000000, 0.000000, -0.001882, -0.000750, -0.014370, 0.023233, 0.013314, 0.015580, 0.007655, -0.018889, 0.019490, 0.001959, -0.027054, -0.000926, -0.008018, 0.004274, 0.000000, 0.000000, 0.005049, 0.007656, 0.001236, 0.005734, -0.007455, 0.001133, 0.010233, 0.008367, 0.000124, 0.002880, -0.003091, -0.007608, -0.015965, -0.006084, 0.000000, 0.000000, 0.002748, 0.000582, 0.012863, -0.002494, -0.009159, -0.002400, -0.005007, 0.006661, -0.018242, -0.018831, 0.009989, 0.002347, 0.001161, 0.005940, 0.000000, 0.000000, -0.013975, -0.005128, 
-0.018594, 0.030505, -0.003296, 0.018128, 0.029657, -0.036660, -0.012305, -0.010432, -0.010183, 0.013045, -0.006450, 0.013874, 0.000000, 0.000000, 0.006624, 0.000069, -0.006804, -0.005746, 0.002726, -0.026439, 0.023304, 0.021363, -0.000547, 0.020803, -0.021210, -0.060671, 0.038854, -0.038630, 0.000000, 0.000000, -0.005501, 0.032612, -0.001385, -0.010767, 0.000528, 0.013013, -0.012247, 0.006181, 0.004040, 0.003725, 0.008482, 0.008416, -0.017799, -0.005050, 0.000000, 0.000000, 0.003602, -0.011107, 0.010416, -0.005769, -0.001561, 0.015994, -0.006951, -0.010418, 0.005045, -0.012012, -0.001407, 0.015255, 0.007159, -0.003070, 0.000000, 0.000000, -0.016554, -0.004004, -0.029380, 0.013779, -0.002345, 0.004612, 0.015184, -0.017221, 0.013667, -0.000256, -0.003052, 0.000845, -0.035409, 0.019488, 0.000000, 0.000000, 0.019365, 0.015400, 0.017702, -0.027131, 0.003579, -0.008099, 0.014800, 0.037174, 0.012078, -0.002126, 0.019821, -0.003035, -0.006104, -0.002502, 0.000000, 0.000000, -0.021671, -0.009070, -0.002619, -0.004354, 0.009424, -0.006677, -0.000004, 0.006218, 0.003166, 0.016670, -0.011285, -0.005764, -0.000432, 0.003203, 0.000000, 0.000000, 0.001223, 0.004870, -0.013966, 0.029215, 0.015146, 0.021846, -0.000385, -0.023191, 0.017706, -0.005134, -0.004232, -0.000508, 0.006264, -0.003355, 0.000000, 0.000000, -0.002858, 0.005998, -0.014771, 0.012638, -0.008772, 0.002561, 0.007635, 0.016831, 0.008181, -0.004072, 0.004005, -0.007052, -0.019949, -0.010002, 0.000000, 0.000000, 0.001576, -0.004294, 0.021419, 0.002270, -0.014652, -0.004289, -0.005746, 0.005238, -0.005258, -0.028546, -0.013173, 0.003566, -0.002718, 0.002402, 0.000000, 0.000000, -0.010229, -0.008476, 
-0.002005, 0.021225, 0.005984, 0.020484, 0.012276, -0.026820, -0.022215, -0.011921, -0.006352, 0.007021, -0.002972, 0.021987, 0.000000, 0.000000, 0.007466, -0.004353, -0.002916, -0.009415, 0.009312, -0.042374, 0.033829, 0.021840, -0.008036, 0.035404, -0.034881, -0.065870, 0.031328, -0.029323, 0.000000, 0.000000, 0.007390, 0.032141, 0.003449, -0.007912, -0.003370, 0.013138, -0.016696, 0.002609, 0.007114, 0.005428, 0.005759, 0.013041, -0.023987, -0.006040, 0.000000, 0.000000, 0.008702, -0.009138, 0.004884, -0.001138, -0.005574, 0.016436, 0.007590, -0.013255, 0.009447, -0.012073, -0.013233, 0.024642, 0.001891, -0.006336, 0.000000, 0.000000, -0.030436, 0.000339, -0.027551, 0.023120, -0.003349, 0.007254, 0.012618, -0.023342, 0.005704, 0.003185, 0.004431, 0.002316, -0.036670, 0.018557, 0.000000, 0.000000, 0.015250, 0.008965, 0.024247, -0.023787, 0.000956, -0.000876, 0.018649, 0.023061, 0.016008, -0.011998, 0.017109, 0.003777, -0.004883, -0.002835, 0.000000, 0.000000, -0.023600, -0.007215, 0.002486, -0.013106, 0.019151, 0.000012, -0.000772, 0.004295, -0.004232, 0.026786, -0.010426, -0.017613, 0.015109, -0.001985, 0.000000, 0.000000, 0.001687, 0.003817, -0.012914, 0.035579, 0.012463, 0.020750, 0.004330, -0.020048, 0.017945, 0.000082, -0.009671, -0.009639, 0.009407, 0.007256, 0.000000, 0.000000, -0.004064, 0.009534, -0.014555, 0.014638, -0.026186, 0.005524, 0.005457, 0.015680, 0.011972, 0.002817, -0.001835, -0.002091, -0.032869, -0.009045, 0.000000, 0.000000, 0.001433, 0.005887, 0.032105, 0.003215, -0.015958, -0.006645, -0.011517, -0.001788, 0.001132, -0.034808, -0.003950, 0.017913, -0.007883, -0.001628, 0.000000, 0.000000, -0.014707, -0.011051, 
0.003606, -0.004117, 0.014939, 0.021732, 0.024770, -0.012608, -0.026899, -0.009707, -0.008898, 0.003903, -0.009254, 0.016409, 0.000000, 0.000000, 0.014101, -0.006869, 0.000869, -0.001653, 0.010102, -0.036735, 0.031228, -0.012828, 0.002743, 0.032334, -0.027165, -0.052431, 0.032029, -0.023680, 0.000000, 0.000000, -0.001817, 0.029759, 0.007696, -0.015402, -0.000906, 0.010751, -0.018231, 0.004105, -0.000257, 0.008710, 0.006182, 0.013593, -0.026122, -0.009669, 0.000000, 0.000000, 0.016711, -0.001900, 0.006751, -0.004313, -0.012165, 0.014044, 0.015249, -0.012423, 0.017257, -0.005677, -0.023255, 0.035363, -0.002219, -0.009427, 0.000000, 0.000000, -0.041811, -0.002868, -0.030547, 0.024694, -0.010745, 0.009176, 0.011160, -0.011428, 0.004750, 0.009045, 0.006948, 0.001595, -0.042647, 0.013707, 0.000000, 0.000000, 0.025452, -0.000146, 0.023201, -0.024767, 0.005105, 0.012485, 0.017879, 0.024205, 0.011654, -0.022301, 0.020581, 0.004295, -0.004483, -0.004027, 0.000000, 0.000000, -0.023690, -0.006173, 0.002650, -0.015969, 0.025833, 0.004326, 0.001754, 0.012627, -0.006356, 0.030805, -0.017271, -0.013548, 0.018131, -0.010848, 0.000000, 0.000000, -0.007356, 0.015137, -0.015648, 0.048340, 0.010838, 0.013207, -0.006400, -0.020399, 0.026285, 0.004560, -0.012401, -0.005943, -0.000619, -0.001112, 0.000000, 0.000000, -0.007160, 0.016214, -0.015182, 0.015231, -0.034137, 0.007146, 0.010068, 0.012418, 0.006257, -0.000035, -0.003631, -0.003915, -0.034771, -0.003916, 0.000000, 0.000000, 0.008022, 0.008930, 0.042439, 0.001911, -0.019818, -0.002643, -0.003629, 0.013615, 0.000873, -0.036744, -0.001691, 0.011475, -0.005231, 0.000598, 0.000000, 0.000000, -0.013928, -0.019416, 
0.009878, -0.003652, 0.013523, 0.017518, 0.015393, -0.008451, -0.013663, -0.017816, -0.000130, -0.006754, -0.012754, 0.025364, 0.000000, 0.000000, 0.022502, -0.007630, -0.001398, 0.005258, 0.005065, -0.044887, 0.044030, -0.018175, -0.001289, 0.036908, -0.043422, -0.044807, 0.031206, -0.025334, 0.000000, 0.000000, 0.007431, 0.026842, 0.007268, -0.012863, -0.006231, 0.013536, -0.018219, 0.005740, 0.002721, 0.012477, 0.008445, 0.012362, -0.034402, -0.004504, 0.000000, 0.000000, 0.022991, -0.003870, 0.010682, -0.007119, -0.014910, 0.015709, 0.016971, -0.008324, 0.018649, -0.007201, -0.027440, 0.033017, 0.000399, -0.015056, 0.000000, 0.000000, -0.048559, 0.009116, -0.027909, 0.020574, -0.011897, 0.008022, 0.007545, -0.013345, 0.004625, 0.010854, 0.008439, -0.000658, -0.044230, 0.006443, 0.000000, 0.000000, 0.025047, -0.002841, 0.023986, -0.014408, 0.008225, 0.014715, 0.009190, 0.015313, 0.018080, -0.019546, 0.003376, 0.007055, -0.010283, -0.010340, 0.000000, 0.000000, -0.022509, -0.005608, 0.001414, -0.008074, 0.013896, 0.018878, 0.011498, 0.010117, -0.003283, 0.035321, -0.024277, -0.010588, 0.008564, -0.011422, 0.000000, 0.000000, -0.004740, 0.015915, -0.003308, 0.039327, 0.011687, 0.008751, -0.000692, -0.013209, 0.028474, 0.002420, 0.005962, -0.005395, 0.000978, 0.001942, 0.000000, 0.000000, -0.007218, 0.016751, -0.011619, 0.021528, -0.038850, 0.009264, 0.010725, 0.004384, 0.006119, -0.000986, -0.012389, 0.000864, -0.045193, -0.002588, 0.000000, 0.000000, 0.008457, 0.010129, 0.039498, 0.009834, -0.027699, -0.002532, 0.000424, 0.003306, 0.002948, -0.027549, -0.005241, 0.018789, -0.002282, -0.001498, 0.000000, 0.000000, -0.012058, -0.024209, 
0.019102, -0.016935, 0.008919, 0.021434, 0.014091, -0.000999, -0.005697, -0.029482, -0.003519, -0.005192, -0.027100, 0.042322, 0.000000, 0.000000, 0.029448, -0.011495, -0.010061, 0.009693, 0.008868, -0.049566, 0.043812, -0.026168, 0.010566, 0.031932, -0.045211, -0.060461, 0.023203, -0.015921, 0.000000, 0.000000, 0.012219, 0.033027, 0.001880, -0.018009, -0.004701, 0.019328, -0.012347, 0.009053, -0.007779, 0.014100, 0.000323, 0.009219, -0.034267, -0.000818, 0.000000, 0.000000, 0.028298, -0.007726, 0.014996, -0.004753, -0.015102, 0.014615, 0.020100, -0.005198, 0.019050, -0.005915, -0.037964, 0.038992, 0.007553, -0.024359, 0.000000, 0.000000, -0.057250, 0.007992, -0.015845, 0.021069, -0.011023, 0.005137, 0.006895, -0.020550, 0.003153, 0.005651, 0.000051, 0.007102, -0.041396, 0.011692, 0.000000, 0.000000, 0.025010, 0.003212, 0.027286, -0.009397, 0.008203, 0.014740, 0.012924, -0.004897, 0.020508, -0.025915, 0.018534, 0.014314, -0.008626, -0.006926, 0.000000, 0.000000, -0.030387, -0.013720, 0.011447, -0.009731, -0.001681, 0.026530, 0.011044, 0.011050, 0.005509, 0.035469, -0.021356, -0.017869, -0.001684, -0.007325, 0.000000, 0.000000, -0.008075, 0.014332, -0.000987, 0.033039, 0.007302, 0.015096, 0.001464, -0.007219, 0.027861, 0.004104, -0.003279, -0.000529, 0.002723, -0.001495, 0.000000, 0.000000, -0.013846, 0.018238, -0.019948, 0.010105, -0.023420, 0.005125, 0.011763, 0.000461, 0.009316, -0.003086, -0.010118, -0.002827, -0.049115, -0.000038, 0.000000, 0.000000, 0.011829, 0.012901, 0.038859, 0.017120, -0.019180, -0.003438, -0.005534, -0.002018, 0.004157, -0.027611, -0.006314, 0.014886, 0.000016, 0.000785, 0.000000, 0.000000, -0.012399, -0.024660, 
0.035176, -0.018595, 0.019363, 0.023968, 0.011565, -0.017853, -0.027365, -0.033497, -0.002606, -0.000000, -0.006047, 0.028469, 0.000000, 0.000000, 0.020952, -0.014499, 0.006645, 0.004735, 0.007831, -0.050721, 0.039671, -0.021898, -0.001000, 0.049055, -0.037665, -0.049345, 0.045654, -0.035893, 0.000000, 0.000000, -0.015992, 0.021519, 0.003260, -0.018878, -0.011446, 0.026348, -0.011963, 0.014266, -0.008817, 0.008474, -0.008246, 0.013376, -0.050760, 0.013072, 0.000000, 0.000000, 0.041829, 0.001825, 0.012659, -0.007878, -0.008091, 0.005450, 0.024077, -0.002966, 0.015904, 0.014210, -0.045820, 0.044029, 0.014023, -0.035817, 0.000000, 0.000000, -0.077101, 0.008705, -0.026634, 0.017838, -0.025988, 0.019954, -0.002033, -0.009167, 0.003713, -0.010244, 0.015965, -0.003258, -0.025339, 0.013409, 0.000000, 0.000000, 0.025663, -0.004385, 0.045544, -0.014457, 0.013309, 0.005210, 0.009722, -0.011619, 0.023203, -0.009412, 0.036645, 0.009983, -0.001921, -0.022266, 0.000000, 0.000000, -0.039074, -0.013947, 0.024023, -0.008021, 0.000790, 0.023433, 0.017356, -0.004997, -0.005217, 0.045834, -0.021962, -0.001580, -0.006625, -0.007156, 0.000000, 0.000000, -0.012781, 0.026189, -0.006396, 0.040676, -0.002620, 0.017984, -0.003319, -0.003279, 0.036963, -0.008563, -0.010654, -0.015141, -0.003909, -0.003187, 0.000000, 0.000000, -0.005678, 0.020880, -0.026103, 0.010143, -0.041310, 0.011521, 0.010332, -0.001486, 0.008434, 0.008898, -0.000641, -0.009089, -0.049241, -0.005249, 0.000000, 0.000000, 0.003752, 0.005103, 0.033261, 0.019938, -0.016637, -0.003942, -0.002326, -0.006745, -0.000612, -0.013068, -0.013160, 0.028311, 0.002375, -0.000207, 0.000000, 0.000000, -0.005690, -0.022416, 
0.062863, -0.034795, 0.010657, 0.039123, -0.018664, -0.008995, -0.016023, -0.056934, 0.012860, 0.010055, -0.009236, 0.031144, 0.000000, 0.000000, 0.010267, -0.020469, -0.000715, 0.013725, 0.004413, -0.035688, 0.047593, -0.040208, 0.000114, 0.043574, -0.066991, -0.014690, 0.039407, -0.043177, 0.000000, 0.000000, -0.014335, 0.041281, 0.000785, -0.020886, -0.008169, 0.024198, 0.007900, 0.002045, -0.009383, 0.015701, -0.024255, 0.025581, -0.056573, 0.009019, 0.000000, 0.000000, 0.044838, 0.002376, 0.016847, -0.014229, -0.001904, 0.005635, 0.026439, 0.000580, 0.012635, 0.014954, -0.047746, 0.049174, 0.017797, -0.043465, 0.000000, 0.000000, -0.090707, 0.011045, -0.049548, 0.031714, -0.022962, 0.019399, 0.002327, -0.011807, -0.009586, 0.015012, 0.012158, 0.002057, -0.026465, 0.003771, 0.000000, 0.000000, 0.019736, 0.004173, 0.041823, -0.012153, 0.010729, 0.005597, 0.006669, -0.022290, 0.026203, -0.019782, 0.025138, 0.020929, -0.001171, -0.022173, 0.000000, 0.000000, -0.034269, -0.007017, 0.034913, -0.016112, -0.002874, 0.018963, 0.015246, -0.002976, 0.000855, 0.032508, -0.028559, -0.001565, -0.004202, -0.003992, 0.000000, 0.000000, -0.006808, 0.016459, 0.001266, 0.047828, -0.013932, 0.031453, -0.015081, 0.002263, 0.030173, -0.016459, -0.020607, -0.009766, -0.007325, -0.000723, 0.000000, 0.000000, -0.009157, 0.014815, -0.027241, 0.010302, -0.035863, 0.020602, 0.003758, -0.004125, 0.000459, 0.019696, 0.003243, -0.011853, -0.052066, -0.003640, 0.000000, 0.000000, 0.009136, 0.004081, 0.022605, 0.023886, -0.017191, 0.001444, 0.011982, -0.006829, 0.008621, -0.020547, -0.000781, 0.026190, 0.005295, 0.000420, 0.000000, 0.000000, -0.004368, -0.016629, 
0.069438, -0.035930, 0.014803, 0.041667, -0.011674, -0.010919, -0.008107, -0.060173, -0.000119, 0.001639, -0.013169, 0.032282, 0.000000, 0.000000, 0.015752, -0.018338, -0.005825, 0.006175, 0.014062, -0.038326, 0.055021, -0.046544, 0.010741, 0.055400, -0.091168, -0.003273, 0.035109, -0.058563, 0.000000, 0.000000, 0.000621, 0.043828, -0.004039, -0.023784, -0.018842, 0.028492, 0.025578, -0.002438, -0.004987, 0.018015, -0.031681, 0.021982, -0.051239, 0.002841, 0.000000, 0.000000, 0.049431, 0.004941, 0.023073, 0.000790, 0.000372, 0.005594, 0.027288, -0.009054, 0.019018, 0.001076, -0.055645, 0.045568, 0.002185, -0.032859, 0.000000, 0.000000, -0.083860, 0.007997, -0.044691, 0.023615, -0.012416, 0.016235, -0.019505, 0.018085, -0.021352, 0.024845, 0.020116, -0.005331, -0.027065, -0.003320, 0.000000, 0.000000, 0.009606, -0.000218, 0.043784, -0.017811, 0.016861, 0.007076, -0.010408, -0.011649, 0.019300, -0.018360, 0.055079, 0.013823, 0.006840, -0.011607, 0.000000, 0.000000, -0.034788, -0.006665, 0.031518, -0.027542, -0.024483, 0.028181, 0.022810, -0.001381, 0.006628, 0.038002, -0.031661, -0.012813, -0.000297, 0.007777, 0.000000, 0.000000, 0.003735, 0.018385, 0.011810, 0.038961, -0.014097, 0.032675, 0.009777, -0.008811, 0.019854, -0.007963, -0.044529, -0.005553, -0.000407, -0.023488, 0.000000, 0.000000, -0.012195, 0.012213, -0.020152, 0.002920, -0.026351, 0.013856, 0.000596, -0.011667, -0.002903, 0.030061, 0.005874, -0.017659, -0.054966, -0.001887, 0.000000, 0.000000, 0.016207, -0.006575, 0.031039, 0.028841, -0.016959, 0.003471, 0.002537, -0.002699, 0.016367, -0.021585, -0.007628, 0.021407, -0.001339, 0.013918, 0.000000, 0.000000, 0.007762, -0.011438, 
0.051856, -0.026262, 0.016596, 0.041154, 0.001823, -0.024768, 0.010856, -0.067654, 0.006664, 0.004407, -0.034867, 0.044455, 0.000000, 0.000000, 0.013867, -0.021531, -0.014507, 0.033340, 0.012138, -0.032779, 0.064138, -0.060405, -0.009136, 0.055376, -0.101499, -0.002846, 0.046134, -0.054699, 0.000000, 0.000000, -0.007914, 0.048787, 0.017276, -0.035489, -0.010033, 0.018298, -0.007708, 0.016782, -0.012700, 0.022648, -0.022941, 0.028929, -0.049700, -0.001939, 0.000000, 0.000000, 0.053470, -0.009619, 0.028096, -0.002459, -0.000964, 0.002064, 0.022987, -0.014731, 0.024959, -0.000639, -0.032263, 0.033431, -0.009776, -0.012236, 0.000000, 0.000000, -0.078820, 0.005281, -0.063351, 0.046385, -0.020354, 0.028273, -0.008200, 0.012888, -0.024706, 0.015773, 0.016587, -0.004050, -0.026329, -0.010398, 0.000000, 0.000000, 0.009799, 0.005300, 0.041969, -0.020065, 0.004515, 0.012287, -0.009753, -0.005928, 0.022429, -0.026752, 0.053250, 0.019270, 0.014171, -0.012056, 0.000000, 0.000000, -0.039331, -0.003539, 0.020417, -0.021494, -0.046826, 0.008171, 0.013641, 0.005396, 0.019564, 0.048687, -0.036359, -0.012160, -0.015450, 0.009793, 0.000000, 0.000000, 0.019263, 0.010065, 0.027435, 0.046380, -0.020325, 0.020942, 0.006905, -0.003053, 0.029370, -0.004218, -0.046843, -0.002530, -0.005707, -0.026598, 0.000000, 0.000000, -0.011156, 0.005497, -0.013638, -0.011833, -0.010312, 0.034665, 0.011326, -0.018288, -0.007449, 0.029124, 0.010072, -0.019758, -0.051496, 0.005356, 0.000000, 0.000000, -0.003128, 0.007047, 0.025457, 0.031290, -0.018833, 0.013566, 0.009791, -0.006145, 0.003062, -0.030656, -0.020901, 0.019632, 0.004666, 0.025236, 0.000000, 0.000000, 0.008303, -0.005258, 
0.069203, -0.026935, 0.021214, 0.037676, -0.023348, -0.001526, -0.010618, -0.051081, 0.010431, -0.002431, -0.035476, 0.041871, 0.000000, 0.000000, 0.011998, -0.010516, -0.020127, 0.024263, 0.022520, -0.029836, 0.075520, -0.057155, -0.026061, 0.053589, -0.123854, -0.003283, 0.046983, -0.059962, 0.000000, 0.000000, -0.009095, 0.062040, 0.019748, -0.036269, -0.004307, 0.014154, -0.003451, 0.009197, -0.014094, 0.024631, -0.007875, 0.027840, -0.057345, -0.000670, 0.000000, 0.000000, 0.046004, -0.013546, 0.041168, 0.002142, -0.009733, -0.006741, 0.022442, -0.018052, 0.019709, 0.026570, -0.042477, 0.038054, -0.002082, -0.018889, 0.000000, 0.000000, -0.082071, 0.010307, -0.077544, 0.033028, -0.012853, 0.018463, -0.021025, 0.050645, -0.017490, 0.007313, 0.021015, -0.024965, -0.021550, -0.000928, 0.000000, 0.000000, 0.012835, 0.015048, 0.048271, -0.028577, 0.004471, 0.009424, -0.014785, -0.004138, 0.027967, -0.036155, 0.054498, 0.027175, 0.007498, -0.012951, 0.000000, 0.000000, -0.039979, -0.016659, 0.023087, 0.001524, -0.056625, 0.022831, 0.002024, -0.023507, 0.018866, 0.044971, -0.026465, 0.002089, -0.020191, 0.004560, 0.000000, 0.000000, 0.007959, 0.002513, 0.035734, 0.038865, -0.024814, 0.020689, 0.011578, 0.007794, 0.031794, -0.010756, -0.084419, 0.001728, -0.007678, -0.025420, 0.000000, 0.000000, -0.012413, 0.008693, -0.007933, -0.010384, -0.006792, 0.042806, 0.001845, -0.011555, -0.008910, 0.033303, 0.016340, -0.035003, -0.058662, 0.006958, 0.000000, 0.000000, 0.008206, 0.016524, 0.018292, 0.047294, -0.013188, 0.024074, 0.010159, -0.028430, -0.003924, -0.020651, 0.014202, 0.022573, 0.006017, 0.021432, 0.000000, 0.000000, 0.001917, -0.008830, 
0.073613, -0.041005, 0.031167, 0.029373, -0.039835, 0.017044, -0.016430, -0.043680, 0.000746, 0.003246, -0.031779, 0.040929, 0.000000, 0.000000, 0.005413, -0.001375, -0.024503, 0.025429, 0.027206, -0.029725, 0.061347, -0.050979, -0.026112, 0.047002, -0.113697, 0.007855, 0.052802, -0.044125, 0.000000, 0.000000, -0.014888, 0.048691, 0.004980, -0.031719, 0.008924, 0.005286, 0.004991, -0.000654, -0.016499, 0.024776, -0.012453, 0.031742, -0.057972, -0.009286, 0.000000, 0.000000, 0.046610, -0.016181, 0.039823, 0.001630, -0.014106, -0.004712, 0.025979, -0.011651, 0.031812, 0.023049, -0.057652, 0.031814, -0.003745, -0.030506, 0.000000, 0.000000, -0.072684, 0.021646, -0.077469, 0.023745, -0.007331, 0.020548, -0.029942, 0.047866, -0.013832, 0.016779, 0.012878, -0.015678, -0.027357, 0.006088, 0.000000, 0.000000, 0.014217, 0.012267, 0.044029, -0.010195, -0.010605, 0.011036, -0.005006, -0.004292, 0.027389, -0.022109, 0.058979, 0.017369, 0.009855, -0.030983, 0.000000, 0.000000, -0.040560, -0.021551, 0.009804, 0.008206, -0.059790, 0.018352, -0.000878, -0.033647, 0.024921, 0.031804, -0.016179, 0.002295, -0.025718, 0.011795, 0.000000, 0.000000, 0.001965, 0.002655, 0.036671, 0.032366, -0.018363, 0.026189, 0.024339, 0.016640, 0.021977, -0.012169, -0.079530, 0.014124, -0.016966, -0.007211, 0.000000, 0.000000, -0.008688, 0.014035, -0.007611, -0.011483, -0.018897, 0.050308, 0.007638, -0.005230, -0.002202, 0.032101, -0.005001, -0.037613, -0.055194, 0.010254, 0.000000, 0.000000, 0.018426, 0.030298, 0.015394, 0.046420, -0.016161, 0.021894, -0.004192, -0.026972, 0.003708, -0.016222, 0.014125, 0.021361, 0.015661, 0.015426, 0.000000, 0.000000, -0.014294, -0.013380, 
0.047485, -0.010953, 0.013908, 0.034424, -0.013384, 0.000273, 0.006204, -0.075677, -0.013405, 0.023092, -0.075008, 0.072120, 0.000000, 0.000000, 0.007923, 0.000221, -0.036099, 0.042969, 0.008584, -0.021904, 0.078663, -0.075987, -0.004427, 0.025833, -0.118957, 0.017542, 0.034837, -0.039536, 0.000000, 0.000000, -0.010023, 0.043236, 0.009603, -0.041962, 0.005610, 0.009172, 0.010003, 0.016568, -0.018467, 0.014118, -0.017075, 0.031695, -0.053541, 0.000490, 0.000000, 0.000000, 0.050478, -0.018048, 0.043371, -0.000727, -0.009359, -0.007633, 0.025414, -0.003861, 0.026831, 0.029283, -0.072315, 0.029853, -0.002977, -0.041493, 0.000000, 0.000000, -0.079625, 0.038736, -0.078442, 0.009262, -0.003121, 0.022184, 0.006500, 0.040689, -0.003510, 0.039408, 0.004494, 0.000693, -0.047401, -0.012502, 0.000000, 0.000000, 0.014159, 0.004493, 0.042155, -0.017467, -0.001985, 0.016166, -0.013842, 0.005710, 0.012927, -0.020672, 0.078717, 0.001458, -0.001884, -0.007697, 0.000000, 0.000000, -0.028738, -0.026598, -0.006165, 0.027243, -0.061655, 0.039925, -0.027982, -0.034889, 0.021860, 0.022132, -0.006395, -0.004221, -0.016157, 0.020707, 0.000000, 0.000000, -0.010113, 0.031405, 0.021575, 0.030084, -0.019593, 0.021334, 0.029549, 0.007004, 0.031884, -0.017522, -0.097239, 0.021829, -0.021015, -0.013208, 0.000000, 0.000000, -0.007116, 0.009390, -0.008326, -0.025632, -0.003473, 0.027451, 0.024812, 0.001071, -0.005878, 0.037334, -0.001936, -0.040162, -0.057929, -0.004264, 0.000000, 0.000000, 0.027974, -0.016119, 0.031940, 0.058846, -0.011128, 0.032281, 0.002913, -0.037829, 0.017864, -0.033152, 0.020674, 0.018101, 0.023283, 0.011539, 0.000000, 0.000000, -0.015823, -0.013124, 
0.070483, -0.016755, 0.008437, 0.038982, -0.032348, -0.007514, 0.011926, -0.071131, -0.006916, 0.037407, -0.090365, 0.075424, 0.000000, 0.000000, 0.016564, -0.011111, -0.043678, 0.053532, -0.010970, -0.034419, 0.052828, -0.060625, -0.007719, 0.037602, -0.090464, -0.011916, 0.041923, -0.048030, 0.000000, 0.000000, 0.001032, 0.045210, 0.001758, -0.029513, 0.002470, 0.004932, 0.008810, 0.005337, -0.021974, 0.020676, 0.001877, 0.030912, -0.045671, 0.004806, 0.000000, 0.000000, 0.042565, -0.016228, 0.046414, -0.001185, -0.000732, -0.018084, 0.030732, 0.000756, 0.033239, 0.022177, -0.075615, 0.023271, -0.007473, -0.033009, 0.000000, 0.000000, -0.091806, 0.037980, -0.077671, 0.002551, -0.003441, 0.027394, 0.023507, 0.032607, -0.008524, 0.039199, -0.012861, -0.003567, -0.040795, -0.003367, 0.000000, 0.000000, 0.014351, 0.012023, 0.024917, -0.009966, -0.010139, 0.016970, -0.014555, 0.003693, 0.018822, -0.023052, 0.066581, 0.004115, -0.012223, -0.003459, 0.000000, 0.000000, -0.018903, -0.033370, -0.017916, 0.031328, -0.047942, 0.034010, -0.039205, -0.019984, 0.016167, 0.016623, -0.009272, 0.003861, -0.026460, 0.019667, 0.000000, 0.000000, -0.008529, 0.014011, 0.014155, 0.035111, -0.019346, 0.012630, 0.033242, 0.011487, 0.035425, -0.017622, -0.078685, 0.019265, -0.028833, -0.005111, 0.000000, 0.000000, 0.001681, 0.005973, -0.006194, -0.033205, -0.008944, 0.029132, 0.034773, -0.008839, -0.013305, 0.048062, 0.020600, -0.036063, -0.057865, -0.007129, 0.000000, 0.000000, 0.021960, -0.002596, 0.038953, 0.057055, -0.015366, 0.034585, 0.003743, -0.030616, 0.024940, -0.029207, 0.022417, 0.024507, 0.021835, 0.005421, 0.000000, 0.000000, -0.022616, -0.004653, 
0.065900, -0.020691, 0.010436, 0.018048, -0.015429, 0.000734, 0.001968, -0.057515, -0.010241, 0.024923, -0.095521, 0.078109, 0.000000, 0.000000, 0.028790, -0.019001, -0.052605, 0.081561, -0.011139, -0.028427, 0.049699, -0.047122, -0.036307, 0.031030, -0.088249, 0.005595, 0.048375, -0.038097, 0.000000, 0.000000, -0.011222, 0.042050, 0.007979, -0.030194, -0.004644, 0.003716, -0.004609, -0.001102, 0.001085, 0.001831, 0.006880, 0.025233, -0.053352, 0.017230, 0.000000, 0.000000, 0.055410, -0.025426, 0.041168, -0.000950, 0.006120, -0.012379, 0.035026, 0.007641, 0.009022, 0.022155, -0.077526, 0.032515, -0.015033, -0.032780, 0.000000, 0.000000, -0.084917, 0.036016, -0.059811, -0.001594, -0.010948, 0.026999, 0.000059, 0.046722, -0.007851, 0.043913, 0.007313, -0.001287, -0.049117, -0.002783, 0.000000, 0.000000, 0.021918, 0.004305, 0.029621, 0.002856, -0.012762, 0.013835, -0.002522, 0.001164, 0.020331, -0.023980, 0.044845, 0.000449, -0.002284, -0.010882, 0.000000, 0.000000, -0.022762, -0.027939, -0.015156, 0.003273, -0.023482, 0.034362, -0.039524, -0.024237, 0.000682, 0.005774, -0.011228, -0.003520, -0.011957, 0.008207, 0.000000, 0.000000, -0.016227, 0.000938, 0.025978, 0.040941, -0.022335, 0.034740, 0.018318, 0.000229, 0.032478, -0.024862, -0.088533, 0.024356, -0.029157, -0.000139, 0.000000, 0.000000, 0.008115, -0.004388, -0.020705, -0.026991, -0.016311, 0.045381, 0.050175, 0.004590, -0.021689, 0.043816, 0.020476, -0.031409, -0.053061, -0.001473, 0.000000, 0.000000, 0.031101, -0.003282, 0.045054, 0.053045, -0.018189, 0.030567, -0.004459, -0.033031, 0.018535, -0.034176, 0.023639, 0.026056, 0.028608, 0.000546, 0.000000, 0.000000, -0.033243, 0.006001, 
0.066261, -0.008829, 0.003113, 0.028410, -0.015115, -0.003972, 0.010667, -0.073146, -0.024967, 0.027037, -0.095920, 0.083536, 0.000000, 0.000000, 0.034299, -0.006938, -0.060938, 0.054917, 0.006739, -0.037670, 0.073907, -0.066853, -0.029978, 0.036381, -0.097112, 0.037831, 0.029846, -0.034951, 0.000000, 0.000000, -0.014463, 0.031256, 0.014512, -0.031234, -0.011921, 0.006642, -0.010439, 0.002368, 0.016375, -0.000672, 0.004127, 0.019329, -0.044305, 0.020449, 0.000000, 0.000000, 0.057065, -0.031054, 0.044795, -0.011226, 0.019028, -0.022036, 0.049352, -0.002177, 0.016175, 0.024545, -0.090696, 0.037984, -0.011166, -0.028574, 0.000000, 0.000000, -0.080054, 0.031670, -0.032943, -0.036543, 0.007915, 0.031895, -0.008394, 0.046977, 0.001675, 0.042837, 0.019600, 0.008600, -0.077590, -0.007688, 0.000000, 0.000000, 0.038062, -0.012058, 0.031292, 0.019494, -0.013367, 0.014035, -0.003024, -0.004183, 0.015664, -0.008657, 0.039483, -0.000802, -0.005713, -0.009126, 0.000000, 0.000000, -0.026560, -0.025514, -0.020659, 0.007251, -0.031596, 0.032004, -0.048168, -0.006517, -0.006092, 0.015002, -0.016553, 0.005562, -0.011462, 0.003843, 0.000000, 0.000000, -0.024041, 0.018360, 0.028533, 0.024562, -0.033951, 0.031048, 0.017096, 0.008714, 0.031718, -0.038051, -0.077771, 0.013671, -0.022842, 0.010986, 0.000000, 0.000000, -0.000578, 0.012239, -0.004163, -0.027338, -0.011525, 0.045406, 0.047575, -0.016753, -0.008876, 0.035568, 0.014561, -0.023471, -0.053113, -0.013121, 0.000000, 0.000000, 0.037343, -0.011746, 0.035521, 0.067921, -0.016423, 0.039608, -0.017057, -0.025912, 0.018744, -0.036750, 0.035753, 0.028273, 0.022131, -0.018516, 0.000000, 0.000000, -0.027629, -0.008613, 
0.063329, -0.012901, 0.002890, 0.032243, -0.014374, 0.012747, -0.006809, -0.073462, -0.028218, 0.013402, -0.079157, 0.091776, 0.000000, 0.000000, 0.027892, -0.009072, -0.077870, 0.052705, 0.004728, -0.059664, 0.084117, -0.055145, -0.036507, 0.051672, -0.118615, 0.058762, 0.040865, -0.038626, 0.000000, 0.000000, -0.019439, 0.036632, 0.009261, -0.017622, -0.006717, 0.007337, -0.015600, -0.007824, 0.010804, 0.002418, 0.008544, 0.022964, -0.035197, 0.000317, 0.000000, 0.000000, 0.048390, -0.015614, 0.049460, -0.005398, 0.019568, -0.014448, 0.064578, -0.005467, 0.010426, 0.009136, -0.105899, 0.044657, -0.000012, -0.024517, 0.000000, 0.000000, -0.087633, 0.029705, -0.067375, -0.025786, 0.013856, 0.033262, 0.024092, 0.040498, 0.009163, 0.026177, -0.007225, 0.011019, -0.084471, 0.015651, 0.000000, 0.000000, 0.038438, -0.005586, 0.029026, 0.021920, -0.018162, 0.006487, 0.000372, -0.005508, 0.019443, -0.008413, 0.020571, 0.003498, 0.008664, -0.026601, 0.000000, 0.000000, -0.035668, -0.013786, 0.007111, 0.002004, -0.039585, 0.035858, -0.052342, -0.007797, -0.009936, 0.019216, -0.007134, 0.007299, -0.020095, -0.001265, 0.000000, 0.000000, -0.024058, 0.001093, 0.028452, 0.032490, -0.054081, 0.030262, 0.010163, -0.004675, 0.029241, -0.021247, -0.039567, 0.007331, -0.021080, 0.007541, 0.000000, 0.000000, -0.007255, 0.015029, 0.001257, -0.041215, -0.001191, 0.050075, 0.037279, -0.001906, -0.011212, 0.028096, 0.021620, -0.026881, -0.029906, -0.021428, 0.000000, 0.000000, 0.031753, -0.017345, 0.041986, 0.067534, -0.014349, 0.032849, -0.018634, -0.003462, 0.018682, -0.047067, 0.028331, 0.017488, 0.010167, -0.009523, 0.000000, 0.000000, -0.024577, -0.010322, 
0.079860, -0.027856, 0.026419, 0.026918, -0.031760, 0.022569, 0.003920, -0.090398, -0.026078, 0.008763, -0.077397, 0.093123, 0.000000, 0.000000, 0.039634, -0.013586, -0.057052, 0.042256, -0.002834, -0.055381, 0.086545, -0.082017, -0.009888, 0.046464, -0.145296, 0.069156, 0.024682, -0.028715, 0.000000, 0.000000, -0.018188, 0.046813, 0.012402, -0.030254, -0.017036, 0.010852, -0.035204, 0.018567, 0.007932, 0.007705, 0.019628, 0.011023, -0.044229, 0.004101, 0.000000, 0.000000, 0.042754, -0.017981, 0.048227, -0.000934, 0.015134, -0.017096, 0.053488, -0.009369, 0.003826, 0.009163, -0.085610, 0.038399, 0.006885, -0.020511, 0.000000, 0.000000, -0.089209, 0.030326, -0.047645, -0.033639, 0.021594, 0.028473, 0.022487, 0.043599, 0.010958, 0.032044, 0.007800, -0.006010, -0.078387, 0.005592, 0.000000, 0.000000, 0.057189, 0.003198, 0.026056, 0.025886, -0.020314, 0.024949, 0.003686, -0.003608, 0.021300, -0.027044, 0.006253, 0.021479, -0.010221, -0.017618, 0.000000, 0.000000, -0.049583, -0.015390, -0.008056, -0.006772, -0.047165, 0.042402, -0.044436, -0.016590, -0.005655, 0.024574, -0.024953, 0.012964, -0.037064, 0.005109, 0.000000, 0.000000, -0.014393, 0.005277, 0.016630, 0.043586, -0.052090, 0.033518, 0.017202, -0.004514, 0.031034, -0.015566, -0.053560, 0.013886, -0.016830, 0.011721, 0.000000, 0.000000, 0.000433, 0.018907, 0.003209, -0.056634, 0.002519, 0.050963, 0.030411, 0.001289, -0.008898, 0.016076, 0.050164, -0.034764, -0.003901, -0.031060, 0.000000, 0.000000, 0.026075, -0.025519, 0.048075, 0.056983, -0.009379, 0.019888, -0.014562, -0.004172, 0.022598, -0.036047, 0.036154, 0.001859, 0.003233, -0.008121, 0.000000, 0.000000, -0.036793, -0.007712, 
0.053058, -0.010730, 0.031364, 0.018394, -0.012549, -0.007853, 0.031960, -0.093465, -0.021209, 0.030687, -0.116097, 0.094853, 0.000000, 0.000000, 0.050096, -0.016256, -0.073071, 0.042071, -0.008268, -0.068308, 0.090758, -0.083042, 0.014307, 0.057130, -0.147233, 0.044776, 0.022679, -0.027270, 0.000000, 0.000000, -0.010013, 0.058859, 0.002600, -0.012320, -0.001065, 0.014583, -0.026994, 0.000541, -0.012360, 0.003832, 0.020973, 0.005725, -0.024160, 0.005813, 0.000000, 0.000000, 0.027090, -0.002242, 0.052146, -0.013407, 0.009779, -0.011355, 0.047848, 0.003587, 0.004680, 0.004185, -0.079329, 0.028482, 0.007785, -0.010898, 0.000000, 0.000000, -0.077953, 0.028682, -0.034230, -0.041225, 0.027040, 0.005911, 0.023827, 0.034843, 0.009025, 0.050557, -0.005185, -0.002060, -0.066408, -0.002179, 0.000000, 0.000000, 0.053751, -0.009153, 0.024987, 0.043748, -0.035581, 0.016919, 0.027375, -0.039760, 0.044633, -0.032352, 0.022298, 0.027372, -0.020157, -0.030101, 0.000000, 0.000000, -0.056713, -0.014624, 0.011477, -0.001784, -0.034698, 0.066947, -0.037437, -0.019547, -0.038422, 0.011172, -0.025403, 0.010619, -0.021896, -0.014822, 0.000000, 0.000000, -0.012504, 0.002444, 0.026738, 0.020573, -0.032775, 0.038231, -0.010066, -0.000771, 0.015705, -0.013029, -0.046253, 0.016492, 0.006837, 0.013453, 0.000000, 0.000000, -0.000201, 0.015929, -0.007557, -0.053709, -0.005079, 0.052638, 0.029493, -0.014151, 0.003944, 0.026120, 0.042271, -0.016690, -0.025100, -0.009621, 0.000000, 0.000000, 0.033579, -0.023276, 0.046829, 0.071845, -0.007556, 0.013861, -0.011357, -0.008268, 0.021828, -0.028491, 0.016885, 0.002680, 0.002796, 0.001892, 0.000000, 0.000000, -0.036434, -0.000088, 
0.008759, 0.018022, 0.018615, 0.008073, 0.040809, -0.031130, 0.033589, -0.058791, -0.043984, 0.034861, -0.105727, 0.067150, 0.000000, 0.000000, 0.044074, -0.002640, -0.073196, 0.050413, -0.009440, -0.079523, 0.083554, -0.090554, 0.003219, 0.085001, -0.159392, 0.071213, 0.014181, -0.042664, 0.000000, 0.000000, -0.006785, 0.058793, 0.003346, -0.007466, 0.000019, 0.008308, -0.029528, -0.007443, -0.012635, -0.004056, 0.023479, 0.010050, -0.017600, 0.007119, 0.000000, 0.000000, 0.022513, -0.005230, 0.050131, -0.016068, 0.001699, 0.000659, 0.050964, 0.002871, 0.003797, -0.007963, -0.090186, 0.043725, 0.014001, 0.005426, 0.000000, 0.000000, -0.087348, 0.026043, -0.013132, -0.035688, 0.020213, -0.010490, 0.002469, 0.031680, 0.006020, 0.051256, -0.010354, -0.007835, -0.041542, -0.010944, 0.000000, 0.000000, 0.035810, -0.010464, 0.022908, 0.053861, -0.039332, 0.006641, 0.020625, -0.033987, 0.040078, -0.033461, 0.014523, 0.018506, -0.009272, -0.033882, 0.000000, 0.000000, -0.048760, -0.023143, 0.017378, -0.004666, -0.030343, 0.065842, -0.032612, -0.019179, -0.049892, 0.011994, -0.007172, 0.007861, -0.030758, -0.008544, 0.000000, 0.000000, 0.002858, -0.001869, 0.028052, 0.014520, -0.033650, 0.042457, 0.011323, -0.008626, 0.022745, -0.027097, -0.029523, 0.018812, 0.016729, 0.017771, 0.000000, 0.000000, -0.016571, 0.006788, -0.015428, -0.055963, -0.002959, 0.057843, 0.017374, -0.000489, 0.015783, 0.038340, 0.026388, -0.017899, -0.024291, -0.001454, 0.000000, 0.000000, 0.028519, -0.013060, 0.031178, 0.073630, -0.014226, 0.000796, -0.014923, 0.005433, 0.021931, -0.013842, 0.006341, 0.015689, -0.005601, 0.006022, 0.000000, 0.000000, -0.026950, -0.005329, 
-0.006442, 0.026694, -0.001138, 0.008399, 0.048746, -0.027131, 0.053764, -0.058007, -0.041226, 0.026036, -0.123905, 0.068738, 0.000000, 0.000000, 0.049956, 0.005022, -0.082130, 0.053218, -0.009821, -0.066157, 0.083151, -0.079287, -0.005560, 0.057160, -0.178585, 0.081667, -0.004781, -0.035571, 0.000000, 0.000000, -0.002391, 0.071069, -0.006417, -0.012731, 0.003624, 0.010249, -0.031717, 0.010729, -0.024302, 0.005706, 0.026657, 0.005576, -0.009353, 0.017071, 0.000000, 0.000000, 0.013455, 0.000732, 0.056507, -0.024545, -0.008029, 0.009520, 0.050557, 0.009553, 0.004727, -0.002628, -0.060373, 0.039145, 0.012896, 0.015654, 0.000000, 0.000000, -0.091973, 0.010835, 0.017265, -0.046846, 0.018381, -0.005875, -0.031536, 0.046516, 0.004363, 0.058018, 0.000310, -0.009651, -0.059187, -0.017947, 0.000000, 0.000000, 0.041281, -0.007291, 0.025801, 0.044811, -0.028690, -0.006329, 0.000445, -0.024908, 0.041896, -0.027282, 0.008706, 0.006806, -0.010443, -0.041951, 0.000000, 0.000000, -0.045249, -0.019860, -0.016249, 0.003584, -0.031811, 0.062270, 0.003723, -0.030095, -0.034285, 0.014858, -0.014766, 0.014206, -0.039466, -0.008264, 0.000000, 0.000000, 0.005110, -0.003358, 0.021529, 0.012193, -0.031286, 0.068166, 0.028454, -0.005144, 0.030498, -0.035601, -0.013408, 0.003823, 0.009254, 0.004361, 0.000000, 0.000000, 0.000401, -0.008421, -0.003805, -0.056623, 0.000401, 0.050062, -0.008596, -0.002635, 0.003981, 0.040539, 0.030321, -0.007600, -0.032694, 0.004657, 0.000000, 0.000000, 0.017776, -0.019674, 0.043332, 0.073572, -0.017021, -0.002455, -0.015444, -0.017126, 0.018389, -0.014819, -0.003384, 0.031701, -0.008776, 0.013514, 0.000000, 0.000000, -0.029569, -0.007563, 
0.023325, -0.011199, 0.024722, -0.004195, 0.024077, 0.016867, 0.017327, -0.030429, -0.050429, -0.006870, -0.105525, 0.060849, 0.000000, 0.000000, 0.061842, 0.020391, -0.080386, 0.055323, -0.000649, -0.073349, 0.070027, -0.051578, -0.022373, 0.074251, -0.176138, 0.048418, 0.011368, -0.046600, 0.000000, 0.000000, -0.003888, 0.064944, -0.020936, -0.007917, -0.006359, 0.013840, -0.015610, 0.018801, -0.017798, -0.003495, 0.012137, 0.004329, -0.012057, 0.023786, 0.000000, 0.000000, 0.028074, -0.007203, 0.060673, -0.036072, 0.000939, 0.000697, 0.036253, 0.013034, 0.006194, 0.003449, -0.049769, 0.041052, 0.010808, 0.017025, 0.000000, 0.000000, -0.098254, 0.002421, 0.011267, -0.026098, 0.016343, 0.003006, -0.051344, 0.049038, -0.000514, 0.048012, -0.010729, -0.017734, -0.042097, -0.010053, 0.000000, 0.000000, 0.031280, 0.005480, 0.021967, 0.054747, -0.044184, 0.004415, 0.019214, -0.038049, 0.044043, -0.036817, 0.026128, 0.005536, -0.001277, -0.025587, 0.000000, 0.000000, -0.037058, -0.015913, -0.016030, -0.013361, -0.020389, 0.054508, 0.008580, -0.028088, -0.041833, 0.011978, -0.010963, 0.003771, -0.038059, -0.020764, 0.000000, 0.000000, 0.001178, 0.007223, 0.023161, 0.013494, -0.034233, 0.062020, 0.019495, -0.005242, 0.033717, -0.013982, -0.052512, 0.001297, 0.010597, -0.021749, 0.000000, 0.000000, -0.007528, -0.004481, -0.009168, -0.046072, 0.012764, 0.048647, -0.000807, -0.008316, -0.008541, 0.042145, 0.025279, -0.008322, -0.032193, 0.010629, 0.000000, 0.000000, 0.033971, -0.018637, 0.042989, 0.063917, -0.015209, 0.012866, -0.020341, -0.020542, 0.002953, -0.017425, 0.019933, 0.047042, -0.006566, 0.020098, 0.000000, 0.000000, -0.039219, -0.005163, 
0.004925, -0.007500, 0.023737, 0.002019, 0.028646, 0.028172, -0.015864, -0.024078, -0.039028, -0.023976, -0.077952, 0.060969, 0.000000, 0.000000, 0.053817, 0.018872, -0.095648, 0.057178, -0.005165, -0.067248, 0.059628, -0.028664, -0.004887, 0.074187, -0.175900, 0.023805, -0.010413, -0.048739, 0.000000, 0.000000, 0.027259, 0.071027, -0.009337, -0.024743, -0.007825, 0.004826, -0.021235, 0.019975, -0.021335, 0.004825, 0.006674, -0.000990, -0.008721, 0.023060, 0.000000, 0.000000, 0.032934, -0.011456, 0.061347, -0.027949, 0.002671, 0.001990, 0.036747, 0.017267, -0.004790, 0.000401, -0.035855, 0.034780, 0.019516, 0.031115, 0.000000, 0.000000, -0.103559, 0.004867, 0.003182, -0.030749, 0.015630, 0.002123, -0.035685, 0.048493, 0.003643, 0.062132, -0.008257, -0.004039, -0.052304, -0.005786, 0.000000, 0.000000, 0.029813, 0.010497, 0.007907, 0.053829, -0.032280, 0.009433, 0.037850, -0.040304, 0.028266, -0.026857, 0.014318, 0.007785, 0.009053, -0.039350, 0.000000, 0.000000, -0.038116, -0.012960, -0.007014, -0.029449, -0.013328, 0.036922, -0.021008, 0.001375, -0.046284, 0.006942, -0.007745, -0.008512, -0.012400, -0.007553, 0.000000, 0.000000, -0.007789, -0.004278, 0.039030, 0.005274, -0.043379, 0.057225, -0.015558, -0.013980, 0.044746, -0.027707, -0.056386, 0.006155, 0.001276, -0.014076, 0.000000, 0.000000, 0.004393, -0.009019, -0.009051, -0.050977, 0.005594, 0.052507, 0.019002, -0.017975, -0.000881, 0.048536, 0.020884, 0.000127, -0.039103, -0.011093, 0.000000, 0.000000, 0.045560, -0.019602, 0.038089, 0.070026, -0.009519, 0.009416, -0.005449, -0.002706, 0.006358, -0.011531, 0.032699, 0.041136, -0.018786, 0.015849, 0.000000, 0.000000, -0.053138, 0.000846, 
0.014279, -0.005953, 0.015603, 0.016052, 0.016059, 0.020344, -0.027557, -0.022472, -0.032173, -0.021793, -0.061419, 0.046449, 0.000000, 0.000000, 0.044281, 0.027424, -0.086195, 0.034757, -0.004037, -0.074391, 0.067435, -0.024686, 0.014785, 0.072979, -0.175516, 0.000236, -0.012952, -0.046335, 0.000000, 0.000000, 0.030012, 0.070038, 0.000499, -0.019516, -0.008342, 0.020308, -0.031682, 0.012430, -0.020004, -0.003116, 0.004809, -0.005701, -0.008438, 0.024515, 0.000000, 0.000000, 0.034525, -0.002376, 0.059159, -0.006185, 0.003804, 0.008674, 0.032450, 0.005414, -0.004138, 0.001566, -0.022575, 0.030075, 0.018325, 0.016669, 0.000000, 0.000000, -0.093379, 0.009120, -0.003747, -0.029004, 0.006894, 0.017706, -0.059914, 0.047822, 0.005870, 0.053779, 0.015234, -0.013871, -0.051061, -0.012143, 0.000000, 0.000000, 0.033241, -0.004699, 0.008072, 0.038046, -0.030307, -0.003406, 0.042947, -0.013416, 0.015312, -0.004832, -0.006346, 0.024101, 0.011697, -0.032056, 0.000000, 0.000000, -0.049887, -0.020084, -0.002696, -0.019113, -0.007105, 0.040717, -0.013701, 0.009084, -0.038284, -0.003552, -0.025330, -0.001617, -0.024806, 0.017330, 0.000000, 0.000000, 0.000608, 0.004234, 0.043019, -0.004290, -0.020807, 0.070681, -0.006613, -0.014431, 0.038501, -0.060859, -0.041743, -0.005564, -0.005420, -0.011858, 0.000000, 0.000000, -0.004110, -0.008697, -0.025434, -0.038168, 0.003702, 0.048303, 0.020394, -0.011992, -0.005728, 0.052929, 0.023897, -0.015220, -0.038507, -0.025476, 0.000000, 0.000000, 0.046352, -0.022297, 0.037428, 0.070344, -0.023419, -0.002210, 0.005332, 0.001076, 0.005041, 0.007716, 0.030670, 0.043491, -0.016312, 0.015645, 0.000000, 0.000000, -0.054379, 0.003614, 
0.064345, -0.021839, -0.002895, 0.028597, -0.043636, 0.023327, -0.000401, -0.055986, 0.000363, -0.015068, -0.070488, 0.057982, 0.000000, 0.000000, 0.047615, 0.020146, -0.071867, 0.033011, -0.023461, -0.075569, 0.069796, -0.019733, 0.020871, 0.073058, -0.181216, -0.003474, -0.012100, -0.043830, 0.000000, 0.000000, 0.041876, 0.080321, 0.000721, -0.016783, 0.001826, 0.000705, -0.012278, 0.006380, -0.024396, -0.011607, -0.006547, -0.008821, 0.000167, 0.018261, 0.000000, 0.000000, 0.038169, -0.001928, 0.058888, -0.003539, 0.011418, 0.007111, 0.043553, -0.002077, 0.010310, -0.000779, -0.064532, 0.047981, 0.013776, 0.016392, 0.000000, 0.000000, -0.102442, 0.004350, 0.001888, -0.016848, -0.012274, 0.045475, -0.049682, 0.017808, 0.010606, 0.056282, 0.020348, 0.007198, -0.063259, 0.000193, 0.000000, 0.000000, 0.033543, 0.011862, 0.009283, 0.057980, -0.036456, 0.002789, 0.055389, -0.029100, 0.004625, -0.007970, 0.030354, 0.009484, 0.021462, -0.041268, 0.000000, 0.000000, -0.033086, -0.023410, -0.054863, -0.000838, -0.015614, 0.033238, 0.025849, 0.008081, -0.046721, -0.027397, -0.032282, -0.017654, -0.005681, 0.030451, 0.000000, 0.000000, -0.002966, 0.001262, 0.032767, 0.012264, -0.015536, 0.070231, -0.033746, -0.024149, 0.027911, -0.069222, -0.035037, 0.005568, 0.006613, 0.003322, 0.000000, 0.000000, -0.035468, -0.017813, -0.023768, -0.016989, 0.005229, 0.051584, 0.011382, -0.008691, -0.000738, 0.081434, 0.020924, -0.015644, -0.058145, -0.034491, 0.000000, 0.000000, 0.041398, -0.019486, 0.064111, 0.061995, -0.027521, -0.009971, 0.025311, -0.010313, 0.031090, 0.019167, 0.001516, 0.034343, -0.035484, 0.005302, 0.000000, 0.000000, -0.038436, 0.011754, 
0.038714, -0.040193, 0.022674, 0.024103, -0.044717, 0.072739, -0.037060, -0.062943, 0.001707, -0.038003, -0.060739, 0.068017, 0.000000, 0.000000, 0.058000, 0.028694, -0.060733, 0.016663, -0.018960, -0.085910, 0.064673, -0.003599, 0.015498, 0.078193, -0.183145, -0.013963, -0.001428, -0.045377, 0.000000, 0.000000, 0.038077, 0.093610, 0.018163, -0.022124, -0.004571, 0.002750, -0.024092, 0.007751, -0.016092, -0.010100, -0.002748, -0.004754, -0.007488, 0.015730, 0.000000, 0.000000, 0.040865, 0.003500, 0.052177, -0.005004, 0.008523, 0.006797, 0.052082, -0.004596, 0.016644, -0.011457, -0.070006, 0.056389, 0.012272, 0.022208, 0.000000, 0.000000, -0.102122, 0.001010, -0.003985, -0.015454, -0.026412, 0.070452, -0.037803, 0.023615, 0.009190, 0.048693, 0.008102, -0.006947, -0.053788, -0.011862, 0.000000, 0.000000, 0.032371, 0.011807, 0.004196, 0.066550, -0.040697, 0.003590, 0.046127, -0.004606, 0.004412, 0.002625, 0.034125, 0.013688, 0.009452, -0.037722, 0.000000, 0.000000, -0.027374, -0.021137, -0.076653, -0.004551, -0.023539, 0.022925, 0.047098, 0.003350, -0.046920, -0.006008, -0.026415, 0.005072, -0.034560, 0.033600, 0.000000, 0.000000, -0.000978, -0.016468, 0.031391, 0.019690, 0.001038, 0.062024, -0.028316, -0.028427, 0.022244, -0.065190, -0.034088, -0.000766, 0.007659, -0.012217, 0.000000, 0.000000, -0.046485, -0.013010, -0.004091, -0.010562, -0.016206, 0.062417, 0.003546, -0.015111, 0.015420, 0.057948, 0.013461, -0.016825, -0.045145, -0.028010, 0.000000, 0.000000, 0.046438, -0.013823, 0.063194, 0.057981, -0.031041, -0.026545, 0.016575, 0.000590, 0.019415, 0.032275, -0.005776, 0.020769, -0.031654, 0.006070, 0.000000, 0.000000, -0.033173, 0.012500, 
0.047095, -0.061232, 0.034635, 0.013071, -0.061942, 0.084127, -0.036794, -0.043218, 0.023664, -0.041158, -0.055200, 0.053472, 0.000000, 0.000000, 0.051179, 0.021393, -0.070863, 0.014519, -0.011331, -0.073811, 0.039800, 0.003715, 0.016407, 0.061126, -0.134202, -0.021533, -0.023612, -0.030842, 0.000000, 0.000000, 0.047371, 0.085494, 0.002889, -0.008670, -0.002064, -0.003809, -0.000227, -0.005489, -0.024993, 0.006087, -0.021142, -0.006886, 0.001652, 0.017067, 0.000000, 0.000000, 0.032199, -0.002498, 0.050104, 0.008772, 0.010878, 0.007923, 0.058912, -0.007894, -0.003811, -0.010647, -0.068580, 0.048287, 0.013242, 0.033089, 0.000000, 0.000000, -0.097717, 0.000620, -0.009951, -0.023594, -0.030390, 0.084567, -0.041380, 0.047823, 0.007327, 0.037385, -0.019174, 0.000714, -0.059839, 0.007621, 0.000000, 0.000000, 0.021283, 0.018581, 0.013466, 0.068251, -0.042634, 0.004944, 0.020902, -0.011940, 0.009765, -0.009714, 0.039093, 0.009822, 0.026372, -0.009868, 0.000000, 0.000000, -0.026418, -0.022230, -0.084014, -0.009402, -0.021286, 0.022417, 0.064459, -0.008355, -0.037624, -0.003596, -0.020365, 0.011854, -0.025393, 0.040020, 0.000000, 0.000000, -0.021039, -0.000686, 0.014774, 0.036379, 0.001783, 0.064201, -0.005160, -0.016032, 0.016408, -0.045521, -0.037196, 0.018108, 0.002036, -0.010102, 0.000000, 0.000000, -0.050058, -0.020320, -0.004825, -0.003998, -0.011601, 0.046379, 0.002579, -0.026260, 0.019222, 0.059503, -0.021022, 0.006279, -0.054447, -0.029075, 0.000000, 0.000000, 0.034288, -0.008729, 0.066311, 0.042712, -0.036265, -0.008790, 0.022414, -0.001809, 0.023318, -0.002184, -0.009471, 0.016341, -0.039192, 0.013874, 0.000000, 0.000000, -0.037556, 0.024499, 
0.041232, -0.067343, 0.066846, -0.005556, -0.037802, 0.076276, -0.039200, -0.030601, 0.008275, -0.040419, -0.045741, 0.042109, 0.000000, 0.000000, 0.041033, 0.019006, -0.061888, 0.012343, 0.002601, -0.065207, 0.063827, -0.025372, 0.016245, 0.040222, -0.133978, -0.022050, -0.016270, -0.030721, 0.000000, 0.000000, 0.049963, 0.087386, -0.015673, -0.004589, -0.002627, -0.007920, 0.012072, -0.003122, -0.022607, 0.005294, -0.015205, -0.008258, -0.001198, 0.025534, 0.000000, 0.000000, 0.021311, -0.010703, 0.050551, 0.005840, 0.008648, 0.003233, 0.051822, -0.006636, -0.012130, 0.001238, -0.076558, 0.052815, 0.007015, 0.034905, 0.000000, 0.000000, -0.090274, -0.001764, 0.007672, -0.026317, -0.025267, 0.088185, -0.053227, 0.046090, 0.011860, 0.041826, 0.005225, 0.006280, -0.061251, 0.019096, 0.000000, 0.000000, 0.020421, 0.011165, 0.017478, 0.064494, -0.040097, 0.003234, 0.017030, -0.011985, 0.017001, -0.019977, 0.035480, 0.013240, 0.023590, -0.010880, 0.000000, 0.000000, -0.039899, -0.018267, -0.084100, -0.004691, -0.028323, 0.026637, 0.060549, -0.007525, -0.043933, -0.010950, -0.018036, 0.009741, -0.028531, 0.029956, 0.000000, 0.000000, -0.009685, -0.007633, 0.035060, 0.035547, -0.008143, 0.038260, 0.002339, -0.025796, 0.014723, -0.020894, -0.024651, 0.016695, 0.006241, -0.006078, 0.000000, 0.000000, -0.041993, -0.030468, -0.005641, -0.005136, -0.020129, 0.046161, -0.000598, -0.033230, 0.034830, 0.066088, -0.008216, 0.006271, -0.068015, -0.022967, 0.000000, 0.000000, 0.034530, -0.001671, 0.059158, 0.030899, -0.027973, -0.006265, 0.031076, 0.014879, 0.025436, -0.004672, -0.014804, 0.016016, -0.037588, 0.019042, 0.000000, 0.000000, -0.042728, 0.036410, 
0.044827, -0.069797, 0.075920, -0.009659, -0.055718, 0.089508, -0.049306, -0.016822, 0.005448, -0.072292, -0.017559, 0.029761, 0.000000, 0.000000, 0.036221, 0.020287, -0.053454, 0.003091, 0.008022, -0.052951, 0.075597, -0.021956, 0.008619, 0.026075, -0.149486, -0.036561, 0.009674, -0.042977, 0.000000, 0.000000, 0.054465, 0.098005, -0.017359, -0.003838, 0.007746, 0.002298, 0.013035, 0.000286, -0.024247, 0.003081, -0.010522, -0.009273, -0.001703, 0.034741, 0.000000, 0.000000, 0.024519, 0.000568, 0.047963, 0.004960, -0.006169, 0.002640, 0.058110, -0.014241, -0.006303, 0.008820, -0.101318, 0.058734, 0.000948, 0.014692, 0.000000, 0.000000, -0.105705, 0.006649, -0.009212, -0.033724, -0.023371, 0.078927, -0.055244, 0.048218, 0.012035, 0.035686, -0.002474, 0.019750, -0.056695, 0.017950, 0.000000, 0.000000, 0.017656, 0.004826, 0.035253, 0.057677, -0.030584, 0.014201, 0.014757, -0.019348, 0.017232, -0.031512, 0.059092, 0.024470, 0.016754, 0.003396, 0.000000, 0.000000, -0.038502, -0.034664, -0.070629, -0.027710, -0.024514, 0.039313, 0.059882, -0.007306, -0.036993, -0.013826, -0.025802, 0.008763, -0.027864, 0.014025, 0.000000, 0.000000, -0.017496, -0.001759, 0.032967, 0.048704, -0.019380, 0.042373, 0.017576, -0.033802, -0.000540, -0.001515, -0.037098, -0.004333, 0.001223, -0.021157, 0.000000, 0.000000, -0.026992, -0.014359, -0.014756, -0.009066, 0.006820, 0.034991, -0.005074, -0.029473, 0.020655, 0.075357, 0.004713, 0.007732, -0.080433, -0.012974, 0.000000, 0.000000, 0.049624, -0.009564, 0.055481, 0.030023, -0.018189, 0.006992, 0.010818, 0.013279, 0.030630, -0.024511, 0.003493, 0.025350, -0.032463, 0.033087, 0.000000, 0.000000, -0.044176, 0.025483, 
0.033631, -0.069526, 0.094923, -0.018513, -0.007030, 0.053882, -0.044537, -0.009527, -0.033009, -0.039647, -0.030851, 0.034494, 0.000000, 0.000000, 0.040897, 0.019095, -0.056719, 0.011249, -0.004781, -0.028965, 0.042770, -0.010958, 0.027626, 0.018035, -0.111742, -0.053439, 0.002740, -0.028494, 0.000000, 0.000000, 0.059063, 0.073004, -0.020509, 0.011402, 0.027063, -0.016384, 0.007880, -0.010927, -0.023849, 0.015695, 0.000232, -0.006731, -0.006984, 0.028557, 0.000000, 0.000000, 0.024622, 0.000597, 0.053404, 0.008489, -0.027607, -0.000612, 0.046791, -0.024826, 0.005980, 0.008623, -0.100105, 0.057825, -0.006578, 0.012328, 0.000000, 0.000000, -0.096998, 0.005348, 0.012727, -0.056672, -0.033652, 0.086655, -0.073832, 0.054333, 0.041501, 0.018959, 0.014996, 0.015408, -0.056735, 0.001639, 0.000000, 0.000000, 0.012682, 0.011381, 0.031743, 0.064136, -0.033537, 0.011617, 0.032579, -0.034360, 0.019519, -0.029848, 0.045493, 0.048658, 0.025505, -0.004533, 0.000000, 0.000000, -0.046608, -0.031511, -0.069956, -0.002069, -0.033354, 0.056750, 0.047965, -0.021137, -0.051792, -0.000364, -0.018504, -0.004872, -0.002665, 0.010206, 0.000000, 0.000000, -0.009298, -0.004520, 0.015502, 0.061389, -0.014539, 0.031183, 0.021692, -0.039798, 0.007398, 0.009176, -0.026393, -0.018988, 0.005609, -0.025962, 0.000000, 0.000000, -0.022755, -0.019723, -0.012989, -0.023156, 0.008617, 0.012150, -0.028922, 0.000090, 0.015177, 0.077231, 0.015383, -0.006070, -0.083556, -0.012020, 0.000000, 0.000000, 0.041450, -0.000199, 0.067476, 0.024498, -0.031926, 0.010562, -0.009656, 0.012289, 0.034113, -0.029822, -0.003474, 0.036187, -0.038332, 0.050448, 0.000000, 0.000000, -0.050511, 0.035635, 
0.030440, -0.077518, 0.100795, -0.035341, -0.012849, 0.055650, -0.036163, -0.011873, -0.020220, -0.038176, -0.043951, 0.058828, 0.000000, 0.000000, 0.028574, 0.005089, -0.061699, 0.012354, -0.008913, -0.011379, 0.019905, -0.014796, 0.044845, 0.009702, -0.068818, -0.053811, 0.010624, -0.025166, 0.000000, 0.000000, 0.032408, 0.042374, -0.002628, 0.003016, 0.017275, -0.007748, 0.002129, -0.011898, -0.019661, 0.013923, -0.016252, 0.001970, 0.005967, 0.021456, 0.000000, 0.000000, 0.015455, 0.012666, 0.058261, 0.006423, -0.019172, -0.006050, 0.057704, -0.029977, 0.001477, 0.023683, -0.111787, 0.050939, 0.010630, 0.001495, 0.000000, 0.000000, -0.113974, 0.012210, 0.019222, -0.057675, -0.008613, 0.081060, -0.057062, 0.026648, 0.008511, 0.016635, 0.027965, 0.019711, -0.033092, -0.000301, 0.000000, 0.000000, 0.006447, 0.000994, 0.039699, 0.056787, -0.034506, 0.007983, 0.014692, -0.032900, 0.013421, -0.022220, 0.043546, 0.062819, 0.024874, -0.009906, 0.000000, 0.000000, -0.049063, -0.034110, -0.085025, 0.022410, -0.044965, 0.045779, 0.022882, -0.000098, -0.050151, -0.003276, -0.002067, -0.020864, 0.010971, 0.004494, 0.000000, 0.000000, -0.013115, -0.005154, 0.027664, 0.057921, -0.012901, 0.015262, 0.009482, -0.032978, 0.012527, 0.012664, -0.024306, -0.032694, 0.011292, -0.020616, 0.000000, 0.000000, -0.021872, -0.008594, -0.002905, -0.056349, 0.022252, 0.025117, -0.012139, -0.005520, 0.011786, 0.067526, 0.012223, -0.012792, -0.084316, -0.005287, 0.000000, 0.000000, 0.037934, 0.003934, 0.057195, 0.042843, -0.024726, 0.007161, 0.002007, 0.001025, 0.020797, -0.033215, 0.007434, 0.019817, -0.047072, 0.040649, 0.000000, 0.000000, -0.036930, 0.026616, 
0.032703, -0.065559, 0.107684, -0.045909, -0.018507, 0.036955, -0.056912, -0.019570, 0.000205, -0.030358, -0.039569, 0.066455, 0.000000, 0.000000, 0.022996, 0.014887, -0.052022, -0.008540, -0.021088, 0.005881, 0.050972, -0.016753, 0.050852, -0.003160, -0.113667, -0.047487, 0.015008, -0.018574, 0.000000, 0.000000, 0.027986, 0.054427, 0.012895, 0.006501, 0.019865, -0.018058, 0.000941, -0.012991, -0.017727, 0.020769, -0.013927, 0.015687, -0.009381, 0.015120, 0.000000, 0.000000, 0.008678, 0.004027, 0.034744, 0.027557, -0.014451, -0.002403, 0.050842, -0.030976, -0.003013, 0.020843, -0.090734, 0.043806, 0.010193, 0.006801, 0.000000, 0.000000, -0.116105, 0.002396, 0.030679, -0.057986, -0.002244, 0.071017, -0.065784, 0.042424, -0.016148, 0.020995, 0.028456, -0.000530, -0.007870, 0.014731, 0.000000, 0.000000, 0.001624, -0.005599, 0.046045, 0.057618, -0.037826, 0.023732, -0.007224, -0.031854, 0.017028, -0.030918, 0.055525, 0.045644, 0.036986, -0.027952, 0.000000, 0.000000, -0.060353, -0.029574, -0.067212, 0.011095, -0.040362, 0.018168, 0.036008, -0.017127, -0.041388, 0.010849, -0.021242, -0.031283, 0.008178, -0.015608, 0.000000, 0.000000, -0.012035, 0.011583, 0.035559, 0.059572, -0.017558, 0.027441, 0.020658, -0.029279, 0.015198, 0.000730, -0.040549, -0.024903, -0.013366, -0.028373, 0.000000, 0.000000, -0.004418, -0.004000, -0.004668, -0.060784, 0.016797, 0.044048, -0.028007, -0.006885, 0.024334, 0.048271, 0.027288, 0.024898, -0.085934, 0.002001, 0.000000, 0.000000, 0.039435, 0.001380, 0.041698, 0.060158, -0.038071, 0.002546, 0.010748, 0.001356, 0.014985, -0.018480, -0.010770, 0.017551, -0.040605, 0.043684, 0.000000, 0.000000, -0.039855, 0.030934, 
0.010039, -0.043121, 0.091691, -0.035259, -0.018822, 0.034112, -0.060825, -0.024164, 0.003158, -0.020584, -0.032208, 0.059987, 0.000000, 0.000000, 0.031668, 0.000521, -0.045730, -0.007123, -0.010003, -0.019826, 0.031699, -0.010975, 0.031040, 0.021368, -0.092506, -0.060863, 0.037737, -0.029897, 0.000000, 0.000000, 0.009400, 0.063064, 0.020062, 0.008642, 0.027243, -0.014154, -0.011388, -0.004626, -0.022491, 0.020748, -0.001098, 0.019340, -0.017934, 0.007170, 0.000000, 0.000000, 0.016078, -0.001372, 0.044757, 0.021672, -0.013711, 0.001051, 0.041123, -0.034612, -0.004547, 0.025105, -0.081075, 0.039500, 0.022420, -0.020572, 0.000000, 0.000000, -0.116325, 0.009779, 0.020304, -0.042094, -0.029503, 0.072963, -0.040278, 0.012629, -0.019170, 0.030810, 0.003643, 0.025475, -0.021430, 0.025971, 0.000000, 0.000000, -0.000241, 0.007460, 0.060215, 0.061517, -0.033104, 0.025000, -0.010150, -0.055054, 0.027739, -0.036699, 0.032673, 0.049833, 0.028656, -0.006863, 0.000000, 0.000000, -0.066445, -0.019887, -0.073709, -0.001080, -0.025385, 0.016657, 0.043190, -0.009985, -0.057584, 0.029794, -0.013612, -0.044551, 0.021735, -0.020304, 0.000000, 0.000000, 0.000931, -0.019552, 0.013619, 0.073947, -0.039228, 0.025119, 0.049201, -0.026847, 0.008321, 0.013745, 0.008509, -0.030551, -0.004716, -0.044771, 0.000000, 0.000000, -0.003532, -0.009294, -0.016287, -0.047437, 0.007203, 0.040237, -0.019037, -0.008605, 0.034166, 0.031152, 0.013226, 0.034846, -0.085695, 0.007976, 0.000000, 0.000000, 0.019674, 0.022742, 0.069966, 0.050712, -0.032715, 0.015028, -0.017950, -0.011603, 0.026966, -0.031971, -0.019091, 0.027199, -0.037135, 0.044412, 0.000000, 0.000000, -0.050796, 0.011928, 
-0.000964, -0.031796, 0.075213, -0.025386, -0.003458, 0.048173, -0.082998, -0.011220, -0.009355, -0.033436, -0.000066, 0.042915, 0.000000, 0.000000, 0.030473, 0.009449, -0.057429, -0.004822, -0.009249, -0.016167, 0.044200, -0.019235, 0.043305, 0.006723, -0.106785, -0.057559, 0.029312, 0.003858, 0.000000, 0.000000, -0.000618, 0.069639, 0.027778, -0.001556, 0.037959, -0.007724, -0.008365, 0.006116, -0.046472, 0.014837, -0.009241, 0.012486, 0.001343, 0.009259, 0.000000, 0.000000, 0.017300, 0.005701, 0.039462, 0.021573, -0.012620, 0.000877, 0.043622, -0.025335, 0.002526, 0.014597, -0.089926, 0.036808, 0.011572, -0.025196, 0.000000, 0.000000, -0.110278, 0.018430, 0.024245, -0.021833, -0.052681, 0.084508, -0.055138, 0.010034, 0.007429, 0.031969, 0.034839, 0.045050, -0.048779, 0.034452, 0.000000, 0.000000, -0.019144, -0.003609, 0.069071, 0.051112, -0.032301, 0.026695, -0.001980, -0.059278, 0.022214, -0.029114, 0.027723, 0.053173, 0.049116, 0.002269, 0.000000, 0.000000, -0.088352, -0.014036, -0.072280, -0.016854, -0.010796, 0.000684, 0.047308, -0.006252, -0.049434, 0.022403, -0.042338, -0.041415, 0.009159, -0.030392, 0.000000, 0.000000, 0.022053, -0.013118, 0.016653, 0.065828, -0.043954, 0.027345, 0.052298, -0.016014, 0.013677, 0.010329, 0.000352, -0.041927, -0.020029, -0.036697, 0.000000, 0.000000, 0.007576, -0.009529, -0.034703, -0.031485, -0.001079, 0.049457, -0.015704, -0.004074, 0.033134, 0.040992, 0.034081, 0.024342, -0.074921, 0.012748, 0.000000, 0.000000, 0.004943, 0.016594, 0.065487, 0.043834, -0.024957, 0.011471, -0.031501, -0.010487, 0.021842, -0.046855, -0.008797, 0.028972, -0.029215, 0.032630, 0.000000, 0.000000, -0.043527, 0.006526, 
0.016996, -0.046616, 0.069260, -0.025772, -0.006370, 0.058418, -0.055550, 0.002034, -0.014251, -0.037111, -0.030925, 0.041737, 0.000000, 0.000000, 0.047773, 0.012956, -0.075207, 0.017326, -0.018450, 0.001485, 0.058061, -0.050565, 0.052265, -0.014828, -0.090790, -0.028762, 0.024914, 0.009424, 0.000000, 0.000000, 0.000128, 0.036284, 0.011885, -0.015854, 0.033696, -0.009206, 0.012259, 0.019082, -0.040482, 0.024347, -0.004408, 0.007070, -0.010703, 0.002542, 0.000000, 0.000000, 0.024083, -0.009644, 0.045963, 0.008407, -0.013058, 0.000596, 0.044006, -0.011506, -0.008433, 0.021447, -0.075275, 0.028228, 0.015711, -0.032009, 0.000000, 0.000000, -0.095043, 0.003113, 0.040153, -0.011692, -0.049200, 0.102175, -0.083551, -0.001900, 0.002505, 0.045221, 0.022708, 0.058905, -0.057225, 0.021211, 0.000000, 0.000000, -0.023798, 0.020423, 0.061033, 0.053798, -0.031433, 0.006848, 0.019922, -0.065151, 0.023478, -0.013503, 0.016675, 0.061305, 0.036569, -0.001607, 0.000000, 0.000000, -0.096444, -0.003409, -0.049268, -0.020895, 0.003493, -0.018338, 0.024696, 0.025666, -0.056830, 0.040843, -0.056388, -0.016117, -0.015028, -0.048632, 0.000000, 0.000000, 0.035403, -0.024446, 0.012936, 0.083340, -0.033147, 0.048238, 0.019335, -0.013224, 0.013215, -0.018175, -0.004134, -0.031586, -0.030278, -0.032644, 0.000000, 0.000000, 0.025118, -0.023486, -0.016215, -0.041588, 0.014838, 0.053764, -0.014814, -0.018963, 0.027815, 0.031072, 0.049829, 0.010933, -0.065446, 0.036792, 0.000000, 0.000000, -0.012973, 0.013130, 0.061901, 0.040920, -0.018033, 0.005563, -0.022829, -0.006628, 0.007009, -0.027971, 0.002829, 0.023320, -0.033526, 0.012948, 0.000000, 0.000000, -0.036796, 0.000566, 
0.031985, -0.050141, 0.086195, -0.035243, -0.010383, 0.024740, -0.047514, 0.015178, -0.004151, -0.001776, -0.022323, 0.018127, 0.000000, 0.000000, 0.023623, -0.008061, -0.063440, 0.004968, -0.028360, 0.031459, 0.063287, -0.057491, 0.070533, -0.043474, -0.106407, -0.035824, 0.033642, 0.013884, 0.000000, 0.000000, 0.013668, 0.047411, 0.009782, 0.001020, 0.026220, -0.006956, -0.017961, 0.015126, -0.040895, 0.038452, -0.004554, 0.020802, -0.014474, 0.000395, 0.000000, 0.000000, 0.015828, -0.008238, 0.043381, 0.016685, -0.022013, -0.002332, 0.042130, -0.013896, -0.005579, 0.030468, -0.076077, 0.037863, -0.000853, -0.024296, 0.000000, 0.000000, -0.104098, 0.013321, -0.010276, -0.003254, -0.031971, 0.100396, -0.027315, 0.000453, -0.015145, 0.025647, 0.003948, 0.041645, -0.051809, 0.032926, 0.000000, 0.000000, -0.027807, 0.037390, 0.070401, 0.055100, -0.021919, -0.001379, 0.020352, -0.086333, 0.029202, -0.015209, 0.008321, 0.061129, 0.041383, -0.015620, 0.000000, 0.000000, -0.108319, 0.016103, -0.074763, -0.012715, -0.001146, -0.015148, 0.031949, 0.021736, -0.032079, 0.049469, -0.033621, -0.037613, -0.004056, -0.037644, 0.000000, 0.000000, 0.024508, -0.024477, 0.011331, 0.080136, -0.035912, 0.045573, -0.003759, -0.000743, -0.013558, -0.017365, 0.019515, -0.031284, -0.024747, -0.022372, 0.000000, 0.000000, 0.021341, -0.032565, -0.019649, -0.037140, 0.006008, 0.050470, -0.024877, -0.021778, 0.010724, 0.017535, 0.045410, 0.002365, -0.053613, 0.032263, 0.000000, 0.000000, -0.001875, 0.020141, 0.056449, 0.051799, -0.008003, 0.007787, 0.008126, -0.001795, 0.020096, -0.000441, -0.015393, 0.007163, -0.038498, 0.010777, 0.000000, 0.000000, -0.009046, -0.000909, 
0.027876, -0.051073, 0.053311, -0.012562, 0.013760, 0.018002, -0.029455, -0.007395, -0.016966, 0.016536, -0.034713, 0.021709, 0.000000, 0.000000, 0.021874, -0.008098, -0.072879, -0.016333, -0.017845, 0.057601, 0.038674, -0.012482, 0.070583, -0.057061, -0.056327, -0.101460, 0.031051, 0.019741, 0.000000, 0.000000, 0.024901, 0.043071, 0.002530, 0.018093, 0.021486, 0.005652, -0.015689, -0.006307, -0.042481, 0.031126, -0.010326, 0.044729, -0.024650, 0.008494, 0.000000, 0.000000, 0.021188, -0.005347, 0.056540, 0.023451, -0.021968, 0.002392, 0.032732, -0.008823, -0.011426, 0.018657, -0.090599, 0.050979, -0.009180, -0.003406, 0.000000, 0.000000, -0.122178, 0.020591, -0.000249, -0.041085, -0.014097, 0.110751, -0.015059, 0.027316, -0.003745, 0.000523, 0.004509, 0.033008, -0.068133, 0.044123, 0.000000, 0.000000, -0.017408, 0.029498, 0.065188, 0.049832, -0.015803, -0.001738, 0.013335, -0.068929, 0.028043, -0.012256, 0.043690, 0.029152, 0.032802, -0.013482, 0.000000, 0.000000, -0.074606, 0.007691, -0.064351, 0.000532, -0.018229, -0.016324, 0.048266, 0.006029, -0.021656, 0.043912, -0.007328, -0.007314, -0.022448, -0.029928, 0.000000, 0.000000, 0.016712, -0.029498, -0.002784, 0.086337, -0.038321, 0.044363, 0.016570, 0.009476, -0.007645, -0.027960, -0.013147, -0.020981, -0.029366, -0.033784, 0.000000, 0.000000, 0.009939, -0.033718, -0.024333, -0.032464, -0.005855, 0.050776, -0.047269, -0.023481, 0.021590, 0.015313, 0.015144, -0.004973, -0.052584, 0.023044, 0.000000, 0.000000, 0.005973, 0.026201, 0.052333, 0.057096, -0.003960, 0.004141, -0.005641, -0.026003, 0.015219, 0.016978, 0.006791, 0.019558, -0.033248, 0.027831, 0.000000, 0.000000, -0.022034, -0.001399, 
0.010050, -0.040799, 0.039921, -0.014479, 0.051508, -0.010190, 0.002698, -0.010654, -0.059039, 0.056007, -0.073984, 0.033719, 0.000000, 0.000000, 0.022253, 0.016359, -0.064590, -0.012074, -0.015051, 0.054776, 0.031926, 0.009516, 0.021705, -0.051405, -0.019241, -0.156710, 0.049904, 0.027732, 0.000000, 0.000000, 0.025907, 0.029724, 0.012059, 0.030290, 0.019389, 0.011586, -0.022441, -0.023412, -0.033231, 0.021843, -0.005513, 0.040891, -0.032287, 0.014093, 0.000000, 0.000000, 0.028483, -0.005849, 0.036801, 0.026528, -0.018712, -0.003416, 0.042533, -0.024374, -0.009598, 0.026627, -0.105457, 0.068635, -0.012488, -0.012769, 0.000000, 0.000000, -0.129151, 0.020355, -0.001010, -0.050204, 0.011662, 0.091075, -0.037279, 0.043524, -0.015327, 0.014520, 0.017165, 0.038507, -0.060080, 0.048702, 0.000000, 0.000000, -0.024683, 0.030239, 0.064274, 0.078431, -0.020125, 0.015513, -0.012213, -0.078165, 0.038667, -0.025370, 0.036185, 0.028294, 0.027489, -0.006237, 0.000000, 0.000000, -0.071869, -0.005473, -0.081129, 0.022106, -0.040864, -0.014507, 0.082366, -0.024564, -0.003911, 0.016600, -0.008264, -0.003639, -0.039637, -0.040003, 0.000000, 0.000000, 0.022126, -0.014446, -0.003635, 0.093360, -0.049292, 0.027346, 0.039797, -0.012480, -0.021850, -0.017230, -0.032064, -0.007909, -0.042906, -0.019508, 0.000000, 0.000000, 0.001233, -0.030010, -0.005904, -0.040631, 0.012952, 0.049567, -0.050678, -0.035435, 0.012651, 0.039293, -0.004214, -0.003192, -0.022460, -0.000316, 0.000000, 0.000000, -0.020954, 0.019520, 0.067316, 0.043782, -0.002663, 0.021326, -0.010421, -0.007346, 0.041079, 0.001488, 0.045721, -0.010205, -0.026836, 0.038242, 0.000000, 0.000000, 0.000351, -0.014254, 
-0.034726, -0.043191, 0.021098, 0.018162, 0.092389, 0.012662, 0.017643, -0.050005, -0.059338, 0.018164, -0.073537, 0.050053, 0.000000, 0.000000, 0.026956, 0.022688, -0.075521, -0.017156, -0.018475, 0.071091, 0.057656, 0.016153, 0.031627, -0.075811, -0.047645, -0.136941, 0.046487, 0.031878, 0.000000, 0.000000, 0.020890, 0.031072, 0.016270, 0.019450, 0.029278, 0.007877, -0.030691, -0.019527, -0.050518, 0.022050, 0.004164, 0.045213, -0.022794, 0.011064, 0.000000, 0.000000, -0.001282, -0.003578, 0.032784, 0.023594, -0.013865, 0.006871, 0.029634, -0.017909, -0.002362, -0.002419, -0.126372, 0.087547, -0.015019, 0.023536, 0.000000, 0.000000, -0.132507, 0.034579, -0.013479, -0.043149, -0.013664, 0.100508, -0.018917, 0.028548, -0.009518, 0.015954, 0.025346, 0.043221, -0.074539, 0.051842, 0.000000, 0.000000, -0.024033, 0.003181, 0.066855, 0.086481, -0.027965, 0.036566, -0.012432, -0.077506, 0.029071, -0.026777, 0.052886, 0.018324, 0.024482, -0.007365, 0.000000, 0.000000, -0.086001, -0.012442, -0.056854, -0.002929, -0.037967, -0.011891, 0.081911, 0.000825, -0.013024, 0.022893, 0.000228, -0.004671, -0.032521, -0.035279, 0.000000, 0.000000, 0.032869, -0.023006, 0.011146, 0.085328, -0.035536, 0.006281, 0.022909, -0.028535, -0.017192, 0.006923, 0.017013, -0.008324, -0.038211, -0.029808, 0.000000, 0.000000, 0.023087, -0.033503, -0.003535, -0.042446, 0.017985, 0.051897, -0.032072, -0.044144, 0.026437, 0.041770, -0.027897, 0.008463, -0.036821, -0.010090, 0.000000, 0.000000, -0.023844, 0.042645, 0.070461, 0.058148, -0.008800, 0.013386, -0.001180, 0.000490, 0.032564, 0.000866, 0.013163, -0.016239, -0.018364, 0.021938, 0.000000, 0.000000, -0.001436, -0.019695, 
0.009432, -0.077722, 0.050790, -0.009660, 0.076625, 0.003985, 0.024777, -0.049043, -0.039958, -0.003652, -0.054789, 0.037171, 0.000000, 0.000000, 0.053398, 0.005439, -0.078103, -0.003669, -0.018874, 0.063284, 0.083801, -0.003200, 0.015461, -0.057004, -0.054497, -0.127825, 0.061012, 0.023394, 0.000000, 0.000000, 0.005839, 0.023080, 0.012441, 0.016180, 0.039046, -0.007183, -0.026073, -0.016110, -0.053369, 0.017029, 0.007371, 0.046015, -0.009603, 0.011969, 0.000000, 0.000000, -0.011030, -0.000966, 0.034165, 0.025137, 0.000641, 0.006111, 0.032159, -0.020520, -0.001873, 0.002605, -0.108165, 0.085514, -0.004482, 0.000786, 0.000000, 0.000000, -0.144114, 0.031017, 0.006563, -0.047344, -0.026279, 0.097341, -0.027295, 0.021970, 0.001619, 0.030511, 0.026618, 0.055018, -0.091182, 0.057262, 0.000000, 0.000000, -0.018057, -0.006422, 0.049710, 0.065762, -0.023128, 0.028307, -0.005159, -0.057986, 0.026617, -0.039781, 0.044247, 0.016061, 0.037972, -0.011938, 0.000000, 0.000000, -0.080953, -0.002979, -0.091454, -0.007247, -0.033167, 0.007956, 0.085922, -0.009953, -0.022934, 0.018170, -0.021742, -0.006449, -0.016304, -0.041671, 0.000000, 0.000000, 0.032223, 0.001904, 0.010989, 0.096446, -0.046167, 0.007434, 0.026312, -0.045804, -0.021735, 0.021941, 0.010670, 0.005865, -0.051129, -0.033543, 0.000000, 0.000000, 0.031001, -0.027174, 0.003078, -0.041219, 0.032396, 0.027720, -0.039896, -0.024923, 0.024441, 0.054842, -0.034969, 0.032307, -0.057796, 0.004948, 0.000000, 0.000000, -0.029259, 0.028030, 0.062484, 0.061435, 0.007125, 0.021207, -0.003617, -0.007755, 0.039278, -0.002393, 0.003551, -0.003126, -0.007222, 0.029305, 0.000000, 0.000000, -0.018810, -0.012705, 
-0.016747, -0.052375, 0.051013, -0.004511, 0.080809, 0.003751, 0.014985, -0.039867, -0.023702, -0.003821, -0.064388, 0.038011, 0.000000, 0.000000, 0.053001, 0.000053, -0.094991, -0.002445, -0.029997, 0.051091, 0.069839, 0.048755, 0.012577, -0.051033, -0.073293, -0.160926, 0.062050, 0.018649, 0.000000, 0.000000, 0.015237, 0.048578, 0.016192, 0.024105, 0.032368, -0.008000, -0.026372, -0.028118, -0.043937, 0.023294, 0.005673, 0.051109, -0.006019, 0.003205, 0.000000, 0.000000, -0.003705, -0.006264, 0.038497, 0.021633, 0.003181, -0.008703, 0.042817, -0.025411, -0.010993, 0.005782, -0.111791, 0.082830, 0.012952, -0.007744, 0.000000, 0.000000, -0.143833, 0.030529, 0.003300, -0.050631, -0.021959, 0.095414, -0.015636, 0.023575, -0.014988, 0.036284, 0.022147, 0.065220, -0.095174, 0.050392, 0.000000, 0.000000, -0.028269, 0.004153, 0.033377, 0.062080, -0.024780, 0.027404, -0.000626, -0.050189, 0.037688, -0.032422, 0.028287, 0.016672, 0.042488, -0.020996, 0.000000, 0.000000, -0.092192, -0.006527, -0.085604, 0.010084, -0.027855, 0.023311, 0.046716, 0.015672, -0.025967, 0.006451, -0.008474, -0.013341, -0.012842, -0.047771, 0.000000, 0.000000, 0.025138, 0.010020, -0.007181, 0.090539, -0.035062, -0.004688, 0.015514, -0.032071, -0.024303, 0.006694, 0.000589, 0.002298, -0.052508, -0.029883, 0.000000, 0.000000, 0.033430, -0.014850, 0.004361, -0.045404, 0.022824, 0.023299, -0.041035, -0.036314, 0.030118, 0.067002, -0.014186, 0.033546, -0.062858, 0.005479, 0.000000, 0.000000, -0.014256, 0.017593, 0.063513, 0.072901, 0.004581, 0.017587, 0.007679, -0.008049, 0.033690, -0.011877, 0.022953, -0.002014, -0.013916, 0.028163, 0.000000, 0.000000, -0.010371, -0.009816, 
-0.030860, -0.045357, 0.070369, -0.015011, 0.104780, 0.022041, -0.010997, -0.018555, -0.031155, -0.030797, -0.048108, 0.036959, 0.000000, 0.000000, 0.057918, -0.001960, -0.090592, -0.000226, -0.021642, 0.041198, 0.080046, 0.030965, 0.009526, -0.041967, -0.089496, -0.137101, 0.056561, 0.011892, 0.000000, 0.000000, 0.020090, 0.069817, 0.004183, 0.026173, 0.023686, 0.004311, -0.017045, -0.028516, -0.042253, 0.025652, -0.008817, 0.046180, -0.005493, 0.001516, 0.000000, 0.000000, -0.009516, 0.016667, 0.037255, 0.016517, 0.001922, -0.015628, 0.039065, -0.018650, 0.000484, 0.014105, -0.104978, 0.067993, 0.011896, -0.016257, 0.000000, 0.000000, -0.140981, 0.026145, 0.039053, -0.068115, 0.010980, 0.091612, -0.046085, 0.060290, -0.029005, 0.031415, 0.019388, 0.033029, -0.078045, 0.059056, 0.000000, 0.000000, -0.026512, 0.013154, 0.018568, 0.070254, -0.015494, 0.020032, 0.000326, -0.053185, 0.025863, -0.009370, 0.014895, 0.022224, 0.038197, -0.051222, 0.000000, 0.000000, -0.094298, 0.000689, -0.092681, -0.017441, -0.031021, 0.010850, 0.067072, -0.005581, 0.003419, 0.024426, 0.014334, 0.007182, -0.028952, -0.063776, 0.000000, 0.000000, 0.007947, -0.003664, 0.014414, 0.081851, -0.044854, 0.006287, 0.012018, -0.026661, -0.002314, 0.015333, -0.014289, 0.012863, -0.031747, -0.036667, 0.000000, 0.000000, 0.018190, -0.011065, 0.003131, -0.056431, 0.027129, 0.025820, -0.015908, -0.025080, 0.028217, 0.040070, -0.034001, 0.026759, -0.053818, 0.016918, 0.000000, 0.000000, -0.010507, 0.025309, 0.050998, 0.061994, 0.008842, 0.005945, 0.023850, -0.002625, 0.026978, -0.007569, 0.039726, -0.007534, -0.028908, 0.021967, 0.000000, 0.000000, 0.008001, -0.015073, 
-0.014947, -0.033520, 0.022172, -0.014924, 0.078209, 0.044491, 0.021522, -0.017114, -0.049292, -0.010214, -0.074187, 0.042788, 0.000000, 0.000000, 0.057784, 0.015931, -0.087320, -0.021737, -0.017310, 0.052038, 0.085450, 0.050305, 0.003538, -0.061494, -0.141524, -0.139689, 0.082084, 0.021260, 0.000000, 0.000000, 0.005249, 0.109943, -0.001375, 0.032507, 0.017554, 0.009471, -0.035051, -0.019247, -0.038919, 0.016818, -0.006528, 0.031584, 0.009701, 0.004611, 0.000000, 0.000000, -0.006560, 0.018783, 0.024430, 0.016948, -0.006712, -0.016372, 0.059402, -0.001116, 0.014175, 0.016200, -0.100532, 0.054364, 0.015411, -0.010279, 0.000000, 0.000000, -0.119758, 0.024081, 0.047411, -0.095138, -0.014781, 0.116075, -0.030945, 0.077715, -0.014050, 0.021395, 0.006198, 0.000086, -0.055740, 0.045316, 0.000000, 0.000000, -0.015514, 0.015208, 0.026758, 0.075730, -0.019616, 0.029753, 0.006422, -0.087726, 0.023591, -0.023320, -0.033629, 0.040920, 0.045248, -0.039673, 0.000000, 0.000000, -0.109436, 0.009894, -0.082905, 0.005844, -0.003444, -0.006365, 0.024072, 0.001052, -0.039675, 0.052558, 0.040348, 0.012683, -0.022376, -0.054418, 0.000000, 0.000000, 0.021175, -0.035961, -0.004955, 0.068540, -0.037395, -0.013431, -0.007780, -0.013972, 0.000015, 0.012371, 0.011101, 0.017756, -0.013911, -0.043733, 0.000000, 0.000000, -0.002444, -0.011130, 0.010956, -0.080945, -0.001318, 0.026690, -0.028452, -0.006405, 0.045072, 0.030254, -0.029392, 0.007825, -0.033176, 0.007520, 0.000000, 0.000000, -0.007003, 0.028597, 0.062055, 0.073684, -0.003427, 0.032206, 0.030664, -0.009962, 0.025839, -0.027939, 0.048453, -0.013713, -0.020598, 0.039949, 0.000000, 0.000000, 0.015019, -0.023213, 
-0.013727, -0.019367, 0.023446, -0.019765, 0.056773, 0.028213, 0.023941, -0.014132, -0.030988, -0.006905, -0.086390, 0.046386, 0.000000, 0.000000, 0.053640, 0.016468, -0.062752, -0.035948, -0.033654, 0.064927, 0.060541, 0.058951, 0.014031, -0.092781, -0.164817, -0.118502, 0.087452, 0.028624, 0.000000, 0.000000, -0.007792, 0.128935, -0.013495, 0.034613, 0.002360, 0.024261, -0.016123, -0.020158, -0.030091, 0.006337, -0.004812, 0.039529, -0.009952, 0.004491, 0.000000, 0.000000, 0.006928, 0.018632, 0.020562, 0.008511, -0.005136, -0.008067, 0.064853, 0.000006, 0.025839, -0.007174, -0.102566, 0.063409, 0.002731, 0.005966, 0.000000, 0.000000, -0.133163, 0.023651, 0.030372, -0.076958, -0.009128, 0.106521, -0.012696, 0.062175, -0.042367, 0.030163, -0.003044, -0.002956, -0.027761, 0.042375, 0.000000, 0.000000, -0.014154, 0.016797, 0.036230, 0.055397, -0.015595, 0.016367, -0.000017, -0.070657, 0.017977, -0.019071, -0.007898, 0.026219, 0.040839, -0.027447, 0.000000, 0.000000, -0.102604, 0.009251, -0.068875, 0.015234, -0.008428, -0.020085, 0.010785, -0.004199, -0.025684, 0.062955, 0.054323, 0.021645, -0.000740, -0.054007, 0.000000, 0.000000, -0.002036, -0.035419, -0.025676, 0.083356, -0.044689, -0.026311, -0.000910, 0.000493, -0.002846, 0.017126, -0.009417, 0.030086, -0.028036, -0.031903, 0.000000, 0.000000, 0.005385, -0.004502, 0.013649, -0.086133, 0.004721, 0.032098, -0.034238, 0.011585, 0.031532, 0.023388, -0.040052, -0.003179, -0.056553, 0.009193, 0.000000, 0.000000, -0.002247, 0.023829, 0.056743, 0.077098, 0.004429, 0.037206, 0.024354, -0.023066, 0.031987, -0.028259, 0.048365, -0.016434, -0.017272, 0.022272, 0.000000, 0.000000, 0.001072, -0.039109, 
-0.008797, -0.036730, 0.026966, -0.038222, 0.056466, 0.035572, 0.028108, -0.007376, -0.029536, -0.002715, -0.093925, 0.048203, 0.000000, 0.000000, 0.063323, 0.027447, -0.060835, -0.037538, -0.018946, 0.034288, 0.050920, 0.046248, 0.025711, -0.070513, -0.155170, -0.112015, 0.073673, 0.013002, 0.000000, 0.000000, -0.011782, 0.120210, -0.006172, 0.033607, -0.005695, 0.033941, -0.013327, -0.005043, -0.019019, -0.007535, -0.015269, 0.030992, -0.013835, 0.002870, 0.000000, 0.000000, 0.021318, 0.015485, 0.024580, 0.007796, 0.005087, -0.006540, 0.061511, -0.016377, 0.016452, -0.004023, -0.096377, 0.057352, 0.001010, 0.003738, 0.000000, 0.000000, -0.114732, 0.027575, 0.003580, -0.036939, -0.022507, 0.102660, 0.009967, 0.029106, -0.042148, 0.039493, -0.011044, 0.026219, -0.038418, 0.037377, 0.000000, 0.000000, -0.009645, 0.009853, 0.038657, 0.050878, -0.013687, 0.021620, 0.006316, -0.073360, 0.026851, -0.032297, 0.010863, 0.038119, 0.052155, -0.029267, 0.000000, 0.000000, -0.114586, 0.009395, -0.046229, -0.014357, -0.022878, -0.022931, -0.019610, 0.000339, -0.012043, 0.049572, 0.051206, -0.000341, 0.008845, -0.067444, 0.000000, 0.000000, 0.006226, -0.021587, -0.028983, 0.086442, -0.050847, -0.047536, 0.008968, 0.009367, 0.013771, 0.029856, -0.012578, 0.010493, -0.035663, -0.030733, 0.000000, 0.000000, -0.000179, 0.005167, 0.003195, -0.065403, -0.001024, 0.053153, -0.011792, 0.019502, 0.015932, 0.024707, -0.038517, 0.010491, -0.062303, 0.033354, 0.000000, 0.000000, -0.009523, 0.018222, 0.062433, 0.079899, 0.000694, 0.038388, 0.004872, -0.024789, 0.011278, -0.017970, 0.037789, -0.010267, -0.001892, 0.013521, 0.000000, 0.000000, -0.003292, -0.040717, 
0.008366, -0.032472, 0.024854, -0.030584, 0.026783, 0.010190, 0.021251, -0.005977, -0.014290, 0.006424, -0.076065, 0.047972, 0.000000, 0.000000, 0.058418, 0.010515, -0.049277, -0.033969, -0.022950, 0.034972, 0.044577, 0.018445, 0.040433, -0.069253, -0.116693, -0.099981, 0.057448, 0.019564, 0.000000, 0.000000, -0.013528, 0.097163, 0.002512, 0.030913, -0.000086, 0.023443, -0.001045, -0.002135, -0.020712, -0.001961, -0.010997, 0.039381, -0.036684, 0.003307, 0.000000, 0.000000, 0.025789, 0.003486, 0.025585, -0.009002, 0.000399, -0.008720, 0.067614, -0.019873, 0.017135, -0.001177, -0.105599, 0.064312, 0.003405, 0.002448, 0.000000, 0.000000, -0.109839, 0.024855, -0.019526, -0.019928, -0.041406, 0.096953, 0.015606, 0.010106, -0.031189, 0.022037, -0.028189, 0.031396, -0.042497, 0.043127, 0.000000, 0.000000, -0.018014, 0.021930, 0.045566, 0.054680, -0.005950, 0.027871, 0.018465, -0.063448, 0.010851, -0.035736, -0.002544, 0.038214, 0.035561, -0.026344, 0.000000, 0.000000, -0.095857, 0.016215, -0.026007, 0.003126, -0.007938, 0.008289, -0.030885, -0.008069, -0.013962, 0.058171, 0.052398, -0.000353, -0.010683, -0.048476, 0.000000, 0.000000, 0.014674, 0.000309, -0.034217, 0.068195, -0.061385, -0.055975, 0.013791, -0.009299, 0.012052, 0.051978, 0.011752, -0.000997, -0.017234, -0.031824, 0.000000, 0.000000, -0.005486, 0.007337, 0.009067, -0.081402, -0.003961, 0.047075, -0.013911, 0.021360, 0.019892, 0.021362, -0.050486, 0.015895, -0.067114, 0.016417, 0.000000, 0.000000, -0.017956, 0.030959, 0.061406, 0.086249, 0.015583, 0.028367, 0.014732, -0.023670, 0.023247, -0.028274, 0.028388, 0.001540, -0.013658, 0.020248, 0.000000, 0.000000, -0.019906, -0.039675, 
0.011912, -0.037862, 0.017267, -0.013630, 0.014583, 0.040734, 0.011152, -0.007511, -0.016540, -0.011499, -0.074496, 0.055452, 0.000000, 0.000000, 0.063317, 0.016954, -0.059763, -0.016758, -0.022241, 0.043051, 0.083169, 0.007510, 0.040583, -0.085127, -0.143809, -0.095209, 0.043276, 0.035650, 0.000000, 0.000000, 0.003935, 0.090177, -0.003486, 0.027305, -0.002703, 0.016909, -0.003920, 0.013231, -0.027763, 0.001876, -0.002412, 0.024820, -0.018911, -0.008947, 0.000000, 0.000000, 0.026264, 0.013924, 0.028495, -0.012336, 0.005842, -0.019385, 0.046202, -0.019848, 0.007003, 0.003458, -0.094097, 0.062809, 0.011856, -0.009188, 0.000000, 0.000000, -0.116142, 0.023351, -0.030775, -0.021170, -0.054765, 0.115637, 0.009695, 0.018618, -0.021833, 0.008415, -0.054855, 0.031364, -0.054247, 0.058647, 0.000000, 0.000000, -0.012316, 0.035274, 0.027872, 0.058103, -0.000130, 0.026321, 0.018812, -0.048877, 0.006023, -0.018427, -0.021146, 0.036562, 0.026631, -0.026788, 0.000000, 0.000000, -0.092044, 0.016141, -0.014426, 0.001884, 0.007803, -0.006733, -0.040014, -0.012583, -0.017543, 0.060124, 0.079793, -0.006626, -0.007363, -0.057219, 0.000000, 0.000000, 0.032344, 0.004869, -0.005241, 0.060488, -0.066454, -0.054033, -0.010032, -0.030276, 0.024964, 0.043006, 0.044584, 0.003413, -0.025739, -0.037446, 0.000000, 0.000000, -0.006451, 0.014212, 0.013990, -0.077135, -0.000116, 0.045239, -0.018259, 0.006243, 0.022945, 0.008294, -0.044791, 0.016660, -0.061552, 0.027886, 0.000000, 0.000000, -0.027497, 0.020889, 0.061277, 0.085930, 0.021717, 0.012266, 0.033681, -0.004680, 0.020438, -0.025923, 0.000072, -0.002463, -0.006622, 0.035704, 0.000000, 0.000000, -0.016283, -0.052545, 
0.009580, -0.026973, 0.007517, -0.006184, 0.022937, 0.035765, 0.021038, -0.018564, -0.032182, 0.003426, -0.089656, 0.073901, 0.000000, 0.000000, 0.064530, 0.008292, -0.061486, -0.008152, -0.034928, 0.032005, 0.103960, 0.005374, 0.031306, -0.065053, -0.163090, -0.079629, 0.050312, 0.019905, 0.000000, 0.000000, -0.007211, 0.097535, 0.001693, 0.030822, -0.005048, 0.018367, -0.001679, 0.002877, -0.029975, 0.011409, -0.004668, 0.022179, -0.016747, -0.007577, 0.000000, 0.000000, 0.031147, 0.002143, 0.027445, -0.004710, 0.013379, -0.010360, 0.046782, -0.022645, -0.000976, -0.001702, -0.100414, 0.062453, 0.007863, -0.014623, 0.000000, 0.000000, -0.123403, 0.026197, -0.028803, -0.014041, -0.046934, 0.093425, -0.018418, 0.028084, -0.009532, 0.016171, -0.038560, 0.026363, -0.049104, 0.049934, 0.000000, 0.000000, -0.030914, 0.038788, 0.038220, 0.052812, -0.005210, 0.029345, 0.011922, -0.054888, 0.021432, -0.015712, -0.009793, 0.030216, 0.028137, -0.034146, 0.000000, 0.000000, -0.089675, 0.013073, -0.012892, -0.011153, 0.017435, -0.006049, 0.000047, -0.015231, -0.024202, 0.061955, 0.060609, -0.000867, -0.023739, -0.057622, 0.000000, 0.000000, 0.037697, 0.014711, -0.006300, 0.065941, -0.064856, -0.059459, 0.000011, -0.053666, 0.017237, 0.024078, 0.007967, 0.014551, -0.013692, -0.008708, 0.000000, 0.000000, -0.025217, 0.013984, 0.003344, -0.064887, -0.007264, 0.047594, -0.034801, 0.007157, 0.018306, 0.001264, -0.031859, 0.007943, -0.049504, 0.044380, 0.000000, 0.000000, -0.018941, 0.004496, 0.053941, 0.078951, 0.025639, 0.036186, 0.042303, 0.014180, 0.026179, -0.045137, 0.010904, -0.008450, -0.010026, 0.047377, 0.000000, 0.000000, -0.013121, -0.048607, 
0.018806, -0.025691, 0.011191, -0.010330, 0.020921, 0.034184, 0.047611, -0.026563, -0.025617, 0.011632, -0.104637, 0.076903, 0.000000, 0.000000, 0.088572, -0.005073, -0.058201, -0.024954, -0.009491, 0.010126, 0.099243, 0.018352, 0.016013, -0.056055, -0.146702, -0.085819, 0.059873, 0.012177, 0.000000, 0.000000, -0.014807, 0.087533, 0.006086, 0.020065, -0.011531, 0.015008, -0.016218, 0.017070, -0.034422, 0.018236, 0.006164, 0.023616, -0.018717, 0.006553, 0.000000, 0.000000, 0.035322, -0.014189, 0.030179, 0.008580, 0.010240, -0.014659, 0.026601, -0.038648, 0.010416, 0.004980, -0.089994, 0.073360, 0.008085, -0.022771, 0.000000, 0.000000, -0.145980, 0.028997, -0.036695, -0.005713, -0.044481, 0.092020, -0.019266, 0.007819, -0.009457, 0.009286, -0.046287, 0.031886, -0.056377, 0.052589, 0.000000, 0.000000, -0.021428, 0.030933, 0.036302, 0.050217, -0.003209, 0.017891, 0.028552, -0.050959, 0.027419, 0.008140, -0.012997, 0.023728, 0.002468, -0.032152, 0.000000, 0.000000, -0.059902, 0.022756, 0.004826, -0.020578, 0.019375, 0.013200, -0.013856, 0.026647, -0.022465, 0.057346, 0.076212, 0.001042, -0.041848, -0.038551, 0.000000, 0.000000, 0.026472, 0.035107, -0.008980, 0.065836, -0.066246, -0.045759, 0.008624, -0.051884, 0.024762, 0.006260, -0.032685, 0.018155, -0.002562, -0.006248, 0.000000, 0.000000, -0.017999, 0.003955, -0.002249, -0.045847, 0.001836, 0.026521, -0.022456, -0.013405, 0.001878, 0.015318, -0.028734, -0.013903, -0.023034, 0.030822, 0.000000, 0.000000, -0.011056, -0.008081, 0.044330, 0.077820, 0.012178, 0.030538, 0.030495, 0.009998, 0.026843, -0.033095, 0.041340, -0.011674, -0.006781, 0.021395, 0.000000, 0.000000, -0.024084, -0.033613, 
0.048157, -0.027237, 0.007544, 0.002726, 0.002559, 0.042049, 0.028732, -0.013552, -0.033551, -0.009771, -0.071998, 0.053605, 0.000000, 0.000000, 0.086525, -0.000158, -0.060277, -0.003914, -0.001410, -0.007520, 0.090238, 0.018111, -0.013145, -0.012635, -0.156319, -0.069481, 0.065241, -0.005455, 0.000000, 0.000000, -0.018152, 0.089634, 0.012054, 0.026905, -0.003963, 0.015913, -0.035450, 0.019254, -0.036636, 0.018111, -0.001028, 0.025797, -0.020835, 0.004175, 0.000000, 0.000000, 0.045926, -0.012731, 0.026999, 0.018657, 0.009421, -0.014808, 0.039705, -0.045900, 0.006078, 0.006040, -0.090163, 0.073150, 0.028856, -0.038283, 0.000000, 0.000000, -0.151163, 0.040685, -0.033093, -0.035063, -0.065332, 0.092341, -0.016677, 0.009798, 0.008079, -0.007982, -0.037717, 0.031747, -0.040008, 0.065290, 0.000000, 0.000000, -0.008270, 0.028405, 0.029822, 0.062991, -0.012715, 0.009158, 0.022694, -0.071597, 0.031043, 0.014664, -0.012736, 0.035619, -0.000779, -0.037993, 0.000000, 0.000000, -0.039879, 0.017335, 0.006208, -0.011496, 0.022479, 0.010129, -0.013520, 0.025848, -0.019876, 0.058840, 0.102703, -0.005305, -0.052842, -0.040224, 0.000000, 0.000000, 0.013471, 0.000024, -0.002991, 0.094884, -0.048089, -0.035350, 0.025094, -0.046083, 0.015622, -0.015047, -0.035306, 0.027397, 0.010611, 0.007835, 0.000000, 0.000000, -0.036309, -0.004780, 0.011044, -0.048311, -0.001003, 0.017078, -0.007984, -0.024029, 0.013998, 0.024905, -0.043296, -0.008272, -0.032779, 0.030915, 0.000000, 0.000000, 0.005443, 0.003719, 0.040487, 0.057029, 0.019549, 0.028524, 0.015590, 0.005409, 0.033110, -0.035512, 0.040575, -0.001527, -0.007492, 0.000904, 0.000000, 0.000000, -0.046708, -0.033529, 
0.078517, -0.023023, 0.006891, -0.017384, -0.025821, 0.018264, 0.051329, -0.030644, -0.020387, -0.009120, -0.079394, 0.058856, 0.000000, 0.000000, 0.077004, 0.002690, -0.063283, 0.017885, -0.000373, 0.011448, 0.100476, -0.016964, -0.022090, -0.024680, -0.170394, -0.041842, 0.059961, 0.007113, 0.000000, 0.000000, -0.021174, 0.096810, 0.020022, -0.001292, -0.008558, 0.009498, -0.035443, 0.025468, -0.021678, 0.009296, -0.008087, 0.028169, -0.025243, 0.001769, 0.000000, 0.000000, 0.052195, -0.008353, 0.008293, 0.020781, 0.021501, -0.017051, 0.050607, -0.048890, -0.006020, 0.018283, -0.093277, 0.067706, 0.034476, -0.041913, 0.000000, 0.000000, -0.129923, 0.041125, -0.050766, -0.028484, -0.051410, 0.084037, -0.003289, 0.006784, -0.002322, 0.003076, -0.030135, 0.021721, -0.033188, 0.059048, 0.000000, 0.000000, -0.006053, 0.029518, 0.038259, 0.034582, -0.010057, 0.021171, 0.032338, -0.051748, 0.027487, -0.005601, -0.025682, 0.028154, 0.000097, -0.015329, 0.000000, 0.000000, -0.045479, 0.016551, 0.023296, -0.016615, 0.004352, 0.003280, -0.015673, 0.019958, -0.002347, 0.035120, 0.087396, -0.009421, -0.057126, -0.031878, 0.000000, 0.000000, 0.003862, -0.004493, -0.006026, 0.098992, -0.036390, -0.047685, 0.005487, -0.053165, 0.019008, -0.017013, -0.046426, 0.015727, 0.008949, 0.002016, 0.000000, 0.000000, -0.019739, -0.000616, 0.012432, -0.048621, 0.012252, 0.013603, -0.016750, -0.017642, -0.005752, 0.049254, -0.036286, -0.005266, -0.020593, 0.022454, 0.000000, 0.000000, 0.014341, -0.000486, 0.038983, 0.073987, -0.004286, 0.025152, 0.024752, 0.007691, 0.037125, -0.036367, 0.058930, 0.007684, -0.008038, 0.004045, 0.000000, 0.000000, -0.052874, -0.021707, 
0.063959, -0.010479, -0.011788, 0.000415, -0.020611, 0.039890, 0.021180, -0.034083, -0.026632, -0.045853, -0.046406, 0.048940, 0.000000, 0.000000, 0.073254, 0.020037, -0.062095, 0.020845, -0.009282, 0.017395, 0.081158, -0.011886, -0.006969, -0.033711, -0.146012, -0.029766, 0.045398, 0.030751, 0.000000, 0.000000, -0.012218, 0.088058, 0.014225, 0.000153, 0.001933, 0.006993, -0.035303, 0.008590, -0.023282, 0.001247, 0.007618, 0.023200, -0.009089, -0.001354, 0.000000, 0.000000, 0.048026, -0.005034, 0.007870, 0.005145, 0.018149, -0.024318, 0.050653, -0.032665, -0.001441, 0.033509, -0.093491, 0.067739, 0.038521, -0.051533, 0.000000, 0.000000, -0.134614, 0.021977, -0.047541, -0.019405, -0.059906, 0.102280, -0.015880, 0.012787, 0.001298, 0.001765, -0.020026, 0.017230, -0.043276, 0.062060, 0.000000, 0.000000, 0.002879, 0.027273, 0.038805, 0.028299, -0.001280, 0.014939, 0.047796, -0.070723, 0.026108, -0.006808, -0.025850, 0.051998, -0.005726, -0.016078, 0.000000, 0.000000, -0.046604, 0.008832, 0.043114, -0.022216, 0.009192, 0.003655, -0.005431, -0.004800, -0.012675, 0.028746, 0.074748, 0.016487, -0.023873, -0.043788, 0.000000, 0.000000, 0.005040, -0.013819, 0.022860, 0.072829, -0.028872, -0.014778, -0.009003, -0.026258, 0.021796, -0.033147, -0.038420, 0.009976, 0.008444, 0.004777, 0.000000, 0.000000, -0.012588, 0.001940, 0.025243, -0.046430, 0.003319, 0.018424, -0.030650, -0.004903, 0.006813, 0.043243, -0.017352, -0.042921, -0.016924, 0.014495, 0.000000, 0.000000, 0.010606, 0.007299, 0.024718, 0.080415, -0.015563, 0.005413, 0.016010, -0.003050, 0.041068, -0.047599, 0.065329, -0.005729, -0.020395, -0.004423, 0.000000, 0.000000, -0.052037, -0.019522, 
0.081957, -0.006224, -0.026206, 0.019283, -0.010697, 0.027821, 0.025039, -0.043087, -0.035953, -0.029541, -0.036461, 0.032962, 0.000000, 0.000000, 0.055599, 0.038273, -0.059624, 0.030525, -0.031482, -0.004680, 0.073887, -0.009754, 0.014443, -0.005166, -0.151033, -0.034807, 0.006632, 0.026378, 0.000000, 0.000000, 0.014270, 0.096721, 0.005894, 0.007584, -0.002362, 0.004452, -0.020930, -0.004541, -0.007045, 0.006004, 0.008490, 0.009398, -0.013807, -0.016171, 0.000000, 0.000000, 0.063899, 0.006827, 0.008766, 0.002798, 0.013130, -0.010823, 0.075709, -0.037229, -0.018922, 0.026171, -0.134110, 0.069974, 0.044848, -0.057924, 0.000000, 0.000000, -0.134297, 0.048183, -0.033284, -0.029215, -0.054060, 0.098594, -0.024506, 0.026693, 0.006029, -0.004958, -0.032220, 0.017393, -0.062519, 0.062986, 0.000000, 0.000000, 0.004476, 0.032046, 0.045634, -0.002601, 0.009060, 0.029504, 0.034263, -0.050089, 0.023388, -0.006858, -0.023407, 0.055311, -0.004279, -0.015979, 0.000000, 0.000000, -0.042925, 0.004056, 0.011190, 0.013528, -0.008622, 0.005746, 0.021897, -0.029858, -0.011063, 0.060849, 0.060382, 0.015024, -0.030504, -0.043327, 0.000000, 0.000000, -0.009224, -0.009899, 0.030523, 0.082576, -0.044883, 0.003947, -0.024475, -0.018548, 0.027427, -0.053436, 0.010158, -0.007803, 0.010343, 0.000291, 0.000000, 0.000000, -0.003233, -0.013922, 0.026458, -0.047358, 0.021337, 0.009625, -0.039081, 0.000313, -0.001241, 0.030873, -0.006998, -0.037081, -0.010400, 0.017538, 0.000000, 0.000000, 0.002273, 0.007744, 0.002090, 0.066252, 0.004800, 0.008190, 0.035160, 0.010592, 0.048764, -0.035269, 0.036869, -0.004656, -0.035378, -0.010679, 0.000000, 0.000000, -0.054384, -0.007104, 
0.095918, -0.011701, -0.029047, 0.030798, -0.017095, 0.007670, 0.004398, -0.039382, -0.035514, -0.003115, -0.042545, 0.043659, 0.000000, 0.000000, 0.052018, 0.040377, -0.044095, 0.022464, -0.024328, 0.004321, 0.075881, -0.018838, 0.006690, 0.000310, -0.164742, -0.007277, 0.015666, 0.019604, 0.000000, 0.000000, 0.004135, 0.099668, 0.002760, 0.005493, -0.001734, 0.001365, -0.002950, -0.006445, -0.004053, 0.016125, 0.000086, -0.003569, -0.023273, -0.015644, 0.000000, 0.000000, 0.072561, 0.015133, 0.009389, 0.004145, 0.017268, -0.002371, 0.081734, -0.041687, -0.016357, 0.008808, -0.135586, 0.058428, 0.058910, -0.045232, 0.000000, 0.000000, -0.128563, 0.047507, -0.033772, -0.029356, -0.044729, 0.092035, -0.018195, 0.039123, 0.017449, -0.015502, -0.036656, 0.002329, -0.058482, 0.035760, 0.000000, 0.000000, 0.016962, 0.030641, 0.048752, -0.000320, -0.004343, 0.047478, 0.042501, -0.041783, 0.013408, -0.013247, -0.017689, 0.048044, -0.001944, -0.012340, 0.000000, 0.000000, -0.045903, 0.003097, 0.017063, -0.010947, -0.011927, 0.032036, 0.020600, -0.030021, -0.011865, 0.054248, 0.054572, 0.016414, -0.024744, -0.041932, 0.000000, 0.000000, -0.033792, -0.001408, 0.026130, 0.077997, -0.034659, -0.020846, -0.016246, -0.026018, 0.029069, -0.037271, -0.045129, -0.008695, 0.015641, -0.001345, 0.000000, 0.000000, -0.005072, -0.000269, 0.001173, -0.028847, 0.033404, -0.001559, -0.023210, -0.001141, -0.008580, 0.043195, -0.008970, -0.032729, -0.010331, 0.015180, 0.000000, 0.000000, 0.018054, 0.005035, 0.011316, 0.067321, -0.007897, 0.025791, 0.031698, 0.007397, 0.042631, -0.046716, 0.078892, -0.000139, -0.028651, -0.000582, 0.000000, 0.000000, -0.057711, -0.021072, 
0.113605, -0.012576, -0.018871, 0.035096, -0.048361, 0.004760, -0.011063, -0.042538, -0.022087, 0.017074, -0.045572, 0.048435, 0.000000, 0.000000, 0.055950, 0.033936, -0.053569, 0.048247, -0.044800, -0.007939, 0.051043, -0.066730, 0.047987, 0.021294, -0.127089, -0.003418, -0.015353, 0.012986, 0.000000, 0.000000, 0.024423, 0.070161, -0.012287, 0.007462, -0.006192, -0.000491, 0.022446, 0.005561, -0.002763, 0.009117, -0.000929, -0.018584, -0.014558, -0.015968, 0.000000, 0.000000, 0.072994, 0.006988, 0.024799, 0.005877, 0.004451, 0.006430, 0.084954, -0.047016, -0.001678, -0.000955, -0.109065, 0.046406, 0.043660, -0.036398, 0.000000, 0.000000, -0.122179, 0.040249, -0.030881, -0.007197, -0.030140, 0.070567, -0.013229, 0.023515, 0.025621, -0.009090, -0.039717, 0.004472, -0.075542, 0.042274, 0.000000, 0.000000, 0.013308, 0.029852, 0.044998, 0.001947, 0.002076, 0.048041, 0.034065, -0.033508, 0.013979, -0.012997, -0.014608, 0.040207, -0.007447, -0.024395, 0.000000, 0.000000, -0.048218, 0.007729, 0.003421, 0.008071, -0.021474, 0.035527, 0.026129, -0.040822, -0.011002, 0.050081, 0.055152, 0.030094, -0.019531, -0.032718, 0.000000, 0.000000, -0.031055, 0.001816, 0.004785, 0.098359, -0.015671, -0.036797, 0.009414, -0.028008, 0.028409, -0.026727, -0.034563, -0.012147, 0.008103, 0.006333, 0.000000, 0.000000, 0.005777, 0.002408, -0.001980, -0.015753, 0.026863, -0.000369, -0.007058, -0.021364, -0.005005, 0.048387, -0.012566, -0.030749, -0.028685, 0.018457, 0.000000, 0.000000, 0.008221, 0.004146, 0.008146, 0.051318, -0.022135, 0.030061, 0.020060, -0.000752, 0.044240, -0.040128, 0.072441, 0.002736, -0.003261, -0.020303, 0.000000, 0.000000, -0.061517, -0.019736, 
0.067760, -0.001277, 0.001396, -0.009196, -0.010234, -0.005847, -0.002145, -0.011526, -0.033317, 0.041723, -0.092805, 0.062327, 0.000000, 0.000000, 0.070311, 0.028907, -0.074236, 0.033295, -0.024119, 0.008200, 0.063570, -0.056438, 0.046064, -0.032008, -0.111197, -0.020194, -0.027721, 0.049134, 0.000000, 0.000000, 0.042571, 0.061859, -0.002751, -0.016620, 0.002127, -0.019113, 0.020417, 0.026888, -0.004413, 0.017415, -0.011527, -0.036266, -0.012302, -0.011927, 0.000000, 0.000000, 0.078883, 0.013107, 0.027056, 0.008402, -0.005939, 0.013089, 0.077935, -0.039642, -0.005383, -0.011154, -0.109132, 0.045053, 0.045166, -0.032465, 0.000000, 0.000000, -0.145526, 0.035617, -0.023304, -0.010701, -0.012905, 0.077721, -0.015004, 0.015306, 0.010241, -0.012029, -0.019559, 0.000451, -0.064618, 0.031999, 0.000000, 0.000000, 0.028416, 0.031251, 0.042473, 0.014416, 0.006769, 0.042529, 0.030865, -0.044371, 0.015105, -0.003291, -0.013950, 0.032638, -0.012169, -0.048590, 0.000000, 0.000000, -0.047352, 0.019448, 0.009888, 0.001128, -0.036277, 0.042443, 0.020624, -0.018621, -0.011382, 0.044566, 0.050610, 0.018670, -0.025321, -0.007045, 0.000000, 0.000000, -0.028270, 0.001991, -0.002594, 0.098427, -0.024081, -0.025936, 0.012708, -0.007553, 0.015179, -0.030171, -0.023351, -0.014408, -0.003214, 0.020752, 0.000000, 0.000000, 0.005379, 0.004267, -0.003456, -0.011555, 0.028745, -0.008060, -0.024338, -0.016945, 0.000667, 0.047102, -0.039276, -0.018444, -0.023673, -0.001886, 0.000000, 0.000000, 0.005368, 0.000609, -0.002924, 0.047829, -0.019897, 0.030208, 0.030945, -0.008370, 0.043171, -0.033367, 0.055645, 0.013088, 0.005390, -0.030550, 0.000000, 0.000000, -0.051917, -0.015365, 
0.063700, -0.021239, -0.005605, 0.015350, -0.001967, 0.001585, 0.007332, -0.026319, -0.010848, 0.026879, -0.092725, 0.073514, 0.000000, 0.000000, 0.068018, 0.005975, -0.059491, 0.016639, -0.002933, -0.004148, 0.067039, -0.040889, 0.045500, -0.032410, -0.119249, -0.012775, -0.040584, 0.038957, 0.000000, 0.000000, 0.047533, 0.052309, -0.018165, -0.018910, 0.018154, -0.016427, 0.007462, 0.040141, 0.000837, 0.024038, 0.001527, -0.030724, -0.022329, -0.019862, 0.000000, 0.000000, 0.086442, 0.006189, 0.019373, 0.018413, -0.018429, 0.010842, 0.082315, -0.042058, 0.003373, -0.014178, -0.104904, 0.047391, 0.037281, -0.039954, 0.000000, 0.000000, -0.143888, 0.033896, 0.028056, -0.021665, 0.009478, 0.066391, -0.051968, 0.015178, 0.013520, -0.026819, -0.013354, 0.002912, -0.050992, 0.033834, 0.000000, 0.000000, 0.019635, 0.010288, 0.039956, 0.016963, 0.011156, 0.040616, 0.022679, -0.041956, 0.015689, -0.015575, -0.007483, 0.042867, -0.003958, -0.049566, 0.000000, 0.000000, -0.043219, 0.031373, -0.007304, -0.023698, -0.021044, 0.036686, 0.057679, -0.021573, -0.039429, 0.055025, 0.005670, 0.020820, -0.023703, -0.004770, 0.000000, 0.000000, -0.027720, 0.034543, -0.018595, 0.097174, -0.040367, -0.023056, 0.011496, 0.004817, 0.025822, -0.021479, -0.032809, -0.024232, -0.010269, 0.024602, 0.000000, 0.000000, 0.005204, 0.012567, -0.008107, 0.001823, 0.016729, -0.005058, -0.035872, -0.004379, -0.005149, 0.054180, -0.051985, -0.014262, -0.020039, -0.007363, 0.000000, 0.000000, 0.009170, -0.006073, -0.004911, 0.050865, -0.018762, 0.043629, 0.013751, 0.003033, 0.029106, -0.043231, 0.052036, 0.020658, 0.008004, -0.022430, 0.000000, 0.000000, -0.040118, -0.033139, 
0.065659, -0.023723, 0.001423, 0.012286, -0.019131, 0.015904, 0.003424, -0.021233, -0.004273, 0.020296, -0.078474, 0.065703, 0.000000, 0.000000, 0.060782, 0.003762, -0.069535, 0.012395, -0.008671, 0.004105, 0.048087, -0.038422, 0.041985, -0.027885, -0.097167, -0.025479, -0.027917, 0.039163, 0.000000, 0.000000, 0.036628, 0.058455, -0.023670, -0.004266, 0.019506, -0.017335, 0.016076, 0.032823, -0.012085, 0.020538, -0.015862, -0.026490, -0.003228, -0.022592, 0.000000, 0.000000, 0.068278, 0.012386, 0.024763, 0.021185, -0.009416, 0.016860, 0.065303, -0.028124, 0.000014, -0.028352, -0.094061, 0.041872, 0.031330, -0.036472, 0.000000, 0.000000, -0.129327, 0.026551, 0.036390, -0.032359, 0.010900, 0.078094, -0.071624, 0.018678, 0.017982, -0.027118, -0.018844, 0.009377, -0.042295, 0.020124, 0.000000, 0.000000, 0.003554, 0.021402, 0.044814, 0.001171, 0.016853, 0.021965, 0.026333, -0.037956, 0.028506, -0.000406, 0.002420, 0.033568, -0.008054, -0.077299, 0.000000, 0.000000, -0.034337, 0.022187, -0.006921, 0.001834, -0.022274, 0.038195, 0.050103, -0.031553, -0.041181, 0.035803, 0.013991, 0.014055, -0.041837, -0.002574, 0.000000, 0.000000, -0.007579, 0.020643, -0.015111, 0.096340, -0.044183, -0.027887, 0.006915, 0.012053, 0.012111, -0.032524, -0.034706, -0.002239, -0.025750, 0.041818, 0.000000, 0.000000, 0.012311, 0.014536, -0.008555, -0.013768, 0.018834, -0.009923, -0.030485, 0.000769, 0.000509, 0.065608, -0.048589, -0.003149, -0.019084, -0.002801, 0.000000, 0.000000, 0.010544, -0.009655, -0.001381, 0.058955, -0.024369, 0.048385, 0.022259, -0.016192, 0.035334, -0.032659, 0.048699, 0.008288, 0.003806, -0.032366, 0.000000, 0.000000, -0.041560, -0.034909, 
