 -2.4757263e-001
 -1.3111613e-001
  6.1634948e-002
  2.7752359e-002
  5.5945546e-001
 -6.2258534e-002
 -8.9325879e-002
  9.4019725e-002
 -3.3649606e-001
  1.8064964e-001
 -1.6521125e-002
 -8.8491054e-002
  0.0000000e+000
  0.0000000e+000
 -4.7165437e-002
  2.2156817e-001
 -2.0713047e-001
  4.1001587e-001
 -1.5517448e-001
 -6.2438357e-002
  2.5046230e-001
 -3.0238197e-001
  9.7212219e-002
  7.7517663e-002
  7.5730605e-002
 -1.3660199e-001
  2.4852135e-001
 -1.4970004e-001
  0.0000000e+000
  0.0000000e+000
 -2.2377335e-001
 -3.8530839e-002
  3.1748354e-002
  3.3898076e-002
  1.0668928e-001
 -1.3892791e-001
 -2.5510818e-001
  1.1988673e-001
 -1.1180652e-001
  1.0218312e-001
  1.4383058e-001
 -1.4966333e-001
  9.8419702e-002
 -8.8832336e-002
  0.0000000e+000
  0.0000000e+000
  8.8747707e-003
 -1.5965251e-002
  5.8150818e-002
 -1.0901766e-001
  4.7301443e-002
 -1.4391601e-001
 -1.4813912e-002
  1.9020432e-002
  8.2102649e-002
  3.3121882e-002
 -1.3671488e-001
  8.5106329e-002
 -2.4217524e-002
 -2.6085815e-002
  0.0000000e+000
  0.0000000e+000
 -5.7043284e-002
 -9.2138369e-003
  8.4746028e-002
 -1.7932315e-001
  1.1098516e-001
  6.0158160e-002
  8.8101168e-003
 -2.0737410e-001
  6.1832384e-002
  9.9683510e-003
  5.9383794e-002
  9.6775450e-002
 -9.8786783e-002
  6.2663005e-002
  0.0000000e+000
  0.0000000e+000
 -7.3054672e-002
 -3.0721318e-002
  1.3635418e-001
  1.4321234e-001
  7.2405564e-002
 -9.0643014e-002
  2.5255960e-001
 -1.3932514e-001
 -2.7722952e-002
  9.6232250e-002
 -1.9339764e-001
  3.1164167e-002
  1.0684801e-002
 -1.1415393e-001
  0.0000000e+000
  0.0000000e+000
 -1.0939647e-001
  2.9369862e-002
  8.6152650e-002
  1.7749354e-001
 -2.3617166e-001
  4.1216775e-002
 -1.2253005e-001
 -4.2685196e-002
 -5.1604123e-002
  2.3167206e-001
 -6.9677757e-002
  5.2188334e-002
 -3.2438128e-001
 -4.7263716e-002
  0.0000000e+000
  0.0000000e+000
  1.2416240e-001
  8.5738823e-003
 -1.1346477e-001
 -6.8287210e-002
 -3.4357977e-002
  4.1386945e-002
 -6.0955230e-002
  1.3202104e-001
  7.1148085e-003
 -1.6315408e-001
  1.4222016e-001
  4.5753449e-002
 -6.8228047e-003
  1.3684183e-001
  0.0000000e+000
  0.0000000e+000
 -1.6662203e-003
 -6.2958307e-002
 -2.8147008e-002
 -4.7989240e-002
  3.3235958e-002
  6.9240445e-002
  9.3624128e-002
 -4.7556706e-002
  4.7494680e-002
  4.3277263e-002
 -2.1515279e-002
  1.7915905e-001
  6.6811197e-002
 -8.9363682e-002
  0.0000000e+000
  0.0000000e+000
 -2.0452132e-001
  7.0972477e-002
  4.9137038e-002
  1.2103307e-001
 -7.1010999e-002
  2.4348923e-002
  2.1845572e-002
 -7.5753129e-002
  8.7335551e-002
  1.4105075e-001
 -4.1559661e-002
 -7.5008163e-002
 -4.3618047e-002
 -3.7480385e-002
  0.0000000e+000
  0.0000000e+000
  3.3804496e-002
 -2.4508768e-002
