  1.7073927e-001
  8.6541891e-003
 -3.4742822e-002
  2.3711944e-002
 -1.2008432e-001
  3.4673212e-002
  1.1275444e-001
 -1.0440101e-002
 -2.2770838e-002
 -2.2911968e-001
 -3.3591897e-002
  7.3798814e-002
  0.0000000e+000
  0.0000000e+000
  1.3012067e-001
  4.8957497e-003
 -1.2572067e-001
  1.8926282e-001
 -6.3984906e-002
  2.3434285e-001
 -1.3336363e-001
 -1.9837544e-001
  1.1551947e-001
 -2.8533786e-001
  2.1700257e-001
  3.6916177e-001
  1.9292772e-001
  4.9825134e-002
  0.0000000e+000
  0.0000000e+000
 -1.4796903e-001
 -2.3732921e-001
 -1.3074534e-001
 -8.8418099e-002
 -1.3119984e-001
  8.7387327e-002
  1.3828548e-001
  4.4570252e-002
  7.0050619e-002
 -6.4636090e-002
 -1.4824678e-002
 -5.7976188e-002
 -1.5694461e-001
  9.2014721e-002
  0.0000000e+000
  0.0000000e+000
  2.0760143e-003
  4.5587223e-002
 -4.7139824e-002
 -8.7757641e-003
  8.0764472e-003
  5.6935757e-002
 -7.3579872e-002
  6.1626954e-002
  1.5130318e-002
  8.2295539e-002
 -6.7841608e-003
  7.9508606e-002
  1.5364845e-002
 -1.1728229e-001
  0.0000000e+000
  0.0000000e+000
  7.1211024e-002
 -3.8264948e-002
 -1.9992240e-001
  7.1368611e-002
 -1.0349857e-001
 -7.8904243e-002
  1.8683618e-001
 -7.4147981e-002
  1.0439946e-001
  3.3575772e-001
  7.8853144e-002
  9.6430625e-002
 -2.3044820e-001
 -9.2596326e-002
  0.0000000e+000
  0.0000000e+000
  3.4306486e-002
 -8.0647923e-002
  1.6099811e-001
 -5.7539707e-002
 -2.6351554e-001
  2.2326810e-001
 -8.5858673e-002
  4.4738122e-003
  1.0954520e-001
 -2.9920639e-001
  1.6365117e-001
 -1.8969606e-001
 -4.7304186e-002
  3.2812565e-002
  0.0000000e+000
  0.0000000e+000
  1.1885899e-001
  1.1079038e-001
  1.8409480e-003
  1.4729527e-001
  6.1488795e-002
  2.2351526e-001
 -1.5087187e-001
 -1.2017153e-001
  8.4307851e-002
 -2.8283168e-001
  6.4057460e-002
 -5.5529119e-002
  6.6453864e-002
  9.0001694e-002
  0.0000000e+000
  0.0000000e+000
 -6.8701248e-003
 -7.9848872e-003
  8.3885513e-002
  3.7378975e-002
  1.6627615e-001
 -1.5668014e-002
 -1.0879847e-001
 -7.9184730e-002
 -8.9552219e-002
  1.1491423e-001
 -2.6718992e-001
 -6.1077892e-002
  2.9081705e-002
 -4.3435785e-002
  0.0000000e+000
  0.0000000e+000
 -1.8202063e-001
  2.8417815e-002
  5.8474682e-002
 -6.3063083e-002
  8.7590972e-002
 -4.6600253e-002
  4.6986994e-002
  7.1010912e-002
 -1.0359145e-001
  2.4250494e-001
  8.0259691e-002
  3.9196024e-002
  3.5944179e-002
  5.6672203e-003
  0.0000000e+000
  0.0000000e+000
 -1.0114090e-001
  1.9915794e-002
 -2.5655185e-002
 -1.5951105e-001
 -8.9756469e-002
 -1.1721331e-001
 -1.9163246e-001
  1.6495947e-002
  1.8777510e-002
 -1.9770269e-002
  7.6215866e-002
  7.8953266e-002
  1.5439621e-003
  3.3084222e-002
  0.0000000e+000
  0.0000000e+000
  4.2688310e-002
 -6.3666480e-003
