14,0.0000000e+000,0.0000000e+000,0.0000000e+000,0.0000000e+000,0.0000000e+000,0.0000000e+000,0.0000000e+000,0.0000000e+000,0.0000000e+000,0.0000000e+000,0.0000000e+000,0.0000000e+000,0.0000000e+000,0.0000000e+000,0.0000000e+000,0.0000000e+000,1.0472432e-001,-2.6685419e-001,8.2238657e-002,-1.1249600e-002,-6.8754944e-003,3.0260782e-001,-1.3640150e-002,1.0623181e-001,-8.3783597e-002,-2.9168586e-001,9.2080468e-002,-1.8321183e-002,0.0000000e+000,0.0000000e+000,4.7908845e-002,2.1148028e-001,0.0000000e+000,0.0000000e+000,0.0000000e+000,0.0000000e+000,0.0000000e+000,0.0000000e+000,0.0000000e+000,0.0000000e+000,0.0000000e+000,0.0000000e+000,0.0000000e+000,0.0000000e+000,0.0000000e+000,0.0000000e+000,0.0000000e+000,0.0000000e+000,5.6410944e-001,-1.9115670e-001,1.2760009e-001,2.0345494e-001,-4.5235553e-001,3.5783369e-002,-1.3679749e-001,-3.5470725e-001,7.0305892e-002,7.5826429e-002,4.3359640e-002,1.0624511e-001,0.0000000e+000,0.0000000e+000,4.7546297e-003,1.2911010e-001,0.0000000e+000,0.0000000e+000,0.0000000e+000,0.0000000e+000,0.0000000e+000,0.0000000e+000,0.0000000e+000,0.0000000e+000,0.0000000e+000,0.0000000e+000,0.0000000e+000,0.0000000e+000,0.0000000e+000,0.0000000e+000,0.0000000e+000,0.0000000e+000,-1.0943829e-001,-1.5351295e-001,6.0174600e-002,-4.1583325e-002,1.9176324e-001,-4.3508005e-002,-1.2350025e-001,4.1495152e-002,-1.8728354e-001,5.4683076e-002,5.7852716e-002,7.7121096e-002,0.0000000e+000,0.0000000e+000,5.5285476e-002,3.9715977e-002,0.0000000e+000,0.0000000e+000,0.0000000e+000,0.0000000e+000,0.0000000e+000,0.0000000e+000,0.0000000e+000,0.0000000e+000,0.0000000e+000,0.0000000e+000,0.0000000e+000,0.0000000e+000,0.0000000e+000,0.0000000e+000,0.0000000e+000,0.0000000e+000,-7.6318580e-002,1.2078191e-002,3.2928275e-001,-1.2610566e-001,-9.6811356e-002,3.0147777e-001,-4.2251558e-001,1.7880622e-001,3.6334846e-002,-6.4647339e-002,1.7785145e-001,-2.7770027e-001,0.0000000e+000,0.0000000e+000,4.6229755e-002,-1.3165045e-001,0.0000000e+000,0.0000000e+000,0.0000000e+000,0.0000000e+000,0.0000000e+000,0.0000000e+000,0.0000000e+000,0.0000000e+000,0.0000000e+000,0.0000000e+000,0.0000000e+000,0.0000000e+000,0.0000000e+000,0.0000000e+000,0.0000000e+000,0.0000000e+000,1.3636873e-001,-6.1710943e-002,1.7495316e-002,-4.5110017e-002,7.4299841e-002,-2.3476450e-001,6.3849758e-002,3.3586363e-002,-1.4086608e-001,7.4649164e-002,-1.3482206e-001,1.7372331e-001,0.0000000e+000,0.0000000e+000,8.8752432e-002,-9.9129305e-003,
,26,0.0000000e+000,0.0000000e+000,0.0000000e+000,0.0000000e+000,0.0000000e+000,0.0000000e+000,0.0000000e+000,0.0000000e+000,0.0000000e+000,0.0000000e+000,0.0000000e+000,0.0000000e+000,0.0000000e+000,0.0000000e+000,0.0000000e+000,0.0000000e+000,-1.5626563e-001,-4.2310543e-002,1.2228295e-001,-1.2909154e-001,6.0333164e-002,-1.6732238e-003,-2.0461125e-001,-7.3684618e-003,-1.6493071e-002,1.2871588e-001,-4.2070447e-003,1.3962153e-001,0.0000000e+000,0.0000000e+000,-1.3935970e-001,1.6079120e-002,0.0000000e+000,0.0000000e+000,0.0000000e+000,0.0000000e+000,0.0000000e+000,0.0000000e+000,0.0000000e+000,0.0000000e+000,0.0000000e+000,0.0000000e+000,0.0000000e+000,0.0000000e+000,0.0000000e+000,0.0000000e+000,0.0000000e+000,0.0000000e+000,1.6446615e-001,4.8710721e-003,7.4027162e-002,-7.0293592e-002,-1.2523256e-001,-4.2998054e-002,-1.7196220e-001,2.3547484e-001,-8.8834097e-002,-9.6715820e-002,1.5224647e-001,-1.2236077e-001,0.0000000e+000,0.0000000e+000,1.8962635e-002,3.3302978e-002,0.0000000e+000,0.0000000e+000,0.0000000e+000,0.0000000e+000,0.0000000e+000,0.0000000e+000,0.0000000e+000,0.0000000e+000,0.0000000e+000,0.0000000e+000,0.0000000e+000,0.0000000e+000,0.0000000e+000,0.0000000e+000,0.0000000e+000,0.0000000e+000,6.2303827e-003,-7.2168671e-002,-5.6737470e-002,1.5851860e-001,-3.2778703e-002,-7.9432836e-002,3.7414118e-002,-1.2829279e-001,-7.0520702e-002,6.7258957e-002,-7.6904150e-002,1.9821537e-001,0.0000000e+000,0.0000000e+000,9.5908028e-002,-6.6239889e-003,0.0000000e+000,0.0000000e+000,0.0000000e+000,0.0000000e+000,0.0000000e+000,0.0000000e+000,0.0000000e+000,0.0000000e+000,0.0000000e+000,0.0000000e+000,0.0000000e+000,0.0000000e+000,0.0000000e+000,0.0000000e+000,0.0000000e+000,0.0000000e+000,-3.1050302e-001,3.2069132e-002,-7.9062643e-002,9.8452363e-002,4.0225889e-002,9.1534555e-002,5.8301769e-003,4.1394469e-002,-2.6831031e-002,-1.5915562e-001,-1.0885552e-001,8.3064623e-002,0.0000000e+000,0.0000000e+000,1.2494518e-001,1.4254117e-001,0.0000000e+000,0.0000000e+000,0.0000000e+000,0.0000000e+000,0.0000000e+000,0.0000000e+000,0.0000000e+000,0.0000000e+000,0.0000000e+000,0.0000000e+000,0.0000000e+000,0.0000000e+000,0.0000000e+000,0.0000000e+000,0.0000000e+000,0.0000000e+000,4.0460095e-003,-5.5931554e-002,3.3707923e-002,3.1274775e-002,-1.2900485e-001,5.4750346e-002,-1.6074231e-002,1.2202124e-001,-8.5341356e-002,-1.1343720e-001,-9.1233854e-002,-3.7436502e-002,0.0000000e+000,0.0000000e+000,2.8646638e-002,2.5015378e-002,
,38,0.0000000e+000,0.0000000e+000,0.0000000e+000,0.0000000e+000,0.0000000e+000,0.0000000e+000,0.0000000e+000,0.0000000e+000,0.0000000e+000,0.0000000e+000,0.0000000e+000,0.0000000e+000,0.0000000e+000,0.0000000e+000,0.0000000e+000,0.0000000e+000,-3.4055152e-002,1.1888546e-001,1.3141109e-003,4.3891580e-002,1.9694236e-002,-6.1714701e-002,3.9045093e-003,-2.2066181e-001,-4.1032108e-002,4.1830038e-002,-6.2835114e-002,2.0849607e-001,0.0000000e+000,0.0000000e+000,2.9212947e-003,6.4204520e-002,0.0000000e+000,0.0000000e+000,0.0000000e+000,0.0000000e+000,0.0000000e+000,0.0000000e+000,0.0000000e+000,0.0000000e+000,0.0000000e+000,0.0000000e+000,0.0000000e+000,0.0000000e+000,0.0000000e+000,0.0000000e+000,0.0000000e+000,0.0000000e+000,-4.4555619e-002,-3.1939680e-002,-2.0949972e-002,5.4050917e-002,2.2352362e-001,-2.6234085e-001,1.5900557e-001,-2.3010024e-001,-1.4539563e-001,1.1353581e-001,-1.3523095e-002,5.8129126e-002,0.0000000e+000,0.0000000e+000,-1.3633761e-001,3.6956423e-002,0.0000000e+000,0.0000000e+000,0.0000000e+000,0.0000000e+000,0.0000000e+000,0.0000000e+000,0.0000000e+000,0.0000000e+000,0.0000000e+000,0.0000000e+000,0.0000000e+000,0.0000000e+000,0.0000000e+000,0.0000000e+000,0.0000000e+000,0.0000000e+000,-1.8768883e-002,-8.2392216e-002,1.7107658e-001,-3.8556789e-002,-9.8950943e-002,7.8313222e-002,3.5656475e-002,-5.2267650e-002,-4.8685348e-002,6.3992255e-002,-1.2336663e-001,7.1456794e-002,0.0000000e+000,0.0000000e+000,1.3675181e-002,3.3631706e-002,0.0000000e+000,0.0000000e+000,0.0000000e+000,0.0000000e+000,0.0000000e+000,0.0000000e+000,0.0000000e+000,0.0000000e+000,0.0000000e+000,0.0000000e+000,0.0000000e+000,0.0000000e+000,0.0000000e+000,0.0000000e+000,0.0000000e+000,0.0000000e+000,-7.3405183e-002,-1.3347971e-001,-5.6095172e-002,1.6275063e-001,1.1544117e-001,6.6137889e-002,-4.2308884e-002,-1.0753892e-001,-2.4450058e-001,-2.9379650e-002,4.8838824e-002,2.2334295e-002,0.0000000e+000,0.0000000e+000,1.2831431e-001,6.4222158e-002,0.0000000e+000,0.0000000e+000,0.0000000e+000,0.0000000e+000,0.0000000e+000,0.0000000e+000,0.0000000e+000,0.0000000e+000,0.0000000e+000,0.0000000e+000,0.0000000e+000,0.0000000e+000,0.0000000e+000,0.0000000e+000,0.0000000e+000,0.0000000e+000,2.4264949e-002,6.5360653e-003,1.2974227e-001,-5.8029028e-002,-1.1548965e-001,-2.5743158e-002,-3.8276408e-002,7.3596764e-002,-3.2004771e-002,-3.5367644e-003,-8.2962752e-002,6.6894451e-002,0.0000000e+000,0.0000000e+000,-1.1724071e-001,9.1586386e-002,
,50,0.0000000e+000,0.0000000e+000,0.0000000e+000,0.0000000e+000,0.0000000e+000,0.0000000e+000,0.0000000e+000,0.0000000e+000,0.0000000e+000,0.0000000e+000,0.0000000e+000,0.0000000e+000,0.0000000e+000,0.0000000e+000,0.0000000e+000,0.0000000e+000,-9.3262348e-002,3.5639066e-002,-4.4611559e-002,-4.6454530e-002,8.3396880e-003,-5.0097799e-002,4.0724285e-002,4.4833008e-002,1.5061359e-002,-8.8550922e-002,1.0299832e-001,8.7006843e-003,0.0000000e+000,0.0000000e+000,-5.9319647e-002,4.2599612e-002,0.0000000e+000,0.0000000e+000,0.0000000e+000,0.0000000e+000,0.0000000e+000,0.0000000e+000,0.0000000e+000,0.0000000e+000,0.0000000e+000,0.0000000e+000,0.0000000e+000,0.0000000e+000,0.0000000e+000,0.0000000e+000,0.0000000e+000,0.0000000e+000,-3.3050148e-002,-3.8720541e-002,-1.2647636e-001,1.0917819e-001,5.2763731e-002,6.8521197e-002,4.4580843e-002,-1.5607685e-001,-1.8489560e-002,-8.8701981e-002,5.7244391e-002,-8.2204620e-002,0.0000000e+000,0.0000000e+000,4.9396220e-002,3.2399407e-002,0.0000000e+000,0.0000000e+000,0.0000000e+000,0.0000000e+000,0.0000000e+000,0.0000000e+000,0.0000000e+000,0.0000000e+000,0.0000000e+000,0.0000000e+000,0.0000000e+000,0.0000000e+000,0.0000000e+000,0.0000000e+000,0.0000000e+000,0.0000000e+000,-1.1797077e-001,-3.8225802e-002,7.6515067e-002,1.3813055e-001,-1.5726642e-003,9.9689401e-002,-1.4547479e-001,-1.1051086e-002,-1.1997781e-002,1.2293053e-002,4.1467427e-003,8.7224865e-002,0.0000000e+000,0.0000000e+000,8.3651327e-003,-1.0334612e-001,0.0000000e+000,0.0000000e+000,0.0000000e+000,0.0000000e+000,0.0000000e+000,0.0000000e+000,0.0000000e+000,0.0000000e+000,0.0000000e+000,0.0000000e+000,0.0000000e+000,0.0000000e+000,0.0000000e+000,0.0000000e+000,0.0000000e+000,0.0000000e+000,-1.4831706e-001,9.3878845e-002,-1.0275927e-001,1.8973684e-001,3.9493667e-002,-6.9355845e-002,9.5802073e-002,7.6671128e-002,-9.8381151e-002,-8.0017002e-002,-2.1340276e-001,4.8609626e-002,0.0000000e+000,0.0000000e+000,-5.9641202e-002,-4.4450032e-002,0.0000000e+000,0.0000000e+000,0.0000000e+000,0.0000000e+000,0.0000000e+000,0.0000000e+000,0.0000000e+000,0.0000000e+000,0.0000000e+000,0.0000000e+000,0.0000000e+000,0.0000000e+000,0.0000000e+000,0.0000000e+000,0.0000000e+000,0.0000000e+000,-1.7601729e-002,-2.2375547e-002,-4.8004636e-002,-4.2580230e-003,-9.2431599e-002,4.2940036e-002,-1.0451958e-001,1.1854330e-002,8.5283749e-002,5.7656462e-003,7.0069436e-002,1.5861612e-004,0.0000000e+000,0.0000000e+000,-8.7955882e-003,-3.2833587e-002,
,62,0.0000000e+000,0.0000000e+000,0.0000000e+000,0.0000000e+000,0.0000000e+000,0.0000000e+000,0.0000000e+000,0.0000000e+000,0.0000000e+000,0.0000000e+000,0.0000000e+000,0.0000000e+000,0.0000000e+000,0.0000000e+000,0.0000000e+000,0.0000000e+000,-1.2855646e-002,-3.1213418e-003,1.0087795e-002,2.1953977e-002,-2.1708670e-002,-1.6249788e-002,9.6970100e-002,-1.5789307e-002,-1.1136667e-001,2.6574537e-002,2.9149291e-002,-1.0159445e-001,0.0000000e+000,0.0000000e+000,-3.5401896e-003,1.1995928e-001,0.0000000e+000,0.0000000e+000,0.0000000e+000,0.0000000e+000,0.0000000e+000,0.0000000e+000,0.0000000e+000,0.0000000e+000,0.0000000e+000,0.0000000e+000,0.0000000e+000,0.0000000e+000,0.0000000e+000,0.0000000e+000,0.0000000e+000,0.0000000e+000,-5.9214163e-002,2.7783554e-002,7.4916460e-002,-8.3105144e-002,1.6024181e-001,-1.5070706e-001,-2.3274402e-001,6.6088167e-002,-7.0283767e-002,4.9042643e-002,9.0421426e-002,7.8104572e-002,0.0000000e+000,0.0000000e+000,-3.6970737e-002,-7.8447517e-002,0.0000000e+000,0.0000000e+000,0.0000000e+000,0.0000000e+000,0.0000000e+000,0.0000000e+000,0.0000000e+000,0.0000000e+000,0.0000000e+000,0.0000000e+000,0.0000000e+000,0.0000000e+000,0.0000000e+000,0.0000000e+000,0.0000000e+000,0.0000000e+000,-9.9165933e-002,5.4294814e-002,-5.0566886e-002,1.4235816e-003,7.6588221e-002,-4.9703038e-002,-1.7847096e-002,3.2895864e-002,-1.1920229e-001,1.0945811e-001,7.7632729e-003,7.4754827e-002,0.0000000e+000,0.0000000e+000,6.5804200e-002,-7.5035469e-002,0.0000000e+000,0.0000000e+000,0.0000000e+000,0.0000000e+000,0.0000000e+000,0.0000000e+000,0.0000000e+000,0.0000000e+000,0.0000000e+000,0.0000000e+000,0.0000000e+000,0.0000000e+000,0.0000000e+000,0.0000000e+000,0.0000000e+000,0.0000000e+000,-1.7939578e-001,1.1236831e-001,-3.7528694e-002,2.2849182e-001,-4.2608877e-002,1.1129224e-002,-4.1947056e-002,2.3505903e-002,-9.4741980e-002,-1.4577647e-002,-1.7904024e-001,1.0083994e-001,0.0000000e+000,0.0000000e+000,4.1200858e-002,1.0680623e-001,0.0000000e+000,0.0000000e+000,0.0000000e+000,0.0000000e+000,0.0000000e+000,0.0000000e+000,0.0000000e+000,0.0000000e+000,0.0000000e+000,0.0000000e+000,0.0000000e+000,0.0000000e+000,0.0000000e+000,0.0000000e+000,0.0000000e+000,0.0000000e+000,-7.3231165e-002,-5.9922560e-003,-1.2177894e-001,1.0082590e-001,-7.2295435e-002,2.0780151e-002,9.8331522e-003,-2.2056181e-003,-7.5749123e-002,9.7347622e-002,-2.2408340e-002,-6.4315127e-002,0.0000000e+000,0.0000000e+000,-6.4974710e-002,-2.1495226e-002,
,74,0.0000000e+000,0.0000000e+000,0.0000000e+000,0.0000000e+000,0.0000000e+000,0.0000000e+000,0.0000000e+000,0.0000000e+000,0.0000000e+000,0.0000000e+000,0.0000000e+000,0.0000000e+000,0.0000000e+000,0.0000000e+000,0.0000000e+000,0.0000000e+000,-7.6288209e-002,7.8845067e-003,-3.2748302e-002,3.4733375e-002,1.0158504e-001,-2.4540893e-002,1.8623119e-003,3.8777802e-003,-8.0737064e-002,9.8337046e-002,-5.6559745e-003,-1.3517873e-001,0.0000000e+000,0.0000000e+000,-3.1095682e-002,1.5577291e-003,0.0000000e+000,0.0000000e+000,0.0000000e+000,0.0000000e+000,0.0000000e+000,0.0000000e+000,0.0000000e+000,0.0000000e+000,0.0000000e+000,0.0000000e+000,0.0000000e+000,0.0000000e+000,0.0000000e+000,0.0000000e+000,0.0000000e+000,0.0000000e+000,3.6371102e-002,2.7363241e-002,-8.1735073e-004,-5.2884177e-002,-1.1072148e-002,-8.8484417e-002,1.5180316e-001,-7.2065635e-003,5.7832398e-002,3.7906908e-002,-1.2164825e-001,1.3361437e-002,0.0000000e+000,0.0000000e+000,2.8228492e-002,-5.0221047e-002,0.0000000e+000,0.0000000e+000,0.0000000e+000,0.0000000e+000,0.0000000e+000,0.0000000e+000,0.0000000e+000,0.0000000e+000,0.0000000e+000,0.0000000e+000,0.0000000e+000,0.0000000e+000,0.0000000e+000,0.0000000e+000,0.0000000e+000,0.0000000e+000,-1.1791567e-001,4.7255916e-002,-1.0437511e-001,1.1351216e-001,-4.8107696e-002,1.7281699e-002,8.8511876e-002,-9.5960417e-002,5.7515134e-002,-1.7420568e-002,-1.7643559e-002,8.3783760e-002,0.0000000e+000,0.0000000e+000,1.6786368e-002,-2.3438958e-003,0.0000000e+000,0.0000000e+000,0.0000000e+000,0.0000000e+000,0.0000000e+000,0.0000000e+000,0.0000000e+000,0.0000000e+000,0.0000000e+000,0.0000000e+000,0.0000000e+000,0.0000000e+000,0.0000000e+000,0.0000000e+000,0.0000000e+000,0.0000000e+000,-3.0538101e-004,-1.0409265e-001,3.8509498e-002,1.5862594e-001,-1.1219804e-001,-2.6736272e-002,1.2200796e-001,-2.6337026e-003,8.2115992e-003,-1.6816081e-002,-5.0031789e-002,-1.1872505e-001,0.0000000e+000,0.0000000e+000,1.2441910e-002,1.0965683e-002,0.0000000e+000,0.0000000e+000,0.0000000e+000,0.0000000e+000,0.0000000e+000,0.0000000e+000,0.0000000e+000,0.0000000e+000,0.0000000e+000,0.0000000e+000,0.0000000e+000,0.0000000e+000,0.0000000e+000,0.0000000e+000,0.0000000e+000,0.0000000e+000,-5.7475808e-002,2.0888064e-002,5.1472689e-002,-7.2241361e-002,-2.8503753e-002,-4.6611699e-002,5.8037713e-002,2.0785259e-002,-1.0429716e-001,-3.2294858e-002,2.8783616e-002,1.1111306e-002,0.0000000e+000,0.0000000e+000,1.4975476e-003,-9.6415182e-003,
,