0.000000, 0.000000, 0.000000, 0.000000, 0.000000, 0.000000, 0.000000, 0.000000, 0.000000, 0.000000, 0.000000, 0.000000, 0.000000, 0.000000, 0.000000, 0.000000, 0.000000, 0.000000, 0.000000, 0.000000, 0.000000, 0.000000, 0.000000, 0.000000, 0.000000, 0.000000, 0.000000, 0.000000, 0.000000, 0.000000, 0.000000, 0.000000, 0.000000, 0.000000, 0.000000, 0.000000, 0.000000, 0.000000, 0.000000, 0.000000, 0.000000, 0.000000, 0.000000, 0.000000, 0.000000, 0.000000, 0.000000, 0.000000, 0.000000, 0.000000, 0.000000, 0.000000, 0.000000, 0.000000, 0.000000, 0.000000, 0.000000, 0.000000, 0.000000, 0.000000, 0.000000, 0.000000, 0.000000, 0.000000, 0.000000, 0.000000, 0.000000, 0.000000, 0.000000, 0.000000, 0.000000, 0.000000, 0.000000, 0.000000, 0.000000, 0.000000, 0.000000, 0.000000, 0.000000, 0.000000, 0.000000, 0.000000, 0.000000, 0.000000, 0.000000, 0.000000, 0.000000, 0.000000, 0.000000, 0.000000, 0.000000, 0.000000, 0.000000, 0.000000, 0.000000, 0.000000, 0.000000, 0.000000, 0.000000, 0.000000, 0.000000, 0.000000, 0.000000, 0.000000, 0.000000, 0.000000, 0.000000, 0.000000, 0.000000, 0.000000, 0.000000, 0.000000, 0.000000, 0.000000, 0.000000, 0.000000, 0.000000, 0.000000, 0.000000, 0.000000, 0.000000, 0.000000, 0.000000, 0.000000, 0.000000, 0.000000, 0.000000, 0.000000, 0.000000, 0.000000, 0.000000, 0.000000, 0.000000, 0.000000, 0.000000, 0.000000, 0.000000, 0.000000, 0.000000, 0.000000, 0.000000, 0.000000, 0.000000, 0.000000, 0.000000, 0.000000, 0.000000, 0.000000, 0.000000, 0.000000, 0.000000, 0.000000, 0.000000, 0.000000, 0.000000, 0.000000, 0.000000, 0.000000, 0.000000, 0.000000, 
0.000000, 0.000000, 0.000000, 0.000000, 0.000000, 0.000000, 0.000000, 0.000000, 0.000000, 0.000000, 0.000000, 0.000000, 0.000000, 0.000000, 0.000000, 0.000000, 0.000000, 0.000000, 0.000000, 0.000000, 0.000000, 0.000000, 0.000000, 0.000000, 0.000000, 0.000000, 0.000000, 0.000000, 0.000000, 0.000000, 0.000000, 0.000000, 0.000000, 0.000000, 0.000000, 0.000000, 0.000000, 0.000000, 0.000000, 0.000000, 0.000000, 0.000000, 0.000000, 0.000000, 0.000000, 0.000000, 0.000000, 0.000000, 0.000000, 0.000000, 0.000000, 0.000000, 0.000000, 0.000000, 0.000000, 0.000000, 0.000000, 0.000000, 0.000000, 0.000000, 0.000000, 0.000000, 0.000000, 0.000000, 0.000000, 0.000000, 0.000000, 0.000000, 0.000000, 0.000000, 0.000000, 0.000000, 0.000000, 0.000000, 0.000000, 0.000000, 0.000000, 0.000000, 0.000000, 0.000000, 0.000000, 0.000000, 0.000000, 0.000000, 0.000000, 0.000000, 0.000000, 0.000000, 0.000000, 0.000000, 0.000000, 0.000000, 0.000000, 0.000000, 0.000000, 0.000000, 0.000000, 0.000000, 0.000000, 0.000000, 0.000000, 0.000000, 0.000000, 0.000000, 0.000000, 0.000000, 0.000000, 0.000000, 0.000000, 0.000000, 0.000000, 0.000000, 0.000000, 0.000000, 0.000000, 0.000000, 0.000000, 0.000000, 0.000000, 0.000000, 0.000000, 0.000000, 0.000000, 0.000000, 0.000000, 0.000000, 0.000000, 0.000000, 0.000000, 0.000000, 0.000000, 0.000000, 0.000000, 0.000000, 0.000000, 0.000000, 0.000000, 0.000000, 0.000000, 0.000000, 0.000000, 0.000000, 0.000000, 0.000000, 0.000000, 0.000000, 0.000000, 0.000000, 0.000000, 0.000000, 0.000000, 0.000000, 0.000000, 0.000000, 0.000000, 0.000000, 0.000000, 0.000000, 0.000000, 0.000000, 
0.000000, 0.000000, 0.000000, 0.000000, 0.000000, 0.000000, 0.000000, 0.000000, 0.000000, 0.000000, 0.000000, 0.000000, 0.000000, 0.000000, 0.000000, 0.000000, 0.010472, -0.026685, 0.008224, -0.001125, -0.000688, 0.030261, -0.001364, 0.010623, -0.008378, -0.029169, 0.009208, -0.001832, 0.000000, 0.000000, 0.004791, 0.021148, 0.000000, 0.000000, 0.000000, 0.000000, 0.000000, 0.000000, 0.000000, 0.000000, 0.000000, 0.000000, 0.000000, 0.000000, 0.000000, 0.000000, 0.000000, 0.000000, 0.056411, -0.019116, 0.012760, 0.020345, -0.045236, 0.003578, -0.013680, -0.035471, 0.007031, 0.007583, 0.004336, 0.010625, 0.000000, 0.000000, 0.000475, 0.012911, 0.000000, 0.000000, 0.000000, 0.000000, 0.000000, 0.000000, 0.000000, 0.000000, 0.000000, 0.000000, 0.000000, 0.000000, 0.000000, 0.000000, 0.000000, 0.000000, -0.010944, -0.015351, 0.006017, -0.004158, 0.019176, -0.004351, -0.012350, 0.004150, -0.018728, 0.005468, 0.005785, 0.007712, 0.000000, 0.000000, 0.005529, 0.003972, 0.000000, 0.000000, 0.000000, 0.000000, 0.000000, 0.000000, 0.000000, 0.000000, 0.000000, 0.000000, 0.000000, 0.000000, 0.000000, 0.000000, 0.000000, 0.000000, -0.007632, 0.001208, 0.032928, -0.012611, -0.009681, 0.030148, -0.042252, 0.017881, 0.003633, -0.006465, 0.017785, -0.027770, 0.000000, 0.000000, 0.004623, -0.013165, 0.000000, 0.000000, 0.000000, 0.000000, 0.000000, 0.000000, 0.000000, 0.000000, 0.000000, 0.000000, 0.000000, 0.000000, 0.000000, 0.000000, 0.000000, 0.000000, 0.013637, -0.006171, 0.001750, -0.004511, 0.007430, -0.023476, 0.006385, 0.003359, -0.014087, 0.007465, -0.013482, 0.017372, 0.000000, 0.000000, 0.008875, -0.000991, 
0.000000, 0.000000, 0.000000, 0.000000, 0.000000, 0.000000, 0.000000, 0.000000, 0.000000, 0.000000, 0.000000, 0.000000, 0.000000, 0.000000, 0.000000, 0.000000, -0.006201, -0.028248, 0.019630, -0.013922, 0.005415, 0.027067, -0.021689, 0.008824, -0.009190, -0.013380, 0.007867, 0.012313, 0.000000, 0.000000, -0.009624, 0.020641, 0.000000, 0.000000, 0.000000, 0.000000, 0.000000, 0.000000, 0.000000, 0.000000, 0.000000, 0.000000, 0.000000, 0.000000, 0.000000, 0.000000, 0.000000, 0.000000, 0.067216, -0.016717, 0.018887, 0.011282, -0.053235, -0.001079, -0.029508, -0.008376, -0.002556, -0.002847, 0.019127, -0.002674, 0.000000, 0.000000, 0.002324, 0.014950, 0.000000, 0.000000, 0.000000, 0.000000, 0.000000, 0.000000, 0.000000, 0.000000, 0.000000, 0.000000, 0.000000, 0.000000, 0.000000, 0.000000, 0.000000, 0.000000, -0.009226, -0.021033, -0.000258, 0.012109, 0.013981, -0.011859, -0.007374, -0.009095, -0.023908, 0.011647, -0.002484, 0.026762, 0.000000, 0.000000, 0.014566, 0.002912, 0.000000, 0.000000, 0.000000, 0.000000, 0.000000, 0.000000, 0.000000, 0.000000, 0.000000, 0.000000, 0.000000, 0.000000, 0.000000, 0.000000, 0.000000, 0.000000, -0.037919, 0.004294, 0.021729, -0.001504, -0.004690, 0.036286, -0.037443, 0.020232, 0.000587, -0.021734, 0.005121, -0.016687, 0.000000, 0.000000, 0.016655, 0.002406, 0.000000, 0.000000, 0.000000, 0.000000, 0.000000, 0.000000, 0.000000, 0.000000, 0.000000, 0.000000, 0.000000, 0.000000, 0.000000, 0.000000, 0.000000, 0.000000, 0.012678, -0.011147, 0.004945, -0.000932, -0.006213, -0.015654, 0.004139, 0.015225, -0.021212, -0.004625, -0.021257, 0.011891, 0.000000, 0.000000, 0.010852, 0.001609, 
0.000000, 0.000000, 0.000000, 0.000000, 0.000000, 0.000000, 0.000000, 0.000000, 0.000000, 0.000000, 0.000000, 0.000000, 0.000000, 0.000000, 0.000000, 0.000000, -0.008987, -0.013535, 0.017798, -0.008140, 0.006842, 0.018189, -0.019129, -0.014125, -0.012374, -0.007859, 0.000796, 0.031932, 0.000000, 0.000000, -0.008370, 0.024997, 0.000000, 0.000000, 0.000000, 0.000000, 0.000000, 0.000000, 0.000000, 0.000000, 0.000000, 0.000000, 0.000000, 0.000000, 0.000000, 0.000000, 0.000000, 0.000000, 0.056039, -0.018239, 0.014903, 0.015559, -0.025559, -0.027205, -0.010657, -0.030549, -0.016840, 0.008791, 0.015862, 0.003406, 0.000000, 0.000000, -0.011542, 0.017151, 0.000000, 0.000000, 0.000000, 0.000000, 0.000000, 0.000000, 0.000000, 0.000000, 0.000000, 0.000000, 0.000000, 0.000000, 0.000000, 0.000000, 0.000000, 0.000000, -0.010181, -0.027169, 0.016875, 0.007043, 0.002688, -0.002842, -0.003071, -0.013412, -0.026385, 0.016882, -0.014572, 0.031232, 0.000000, 0.000000, 0.014477, 0.005984, 0.000000, 0.000000, 0.000000, 0.000000, 0.000000, 0.000000, 0.000000, 0.000000, 0.000000, 0.000000, 0.000000, 0.000000, 0.000000, 0.000000, 0.000000, 0.000000, -0.041468, -0.009483, 0.013947, 0.014921, 0.007323, 0.039272, -0.037930, 0.007455, -0.023922, -0.022498, 0.009493, -0.012784, 0.000000, 0.000000, 0.027821, 0.008587, 0.000000, 0.000000, 0.000000, 0.000000, 0.000000, 0.000000, 0.000000, 0.000000, 0.000000, 0.000000, 0.000000, 0.000000, 0.000000, 0.000000, 0.000000, 0.000000, 0.013837, -0.009379, 0.017425, -0.006642, -0.017141, -0.016663, -0.000102, 0.021062, -0.022291, -0.004516, -0.027428, 0.017392, 0.000000, 0.000000, -0.001957, 0.010607, 
0.000000, 0.000000, 0.000000, 0.000000, 0.000000, 0.000000, 0.000000, 0.000000, 0.000000, 0.000000, 0.000000, 0.000000, 0.000000, 0.000000, 0.000000, 0.000000, -0.017414, -0.008617, 0.011557, -0.011972, 0.006992, 0.011360, -0.013144, -0.008229, -0.009631, -0.015928, 0.011017, 0.029608, 0.000000, 0.000000, -0.013465, 0.026758, 0.000000, 0.000000, 0.000000, 0.000000, 0.000000, 0.000000, 0.000000, 0.000000, 0.000000, 0.000000, 0.000000, 0.000000, 0.000000, 0.000000, 0.000000, 0.000000, 0.047130, -0.020287, 0.000765, 0.024920, -0.017727, -0.017633, -0.005133, -0.043101, -0.017005, -0.000958, 0.020000, -0.005155, 0.000000, 0.000000, -0.005448, 0.018676, 0.000000, 0.000000, 0.000000, 0.000000, 0.000000, 0.000000, 0.000000, 0.000000, 0.000000, 0.000000, 0.000000, 0.000000, 0.000000, 0.000000, 0.000000, 0.000000, -0.020960, -0.028275, 0.022839, 0.020152, 0.002262, 0.007411, -0.017311, -0.013176, -0.024947, 0.016423, -0.012700, 0.036831, 0.000000, 0.000000, 0.013866, -0.004949, 0.000000, 0.000000, 0.000000, 0.000000, 0.000000, 0.000000, 0.000000, 0.000000, 0.000000, 0.000000, 0.000000, 0.000000, 0.000000, 0.000000, 0.000000, 0.000000, -0.052153, 0.000853, 0.002276, 0.032403, 0.010540, 0.028409, -0.024557, 0.014377, -0.031368, -0.028250, -0.012797, -0.006645, 0.000000, 0.000000, 0.019075, 0.003284, 0.000000, 0.000000, 0.000000, 0.000000, 0.000000, 0.000000, 0.000000, 0.000000, 0.000000, 0.000000, 0.000000, 0.000000, 0.000000, 0.000000, 0.000000, 0.000000, 0.010693, -0.010678, 0.010882, -0.006404, -0.024670, -0.010702, -0.010544, 0.020141, -0.011534, -0.003488, -0.017678, 0.015668, 0.000000, 0.000000, -0.002641, 0.006263, 
0.000000, 0.000000, 0.000000, 0.000000, 0.000000, 0.000000, 0.000000, 0.000000, 0.000000, 0.000000, 0.000000, 0.000000, 0.000000, 0.000000, 0.000000, 0.000000, -0.016958, -0.008068, 0.011410, -0.008579, 0.004122, 0.008599, -0.002133, -0.008985, -0.019804, -0.011678, 0.012830, 0.016488, 0.000000, 0.000000, -0.012472, 0.036078, 0.000000, 0.000000, 0.000000, 0.000000, 0.000000, 0.000000, 0.000000, 0.000000, 0.000000, 0.000000, 0.000000, 0.000000, 0.000000, 0.000000, 0.000000, 0.000000, 0.036496, -0.015480, 0.008180, 0.014118, 0.000070, -0.030940, -0.027894, -0.032182, -0.022333, 0.004042, 0.027042, 0.003171, 0.000000, 0.000000, -0.008600, 0.008963, 0.000000, 0.000000, 0.000000, 0.000000, 0.000000, 0.000000, 0.000000, 0.000000, 0.000000, 0.000000, 0.000000, 0.000000, 0.000000, 0.000000, 0.000000, 0.000000, -0.028780, -0.020018, 0.015499, 0.018279, 0.009694, 0.001700, -0.017365, -0.008569, -0.034372, 0.025726, -0.010654, 0.040624, 0.000000, 0.000000, 0.019060, -0.011958, 0.000000, 0.000000, 0.000000, 0.000000, 0.000000, 0.000000, 0.000000, 0.000000, 0.000000, 0.000000, 0.000000, 0.000000, 0.000000, 0.000000, 0.000000, 0.000000, -0.064877, 0.012004, -0.001704, 0.052012, 0.005225, 0.026681, -0.026296, 0.015289, -0.037705, -0.026883, -0.029421, 0.004103, 0.000000, 0.000000, 0.021287, 0.013636, 0.000000, 0.000000, 0.000000, 0.000000, 0.000000, 0.000000, 0.000000, 0.000000, 0.000000, 0.000000, 0.000000, 0.000000, 0.000000, 0.000000, 0.000000, 0.000000, 0.002300, -0.010210, -0.002384, 0.004319, -0.029433, -0.007554, -0.008506, 0.017907, -0.017955, 0.006595, -0.018151, 0.007670, 0.000000, 0.000000, -0.008874, 0.003487, 
0.000000, 0.000000, 0.000000, 0.000000, 0.000000, 0.000000, 0.000000, 0.000000, 0.000000, 0.000000, 0.000000, 0.000000, 0.000000, 0.000000, 0.000000, 0.000000, -0.022891, -0.006472, 0.006994, -0.004248, 0.013868, 0.005285, -0.001733, -0.007699, -0.025897, -0.000677, 0.010981, 0.001321, 0.000000, 0.000000, -0.014335, 0.032626, 0.000000, 0.000000, 0.000000, 0.000000, 0.000000, 0.000000, 0.000000, 0.000000, 0.000000, 0.000000, 0.000000, 0.000000, 0.000000, 0.000000, 0.000000, 0.000000, 0.036483, -0.011196, 0.007280, 0.007418, -0.001044, -0.036695, -0.009924, -0.029685, -0.014316, 0.007428, 0.012173, 0.004190, 0.000000, 0.000000, -0.004918, 0.003045, 0.000000, 0.000000, 0.000000, 0.000000, 0.000000, 0.000000, 0.000000, 0.000000, 0.000000, 0.000000, 0.000000, 0.000000, 0.000000, 0.000000, 0.000000, 0.000000, -0.037694, -0.013290, 0.003511, 0.027802, 0.003914, 0.003258, -0.006777, -0.017308, -0.025183, 0.021412, -0.011353, 0.044940, 0.000000, 0.000000, 0.018833, -0.010996, 0.000000, 0.000000, 0.000000, 0.000000, 0.000000, 0.000000, 0.000000, 0.000000, 0.000000, 0.000000, 0.000000, 0.000000, 0.000000, 0.000000, 0.000000, 0.000000, -0.058420, 0.000395, 0.002317, 0.062673, -0.006517, 0.021339, -0.011465, 0.013497, -0.033113, -0.025876, -0.031482, -0.008179, 0.000000, 0.000000, 0.020403, 0.013369, 0.000000, 0.000000, 0.000000, 0.000000, 0.000000, 0.000000, 0.000000, 0.000000, 0.000000, 0.000000, 0.000000, 0.000000, 0.000000, 0.000000, 0.000000, 0.000000, -0.003677, -0.007100, 0.003002, -0.003337, -0.029340, -0.011460, -0.001852, 0.018194, -0.026590, 0.002706, -0.013458, 0.008014, 0.000000, 0.000000, -0.007837, 0.002174, 
