14,0.0000000e+000,0.0000000e+000,0.0000000e+000,0.0000000e+000,0.0000000e+000,0.0000000e+000,0.0000000e+000,0.0000000e+000,0.0000000e+000,0.0000000e+000,0.0000000e+000,0.0000000e+000,0.0000000e+000,0.0000000e+000,0.0000000e+000,0.0000000e+000,8.2591801e-002,7.1994487e-002,5.0773415e-002,-7.6071235e-002,-1.5034913e-001,-6.3546725e-002,-6.7066182e-002,1.0016107e-001,7.4787204e-002,-5.9590176e-002,1.4664375e-002,-5.3675421e-002,0.0000000e+000,0.0000000e+000,1.1113555e-001,-7.0911720e-002,0.0000000e+000,0.0000000e+000,0.0000000e+000,0.0000000e+000,0.0000000e+000,0.0000000e+000,0.0000000e+000,0.0000000e+000,0.0000000e+000,0.0000000e+000,0.0000000e+000,0.0000000e+000,0.0000000e+000,0.0000000e+000,0.0000000e+000,0.0000000e+000,-1.4473859e-001,2.8208987e-001,-4.6522872e-002,8.1541967e-002,2.7174213e-002,-1.4095693e-001,1.8733776e-001,-2.7557396e-001,1.2549486e-003,8.9106113e-002,-1.5296191e-001,7.5330289e-002,0.0000000e+000,0.0000000e+000,-6.7166769e-002,-2.7474129e-002,0.0000000e+000,0.0000000e+000,0.0000000e+000,0.0000000e+000,0.0000000e+000,0.0000000e+000,0.0000000e+000,0.0000000e+000,0.0000000e+000,0.0000000e+000,0.0000000e+000,0.0000000e+000,0.0000000e+000,0.0000000e+000,0.0000000e+000,0.0000000e+000,-7.9213596e-003,1.1095816e-001,1.5286143e-002,-4.1966064e-002,6.9310967e-002,-1.3242475e-001,6.9514707e-002,5.6771573e-002,1.3446355e-002,2.2522034e-002,-9.8943868e-002,3.6502747e-002,0.0000000e+000,0.0000000e+000,-1.2732082e-002,2.0386257e-002,0.0000000e+000,0.0000000e+000,0.0000000e+000,0.0000000e+000,0.0000000e+000,0.0000000e+000,0.0000000e+000,0.0000000e+000,0.0000000e+000,0.0000000e+000,0.0000000e+000,0.0000000e+000,0.0000000e+000,0.0000000e+000,0.0000000e+000,0.0000000e+000,-1.5647765e-001,-7.7088262e-002,1.4044988e-001,5.7244820e-002,-7.0606590e-002,-9.3715421e-002,1.4568229e-001,-2.8223655e-002,1.5464393e-001,-7.8319161e-002,-1.3554224e-002,8.2375680e-002,0.0000000e+000,0.0000000e+000,1.6879573e-001,1.4015890e-003,0.0000000e+000,0.0000000e+000,0.0000000e+000,0.0000000e+000,0.0000000e+000,0.0000000e+000,0.0000000e+000,0.0000000e+000,0.0000000e+000,0.0000000e+000,0.0000000e+000,0.0000000e+000,0.0000000e+000,0.0000000e+000,0.0000000e+000,0.0000000e+000,-2.6568536e-002,7.1609843e-003,-8.1375437e-002,4.0504211e-002,-4.3061138e-002,-8.9179571e-002,4.8335093e-002,1.7730223e-001,5.6679363e-002,3.4120811e-002,3.7538739e-002,-4.6338160e-002,0.0000000e+000,0.0000000e+000,-1.4420217e-002,2.3010426e-003,
,26,0.0000000e+000,0.0000000e+000,0.0000000e+000,0.0000000e+000,0.0000000e+000,0.0000000e+000,0.0000000e+000,0.0000000e+000,0.0000000e+000,0.0000000e+000,0.0000000e+000,0.0000000e+000,0.0000000e+000,0.0000000e+000,0.0000000e+000,0.0000000e+000,-4.9528957e-002,8.3786396e-002,-2.9823748e-003,-1.2117075e-002,-5.3481151e-003,2.8046906e-002,1.0370369e-002,6.7776646e-002,-5.8400826e-002,1.1462100e-001,-1.0085783e-001,-5.0241854e-003,0.0000000e+000,0.0000000e+000,-3.3720645e-002,-3.0853990e-002,0.0000000e+000,0.0000000e+000,0.0000000e+000,0.0000000e+000,0.0000000e+000,0.0000000e+000,0.0000000e+000,0.0000000e+000,0.0000000e+000,0.0000000e+000,0.0000000e+000,0.0000000e+000,0.0000000e+000,0.0000000e+000,0.0000000e+000,0.0000000e+000,2.3303171e-001,-4.7802354e-002,1.4460968e-001,-1.2680027e-001,-7.6165308e-002,-9.1939661e-002,6.3210621e-003,-8.0713824e-002,-9.5025716e-003,1.7282811e-001,-1.2496598e-001,7.0427953e-002,0.0000000e+000,0.0000000e+000,-4.9649759e-002,-2.6542263e-002,0.0000000e+000,0.0000000e+000,0.0000000e+000,0.0000000e+000,0.0000000e+000,0.0000000e+000,0.0000000e+000,0.0000000e+000,0.0000000e+000,0.0000000e+000,0.0000000e+000,0.0000000e+000,0.0000000e+000,0.0000000e+000,0.0000000e+000,0.0000000e+000,7.6710961e-002,-5.1292767e-002,-6.1180527e-002,6.9887869e-002,7.4393311e-002,-2.3471062e-002,1.5909038e-001,-3.0498743e-002,7.1056919e-002,-3.5085748e-002,-4.1913488e-002,-7.5717206e-002,0.0000000e+000,0.0000000e+000,-7.7431852e-004,-5.1698857e-002,0.0000000e+000,0.0000000e+000,0.0000000e+000,0.0000000e+000,0.0000000e+000,0.0000000e+000,0.0000000e+000,0.0000000e+000,0.0000000e+000,0.0000000e+000,0.0000000e+000,0.0000000e+000,0.0000000e+000,0.0000000e+000,0.0000000e+000,0.0000000e+000,1.7396890e-001,-3.4329118e-002,1.8766955e-001,-2.6430711e-002,2.9136589e-002,-8.2188083e-002,-6.1996352e-002,5.9901825e-002,-6.8634197e-002,-4.0388906e-002,2.3579027e-002,4.1037514e-002,0.0000000e+000,0.0000000e+000,7.9164333e-002,4.7661467e-002,0.0000000e+000,0.0000000e+000,0.0000000e+000,0.0000000e+000,0.0000000e+000,0.0000000e+000,0.0000000e+000,0.0000000e+000,0.0000000e+000,0.0000000e+000,0.0000000e+000,0.0000000e+000,0.0000000e+000,0.0000000e+000,0.0000000e+000,0.0000000e+000,-8.7816578e-002,-3.1199007e-002,1.5187552e-001,1.0151140e-001,4.7648514e-002,4.6966518e-003,1.5471139e-002,6.5621555e-003,-7.7780169e-002,-1.1972386e-002,8.2420789e-002,2.9130449e-003,0.0000000e+000,0.0000000e+000,-1.7547003e-002,4.7794657e-002,
,38,0.0000000e+000,0.0000000e+000,0.0000000e+000,0.0000000e+000,0.0000000e+000,0.0000000e+000,0.0000000e+000,0.0000000e+000,0.0000000e+000,0.0000000e+000,0.0000000e+000,0.0000000e+000,0.0000000e+000,0.0000000e+000,0.0000000e+000,0.0000000e+000,1.0785057e-001,-1.4587543e-001,4.8662022e-002,-3.9928817e-002,-1.5759966e-002,1.9146373e-001,-1.7540514e-001,1.6304130e-001,-2.1034223e-002,-1.0886658e-001,1.3321227e-001,-3.8132966e-002,0.0000000e+000,0.0000000e+000,-8.5166922e-002,6.1657475e-002,0.0000000e+000,0.0000000e+000,0.0000000e+000,0.0000000e+000,0.0000000e+000,0.0000000e+000,0.0000000e+000,0.0000000e+000,0.0000000e+000,0.0000000e+000,0.0000000e+000,0.0000000e+000,0.0000000e+000,0.0000000e+000,0.0000000e+000,0.0000000e+000,1.3216282e-001,7.8092596e-002,-9.0976282e-002,1.3144367e-001,-1.9770737e-001,6.1736686e-002,6.0008515e-002,-3.7558028e-002,1.0775578e-001,1.3874352e-002,-1.1347328e-001,1.3823120e-002,0.0000000e+000,0.0000000e+000,-5.8320234e-002,5.0775728e-002,0.0000000e+000,0.0000000e+000,0.0000000e+000,0.0000000e+000,0.0000000e+000,0.0000000e+000,0.0000000e+000,0.0000000e+000,0.0000000e+000,0.0000000e+000,0.0000000e+000,0.0000000e+000,0.0000000e+000,0.0000000e+000,0.0000000e+000,0.0000000e+000,-5.3226558e-002,2.9800124e-002,-2.4597215e-002,5.8487337e-002,1.0962295e-002,-4.6682278e-002,1.4064653e-001,-7.1849487e-002,-4.0190794e-003,-1.0025707e-002,-1.2389908e-001,2.5379573e-002,0.0000000e+000,0.0000000e+000,1.6300681e-003,-7.2978769e-002,0.0000000e+000,0.0000000e+000,0.0000000e+000,0.0000000e+000,0.0000000e+000,0.0000000e+000,0.0000000e+000,0.0000000e+000,0.0000000e+000,0.0000000e+000,0.0000000e+000,0.0000000e+000,0.0000000e+000,0.0000000e+000,0.0000000e+000,0.0000000e+000,6.7511601e-002,-3.5008613e-002,1.0306794e-001,3.3469408e-002,2.3023850e-002,-1.2870832e-001,-3.9318411e-003,1.5606676e-001,1.8696758e-002,-8.5112556e-002,3.8197913e-002,1.1238099e-001,0.0000000e+000,0.0000000e+000,5.6129203e-003,3.6688060e-002,0.0000000e+000,0.0000000e+000,0.0000000e+000,0.0000000e+000,0.0000000e+000,0.0000000e+000,0.0000000e+000,0.0000000e+000,0.0000000e+000,0.0000000e+000,0.0000000e+000,0.0000000e+000,0.0000000e+000,0.0000000e+000,0.0000000e+000,0.0000000e+000,6.6324827e-002,-1.0105998e-001,7.9452385e-003,-1.7611931e-002,-9.8548319e-002,7.0527497e-002,6.8218798e-002,5.9261758e-002,-2.3530215e-002,-2.1463045e-003,-6.6561244e-002,5.5653454e-003,0.0000000e+000,0.0000000e+000,6.7379466e-002,-4.8576201e-002,
,50,0.0000000e+000,0.0000000e+000,0.0000000e+000,0.0000000e+000,0.0000000e+000,0.0000000e+000,0.0000000e+000,0.0000000e+000,0.0000000e+000,0.0000000e+000,0.0000000e+000,0.0000000e+000,0.0000000e+000,0.0000000e+000,0.0000000e+000,0.0000000e+000,4.0769158e-003,-3.4585379e-002,-1.3339060e-002,-6.7129902e-002,-3.8981322e-002,8.6631440e-002,-7.4222720e-002,1.0945357e-001,-3.5990298e-002,5.5487890e-002,-1.4266644e-001,1.5167127e-005,0.0000000e+000,0.0000000e+000,4.8737035e-002,-2.8051198e-002,0.0000000e+000,0.0000000e+000,0.0000000e+000,0.0000000e+000,0.0000000e+000,0.0000000e+000,0.0000000e+000,0.0000000e+000,0.0000000e+000,0.0000000e+000,0.0000000e+000,0.0000000e+000,0.0000000e+000,0.0000000e+000,0.0000000e+000,0.0000000e+000,1.1769265e-001,-7.3033736e-002,8.2378950e-002,-4.4620070e-002,4.0265762e-002,-6.5821120e-002,9.2631701e-002,-1.4577172e-002,-1.3009813e-001,9.9328122e-002,-7.1123535e-002,3.3108145e-002,0.0000000e+000,0.0000000e+000,-2.8370896e-002,4.5356045e-003,0.0000000e+000,0.0000000e+000,0.0000000e+000,0.0000000e+000,0.0000000e+000,0.0000000e+000,0.0000000e+000,0.0000000e+000,0.0000000e+000,0.0000000e+000,0.0000000e+000,0.0000000e+000,0.0000000e+000,0.0000000e+000,0.0000000e+000,0.0000000e+000,1.5422025e-001,3.2269058e-003,1.7326704e-002,-9.3968530e-002,-1.2262115e-001,-7.9343868e-002,-1.1980516e-002,5.9053183e-002,1.0701001e-001,3.6574230e-002,-8.4595006e-002,1.1719095e-002,0.0000000e+000,0.0000000e+000,2.4871910e-002,-3.2690667e-002,0.0000000e+000,0.0000000e+000,0.0000000e+000,0.0000000e+000,0.0000000e+000,0.0000000e+000,0.0000000e+000,0.0000000e+000,0.0000000e+000,0.0000000e+000,0.0000000e+000,0.0000000e+000,0.0000000e+000,0.0000000e+000,0.0000000e+000,0.0000000e+000,7.0529106e-002,1.3065367e-002,2.8603106e-002,-8.0706673e-002,-3.7201127e-002,-4.2542897e-002,-5.0228006e-002,1.5742962e-001,-1.0227221e-001,4.1849795e-002,1.4325108e-001,2.2457116e-002,0.0000000e+000,0.0000000e+000,9.7997077e-002,-6.7301460e-004,0.0000000e+000,0.0000000e+000,0.0000000e+000,0.0000000e+000,0.0000000e+000,0.0000000e+000,0.0000000e+000,0.0000000e+000,0.0000000e+000,0.0000000e+000,0.0000000e+000,0.0000000e+000,0.0000000e+000,0.0000000e+000,0.0000000e+000,0.0000000e+000,-1.2078759e-002,4.4374952e-002,5.1542773e-002,-9.7475825e-002,6.0156006e-002,-5.2903878e-002,1.9301993e-001,6.1510864e-002,-8.1864004e-002,-4.7620513e-002,-1.0795057e-001,1.6320208e-001,0.0000000e+000,0.0000000e+000,4.9014231e-002,8.0601787e-002,
,62,0.0000000e+000,0.0000000e+000,0.0000000e+000,0.0000000e+000,0.0000000e+000,0.0000000e+000,0.0000000e+000,0.0000000e+000,0.0000000e+000,0.0000000e+000,0.0000000e+000,0.0000000e+000,0.0000000e+000,0.0000000e+000,0.0000000e+000,0.0000000e+000,-1.2319288e-001,1.0162404e-001,-1.2198451e-001,-1.4955729e-002,8.8440261e-002,-5.3262641e-003,-1.5683138e-002,9.1125813e-002,-1.2898405e-001,6.5105168e-002,-2.5791199e-002,1.4079705e-002,0.0000000e+000,0.0000000e+000,2.0321657e-002,-1.5626511e-002,0.0000000e+000,0.0000000e+000,0.0000000e+000,0.0000000e+000,0.0000000e+000,0.0000000e+000,0.0000000e+000,0.0000000e+000,0.0000000e+000,0.0000000e+000,0.0000000e+000,0.0000000e+000,0.0000000e+000,0.0000000e+000,0.0000000e+000,0.0000000e+000,7.8892483e-002,-4.5478638e-002,7.4560301e-002,8.5050448e-002,-1.8276944e-001,1.4061046e-001,4.0339309e-003,-1.3573735e-001,2.7614719e-002,4.7796252e-002,-2.0971474e-002,7.7849669e-002,0.0000000e+000,0.0000000e+000,-1.6706032e-002,1.4391808e-002,0.0000000e+000,0.0000000e+000,0.0000000e+000,0.0000000e+000,0.0000000e+000,0.0000000e+000,0.0000000e+000,0.0000000e+000,0.0000000e+000,0.0000000e+000,0.0000000e+000,0.0000000e+000,0.0000000e+000,0.0000000e+000,0.0000000e+000,0.0000000e+000,-1.3412866e-001,1.1920180e-001,-2.0612232e-002,3.7485745e-002,1.9664852e-001,-4.8246506e-002,-7.0640949e-004,-8.1376820e-003,5.8043022e-003,-2.6320063e-002,-2.5547715e-002,1.1035397e-001,0.0000000e+000,0.0000000e+000,-2.0300101e-002,-2.4760576e-002,0.0000000e+000,0.0000000e+000,0.0000000e+000,0.0000000e+000,0.0000000e+000,0.0000000e+000,0.0000000e+000,0.0000000e+000,0.0000000e+000,0.0000000e+000,0.0000000e+000,0.0000000e+000,0.0000000e+000,0.0000000e+000,0.0000000e+000,0.0000000e+000,1.5155093e-002,2.5053231e-002,-3.3347879e-003,-1.6150226e-001,-2.1770852e-002,-6.3283801e-002,1.5551840e-001,7.3958590e-003,6.9351187e-002,4.6781656e-003,1.3683374e-001,1.3933028e-001,0.0000000e+000,0.0000000e+000,2.0435203e-002,-2.8490113e-002,0.0000000e+000,0.0000000e+000,0.0000000e+000,0.0000000e+000,0.0000000e+000,0.0000000e+000,0.0000000e+000,0.0000000e+000,0.0000000e+000,0.0000000e+000,0.0000000e+000,0.0000000e+000,0.0000000e+000,0.0000000e+000,0.0000000e+000,0.0000000e+000,-3.3769020e-002,5.4018908e-002,1.4327895e-001,-1.2216965e-001,2.4089754e-002,-5.6139541e-002,-1.9935996e-002,1.2841040e-001,-6.4380983e-003,2.7734958e-002,-7.9652373e-003,-1.8552116e-002,0.0000000e+000,0.0000000e+000,9.5873005e-002,-1.0044328e-001,
,74,0.0000000e+000,0.0000000e+000,0.0000000e+000,0.0000000e+000,0.0000000e+000,0.0000000e+000,0.0000000e+000,0.0000000e+000,0.0000000e+000,0.0000000e+000,0.0000000e+000,0.0000000e+000,0.0000000e+000,0.0000000e+000,0.0000000e+000,0.0000000e+000,-5.9536754e-002,3.6929113e-002,-1.2551882e-002,-5.5734030e-003,3.6899338e-002,-9.5031700e-002,8.0226060e-002,-4.9708324e-002,1.0364126e-002,5.0124880e-002,-4.2326281e-002,-3.8606000e-002,0.0000000e+000,0.0000000e+000,2.1795677e-002,-8.6187708e-002,0.0000000e+000,0.0000000e+000,0.0000000e+000,0.0000000e+000,0.0000000e+000,0.0000000e+000,0.0000000e+000,0.0000000e+000,0.0000000e+000,0.0000000e+000,0.0000000e+000,0.0000000e+000,0.0000000e+000,0.0000000e+000,0.0000000e+000,0.0000000e+000,2.2323783e-001,-2.8574351e-002,4.4017463e-002,7.5027167e-002,-1.4070472e-001,-4.9166942e-002,1.4069430e-002,-1.5428020e-001,-3.3732603e-002,2.2945173e-001,-1.1148525e-001,8.8017584e-002,0.0000000e+000,0.0000000e+000,-5.6183163e-002,-6.4807567e-002,0.0000000e+000,0.0000000e+000,0.0000000e+000,0.0000000e+000,0.0000000e+000,0.0000000e+000,0.0000000e+000,0.0000000e+000,0.0000000e+000,0.0000000e+000,0.0000000e+000,0.0000000e+000,0.0000000e+000,0.0000000e+000,0.0000000e+000,0.0000000e+000,-1.2746619e-001,7.9966052e-002,2.5980704e-003,-4.6676743e-002,1.9414400e-001,-3.1167960e-002,-3.5455678e-002,2.3778442e-002,-1.5097569e-001,9.8033834e-002,1.3799333e-002,9.0613870e-003,0.0000000e+000,0.0000000e+000,-4.1055109e-002,6.8648197e-003,0.0000000e+000,0.0000000e+000,0.0000000e+000,0.0000000e+000,0.0000000e+000,0.0000000e+000,0.0000000e+000,0.0000000e+000,0.0000000e+000,0.0000000e+000,0.0000000e+000,0.0000000e+000,0.0000000e+000,0.0000000e+000,0.0000000e+000,0.0000000e+000,4.5416543e-002,-1.2029374e-001,2.0005495e-001,-1.5499637e-002,1.0238094e-001,-3.7971492e-002,-1.3808341e-002,6.0151613e-003,-1.7367607e-002,-5.1033358e-002,1.5359882e-001,6.3270807e-002,0.0000000e+000,0.0000000e+000,2.5138867e-002,-1.1870781e-002,0.0000000e+000,0.0000000e+000,0.0000000e+000,0.0000000e+000,0.0000000e+000,0.0000000e+000,0.0000000e+000,0.0000000e+000,0.0000000e+000,0.0000000e+000,0.0000000e+000,0.0000000e+000,0.0000000e+000,0.0000000e+000,0.0000000e+000,0.0000000e+000,-6.8748577e-003,-1.0712945e-001,8.4461329e-002,-4.8313581e-003,3.6696719e-002,-2.8956769e-002,4.9409797e-002,1.6051708e-001,-3.4175107e-002,1.0139519e-003,-1.2997076e-001,8.9809894e-002,0.0000000e+000,0.0000000e+000,1.4381957e-002,-1.4271385e-002,
,