0.000000, 0.000000, 0.000000, 0.000000, 0.000000, 0.000000, 0.000000, 0.000000, 0.000000, 0.000000, 0.000000, 0.000000, 0.000000, 0.000000, 0.000000, 0.000000, 0.000000, 0.000000, 0.000000, 0.000000, 0.000000, 0.000000, 0.000000, 0.000000, 0.000000, 0.000000, 0.000000, 0.000000, 0.000000, 0.000000, 0.000000, 0.000000, 0.000000, 0.000000, 0.000000, 0.000000, 0.000000, 0.000000, 0.000000, 0.000000, 0.000000, 0.000000, 0.000000, 0.000000, 0.000000, 0.000000, 0.000000, 0.000000, 0.000000, 0.000000, 0.000000, 0.000000, 0.000000, 0.000000, 0.000000, 0.000000, 0.000000, 0.000000, 0.000000, 0.000000, 0.000000, 0.000000, 0.000000, 0.000000, 0.000000, 0.000000, 0.000000, 0.000000, 0.000000, 0.000000, 0.000000, 0.000000, 0.000000, 0.000000, 0.000000, 0.000000, 0.000000, 0.000000, 0.000000, 0.000000, 0.000000, 0.000000, 0.000000, 0.000000, 0.000000, 0.000000, 0.000000, 0.000000, 0.000000, 0.000000, 0.000000, 0.000000, 0.000000, 0.000000, 0.000000, 0.000000, 0.000000, 0.000000, 0.000000, 0.000000, 0.000000, 0.000000, 0.000000, 0.000000, 0.000000, 0.000000, 0.000000, 0.000000, 0.000000, 0.000000, 0.000000, 0.000000, 0.000000, 0.000000, 0.000000, 0.000000, 0.000000, 0.000000, 0.000000, 0.000000, 0.000000, 0.000000, 0.000000, 0.000000, 0.000000, 0.000000, 0.000000, 0.000000, 0.000000, 0.000000, 0.000000, 0.000000, 0.000000, 0.000000, 0.000000, 0.000000, 0.000000, 0.000000, 0.000000, 0.000000, 0.000000, 0.000000, 0.000000, 0.000000, 0.000000, 0.000000, 0.000000, 0.000000, 0.000000, 0.000000, 0.000000, 0.000000, 0.000000, 0.000000, 0.000000, 0.000000, 0.000000, 0.000000, 0.000000, 0.000000, 
0.000000, 0.000000, 0.000000, 0.000000, 0.000000, 0.000000, 0.000000, 0.000000, 0.000000, 0.000000, 0.000000, 0.000000, 0.000000, 0.000000, 0.000000, 0.000000, 0.000000, 0.000000, 0.000000, 0.000000, 0.000000, 0.000000, 0.000000, 0.000000, 0.000000, 0.000000, 0.000000, 0.000000, 0.000000, 0.000000, 0.000000, 0.000000, 0.000000, 0.000000, 0.000000, 0.000000, 0.000000, 0.000000, 0.000000, 0.000000, 0.000000, 0.000000, 0.000000, 0.000000, 0.000000, 0.000000, 0.000000, 0.000000, 0.000000, 0.000000, 0.000000, 0.000000, 0.000000, 0.000000, 0.000000, 0.000000, 0.000000, 0.000000, 0.000000, 0.000000, 0.000000, 0.000000, 0.000000, 0.000000, 0.000000, 0.000000, 0.000000, 0.000000, 0.000000, 0.000000, 0.000000, 0.000000, 0.000000, 0.000000, 0.000000, 0.000000, 0.000000, 0.000000, 0.000000, 0.000000, 0.000000, 0.000000, 0.000000, 0.000000, 0.000000, 0.000000, 0.000000, 0.000000, 0.000000, 0.000000, 0.000000, 0.000000, 0.000000, 0.000000, 0.000000, 0.000000, 0.000000, 0.000000, 0.000000, 0.000000, 0.000000, 0.000000, 0.000000, 0.000000, 0.000000, 0.000000, 0.000000, 0.000000, 0.000000, 0.000000, 0.000000, 0.000000, 0.000000, 0.000000, 0.000000, 0.000000, 0.000000, 0.000000, 0.000000, 0.000000, 0.000000, 0.000000, 0.000000, 0.000000, 0.000000, 0.000000, 0.000000, 0.000000, 0.000000, 0.000000, 0.000000, 0.000000, 0.000000, 0.000000, 0.000000, 0.000000, 0.000000, 0.000000, 0.000000, 0.000000, 0.000000, 0.000000, 0.000000, 0.000000, 0.000000, 0.000000, 0.000000, 0.000000, 0.000000, 0.000000, 0.000000, 0.000000, 0.000000, 0.000000, 0.000000, 0.000000, 0.000000, 0.000000, 0.000000, 0.000000, 
0.000000, 0.000000, 0.000000, 0.000000, 0.000000, 0.000000, 0.000000, 0.000000, 0.000000, 0.000000, 0.000000, 0.000000, 0.000000, 0.000000, 0.000000, 0.000000, 0.008259, 0.007199, 0.005077, -0.007607, -0.015035, -0.006355, -0.006707, 0.010016, 0.007479, -0.005959, 0.001466, -0.005368, 0.000000, 0.000000, 0.011114, -0.007091, 0.000000, 0.000000, 0.000000, 0.000000, 0.000000, 0.000000, 0.000000, 0.000000, 0.000000, 0.000000, 0.000000, 0.000000, 0.000000, 0.000000, 0.000000, 0.000000, -0.014474, 0.028209, -0.004652, 0.008154, 0.002717, -0.014096, 0.018734, -0.027557, 0.000125, 0.008911, -0.015296, 0.007533, 0.000000, 0.000000, -0.006717, -0.002747, 0.000000, 0.000000, 0.000000, 0.000000, 0.000000, 0.000000, 0.000000, 0.000000, 0.000000, 0.000000, 0.000000, 0.000000, 0.000000, 0.000000, 0.000000, 0.000000, -0.000792, 0.011096, 0.001529, -0.004197, 0.006931, -0.013242, 0.006951, 0.005677, 0.001345, 0.002252, -0.009894, 0.003650, 0.000000, 0.000000, -0.001273, 0.002039, 0.000000, 0.000000, 0.000000, 0.000000, 0.000000, 0.000000, 0.000000, 0.000000, 0.000000, 0.000000, 0.000000, 0.000000, 0.000000, 0.000000, 0.000000, 0.000000, -0.015648, -0.007709, 0.014045, 0.005724, -0.007061, -0.009372, 0.014568, -0.002822, 0.015464, -0.007832, -0.001355, 0.008238, 0.000000, 0.000000, 0.016880, 0.000140, 0.000000, 0.000000, 0.000000, 0.000000, 0.000000, 0.000000, 0.000000, 0.000000, 0.000000, 0.000000, 0.000000, 0.000000, 0.000000, 0.000000, 0.000000, 0.000000, -0.002657, 0.000716, -0.008138, 0.004050, -0.004306, -0.008918, 0.004834, 0.017730, 0.005668, 0.003412, 0.003754, -0.004634, 0.000000, 0.000000, -0.001442, 0.000230, 
0.000000, 0.000000, 0.000000, 0.000000, 0.000000, 0.000000, 0.000000, 0.000000, 0.000000, 0.000000, 0.000000, 0.000000, 0.000000, 0.000000, 0.000000, 0.000000, 0.002480, 0.014858, 0.004271, -0.008058, -0.014066, -0.002915, -0.004999, 0.015792, 0.000891, 0.006099, -0.008766, -0.005333, 0.000000, 0.000000, 0.006630, -0.009467, 0.000000, 0.000000, 0.000000, 0.000000, 0.000000, 0.000000, 0.000000, 0.000000, 0.000000, 0.000000, 0.000000, 0.000000, 0.000000, 0.000000, 0.000000, 0.000000, 0.010277, 0.020608, 0.010274, -0.005341, -0.005171, -0.021880, 0.017493, -0.032873, -0.000837, 0.025302, -0.026263, 0.013823, 0.000000, 0.000000, -0.011010, -0.005127, 0.000000, 0.000000, 0.000000, 0.000000, 0.000000, 0.000000, 0.000000, 0.000000, 0.000000, 0.000000, 0.000000, 0.000000, 0.000000, 0.000000, 0.000000, 0.000000, 0.006958, 0.004857, -0.004742, 0.003212, 0.013677, -0.014265, 0.022165, 0.002060, 0.008316, -0.001482, -0.013096, -0.004286, 0.000000, 0.000000, -0.001223, -0.003335, 0.000000, 0.000000, 0.000000, 0.000000, 0.000000, 0.000000, 0.000000, 0.000000, 0.000000, 0.000000, 0.000000, 0.000000, 0.000000, 0.000000, 0.000000, 0.000000, 0.003314, -0.010371, 0.031407, 0.002509, -0.003441, -0.016653, 0.006912, 0.003450, 0.007055, -0.011088, 0.001138, 0.011518, 0.000000, 0.000000, 0.023108, 0.004892, 0.000000, 0.000000, 0.000000, 0.000000, 0.000000, 0.000000, 0.000000, 0.000000, 0.000000, 0.000000, 0.000000, 0.000000, 0.000000, 0.000000, 0.000000, 0.000000, -0.011173, -0.002475, 0.007864, 0.013797, 0.000889, -0.007556, 0.005897, 0.016613, -0.002677, 0.001874, 0.011621, -0.003879, 0.000000, 0.000000, -0.003053, 0.004987, 
0.000000, 0.000000, 0.000000, 0.000000, 0.000000, 0.000000, 0.000000, 0.000000, 0.000000, 0.000000, 0.000000, 0.000000, 0.000000, 0.000000, 0.000000, 0.000000, 0.013017, -0.001215, 0.008710, -0.011245, -0.014236, 0.016523, -0.022040, 0.030517, -0.001302, -0.005398, 0.005432, -0.008613, 0.000000, 0.000000, -0.002550, -0.002355, 0.000000, 0.000000, 0.000000, 0.000000, 0.000000, 0.000000, 0.000000, 0.000000, 0.000000, 0.000000, 0.000000, 0.000000, 0.000000, 0.000000, 0.000000, 0.000000, 0.022465, 0.026356, 0.000149, 0.008337, -0.024425, -0.013518, 0.021744, -0.033342, 0.010022, 0.024160, -0.034984, 0.013823, 0.000000, 0.000000, -0.015741, 0.000463, 0.000000, 0.000000, 0.000000, 0.000000, 0.000000, 0.000000, 0.000000, 0.000000, 0.000000, 0.000000, 0.000000, 0.000000, 0.000000, 0.000000, 0.000000, 0.000000, 0.000940, 0.007351, -0.006728, 0.008739, 0.013406, -0.017507, 0.034013, -0.005331, 0.007082, -0.002336, -0.024177, -0.001320, 0.000000, 0.000000, -0.000938, -0.010299, 0.000000, 0.000000, 0.000000, 0.000000, 0.000000, 0.000000, 0.000000, 0.000000, 0.000000, 0.000000, 0.000000, 0.000000, 0.000000, 0.000000, 0.000000, 0.000000, 0.009734, -0.012835, 0.038573, 0.005605, -0.000794, -0.027859, 0.005827, 0.018712, 0.008219, -0.018490, 0.004844, 0.021604, 0.000000, 0.000000, 0.021359, 0.008072, 0.000000, 0.000000, 0.000000, 0.000000, 0.000000, 0.000000, 0.000000, 0.000000, 0.000000, 0.000000, 0.000000, 0.000000, 0.000000, 0.000000, 0.000000, 0.000000, -0.003423, -0.012334, 0.007872, 0.010656, -0.009054, 0.000252, 0.012129, 0.020878, -0.004762, 0.001472, 0.003802, -0.002935, 0.000000, 0.000000, 0.003991, -0.000370, 
0.000000, 0.000000, 0.000000, 0.000000, 0.000000, 0.000000, 0.000000, 0.000000, 0.000000, 0.000000, 0.000000, 0.000000, 0.000000, 0.000000, 0.000000, 0.000000, 0.012123, -0.004552, 0.006505, -0.016834, -0.016710, 0.023534, -0.027258, 0.038411, -0.004771, 0.000691, -0.009378, -0.007750, 0.000000, 0.000000, 0.002579, -0.004925, 0.000000, 0.000000, 0.000000, 0.000000, 0.000000, 0.000000, 0.000000, 0.000000, 0.000000, 0.000000, 0.000000, 0.000000, 0.000000, 0.000000, 0.000000, 0.000000, 0.031988, 0.016417, 0.008372, 0.003042, -0.017955, -0.018749, 0.028833, -0.031465, -0.003990, 0.031676, -0.038598, 0.015751, 0.000000, 0.000000, -0.017004, 0.000871, 0.000000, 0.000000, 0.000000, 0.000000, 0.000000, 0.000000, 0.000000, 0.000000, 0.000000, 0.000000, 0.000000, 0.000000, 0.000000, 0.000000, 0.000000, 0.000000, 0.016268, 0.006939, -0.004322, -0.001531, -0.000197, -0.023691, 0.029414, 0.001107, 0.017075, 0.001555, -0.030218, -0.000016, 0.000000, 0.000000, 0.001643, -0.012539, 0.000000, 0.000000, 0.000000, 0.000000, 0.000000, 0.000000, 0.000000, 0.000000, 0.000000, 0.000000, 0.000000, 0.000000, 0.000000, 0.000000, 0.000000, 0.000000, 0.015813, -0.010245, 0.037576, -0.003026, -0.004435, -0.029327, 0.000222, 0.032584, -0.002830, -0.012456, 0.018685, 0.021689, 0.000000, 0.000000, 0.029022, 0.007197, 0.000000, 0.000000, 0.000000, 0.000000, 0.000000, 0.000000, 0.000000, 0.000000, 0.000000, 0.000000, 0.000000, 0.000000, 0.000000, 0.000000, 0.000000, 0.000000, -0.004289, -0.006663, 0.012239, -0.000157, -0.002133, -0.005064, 0.030218, 0.024942, -0.012472, -0.003438, -0.007373, 0.013679, 0.000000, 0.000000, 0.008493, 0.007727, 
0.000000, 0.000000, 0.000000, 0.000000, 0.000000, 0.000000, 0.000000, 0.000000, 0.000000, 0.000000, 0.000000, 0.000000, 0.000000, 0.000000, 0.000000, 0.000000, -0.001408, 0.006065, -0.006344, -0.016646, -0.006195, 0.020648, -0.026100, 0.043682, -0.017192, 0.007132, -0.011019, -0.005567, 0.000000, 0.000000, 0.004353, -0.005995, 0.000000, 0.000000, 0.000000, 0.000000, 0.000000, 0.000000, 0.000000, 0.000000, 0.000000, 0.000000, 0.000000, 0.000000, 0.000000, 0.000000, 0.000000, 0.000000, 0.036678, 0.010228, 0.014991, 0.011242, -0.034437, -0.002813, 0.026353, -0.041892, -0.000830, 0.033288, -0.036835, 0.021961, 0.000000, 0.000000, -0.016974, 0.002223, 0.000000, 0.000000, 0.000000, 0.000000, 0.000000, 0.000000, 0.000000, 0.000000, 0.000000, 0.000000, 0.000000, 0.000000, 0.000000, 0.000000, 0.000000, 0.000000, 0.001228, 0.018165, -0.005951, 0.002370, 0.019488, -0.026146, 0.026402, 0.000183, 0.015948, -0.001232, -0.029751, 0.011021, 0.000000, 0.000000, -0.000551, -0.013761, 0.000000, 0.000000, 0.000000, 0.000000, 0.000000, 0.000000, 0.000000, 0.000000, 0.000000, 0.000000, 0.000000, 0.000000, 0.000000, 0.000000, 0.000000, 0.000000, 0.015747, -0.006715, 0.033485, -0.018874, -0.006169, -0.032723, 0.015752, 0.030065, 0.004388, -0.010743, 0.030500, 0.033453, 0.000000, 0.000000, 0.028164, 0.003629, 0.000000, 0.000000, 0.000000, 0.000000, 0.000000, 0.000000, 0.000000, 0.000000, 0.000000, 0.000000, 0.000000, 0.000000, 0.000000, 0.000000, 0.000000, 0.000000, -0.007237, -0.000595, 0.025343, -0.012359, 0.000489, -0.010171, 0.025203, 0.035288, -0.011869, -0.000320, -0.007432, 0.010456, 0.000000, 0.000000, 0.017231, -0.003090, 
0.000000, 0.000000, 0.000000, 0.000000, 0.000000, 0.000000, 0.000000, 0.000000, 0.000000, 0.000000, 0.000000, 0.000000, 0.000000, 0.000000, 0.000000, 0.000000, -0.007221, 0.009152, -0.006964, -0.015539, -0.001886, 0.009080, -0.015468, 0.034343, -0.014436, 0.011432, -0.014150, -0.008871, 0.000000, 0.000000, 0.006098, -0.014014, 0.000000, 0.000000, 0.000000, 0.000000, 0.000000, 0.000000, 0.000000, 0.000000, 0.000000, 0.000000, 0.000000, 0.000000, 0.000000, 0.000000, 0.000000, 0.000000, 0.055334, 0.006348, 0.017893, 0.017621, -0.045064, -0.007448, 0.025125, -0.053131, -0.004120, 0.052905, -0.044300, 0.028567, 0.000000, 0.000000, -0.020895, -0.004480, 0.000000, 0.000000, 0.000000, 0.000000, 0.000000, 0.000000, 0.000000, 0.000000, 0.000000, 0.000000, 0.000000, 0.000000, 0.000000, 0.000000, 0.000000, 0.000000, -0.011641, 0.024345, -0.005096, -0.002534, 0.036953, -0.026648, 0.020216, 0.002542, -0.000744, 0.008694, -0.025396, 0.010825, 0.000000, 0.000000, -0.004602, -0.011698, 0.000000, 0.000000, 0.000000, 0.000000, 0.000000, 0.000000, 0.000000, 0.000000, 0.000000, 0.000000, 0.000000, 0.000000, 0.000000, 0.000000, 0.000000, 0.000000, 0.018714, -0.018073, 0.050142, -0.018536, 0.004686, -0.033248, 0.012796, 0.027660, 0.002212, -0.014772, 0.042810, 0.036435, 0.000000, 0.000000, 0.027861, 0.002079, 0.000000, 0.000000, 0.000000, 0.000000, 0.000000, 0.000000, 0.000000, 0.000000, 0.000000, 0.000000, 0.000000, 0.000000, 0.000000, 0.000000, 0.000000, 0.000000, -0.007200, -0.011248, 0.031255, -0.011606, 0.004110, -0.012050, 0.027624, 0.047811, -0.014100, -0.000187, -0.019686, 0.018391, 0.000000, 0.000000, 0.016946, -0.004208, 
