  0.0000000e+000
  0.0000000e+000
  0.0000000e+000
  0.0000000e+000
  0.0000000e+000
  0.0000000e+000
  0.0000000e+000
  0.0000000e+000
  0.0000000e+000
  0.0000000e+000
  0.0000000e+000
  0.0000000e+000
  0.0000000e+000
  0.0000000e+000
  0.0000000e+000
  0.0000000e+000
 -5.9536754e-002
  3.6929113e-002
 -1.2551882e-002
 -5.5734030e-003
  3.6899338e-002
 -9.5031700e-002
  8.0226060e-002
 -4.9708324e-002
  1.0364126e-002
  5.0124880e-002
 -4.2326281e-002
 -3.8606000e-002
  0.0000000e+000
  0.0000000e+000
  2.1795677e-002
 -8.6187708e-002
  0.0000000e+000
  0.0000000e+000
  0.0000000e+000
  0.0000000e+000
  0.0000000e+000
  0.0000000e+000
  0.0000000e+000
  0.0000000e+000
  0.0000000e+000
  0.0000000e+000
  0.0000000e+000
  0.0000000e+000
  0.0000000e+000
  0.0000000e+000
  0.0000000e+000
  0.0000000e+000
  2.2323783e-001
 -2.8574351e-002
  4.4017463e-002
  7.5027167e-002
 -1.4070472e-001
 -4.9166942e-002
  1.4069430e-002
 -1.5428020e-001
 -3.3732603e-002
  2.2945173e-001
 -1.1148525e-001
  8.8017584e-002
  0.0000000e+000
  0.0000000e+000
 -5.6183163e-002
 -6.4807567e-002
  0.0000000e+000
  0.0000000e+000
  0.0000000e+000
  0.0000000e+000
  0.0000000e+000
  0.0000000e+000
  0.0000000e+000
  0.0000000e+000
  0.0000000e+000
  0.0000000e+000
  0.0000000e+000
  0.0000000e+000
  0.0000000e+000
  0.0000000e+000
  0.0000000e+000
  0.0000000e+000
 -1.2746619e-001
  7.9966052e-002
  2.5980704e-003
 -4.6676743e-002
  1.9414400e-001
 -3.1167960e-002
 -3.5455678e-002
  2.3778442e-002
 -1.5097569e-001
  9.8033834e-002
  1.3799333e-002
  9.0613870e-003
  0.0000000e+000
  0.0000000e+000
 -4.1055109e-002
  6.8648197e-003
  0.0000000e+000
  0.0000000e+000
  0.0000000e+000
  0.0000000e+000
  0.0000000e+000
  0.0000000e+000
  0.0000000e+000
  0.0000000e+000
  0.0000000e+000
  0.0000000e+000
  0.0000000e+000
  0.0000000e+000
  0.0000000e+000
  0.0000000e+000
  0.0000000e+000
  0.0000000e+000
  4.5416543e-002
 -1.2029374e-001
  2.0005495e-001
 -1.5499637e-002
  1.0238094e-001
 -3.7971492e-002
 -1.3808341e-002
  6.0151613e-003
 -1.7367607e-002
 -5.1033358e-002
  1.5359882e-001
  6.3270807e-002
  0.0000000e+000
  0.0000000e+000
  2.5138867e-002
 -1.1870781e-002
  0.0000000e+000
  0.0000000e+000
  0.0000000e+000
  0.0000000e+000
  0.0000000e+000
  0.0000000e+000
  0.0000000e+000
  0.0000000e+000
  0.0000000e+000
  0.0000000e+000
  0.0000000e+000
  0.0000000e+000
  0.0000000e+000
  0.0000000e+000
  0.0000000e+000
  0.0000000e+000
 -6.8748577e-003
 -1.0712945e-001
  8.4461329e-002
 -4.8313581e-003
  3.6696719e-002
 -2.8956769e-002
  4.9409797e-002
  1.6051708e-001
 -3.4175107e-002
  1.0139519e-003
 -1.2997076e-001
  8.9809894e-002
  0.0000000e+000
  0.0000000e+000
  1.4381957e-002
 -1.4271385e-002
