 -1.5122365e-001
  5.7760856e-002
 -1.4008788e-002
  7.4040734e-002
  2.7264380e-001
 -3.4492535e-001
  1.1721458e-001
 -1.3149688e-001
 -3.4660714e-002
 -6.6537111e-003
 -7.6961906e-002
  2.7440125e-002
  0.0000000e+000
  0.0000000e+000
  8.0795322e-002
  7.1441909e-002
 -4.9648672e-002
 -1.8693007e-002
  4.1334986e-002
  5.9409978e-003
  1.5646621e-001
 -3.0688846e-003
  5.9093765e-002
 -4.2396452e-003
  5.9009593e-002
 -1.6364362e-001
 -8.5455952e-002
  2.0541246e-002
  0.0000000e+000
  0.0000000e+000
  5.5401874e-002
 -2.8838488e-003
 -1.2917900e-002
 -5.6626355e-002
  3.7887375e-002
  4.6483794e-002
 -2.4437652e-002
  7.7747099e-002
 -6.4342184e-002
 -5.4441833e-002
  3.1981850e-002
  6.9948315e-003
  1.6438310e-002
  6.3839534e-002
  0.0000000e+000
  0.0000000e+000
  5.4212762e-002
 -7.9364861e-002
 -2.7502864e-002
  5.7970849e-002
 -1.0630347e-002
  2.6390050e-003
 -4.0439136e-002
 -2.6862967e-002
 -9.7249499e-002
  6.1931171e-002
  5.7213311e-002
  3.4384498e-002
  2.5214464e-002
 -2.9746189e-002
  0.0000000e+000
  0.0000000e+000
 -8.2323561e-002
  1.4806387e-002
 -2.3156572e-002
  4.7441379e-003
 -3.6463640e-002
 -1.3946166e-002
  4.5304373e-002
 -6.1996598e-002
  7.8320579e-002
  8.1845990e-003
 -1.2426687e-002
  9.4178267e-002
 -6.5380332e-002
 -3.7134965e-002
  0.0000000e+000
  0.0000000e+000
 -8.7977271e-003
 -1.0278410e-003
  1.1098622e-001
 -6.9345603e-002
 -4.0411605e-002
  4.8466544e-002
  2.0717869e-002
 -6.5852917e-002
  6.9780847e-002
  4.6856823e-002
  2.1226925e-002
 -4.4909453e-002
  1.5249467e-004
  1.9976531e-002
  0.0000000e+000
  0.0000000e+000
  6.7033196e-002
  9.3283399e-002
  9.2488561e-002
 -7.3082381e-002
  6.1455367e-002
  2.6809014e-003
  1.1836806e-001
  9.8973577e-003
 -6.0381516e-002
 -5.1868705e-003
 -1.0153686e-001
  8.2859374e-002
 -3.2069392e-002
  6.1294181e-002
  0.0000000e+000
  0.0000000e+000
 -2.4843806e-002
  1.3349257e-002
 -5.8653698e-002
  3.2826937e-002
 -5.3361919e-003
  2.7134380e-002
 -1.0213188e-001
 -4.2883123e-002
  4.3537773e-002
 -1.0476506e-002
  8.6599252e-002
  5.2153782e-002
 -1.0337824e-001
  4.5093590e-002
  0.0000000e+000
  0.0000000e+000
 -1.2822676e-003
  2.1682658e-002
  1.0016995e-001
  4.5490941e-002
 -3.1138969e-002
  1.7216022e-002
 -1.0733076e-001
 -1.5411296e-002
  9.2189946e-002
 -8.9816992e-003
  1.1449955e-001
 -6.1177148e-002
 -4.5386826e-002
 -1.0275810e-001
  0.0000000e+000
  0.0000000e+000
  3.9697466e-003
 -1.2795921e-002
  4.2159738e-002
 -6.6948688e-002
  1.5980500e-002
  2.5304815e-002
  7.2437972e-003
  8.9360951e-002
 -3.1206087e-002
  1.0294890e-002
 -9.2996056e-002
 -6.2003796e-002
  2.4515321e-002
 -1.8411499e-002
  0.0000000e+000
  0.0000000e+000
 -1.2121175e-002
  5.3966153e-002
