  5.0119728e-002
 -5.8754145e-002
  2.1403226e-002
 -1.6963329e-002
 -3.8310011e-002
  8.7424992e-002
  9.7343645e-002
 -2.7842395e-002
 -9.2037813e-002
  2.3302957e-002
 -8.5167530e-002
  7.7043233e-002
  0.0000000e+000
  0.0000000e+000
  3.5040739e-002
  5.9370208e-002
  1.3720377e-001
 -1.2664139e-001
  8.4512263e-002
  3.6300876e-002
 -1.4086530e-001
  1.4815867e-001
 -1.5025861e-001
 -8.5719340e-002
 -4.4913540e-002
  5.7329321e-002
  7.4536158e-002
  5.2459900e-002
  0.0000000e+000
  0.0000000e+000
 -5.6722625e-002
  8.1995369e-002
 -3.7012498e-002
  2.1477767e-002
 -6.8933326e-002
  7.3543838e-002
 -8.3807746e-002
  1.0530701e-001
  1.0548533e-002
 -2.8859513e-002
 -2.7586094e-002
 -5.3428476e-002
 -7.8616377e-003
  5.7640406e-002
  0.0000000e+000
  0.0000000e+000
 -3.7105641e-003
 -1.9127954e-002
  5.6016519e-002
  2.6032191e-003
 -5.6954665e-002
 -2.4032163e-002
  5.3227719e-002
 -6.0940897e-002
  8.5835577e-002
  5.0504971e-002
  1.1627587e-002
  7.3209511e-003
 -3.7532465e-002
  5.3201201e-002
  0.0000000e+000
  0.0000000e+000
 -7.9825697e-003
 -3.5544273e-002
 -1.6035415e-002
 -3.2371309e-002
  8.3748846e-002
 -1.8993339e-002
  6.4712072e-002
 -1.3170500e-002
 -1.3219575e-002
  5.5230506e-003
  7.0110108e-003
 -5.4799858e-002
  3.4336290e-002
  2.9606914e-002
  0.0000000e+000
  0.0000000e+000
 -7.2217159e-003
  2.1650402e-002
  1.4192420e-002
 -5.9297603e-002
  4.3026877e-002
 -3.1244169e-004
 -4.3041817e-002
  3.4381844e-002
 -6.2141230e-003
  7.0444391e-002
  1.6196854e-003
 -1.5743729e-002
  3.9501876e-002
 -8.8346374e-002
  0.0000000e+000
  0.0000000e+000
 -8.2905914e-003
 -1.7955224e-002
 -4.8750960e-002
  4.4312687e-002
 -7.9580864e-003
 -2.7195948e-002
 -6.0301887e-002
 -5.6963006e-003
 -2.4027100e-003
  2.8223715e-002
  9.4820739e-002
  2.1909265e-002
 -4.7515133e-002
 -3.2249427e-002
  0.0000000e+000
  0.0000000e+000
 -6.8714869e-002
  3.1660409e-002
  5.0131921e-002
 -7.6991043e-002
 -3.6832843e-002
  2.6626884e-002
  8.3430236e-003
  9.1467624e-002
  2.0708340e-002
 -4.5448961e-002
 -3.6971559e-003
 -3.5297582e-002
 -3.0364010e-002
  1.7641225e-002
  0.0000000e+000
  0.0000000e+000
  5.9344826e-002
 -1.1453833e-001
 -3.7929134e-003
 -7.7324824e-003
 -1.8775640e-002
 -1.9082991e-002
  5.2267299e-002
 -2.1219801e-002
 -1.4528197e-002
 -9.6540076e-002
 -6.1860381e-002
 -5.2857325e-002
  4.0740569e-002
  6.6047532e-002
  0.0000000e+000
  0.0000000e+000
  3.2966625e-002
  1.2014858e-002
 -7.1008333e-003
  5.2748300e-002
 -3.1293438e-002
  2.4164809e-002
  1.0240598e-002
 -7.7062456e-002
  1.4018830e-002
  5.5628758e-002
 -1.5740637e-002
 -3.2492194e-002
 -4.7352098e-003
  1.2287009e-002
  0.0000000e+000
  0.0000000e+000
  1.8589766e-003
  7.2010123e-002
