0.000000, 0.000000, 0.000000, 0.000000, 0.000000, 0.000000, 0.000000, 0.000000, 0.000000, 0.000000, 0.000000, 0.000000, 0.000000, 0.000000, 0.000000, 0.000000, 0.000000, 0.000000, 0.000000, 0.000000, 0.000000, 0.000000, 0.000000, 0.000000, 0.000000, 0.000000, 0.000000, 0.000000, 0.000000, 0.000000, 0.000000, 0.000000, 0.000000, 0.000000, 0.000000, 0.000000, 0.000000, 0.000000, 0.000000, 0.000000, 0.000000, 0.000000, 0.000000, 0.000000, 0.000000, 0.000000, 0.000000, 0.000000, 0.000000, 0.000000, 0.000000, 0.000000, 0.000000, 0.000000, 0.000000, 0.000000, 0.000000, 0.000000, 0.000000, 0.000000, 0.000000, 0.000000, 0.000000, 0.000000, 0.000000, 0.000000, 0.000000, 0.000000, 0.000000, 0.000000, 0.000000, 0.000000, 0.000000, 0.000000, 0.000000, 0.000000, 0.000000, 0.000000, 0.000000, 0.000000, 0.000000, 0.000000, 0.000000, 0.000000, 0.000000, 0.000000, 0.000000, 0.000000, 0.000000, 0.000000, 0.000000, 0.000000, 0.000000, 0.000000, 0.000000, 0.000000, 0.000000, 0.000000, 0.000000, 0.000000, 0.000000, 0.000000, 0.000000, 0.000000, 0.000000, 0.000000, 0.000000, 0.000000, 0.000000, 0.000000, 0.000000, 0.000000, 0.000000, 0.000000, 0.000000, 0.000000, 0.000000, 0.000000, 0.000000, 0.000000, 0.000000, 0.000000, 0.000000, 0.000000, 0.000000, 0.000000, 0.000000, 0.000000, 0.000000, 0.000000, 0.000000, 0.000000, 0.000000, 0.000000, 0.000000, 0.000000, 0.000000, 0.000000, 0.000000, 0.000000, 0.000000, 0.000000, 0.000000, 0.000000, 0.000000, 0.000000, 0.000000, 0.000000, 0.000000, 0.000000, 0.000000, 0.000000, 0.000000, 0.000000, 0.000000, 0.000000, 0.000000, 0.000000, 0.000000, 0.000000, 
-0.019106, -0.025326, 0.024815, -0.001102, 0.028506, 0.000000, 0.010703, -0.023478, 0.000000, 0.000000, 0.000000, 0.003226, 0.000000, 0.000000, -0.024850, -0.016693, 0.000000, 0.000000, 0.027979, 0.000000, 0.013322, 0.017276, -0.046544, 0.025632, -0.028828, 0.000000, -0.032298, -0.015546, 0.000000, 0.000000, 0.024513, 0.035736, 0.002426, -0.004470, -0.004473, 0.001759, 0.017172, -0.008834, 0.034009, -0.002283, -0.046685, 0.006595, -0.029372, 0.012413, 0.000000, 0.000000, 0.016577, 0.025522, -0.002911, 0.031507, -0.019205, 0.009234, 0.005011, -0.030781, 0.029070, -0.008873, -0.010819, 0.030103, -0.044760, 0.017943, 0.000000, 0.000000, -0.006471, -0.002328, -0.029144, 0.016610, -0.054275, 0.019780, -0.008155, -0.008032, 0.037378, -0.017262, 0.009145, 0.011868, 0.000137, -0.001362, 0.000000, 0.000000, 0.008362, -0.000464, -0.019529, 0.003905, 0.010007, -0.001946, 0.019301, 0.002659, 0.000000, 0.011587, -0.017561, 0.001782, 0.013567, -0.004473, 0.000000, 0.000000, -0.024717, 0.014743, 0.031523, -0.006536, -0.008530, 0.016749, 0.022954, 0.016901, -0.000128, 0.011779, -0.003594, -0.064981, 0.021084, -0.022564, 0.000000, 0.000000, -0.009622, 0.000577, 0.024989, -0.033081, 0.050023, -0.008958, -0.031532, 0.005489, 0.010940, 0.001976, 0.046111, 0.000000, -0.012174, 0.039701, 0.000000, 0.000000, 0.014591, -0.035916, -0.025157, 0.023399, -0.018838, -0.003855, -0.032499, -0.020493, 0.017899, -0.010063, 0.025527, 0.014640, -0.004422, 0.019614, 0.000000, 0.000000, -0.010067, 0.013941, -0.022936, 0.007709, -0.030553, -0.002760, 0.013031, 0.002835, 0.000000, 0.052845, -0.028107, 0.018468, -0.003813, -0.044030, 0.000000, 0.000000, -0.008262, 0.030928, 
-0.062623, 0.021201, -0.027167, -0.003495, 0.089695, 0.000000, 0.009633, -0.021130, -0.029588, 0.000000, -0.010759, -0.018625, 0.000000, 0.000000, 0.019012, -0.054645, -0.035108, 0.047668, -0.070668, 0.122090, 0.011990, 0.028822, -0.093672, -0.010284, -0.029808, 0.015549, 0.000145, -0.016651, 0.000000, 0.000000, 0.022062, 0.040664, -0.023193, -0.021173, 0.000753, -0.018760, 0.011722, 0.040117, -0.022187, 0.041237, -0.053855, -0.010463, -0.002224, -0.016812, 0.000000, 0.000000, -0.000810, 0.010511, -0.014838, 0.041176, -0.072137, 0.030842, 0.013943, -0.011501, -0.012252, 0.009359, 0.007039, 0.034396, 0.007835, 0.047237, 0.000000, 0.000000, -0.032687, -0.041561, -0.044905, 0.034917, -0.016901, 0.082027, 0.012759, 0.028463, -0.021710, -0.048775, 0.008231, 0.011998, 0.042172, -0.020591, 0.000000, 0.000000, 0.009152, -0.038605, 0.029259, -0.053767, 0.132998, -0.110488, 0.016682, -0.040115, -0.061494, 0.054445, -0.027697, 0.033819, -0.045687, -0.089218, 0.000000, 0.000000, -0.039411, 0.053530, 0.001756, -0.017284, -0.013361, -0.076669, -0.013793, 0.015211, 0.002998, 0.067215, -0.044049, -0.075139, -0.010318, 0.010114, 0.000000, 0.000000, -0.000783, 0.052844, 0.022490, -0.023816, -0.008600, 0.002122, -0.073271, 0.084049, -0.019432, 0.045439, 0.057246, -0.041719, 0.020298, 0.111165, 0.000000, 0.000000, 0.032770, -0.040319, 0.043309, 0.020936, -0.015129, 0.025727, -0.010698, -0.003849, 0.069939, -0.078032, 0.053345, -0.045750, -0.002315, 0.027697, 0.000000, 0.000000, -0.016013, -0.042010, -0.059206, 0.012581, 0.022668, 0.050573, 0.011728, -0.024955, 0.035963, -0.004911, -0.006698, 0.003660, 0.001490, -0.108948, 0.000000, 0.000000, 0.025824, 0.035712, 
-0.064648, -0.070290, 0.058825, -0.103298, 0.103209, 0.179492, -0.094249, -0.137582, -0.089321, 0.000000, 0.043065, 0.065100, 0.000000, 0.000000, -0.080416, -0.056529, 0.023453, 0.007786, -0.056749, 0.223505, 0.010791, 0.025940, -0.084304, -0.084499, -0.016427, -0.056932, 0.160222, -0.117347, 0.000000, 0.000000, -0.023233, -0.003402, 0.007332, 0.037233, -0.064847, -0.027228, -0.014146, 0.008027, 0.041925, -0.010561, 0.013509, -0.033310, -0.069048, 0.031472, 0.000000, 0.000000, 0.014579, -0.041007, -0.017838, 0.077433, -0.025591, -0.069330, 0.032320, 0.069144, -0.129826, 0.084179, 0.019128, -0.051062, 0.039138, 0.008417, 0.000000, 0.000000, -0.056050, -0.013969, -0.127358, 0.107802, 0.032431, 0.112416, 0.025667, -0.066574, -0.040016, -0.108401, -0.201401, 0.096011, 0.123197, -0.008173, 0.000000, 0.000000, 0.081183, 0.029206, -0.009854, 0.023454, 0.034208, -0.053287, -0.041778, -0.002307, -0.001419, 0.084998, -0.022487, 0.054381, -0.119907, -0.085450, 0.000000, 0.000000, -0.125662, 0.057446, -0.062165, 0.061457, -0.163612, -0.031868, 0.037436, 0.003930, 0.012217, 0.015502, -0.083876, -0.052059, 0.009170, -0.015003, 0.000000, 0.000000, 0.004067, 0.096509, 0.020241, -0.100631, 0.043384, -0.065114, -0.002340, 0.135947, -0.171818, 0.162521, 0.079939, 0.002056, 0.012610, 0.118938, 0.000000, 0.000000, 0.123664, -0.090870, 0.026934, 0.013378, 0.129865, -0.082481, -0.005366, 0.051388, 0.091056, -0.104636, 0.023443, 0.044680, -0.035273, 0.014816, 0.000000, 0.000000, -0.050759, -0.012475, -0.110849, 0.057212, 0.077728, 0.051272, -0.020851, -0.013172, 0.145517, -0.093275, -0.004432, -0.037124, 0.062603, -0.172731, 0.000000, 0.000000, -0.003043, -0.003054, 
-0.066470, -0.152631, 0.136217, -0.193122, 0.115370, 0.341034, -0.187742, -0.242388, -0.143080, 0.000000, 0.091506, 0.140453, 0.000000, 0.000000, -0.169902, -0.058225, 0.076157, -0.028108, -0.044221, 0.314778, 0.009712, 0.023346, -0.075874, -0.151292, -0.004384, -0.122165, 0.304292, -0.207973, 0.000000, 0.000000, -0.063999, -0.043063, 0.034803, 0.089798, -0.123887, -0.034849, -0.037427, -0.020855, 0.099626, -0.057179, 0.074137, -0.053873, -0.129190, 0.074928, 0.000000, 0.000000, 0.028429, -0.087373, -0.020537, 0.110065, 0.016300, -0.159485, 0.048859, 0.141724, -0.235643, 0.151517, 0.030007, -0.127974, 0.067310, -0.026521, 0.000000, 0.000000, -0.077076, 0.010865, -0.201567, 0.173398, 0.076830, 0.139767, 0.037284, -0.152107, -0.056491, -0.162065, -0.390069, 0.171622, 0.196121, 0.003003, 0.000000, 0.000000, 0.146011, 0.090236, -0.045056, 0.092952, -0.054704, -0.001806, -0.094392, 0.031720, 0.052649, 0.112497, -0.017798, 0.072886, -0.186705, -0.082058, 0.000000, 0.000000, -0.203288, 0.060971, -0.119694, 0.132324, -0.298837, 0.008453, 0.083542, -0.006223, 0.020513, -0.031041, -0.119720, -0.031286, 0.026709, -0.037609, 0.000000, 0.000000, 0.008432, 0.135808, 0.018217, -0.169765, 0.090169, -0.125626, 0.061497, 0.182655, -0.308965, 0.267894, 0.100363, 0.041454, 0.005691, 0.125934, 0.000000, 0.000000, 0.205469, -0.136365, 0.012197, 0.006577, 0.260360, -0.179868, -0.000567, 0.101101, 0.110061, -0.128578, -0.003469, 0.126067, -0.064934, 0.003222, 0.000000, 0.000000, -0.082031, 0.014106, -0.157327, 0.097380, 0.127281, 0.051901, -0.050171, -0.002567, 0.244115, -0.172802, -0.002393, -0.073829, 0.117604, -0.230137, 0.000000, 0.000000, -0.029023, -0.037943, 
-0.075936, -0.138059, 0.115421, -0.172496, 0.112777, 0.331856, -0.183192, -0.200120, -0.140803, -0.014455, 0.088287, 0.116585, 0.000000, 0.000000, -0.144519, -0.049016, 0.094327, -0.046091, -0.034783, 0.281635, -0.013686, 0.036168, -0.067820, -0.141937, 0.016039, -0.131411, 0.270741, -0.175505, 0.000000, 0.000000, -0.056855, -0.039149, 0.035872, 0.072261, -0.106949, -0.038353, -0.041777, -0.017919, 0.094052, -0.057376, 0.064883, -0.043123, -0.119672, 0.079326, 0.000000, 0.000000, 0.009128, -0.073327, -0.016223, 0.098251, 0.011808, -0.145106, 0.045145, 0.127230, -0.211880, 0.140005, 0.033290, -0.115436, 0.061770, -0.019075, 0.000000, 0.000000, -0.062174, 0.016369, -0.175147, 0.147682, 0.070939, 0.126653, 0.034335, -0.136589, -0.050669, -0.137396, -0.351649, 0.160242, 0.172801, -0.000782, 0.000000, 0.000000, 0.126336, 0.081751, -0.030744, 0.077371, -0.039752, 0.001227, -0.089068, 0.036565, 0.044394, 0.103015, -0.010929, 0.062200, -0.176688, -0.066107, 0.000000, 0.000000, -0.187556, 0.059325, -0.105112, 0.111375, -0.272526, 0.002295, 0.074950, -0.007971, 0.022861, -0.009042, -0.099424, -0.024264, 0.019066, -0.036439, 0.000000, 0.000000, 0.001287, 0.124311, 0.011054, -0.149892, 0.082147, -0.118705, 0.050068, 0.157222, -0.275198, 0.235109, 0.106681, 0.037320, -0.002152, 0.118635, 0.000000, 0.000000, 0.185118, -0.121031, 0.008704, 0.002701, 0.230293, -0.169477, -0.000619, 0.088596, 0.109336, -0.130296, -0.016405, 0.115778, -0.061546, 0.010603, 0.000000, 0.000000, -0.077738, 0.012314, -0.131679, 0.069711, 0.121952, 0.047869, -0.051792, -0.007069, 0.225479, -0.143359, -0.007402, -0.068438, 0.113722, -0.203282, 0.000000, 0.000000, -0.024796, -0.018337, 
-0.079928, -0.127287, 0.115911, -0.154286, 0.116183, 0.319814, -0.176120, -0.181311, -0.146094, -0.028002, 0.079319, 0.117890, 0.000000, 0.000000, -0.125242, -0.039410, 0.118298, -0.072166, -0.018829, 0.248231, -0.024492, 0.040790, -0.056645, -0.141846, 0.040207, -0.146596, 0.263772, -0.163552, 0.000000, 0.000000, -0.046387, -0.044747, 0.037743, 0.068550, -0.105290, -0.033964, -0.050317, -0.019463, 0.088333, -0.051786, 0.058492, -0.034950, -0.102660, 0.067107, 0.000000, 0.000000, -0.011926, -0.065014, -0.012009, 0.092980, -0.003127, -0.135536, 0.049859, 0.117435, -0.178164, 0.137498, 0.028839, -0.106183, 0.047377, -0.004494, 0.000000, 0.000000, -0.054090, 0.017917, -0.153195, 0.115709, 0.058687, 0.114540, 0.027746, -0.112049, -0.044189, -0.117526, -0.299112, 0.133453, 0.145581, -0.003162, 0.000000, 0.000000, 0.123963, 0.068257, -0.046215, 0.067271, -0.021997, 0.001098, -0.061070, 0.027541, 0.049778, 0.086157, 0.000355, 0.056985, -0.167216, -0.043892, 0.000000, 0.000000, -0.174714, 0.058938, -0.094226, 0.098703, -0.240893, 0.017348, 0.070788, -0.008360, 0.036730, -0.030350, -0.102541, -0.020752, 0.011721, -0.030850, 0.000000, 0.000000, 0.000379, 0.112785, 0.021309, -0.134337, 0.068670, -0.099980, 0.033808, 0.147647, -0.246639, 0.215774, 0.110464, 0.032043, -0.009685, 0.111512, 0.000000, 0.000000, 0.161867, -0.103916, 0.005523, -0.002230, 0.202531, -0.159601, 0.007899, 0.081075, 0.088281, -0.098630, -0.011865, 0.104572, -0.045410, 0.000458, 0.000000, 0.000000, -0.073408, 0.016250, -0.110619, 0.047894, 0.121754, 0.037532, -0.046328, -0.010165, 0.214030, -0.122901, -0.019015, -0.049352, 0.091768, -0.185627, 0.000000, 0.000000, -0.015879, -0.033873, 
-0.062918, -0.130537, 0.102414, -0.153502, 0.110535, 0.291200, -0.139422, -0.148994, -0.118542, -0.043263, 0.049483, 0.108900, 0.000000, 0.000000, -0.092859, -0.042199, 0.129555, -0.075817, -0.030206, 0.221828, -0.053664, 0.029448, -0.042444, -0.117328, 0.058891, -0.134134, 0.236712, -0.149829, 0.000000, 0.000000, -0.041216, -0.042807, 0.026197, 0.068130, -0.100811, -0.033295, -0.056059, -0.014610, 0.069930, -0.049369, 0.060399, -0.032989, -0.088234, 0.058618, 0.000000, 0.000000, -0.017355, -0.064375, -0.003216, 0.085363, -0.008398, -0.114576, 0.048626, 0.103977, -0.159831, 0.125279, 0.023479, -0.091086, 0.044713, -0.005346, 0.000000, 0.000000, -0.040797, 0.021173, -0.126980, 0.098379, 0.042726, 0.105508, 0.024147, -0.108959, -0.035436, -0.103242, -0.270463, 0.108072, 0.143124, -0.010795, 0.000000, 0.000000, 0.117302, 0.064236, -0.047421, 0.074435, -0.027122, 0.019581, -0.045263, 0.010678, 0.043980, 0.066915, -0.019262, 0.061094, -0.145362, -0.031536, 0.000000, 0.000000, -0.168932, 0.055089, -0.083760, 0.072704, -0.231233, 0.020071, 0.065466, 0.003998, 0.040270, -0.029111, -0.096287, -0.005076, 0.001911, -0.028802, 0.000000, 0.000000, -0.008815, 0.102685, 0.023993, -0.137410, 0.076790, -0.094266, 0.037732, 0.148953, -0.227299, 0.206437, 0.078047, 0.023776, -0.001513, 0.107337, 0.000000, 0.000000, 0.146261, -0.081263, 0.012476, -0.024530, 0.189406, -0.158047, -0.003982, 0.084114, 0.078745, -0.086324, 0.002244, 0.097557, -0.044488, -0.011303, 0.000000, 0.000000, -0.063433, 0.021960, -0.101471, 0.057055, 0.113516, 0.026310, -0.058392, -0.009994, 0.186603, -0.088125, 0.005370, -0.042464, 0.062895, -0.180120, 0.000000, 0.000000, -0.013259, -0.038838, 
-0.062335, -0.145933, 0.108410, -0.127286, 0.099199, 0.320281, -0.152988, -0.134110, -0.132809, -0.058601, 0.052370, 0.087991, 0.000000, 0.000000, -0.082874, -0.028647, 0.121214, -0.078523, -0.021096, 0.199580, -0.050066, 0.042151, -0.035194, -0.112829, 0.055535, -0.140810, 0.217098, -0.131836, 0.000000, 0.000000, -0.017481, -0.041365, 0.025887, 0.061226, -0.086749, -0.031319, -0.057410, -0.013086, 0.054868, -0.041902, 0.059234, -0.029156, -0.073210, 0.052610, 0.000000, 0.000000, -0.030698, -0.054869, -0.001260, 0.073870, -0.005648, -0.111126, 0.045289, 0.088766, -0.129363, 0.114440, 0.012704, -0.082022, 0.033766, 0.000202, 0.000000, 0.000000, -0.039151, 0.021475, -0.114476, 0.082186, 0.032794, 0.086926, 0.024632, -0.104894, -0.027169, -0.096873, -0.244517, 0.095460, 0.122350, -0.008636, 0.000000, 0.000000, 0.107333, 0.054496, -0.052694, 0.063830, -0.018488, 0.022860, -0.035620, 0.015078, 0.033691, 0.070908, -0.013836, 0.056082, -0.140544, -0.026174, 0.000000, 0.000000, -0.148090, 0.046032, -0.071461, 0.054923, -0.212931, 0.033960, 0.059718, 0.023588, 0.030825, -0.034038, -0.080567, -0.009376, -0.007180, -0.019141, 0.000000, 0.000000, -0.002619, 0.088917, 0.022305, -0.119620, 0.067965, -0.083003, 0.028657, 0.128879, -0.181401, 0.181593, 0.070342, 0.021772, -0.003282, 0.096811, 0.000000, 0.000000, 0.128443, -0.071768, 0.014281, -0.027975, 0.155781, -0.149705, -0.012326, 0.074597, 0.083953, -0.073060, 0.001943, 0.079275, -0.040645, -0.011567, 0.000000, 0.000000, -0.053556, 0.013656, -0.076452, 0.045895, 0.118068, 0.022003, -0.064377, -0.004757, 0.157150, -0.081714, 0.009466, -0.029266, 0.052094, -0.162077, 0.000000, 0.000000, -0.009769, -0.044229, 
-0.070435, -0.117691, 0.096126, -0.131793, 0.110152, 0.262710, -0.123056, -0.105573, -0.126866, -0.050277, 0.043974, 0.075132, 0.000000, 0.000000, -0.065048, -0.023205, 0.101627, -0.060948, -0.034047, 0.202892, -0.050440, 0.037105, -0.033440, -0.119961, 0.065526, -0.129535, 0.197912, -0.122629, 0.000000, 0.000000, -0.018557, -0.042836, 0.033970, 0.055038, -0.089452, -0.021922, -0.058888, -0.011587, 0.060913, -0.040649, 0.060799, -0.037411, -0.074280, 0.049844, 0.000000, 0.000000, -0.034972, -0.047291, 0.008508, 0.073943, -0.006730, -0.104187, 0.027343, 0.079016, -0.117423, 0.113167, 0.019432, -0.083896, 0.025968, 0.004306, 0.000000, 0.000000, -0.032803, 0.025997, -0.101135, 0.060203, 0.028252, 0.071476, 0.013061, -0.080704, -0.038686, -0.081402, -0.224260, 0.078482, 0.112389, -0.012321, 0.000000, 0.000000, 0.095398, 0.059633, -0.043642, 0.056847, -0.011118, 0.025258, -0.043855, 0.018261, 0.033760, 0.059324, 0.005747, 0.046442, -0.125216, -0.015378, 0.000000, 0.000000, -0.129331, 0.033248, -0.067306, 0.050330, -0.191480, 0.030963, 0.052458, 0.007988, 0.030262, -0.031164, -0.063432, -0.004239, 0.001572, -0.021722, 0.000000, 0.000000, -0.013014, 0.081775, 0.020395, -0.103082, 0.055819, -0.070593, 0.038058, 0.116284, -0.160314, 0.180916, 0.061695, 0.026182, -0.010765, 0.071044, 0.000000, 0.000000, 0.108769, -0.052361, 0.011898, -0.021125, 0.132149, -0.148167, 0.005657, 0.081054, 0.081042, -0.064804, -0.000288, 0.068004, -0.050168, -0.017196, 0.000000, 0.000000, -0.041822, -0.004143, -0.060619, 0.035485, 0.120465, 0.012532, -0.070866, -0.007300, 0.144880, -0.076882, 0.006053, -0.024582, 0.048612, -0.136990, 0.000000, 0.000000, -0.004279, -0.064353, 
-0.057313, -0.107816, 0.080497, -0.110090, 0.102563, 0.247303, -0.104275, -0.109094, -0.113999, -0.068671, 0.028770, 0.076970, 0.000000, 0.000000, -0.045252, -0.019189, 0.087370, -0.050620, -0.026726, 0.184502, -0.035063, 0.034167, -0.044089, -0.099216, 0.044608, -0.107959, 0.171594, -0.108117, 0.000000, 0.000000, -0.012869, -0.035857, 0.030145, 0.046310, -0.077458, -0.022786, -0.063885, -0.004461, 0.050470, -0.036746, 0.053622, -0.027659, -0.064261, 0.046173, 0.000000, 0.000000, -0.044933, -0.043683, 0.004100, 0.067856, -0.006886, -0.089472, 0.023842, 0.070568, -0.104355, 0.105276, 0.017852, -0.073823, 0.020301, 0.005612, 0.000000, 0.000000, -0.023509, 0.026937, -0.090891, 0.049156, 0.016464, 0.063096, 0.003905, -0.071571, -0.028839, -0.069487, -0.198984, 0.065090, 0.097771, -0.018668, 0.000000, 0.000000, 0.079203, 0.053396, -0.047161, 0.053601, -0.001192, 0.020267, -0.032113, 0.016551, 0.023245, 0.062928, 0.004616, 0.041305, -0.110768, -0.013051, 0.000000, 0.000000, -0.114824, 0.034324, -0.062456, 0.048391, -0.165941, 0.028762, 0.044641, 0.004910, 0.029485, -0.023789, -0.059265, -0.000237, 0.001249, -0.020679, 0.000000, 0.000000, -0.014215, 0.071799, 0.012331, -0.087585, 0.050215, -0.061822, 0.036508, 0.104363, -0.139615, 0.170222, 0.055470, 0.021126, -0.012901, 0.066876, 0.000000, 0.000000, 0.101818, -0.047522, 0.021422, -0.025836, 0.109083, -0.132970, 0.006523, 0.076803, 0.064663, -0.056807, 0.001200, 0.058441, -0.042232, -0.022447, 0.000000, 0.000000, -0.039513, -0.007019, -0.062127, 0.031893, 0.116026, 0.004162, -0.062886, -0.009363, 0.121815, -0.066624, 0.006087, -0.017723, 0.045818, -0.127923, 0.000000, 0.000000, -0.004680, -0.057128, 
-0.061985, -0.101171, 0.078116, -0.092715, 0.091703, 0.230820, -0.098250, -0.102193, -0.089669, -0.085401, 0.036861, 0.062834, 0.000000, 0.000000, -0.038164, -0.013389, 0.070045, -0.052166, -0.014973, 0.167328, -0.019113, 0.040632, -0.050560, -0.087217, 0.037625, -0.096693, 0.160647, -0.095908, 0.000000, 0.000000, -0.010961, -0.033701, 0.031239, 0.034745, -0.070864, -0.026068, -0.064105, 0.001262, 0.044157, -0.027507, 0.048199, -0.020980, -0.060073, 0.038782, 0.000000, 0.000000, -0.047446, -0.038835, 0.002795, 0.062313, -0.002095, -0.084857, 0.022783, 0.062605, -0.092761, 0.095933, 0.013352, -0.066806, 0.014352, 0.007679, 0.000000, 0.000000, -0.015991, 0.020994, -0.085670, 0.037551, 0.013684, 0.051619, 0.001826, -0.063030, -0.018761, -0.060308, -0.181487, 0.052260, 0.082653, -0.018239, 0.000000, 0.000000, 0.072840, 0.052753, -0.040055, 0.037365, 0.012906, 0.004988, -0.036153, 0.021441, 0.010900, 0.068468, 0.001711, 0.031229, -0.092472, -0.010405, 0.000000, 0.000000, -0.108240, 0.035777, -0.054904, 0.040034, -0.150056, 0.032267, 0.035790, 0.006299, 0.022814, -0.026763, -0.039516, 0.000145, 0.011487, -0.019084, 0.000000, 0.000000, -0.018133, 0.061614, 0.010195, -0.072717, 0.042240, -0.048529, 0.041224, 0.086970, -0.120713, 0.156643, 0.047937, 0.018348, -0.011830, 0.060331, 0.000000, 0.000000, 0.090877, -0.035448, 0.030756, -0.035268, 0.094411, -0.127182, 0.001982, 0.078987, 0.060057, -0.047063, -0.002981, 0.047629, -0.044587, -0.021829, 0.000000, 0.000000, -0.036978, -0.014448, -0.053336, 0.028315, 0.107876, 0.009833, -0.063214, -0.008047, 0.106684, -0.058864, 0.010901, -0.020521, 0.037334, -0.111769, 0.000000, 0.000000, -0.000971, -0.053807, 
-0.047085, -0.091132, 0.065422, -0.066127, 0.059711, 0.232327, -0.091399, -0.103446, -0.088072, -0.076828, 0.021192, 0.075284, 0.000000, 0.000000, -0.019202, -0.010112, 0.047002, -0.033614, -0.016550, 0.157506, 0.004735, 0.017848, -0.046412, -0.092005, 0.025446, -0.074308, 0.138943, -0.072870, 0.000000, 0.000000, -0.018466, -0.029214, 0.028432, 0.025922, -0.061621, -0.018587, -0.069582, 0.009300, 0.036749, -0.035125, 0.045627, -0.021240, -0.053715, 0.036456, 0.000000, 0.000000, -0.048280, -0.037713, 0.001661, 0.059264, -0.002180, -0.069985, 0.020002, 0.057962, -0.084129, 0.087951, 0.005086, -0.057746, 0.004705, 0.008662, 0.000000, 0.000000, -0.009086, 0.016563, -0.078556, 0.026341, -0.001692, 0.050411, 0.002109, -0.051414, -0.009341, -0.061700, -0.168272, 0.047074, 0.072879, -0.018792, 0.000000, 0.000000, 0.063721, 0.051578, -0.050221, 0.033640, 0.018457, -0.000477, -0.028891, 0.025396, 0.003511, 0.085404, -0.006263, 0.033480, -0.084272, -0.016480, 0.000000, 0.000000, -0.095361, 0.033655, -0.050018, 0.038744, -0.129056, 0.023398, 0.036006, -0.007603, 0.026543, -0.027862, -0.026846, 0.007276, 0.001050, -0.007063, 0.000000, 0.000000, -0.024877, 0.050581, 0.015317, -0.060684, 0.048178, -0.042632, 0.036016, 0.070081, -0.115798, 0.142287, 0.052728, 0.028017, -0.005525, 0.049207, 0.000000, 0.000000, 0.073865, -0.043315, 0.022326, -0.033922, 0.078392, -0.110203, -0.006371, 0.083941, 0.052962, -0.033677, 0.003411, 0.042434, -0.034932, -0.031628, 0.000000, 0.000000, -0.035792, -0.012862, -0.052082, 0.024926, 0.103024, 0.012065, -0.048988, -0.003576, 0.096312, -0.044804, 0.003041, -0.028259, 0.028139, -0.095886, 0.000000, 0.000000, 0.005711, -0.035164, 
-0.026390, -0.090170, 0.055436, -0.050783, 0.036235, 0.227406, -0.087950, -0.098678, -0.072153, -0.096731, 0.019764, 0.068535, 0.000000, 0.000000, -0.010670, -0.013778, 0.063060, -0.041539, -0.005217, 0.141576, -0.020068, 0.031386, -0.049978, -0.087095, 0.032802, -0.061841, 0.109754, -0.052980, 0.000000, 0.000000, -0.013502, -0.042041, 0.028041, 0.016095, -0.050549, -0.017270, -0.067020, 0.014859, 0.026158, -0.026894, 0.042527, -0.023540, -0.049028, 0.027205, 0.000000, 0.000000, -0.051956, -0.029475, 0.007594, 0.049167, -0.000524, -0.063618, 0.012603, 0.054237, -0.079528, 0.081769, 0.011482, -0.055422, 0.006295, 0.017158, 0.000000, 0.000000, -0.006303, 0.007105, -0.069163, 0.011315, -0.007229, 0.041543, -0.005851, -0.040657, -0.002027, -0.060948, -0.148447, 0.046492, 0.059357, -0.024574, 0.000000, 0.000000, 0.047263, 0.047359, -0.040143, 0.031509, 0.026550, 0.002905, -0.025537, 0.016613, 0.005193, 0.082374, -0.006579, 0.035147, -0.074851, -0.007152, 0.000000, 0.000000, -0.083032, 0.030639, -0.047711, 0.034631, -0.126761, 0.037399, 0.023313, 0.000983, 0.026172, -0.026150, -0.026671, 0.000552, -0.004697, -0.000341, 0.000000, 0.000000, -0.016070, 0.041674, -0.002665, -0.044757, 0.035169, -0.043896, 0.031856, 0.058675, -0.105056, 0.138178, 0.040598, 0.026754, -0.005092, 0.039545, 0.000000, 0.000000, 0.057063, -0.036239, 0.028392, -0.042012, 0.078295, -0.105572, 0.002923, 0.074310, 0.053969, -0.033021, 0.001576, 0.036035, -0.034474, -0.038358, 0.000000, 0.000000, -0.032251, -0.005681, -0.041843, 0.015285, 0.094951, 0.008154, -0.042607, -0.009282, 0.090930, -0.034984, 0.005137, -0.020533, 0.014150, -0.075725, 0.000000, 0.000000, 0.007575, -0.022907, 
-0.021088, -0.089661, 0.045736, -0.061814, 0.024501, 0.223937, -0.063370, -0.077634, -0.063448, -0.094222, 0.007088, 0.058160, 0.000000, 0.000000, 0.000624, -0.023568, 0.060331, -0.038927, -0.001812, 0.130655, -0.013232, 0.025431, -0.058040, -0.059335, 0.028549, -0.053360, 0.100829, -0.048194, 0.000000, 0.000000, -0.010626, -0.037911, 0.021822, 0.009455, -0.041257, -0.021433, -0.070136, 0.025186, 0.013441, -0.020594, 0.032999, -0.021284, -0.032945, 0.027775, 0.000000, 0.000000, -0.059254, -0.028887, 0.005302, 0.045401, -0.001055, -0.050772, 0.006902, 0.054105, -0.066932, 0.068685, 0.015387, -0.058896, 0.012181, 0.020256, 0.000000, 0.000000, -0.005779, 0.013097, -0.061583, 0.001340, 0.001862, 0.036784, -0.011809, -0.042483, 0.009320, -0.056407, -0.126916, 0.042807, 0.045452, -0.023806, 0.000000, 0.000000, 0.037296, 0.039929, -0.042298, 0.042334, 0.012407, 0.014829, -0.021439, 0.008616, 0.000764, 0.081661, -0.003296, 0.034166, -0.075241, 0.003331, 0.000000, 0.000000, -0.061146, 0.017564, -0.041356, 0.024300, -0.116512, 0.032581, 0.024028, 0.016665, 0.018638, -0.020126, -0.023106, -0.008441, -0.012671, -0.001884, 0.000000, 0.000000, -0.012614, 0.033402, 0.001802, -0.047415, 0.044325, -0.042782, 0.014266, 0.037004, -0.093520, 0.123158, 0.052403, 0.036807, -0.011975, 0.042641, 0.000000, 0.000000, 0.042684, -0.031090, 0.025511, -0.051428, 0.068441, -0.099758, 0.000727, 0.068028, 0.052159, -0.034105, -0.004924, 0.049359, -0.026607, -0.031531, 0.000000, 0.000000, -0.034366, 0.002290, -0.037085, 0.020620, 0.088067, 0.009212, -0.037992, -0.003873, 0.086746, -0.028796, -0.009948, -0.011919, 0.010425, -0.061224, 0.000000, 0.000000, 0.003197, -0.011887, 
-0.005258, -0.088502, 0.034865, -0.055116, 0.029071, 0.199037, -0.050830, -0.072213, -0.059491, -0.100652, 0.023780, 0.033430, 0.000000, 0.000000, -0.005195, -0.020532, 0.017929, -0.030310, -0.011004, 0.130805, 0.030585, 0.008234, -0.034089, -0.072271, 0.024767, -0.038508, 0.074873, -0.032970, 0.000000, 0.000000, -0.007638, -0.039898, 0.010047, 0.005879, -0.043046, -0.017362, -0.073197, 0.027781, 0.012831, -0.024164, 0.034125, -0.024105, -0.029820, 0.033411, 0.000000, 0.000000, -0.056981, -0.025214, 0.012883, 0.029886, 0.001618, -0.046362, 0.005937, 0.061237, -0.069719, 0.063434, 0.012860, -0.051700, 0.019214, 0.016145, 0.000000, 0.000000, -0.007419, 0.024419, -0.052742, -0.015961, 0.000782, 0.023291, -0.012966, -0.039235, 0.002971, -0.033895, -0.111407, 0.030153, 0.035458, -0.027233, 0.000000, 0.000000, 0.033906, 0.039335, -0.035020, 0.029546, 0.020134, 0.019585, -0.029170, 0.019902, -0.009037, 0.069265, -0.001568, 0.031498, -0.067402, 0.013359, 0.000000, 0.000000, -0.054857, 0.007054, -0.035255, 0.028593, -0.116137, 0.041554, 0.008774, -0.001068, 0.037646, -0.037877, -0.018985, -0.006998, -0.012259, 0.005118, 0.000000, 0.000000, -0.016330, 0.023559, -0.001151, -0.031901, 0.043009, -0.042737, 0.002818, 0.017134, -0.098531, 0.115181, 0.055320, 0.037080, 0.002228, 0.024715, 0.000000, 0.000000, 0.043413, -0.031554, 0.035971, -0.054337, 0.063489, -0.095935, 0.012047, 0.049537, 0.051756, -0.026950, -0.007843, 0.051532, -0.031138, -0.034678, 0.000000, 0.000000, -0.026638, 0.005606, -0.035566, 0.014963, 0.078919, 0.010885, -0.025543, 0.005131, 0.087271, -0.019815, -0.019150, -0.019776, 0.005561, -0.050006, 0.000000, 0.000000, 0.007008, -0.014760, 
0.010320, -0.090212, 0.046077, -0.048891, 0.005017, 0.209147, -0.070010, -0.052602, -0.062329, -0.098365, 0.032290, 0.025978, 0.000000, 0.000000, -0.012042, -0.009062, 0.017737, -0.015103, -0.009140, 0.111511, 0.018488, -0.010190, -0.020727, -0.062180, 0.043574, -0.049293, 0.073078, -0.030843, 0.000000, 0.000000, -0.004322, -0.045175, -0.001068, -0.004652, -0.028892, -0.014920, -0.059354, 0.026794, 0.001479, -0.022266, 0.033044, -0.019496, -0.026210, 0.032977, 0.000000, 0.000000, -0.060631, -0.019446, 0.012938, 0.017934, 0.015279, -0.034969, 0.010811, 0.057151, -0.077375, 0.064000, 0.003987, -0.042820, 0.016375, 0.021375, 0.000000, 0.000000, -0.003463, 0.011814, -0.046118, -0.022213, -0.004705, 0.018361, -0.021575, -0.032976, -0.000020, -0.026718, -0.110505, 0.035681, 0.031566, -0.026174, 0.000000, 0.000000, 0.016652, 0.041923, -0.041214, 0.025400, 0.023152, 0.026339, -0.019692, 0.018112, -0.001420, 0.055039, -0.012054, 0.032689, -0.063778, 0.014089, 0.000000, 0.000000, -0.055765, 0.015454, -0.030409, 0.013466, -0.096447, 0.039853, 0.007486, 0.009594, 0.040201, -0.033167, -0.015916, -0.011498, -0.018302, 0.000621, 0.000000, 0.000000, -0.011114, 0.025256, -0.011517, -0.023190, 0.025579, -0.040217, 0.006077, 0.015938, -0.091201, 0.113301, 0.049934, 0.019991, 0.003540, 0.026003, 0.000000, 0.000000, 0.043633, -0.016374, 0.029205, -0.048379, 0.039709, -0.088084, 0.011820, 0.051458, 0.045970, -0.019864, 0.002096, 0.048745, -0.020142, -0.031683, 0.000000, 0.000000, -0.028476, 0.000832, -0.030434, 0.009732, 0.072305, 0.013933, -0.027167, 0.003292, 0.082102, -0.010401, -0.016949, -0.010198, 0.008081, -0.048022, 0.000000, 0.000000, 0.003516, -0.019600, 
0.001565, -0.086230, 0.023854, -0.051345, 0.008301, 0.224639, -0.079818, -0.024915, -0.088211, -0.089249, 0.037727, 0.010806, 0.000000, 0.000000, 0.005762, 0.002096, 0.012139, -0.004654, -0.020210, 0.108186, 0.029755, -0.026312, -0.011680, -0.061127, 0.024312, -0.014320, 0.043058, -0.002466, 0.000000, 0.000000, -0.003832, -0.035870, -0.007346, 0.006262, -0.030311, 0.001355, -0.067300, 0.017046, 0.014963, -0.037357, 0.036354, -0.013013, -0.031183, 0.033856, 0.000000, 0.000000, -0.058064, -0.025310, 0.009085, 0.032297, -0.003214, -0.022322, 0.000620, 0.039053, -0.054364, 0.049092, 0.004359, -0.031311, 0.012598, 0.020018, 0.000000, 0.000000, -0.004759, 0.012356, -0.031183, -0.023442, -0.012472, 0.009728, -0.002316, -0.032978, -0.004516, -0.016032, -0.118613, 0.043681, 0.024706, -0.030927, 0.000000, 0.000000, 0.015113, 0.036969, -0.030344, 0.017715, 0.028705, 0.020061, -0.026277, 0.026472, -0.007629, 0.059339, -0.004086, 0.024698, -0.063637, 0.022700, 0.000000, 0.000000, -0.050046, -0.001086, -0.051442, 0.009208, -0.083034, 0.031499, -0.001735, 0.019834, 0.038093, -0.014237, -0.008973, -0.013949, -0.024768, 0.009071, 0.000000, 0.000000, -0.005004, 0.026453, -0.014467, -0.017148, 0.034637, -0.027241, 0.007646, 0.016612, -0.091234, 0.110331, 0.035716, 0.023133, -0.016042, 0.014449, 0.000000, 0.000000, 0.052446, -0.014403, 0.041485, -0.069255, 0.024371, -0.086768, 0.007716, 0.059455, 0.046885, -0.026352, 0.008752, 0.029695, -0.014413, -0.035835, 0.000000, 0.000000, -0.025156, -0.007354, -0.026890, 0.012689, 0.071456, 0.015105, -0.022142, -0.002324, 0.083013, -0.006896, -0.006027, -0.010052, 0.011151, -0.045492, 0.000000, 0.000000, 0.001339, -0.024136, 
-0.001986, -0.079047, 0.016918, -0.029971, 0.025241, 0.203656, -0.073252, -0.036696, -0.100540, -0.054817, 0.026983, 0.019879, 0.000000, 0.000000, 0.011870, -0.000639, 0.027426, -0.019971, -0.027026, 0.109000, 0.030471, -0.021186, 0.014979, -0.078906, 0.007865, -0.014891, 0.037586, -0.000845, 0.000000, 0.000000, -0.001206, -0.024943, -0.012015, 0.001831, -0.019422, -0.007784, -0.063146, 0.018911, 0.008587, -0.026539, 0.025232, -0.023711, -0.025666, 0.025602, 0.000000, 0.000000, -0.063718, -0.015391, 0.006153, 0.030936, 0.010709, -0.028141, 0.007670, 0.030373, -0.053723, 0.041742, 0.008299, -0.020896, 0.005787, 0.025603, 0.000000, 0.000000, -0.001208, 0.008799, -0.015539, -0.038407, -0.006433, 0.010444, -0.010439, -0.011743, -0.008827, -0.013513, -0.119290, 0.042884, 0.020749, -0.027874, 0.000000, 0.000000, 0.011102, 0.035036, -0.032753, 0.013462, 0.036810, 0.017024, -0.033803, 0.031158, -0.017965, 0.072165, 0.001231, 0.030965, -0.062173, 0.023447, 0.000000, 0.000000, -0.051936, 0.002557, -0.043277, 0.005752, -0.085545, 0.036960, -0.005497, 0.010531, 0.047234, -0.021859, -0.003718, 0.012319, -0.031361, 0.005511, 0.000000, 0.000000, -0.019885, 0.022546, -0.006970, -0.018668, 0.035607, -0.022770, 0.010210, 0.014587, -0.089886, 0.087298, 0.030546, 0.020246, -0.006995, 0.015868, 0.000000, 0.000000, 0.036033, -0.020638, 0.037640, -0.066862, 0.010064, -0.086231, 0.021769, 0.076281, 0.022122, -0.018499, -0.006783, 0.016378, -0.013907, -0.034394, 0.000000, 0.000000, -0.007139, -0.006930, -0.031427, 0.018415, 0.056202, 0.022964, -0.022700, 0.004722, 0.080349, 0.002939, -0.006042, -0.020839, 0.010058, -0.052064, 0.000000, 0.000000, 0.014397, -0.012860, 
0.011533, -0.083339, 0.031464, -0.031532, 0.048368, 0.151160, -0.066953, -0.007883, -0.065385, -0.066330, 0.025932, -0.006634, 0.000000, 0.000000, 0.025202, -0.007977, 0.012993, 0.002638, -0.020477, 0.109259, 0.039591, -0.042359, -0.001392, -0.062775, -0.001846, 0.001239, 0.036841, 0.003055, 0.000000, 0.000000, -0.001166, -0.023610, -0.018150, 0.000560, -0.032122, -0.012287, -0.069133, 0.032988, 0.007710, -0.021264, 0.020473, -0.020148, -0.023978, 0.023397, 0.000000, 0.000000, -0.067828, -0.008095, -0.000758, 0.034115, -0.001240, -0.015901, 0.005625, 0.023593, -0.039130, 0.031001, 0.006323, -0.012260, 0.007498, 0.028016, 0.000000, 0.000000, 0.001792, -0.001002, 0.004161, -0.051911, -0.008418, 0.006906, -0.008385, -0.006301, 0.011035, -0.013660, -0.097481, 0.021615, 0.014894, -0.033031, 0.000000, 0.000000, 0.020994, 0.021250, -0.028907, 0.008913, 0.049334, 0.008806, -0.028670, 0.031697, -0.014699, 0.060513, -0.003678, 0.035280, -0.065400, 0.033685, 0.000000, 0.000000, -0.051463, 0.010661, -0.047091, -0.003348, -0.075592, 0.039389, -0.007836, 0.008592, 0.024162, -0.011156, 0.001780, 0.026870, -0.020710, 0.001552, 0.000000, 0.000000, -0.027520, 0.023344, 0.012824, -0.032572, 0.052479, -0.029076, 0.001372, 0.008506, -0.085226, 0.107286, 0.030040, 0.025355, -0.013824, -0.000364, 0.000000, 0.000000, 0.035527, -0.021158, 0.025533, -0.058912, -0.000161, -0.084256, 0.021352, 0.072814, 0.032040, -0.013784, -0.011065, 0.010085, -0.017531, -0.035082, 0.000000, 0.000000, -0.000327, -0.005202, -0.042353, 0.020081, 0.045643, 0.022931, -0.018278, 0.011189, 0.075304, 0.000192, 0.004442, -0.032413, 0.011158, -0.033563, 0.000000, 0.000000, 0.008860, -0.018982, 
0.006304, -0.092044, 0.044604, -0.039877, 0.022414, 0.188857, -0.079852, -0.001836, -0.064409, -0.100685, 0.035529, -0.004039, 0.000000, 0.000000, 0.027169, 0.009867, 0.029623, -0.011224, -0.015996, 0.110573, 0.017992, -0.030519, -0.016837, -0.061386, 0.003827, 0.000804, 0.030821, 0.007751, 0.000000, 0.000000, 0.007950, -0.022522, -0.011038, -0.001940, -0.034098, 0.001424, -0.065884, 0.031976, -0.002604, -0.022655, 0.009021, -0.008619, -0.020514, 0.016415, 0.000000, 0.000000, -0.067249, -0.008431, 0.000177, 0.023810, -0.003260, -0.011483, -0.004490, 0.023540, -0.028613, 0.023235, 0.017111, -0.015061, 0.005657, 0.024000, 0.000000, 0.000000, 0.001312, 0.001044, -0.003087, -0.051540, -0.003350, 0.000271, -0.008310, -0.006388, 0.012016, -0.007994, -0.087273, 0.025449, 0.012519, -0.031112, 0.000000, 0.000000, 0.008875, 0.019858, -0.043588, 0.021450, 0.034598, 0.012664, -0.037016, 0.016743, -0.011311, 0.051025, 0.016636, 0.032398, -0.042277, 0.030358, 0.000000, 0.000000, -0.049361, 0.011212, -0.043798, -0.008638, -0.075313, 0.041840, 0.000456, 0.006794, 0.037216, -0.020000, -0.001705, 0.033611, -0.040652, 0.018295, 0.000000, 0.000000, -0.017568, 0.020372, 0.017931, -0.033020, 0.064691, -0.029188, 0.005079, 0.005092, -0.074755, 0.100234, 0.007463, 0.023649, -0.018412, -0.010693, 0.000000, 0.000000, 0.030671, -0.007345, 0.014899, -0.065786, 0.001152, -0.071453, 0.013158, 0.075413, 0.028035, -0.012860, -0.008295, 0.002740, -0.015179, -0.043966, 0.000000, 0.000000, 0.001163, 0.002362, -0.043565, 0.027966, 0.040910, 0.035114, -0.009762, 0.005521, 0.064143, 0.010564, 0.009520, -0.027279, 0.009510, -0.037602, 0.000000, 0.000000, 0.009932, -0.030133, 
-0.003299, -0.085344, 0.050353, -0.035133, 0.010006, 0.182612, -0.075895, 0.007577, -0.043320, -0.096750, 0.045192, -0.018193, 0.000000, 0.000000, 0.018531, 0.010086, 0.038952, -0.033236, -0.006750, 0.095953, 0.003934, -0.007413, -0.018491, -0.058795, 0.013974, -0.003182, 0.028308, 0.010614, 0.000000, 0.000000, 0.003933, -0.023453, -0.012803, -0.009184, -0.026696, -0.006072, -0.055224, 0.039344, -0.004335, -0.010087, 0.002261, -0.006726, -0.023902, 0.016316, 0.000000, 0.000000, -0.061457, -0.003438, -0.018174, 0.034510, 0.001156, -0.019690, 0.017708, 0.011247, -0.034341, 0.031462, 0.004569, -0.005226, 0.014079, 0.016580, 0.000000, 0.000000, 0.003745, -0.004308, -0.004117, -0.059219, -0.005131, 0.002742, -0.014309, -0.003603, 0.017749, -0.012507, -0.080523, 0.029846, 0.017887, -0.018516, 0.000000, 0.000000, 0.005884, 0.016470, -0.040900, 0.025634, 0.029660, 0.028632, -0.030950, 0.011649, -0.017864, 0.044910, 0.015785, 0.030438, -0.046447, 0.023724, 0.000000, 0.000000, -0.038389, 0.009875, -0.037284, -0.008343, -0.077241, 0.034080, -0.018575, 0.020810, 0.023487, -0.017070, -0.001677, 0.020388, -0.042690, 0.015447, 0.000000, 0.000000, -0.006884, 0.018343, 0.016369, -0.039107, 0.064636, -0.044131, -0.009154, 0.008564, -0.057786, 0.109453, 0.012721, 0.024728, -0.037315, 0.005815, 0.000000, 0.000000, 0.031138, -0.011098, 0.006067, -0.067177, -0.003631, -0.063511, 0.014800, 0.062654, 0.038332, -0.013407, 0.013673, 0.001035, -0.006578, -0.043480, 0.000000, 0.000000, -0.010322, -0.006264, -0.046833, 0.031571, 0.040778, 0.034957, -0.006174, 0.007668, 0.050300, 0.008733, 0.008818, -0.035478, 0.030616, -0.037463, 0.000000, 0.000000, 0.007488, -0.020830, 
0.000555, -0.079377, 0.042848, -0.017605, 0.010639, 0.164960, -0.066528, -0.005901, -0.021497, -0.112638, 0.042204, -0.016125, 0.000000, 0.000000, 0.026665, 0.005672, 0.049082, -0.055990, 0.004969, 0.085430, -0.018771, 0.014656, -0.022601, -0.049679, 0.017961, 0.000607, 0.011725, 0.012033, 0.000000, 0.000000, 0.010156, -0.017348, -0.008736, -0.020849, -0.024371, -0.014461, -0.041824, 0.044156, -0.010674, 0.003476, -0.005753, -0.010966, -0.015601, 0.006979, 0.000000, 0.000000, -0.063813, -0.001189, -0.016435, 0.032062, 0.007555, -0.012606, 0.011981, 0.010745, -0.028405, 0.029363, 0.003900, -0.002022, 0.004085, 0.020080, 0.000000, 0.000000, 0.010023, -0.009117, 0.010686, -0.055268, -0.008997, 0.008830, -0.025565, -0.010075, 0.023441, -0.009198, -0.077014, 0.034745, 0.017956, -0.006633, 0.000000, 0.000000, -0.000216, 0.015322, -0.027574, 0.027965, 0.035134, 0.010961, -0.039987, -0.000998, -0.023329, 0.047863, 0.003983, 0.039367, -0.042311, 0.030991, 0.000000, 0.000000, -0.035520, 0.017933, -0.048066, -0.017331, -0.062873, 0.015622, -0.010021, 0.018142, 0.018144, -0.020234, 0.001954, 0.022919, -0.036264, 0.017649, 0.000000, 0.000000, -0.018389, 0.010506, 0.006927, -0.028369, 0.047967, -0.037152, -0.000098, 0.006197, -0.036893, 0.107269, 0.023750, 0.004476, -0.036464, 0.009920, 0.000000, 0.000000, 0.025762, -0.010486, 0.018402, -0.061813, -0.022045, -0.055719, 0.010098, 0.053791, 0.045969, -0.002557, 0.012828, 0.003617, -0.011821, -0.045127, 0.000000, 0.000000, -0.013223, -0.003996, -0.043104, 0.027111, 0.045700, 0.035941, -0.011699, 0.009650, 0.043427, 0.003900, -0.011961, -0.022084, 0.026651, -0.039475, 0.000000, 0.000000, 0.010260, -0.013053, 
-0.020712, -0.070536, 0.018060, -0.017916, 0.026177, 0.154834, -0.047584, -0.029038, 0.000277, -0.119180, 0.039926, -0.007353, 0.000000, 0.000000, 0.028377, -0.012057, 0.053055, -0.017019, -0.022561, 0.066523, 0.001173, -0.023747, 0.000524, -0.025314, -0.005703, 0.020269, -0.032736, 0.027363, 0.000000, 0.000000, 0.025568, -0.023721, -0.011838, -0.011281, -0.017244, -0.021529, -0.060353, 0.049019, -0.015066, -0.007793, -0.005544, -0.019741, -0.008102, 0.019082, 0.000000, 0.000000, -0.072589, 0.012571, -0.013515, 0.022534, 0.012472, -0.024712, 0.007515, 0.023766, -0.026534, 0.048357, 0.020163, -0.014456, 0.005043, 0.020911, 0.000000, 0.000000, 0.011259, -0.010860, 0.032428, -0.048365, -0.001564, 0.009466, -0.019068, -0.018809, -0.009164, -0.010683, -0.066125, 0.023566, 0.042803, -0.012038, 0.000000, 0.000000, -0.005950, 0.017080, -0.032168, 0.033614, 0.027739, 0.019263, -0.029679, -0.018025, -0.014032, 0.034068, -0.009945, 0.048216, -0.038285, 0.016045, 0.000000, 0.000000, -0.032255, 0.009660, -0.056756, -0.040928, -0.047691, 0.007032, -0.028795, 0.046084, -0.005936, 0.001319, -0.008697, 0.024351, -0.027087, 0.000919, 0.000000, 0.000000, -0.008096, 0.031759, -0.002090, -0.038451, 0.056550, -0.038859, -0.001495, 0.018712, -0.068607, 0.117979, 0.029738, -0.014382, -0.008177, 0.007365, 0.000000, 0.000000, 0.031907, 0.003815, -0.007632, -0.057312, -0.023641, -0.038244, 0.018875, 0.051011, 0.069710, -0.016450, 0.015626, -0.007081, -0.018652, -0.052727, 0.000000, 0.000000, -0.016997, -0.006491, -0.040473, 0.045143, 0.033679, 0.040274, -0.017507, -0.018361, 0.055896, -0.003723, -0.005264, -0.015454, 0.043559, -0.038894, 0.000000, 0.000000, -0.006317, -0.017527, 
-0.019756, -0.043234, -0.002928, 0.012658, -0.000159, 0.147609, -0.053394, -0.046418, 0.020681, -0.126799, 0.057393, -0.006053, 0.000000, 0.000000, 0.019538, -0.010358, 0.047686, -0.022190, -0.014102, 0.063011, 0.009993, -0.024838, 0.009373, -0.035770, -0.009829, 0.032398, -0.039572, 0.034487, 0.000000, 0.000000, 0.018825, -0.021125, -0.013931, -0.002899, -0.008613, -0.014353, -0.048095, 0.039404, -0.010092, -0.012732, -0.001401, -0.016260, -0.016178, 0.013014, 0.000000, 0.000000, -0.063491, 0.014220, -0.000741, 0.030178, 0.020713, -0.027686, 0.010700, 0.006884, -0.030824, 0.045302, 0.022557, -0.015706, 0.009130, 0.017721, 0.000000, 0.000000, 0.013827, -0.001296, 0.046780, -0.066827, -0.020327, 0.010975, -0.024619, 0.001586, -0.020202, -0.002226, -0.058483, 0.023445, 0.044958, -0.008733, 0.000000, 0.000000, -0.017489, 0.010163, -0.023205, 0.021983, 0.023586, 0.028142, -0.032130, -0.012612, -0.020577, 0.035311, -0.022040, 0.045307, -0.018949, 0.001791, 0.000000, 0.000000, -0.038376, 0.011105, -0.060208, -0.034133, -0.040059, 0.012837, -0.043729, 0.043171, -0.000913, 0.009781, -0.009668, 0.019702, -0.032427, -0.009142, 0.000000, 0.000000, -0.005389, 0.035691, -0.017567, -0.034456, 0.058552, -0.029981, 0.011854, 0.015048, -0.061783, 0.114591, 0.020878, -0.021487, -0.023596, 0.006494, 0.000000, 0.000000, 0.027042, 0.022918, -0.005043, -0.062163, -0.013285, -0.043704, 0.027949, 0.052718, 0.056996, -0.012108, 0.010567, -0.001787, -0.010011, -0.051940, 0.000000, 0.000000, -0.016399, -0.016442, -0.038196, 0.044221, 0.022336, 0.036674, -0.004895, -0.014313, 0.058580, 0.004750, -0.003172, -0.023918, 0.054641, -0.037574, 0.000000, 0.000000, -0.009646, -0.021214, 
-0.013084, -0.050158, 0.016582, 0.005123, 0.004430, 0.128871, -0.049614, -0.031449, 0.033444, -0.137768, 0.054476, -0.010763, 0.000000, 0.000000, 0.024653, -0.001271, 0.039361, -0.044447, -0.014058, 0.052608, 0.023245, -0.000650, 0.027619, -0.049673, -0.018130, 0.019753, -0.046512, 0.027905, 0.000000, 0.000000, 0.029902, -0.017777, -0.019618, -0.004715, -0.009784, -0.012045, -0.044918, 0.042309, -0.010497, -0.009511, 0.006248, -0.016053, -0.030125, 0.017559, 0.000000, 0.000000, -0.056071, 0.007638, 0.002895, 0.028339, 0.013556, -0.021812, 0.003795, 0.010354, -0.026219, 0.047758, 0.015671, -0.012256, 0.004857, 0.015930, 0.000000, 0.000000, 0.025912, -0.003334, 0.053256, -0.088868, -0.006110, -0.003121, -0.027206, 0.013458, -0.017696, 0.002549, -0.055485, 0.020494, 0.037059, -0.004264, 0.000000, 0.000000, -0.022578, 0.016721, -0.026115, 0.038087, 0.015575, 0.034361, -0.026753, -0.025961, -0.018114, 0.044508, -0.035839, 0.048192, -0.019490, -0.001736, 0.000000, 0.000000, -0.038102, 0.013894, -0.049426, -0.040191, -0.033853, 0.020915, -0.039622, 0.041939, 0.009525, 0.002289, -0.006762, -0.000117, -0.026202, -0.002656, 0.000000, 0.000000, -0.002659, 0.030202, -0.014833, -0.018427, 0.054393, -0.036569, 0.007297, 0.004355, -0.044027, 0.107759, 0.020233, -0.021238, -0.030600, 0.000918, 0.000000, 0.000000, 0.031408, 0.034451, -0.005627, -0.047357, -0.009911, -0.040563, 0.025126, 0.043298, 0.044075, -0.017108, 0.011203, 0.012436, -0.011882, -0.052152, 0.000000, 0.000000, -0.022311, -0.019039, -0.041294, 0.043762, 0.025072, 0.043581, -0.003932, -0.009819, 0.048311, 0.024215, 0.002700, -0.020773, 0.055875, -0.041573, 0.000000, 0.000000, -0.015769, -0.025973, 
-0.014386, -0.050265, 0.009369, 0.000449, -0.005926, 0.143051, -0.041013, -0.026128, 0.035496, -0.135853, 0.043648, 0.002451, 0.000000, 0.000000, 0.030528, -0.009936, 0.061489, -0.053079, -0.001974, 0.034203, 0.002731, -0.007508, 0.019867, -0.023908, -0.005738, 0.019015, -0.039595, 0.017453, 0.000000, 0.000000, 0.024906, -0.012509, -0.005279, -0.013167, -0.009177, 0.002474, -0.037707, 0.043013, -0.012199, -0.009146, 0.005414, -0.022456, -0.021897, 0.015378, 0.000000, 0.000000, -0.061414, 0.018985, 0.001485, 0.020709, 0.012185, -0.022425, 0.010089, 0.005964, -0.013172, 0.033499, 0.014546, -0.015461, 0.001269, 0.011605, 0.000000, 0.000000, 0.038104, -0.000842, 0.051406, -0.076787, -0.005566, -0.008755, -0.047610, 0.011720, -0.014658, -0.001669, -0.048832, 0.030660, 0.029411, -0.012459, 0.000000, 0.000000, -0.015528, 0.013815, -0.033512, 0.040889, 0.005532, 0.046399, -0.008092, -0.025143, -0.012270, 0.046838, -0.046758, 0.048570, -0.027435, 0.001970, 0.000000, 0.000000, -0.034313, 0.016839, -0.049482, -0.058394, -0.014439, 0.019601, -0.026124, 0.054193, -0.005074, 0.004846, -0.014446, -0.008626, -0.022815, -0.002044, 0.000000, 0.000000, -0.002450, 0.027187, 0.001086, -0.024130, 0.048442, -0.028918, 0.019768, -0.005675, -0.037225, 0.094864, 0.005894, -0.011368, -0.030349, 0.011562, 0.000000, 0.000000, 0.036089, 0.036250, -0.004107, -0.038777, -0.012428, -0.036629, 0.022965, 0.035706, 0.041709, -0.010393, -0.005363, 0.021185, -0.007273, -0.060633, 0.000000, 0.000000, -0.015283, -0.013638, -0.042566, 0.034629, 0.042131, 0.041309, -0.026374, 0.008929, 0.043543, 0.020538, 0.022083, -0.025519, 0.043156, -0.028317, 0.000000, 0.000000, -0.018714, -0.038730, 
-0.027761, -0.037761, 0.006447, -0.007541, 0.006227, 0.119752, -0.042884, -0.006143, 0.016853, -0.095748, 0.044789, -0.002937, 0.000000, 0.000000, 0.021176, -0.002325, 0.058612, -0.046542, -0.014303, 0.061272, 0.006011, 0.007999, 0.009010, -0.046950, -0.026693, 0.003949, -0.030939, 0.025612, 0.000000, 0.000000, 0.023958, 0.001551, -0.011971, -0.018755, -0.010000, 0.001169, -0.050848, 0.037182, -0.003239, -0.010158, 0.009799, -0.013033, -0.011225, 0.003306, 0.000000, 0.000000, -0.055071, 0.021053, -0.001296, 0.015099, 0.014754, -0.021998, 0.018293, 0.001422, -0.003558, 0.026699, -0.005425, -0.009343, 0.003365, 0.011041, 0.000000, 0.000000, 0.045116, 0.004435, 0.043349, -0.075385, -0.012145, -0.001351, -0.056113, 0.009583, -0.005123, 0.000151, -0.029643, 0.010080, 0.021992, -0.001714, 0.000000, 0.000000, -0.011304, 0.003590, -0.024336, 0.025551, 0.012885, 0.043833, -0.007109, -0.020238, -0.003708, 0.041998, -0.030791, 0.044549, -0.034643, -0.012777, 0.000000, 0.000000, -0.046172, 0.007633, -0.040758, -0.066502, -0.017731, 0.024786, -0.005215, 0.061606, -0.002377, -0.011530, -0.019678, 0.011117, -0.006734, 0.011320, 0.000000, 0.000000, -0.023070, 0.029961, 0.004060, -0.035111, 0.077287, -0.018085, 0.015187, 0.007063, -0.036888, 0.102374, 0.007108, -0.008980, -0.049569, 0.027257, 0.000000, 0.000000, 0.044207, 0.034566, -0.012928, -0.040244, -0.010496, -0.035737, 0.010467, 0.016176, 0.041087, -0.013307, 0.001756, 0.025100, -0.024596, -0.056022, 0.000000, 0.000000, 0.001287, -0.004721, -0.045186, 0.029223, 0.031852, 0.030667, -0.023980, 0.008517, 0.048395, 0.009867, 0.023917, -0.028792, 0.052480, -0.031350, 0.000000, 0.000000, -0.020786, -0.043069, 
-0.015317, -0.026700, 0.016642, -0.014166, 0.001990, 0.095789, -0.034130, -0.017214, 0.010581, -0.085479, 0.051148, 0.007650, 0.000000, 0.000000, -0.000992, -0.008679, 0.070969, -0.035501, -0.028239, 0.079417, 0.004842, -0.003300, 0.015053, -0.058894, -0.010635, 0.000721, -0.017373, 0.011059, 0.000000, 0.000000, 0.020623, 0.002013, -0.001733, -0.027166, -0.010189, 0.004905, -0.049830, 0.023867, 0.004818, -0.002350, 0.011970, -0.016005, 0.000593, -0.001125, 0.000000, 0.000000, -0.060748, 0.022174, -0.006052, -0.000848, 0.014569, -0.013726, 0.020350, 0.012240, 0.008940, 0.007824, 0.001225, -0.017776, 0.009333, 0.006430, 0.000000, 0.000000, 0.047242, -0.000565, 0.028141, -0.068691, -0.016848, -0.004897, -0.065155, 0.016952, -0.007776, -0.007471, -0.035366, 0.006327, 0.040413, -0.011255, 0.000000, 0.000000, -0.024043, 0.013953, -0.020868, 0.042495, -0.002618, 0.038266, -0.027810, -0.012046, -0.019111, 0.059644, -0.022565, 0.045005, -0.027971, -0.002237, 0.000000, 0.000000, -0.048314, 0.013140, -0.024595, -0.069071, -0.031020, 0.030811, -0.003842, 0.055455, 0.000350, -0.010262, -0.023856, 0.012660, -0.016803, 0.015575, 0.000000, 0.000000, -0.025809, 0.036894, -0.017249, -0.030614, 0.097297, -0.015102, 0.047009, -0.017598, -0.004993, 0.099152, 0.020268, -0.001888, -0.060740, 0.014707, 0.000000, 0.000000, 0.052893, 0.018702, -0.016345, -0.042512, -0.004211, -0.038010, 0.014614, 0.011967, 0.035283, -0.013152, 0.008443, 0.004179, -0.002032, -0.054022, 0.000000, 0.000000, 0.014367, -0.011514, -0.042049, 0.021107, 0.023864, 0.027128, -0.034447, 0.017384, 0.039212, 0.003593, 0.007801, -0.028289, 0.040010, -0.023658, 0.000000, 0.000000, -0.017361, -0.028867, 
0.011896, -0.048261, 0.042092, -0.025046, 0.012052, 0.056949, -0.031183, -0.003749, 0.002009, -0.068816, 0.038197, 0.009553, 0.000000, 0.000000, 0.012138, 0.004666, 0.059698, -0.047144, 0.014881, 0.050534, 0.025474, -0.019054, 0.001039, -0.046590, -0.022619, 0.023589, -0.011468, -0.001215, 0.000000, 0.000000, 0.004714, 0.000063, -0.010891, -0.022511, -0.011585, 0.016861, -0.045232, 0.046910, -0.003086, -0.002113, -0.001511, -0.015238, -0.003187, -0.017084, 0.000000, 0.000000, -0.051537, 0.023053, -0.022365, 0.006854, 0.009532, -0.008718, 0.016446, 0.008314, 0.015601, 0.006802, 0.003855, -0.025299, -0.009773, 0.004067, 0.000000, 0.000000, 0.054039, 0.008149, 0.023449, -0.059724, -0.023673, 0.001156, -0.057368, -0.001410, 0.006177, -0.010252, -0.024738, 0.006630, 0.035105, -0.009715, 0.000000, 0.000000, -0.027110, 0.008748, -0.014251, 0.033853, 0.005143, 0.036187, -0.019470, -0.010978, -0.025413, 0.067367, -0.042103, 0.035498, -0.018873, 0.002074, 0.000000, 0.000000, -0.042248, 0.028439, -0.022583, -0.070383, -0.007449, 0.010046, 0.002979, 0.054250, 0.010020, -0.003390, -0.015639, 0.019204, 0.002571, 0.006362, 0.000000, 0.000000, -0.021770, 0.036230, -0.014190, -0.031668, 0.091436, -0.007026, 0.038470, -0.018477, 0.025475, 0.077215, 0.027762, 0.013404, -0.065577, 0.013950, 0.000000, 0.000000, 0.038364, 0.007577, -0.011520, -0.058700, -0.006215, -0.014843, 0.001099, 0.018730, 0.026771, -0.018173, 0.008406, -0.011710, -0.012456, -0.038057, 0.000000, 0.000000, 0.010117, -0.007749, -0.047451, 0.000588, 0.022703, 0.022302, -0.019183, 0.026864, 0.033882, 0.012450, 0.008468, -0.039652, 0.029703, -0.022873, 0.000000, 0.000000, -0.003008, -0.027212, 
0.012079, -0.063590, 0.041792, -0.002573, 0.033000, 0.056742, -0.027490, -0.033638, 0.002805, -0.092529, 0.056060, 0.015240, 0.000000, 0.000000, 0.010056, 0.004809, 0.077389, -0.031927, 0.011199, 0.053138, 0.018950, -0.056277, 0.007444, -0.051604, -0.014872, 0.035869, 0.002068, -0.018571, 0.000000, 0.000000, -0.008454, 0.003027, -0.013386, -0.024143, 0.000892, 0.019844, -0.047545, 0.053974, -0.021588, -0.001030, 0.003855, -0.006883, 0.005064, -0.008327, 0.000000, 0.000000, -0.061276, 0.016403, -0.026257, 0.012265, 0.016367, -0.016817, 0.009113, 0.009184, 0.017756, 0.011479, 0.009116, -0.016563, -0.012204, 0.008296, 0.000000, 0.000000, 0.056158, 0.005644, 0.009368, -0.055384, -0.026408, 0.002230, -0.046331, -0.002220, 0.020865, -0.017774, -0.029440, 0.008445, 0.023457, -0.003761, 0.000000, 0.000000, -0.027338, 0.010654, -0.028021, 0.028986, 0.033310, 0.028482, -0.009233, -0.014615, -0.025106, 0.073877, -0.039102, 0.022582, -0.013461, -0.010349, 0.000000, 0.000000, -0.041793, 0.014346, -0.037078, -0.061937, 0.003538, -0.014619, 0.000015, 0.043118, -0.000771, 0.012311, -0.004834, 0.018784, 0.008639, 0.009254, 0.000000, 0.000000, -0.020817, 0.034582, 0.021656, -0.029294, 0.072754, 0.007814, 0.040204, -0.024639, 0.015134, 0.072754, 0.008267, 0.021968, -0.061523, -0.010212, 0.000000, 0.000000, 0.032124, 0.014313, 0.003298, -0.061441, -0.011670, -0.004157, -0.004330, 0.027099, 0.029574, -0.013146, 0.006225, -0.015315, -0.015330, -0.033741, 0.000000, 0.000000, 0.003851, -0.007525, -0.060715, 0.014332, 0.025747, 0.013466, -0.021413, 0.026324, 0.033896, 0.022947, 0.021285, -0.046079, 0.025798, -0.004515, 0.000000, 0.000000, -0.002978, -0.021083, 
0.008324, -0.049744, 0.037619, -0.000200, 0.028987, 0.044386, -0.002643, -0.042392, -0.019401, -0.084455, 0.038743, 0.013485, 0.000000, 0.000000, 0.028661, 0.026035, 0.074903, -0.037875, 0.010690, 0.059375, 0.024772, -0.058865, 0.031241, -0.078093, 0.006054, 0.021328, -0.000521, -0.010770, 0.000000, 0.000000, -0.002591, 0.001048, -0.023899, -0.013299, 0.000225, 0.022879, -0.044618, 0.053159, -0.034541, -0.008364, 0.005746, 0.004124, 0.013312, -0.000812, 0.000000, 0.000000, -0.064459, 0.029372, -0.018383, 0.010378, 0.014918, -0.005687, -0.008431, 0.027518, 0.007584, 0.007301, 0.012584, -0.019833, -0.008371, 0.018790, 0.000000, 0.000000, 0.054338, 0.001803, 0.012264, -0.052303, -0.019362, 0.001567, -0.035797, -0.014142, 0.027117, -0.021733, -0.022081, 0.009434, 0.018737, -0.000102, 0.000000, 0.000000, -0.022195, 0.008950, 0.001554, 0.022911, 0.034996, 0.014888, -0.026220, -0.005682, -0.019044, 0.062581, -0.033457, 0.017869, -0.029243, 0.000749, 0.000000, 0.000000, -0.024280, 0.003812, -0.033806, -0.079716, 0.003899, -0.023093, -0.000574, 0.056271, -0.005096, 0.012387, -0.010288, 0.018565, 0.002623, 0.019628, 0.000000, 0.000000, -0.016862, 0.015012, 0.004033, -0.022257, 0.068441, 0.029887, 0.042665, -0.022437, 0.006019, 0.068533, 0.008177, 0.024722, -0.051239, 0.000831, 0.000000, 0.000000, 0.032182, 0.011785, 0.010536, -0.042405, -0.018881, -0.000490, -0.000538, 0.014538, 0.038267, -0.010408, 0.002973, -0.013366, -0.018371, -0.038542, 0.000000, 0.000000, 0.005037, 0.007174, -0.050249, 0.010103, 0.027863, -0.001527, -0.017038, 0.018230, 0.052568, 0.026843, 0.022284, -0.062658, 0.028211, -0.010425, 0.000000, 0.000000, -0.012892, -0.008323, 
0.008204, 0.013974, 0.001756, -0.011050, 0.050000, -0.024901, 0.007611, -0.016977, -0.036885, -0.070909, 0.036369, 0.005967, 0.000000, 0.000000, 0.045916, 0.028071, 0.050967, -0.022940, 0.001673, 0.052710, 0.020545, -0.042643, 0.023759, -0.062602, 0.004232, 0.013433, -0.000380, -0.010312, 0.000000, 0.000000, -0.006101, 0.008563, -0.028444, -0.025788, 0.009990, 0.023335, -0.046029, 0.073628, -0.038271, -0.015462, 0.001253, 0.000588, 0.022681, 0.000099, 0.000000, 0.000000, -0.071074, 0.023480, -0.024562, 0.005231, 0.001839, -0.000830, 0.008819, 0.025522, 0.011298, -0.003067, 0.013220, -0.026067, -0.006792, 0.033338, 0.000000, 0.000000, 0.044730, 0.001213, 0.017124, -0.039617, -0.028837, 0.000317, -0.036230, -0.016064, 0.021414, -0.024608, -0.013379, 0.002131, 0.021266, 0.005310, 0.000000, 0.000000, -0.026286, 0.020666, -0.022633, 0.023505, 0.035415, 0.020692, -0.035419, -0.001004, -0.010939, 0.063935, -0.024136, 0.019638, -0.022674, -0.002828, 0.000000, 0.000000, -0.023498, 0.007761, -0.032849, -0.069901, 0.020946, -0.025763, -0.001382, 0.049768, -0.005637, 0.000398, -0.015936, 0.009225, 0.010552, 0.011703, 0.000000, 0.000000, -0.014871, 0.010306, 0.018636, -0.024694, 0.048772, 0.023004, 0.043292, -0.030953, 0.018519, 0.065931, -0.002448, 0.026287, -0.038317, -0.017651, 0.000000, 0.000000, 0.018660, 0.014986, 0.001184, -0.049178, -0.024308, 0.017046, 0.005117, 0.012385, 0.035715, -0.019372, 0.007373, -0.004098, -0.019031, -0.040193, 0.000000, 0.000000, -0.007451, 0.012834, -0.045474, 0.010234, 0.031394, -0.003278, -0.011739, 0.021125, 0.029906, 0.032144, 0.017605, -0.065369, 0.037970, 0.003774, 0.000000, 0.000000, -0.010945, -0.009986, 
0.015145, -0.030061, 0.011119, -0.036515, 0.037325, 0.033404, 0.007349, 0.008391, -0.046613, -0.069796, 0.010214, 0.012546, 0.000000, 0.000000, 0.043634, 0.022635, 0.069940, -0.040514, 0.023718, 0.026302, -0.003861, -0.028369, 0.016272, -0.025210, 0.006329, 0.016137, -0.011341, -0.009050, 0.000000, 0.000000, 0.005794, -0.013628, -0.025974, -0.024483, -0.003760, 0.036497, -0.046642, 0.061123, -0.018156, -0.026166, 0.003533, -0.000578, 0.000654, 0.015764, 0.000000, 0.000000, -0.061297, 0.022553, -0.028822, 0.015653, -0.008250, -0.007596, 0.020130, 0.017768, 0.018958, 0.002759, -0.007976, -0.010650, -0.006438, 0.034164, 0.000000, 0.000000, 0.032887, -0.000981, 0.028069, -0.036888, -0.027317, -0.001203, -0.036419, -0.027136, 0.022133, -0.023897, 0.004443, 0.001279, 0.016313, -0.006010, 0.000000, 0.000000, -0.033857, 0.020332, -0.022233, 0.022457, 0.032982, 0.017032, -0.052982, 0.003236, -0.019407, 0.065215, -0.003820, 0.002306, -0.009197, -0.005380, 0.000000, 0.000000, -0.015142, -0.004970, -0.033023, -0.067286, 0.009003, -0.015334, -0.006013, 0.041584, 0.002836, 0.005447, -0.024869, -0.002708, 0.023652, 0.007127, 0.000000, 0.000000, -0.008987, 0.025616, 0.018930, -0.027556, 0.052652, 0.011545, 0.062198, -0.037122, 0.020884, 0.067473, -0.016575, 0.032425, -0.033053, -0.019593, 0.000000, 0.000000, 0.014984, 0.013651, -0.003444, -0.049904, -0.031218, 0.017946, -0.009210, 0.035759, 0.025253, -0.010736, 0.015606, -0.014204, -0.027142, -0.045816, 0.000000, 0.000000, -0.005586, 0.003502, -0.045383, 0.019632, 0.018873, 0.006548, -0.037645, 0.032617, 0.028395, 0.022205, 0.030299, -0.071680, 0.033960, 0.017645, 0.000000, 0.000000, -0.014122, -0.011899, 
0.010001, -0.018706, 0.013311, -0.018219, 0.066077, 0.005869, 0.023303, 0.013261, -0.028788, -0.099479, 0.001251, 0.010763, 0.000000, 0.000000, 0.054623, 0.010098, 0.007954, 0.011611, -0.007600, 0.037483, 0.040753, -0.050891, 0.019517, -0.039674, -0.002713, 0.017400, 0.002406, -0.003719, 0.000000, 0.000000, 0.001341, -0.008221, -0.030917, -0.024133, -0.012051, 0.033633, -0.044283, 0.066443, -0.017350, -0.027161, 0.005679, -0.007301, -0.000183, 0.019154, 0.000000, 0.000000, -0.061085, 0.014437, -0.022955, -0.002226, 0.015463, -0.011868, 0.026999, 0.034698, 0.001050, 0.001672, -0.015481, -0.011147, -0.012907, 0.030377, 0.000000, 0.000000, 0.035091, 0.003500, 0.040996, -0.056463, -0.019388, 0.000794, -0.043546, -0.008388, 0.020643, -0.023501, -0.000791, 0.005366, 0.007785, -0.003897, 0.000000, 0.000000, -0.033887, 0.015199, -0.010460, 0.019192, 0.017997, 0.019922, -0.043336, -0.015106, -0.010711, 0.084079, -0.002330, 0.021740, -0.021926, -0.018411, 0.000000, 0.000000, -0.015438, -0.026807, -0.028390, -0.065223, 0.014617, -0.027216, -0.015849, 0.024531, 0.002710, 0.007939, -0.012540, -0.002517, 0.018281, 0.006519, 0.000000, 0.000000, 0.011120, 0.018289, 0.011686, -0.018912, 0.056097, 0.010615, 0.066997, -0.039728, 0.020167, 0.070083, -0.032522, 0.033655, -0.024023, -0.012691, 0.000000, 0.000000, 0.018415, 0.023874, 0.005876, -0.057781, -0.029081, 0.021277, 0.016491, 0.044773, 0.017875, -0.006509, 0.004522, -0.005116, -0.023183, -0.043338, 0.000000, 0.000000, -0.026250, -0.003345, -0.046752, 0.013005, 0.016245, 0.009404, -0.044445, 0.036006, 0.023477, 0.020674, 0.034755, -0.061024, 0.024596, 0.013146, 0.000000, 0.000000, -0.016136, -0.022396, 
0.000397, 0.005562, 0.006717, -0.018207, 0.071770, -0.022265, -0.004140, 0.019536, -0.042838, -0.071108, 0.026259, 0.019505, 0.000000, 0.000000, 0.033973, 0.022918, -0.022223, 0.008099, -0.007574, 0.034067, 0.071745, -0.059408, 0.031036, -0.045000, 0.002574, 0.025069, -0.001028, 0.010708, 0.000000, 0.000000, -0.001064, -0.014498, -0.027522, -0.009365, -0.008144, 0.039619, -0.044620, 0.053888, -0.019251, -0.023222, 0.005285, -0.010285, -0.004131, 0.018201, 0.000000, 0.000000, -0.065252, 0.006835, -0.023807, 0.010820, -0.006091, -0.001639, 0.011332, 0.033930, 0.006035, 0.004519, -0.011555, -0.009408, -0.026127, 0.040178, 0.000000, 0.000000, 0.035007, 0.005940, 0.039897, -0.059370, -0.013115, -0.002471, -0.047319, -0.010952, 0.003023, -0.018160, 0.000748, -0.005004, 0.002697, 0.008718, 0.000000, 0.000000, -0.010022, 0.014246, -0.021125, 0.014493, 0.031284, 0.020344, -0.027804, -0.017375, -0.007501, 0.078180, -0.021263, 0.028262, -0.024281, -0.021507, 0.000000, 0.000000, -0.030105, 0.001109, -0.025464, -0.065439, 0.034606, -0.019699, 0.010820, 0.008474, 0.004492, 0.025447, -0.024632, 0.001993, 0.020302, 0.010960, 0.000000, 0.000000, -0.001677, 0.027347, 0.012899, -0.016688, 0.059954, 0.014635, 0.057937, -0.046082, 0.023440, 0.077351, -0.046638, 0.040507, -0.035484, 0.006220, 0.000000, 0.000000, 0.015689, 0.006136, 0.011956, -0.053556, -0.047348, 0.029218, -0.011655, 0.051417, 0.017895, -0.031225, 0.024673, -0.023424, -0.024651, -0.030762, 0.000000, 0.000000, -0.022153, -0.005611, -0.042508, 0.003832, 0.026942, 0.003107, -0.026771, 0.023770, 0.011547, 0.006875, 0.036174, -0.068030, 0.042624, -0.010535, 0.000000, 0.000000, -0.010720, -0.005732, 
0.019106, -0.009613, 0.021991, -0.038293, 0.035413, -0.014668, -0.012080, 0.033534, 0.021687, -0.103818, 0.029738, 0.007938, 0.000000, 0.000000, 0.044328, -0.005395, -0.027618, 0.014886, -0.021281, 0.033628, 0.089622, -0.071021, 0.023442, -0.036058, -0.021767, 0.044567, 0.028217, -0.004847, 0.000000, 0.000000, -0.011038, -0.002527, -0.025707, -0.002116, -0.005772, 0.016412, -0.042109, 0.033512, -0.023887, -0.015291, 0.002046, 0.004094, 0.003322, 0.018222, 0.000000, 0.000000, -0.076638, 0.018578, -0.017470, 0.000427, -0.004553, 0.007219, 0.008430, 0.031967, 0.014283, 0.008674, -0.003871, 0.010613, -0.047440, 0.033108, 0.000000, 0.000000, 0.028758, 0.004518, 0.035142, -0.055702, -0.019841, 0.005901, -0.059624, -0.003345, -0.004765, -0.005692, 0.011769, -0.030650, 0.010740, -0.006809, 0.000000, 0.000000, -0.020715, 0.019752, 0.012201, 0.031696, -0.008879, 0.037309, -0.043526, -0.018606, 0.014778, 0.075064, -0.032617, 0.009186, -0.028082, -0.026174, 0.000000, 0.000000, -0.020028, -0.008501, -0.026104, -0.060220, 0.035695, -0.017189, 0.004126, -0.004691, 0.016250, 0.015378, -0.018939, 0.015306, 0.008325, -0.002827, 0.000000, 0.000000, 0.016694, 0.024006, 0.022018, -0.040466, 0.106634, -0.000408, 0.032389, -0.049460, 0.000871, 0.084314, -0.039826, 0.045645, -0.008685, -0.004534, 0.000000, 0.000000, -0.006511, 0.017270, -0.004499, -0.048450, -0.034263, 0.022324, -0.013181, 0.058016, 0.007579, -0.022167, 0.036491, -0.037615, -0.015043, -0.018180, 0.000000, 0.000000, -0.015801, -0.008718, -0.053515, 0.004817, 0.010185, 0.019878, -0.012541, 0.025616, 0.015412, -0.005698, 0.045248, -0.060492, 0.016241, 0.010093, 0.000000, 0.000000, 0.001574, -0.002775, 
0.023287, -0.030226, 0.014803, -0.032476, 0.048074, 0.023374, -0.010543, 0.048017, -0.002921, -0.122468, 0.034387, -0.011838, 0.000000, 0.000000, 0.041363, 0.023222, -0.003165, 0.022986, -0.040243, 0.056791, 0.065497, -0.061461, 0.030117, -0.059418, -0.023676, 0.012742, 0.030174, 0.000934, 0.000000, 0.000000, 0.003983, -0.006456, -0.027782, -0.014627, -0.005952, 0.012808, -0.055803, 0.036785, -0.028452, -0.009552, -0.000064, 0.003680, 0.001338, 0.021046, 0.000000, 0.000000, -0.085743, 0.011500, -0.022550, 0.004722, -0.026601, 0.016379, 0.013615, 0.036020, 0.006932, 0.025848, -0.003693, -0.001032, -0.034555, 0.033719, 0.000000, 0.000000, 0.035622, 0.003866, 0.022567, -0.035278, -0.031962, 0.005232, -0.056466, 0.009011, 0.010573, -0.018708, 0.014364, -0.019006, -0.001520, 0.006376, 0.000000, 0.000000, -0.014073, 0.010924, 0.020681, 0.023588, 0.017062, 0.030917, -0.031021, -0.020136, 0.014388, 0.060609, -0.031635, -0.001466, -0.015720, -0.032312, 0.000000, 0.000000, -0.028047, 0.004843, -0.013505, -0.072289, 0.032114, -0.024642, 0.012931, 0.009486, 0.011277, 0.029424, -0.016442, 0.018765, 0.001941, -0.008817, 0.000000, 0.000000, 0.009996, 0.021616, 0.006620, -0.039176, 0.092871, -0.013997, 0.025402, -0.041821, -0.004165, 0.093863, -0.021565, 0.040059, -0.006677, 0.005766, 0.000000, 0.000000, 0.016322, -0.004516, -0.008038, -0.049482, -0.014931, 0.008792, -0.028849, 0.028243, 0.012025, -0.012348, 0.046253, -0.027900, -0.019988, 0.004736, 0.000000, 0.000000, -0.021554, -0.003396, -0.041049, -0.002150, 0.016460, 0.021909, -0.006616, 0.013669, 0.008271, -0.008247, 0.022210, -0.061234, 0.026854, 0.009050, 0.000000, 0.000000, -0.000074, 0.005890, 
-0.000299, 0.001861, 0.019322, -0.035869, 0.057781, -0.000228, -0.020065, 0.039588, -0.001133, -0.092231, 0.028085, 0.004154, 0.000000, 0.000000, 0.042756, 0.003419, -0.044266, 0.041428, -0.065102, 0.062319, 0.101606, -0.061295, 0.019599, -0.047251, -0.039115, 0.020776, 0.029905, 0.004708, 0.000000, 0.000000, -0.024004, 0.018120, -0.027439, -0.017333, -0.009125, 0.012066, -0.049819, 0.048205, -0.026036, -0.003464, -0.012055, -0.001139, 0.004856, 0.011985, 0.000000, 0.000000, -0.073625, 0.025929, -0.027006, 0.003550, -0.006296, -0.002056, 0.008506, 0.031797, -0.012147, 0.029691, 0.002773, 0.003317, -0.032316, 0.032136, 0.000000, 0.000000, 0.020638, 0.004544, 0.015811, -0.039899, -0.022264, -0.001982, -0.076791, 0.020425, 0.002893, -0.012908, 0.022072, -0.013420, -0.008610, 0.006022, 0.000000, 0.000000, -0.020860, 0.010089, 0.032468, 0.004804, 0.037361, 0.029776, -0.039223, -0.012559, 0.025929, 0.055936, -0.037050, -0.004313, -0.030979, -0.032379, 0.000000, 0.000000, -0.034686, 0.008127, -0.009006, -0.072085, 0.021702, -0.004784, 0.038632, 0.004585, 0.030366, 0.015073, -0.029855, 0.021286, 0.005907, -0.017548, 0.000000, 0.000000, -0.007432, 0.025174, -0.007648, -0.040359, 0.088653, -0.007213, 0.035473, -0.039532, 0.002210, 0.087900, -0.020105, 0.037774, -0.010020, 0.009077, 0.000000, 0.000000, 0.013787, -0.001178, 0.011623, -0.062203, -0.021930, 0.003533, -0.050038, 0.037835, 0.004023, -0.001657, 0.061513, -0.042885, -0.030552, 0.003365, 0.000000, 0.000000, -0.014360, 0.001701, -0.038304, 0.005857, 0.010665, 0.015652, -0.015824, 0.018290, 0.013215, -0.013057, 0.028439, -0.061583, 0.034561, 0.007920, 0.000000, 0.000000, 0.005850, 0.002884, 
0.000852, -0.010635, 0.021413, -0.027943, 0.057853, 0.028045, -0.019900, 0.015584, -0.015124, -0.106930, 0.016256, 0.019037, 0.000000, 0.000000, 0.053323, 0.008171, -0.008501, 0.038909, -0.075625, 0.075693, 0.078673, -0.057324, 0.037005, -0.061188, -0.034859, 0.011827, 0.025561, 0.006511, 0.000000, 0.000000, -0.014331, 0.013973, -0.017026, -0.027513, -0.008993, 0.008732, -0.060773, 0.056310, -0.019623, -0.001163, 0.000132, -0.000233, -0.005892, 0.018943, 0.000000, 0.000000, -0.072115, 0.016164, -0.023615, 0.008168, -0.016297, -0.000064, -0.002511, 0.036870, -0.017784, 0.031236, 0.012769, -0.004023, -0.031023, 0.033634, 0.000000, 0.000000, 0.020827, 0.012447, 0.012159, -0.055472, -0.011348, 0.001058, -0.066226, 0.024506, 0.013527, -0.020572, 0.012824, -0.012160, -0.019015, 0.012819, 0.000000, 0.000000, -0.017226, 0.013176, 0.041264, 0.009280, 0.035362, 0.026379, -0.041062, -0.009834, 0.024129, 0.053998, -0.027944, -0.009787, -0.024150, -0.031629, 0.000000, 0.000000, -0.035808, 0.023481, -0.008069, -0.080763, 0.008344, -0.006614, 0.021862, 0.026227, 0.015374, 0.023310, -0.038308, 0.020474, 0.015341, -0.008005, 0.000000, 0.000000, -0.014791, 0.021313, -0.015664, -0.020857, 0.069999, -0.007184, 0.030959, -0.042048, 0.009337, 0.078687, -0.015939, 0.021809, -0.005070, 0.014840, 0.000000, 0.000000, 0.027758, -0.015653, 0.005158, -0.064771, -0.016455, 0.003042, -0.028251, 0.034506, 0.011629, -0.005760, 0.057455, -0.029004, -0.029471, 0.001114, 0.000000, 0.000000, -0.010284, 0.004023, -0.041582, -0.005252, 0.025672, 0.016556, -0.009539, 0.022174, 0.008192, -0.006107, 0.026814, -0.049996, 0.018138, 0.008935, 0.000000, 0.000000, 0.005242, 0.003176, 
0.000656, -0.022694, 0.026576, -0.039846, 0.056414, 0.029939, -0.011842, 0.036253, -0.025486, -0.103073, 0.006418, 0.003520, 0.000000, 0.000000, 0.059111, 0.013098, -0.035157, 0.038332, -0.063844, 0.061696, 0.099259, -0.040287, 0.014235, -0.036407, -0.049463, 0.008856, 0.030579, -0.009207, 0.000000, 0.000000, -0.018548, 0.028880, -0.013964, -0.027835, -0.006822, 0.007989, -0.066722, 0.058980, -0.025593, -0.004888, -0.000922, -0.005370, -0.004785, 0.021955, 0.000000, 0.000000, -0.068554, 0.023243, -0.020472, 0.000901, -0.014491, 0.004310, -0.006506, 0.046712, -0.012300, 0.023346, 0.017201, -0.010479, -0.023849, 0.034663, 0.000000, 0.000000, 0.027460, 0.000973, 0.005978, -0.054017, -0.009055, 0.001227, -0.053947, 0.025476, 0.011529, -0.003652, 0.007338, -0.018055, -0.016920, 0.000916, 0.000000, 0.000000, -0.019259, 0.016443, 0.037338, 0.010714, 0.020025, 0.032858, -0.047672, -0.004425, 0.036386, 0.040143, -0.031187, -0.005016, -0.028736, -0.021011, 0.000000, 0.000000, -0.028919, 0.019098, -0.001288, -0.076528, -0.002074, -0.003929, 0.007102, 0.013508, 0.024789, 0.018386, -0.034953, 0.015420, 0.001238, -0.007401, 0.000000, 0.000000, -0.022479, 0.024508, -0.013842, -0.029215, 0.077906, -0.006531, 0.034040, -0.046384, 0.003712, 0.078199, -0.000643, 0.013348, 0.001224, 0.011088, 0.000000, 0.000000, 0.026117, -0.010572, 0.008185, -0.069087, -0.008771, -0.001874, -0.017058, 0.044884, 0.014886, -0.006541, 0.048957, -0.023377, -0.031222, 0.002734, 0.000000, 0.000000, 0.002629, 0.005460, -0.028733, -0.001377, 0.011665, 0.010451, -0.011341, 0.026978, 0.020164, -0.009666, 0.017687, -0.052871, 0.027994, 0.005610, 0.000000, 0.000000, 0.008860, 0.000614, 
-0.005131, -0.016329, 0.013302, -0.031599, 0.036503, 0.037549, -0.018695, 0.016856, 0.016805, -0.115940, 0.037895, -0.004459, 0.000000, 0.000000, 0.039368, -0.012769, -0.002891, 0.037852, -0.047280, 0.051181, 0.073964, -0.055259, -0.000068, -0.016939, -0.027649, 0.011698, 0.042928, -0.020431, 0.000000, 0.000000, -0.016132, 0.013664, -0.016270, -0.010225, -0.012395, 0.003810, -0.058143, 0.060339, -0.027373, 0.001350, -0.002528, -0.011513, -0.005184, 0.027456, 0.000000, 0.000000, -0.058842, 0.031458, -0.019382, 0.001504, -0.019271, 0.009392, 0.004360, 0.047677, -0.017014, 0.029133, 0.001470, -0.010910, -0.028958, 0.036707, 0.000000, 0.000000, 0.026048, -0.003050, -0.005548, -0.069488, -0.010491, 0.004195, -0.033711, 0.039595, 0.014338, 0.011010, -0.001347, -0.015689, -0.013517, -0.028987, 0.000000, 0.000000, -0.027748, 0.024015, 0.024594, 0.011515, 0.003314, 0.039502, -0.028444, -0.014362, 0.042786, 0.035629, -0.038301, -0.004760, -0.048111, -0.011883, 0.000000, 0.000000, -0.026814, 0.028217, 0.003089, -0.081454, -0.003734, 0.003357, 0.006589, 0.014963, 0.029621, 0.002380, -0.024648, 0.002043, 0.005452, -0.001402, 0.000000, 0.000000, -0.033702, 0.030996, -0.015375, -0.014325, 0.065352, 0.011015, 0.045181, -0.044788, 0.007715, 0.064801, 0.015141, -0.008727, 0.009202, 0.000694, 0.000000, 0.000000, 0.031456, -0.018125, 0.010240, -0.055233, -0.018842, 0.001711, -0.043264, 0.037451, 0.022868, -0.004526, 0.047048, -0.022822, -0.036758, 0.007330, 0.000000, 0.000000, 0.019725, -0.000632, -0.036701, 0.000724, 0.016662, 0.001892, -0.021425, 0.031602, 0.019243, -0.009596, 0.023473, -0.047433, 0.025896, 0.026748, 0.000000, 0.000000, 0.004025, 0.004008, 
0.013347, -0.043787, 0.008675, -0.019856, 0.031968, 0.060342, -0.026228, -0.023986, -0.009693, -0.081167, 0.035815, 0.014235, 0.000000, 0.000000, 0.039410, -0.000361, -0.039694, 0.070206, -0.042567, 0.047710, 0.092235, -0.084530, 0.015883, -0.040406, -0.009143, 0.013385, 0.035713, 0.002503, 0.000000, 0.000000, -0.001853, -0.003544, -0.023560, -0.015512, -0.001090, -0.002910, -0.055956, 0.067369, -0.041196, 0.027972, -0.003577, -0.013829, -0.001617, 0.013221, 0.000000, 0.000000, -0.056978, 0.045859, -0.005901, 0.005096, -0.018719, -0.006739, 0.004131, 0.034723, -0.008465, 0.045212, 0.004199, -0.006838, -0.045613, 0.035950, 0.000000, 0.000000, 0.028889, -0.012446, -0.023233, -0.059983, -0.012167, 0.000195, -0.020130, 0.037962, 0.018284, 0.005308, -0.003551, -0.020662, -0.005249, -0.028003, 0.000000, 0.000000, -0.024608, 0.007935, 0.020393, 0.002362, -0.000612, 0.050502, -0.028537, -0.009340, 0.046929, 0.036708, -0.036672, -0.017818, -0.050367, -0.012022, 0.000000, 0.000000, -0.007374, 0.016679, 0.007635, -0.102670, -0.001170, 0.023987, 0.021051, 0.034447, 0.011621, -0.012836, -0.017413, -0.006750, 0.014110, -0.002842, 0.000000, 0.000000, -0.032580, 0.038081, -0.006637, -0.010578, 0.057493, 0.004087, 0.037687, -0.069382, 0.019253, 0.048822, 0.014953, 0.018218, 0.002292, 0.015814, 0.000000, 0.000000, 0.007987, -0.006403, 0.037494, -0.062567, -0.009781, -0.000354, -0.064950, 0.042764, 0.017904, 0.013774, 0.043147, -0.034380, -0.042498, 0.004575, 0.000000, 0.000000, 0.011153, 0.005484, -0.048123, -0.005853, 0.018339, 0.008629, -0.034466, 0.053313, 0.029235, -0.004883, 0.029420, -0.039860, 0.014764, 0.021443, 0.000000, 0.000000, 0.019052, -0.000281, 
0.004816, -0.037463, -0.003718, -0.011964, 0.072448, 0.043051, -0.015221, -0.019877, -0.068539, -0.064544, 0.015421, 0.006206, 0.000000, 0.000000, 0.046384, 0.022489, -0.015925, 0.044233, -0.022380, 0.030822, 0.059151, -0.066630, 0.011560, -0.018927, 0.013128, -0.010317, 0.046871, -0.009049, 0.000000, 0.000000, 0.000655, -0.014336, -0.028240, -0.017796, -0.002282, -0.005945, -0.060876, 0.059976, -0.036202, 0.033188, -0.007252, -0.012844, 0.005228, 0.005100, 0.000000, 0.000000, -0.051573, 0.050976, 0.003747, -0.007614, -0.011638, 0.004074, -0.000591, 0.037825, -0.016056, 0.048373, 0.007048, -0.008483, -0.038302, 0.021772, 0.000000, 0.000000, 0.032644, -0.021547, -0.030123, -0.063069, -0.018774, 0.003098, -0.022576, 0.046422, 0.011023, 0.004108, 0.002418, -0.020264, -0.002534, -0.033160, 0.000000, 0.000000, -0.024630, 0.000753, 0.016390, 0.013022, -0.000852, 0.046300, -0.033691, -0.012430, 0.038901, 0.047567, -0.027510, -0.023873, -0.044050, 0.006748, 0.000000, 0.000000, -0.008840, 0.028019, 0.003610, -0.109455, 0.016337, 0.029415, 0.044293, 0.024339, 0.008552, -0.034169, -0.023100, -0.016802, 0.015978, -0.001302, 0.000000, 0.000000, -0.038137, 0.043371, -0.027211, 0.018043, 0.051156, -0.011128, 0.053207, -0.067217, 0.013191, 0.052970, -0.000793, 0.022263, 0.005372, 0.010438, 0.000000, 0.000000, -0.005573, -0.011077, 0.046261, -0.060910, -0.013950, 0.002514, -0.078261, 0.035511, 0.024301, 0.023575, 0.036105, -0.019706, -0.045797, 0.004580, 0.000000, 0.000000, 0.012520, 0.002927, -0.051478, -0.004347, 0.018060, 0.009897, -0.007195, 0.018428, 0.031015, 0.005969, 0.011985, -0.026804, 0.000458, 0.014288, 0.000000, 0.000000, 0.029080, 0.006338, 
-0.007396, -0.016401, -0.008843, -0.012460, 0.090459, 0.032419, -0.016718, -0.012368, -0.086126, -0.054128, 0.025979, 0.002401, 0.000000, 0.000000, 0.033430, 0.031317, 0.000497, 0.037296, -0.016235, 0.023481, 0.044895, -0.058445, -0.003451, -0.015050, 0.015842, -0.025834, 0.051117, -0.003104, 0.000000, 0.000000, 0.005297, -0.010679, -0.017034, -0.026774, -0.003341, -0.002983, -0.065186, 0.062444, -0.038058, 0.029857, -0.006041, -0.001931, 0.012506, -0.001164, 0.000000, 0.000000, -0.038391, 0.035834, 0.007631, -0.016372, -0.003813, 0.000174, -0.007429, 0.042171, -0.026993, 0.051011, 0.019169, -0.007526, -0.039343, 0.020943, 0.000000, 0.000000, 0.029966, -0.023127, -0.041452, -0.049846, -0.016012, 0.006021, -0.028776, 0.041358, 0.012220, 0.006536, 0.001140, -0.013535, 0.011306, -0.027034, 0.000000, 0.000000, -0.038982, -0.007448, 0.018079, 0.014458, 0.011953, 0.027953, -0.039330, -0.006558, 0.048694, 0.048432, -0.013298, -0.019266, -0.050306, -0.008621, 0.000000, 0.000000, -0.007673, 0.025207, 0.005240, -0.112841, 0.004616, 0.044672, 0.027734, 0.011184, 0.018107, -0.047369, -0.020018, -0.016249, 0.006287, -0.005689, 0.000000, 0.000000, -0.028023, 0.028946, -0.021688, 0.025841, 0.043354, 0.006348, 0.031848, -0.067123, 0.004755, 0.052912, 0.008517, 0.029905, 0.001189, 0.016641, 0.000000, 0.000000, 0.008671, -0.019608, 0.046273, -0.049044, -0.013332, -0.009218, -0.066671, 0.039333, 0.013053, 0.025031, 0.033433, -0.017221, -0.034376, 0.002646, 0.000000, 0.000000, 0.012028, 0.012091, -0.043283, -0.012512, 0.014985, 0.011639, -0.018265, 0.021337, 0.042393, 0.008014, 0.017590, -0.026106, -0.010168, 0.015621, 0.000000, 0.000000, 0.019197, -0.000329, 
-0.016529, 0.008499, -0.002221, -0.015900, 0.087896, 0.015491, -0.019677, -0.032298, -0.064512, -0.065552, 0.030398, 0.025828, 0.000000, 0.000000, 0.029728, 0.014421, 0.020777, 0.016227, 0.006506, 0.014886, 0.020078, -0.042227, -0.024070, -0.017419, 0.021225, -0.019353, 0.071600, 0.002677, 0.000000, 0.000000, 0.001966, -0.028490, -0.012232, -0.025894, -0.004296, 0.001036, -0.068275, 0.056822, -0.039180, 0.018283, 0.002048, -0.008245, 0.013343, 0.005150, 0.000000, 0.000000, -0.040124, 0.031027, 0.013202, -0.036801, 0.002076, 0.000553, -0.018823, 0.044920, -0.023870, 0.042064, 0.018893, -0.009211, -0.043991, 0.011708, 0.000000, 0.000000, 0.029329, -0.020375, -0.032107, -0.059950, 0.003124, 0.006211, -0.045090, 0.045624, 0.011550, 0.005705, 0.004745, -0.005502, 0.010289, -0.023458, 0.000000, 0.000000, -0.046008, -0.018008, 0.011862, 0.026804, 0.003860, 0.047872, -0.019982, -0.018695, 0.041535, 0.045338, -0.017305, -0.016237, -0.034465, 0.001780, 0.000000, 0.000000, -0.007090, 0.017027, 0.010293, -0.107853, -0.002996, 0.023122, -0.000059, 0.006680, 0.027036, -0.035244, -0.013770, -0.013630, -0.014634, 0.006541, 0.000000, 0.000000, -0.016681, 0.027683, -0.023554, 0.036981, 0.030009, -0.008655, 0.026437, -0.065391, 0.013864, 0.058119, 0.016149, 0.028777, -0.015821, 0.016229, 0.000000, 0.000000, 0.000767, -0.015003, 0.040444, -0.056755, -0.015233, 0.002164, -0.068591, 0.036523, 0.013942, 0.023232, 0.057673, -0.009173, -0.035536, -0.012361, 0.000000, 0.000000, 0.001785, -0.000578, -0.049035, -0.003017, 0.022956, 0.016993, -0.027637, 0.029114, 0.015749, 0.011457, 0.019958, -0.015155, 0.009712, 0.009487, 0.000000, 0.000000, 0.010847, -0.007628, 
-0.033262, 0.031018, -0.017184, -0.010697, 0.116627, -0.014413, 0.011312, -0.040565, -0.088130, -0.057852, 0.003780, 0.040840, 0.000000, 0.000000, 0.033350, 0.037931, 0.009646, 0.010742, 0.006490, 0.007047, 0.032447, -0.044030, 0.005579, -0.025707, 0.014345, -0.011551, 0.050294, -0.002885, 0.000000, 0.000000, -0.000836, -0.014018, -0.001802, -0.028154, 0.005491, 0.004983, -0.068713, 0.057539, -0.043414, 0.013959, -0.003759, 0.002864, 0.008381, 0.009239, 0.000000, 0.000000, -0.037920, 0.026307, -0.019839, -0.017155, -0.006904, 0.001717, -0.004406, 0.043002, -0.031973, 0.042331, 0.014771, -0.016908, -0.038727, 0.020801, 0.000000, 0.000000, 0.037560, -0.010027, -0.031826, -0.069396, 0.002651, -0.008586, -0.053304, 0.060221, 0.014084, -0.001445, 0.000561, -0.008144, 0.003067, -0.017603, 0.000000, 0.000000, -0.038747, -0.008786, 0.025137, 0.013612, 0.004302, 0.031004, -0.019999, -0.032740, 0.040114, 0.064081, -0.010667, -0.002466, -0.020409, -0.000031, 0.000000, 0.000000, -0.015513, 0.018747, 0.020241, -0.083838, -0.016082, 0.029541, -0.003206, -0.010443, 0.022451, -0.025382, -0.003252, -0.011284, -0.011240, -0.001962, 0.000000, 0.000000, -0.015248, 0.015348, -0.012257, 0.014626, 0.040920, -0.000696, 0.012806, -0.037221, 0.000951, 0.055185, 0.024114, 0.027958, -0.025547, 0.023283, 0.000000, 0.000000, -0.001818, -0.022893, 0.042206, -0.064581, -0.008928, 0.001300, -0.046663, 0.047395, 0.009765, 0.029207, 0.037867, -0.006842, -0.028334, -0.011047, 0.000000, 0.000000, -0.001998, 0.011949, -0.056943, 0.005367, 0.023902, 0.004482, -0.025570, 0.023011, 0.016631, 0.027693, 0.006278, -0.023109, -0.001449, 0.001868, 0.000000, 0.000000, 0.013748, 0.000398, 
-0.033010, 0.039887, -0.004601, -0.002648, 0.101803, -0.052329, 0.010860, -0.046506, -0.070600, -0.027784, 0.009124, 0.056621, 0.000000, 0.000000, 0.015521, 0.033306, 0.006104, 0.015316, 0.006524, 0.022948, 0.042085, -0.062495, 0.011916, -0.038784, 0.013663, 0.003913, 0.048118, 0.004059, 0.000000, 0.000000, -0.010770, -0.026615, 0.003918, -0.048199, 0.011772, 0.002032, -0.062254, 0.078927, -0.053834, 0.004680, 0.012770, -0.003984, 0.003384, 0.013220, 0.000000, 0.000000, -0.031297, 0.026480, -0.012358, -0.021435, -0.010708, -0.002356, -0.009342, 0.056655, -0.042775, 0.036594, 0.013383, -0.027117, -0.007876, 0.027569, 0.000000, 0.000000, 0.046440, -0.014906, -0.020040, -0.039114, -0.015052, 0.009798, -0.067530, 0.043153, 0.028166, -0.007161, -0.007615, 0.010222, -0.010938, -0.032538, 0.000000, 0.000000, -0.034887, -0.013823, 0.009452, 0.009140, -0.013946, 0.034525, -0.011441, -0.035168, 0.063768, 0.064978, 0.014710, -0.004226, -0.029492, 0.009029, 0.000000, 0.000000, -0.019522, 0.023823, 0.024192, -0.108300, -0.007615, 0.036985, -0.006385, -0.008817, 0.016513, -0.012664, -0.012059, -0.011399, 0.000783, 0.013974, 0.000000, 0.000000, -0.032643, -0.008284, -0.013783, 0.015340, 0.056009, -0.000782, 0.008678, -0.036156, -0.013036, 0.058046, 0.002010, 0.024444, -0.019162, 0.018642, 0.000000, 0.000000, -0.009132, -0.019264, 0.035252, -0.036001, -0.018363, 0.004902, -0.031464, 0.017864, 0.023408, 0.021708, 0.037573, 0.001621, -0.025683, -0.009741, 0.000000, 0.000000, 0.001450, 0.024524, -0.040874, -0.012616, 0.023725, 0.004925, -0.028741, 0.025455, 0.019363, 0.026202, 0.009066, -0.011183, -0.002731, 0.007382, 0.000000, 0.000000, 0.005218, -0.002361, 
-0.018946, 0.037390, -0.015071, -0.006619, 0.094815, -0.035596, 0.013975, -0.046944, -0.086737, -0.027956, -0.004490, 0.058414, 0.000000, 0.000000, 0.027241, 0.035227, -0.028807, 0.023723, 0.000283, 0.025715, 0.062625, -0.062471, 0.002373, -0.021734, 0.027084, -0.011065, 0.034627, 0.002738, 0.000000, 0.000000, -0.003047, -0.032294, 0.002115, -0.052206, -0.001070, 0.008582, -0.063250, 0.073875, -0.042190, 0.002564, 0.020163, -0.010935, 0.008369, 0.007254, 0.000000, 0.000000, -0.040773, 0.032359, -0.019366, -0.023029, -0.006312, 0.001339, -0.008553, 0.052540, -0.036130, 0.039157, 0.019371, -0.024138, -0.014425, 0.036513, 0.000000, 0.000000, 0.040630, 0.000975, -0.019278, -0.026192, -0.015635, -0.002876, -0.069976, 0.030592, 0.032931, 0.004811, -0.008333, 0.010200, -0.010932, -0.033320, 0.000000, 0.000000, -0.030563, -0.004680, 0.009509, 0.011855, -0.013362, 0.038130, -0.009682, -0.027221, 0.051800, 0.054263, 0.012626, 0.003122, -0.015716, 0.013320, 0.000000, 0.000000, -0.019429, 0.016260, 0.029298, -0.112722, -0.022637, 0.048336, 0.000107, 0.020450, 0.007930, -0.022463, -0.015063, -0.015741, -0.002966, 0.021070, 0.000000, 0.000000, -0.035784, -0.017112, -0.020444, 0.011544, 0.063639, 0.002834, 0.027782, -0.037071, -0.014026, 0.050964, -0.004975, 0.034665, -0.027048, -0.001710, 0.000000, 0.000000, -0.014460, -0.012507, 0.035768, -0.039085, -0.007295, -0.002991, -0.041564, 0.016596, 0.025672, 0.025577, 0.027912, 0.012627, -0.028323, -0.015368, 0.000000, 0.000000, 0.007974, 0.026599, -0.056406, -0.000949, 0.028085, 0.001270, -0.042421, 0.032125, 0.011746, 0.021925, 0.028950, -0.019498, 0.000192, 0.014994, 0.000000, 0.000000, 0.008377, -0.006782, 
-0.029939, 0.100227, -0.057442, 0.016989, 0.074245, -0.048306, 0.014141, -0.064591, -0.036483, -0.051730, 0.007387, 0.061742, 0.000000, 0.000000, 0.034069, 0.012882, -0.025004, -0.003225, -0.004535, 0.010523, 0.053544, -0.023108, 0.023779, -0.029678, 0.031378, -0.039980, 0.031172, -0.001798, 0.000000, 0.000000, 0.017638, -0.036998, 0.004083, -0.035539, 0.000920, 0.015776, -0.051405, 0.067100, -0.043389, -0.009583, 0.007042, -0.023607, 0.004738, 0.002446, 0.000000, 0.000000, -0.021613, 0.038564, -0.017095, -0.025076, 0.007971, 0.003630, -0.009833, 0.041235, -0.041168, 0.053988, 0.016311, -0.025307, -0.006922, 0.037079, 0.000000, 0.000000, 0.052849, 0.002631, -0.008510, -0.036407, -0.016250, 0.008262, -0.032442, 0.029140, 0.024242, -0.004877, -0.003688, 0.007234, -0.007428, -0.026350, 0.000000, 0.000000, -0.038465, 0.007444, 0.007298, 0.018092, -0.019850, 0.020632, -0.024667, -0.028674, 0.034101, 0.069187, 0.034073, -0.000126, -0.006420, 0.018785, 0.000000, 0.000000, -0.014338, 0.011354, 0.009156, -0.095082, -0.035192, 0.043515, -0.023547, 0.024283, 0.006109, -0.019923, -0.004175, -0.022591, -0.011737, 0.030721, 0.000000, 0.000000, -0.030178, -0.023959, -0.004516, -0.002755, 0.056147, 0.012634, 0.020262, -0.022382, -0.016181, 0.086534, -0.011799, 0.038421, -0.032601, -0.035637, 0.000000, 0.000000, -0.013102, -0.034538, 0.047878, -0.059218, 0.008206, -0.003617, -0.039196, 0.025899, 0.026290, 0.021890, 0.028877, 0.008508, -0.030186, -0.015607, 0.000000, 0.000000, 0.004688, 0.029208, -0.048169, 0.002906, 0.015870, -0.010196, -0.036622, 0.024425, 0.034278, 0.001770, 0.026814, -0.024730, 0.006144, 0.033436, 0.000000, 0.000000, 0.011455, -0.003288, 
-0.023211, 0.095228, -0.050103, 0.018578, 0.068120, -0.042207, 0.010590, -0.061068, -0.048776, -0.046972, 0.011210, 0.050715, 0.000000, 0.000000, 0.028645, 0.023930, -0.017620, 0.002314, -0.021272, 0.019430, 0.042416, -0.019459, 0.026268, -0.031420, 0.027306, -0.036367, 0.025545, -0.004718, 0.000000, 0.000000, 0.019352, -0.032959, 0.004790, -0.037170, 0.002716, 0.015504, -0.054724, 0.065939, -0.037428, -0.007033, 0.006462, -0.026506, 0.002448, 0.004781, 0.000000, 0.000000, -0.021132, 0.032984, -0.011342, -0.017672, 0.009386, 0.001391, -0.013058, 0.030437, -0.040287, 0.048791, 0.017010, -0.018582, -0.011487, 0.031870, 0.000000, 0.000000, 0.052856, -0.001432, -0.004037, -0.034992, -0.016556, 0.007553, -0.037043, 0.027544, 0.025384, -0.001648, -0.000870, 0.008755, -0.006732, -0.027125, 0.000000, 0.000000, -0.039216, 0.009779, 0.013441, 0.011490, -0.021331, 0.016839, -0.026790, -0.021478, 0.031069, 0.059301, 0.029885, 0.001838, -0.005499, 0.016105, 0.000000, 0.000000, -0.016378, 0.011676, 0.004599, -0.087474, -0.035002, 0.036516, -0.021688, 0.018531, 0.008327, -0.010572, 0.003857, -0.013843, -0.011436, 0.026639, 0.000000, 0.000000, -0.032579, -0.019065, -0.008575, -0.000807, 0.053422, 0.007702, 0.022834, -0.014099, -0.016349, 0.083055, -0.012028, 0.029416, -0.031587, -0.032032, 0.000000, 0.000000, -0.007670, -0.033084, 0.040472, -0.062879, 0.007235, -0.002624, -0.034908, 0.031098, 0.023655, 0.018284, 0.017979, 0.008316, -0.027301, -0.018001, 0.000000, 0.000000, 0.005983, 0.022414, -0.048466, 0.004491, 0.010027, -0.001915, -0.031409, 0.021777, 0.028397, 0.011166, 0.021096, -0.019586, 0.008545, 0.030014, 0.000000, 0.000000, 0.006477, -0.002865, 
-0.011569, 0.086274, -0.068015, 0.035303, 0.026387, -0.034583, 0.023830, -0.071116, 0.010327, -0.083416, 0.000947, 0.050686, 0.000000, 0.000000, 0.040511, 0.020819, -0.009629, 0.019675, -0.026370, 0.020865, 0.028427, -0.013123, 0.020619, -0.027575, 0.031341, -0.040071, 0.014320, -0.001787, 0.000000, 0.000000, 0.027159, -0.036467, -0.004268, -0.030064, 0.000343, 0.008874, -0.057069, 0.055800, -0.030618, 0.003007, 0.004356, -0.014564, 0.009853, -0.008155, 0.000000, 0.000000, -0.034622, 0.031050, -0.005236, -0.024355, 0.014506, -0.007958, -0.023966, 0.036553, -0.034813, 0.054408, 0.019951, -0.019965, -0.008881, 0.025481, 0.000000, 0.000000, 0.046755, -0.008023, -0.003573, -0.047186, -0.024301, 0.016215, -0.032706, 0.025295, 0.028768, 0.007760, -0.002082, 0.014463, -0.014841, -0.032017, 0.000000, 0.000000, -0.036939, 0.008629, 0.012478, 0.022807, -0.010185, 0.018862, -0.036364, -0.028466, 0.029410, 0.052105, 0.042539, -0.002563, -0.006453, 0.009981, 0.000000, 0.000000, -0.003226, 0.002445, 0.006458, -0.075457, -0.044757, 0.018118, -0.017989, 0.017334, 0.005268, -0.014116, 0.005439, -0.014215, -0.021629, 0.023734, 0.000000, 0.000000, -0.032700, -0.009694, -0.016220, 0.008974, 0.038399, -0.004511, 0.038716, -0.011458, -0.030779, 0.091606, -0.020780, 0.037796, -0.030184, -0.024356, 0.000000, 0.000000, -0.013297, -0.035235, 0.042295, -0.065105, 0.016045, -0.002129, -0.036500, 0.029592, 0.025525, 0.024449, 0.017021, 0.005280, -0.022858, -0.017720, 0.000000, 0.000000, 0.014045, 0.009639, -0.035097, -0.005868, 0.023259, 0.010017, -0.023264, 0.011194, 0.037484, 0.012546, -0.000483, -0.012279, 0.009786, 0.020420, 0.000000, 0.000000, 0.003047, 0.005898, 
-0.016858, 0.066766, -0.033593, 0.011865, 0.003954, -0.007594, 0.002953, -0.045417, 0.022802, -0.092222, 0.015432, 0.032385, 0.000000, 0.000000, 0.041883, 0.020559, -0.003821, 0.017601, -0.023488, 0.021911, 0.041883, -0.012622, 0.015189, -0.034987, 0.013214, -0.036812, 0.025251, 0.000563, 0.000000, 0.000000, 0.015020, -0.014242, 0.000717, -0.028718, -0.006927, -0.000182, -0.062010, 0.047088, -0.020423, 0.014519, -0.004315, -0.000075, 0.003681, -0.001516, 0.000000, 0.000000, -0.036643, 0.031009, -0.007126, -0.018209, 0.013779, -0.011193, -0.015787, 0.020631, -0.023594, 0.046670, 0.010864, -0.003860, -0.020148, 0.030477, 0.000000, 0.000000, 0.041852, -0.001863, 0.006764, -0.057403, -0.038899, 0.023989, -0.038000, 0.022910, 0.030935, -0.000972, 0.002641, 0.008501, -0.017491, -0.020927, 0.000000, 0.000000, -0.038231, 0.016942, 0.010260, 0.022554, -0.011768, 0.036218, -0.019536, -0.026584, 0.016270, 0.048464, 0.025657, 0.003005, -0.006317, -0.001866, 0.000000, 0.000000, -0.007827, 0.011513, -0.002564, -0.079473, -0.050273, 0.028625, -0.014797, 0.032489, 0.012183, -0.022201, -0.021962, -0.010994, -0.024284, 0.026430, 0.000000, 0.000000, -0.023004, -0.000739, 0.003663, 0.013274, 0.036344, -0.022069, 0.017934, -0.024506, -0.011741, 0.075468, -0.029488, 0.027016, -0.018272, -0.013735, 0.000000, 0.000000, -0.004659, -0.041030, 0.051437, -0.077245, 0.023281, -0.011380, -0.033421, 0.014310, 0.039750, 0.014438, 0.031153, 0.014068, -0.023882, -0.018963, 0.000000, 0.000000, 0.003789, 0.012141, -0.038831, 0.003593, 0.023908, 0.031190, -0.020906, 0.014441, 0.031661, 0.014631, 0.009714, -0.004081, 0.002632, 0.019187, 0.000000, 0.000000, -0.000741, 0.004096, 
-0.011830, 0.064660, -0.041228, 0.016836, -0.006787, -0.052559, 0.047262, -0.049870, 0.055853, -0.068854, -0.019648, 0.036429, 0.000000, 0.000000, 0.060554, 0.002331, 0.012119, 0.015141, -0.015647, 0.011065, 0.014027, -0.018129, 0.037399, -0.034396, 0.028741, -0.039497, 0.015340, -0.000898, 0.000000, 0.000000, 0.000206, -0.015498, 0.002524, -0.023724, -0.008966, 0.003755, -0.063719, 0.043132, -0.009269, 0.022182, -0.001274, -0.010320, 0.006326, -0.000998, 0.000000, 0.000000, -0.048670, 0.026530, -0.000040, -0.018899, 0.006486, -0.003840, -0.017786, 0.019900, -0.028368, 0.048109, 0.003361, -0.010902, -0.014472, 0.023051, 0.000000, 0.000000, 0.043584, 0.014115, 0.006013, -0.051070, -0.039682, 0.032786, -0.040496, 0.003746, 0.030925, -0.004227, 0.010818, 0.012229, -0.011133, -0.018420, 0.000000, 0.000000, -0.040582, 0.011387, 0.001082, 0.020618, 0.006241, 0.030240, -0.023130, -0.015988, 0.011332, 0.054093, 0.015960, 0.011404, -0.000981, -0.011308, 0.000000, 0.000000, -0.015798, 0.010447, -0.018460, -0.072692, -0.052004, 0.023220, -0.027437, 0.042229, 0.013318, -0.032351, -0.019540, -0.005281, -0.027190, 0.019593, 0.000000, 0.000000, -0.011169, -0.005103, 0.012034, 0.021088, 0.021080, -0.025749, 0.033236, -0.019060, -0.013430, 0.060652, -0.036190, 0.026701, -0.013992, 0.004802, 0.000000, 0.000000, 0.001382, -0.040264, 0.066303, -0.080789, 0.012515, -0.008822, -0.038415, 0.019153, 0.029062, 0.021165, 0.040423, -0.000451, -0.026222, -0.021802, 0.000000, 0.000000, 0.004413, 0.015666, -0.044983, -0.004567, 0.021164, 0.039005, -0.030013, 0.017892, 0.036277, 0.024027, 0.008478, -0.014708, 0.008108, 0.010991, 0.000000, 0.000000, -0.000635, -0.003344, 
-0.001358, 0.036524, -0.035341, 0.000224, 0.006514, -0.047876, 0.047026, -0.015194, 0.029299, -0.051929, -0.018467, 0.022064, 0.000000, 0.000000, 0.048125, 0.014690, 0.029207, 0.002340, -0.006309, 0.008572, 0.018921, -0.022205, 0.025391, -0.020316, 0.004560, -0.007813, 0.012531, -0.013616, 0.000000, 0.000000, 0.003828, -0.017704, 0.006752, -0.034177, -0.006040, 0.012856, -0.067597, 0.055023, -0.018078, 0.015033, 0.001083, -0.019021, 0.013025, -0.002162, 0.000000, 0.000000, -0.034896, 0.026683, -0.000652, -0.013799, -0.002120, 0.009538, -0.013208, 0.018146, -0.024292, 0.035459, -0.015149, -0.010893, -0.016415, 0.039572, 0.000000, 0.000000, 0.045528, 0.016234, -0.000646, -0.039684, -0.034607, 0.027518, -0.047604, 0.003665, 0.028154, -0.011197, 0.024800, 0.014652, -0.019176, -0.006591, 0.000000, 0.000000, -0.041615, -0.006417, 0.013980, 0.005511, 0.026200, 0.021645, -0.034532, -0.001771, -0.014313, 0.079315, 0.026177, 0.011312, 0.007680, -0.018653, 0.000000, 0.000000, -0.020014, -0.000794, -0.017436, -0.066702, -0.046566, 0.026878, -0.011306, 0.028354, 0.010402, -0.038494, -0.020851, 0.004285, -0.021406, 0.013299, 0.000000, 0.000000, -0.001503, 0.004831, 0.002392, 0.036651, 0.013543, -0.016809, 0.029625, -0.032383, -0.010269, 0.058493, -0.010772, 0.020854, -0.028442, 0.020858, 0.000000, 0.000000, 0.008727, -0.039582, 0.060291, -0.077427, 0.002703, -0.012488, -0.025585, 0.032482, 0.027989, 0.023068, 0.026384, -0.005528, -0.020000, -0.020394, 0.000000, 0.000000, -0.012313, 0.018992, -0.053787, 0.002351, 0.017829, 0.028158, -0.020970, 0.006173, 0.047825, 0.025289, -0.012399, -0.007093, 0.007528, 0.006995, 0.000000, 0.000000, -0.003872, 0.000761, 
-0.005126, 0.027887, -0.031990, -0.000924, -0.001555, -0.033228, 0.057477, -0.016652, 0.051853, -0.065675, -0.032147, 0.026624, 0.000000, 0.000000, 0.055238, 0.001497, 0.021818, 0.019554, -0.019311, 0.011671, 0.013624, -0.041180, 0.043313, -0.030509, 0.007265, 0.006431, -0.008608, -0.009978, 0.000000, 0.000000, -0.000160, -0.016890, -0.000897, -0.027443, -0.010545, 0.023998, -0.075233, 0.052895, -0.012114, 0.001480, 0.002695, -0.022882, 0.011561, 0.005594, 0.000000, 0.000000, -0.041466, 0.021469, 0.008159, -0.007716, -0.001615, 0.012913, -0.005844, 0.012933, -0.029420, 0.034996, -0.019607, -0.018143, -0.013660, 0.039409, 0.000000, 0.000000, 0.047229, 0.015082, -0.007540, -0.042039, -0.022477, 0.016987, -0.037239, 0.011797, 0.020810, -0.002917, 0.019556, 0.011732, -0.016766, -0.003055, 0.000000, 0.000000, -0.033366, -0.001404, 0.013512, -0.005486, 0.042980, 0.020330, -0.024736, -0.007276, -0.029739, 0.070769, 0.031339, 0.020289, 0.007514, -0.019362, 0.000000, 0.000000, -0.031153, 0.002024, -0.007229, -0.065803, -0.040516, 0.018931, -0.023510, 0.023671, 0.013069, -0.023356, -0.023110, 0.003834, -0.015723, 0.000230, 0.000000, 0.000000, 0.000764, -0.001066, -0.001415, 0.026474, 0.008524, -0.007873, 0.027698, -0.028325, 0.006303, 0.069108, -0.004075, 0.012636, -0.036479, 0.018688, 0.000000, 0.000000, 0.001397, -0.038978, 0.043005, -0.081696, -0.004046, -0.001379, -0.016516, 0.038922, 0.026757, 0.010716, 0.021094, -0.003577, -0.018971, -0.007320, 0.000000, 0.000000, -0.013330, 0.013563, -0.057176, 0.010844, 0.018768, 0.022805, -0.023266, 0.008251, 0.037617, 0.029757, -0.016223, -0.006840, 0.006541, 0.000114, 0.000000, 0.000000, -0.003786, 0.002584, 
-0.007127, 0.024891, -0.029203, -0.011095, -0.019197, -0.019683, 0.055832, -0.006038, 0.051827, -0.047878, -0.056798, 0.031866, 0.000000, 0.000000, 0.062024, 0.002376, 0.009709, 0.012909, -0.022424, 0.014713, 0.021519, -0.028949, 0.041278, -0.039690, 0.000306, 0.007252, -0.010716, 0.002065, 0.000000, 0.000000, -0.001300, -0.016615, -0.007759, -0.028361, -0.008596, 0.016860, -0.075922, 0.048757, -0.013522, -0.000387, 0.001190, -0.016252, 0.009589, 0.015659, 0.000000, 0.000000, -0.046729, 0.022581, 0.009569, -0.014928, 0.000975, 0.003696, -0.009941, 0.028680, -0.032725, 0.036760, -0.023645, -0.018901, -0.014620, 0.034377, 0.000000, 0.000000, 0.045861, 0.011803, -0.002099, -0.043415, -0.018162, 0.009692, -0.023213, 0.014345, 0.011313, 0.000406, 0.011042, 0.013989, -0.016645, -0.005284, 0.000000, 0.000000, -0.033576, -0.005239, 0.010750, 0.007651, 0.029277, 0.019039, -0.035734, -0.009202, -0.023265, 0.076067, 0.034121, 0.011626, 0.006380, -0.027851, 0.000000, 0.000000, -0.019670, -0.008042, -0.007368, -0.072575, -0.048000, 0.019344, -0.028651, 0.024845, 0.011077, -0.021032, -0.015740, 0.009131, -0.012088, 0.003768, 0.000000, 0.000000, -0.000912, -0.002353, -0.003670, 0.021822, 0.014267, -0.003943, 0.040089, -0.022457, -0.001376, 0.050506, -0.004104, 0.019524, -0.029630, 0.020395, 0.000000, 0.000000, -0.001945, -0.030723, 0.037357, -0.078290, 0.002638, 0.002765, -0.010933, 0.054179, 0.021236, 0.011214, 0.004877, 0.008615, -0.018853, -0.013361, 0.000000, 0.000000, -0.016176, 0.022833, -0.060409, 0.012854, 0.019919, 0.020076, -0.024484, 0.001772, 0.040798, 0.043377, -0.018151, -0.010333, 0.010820, -0.004558, 0.000000, 0.000000, 0.002849, -0.003510, 
-0.010646, 0.001556, -0.026981, -0.010840, -0.029055, 0.029978, 0.043670, -0.008233, 0.038683, -0.051123, -0.042619, 0.028297, 0.000000, 0.000000, 0.045716, 0.022225, 0.024645, 0.005331, 0.001478, 0.001985, 0.015805, -0.024242, 0.036173, -0.033784, -0.012835, 0.022644, -0.013218, 0.006316, 0.000000, 0.000000, -0.014209, -0.012279, -0.013053, -0.026865, -0.017136, 0.029631, -0.085080, 0.061959, -0.017250, -0.004543, 0.008245, -0.015323, 0.030084, -0.001941, 0.000000, 0.000000, -0.048776, 0.024246, 0.002297, -0.002619, -0.005575, 0.007111, 0.019490, 0.013445, -0.022204, 0.041220, -0.051565, 0.017055, -0.028453, 0.032364, 0.000000, 0.000000, 0.040641, 0.026303, -0.011615, -0.045718, -0.011151, 0.003937, -0.007931, 0.014210, 0.015449, 0.001262, -0.006484, 0.014275, -0.024838, 0.001693, 0.000000, 0.000000, -0.034545, 0.001234, -0.001532, -0.000649, 0.038611, -0.002970, -0.034205, -0.008423, -0.009482, 0.057377, 0.037503, -0.003964, 0.008194, -0.022264, 0.000000, 0.000000, -0.018433, -0.018817, -0.017000, -0.056121, -0.061618, 0.023626, -0.017357, 0.016411, 0.037273, -0.034152, -0.017462, 0.006126, 0.000359, -0.007948, 0.000000, 0.000000, 0.003958, -0.012232, -0.000033, 0.033317, -0.007540, 0.013763, 0.050293, -0.034667, 0.015820, 0.052923, -0.021887, 0.035255, -0.049709, 0.021266, 0.000000, 0.000000, 0.005959, 0.000801, 0.050011, -0.101189, 0.016285, 0.003073, -0.029225, 0.059952, -0.003040, 0.019747, 0.019894, 0.007139, -0.020465, -0.008008, 0.000000, 0.000000, -0.016934, 0.025624, -0.052552, 0.009241, 0.024264, 0.012540, -0.043198, 0.012480, 0.026436, 0.038055, -0.008153, -0.023699, 0.015688, 0.013401, 0.000000, 0.000000, 0.006151, -0.015737, 
0.012766, -0.001180, -0.030831, -0.000733, -0.046096, 0.030372, 0.048854, -0.014082, 0.062729, -0.068240, -0.045183, 0.021164, 0.000000, 0.000000, 0.044827, 0.019845, 0.033127, -0.001235, 0.005839, -0.009115, -0.004142, -0.017367, 0.024186, -0.026759, 0.008897, 0.002418, -0.004437, 0.003107, 0.000000, 0.000000, -0.008121, -0.017983, -0.014054, -0.029956, -0.009013, 0.025162, -0.076070, 0.057794, -0.014555, -0.003831, 0.006302, -0.013591, 0.025978, -0.000269, 0.000000, 0.000000, -0.058325, 0.020684, 0.000089, -0.004120, -0.001649, 0.010362, 0.016040, 0.016376, -0.017619, 0.031505, -0.042767, 0.013458, -0.029706, 0.028318, 0.000000, 0.000000, 0.032678, 0.024573, -0.001714, -0.048447, -0.003489, -0.006306, -0.012498, 0.017977, 0.001282, 0.011737, -0.006804, 0.011144, -0.010611, -0.001481, 0.000000, 0.000000, -0.028005, 0.007274, 0.002118, 0.001078, 0.032140, -0.006449, -0.034906, 0.000794, -0.001152, 0.047582, 0.032665, -0.004724, 0.012332, -0.015547, 0.000000, 0.000000, -0.011314, -0.014313, -0.023709, -0.051889, -0.067634, 0.026238, -0.009866, 0.014463, 0.053693, -0.044826, -0.019521, 0.007718, -0.007166, -0.007190, 0.000000, 0.000000, 0.001199, -0.005099, -0.016633, 0.036705, -0.010657, 0.024193, 0.060918, -0.041653, 0.006208, 0.046419, -0.028350, 0.036901, -0.050579, 0.016434, 0.000000, 0.000000, 0.000073, 0.001827, 0.046347, -0.093336, 0.018856, 0.000396, -0.029750, 0.074728, -0.016441, 0.031146, 0.010999, 0.003857, -0.016583, -0.011557, 0.000000, 0.000000, -0.019089, 0.016952, -0.044592, 0.012143, 0.018308, 0.015034, -0.052195, 0.015895, 0.026963, 0.047493, -0.000534, -0.031827, 0.021351, 0.006129, 0.000000, 0.000000, 0.009615, -0.015464, 
