4,2.0152489e-001,0.0000000e+000,-3.5393960e-001,0.0000000e+000,0.0000000e+000,0.0000000e+000,0.0000000e+000,0.0000000e+000,0.0000000e+000,0.0000000e+000,0.0000000e+000,1.6523072e-002,0.0000000e+000,0.0000000e+000,0.0000000e+000,4.5157694e-001,1.1535379e-001,-8.4348028e-001,-2.8030915e-001,0.0000000e+000,0.0000000e+000,0.0000000e+000,5.2240010e-001,0.0000000e+000,0.0000000e+000,-1.2816462e-001,0.0000000e+000,5.8029900e-002,0.0000000e+000,0.0000000e+000,5.3274837e-002,-1.2142181e-001,1.3350512e-001,-1.8166665e-001,-1.6732237e-001,-4.0618022e-001,4.1748371e-002,-5.9462939e-002,4.0010461e-001,4.1168071e-002,-5.2825295e-001,5.8640151e-001,-2.4295418e-001,9.9726355e-002,0.0000000e+000,0.0000000e+000,3.3873904e-003,-9.4094603e-002,3.0205959e-001,0.0000000e+000,7.8928233e-003,1.6490419e-001,-1.2196511e-001,-8.2079457e-002,-2.0640139e-002,1.7701836e-001,2.5480450e-001,-1.4856177e-002,-3.6274615e-001,3.3402380e-002,0.0000000e+000,0.0000000e+000,1.5375194e-001,-1.3583340e-001,-2.0254484e-002,-2.0628215e-001,1.9636037e-001,1.5132601e-002,-5.2087535e-001,1.8027159e-001,-3.6297662e-001,1.0988878e-001,2.6153210e-001,6.9112754e-002,1.2710848e-001,3.4529517e-001,0.0000000e+000,0.0000000e+000,-2.8792388e-002,-2.7304813e-001,5.8009976e-001,-5.2539073e-001,7.6639231e-002,-2.3109209e-001,0.0000000e+000,0.0000000e+000,0.0000000e+000,9.4201904e-003,1.8067742e-002,6.7819409e-002,0.0000000e+000,1.7765421e-001,0.0000000e+000,0.0000000e+000,1.8584095e-001,-2.3214539e-001,1.1484141e-001,-4.0275813e-001,5.1305300e-001,-2.0650350e-002,0.0000000e+000,0.0000000e+000,0.0000000e+000,0.0000000e+000,-3.2442207e-002,-7.3174313e-002,1.1418211e-001,-1.7597583e-001,0.0000000e+000,0.0000000e+000,-3.6294628e-001,-1.5237351e-001,0.0000000e+000,2.3290965e-001,3.9742899e-002,1.8448458e-001,0.0000000e+000,-1.5549443e-001,1.9992143e-001,-1.9081625e-001,0.0000000e+000,0.0000000e+000,3.5067674e-001,-3.8516871e-001,0.0000000e+000,0.0000000e+000,-2.5361110e-001,0.0000000e+000,-1.6805950e-001,4.7385306e-001,-6.7847822e-001,-1.1515466e-001,0.0000000e+000,-2.3356361e-001,1.5173994e-002,2.2868112e-001,4.8796571e-001,-7.3730941e-002,8.2718658e-002,2.0766279e-001,0.0000000e+000,0.0000000e+000,1.7725113e-001,2.1970757e-001,0.0000000e+000,0.0000000e+000,0.0000000e+000,2.0791578e-001,0.0000000e+000,0.0000000e+000,0.0000000e+000,0.0000000e+000,0.0000000e+000,0.0000000e+000,-3.9471409e-001,0.0000000e+000,0.0000000e+000,0.0000000e+000,0.0000000e+000,4.6513912e-002,
,8,-1.3453084e-001,4.4842557e-001,2.4148282e-001,-3.1866086e-001,4.7335377e-001,0.0000000e+000,0.0000000e+000,0.0000000e+000,0.0000000e+000,0.0000000e+000,-1.4853623e-001,-2.1000878e-001,0.0000000e+000,0.0000000e+000,0.0000000e+000,-4.6194567e-001,-3.1385753e-002,0.0000000e+000,0.0000000e+000,1.2639374e-001,-1.1713154e-001,0.0000000e+000,3.7008563e-001,-6.6708515e-001,1.5533886e-001,-1.6788547e-001,0.0000000e+000,5.3279589e-001,0.0000000e+000,0.0000000e+000,3.7548257e-001,-6.7707730e-002,-1.2502937e-001,8.2719509e-003,-1.6298391e-001,5.3240675e-001,-1.0970875e-001,0.0000000e+000,4.2121819e-001,-1.2234798e+000,1.5578939e-001,-1.4283707e-001,-1.5360168e-001,4.5746926e-001,0.0000000e+000,0.0000000e+000,6.5250040e-001,1.3997059e-001,-7.5980318e-002,1.3178918e-002,-1.8724412e-001,1.2642952e-001,-9.9287757e-002,-1.7438309e-001,-1.4400354e-001,-1.7157983e-002,2.3626766e-002,-8.7405231e-002,8.6790591e-002,9.9543234e-002,0.0000000e+000,0.0000000e+000,2.0948638e-001,-1.5466331e-001,5.3649447e-002,-2.9887136e-002,1.4767405e-001,-1.0399109e+000,-1.4571149e-001,0.0000000e+000,1.2531126e-001,7.5653903e-001,6.8597628e-001,-1.8420247e-001,-4.3726900e-003,8.8489818e-002,0.0000000e+000,0.0000000e+000,1.8200804e-002,4.0536003e-001,0.0000000e+000,2.5875651e-001,2.6550038e-001,1.7181786e-001,-2.0975719e-001,8.6214109e-002,-8.6319053e-002,6.0782548e-002,1.8430942e-001,1.1247947e-001,1.3012322e-001,-5.2846531e-002,0.0000000e+000,0.0000000e+000,-1.4899294e-002,-1.7443757e-001,1.6136103e-001,6.5513462e-002,-3.2548410e-001,1.0366799e+000,0.0000000e+000,6.4238087e-003,-1.8264399e-001,-6.1720862e-001,-5.7026651e-001,4.8745528e-001,9.6372605e-002,7.4063976e-002,0.0000000e+000,0.0000000e+000,2.2528060e-001,-2.1950260e-001,2.0307454e-001,-7.9469747e-001,1.1887786e-001,-6.4264911e-001,6.2627515e-003,2.4147309e-002,0.0000000e+000,3.8578222e-001,-3.4193037e-001,5.5260661e-004,-6.7575099e-001,1.2379682e-001,0.0000000e+000,0.0000000e+000,-2.5061493e-001,5.9882452e-001,1.6084710e-002,-2.7746424e-001,0.0000000e+000,-9.2123713e-001,2.0016690e-001,-5.4628856e-001,2.5753384e-001,0.0000000e+000,7.6163330e-001,-2.5069607e-001,-1.0066021e-002,3.6351088e-001,0.0000000e+000,0.0000000e+000,-1.0175829e-001,-4.6118271e-001,-2.1615385e-002,3.8420607e-001,-1.2888226e-001,2.8402742e-001,0.0000000e+000,0.0000000e+000,-9.0800620e-001,-2.4064138e-002,2.8680654e-001,0.0000000e+000,5.5753733e-001,-5.0471698e-001,0.0000000e+000,0.0000000e+000,0.0000000e+000,0.0000000e+000,
,12,-3.3069235e-001,0.0000000e+000,2.3171661e-002,0.0000000e+000,0.0000000e+000,0.0000000e+000,0.0000000e+000,0.0000000e+000,0.0000000e+000,-4.1628646e-001,0.0000000e+000,-2.1179803e-001,0.0000000e+000,0.0000000e+000,3.5631736e-001,4.6432215e-001,-4.4357189e-002,0.0000000e+000,1.4589854e-002,0.0000000e+000,0.0000000e+000,0.0000000e+000,0.0000000e+000,-1.7025607e-001,-2.4686919e-001,1.0148301e+000,-4.0669381e-001,0.0000000e+000,0.0000000e+000,0.0000000e+000,-2.0751141e-002,-3.5935986e-001,-1.7737812e-003,7.8586448e-002,-6.7230388e-001,2.3484313e-001,-1.6425574e-001,0.0000000e+000,5.7783342e-001,-5.3867959e-001,2.0861576e-002,-4.4088526e-002,-1.3161643e-001,1.5983261e-001,0.0000000e+000,0.0000000e+000,8.7786831e-002,-1.3586120e-001,-3.2942677e-002,-8.8332497e-002,-2.2441793e-001,-6.2465476e-003,0.0000000e+000,7.3338112e-001,2.4093160e-001,-5.4317021e-003,-1.7268292e-001,-5.8641420e-001,-2.6272456e-001,7.7448118e-001,0.0000000e+000,0.0000000e+000,8.8895705e-002,1.7139940e-003,1.8682091e-001,-3.7365558e-002,1.6939546e-001,-1.6628302e-002,0.0000000e+000,-1.3302479e-001,0.0000000e+000,2.3618349e-001,-8.5670585e-001,7.1102903e-001,4.7022213e-001,-2.7038179e-002,0.0000000e+000,0.0000000e+000,-2.9538273e-001,4.5870479e-001,1.0289564e-001,-1.9072316e-001,-1.0448325e-001,1.9463448e-001,9.9004858e-002,6.0725746e-001,-3.9166171e-001,-2.9478132e-001,0.0000000e+000,-2.9121667e-001,5.0016375e-001,-1.7346651e-001,0.0000000e+000,0.0000000e+000,-2.0306538e-001,4.3772965e-001,-4.5706085e-002,6.1252642e-001,-2.5088859e-001,2.0534275e-001,-7.1334923e-002,0.0000000e+000,-1.4462881e-001,-2.0308938e-001,-3.5922632e-001,-3.8925383e-001,-1.2883319e-001,4.1137251e-002,0.0000000e+000,0.0000000e+000,8.0670722e-002,-3.6047201e-001,0.0000000e+000,-5.1624649e-001,3.8710380e-001,-1.0599150e-001,0.0000000e+000,3.1593468e-001,1.2452177e-001,0.0000000e+000,-8.3409526e-002,-3.6743249e-001,-9.6956082e-002,-1.4150297e-001,0.0000000e+000,0.0000000e+000,4.2134920e-001,-2.3780430e-001,5.3800678e-002,-6.0141038e-004,0.0000000e+000,0.0000000e+000,-5.1913236e-001,0.0000000e+000,4.0431980e-001,0.0000000e+000,3.6119389e-001,4.5344798e-001,0.0000000e+000,1.4732991e-001,0.0000000e+000,0.0000000e+000,-2.5262780e-001,-1.8893996e-002,7.2085070e-002,4.6709320e-001,-5.2138078e-001,1.4252345e-001,0.0000000e+000,-6.5238839e-004,0.0000000e+000,-2.9896161e-001,0.0000000e+000,0.0000000e+000,0.0000000e+000,-3.3147218e-001,0.0000000e+000,0.0000000e+000,0.0000000e+000,0.0000000e+000,
,23,1.3480462e-002,-9.6244317e-002,1.7666896e-001,-7.4070749e-002,2.0157453e-001,-9.0810488e-002,1.4110917e-001,-1.7332854e-001,-4.9202155e-001,1.9288316e-001,-1.7580231e-001,2.1500596e-001,0.0000000e+000,0.0000000e+000,-7.6712673e-003,2.2990940e-001,1.8207760e-001,-1.7418940e-001,6.0776465e-002,1.6879559e-002,-7.5258111e-002,-5.7159434e-002,2.0638433e-001,-2.0391153e-001,2.4055967e-002,1.2518425e-001,-3.3488925e-001,1.7266137e-001,0.0000000e+000,0.0000000e+000,1.3658729e-001,-9.0721102e-002,1.4331331e-001,-7.4970649e-002,-1.0913108e-002,-2.1915579e-002,-1.3021877e-002,-5.1385858e-002,5.0407422e-002,-6.1256789e-002,2.3788527e-002,-1.2003893e-002,1.0634063e-001,-1.5392118e-002,0.0000000e+000,0.0000000e+000,-2.1294462e-001,-2.0448317e-002,-5.0994054e-002,8.2599177e-002,-9.6914360e-002,7.9181721e-002,7.0724393e-002,-1.3898306e-001,1.2521295e-001,-6.8219252e-002,-1.3645909e-002,6.8418774e-002,-7.0223112e-002,3.6691575e-003,0.0000000e+000,0.0000000e+000,4.0477896e-002,-4.7164644e-002,1.3150430e-001,-1.3218518e-002,-9.3014146e-002,1.7624975e-002,-1.0110717e-002,-1.6093320e-002,1.5956032e-001,-7.0849203e-003,-5.9745366e-002,6.9151370e-002,-1.1515131e-001,9.0113896e-002,0.0000000e+000,0.0000000e+000,-1.0673771e-002,-8.6951897e-004,3.8081094e-002,-7.2947556e-002,1.0132782e-001,5.8036895e-003,1.4456179e-003,-1.2802113e-002,-1.2200760e-001,1.3934235e-001,-1.3570114e-001,3.4452243e-002,-8.4784381e-002,-4.4520050e-002,0.0000000e+000,0.0000000e+000,1.1296532e-001,3.3588854e-002,1.6877257e-002,-6.2493388e-002,-1.2870672e-001,1.3052607e-001,2.5065526e-002,3.0190657e-002,1.2200502e-001,-1.4274796e-001,-9.5711245e-002,8.1228704e-002,-8.6670548e-002,-4.9982379e-002,0.0000000e+000,0.0000000e+000,-3.5977022e-002,1.6710252e-002,-1.2590286e-001,-4.7701388e-002,-1.0479436e-001,4.7999394e-002,1.3724796e-001,-6.5930655e-002,4.8172320e-002,-7.1650726e-002,1.3878917e-001,4.3654681e-002,7.0644031e-002,2.8470507e-002,0.0000000e+000,0.0000000e+000,-7.5009099e-002,5.1180579e-002,2.0788362e-001,8.1128425e-002,3.4415712e-002,-1.5230964e-001,3.8944969e-002,-3.6077036e-002,7.0377204e-002,1.8106341e-001,1.4294382e-001,3.8586862e-002,-1.2704900e-001,-3.7701561e-003,0.0000000e+000,0.0000000e+000,-1.0022296e-001,-1.1623580e-001,6.0071589e-002,6.5973431e-002,6.0407113e-002,-5.7853410e-002,-1.3206432e-001,6.2442671e-002,7.1392665e-002,4.0893125e-002,1.1974338e-002,-1.9944122e-001,-6.7332270e-002,-2.5692734e-002,0.0000000e+000,0.0000000e+000,2.6390264e-002,-2.2522890e-002,
,27,-3.9982671e-001,0.0000000e+000,3.2665092e-001,0.0000000e+000,-6.2405722e-002,0.0000000e+000,0.0000000e+000,7.5764026e-002,0.0000000e+000,0.0000000e+000,-5.6859731e-003,-1.5698490e-001,0.0000000e+000,0.0000000e+000,0.0000000e+000,-6.3908036e-002,2.2750991e-001,-1.8971389e-001,0.0000000e+000,-1.1096895e-001,0.0000000e+000,0.0000000e+000,0.0000000e+000,2.1145439e-001,-1.4773304e-001,2.6763253e-002,0.0000000e+000,1.0346419e-001,0.0000000e+000,0.0000000e+000,7.5488053e-002,-2.6106259e-002,4.9184441e-003,7.3133554e-002,-1.7656731e-001,-5.0570322e-002,2.3000118e-001,-8.1075332e-002,3.7587555e-001,5.4655635e-003,1.2891218e-001,2.0807608e-001,-3.3553000e-001,2.6166122e-001,0.0000000e+000,0.0000000e+000,-3.4486836e-001,5.1346417e-002,1.8336956e-001,-2.1403136e-001,-7.0171554e-002,-4.8571681e-002,4.5023010e-002,1.5161401e-001,-1.1802663e-001,3.5276221e-001,-2.7543909e-001,-9.1285365e-002,-1.8776322e-001,-7.9889670e-002,0.0000000e+000,0.0000000e+000,-2.4858393e-003,1.3529473e-001,9.1150304e-002,-7.3847357e-002,5.2248226e-001,-1.8147263e-001,-6.3584924e-002,-2.9092449e-001,-4.0459132e-001,-6.2553472e-002,-9.4959051e-002,1.2005253e-001,1.0884336e-001,-1.3277140e-001,0.0000000e+000,0.0000000e+000,-1.7262677e-001,-2.5961849e-003,-2.4979507e-002,1.4192596e-001,-2.0442787e-001,4.3384619e-002,0.0000000e+000,-1.4771034e-001,3.8775647e-001,-6.4618467e-002,2.5450570e-001,-2.3233842e-001,5.5408902e-002,1.8126005e-002,0.0000000e+000,0.0000000e+000,5.2147238e-002,3.7634981e-003,3.7895395e-001,0.0000000e+000,-2.3797479e-001,0.0000000e+000,0.0000000e+000,0.0000000e+000,2.9024080e-001,1.9399448e-001,-5.9604460e-002,0.0000000e+000,-2.9508027e-001,-1.8207237e-001,0.0000000e+000,0.0000000e+000,5.7759907e-002,-6.8161226e-002,-3.3916373e-001,0.0000000e+000,3.1308367e-001,-3.4237055e-001,1.2126952e-001,-1.2339427e-001,-1.1724172e-001,3.8223049e-004,-2.3774842e-002,1.6431780e-001,0.0000000e+000,-1.6357904e-002,0.0000000e+000,0.0000000e+000,6.5410801e-002,2.4223298e-001,-1.3652784e-001,2.9551891e-001,1.7920629e-001,0.0000000e+000,1.9482312e-001,-7.5383253e-001,9.0149246e-002,0.0000000e+000,0.0000000e+000,3.9505649e-001,-4.8075131e-001,4.3314896e-001,0.0000000e+000,0.0000000e+000,2.4898700e-002,-1.2683199e-001,-1.7518751e-002,-3.1587688e-001,1.6320104e-001,1.5645773e-001,0.0000000e+000,6.8764450e-002,0.0000000e+000,2.9836808e-001,-3.6633865e-001,8.5130579e-002,9.9691213e-002,-3.9966045e-001,0.0000000e+000,0.0000000e+000,0.0000000e+000,0.0000000e+000,
,31,-2.8827175e-001,0.0000000e+000,1.2459766e-001,0.0000000e+000,0.0000000e+000,0.0000000e+000,0.0000000e+000,0.0000000e+000,0.0000000e+000,0.0000000e+000,0.0000000e+000,-6.1438653e-002,0.0000000e+000,0.0000000e+000,2.7711083e-001,1.3052067e-001,0.0000000e+000,0.0000000e+000,0.0000000e+000,-1.3942401e-001,1.2670891e-001,1.1287886e-001,3.0644201e-001,0.0000000e+000,0.0000000e+000,0.0000000e+000,0.0000000e+000,-8.9290118e-002,0.0000000e+000,0.0000000e+000,9.1858004e-003,-4.0755840e-002,9.5447869e-002,-1.8352196e-003,-3.8196454e-001,2.4708586e-001,5.3411807e-002,-2.8873966e-001,4.4095010e-001,1.3658874e-001,0.0000000e+000,2.9617486e-001,-6.3440910e-003,-3.5619130e-001,0.0000000e+000,0.0000000e+000,1.2128629e-001,-1.4678388e-001,1.8484190e-001,-2.7220178e-001,2.8744299e-001,-2.7350612e-003,-2.2387721e-001,2.2068924e-001,-8.2741940e-002,6.7488890e-002,1.0859318e-001,-9.2532501e-002,2.9602731e-002,-1.5175573e-001,0.0000000e+000,0.0000000e+000,5.1866488e-002,1.3145720e-001,-8.7446520e-003,-1.0773061e-001,1.4992384e-001,0.0000000e+000,0.0000000e+000,0.0000000e+000,-4.9503018e-002,8.6090427e-002,2.0901747e-001,-3.3375872e-001,3.2723220e-002,-3.3900164e-001,0.0000000e+000,0.0000000e+000,1.3544575e-001,6.3640057e-002,0.0000000e+000,-2.0701840e-001,-4.8584224e-002,3.2726025e-001,0.0000000e+000,0.0000000e+000,0.0000000e+000,-1.6323655e-001,0.0000000e+000,1.4922486e-001,0.0000000e+000,2.0734472e-001,0.0000000e+000,0.0000000e+000,-4.1533558e-001,2.0347186e-001,4.4144519e-001,0.0000000e+000,0.0000000e+000,1.2495346e-001,0.0000000e+000,-3.0539940e-002,0.0000000e+000,-2.5358326e-002,-2.0624165e-001,6.0732276e-002,-6.5523101e-002,2.4091896e-001,0.0000000e+000,0.0000000e+000,1.4652626e-002,1.8401141e-001,1.2179581e-001,0.0000000e+000,-2.2455185e-001,-1.3669387e-001,0.0000000e+000,-5.2157901e-002,1.7729149e-001,1.8604827e-001,0.0000000e+000,0.0000000e+000,-2.8260389e-001,-5.0013007e-002,0.0000000e+000,0.0000000e+000,1.4280595e-001,1.7545139e-001,-2.3371038e-001,2.6677031e-001,0.0000000e+000,0.0000000e+000,0.0000000e+000,-2.0378849e-001,0.0000000e+000,0.0000000e+000,0.0000000e+000,-1.1771230e-002,-1.7025152e-001,0.0000000e+000,0.0000000e+000,0.0000000e+000,0.0000000e+000,0.0000000e+000,0.0000000e+000,-2.3922428e-001,8.1028851e-002,4.5137635e-002,-2.0157055e-001,-4.3635889e-002,0.0000000e+000,3.5123502e-002,-5.1987126e-001,0.0000000e+000,0.0000000e+000,-1.0713665e-001,0.0000000e+000,0.0000000e+000,0.0000000e+000,0.0000000e+000,
,43,-9.3184705e-002,-9.4826814e-002,1.6976321e-001,-1.5356494e-001,2.5397198e-001,-1.4000764e-001,4.6667429e-002,2.0700618e-001,-3.0236608e-001,8.7711878e-002,-5.7986283e-002,2.2694664e-002,0.0000000e+000,0.0000000e+000,3.3371264e-002,7.3027493e-002,1.4017178e-002,-2.2990200e-001,1.6500446e-001,-5.1970106e-003,8.3740623e-002,2.3785173e-001,-4.9394129e-003,-4.4748322e-002,-1.2728428e-001,1.1260355e-001,-2.9094640e-001,1.0110989e-001,0.0000000e+000,0.0000000e+000,5.1369861e-002,-1.8231667e-002,8.3590469e-002,-1.1196255e-003,-1.5476816e-002,4.4588570e-002,4.9526082e-002,-1.4578849e-001,6.4874553e-002,-6.5290266e-002,-1.8344641e-001,8.8417249e-002,-1.6698264e-001,8.9454761e-002,0.0000000e+000,0.0000000e+000,-1.6545900e-001,6.1317461e-002,-2.9469209e-002,1.2318737e-003,-5.3176117e-002,8.0494582e-002,5.1188929e-002,-8.8534398e-002,8.8285807e-002,1.4540927e-002,-4.9251464e-002,3.0350284e-002,-7.8595009e-003,2.0764408e-002,0.0000000e+000,0.0000000e+000,3.2680392e-002,-3.4531327e-002,2.0789976e-002,-4.8295468e-002,9.7858380e-002,-6.1931044e-002,6.7959291e-002,-2.4058578e-002,1.4262028e-002,8.8911769e-003,-2.4500758e-002,3.7275617e-002,1.0717523e-002,-2.9603101e-002,0.0000000e+000,0.0000000e+000,-6.9076072e-002,-6.3909675e-002,2.8674203e-002,-1.0798147e-002,9.4127314e-002,-6.6650181e-002,1.0521849e-002,-1.4141481e-001,4.7592631e-002,3.7974581e-002,-5.4425129e-002,1.0559055e-001,-2.0745527e-001,-5.7859104e-002,0.0000000e+000,0.0000000e+000,1.1678704e-001,-4.1799066e-002,2.6389024e-002,2.4367479e-001,-1.6696147e-001,1.6202869e-001,-1.3248975e-001,9.7982202e-003,-7.5205736e-002,-3.0809025e-001,6.6256879e-002,-6.1352561e-002,-8.9208745e-002,8.7797270e-002,0.0000000e+000,0.0000000e+000,3.6864754e-002,1.2135055e-001,-7.1490083e-002,-2.3699559e-002,-1.2746743e-002,1.0552051e-001,1.4962608e-005,2.1413866e-002,-1.5791344e-001,1.8196665e-002,1.6050135e-001,-8.5133688e-002,-5.5464261e-002,5.4184951e-002,0.0000000e+000,0.0000000e+000,2.3647791e-002,-5.5429315e-002,-3.8911583e-002,-2.1624553e-002,9.3176729e-002,-8.4347552e-002,2.7984583e-001,2.2167462e-001,-1.3169865e-001,2.1161150e-001,-1.7118087e-001,1.3856166e-001,9.4652977e-002,1.6860484e-001,0.0000000e+000,0.0000000e+000,-1.5571360e-001,-6.6634486e-002,-3.1450134e-002,1.4925479e-002,7.3743268e-002,-7.7545211e-002,-2.3025970e-001,1.4569722e-001,1.1244448e-001,1.3204276e-001,1.3309826e-001,-3.2032508e-002,1.9984719e-003,7.0641920e-002,0.0000000e+000,0.0000000e+000,-4.6513743e-002,1.1637472e-001,
,55,-7.6991493e-002,-3.9967948e-003,8.9861674e-002,2.5087541e-002,2.6662854e-001,-2.2460281e-001,1.6072558e-001,-2.1936266e-001,-2.9566843e-001,-3.2093358e-003,-2.1645016e-002,4.5460757e-002,0.0000000e+000,0.0000000e+000,-3.9747525e-002,2.7209072e-001,-2.7733245e-001,3.3333245e-001,-5.6552041e-002,1.6314524e-001,2.7708333e-001,-8.8748309e-002,-1.7196096e-001,5.1758089e-002,-3.1712609e-001,2.1578589e-001,1.1127944e-001,-5.1623477e-003,0.0000000e+000,0.0000000e+000,-1.8756905e-002,2.9877677e-002,7.9703695e-002,-7.4499149e-002,-1.4972800e-001,1.2445222e-002,7.6512461e-002,5.0417149e-002,4.1933517e-002,-3.4891743e-002,1.0223833e-003,1.7992792e-002,-3.8358585e-003,1.7444449e-002,0.0000000e+000,0.0000000e+000,-9.9722389e-002,-1.2149954e-002,1.1909751e-001,-1.0792825e-001,1.1259774e-001,-1.7920935e-002,-1.5074316e-001,1.0119185e-001,-6.9829132e-002,5.6551001e-002,9.8757506e-002,-1.0435419e-001,4.3480043e-002,-2.3903610e-002,0.0000000e+000,0.0000000e+000,3.2875602e-002,-3.5552340e-002,3.2992038e-002,1.0466696e-001,-9.8652733e-002,1.2477415e-001,8.1968122e-002,-4.8508975e-003,-5.8128933e-002,-3.7459575e-002,-5.9567859e-002,-1.5991334e-002,1.9060821e-002,-3.3580603e-002,0.0000000e+000,0.0000000e+000,-5.5648606e-002,5.7354756e-002,2.2678636e-002,-3.2949908e-002,-4.0347827e-002,4.2105455e-002,-9.8044334e-003,5.4150745e-002,2.5766788e-003,-2.7215593e-002,-1.0081838e-001,-1.5139666e-001,5.5432986e-002,-1.9924733e-002,0.0000000e+000,0.0000000e+000,-4.5214685e-002,1.5984408e-001,-7.1824902e-002,-6.3096434e-002,-5.4456143e-002,2.3619084e-003,6.7643833e-002,6.8945236e-002,1.1023454e-001,4.7282399e-003,-1.9881327e-002,1.0001771e-001,-9.0562504e-002,-2.3784930e-001,0.0000000e+000,0.0000000e+000,-2.0634902e-002,-1.3832598e-001,5.6240466e-002,5.5652740e-002,-1.7517796e-001,1.5841050e-001,-1.4183278e-001,-2.3284037e-002,9.2162288e-002,-6.0682409e-002,1.4501026e-001,-1.0287276e-001,5.8964244e-002,1.1116158e-001,0.0000000e+000,0.0000000e+000,-1.6993222e-001,-4.2325823e-002,3.0904158e-001,1.0093769e-001,-2.2569650e-001,2.2667182e-001,-4.5532614e-002,-4.6556861e-002,2.7425904e-001,-1.5320712e-001,-1.5646804e-001,3.3697967e-002,-4.9543920e-002,1.6539282e-001,0.0000000e+000,0.0000000e+000,3.4319214e-002,2.9415488e-002,2.4176512e-002,-2.0743527e-001,7.4249335e-002,3.4518616e-002,-2.6818184e-003,1.3529999e-001,-4.3707774e-002,1.6552909e-002,-1.5505647e-001,9.4687993e-002,-2.5056726e-001,-7.4485206e-002,0.0000000e+000,0.0000000e+000,3.2140115e-001,5.5732176e-002,
,67,-6.3193863e-002,-6.7464972e-002,1.6454501e-002,8.1395032e-002,-1.5242225e-001,3.0403994e-001,8.0295482e-002,-1.5999608e-001,2.3725292e-001,-3.8447657e-001,-2.1310147e-003,8.4607005e-002,0.0000000e+000,0.0000000e+000,9.6215804e-002,-1.4515379e-002,-1.1379123e-001,2.0567011e-001,-1.0277821e-001,4.8277504e-002,1.6992716e-001,-1.0402728e-001,-5.9659192e-003,-3.8289359e-002,-8.4067221e-002,7.4554165e-002,9.8413385e-002,5.8312777e-002,0.0000000e+000,0.0000000e+000,-6.7657911e-002,2.3184325e-002,7.9881376e-002,-2.9339405e-002,2.9350970e-002,4.4647083e-002,6.8860454e-002,-8.2532792e-002,4.2821209e-003,-4.1485678e-002,-8.9340180e-003,1.1682712e-001,-3.0470639e-002,5.4652736e-002,0.0000000e+000,0.0000000e+000,-1.9771140e-001,-4.8320363e-003,-1.0531749e-001,5.8547618e-002,-5.7405610e-002,-9.6902931e-002,1.1504161e-001,-1.6468849e-001,7.8217562e-002,-9.3326964e-002,-3.5094650e-002,5.0721387e-002,1.4448807e-002,1.1080366e-002,0.0000000e+000,0.0000000e+000,-5.4719663e-002,-5.1480368e-003,-3.4812878e-002,8.0250079e-002,-7.9312339e-002,-8.8853729e-002,-3.1371301e-003,-2.5391187e-002,1.1496473e-001,4.7840295e-002,2.3365009e-002,-7.7207369e-002,1.7753455e-002,1.8065096e-002,0.0000000e+000,0.0000000e+000,1.3557147e-001,-6.8342090e-002,7.6410842e-003,4.2642500e-002,2.8738208e-002,5.6493005e-002,-1.6441320e-001,1.6255492e-001,-2.1106351e-001,7.5252081e-003,-8.4917224e-002,5.9657470e-003,4.3162574e-002,3.5302811e-002,0.0000000e+000,0.0000000e+000,2.9756283e-003,-3.4721186e-002,1.2250314e-001,-2.6647006e-002,5.0525113e-002,3.0170906e-002,2.2871259e-002,-4.2025030e-002,-9.9241896e-002,-2.2319646e-002,1.8335746e-001,1.2864878e-001,-4.6023337e-002,-8.2791815e-002,0.0000000e+000,0.0000000e+000,-1.3334499e-001,-1.0513917e-002,-9.8663957e-002,7.0684283e-002,-1.0132262e-002,1.3916739e-001,1.7528542e-001,-1.7478515e-001,1.8087190e-002,-1.0263866e-001,1.7836404e-001,-1.2676768e-001,6.1140557e-003,1.5845169e-001,0.0000000e+000,0.0000000e+000,-7.7571151e-002,4.6498266e-002,1.9822660e-001,5.5578592e-002,-9.9632112e-002,-1.7696639e-001,-6.7287577e-002,4.4595271e-003,1.5009246e-001,-3.8213851e-002,-1.2203794e-001,-2.5195285e-002,3.9318549e-002,3.5221855e-002,0.0000000e+000,0.0000000e+000,-1.4639429e-002,4.2094702e-002,6.1742429e-002,-5.7326937e-002,1.4351735e-002,-1.6995100e-001,-1.1297023e-001,1.5076581e-001,-1.0006797e-001,2.5090942e-001,-1.1781760e-001,1.0768278e-001,-1.4825660e-001,-1.1126949e-001,0.0000000e+000,0.0000000e+000,-4.2870726e-002,-6.3807690e-002,
,79,-2.5195609e-002,-2.0451134e-002,1.8766831e-001,-1.1949751e-003,-3.0033774e-001,4.1390445e-001,-1.7489170e-001,-7.8955766e-002,3.5459013e-001,-2.1557569e-001,-9.9381055e-003,1.1597378e-001,0.0000000e+000,0.0000000e+000,2.4619552e-002,-1.0589562e-001,4.0019071e-001,-4.2022608e-001,3.3702489e-001,-9.3791577e-002,-1.0697430e-001,2.4806793e-001,1.1250330e-001,-1.2419299e-001,-5.0411500e-002,8.0816920e-002,-2.5864844e-001,1.1341914e-001,0.0000000e+000,0.0000000e+000,1.3661680e-002,-3.0815284e-002,1.5580115e-002,8.1723565e-002,6.1446530e-002,-3.6153734e-002,9.0644459e-003,-3.7947247e-002,-3.9671884e-002,1.9132622e-002,-2.6703270e-002,3.2707070e-002,-3.1250461e-002,-1.7967332e-002,0.0000000e+000,0.0000000e+000,-6.2536329e-002,-1.3859742e-002,1.1494548e-001,-9.4266531e-002,1.1771763e-001,-5.2844492e-003,6.2320598e-002,3.1268154e-002,-2.4538123e-002,-2.7916182e-002,-8.5687348e-002,-9.2897162e-002,2.2302833e-002,4.4345242e-002,0.0000000e+000,0.0000000e+000,9.6341327e-002,1.1463918e-002,-7.9830228e-002,1.5448993e-002,9.8633878e-003,-6.6175724e-002,9.4339882e-002,1.0484167e-001,-8.6072640e-002,-1.3566034e-002,-5.8779658e-002,-1.3371541e-001,2.9110711e-002,2.7154798e-002,0.0000000e+000,0.0000000e+000,1.5617809e-001,1.3257486e-001,6.3661602e-002,-1.3288914e-001,1.1750144e-001,9.2057135e-003,-2.9889275e-002,1.6436788e-002,-8.9697415e-002,3.9875791e-002,2.0824214e-002,1.2593286e-002,4.7293142e-002,-1.2628762e-001,0.0000000e+000,0.0000000e+000,-9.6925255e-002,5.5537137e-002,1.1864195e-001,-3.6176881e-002,-1.3184942e-001,5.0788234e-002,2.1032275e-003,-1.0271958e-002,8.2652467e-003,-1.0785595e-001,5.9364412e-002,7.6093674e-002,5.0468527e-002,-1.3977708e-001,0.0000000e+000,0.0000000e+000,-4.3460127e-002,-1.4705169e-001,-1.8225388e-001,7.5088502e-002,-1.4958920e-001,-8.6716470e-003,1.5104356e-001,4.1557858e-003,7.8129591e-002,-2.7172962e-002,-2.6879508e-001,-1.7836928e-002,4.4873817e-002,-5.8337255e-003,0.0000000e+000,0.0000000e+000,1.3879224e-001,1.7304727e-002,1.2394081e-001,2.0657068e-001,8.2646150e-002,-8.2997664e-002,-1.5773980e-001,3.5603979e-002,4.2758180e-002,-8.1239414e-002,-2.0840592e-002,-3.9308742e-002,1.0090641e-001,2.3866237e-003,0.0000000e+000,0.0000000e+000,-2.5616227e-002,6.3667407e-002,3.9973768e-002,-5.7808051e-002,2.9068759e-001,7.0472892e-002,-1.0387493e-001,-1.6724670e-001,2.5622314e-002,-2.2868546e-003,2.2292651e-001,1.6107391e-001,-6.6379134e-002,-1.6665696e-002,0.0000000e+000,0.0000000e+000,-8.7340945e-002,-1.5982473e-001,
,91,-4.6997993e-002,7.8626464e-002,-1.7244924e-001,2.7061669e-001,-2.9803433e-001,1.7101358e-001,1.9214240e-001,-2.8670157e-001,9.7849042e-002,-1.4571781e-001,-2.2512664e-001,7.7828917e-002,0.0000000e+000,0.0000000e+000,1.7932761e-001,1.0515650e-001,3.8971570e-001,-2.7331598e-001,2.4079774e-001,-2.5124456e-001,-3.3825883e-001,4.0538374e-002,-1.0610189e-001,7.1142674e-002,2.2329316e-001,8.1360684e-003,3.1888696e-002,7.3726304e-002,0.0000000e+000,0.0000000e+000,7.5960931e-002,-8.2867059e-002,1.0874291e-001,-2.3337158e-002,-8.2840985e-003,2.9204006e-002,-4.9754446e-002,7.8444341e-002,1.7066187e-002,3.1304756e-003,-2.1096105e-002,-9.3324877e-002,9.0376709e-003,-6.2967424e-002,0.0000000e+000,0.0000000e+000,-9.9744563e-002,2.5633374e-002,1.6941115e-002,-9.1491636e-003,-1.6630966e-002,8.1497419e-002,5.0176562e-002,2.6598415e-002,-2.7376270e-004,-3.4209299e-002,-5.9916528e-002,1.6801411e-002,-5.4154592e-003,4.0861642e-002,0.0000000e+000,0.0000000e+000,1.3586430e-002,7.0620434e-004,3.7972045e-002,-3.0333302e-002,-6.3219465e-002,-8.0439492e-002,6.2335306e-002,-3.2377348e-002,5.6247334e-002,-3.6626985e-002,-1.2148699e-001,-2.8517711e-002,2.5049579e-002,2.3323858e-002,0.0000000e+000,0.0000000e+000,-7.6623391e-003,7.8174014e-002,1.0215500e-001,-1.6125535e-001,5.5534011e-002,7.2702635e-002,4.3323502e-003,3.1574832e-002,-7.5193302e-003,-4.8018820e-002,-9.6844697e-003,8.2885064e-002,-1.7199363e-001,4.5467494e-002,0.0000000e+000,0.0000000e+000,8.2693857e-002,-2.9899252e-002,-2.0547509e-002,4.7920496e-002,-9.0282232e-002,9.1092985e-002,2.2156133e-002,6.0338294e-002,-3.2946861e-002,1.3298151e-002,1.6890152e-002,-1.0050304e-002,5.1794313e-002,-4.1859084e-002,0.0000000e+000,0.0000000e+000,-9.8547286e-002,9.0052587e-002,2.1960686e-002,6.4699933e-002,-4.9601269e-002,6.6086938e-002,-3.0428859e-002,-1.2076818e-002,-1.2542133e-001,3.2834213e-002,-3.3881571e-003,-3.7854744e-002,1.1411074e-001,-5.0527467e-002,0.0000000e+000,0.0000000e+000,-1.5209141e-002,1.2021996e-001,1.2778426e-001,6.7009185e-003,9.6575546e-002,-1.5384883e-001,1.1594618e-002,1.5492391e-003,1.2944538e-001,-1.1758891e-001,8.8382906e-002,-6.7713106e-002,-1.7775496e-001,1.2817509e-001,0.0000000e+000,0.0000000e+000,3.7729860e-002,-1.9356193e-001,-6.2887252e-002,1.2107466e-002,-1.2384856e-001,1.0792268e-001,-5.6334855e-002,2.4730570e-002,-4.3020049e-002,-3.7965543e-003,8.2884239e-002,-7.4991934e-002,-1.1547172e-001,1.0605333e-002,0.0000000e+000,0.0000000e+000,1.2449341e-001,-9.7678217e-002,
,103,-1.4645056e-002,-8.0454387e-002,5.1022554e-002,-6.6888478e-002,1.5955944e-001,1.4270674e-002,1.4413667e-001,-1.0082398e-001,-3.7231404e-001,-1.3225990e-001,-1.2720416e-001,6.6017705e-002,0.0000000e+000,0.0000000e+000,2.7502763e-002,2.9919144e-001,-8.4594474e-002,2.5224235e-002,1.0097487e-001,8.1666525e-003,2.1453769e-001,-3.0552047e-002,-5.5259743e-002,-1.4106239e-001,-2.3792142e-001,1.3547020e-001,9.0786965e-003,5.7801623e-002,0.0000000e+000,0.0000000e+000,-1.0734622e-001,1.5427639e-001,1.4750409e-002,7.0131799e-002,-7.2249115e-003,8.4242135e-002,-7.2586065e-002,-4.1987662e-002,5.5271280e-002,-6.9860734e-003,-5.3586342e-002,9.6022828e-002,6.4705304e-002,2.2866633e-002,0.0000000e+000,0.0000000e+000,-7.3310509e-002,7.9579016e-003,2.8448897e-002,4.3329827e-003,-3.5490123e-002,8.5069175e-002,-1.0965455e-001,3.8676509e-002,-3.5343905e-002,-8.2677728e-002,2.5703267e-003,-5.1734601e-002,-6.8086834e-002,7.4478983e-002,0.0000000e+000,0.0000000e+000,1.0933606e-001,4.6946096e-002,5.6977929e-002,-1.4341247e-001,4.2212930e-002,-3.1487313e-002,9.9629440e-004,1.7490911e-001,-5.2980599e-002,-6.5087852e-002,2.7415389e-002,2.9299029e-003,4.4323803e-002,-1.0662428e-001,0.0000000e+000,0.0000000e+000,-2.4529059e-002,2.0791802e-002,5.3399278e-002,-1.9329969e-001,1.6109914e-002,-6.2351275e-002,-5.6245490e-002,3.8847960e-002,-1.9293181e-002,1.9138253e-001,-2.0108147e-002,9.3862852e-002,-1.7055297e-001,-3.3024191e-002,0.0000000e+000,0.0000000e+000,-3.5760461e-002,3.4587978e-003,1.1912768e-001,9.1638305e-002,-7.1193517e-002,8.2488880e-002,2.4337733e-001,-2.8003655e-001,7.6226668e-003,3.8190704e-002,-1.8655737e-002,6.5918414e-002,1.3910567e-001,-7.4620315e-003,0.0000000e+000,0.0000000e+000,-6.1797650e-002,-1.9446372e-002,7.3796945e-003,6.5786345e-002,-4.7724286e-002,8.3369916e-002,-3.2731114e-002,-1.2941731e-002,-1.8252201e-002,-1.3270271e-001,1.5062162e-001,-4.0512810e-002,7.9325732e-002,1.5324777e-001,0.0000000e+000,0.0000000e+000,-4.8221286e-002,8.9223039e-003,5.4802347e-002,-7.0560786e-002,4.5605383e-002,-8.4269071e-002,-1.8989310e-001,1.3295388e-001,1.3602344e-001,-2.7357702e-002,3.2787023e-002,-6.1636570e-002,-2.5825915e-001,1.4594016e-001,0.0000000e+000,0.0000000e+000,-2.3581127e-002,-8.5984885e-002,4.3223184e-002,-1.6552001e-001,1.2971413e-002,6.7791260e-002,-1.0019545e-001,1.0055345e-001,-1.4033563e-001,1.7895953e-001,1.7151787e-002,-5.3060326e-003,-8.5786774e-003,-5.4994303e-002,0.0000000e+000,0.0000000e+000,-7.1496692e-002,-4.4810859e-002,
,115,-9.9310223e-002,1.4654357e-002,-1.0911334e-001,-1.0641065e-001,-2.4212085e-001,2.1788439e-001,5.4956197e-002,-3.7094492e-002,2.6961993e-001,-2.1189545e-001,1.1000247e-002,1.8668215e-002,0.0000000e+000,0.0000000e+000,5.8541172e-002,2.6764624e-003,-1.6548806e-001,1.0728414e-001,-9.0883535e-002,1.6680184e-001,1.8503667e-001,1.8097618e-002,-5.6937727e-002,-1.1418342e-001,-1.1673211e-001,3.7934093e-002,-5.8533239e-002,2.1129326e-001,0.0000000e+000,0.0000000e+000,2.5816733e-002,3.8036191e-003,1.6475173e-002,-3.7581535e-002,1.5894125e-002,7.3431730e-002,1.0788112e-001,-3.3328602e-002,2.7535615e-002,-9.2202474e-002,-3.0027582e-002,5.9991292e-002,-9.9282133e-002,6.5459611e-002,0.0000000e+000,0.0000000e+000,3.2831950e-002,-4.6229998e-002,-4.9611595e-003,8.6507533e-002,-2.5848145e-002,-4.9710814e-002,-1.3290924e-001,-2.6713522e-002,2.2306246e-002,6.3359527e-002,4.4870892e-002,-1.6610811e-002,-7.2823129e-002,-8.2739998e-002,0.0000000e+000,0.0000000e+000,-1.5057105e-002,5.2818243e-002,1.4183512e-001,-7.7754594e-002,-7.0224886e-002,-3.5557908e-002,6.6775278e-002,-7.2410493e-002,1.3784771e-001,-1.2899699e-002,-9.5839518e-003,9.1387532e-003,-3.2177581e-002,-1.6222922e-002,0.0000000e+000,0.0000000e+000,-1.4219276e-002,-8.3018392e-002,-1.5244377e-001,-1.0085881e-001,3.1024161e-003,1.0063325e-001,1.2997189e-001,-1.0449419e-001,6.8261851e-002,2.0303831e-003,3.6295665e-002,5.8062361e-003,-5.0709110e-002,-2.9317675e-002,0.0000000e+000,0.0000000e+000,4.6154951e-002,8.2680938e-004,-1.5190392e-001,-1.0940380e-002,4.6018439e-002,1.0189657e-001,-8.5829507e-002,2.9298612e-003,-1.0049919e-001,1.4431436e-002,1.2527152e-001,9.3329783e-002,-3.0160475e-003,-2.7580564e-002,0.0000000e+000,0.0000000e+000,-2.3093951e-002,-8.7648424e-003,1.9092785e-001,-7.9240982e-002,-7.2450544e-002,-1.9028776e-002,-1.4951127e-001,1.6970580e-001,2.7209305e-002,8.3630465e-003,2.5197497e-002,4.6597664e-002,-7.0127166e-002,1.0869727e-001,0.0000000e+000,0.0000000e+000,-8.0328595e-002,-1.0617628e-001,1.5262206e-001,-6.4112593e-002,3.4026324e-002,-1.1662018e-001,-2.7017506e-003,-2.6157337e-002,1.5220155e-001,-1.8824418e-002,5.2119812e-002,-8.3949029e-003,-9.2942484e-002,-1.0242611e-001,0.0000000e+000,0.0000000e+000,-3.7864709e-002,-1.5936542e-001,-2.7084951e-002,1.7614222e-002,-5.4143846e-003,5.5864931e-002,1.4150600e-001,-9.2784255e-002,-7.1357183e-002,4.1598713e-002,-6.0198537e-002,-6.7589884e-002,-1.2711396e-001,-1.0603238e-001,0.0000000e+000,0.0000000e+000,4.1765259e-002,1.1041947e-001,
,127,-9.0220676e-002,1.6180452e-001,-2.1589484e-002,-3.8546327e-003,-3.8792869e-002,-1.0647538e-001,-1.0868569e-002,-8.0858970e-002,-5.1822882e-002,9.3539734e-002,1.4004086e-001,-5.5483405e-002,0.0000000e+000,0.0000000e+000,-1.0017922e-001,7.9131903e-002,9.1778359e-002,8.8943184e-002,1.8688422e-002,-8.7639072e-002,-4.6600597e-002,6.8766261e-002,8.3382532e-002,-1.0988087e-001,9.7824652e-002,-1.4129805e-001,-3.8281426e-002,4.5840346e-002,0.0000000e+000,0.0000000e+000,9.3226727e-002,2.4208239e-002,9.0617006e-002,-3.0126992e-003,-2.9813867e-002,-1.2577598e-002,-2.1426083e-002,-2.0387608e-003,3.4139332e-002,7.2837971e-003,-1.3232074e-001,1.0465981e-001,-1.7210541e-002,5.0104866e-002,0.0000000e+000,0.0000000e+000,-1.5621388e-001,8.9121917e-002,6.5318783e-002,-6.8536033e-002,4.0883091e-002,-1.8125273e-002,-1.1425866e-001,7.8616491e-002,-1.5343739e-002,1.3132003e-001,-4.6389994e-002,1.1361216e-001,-1.6977832e-001,5.7310339e-003,0.0000000e+000,0.0000000e+000,7.5507379e-002,3.5957789e-002,1.0542168e-001,8.1396506e-002,-2.7470239e-002,2.1567118e-001,9.3149552e-002,-3.7430602e-002,-3.5512609e-002,-1.8889546e-001,9.9513890e-003,4.9090270e-002,1.1674317e-001,-1.0637985e-001,0.0000000e+000,0.0000000e+000,-1.0012228e-001,-6.4746370e-002,1.9274091e-001,-8.2111328e-002,-3.8494981e-002,6.5805575e-002,5.0780189e-002,-1.2180187e-001,1.1562675e-001,-1.6832820e-002,1.1363656e-001,9.3027340e-002,-1.5965706e-001,6.2964274e-003,0.0000000e+000,0.0000000e+000,-5.4865237e-002,-4.5538395e-002,1.9432936e-001,-5.4487957e-002,-5.8293344e-002,-9.3178214e-003,-1.5002904e-001,2.0374264e-002,-1.4514189e-002,1.1631593e-001,6.3929012e-002,-4.7015311e-002,-2.2809230e-001,5.7136468e-002,0.0000000e+000,0.0000000e+000,1.7579153e-001,6.6063712e-002,-4.5659519e-002,-4.5531600e-002,3.2479705e-002,-2.7316095e-003,2.1238568e-001,-1.0566574e-001,6.5909609e-002,-2.7891228e-002,-1.7513831e-001,7.3122650e-002,-3.3908086e-002,-1.1394595e-002,0.0000000e+000,0.0000000e+000,-3.6885539e-003,1.8201046e-001,7.1348336e-002,9.7471017e-002,-7.8382447e-002,-9.8754156e-002,5.6116303e-002,-1.0493387e-001,1.1824240e-001,-2.2289672e-002,-4.8923453e-002,-5.4242019e-002,1.0085553e-001,8.7350264e-002,0.0000000e+000,0.0000000e+000,-3.0862217e-002,-1.1878497e-001,4.7679373e-003,-8.9510498e-002,-2.6899782e-002,-1.8525005e-002,-4.4041305e-002,1.7653120e-001,-2.0202108e-001,1.3448129e-001,3.1089314e-002,-2.1817594e-001,7.2997877e-002,-6.1779410e-002,0.0000000e+000,0.0000000e+000,-4.4846947e-002,5.8031263e-002,
,139,-3.6387203e-002,-1.3617378e-001,6.8385462e-002,-2.4546024e-001,5.2507086e-002,6.1354282e-002,4.0486765e-002,2.9379830e-001,9.3958636e-002,-1.5449134e-001,6.2142386e-002,-1.8267200e-001,0.0000000e+000,0.0000000e+000,1.5392347e-002,-8.8082896e-002,1.6298403e-001,-1.2974765e-001,-2.6409016e-002,-5.0502341e-002,-3.2697108e-001,4.4924050e-001,-1.6687381e-001,5.2299445e-002,7.1453885e-002,-1.6615243e-001,-1.2044105e-002,1.4349983e-001,0.0000000e+000,0.0000000e+000,-6.3165363e-002,1.2983355e-001,1.6338549e-003,-1.4161619e-001,7.5716211e-002,-3.1330357e-002,3.6192286e-002,5.3560118e-002,-1.5962823e-002,-3.5481910e-002,4.4609257e-002,4.2278544e-003,-4.9027879e-002,6.1074399e-002,0.0000000e+000,0.0000000e+000,-6.2721363e-003,-4.2392982e-002,6.8587632e-002,5.7295731e-003,-3.6890427e-002,2.7822816e-003,-3.1064340e-002,5.7142307e-002,-6.6452373e-002,3.8755406e-002,-5.1006626e-002,2.8087587e-002,-1.0768082e-002,-6.6554734e-002,0.0000000e+000,0.0000000e+000,5.1395782e-002,-6.1098826e-002,7.0108242e-002,-3.5946153e-002,-8.3092448e-002,2.5157631e-002,3.9759069e-003,1.3178653e-002,-1.1087377e-001,-3.5303575e-003,-1.4572717e-001,1.2067472e-001,5.3877477e-002,-1.1020703e-001,0.0000000e+000,0.0000000e+000,-2.0555157e-001,-6.1676022e-002,-3.3149911e-002,3.8776336e-002,-1.6835817e-002,1.6148970e-002,-7.3084608e-002,7.3538723e-002,-1.2509818e-001,2.3630994e-002,-1.9896832e-002,-5.6143541e-002,-5.4249252e-002,-6.7609190e-002,0.0000000e+000,0.0000000e+000,-1.6340872e-002,1.2040707e-002,-3.3331412e-002,1.9426520e-002,-3.7389808e-002,3.2978713e-002,-4.0257170e-002,-8.3245605e-002,-2.5237726e-002,9.7693699e-002,-2.3569626e-002,2.5576523e-002,-3.1753156e-002,3.8771657e-003,0.0000000e+000,0.0000000e+000,6.8610228e-002,1.5448025e-002,-5.1974966e-002,-1.6146128e-001,-8.6993692e-002,1.0091169e-002,-4.4429107e-003,8.3330775e-002,7.4294986e-003,-1.5643477e-001,1.3116052e-001,2.2157025e-003,6.1757048e-002,1.7112827e-001,0.0000000e+000,0.0000000e+000,-1.0781087e-001,-9.2919158e-002,1.7042264e-001,-1.5413989e-002,-8.6207506e-002,-2.6017294e-003,6.3579625e-002,3.7651694e-002,1.6176350e-001,-7.6909264e-002,-7.3570038e-002,3.5835684e-002,1.9514685e-002,8.0453077e-002,0.0000000e+000,0.0000000e+000,-3.1182239e-002,-7.9872176e-002,1.0069167e-001,-4.2892747e-002,-1.6425842e-003,8.4483216e-003,5.5080691e-002,-1.6532389e-001,1.7627954e-002,1.0164185e-001,-1.1856479e-001,8.1118613e-002,-2.0080204e-001,-2.2322214e-002,0.0000000e+000,0.0000000e+000,1.4598214e-001,9.9931015e-003,
,151,-1.7342469e-001,8.1164060e-002,-2.0403712e-001,2.3674377e-001,-7.3789587e-002,1.4657945e-002,8.4912302e-002,-2.6079909e-001,-9.4893237e-002,-8.8119508e-002,8.6306649e-002,3.9303501e-002,0.0000000e+000,0.0000000e+000,3.2983924e-002,7.1335666e-002,1.6338497e-001,-1.7411855e-001,7.9015152e-003,-6.6369753e-002,1.1330570e-001,-2.1363090e-001,1.7746159e-001,-5.4552793e-002,1.4002407e-002,7.1304042e-002,1.9925204e-003,-1.3053947e-001,0.0000000e+000,0.0000000e+000,-1.3722871e-001,2.3007612e-001,-2.1729112e-002,-1.6688165e-002,2.7644006e-002,-2.8969223e-002,7.2489609e-002,-1.1388528e-001,-9.2736132e-002,2.5549761e-003,-6.1800659e-002,1.0059990e-002,2.6132488e-002,-5.5840717e-002,0.0000000e+000,0.0000000e+000,1.9290037e-002,1.3695809e-003,6.5266676e-002,-9.4584696e-002,1.9708429e-001,3.4782569e-002,-1.2669401e-001,1.0971468e-001,-1.6554589e-001,5.5094314e-003,-8.1625357e-002,-5.2733176e-002,-2.9620912e-002,-6.0720068e-003,0.0000000e+000,0.0000000e+000,1.3561708e-001,9.6044014e-002,-7.7360190e-003,-3.4763724e-002,-6.3650567e-002,1.5917121e-001,8.7836313e-002,1.6623997e-001,6.1477471e-002,-1.9701189e-001,-1.0722347e-001,-1.6114513e-002,-1.3478454e-002,1.2292072e-001,0.0000000e+000,0.0000000e+000,-7.5820450e-002,7.0153760e-002,-1.2224220e-001,-6.7362559e-002,-7.6416878e-002,6.2710605e-002,-2.5197830e-002,-2.4325666e-002,-1.1363691e-002,9.3753961e-002,9.2285215e-002,7.2658519e-002,1.1615464e-002,-1.4438124e-001,0.0000000e+000,0.0000000e+000,1.9535472e-002,-8.5612175e-002,1.9452185e-001,8.0542245e-002,-6.1504899e-002,-1.4358415e-001,1.7487926e-002,-6.2635817e-002,4.6353856e-002,2.6465255e-002,1.7677811e-001,4.7948789e-002,-5.1304524e-004,-6.6493087e-002,0.0000000e+000,0.0000000e+000,-2.5945951e-001,8.7853732e-003,-5.3996417e-002,1.3299073e-001,-1.1022562e-001,3.8466648e-003,8.0294614e-002,-8.2521278e-002,1.1811011e-001,-5.0894094e-002,-9.9126223e-002,7.2578063e-002,-2.2712005e-001,-1.0429467e-001,0.0000000e+000,0.0000000e+000,1.7678946e-001,2.2326744e-001,-1.3598281e-001,-5.3156071e-002,-4.1273953e-002,1.7745108e-001,8.2974997e-003,-7.1509712e-002,-1.3280160e-002,-1.3827056e-001,-4.4018005e-003,-8.9230448e-003,3.7986104e-002,4.7469277e-002,0.0000000e+000,0.0000000e+000,1.6659332e-001,9.7063257e-002,1.1495535e-001,-1.2842482e-001,1.0962455e-001,7.9960961e-002,-1.3040745e-001,1.0787556e-002,-1.5435555e-001,1.2051357e-001,8.7305550e-002,-3.8681542e-002,1.5617979e-001,-6.1442928e-002,0.0000000e+000,0.0000000e+000,-6.8556515e-002,-1.9031340e-001,
,163,2.6120966e-002,-1.2812926e-001,5.9650614e-002,2.7105533e-002,-2.2095066e-001,1.4440271e-001,1.8506309e-002,-4.7480086e-002,-2.7909351e-002,-9.2388410e-002,4.0590830e-002,-9.5976110e-003,0.0000000e+000,0.0000000e+000,3.0565836e-002,1.1980881e-001,-7.9379802e-002,1.6586823e-001,-6.6566202e-002,1.7674877e-001,1.3646667e-001,-1.8696053e-001,-2.0457062e-001,7.3203741e-002,1.5664791e-001,-1.5786406e-001,2.2592301e-001,-4.9239137e-002,0.0000000e+000,0.0000000e+000,-6.6007421e-003,-5.3738629e-002,1.0716900e-001,-2.9625891e-002,1.5511361e-001,-1.0108662e-001,5.3202954e-002,3.7941071e-002,-1.2082806e-001,4.2636490e-002,2.5160264e-002,6.0606963e-002,-3.5850235e-004,-6.2113543e-002,0.0000000e+000,0.0000000e+000,-1.6438887e-001,-8.0528235e-003,5.7148322e-002,6.8762801e-002,-9.0362731e-002,1.5090965e-002,-6.1155807e-002,-9.5149643e-002,1.2936343e-001,-1.6367997e-001,-1.0104069e-001,1.0569278e-001,-1.1462499e-001,1.4864447e-001,0.0000000e+000,0.0000000e+000,-1.2722716e-001,9.9654626e-002,7.8658081e-002,4.3441354e-002,-7.5315677e-002,3.1650381e-002,-8.0028561e-002,6.3918274e-002,-1.2714522e-001,-3.4807270e-005,-2.2980973e-001,1.5091681e-001,7.9574586e-002,-2.3496955e-002,0.0000000e+000,0.0000000e+000,-1.1828936e-001,4.4292921e-002,-1.5505263e-001,1.9716453e-003,-5.2155266e-002,-1.2505322e-002,1.7570837e-001,2.2837662e-003,-1.5153145e-001,9.4395504e-002,-2.0563636e-002,3.9834670e-002,-2.5873970e-002,-3.9983830e-002,0.0000000e+000,0.0000000e+000,7.5104045e-002,-6.8411006e-002,1.1498529e-001,-7.1155484e-002,-1.2300327e-002,-8.5557881e-002,3.9075641e-002,-3.3093946e-002,1.6560793e-001,-1.0533171e-001,2.4468954e-002,-4.5991553e-002,-9.0322086e-002,5.4687113e-002,0.0000000e+000,0.0000000e+000,-2.8911544e-002,-9.0158239e-003,5.2180176e-002,-3.7921422e-002,-6.2344899e-002,7.2904581e-002,-9.9047916e-002,1.7741233e-001,1.0315548e-001,4.7604053e-002,4.6591157e-002,-1.1493774e-001,-1.9673430e-001,1.0370620e-001,0.0000000e+000,0.0000000e+000,1.5951408e-002,2.4149785e-001,1.5362627e-001,7.6044785e-002,-1.3848929e-001,2.8027244e-001,-2.7589699e-002,-9.0211241e-002,1.6734156e-001,7.5577925e-003,-4.5111392e-002,9.1078451e-003,-2.4455297e-002,-7.6366403e-002,0.0000000e+000,0.0000000e+000,7.8400641e-002,-1.0582376e-001,-1.0489635e-002,-3.7351260e-002,-3.7967643e-002,3.0684762e-002,1.3993480e-002,-1.2189114e-001,-1.2137528e-001,1.2998385e-001,1.1209919e-001,5.4133774e-002,4.0942652e-002,-7.7586857e-002,0.0000000e+000,0.0000000e+000,2.0338535e-002,-2.0015523e-001,
,175,-1.6144870e-001,2.6309637e-002,-1.6312461e-001,1.7108307e-001,3.0059020e-002,7.4994866e-002,1.9247161e-001,-2.5045182e-001,-3.3242150e-001,1.4410348e-001,4.5368178e-002,1.3146222e-001,0.0000000e+000,0.0000000e+000,-6.7226880e-002,1.3583945e-001,1.9911921e-001,-8.6009151e-002,3.0134013e-002,-4.8076093e-002,-8.4904225e-002,-9.7817848e-002,1.2275635e-001,-2.1897487e-001,-3.1923269e-002,1.1177648e-002,-4.9141670e-002,3.0637041e-001,0.0000000e+000,0.0000000e+000,8.2359834e-003,7.8577490e-002,1.1860594e-002,-3.7204420e-002,1.7374727e-002,-1.9463207e-003,-9.8834984e-002,4.7751565e-002,-3.4869461e-002,8.0413807e-002,2.2392803e-002,6.3266769e-003,-5.1804517e-002,-9.8226481e-002,0.0000000e+000,0.0000000e+000,-2.2609150e-002,-6.0557712e-002,-1.2429207e-001,2.0757953e-002,8.2957115e-002,-1.4104841e-001,1.2629620e-001,6.2948182e-002,-1.1303229e-001,1.2529672e-001,-8.8690690e-002,-2.2725725e-002,-9.6384468e-002,-1.0881461e-001,0.0000000e+000,0.0000000e+000,1.5350429e-001,6.4424863e-002,-6.7877183e-002,4.1032993e-002,-1.7661933e-002,1.6145755e-002,1.1502406e-002,-5.7782638e-002,4.7149125e-002,3.9249467e-002,1.1562823e-001,2.4834921e-002,2.3847329e-003,5.8767660e-002,0.0000000e+000,0.0000000e+000,-1.1862152e-001,4.6281783e-002,-9.2440067e-002,-1.1616471e-001,1.8059656e-001,-1.0706237e-001,-2.2231233e-003,-1.2416599e-001,-1.3474306e-001,1.0555722e-001,-2.7749394e-001,6.9090102e-002,-8.1363353e-002,-2.6397603e-003,0.0000000e+000,0.0000000e+000,4.9218829e-002,7.1967454e-002,1.2039534e-001,-1.6095578e-001,-2.0136076e-001,-2.4437922e-002,-1.9856228e-002,4.8181278e-002,1.6350257e-002,1.5254177e-001,-3.8505640e-002,4.0538807e-002,9.4911613e-004,-2.8091381e-002,0.0000000e+000,0.0000000e+000,-1.3555540e-001,-4.3777710e-002,1.3869653e-001,-8.9678612e-002,-8.8951180e-002,1.0672496e-001,2.1250756e-001,1.1740278e-001,7.8694455e-002,-1.0642083e-001,-1.8199535e-001,3.3179894e-002,7.5793021e-002,9.7688716e-003,0.0000000e+000,0.0000000e+000,-1.1529852e-001,-1.1659287e-001,-6.3706687e-003,6.2417357e-002,3.1823407e-002,1.1399417e-001,6.9857338e-002,1.0857138e-001,2.4598293e-002,-1.9816917e-001,-2.5281102e-002,-4.5798060e-002,5.0061188e-002,1.9370441e-001,0.0000000e+000,0.0000000e+000,-2.9060160e-002,-2.2605915e-002,8.3579440e-003,-7.0129714e-002,1.2021812e-001,2.9426721e-002,-2.9481086e-001,9.5848978e-002,-1.6514381e-001,3.5466304e-002,2.0781574e-001,1.7972464e-001,-1.9610501e-001,5.4823936e-002,0.0000000e+000,0.0000000e+000,1.3688069e-001,-7.3130105e-002,
,187,-1.0918067e-001,-1.6857137e-002,7.9190429e-002,-1.7455566e-002,3.2525147e-002,-7.5668704e-002,1.4360748e-001,-1.4897818e-001,-4.1946480e-002,1.9835855e-002,-8.8532651e-002,1.7338634e-001,0.0000000e+000,0.0000000e+000,-8.9734257e-003,1.1349527e-001,1.5646270e-001,2.1423453e-002,1.4153917e-001,-3.1253339e-003,-9.4581442e-002,-9.0736655e-003,-1.0707494e-001,-1.3695126e-001,2.1196182e-002,-1.2715125e-001,-7.7929113e-002,1.6023257e-001,0.0000000e+000,0.0000000e+000,1.9562139e-001,-4.4660742e-002,1.0239637e-001,1.3093324e-003,-8.5254746e-003,-1.7803751e-002,-1.3140911e-001,6.2819564e-002,-5.1490967e-002,5.8392223e-002,-5.6577365e-002,-1.7731847e-002,1.6570915e-002,5.4604152e-003,0.0000000e+000,0.0000000e+000,-1.3674079e-001,-3.2230842e-002,1.1838459e-001,4.1927014e-004,1.4754338e-002,-6.1240654e-002,-1.0626030e-001,7.9634979e-003,8.8476966e-002,-8.0471122e-002,7.3424401e-002,-9.5786651e-003,-7.8706858e-002,1.0079943e-001,0.0000000e+000,0.0000000e+000,-1.7859535e-002,-2.3404497e-002,-1.5031097e-002,-1.3423940e-001,-7.9642951e-003,8.2978392e-002,1.2270994e-001,-1.5799074e-002,5.4402326e-002,-1.0828341e-001,-1.4519560e-002,5.4904053e-002,5.8616217e-003,1.0142068e-001,0.0000000e+000,0.0000000e+000,3.0466329e-002,-2.5048735e-002,-5.6871620e-005,-1.2914419e-001,9.6903071e-002,1.1091392e-001,-1.1090455e-001,9.9801857e-002,-1.2053871e-001,4.9444189e-002,1.3633911e-001,-1.2518708e-001,2.3964011e-003,-8.5390101e-002,0.0000000e+000,0.0000000e+000,1.3706125e-001,-5.1490526e-002,1.0911245e-001,1.2619228e-001,-9.4419735e-002,1.1078233e-001,-1.2457014e-001,-2.2343627e-002,6.8180549e-002,-3.1921385e-002,3.9816451e-002,-2.2770975e-002,3.1391297e-002,3.7418340e-002,0.0000000e+000,0.0000000e+000,-1.5105450e-001,7.7152522e-002,1.8155762e-001,-1.4369873e-001,-1.6069519e-002,2.6122644e-001,2.0294450e-001,-4.0638287e-002,9.0679286e-003,-2.0714881e-001,-3.6161623e-001,2.7773730e-001,-6.2254365e-002,1.2341828e-002,0.0000000e+000,0.0000000e+000,-1.4474491e-001,9.4153999e-002,-1.2180396e-002,7.6102636e-002,-2.1774635e-001,3.1096295e-002,9.2552389e-002,-1.0706742e-001,5.9909600e-002,-9.8330571e-002,8.7115806e-002,1.5912823e-001,7.2049086e-003,2.0457931e-002,0.0000000e+000,0.0000000e+000,-5.2560164e-002,-3.3100303e-002,-1.6274280e-001,2.6568654e-002,3.5873430e-002,-1.4413238e-001,-3.5135731e-002,2.2281704e-001,-1.5620901e-001,1.0682181e-001,2.6905485e-002,-2.2059327e-001,-3.6506251e-002,1.9096919e-001,0.0000000e+000,0.0000000e+000,1.2061875e-001,-1.4992834e-001,
,199,-2.9188883e-001,2.3390106e-001,-1.2354226e-001,1.2428615e-002,2.6434568e-001,-3.1485064e-001,3.1674969e-001,-1.4814190e-001,-2.0722817e-001,1.0395616e-001,-2.4888781e-001,1.2967756e-001,0.0000000e+000,0.0000000e+000,1.3797280e-001,6.6716318e-002,-2.2639686e-001,-2.5878131e-002,-1.1220857e-001,7.3819290e-002,6.3294072e-001,-1.9999292e-001,1.1756136e-001,-1.3770219e-001,-5.1051443e-001,3.4806305e-001,-1.8869315e-001,1.5364943e-001,0.0000000e+000,0.0000000e+000,-2.7850076e-002,1.5074177e-001,2.1308446e-002,6.9642773e-002,-6.7362055e-002,-6.0764530e-003,3.6926473e-002,9.4059956e-002,-1.1100691e-001,-4.0415258e-002,-3.9594292e-002,-6.6497135e-002,1.8431356e-001,-2.0169523e-003,0.0000000e+000,0.0000000e+000,-1.3833331e-001,5.9664826e-002,1.3936042e-001,3.6386098e-002,1.5731387e-002,-4.4479852e-002,-1.7967008e-001,-1.6410122e-001,2.1264702e-002,1.0639046e-001,8.5986538e-002,5.9497937e-002,-8.7444381e-002,-1.0738979e-001,0.0000000e+000,0.0000000e+000,1.8508976e-001,-3.9586227e-002,7.3993410e-002,2.2272182e-002,8.7594866e-002,7.8083902e-002,3.8503032e-002,2.3309935e-002,-2.8300222e-001,8.6808973e-002,-1.0698419e-001,2.2712562e-001,8.0186707e-002,-7.1725931e-003,0.0000000e+000,0.0000000e+000,-1.5258515e-001,-2.2135858e-002,1.5414079e-001,2.1611839e-001,-2.5091383e-001,1.3972021e-001,-8.7463422e-002,-1.6229357e-001,5.6525573e-002,3.2426854e-002,-1.0917566e-001,1.8476480e-001,-1.1778495e-001,-1.4741136e-001,0.0000000e+000,0.0000000e+000,-1.3130916e-001,2.2510835e-001,7.5624042e-002,1.7668317e-002,-1.9524279e-001,8.5088973e-002,1.0408773e-001,-1.3520726e-001,3.6251941e-001,-3.3524906e-001,1.3155357e-001,-3.0455253e-001,-3.7234155e-002,9.8182992e-002,0.0000000e+000,0.0000000e+000,4.1098534e-002,2.8416242e-002,-1.7558287e-001,-1.4846461e-001,7.0703154e-002,7.6159611e-002,8.8082496e-003,5.7766240e-002,-5.7224963e-002,1.0365137e-001,1.9692651e-001,-3.3965330e-001,2.8297058e-002,1.5668675e-001,0.0000000e+000,0.0000000e+000,9.9313618e-002,8.0343688e-002,-7.8128967e-002,2.2029153e-001,6.0880621e-002,-7.5881094e-002,-1.0973367e-001,1.9743467e-001,-5.1675756e-002,3.2954258e-001,-5.1603732e-003,-1.9244405e-002,-1.0144985e-001,-6.7743761e-002,0.0000000e+000,0.0000000e+000,5.3899480e-002,-1.4836717e-001,-1.4127627e-001,1.4636737e-001,-1.1090599e-001,9.6516380e-002,1.1933065e-001,-2.3658404e-001,-3.3373292e-002,-1.5358426e-001,-7.4341815e-002,8.1657310e-002,5.3697137e-002,1.5822796e-002,0.0000000e+000,0.0000000e+000,-5.7828302e-003,-1.4871875e-001,
,211,-1.7995397e-001,2.7597031e-001,-4.5615836e-002,1.9217992e-001,2.6857433e-001,-2.9405762e-001,-3.9990341e-002,-2.0640501e-001,-2.4355458e-001,1.8331775e-001,1.4179094e-001,-3.3872262e-002,0.0000000e+000,0.0000000e+000,-5.3823872e-002,6.1902654e-002,-1.1047579e-001,1.0426459e-001,-8.1128274e-002,-3.8924747e-002,1.8233865e-001,6.4800752e-002,3.7499520e-002,6.9463964e-002,-8.1423186e-002,-7.6497855e-002,-5.3219456e-002,-3.7922023e-002,0.0000000e+000,0.0000000e+000,-1.2349291e-003,1.0173589e-001,5.6588006e-002,5.7283881e-003,-9.7283642e-002,1.0063502e-001,-6.4734741e-002,4.1404363e-002,-3.2588797e-002,-8.3145671e-002,3.6410195e-002,-2.7899665e-002,3.1121043e-002,1.1742909e-001,0.0000000e+000,0.0000000e+000,-1.3447147e-001,7.9287115e-002,7.9830524e-003,-1.2950461e-001,1.0230112e-001,-9.4280207e-003,4.6739766e-002,4.8250632e-002,-2.3496499e-002,-1.1819276e-002,-1.1544013e-001,-2.4829877e-002,4.0723431e-003,8.8979567e-002,0.0000000e+000,0.0000000e+000,3.7383736e-002,5.6523366e-002,1.1426437e-001,-8.4374840e-003,-1.4393267e-001,-2.6737792e-002,-4.2698632e-002,1.0141252e-001,1.4279142e-001,-3.4166976e-002,1.1805712e-002,-3.9417150e-002,-1.0212693e-001,-7.3677065e-002,0.0000000e+000,0.0000000e+000,-1.1520215e-002,4.1568657e-002,1.3430288e-002,-1.0490678e-002,-6.1496631e-003,1.1861062e-001,-1.0586529e-001,1.4517384e-001,-2.9009256e-001,9.0820322e-002,1.8807475e-002,1.2436817e-001,-5.8350438e-002,-2.4407845e-003,0.0000000e+000,0.0000000e+000,-1.6689695e-002,-3.7458279e-002,-8.0228547e-002,1.7671885e-001,-1.7026884e-001,5.5561728e-002,6.9597606e-002,-1.4567251e-002,6.1325744e-004,-1.2403287e-001,-2.2464642e-003,1.4108223e-001,-3.9859354e-002,6.6680643e-002,0.0000000e+000,0.0000000e+000,5.0135683e-002,1.3248424e-002,-1.1691615e-001,1.0901772e-002,1.1440406e-001,-1.5013137e-001,5.4172646e-002,-1.2325048e-002,-2.0439672e-002,1.1173204e-002,-6.3197516e-002,-4.9120988e-002,-2.2577609e-002,-7.9085368e-002,0.0000000e+000,0.0000000e+000,-6.4416790e-002,1.3438141e-001,1.2040172e-001,-8.8468246e-002,7.6420856e-003,-2.1041697e-001,-7.0789968e-002,-2.5312323e-002,1.3040470e-001,1.5823937e-001,-2.1413489e-002,-1.5528162e-002,1.4791076e-001,-9.8637474e-002,0.0000000e+000,0.0000000e+000,-1.2398257e-001,-1.1364885e-004,5.6931804e-002,4.1375355e-003,-1.3219385e-001,9.3653972e-002,-1.1336851e-002,-5.5802421e-002,-1.1856169e-001,-1.6141474e-002,-4.6445914e-002,-2.9835668e-002,2.3051769e-002,5.0573725e-002,0.0000000e+000,0.0000000e+000,2.3331900e-002,3.1867449e-002,
,223,-6.4844021e-002,3.0178175e-001,-3.7261334e-001,9.6106518e-002,3.5733331e-002,-5.4307703e-001,3.9160546e-001,-2.1595123e-001,6.8824850e-002,7.3502349e-003,2.4042681e-002,8.5502011e-002,0.0000000e+000,0.0000000e+000,-3.9188145e-002,6.0116957e-002,2.2860545e-001,-2.2905163e-001,-1.7038719e-002,-1.2574525e-002,-2.8405533e-001,6.2004664e-002,2.5584906e-001,-1.8602977e-002,1.0832923e-001,2.1853095e-001,-2.1148948e-001,4.5610929e-003,0.0000000e+000,0.0000000e+000,-4.0304816e-002,-2.0719336e-001,4.2699248e-002,-1.5087198e-001,-1.3472737e-001,-8.1736563e-002,-6.6915761e-002,1.6567255e-001,5.7634316e-002,1.8631274e-001,7.2812436e-002,-3.3387916e-002,-1.5783893e-001,-7.7126309e-002,0.0000000e+000,0.0000000e+000,-7.6309629e-002,4.0130169e-002,-3.3900975e-002,3.4049773e-003,-7.5059842e-002,2.7624130e-002,8.6081308e-002,-1.2517865e-001,8.9577046e-002,-7.2183149e-002,2.1322959e-002,2.1107847e-001,-3.5127648e-001,1.1909079e-001,0.0000000e+000,0.0000000e+000,-8.4715535e-002,3.2357172e-002,9.9579036e-002,3.5363578e-002,-1.9035488e-001,1.7508124e-001,-4.7183048e-002,6.2431645e-002,2.2653434e-002,-1.5603244e-001,3.3639146e-002,-7.1440157e-002,-1.3535465e-003,9.1363023e-002,0.0000000e+000,0.0000000e+000,7.4953132e-002,-8.9965583e-002,1.1454327e-001,-1.9917386e-001,3.8002065e-002,1.0186496e-001,-1.1157584e-001,1.5150835e-001,-1.7479259e-001,-7.5060880e-002,7.8834097e-002,-2.2671594e-002,-6.6741537e-003,7.5429059e-002,0.0000000e+000,0.0000000e+000,2.0148382e-002,-1.4018019e-001,3.2322266e-003,2.4621447e-001,8.6509792e-002,1.7554367e-001,-2.3687934e-001,8.8898441e-002,-2.3094881e-001,3.5772107e-003,2.9841525e-002,1.2280380e-002,-6.8898818e-003,2.8723604e-002,0.0000000e+000,0.0000000e+000,-1.1967771e-001,-5.6097036e-002,1.4810577e-001,2.4632150e-001,-2.3943809e-001,-2.2454392e-002,9.4583300e-003,-2.1861530e-001,7.6433531e-003,1.6493559e-001,-2.3393856e-002,-2.9925252e-002,-7.9501569e-002,-7.0570870e-003,0.0000000e+000,0.0000000e+000,2.2253008e-002,-5.4530985e-002,-6.5078728e-002,-7.4135927e-002,-1.6608474e-001,7.6727572e-002,3.2558834e-001,-1.4200507e-002,1.7778180e-001,-3.4522355e-001,-2.0147871e-002,-1.8782188e-002,1.5497930e-001,-7.3120028e-002,0.0000000e+000,0.0000000e+000,-7.0018396e-002,7.3235137e-003,-1.1183490e-001,-1.2404847e-001,1.5838287e-001,6.8321504e-002,7.1856598e-002,-3.0954003e-002,-3.7045379e-002,-2.6782594e-001,1.0478729e-001,6.1648777e-002,-3.7244065e-002,1.8854436e-002,0.0000000e+000,0.0000000e+000,2.0487309e-001,-2.3672455e-001,
,235,1.5719708e-002,-1.2352544e-001,1.9989047e-001,-1.4967251e-002,2.4921981e-001,-1.9827140e-001,6.1935114e-002,-1.5237548e-001,2.0894227e-003,-8.3884552e-002,6.4736953e-002,3.9301547e-002,0.0000000e+000,0.0000000e+000,-4.7513337e-002,2.8636578e-002,7.6630130e-002,-1.0979884e-001,1.5391557e-001,-1.0544706e-001,-1.4204127e-001,8.9021850e-003,-7.0674804e-002,6.1529267e-002,2.2524280e-001,5.7157193e-003,6.1295238e-002,1.0678387e-001,0.0000000e+000,0.0000000e+000,1.0972516e-001,-1.9512958e-001,5.4639682e-002,5.9413096e-002,-1.3588687e-001,-1.9715308e-002,-8.4633722e-002,-1.4727367e-001,1.3462539e-001,9.2784980e-002,8.3112039e-002,-8.9602821e-002,-3.5109139e-002,-2.1529787e-002,0.0000000e+000,0.0000000e+000,1.3039610e-002,-3.2270593e-002,-7.7531215e-002,9.3725470e-003,2.7677417e-002,5.3642109e-002,-1.4597715e-002,4.6237960e-002,-5.8288362e-002,-1.4144727e-001,-3.5777766e-002,2.6245104e-003,-9.5184924e-002,2.5988068e-002,0.0000000e+000,0.0000000e+000,1.5409304e-001,6.0839554e-002,9.6005017e-002,-5.1240233e-002,-8.8522913e-002,2.7763541e-003,1.6049922e-001,1.1173822e-001,-1.2334933e-001,-8.0086820e-002,-2.7715161e-001,1.4179961e-001,9.1833777e-002,-5.3203919e-002,0.0000000e+000,0.0000000e+000,-1.6441825e-001,9.1454486e-002,-1.4173547e-001,5.7424448e-002,-1.8025973e-001,4.9831414e-002,1.7503212e-001,7.2592978e-002,-1.8953372e-001,2.0985621e-001,-1.0080892e-001,-6.8204520e-003,-8.7960740e-003,-1.7430132e-001,0.0000000e+000,0.0000000e+000,-3.4750933e-002,3.1155689e-002,6.0599843e-003,-1.2675431e-001,1.9904847e-002,-1.6030840e-002,-8.1431524e-002,1.6770050e-001,-3.8080276e-002,1.4747430e-002,8.5211294e-002,-8.6037207e-002,-1.0746379e-001,-7.7678421e-002,0.0000000e+000,0.0000000e+000,1.0689385e-001,-5.9421535e-002,4.6335988e-002,-3.6466358e-002,-2.9011217e-003,9.2876974e-003,-3.5633459e-002,-1.4963948e-002,1.5783568e-002,-2.4435302e-002,-2.2356102e-002,3.3196131e-002,4.3007478e-002,4.5112403e-002,0.0000000e+000,0.0000000e+000,-1.3454930e-001,9.8799940e-002,7.9727622e-002,3.4841141e-002,7.6669264e-002,4.0407338e-002,6.9190553e-003,-6.2288899e-002,8.3897346e-002,-6.4234928e-002,-6.7735125e-002,-2.4817012e-003,1.0804086e-001,-9.6458381e-002,0.0000000e+000,0.0000000e+000,-1.0120672e-001,-5.3544728e-002,9.5287743e-002,-1.4496059e-001,-8.4053265e-002,5.3954839e-002,2.5274606e-002,3.3448919e-002,5.6506703e-002,3.3818904e-002,3.1922096e-002,1.0122771e-001,-1.5464828e-001,-2.6310574e-002,0.0000000e+000,0.0000000e+000,1.1744481e-001,-3.4214428e-002,
,247,-6.4882692e-002,2.8724863e-001,-1.9642167e-001,6.7606556e-002,-3.0937851e-001,-1.5793826e-001,1.4035627e-001,-1.2049389e-001,4.7761315e-001,-3.4160389e-002,6.0865780e-002,5.4323546e-002,0.0000000e+000,0.0000000e+000,-4.2124359e-002,-1.6647271e-001,-3.3815419e-002,-2.7458392e-002,1.9513551e-001,-9.7679921e-002,1.6803185e-001,9.1501710e-002,-4.4963687e-001,1.8320333e-001,-4.0589514e-002,-1.7386419e-001,1.7703713e-001,-8.7922050e-002,0.0000000e+000,0.0000000e+000,9.5844243e-002,1.0494613e-001,-1.4494177e-002,-2.7829164e-003,-7.8913589e-002,1.0692466e-001,-2.5426032e-002,-3.9473249e-002,7.3247915e-003,-8.9604717e-002,-3.1804894e-002,7.3533052e-002,4.1785479e-002,-1.0992519e-001,0.0000000e+000,0.0000000e+000,-8.1999943e-002,-1.5107155e-002,-5.0049598e-002,1.4519305e-001,-2.1176872e-001,5.5061819e-002,3.1246203e-002,4.1291773e-002,-1.6407267e-001,1.8006937e-002,7.5057341e-002,-5.7732843e-002,1.5057384e-001,-1.3023953e-001,0.0000000e+000,0.0000000e+000,-1.1664900e-001,2.6183366e-002,5.7527955e-002,2.3194677e-002,7.8124644e-002,5.3863195e-002,4.9398215e-002,-5.8066827e-002,-3.5920721e-002,-1.2046434e-001,1.1200248e-002,1.1287753e-001,3.5809201e-002,9.4752267e-002,0.0000000e+000,0.0000000e+000,-8.0082870e-002,-1.7316262e-002,-1.3568013e-001,-2.9809267e-002,1.0719904e-001,7.2976730e-002,2.5285453e-001,-1.0304800e-001,2.9822967e-002,3.1514052e-002,-8.5783511e-002,-7.5469330e-002,-1.0179053e-001,-1.2743843e-002,0.0000000e+000,0.0000000e+000,1.0129716e-001,1.5694457e-001,-5.9453450e-003,3.6404584e-002,-2.2145823e-001,-1.9565745e-002,-8.2926483e-002,-9.4823864e-002,5.0123038e-002,1.5170390e-001,-6.7481443e-002,1.8312727e-002,1.0876291e-001,-1.0021966e-001,0.0000000e+000,0.0000000e+000,-4.0771834e-002,-1.0750784e-001,-9.8668545e-002,-1.4236284e-001,-5.1798389e-002,-9.8815518e-002,6.1748146e-002,5.9197555e-002,-5.1603119e-002,-1.0840181e-001,8.7213685e-003,-2.2830920e-002,-1.9935459e-002,2.0529912e-001,0.0000000e+000,0.0000000e+000,6.3145361e-002,1.6160096e-001,3.8301382e-002,3.7312794e-002,1.3369614e-004,1.7079346e-001,1.5700343e-001,2.9603753e-002,-2.7623688e-002,-2.2378754e-001,5.5564820e-002,4.8501794e-002,3.5177291e-002,-9.7714717e-002,0.0000000e+000,0.0000000e+000,5.9812600e-002,-4.1685076e-002,-1.9202479e-002,-3.1624177e-002,-2.6431471e-002,3.5022233e-001,1.7834261e-003,-3.0667687e-002,9.2023882e-002,-1.1669204e-001,8.9341035e-002,-1.0508691e-001,1.0675018e-001,-1.8250474e-001,0.0000000e+000,0.0000000e+000,-1.8865444e-001,-2.3107632e-002,
,260,5.8063035e-002,9.1146545e-002,-9.9663634e-002,-1.9036400e-002,8.9200591e-002,-4.5437388e-002,1.2943029e-001,-4.0878657e-002,-2.8851155e-001,5.2762982e-002,-5.9621795e-002,-2.1899290e-002,0.0000000e+000,0.0000000e+000,9.7520434e-002,1.1933640e-001,1.4249577e-001,-1.3098610e-002,2.0198821e-001,-4.6376045e-002,-8.7179807e-002,9.5062429e-002,-2.1988967e-001,-8.3931718e-002,1.1019347e-001,-9.6989693e-002,5.6183060e-002,1.0148092e-001,0.0000000e+000,0.0000000e+000,3.2622589e-002,-6.9129227e-002,3.2343479e-002,-8.0717962e-002,4.1573192e-002,-5.7353747e-003,-1.9730437e-002,3.0275942e-002,-1.4281652e-002,1.4443881e-002,1.2849126e-002,-9.4911351e-003,2.6310468e-003,-3.2043300e-002,0.0000000e+000,0.0000000e+000,-2.3129883e-002,-4.9209521e-002,9.1102258e-002,1.5371587e-002,-8.3779157e-002,1.2005939e-002,-5.8605014e-002,-1.3781993e-003,7.2238772e-002,-3.7848356e-003,5.3242431e-002,8.7142707e-004,-8.0958782e-002,1.8115662e-002,0.0000000e+000,0.0000000e+000,-2.3285248e-002,4.2384666e-002,-4.4565965e-002,5.1392442e-002,-1.0955521e-001,8.4342374e-003,-4.6854822e-004,3.6029456e-003,7.2483869e-002,1.7640405e-002,-5.8669127e-002,9.3329179e-002,9.7033105e-003,1.0874543e-002,0.0000000e+000,0.0000000e+000,-1.0184543e-001,8.3374804e-002,1.9155811e-001,-1.5327952e-001,1.9165997e-001,-9.8060138e-002,-1.3127423e-001,1.0834350e-001,-1.4884868e-001,1.5523186e-001,6.0779733e-002,-3.9060190e-003,5.9044631e-003,-4.2953668e-002,0.0000000e+000,0.0000000e+000,5.9763634e-002,-1.9133027e-002,9.1222281e-002,-6.0281365e-002,-7.8139111e-002,4.7798800e-002,7.6564913e-003,-4.2279737e-002,7.3585536e-002,-3.1375097e-002,2.3784303e-002,-4.9351733e-002,3.7883871e-002,8.8066224e-002,0.0000000e+000,0.0000000e+000,4.2625519e-002,-2.4052921e-003,6.1434725e-002,-1.4541228e-001,-1.1298586e-002,3.4225415e-002,-6.9443121e-002,6.6179948e-002,4.8896816e-002,-5.8659324e-002,2.8079474e-003,-8.2895412e-003,-4.6799759e-002,5.7274234e-002,0.0000000e+000,0.0000000e+000,-3.9490897e-002,-9.3535732e-003,2.4070689e-002,1.7200649e-002,1.0873514e-001,1.7498140e-002,4.5701831e-002,3.6342208e-003,-7.1771137e-002,-4.1030239e-002,-1.3562175e-004,-1.0511646e-002,1.2527028e-002,-4.7998898e-002,0.0000000e+000,0.0000000e+000,6.0070692e-002,-1.3708885e-001,4.7928491e-002,2.0993008e-002,-8.3439705e-002,1.4331527e-002,1.4781549e-001,-8.9039623e-002,-9.3280410e-002,6.2119128e-002,6.5975494e-002,4.3082963e-002,-5.5154467e-002,-1.0570707e-001,0.0000000e+000,0.0000000e+000,-2.6086976e-002,-8.2031106e-002,
,272,-1.3537462e-001,4.5903788e-002,1.3737047e-001,-9.0672007e-002,-2.3189256e-002,2.0338980e-001,-3.2682869e-002,2.0330358e-001,-1.3578082e-001,-2.3251278e-001,1.4640937e-001,-2.3097686e-001,0.0000000e+000,0.0000000e+000,4.8452225e-002,1.6608580e-001,1.6691368e-001,-6.5915354e-002,-8.5205965e-002,5.8256565e-002,-4.8501895e-001,3.7952190e-001,-1.8800477e-001,1.6761069e-001,2.4934003e-001,-1.4021203e-001,1.5341816e-001,8.6485405e-003,0.0000000e+000,0.0000000e+000,-2.6053453e-002,-5.8487890e-003,-2.6709257e-002,2.5891233e-002,-4.8780290e-002,1.0594066e-002,-2.3748468e-002,-3.1090101e-002,6.5152283e-002,1.0264996e-002,-3.0058321e-002,1.7403646e-001,-6.3934386e-002,3.6188025e-002,0.0000000e+000,0.0000000e+000,-1.3777143e-001,5.0255419e-002,9.7018253e-002,3.8923090e-003,3.1393347e-002,3.8789064e-002,-1.0445730e-001,-3.1316945e-002,-7.6086513e-004,-2.4276956e-002,1.3837112e-002,1.5316451e-001,-1.9643831e-002,-9.5383622e-004,0.0000000e+000,0.0000000e+000,1.3141498e-002,-3.6147846e-002,1.2525347e-001,1.3626259e-001,-2.7728806e-002,3.8415291e-002,-1.4747675e-001,-1.8151198e-001,5.3524178e-002,-2.0354729e-001,-1.0500465e-001,1.2206152e-001,1.3153725e-001,5.1741367e-002,0.0000000e+000,0.0000000e+000,-1.2652934e-001,-8.7882334e-002,1.3279542e-001,-1.0679660e-001,2.1503528e-002,-3.0247794e-002,-2.9391416e-001,-4.5138179e-002,2.5587350e-001,8.5458105e-002,1.7332246e-001,1.0520320e-001,-2.4874839e-001,5.7134094e-002,0.0000000e+000,0.0000000e+000,-1.5091703e-002,1.5297500e-002,4.6423897e-002,2.1852419e-001,3.4453306e-002,1.3692296e-001,1.9331866e-001,-1.8101897e-001,1.6236396e-001,-5.0743208e-002,-2.6902120e-002,1.9701360e-002,-7.1563091e-002,-6.0910859e-003,0.0000000e+000,0.0000000e+000,4.6039073e-002,-4.9916779e-002,-3.7427911e-002,-1.5647581e-001,-1.4490105e-001,-2.0274789e-002,2.4197780e-001,7.1065110e-002,-3.4675546e-002,-1.8388916e-001,-3.2962842e-002,-3.4974114e-001,2.2563642e-001,2.0485103e-001,0.0000000e+000,0.0000000e+000,-6.7970290e-002,5.7522914e-002,4.4889744e-002,-2.3155924e-001,-1.6962451e-001,9.3705479e-003,-1.4891943e-002,9.4980671e-002,-1.1989308e-001,-6.7779235e-003,-3.1385527e-002,-4.0610592e-002,-3.5600223e-002,-7.2344664e-002,0.0000000e+000,0.0000000e+000,-5.1061089e-002,-4.8795189e-003,-1.9527565e-001,1.9427231e-002,2.7002639e-002,2.8050561e-002,-7.2808572e-002,-9.1354777e-002,1.0740400e-001,5.8594444e-002,1.5087523e-001,2.0482484e-001,-1.3933059e-001,-1.9023529e-001,0.0000000e+000,0.0000000e+000,1.7884190e-001,-1.2880839e-001,
,284,-6.2667159e-002,-1.5151343e-001,5.2641770e-003,-3.5713849e-002,-7.0312095e-002,3.1258346e-001,-5.7476910e-002,-1.3368775e-002,-1.7370709e-001,-1.6636592e-001,2.4277171e-001,-6.4534628e-002,0.0000000e+000,0.0000000e+000,-1.6340727e-001,3.1826772e-001,-8.9178061e-002,-7.2546108e-002,1.6619730e-001,6.0742169e-003,1.5023252e-001,5.8656073e-002,-8.3885592e-002,-1.3246232e-001,9.5621833e-002,-3.3543063e-002,-1.4354839e-001,2.1167658e-001,0.0000000e+000,0.0000000e+000,5.2126202e-002,-8.8193905e-002,3.3874402e-003,8.4603733e-002,-8.7299488e-002,4.5962678e-002,9.9326170e-003,-6.6623738e-003,-2.9048143e-002,-5.8686518e-002,3.2797660e-002,-8.2685420e-002,8.7740941e-002,-1.4807004e-003,0.0000000e+000,0.0000000e+000,-9.7461985e-002,1.5919472e-002,1.2139910e-001,-6.5978062e-002,-1.5425780e-002,7.0927111e-002,2.0640945e-003,-1.3253333e-001,1.7244107e-001,-7.7820658e-002,3.1989114e-002,1.2154108e-003,-1.7947682e-002,7.1265529e-002,0.0000000e+000,0.0000000e+000,1.8493239e-002,-7.5413696e-002,-7.4778141e-003,1.5535407e-002,-7.8315413e-002,-3.4350812e-002,9.0133956e-003,-1.5207116e-001,2.0346826e-001,3.3771834e-002,-1.1229548e-002,9.8036462e-002,-1.7203350e-001,6.7239703e-002,0.0000000e+000,0.0000000e+000,-9.1919191e-003,7.1830373e-002,2.5216218e-003,-8.7979404e-002,9.1889414e-002,-1.2652326e-001,3.6466017e-002,1.5273647e-001,-6.0696578e-002,-3.6173414e-002,-9.7258785e-003,-1.1419635e-001,-1.5653755e-003,1.0425073e-002,0.0000000e+000,0.0000000e+000,1.4794273e-001,3.0733822e-002,8.9722013e-002,-9.7671475e-002,2.9962192e-003,7.7064185e-002,-1.2477534e-001,1.6644644e-001,1.2347703e-001,-1.2716740e-001,8.6455825e-002,-9.8045506e-002,1.6509172e-002,5.3735599e-002,0.0000000e+000,0.0000000e+000,-8.7331227e-002,6.5298656e-002,-1.3992122e-001,-3.6613882e-002,4.6641009e-002,3.7365065e-002,6.4002693e-003,8.5448891e-002,-1.1668085e-001,4.9884441e-002,-1.0574578e-003,1.5784963e-001,-1.1602527e-001,-3.7170097e-002,0.0000000e+000,0.0000000e+000,1.4031283e-002,7.1619849e-002,7.1302736e-002,-3.3460502e-003,-6.8658410e-002,-1.2975842e-001,6.4447115e-002,-3.2292683e-002,-4.4908393e-002,1.8102570e-001,-5.8004921e-002,1.0445370e-001,-2.0736550e-002,-8.6985995e-002,0.0000000e+000,0.0000000e+000,-7.8848067e-002,-5.5688652e-002,4.9176272e-002,-7.7129034e-002,-1.0294496e-001,1.3587121e-001,-2.3601448e-002,-6.9169114e-002,6.2363574e-002,-6.5069787e-002,-9.1281410e-002,7.3297498e-002,-1.0279529e-001,1.1615652e-001,0.0000000e+000,0.0000000e+000,-1.2901206e-001,-2.4722572e-002,
,296,-5.9704149e-002,2.6734170e-001,-2.4090520e-001,2.9738393e-002,-2.3788239e-003,-3.2552672e-001,1.8132796e-001,-5.1616625e-002,-2.2517528e-001,9.7760127e-002,-1.6034093e-001,1.0094924e-001,0.0000000e+000,0.0000000e+000,5.8611609e-002,1.5011426e-001,2.6678900e-002,-1.0529755e-001,9.7933950e-002,-2.4090981e-001,3.3823331e-001,-3.3930494e-002,1.1342360e-001,-2.4028057e-004,-9.8552378e-002,-1.0641942e-001,-8.3453702e-002,6.1695169e-003,0.0000000e+000,0.0000000e+000,1.0294686e-001,1.1059066e-001,4.4138488e-003,-1.0507136e-001,7.4197929e-002,-5.4863437e-002,-2.5545516e-002,1.0969922e-001,-6.8143591e-002,-2.6407141e-002,5.9974035e-002,7.8756470e-002,2.9866563e-002,-4.2407532e-002,0.0000000e+000,0.0000000e+000,-1.6245294e-001,-1.4424501e-002,-5.8959016e-002,9.9369241e-002,3.8363893e-003,3.8927969e-002,4.5018989e-002,-9.5285838e-004,-1.9011399e-001,6.7964081e-002,-7.1385615e-002,5.2508293e-002,5.5454543e-002,-1.7473819e-001,0.0000000e+000,0.0000000e+000,-2.6023886e-002,-2.7550223e-002,1.1381814e-001,1.6650629e-001,1.3594892e-002,-9.2360063e-002,-3.1946902e-002,-1.5293030e-001,-4.1226025e-002,3.5187069e-002,-6.3279453e-002,1.4314425e-002,1.1493797e-001,-8.4628194e-002,0.0000000e+000,0.0000000e+000,-9.5985047e-002,2.5790554e-002,5.8047494e-002,-1.4895926e-001,-7.7626836e-002,-1.5075065e-002,2.3190459e-001,-5.9267199e-002,2.8420150e-001,-2.6965345e-002,-2.2353055e-002,2.9375017e-003,-1.3897136e-001,6.3656671e-002,0.0000000e+000,0.0000000e+000,8.9030093e-002,5.8265567e-002,2.4007224e-002,-5.8557925e-002,-1.4153538e-002,6.2338514e-002,-1.2668853e-001,-7.0489164e-002,1.3681723e-001,-7.8492490e-002,5.2558145e-003,-1.3379964e-001,-2.2009265e-002,-8.2684152e-002,0.0000000e+000,0.0000000e+000,-1.4497140e-001,-1.4290360e-002,-1.7211598e-001,1.6215768e-002,1.1034388e-001,-3.4518702e-003,2.1219242e-001,7.2947351e-002,-1.2915707e-001,3.6615715e-002,8.0145350e-002,2.1634600e-001,-1.4605543e-002,4.8589078e-002,0.0000000e+000,0.0000000e+000,-4.9479352e-002,-1.0007720e-001,1.8423983e-001,6.2124338e-002,-6.7873360e-002,6.6283565e-002,1.2899631e-001,1.2938779e-001,-7.9462990e-002,1.1400300e-001,-1.7826412e-001,1.1834247e-001,-1.7383707e-001,2.0172978e-001,0.0000000e+000,0.0000000e+000,2.1926190e-002,8.2281584e-002,1.7148387e-001,-1.3042975e-001,8.0118250e-003,1.5401219e-001,-2.9456126e-001,3.3720654e-002,1.2888111e-001,-7.7419317e-002,-3.8132360e-002,-2.2842403e-001,-1.5843786e-001,-1.0377058e-001,0.0000000e+000,0.0000000e+000,4.0412298e-002,1.3760460e-001,
,308,-2.6911583e-001,1.2102523e-001,5.4776186e-002,8.2906424e-003,-2.1691127e-001,3.7971169e-001,-2.4324729e-001,1.6653180e-001,6.6412063e-001,-4.7778197e-001,8.4212235e-003,-1.2882012e-001,0.0000000e+000,0.0000000e+000,2.1826082e-001,-2.9328494e-001,1.7105189e-003,9.9980114e-002,-1.0959508e-001,1.4933629e-001,1.1579896e-001,2.5937124e-003,-1.2160947e-001,-9.3764196e-002,-1.3363140e-001,-5.2519658e-002,5.9553924e-002,-1.0189984e-002,0.0000000e+000,0.0000000e+000,4.1568377e-002,1.3754685e-001,1.4535001e-002,-1.5306411e-001,1.2559094e-001,-6.2060452e-002,8.6167426e-002,4.4746544e-002,-3.8341247e-002,6.1581348e-002,-1.3463649e-001,1.1075332e-001,-5.0537792e-002,-5.7189699e-002,0.0000000e+000,0.0000000e+000,-1.0365895e-001,9.5199496e-003,-3.7651039e-002,8.2307906e-002,-3.7010001e-002,-1.1991365e-001,-4.8993976e-002,-9.0039969e-002,3.0611928e-002,2.6649755e-002,5.4669801e-002,1.1862728e-001,9.8741082e-002,-5.6877313e-002,0.0000000e+000,0.0000000e+000,-4.0742222e-002,-8.5666816e-002,-6.3150881e-003,1.0378734e-001,1.4747604e-001,-8.9926112e-002,-1.2561486e-001,-7.1180932e-002,2.3056349e-003,-2.2856933e-002,9.5606790e-002,-1.2888237e-002,-7.1684629e-002,-2.5783517e-002,0.0000000e+000,0.0000000e+000,4.8363912e-002,-6.8159264e-002,-1.3071551e-001,-4.2836342e-002,1.2735881e-001,-1.1456556e-001,2.4310108e-002,3.9773629e-003,-6.4758466e-002,-2.0937482e-002,-2.6085075e-002,-4.5779133e-002,-1.5113329e-001,8.6390880e-002,0.0000000e+000,0.0000000e+000,-5.4698129e-002,-6.1129512e-002,-3.7359078e-002,-2.2110173e-001,-9.9233159e-002,1.1818930e-001,2.5813871e-002,1.0849943e-001,-4.5981665e-003,3.5578411e-002,-5.2243203e-002,-4.0169547e-002,1.4827646e-001,-6.8256173e-002,0.0000000e+000,0.0000000e+000,-7.8925335e-002,-7.5329687e-002,1.8324550e-001,-1.1675280e-001,-9.1344648e-002,2.0703068e-001,4.9850923e-003,8.9993458e-002,5.4724236e-002,1.3434412e-001,-1.4643739e-001,-2.7886088e-002,-4.1499596e-002,-1.3114825e-001,0.0000000e+000,0.0000000e+000,1.8187501e-002,-3.2845075e-002,7.0208221e-002,1.6381523e-001,2.0966448e-002,-1.6286435e-001,1.2942867e-003,-1.4871364e-001,5.8379127e-002,2.1871889e-002,2.3557340e-001,3.5503495e-002,-1.6411141e-002,-5.2059280e-004,0.0000000e+000,0.0000000e+000,-6.7689654e-004,3.2654264e-002,-4.2273385e-002,1.1620126e-001,-1.0982630e-002,8.5323469e-002,6.6476939e-002,-1.8485324e-001,-1.6193876e-001,1.1412582e-001,5.0211424e-002,-4.7688212e-002,1.5254461e-002,-1.6397139e-001,0.0000000e+000,0.0000000e+000,1.0397065e-001,7.3880687e-002,
,320,5.0416921e-002,-2.7485995e-002,1.8111132e-001,-1.2057648e-001,-1.4973990e-001,-9.5032271e-002,-1.0177974e-002,1.9514403e-002,2.2104338e-001,3.2544647e-002,2.0858888e-001,-1.0623713e-001,0.0000000e+000,0.0000000e+000,-1.8180178e-001,-1.8974026e-003,9.3412054e-004,-3.7302472e-002,-9.8101522e-003,-1.6448705e-001,-1.5974923e-001,2.9383525e-001,-4.3737047e-002,2.2681103e-001,1.4288871e-001,-1.5561044e-001,-1.6103693e-001,-7.9396761e-002,0.0000000e+000,0.0000000e+000,1.4126147e-001,2.6646643e-002,7.4446692e-003,-8.8822814e-002,-1.7208802e-001,4.2369882e-002,-1.3526671e-001,1.2028468e-001,-1.6204886e-002,-7.5747781e-002,3.3668636e-002,-5.2334417e-002,1.3482888e-002,4.5489302e-002,0.0000000e+000,0.0000000e+000,-1.5207304e-002,-4.4710882e-002,4.2543633e-002,-8.1495031e-002,5.8481473e-002,1.3125326e-002,7.9346367e-002,1.1394103e-001,-5.1795891e-003,2.5883010e-002,-6.6354000e-002,2.0105073e-002,-6.8792532e-002,-5.0497881e-002,0.0000000e+000,0.0000000e+000,2.7991150e-002,6.2054492e-002,4.7487604e-002,-1.3089968e-002,-4.0258182e-003,3.8710499e-002,1.7497453e-001,5.7773006e-002,-2.1475444e-002,4.6831935e-002,2.4858490e-002,5.9896045e-003,5.4644052e-002,-1.3158385e-001,0.0000000e+000,0.0000000e+000,-2.4984012e-002,3.8388707e-003,4.3275977e-002,1.2227355e-002,-1.1328401e-001,7.6443462e-002,1.1313112e-001,-1.3445773e-001,2.2535956e-003,-3.9148815e-002,1.4943231e-001,5.2821389e-003,-3.0427251e-002,-2.1658426e-002,0.0000000e+000,0.0000000e+000,9.4588336e-004,-1.5341507e-002,-1.1805035e-001,-1.3809014e-001,-8.8238238e-003,-3.4333657e-002,-1.0768794e-002,-6.1993561e-002,-1.7432253e-001,1.7992329e-001,7.9335278e-002,-4.5833987e-002,8.2070814e-002,-7.1124714e-002,0.0000000e+000,0.0000000e+000,-7.8119489e-002,6.1613803e-003,-5.0931216e-002,-6.3651313e-002,8.4499400e-002,-1.2985589e-001,-1.9205773e-001,1.8119649e-001,-2.6166391e-001,4.2538049e-002,1.9180286e-001,-5.8289976e-002,5.1812484e-002,-2.6603566e-002,0.0000000e+000,0.0000000e+000,-6.2032388e-002,-1.3433609e-001,1.6653375e-001,1.0299870e-001,-1.1420554e-001,1.0106005e-001,-9.7823951e-002,-1.6555773e-002,2.2233843e-001,-3.6968682e-001,-1.5833522e-001,2.4671696e-001,-9.4779506e-002,1.1323265e-001,0.0000000e+000,0.0000000e+000,-6.2078857e-002,4.8227300e-002,3.2853786e-002,1.3976880e-002,1.6578372e-002,2.1344450e-001,2.4279512e-001,-2.2141445e-001,3.2387957e-002,4.8557183e-002,-2.0549319e-001,1.6106127e-001,-1.6776011e-001,-4.0051660e-002,0.0000000e+000,0.0000000e+000,5.4331019e-002,9.9421141e-002,
,332,-6.2758435e-002,8.1223839e-002,1.1752072e-002,-1.5839493e-001,-1.4790923e-001,1.7822000e-001,-1.6960292e-001,3.2737168e-001,1.2407101e-001,-1.8972520e-001,2.2673927e-002,-1.8160610e-001,0.0000000e+000,0.0000000e+000,5.0142353e-002,-1.7444085e-002,2.0205645e-001,1.4308231e-001,-8.7211319e-002,-2.5110937e-002,-2.4536133e-001,-1.0991516e-001,1.2363062e-001,-1.7129503e-001,1.0113537e-001,1.3795860e-002,-7.7966979e-002,9.3688807e-002,0.0000000e+000,0.0000000e+000,4.5239278e-002,-1.0982027e-001,1.2028076e-001,-1.0179293e-001,-4.2039596e-002,-3.9481954e-002,-2.6017783e-002,2.8729957e-002,-3.4418071e-002,8.9315046e-002,-5.6070270e-002,-2.9598050e-002,2.7156376e-002,-5.8674471e-002,0.0000000e+000,0.0000000e+000,-7.7201602e-002,1.1167870e-001,9.5140650e-002,-5.1864906e-002,-9.8136557e-003,9.2191944e-002,-1.1453027e-001,-3.1384393e-002,1.0783802e-001,-7.3544479e-002,1.7436025e-002,4.9293591e-002,-2.4368940e-002,2.8652471e-002,0.0000000e+000,0.0000000e+000,-1.1087261e-001,4.6948633e-002,-5.9720295e-002,5.3044119e-002,4.2597431e-002,7.9527681e-002,5.5915463e-002,-1.5929407e-001,1.0454990e-001,-1.8557300e-001,1.3068679e-002,3.4852295e-002,-4.2304864e-002,-1.4244674e-002,0.0000000e+000,0.0000000e+000,-4.5480890e-003,-2.0448543e-002,-1.5263640e-001,1.0124992e-001,6.7299628e-002,1.0338413e-001,3.9273396e-002,-1.5018095e-001,-1.9852792e-001,6.8179281e-002,1.2716651e-001,1.3706545e-001,-7.6146908e-002,3.5708573e-002,0.0000000e+000,0.0000000e+000,9.6700293e-002,-7.4719324e-002,5.9657841e-002,7.7420862e-003,-1.4568656e-001,-1.3747043e-001,8.9901855e-002,1.4075585e-001,6.9390197e-002,5.4353608e-002,-1.0067623e-002,-6.8214316e-003,-8.6601993e-003,2.2830722e-002,0.0000000e+000,0.0000000e+000,-4.5253722e-002,-5.0211084e-002,5.3491976e-002,9.3509152e-002,-7.0497147e-002,1.2045633e-001,-1.5785019e-001,-4.5492522e-002,2.0809660e-001,-3.8492847e-002,1.7041453e-001,-1.1982150e-001,-4.4615199e-002,1.4482519e-002,0.0000000e+000,0.0000000e+000,3.9399397e-002,-4.5836228e-002,-7.8852992e-002,2.1656372e-002,3.2017110e-002,1.6478770e-001,9.5166162e-003,2.4251139e-002,2.7139130e-002,-1.8618101e-001,6.9924028e-003,-7.6692417e-002,9.9975733e-002,-7.3565477e-002,0.0000000e+000,0.0000000e+000,-6.0807173e-002,1.6316672e-002,-3.8427433e-002,-4.3096281e-002,-5.8216722e-002,-2.2843030e-002,-1.4966816e-001,1.1494150e-001,-1.0794862e-001,4.4064854e-004,-3.3127280e-002,3.0282631e-003,6.9145398e-003,-1.0898108e-001,0.0000000e+000,0.0000000e+000,-5.0249586e-002,2.1190212e-001,
,344,-3.0014193e-001,1.4516236e-001,-1.1250768e-001,9.5420088e-002,2.0068973e-001,-4.6175905e-002,-1.2833080e-001,3.4994343e-002,1.3668364e-001,-3.5703308e-001,5.0174880e-001,-2.0930541e-001,0.0000000e+000,0.0000000e+000,-4.7511671e-002,-4.4256603e-002,-1.1513148e-001,1.3783259e-001,5.8500094e-002,9.2332026e-003,9.4979591e-002,-1.2368671e-001,2.1396171e-001,-2.1246106e-001,-1.1632017e-001,8.2997666e-002,-7.1528870e-002,8.6049156e-002,0.0000000e+000,0.0000000e+000,1.2096181e-001,4.2841811e-002,1.7313465e-002,-1.9734933e-001,-8.4574244e-003,5.3793375e-002,5.6285618e-002,1.7164689e-001,-2.0093666e-003,-1.3962512e-001,-2.6309939e-002,-8.9439801e-002,7.7618808e-002,-1.9069004e-002,0.0000000e+000,0.0000000e+000,-8.7969846e-002,1.5439411e-002,-1.3281958e-001,2.0346091e-001,-1.1083517e-002,-1.1323985e-001,1.8382311e-001,-2.5297463e-001,1.6866181e-001,-2.6234910e-002,-9.2859941e-003,2.7985931e-002,-1.3311175e-001,9.9707181e-002,0.0000000e+000,0.0000000e+000,8.6933030e-002,-1.4448055e-002,-5.4286039e-002,2.0498016e-001,2.9093775e-002,-1.0768953e-001,-5.6393731e-002,-2.0596163e-001,-5.1076789e-002,8.0592936e-002,5.8406823e-002,4.6294919e-002,1.8220168e-001,-1.8398923e-002,0.0000000e+000,0.0000000e+000,-3.2131281e-001,-7.8513578e-002,2.5324655e-001,-2.2075834e-001,-2.9008272e-002,4.5805266e-002,-3.8206812e-001,5.4023109e-001,-2.6952153e-001,1.1184956e-001,3.0012636e-002,-1.1190948e-001,2.1230746e-001,-6.1457440e-002,0.0000000e+000,0.0000000e+000,-4.4943187e-002,2.6031528e-002,1.8238969e-001,-2.8372969e-001,8.8970147e-002,2.3561879e-002,9.1010435e-002,1.2708834e-001,8.6780528e-002,1.3475990e-001,-1.8444057e-001,1.0562261e-001,2.1187257e-002,-1.6884156e-001,0.0000000e+000,0.0000000e+000,3.2370676e-002,1.1979436e-001,1.0271029e-001,-5.5616859e-002,-3.2037563e-002,1.5691452e-001,-7.4747542e-002,-1.2126859e-001,1.2423488e-002,1.2869561e-001,-1.0963254e-001,5.0414937e-002,-2.6044676e-001,7.9522857e-002,0.0000000e+000,0.0000000e+000,4.8526641e-002,4.1444415e-002,-3.9707334e-002,2.4147268e-001,-6.9052380e-002,-1.5757280e-001,8.3745572e-002,-8.7504987e-002,-1.3869845e-001,-1.2353312e-002,2.8644573e-002,-6.6372653e-002,-5.7350603e-002,2.1430091e-001,0.0000000e+000,0.0000000e+000,-7.7403453e-002,8.3998108e-002,8.9931386e-002,-8.4890709e-002,9.3182423e-002,-1.1531890e-001,3.5105830e-002,-6.1037967e-002,-1.6934147e-001,-5.8034063e-002,6.7233494e-002,1.4187103e-001,8.3372986e-002,-1.0410127e-001,0.0000000e+000,0.0000000e+000,3.0301061e-003,3.7432543e-002,
,356,-1.0951329e-001,-1.3370157e-001,-1.1343262e-001,-2.6095044e-001,2.3858760e-001,1.1544076e-001,1.2562057e-001,2.3079094e-001,-4.1263882e-001,1.7430585e-002,-1.1163943e-001,-1.2699107e-001,0.0000000e+000,0.0000000e+000,8.3962402e-002,1.3102667e-001,6.3018086e-002,1.3637522e-001,6.8215591e-002,2.8144267e-002,-2.1684883e-002,-3.9989390e-002,-1.2385661e-001,-1.9065673e-001,8.6519408e-002,4.2588744e-002,-3.7757531e-002,1.8003837e-001,0.0000000e+000,0.0000000e+000,3.3835733e-003,-1.7433009e-002,8.6993847e-003,-6.5089863e-003,-2.8681655e-002,-2.5589865e-002,7.0053700e-002,-8.6753378e-002,-5.9633602e-002,-8.6860868e-002,-9.1050863e-002,5.2631691e-002,-2.2893464e-002,6.2581584e-002,0.0000000e+000,0.0000000e+000,-2.0883836e-002,-1.0015431e-001,8.3352639e-002,-3.6743817e-002,2.8509467e-002,1.0962059e-002,3.1515446e-002,-2.1406285e-002,-9.0313818e-002,-5.4188394e-002,4.3775204e-002,-1.1739919e-002,1.3429106e-001,9.5897584e-003,0.0000000e+000,0.0000000e+000,-2.4178767e-002,-3.0745117e-002,-9.2047996e-002,-8.9463670e-002,1.9067307e-001,1.9466931e-002,1.2057972e-001,7.0194939e-002,-2.2495613e-003,6.6888140e-002,-9.8146037e-002,4.6938790e-002,4.7157931e-004,-6.9228070e-002,0.0000000e+000,0.0000000e+000,-1.0904909e-001,7.6051457e-002,7.8796105e-002,-1.9634762e-002,9.2290063e-002,1.0662917e-002,-9.9106996e-002,-1.1000874e-001,8.9674651e-003,-1.2226056e-002,2.7188049e-001,-1.9613612e-001,7.1815719e-002,-1.1600504e-001,0.0000000e+000,0.0000000e+000,-1.6229197e-001,9.5600913e-002,1.2866406e-001,1.1849885e-001,-2.0078694e-001,-4.0602949e-002,8.7357355e-002,-6.5486334e-002,-5.2512313e-002,7.7737770e-002,-1.7715724e-001,1.4869540e-002,5.0068349e-002,-1.1188114e-002,0.0000000e+000,0.0000000e+000,6.5968537e-002,-1.0293196e-003,1.3973258e-001,1.1393484e-001,-2.6162971e-001,1.3986155e-001,-4.7374939e-002,-4.1816787e-002,3.9931887e-002,-4.5459886e-002,-2.8831538e-001,2.0642091e-001,-2.6782830e-001,1.2865286e-002,0.0000000e+000,0.0000000e+000,2.2851758e-001,-9.2285113e-002,6.8455910e-002,-6.2363303e-002,1.4240641e-001,-6.0441328e-002,-7.4003249e-003,2.4826831e-003,-3.1260729e-002,-1.6919651e-001,4.3978477e-002,2.6773387e-002,-5.2460581e-002,9.0377484e-003,0.0000000e+000,0.0000000e+000,-1.2613221e-001,1.5272641e-002,-4.6644092e-002,-1.1083161e-001,6.1054485e-002,1.8956603e-002,4.3325904e-002,1.0063044e-002,-1.0903078e-001,8.0642411e-002,2.2420243e-001,5.5119853e-002,-2.7106374e-003,1.1816788e-001,0.0000000e+000,0.0000000e+000,-2.1404785e-001,-6.4964069e-002,
,368,-1.8839263e-002,5.3000753e-002,-4.3481648e-002,-1.1198299e-001,-4.2763112e-001,3.5964140e-001,-1.4449865e-001,4.9048101e-002,1.2609759e-001,-1.2595565e-001,7.3061849e-002,-3.0737022e-002,0.0000000e+000,0.0000000e+000,-5.4373776e-002,1.0276578e-001,5.5912321e-002,2.4802025e-002,5.8029396e-002,-2.3666315e-002,-5.0132463e-002,-1.8633137e-002,-1.3400205e-001,1.6770459e-001,1.5031820e-001,5.9441489e-002,-4.7357334e-002,-8.7155932e-002,0.0000000e+000,0.0000000e+000,-2.4475647e-002,-6.0067239e-002,2.8790061e-002,-2.2615852e-002,2.2719702e-003,-6.5459546e-002,-1.0319064e-001,3.6784910e-002,2.2871064e-003,7.5295339e-002,-7.4093744e-002,6.2396870e-002,-3.7712029e-002,-8.7386908e-002,0.0000000e+000,0.0000000e+000,2.4140834e-003,1.3733910e-002,4.6863179e-002,2.5953212e-002,4.5355325e-003,4.2029119e-002,9.9317080e-002,-1.6503702e-001,-4.6934659e-002,1.3287045e-001,-1.3428800e-001,1.4729222e-001,-7.7345782e-002,3.4535087e-003,0.0000000e+000,0.0000000e+000,-9.6369586e-002,9.3756697e-003,7.6514235e-003,-1.6272489e-001,7.7863978e-002,5.2109255e-002,-5.0976017e-002,1.5261596e-001,-6.1828603e-002,-7.9522498e-002,-1.9168234e-002,-3.3718823e-002,-6.2252327e-002,8.0282435e-002,0.0000000e+000,0.0000000e+000,-2.2605752e-002,1.8329570e-002,8.5006728e-002,-8.6356484e-002,9.2920765e-002,3.9059923e-002,-1.6371420e-001,2.8339513e-001,-1.6029539e-001,-5.9475147e-002,9.3432142e-002,-4.6598999e-002,1.0137226e-001,-3.7270263e-002,0.0000000e+000,0.0000000e+000,-8.8503454e-002,9.3660424e-004,1.4417488e-001,1.1975824e-001,-5.3801880e-002,1.3132549e-002,9.3068242e-002,-1.1244068e-001,9.3874316e-002,9.6811557e-002,-1.1046462e-001,6.3642354e-002,-1.2495734e-001,-1.2967850e-001,0.0000000e+000,0.0000000e+000,-5.3366718e-002,3.1482196e-002,-1.9108701e-001,1.1428514e-001,-1.2842162e-001,6.5280928e-002,1.4749909e-001,-7.6793078e-002,-6.9422269e-002,3.5230683e-002,-1.2867200e-001,4.4151601e-002,-1.4156801e-001,-1.2238297e-001,0.0000000e+000,0.0000000e+000,8.2532031e-003,-2.6220408e-002,6.3505320e-002,-1.5606011e-002,-1.5764709e-001,1.6989240e-001,-1.0331591e-001,1.0146558e-001,-4.1368398e-002,-2.4683997e-001,1.0708806e-001,-1.6745808e-002,2.0103178e-001,9.0893855e-002,0.0000000e+000,0.0000000e+000,8.9004020e-002,-1.0552353e-001,1.3251775e-001,-2.0481333e-002,-3.1795985e-002,-1.6259905e-002,-6.7870878e-002,-3.7695742e-004,-1.6107222e-002,1.0034532e-001,1.4960401e-001,3.0100347e-002,-7.2400705e-002,1.7328525e-001,0.0000000e+000,0.0000000e+000,-8.0766435e-002,-2.8649207e-002,
,381,-7.8918757e-002,5.2948017e-001,-6.7350603e-002,6.2764526e-002,4.1715526e-002,-7.4333486e-001,-4.8464550e-002,-6.0806149e-003,-9.8852342e-003,1.5391883e-001,1.5286896e-001,-1.0956116e-003,0.0000000e+000,0.0000000e+000,1.8142141e-002,8.8262683e-002,-2.2555166e-001,3.4468596e-002,3.4034214e-002,-5.9573063e-002,3.2431129e-001,-1.5348420e-001,-1.4284589e-001,1.2163191e-001,-9.7757207e-002,1.5367693e-001,1.1179845e-001,5.7519995e-002,0.0000000e+000,0.0000000e+000,-1.5797086e-001,3.4377481e-002,3.8469355e-002,-6.8921129e-002,4.1103272e-002,8.7119748e-002,-3.3297234e-002,7.3176949e-002,1.2745254e-002,-1.1016827e-001,-9.3656116e-003,3.4319571e-002,-4.0392688e-002,1.6619552e-001,0.0000000e+000,0.0000000e+000,-6.3349092e-003,-8.1811234e-002,-1.2012703e-001,6.4387816e-002,-4.6918352e-002,2.8661157e-002,-5.4791207e-002,1.3821270e-001,-3.7725475e-002,1.0991984e-002,-3.4517836e-002,-1.0765862e-001,2.4879290e-002,7.3698226e-002,0.0000000e+000,0.0000000e+000,5.7895104e-002,4.4568708e-002,2.2849295e-002,1.6506950e-002,5.1312778e-002,3.8498099e-002,-9.1143029e-002,3.3228757e-002,1.5727460e-003,-9.4661403e-002,6.4000972e-002,6.0127845e-002,-1.5932944e-002,5.7236210e-002,0.0000000e+000,0.0000000e+000,-8.0005709e-002,7.7455174e-002,2.3734284e-001,-1.2748625e-001,4.0439479e-002,-4.9932029e-002,-4.9244127e-002,1.9552866e-002,-2.3931250e-002,-1.3414687e-002,-1.9708294e-002,-7.8785693e-002,2.8884503e-002,7.8495739e-002,0.0000000e+000,0.0000000e+000,-2.9945501e-002,-3.0553212e-003,-7.1637453e-002,1.2791149e-001,-9.2676362e-002,1.4912340e-001,-4.4208749e-002,-9.7819170e-002,1.6416144e-001,-2.3022438e-001,1.8517751e-002,-5.3801163e-002,4.8086189e-002,-2.1410761e-002,0.0000000e+000,0.0000000e+000,-4.7000361e-002,-1.5689035e-002,-1.8109691e-001,1.5364673e-001,-8.8950963e-002,4.9049846e-002,-8.1957571e-002,8.7852505e-002,-6.1997976e-002,8.9757482e-002,1.7242446e-001,-2.5644883e-002,-5.9545993e-002,-7.7194599e-002,0.0000000e+000,0.0000000e+000,1.5828992e-001,-1.2746561e-001,1.0096116e-001,7.1507732e-003,4.2547400e-003,-5.9112416e-002,6.8422853e-002,7.8898137e-002,-1.0523391e-002,1.4114407e-001,1.3351934e-003,5.9834034e-003,-1.0816229e-001,-5.5488512e-003,0.0000000e+000,0.0000000e+000,3.7802667e-002,-8.3883738e-002,2.7537898e-002,3.6813193e-002,-5.1692748e-002,-9.0864356e-002,2.8928359e-003,-7.5738820e-002,7.8756068e-002,4.9527903e-002,-4.1539506e-002,-6.0229773e-002,-1.6920787e-003,9.0176536e-002,0.0000000e+000,0.0000000e+000,-2.6859280e-002,8.7145903e-002,
,394,-2.9959761e-002,-1.3982657e-002,-1.6064699e-002,1.2080497e-001,7.2390500e-002,1.8053298e-002,1.7061009e-002,-1.3089629e-001,-1.3237217e-001,-1.4892524e-001,6.5914482e-003,2.0344667e-002,0.0000000e+000,0.0000000e+000,8.6515598e-002,9.4873837e-002,2.7566055e-001,-2.0737148e-001,1.9648435e-001,-1.1649231e-001,-2.8762723e-001,1.8569083e-001,-6.8786712e-003,-1.1651735e-001,8.3689831e-002,9.7528275e-003,-1.5390460e-001,1.2824366e-001,0.0000000e+000,0.0000000e+000,6.8121133e-002,-8.2011692e-002,1.7159460e-001,-6.4852127e-003,2.1611137e-002,-1.9427812e-003,-2.8314176e-002,-2.9276398e-002,5.9027610e-002,-5.3503598e-002,2.1963753e-002,1.0847680e-001,-1.0583814e-001,4.3833753e-002,0.0000000e+000,0.0000000e+000,-9.9358476e-002,1.5727918e-003,2.6330350e-002,-3.4685811e-002,9.5934744e-002,-4.7605452e-002,1.5519609e-001,1.3937912e-002,-1.3465220e-001,1.0259728e-001,-1.1723709e-001,7.5137360e-002,-6.6073847e-002,2.6371802e-002,0.0000000e+000,0.0000000e+000,-6.7190331e-003,-4.9135695e-002,-1.9730819e-002,6.2957919e-002,-1.2051503e-001,5.0366319e-002,4.1028660e-002,-1.4986910e-001,6.5339732e-002,-8.9815613e-002,-1.1398093e-001,9.0811062e-002,5.0831413e-002,-4.4744656e-003,0.0000000e+000,0.0000000e+000,-1.4422399e-001,6.6796705e-002,-1.7956529e-001,3.2071766e-002,-4.6945234e-003,2.8559536e-002,1.5077922e-001,-7.1315056e-002,9.3697560e-002,6.0017659e-002,-8.8134623e-002,4.7945686e-002,-1.3374087e-001,-2.0291584e-002,0.0000000e+000,0.0000000e+000,6.5043117e-002,3.7998751e-002,8.8043577e-002,1.8023157e-001,5.4835841e-002,6.1905159e-002,-6.5998714e-002,-7.6256314e-002,1.3517397e-001,-1.8988808e-003,-9.3989993e-003,6.6016463e-003,-8.0997506e-002,1.4677694e-002,0.0000000e+000,0.0000000e+000,7.0628990e-002,9.1191650e-003,6.2615562e-002,-1.4248543e-002,-1.5947457e-002,5.3386373e-002,1.4307959e-001,4.6729842e-002,-7.3482626e-002,7.4385222e-002,5.0506498e-002,-4.1416656e-002,-3.6388963e-002,-4.6322592e-003,0.0000000e+000,0.0000000e+000,3.4978600e-002,9.9360872e-002,-4.0814940e-002,4.3784083e-002,-8.8551839e-002,1.0257167e-001,9.6688391e-002,7.2707437e-002,-1.0034806e-001,2.7255702e-002,-8.3566269e-002,-2.9813750e-002,7.6708328e-002,-1.3538124e-001,0.0000000e+000,0.0000000e+000,-6.0629498e-002,1.4190715e-001,-2.7006862e-002,-1.1798464e-001,7.4695861e-002,-4.8344192e-002,-6.2981934e-004,1.0845452e-001,-6.8370680e-002,8.1726895e-002,6.8749113e-002,-1.0399461e-001,-7.5997526e-002,-1.8195156e-002,0.0000000e+000,0.0000000e+000,1.5057622e-002,-8.7388017e-002,
,406,-2.5410593e-001,8.4983204e-002,-3.4745975e-002,-1.9314202e-001,4.9647971e-002,1.9776090e-001,4.3243634e-002,2.4461441e-001,-3.0115507e-003,-5.2862728e-002,-1.3180657e-001,-4.3768579e-002,0.0000000e+000,0.0000000e+000,1.8008772e-001,1.6343792e-002,2.4150565e-001,-2.5173246e-001,1.1529955e-001,-5.4934301e-002,-4.0673190e-001,2.0821962e-001,-6.1726367e-002,7.7372593e-002,1.8964848e-001,-1.9928293e-001,1.9015298e-001,-1.8930995e-002,0.0000000e+000,0.0000000e+000,6.5886501e-002,-1.6748939e-001,1.2209954e-001,2.3400297e-002,-5.0832834e-002,4.8148381e-002,-1.0536038e-001,-6.0137454e-004,7.5495303e-002,7.0580058e-002,-4.5798802e-002,2.1057543e-002,8.2277254e-002,-1.2669012e-002,0.0000000e+000,0.0000000e+000,-1.3426440e-001,6.2789992e-002,-1.9312933e-002,1.2708259e-001,-1.2903897e-001,1.2989609e-001,3.0489646e-002,-1.0410225e-001,-1.1829250e-002,-3.6962188e-002,-1.8159715e-002,1.0138577e-001,-4.4711642e-003,2.8041412e-002,0.0000000e+000,0.0000000e+000,-6.3136359e-002,-1.0425497e-002,1.7853396e-001,1.7548450e-002,-1.3781816e-001,2.8068278e-002,-1.1928766e-002,-3.1462251e-002,1.1092559e-001,5.2625313e-002,8.2877671e-002,2.9110655e-003,-3.0745208e-002,-2.4828781e-002,0.0000000e+000,0.0000000e+000,-7.3564660e-002,-8.3489947e-002,-3.9231159e-002,7.6957511e-002,-4.9689516e-002,6.4326553e-002,-5.1848367e-002,-1.1678240e-001,3.4311590e-002,1.2990970e-001,2.2603640e-002,-4.8520392e-002,-8.0883886e-002,-1.1520181e-001,0.0000000e+000,0.0000000e+000,8.6239285e-002,2.5828764e-002,5.1272767e-002,-1.4272865e-001,-5.0234861e-002,3.4604124e-003,-1.1892519e-001,-7.3751183e-002,3.8054773e-002,-1.4751804e-004,-1.9153811e-002,1.4936507e-001,9.3706906e-002,5.6826403e-003,0.0000000e+000,0.0000000e+000,-3.9398007e-002,-5.1066387e-003,-4.1227482e-002,-9.9053803e-003,-4.2123946e-002,1.0334444e-001,2.3378999e-001,-1.0180568e-001,-3.8162443e-002,9.5894936e-002,-1.2008028e-002,1.0743109e-001,-2.2043060e-002,6.7786021e-002,0.0000000e+000,0.0000000e+000,-5.7443305e-002,-9.3665597e-002,4.8621543e-002,1.0862617e-001,-6.1038182e-003,6.7595391e-002,9.8117845e-003,1.1282679e-001,5.7059209e-002,-2.4396403e-002,-6.1164446e-003,-7.3767213e-002,-1.7766822e-002,2.3761651e-002,0.0000000e+000,0.0000000e+000,-2.0330884e-002,-2.9057288e-002,-2.4991168e-002,-1.2133227e-001,-1.2541450e-001,1.1157765e-001,-1.1094778e-001,6.4825427e-002,-7.2531942e-003,-1.0450434e-002,-7.1734074e-002,2.8654156e-002,-6.4000167e-002,-6.9520133e-002,0.0000000e+000,0.0000000e+000,-1.0151981e-001,1.2232611e-001,
,418,-6.2059008e-002,6.3078571e-002,-3.8723444e-002,2.1445545e-002,-2.2163348e-001,1.0082005e-002,5.0427068e-002,2.3812373e-004,6.7579791e-002,-9.5608556e-002,-1.0461894e-001,8.2377079e-002,0.0000000e+000,0.0000000e+000,1.4547009e-001,-2.7684686e-006,9.2790037e-002,-1.5149178e-001,1.5680958e-001,-1.4385344e-001,1.5614761e-001,-1.7488687e-002,-1.0148452e-001,9.2101100e-002,-9.2125978e-002,6.2373390e-002,3.4555980e-002,7.0993171e-002,0.0000000e+000,0.0000000e+000,-6.0984830e-002,1.9328491e-001,2.5361593e-002,-4.1850774e-002,-1.2811145e-002,-3.7558183e-002,4.0915735e-002,1.5721574e-002,3.2823824e-002,4.2918218e-002,-2.5206511e-003,9.9543698e-002,6.7912175e-002,-9.8575602e-002,0.0000000e+000,0.0000000e+000,-1.5673748e-001,-1.9473194e-002,2.5525935e-002,-2.5786968e-002,4.5401655e-002,-1.3937331e-001,-5.7001109e-002,1.8526517e-002,-3.5682069e-003,1.2003822e-001,-6.0039483e-002,-2.7857788e-002,-3.0766288e-002,7.9797070e-002,0.0000000e+000,0.0000000e+000,1.3746435e-002,6.4029781e-002,9.3977223e-004,-1.0393999e-002,1.4668407e-002,8.5387469e-002,3.0844659e-002,-1.1496509e-002,8.5341247e-002,-1.5735588e-001,-1.7866418e-002,-5.8840935e-002,-4.0744169e-002,3.9024990e-002,0.0000000e+000,0.0000000e+000,4.4190150e-002,-5.0699142e-002,1.4206573e-001,-5.8760748e-002,-6.5942165e-002,8.7634946e-002,-1.4043147e-002,2.0401900e-002,-4.0776882e-002,2.0855715e-002,1.1838061e-003,-1.0220423e-004,4.6004002e-002,-7.1273369e-002,0.0000000e+000,0.0000000e+000,-7.6824625e-002,-1.9198601e-002,-5.7487909e-003,-1.3252202e-002,-1.4914391e-002,-9.3085838e-002,-1.4017470e-001,-1.1777221e-002,4.1018177e-002,5.5917506e-003,1.4873188e-001,8.4191760e-003,9.1153915e-002,5.8602045e-002,0.0000000e+000,0.0000000e+000,2.8426022e-002,7.6348106e-002,-4.3224090e-002,-7.1344295e-002,7.9675789e-002,-7.5633240e-002,-8.1639803e-002,1.8416947e-001,-7.5476650e-002,6.6771756e-002,-7.8146268e-003,-3.9495751e-002,-7.6006663e-002,1.2004005e-002,0.0000000e+000,0.0000000e+000,-4.5555960e-002,1.0632004e-001,1.2967164e-001,1.3927938e-001,-1.5755411e-001,1.7742285e-002,-2.0102996e-002,-6.6984759e-002,9.2658752e-002,4.7087796e-002,7.7832553e-002,-8.4795227e-002,-4.4499433e-002,-1.1161453e-001,0.0000000e+000,0.0000000e+000,-1.3398724e-001,-6.7176401e-002,9.6590892e-003,-1.1670402e-002,-1.2060176e-002,2.2430493e-002,6.1644259e-002,-1.7135059e-001,9.6560429e-002,-4.0512404e-002,-6.4705278e-002,1.7271968e-001,-1.3976289e-001,3.5204902e-002,0.0000000e+000,0.0000000e+000,2.8022668e-002,-6.2030203e-002,
,430,-2.1387618e-001,3.2023988e-002,-3.1683241e-003,-6.3620784e-002,2.3251444e-001,-7.9861353e-002,1.2560968e-001,8.1993545e-002,-1.7360092e-002,1.2440268e-002,-1.9273409e-001,4.1371218e-002,0.0000000e+000,0.0000000e+000,2.1016532e-001,-1.0459776e-001,-9.5608258e-002,1.7953904e-001,-5.7203454e-002,6.5548681e-002,3.3320457e-001,-3.4378902e-001,-2.6052542e-002,2.5722811e-002,-2.6102311e-001,5.6204047e-001,-2.7506347e-001,2.8125737e-002,0.0000000e+000,0.0000000e+000,-8.4634011e-002,-2.6039168e-002,6.0918848e-002,2.2812235e-002,-9.1076801e-002,8.1648675e-002,-8.0462371e-003,-3.3120947e-002,2.5126783e-002,2.9792205e-002,5.8553731e-002,-1.5496554e-002,4.6948440e-002,-1.3244671e-001,0.0000000e+000,0.0000000e+000,-1.2241465e-001,-5.6668315e-002,6.9043130e-002,6.7342039e-002,5.0639809e-002,7.8160532e-003,-1.9422567e-001,-1.5885530e-002,-1.4547543e-001,4.2554285e-003,1.2912658e-001,7.9863608e-002,-9.0094752e-002,8.4282053e-002,0.0000000e+000,0.0000000e+000,4.9032718e-002,6.3834815e-004,-3.5511180e-002,-7.0242192e-002,-6.2503984e-003,-1.2253296e-001,5.5059717e-004,2.5285311e-003,1.2272573e-001,-1.4666707e-001,-2.2156516e-002,9.1516114e-002,-2.6911418e-002,8.8229493e-002,0.0000000e+000,0.0000000e+000,-8.5536740e-002,6.4967707e-002,-6.7024363e-002,-1.7746976e-001,7.8056787e-002,1.0033601e-001,7.8998740e-002,1.0480966e-001,-6.1979565e-002,-3.7720429e-002,-1.2918958e-001,4.1831828e-002,-1.2160731e-001,1.7434610e-002,0.0000000e+000,0.0000000e+000,-2.0115614e-002,4.3316248e-002,-7.7218518e-003,7.1947226e-002,-6.7175405e-002,4.6900254e-002,1.1203295e-001,6.9220343e-002,-1.2680975e-001,5.0066897e-002,1.3858282e-001,-8.7672092e-002,-4.4756337e-003,4.9564137e-002,0.0000000e+000,0.0000000e+000,1.4773851e-001,-7.1790886e-002,1.6515763e-001,6.1957849e-002,-7.2247959e-002,1.2336902e-001,-1.2886179e-002,-2.6325711e-001,6.8644716e-002,3.5467275e-003,1.2194702e-001,7.7661882e-002,-1.3109522e-001,9.7647335e-002,0.0000000e+000,0.0000000e+000,2.6784763e-002,1.8012346e-001,3.6412867e-002,3.7933934e-002,8.5989477e-002,-1.0624872e-002,-1.3884463e-001,-7.6546341e-002,1.4045204e-001,-1.6026275e-002,-7.9659353e-002,1.2717093e-001,3.5987394e-002,-6.9191949e-002,0.0000000e+000,0.0000000e+000,-1.4162916e-001,-9.1427865e-002,-3.8544447e-002,1.7759736e-002,-4.4873157e-002,4.7851648e-002,1.6441793e-001,4.1414444e-002,-4.8210605e-002,2.1418682e-002,-1.7161838e-001,1.6938734e-002,-4.1087150e-002,-1.1795976e-001,0.0000000e+000,0.0000000e+000,1.9010156e-002,-1.6700814e-001,
,442,4.4507070e-002,2.6845441e-002,-4.5604736e-002,2.2330315e-002,8.8590180e-003,-1.5698424e-002,1.8280135e-001,-1.0308103e-001,-9.2882472e-002,-1.7861890e-001,-3.2110246e-001,3.1686745e-001,0.0000000e+000,0.0000000e+000,1.8375805e-001,9.5898299e-002,-1.0668441e-001,4.0152327e-002,-1.4102685e-001,7.9140529e-002,1.2395008e-001,-3.8715723e-002,1.5501759e-001,-1.2788364e-001,-2.3491059e-001,-1.4786574e-002,-1.7421284e-001,1.1340018e-001,0.0000000e+000,0.0000000e+000,1.2034048e-001,1.8386696e-001,1.7051184e-001,1.0912408e-002,-1.9790013e-001,-5.5093125e-002,-9.2861745e-002,-6.1614591e-002,2.0703507e-001,3.2710801e-002,1.0388585e-001,-1.9645202e-002,-6.4734838e-002,7.2452761e-002,0.0000000e+000,0.0000000e+000,1.8499411e-002,1.8744378e-005,1.4266287e-001,1.4969286e-003,-3.3720379e-002,-4.2222731e-002,2.3560765e-002,-6.4301387e-002,1.1699313e-001,1.0383832e-001,-2.5100344e-002,3.8340318e-002,-1.3690862e-001,7.3693982e-003,0.0000000e+000,0.0000000e+000,-2.8679091e-002,-9.4870003e-002,1.3296238e-002,4.9053524e-002,-7.6946779e-002,3.6463189e-002,-2.6070842e-002,-1.5561439e-004,-2.2753525e-003,-3.5622573e-002,1.8066811e-002,4.5487712e-002,8.5963808e-003,-5.8785935e-002,0.0000000e+000,0.0000000e+000,4.8917396e-003,-9.2038404e-003,-2.1716915e-001,5.0987805e-003,4.4574228e-002,8.3515766e-002,-5.6776232e-002,4.1545082e-002,-9.8356563e-002,-9.7710991e-002,1.0666366e-001,6.1344468e-003,-5.8442821e-002,4.6679070e-002,0.0000000e+000,0.0000000e+000,6.0667611e-002,4.0918447e-002,-2.2347301e-002,6.8333333e-002,1.0722533e-001,-6.8944465e-002,9.3808860e-002,1.0762448e-001,1.8174441e-002,2.1100692e-002,1.8344566e-001,3.4325846e-002,-2.8407931e-002,5.1991839e-002,0.0000000e+000,0.0000000e+000,-1.4438832e-001,-6.6598209e-002,-5.6029492e-002,-3.0265487e-002,5.6363148e-002,5.9109765e-002,4.9143941e-002,5.2978114e-002,-9.7792337e-002,5.7623174e-002,-4.7992607e-003,9.6910913e-002,-1.0893078e-002,-3.4377644e-002,0.0000000e+000,0.0000000e+000,-7.5642451e-002,2.1782727e-002,1.2219988e-001,-2.7406649e-002,-1.9335969e-001,1.7435496e-001,-1.9980959e-001,7.8138404e-002,1.5127056e-002,-2.5728620e-002,-1.7983116e-001,9.6792266e-002,8.2858388e-002,-6.1346752e-002,0.0000000e+000,0.0000000e+000,-6.5038926e-002,-9.7511476e-002,9.6724323e-002,5.2870552e-002,-9.1323305e-002,1.2355286e-002,3.2630186e-002,-1.3577341e-001,7.4104667e-002,-9.0922134e-004,3.9490615e-002,-3.6565221e-002,-5.2693644e-002,-4.6135514e-002,0.0000000e+000,0.0000000e+000,1.0910422e-001,-9.0434412e-002,
