 -2.1642902e-001
 -2.6963811e-001
  7.1611322e-002
 -4.3917123e-002
  3.5412402e-002
  6.4278260e-001
 -3.2326287e-001
 -1.0641332e-001
 -2.0216897e-001
 -2.8579066e-001
  2.8132098e-001
  1.9337415e-001
  0.0000000e+000
  0.0000000e+000
 -1.2347307e-002
  1.1272773e-001
  2.7212738e-002
  1.1244564e-001
  1.2272762e-001
  1.1821190e-001
 -1.2109201e-001
 -2.0504380e-003
 -2.4389238e-002
 -2.5883833e-001
  8.2180168e-002
  8.7905993e-002
  4.6066745e-002
  3.7356447e-001
  0.0000000e+000
  0.0000000e+000
 -1.6249933e-001
 -7.5808698e-002
  1.1303128e-001
 -8.9625262e-002
 -6.0252871e-002
 -6.1188407e-002
 -1.3078694e-002
  3.5618237e-002
  1.0140855e-001
  2.4150586e-002
  1.8921268e-002
 -5.2127356e-003
 -3.2150133e-002
 -9.1978507e-002
  0.0000000e+000
  0.0000000e+000
  4.7764694e-002
  1.1256218e-002
 -3.5608983e-002
 -1.1337850e-001
  5.3912618e-002
 -1.7443558e-001
  8.6146262e-002
  5.4635941e-002
 -5.1847778e-002
  3.1306639e-002
 -9.1468205e-002
 -1.4314193e-001
  9.7567742e-002
 -8.9858715e-002
  0.0000000e+000
  0.0000000e+000
 -1.7062490e-002
  6.4167766e-002
  9.3132380e-002
  8.9544035e-002
 -1.2096944e-001
  2.3633776e-001
  1.1045502e-001
 -5.4418227e-002
  4.8113545e-002
 -2.6393756e-001
 -1.4646383e-001
  4.5772801e-002
 -1.0997323e-001
  2.3177501e-001
  0.0000000e+000
  0.0000000e+000
 -1.6183272e-001
  4.0055511e-002
 -1.2730801e-001
  1.3249900e-001
  1.6656436e-001
  1.1568627e-002
 -3.6137098e-002
 -2.8349885e-001
  1.2118146e-001
 -2.7796815e-002
  1.5893966e-001
  2.3634524e-001
 -1.4492096e-001
  1.7125124e-001
  0.0000000e+000
  0.0000000e+000
  5.3017540e-002
 -1.1388357e-001
  1.2001093e-001
 -1.2472409e-001
  7.8809233e-002
 -1.2540803e-001
 -2.8010428e-001
  4.9318970e-002
  9.9030357e-004
  2.0470761e-001
  7.4718926e-002
  9.8636857e-002
  2.6006256e-003
 -8.6564072e-002
  0.0000000e+000
  0.0000000e+000
  4.6997244e-002
  5.8637173e-002
  4.1931101e-002
 -8.2016421e-002
 -1.4494143e-001
  2.1122257e-001
  3.4860626e-001
 -2.0109549e-002
 -2.6408419e-001
  1.8285225e-001
 -2.2394535e-001
  8.9538367e-002
 -4.9795376e-002
 -2.3171028e-001
  0.0000000e+000
  0.0000000e+000
  2.4779095e-002
  1.2230060e-001
  8.0645126e-002
  9.4273476e-002
 -7.7195937e-002
 -1.1307252e-001
  2.2420841e-001
 -1.7832556e-001
  1.8768548e-001
 -6.0882552e-002
  5.1828967e-003
 -1.0459878e-001
 -1.9721468e-001
  1.5392435e-001
  0.0000000e+000
  0.0000000e+000
  5.3449752e-002
  2.6638231e-002
 -4.3583248e-002
  4.6840538e-002
 -8.1357578e-002
 -5.1949105e-002
 -2.5744916e-001
  1.6188237e-001
 -2.0886135e-002
 -5.0232174e-002
  2.0116288e-001
 -1.2585533e-001
  1.0222801e-001
  3.6944558e-002
  0.0000000e+000
  0.0000000e+000
 -1.1166506e-001
 -3.4928688e-002
