4,2.1674102e-001,0.0000000e+000,-2.3501100e-001,0.0000000e+000,0.0000000e+000,0.0000000e+000,0.0000000e+000,0.0000000e+000,0.0000000e+000,0.0000000e+000,0.0000000e+000,-1.1253596e-001,0.0000000e+000,0.0000000e+000,0.0000000e+000,-3.3825249e-001,2.1731959e-001,4.7365510e-002,1.3512879e-001,0.0000000e+000,0.0000000e+000,0.0000000e+000,-2.9036927e-001,0.0000000e+000,0.0000000e+000,1.1709552e-001,0.0000000e+000,-2.9022557e-001,0.0000000e+000,0.0000000e+000,2.5470239e-001,-1.1221690e-001,-1.6243657e-001,1.9217257e-001,-2.1850533e-001,3.1249885e-001,5.0761426e-002,8.9706010e-002,3.4212509e-002,-2.5828636e-001,2.2456915e-001,-3.0106981e-001,-1.2987427e-001,2.4765357e-002,0.0000000e+000,0.0000000e+000,4.3046937e-002,-4.2066350e-002,-4.8847907e-001,0.0000000e+000,5.3492840e-003,-1.9965835e-001,1.1484450e-001,4.1399265e-001,-5.8553273e-001,2.8166555e-001,2.3780032e-001,-8.5749183e-002,3.2777824e-001,-1.7457452e-001,0.0000000e+000,0.0000000e+000,-2.4410958e-001,1.0526877e-001,2.1422592e-001,-2.1728506e-001,2.2490365e-001,-7.9968776e-002,-7.3791744e-001,1.8810407e-001,4.1322432e-001,7.8730805e-002,1.8272776e-001,-4.5871975e-001,-2.0871038e-001,-1.3652124e-001,0.0000000e+000,0.0000000e+000,1.4152210e-001,1.9635567e-001,-3.5153715e-002,-1.1914653e-001,-6.2201923e-003,-2.3793683e-001,0.0000000e+000,0.0000000e+000,0.0000000e+000,1.3130071e-002,6.8609149e-002,-8.3755180e-002,0.0000000e+000,-1.5814357e-001,0.0000000e+000,0.0000000e+000,-1.2239977e-001,2.5462414e-001,2.2203101e-001,-2.7760074e-001,-1.0665393e+000,4.1138271e-001,0.0000000e+000,0.0000000e+000,0.0000000e+000,0.0000000e+000,-1.2366175e-001,4.9843532e-001,2.7884892e-001,1.0198077e-001,0.0000000e+000,0.0000000e+000,1.8653136e-001,3.7287460e-002,0.0000000e+000,1.3502496e-001,-6.4578712e-001,5.5092904e-002,0.0000000e+000,-9.0535562e-002,3.8681889e-001,3.7729913e-001,0.0000000e+000,0.0000000e+000,1.6651908e-001,4.4510238e-001,0.0000000e+000,0.0000000e+000,-3.4433144e-002,0.0000000e+000,-2.0654270e-001,3.9619647e-001,3.7387883e-001,-5.6838659e-002,0.0000000e+000,5.9761576e-002,3.0977523e-002,-4.5769455e-001,-3.3776126e-001,-3.5217907e-002,-5.1436210e-001,1.2731917e-001,0.0000000e+000,0.0000000e+000,1.1672482e-002,1.0419067e-001,0.0000000e+000,0.0000000e+000,0.0000000e+000,1.0287240e-001,0.0000000e+000,0.0000000e+000,0.0000000e+000,0.0000000e+000,0.0000000e+000,0.0000000e+000,-3.2529789e-001,0.0000000e+000,0.0000000e+000,0.0000000e+000,0.0000000e+000,5.7317712e-002,
,8,-2.3485964e-001,-8.3148749e-002,1.8026325e-001,5.2421407e-001,2.8598461e-001,0.0000000e+000,0.0000000e+000,0.0000000e+000,0.0000000e+000,0.0000000e+000,3.4317699e-001,-4.3961183e-001,0.0000000e+000,0.0000000e+000,0.0000000e+000,-1.3026024e-001,-4.5861636e-001,0.0000000e+000,0.0000000e+000,2.6243103e-001,2.3553911e-001,0.0000000e+000,-3.5152647e-002,-1.7025134e-001,2.9758225e-001,-2.3664026e-001,0.0000000e+000,-3.9688965e-003,0.0000000e+000,0.0000000e+000,-2.7306642e-002,-1.5353842e-002,2.2171778e-002,-1.4197036e-001,2.0519103e-001,2.5494834e-001,-1.6910090e-001,0.0000000e+000,-1.7868729e-001,-4.2975987e-001,-2.2159881e-001,2.4601753e-001,-1.4065967e-001,1.8894833e-001,0.0000000e+000,0.0000000e+000,9.8822680e-002,-8.3881581e-002,1.2468725e-001,2.6916267e-002,6.1766925e-002,3.0498834e-002,-4.1042266e-001,3.4613123e-001,-6.7646617e-001,3.4807729e-001,-5.5115625e-003,9.3261005e-002,1.8799220e-001,-1.2350006e-001,0.0000000e+000,0.0000000e+000,2.7292879e-001,-2.1399469e-001,2.5600110e-001,-1.8619981e-001,9.8917162e-002,-3.4034978e-001,-3.6519614e-001,0.0000000e+000,4.4654748e-001,-1.5687914e-001,5.3158972e-001,-6.5752417e-001,-1.4051841e-003,6.7052912e-001,0.0000000e+000,0.0000000e+000,1.9184783e-001,4.2307985e-001,0.0000000e+000,-1.5658588e-001,2.4137611e-001,4.0175775e-002,1.7092110e-001,9.0920584e-002,1.8993979e-001,3.6644908e-001,1.2173408e-001,-4.2451613e-001,-1.3345284e-001,-9.0575225e-002,0.0000000e+000,0.0000000e+000,6.2916314e-003,-4.1641223e-001,-2.7082737e-001,5.0347868e-001,-2.6081960e-001,1.9413364e-001,0.0000000e+000,-2.7139845e-001,-3.0027846e-001,-3.6494478e-002,7.4788477e-002,3.9161797e-001,8.1154968e-002,-4.7483087e-002,0.0000000e+000,0.0000000e+000,-2.7748928e-001,-4.5011933e-001,-1.7209406e-001,-4.9700491e-001,2.9038147e-001,-3.4236055e-001,3.9710463e-001,5.9464130e-001,0.0000000e+000,-2.5123814e-002,7.4963702e-002,-2.5184885e-002,1.2352208e-001,1.2278848e-001,0.0000000e+000,0.0000000e+000,-5.7435447e-001,5.0214382e-001,-1.2776017e-001,-3.1056060e-001,0.0000000e+000,-1.6188885e-001,1.6635822e-001,-2.2762102e-001,1.5228420e-001,0.0000000e+000,5.6985085e-001,1.6399897e-002,1.4277194e-001,2.8183526e-001,0.0000000e+000,0.0000000e+000,-1.0731311e-001,-2.3325952e-001,-1.4765236e-001,2.7055723e-003,-3.9087538e-002,-2.0361029e-001,0.0000000e+000,0.0000000e+000,-2.7936148e-001,2.5855488e-001,-3.6814461e-001,0.0000000e+000,-3.1706170e-001,-3.3562713e-001,0.0000000e+000,0.0000000e+000,0.0000000e+000,0.0000000e+000,
,12,3.3200350e-002,0.0000000e+000,-4.9818679e-001,0.0000000e+000,0.0000000e+000,0.0000000e+000,0.0000000e+000,0.0000000e+000,0.0000000e+000,6.2877389e-001,0.0000000e+000,6.9736106e-002,0.0000000e+000,0.0000000e+000,-4.0592726e-001,-5.9554620e-001,7.0188987e-001,0.0000000e+000,6.8427008e-002,0.0000000e+000,0.0000000e+000,0.0000000e+000,0.0000000e+000,-4.4731770e-002,-1.7153962e-001,-1.4659522e+000,-2.7238650e-001,0.0000000e+000,0.0000000e+000,0.0000000e+000,8.0363320e-001,1.1075245e+000,-3.0059239e-002,-9.6373665e-001,3.6674695e-001,2.1128843e-001,4.4273726e-001,0.0000000e+000,-8.0646307e-001,-1.1108682e-001,2.1167284e-001,-6.3786090e-001,2.6830874e-001,3.2137616e-001,0.0000000e+000,0.0000000e+000,-7.7009303e-001,5.0378398e-002,-8.1357465e-001,9.5725624e-001,-1.7721138e-001,3.4945323e-001,0.0000000e+000,-8.7042355e-001,2.0073114e-001,1.4090021e-001,-4.2816498e-001,1.0973936e+000,6.9775523e-001,-1.3984832e+000,0.0000000e+000,0.0000000e+000,-5.6632855e-001,8.8177224e-002,-1.5453879e-001,2.9535935e-001,-3.7201194e-001,2.7048352e-001,0.0000000e+000,2.7381940e-001,0.0000000e+000,-8.3979822e-001,2.2498075e-001,-4.3481501e-001,-6.1799291e-001,1.5981737e-001,0.0000000e+000,0.0000000e+000,3.6948656e-001,4.8603629e-001,-9.0014487e-001,2.4094071e-001,-2.7077688e-001,-8.3010655e-001,3.4530125e-001,-5.6458442e-001,1.0046292e+000,4.6166047e-001,0.0000000e+000,6.1490409e-001,-1.7157547e+000,2.2674983e-001,0.0000000e+000,0.0000000e+000,5.7638679e-001,-5.5597914e-001,-1.6357141e-001,-8.7496250e-001,3.9350642e-001,-1.0697953e+000,6.1380396e-001,0.0000000e+000,3.5664917e-001,1.1841527e+000,-3.6520904e-001,4.6606229e-001,-4.8840879e-001,1.1714989e+000,0.0000000e+000,0.0000000e+000,7.1087211e-002,-6.2897650e-001,0.0000000e+000,1.0274328e+000,-2.5148537e-001,8.1353314e-001,0.0000000e+000,-6.9095220e-001,4.7498797e-001,0.0000000e+000,1.0832628e+000,7.5559726e-001,-5.0290415e-001,-1.7459073e-002,0.0000000e+000,0.0000000e+000,-5.3770523e-001,-7.9643527e-001,6.1365809e-001,-8.1616816e-002,0.0000000e+000,0.0000000e+000,-7.8112732e-001,0.0000000e+000,9.1845231e-001,0.0000000e+000,-4.7087374e-001,-9.5176530e-001,0.0000000e+000,-1.5406255e+000,0.0000000e+000,0.0000000e+000,-5.6000640e-002,8.5013325e-001,1.7085736e+000,-1.6557921e+000,4.2150898e-001,-7.0915669e-001,0.0000000e+000,3.9057522e-001,0.0000000e+000,-5.8590281e-002,0.0000000e+000,0.0000000e+000,0.0000000e+000,1.1049321e+000,0.0000000e+000,0.0000000e+000,0.0000000e+000,0.0000000e+000,
,23,7.1449465e-002,-1.1596691e-001,1.3821334e-002,6.9677482e-002,-9.1462985e-002,2.3191522e-002,7.2093208e-002,-1.0119904e-001,-2.8370635e-002,2.7359798e-003,-3.6881474e-002,8.0043621e-002,0.0000000e+000,0.0000000e+000,-4.8870897e-002,6.7578278e-002,5.0412952e-002,-9.7729618e-002,7.8791470e-002,-4.0086048e-002,-3.6716635e-002,-1.0991096e-001,4.6058729e-003,-7.1890210e-002,4.1385771e-002,7.4814881e-002,-2.2113926e-002,5.6507413e-002,0.0000000e+000,0.0000000e+000,8.1447004e-003,-3.1465850e-002,2.1802885e-002,-4.1625396e-002,-4.5182196e-002,-1.7238912e-003,-2.4246025e-002,1.0696838e-001,-1.5899772e-002,-3.2403754e-002,1.2865412e-002,-3.2052706e-002,1.5255470e-002,1.5638067e-002,0.0000000e+000,0.0000000e+000,-2.6055393e-002,-3.0653243e-002,-3.1213303e-002,5.1288300e-003,-1.5234523e-002,2.1011991e-002,-7.7578390e-004,6.9812722e-002,7.5541975e-002,4.3717598e-002,2.9224993e-002,-5.6045319e-002,-4.2636751e-002,4.7707911e-002,0.0000000e+000,0.0000000e+000,1.1688158e-002,8.0072444e-003,3.5113123e-002,-4.1051907e-002,6.6009670e-002,3.6823881e-002,-4.6828899e-002,-3.8520551e-002,4.5916530e-003,4.1436182e-003,1.3095123e-002,-8.6446685e-003,2.9436591e-002,-2.0881220e-002,0.0000000e+000,0.0000000e+000,-5.3340119e-002,4.5672192e-002,7.5554669e-002,3.2013325e-002,8.9502496e-002,6.2240827e-002,-1.5395826e-001,6.5582430e-002,-7.9966831e-002,1.0620230e-002,-6.2760724e-002,2.7833791e-002,-1.1189717e-002,5.9029117e-003,0.0000000e+000,0.0000000e+000,7.8692137e-002,-3.5289761e-002,8.0080833e-002,-3.0834037e-002,-5.5195498e-002,4.5106004e-002,-5.5169550e-002,3.1490083e-002,1.4773509e-002,-4.0672871e-002,-5.2614610e-002,-5.3360858e-002,3.7502388e-004,-1.2344006e-002,0.0000000e+000,0.0000000e+000,6.7616878e-002,-6.3400746e-002,-5.2763885e-002,3.4850136e-002,-1.4976927e-002,-4.9521559e-002,1.3808913e-001,-3.6244448e-002,-9.6580743e-003,8.4749250e-002,9.5146571e-002,-2.6106218e-002,1.8616106e-002,-1.2518258e-002,0.0000000e+000,0.0000000e+000,-2.4974528e-003,-1.5352900e-002,1.1946577e-002,-9.3062226e-002,4.0705659e-002,-1.0098848e-001,6.1917019e-003,2.3132716e-002,3.1586250e-002,-6.4950479e-003,2.8492782e-002,-6.2815290e-003,-1.0630968e-001,1.1900979e-001,0.0000000e+000,0.0000000e+000,-1.4094732e-001,1.0344564e-001,-7.4316393e-002,-4.9042713e-002,8.8527222e-002,-2.0996230e-002,-1.1158074e-001,3.7061640e-002,3.7547203e-002,4.0106505e-002,-3.3320291e-002,2.9308959e-002,-4.7528040e-002,-3.0296575e-002,0.0000000e+000,0.0000000e+000,2.1965017e-002,-6.7926325e-002,
,27,-2.9610554e-001,0.0000000e+000,2.5906488e-001,0.0000000e+000,-9.6773867e-002,0.0000000e+000,0.0000000e+000,2.5763414e-002,0.0000000e+000,0.0000000e+000,3.7578918e-001,-4.8414358e-001,0.0000000e+000,0.0000000e+000,0.0000000e+000,3.3715007e-002,-4.3719353e-001,5.7681504e-001,0.0000000e+000,-2.9505223e-001,0.0000000e+000,0.0000000e+000,0.0000000e+000,9.0259844e-001,4.9792115e-001,-4.6969005e-001,0.0000000e+000,2.1483998e-002,0.0000000e+000,0.0000000e+000,4.3299103e-002,1.1230293e-001,-7.7188774e-002,2.7476127e-001,-6.0150769e-001,2.1182923e-001,4.6068499e-001,-9.6767243e-002,2.8248865e-001,1.0369432e-001,-3.4579961e-001,4.9115752e-001,-7.3441368e-001,1.6725163e-001,0.0000000e+000,0.0000000e+000,-4.3139879e-002,7.9769541e-002,6.3213230e-001,-7.5176341e-001,2.9619180e-001,9.6711651e-002,1.9257981e-002,2.2880576e-001,-8.1833233e-002,-1.0819321e-001,-7.7096852e-002,-2.3847394e-002,-5.7377251e-002,1.8732117e-002,0.0000000e+000,0.0000000e+000,-4.1725555e-002,1.4425191e-001,3.8292969e-001,-2.0665028e-001,4.5765739e-001,8.3646776e-002,-8.4569955e-001,1.5138458e-001,-4.4602627e-002,-1.8404688e-001,5.7711378e-001,-1.4255263e-001,3.6841410e-001,-1.2776888e-001,0.0000000e+000,0.0000000e+000,-2.6535984e-001,-1.3699156e-002,-3.3736581e-001,1.9535527e-001,-1.1564965e-001,-3.1745749e-001,0.0000000e+000,-1.1790063e-001,3.1635910e-001,-1.0790942e-001,3.9853916e-001,-1.8939717e-001,-7.7996641e-002,-2.6298162e-001,0.0000000e+000,0.0000000e+000,3.1132613e-001,-3.4260911e-001,4.0149771e-001,0.0000000e+000,-7.8004585e-002,0.0000000e+000,0.0000000e+000,0.0000000e+000,-2.1934972e-001,-3.3590647e-001,9.6731763e-002,0.0000000e+000,-2.3655607e-002,1.2634241e-001,0.0000000e+000,0.0000000e+000,1.4441743e-001,5.0329643e-001,-1.8640167e-001,0.0000000e+000,1.4933180e-001,1.8635583e-001,5.0361779e-001,-3.1315662e-001,-8.5189185e-002,-3.6282487e-001,-2.4195499e-001,2.1894040e-001,0.0000000e+000,3.7157099e-001,0.0000000e+000,0.0000000e+000,5.0770407e-001,1.7141350e-001,-3.3453224e-001,-2.4227501e-001,2.0984201e-002,0.0000000e+000,7.9941791e-001,-7.3045911e-001,-4.8216757e-002,0.0000000e+000,0.0000000e+000,-2.5130042e-001,-3.3524253e-001,2.8250087e-001,0.0000000e+000,0.0000000e+000,-1.6100436e-001,-1.3209733e-001,-3.8388118e-001,8.2332678e-002,1.6639830e-001,4.6821841e-002,0.0000000e+000,2.1886078e-001,0.0000000e+000,2.0907650e-001,-3.4545615e-001,-7.7910084e-003,2.6511724e-001,-2.3063592e-001,0.0000000e+000,0.0000000e+000,0.0000000e+000,0.0000000e+000,
,31,3.3539790e-001,0.0000000e+000,1.4269102e-001,0.0000000e+000,0.0000000e+000,0.0000000e+000,0.0000000e+000,0.0000000e+000,0.0000000e+000,0.0000000e+000,0.0000000e+000,-3.1059422e-001,0.0000000e+000,0.0000000e+000,-1.4074790e-001,-1.8227810e-001,0.0000000e+000,0.0000000e+000,0.0000000e+000,2.9114675e-001,-1.6385170e-001,3.8429065e-002,-6.3430034e-001,0.0000000e+000,0.0000000e+000,0.0000000e+000,0.0000000e+000,2.5336521e-001,0.0000000e+000,0.0000000e+000,4.7738074e-001,5.9283952e-002,-1.9955123e-002,1.5194164e-001,-2.3499204e-001,1.8548511e-002,1.6613370e-001,1.3542680e-001,1.1200451e-001,5.8986990e-002,0.0000000e+000,-4.5518112e-001,9.6424706e-002,-1.1651283e-001,0.0000000e+000,0.0000000e+000,-4.9435171e-001,6.0877074e-001,4.1915632e-003,-1.4423235e-003,-6.9399999e-001,2.2207642e-001,-5.3307589e-002,-1.7471822e-001,9.4003882e-001,-4.5869747e-001,1.2103431e-001,3.4279901e-001,-6.7861629e-001,3.0721655e-001,0.0000000e+000,0.0000000e+000,-1.2237487e-001,-9.5412466e-002,2.9207372e-001,1.7676437e-001,-2.8298617e-001,0.0000000e+000,0.0000000e+000,0.0000000e+000,1.6190116e-001,-1.9901818e-001,-3.9383636e-001,1.1325627e+000,-2.3295941e-001,2.0105201e-001,0.0000000e+000,0.0000000e+000,-3.8649232e-001,-2.6232856e-001,0.0000000e+000,5.3020935e-001,3.0708790e-001,-1.6823211e-001,0.0000000e+000,0.0000000e+000,0.0000000e+000,3.6683659e-002,0.0000000e+000,-4.3379460e-001,0.0000000e+000,-9.1774544e-002,0.0000000e+000,0.0000000e+000,7.4765865e-002,-6.0914352e-001,-9.5189423e-001,0.0000000e+000,0.0000000e+000,-1.0575853e-001,0.0000000e+000,-8.0376808e-002,0.0000000e+000,-1.5313552e-001,6.1683169e-002,-3.1900464e-001,3.4781875e-001,-3.2435214e-001,0.0000000e+000,0.0000000e+000,6.6283109e-001,-8.0412103e-002,3.1160771e-001,0.0000000e+000,6.2260700e-002,7.2618421e-002,0.0000000e+000,-1.3327022e-001,1.6423361e-001,-1.5514006e-001,0.0000000e+000,0.0000000e+000,2.6741637e-001,-1.5483184e-001,0.0000000e+000,0.0000000e+000,-5.4396067e-001,2.3635020e-001,-2.4941548e-002,-2.7621405e-002,0.0000000e+000,0.0000000e+000,0.0000000e+000,1.8279857e-001,0.0000000e+000,0.0000000e+000,0.0000000e+000,4.2206241e-001,1.2867535e-001,0.0000000e+000,0.0000000e+000,0.0000000e+000,0.0000000e+000,0.0000000e+000,0.0000000e+000,1.1384625e-001,3.8284399e-001,2.2726605e-001,-1.0504750e-001,4.1336048e-001,0.0000000e+000,-4.7777547e-001,2.5333191e-001,0.0000000e+000,0.0000000e+000,2.4161316e-001,0.0000000e+000,0.0000000e+000,0.0000000e+000,0.0000000e+000,
,43,3.4616843e-002,-1.4649002e-001,4.7743385e-002,7.3009811e-002,3.8023537e-002,4.2329198e-002,9.3939308e-002,-1.2682743e-001,7.9818699e-002,9.5298363e-002,-8.1611582e-003,3.4666582e-002,0.0000000e+000,0.0000000e+000,-4.7724376e-002,-1.8372933e-001,1.9548487e-001,2.9693244e-002,-7.3761777e-002,-4.8343762e-002,-1.3155861e-001,-2.0759934e-001,1.6803671e-001,-1.4971503e-001,-3.0181551e-003,1.3344783e-001,-9.8331230e-002,8.6827485e-002,0.0000000e+000,0.0000000e+000,2.3453824e-002,3.3471439e-002,-9.6014452e-003,-8.9338725e-002,2.2935571e-002,-1.0791559e-002,-7.6843581e-002,1.8682622e-003,5.5959830e-003,3.6454780e-002,-5.0482542e-003,-2.5496670e-002,-2.0772494e-002,-6.8676993e-002,0.0000000e+000,0.0000000e+000,-9.0688088e-003,5.4031395e-002,9.1206726e-003,6.7140066e-003,3.2757031e-002,6.4359944e-002,7.5221090e-002,-2.7667645e-002,4.0620515e-002,-5.7285541e-002,-7.8389572e-003,-4.4196558e-002,-6.4482696e-002,3.0510617e-003,0.0000000e+000,0.0000000e+000,5.2396864e-002,5.6874765e-002,4.3565207e-002,-2.6071806e-001,7.0442182e-002,-9.9785384e-002,-1.0259278e-001,1.8542595e-001,-1.4107936e-002,1.3959160e-002,-9.3161171e-002,1.4308461e-002,-4.1345984e-002,-1.3475569e-002,0.0000000e+000,0.0000000e+000,-4.9383588e-002,2.3257029e-002,5.1579679e-002,1.7843101e-001,-9.5462774e-002,6.4983942e-002,-5.5473673e-002,-1.3542433e-001,1.0023796e-001,-4.7822944e-002,6.4723527e-002,7.2979936e-002,-1.1254667e-001,-1.4952384e-002,0.0000000e+000,0.0000000e+000,3.6547385e-002,1.0316180e-001,-8.6691810e-002,4.0327634e-002,-4.6613753e-002,2.4860152e-002,-1.1013833e-001,2.7152027e-002,-1.1783677e-001,-1.0355691e-001,-8.5474191e-003,1.1696245e-001,-3.8134676e-002,-2.2055902e-002,0.0000000e+000,0.0000000e+000,-4.7344162e-002,-3.7937587e-002,-1.0042567e-001,-6.8483348e-002,3.0719138e-002,1.6535902e-002,9.1176502e-002,5.8301299e-002,-1.1224513e-001,1.4133047e-001,2.9037113e-002,3.9132776e-002,5.8278845e-002,-8.5205494e-002,0.0000000e+000,0.0000000e+000,-2.0393026e-001,-4.5285732e-002,8.6784220e-002,-4.3921576e-002,-3.9624814e-002,5.5980857e-002,-3.0981785e-003,1.4438495e-001,1.1725898e-001,1.4472987e-001,8.3022540e-002,-9.4120482e-002,2.4545997e-003,-1.3426586e-001,0.0000000e+000,0.0000000e+000,1.2194008e-001,-4.8224172e-002,3.8254286e-002,-1.3024627e-002,2.1952510e-002,-1.3095084e-002,-9.3479077e-002,4.8713019e-002,1.7121692e-001,4.1210915e-002,7.2162805e-002,-1.6146601e-001,-1.2303970e-001,8.6222882e-002,0.0000000e+000,0.0000000e+000,2.8594290e-002,-1.1169450e-002,
,55,-1.0212791e-002,-1.6595493e-001,1.4336095e-001,8.8307449e-003,2.8046618e-001,-2.3133319e-002,1.7318866e-001,-7.2071145e-002,-3.3250997e-001,-7.8730879e-003,-1.5934228e-001,2.8919218e-002,0.0000000e+000,0.0000000e+000,-2.2179672e-002,2.3949543e-001,1.1750826e-001,8.0234748e-002,-1.4752960e-001,6.6204679e-002,-7.1302297e-002,-7.3189942e-002,6.8831062e-003,-1.1596022e-001,-3.8381359e-002,1.7135047e-001,-9.4595259e-003,3.9318069e-002,0.0000000e+000,0.0000000e+000,-1.5117920e-001,-6.5761777e-002,-1.2870772e-002,1.3250822e-002,1.4038265e-001,-1.4329548e-001,-2.0393680e-002,1.5521048e-001,-8.8580586e-002,4.2262965e-002,-6.0000716e-002,-9.3304539e-002,8.8910101e-002,-9.6609853e-002,0.0000000e+000,0.0000000e+000,-1.6560829e-001,1.6386605e-001,8.1081183e-002,1.2048806e-002,5.4763334e-003,-2.1649795e-002,-6.3222997e-002,-3.4766793e-002,-8.9118375e-002,1.3834932e-001,3.2053191e-002,1.3709591e-001,-5.4732105e-002,-2.0103779e-002,0.0000000e+000,0.0000000e+000,2.1993082e-003,-2.3382568e-002,-2.5643042e-002,3.8407086e-002,-4.3882754e-002,1.2648937e-001,-1.4547509e-004,-7.6543704e-002,4.0495168e-004,-8.0620662e-002,-5.3705315e-002,4.1250258e-002,-6.6960301e-002,4.3409948e-002,0.0000000e+000,0.0000000e+000,-4.7639727e-002,1.6650555e-002,-1.9297948e-001,1.7814211e-002,3.3183958e-003,-4.8623637e-002,3.7858557e-002,1.8229765e-001,4.9152069e-003,2.1838192e-001,-5.6723688e-002,-9.7251485e-002,-1.6411869e-001,-1.2809970e-002,0.0000000e+000,0.0000000e+000,-6.5757016e-002,-1.8659208e-002,7.4989482e-002,-3.9677904e-002,3.1201537e-002,-6.3639921e-002,-1.8204482e-001,9.3795229e-002,7.1310287e-002,-1.1705399e-001,2.0951635e-001,-1.2096764e-001,-6.1848365e-002,3.7753670e-002,0.0000000e+000,0.0000000e+000,-2.0470413e-002,-7.6345383e-002,-3.9802716e-002,8.1773405e-002,-5.3020519e-002,1.3859949e-001,9.2802180e-002,-1.6834886e-001,1.1424856e-001,2.8617219e-002,-4.0517842e-002,8.2511093e-002,1.0177411e-001,1.5705422e-002,0.0000000e+000,0.0000000e+000,-4.6144176e-002,2.5204791e-001,-7.8326883e-002,7.1521228e-002,-1.2531572e-001,4.0826547e-002,-2.0614162e-002,1.3207051e-001,6.9621162e-002,2.8804909e-003,-1.2854659e-001,8.1701188e-002,-1.4329338e-001,-1.9294643e-001,0.0000000e+000,0.0000000e+000,5.1929084e-002,8.5449134e-002,8.4885022e-002,-5.1122785e-002,1.5560504e-001,-8.2603628e-002,-3.0712567e-002,-2.6879684e-002,-1.5016763e-001,8.8253680e-002,1.3001122e-002,1.5642043e-001,-1.3842487e-001,-1.2735124e-001,0.0000000e+000,0.0000000e+000,6.9939817e-002,-1.5713200e-001,
,67,-9.9436510e-003,-4.2669618e-002,3.8105802e-003,-1.0834272e-001,1.5414074e-001,-5.7009440e-002,3.6057613e-002,1.7505684e-001,-1.5263487e-001,-8.5654857e-002,3.2714845e-002,-3.0608451e-002,0.0000000e+000,0.0000000e+000,3.2656520e-002,1.2189248e-001,1.1504695e-001,-2.0949126e-001,3.7379088e-001,-2.7174907e-001,-1.6021072e-001,1.0333783e-001,-2.4820307e-002,-1.9407987e-002,-8.2932219e-002,2.3825387e-001,-2.0817924e-001,1.3743696e-001,0.0000000e+000,0.0000000e+000,-9.6540218e-002,1.0041198e-002,8.8424745e-002,3.5692723e-003,-9.1103441e-002,3.0450964e-002,-1.6306621e-001,1.3542378e-002,9.8551274e-003,-7.5090261e-002,1.9386483e-002,7.0117018e-003,-1.4362813e-002,4.2519465e-002,0.0000000e+000,0.0000000e+000,-8.8770145e-002,4.0388610e-003,-2.4157336e-002,8.6399144e-002,-1.3333939e-001,1.0633168e-001,-6.9167360e-003,9.8368735e-003,3.6046129e-002,-1.2019575e-001,-7.0076797e-002,-6.3095268e-002,-5.4334671e-003,-1.9350797e-002,0.0000000e+000,0.0000000e+000,-2.7758373e-003,9.6839328e-002,3.4414091e-003,-1.3247063e-001,-4.3235711e-003,-1.5361714e-002,2.4522527e-002,-7.8525320e-003,3.9659802e-002,1.7179822e-002,3.4412965e-003,7.8827598e-002,6.6859273e-002,4.2517182e-002,0.0000000e+000,0.0000000e+000,-1.5761488e-001,-2.5659720e-002,-5.7576516e-002,-4.3056174e-002,6.1239792e-002,-2.5723089e-002,2.1989003e-002,4.5590345e-003,1.1946261e-001,9.2057937e-002,7.4511052e-002,2.9940435e-002,-1.7554140e-001,1.4258839e-001,0.0000000e+000,0.0000000e+000,9.5118087e-002,-1.6161518e-001,3.0157966e-002,1.7022004e-003,7.5138113e-002,-7.6282787e-004,-3.2225190e-002,-7.0398525e-002,1.2207718e-002,1.5251669e-002,3.3428795e-002,-2.2207653e-003,-2.4369379e-002,-7.7631585e-002,0.0000000e+000,0.0000000e+000,6.7512839e-003,-6.4938359e-002,1.2205843e-001,8.0594454e-002,6.6221552e-002,-4.5285682e-002,-4.1578810e-004,-1.0508270e-001,-4.8396400e-002,1.4037269e-001,-9.7901315e-002,-9.1911246e-003,4.7382995e-002,2.0759737e-002,0.0000000e+000,0.0000000e+000,-3.6644666e-002,7.4863069e-002,5.8362938e-002,-1.7524827e-001,-6.9570813e-002,-1.4450273e-001,-9.6041341e-002,-1.5113266e-002,2.8565930e-002,-5.6839075e-002,-4.0806943e-003,6.9425563e-003,-1.7392382e-002,5.0872763e-002,0.0000000e+000,0.0000000e+000,-9.5959636e-002,1.0236294e-001,6.7973168e-002,-1.1760642e-001,-2.1014200e-002,1.2605715e-001,-1.7761239e-001,1.6058738e-001,1.0706573e-001,-2.1250143e-001,4.8528451e-002,-5.0743405e-002,2.2607339e-002,-5.5972564e-002,0.0000000e+000,0.0000000e+000,1.7374290e-002,-1.4718875e-001,
,79,2.4105878e-002,3.8463081e-003,-8.6611216e-002,1.0683433e-001,2.2294732e-001,-3.1194133e-002,-7.9774465e-002,-3.4749790e-002,-1.5280441e-001,3.0846182e-001,1.1619170e-001,-7.8837116e-002,0.0000000e+000,0.0000000e+000,-2.1890343e-001,1.5750912e-002,1.0433015e-001,-1.9937873e-001,2.3419704e-001,-8.6386277e-002,-1.0564002e-001,1.4005180e-001,6.3874697e-002,-1.8743134e-001,1.3188325e-001,-1.6821544e-001,1.7331706e-002,8.6237374e-002,0.0000000e+000,0.0000000e+000,8.8675868e-003,5.5164783e-002,-3.0961091e-002,-5.1539374e-002,-2.8629724e-002,1.5014834e-002,-6.1179054e-002,2.0793394e-001,-3.9361881e-002,1.9552448e-001,-8.6412369e-002,-1.4065284e-002,-8.9071258e-002,-1.1819312e-001,0.0000000e+000,0.0000000e+000,-3.0390629e-002,4.7832105e-002,3.8681046e-003,-1.4254828e-002,-6.8516393e-003,1.0100437e-001,1.5779659e-001,-6.5383119e-002,2.8740814e-002,1.4287760e-002,-4.8278724e-002,7.1713887e-002,-2.6902067e-002,9.9416148e-004,0.0000000e+000,0.0000000e+000,-1.4736305e-003,-1.3062561e-001,-4.0409644e-002,1.1313885e-002,-1.6598882e-002,5.8494621e-003,1.8833905e-002,9.0863350e-003,-1.6739302e-001,1.0024782e-001,-1.2185736e-001,5.2706037e-002,-1.4002757e-002,-9.0602899e-002,0.0000000e+000,0.0000000e+000,9.0915992e-002,7.9109313e-002,1.4017530e-001,-1.3349576e-001,2.1384899e-002,-1.1945379e-003,-2.6793468e-001,9.4947961e-003,5.6607806e-003,-4.7918088e-002,-4.6007323e-003,1.2630798e-001,-4.9951324e-002,1.6153737e-002,0.0000000e+000,0.0000000e+000,-3.9206010e-003,1.4626326e-002,1.6401079e-001,-1.0710682e-001,-4.9916912e-002,1.2790519e-001,-1.8820227e-001,2.0641003e-004,5.0571913e-002,-3.0922264e-001,1.3322504e-001,-1.7217023e-001,1.2650432e-001,-1.5113056e-001,0.0000000e+000,0.0000000e+000,2.8810736e-003,7.1478591e-002,-2.4214685e-001,7.4193871e-002,-7.9141319e-002,5.5560609e-002,2.0658179e-001,-3.7976991e-002,-1.4243471e-002,-8.9146518e-002,-2.7682608e-002,6.3289445e-002,7.8559742e-002,2.5793524e-001,0.0000000e+000,0.0000000e+000,-4.7691091e-002,-7.7507752e-002,-1.4898871e-002,-5.4706464e-002,-5.7370016e-002,1.1455791e-002,-1.5675824e-001,-2.2417229e-002,2.1661865e-002,-2.0244007e-002,6.5334014e-002,9.1575841e-002,-1.0668962e-002,1.9630612e-001,0.0000000e+000,0.0000000e+000,-7.2426553e-002,-2.1629909e-001,6.4880156e-002,1.0544152e-001,9.2139835e-002,1.7983434e-002,-3.3738892e-002,-5.1511687e-002,9.5207933e-003,1.6208211e-001,2.9041834e-002,9.5403540e-002,-1.2807266e-001,-8.5345746e-002,0.0000000e+000,0.0000000e+000,3.4381913e-002,3.3321855e-002,
,91,-7.9046967e-002,2.4654590e-002,-5.2356301e-002,2.3544131e-001,-3.0508923e-002,1.6064846e-001,-7.5555389e-002,-1.0696617e-001,8.5763805e-002,-6.9645809e-002,-8.0080909e-003,-1.9176562e-002,0.0000000e+000,0.0000000e+000,-2.9370983e-003,-2.3349394e-003,4.0194491e-002,-9.2053120e-002,8.7678204e-002,-5.0079692e-002,1.1242140e-001,-9.0475672e-002,-1.3017815e-002,-6.2789585e-002,-3.7893929e-002,6.4882881e-002,-9.0750211e-002,1.7134706e-001,0.0000000e+000,0.0000000e+000,6.2607554e-002,-4.6707917e-002,3.1295426e-002,-1.9116256e-002,4.1877750e-002,-3.3079392e-002,-6.1994729e-002,1.4728814e-002,-2.5512749e-002,4.6012175e-002,-1.1508813e-002,-5.4625927e-002,1.7583188e-002,-7.1099768e-002,0.0000000e+000,0.0000000e+000,-3.2474887e-002,6.8624204e-002,-2.1801205e-002,6.8103717e-002,-1.0311702e-001,2.5990788e-002,3.6885071e-002,1.8725426e-002,8.8040474e-002,-6.8178739e-002,-4.4060717e-002,5.7019129e-002,-3.7809520e-002,8.3318749e-002,0.0000000e+000,0.0000000e+000,-1.7324011e-002,1.0509117e-002,-5.0491749e-003,-7.3969812e-002,-4.3378388e-002,-8.4109786e-002,-1.6916632e-001,-1.2287082e-001,1.2960336e-001,5.3935034e-002,6.0893939e-002,3.9661894e-002,1.4693883e-002,-2.0384217e-002,0.0000000e+000,0.0000000e+000,-7.0077410e-003,-1.1227211e-003,1.8880510e-002,3.8023584e-004,8.9979566e-002,8.9676140e-002,7.0460245e-002,-9.8110050e-002,-2.7553521e-002,5.6793880e-002,-2.8651866e-002,9.5014990e-002,-7.7458113e-002,6.1333688e-002,0.0000000e+000,0.0000000e+000,-3.6649466e-002,6.3852489e-002,9.4761088e-002,-1.2075659e-001,1.6814877e-002,1.6846393e-002,-8.8339155e-003,9.2127087e-002,1.3295561e-002,8.5799018e-002,2.0309950e-001,-3.1431701e-002,1.3112426e-002,-1.3697306e-003,0.0000000e+000,0.0000000e+000,-3.3097490e-002,-4.9612718e-002,2.5085397e-002,-5.2518885e-002,-3.5349261e-003,7.9800108e-002,-2.1667249e-002,5.5516065e-002,-2.1842296e-002,4.2019314e-002,-5.8493846e-003,-3.2583379e-002,2.3619557e-002,2.0418925e-002,0.0000000e+000,0.0000000e+000,7.2928254e-002,-5.7892960e-003,-1.0480014e-002,-7.1452106e-002,1.6699985e-002,3.9993070e-002,-1.0485296e-001,6.7216289e-002,4.5250831e-002,-2.6099174e-001,-9.0396802e-002,1.1477902e-002,-5.1058688e-002,6.8823846e-002,0.0000000e+000,0.0000000e+000,-5.7986013e-002,6.0590823e-002,1.5654840e-002,8.3222733e-002,-3.9345279e-002,-4.7956920e-002,-4.2753609e-002,-1.1674727e-001,3.2970826e-002,6.2619662e-002,4.2464027e-002,5.6779677e-002,-4.1680449e-002,9.8659031e-004,0.0000000e+000,0.0000000e+000,2.2399919e-003,-1.2843992e-003,
,103,9.7478788e-002,-3.5797949e-001,5.8542215e-002,-2.8521922e-002,-2.0996032e-001,4.7740257e-001,-5.5305321e-002,8.9970022e-002,-1.4763197e-001,-4.8565952e-002,-7.6191117e-002,-2.3647414e-002,0.0000000e+000,0.0000000e+000,-2.4640202e-002,1.9232653e-001,9.3369585e-002,3.9761956e-002,1.5528008e-001,-1.4980941e-001,-1.0661516e-001,-1.2300390e-001,3.6116231e-002,2.8742527e-002,7.5398549e-003,2.2311407e-001,-7.7774610e-002,7.3578868e-002,0.0000000e+000,0.0000000e+000,-7.7620660e-002,8.6382403e-003,2.0780520e-002,-6.4808952e-002,2.2309298e-002,2.0895035e-002,-1.5273649e-001,1.1995563e-002,1.8263508e-002,9.7619182e-003,1.2644177e-001,-1.1536076e-002,-5.4661937e-002,8.9755951e-002,0.0000000e+000,0.0000000e+000,-7.1261884e-002,-6.7320014e-002,2.5302847e-003,-3.1156040e-002,-3.2703485e-002,8.9050823e-002,1.7677660e-002,7.2606449e-002,5.7400138e-002,-3.6526541e-002,5.3570911e-003,1.6662344e-002,-1.0053438e-001,9.0647520e-002,0.0000000e+000,0.0000000e+000,5.5645249e-002,-3.7763953e-002,4.2001394e-002,-1.4786390e-001,-3.5861999e-002,-3.8681829e-002,-4.8270646e-002,1.7453305e-002,8.0633247e-002,6.1735331e-002,3.5678093e-002,-4.4221810e-002,-4.3336218e-002,-8.1453324e-002,0.0000000e+000,0.0000000e+000,-2.6459209e-002,2.0268782e-002,-6.8339720e-002,6.8537447e-002,-3.5586869e-002,7.8243822e-002,-4.5516604e-002,-8.5262194e-002,-6.7713500e-002,6.5582802e-002,-7.0563275e-002,1.6352084e-002,4.5499466e-002,-5.0684650e-002,0.0000000e+000,0.0000000e+000,1.8037008e-002,1.8004679e-001,2.4055515e-002,6.2852097e-002,-1.1106284e-001,1.2891943e-001,-3.9142427e-002,-4.9703883e-002,1.3177796e-001,-7.8126772e-002,-1.8024883e-002,1.1239499e-001,-7.0987514e-002,7.0044879e-002,0.0000000e+000,0.0000000e+000,-1.4303628e-001,7.4494215e-002,-3.9937502e-003,1.3088503e-001,6.5096939e-002,-1.0054962e-001,2.6085381e-002,-9.5213983e-003,3.9744468e-002,5.1053346e-002,1.5017745e-001,8.2593371e-002,-9.9846209e-002,1.1573521e-001,0.0000000e+000,0.0000000e+000,-5.3961936e-002,-6.8186824e-002,-2.6146663e-002,-1.5573450e-001,9.0587984e-004,-1.3603978e-001,3.9245342e-002,9.6648147e-002,1.2566930e-002,-3.1722986e-002,4.1715292e-002,-1.9063822e-002,-2.7327860e-001,7.8384277e-002,0.0000000e+000,0.0000000e+000,6.9918055e-002,-6.3038923e-002,5.4602990e-002,-1.1219451e-001,-7.7655188e-002,7.9364999e-002,-7.9283735e-002,2.6562011e-002,8.7814127e-002,8.6722334e-002,-1.4958560e-001,3.2785921e-002,-6.6849526e-002,-2.2028393e-002,0.0000000e+000,0.0000000e+000,7.7538774e-002,4.5465806e-002,
,115,1.8593687e-002,-2.3498886e-001,1.5481270e-002,-9.1651178e-002,-1.7709781e-001,3.7816476e-001,-8.3848567e-002,1.8711675e-001,1.9566332e-001,-1.6645660e-001,9.9827449e-002,-1.2381432e-001,0.0000000e+000,0.0000000e+000,-2.4816022e-002,-3.1539660e-002,8.1894811e-002,-7.7787761e-003,4.1284296e-002,-2.0749039e-002,-1.4085239e-001,-5.5618642e-003,4.3924511e-002,-2.4775605e-002,1.6665965e-001,-7.0248694e-002,-1.4902882e-001,1.2547433e-001,0.0000000e+000,0.0000000e+000,1.4775257e-001,-4.2229497e-002,7.1852324e-003,-1.3394262e-002,-5.9881798e-002,-7.7154580e-002,5.6190888e-002,-5.5002029e-002,9.1042959e-002,-6.4666364e-003,-1.4709951e-001,5.3518295e-002,-2.3803003e-002,5.7546046e-002,0.0000000e+000,0.0000000e+000,2.9476066e-004,3.6025050e-002,3.4566489e-002,-3.9447964e-002,4.6121425e-002,2.2994554e-002,-3.0416574e-002,4.5220093e-002,-7.8698326e-003,8.6362132e-003,-2.8513803e-002,5.6641286e-003,-6.1065915e-002,4.0333509e-002,0.0000000e+000,0.0000000e+000,-2.3527821e-002,1.1021843e-001,4.4004972e-002,-2.7812036e-002,1.0938688e-002,-5.9565550e-002,-5.4806674e-002,2.4250415e-002,4.0186526e-002,2.2887837e-002,-3.6631432e-002,2.1614327e-003,-7.7552204e-002,5.4555349e-002,0.0000000e+000,0.0000000e+000,5.6434324e-002,-1.8585748e-002,-4.0219804e-002,-1.0950481e-001,1.1648087e-001,9.7072446e-002,3.4050788e-002,6.6649562e-003,-2.0357179e-002,6.5735871e-003,5.0544741e-002,1.8040726e-002,-2.8453861e-002,-3.0766510e-002,0.0000000e+000,0.0000000e+000,7.5146492e-002,-5.4847368e-002,-7.7860357e-002,-2.3615469e-001,-3.7363937e-002,8.1089300e-002,-5.4343146e-002,8.1262593e-002,2.7461378e-002,-7.1060300e-003,-1.1839920e-001,-3.9305564e-002,-1.6153334e-002,-2.6863523e-002,0.0000000e+000,0.0000000e+000,-2.4915140e-003,9.6010894e-002,1.4924931e-002,4.0001953e-002,-1.2279043e-001,3.5873268e-002,8.0448862e-004,5.3228697e-002,1.4223425e-001,8.6980845e-002,-5.1159202e-002,-6.1431394e-003,-9.4001284e-002,1.4265210e-001,0.0000000e+000,0.0000000e+000,1.4041592e-001,-9.6327810e-003,5.6189282e-002,-2.9890140e-002,-1.0467110e-001,3.3439070e-002,5.7826579e-002,1.6998549e-001,-1.2442412e-002,-9.2084669e-002,7.0248343e-002,4.4383090e-002,-3.4854609e-003,-7.2731622e-002,0.0000000e+000,0.0000000e+000,-1.5719154e-001,-1.7618007e-001,6.8582590e-002,-9.8192151e-003,8.3419298e-002,-4.4736582e-002,-1.6096015e-002,-1.3522738e-001,3.1778754e-002,-4.7460636e-003,3.9613330e-004,5.6878786e-002,-3.6164037e-002,-7.6172236e-002,0.0000000e+000,0.0000000e+000,-2.8449740e-002,-4.5427650e-002,
,127,1.1217574e-002,-1.3232692e-001,3.3163572e-002,-5.0451667e-002,-2.1734337e-001,1.9035271e-001,-2.1706200e-002,1.3088653e-001,2.1449323e-001,1.3775788e-002,1.2137842e-001,-1.6505117e-001,0.0000000e+000,0.0000000e+000,-1.3597680e-001,-1.1019886e-002,2.3597114e-001,-1.7331992e-001,2.1767510e-001,-3.8820544e-002,-2.1306389e-001,2.0835899e-001,-2.3813957e-001,3.4260046e-002,2.0114869e-001,-2.5315094e-001,1.9674257e-001,-8.7310786e-002,0.0000000e+000,0.0000000e+000,3.1520952e-002,-5.7396069e-002,-1.7261284e-002,-9.3174190e-002,2.0413424e-003,-2.5246582e-002,9.1511640e-002,1.1319695e-001,-1.1951770e-002,-3.2116956e-002,-1.5227676e-001,1.1775097e-001,-6.9860906e-002,9.9065413e-002,0.0000000e+000,0.0000000e+000,-4.7823636e-002,3.6814632e-002,-3.6751889e-002,3.2627098e-002,1.1867347e-002,2.0274187e-002,-4.6548484e-002,2.7930701e-002,-6.1329259e-003,1.0107494e-001,-3.2711631e-002,3.2963784e-002,-5.3811612e-002,9.7556418e-002,0.0000000e+000,0.0000000e+000,1.0025542e-002,6.7337914e-002,-3.4005072e-002,-1.2316310e-001,6.5795875e-002,9.4952624e-002,-1.5205039e-001,1.1765116e-001,3.6212000e-004,-1.3657967e-001,2.0594906e-002,-6.7227127e-004,-2.2748610e-002,-6.7003407e-002,0.0000000e+000,0.0000000e+000,-9.9292618e-002,4.6152360e-002,8.7817097e-002,-2.7544413e-002,4.5312309e-002,-1.4747534e-002,-8.2912901e-002,-5.7793999e-002,3.6972782e-002,7.1598324e-002,1.2936148e-001,-3.0892864e-002,-5.1993977e-002,-7.7019351e-002,0.0000000e+000,0.0000000e+000,7.3676801e-002,5.6613793e-002,1.7703082e-001,-4.3990476e-002,-1.2365448e-001,3.2539416e-002,-6.7899763e-003,2.8903914e-002,3.3953097e-003,1.3422709e-002,1.3688775e-001,-2.0173188e-001,-9.4013833e-002,1.0321510e-001,0.0000000e+000,0.0000000e+000,8.7383601e-002,-3.0138240e-002,8.6196220e-002,-1.2961546e-001,1.8726280e-001,1.8815739e-002,-2.3315398e-002,-4.8975970e-002,9.9546711e-002,-7.4322797e-003,-2.1223399e-001,9.5494633e-002,-1.4737874e-001,-3.1354460e-002,0.0000000e+000,0.0000000e+000,-2.2135887e-002,1.2648795e-001,5.4148847e-002,-1.5315902e-001,1.2273813e-001,-8.6523472e-002,-3.4187115e-002,3.8026681e-002,4.1080571e-002,8.4981486e-003,1.8529597e-002,8.5680041e-003,-2.5488258e-002,4.6914391e-002,0.0000000e+000,0.0000000e+000,-6.7754383e-002,-4.4294415e-002,-5.6627472e-002,9.6921328e-002,-7.5576447e-002,-1.7431819e-002,1.9374038e-002,5.5373035e-003,-5.4047582e-002,2.0822401e-001,4.1678672e-002,-8.7290629e-003,4.5566883e-002,2.2921932e-002,0.0000000e+000,0.0000000e+000,1.2143043e-001,-1.5978271e-001,
,139,8.3726964e-002,-1.7342220e-001,9.4312106e-002,-2.0870804e-001,1.2405033e-001,1.4615332e-001,3.8741022e-003,2.0699778e-001,-2.5350938e-001,-1.2831625e-002,5.3871099e-002,-1.2280404e-001,0.0000000e+000,0.0000000e+000,-1.1882988e-002,1.2859821e-001,1.2582001e-001,-1.0893000e-001,-4.1078349e-002,6.0999735e-002,-9.9476719e-002,-2.7307283e-002,1.1980026e-001,-1.6563859e-001,-3.5192870e-002,1.8137044e-001,-1.9408357e-001,9.2255168e-002,0.0000000e+000,0.0000000e+000,-1.1273658e-002,3.8894160e-002,-5.1350832e-002,-3.0868918e-002,-3.7751668e-002,8.5715746e-003,-8.4469455e-002,2.9414674e-002,4.1493425e-002,2.7967152e-002,-2.4307450e-002,1.2410216e-001,-5.8338057e-002,3.2425263e-002,0.0000000e+000,0.0000000e+000,-1.8494386e-001,2.0713435e-002,-3.3510346e-002,2.0671653e-001,6.7650422e-002,1.2779150e-002,1.6593699e-002,-1.1875420e-001,-1.0990210e-001,1.0251453e-001,-9.8402293e-002,1.6637448e-001,-3.6276902e-003,5.2333503e-002,0.0000000e+000,0.0000000e+000,-2.8569795e-002,-1.1251664e-001,-7.1885166e-002,-8.8260060e-002,-3.2404638e-002,-1.1307977e-001,-7.8795464e-002,-1.1959632e-003,1.8200373e-001,-7.8652635e-004,1.4834213e-002,7.7483933e-002,-2.0038123e-001,2.8138434e-002,0.0000000e+000,0.0000000e+000,1.8056679e-002,-2.5275988e-002,-2.4503778e-002,7.8276053e-002,-1.6792141e-002,5.6845320e-002,2.3578413e-001,-1.4794146e-001,1.0120854e-001,-1.0667064e-001,-4.2587717e-002,1.6720093e-002,4.0387213e-002,-1.9685504e-002,0.0000000e+000,0.0000000e+000,2.1609807e-002,-3.3816310e-002,-5.4835392e-002,-1.5792277e-001,1.1060079e-001,-6.0196737e-002,3.1352361e-002,8.7077147e-002,-1.0958513e-001,5.4377618e-002,-1.2912693e-001,-4.0830111e-002,1.3875054e-001,-1.3262960e-001,0.0000000e+000,0.0000000e+000,-6.8529436e-002,7.7195615e-002,-1.8169106e-001,-8.0656107e-002,1.8923290e-002,3.0848566e-003,-9.8481270e-002,2.0823982e-001,7.1320729e-002,-4.9791855e-002,-2.2103521e-002,-4.4486766e-002,8.7246022e-002,-2.1465024e-002,0.0000000e+000,0.0000000e+000,8.8927499e-002,8.8319734e-002,5.1707317e-002,1.8931723e-001,-1.5039882e-001,2.9119978e-002,-7.1582095e-002,-3.1162192e-002,1.9592926e-001,5.1129810e-002,1.8647871e-001,-9.6533400e-002,-1.5318635e-001,7.2660735e-002,0.0000000e+000,0.0000000e+000,-1.7001769e-002,-9.6216839e-002,1.7758624e-001,2.4440803e-002,7.5652558e-003,-5.9419160e-002,-6.6110182e-002,-2.7834760e-001,3.0243570e-002,1.0497956e-001,1.2135651e-001,7.1585467e-002,-6.1803661e-002,6.5383876e-003,0.0000000e+000,0.0000000e+000,1.1504018e-002,-7.4669407e-002,
,151,5.6784537e-002,-1.3721542e-001,6.2863767e-002,1.0422196e-001,-4.3427391e-001,5.7995001e-001,-3.2661669e-001,6.4023724e-002,2.6556313e-001,-1.7562896e-001,2.3265771e-001,-9.4386262e-002,0.0000000e+000,0.0000000e+000,-1.8732097e-001,-5.3068537e-002,2.9989345e-002,-1.6123048e-001,8.0709765e-002,-1.5485602e-001,9.1274538e-002,-5.6663778e-003,6.4500702e-002,3.5099088e-002,7.8960807e-003,-4.3476591e-002,-1.5665234e-002,4.9926545e-002,0.0000000e+000,0.0000000e+000,1.4554218e-002,5.3130387e-002,-4.7966427e-003,-6.8591135e-002,7.5169099e-002,3.2994736e-002,4.9642268e-002,-6.9409607e-003,-2.8151618e-002,-4.3911734e-002,3.1338363e-003,6.9801405e-003,7.6712561e-002,1.5205959e-002,0.0000000e+000,0.0000000e+000,-9.7860162e-002,-6.4355918e-002,-2.1930356e-002,4.2408038e-002,-1.1650300e-001,1.3136769e-001,4.2895077e-002,-1.6212099e-001,8.0679292e-002,-1.9640300e-001,-8.8938544e-003,6.0352377e-002,-3.3451080e-002,3.1637170e-002,0.0000000e+000,0.0000000e+000,4.5703126e-002,3.4160810e-004,-6.8130228e-004,-1.3821999e-001,2.1305053e-002,-9.6866724e-002,-7.4325189e-002,1.1313457e-001,7.1345517e-002,1.3645562e-001,-4.0267594e-002,-3.8194444e-002,-5.8229242e-002,-1.3259993e-001,0.0000000e+000,0.0000000e+000,7.1550931e-002,2.2547885e-002,1.1081127e-002,-1.1027523e-001,1.0202210e-001,-8.9023397e-002,-1.8970247e-002,5.5399165e-002,2.0501891e-002,1.4590917e-001,8.8478423e-003,1.1221803e-001,-1.6310825e-001,1.1875443e-001,0.0000000e+000,0.0000000e+000,-9.0567104e-002,-4.3865576e-002,7.4532515e-002,-9.4736697e-002,-4.2559664e-002,2.1014856e-002,-1.0362221e-002,1.0096032e-001,-6.2121903e-002,-4.4184707e-002,-1.8168312e-002,1.4068782e-001,2.9613901e-002,2.2874186e-002,0.0000000e+000,0.0000000e+000,-1.5431896e-001,3.3617246e-002,-1.4476124e-001,1.0172500e-001,2.6617638e-002,1.8985858e-002,5.7082428e-002,-5.9049710e-002,-7.8238593e-002,-2.2486478e-002,-6.2388123e-002,-9.1699558e-002,1.2995649e-001,-2.4988258e-003,0.0000000e+000,0.0000000e+000,4.5785081e-002,1.0294987e-001,-3.3494254e-002,-1.0381710e-001,-3.6900134e-002,-4.3847884e-002,-3.3672269e-002,-1.5039982e-001,7.7770764e-002,-5.6663191e-002,5.6860316e-004,3.7660362e-002,1.4140679e-003,2.2311601e-002,0.0000000e+000,0.0000000e+000,5.3065732e-002,-5.6290502e-002,9.9911730e-002,2.0072084e-002,8.0786559e-002,3.2382328e-002,-8.5254513e-002,6.8731366e-002,-1.0499652e-001,5.7387158e-002,2.6226730e-002,-1.0774354e-001,1.1489937e-001,-9.8231660e-002,0.0000000e+000,0.0000000e+000,-9.6349560e-002,-5.3049388e-002,
,163,5.4575968e-002,-1.9983884e-001,-8.0867390e-002,3.1172116e-002,-1.3867512e-001,4.3472147e-001,1.1647168e-001,-1.0463223e-001,3.9696888e-002,-1.3028048e-001,-2.0413005e-001,1.9793198e-001,0.0000000e+000,0.0000000e+000,4.3064049e-002,-3.6015525e-002,-6.4359376e-002,-1.6992576e-002,-1.2429127e-002,2.2432751e-002,-9.3778099e-003,1.3976905e-001,1.3778075e-002,-1.1398431e-003,6.2796471e-002,-1.2508967e-001,4.0696234e-002,-5.5535253e-002,0.0000000e+000,0.0000000e+000,-1.4518605e-002,7.8210383e-002,4.9594164e-002,-1.1666856e-001,-9.8997609e-003,4.5127246e-002,-1.1547341e-001,1.3664428e-001,-9.0477875e-002,1.6754158e-002,4.5394578e-002,-1.8584936e-002,-8.8799527e-002,-5.5806276e-004,0.0000000e+000,0.0000000e+000,-4.1454542e-002,5.2787628e-003,-1.4860858e-003,-8.0606014e-003,-9.3537236e-003,-5.0294155e-002,-1.1296005e-001,1.0140641e-001,-5.2956470e-003,-3.7041124e-004,-1.8255990e-003,4.4209635e-003,-1.2303167e-002,3.7754296e-002,0.0000000e+000,0.0000000e+000,2.6709106e-002,1.4141181e-001,3.5129212e-002,-1.0089477e-001,-2.6341599e-002,-7.0832613e-002,-1.5831466e-001,1.4864257e-001,6.2838318e-003,-4.1976826e-002,-4.1057519e-002,-2.0960894e-003,3.5471559e-002,7.8906138e-002,0.0000000e+000,0.0000000e+000,7.4912924e-002,-3.3150483e-003,-2.3125805e-001,1.0338394e-001,-3.5739279e-002,1.8985064e-001,2.0985507e-001,-1.8687890e-002,-1.6855693e-001,5.0029571e-002,-1.2654515e-001,3.1305489e-002,9.5314483e-002,-4.9493156e-002,0.0000000e+000,0.0000000e+000,-2.3690189e-002,9.0758601e-002,6.4663314e-002,-7.9402856e-002,-5.8179009e-002,-1.4647186e-001,3.6913960e-002,-8.4808871e-002,1.2326591e-001,1.8718302e-002,-3.4566627e-002,5.7518071e-002,-3.5407736e-002,-4.0158404e-002,0.0000000e+000,0.0000000e+000,-8.0156624e-002,-6.0053905e-002,1.2522494e-001,-5.6359659e-002,8.0766562e-002,-6.8621719e-002,2.7564521e-002,-2.7656614e-002,1.2078510e-001,3.7884528e-002,-4.0055797e-002,-4.1470475e-002,4.0615629e-002,-1.0166474e-001,0.0000000e+000,0.0000000e+000,8.3978676e-003,1.6037448e-003,2.3901963e-002,-3.6300006e-002,-9.7937414e-002,-4.5472271e-002,-2.9208928e-003,7.4994262e-003,4.5204973e-002,1.8262580e-002,-5.4797741e-002,7.6118294e-003,4.1522704e-003,-1.0128818e-002,0.0000000e+000,0.0000000e+000,6.6284184e-002,1.2194431e-001,3.9091221e-003,1.1105759e-001,-5.3322168e-002,1.6644761e-002,9.0155564e-003,-1.1472911e-001,1.7270382e-002,1.0614624e-001,4.7808041e-002,5.2193584e-003,-4.4385817e-002,-4.8972298e-002,0.0000000e+000,0.0000000e+000,-8.6193965e-003,-1.9241130e-002,
,175,-1.5269146e-001,-1.7284814e-001,-2.6865681e-002,-3.7414407e-002,6.0099456e-002,3.5115020e-001,8.8983485e-002,8.9819754e-002,-1.9012932e-001,-1.5981988e-001,-1.6157140e-001,7.0345434e-003,0.0000000e+000,0.0000000e+000,1.6464331e-001,2.2307558e-002,1.6969038e-001,-4.4940874e-002,-4.3022162e-002,-6.1751488e-002,-5.9017267e-002,-6.2769130e-002,1.6528084e-002,3.6913230e-002,-9.1851416e-002,9.7187928e-002,-6.0815272e-002,-6.1160010e-003,0.0000000e+000,0.0000000e+000,8.5157088e-002,1.3650925e-002,1.3553117e-002,-3.6714044e-002,-4.8894727e-002,1.6566276e-001,-4.2470080e-002,8.3005760e-002,1.2072615e-002,-9.2186554e-002,-3.7420815e-002,-6.3896144e-002,-3.8300216e-002,1.6618959e-003,0.0000000e+000,0.0000000e+000,-1.3917875e-002,-3.9166548e-002,6.8490140e-002,3.9898546e-002,-8.7304737e-003,-5.5944191e-002,3.7541826e-002,-1.4006587e-001,2.9127803e-002,4.6608638e-002,-2.7332851e-003,6.5535444e-002,-7.8332303e-002,1.9453914e-002,0.0000000e+000,0.0000000e+000,9.9993905e-003,-6.8105250e-002,3.8332746e-002,-1.1338675e-001,-7.8310794e-002,9.3991907e-002,6.8299109e-002,5.9898088e-002,4.1986137e-002,-7.9707474e-003,-1.7323574e-001,1.2762973e-001,1.9447352e-002,-8.5003402e-002,0.0000000e+000,0.0000000e+000,-1.6490503e-001,1.1138615e-001,-2.9097773e-001,5.2910987e-002,1.6877431e-001,-2.2637703e-002,7.3053506e-002,-5.8647760e-002,-8.9568339e-002,1.2241941e-001,-7.9024481e-003,5.5725737e-002,6.6485355e-002,8.1577143e-002,0.0000000e+000,0.0000000e+000,1.5491956e-002,-9.0022664e-002,-1.1391193e-001,-5.6765080e-002,-4.1630653e-002,-9.2678565e-002,-9.6414931e-003,-7.8770921e-002,-1.4333944e-002,7.5096222e-002,2.7710070e-002,-9.5870525e-002,-2.5831227e-002,7.6172008e-002,0.0000000e+000,0.0000000e+000,-9.1342084e-002,5.8548631e-002,1.6283299e-001,-3.5850625e-002,6.4460898e-002,-3.7679053e-002,-1.2135991e-001,2.1259022e-002,2.1050524e-001,7.2615763e-002,8.5672996e-002,-2.8561569e-002,-2.0134480e-001,-1.7877011e-002,0.0000000e+000,0.0000000e+000,-8.0530973e-002,-4.5763665e-002,7.8110407e-002,-1.4272495e-001,-7.5589208e-002,1.1800670e-001,-1.3478992e-002,2.2722703e-001,1.4787941e-001,-2.6065966e-001,-3.7540195e-002,-3.9828975e-002,-5.5889266e-002,-6.1808569e-003,0.0000000e+000,0.0000000e+000,9.6966873e-002,-4.6739104e-002,-9.3611562e-002,-1.0577599e-002,-1.3566782e-001,5.3927714e-002,7.9972562e-002,5.8442697e-002,-4.2060342e-002,-6.4003339e-002,-7.2394479e-002,-4.6786531e-002,1.1795640e-001,5.2952593e-002,0.0000000e+000,0.0000000e+000,-3.3050772e-003,1.9129788e-002,
,187,-3.0510681e-002,-1.0084626e-001,-3.4735290e-003,-2.1308917e-002,2.7922896e-002,9.4840209e-002,8.5402907e-002,1.0958954e-001,-1.0928280e-001,4.5961190e-003,-1.5490824e-001,3.3124980e-002,0.0000000e+000,0.0000000e+000,5.2151534e-002,1.2448981e-002,5.3275071e-002,-2.5919714e-001,1.7210106e-001,-1.3393963e-001,1.7572444e-001,1.4549284e-001,-1.4905382e-001,1.8671753e-001,-2.1380857e-001,1.3617522e-001,-9.0381194e-002,-1.0829991e-001,0.0000000e+000,0.0000000e+000,9.0958441e-003,-4.4846852e-003,6.8238710e-002,-1.9538965e-001,7.8005126e-002,-1.8448862e-002,-1.1488710e-001,1.7068596e-001,-5.7863229e-002,-3.8864655e-002,-5.4356229e-002,6.8408436e-002,3.4466257e-002,-2.3193160e-002,0.0000000e+000,0.0000000e+000,-9.7089840e-002,4.5128336e-002,-1.0889329e-001,1.2421900e-001,4.1259503e-002,-3.1186462e-002,-1.5455738e-001,-1.6644938e-002,-2.3800824e-002,-5.7072928e-003,2.5193492e-001,-4.7364219e-002,-3.8100279e-002,1.3982607e-001,0.0000000e+000,0.0000000e+000,1.0316474e-002,-1.1490630e-001,-8.3471308e-002,1.1077462e-002,1.6320748e-002,-5.3856842e-002,-2.9038338e-003,-5.2354592e-002,8.2499705e-002,-2.3394816e-002,-7.6762562e-002,4.3599085e-002,-4.9714642e-002,8.4243770e-002,0.0000000e+000,0.0000000e+000,2.6560081e-002,2.7106886e-003,-1.5858258e-001,-9.5124775e-002,6.8031084e-002,1.3902918e-002,1.3314934e-001,1.5301792e-002,-5.2361140e-002,1.4586944e-001,2.9054732e-001,-8.0984879e-002,-4.7114157e-002,-1.9212242e-002,0.0000000e+000,0.0000000e+000,6.6981819e-002,1.4143848e-001,-7.6204952e-002,-7.6563820e-002,-7.7779305e-002,1.1907500e-001,-2.3039812e-001,2.2937138e-001,-9.4468908e-002,1.2017792e-001,1.2484473e-001,-6.9290592e-002,6.5421218e-002,2.7240768e-002,0.0000000e+000,0.0000000e+000,-4.6136647e-002,8.1319165e-003,2.0322531e-001,3.5092543e-002,-6.7217718e-002,9.7904353e-002,8.7370157e-002,-1.0592515e-001,2.9526417e-002,-1.6154675e-001,-9.9970629e-002,9.3680453e-002,7.1762569e-002,1.7090885e-003,0.0000000e+000,0.0000000e+000,-1.7356081e-002,-1.6958720e-001,-4.0682231e-002,-8.6667181e-002,2.1049191e-002,1.3259245e-001,2.0622802e-001,-4.5093818e-002,5.7854118e-002,-1.7642520e-001,-8.6187517e-002,4.7737271e-002,1.2149778e-002,-1.2161677e-001,0.0000000e+000,0.0000000e+000,-6.0259739e-002,-9.2694100e-002,-2.1809719e-002,1.5782480e-001,-8.5458087e-002,7.8330901e-002,-1.8633516e-001,-2.0789425e-003,8.8243075e-002,1.1099093e-001,-8.9205992e-002,-9.4351953e-002,-1.0976946e-001,-7.6315780e-002,0.0000000e+000,0.0000000e+000,3.7075034e-002,1.6452569e-001,
,199,-5.4271598e-002,-1.6607307e-002,9.1685105e-002,6.6528386e-004,2.6799407e-001,-1.1085640e-001,8.0023370e-002,-2.5235059e-002,-3.8105756e-002,-7.3841764e-002,-5.8972728e-002,-1.2083603e-003,0.0000000e+000,0.0000000e+000,-1.4294917e-002,7.4110670e-003,4.8521252e-002,-2.0669118e-001,7.8095388e-002,-7.2180818e-002,2.9338900e-001,1.5742837e-002,1.2270879e-001,-1.5675867e-002,-3.0490849e-001,9.6365291e-002,-1.3125809e-001,3.6659060e-002,0.0000000e+000,0.0000000e+000,-1.9525424e-002,5.8028840e-002,1.2377212e-001,1.3072977e-003,8.4085799e-003,-4.3966939e-002,-4.1472926e-002,2.3206863e-002,3.9996494e-002,6.2380401e-002,-2.7364487e-002,1.2155734e-002,-6.3901369e-002,-1.5883303e-002,0.0000000e+000,0.0000000e+000,4.5037377e-002,-4.4643196e-002,3.9651999e-002,9.7758256e-003,-5.1265220e-002,3.3556358e-003,-7.8250430e-002,1.6591258e-002,5.1570008e-002,1.1731709e-001,8.5979393e-002,-4.4710100e-002,-5.5021179e-002,2.1704551e-002,0.0000000e+000,0.0000000e+000,1.7603069e-001,-1.5262323e-002,-8.0625822e-002,1.8229482e-002,-1.0007786e-001,2.4040235e-002,2.8957506e-002,-1.0337051e-001,3.0792972e-002,-1.1377710e-001,-1.0995045e-001,1.3684076e-001,2.4516068e-002,2.3766570e-002,0.0000000e+000,0.0000000e+000,-1.1072716e-001,1.2108677e-002,1.3744090e-002,-3.8171158e-003,4.6740388e-002,-7.5901679e-002,-1.9729652e-001,8.3761690e-002,-3.7490733e-002,2.7082834e-001,7.2915281e-002,-3.3370781e-002,-1.4665796e-001,-2.3081765e-002,0.0000000e+000,0.0000000e+000,-3.6898539e-002,3.2271687e-002,2.7379391e-001,-2.4156898e-001,1.1221607e-001,-1.5119034e-001,1.4188814e-001,-9.2239936e-002,6.0384418e-002,2.3528643e-001,1.5042234e-002,-5.7781372e-002,-4.5708411e-002,1.0626734e-002,0.0000000e+000,0.0000000e+000,-1.1012050e-001,4.1994319e-002,1.2321367e-001,-6.5588415e-002,1.1653671e-001,1.3056342e-001,1.7532490e-002,-2.1836490e-002,-9.3357547e-002,-2.2623241e-002,-6.1492396e-002,1.2817660e-001,7.1396921e-002,8.4170100e-003,0.0000000e+000,0.0000000e+000,5.0620877e-002,-9.7292975e-002,-5.6995552e-002,5.0439681e-002,-1.6514071e-001,2.3412160e-001,-1.3077991e-001,1.5175184e-001,9.0525846e-002,-2.3402258e-001,-1.2697975e-001,-1.2121496e-002,2.0764719e-002,7.3437550e-002,0.0000000e+000,0.0000000e+000,4.0148086e-002,-7.5522414e-002,-1.7947292e-001,4.2915557e-002,-2.5107882e-002,-2.0631238e-002,1.0370314e-001,-1.0914972e-001,9.5733463e-002,-1.9388821e-003,-7.4977196e-002,-5.4896703e-002,-1.1756739e-002,-2.6954032e-002,0.0000000e+000,0.0000000e+000,8.1034462e-003,-1.0083796e-001,
,211,4.2699339e-002,-6.2928776e-002,-2.6509158e-002,1.0085145e-001,8.7216116e-002,5.7706954e-002,-4.5508560e-002,-2.8119237e-001,-1.5248172e-001,-6.4906926e-002,9.2756066e-003,1.5068753e-001,0.0000000e+000,0.0000000e+000,1.2083867e-001,-1.6282877e-002,3.6896912e-001,-3.5241826e-001,9.9246709e-002,-4.5791478e-002,-2.8263269e-001,3.7282525e-001,5.6056858e-003,-7.9511563e-003,1.8875482e-001,-2.0206259e-001,-2.1688189e-001,1.2082765e-001,0.0000000e+000,0.0000000e+000,7.5018355e-002,-4.8219779e-002,6.1942560e-002,-1.3621685e-001,6.9417541e-003,-6.3486367e-003,2.2214818e-002,3.1228064e-002,-1.4913888e-002,1.2548779e-001,-8.4787200e-002,5.1867463e-002,1.3374847e-001,-1.3340168e-001,0.0000000e+000,0.0000000e+000,-1.3973048e-001,1.2367549e-001,1.0777524e-002,-4.2060735e-002,1.3160851e-001,-1.2380494e-001,2.7276250e-002,4.4849455e-003,-2.4041858e-002,3.8718392e-002,-1.5549068e-001,-3.3226361e-002,-5.1422690e-002,1.2898073e-001,0.0000000e+000,0.0000000e+000,2.6502899e-002,1.3861872e-001,4.4059695e-002,1.2031928e-002,-4.7460179e-002,8.5702248e-002,-1.5215878e-001,1.0582822e-001,2.8557026e-002,-8.4875784e-002,-7.8522080e-002,-1.9509499e-002,-2.7822330e-002,5.5603607e-002,0.0000000e+000,0.0000000e+000,5.9310045e-003,9.2397416e-003,2.6861683e-001,-1.1768917e-001,8.7307227e-002,8.1589939e-002,-8.3312207e-002,1.3751930e-002,-1.6313848e-001,-9.9580179e-003,-2.7785624e-002,1.2833512e-001,-8.0821162e-003,-1.5526248e-002,0.0000000e+000,0.0000000e+000,1.0182330e-002,5.6060689e-002,-1.5902583e-001,2.4540353e-002,-1.8354642e-001,2.8945518e-002,2.7977300e-001,3.2133886e-003,9.6827204e-003,-5.4209680e-002,-4.2894373e-002,5.7632690e-003,-9.9935860e-002,3.8346633e-002,0.0000000e+000,0.0000000e+000,1.7685639e-001,-5.2073858e-002,-2.5913075e-001,3.9297598e-001,-1.4840750e-001,-9.4223365e-002,6.4682943e-002,-7.3522258e-002,3.0243986e-002,1.4210714e-001,-3.2692314e-002,-1.3421080e-001,1.1162498e-001,8.4846242e-002,0.0000000e+000,0.0000000e+000,2.5175660e-002,1.2018616e-001,1.0123679e-001,-1.2604817e-001,1.0592738e-001,-1.1062494e-001,-1.6039922e-001,-2.7755707e-002,1.1644299e-001,2.6171598e-002,7.4300510e-002,3.6050053e-003,7.9919617e-002,-9.4258903e-002,0.0000000e+000,0.0000000e+000,-1.7739016e-001,-1.6678540e-002,1.4289393e-001,-1.1293148e-001,-3.8978051e-002,1.1194039e-001,-9.9931347e-002,-1.3931578e-001,-3.6399693e-003,8.0642064e-002,-5.8552990e-002,1.5380675e-001,-9.6941960e-002,-1.2473912e-002,0.0000000e+000,0.0000000e+000,-4.0527469e-002,-9.4007525e-002,
,223,-1.4316495e-001,1.9816649e-001,-1.0244842e-001,3.0984783e-001,6.6275269e-002,2.5170657e-002,1.0273252e-002,-4.2885080e-001,9.3545356e-002,-7.8012790e-002,8.3782559e-002,3.1167781e-001,0.0000000e+000,0.0000000e+000,-1.7147111e-001,-5.4252575e-002,1.0542545e-001,-4.2896915e-001,3.0864759e-001,-1.5624773e-001,1.7525715e-003,2.3971294e-001,3.9601341e-003,-6.6723234e-002,-3.1761353e-002,-1.1900603e-001,-1.0145350e-001,3.4793156e-002,0.0000000e+000,0.0000000e+000,9.3236034e-002,-3.3830064e-003,2.2632273e-002,3.2318850e-002,-8.2384861e-002,-5.1298417e-002,7.7295124e-002,-1.9354525e-001,7.5997008e-002,-4.9353203e-002,-1.1292043e-001,2.1578345e-001,-1.2059185e-001,5.2740913e-002,0.0000000e+000,0.0000000e+000,1.2966131e-002,4.5733934e-002,-3.3566868e-002,5.7820092e-002,-1.1601112e-001,-1.7095947e-002,2.7664360e-002,-1.9613154e-002,1.0074353e-001,-1.6176641e-001,5.9389864e-002,-8.1479526e-002,3.0282909e-002,6.8268308e-002,0.0000000e+000,0.0000000e+000,-1.5623840e-003,2.5457467e-003,-7.5489921e-002,-5.2422712e-002,-8.1358588e-002,2.3958777e-002,-7.2858327e-002,1.8462051e-001,-1.8488948e-001,-7.6888761e-002,1.3053279e-001,-5.8107539e-002,2.3758963e-002,-3.3414171e-002,0.0000000e+000,0.0000000e+000,-1.7150206e-001,-1.2037210e-002,-3.0948618e-002,-1.1320672e-001,1.2559980e-001,-2.0925276e-002,-1.1086319e-001,1.0602608e-001,2.0993287e-002,3.4519897e-002,6.3326171e-002,2.2528072e-001,-2.4904433e-001,1.4074902e-001,0.0000000e+000,0.0000000e+000,7.5482941e-003,-2.3052761e-002,4.3140574e-002,-7.4540749e-002,-7.4948200e-002,-5.4976202e-002,-1.9432727e-001,1.8510661e-001,1.2205787e-001,-5.7719538e-002,-9.9076876e-002,3.5386897e-002,-2.0251313e-001,1.5369316e-001,0.0000000e+000,0.0000000e+000,6.3671984e-002,2.1775130e-002,1.4528581e-002,1.1506357e-001,1.5072892e-003,7.2345829e-002,1.1991235e-001,-8.5386339e-002,2.0030262e-002,1.9153520e-002,-5.4867738e-002,-1.1007565e-002,-2.1018642e-002,-5.4329536e-003,0.0000000e+000,0.0000000e+000,1.0680081e-001,-2.6536635e-001,3.7131129e-002,1.0435602e-002,-6.0927771e-002,-1.8198577e-002,-2.8964191e-002,-5.1465883e-002,1.0767572e-001,1.5758552e-002,-7.1268524e-002,-1.5991331e-002,2.1935215e-001,-1.5065438e-001,0.0000000e+000,0.0000000e+000,-1.0064380e-001,-1.2482117e-002,1.2636532e-002,-1.3381116e-002,1.6901786e-001,-1.7817108e-002,2.0015280e-002,-1.4687134e-001,-2.3765390e-001,1.6859192e-001,2.1996994e-001,-2.2504308e-003,1.3874885e-001,-1.5419203e-001,0.0000000e+000,0.0000000e+000,-8.6453646e-002,1.9188775e-002,
,235,-1.0356971e-001,-4.9775157e-002,7.8601291e-002,4.0772686e-002,1.2743758e-001,1.2355535e-001,-1.2889224e-001,7.5190192e-002,-2.5979487e-001,2.0414714e-001,3.5860632e-002,-8.9955500e-003,0.0000000e+000,0.0000000e+000,-9.5757776e-002,-2.7313643e-002,1.4019402e-001,-6.4807512e-002,-7.9378936e-002,-7.4094006e-002,6.9137745e-004,-2.6910012e-002,3.0737532e-001,-9.8787600e-002,-1.3012480e-001,1.6220816e-001,-2.3023507e-001,8.6071725e-002,0.0000000e+000,0.0000000e+000,6.0405116e-002,-6.3414426e-002,-4.9776006e-002,5.9640325e-002,-2.3399221e-001,1.7171438e-001,-1.4116605e-002,-1.1161837e-001,2.3659492e-001,-2.4014410e-001,-3.0982939e-002,-4.8246285e-002,-1.4698570e-001,1.1490250e-001,0.0000000e+000,0.0000000e+000,9.7177592e-003,1.2617017e-002,-2.7057605e-002,4.8787062e-002,-9.3140122e-002,3.4676084e-002,2.6405916e-001,-3.8474753e-002,1.0107724e-001,-7.0663815e-002,-1.6067258e-001,6.7289640e-002,-1.3771581e-001,5.0174078e-002,0.0000000e+000,0.0000000e+000,4.2268740e-002,-8.7701286e-002,5.0969836e-002,-7.2644823e-002,6.3958951e-002,-7.2577043e-002,8.0000441e-003,3.5683809e-002,4.8002825e-002,-6.4298728e-002,-8.8215707e-002,7.3922845e-002,-3.0783884e-002,5.3876243e-003,0.0000000e+000,0.0000000e+000,-2.4090879e-001,7.1967409e-002,1.7884591e-001,-8.0124976e-003,-7.2664838e-003,6.1129913e-002,-5.1226496e-002,-1.1484476e-001,2.0206365e-001,-4.4797500e-002,7.3157260e-002,-1.4821643e-003,-8.0011345e-002,1.5438856e-002,0.0000000e+000,0.0000000e+000,4.0897288e-002,1.2097160e-001,1.7739290e-002,-1.3627467e-001,2.5123498e-002,-1.2185534e-001,1.2481743e-001,7.3527940e-002,-3.7494520e-002,7.3443674e-002,-1.4264732e-003,-6.6693495e-004,1.6864815e-002,9.0089268e-002,0.0000000e+000,0.0000000e+000,-8.5551709e-002,5.2356467e-002,-7.8524054e-002,8.4168082e-002,-1.3621337e-001,1.4978503e-001,5.3861728e-002,1.3167747e-001,-2.0631464e-002,-3.7915219e-002,-1.4943707e-001,-1.1198786e-001,8.9664378e-002,-1.2549233e-001,0.0000000e+000,0.0000000e+000,5.8894637e-002,-6.9321309e-002,-8.1297312e-002,-1.4642307e-001,-9.2556180e-002,1.1449511e-001,-1.7822857e-001,2.1254828e-001,7.0160178e-002,-3.0811948e-001,-3.6980624e-002,-8.1411630e-002,-5.1877543e-002,1.3404205e-001,0.0000000e+000,0.0000000e+000,2.1254507e-002,9.6337504e-002,-4.9874078e-003,-2.3068469e-002,4.4303593e-002,3.8520648e-002,-5.5187858e-002,2.6961300e-002,2.6611199e-002,-6.8253220e-002,1.7777749e-001,-1.5094532e-002,3.7447610e-002,3.2472825e-002,0.0000000e+000,0.0000000e+000,-2.4978236e-002,7.0192472e-002,
,247,1.1045258e-001,-8.4015649e-002,1.7477645e-001,-1.2674047e-001,9.5029684e-002,-3.8112805e-001,1.7491440e-001,5.7043154e-002,-1.4518614e-002,2.2778523e-001,-1.2577223e-001,1.0567555e-001,0.0000000e+000,0.0000000e+000,-7.0847551e-002,-5.6465152e-002,-5.2172154e-002,-1.0409284e-001,9.6390316e-002,-1.0420236e-001,1.6830630e-001,1.8712093e-001,-2.7905012e-001,2.3777683e-001,-5.8255220e-002,-1.8336166e-001,1.2410112e-001,-1.8896408e-001,0.0000000e+000,0.0000000e+000,1.6479350e-001,1.0021959e-001,-1.1878523e-001,-3.4223898e-002,-4.9000403e-002,7.5746784e-002,-1.3091585e-001,1.4989480e-002,1.2572795e-001,-4.3232337e-002,-4.8343837e-002,5.5708494e-003,3.0246306e-002,2.7947436e-002,0.0000000e+000,0.0000000e+000,-1.1176216e-001,1.4645717e-002,-1.4832157e-001,1.4273905e-001,-1.6460185e-001,6.8628144e-002,1.2299183e-001,7.3934537e-002,-7.7786228e-002,-4.9162959e-002,2.7241842e-002,-1.1613069e-001,5.8192104e-002,-5.4269205e-002,0.0000000e+000,0.0000000e+000,-5.7590637e-002,5.2843826e-002,-2.1222277e-002,9.2518449e-002,2.7673191e-002,-1.7561602e-001,7.2900859e-002,4.1233275e-002,-1.6260074e-001,1.2947656e-001,-2.0228026e-002,5.0671986e-002,-4.6069798e-002,-6.2592627e-002,0.0000000e+000,0.0000000e+000,-5.8318189e-002,-4.2313160e-004,-7.1385361e-002,2.5732700e-003,-2.7636912e-002,1.5644717e-001,-3.4259878e-002,2.2803392e-002,7.3096432e-002,-9.9617140e-002,8.8009544e-002,1.4765504e-002,3.5052984e-003,1.7161986e-002,0.0000000e+000,0.0000000e+000,-6.8399405e-002,3.7126224e-002,-1.6242196e-002,-4.9128437e-002,-1.5495610e-001,8.1654296e-002,-8.7823918e-002,-3.3755247e-002,-2.2191603e-002,-1.2719484e-001,-1.9326594e-001,8.7346593e-002,-9.6608183e-002,8.7132116e-002,0.0000000e+000,0.0000000e+000,1.0828479e-003,1.1009965e-001,-8.0705938e-002,3.0249442e-002,4.3736015e-003,-2.2090013e-001,2.2364981e-001,4.1208470e-002,-4.3668329e-002,2.4758100e-001,-1.0020297e-001,-9.7310648e-002,1.1251272e-001,5.8854279e-002,0.0000000e+000,0.0000000e+000,-2.8801826e-003,1.5954874e-001,2.0385107e-002,-2.0329280e-001,1.7465491e-001,-1.4037743e-001,1.5618650e-001,6.2381889e-002,5.4737296e-002,3.8121012e-002,-5.4093695e-002,3.5828580e-002,7.7418629e-002,-2.9499450e-002,0.0000000e+000,0.0000000e+000,-9.7915387e-004,4.7178706e-002,4.8568339e-002,-6.4682589e-003,1.7948736e-002,1.7010499e-001,-7.6089448e-002,-5.7114278e-002,2.5153517e-002,-6.7724838e-002,9.5112529e-002,-9.3913861e-002,3.6270175e-002,1.2264496e-002,0.0000000e+000,0.0000000e+000,-7.5803470e-002,-1.3033155e-001,
,260,1.4121953e-001,1.1020675e-002,-1.1594710e-001,-6.4357971e-002,-4.6651251e-002,-1.4662170e-001,2.3060235e-001,-4.8381517e-002,-9.6978761e-003,-8.9225152e-002,1.4680774e-002,1.2657858e-001,0.0000000e+000,0.0000000e+000,9.7789124e-004,1.6353199e-002,1.3975846e-001,7.3132090e-002,4.0233198e-002,3.0978327e-002,-1.8091921e-001,1.5013688e-002,2.0564959e-002,-2.8106465e-002,-7.8072211e-003,-7.6303299e-002,-4.6591759e-003,7.9944570e-003,0.0000000e+000,0.0000000e+000,7.3842676e-002,2.3367621e-002,-1.5463505e-003,3.9208920e-002,3.8878493e-003,-5.3544981e-002,-5.9768075e-002,5.2526056e-002,-9.2905815e-002,1.0167147e-001,-1.0258507e-001,5.7699897e-002,-1.6106152e-002,7.7346655e-003,0.0000000e+000,0.0000000e+000,-4.2429631e-002,2.8392141e-002,6.0094723e-002,-1.0647616e-001,1.0037888e-001,-2.9960020e-002,-4.4532490e-002,1.1055252e-001,-5.2354042e-003,-5.2544691e-003,-5.7512858e-003,1.8383285e-002,-5.2005951e-002,2.8572525e-002,0.0000000e+000,0.0000000e+000,-1.0911336e-002,6.3115272e-002,3.1196896e-003,-1.0403514e-002,-6.7136365e-002,6.7685624e-002,-7.9129044e-002,-1.9776163e-003,3.6629089e-002,-3.4371829e-002,7.6777013e-002,-7.3640131e-002,1.4859357e-002,6.7315555e-002,0.0000000e+000,0.0000000e+000,-2.9367655e-003,-5.9581544e-003,-3.4133293e-002,3.2413801e-002,-6.5724618e-002,1.5094740e-001,-3.6427935e-002,-7.9252965e-002,6.5667707e-002,-3.2535585e-002,6.0272667e-002,-3.0281092e-002,-3.7128431e-002,2.2383887e-002,0.0000000e+000,0.0000000e+000,1.0512447e-001,-2.4673514e-002,-4.3078797e-002,-1.8437969e-002,6.6235403e-002,7.2341854e-002,-4.2932960e-002,-1.8300054e-002,-3.2695021e-002,-1.5005320e-001,1.2838827e-002,1.2838197e-001,-1.1031352e-001,-2.0238754e-003,0.0000000e+000,0.0000000e+000,3.9843308e-002,2.5856154e-002,7.3780817e-002,1.2339491e-002,9.6002489e-002,-6.4253332e-002,-1.6622409e-001,6.3796374e-002,4.8504522e-003,7.7211509e-002,5.3927719e-002,4.0107404e-002,-1.1922490e-001,4.5294884e-002,0.0000000e+000,0.0000000e+000,-6.4070153e-002,-6.3839104e-002,1.9411262e-002,-1.1372971e-001,1.0674829e-002,3.1257597e-002,-1.4231289e-002,6.7368087e-002,-1.7854452e-002,-4.7042159e-002,-2.4103489e-002,-1.1941459e-002,8.1639744e-002,8.2001903e-002,0.0000000e+000,0.0000000e+000,4.5351152e-002,4.9075035e-003,-4.6102581e-002,3.3847964e-002,2.5836192e-002,1.7160033e-002,7.8159822e-002,-4.8270380e-003,2.7152216e-002,7.9254755e-002,9.0155270e-003,1.4382875e-002,-2.1493229e-002,-6.9099433e-002,0.0000000e+000,0.0000000e+000,8.5000763e-003,1.2171523e-002,
,272,-5.9414304e-002,-9.9207994e-002,5.0382349e-002,5.8004916e-002,7.3452297e-002,1.8501628e-001,1.2585343e-001,-4.8048910e-002,-1.9875977e-001,-2.9182742e-002,4.4588694e-002,-5.5525105e-002,0.0000000e+000,0.0000000e+000,1.7173661e-002,8.7569637e-002,4.5015213e-002,-4.2418802e-002,2.2333676e-001,-2.1583323e-001,8.4038494e-002,-3.1075471e-001,-6.1530042e-002,1.6575213e-001,9.8393967e-002,8.4441803e-002,-6.3910424e-002,-7.6427019e-002,0.0000000e+000,0.0000000e+000,2.4964751e-002,-2.0360601e-002,-5.5328178e-002,-8.6868397e-002,-1.3306932e-002,4.2461236e-002,7.0270603e-002,2.3945854e-002,1.3588258e-001,-9.8552847e-002,-5.8533043e-002,4.5703315e-002,-1.6649004e-001,9.9837002e-002,0.0000000e+000,0.0000000e+000,-3.5960202e-002,6.4149150e-003,-6.8778632e-002,1.1914464e-001,-1.0658335e-001,1.8993007e-001,-2.0305897e-002,-9.9373171e-002,-1.6724797e-002,2.7794074e-002,-6.6586998e-002,6.6964003e-002,-1.1171318e-002,8.2859730e-002,0.0000000e+000,0.0000000e+000,6.3668536e-002,-1.0135074e-001,1.5350209e-001,-3.2645190e-001,1.3961893e-001,-1.3547389e-002,-4.2945979e-002,1.4551762e-001,-3.1907610e-002,-1.0356808e-001,-1.3862837e-001,4.0540252e-002,4.4993816e-002,4.9623869e-002,0.0000000e+000,0.0000000e+000,-8.5359178e-002,4.0097272e-002,2.2473074e-001,-8.9620652e-002,1.3564637e-001,-1.4334162e-001,-7.7542084e-002,-8.6066349e-002,-1.2559324e-001,7.5569475e-002,4.7672061e-002,1.5640424e-001,7.8516478e-002,3.8004923e-002,0.0000000e+000,0.0000000e+000,-3.4659255e-003,-5.0904815e-002,7.1576727e-002,1.1777110e-001,-1.2949295e-001,2.0254158e-001,-2.1572870e-001,-3.2455414e-002,1.4498927e-001,6.4314859e-002,8.4825556e-002,-1.6876589e-002,-8.4748664e-002,-1.6847537e-001,0.0000000e+000,0.0000000e+000,1.9470356e-002,-1.3202258e-001,-3.6898489e-002,1.0079378e-001,-5.9901876e-002,1.3525872e-001,7.1583102e-002,-7.6565824e-002,8.6110131e-002,-1.8043257e-001,-1.0810544e-001,-1.1361871e-001,4.3475054e-002,-2.3260092e-002,0.0000000e+000,0.0000000e+000,-2.2123351e-002,1.8900682e-001,-7.6060150e-002,-1.5024544e-001,-1.8028917e-002,-2.4491570e-001,8.2228001e-002,8.9045185e-002,-9.4932891e-003,-7.9784426e-002,-6.7729776e-003,-6.6824468e-002,-3.0219558e-002,1.4615662e-002,0.0000000e+000,0.0000000e+000,3.0862312e-002,1.2813064e-001,-1.3392412e-002,3.0067048e-002,3.0210921e-002,-1.6935839e-002,3.4693986e-002,-9.3976206e-002,5.1395828e-003,1.6026271e-001,-4.0936405e-004,1.4244718e-001,-1.5365292e-001,7.8575726e-002,0.0000000e+000,0.0000000e+000,1.2594035e-001,-2.6036927e-002,
,284,1.7415104e-001,-1.7488580e-001,1.1051321e-001,6.6588985e-002,-9.4536876e-002,3.4752103e-001,-1.2921893e-001,-6.2623487e-002,-2.4402673e-001,-1.2456926e-002,7.8742114e-002,3.3429457e-002,0.0000000e+000,0.0000000e+000,-9.4726524e-002,1.6461875e-001,1.1081366e-001,4.5220069e-002,3.9934311e-002,-7.1957710e-002,-5.2729839e-002,-7.8740161e-002,-1.4790305e-002,-2.3502937e-002,-6.1741675e-003,1.1488737e-001,-3.1962634e-002,3.3282067e-002,0.0000000e+000,0.0000000e+000,-2.2408314e-001,-1.0817572e-002,-7.3761492e-002,-4.5667585e-002,-1.4860570e-001,-2.3277541e-002,-6.4145540e-002,-3.0756574e-002,2.8516094e-002,-2.9750851e-002,-1.7044583e-002,-7.4186746e-002,5.6267315e-002,-7.2550078e-003,0.0000000e+000,0.0000000e+000,1.9752606e-002,5.9803955e-002,-1.1413447e-001,4.7445965e-002,-5.2173667e-002,4.1821923e-002,-1.0319140e-001,7.6079251e-002,6.8874779e-002,-4.7887670e-002,9.5343090e-002,4.7585764e-002,-9.4262987e-002,5.1334730e-002,0.0000000e+000,0.0000000e+000,6.2173613e-002,-2.1807168e-002,-4.7660819e-003,2.7617121e-002,-1.0265339e-001,-9.0486849e-002,-6.2696600e-002,8.2479198e-002,3.5770562e-002,9.5226260e-002,-1.9617094e-002,-6.9157669e-002,-1.4003640e-001,8.2221448e-002,0.0000000e+000,0.0000000e+000,1.8829658e-002,7.0979850e-002,-4.4757967e-003,-1.4305792e-001,7.8990108e-002,5.6850996e-002,9.0467469e-002,1.6559174e-001,2.9031815e-002,-6.5258186e-002,-1.3793269e-001,-1.1492416e-001,-7.2135470e-003,8.8885232e-002,0.0000000e+000,0.0000000e+000,9.6901261e-002,2.4854858e-002,-2.2973694e-002,-1.7546375e-001,4.9920526e-003,-3.0781969e-002,2.4303541e-002,6.1590095e-002,5.0886848e-002,3.0094685e-002,1.8949109e-002,3.6657028e-002,6.2889177e-002,-1.9204069e-002,0.0000000e+000,0.0000000e+000,-3.6589823e-002,4.5120186e-002,-2.7884470e-002,8.1288354e-002,-1.5595004e-001,1.0379262e-002,-7.8738412e-002,-4.8661307e-002,9.5398782e-002,1.0561854e-001,4.6275033e-002,1.8732418e-001,-9.3178819e-002,2.5872387e-002,0.0000000e+000,0.0000000e+000,-6.7972374e-003,-3.3105582e-002,4.1333322e-002,-9.3695530e-002,-7.9067684e-002,-2.6441933e-002,-2.4168590e-003,1.2113453e-001,3.3608298e-002,4.1181882e-002,-8.3976657e-002,-9.5622099e-002,1.5871496e-002,-2.0121633e-001,0.0000000e+000,0.0000000e+000,-8.1446613e-002,5.3216087e-002,1.4815422e-001,-1.2473343e-001,5.1973738e-002,3.7313926e-002,5.6022280e-002,2.0872376e-002,5.1587538e-002,-4.2939075e-002,-9.1211221e-002,-5.4859084e-003,-5.3298976e-002,-7.4462868e-002,0.0000000e+000,0.0000000e+000,-7.4842515e-002,5.2577536e-002,
,296,-6.5112183e-002,-8.0887524e-002,7.2294047e-002,2.0365111e-002,-1.4355602e-001,2.6607515e-001,-1.6032564e-001,-1.5771764e-001,4.9939915e-002,-4.5096194e-002,-5.2703433e-002,1.7207002e-001,0.0000000e+000,0.0000000e+000,1.9018067e-001,-2.8829339e-002,9.0556591e-002,-9.2974888e-002,1.7740570e-001,-1.8009408e-001,-1.0453095e-001,-2.5332142e-002,-3.0663912e-002,2.3193367e-002,-1.6362617e-002,1.1471356e-001,-1.4426141e-001,1.9210550e-001,0.0000000e+000,0.0000000e+000,5.1036825e-003,-1.1796201e-001,-5.8196405e-002,-3.0478542e-002,1.0593911e-002,-1.0294438e-003,-2.8795766e-002,2.6303929e-002,2.3866588e-002,-1.4943014e-002,-5.2742703e-002,5.4426680e-002,-5.2069886e-002,-1.3209744e-002,0.0000000e+000,0.0000000e+000,-2.6205818e-003,8.0947518e-002,2.0859180e-002,-1.3323350e-002,-3.2957045e-002,-9.1915432e-003,-1.2732608e-002,5.2216640e-002,-1.1261205e-001,1.5196344e-001,-4.9385720e-003,2.2343678e-002,3.8151569e-002,-1.1487744e-001,0.0000000e+000,0.0000000e+000,-5.0943724e-002,-1.5549967e-001,-3.9986485e-002,7.9156291e-002,-5.7116663e-002,1.6417744e-002,1.6075720e-001,1.2045999e-001,1.7129924e-002,1.5369792e-002,-7.7593881e-002,-5.0594964e-002,-3.1659456e-002,-3.1485002e-002,0.0000000e+000,0.0000000e+000,9.2379054e-003,5.4082662e-002,-2.4937702e-001,1.2906509e-001,-5.6490411e-002,7.0408815e-002,-1.7605835e-002,-1.2308300e-001,1.3223241e-001,9.8572658e-002,4.0304369e-002,-4.8130940e-002,-5.9483487e-002,1.7768784e-002,0.0000000e+000,0.0000000e+000,-3.6061989e-002,2.1221350e-002,1.3756012e-001,-1.7144866e-001,-1.2225300e-001,1.3909765e-001,-1.5108550e-001,8.2755170e-002,-1.4301477e-001,-1.3002341e-001,8.9711242e-002,3.1966606e-002,6.3046203e-002,-1.8814380e-002,0.0000000e+000,0.0000000e+000,1.0702946e-001,-1.8142634e-001,3.0960286e-002,-6.8155389e-002,6.1419061e-002,-3.1296204e-002,2.8646831e-002,2.7323181e-001,-1.3551940e-001,1.2117306e-001,-1.0304008e-001,2.6379637e-002,3.5717251e-002,5.9200242e-002,0.0000000e+000,0.0000000e+000,-7.0498834e-002,2.5092055e-001,3.6320844e-002,-1.8665272e-001,-4.9196574e-002,-1.4916656e-002,6.8841548e-002,2.1092480e-002,2.0373703e-001,1.9440947e-001,-9.6575924e-002,-6.7269556e-002,-8.4740221e-002,7.0554451e-002,0.0000000e+000,0.0000000e+000,-7.9057410e-002,1.9157120e-001,-7.9865557e-002,-7.2310381e-002,6.6034625e-002,-9.3715582e-002,-9.7461328e-003,-1.6676260e-001,4.0085419e-003,1.0877050e-001,5.9889127e-002,-1.0793556e-001,1.4679589e-001,-9.9562225e-002,0.0000000e+000,0.0000000e+000,8.3884173e-002,-1.5699495e-001,
,308,1.8883763e-001,1.3856402e-001,3.5499684e-002,7.8575902e-004,-6.0248925e-002,-2.5759649e-001,-6.8886632e-002,9.8362078e-002,1.1224841e-001,1.0006969e-001,9.1179531e-002,-1.5898531e-001,0.0000000e+000,0.0000000e+000,8.5725833e-002,1.7029742e-002,-2.2193751e-001,-1.4669860e-002,-3.5844299e-003,7.6621006e-002,2.8375810e-001,6.4220508e-002,-1.4356919e-001,2.0976582e-001,1.4929086e-001,-1.1346306e-001,1.1647116e-001,-3.0058966e-001,0.0000000e+000,0.0000000e+000,7.6474890e-002,-8.8819741e-002,2.4123100e-002,-1.3433568e-001,1.7573438e-001,1.7761752e-002,-5.5054522e-002,1.7595327e-001,-7.7319553e-002,-1.3037667e-001,1.7648867e-002,-6.5754545e-002,1.7636466e-003,6.8963382e-002,0.0000000e+000,0.0000000e+000,-1.1385828e-001,2.8381288e-002,-4.0597325e-002,1.1150793e-001,-1.0891689e-001,2.3295934e-002,-1.2069485e-001,-8.9154118e-002,4.6499695e-002,6.8268872e-002,3.7811262e-002,1.2098619e-001,-1.2956840e-001,-1.8570234e-002,0.0000000e+000,0.0000000e+000,2.5575372e-002,1.2726499e-001,-5.3685783e-002,3.7165826e-003,-2.6023772e-002,-3.4363792e-002,9.8455002e-002,-7.3480700e-002,-5.2733092e-002,1.5019218e-001,1.1250130e-001,-8.5508603e-002,7.7067100e-002,-1.8141940e-002,0.0000000e+000,0.0000000e+000,-9.8839833e-002,-6.5897887e-002,-2.3299621e-002,-1.0974470e-001,2.5664035e-001,-1.5812265e-001,-2.4593621e-002,1.0508655e-001,-1.0706391e-001,1.5162911e-002,1.6145512e-001,-4.2255138e-003,8.6732722e-002,1.5839371e-001,0.0000000e+000,0.0000000e+000,-1.2045298e-001,7.0383339e-003,4.9788531e-002,-8.3962999e-002,-1.0413358e-001,1.2265548e-001,-2.1265037e-001,2.5404503e-002,9.6111617e-002,-2.8533952e-002,-1.1142558e-002,2.4146985e-002,-4.5412364e-003,-7.7572213e-002,0.0000000e+000,0.0000000e+000,1.3253559e-002,9.1946251e-002,7.5331302e-002,1.1225856e-001,-2.2926074e-001,5.1022345e-002,-1.4760828e-002,-5.9975538e-002,-1.2000309e-001,2.2215744e-001,-1.7281301e-002,-1.1949285e-001,1.0713820e-001,-4.4446390e-002,0.0000000e+000,0.0000000e+000,3.5047239e-002,1.5603425e-001,-7.0314358e-002,-1.3212440e-001,-1.2382084e-001,1.3791588e-001,6.5111967e-002,4.7749254e-002,-2.6326920e-002,-6.7657204e-002,6.1210556e-002,7.2371389e-002,1.3660385e-001,-8.7097304e-002,0.0000000e+000,0.0000000e+000,-1.0851956e-001,-1.5782600e-002,-8.3208517e-002,-7.6778654e-002,8.5387308e-002,-2.2487375e-003,-1.2615955e-001,8.2295618e-002,2.4975354e-002,4.3419504e-002,-2.1619464e-002,-2.9209998e-002,-1.2656736e-001,-4.5091572e-002,0.0000000e+000,0.0000000e+000,-4.0806796e-002,5.9894178e-002,
,320,-1.7300235e-002,-1.6592346e-002,-1.0102096e-001,1.1102384e-001,-1.4047981e-001,1.4526095e-001,5.2972991e-004,-2.1311350e-002,1.5841641e-001,-1.6389097e-001,-7.7337627e-002,-4.5964314e-002,0.0000000e+000,0.0000000e+000,1.1737837e-001,2.0127011e-002,1.6540125e-001,-4.4375584e-002,2.6597380e-003,2.1084564e-002,-7.8501739e-002,4.6804490e-002,-6.1347356e-003,1.0113317e-001,-1.8391407e-001,2.6571602e-001,-3.5023331e-002,-4.0776519e-002,0.0000000e+000,0.0000000e+000,-1.2816121e-001,3.0077490e-004,-6.1606611e-002,1.7177438e-002,8.4650529e-002,-8.0130558e-002,5.3359248e-002,-1.1090143e-001,-6.0049390e-002,1.0451727e-001,-1.1678845e-001,1.6348535e-001,-4.8575547e-002,-1.1316708e-002,0.0000000e+000,0.0000000e+000,9.7150912e-003,1.0716060e-001,1.4877085e-001,3.8783281e-002,6.7224645e-002,-8.8252950e-002,-2.5132120e-001,2.9555838e-002,-1.0914338e-001,6.0166491e-002,2.1195632e-001,-9.6050927e-002,4.0010637e-002,1.3519618e-002,0.0000000e+000,0.0000000e+000,-3.5611879e-002,-4.0220267e-002,5.0878097e-002,-9.1337737e-002,-1.8245456e-001,2.1618953e-002,3.0508172e-002,-1.2694424e-001,1.1948376e-001,-1.7389635e-002,-4.7680214e-002,8.9058510e-002,-9.1489800e-003,6.2618020e-002,0.0000000e+000,0.0000000e+000,-4.9400220e-002,-7.1846355e-002,2.3486371e-001,9.4840561e-002,-6.1393251e-002,-1.4877509e-002,-8.2545490e-002,-9.3600771e-002,2.0320477e-001,-3.4277049e-002,-1.7943272e-001,1.3059807e-001,-2.3738901e-001,6.9566332e-002,0.0000000e+000,0.0000000e+000,-4.7626127e-002,5.8531600e-002,-1.2040321e-002,-8.9887004e-002,1.5895753e-001,-5.0346109e-002,-2.0123360e-001,1.5007634e-001,-2.6806859e-003,-7.8946874e-002,7.5018703e-002,-1.6330454e-001,2.3626404e-002,4.8214296e-002,0.0000000e+000,0.0000000e+000,-1.3395502e-001,-6.7554433e-003,-6.8667997e-002,-1.1129920e-001,1.9478536e-001,-3.4102066e-002,9.8860980e-002,4.3327696e-002,-5.8814704e-002,-2.3547768e-002,1.2828553e-001,-2.0527039e-003,-4.2459118e-002,3.3566225e-004,0.0000000e+000,0.0000000e+000,8.9283211e-002,-4.7123682e-002,-9.6810850e-002,-1.0986679e-002,-8.8452473e-002,1.1503726e-001,1.6482689e-001,4.9984086e-002,7.7863040e-002,-5.3800118e-002,4.7857264e-002,2.1901987e-002,4.8307858e-002,-1.0184495e-001,0.0000000e+000,0.0000000e+000,-9.4610890e-002,3.7448200e-003,-1.4443823e-001,6.4855028e-002,-1.3554452e-001,9.0450947e-002,4.2569335e-002,1.7518038e-002,-7.8232547e-003,9.6315777e-002,-4.3931006e-002,-9.1747828e-002,2.1316240e-001,6.1834288e-002,0.0000000e+000,0.0000000e+000,-1.8390606e-003,-4.0843518e-002,
,332,1.5215455e-001,-3.8104889e-001,1.9374526e-001,-6.6945395e-003,-2.6405171e-001,4.1430551e-001,-2.0901960e-001,2.8684548e-001,-2.0105109e-003,-1.1091661e-002,6.1042961e-003,-1.8050641e-001,0.0000000e+000,0.0000000e+000,9.8251040e-002,7.9020272e-002,3.6917227e-001,-1.3988771e-001,-5.8995349e-002,1.2927268e-002,-4.2477726e-001,1.1034931e-001,-2.4895343e-002,-8.7179903e-002,1.9510206e-001,-2.9416290e-002,2.1469208e-002,-1.2050041e-001,0.0000000e+000,0.0000000e+000,5.3890164e-002,3.6350631e-003,-9.9588640e-003,-4.9516137e-002,-1.0971694e-001,4.1048453e-002,-2.2600336e-001,1.3188495e-001,-9.9228476e-002,8.1996867e-002,-3.0115461e-002,-1.8611637e-002,5.5411854e-003,-1.4917148e-001,0.0000000e+000,0.0000000e+000,8.5266812e-002,6.0133591e-002,-3.2232661e-002,-1.5508492e-001,1.6784350e-001,-3.2073130e-002,6.7603278e-002,8.2873407e-002,-5.3147043e-002,-6.8247530e-003,-5.4579121e-002,-1.2600245e-002,-2.2521880e-002,6.3524981e-002,0.0000000e+000,0.0000000e+000,-7.9494619e-002,1.8197688e-001,-2.2482349e-002,-1.9639091e-001,-9.0703820e-002,7.0184150e-003,1.1793270e-001,6.2633867e-002,4.1529806e-002,-8.2200982e-002,-1.2789551e-001,-7.7914289e-002,2.9919061e-002,-1.1453091e-002,0.0000000e+000,0.0000000e+000,1.1432700e-001,1.0661463e-001,7.4100434e-002,1.6321601e-002,4.0285351e-002,5.3796706e-002,1.0948275e-001,-4.9490558e-002,5.7300639e-002,-5.0001655e-002,9.5656171e-002,1.5934313e-001,-8.9568017e-002,3.8241906e-002,0.0000000e+000,0.0000000e+000,-1.5955235e-002,-3.5090190e-002,1.0686332e-001,-1.1351528e-002,-4.7046237e-002,7.8949186e-002,9.8829870e-003,-1.0804768e-001,9.0818438e-002,-4.1641427e-002,1.4978987e-001,4.8671429e-002,2.6729114e-002,8.2101255e-002,0.0000000e+000,0.0000000e+000,-3.8496503e-002,-6.8047794e-002,-3.2801087e-001,1.5142755e-001,-4.4226021e-002,3.5748109e-002,2.0440276e-001,-2.1918155e-001,1.2599628e-001,-5.4816598e-003,-9.3085101e-002,-2.2954124e-002,-4.6691529e-002,-3.6641865e-002,0.0000000e+000,0.0000000e+000,1.3433167e-001,2.7495186e-002,-3.8548558e-002,-1.3399731e-001,-4.6435530e-002,-1.8045091e-002,-4.9081416e-002,1.1418360e-001,-7.0353212e-002,7.8662924e-002,5.1753090e-003,-7.7638649e-002,1.2470100e-002,-2.4817377e-001,0.0000000e+000,0.0000000e+000,-3.4699503e-002,1.0171476e-001,1.7213364e-001,-1.1127495e-001,-4.2021276e-002,-2.5915449e-002,-1.5098357e-001,1.1087890e-001,4.9793853e-002,-6.6824525e-002,1.4004428e-002,-1.0249593e-002,1.2461552e-001,-4.7264225e-002,0.0000000e+000,0.0000000e+000,-1.3067126e-001,2.0348868e-004,
,344,-6.3389146e-002,-9.8232013e-002,6.6864393e-002,-6.6665329e-002,-4.6476757e-002,2.8467918e-001,-1.0761421e-001,3.1524624e-001,1.3044247e-001,-2.3046795e-001,9.9352686e-002,-2.4348281e-001,0.0000000e+000,0.0000000e+000,1.1492146e-001,4.2965459e-002,-3.5029092e-001,1.9269532e-001,1.9646047e-001,-2.0755130e-001,3.9397090e-001,-2.4958181e-001,2.0012864e-001,5.9687850e-002,-1.3116271e-001,2.0980590e-001,-1.6278254e-001,6.0611566e-002,0.0000000e+000,0.0000000e+000,1.0284833e-002,-1.2475187e-001,-7.6231690e-002,-1.7328173e-002,-6.7497966e-002,1.1669244e-001,1.0487116e-002,1.2565523e-001,-6.9974470e-002,-3.9445462e-002,-8.5192400e-002,-8.4235826e-002,-1.2195911e-002,8.7203930e-003,0.0000000e+000,0.0000000e+000,-3.3663279e-002,7.5441834e-002,7.2467184e-002,-1.3016200e-001,9.1882627e-002,3.4911979e-002,-2.8151778e-002,1.3771994e-002,-5.6677106e-002,-7.3780327e-002,-1.0242935e-002,6.5163347e-002,4.5964485e-002,1.0430992e-001,0.0000000e+000,0.0000000e+000,-2.0260862e-002,-4.6434225e-002,2.0856035e-002,-1.3524564e-001,-3.3662850e-002,-3.5294378e-002,-2.9188022e-002,1.4045014e-001,2.0921630e-002,-1.4825162e-002,1.1622127e-002,3.3931868e-002,8.6435961e-002,-5.8819444e-002,0.0000000e+000,0.0000000e+000,-2.3107381e-001,-5.4487294e-002,7.1824328e-002,4.4428251e-002,1.7671156e-003,1.2349314e-002,-1.9346363e-001,5.7133871e-002,3.8982908e-002,6.9688275e-002,1.0043957e-001,-3.7306090e-002,2.3520236e-001,-1.1856462e-001,0.0000000e+000,0.0000000e+000,-2.5959780e-003,-1.4782682e-002,1.0045429e-001,-1.1150254e-001,-1.2158646e-002,-8.7050701e-002,6.2169046e-002,-4.0503154e-002,-4.8024196e-002,2.1600291e-001,-2.6940112e-003,-7.3688856e-002,-2.7868318e-002,-6.6658623e-002,0.0000000e+000,0.0000000e+000,1.1934288e-001,5.3651160e-002,2.6016296e-001,-1.2114777e-001,1.3225334e-001,1.0864838e-002,-2.1618859e-001,6.5062479e-002,-5.8011212e-003,1.2365604e-001,-2.1929809e-002,6.2548801e-002,-1.6903801e-001,-1.2194481e-001,0.0000000e+000,0.0000000e+000,1.8024255e-002,1.7469680e-002,-1.4332227e-001,-4.6586764e-002,4.2955448e-002,-1.5222527e-001,-2.0365431e-002,1.1686035e-001,1.4759364e-002,6.8276152e-002,7.0730706e-002,1.4339653e-003,-2.4405404e-002,3.3212562e-002,0.0000000e+000,0.0000000e+000,2.0635958e-002,-2.3804926e-002,1.3488546e-001,-1.9970014e-001,1.1125357e-001,-5.7874822e-002,-5.2150590e-002,8.4320514e-002,-1.3377731e-001,1.0274730e-001,-3.5743684e-002,-5.7861333e-003,6.6599213e-002,-5.7482869e-002,0.0000000e+000,0.0000000e+000,4.6087706e-002,7.9242867e-002,
,356,9.6120810e-002,-1.8525826e-001,1.4873006e-001,1.0561965e-002,-2.9989879e-002,4.5395837e-001,-2.5801412e-001,-1.3387009e-001,-4.4417017e-001,-1.1777512e-001,-1.0084573e-001,2.6238903e-001,0.0000000e+000,0.0000000e+000,9.3646836e-002,3.8384075e-001,-9.5570699e-002,2.1701476e-001,8.9876567e-002,-6.5311453e-002,1.7575295e-001,-2.6935230e-001,4.3612140e-002,-6.0988949e-003,4.8401577e-004,9.2019950e-002,1.5936625e-001,-1.9937641e-001,0.0000000e+000,0.0000000e+000,-1.3322800e-002,-1.4501692e-001,-6.9297363e-002,2.7184940e-002,-8.4908627e-002,7.6316502e-002,-1.2686100e-001,1.4598668e-002,1.3945276e-001,-9.2821637e-002,1.3808413e-001,8.0313744e-002,6.0972507e-002,9.3242656e-002,0.0000000e+000,0.0000000e+000,-1.5404332e-001,-8.7399242e-002,-1.0467995e-001,-1.0747600e-001,3.3836972e-002,5.2871015e-002,1.5888239e-001,-1.1504132e-001,4.5918744e-002,1.8255989e-002,-1.1274546e-001,1.1106064e-001,-4.6975345e-002,1.4997335e-001,0.0000000e+000,0.0000000e+000,-1.5452660e-001,5.2618742e-002,1.2278963e-001,-7.6153795e-002,5.8546664e-003,-1.2358204e-001,-7.0058667e-002,-3.7597363e-002,-1.6582873e-001,7.5277848e-002,-5.6402813e-002,5.2880226e-002,5.2259189e-002,-8.3566024e-002,0.0000000e+000,0.0000000e+000,-8.8284386e-002,7.8980612e-002,-7.4189234e-002,2.1553191e-002,1.5870458e-001,-4.3569609e-003,3.3802920e-002,-1.5406453e-001,-3.4238862e-002,9.1015207e-002,1.0201727e-001,5.1590450e-002,-1.5226336e-001,-8.3050411e-002,0.0000000e+000,0.0000000e+000,-7.6568128e-004,-6.6678279e-002,-1.4677647e-001,-1.4637596e-001,-7.3432759e-002,1.6114034e-001,3.1162230e-001,7.6977961e-002,1.3404697e-001,-3.3605122e-002,7.6948102e-002,-6.6139934e-002,-1.9288855e-002,9.4081304e-002,0.0000000e+000,0.0000000e+000,3.5059297e-002,-9.7646430e-002,-8.0016152e-002,4.6000610e-002,1.4807031e-002,-2.0296778e-002,-5.8990456e-002,-3.9453133e-003,6.2860453e-002,-4.4564959e-002,-3.1849924e-001,1.7812444e-001,1.3157448e-001,-7.2611760e-002,0.0000000e+000,0.0000000e+000,6.2196903e-002,1.6141459e-001,1.1412306e-001,-4.5727040e-002,4.1566869e-002,-1.9622564e-001,-1.2006019e-001,3.6070842e-002,-2.6726668e-002,1.0825305e-001,4.4795397e-002,1.0390147e-001,-9.4418970e-002,-1.0890897e-001,0.0000000e+000,0.0000000e+000,-4.8213375e-002,-1.9251523e-002,-4.9088678e-003,-6.4228264e-002,6.4419305e-002,5.7132425e-002,1.4843239e-001,-7.1309733e-002,-1.0991284e-001,7.2725572e-002,2.7635904e-002,-4.5272142e-002,1.8328620e-002,1.6534983e-001,0.0000000e+000,0.0000000e+000,-7.7143577e-002,-5.7365509e-002,
,368,3.5367327e-002,-5.4817968e-002,-1.4216978e-001,2.7724556e-002,1.3745397e-001,-2.9332118e-002,1.0406135e-001,-8.9502962e-002,-6.8570205e-002,-1.0904606e-002,9.1214566e-002,5.1622959e-002,0.0000000e+000,0.0000000e+000,-8.6366010e-002,1.0432091e-001,1.4621452e-001,8.0862907e-002,-6.1733304e-002,5.0596723e-002,-1.6131275e-001,-1.8604907e-001,6.6367308e-002,-6.9504538e-003,1.5157894e-001,1.8828709e-001,-4.7814599e-002,-1.1059282e-001,0.0000000e+000,0.0000000e+000,-5.0390280e-002,-7.4921474e-002,1.1537163e-001,2.6031175e-002,-4.6562612e-002,-3.4051296e-002,-1.1434775e-001,-9.2916559e-003,1.1663478e-002,1.1676599e-001,2.7164527e-002,-7.6050635e-002,-2.0410634e-003,-1.0785030e-001,0.0000000e+000,0.0000000e+000,-3.5726418e-002,-4.8131448e-002,5.5403344e-002,-3.1207432e-002,3.9283635e-002,1.1982868e-002,-4.2244425e-002,4.5036646e-002,1.5418357e-003,-4.2547761e-002,1.4934488e-001,-3.9617891e-002,-2.4924283e-002,5.0399898e-002,0.0000000e+000,0.0000000e+000,-6.4146693e-002,2.9665521e-002,-1.3463279e-001,-6.0503386e-002,3.8860872e-002,7.0032565e-002,8.8459429e-002,5.1024186e-002,-3.7709511e-002,-6.2342042e-002,-9.5150228e-002,-1.1530270e-002,1.7888377e-002,-1.1121965e-002,0.0000000e+000,0.0000000e+000,6.1882722e-002,2.9159005e-004,4.6514074e-002,3.8291306e-002,4.3700130e-002,-4.3111586e-002,-4.4185611e-002,-3.0084897e-002,1.6013263e-004,5.4693240e-002,-3.6062995e-003,8.3303528e-002,-1.1793685e-002,-3.5903664e-002,0.0000000e+000,0.0000000e+000,-3.9961274e-003,1.4039221e-002,2.6618908e-002,-1.7917897e-002,-2.7391351e-003,-1.0083146e-001,-1.7496639e-001,5.7704126e-002,1.5870398e-004,1.5962171e-001,6.7256766e-002,5.6474528e-002,-8.6480337e-002,-9.2984302e-002,0.0000000e+000,0.0000000e+000,-1.7360235e-001,8.6163799e-002,7.3809024e-002,-8.6162238e-002,-2.9010908e-002,1.3155718e-001,9.0702393e-002,-1.3465747e-001,-8.2127410e-002,1.1745475e-001,-2.7802134e-002,1.3388407e-001,-3.6138629e-002,-1.4132398e-001,0.0000000e+000,0.0000000e+000,2.5047673e-002,-1.5455991e-002,-3.2113188e-002,-1.8957771e-001,-2.4946418e-002,2.5571129e-002,-5.2089459e-002,-2.7491732e-002,7.8498326e-002,-7.4097355e-002,2.5930461e-002,-5.2920657e-002,5.9669480e-002,6.2739249e-002,0.0000000e+000,0.0000000e+000,8.0677761e-002,-2.4927997e-002,7.0903433e-003,-4.9033723e-003,1.0262506e-001,2.4832950e-002,6.8359314e-002,-5.4304379e-002,-4.8633434e-003,1.7554023e-002,1.4469421e-002,7.3092712e-002,1.2122341e-002,5.5322652e-002,0.0000000e+000,0.0000000e+000,-1.1969057e-001,4.8316382e-002,
,381,3.7276585e-002,-1.1767716e-001,1.5473057e-001,9.5839819e-003,-6.0686745e-002,2.6527911e-001,-2.6273750e-001,4.1122689e-003,-3.9907459e-002,-1.3839923e-001,2.0823176e-001,-8.2476153e-003,0.0000000e+000,0.0000000e+000,-5.4232433e-002,1.0475975e-001,-1.1305782e-001,8.2211456e-002,1.2279869e-002,-3.3858834e-002,1.9513853e-001,-2.2965120e-001,7.3866404e-002,-6.8027785e-002,-4.9063156e-003,1.0399163e-001,-9.5086325e-002,3.3873442e-003,0.0000000e+000,0.0000000e+000,-7.5908985e-002,4.3076036e-002,-4.3067957e-002,-8.1972579e-003,-3.0897597e-002,5.6601989e-002,2.0461085e-002,9.6059377e-002,9.6564320e-003,-4.1828301e-002,-3.6664031e-002,9.5731489e-003,-1.5621834e-002,1.8653094e-002,0.0000000e+000,0.0000000e+000,-6.8600934e-002,1.2401220e-002,3.9576291e-002,1.0124996e-002,2.6561091e-002,7.1986937e-003,-1.3957029e-001,-1.6011982e-002,-5.4350102e-002,5.3442191e-002,-4.6622183e-002,7.6636998e-002,-2.0251165e-002,1.7037002e-002,0.0000000e+000,0.0000000e+000,3.8167784e-003,-1.2884373e-002,1.0772548e-001,-1.4562395e-001,1.4669464e-001,-3.5008278e-002,1.1359122e-002,3.2188932e-002,-5.7498297e-002,-2.3312219e-002,-7.6022319e-002,9.1834449e-002,2.2995775e-002,-4.7249763e-002,0.0000000e+000,0.0000000e+000,-4.4886808e-002,4.2717013e-002,2.6038262e-002,1.4621897e-002,-1.0344632e-002,9.2179670e-003,-2.2280009e-002,2.2394756e-002,3.8827784e-002,-4.9645931e-002,-5.2192233e-003,-4.8368301e-002,-4.6462676e-002,5.6058210e-002,0.0000000e+000,0.0000000e+000,-2.5842825e-002,7.0728686e-002,-5.6697222e-002,-6.3787767e-002,-5.6653289e-002,7.0450606e-002,-1.4815365e-001,6.6462200e-002,1.1202319e-001,-1.0905547e-001,9.6560589e-002,5.6025380e-002,-1.6662497e-002,-5.9977934e-003,0.0000000e+000,0.0000000e+000,2.1364533e-002,-3.9524361e-003,-7.8660344e-002,-1.4319642e-002,4.0179721e-002,2.6601823e-002,1.0519683e-001,-3.7292773e-002,3.8837745e-002,2.8540021e-002,-8.2540866e-003,-7.3659167e-002,-8.5613710e-003,-2.4936836e-002,0.0000000e+000,0.0000000e+000,6.5961340e-002,-7.3434213e-002,-3.1659823e-002,-4.1602937e-002,1.5971916e-002,3.1121159e-002,4.8163041e-002,-1.5012438e-002,-1.9355840e-002,1.1317820e-001,-4.1570637e-002,-2.0793127e-002,-4.7827989e-002,-9.2735319e-002,0.0000000e+000,0.0000000e+000,-1.1727193e-002,1.7353480e-002,-2.1416658e-003,1.8853244e-002,4.0567329e-002,-6.1542223e-003,-2.4327216e-002,1.7357860e-002,-6.0523017e-002,-1.0434862e-002,1.2832936e-001,9.7083047e-002,1.1561112e-001,-1.7382691e-002,0.0000000e+000,0.0000000e+000,-4.0658600e-002,-5.3606640e-002,
,394,3.6707043e-002,2.7020963e-002,-4.9570174e-002,3.0222028e-002,-8.9949891e-002,1.9970159e-001,-4.2401687e-002,-1.1687153e-001,-3.6772774e-002,-1.8180296e-001,-1.0995559e-001,7.2643652e-002,0.0000000e+000,0.0000000e+000,1.2983010e-001,6.0732731e-002,8.0153112e-002,-7.7983975e-002,6.4038275e-002,9.2821916e-003,-1.0661061e-001,1.5049713e-001,-1.0573267e-001,5.6247869e-002,-3.0724457e-002,4.7366133e-002,1.1759171e-002,1.7185774e-002,0.0000000e+000,0.0000000e+000,-3.3635018e-002,-2.7182964e-002,1.4643456e-002,-1.4979250e-003,6.1788834e-002,9.5360592e-002,-6.7824474e-002,5.5171559e-002,-7.9890038e-002,-5.3427615e-002,5.7278882e-002,-2.8223910e-002,5.6942356e-002,-8.4376488e-002,0.0000000e+000,0.0000000e+000,-6.8873262e-002,-8.9880760e-003,8.8142106e-004,-2.7826872e-002,-4.5705977e-003,-4.8340626e-002,-3.6977561e-002,4.0025757e-002,-6.6802900e-002,-2.1279905e-002,-1.2908799e-002,-5.3699018e-003,2.4019092e-002,1.7781587e-001,0.0000000e+000,0.0000000e+000,9.1501933e-003,-1.3993186e-002,-8.7312210e-002,-1.1052543e-001,-1.2822712e-002,-4.6031455e-002,3.6156675e-002,1.1636167e-001,-6.2419938e-002,6.9928158e-002,2.7642876e-002,3.7000274e-002,9.0069172e-003,-7.1745409e-002,0.0000000e+000,0.0000000e+000,-9.2600312e-003,6.8276765e-003,-7.2960311e-002,4.1294862e-002,9.5520252e-002,-9.2796136e-002,9.3472973e-002,-3.1292810e-002,-1.4670767e-003,1.6163207e-001,-1.0049531e-001,-1.3642432e-002,-1.2127500e-002,-5.0477179e-002,0.0000000e+000,0.0000000e+000,5.2783028e-003,8.8297585e-002,-2.7118892e-002,-5.3670773e-003,-2.1662628e-001,9.6786808e-002,-2.8813842e-002,-1.8843552e-002,1.3178359e-001,1.1654230e-001,1.4261980e-002,-2.5923277e-002,1.7842076e-002,-1.1892299e-002,0.0000000e+000,0.0000000e+000,-6.5567325e-002,3.3009018e-002,9.1650278e-002,-5.2112293e-002,8.0870458e-002,-2.2995470e-002,9.9540687e-002,-1.9308347e-002,1.6438326e-002,4.1423466e-002,7.1302861e-002,-8.2165380e-003,-6.3546279e-002,1.8957033e-002,0.0000000e+000,0.0000000e+000,4.0288641e-002,-5.8947882e-003,-1.0635334e-002,-7.1084238e-003,4.3495692e-002,-9.5153187e-003,6.8423898e-003,-2.6590002e-002,7.6306313e-002,-1.7839303e-001,-4.1908008e-002,-4.7004455e-003,-6.9480161e-002,7.9343396e-002,0.0000000e+000,0.0000000e+000,-9.1798600e-003,1.2615538e-002,1.2198463e-002,-6.8018980e-002,-3.0473351e-002,-5.5316884e-002,-1.0201063e-001,-5.3776313e-002,5.9647926e-002,1.7690374e-001,3.1810726e-002,-1.0880126e-003,3.2070518e-003,4.1742351e-002,0.0000000e+000,0.0000000e+000,2.1093018e-003,-6.2993705e-002,
,406,1.0837016e-001,-1.7778223e-001,2.7867276e-001,-6.7611471e-002,2.1962916e-001,-1.2119156e-001,-7.2254847e-002,4.8565665e-002,8.5876238e-002,-1.2676338e-001,6.2844663e-002,-1.0849953e-001,0.0000000e+000,0.0000000e+000,-5.7916904e-002,6.5997021e-003,2.8188407e-002,9.2940847e-002,-5.3817290e-002,2.9114336e-002,1.1789504e-002,-7.4926569e-002,2.4375340e-001,-1.0562884e-001,-1.3838812e-001,1.3531005e-001,-2.4315037e-001,9.1114689e-002,0.0000000e+000,0.0000000e+000,6.2280980e-005,-8.9125059e-002,-2.8270308e-002,-4.6286406e-003,5.3768177e-002,-3.2620081e-003,-1.6546976e-001,9.8171113e-003,-1.5104927e-004,4.7496640e-002,7.7943158e-002,-5.2360380e-002,-1.1867311e-001,-3.8223820e-002,0.0000000e+000,0.0000000e+000,7.4901650e-002,-2.0185978e-002,1.6318115e-002,4.2277456e-002,-4.7988657e-002,-2.3508544e-002,-1.4482045e-001,-7.3725077e-004,3.5232781e-003,6.5154249e-002,1.8305857e-001,-4.2569449e-002,-7.1164418e-002,1.1444019e-002,0.0000000e+000,0.0000000e+000,1.0731087e-001,-6.1415414e-002,-3.4272712e-002,-1.1333070e-001,-6.2982754e-002,1.0576609e-001,-9.6231855e-002,1.7436685e-001,6.6687332e-002,-4.2887602e-002,-1.2061005e-001,-1.9484491e-004,-8.2058191e-002,1.2254452e-001,0.0000000e+000,0.0000000e+000,-8.7091722e-003,8.8114778e-002,-1.6262266e-001,2.2941151e-002,1.1008470e-001,6.5800358e-003,-8.6318453e-002,-7.6250889e-003,-4.3048523e-003,-5.4743824e-002,-1.7823587e-002,-3.6873604e-003,4.6036776e-002,-1.5560310e-002,0.0000000e+000,0.0000000e+000,-9.3445613e-002,-3.6383251e-002,-1.0860304e-001,2.5756810e-002,-1.9452661e-001,6.0999722e-002,9.8075721e-002,1.4618151e-003,6.4307102e-002,-1.6366381e-002,8.3006582e-002,-1.4581448e-001,-5.3281085e-003,6.1222684e-002,0.0000000e+000,0.0000000e+000,7.8785481e-004,2.3229377e-002,-1.1621098e-003,-1.0639493e-002,-5.4509341e-002,-8.5997936e-002,6.4220703e-002,4.3819480e-002,-1.4014604e-001,8.8451677e-002,6.8859147e-002,-8.7780991e-002,-1.8037637e-002,-2.1713771e-002,0.0000000e+000,0.0000000e+000,8.7569000e-002,9.8005409e-002,9.2041721e-002,-1.5430896e-001,8.8457171e-002,1.4055222e-002,-1.1189134e-001,6.1512303e-002,4.9173998e-002,-4.1471559e-002,5.7166191e-002,2.9289715e-002,-1.1498453e-002,-6.6032961e-002,0.0000000e+000,0.0000000e+000,-3.5543687e-002,-2.3409528e-002,-3.6342095e-002,-6.9725297e-002,7.9812820e-003,9.9632275e-002,2.0423423e-002,-2.1316241e-002,1.4169336e-001,-4.2118341e-002,-2.0270854e-001,1.6066657e-001,-5.9019941e-003,1.3819163e-001,0.0000000e+000,0.0000000e+000,-1.0244829e-001,4.9222575e-002,
,418,8.2291122e-002,-1.0108021e-001,3.5359635e-002,-2.9652564e-002,2.9669459e-001,9.0170615e-002,-1.4336561e-001,1.3019437e-001,-1.9196890e-001,3.8930434e-002,9.0937264e-002,-6.4981035e-002,0.0000000e+000,0.0000000e+000,-1.3011943e-001,5.5756525e-002,6.7720040e-002,-8.5709381e-002,-2.1024845e-002,8.4534787e-002,-5.4007310e-002,8.8356121e-002,5.7938074e-002,-2.2302129e-001,-2.6466715e-002,2.4527318e-002,-2.9788423e-002,6.6090522e-003,0.0000000e+000,0.0000000e+000,-7.1588652e-002,-3.1795743e-002,-6.9760840e-002,-6.8008147e-002,-5.2748158e-002,9.1928186e-002,-1.0017338e-001,1.3197442e-001,-7.2199636e-002,-2.6973201e-002,-1.2015583e-002,2.1255971e-002,-2.1566596e-003,-2.7863317e-002,0.0000000e+000,0.0000000e+000,-9.8990644e-002,-2.1235766e-002,-5.2147118e-002,-9.2504617e-002,-3.9342282e-002,2.0368453e-002,9.3362086e-003,5.4943910e-002,5.9734610e-002,-3.2433269e-002,-4.8896332e-002,1.1080134e-002,-4.5410501e-002,-1.0870052e-002,0.0000000e+000,0.0000000e+000,-4.6408671e-002,1.7793442e-004,8.0115038e-002,-8.9299833e-002,-1.5416280e-002,-1.2755115e-001,-1.3301688e-001,1.1619616e-002,1.2929760e-001,5.1743532e-002,3.0434971e-002,-2.3120576e-002,-6.6435470e-002,-1.4736693e-001,0.0000000e+000,0.0000000e+000,-1.9732264e-002,5.3673078e-003,1.4790496e-001,-8.4620903e-002,2.1872326e-003,-6.9996688e-003,-4.4602662e-002,1.3736854e-002,8.6443471e-002,-2.7927202e-002,1.8489227e-002,3.6608979e-002,-1.1434330e-002,-4.8656583e-002,0.0000000e+000,0.0000000e+000,5.1257772e-002,-1.0053167e-001,-8.2043420e-002,1.1524754e-001,-1.5975581e-001,4.4123346e-002,9.9285756e-002,2.3152206e-002,-5.7139837e-003,-4.9822971e-002,-3.5052724e-002,-3.5022812e-002,-5.4815232e-002,1.7903042e-001,0.0000000e+000,0.0000000e+000,4.4721145e-002,-3.7511867e-002,-8.5526258e-002,1.3295290e-001,-3.1006144e-002,-1.2760861e-001,1.8784564e-001,-1.3478209e-001,-2.0785505e-002,-8.2527816e-002,-8.0910570e-003,1.8579589e-001,2.4977089e-002,-1.3045025e-002,0.0000000e+000,0.0000000e+000,-4.0638206e-002,-6.0548878e-002,-5.0157477e-002,4.1579355e-003,1.2104655e-001,-4.2478483e-003,-3.7257533e-002,3.4038895e-002,-1.7744658e-002,-6.5458025e-002,8.1155228e-002,-1.8694350e-002,-1.6766754e-002,-1.1845574e-001,0.0000000e+000,0.0000000e+000,-3.3343120e-002,9.0270947e-002,5.3518903e-002,-5.7777535e-002,4.5214349e-002,9.2824660e-002,3.3703775e-003,-6.4382800e-002,2.2285488e-002,9.1145742e-002,-1.4148206e-001,-6.0471547e-002,2.3786333e-003,-3.7141035e-002,0.0000000e+000,0.0000000e+000,-1.6685723e-002,3.4221329e-002,
,430,1.2712872e-002,-3.9296810e-001,1.5021214e-001,1.0833318e-002,3.8702432e-002,4.7906941e-001,-2.7525577e-002,-4.8792119e-003,4.4052514e-002,-3.8773465e-001,2.8674319e-002,4.1976400e-002,0.0000000e+000,0.0000000e+000,6.2598463e-002,1.5091211e-001,7.5847236e-002,-1.2133129e-001,-1.2290921e-001,2.6424232e-001,-6.4292856e-002,1.3295345e-001,6.0488483e-002,-2.5221556e-001,3.0233977e-004,-1.8678151e-001,5.4603159e-002,1.0822058e-001,0.0000000e+000,0.0000000e+000,3.7836597e-002,8.9497818e-002,3.9348652e-003,-1.2923211e-001,7.3459207e-003,-1.1361438e-001,4.2826949e-002,9.9965147e-002,-6.3227593e-002,1.6155121e-001,-1.9250806e-001,-5.6482628e-002,3.6231054e-002,-1.3236991e-001,0.0000000e+000,0.0000000e+000,3.1435356e-002,4.0864688e-002,-9.0898618e-003,-6.5604391e-002,-1.6681153e-002,1.3143396e-001,1.1174933e-001,-2.7204456e-002,-3.8295676e-003,-1.2136583e-001,7.1969015e-002,-3.8145202e-002,6.7023295e-002,7.1580234e-002,0.0000000e+000,0.0000000e+000,-4.0620743e-002,6.1804706e-002,8.1275957e-002,-4.3655461e-002,5.3502884e-002,-6.6097517e-002,-1.7741760e-002,-3.9783845e-002,-5.2154447e-002,-3.8689424e-002,1.2757757e-001,2.0071078e-002,5.0248091e-002,4.0790110e-002,0.0000000e+000,0.0000000e+000,-1.1620389e-001,-5.2735098e-002,-1.4148710e-001,-2.4232995e-002,7.3890385e-002,-3.1834357e-002,1.3222758e-002,1.0164231e-001,-1.0323016e-001,1.8249497e-001,1.2347056e-001,2.9908752e-002,-1.7991154e-001,-1.2781353e-001,0.0000000e+000,0.0000000e+000,4.9145772e-002,-1.7121430e-001,-1.5674920e-001,-1.0740019e-001,-6.0408109e-002,-1.4480800e-001,1.2493422e-002,1.2141988e-002,1.2809939e-001,-8.2491796e-002,4.5893317e-002,8.3184548e-002,-1.5708336e-001,1.2766654e-001,0.0000000e+000,0.0000000e+000,-1.5914343e-001,-9.2853911e-002,-1.1346509e-001,-3.4897211e-002,-1.5639824e-001,1.0606128e-001,-2.1066561e-002,1.4868821e-001,1.9268682e-001,-9.8245617e-002,9.5979618e-002,-9.4291269e-002,6.3559533e-002,-8.8685251e-003,0.0000000e+000,0.0000000e+000,-6.3754141e-002,4.9030458e-002,7.3129498e-002,3.6082502e-002,-5.7122034e-003,1.1228917e-001,-1.2645086e-001,1.9829500e-002,6.1713406e-002,9.5976329e-003,6.4173421e-002,-1.0740993e-001,9.8057719e-003,6.9085074e-002,0.0000000e+000,0.0000000e+000,1.5914942e-001,1.3828042e-001,3.8823843e-002,6.1396232e-002,8.2525983e-002,-2.2696575e-002,5.3717973e-002,-2.0660768e-001,-5.1286292e-002,2.6484197e-002,-1.1385379e-001,2.2832833e-001,-1.4481054e-001,1.7181737e-001,0.0000000e+000,0.0000000e+000,-6.2461721e-002,-8.0245574e-002,
,442,-8.8738482e-002,3.7176382e-003,-3.0337163e-002,1.0625413e-001,-2.6245596e-002,-6.9007224e-002,2.5823538e-001,-2.4126809e-001,2.9454770e-001,-9.5700568e-002,-1.4034472e-001,1.2977434e-001,0.0000000e+000,0.0000000e+000,1.2116768e-001,-3.3650802e-002,1.2569476e-001,9.1475803e-002,1.9495494e-002,-5.9350369e-002,-1.1099609e-001,-9.6504841e-002,-1.0120587e-001,-4.2681814e-002,3.4994731e-002,4.9648867e-002,5.8752807e-002,4.4609603e-002,0.0000000e+000,0.0000000e+000,-1.0706741e-001,-5.1566328e-003,-2.9952528e-002,1.1933986e-001,-1.0650852e-001,2.1384339e-002,-2.3548121e-001,1.5395601e-002,-1.0476876e-001,6.8806347e-002,6.6937002e-002,-1.2660238e-001,9.3805785e-002,3.8166729e-002,0.0000000e+000,0.0000000e+000,-1.0356968e-001,3.3507155e-002,-1.0035583e-003,-4.1144603e-002,2.5400229e-002,-8.2675867e-002,1.5602812e-001,-4.7625398e-002,5.4246419e-002,-8.1579646e-002,-6.3512725e-002,2.4494245e-002,-1.5963457e-002,8.1860485e-002,0.0000000e+000,0.0000000e+000,2.1002204e-002,-2.9558132e-002,3.7356770e-002,-1.0406179e-001,3.4279627e-002,2.7166613e-002,7.5078450e-002,1.5036767e-001,-5.2783361e-002,-3.5951311e-002,-1.4011561e-001,1.7708766e-001,-1.8191007e-001,-1.9690248e-002,0.0000000e+000,0.0000000e+000,1.0623414e-001,-3.1768233e-002,1.5871109e-001,4.2562261e-002,-1.0730870e-001,2.6420441e-002,-2.3382035e-001,1.5604146e-002,6.1379497e-002,-1.5206541e-002,6.2391927e-002,-5.3786072e-002,-1.2788029e-001,2.1858198e-002,0.0000000e+000,0.0000000e+000,-5.7744558e-003,6.9200903e-002,-5.9059822e-002,6.1920755e-002,-1.7159927e-002,2.4731992e-002,-4.5691293e-002,-1.2140830e-003,-1.2288241e-001,5.3149873e-002,3.4185896e-002,-9.8586324e-002,1.4321082e-001,-1.2398371e-001,0.0000000e+000,0.0000000e+000,3.6877038e-002,-5.1874765e-002,-1.8476264e-001,7.9094852e-002,-1.3587035e-001,1.8525898e-001,1.8761977e-001,5.7780264e-002,9.8852398e-002,-1.0667018e-001,-2.1311087e-001,-1.1677955e-001,-8.8097119e-003,-1.1619553e-001,0.0000000e+000,0.0000000e+000,-1.2725242e-002,1.4861654e-001,5.0418463e-002,-1.8182195e-001,1.4129346e-002,-1.0345772e-001,1.3690052e-002,1.7070679e-002,1.6063901e-001,3.7692328e-002,-1.0592984e-001,1.1526800e-001,1.6305471e-003,1.7407813e-001,0.0000000e+000,0.0000000e+000,-2.7106035e-001,1.1265771e-001,3.4921823e-002,1.8538143e-003,6.2142975e-002,-1.9539054e-002,-8.0798605e-002,-2.5353171e-003,5.0204918e-002,2.6867302e-002,2.1242218e-001,-3.2378290e-003,5.2933532e-002,-1.2775925e-002,0.0000000e+000,0.0000000e+000,-5.7487770e-002,-6.8189212e-002,
