  7.4621575e-002
 -3.3950761e-001
  1.2040086e-001
  1.8861954e-001
  1.3881491e-001
  1.3571665e-001
 -1.0930774e-001
 -1.4595121e-001
 -1.4123252e-001
 -1.4085696e-001
  2.5819294e-001
 -2.9332450e-002
  0.0000000e+000
  0.0000000e+000
 -1.4823119e-001
  5.6364110e-002
 -1.0853687e-001
 -1.0798542e-001
 -1.3819642e-001
  1.3505586e-001
  8.4109252e-002
  2.3256829e-001
  3.4265161e-002
 -2.6875133e-001
  7.2166211e-002
 -2.1835370e-001
  2.1331041e-001
 -4.0534955e-002
  0.0000000e+000
  0.0000000e+000
 -5.9183823e-002
  8.7377098e-003
 -2.4204038e-002
 -5.2775888e-002
 -9.0033989e-002
 -7.3352805e-002
  3.0044237e-002
 -2.5002175e-002
  1.5160469e-001
 -4.2277252e-002
 -3.1431006e-002
 -3.8723184e-002
 -1.3629702e-001
  7.3261613e-002
  0.0000000e+000
  0.0000000e+000
  1.7812880e-001
 -8.8457249e-002
  1.4104750e-001
 -2.8434442e-002
  1.6663102e-001
 -1.6708801e-001
  9.2505072e-002
 -1.4017409e-001
 -1.2345573e-002
 -1.7945774e-002
 -5.4646422e-002
  5.6465906e-002
 -7.4111512e-002
 -6.9176581e-002
  0.0000000e+000
  0.0000000e+000
  5.1776741e-003
 -9.9262486e-003
  1.2526614e-001
 -2.9856997e-001
 -4.1906903e-004
  1.6911684e-001
 -9.7423024e-002
 -3.4643118e-002
  4.0282383e-002
 -2.1294371e-001
 -2.4370407e-001
  1.9021973e-001
  3.1756649e-002
  4.7661030e-002
  0.0000000e+000
  0.0000000e+000
 -3.0596213e-001
  1.1914853e-001
 -1.7264306e-001
 -5.7516739e-003
  4.6288312e-002
  9.1283769e-003
  8.2919668e-003
  6.5061224e-002
 -2.0107743e-002
  4.7402101e-002
  2.8042113e-002
  1.5860726e-001
 -1.4248619e-001
  1.5396624e-001
  0.0000000e+000
  0.0000000e+000
 -1.1362901e-002
 -4.6863056e-002
  1.3440601e-001
  9.4715855e-002
  6.5988218e-002
 -1.2535627e-001
  5.9968599e-002
 -1.6087224e-001
  1.7976657e-002
  2.9770814e-001
  4.3518386e-002
 -8.0464248e-002
  1.7837061e-002
 -5.5273233e-002
  0.0000000e+000
  0.0000000e+000
 -4.6140869e-003
 -6.7763150e-003
  1.5208680e-002
 -5.9713685e-002
 -1.0952855e-001
  2.1041449e-001
 -2.6211201e-002
  1.9439403e-001
 -1.9104607e-002
  2.8575816e-002
 -1.1871440e-001
 -1.9945948e-001
  1.8955462e-001
 -6.0513400e-002
  0.0000000e+000
  0.0000000e+000
 -2.8880630e-002
  3.0305533e-001
 -1.4659386e-001
 -1.7125627e-001
 -9.1004450e-003
  1.4361050e-002
 -5.1366387e-002
  4.6938189e-002
  1.9816546e-001
 -3.2473731e-001
 -1.1958084e-001
  9.4418453e-002
 -4.7944839e-002
 -1.7910053e-002
  0.0000000e+000
  0.0000000e+000
  1.7377376e-002
  4.3497733e-002
 -1.0662215e-001
  2.6238675e-001
 -6.4464061e-002
 -5.9608412e-002
 -3.1093431e-002
 -5.8894939e-002
 -3.9873033e-002
 -5.7467396e-002
  1.7922410e-001
 -6.8897247e-003
  2.5660444e-002
 -1.0944916e-001
  0.0000000e+000
  0.0000000e+000
  7.7437034e-002
 -1.7009305e-001
