0.000000, 0.000000, 0.000000, 0.000000, 0.000000, 0.000000, 0.000000, 0.000000, 0.000000, 0.000000, 0.000000, 0.000000, 0.000000, 0.000000, 0.000000, 0.000000, 0.000000, 0.000000, 0.000000, 0.000000, 0.000000, 0.000000, 0.000000, 0.000000, 0.000000, 0.000000, 0.000000, 0.000000, 0.000000, 0.000000, 0.000000, 0.000000, 0.000000, 0.000000, 0.000000, 0.000000, 0.000000, 0.000000, 0.000000, 0.000000, 0.000000, 0.000000, 0.000000, 0.000000, 0.000000, 0.000000, 0.000000, 0.000000, 0.000000, 0.000000, 0.000000, 0.000000, 0.000000, 0.000000, 0.000000, 0.000000, 0.000000, 0.000000, 0.000000, 0.000000, 0.000000, 0.000000, 0.000000, 0.000000, 0.000000, 0.000000, 0.000000, 0.000000, 0.000000, 0.000000, 0.000000, 0.000000, 0.000000, 0.000000, 0.000000, 0.000000, 0.000000, 0.000000, 0.000000, 0.000000, 0.000000, 0.000000, 0.000000, 0.000000, 0.000000, 0.000000, 0.000000, 0.000000, 0.000000, 0.000000, 0.000000, 0.000000, 0.000000, 0.000000, 0.000000, 0.000000, 0.000000, 0.000000, 0.000000, 0.000000, 0.000000, 0.000000, 0.000000, 0.000000, 0.000000, 0.000000, 0.000000, 0.000000, 0.000000, 0.000000, 0.000000, 0.000000, 0.000000, 0.000000, 0.000000, 0.000000, 0.000000, 0.000000, 0.000000, 0.000000, 0.000000, 0.000000, 0.000000, 0.000000, 0.000000, 0.000000, 0.000000, 0.000000, 0.000000, 0.000000, 0.000000, 0.000000, 0.000000, 0.000000, 0.000000, 0.000000, 0.000000, 0.000000, 0.000000, 0.000000, 0.000000, 0.000000, 0.000000, 0.000000, 0.000000, 0.000000, 0.000000, 0.000000, 0.000000, 0.000000, 0.000000, 0.000000, 0.000000, 0.000000, 0.000000, 0.000000, 0.000000, 0.000000, 0.000000, 0.000000, 
0.021674, 0.000000, -0.023501, 0.000000, 0.000000, 0.000000, 0.000000, 0.000000, 0.000000, 0.000000, 0.000000, -0.011254, 0.000000, 0.000000, 0.000000, -0.033825, 0.021732, 0.004737, 0.013513, 0.000000, 0.000000, 0.000000, -0.029037, 0.000000, 0.000000, 0.011710, 0.000000, -0.029023, 0.000000, 0.000000, 0.025470, -0.011222, -0.016244, 0.019217, -0.021851, 0.031250, 0.005076, 0.008971, 0.003421, -0.025829, 0.022457, -0.030107, -0.012987, 0.002477, 0.000000, 0.000000, 0.004305, -0.004207, -0.048848, 0.000000, 0.000535, -0.019966, 0.011484, 0.041399, -0.058553, 0.028167, 0.023780, -0.008575, 0.032778, -0.017457, 0.000000, 0.000000, -0.024411, 0.010527, 0.021423, -0.021729, 0.022490, -0.007997, -0.073792, 0.018810, 0.041322, 0.007873, 0.018273, -0.045872, -0.020871, -0.013652, 0.000000, 0.000000, 0.014152, 0.019636, -0.003515, -0.011915, -0.000622, -0.023794, 0.000000, 0.000000, 0.000000, 0.001313, 0.006861, -0.008376, 0.000000, -0.015814, 0.000000, 0.000000, -0.012240, 0.025462, 0.022203, -0.027760, -0.106654, 0.041138, 0.000000, 0.000000, 0.000000, 0.000000, -0.012366, 0.049844, 0.027885, 0.010198, 0.000000, 0.000000, 0.018653, 0.003729, 0.000000, 0.013502, -0.064579, 0.005509, 0.000000, -0.009054, 0.038682, 0.037730, 0.000000, 0.000000, 0.016652, 0.044510, 0.000000, 0.000000, -0.003443, 0.000000, -0.020654, 0.039620, 0.037388, -0.005684, 0.000000, 0.005976, 0.003098, -0.045769, -0.033776, -0.003522, -0.051436, 0.012732, 0.000000, 0.000000, 0.001167, 0.010419, 0.000000, 0.000000, 0.000000, 0.010287, 0.000000, 0.000000, 0.000000, 0.000000, 0.000000, 0.000000, -0.032530, 0.000000, 0.000000, 0.000000, 0.000000, 0.005732, 
-0.003979, -0.008315, -0.003125, 0.052421, 0.028598, 0.000000, 0.000000, 0.000000, 0.000000, 0.000000, 0.034318, -0.054089, 0.000000, 0.000000, 0.000000, -0.043469, -0.026303, 0.004263, 0.012162, 0.026243, 0.023554, 0.000000, -0.029648, -0.017025, 0.029758, -0.013125, 0.000000, -0.026517, 0.000000, 0.000000, 0.020193, -0.011635, -0.012402, 0.003098, 0.000854, 0.053620, -0.012342, 0.008074, -0.014790, -0.066222, -0.001949, -0.002495, -0.025755, 0.021124, 0.000000, 0.000000, 0.013756, -0.012174, -0.031494, 0.002692, 0.006658, -0.014919, -0.030706, 0.071872, -0.120345, 0.060158, 0.020851, 0.001609, 0.048299, -0.028062, 0.000000, 0.000000, 0.005323, -0.011925, 0.044880, -0.038176, 0.030133, -0.041232, -0.102932, 0.016929, 0.081845, -0.008602, 0.069604, -0.107037, -0.018924, 0.054766, 0.000000, 0.000000, 0.031922, 0.059980, -0.003164, -0.026382, 0.023578, -0.017397, 0.017092, 0.009092, 0.018994, 0.037827, 0.018348, -0.049990, -0.013345, -0.023290, 0.000000, 0.000000, -0.010387, -0.018725, -0.007100, 0.025364, -0.122070, 0.056438, 0.000000, -0.027140, -0.030028, -0.003649, -0.003651, 0.084021, 0.033212, 0.004430, 0.000000, 0.000000, -0.010961, -0.041656, -0.017209, -0.037548, -0.029083, -0.029278, 0.039710, 0.051316, 0.034814, 0.031445, 0.007496, -0.002518, 0.027339, 0.052338, 0.000000, 0.000000, -0.060534, 0.050214, -0.031365, 0.004602, 0.033649, -0.021304, 0.016636, -0.017384, 0.018016, -0.041193, 0.026587, -0.001530, -0.032015, 0.039642, 0.000000, 0.000000, -0.009681, -0.013949, -0.014765, 0.000271, -0.003909, -0.011103, 0.000000, 0.000000, -0.027936, 0.025855, -0.036814, 0.000000, -0.060983, -0.033563, 0.000000, 0.000000, 0.000000, 0.005159, 
-0.000261, -0.007483, -0.052631, 0.047179, 0.025739, 0.000000, 0.000000, 0.000000, 0.000000, 0.062877, 0.030886, -0.041707, 0.000000, 0.000000, -0.040593, -0.098676, 0.046516, 0.003837, 0.017788, 0.023619, 0.021199, 0.000000, -0.026684, -0.019796, 0.009628, -0.158408, -0.027239, -0.023865, 0.000000, 0.000000, 0.098537, 0.100281, -0.014168, -0.093585, 0.037443, 0.069387, 0.033166, 0.007266, -0.093957, -0.070708, 0.019413, -0.066031, 0.003652, 0.051149, 0.000000, 0.000000, -0.064628, -0.005919, -0.109702, 0.098148, -0.011729, 0.021518, -0.027636, -0.022357, -0.088237, 0.068232, -0.024051, 0.111187, 0.113245, -0.165104, 0.000000, 0.000000, -0.051842, -0.001915, 0.024939, -0.004822, -0.010081, -0.010061, -0.092639, 0.042618, 0.073660, -0.091722, 0.085142, -0.139815, -0.078831, 0.065271, 0.000000, 0.000000, 0.065678, 0.102586, -0.092862, 0.000350, -0.005858, -0.098668, 0.049913, -0.048276, 0.117558, 0.080210, 0.016513, 0.016500, -0.183586, 0.001714, 0.000000, 0.000000, 0.048291, -0.072450, -0.022747, -0.064669, -0.070513, -0.056185, 0.061380, -0.024426, 0.008640, 0.115131, -0.039807, 0.122225, -0.018950, 0.121137, 0.000000, 0.000000, -0.002756, -0.100388, -0.015488, 0.068950, -0.051323, 0.055003, 0.035739, -0.022911, 0.078831, 0.028300, 0.115073, 0.073293, -0.025685, 0.045358, 0.000000, 0.000000, -0.108252, -0.034451, 0.033137, -0.004020, 0.030284, -0.019174, -0.063140, -0.015645, 0.108060, -0.037073, -0.023159, -0.096553, -0.028814, -0.118385, 0.000000, 0.000000, -0.014313, 0.072459, 0.157569, -0.165336, 0.038633, -0.080908, 0.000000, 0.039058, -0.025143, 0.017411, -0.033133, 0.000000, -0.054885, 0.080287, 0.000000, 0.000000, 0.000000, 0.004643, 
0.003085, -0.006735, -0.097186, 0.042461, 0.023165, 0.000000, 0.000000, 0.000000, 0.000000, 0.119467, 0.027797, -0.030563, 0.000000, 0.000000, -0.077126, -0.148363, 0.112054, 0.003453, 0.022852, 0.021257, 0.019079, 0.000000, -0.024015, -0.022289, -0.008488, -0.289163, -0.051753, -0.021479, 0.000000, 0.000000, 0.169046, 0.201005, -0.015757, -0.180600, 0.070373, 0.083577, 0.074123, 0.006540, -0.165208, -0.074746, 0.038639, -0.123214, 0.030117, 0.078172, 0.000000, 0.000000, -0.135175, -0.000289, -0.180090, 0.184059, -0.028277, 0.054311, -0.024872, -0.107164, -0.059340, 0.075499, -0.064462, 0.209808, 0.171696, -0.288442, 0.000000, 0.000000, -0.103291, 0.007094, 0.006991, 0.025196, -0.046274, 0.017994, -0.083375, 0.065738, 0.066294, -0.166529, 0.099126, -0.169315, -0.132747, 0.074726, 0.000000, 0.000000, 0.096059, 0.140931, -0.173590, 0.024409, -0.032350, -0.171812, 0.079452, -0.099906, 0.206265, 0.118355, 0.014862, 0.076340, -0.336803, 0.024217, 0.000000, 0.000000, 0.101100, -0.120803, -0.036830, -0.145698, -0.024111, -0.157546, 0.116623, -0.021983, 0.043441, 0.222033, -0.072347, 0.156609, -0.065896, 0.226173, 0.000000, 0.000000, 0.004628, -0.153247, -0.013940, 0.164798, -0.071339, 0.130856, 0.032165, -0.089715, 0.118447, 0.025470, 0.211892, 0.141524, -0.073407, 0.039077, 0.000000, 0.000000, -0.151197, -0.110649, 0.091190, -0.011780, 0.027256, -0.017257, -0.134939, -0.014081, 0.189099, -0.033366, -0.067931, -0.182074, -0.025932, -0.260609, 0.000000, 0.000000, -0.018482, 0.150227, 0.312669, -0.314381, 0.076921, -0.143733, 0.000000, 0.074209, -0.022628, 0.009811, -0.029820, 0.000000, -0.049396, 0.182751, 0.000000, 0.000000, 0.000000, 0.004178, 
0.009921, -0.017658, -0.086086, 0.045183, 0.011702, 0.002319, 0.007209, -0.010120, -0.002837, 0.107794, 0.021329, -0.019502, 0.000000, 0.000000, -0.074301, -0.126769, 0.105890, -0.006665, 0.028446, 0.015123, 0.013499, -0.010991, -0.021153, -0.027249, -0.003501, -0.252765, -0.048789, -0.013680, 0.000000, 0.000000, 0.152956, 0.177758, -0.012001, -0.166703, 0.058818, 0.075047, 0.064286, 0.016582, -0.150277, -0.070512, 0.036062, -0.114098, 0.028631, 0.071918, 0.000000, 0.000000, -0.124263, -0.003326, -0.165202, 0.166166, -0.026973, 0.050981, -0.022462, -0.089466, -0.045852, 0.072321, -0.055093, 0.183222, 0.150263, -0.254827, 0.000000, 0.000000, -0.091793, 0.007186, 0.009803, 0.018571, -0.035046, 0.019877, -0.079720, 0.055313, 0.060124, -0.149462, 0.090523, -0.153248, -0.116529, 0.065165, 0.000000, 0.000000, 0.081119, 0.131405, -0.148676, 0.025170, -0.020164, -0.148406, 0.056111, -0.083358, 0.177642, 0.107582, 0.007100, 0.071490, -0.304242, 0.022386, 0.000000, 0.000000, 0.098859, -0.112252, -0.025138, -0.134212, -0.027219, -0.137281, 0.099444, -0.016636, 0.040574, 0.195762, -0.070374, 0.135612, -0.059269, 0.202321, 0.000000, 0.000000, 0.010927, -0.144262, -0.017822, 0.151803, -0.065703, 0.112819, 0.042758, -0.084368, 0.105636, 0.031398, 0.200217, 0.124761, -0.064205, 0.033917, 0.000000, 0.000000, -0.136327, -0.101119, 0.083265, -0.019908, 0.028601, -0.025630, -0.120826, -0.010359, 0.173348, -0.030679, -0.058289, -0.164495, -0.033970, -0.222647, 0.000000, 0.000000, -0.030728, 0.145549, 0.273971, -0.287847, 0.078081, -0.131459, -0.011158, 0.070495, -0.016611, 0.012840, -0.030170, 0.002931, -0.049209, 0.161447, 0.000000, 0.000000, 0.002197, -0.003032, 
-0.020681, -0.015892, -0.051571, 0.040665, 0.000854, 0.002087, 0.006488, -0.006532, -0.002553, 0.097015, 0.056775, -0.065966, 0.000000, 0.000000, -0.066871, -0.110721, 0.051581, 0.051683, 0.025601, -0.015895, 0.012149, -0.009892, -0.019038, 0.065735, 0.046641, -0.274457, -0.043911, -0.010164, 0.000000, 0.000000, 0.141990, 0.171213, -0.018520, -0.122556, -0.007215, 0.088725, 0.103926, 0.005247, -0.107000, -0.053091, -0.002124, -0.053572, -0.047673, 0.081452, 0.000000, 0.000000, -0.116151, 0.004984, -0.085469, 0.074373, 0.005344, 0.055555, -0.018290, -0.057639, -0.049450, 0.054269, -0.057294, 0.162515, 0.129499, -0.227471, 0.000000, 0.000000, -0.086786, 0.020892, 0.047116, -0.003951, 0.014224, 0.026254, -0.156318, 0.064920, 0.049651, -0.152921, 0.139182, -0.152178, -0.068035, 0.045872, 0.000000, 0.000000, 0.046471, 0.116894, -0.167545, 0.042188, -0.029713, -0.165311, 0.050500, -0.086812, 0.191513, 0.086032, 0.046244, 0.045401, -0.281617, -0.006151, 0.000000, 0.000000, 0.120106, -0.135288, 0.017525, -0.120791, -0.032298, -0.123553, 0.089499, -0.014972, 0.014582, 0.142595, -0.053663, 0.122051, -0.055708, 0.194723, 0.000000, 0.000000, 0.024276, -0.079506, -0.034680, 0.136623, -0.044199, 0.120172, 0.088844, -0.107247, 0.086554, -0.008024, 0.156000, 0.134179, -0.057784, 0.067683, 0.000000, 0.000000, -0.071924, -0.073866, 0.041485, -0.042145, 0.027839, -0.023067, -0.028802, -0.082369, 0.151191, -0.027611, -0.052460, -0.173176, -0.064097, -0.172132, 0.000000, 0.000000, -0.043756, 0.117784, 0.208185, -0.250829, 0.086913, -0.113631, -0.010042, 0.085331, -0.014950, 0.032464, -0.061698, 0.001859, -0.017777, 0.122238, 0.000000, 0.000000, 0.001977, -0.002729, 
0.014927, -0.014303, -0.032144, 0.036598, 0.000769, 0.001879, 0.005840, -0.005878, -0.002298, 0.087313, 0.051098, -0.090429, 0.000000, 0.000000, -0.074258, -0.117877, 0.046423, 0.046514, 0.023041, 0.014809, -0.005451, -0.005060, -0.080564, 0.059162, 0.041977, -0.247012, -0.039519, 0.016189, 0.000000, 0.000000, 0.175529, 0.160020, -0.018663, -0.095107, -0.029992, 0.081707, 0.110147, 0.018265, -0.085100, -0.041883, -0.001912, -0.093733, -0.033263, 0.061655, 0.000000, 0.000000, -0.153971, 0.065363, -0.076503, 0.066791, -0.064591, 0.072207, -0.021792, -0.069347, 0.049499, 0.002973, -0.039461, 0.180544, 0.048687, -0.174002, 0.000000, 0.000000, -0.090345, 0.009262, 0.071611, 0.014121, -0.015497, 0.023628, -0.140687, 0.058428, 0.060876, -0.157530, 0.085880, -0.023704, -0.084527, 0.061390, 0.000000, 0.000000, 0.003175, 0.078972, -0.150790, 0.090991, 0.003967, -0.165604, 0.045450, -0.078131, 0.172362, 0.081098, 0.041619, -0.002519, -0.253455, -0.014713, 0.000000, 0.000000, 0.115572, -0.182673, -0.079417, -0.108712, -0.029068, -0.121774, 0.080549, -0.021513, 0.013124, 0.113022, -0.042128, 0.077945, -0.015355, 0.142816, 0.000000, 0.000000, 0.088132, -0.079597, -0.000051, 0.122961, -0.033553, 0.115417, 0.079959, -0.109849, 0.094322, -0.022736, 0.140400, 0.120761, -0.025264, 0.045431, 0.000000, 0.000000, -0.119128, -0.042845, 0.034843, -0.040692, 0.025055, -0.020760, -0.025922, -0.055853, 0.136072, -0.024850, -0.047214, -0.113652, -0.044820, -0.154919, 0.000000, 0.000000, -0.039380, 0.106006, 0.187367, -0.214362, 0.116506, -0.079541, -0.019543, 0.118134, -0.013455, -0.018560, -0.030195, 0.001673, -0.015999, 0.134176, 0.000000, 0.000000, 0.001779, -0.002456, 
0.016896, -0.027522, -0.024156, 0.040239, 0.004494, 0.005924, 0.014650, -0.017973, 0.005914, 0.088112, 0.045172, -0.077919, 0.000000, 0.000000, -0.071605, -0.124462, 0.061329, 0.044832, 0.013361, 0.008494, -0.018062, -0.025314, -0.055704, 0.038274, 0.037478, -0.208966, -0.045401, 0.023253, 0.000000, 0.000000, 0.160322, 0.147365, -0.017757, -0.094530, -0.024700, 0.072457, 0.091448, 0.016626, -0.076030, -0.034050, -0.002225, -0.086910, -0.032014, 0.048622, 0.000000, 0.000000, -0.139481, 0.064230, -0.067940, 0.060784, -0.054856, 0.071422, -0.012091, -0.065179, 0.048611, -0.003053, -0.036299, 0.158070, 0.037370, -0.156297, 0.000000, 0.000000, -0.076071, 0.014023, 0.068807, -0.013363, -0.006903, 0.011287, -0.136877, 0.071128, 0.053378, -0.140381, 0.067976, -0.019903, -0.080209, 0.053903, 0.000000, 0.000000, -0.002081, 0.073401, -0.130553, 0.099735, -0.005976, -0.142545, 0.035357, -0.083860, 0.165150, 0.068206, 0.043930, 0.005031, -0.239365, -0.014737, 0.000000, 0.000000, 0.107670, -0.154090, -0.080144, -0.093808, -0.030823, -0.107110, 0.061480, -0.016646, 0.000027, 0.091364, -0.038770, 0.081847, -0.017633, 0.126329, 0.000000, 0.000000, 0.074584, -0.075431, -0.010089, 0.103816, -0.027126, 0.105529, 0.081081, -0.093034, 0.073665, -0.006329, 0.129264, 0.112598, -0.016910, 0.032367, 0.000000, 0.000000, -0.127608, -0.043089, 0.040037, -0.041015, 0.018587, -0.013086, -0.023639, -0.035829, 0.134191, -0.007892, -0.034190, -0.111699, -0.040093, -0.152853, 0.000000, 0.000000, -0.023248, 0.090583, 0.172456, -0.194228, 0.107051, -0.072897, -0.026936, 0.111192, 0.005012, -0.012583, -0.019960, -0.014641, -0.026703, 0.129380, 0.000000, 0.000000, 0.004461, -0.003327, 
0.014185, -0.041365, -0.007404, 0.037098, 0.032092, 0.003018, 0.030503, -0.023383, -0.027929, 0.078513, 0.024721, -0.067236, 0.000000, 0.000000, -0.066662, -0.088066, 0.066947, 0.048373, -0.002728, 0.014265, -0.023386, -0.030101, -0.049445, 0.022851, 0.029892, -0.170934, -0.041807, 0.024859, 0.000000, 0.000000, 0.129172, 0.126052, -0.017268, -0.083752, -0.008191, 0.050882, 0.080264, 0.030484, -0.077285, -0.026418, -0.008003, -0.087549, -0.019922, 0.034099, 0.000000, 0.000000, -0.142093, 0.074193, -0.053038, 0.055910, -0.048823, 0.062115, -0.017204, -0.062138, 0.034838, 0.011087, -0.029464, 0.155972, 0.028160, -0.142678, 0.000000, 0.000000, -0.068244, 0.010282, 0.059362, -0.008186, -0.010601, 0.022807, -0.123204, 0.056360, 0.048081, -0.134405, 0.055808, -0.013788, -0.078884, 0.052854, 0.000000, 0.000000, -0.006637, 0.067726, -0.136796, 0.091543, -0.005046, -0.133153, 0.035608, -0.057244, 0.149126, 0.083223, 0.033864, -0.005197, -0.231840, -0.014545, 0.000000, 0.000000, 0.090327, -0.140547, -0.064631, -0.088395, -0.024620, -0.102763, 0.037128, -0.005602, 0.007156, 0.070523, -0.013942, 0.061565, -0.022054, 0.117471, 0.000000, 0.000000, 0.065079, -0.075522, -0.013060, 0.101612, -0.029716, 0.108836, 0.082253, -0.100566, 0.077723, -0.002835, 0.112286, 0.109589, -0.005042, 0.030701, 0.000000, 0.000000, -0.119461, -0.013575, 0.028201, -0.029762, 0.004197, -0.007695, -0.023337, -0.019039, 0.127734, -0.006815, -0.043626, -0.092359, -0.050413, -0.156863, 0.000000, 0.000000, -0.015730, 0.090069, 0.163699, -0.179918, 0.111906, -0.073867, -0.027314, 0.097385, -0.010506, -0.002499, -0.016663, 0.002465, -0.037875, 0.103707, 0.000000, 0.000000, 0.011009, -0.018708, 
0.011772, -0.041496, -0.006283, 0.022554, 0.044297, -0.002985, 0.031059, -0.003539, -0.040399, 0.062096, 0.025520, -0.063573, 0.000000, 0.000000, -0.056731, -0.067070, 0.071757, 0.022586, 0.034924, -0.014336, -0.037068, -0.016758, -0.046983, 0.018625, 0.018609, -0.130015, -0.058444, 0.036117, 0.000000, 0.000000, 0.106601, 0.114451, -0.006699, -0.075020, -0.016483, 0.048839, 0.055931, 0.028790, -0.068571, -0.031286, -0.005264, -0.078093, -0.019366, 0.034941, 0.000000, 0.000000, -0.136761, 0.067178, -0.050150, 0.058959, -0.057274, 0.066537, -0.016175, -0.054940, 0.034959, -0.002041, -0.033525, 0.134066, 0.024801, -0.130345, 0.000000, 0.000000, -0.061697, 0.018938, 0.053770, -0.020615, -0.009973, 0.018990, -0.108431, 0.049939, 0.047239, -0.119247, 0.050571, -0.004526, -0.064310, 0.051820, 0.000000, 0.000000, -0.021735, 0.058387, -0.128874, 0.078083, 0.001582, -0.122410, 0.034246, -0.051064, 0.146160, 0.084107, 0.037929, -0.001683, -0.226210, 0.001169, 0.000000, 0.000000, 0.090806, -0.142654, -0.055152, -0.079385, -0.014644, -0.092563, 0.030193, -0.012082, 0.007661, 0.064996, -0.009205, 0.055187, -0.022286, 0.097961, 0.000000, 0.000000, 0.059246, -0.074464, 0.000452, 0.099510, -0.020122, 0.093424, 0.073986, -0.101017, 0.065111, 0.011486, 0.091267, 0.097711, 0.000201, 0.029707, 0.000000, 0.000000, -0.111180, -0.004731, 0.031217, -0.044310, -0.003180, -0.021376, -0.030607, -0.018646, 0.117817, -0.011817, -0.039671, -0.082429, -0.047111, -0.136089, 0.000000, 0.000000, -0.023753, 0.091299, 0.154126, -0.173686, 0.098614, -0.053875, -0.042344, 0.103705, 0.001252, -0.023499, -0.010144, -0.002856, -0.031827, 0.087739, 0.000000, 0.000000, 0.011645, -0.031556, 
0.013005, -0.036961, -0.014315, 0.030982, 0.062162, -0.005806, 0.019976, -0.006660, -0.051640, 0.086733, 0.034587, -0.065099, 0.000000, 0.000000, -0.072948, -0.058788, 0.075015, 0.000390, 0.054851, -0.021541, -0.043925, -0.001077, -0.035897, -0.001981, 0.029937, -0.133835, -0.050866, 0.041129, 0.000000, 0.000000, 0.096827, 0.108523, -0.009125, -0.072672, -0.017697, 0.045457, 0.044220, 0.046704, -0.065650, -0.008605, -0.013379, -0.071690, -0.026337, 0.019627, 0.000000, 0.000000, -0.126124, 0.065243, -0.044748, 0.051638, -0.052232, 0.069983, 0.001222, -0.055985, 0.034337, -0.000408, -0.035000, 0.127830, 0.019630, -0.117211, 0.000000, 0.000000, -0.055675, 0.003982, 0.044352, -0.017422, -0.010636, 0.017676, -0.095705, 0.045854, 0.025775, -0.097297, 0.033328, 0.001197, -0.059279, 0.037578, 0.000000, 0.000000, -0.010470, 0.060459, -0.101969, 0.056925, 0.003562, -0.110288, 0.004028, -0.045008, 0.132110, 0.070904, 0.033676, 0.011116, -0.208584, 0.002667, 0.000000, 0.000000, 0.081333, -0.126926, -0.033236, -0.082157, -0.018172, -0.070516, 0.008353, -0.010853, 0.011952, 0.027574, 0.005038, 0.032451, -0.007407, 0.073052, 0.000000, 0.000000, 0.053609, -0.059870, -0.023808, 0.096979, -0.026024, 0.089637, 0.087246, -0.094713, 0.057176, 0.001423, 0.079372, 0.094269, 0.008037, 0.052530, 0.000000, 0.000000, -0.104831, -0.012009, 0.026605, -0.045350, -0.008599, -0.018092, -0.043222, -0.019023, 0.108202, -0.012660, -0.029171, -0.065028, -0.043467, -0.102850, 0.000000, 0.000000, -0.028621, 0.060539, 0.145201, -0.145774, 0.097967, -0.046689, -0.041483, 0.088183, 0.002079, -0.004941, -0.006226, 0.006970, -0.041452, 0.070431, 0.000000, 0.000000, 0.013919, -0.025068, 
0.003800, -0.030800, -0.018120, 0.051428, 0.052895, 0.010840, 0.010422, -0.016691, -0.037899, 0.071095, 0.030328, -0.060507, 0.000000, 0.000000, -0.065947, -0.053143, 0.071533, -0.008855, 0.058134, -0.024395, -0.028291, -0.010016, -0.033609, -0.008062, 0.023154, -0.113963, -0.054855, 0.054151, 0.000000, 0.000000, 0.093405, 0.093000, -0.005083, -0.067316, -0.011740, 0.037603, 0.033598, 0.043507, -0.061637, -0.003143, -0.013192, -0.069984, -0.021945, 0.010555, 0.000000, 0.000000, -0.116759, 0.065581, -0.042454, 0.053284, -0.057321, 0.065584, 0.004788, -0.048514, 0.039707, -0.007185, -0.035906, 0.120749, 0.013886, -0.097158, 0.000000, 0.000000, -0.051840, 0.004634, 0.039412, -0.023077, -0.013910, 0.007498, -0.103051, 0.028981, 0.036158, -0.082174, 0.036085, 0.005044, -0.051882, 0.031782, 0.000000, 0.000000, -0.010123, 0.054301, -0.089884, 0.051270, 0.012204, -0.090292, 0.010671, -0.050318, 0.116144, 0.069493, 0.027443, 0.019506, -0.195472, 0.008534, 0.000000, 0.000000, 0.069535, -0.107848, -0.020436, -0.086017, -0.014673, -0.061780, 0.006634, -0.000555, 0.012086, 0.033396, 0.024844, 0.026063, -0.005355, 0.065610, 0.000000, 0.000000, 0.044939, -0.058844, -0.018919, 0.082029, -0.023775, 0.088654, 0.076355, -0.079690, 0.049274, 0.005483, 0.070850, 0.081584, 0.009595, 0.049319, 0.000000, 0.000000, -0.087055, -0.011387, 0.022897, -0.047960, -0.006069, -0.012284, -0.049385, -0.010399, 0.101907, -0.037493, -0.035293, -0.057378, -0.044226, -0.085682, 0.000000, 0.000000, -0.031557, 0.060544, 0.132247, -0.122874, 0.084235, -0.046816, -0.041610, 0.067690, 0.005168, 0.001815, -0.001357, 0.011951, -0.041474, 0.063486, 0.000000, 0.000000, 0.012751, -0.022690, 
0.013168, -0.063518, -0.010453, 0.043433, 0.026609, 0.057496, 0.003850, -0.006025, -0.048873, 0.059129, 0.019676, -0.056821, 0.000000, 0.000000, -0.061816, -0.028596, 0.073716, -0.003993, 0.067848, -0.036937, -0.036123, -0.021315, -0.026637, -0.004381, 0.021592, -0.080256, -0.057147, 0.056094, 0.000000, 0.000000, 0.076303, 0.084563, -0.002497, -0.067065, -0.008335, 0.035932, 0.014965, 0.040356, -0.053647, -0.001852, 0.000772, -0.064139, -0.025216, 0.018475, 0.000000, 0.000000, -0.112209, 0.052291, -0.037955, 0.044840, -0.054859, 0.067931, 0.006077, -0.036402, 0.041477, -0.010120, -0.031780, 0.110341, 0.002444, -0.078377, 0.000000, 0.000000, -0.041091, 0.000395, 0.039671, -0.035555, -0.016105, 0.002880, -0.097573, 0.027829, 0.040606, -0.067783, 0.036044, 0.000117, -0.051027, 0.020458, 0.000000, 0.000000, -0.011757, 0.050898, -0.087730, 0.052997, 0.007425, -0.073438, 0.005052, -0.053813, 0.097758, 0.069102, 0.017643, 0.019190, -0.171375, 0.002612, 0.000000, 0.000000, 0.064385, -0.079058, -0.015987, -0.071130, -0.024312, -0.042710, 0.002057, -0.005470, 0.024056, 0.022244, 0.020558, 0.034696, -0.011918, 0.066053, 0.000000, 0.000000, 0.026141, -0.045510, -0.017426, 0.086914, -0.014888, 0.069733, 0.071328, -0.072673, 0.048321, 0.010040, 0.078783, 0.081685, -0.001349, 0.055960, 0.000000, 0.000000, -0.083746, -0.017067, 0.017992, -0.058738, -0.005372, -0.024659, -0.040522, 0.000305, 0.092973, -0.036916, -0.027592, -0.053546, -0.067131, -0.069276, 0.000000, 0.000000, -0.021410, 0.048186, 0.124482, -0.121806, 0.068046, -0.034198, -0.045378, 0.063577, 0.013432, 0.010306, -0.016180, 0.014035, -0.044012, 0.054935, 0.000000, 0.000000, 0.019230, -0.015874, 
0.013711, -0.080665, -0.007860, 0.029925, 0.006238, 0.089563, -0.004920, 0.013289, -0.024419, 0.036570, 0.027691, -0.063520, 0.000000, 0.000000, -0.058116, -0.028890, 0.074534, -0.004372, 0.065192, -0.035318, -0.046596, -0.019740, -0.019580, -0.006421, 0.036099, -0.079255, -0.066335, 0.063032, 0.000000, 0.000000, 0.083448, 0.071884, -0.001529, -0.061698, -0.013490, 0.024624, 0.019087, 0.030820, -0.039178, -0.002314, -0.014016, -0.052373, -0.025075, 0.022382, 0.000000, 0.000000, -0.100959, 0.050665, -0.030703, 0.036411, -0.044761, 0.063437, 0.002428, -0.028239, 0.036542, -0.008244, -0.031453, 0.099873, -0.003907, -0.066506, 0.000000, 0.000000, -0.039335, 0.011377, 0.040104, -0.034781, -0.013401, -0.003365, -0.093296, 0.027471, 0.040564, -0.058716, 0.028777, 0.000321, -0.053680, 0.023868, 0.000000, 0.000000, -0.004938, 0.043950, -0.082979, 0.036747, 0.018331, -0.056387, 0.007952, -0.047765, 0.085946, 0.062849, 0.020933, 0.019075, -0.157082, -0.000726, 0.000000, 0.000000, 0.065461, -0.076637, -0.022174, -0.087633, -0.025617, -0.030330, -0.003583, 0.003203, 0.024396, 0.019309, 0.006662, 0.027296, -0.012342, 0.056761, 0.000000, 0.000000, 0.023278, -0.031358, -0.014191, 0.082223, -0.025678, 0.066347, 0.064275, -0.060083, 0.057712, 0.017734, 0.065788, 0.072902, -0.010614, 0.064630, 0.000000, 0.000000, -0.061329, -0.016323, 0.021812, -0.055853, -0.015301, -0.018850, -0.030687, 0.017273, 0.082431, -0.042433, -0.017808, -0.043753, -0.060766, -0.069621, 0.000000, 0.000000, -0.034988, 0.025749, 0.118892, -0.110607, 0.069584, -0.035252, -0.042450, 0.043697, 0.015267, 0.008800, -0.014522, 0.018319, -0.043227, 0.041824, 0.000000, 0.000000, 0.014462, -0.018830, 
0.013461, -0.085831, -0.003758, 0.021887, -0.016120, 0.099642, -0.006599, 0.025049, -0.000528, 0.034291, 0.037060, -0.073673, 0.000000, 0.000000, -0.065902, -0.027103, 0.090678, -0.021266, 0.080440, -0.035668, -0.063243, 0.003070, -0.041436, -0.002353, 0.052604, -0.096645, -0.040027, 0.047998, 0.000000, 0.000000, 0.078255, 0.058956, -0.003102, -0.064846, -0.011937, 0.019637, 0.026330, 0.039058, -0.036455, -0.005294, -0.027842, -0.035361, -0.029554, 0.030050, 0.000000, 0.000000, -0.095645, 0.049280, -0.031308, 0.036033, -0.039098, 0.059121, -0.002470, -0.022622, 0.032275, 0.002688, -0.031579, 0.093182, -0.008897, -0.050100, 0.000000, 0.000000, -0.034399, 0.016973, 0.032693, -0.043619, -0.005481, 0.006467, -0.099172, 0.036489, 0.036544, -0.066502, 0.027958, 0.000222, -0.050587, 0.014781, 0.000000, 0.000000, -0.014373, 0.044170, -0.065899, 0.030318, 0.021029, -0.052223, -0.001134, -0.048768, 0.081049, 0.063724, 0.031776, 0.014079, -0.146574, -0.008355, 0.000000, 0.000000, 0.066283, -0.063312, -0.002254, -0.083268, -0.035421, -0.024043, -0.003904, 0.005773, 0.022296, 0.018720, 0.019684, 0.004393, -0.020509, 0.061407, 0.000000, 0.000000, 0.029688, -0.031236, -0.004152, 0.061039, -0.004384, 0.061594, 0.055516, -0.058972, 0.061896, 0.015217, 0.037986, 0.075161, -0.024291, 0.055031, 0.000000, 0.000000, -0.057410, -0.002042, 0.025046, -0.065583, -0.001498, -0.025617, -0.031037, 0.019349, 0.078296, -0.037340, -0.014175, -0.038521, -0.057239, -0.057968, 0.000000, 0.000000, -0.038265, 0.018745, 0.101340, -0.089855, 0.055068, -0.033470, -0.036267, 0.039881, 0.008336, 0.028743, -0.008902, 0.015614, -0.034348, 0.039934, 0.000000, 0.000000, 0.025159, -0.032925, 
0.020488, -0.094590, 0.006049, -0.001172, -0.002103, 0.104293, -0.005551, 0.043244, -0.025826, 0.029579, 0.038741, -0.078586, 0.000000, 0.000000, -0.060500, -0.011533, 0.094192, -0.030033, 0.068288, -0.026001, -0.066866, 0.000032, -0.025313, -0.018681, 0.043824, -0.068843, -0.055433, 0.052423, 0.000000, 0.000000, 0.069302, 0.056950, -0.007927, -0.061448, -0.014518, 0.018530, 0.015250, 0.038093, -0.028660, -0.001968, -0.027488, -0.019415, -0.032432, 0.030288, 0.000000, 0.000000, -0.104575, 0.046423, -0.031528, 0.053101, -0.028423, 0.054487, -0.000563, -0.032236, 0.018057, 0.012671, -0.038261, 0.100501, -0.008370, -0.039857, 0.000000, 0.000000, -0.033816, 0.004024, 0.022235, -0.048083, -0.008173, -0.005488, -0.097134, 0.032720, 0.051090, -0.059931, 0.026646, 0.007948, -0.065566, 0.016117, 0.000000, 0.000000, -0.011130, 0.037225, -0.061760, 0.035114, 0.017247, -0.041316, 0.022557, -0.058685, 0.083065, 0.046685, 0.024339, 0.014343, -0.127878, -0.009488, 0.000000, 0.000000, 0.061816, -0.060363, -0.007512, -0.090734, -0.020819, -0.027659, -0.000378, 0.013904, 0.009108, 0.022286, 0.004803, -0.000129, -0.004583, 0.042003, 0.000000, 0.000000, 0.019867, -0.020393, -0.021906, 0.046870, -0.002053, 0.055743, 0.040117, -0.032251, 0.062838, 0.008716, 0.031977, 0.063196, -0.013137, 0.047382, 0.000000, 0.000000, -0.042776, 0.006994, 0.027712, -0.040093, -0.016388, -0.020143, -0.035092, 0.014298, 0.090059, -0.028493, 0.005891, -0.044322, -0.066833, -0.044905, 0.000000, 0.000000, -0.036138, 0.007249, 0.108965, -0.078425, 0.050317, -0.036065, -0.039251, 0.008058, 0.010526, 0.036366, 0.004124, 0.021211, -0.037093, 0.036594, 0.000000, 0.000000, 0.023793, -0.037099, 
0.024117, -0.098853, 0.011731, 0.009367, -0.045320, 0.151859, -0.037658, 0.045322, 0.003313, 0.009058, 0.058133, -0.080166, 0.000000, 0.000000, -0.073182, -0.015687, 0.087772, -0.043152, 0.069531, -0.038887, -0.051052, -0.000538, -0.016331, -0.013303, 0.040231, -0.066306, -0.051456, 0.052174, 0.000000, 0.000000, 0.063827, 0.056568, -0.007614, -0.062162, -0.005549, 0.019976, 0.018689, 0.033590, -0.028609, -0.006162, -0.024426, -0.016775, -0.021518, 0.028780, 0.000000, 0.000000, -0.103904, 0.035345, -0.030568, 0.052032, -0.037231, 0.062175, 0.003782, -0.045224, 0.024319, -0.008237, -0.035325, 0.096486, -0.010878, -0.032707, 0.000000, 0.000000, -0.025864, 0.003656, 0.019944, -0.057097, -0.005226, -0.014626, -0.094853, 0.040762, 0.053115, -0.040292, 0.019955, 0.003334, -0.064832, 0.001245, 0.000000, 0.000000, -0.002862, 0.035757, -0.054475, 0.020575, 0.025724, -0.046087, 0.018405, -0.047277, 0.076809, 0.056607, 0.022790, 0.024130, -0.131401, 0.003336, 0.000000, 0.000000, 0.046577, -0.058713, 0.000693, -0.091134, -0.022993, -0.022791, -0.001377, 0.022609, 0.001985, 0.015639, 0.002506, 0.013952, -0.001163, 0.040090, 0.000000, 0.000000, 0.002448, -0.014992, -0.034192, 0.052355, 0.000814, 0.052067, 0.041813, -0.034931, 0.048731, 0.005596, 0.022541, 0.047707, 0.001172, 0.042394, 0.000000, 0.000000, -0.033920, 0.016589, 0.021591, -0.046466, -0.018439, -0.022514, -0.034950, -0.002172, 0.088831, -0.031310, 0.005359, -0.036124, -0.060009, -0.038183, 0.000000, 0.000000, -0.027218, 0.000895, 0.108060, -0.068575, 0.053364, -0.029220, -0.043852, 0.014125, -0.001026, 0.038469, 0.006334, 0.008316, -0.021894, 0.023112, 0.000000, 0.000000, 0.011779, -0.038694, 
0.027163, -0.108951, 0.002471, 0.011548, -0.054655, 0.180145, -0.022245, 0.030327, 0.006951, -0.004876, 0.031906, -0.052357, 0.000000, 0.000000, -0.061558, -0.017720, 0.072559, -0.040537, 0.061335, -0.032755, -0.046885, 0.013493, -0.013320, -0.012087, 0.042488, -0.072185, -0.042241, 0.041403, 0.000000, 0.000000, 0.055993, 0.058732, -0.001893, -0.067613, -0.005984, 0.022492, 0.005273, 0.043895, -0.034796, -0.003871, -0.017444, -0.016956, -0.028246, 0.025846, 0.000000, 0.000000, -0.097659, 0.032338, -0.027660, 0.046023, -0.034443, 0.050928, -0.007892, -0.030561, 0.021358, -0.007450, -0.031975, 0.087280, -0.011021, -0.025661, 0.000000, 0.000000, -0.020607, 0.017431, 0.021462, -0.061477, -0.007337, -0.020246, -0.101199, 0.051550, 0.048432, -0.040461, 0.013853, 0.002791, -0.054802, 0.009011, 0.000000, 0.000000, 0.004915, 0.031850, -0.072154, 0.028856, 0.019578, -0.022493, 0.037550, -0.044418, 0.052272, 0.055949, 0.007857, 0.024848, -0.108729, -0.001947, 0.000000, 0.000000, 0.039551, -0.043766, 0.007090, -0.089961, -0.026511, -0.035159, 0.002452, 0.011868, 0.014113, 0.015947, -0.001201, 0.018309, -0.004588, 0.032065, 0.000000, 0.000000, -0.005812, -0.019498, -0.018250, 0.041484, 0.008809, 0.039999, 0.040388, -0.034204, 0.055936, 0.008825, 0.016281, 0.038789, 0.005117, 0.027988, 0.000000, 0.000000, -0.029688, 0.015091, 0.021822, -0.045449, -0.026389, -0.024810, -0.031747, -0.001205, 0.084468, -0.026353, -0.000657, -0.031750, -0.053593, -0.035378, 0.000000, 0.000000, -0.017868, 0.013000, 0.097645, -0.050612, 0.042696, -0.024633, -0.038565, 0.001240, 0.000804, 0.045236, 0.010482, 0.008006, -0.024143, 0.015903, 0.000000, 0.000000, 0.009739, -0.036749, 
0.009178, -0.115341, -0.000463, 0.006651, -0.043180, 0.197245, -0.011122, 0.036276, -0.012757, -0.020370, 0.012558, -0.046418, 0.000000, 0.000000, -0.038938, -0.013717, 0.082272, -0.040977, 0.050899, -0.035655, -0.048098, 0.005867, -0.010336, -0.007187, 0.029054, -0.055247, -0.044098, 0.036651, 0.000000, 0.000000, 0.058909, 0.054224, -0.000348, -0.064523, -0.010275, 0.036809, 0.000499, 0.047806, -0.030109, -0.012702, -0.019442, -0.021650, -0.029251, 0.023427, 0.000000, 0.000000, -0.089285, 0.025188, -0.018045, 0.045410, -0.031872, 0.040241, -0.003349, -0.041512, 0.022135, -0.002044, -0.029051, 0.085105, -0.017752, -0.021150, 0.000000, 0.000000, -0.017546, 0.008878, 0.023149, -0.066668, -0.014435, -0.008823, -0.084249, 0.052385, 0.047787, -0.037212, -0.004855, 0.015275, -0.047377, -0.000390, 0.000000, 0.000000, -0.012067, 0.039804, -0.094036, 0.031261, 0.034498, -0.022508, 0.041100, -0.045841, 0.038088, 0.062596, 0.006281, 0.027936, -0.091208, 0.006406, 0.000000, 0.000000, 0.037145, -0.048391, -0.005011, -0.086641, -0.028023, -0.040911, 0.001243, 0.002804, 0.011268, 0.021862, 0.001690, 0.006891, -0.006712, 0.036476, 0.000000, 0.000000, -0.014365, -0.011693, -0.000142, 0.033750, 0.014374, 0.032231, 0.024213, -0.028657, 0.071393, 0.015204, 0.023220, 0.032054, -0.015530, 0.023401, 0.000000, 0.000000, -0.034773, 0.009005, 0.027451, -0.055177, -0.031309, -0.010528, -0.029920, 0.021638, 0.090809, -0.049783, -0.004345, -0.032558, -0.053822, -0.032458, 0.000000, 0.000000, -0.006384, 0.007026, 0.078519, -0.046609, 0.024859, -0.016777, -0.026711, 0.006960, -0.003483, 0.034312, 0.002194, 0.002527, -0.009933, 0.019608, 0.000000, 0.000000, 0.008435, -0.031161, 
0.005209, -0.113892, -0.000764, 0.003855, -0.036070, 0.187005, -0.001470, 0.043607, -0.022409, -0.017874, -0.004188, -0.038463, 0.000000, 0.000000, -0.029829, -0.011100, 0.079372, -0.062799, 0.063019, -0.045483, -0.025716, 0.019829, -0.024207, 0.012204, 0.004768, -0.036105, -0.048727, 0.022156, 0.000000, 0.000000, 0.053928, 0.048353, 0.006510, -0.077610, -0.001447, 0.031283, -0.011040, 0.060094, -0.032885, -0.015319, -0.022933, -0.012644, -0.022879, 0.018765, 0.000000, 0.000000, -0.090065, 0.027182, -0.027130, 0.053291, -0.024559, 0.033098, -0.018469, -0.039025, 0.017541, -0.002411, -0.000952, 0.071858, -0.019787, -0.005052, 0.000000, 0.000000, -0.014760, -0.003501, 0.012487, -0.058893, -0.011359, -0.013326, -0.076115, 0.041911, 0.051259, -0.035830, -0.012046, 0.018107, -0.047611, 0.008073, 0.000000, 0.000000, -0.008204, 0.036095, -0.100491, 0.018623, 0.037851, -0.018867, 0.050305, -0.039727, 0.029043, 0.070924, 0.034707, 0.017044, -0.086798, 0.003844, 0.000000, 0.000000, 0.040128, -0.029408, -0.012130, -0.085634, -0.032999, -0.024913, -0.021921, 0.025461, 0.000695, 0.031693, 0.014005, -0.000727, 0.000501, 0.035553, 0.000000, 0.000000, -0.017542, -0.009711, 0.020195, 0.033885, 0.006215, 0.038798, 0.030529, -0.036384, 0.067206, -0.002471, 0.010901, 0.038217, -0.006800, 0.021232, 0.000000, 0.000000, -0.033031, -0.008854, 0.020638, -0.058326, -0.026073, 0.003784, -0.006305, 0.014965, 0.087514, -0.062447, -0.012530, -0.024529, -0.047225, -0.041374, 0.000000, 0.000000, -0.011772, -0.002946, 0.068486, -0.026165, 0.013828, -0.007267, -0.042674, 0.006056, 0.005690, 0.041980, -0.006946, -0.007161, -0.019917, 0.010016, 0.000000, 0.000000, 0.011299, -0.011592, 
-0.000739, -0.104163, 0.008481, 0.003536, -0.005663, 0.157219, 0.006680, 0.036723, -0.023979, -0.023471, -0.009667, -0.034738, 0.000000, 0.000000, -0.028275, -0.009249, 0.076287, -0.077188, 0.064527, -0.048153, 0.006195, 0.019421, -0.009516, 0.009416, -0.026200, -0.022858, -0.056980, 0.023606, 0.000000, 0.000000, 0.046583, 0.049321, 0.018236, -0.069718, -0.000462, 0.023758, -0.014083, 0.056406, -0.025597, -0.007549, -0.023376, -0.010164, -0.026982, 0.015301, 0.000000, 0.000000, -0.076555, 0.019999, -0.020452, 0.048940, -0.027230, 0.030124, -0.024447, -0.033463, 0.020944, 0.009562, 0.007741, 0.060202, -0.023310, -0.002376, 0.000000, 0.000000, 0.004319, -0.004677, 0.003176, -0.051181, -0.020231, -0.009589, -0.065608, 0.027383, 0.049212, -0.043625, -0.021837, 0.029981, -0.040398, 0.009642, 0.000000, 0.000000, -0.018456, 0.033696, -0.089067, 0.016379, 0.038740, -0.024570, 0.025545, -0.027378, 0.022390, 0.090914, 0.038528, 0.012002, -0.092784, 0.001151, 0.000000, 0.000000, 0.032426, -0.023240, 0.016462, -0.101227, -0.018477, -0.037540, -0.005540, 0.013690, 0.006664, 0.052053, 0.014109, -0.006433, -0.004120, 0.033060, 0.000000, 0.000000, -0.026800, -0.004540, 0.030497, 0.023937, 0.017247, 0.047975, 0.029229, -0.034929, 0.051150, -0.004486, 0.003662, 0.047213, 0.001019, 0.019951, 0.000000, 0.000000, -0.024666, -0.017698, 0.012874, -0.047449, -0.039980, 0.026818, -0.018753, 0.028644, 0.087815, -0.079605, -0.023975, -0.023288, -0.040426, -0.029893, 0.000000, 0.000000, -0.006580, -0.010204, 0.043690, -0.019257, 0.009934, -0.008603, -0.028036, -0.005464, 0.014694, 0.037588, -0.013749, -0.011935, -0.019101, 0.006319, 0.000000, 0.000000, 0.010979, -0.020517, 
0.003605, -0.100040, 0.004982, 0.013268, 0.003625, 0.147268, 0.001461, 0.004931, -0.036829, -0.027614, -0.007772, -0.016195, 0.000000, 0.000000, -0.013364, -0.009952, 0.105555, -0.104711, 0.067999, -0.047917, -0.022688, 0.054761, -0.008004, 0.007679, -0.004704, -0.040779, -0.072970, 0.033328, 0.000000, 0.000000, 0.049426, 0.039567, 0.022607, -0.076368, 0.000279, 0.020747, -0.010453, 0.053888, -0.024528, 0.005755, -0.029517, -0.003961, -0.010909, 0.000430, 0.000000, 0.000000, -0.082873, 0.030367, -0.017329, 0.039840, -0.011346, 0.014731, -0.019275, -0.029668, 0.016445, 0.012478, -0.008582, 0.050859, -0.026121, 0.010759, 0.000000, 0.000000, 0.006538, 0.009653, 0.007264, -0.044860, -0.022954, -0.000060, -0.074263, 0.035227, 0.047147, -0.047750, -0.027505, 0.025032, -0.039141, 0.014238, 0.000000, 0.000000, -0.016018, 0.031250, -0.053299, 0.002972, 0.043597, -0.013954, 0.014659, -0.023265, 0.003837, 0.080827, 0.031897, 0.023635, -0.084314, -0.000517, 0.000000, 0.000000, 0.030201, -0.015310, -0.001086, -0.088650, -0.034984, -0.030892, 0.022991, 0.012643, 0.006966, 0.041426, 0.008409, -0.005213, -0.013701, 0.033589, 0.000000, 0.000000, -0.006435, -0.009294, 0.001534, 0.060841, 0.000682, 0.033755, 0.032775, -0.038789, 0.049059, 0.010173, 0.000026, 0.029070, 0.012080, 0.026440, 0.000000, 0.000000, -0.019682, -0.003909, 0.021711, -0.055309, -0.025389, 0.013074, -0.032917, 0.023004, 0.090678, -0.069027, -0.014147, -0.020599, -0.028391, -0.036329, 0.000000, 0.000000, -0.023661, -0.010851, 0.053611, -0.028625, 0.005043, 0.003451, -0.035226, -0.018849, 0.012861, 0.041894, -0.018230, 0.004640, -0.026885, 0.004440, 0.000000, 0.000000, 0.005829, -0.027866, 
-0.011072, -0.070219, -0.005761, 0.042926, 0.009890, 0.135058, 0.002342, -0.038447, -0.023792, -0.032654, 0.001383, 0.016592, 0.000000, 0.000000, -0.029175, -0.014382, 0.105542, -0.137137, 0.092064, -0.058750, -0.020244, 0.073256, -0.006807, 0.000239, -0.007410, -0.048601, -0.075818, 0.033475, 0.000000, 0.000000, 0.053807, 0.035272, 0.022610, -0.065499, -0.007988, 0.013543, -0.001679, 0.029145, -0.014476, 0.000244, -0.037858, 0.018013, -0.021877, 0.005661, 0.000000, 0.000000, -0.073289, 0.031904, -0.018953, 0.041638, -0.021812, 0.011548, -0.014581, -0.028663, 0.024875, -0.004947, -0.001785, 0.037625, -0.020481, 0.016510, 0.000000, 0.000000, 0.005728, 0.008942, -0.001011, -0.045616, -0.028794, 0.002342, -0.074122, 0.050167, 0.023943, -0.050664, -0.011701, 0.016718, -0.032851, 0.009473, 0.000000, 0.000000, -0.031566, 0.026922, -0.051064, -0.008646, 0.051797, -0.014651, 0.002107, -0.010336, 0.005553, 0.076196, 0.035040, 0.043800, -0.100787, 0.013610, 0.000000, 0.000000, 0.027936, -0.016085, 0.003336, -0.087239, -0.038981, -0.033300, 0.001259, 0.029889, 0.018475, 0.031512, -0.002340, -0.001153, -0.032583, 0.045599, 0.000000, 0.000000, 0.000576, -0.006187, 0.002834, 0.066263, 0.000764, 0.037614, 0.041489, -0.043448, 0.046156, 0.011071, -0.005463, 0.025063, 0.008770, 0.023253, 0.000000, 0.000000, -0.007033, -0.030055, 0.023253, -0.048735, -0.028943, 0.009946, -0.032522, 0.015557, 0.092377, -0.060549, -0.019859, -0.020138, -0.003617, -0.047762, 0.000000, 0.000000, -0.031359, -0.011014, 0.049513, -0.027100, 0.021440, 0.001325, -0.029701, -0.031652, -0.012191, 0.054563, 0.005590, 0.003951, -0.010322, -0.011424, 0.000000, 0.000000, -0.003400, -0.023161, 
-0.020322, -0.068175, 0.002675, 0.042711, 0.021645, 0.133908, -0.010781, -0.027083, -0.047392, -0.008974, 0.004831, 0.014033, 0.000000, 0.000000, -0.035833, -0.015676, 0.109007, -0.129904, 0.074919, -0.060284, -0.018150, 0.063240, 0.024611, -0.009664, -0.019682, -0.027520, -0.091260, 0.038734, 0.000000, 0.000000, 0.054467, 0.025403, 0.015371, -0.052985, -0.030588, 0.029360, -0.002922, 0.015068, 0.010631, -0.023795, -0.037170, 0.011387, -0.034388, 0.016585, 0.000000, 0.000000, -0.064988, 0.029975, -0.019763, 0.042353, -0.028945, 0.013861, 0.013283, -0.029644, 0.032495, -0.011518, -0.017674, 0.040591, -0.032205, 0.019877, 0.000000, 0.000000, 0.009382, -0.000722, 0.004187, -0.048319, -0.019519, -0.005150, -0.065910, 0.048718, 0.026349, -0.052027, -0.019353, 0.022438, -0.032644, 0.009065, 0.000000, 0.000000, -0.052500, 0.031426, -0.028073, -0.008583, 0.045891, -0.007073, -0.003226, -0.020787, 0.025204, 0.064097, 0.038852, 0.039272, -0.098709, 0.013793, 0.000000, 0.000000, 0.029232, -0.002379, 0.004777, -0.092143, -0.032570, -0.042156, 0.013615, 0.034253, 0.012878, 0.035705, -0.002248, -0.001104, -0.027638, 0.050048, 0.000000, 0.000000, -0.008037, -0.000333, -0.005302, 0.068054, -0.012933, 0.048831, 0.042726, -0.025936, 0.039478, 0.006172, -0.019860, 0.011357, 0.016860, 0.008378, 0.000000, 0.000000, -0.000441, -0.033982, 0.012798, -0.058504, -0.035304, 0.020401, -0.047093, 0.035256, 0.090156, -0.085306, -0.021571, -0.026265, -0.008443, -0.029582, 0.000000, 0.000000, -0.026098, -0.000279, 0.044063, -0.026697, 0.023727, 0.005044, -0.032250, -0.025790, -0.008310, 0.042282, 0.022809, 0.002046, -0.005545, -0.007034, 0.000000, 0.000000, -0.005558, -0.013825, 
-0.007244, -0.069759, 0.019885, 0.025765, 0.028983, 0.082404, 0.007788, -0.018670, -0.044105, 0.014702, -0.008229, 0.023198, 0.000000, 0.000000, -0.039334, -0.019755, 0.092889, -0.127323, 0.077066, -0.064676, 0.000495, 0.075628, -0.005755, 0.015080, -0.023539, -0.043105, -0.069724, 0.015965, 0.000000, 0.000000, 0.065500, 0.032885, 0.001955, -0.051109, -0.032429, 0.033999, -0.015722, 0.015060, 0.022141, -0.025738, -0.038288, 0.010806, -0.027924, 0.017722, 0.000000, 0.000000, -0.069665, 0.028442, -0.032619, 0.052391, -0.042511, 0.019338, 0.024254, -0.019286, 0.021467, -0.015283, -0.013182, 0.024919, -0.023165, 0.012462, 0.000000, 0.000000, 0.002684, 0.004634, 0.001646, -0.034235, -0.014800, -0.022197, -0.052029, 0.047970, 0.007454, -0.033877, -0.019440, 0.025262, -0.033987, 0.001899, 0.000000, 0.000000, -0.053082, 0.028241, -0.032404, -0.007467, 0.038538, 0.009279, -0.006330, -0.016428, 0.029993, 0.047725, 0.043767, 0.036821, -0.088488, 0.014130, 0.000000, 0.000000, 0.019469, 0.001572, 0.002675, -0.087842, -0.044809, -0.029775, 0.003471, 0.027452, 0.009371, 0.019415, -0.021350, 0.007741, -0.034535, 0.053756, 0.000000, 0.000000, -0.007125, 0.010711, -0.012843, 0.064273, -0.011203, 0.021858, 0.060818, -0.019221, 0.031163, 0.030313, -0.027895, 0.000491, 0.026425, 0.013426, 0.000000, 0.000000, -0.000685, -0.014629, 0.013556, -0.072982, -0.014308, 0.004323, -0.026765, 0.037969, 0.086614, -0.072963, -0.024824, -0.020056, 0.000143, -0.029573, 0.000000, 0.000000, -0.023586, 0.004467, 0.044514, -0.024674, 0.023149, 0.021550, -0.036634, -0.028923, -0.004964, 0.031281, 0.030039, -0.007550, -0.001363, -0.005104, 0.000000, 0.000000, -0.012582, -0.025476, 
0.007602, -0.061681, 0.006302, 0.016753, 0.021420, 0.059501, 0.030070, -0.021642, -0.040664, 0.004309, -0.005938, 0.033536, 0.000000, 0.000000, -0.035303, -0.016144, 0.097576, -0.107277, 0.073383, -0.055111, -0.017646, 0.069566, -0.003123, 0.010762, -0.021966, -0.046424, -0.063217, 0.015168, 0.000000, 0.000000, 0.066334, 0.031933, 0.001605, -0.042077, -0.028798, 0.025244, -0.020126, 0.018807, 0.010636, -0.012997, -0.044717, 0.015495, -0.026743, 0.016723, 0.000000, 0.000000, -0.066942, 0.028437, -0.023348, 0.036505, -0.028222, 0.014408, 0.017375, -0.006302, 0.018797, -0.014280, -0.012439, 0.024266, -0.026049, 0.014073, 0.000000, 0.000000, 0.001325, 0.010482, 0.001793, -0.031852, -0.020033, -0.013208, -0.054739, 0.042975, 0.010372, -0.033926, -0.009819, 0.015371, -0.029102, 0.008441, 0.000000, 0.000000, -0.048068, 0.024821, -0.032577, -0.003479, 0.028112, 0.023446, -0.009340, -0.022710, 0.033560, 0.039699, 0.045418, 0.030111, -0.083352, 0.014955, 0.000000, 0.000000, 0.028035, -0.001053, -0.001901, -0.080901, -0.033704, -0.019563, -0.001169, 0.022877, 0.005164, 0.002468, -0.017931, 0.019805, -0.042113, 0.048178, 0.000000, 0.000000, -0.002428, 0.012225, -0.004180, 0.059080, -0.000482, 0.013247, 0.038114, -0.010920, 0.028532, 0.035003, -0.019712, 0.004452, 0.011860, 0.016613, 0.000000, 0.000000, -0.007023, -0.019550, 0.014142, -0.077057, -0.011810, 0.007017, -0.025511, 0.040908, 0.076167, -0.070371, -0.024752, -0.019245, 0.008293, -0.018416, 0.000000, 0.000000, -0.016692, 0.004511, 0.035452, -0.018822, 0.023418, 0.021111, -0.025155, -0.026513, -0.001752, 0.036079, 0.027937, -0.005357, -0.003376, -0.011504, 0.000000, 0.000000, -0.010474, -0.021711, 
0.000900, -0.065434, 0.010710, 0.020878, 0.026623, 0.072053, 0.039648, -0.024282, -0.056474, 0.000960, -0.000886, 0.024630, 0.000000, 0.000000, -0.030055, -0.005772, 0.092320, -0.100792, 0.088379, -0.071183, -0.007478, 0.031534, -0.008964, 0.026261, -0.009930, -0.033338, -0.063287, 0.006008, 0.000000, 0.000000, 0.062197, 0.026704, -0.004088, -0.046556, -0.027249, 0.026966, -0.011087, 0.019321, 0.023161, -0.021553, -0.046099, 0.018516, -0.040717, 0.025034, 0.000000, 0.000000, -0.063844, 0.026235, -0.027891, 0.044769, -0.036058, 0.031960, 0.013607, -0.015609, 0.015245, -0.010073, -0.017854, 0.028535, -0.024561, 0.020952, 0.000000, 0.000000, 0.007559, -0.000701, 0.016964, -0.061312, -0.004068, -0.013242, -0.053560, 0.053229, 0.006144, -0.040890, -0.022700, 0.017888, -0.021692, 0.012559, 0.000000, 0.000000, -0.051797, 0.026349, -0.006846, -0.012093, 0.038865, 0.006767, -0.016160, -0.029046, 0.017645, 0.043286, 0.045643, 0.042740, -0.067165, 0.017260, 0.000000, 0.000000, 0.024885, -0.006038, 0.005447, -0.061034, -0.043283, 0.002647, -0.022625, 0.017344, 0.019147, 0.008653, -0.007656, 0.016137, -0.046376, 0.026513, 0.000000, 0.000000, -0.000238, -0.002200, -0.007452, 0.063251, -0.006424, 0.025448, 0.041461, -0.017484, 0.034290, 0.013460, -0.028552, -0.007355, 0.015021, 0.012625, 0.000000, 0.000000, -0.008533, 0.001306, 0.005122, -0.084376, -0.012432, -0.018176, -0.014738, 0.045722, 0.067601, -0.071312, -0.022954, -0.024003, 0.004441, -0.015113, 0.000000, 0.000000, -0.011937, 0.016873, 0.030568, -0.013933, 0.024097, 0.017306, -0.019170, -0.033259, -0.001063, 0.048497, 0.025102, 0.009424, -0.018404, -0.002496, 0.000000, 0.000000, 0.003168, -0.022144, 
0.018225, -0.076379, 0.020690, 0.025449, 0.014507, 0.099600, 0.022761, -0.028116, -0.075229, -0.000382, 0.007077, 0.025510, 0.000000, 0.000000, -0.036523, 0.011267, 0.094170, -0.086190, 0.083534, -0.071260, -0.012003, 0.020507, -0.009546, 0.021284, -0.009554, -0.018515, -0.060154, 0.008736, 0.000000, 0.000000, 0.033569, 0.022952, -0.011055, -0.046468, -0.039384, 0.021942, -0.016393, 0.014313, 0.023696, -0.022373, -0.043193, 0.009246, -0.031019, 0.021805, 0.000000, 0.000000, -0.055484, 0.029592, -0.036515, 0.045036, -0.037670, 0.032946, 0.001927, -0.006441, 0.020608, -0.013854, -0.006534, 0.030440, -0.031531, 0.023990, 0.000000, 0.000000, 0.013021, -0.002812, 0.014791, -0.052419, -0.013927, -0.020967, -0.054473, 0.056154, 0.009106, -0.027279, -0.022391, 0.009184, -0.033527, 0.019525, 0.000000, 0.000000, -0.044734, 0.030812, -0.006609, -0.025190, 0.042878, 0.011775, -0.005497, -0.009582, 0.018784, 0.032432, 0.027286, 0.026974, -0.061170, 0.024423, 0.000000, 0.000000, 0.032086, -0.002949, 0.002605, -0.072477, -0.038456, -0.000696, -0.017932, 0.021768, 0.022321, 0.010797, -0.004995, 0.018189, -0.035450, 0.021941, 0.000000, 0.000000, -0.003873, 0.002532, -0.009495, 0.065055, -0.021377, 0.023941, 0.029441, -0.020602, 0.040401, 0.022675, -0.021069, 0.012113, 0.004201, 0.013950, 0.000000, 0.000000, -0.008360, -0.002135, 0.008743, -0.085308, -0.019095, -0.019003, -0.013505, 0.053263, 0.064202, -0.060063, -0.029056, -0.031164, 0.005584, -0.033723, 0.000000, 0.000000, -0.018888, 0.020507, 0.042326, -0.025013, 0.026885, 0.019307, -0.011651, -0.027846, 0.004202, 0.039353, 0.013471, 0.007933, -0.021893, -0.009692, 0.000000, 0.000000, -0.004633, -0.014672, 
0.009892, -0.076830, 0.025851, 0.024941, -0.001299, 0.116247, 0.004453, -0.041077, -0.062712, -0.004853, 0.001099, 0.040166, 0.000000, 0.000000, -0.013852, 0.007257, 0.093808, -0.086869, 0.092921, -0.082144, -0.021256, 0.015923, -0.011658, 0.021475, -0.010235, -0.005192, -0.068565, 0.027073, 0.000000, 0.000000, 0.030722, 0.008860, -0.015770, -0.044869, -0.034386, 0.019644, -0.017633, 0.015512, 0.023713, -0.021630, -0.044148, 0.013764, -0.033124, 0.018304, 0.000000, 0.000000, -0.050198, 0.034727, -0.030778, 0.039200, -0.037198, 0.028733, 0.000461, -0.000575, 0.007286, 0.002728, -0.006375, 0.029631, -0.024563, 0.010103, 0.000000, 0.000000, 0.006624, -0.018080, 0.009313, -0.039262, -0.018246, -0.017228, -0.032950, 0.062585, 0.009909, -0.023014, -0.027912, 0.003206, -0.033340, 0.014424, 0.000000, 0.000000, -0.039337, 0.033139, -0.030886, -0.009764, 0.032941, 0.017639, -0.006708, -0.020932, 0.030129, 0.039046, 0.028588, 0.019463, -0.061001, 0.023757, 0.000000, 0.000000, 0.025271, -0.000532, 0.016101, -0.082374, -0.046835, 0.013284, -0.031248, 0.027867, 0.005787, -0.003285, 0.004476, 0.019567, -0.025600, 0.017866, 0.000000, 0.000000, 0.007217, -0.015863, -0.005450, 0.051734, -0.013097, 0.018417, 0.029362, 0.008781, 0.022809, 0.032525, -0.029266, 0.013540, 0.007353, 0.018475, 0.000000, 0.000000, -0.014573, 0.023170, 0.011501, -0.095442, -0.022106, -0.018594, -0.005271, 0.050046, 0.078155, -0.034616, -0.035808, -0.034775, -0.003448, -0.023295, 0.000000, 0.000000, -0.024905, 0.037613, 0.030107, -0.029743, 0.030800, 0.008005, -0.011460, -0.041738, 0.004183, 0.046295, 0.018113, -0.003654, -0.005024, -0.018679, 0.000000, 0.000000, 0.004218, -0.028904, 
0.027786, -0.055290, 0.026816, 0.022525, -0.007194, 0.078863, -0.002881, -0.027133, -0.045216, 0.005639, 0.010107, 0.020251, 0.000000, 0.000000, -0.003894, 0.008234, 0.062234, -0.079649, 0.083271, -0.066267, 0.009246, 0.020753, -0.024849, 0.040304, 0.005718, -0.016019, -0.050061, -0.005694, 0.000000, 0.000000, 0.035298, -0.000908, -0.011780, -0.053815, -0.013374, 0.019456, -0.021375, 0.031556, 0.013610, -0.032504, -0.037969, 0.005812, -0.029635, 0.023370, 0.000000, 0.000000, -0.056564, 0.034093, -0.031760, 0.046431, -0.044370, 0.028189, -0.011654, -0.009433, 0.011207, 0.009282, -0.001956, 0.038766, -0.035064, 0.007236, 0.000000, 0.000000, 0.008519, -0.003546, 0.003014, -0.034964, -0.019024, -0.018942, -0.019810, 0.048978, 0.003644, -0.005693, -0.013870, -0.005666, -0.022299, 0.011168, 0.000000, 0.000000, -0.045287, 0.023235, -0.030127, -0.019762, 0.055311, 0.000063, -0.008497, -0.008330, 0.016409, 0.036658, 0.041874, 0.017094, -0.046228, 0.037221, 0.000000, 0.000000, 0.010699, 0.000225, 0.019469, -0.082533, -0.052565, 0.024221, -0.049388, 0.027621, 0.014820, -0.005810, 0.002914, 0.020025, -0.023494, 0.008322, 0.000000, 0.000000, 0.007821, -0.005082, 0.002628, 0.057786, -0.034714, 0.021678, 0.024949, 0.001906, 0.008527, 0.051488, -0.028068, 0.000237, 0.017331, 0.012183, 0.000000, 0.000000, -0.009611, 0.036457, 0.003319, -0.099111, -0.032277, -0.002943, 0.001768, 0.049817, 0.067707, -0.037920, -0.026106, -0.024060, 0.010557, -0.029675, 0.000000, 0.000000, -0.033266, 0.032274, 0.018775, -0.034446, 0.036258, 0.006980, -0.022930, -0.029335, 0.006262, 0.046007, 0.014140, -0.006210, -0.017179, -0.021321, 0.000000, 0.000000, -0.000284, -0.020024, 
0.023278, -0.051420, 0.014032, 0.031375, -0.020523, 0.085503, -0.002540, -0.026551, -0.024853, -0.011314, 0.001363, 0.013629, 0.000000, 0.000000, 0.008233, 0.009424, 0.072550, -0.076122, 0.075210, -0.057532, 0.000471, 0.023358, -0.022978, 0.046387, -0.013246, 0.012154, -0.048558, -0.009202, 0.000000, 0.000000, 0.018952, -0.000787, -0.016763, -0.046716, -0.003572, 0.009498, -0.013902, 0.017311, 0.006244, -0.018802, -0.045851, 0.021579, -0.031529, 0.019901, 0.000000, 0.000000, -0.049936, 0.041400, -0.013707, 0.045666, -0.033211, 0.016545, -0.035621, -0.005534, -0.000828, 0.014370, 0.019435, 0.025285, -0.027556, 0.007864, 0.000000, 0.000000, 0.004106, -0.007213, 0.007800, -0.040601, -0.035367, -0.014886, -0.014778, 0.031386, 0.015228, -0.006863, -0.017251, 0.003807, -0.020984, 0.016313, 0.000000, 0.000000, -0.045698, 0.013727, -0.003628, -0.008302, 0.043640, -0.001431, -0.015901, -0.016857, 0.035089, 0.029564, 0.019744, 0.028445, -0.065344, 0.040455, 0.000000, 0.000000, 0.004866, 0.006056, 0.016318, -0.083268, -0.031413, 0.016764, -0.064572, 0.039866, 0.013070, -0.013124, 0.010124, 0.001692, -0.018782, 0.012311, 0.000000, 0.000000, -0.006357, -0.005250, -0.004501, 0.040878, -0.011764, 0.016100, 0.032340, 0.006048, 0.001793, 0.043985, -0.012432, 0.000008, 0.011352, 0.010998, 0.000000, 0.000000, 0.000278, 0.028099, -0.006694, -0.090298, -0.037895, 0.008855, 0.018073, 0.049833, 0.068723, -0.039508, -0.018710, -0.019464, 0.014332, -0.036892, 0.000000, 0.000000, -0.039401, 0.029421, 0.002454, -0.024516, 0.019078, 0.015327, -0.016380, -0.024649, 0.004853, 0.051038, 0.008333, -0.014763, 0.005855, -0.013005, 0.000000, 0.000000, -0.000440, -0.022106, 
0.036165, -0.084383, 0.032003, 0.027568, -0.044876, 0.118383, -0.023188, 0.004789, -0.022569, -0.011292, 0.001837, -0.005785, 0.000000, 0.000000, 0.017235, 0.016383, 0.102213, -0.082498, 0.061789, -0.050486, -0.042054, 0.032057, -0.023170, 0.033030, 0.007589, 0.007997, -0.041555, -0.020332, 0.000000, 0.000000, 0.022446, -0.000345, -0.016082, -0.046996, -0.014186, 0.012653, -0.035112, 0.028768, -0.004303, -0.008722, -0.044277, 0.017560, -0.027822, 0.002994, 0.000000, 0.000000, -0.036416, 0.043273, -0.015559, 0.025591, -0.013105, 0.011683, -0.025299, 0.003307, -0.006060, 0.012251, 0.012034, 0.021496, -0.027053, 0.013430, 0.000000, 0.000000, -0.004254, 0.011706, 0.004772, -0.056180, -0.040900, -0.012695, -0.001507, 0.034511, 0.017859, -0.014397, -0.028316, -0.004365, -0.015894, 0.013536, 0.000000, 0.000000, -0.029696, 0.023016, 0.004145, -0.005840, 0.043305, 0.004091, -0.003363, -0.020121, 0.037310, 0.021608, 0.027335, 0.041535, -0.067766, 0.040234, 0.000000, 0.000000, 0.002784, 0.001941, 0.025373, -0.076077, -0.032976, 0.022983, -0.057127, 0.025075, 0.020845, -0.015975, 0.024091, 0.006390, -0.014231, 0.019290, 0.000000, 0.000000, -0.009571, -0.011530, -0.036852, 0.051933, -0.015010, 0.018065, 0.049547, -0.016475, 0.014213, 0.039038, -0.020498, -0.002289, 0.005548, 0.006234, 0.000000, 0.000000, 0.013683, 0.028038, -0.009879, -0.094668, -0.038749, 0.006165, 0.011358, 0.056268, 0.054815, -0.027691, -0.016321, -0.025282, 0.014146, -0.058021, 0.000000, 0.000000, -0.038931, 0.036650, 0.019422, -0.033192, 0.012968, 0.011202, -0.029840, -0.011096, 0.009347, 0.039252, 0.008900, -0.014312, 0.017731, -0.016431, 0.000000, 0.000000, -0.013463, -0.019875, 
0.026210, -0.085768, 0.035489, 0.018145, -0.045036, 0.135013, -0.031631, 0.035835, -0.007267, -0.033209, 0.011588, -0.029554, 0.000000, 0.000000, 0.027003, 0.019041, 0.056962, -0.054979, 0.075256, -0.066193, 0.001549, 0.003893, -0.000840, 0.035696, -0.006286, 0.028178, -0.053678, -0.012237, 0.000000, 0.000000, 0.021230, -0.012785, -0.022097, -0.044029, -0.019518, 0.023057, -0.030552, 0.038457, -0.010870, -0.011795, -0.048369, 0.007381, -0.026260, 0.003567, 0.000000, 0.000000, -0.036140, 0.046490, -0.006757, 0.010016, -0.002606, 0.014006, -0.025584, 0.004353, -0.011122, 0.003648, 0.009806, 0.025863, -0.019751, 0.022518, 0.000000, 0.000000, -0.005855, 0.005892, 0.006380, -0.064087, -0.040177, -0.014955, -0.004275, 0.045105, 0.018165, -0.014440, -0.024322, -0.000536, -0.005661, 0.006300, 0.000000, 0.000000, -0.049834, 0.015266, 0.010913, -0.000813, 0.039151, 0.004917, -0.022373, -0.012395, 0.037477, 0.026416, 0.034645, 0.033651, -0.037470, 0.024354, 0.000000, 0.000000, 0.002246, 0.000269, 0.032881, -0.079619, -0.030895, 0.011979, -0.045197, 0.018517, 0.013958, 0.007222, 0.021412, -0.001618, -0.015595, 0.010695, 0.000000, 0.000000, 0.003320, -0.005012, -0.007151, 0.034625, -0.000284, 0.017345, 0.022973, -0.008321, 0.012212, 0.047500, -0.020641, 0.004195, -0.011911, -0.006584, 0.000000, 0.000000, 0.014117, 0.026982, -0.023224, -0.089860, -0.030578, -0.009674, 0.008186, 0.062328, 0.050809, -0.018094, -0.007616, -0.022610, 0.010291, -0.048897, 0.000000, 0.000000, -0.032974, 0.030605, 0.030968, -0.049843, 0.022797, 0.004295, -0.032071, -0.001555, -0.004965, 0.045602, 0.004435, -0.013459, 0.022618, -0.020536, 0.000000, 0.000000, -0.007508, -0.009963, 
0.033201, -0.095717, 0.046814, 0.017387, -0.043531, 0.166907, -0.054269, 0.018864, -0.050958, -0.041666, 0.000345, -0.000360, 0.000000, 0.000000, 0.033668, 0.055521, 0.041709, -0.027779, 0.076718, -0.066105, 0.018969, -0.023431, 0.003605, 0.031517, -0.005609, 0.034562, -0.032373, -0.030951, 0.000000, 0.000000, 0.017774, -0.026009, -0.026817, -0.036908, -0.026057, 0.028383, -0.040183, 0.036071, 0.004162, -0.019897, -0.029723, 0.014674, -0.017536, 0.012534, 0.000000, 0.000000, -0.047931, 0.033101, -0.016549, -0.001733, 0.001038, 0.017892, -0.007137, -0.007586, -0.005417, 0.005108, -0.002449, 0.034383, -0.022473, 0.035264, 0.000000, 0.000000, -0.020722, 0.010564, 0.018021, -0.065293, -0.035573, -0.025818, -0.010853, 0.036835, -0.000234, -0.005468, -0.027530, 0.004806, 0.000131, -0.002686, 0.000000, 0.000000, -0.053679, 0.021637, 0.002402, 0.001424, 0.051106, 0.003990, -0.016755, -0.026562, 0.030306, 0.032876, 0.041383, 0.035445, -0.048949, 0.013614, 0.000000, 0.000000, 0.001945, -0.006426, 0.014915, -0.086295, -0.035148, 0.026895, -0.009515, 0.024363, 0.025967, 0.003140, 0.026966, -0.008070, -0.015964, 0.019034, 0.000000, 0.000000, 0.006494, -0.014275, -0.014437, 0.035762, 0.001225, 0.013581, 0.014777, -0.007884, 0.017277, 0.038293, -0.050427, 0.021588, 0.002438, -0.013186, 0.000000, 0.000000, 0.018925, 0.040425, -0.009489, -0.085447, -0.023364, -0.028329, -0.004639, 0.059702, 0.043056, -0.005459, -0.002375, -0.009959, -0.000180, -0.054898, 0.000000, 0.000000, -0.034498, 0.025619, 0.027381, -0.051281, 0.026959, 0.009579, -0.014021, -0.008530, -0.015460, 0.048314, 0.006755, -0.016641, 0.022189, -0.001948, 0.000000, 0.000000, -0.014471, -0.014704, 
0.033418, -0.091627, 0.027915, 0.018420, -0.025433, 0.147283, -0.038436, 0.008028, -0.052719, -0.038590, 0.009432, 0.004838, 0.000000, 0.000000, 0.021664, 0.060401, 0.052160, -0.016915, 0.062873, -0.054434, 0.000941, -0.039693, 0.009882, 0.027670, 0.010110, 0.049935, -0.033917, -0.038916, 0.000000, 0.000000, 0.010958, -0.030900, -0.012599, -0.030614, -0.028107, 0.022139, -0.047599, 0.031535, 0.004912, -0.006231, -0.024035, 0.005601, -0.015987, 0.000496, 0.000000, 0.000000, -0.046710, 0.024978, -0.009354, -0.004681, 0.004862, 0.017301, -0.010648, -0.002324, -0.004722, 0.000343, 0.012730, 0.026983, -0.022719, 0.036777, 0.000000, 0.000000, -0.025064, 0.012475, 0.002756, -0.064814, -0.028130, -0.016233, -0.000922, 0.038253, -0.003982, -0.011155, -0.034292, 0.003172, 0.001907, -0.003530, 0.000000, 0.000000, -0.042123, 0.019503, 0.006814, 0.005111, 0.050366, -0.000720, -0.019499, -0.026914, 0.027291, 0.035057, 0.036884, 0.040230, -0.045233, 0.008662, 0.000000, 0.000000, 0.001351, -0.004379, 0.016086, -0.079457, -0.031907, 0.014123, -0.026060, 0.027697, 0.023386, 0.018788, 0.030995, -0.001616, -0.023016, 0.007832, 0.000000, 0.000000, -0.011515, -0.004231, -0.005613, 0.023570, -0.001798, 0.025378, 0.022369, -0.020561, 0.007336, 0.046210, -0.048164, 0.032818, -0.001420, -0.026000, 0.000000, 0.000000, 0.019538, 0.034837, -0.011751, -0.095860, -0.023522, -0.022939, -0.009384, 0.050983, 0.046600, -0.012323, 0.000456, -0.014255, 0.005805, -0.043135, 0.000000, 0.000000, -0.022980, 0.020564, 0.025352, -0.046644, 0.034526, 0.011104, -0.005783, -0.013108, -0.014400, 0.045238, 0.007527, -0.007667, 0.021183, 0.003779, 0.000000, 0.000000, -0.024993, -0.008402, 
0.033803, -0.094232, 0.040597, 0.017537, -0.028958, 0.159083, -0.060866, 0.007636, -0.051438, -0.048571, 0.029312, 0.003530, 0.000000, 0.000000, 0.014075, 0.064837, 0.035638, -0.007003, 0.057814, -0.052377, 0.020361, -0.058689, 0.016280, 0.018100, 0.008608, 0.055340, -0.040034, -0.034685, 0.000000, 0.000000, 0.002271, -0.023502, -0.015645, -0.028372, -0.028386, 0.025585, -0.040793, 0.037987, 0.005387, -0.009791, -0.025298, 0.005999, -0.015950, 0.002311, 0.000000, 0.000000, -0.048899, 0.023720, -0.004461, -0.003200, 0.007032, 0.016291, -0.023540, -0.003693, -0.009684, 0.005653, 0.006795, 0.031948, -0.022472, 0.034803, 0.000000, 0.000000, -0.022176, 0.009939, 0.013253, -0.072895, -0.010648, -0.018110, 0.000306, 0.037647, -0.009334, -0.012371, -0.038465, 0.012039, 0.004016, -0.007902, 0.000000, 0.000000, -0.042399, 0.021824, 0.008736, 0.006062, 0.044295, 0.000273, -0.019777, -0.021983, 0.028445, 0.026587, 0.032673, 0.031371, -0.045356, 0.013402, 0.000000, 0.000000, -0.001368, 0.003131, 0.008807, -0.077890, -0.034382, 0.019756, -0.038270, 0.031574, 0.032250, 0.006004, 0.037552, 0.004148, -0.022380, 0.006449, 0.000000, 0.000000, -0.008227, -0.004203, -0.012917, 0.019781, 0.002400, 0.025501, 0.030652, -0.022234, 0.010487, 0.044443, -0.044173, 0.022170, -0.002134, -0.025894, 0.000000, 0.000000, 0.024180, 0.024010, -0.013742, -0.090434, -0.019573, -0.017533, -0.003629, 0.044383, 0.040005, 0.000227, -0.003747, -0.014909, 0.000442, -0.048095, 0.000000, 0.000000, -0.021855, 0.020243, 0.022602, -0.040094, 0.035130, 0.009378, -0.007637, -0.010061, -0.019013, 0.039671, 0.019607, 0.002808, 0.030625, 0.001663, 0.000000, 0.000000, -0.026560, -0.012922, 
0.034094, -0.082107, 0.031580, 0.018805, -0.035057, 0.163145, -0.059020, -0.004815, -0.049971, -0.061894, 0.015385, 0.010441, 0.000000, 0.000000, 0.025650, 0.064427, 0.040089, -0.014101, 0.058436, -0.046211, 0.007663, -0.037770, 0.004079, 0.021915, 0.004675, 0.054543, -0.034855, -0.029498, 0.000000, 0.000000, -0.001319, -0.023870, -0.012617, -0.025685, -0.019369, 0.032563, -0.043496, 0.039706, -0.003141, -0.014154, -0.017040, 0.002576, -0.008661, -0.006357, 0.000000, 0.000000, -0.050897, 0.020449, -0.003926, -0.005663, 0.005872, 0.009828, -0.024884, 0.000679, -0.015396, 0.002960, 0.004825, 0.028216, -0.017823, 0.049105, 0.000000, 0.000000, -0.019044, 0.007545, 0.003196, -0.076658, -0.010865, -0.020903, 0.003891, 0.045518, -0.014642, -0.004141, -0.031854, 0.014535, 0.004515, -0.014286, 0.000000, 0.000000, -0.039085, 0.020324, 0.000566, 0.009585, 0.049417, -0.009033, -0.008452, -0.022914, 0.025454, 0.040092, 0.019356, 0.026869, -0.042033, 0.007014, 0.000000, 0.000000, -0.000704, 0.011648, 0.005215, -0.070638, -0.052606, 0.027459, -0.037324, 0.026532, 0.042203, 0.017057, 0.035223, 0.001141, -0.018358, 0.004615, 0.000000, 0.000000, -0.013961, -0.000482, -0.002461, 0.012592, 0.010247, 0.020651, 0.037541, -0.021942, 0.011082, 0.044141, -0.032626, 0.019131, -0.008275, -0.021409, 0.000000, 0.000000, 0.025791, 0.021019, -0.013432, -0.082102, -0.013266, -0.016732, -0.002582, 0.037286, 0.043635, -0.017635, -0.007563, -0.013888, -0.006551, -0.035351, 0.000000, 0.000000, -0.020587, 0.019481, 0.021562, -0.042886, 0.028569, 0.002909, -0.017075, -0.014433, -0.011146, 0.053394, 0.020827, 0.002418, 0.027884, 0.005671, 0.000000, 0.000000, -0.023693, -0.017929, 
0.041521, -0.091674, 0.056289, 0.010164, -0.009589, 0.134711, -0.060343, 0.000523, -0.036387, -0.068381, 0.020131, -0.001453, 0.000000, 0.000000, 0.017293, 0.058644, 0.038899, -0.003397, 0.047211, -0.038678, 0.008076, -0.041486, 0.028046, 0.009161, -0.009631, 0.062620, -0.055684, -0.017437, 0.000000, 0.000000, -0.001181, -0.030396, -0.014182, -0.023579, -0.012055, 0.028980, -0.055694, 0.036717, -0.002842, -0.007989, -0.007542, -0.002917, -0.019662, -0.009544, 0.000000, 0.000000, -0.038317, 0.016386, -0.001902, -0.000869, 0.000486, 0.006494, -0.036878, 0.000538, -0.013504, 0.009179, 0.022648, 0.021138, -0.023157, 0.045339, 0.000000, 0.000000, -0.006408, 0.000649, -0.000551, -0.080326, -0.016077, -0.008236, -0.006121, 0.058403, -0.006509, -0.008016, -0.040730, 0.013062, -0.004142, -0.000603, 0.000000, 0.000000, -0.036048, 0.027103, -0.015752, 0.010921, 0.055484, -0.007472, -0.016238, -0.021385, 0.022478, 0.030608, 0.015638, 0.023814, -0.033226, 0.004756, 0.000000, 0.000000, -0.009978, 0.006845, -0.006167, -0.060998, -0.066798, 0.030813, -0.023784, 0.024025, 0.044413, 0.013715, 0.040001, -0.013554, -0.017055, 0.010276, 0.000000, 0.000000, -0.012486, 0.001889, -0.002331, 0.010269, 0.003771, 0.009986, 0.040209, -0.015366, -0.004041, 0.048572, -0.022477, 0.008440, -0.009251, -0.021439, 0.000000, 0.000000, 0.031969, 0.028718, -0.002884, -0.089322, -0.003094, -0.013653, -0.013513, 0.039708, 0.044189, -0.020019, -0.001090, -0.009570, -0.007045, -0.038419, 0.000000, 0.000000, -0.022083, 0.015192, 0.015772, -0.045570, 0.026511, 0.012581, -0.013325, -0.015121, 0.004138, 0.043843, -0.001526, 0.018243, 0.024505, 0.018923, 0.000000, 0.000000, -0.031568, -0.011214, 
0.045598, -0.092615, 0.054196, 0.006182, 0.021040, 0.130257, -0.068645, 0.013490, -0.051945, -0.057650, 0.027212, -0.007806, 0.000000, 0.000000, 0.002552, 0.058355, 0.041781, -0.011628, 0.040387, -0.026357, 0.001868, -0.028502, 0.031035, -0.014058, -0.011315, 0.058810, -0.053095, -0.015032, 0.000000, 0.000000, -0.008222, -0.030536, -0.019740, -0.028022, -0.016124, 0.035275, -0.060142, 0.046242, -0.009778, -0.009888, -0.007989, -0.000500, -0.017912, -0.011376, 0.000000, 0.000000, -0.044384, 0.012624, -0.006927, -0.010032, -0.003497, 0.007882, -0.032256, 0.005978, -0.006180, 0.005018, 0.015494, 0.020132, -0.025382, 0.039718, 0.000000, 0.000000, -0.010408, 0.000602, 0.007516, -0.081223, -0.016011, -0.020167, -0.018811, 0.053725, 0.007071, -0.002040, -0.033613, 0.009444, -0.010372, -0.015279, 0.000000, 0.000000, -0.034416, 0.024930, 0.000613, 0.001366, 0.050154, -0.007425, -0.019075, -0.017873, 0.028874, 0.024754, 0.015924, 0.025093, -0.031047, -0.000585, 0.000000, 0.000000, -0.003854, -0.003893, -0.013755, -0.043374, -0.076094, 0.032144, -0.011477, 0.023938, 0.039401, 0.007361, 0.032496, -0.015701, -0.020831, 0.027151, 0.000000, 0.000000, -0.006766, -0.002051, -0.010650, 0.022537, 0.000293, -0.003773, 0.054973, -0.027307, -0.005715, 0.035462, -0.021039, 0.026176, -0.005829, -0.020600, 0.000000, 0.000000, 0.024708, 0.019791, -0.007612, -0.079974, 0.009320, -0.012712, -0.015888, 0.039141, 0.037995, -0.024563, 0.007134, -0.010483, -0.008018, -0.046423, 0.000000, 0.000000, -0.023209, 0.022699, 0.019546, -0.046791, 0.028381, 0.020605, -0.011655, -0.020047, 0.005952, 0.048573, -0.015522, 0.010371, 0.022292, 0.013317, 0.000000, 0.000000, -0.030080, -0.006670, 
0.042310, -0.122650, 0.063798, 0.006647, 0.022806, 0.165138, -0.064533, 0.011653, -0.042345, -0.090658, 0.027358, -0.002828, 0.000000, 0.000000, 0.008557, 0.067611, 0.045188, -0.022598, 0.024058, 0.002703, -0.004748, -0.012356, 0.033981, -0.037873, -0.010153, 0.034251, -0.042325, -0.002707, 0.000000, 0.000000, -0.003616, -0.018532, -0.017372, -0.038143, -0.013777, 0.020386, -0.049845, 0.051615, -0.015123, 0.007256, -0.026441, -0.006098, -0.012497, -0.023475, 0.000000, 0.000000, -0.036802, 0.015448, -0.007143, -0.015590, -0.004815, 0.020237, -0.017856, 0.002660, -0.005945, -0.007621, 0.021141, 0.014304, -0.016142, 0.042904, 0.000000, 0.000000, -0.013429, 0.006722, 0.014892, -0.077466, -0.009059, -0.024760, -0.018704, 0.044374, 0.001149, -0.005705, -0.017494, 0.010506, -0.004310, -0.009672, 0.000000, 0.000000, -0.042595, 0.017163, -0.013597, -0.001193, 0.052528, -0.009866, -0.015845, -0.005922, 0.015664, 0.040529, 0.026678, 0.025575, -0.045934, -0.013308, 0.000000, 0.000000, 0.001446, -0.020625, -0.028054, -0.049777, -0.074526, 0.014449, -0.009080, 0.022758, 0.048270, -0.001624, 0.033835, -0.005813, -0.034456, 0.037203, 0.000000, 0.000000, -0.022003, -0.011131, -0.020932, 0.016794, -0.015376, 0.007210, 0.047369, -0.009708, 0.014125, 0.022091, -0.009337, 0.014129, 0.001110, -0.019427, 0.000000, 0.000000, 0.015862, 0.022715, 0.000463, -0.068369, 0.007817, -0.000212, -0.026944, 0.037210, 0.040367, -0.021147, 0.012838, -0.020175, -0.006235, -0.034872, 0.000000, 0.000000, -0.004973, 0.034258, 0.021474, -0.035972, 0.033795, 0.016275, -0.005118, -0.038703, 0.000228, 0.046364, -0.025355, 0.032167, 0.005582, 0.029167, 0.000000, 0.000000, -0.033318, -0.014028, 
0.029205, -0.110014, 0.054384, 0.016608, 0.017901, 0.141724, -0.032257, -0.013639, -0.008656, -0.091162, 0.010588, 0.010433, 0.000000, 0.000000, 0.019818, 0.057485, 0.053239, -0.011191, 0.023601, -0.003502, -0.015373, -0.020771, 0.020462, -0.038354, -0.005638, 0.035791, -0.032217, 0.002025, 0.000000, 0.000000, -0.013961, -0.017195, -0.018630, -0.022395, -0.023050, 0.020486, -0.068408, 0.047993, -0.024087, 0.013411, -0.017103, -0.018149, -0.001867, -0.017311, 0.000000, 0.000000, -0.043479, 0.017254, -0.006529, -0.018145, -0.001794, 0.009946, -0.000467, -0.002369, 0.000074, -0.015016, 0.012676, 0.015323, -0.016124, 0.046800, 0.000000, 0.000000, -0.009986, 0.003094, 0.017138, -0.080126, -0.004726, -0.019568, -0.009326, 0.054973, -0.004244, -0.008729, -0.029756, 0.027164, -0.022070, -0.010674, 0.000000, 0.000000, -0.027712, 0.012270, 0.003634, 0.003182, 0.036544, -0.006237, -0.037643, -0.003769, 0.020235, 0.034955, 0.030250, 0.017639, -0.054128, -0.009791, 0.000000, 0.000000, 0.000724, -0.011642, -0.031155, -0.038607, -0.068789, 0.015477, -0.012741, 0.020361, 0.031155, 0.003853, 0.033870, -0.015090, -0.016690, 0.021084, 0.000000, 0.000000, -0.016115, -0.015206, -0.037315, 0.023024, -0.027425, 0.025015, 0.061394, -0.002959, 0.022598, 0.009215, -0.029714, 0.001038, 0.000118, -0.029104, 0.000000, 0.000000, 0.013003, 0.035305, 0.005458, -0.079714, 0.008448, -0.010537, -0.022880, 0.035196, 0.052394, -0.015263, 0.000961, -0.006631, -0.005449, -0.013977, 0.000000, 0.000000, -0.031582, 0.042098, 0.022819, -0.032190, 0.036630, 0.012694, -0.012686, -0.035086, 0.005226, 0.044414, -0.001577, 0.028627, 0.010317, 0.024973, 0.000000, 0.000000, -0.035735, -0.019444, 
0.017308, -0.108098, 0.054543, 0.009903, 0.036378, 0.134982, -0.016139, -0.012184, -0.000890, -0.106273, 0.003556, 0.007702, 0.000000, 0.000000, 0.033605, 0.043293, 0.050465, -0.024910, 0.025449, -0.013130, -0.033939, 0.011458, 0.015062, -0.046780, 0.006493, 0.008642, -0.019920, 0.008537, 0.000000, 0.000000, -0.014492, -0.008011, -0.008504, -0.027455, -0.004899, 0.016624, -0.083149, 0.041410, -0.039476, 0.021121, -0.005118, -0.010000, 0.010039, -0.009317, 0.000000, 0.000000, -0.056724, 0.010730, 0.000921, -0.014204, -0.009695, 0.014104, -0.004532, -0.002277, 0.007145, -0.024119, 0.015336, 0.012767, -0.023976, 0.046520, 0.000000, 0.000000, -0.005642, 0.018671, 0.000252, -0.068493, -0.022097, -0.022812, 0.002196, 0.049359, 0.001412, -0.011117, -0.033516, 0.021918, -0.024402, -0.018605, 0.000000, 0.000000, -0.016970, 0.006440, -0.011758, 0.005276, 0.034600, 0.004875, -0.025625, 0.003451, 0.017920, 0.027680, 0.010917, 0.007392, -0.044879, -0.017456, 0.000000, 0.000000, 0.005022, -0.002288, -0.036427, -0.036915, -0.065473, 0.025797, -0.014022, 0.025119, 0.032892, -0.003400, 0.028325, -0.010024, -0.023033, 0.025349, 0.000000, 0.000000, -0.023727, -0.007938, -0.022101, 0.029372, -0.029659, 0.025384, 0.049510, -0.009846, 0.016500, 0.009448, -0.023486, -0.000391, 0.006319, -0.011688, 0.000000, 0.000000, 0.011819, 0.030602, 0.004313, -0.080450, -0.000839, -0.000715, -0.024248, 0.050866, 0.049176, -0.019935, 0.002889, -0.007602, -0.009750, -0.012035, 0.000000, 0.000000, -0.028984, 0.047810, 0.012757, -0.036448, 0.047351, 0.003572, -0.012676, -0.025118, 0.014121, 0.038921, 0.008171, 0.020744, 0.013843, 0.020147, 0.000000, 0.000000, -0.040018, -0.021188, 
0.017398, -0.100784, 0.048444, 0.011510, 0.036541, 0.124275, -0.005115, -0.007616, 0.014436, -0.116922, 0.004675, 0.003914, 0.000000, 0.000000, 0.032281, 0.033502, 0.050822, -0.042983, 0.031684, -0.009881, -0.024710, 0.018707, 0.020944, -0.048187, 0.009609, 0.002764, -0.016514, 0.001341, 0.000000, 0.000000, -0.010054, -0.008652, -0.016930, -0.024077, -0.002897, 0.011601, -0.075380, 0.047312, -0.044102, 0.016529, -0.009162, -0.011438, 0.014964, -0.004961, 0.000000, 0.000000, -0.068280, 0.011293, -0.008223, -0.008570, -0.010308, 0.013861, -0.000118, 0.006313, 0.006392, -0.021575, 0.015315, 0.009034, -0.029229, 0.045357, 0.000000, 0.000000, -0.002066, 0.011294, -0.007168, -0.061764, -0.028609, -0.023150, 0.001054, 0.060770, -0.000860, -0.006519, -0.040667, 0.030588, -0.027380, -0.014512, 0.000000, 0.000000, -0.016539, 0.016323, -0.011621, 0.010555, 0.030413, 0.004774, -0.014726, -0.003962, 0.010076, 0.029711, -0.001204, 0.006150, -0.031686, -0.014929, 0.000000, 0.000000, -0.001903, 0.011023, -0.033748, -0.047753, -0.048068, 0.025859, -0.008982, 0.035386, 0.038341, -0.001642, 0.018364, -0.011882, -0.020674, 0.006770, 0.000000, 0.000000, -0.025139, -0.006939, -0.028245, 0.026155, -0.017639, 0.022776, 0.047331, -0.002424, 0.023815, 0.002599, -0.024096, -0.000380, 0.008678, -0.014944, 0.000000, 0.000000, 0.013010, 0.017662, 0.008836, -0.082577, -0.000666, -0.000857, -0.037257, 0.043928, 0.037870, -0.025673, 0.007870, -0.010716, -0.011645, -0.001609, 0.000000, 0.000000, -0.017331, 0.051355, 0.008734, -0.033478, 0.036331, 0.010812, -0.012812, -0.029164, 0.014503, 0.041151, 0.013687, 0.012737, 0.013444, 0.017525, 0.000000, 0.000000, -0.036256, -0.013721, 
0.014741, -0.067390, 0.034497, 0.014279, 0.046097, 0.080300, 0.002320, -0.010460, -0.022425, -0.061546, 0.003140, 0.010670, 0.000000, 0.000000, 0.012756, 0.038755, 0.061351, -0.058905, 0.037872, -0.012618, -0.019113, 0.023507, 0.023869, -0.043824, 0.007282, -0.001500, -0.022247, 0.000663, 0.000000, 0.000000, -0.002801, -0.006902, -0.010537, -0.027121, 0.004416, 0.007412, -0.074152, 0.034867, -0.038674, 0.017715, -0.013953, -0.010033, 0.014777, -0.005694, 0.000000, 0.000000, -0.064207, 0.012981, -0.008435, -0.004213, -0.011771, 0.008716, 0.000406, 0.008938, 0.004470, -0.016985, 0.014505, -0.004661, -0.018796, 0.046245, 0.000000, 0.000000, 0.004106, 0.016695, -0.020373, -0.060382, -0.027931, -0.011545, 0.008725, 0.068526, -0.004340, -0.018006, -0.043413, 0.025916, -0.026425, -0.008852, 0.000000, 0.000000, -0.012433, 0.018036, -0.013444, -0.006398, 0.033359, 0.014714, -0.000367, -0.001527, 0.013452, 0.029781, -0.009928, 0.003639, -0.035606, -0.021744, 0.000000, 0.000000, 0.001877, 0.010569, -0.023575, -0.055871, -0.061011, 0.034221, -0.013614, 0.037142, 0.050111, -0.017132, 0.023674, -0.010383, -0.014232, 0.008369, 0.000000, 0.000000, -0.034182, -0.008844, -0.026901, 0.042609, -0.032377, 0.025082, 0.035996, -0.010433, 0.029978, 0.015747, -0.013541, 0.000651, -0.001948, -0.016448, 0.000000, 0.000000, 0.013181, 0.016660, 0.009480, -0.085569, 0.012362, -0.010503, -0.028160, 0.038810, 0.036315, -0.006391, 0.004018, -0.012795, -0.015553, -0.001658, 0.000000, 0.000000, -0.013861, 0.056712, -0.002848, -0.034925, 0.045688, 0.005637, -0.004314, -0.018612, 0.006788, 0.041565, 0.020042, 0.009322, 0.018136, 0.012168, 0.000000, 0.000000, -0.029084, -0.015446, 
0.020336, -0.069865, 0.035804, 0.014290, 0.030225, 0.077699, -0.004845, -0.007165, -0.004374, -0.068558, 0.001911, 0.000375, 0.000000, 0.000000, 0.021256, 0.021989, 0.072506, -0.074732, 0.034443, 0.005961, -0.031236, 0.031299, 0.022715, -0.046186, 0.011894, -0.003477, -0.029820, 0.002853, 0.000000, 0.000000, -0.000539, -0.019053, -0.002460, -0.026366, 0.000519, 0.011157, -0.072033, 0.038709, -0.030626, 0.017015, -0.008260, -0.005211, -0.001938, 0.000630, 0.000000, 0.000000, -0.070167, 0.008387, 0.007943, -0.008796, -0.004574, 0.009562, -0.023927, 0.027806, 0.005768, -0.023632, 0.021474, -0.018524, -0.011873, 0.058904, 0.000000, 0.000000, 0.004826, 0.012657, -0.018989, -0.053208, -0.022597, -0.005879, 0.004346, 0.075275, -0.015868, -0.026847, -0.046090, 0.020024, -0.010703, -0.017109, 0.000000, 0.000000, -0.007882, 0.017087, -0.039813, 0.009612, 0.032379, 0.016237, 0.017563, -0.013645, 0.019375, 0.043660, -0.017995, 0.014370, -0.053924, -0.022341, 0.000000, 0.000000, 0.005273, 0.003857, -0.019485, -0.069975, -0.070932, 0.037229, -0.027582, 0.055194, 0.041480, -0.012019, 0.032705, -0.022922, -0.012445, 0.020786, 0.000000, 0.000000, -0.041376, 0.001543, -0.025299, 0.034688, -0.038697, 0.031471, 0.026163, -0.007442, 0.028395, 0.014794, -0.008538, 0.007463, -0.003680, -0.013355, 0.000000, 0.000000, 0.004291, 0.010142, 0.011277, -0.065130, 0.000113, -0.005767, -0.044071, 0.032547, 0.035806, -0.007688, -0.001960, -0.011982, -0.006026, -0.004235, 0.000000, 0.000000, -0.004693, 0.064855, 0.009704, -0.026710, 0.048779, 0.011426, -0.003414, -0.031644, 0.001362, 0.036587, 0.024795, 0.012131, 0.014685, 0.013608, 0.000000, 0.000000, -0.023658, -0.011788, 
0.018222, -0.065688, 0.027730, 0.028193, 0.023463, 0.098462, 0.001989, -0.016365, -0.009257, -0.076419, -0.006594, -0.000640, 0.000000, 0.000000, 0.032720, 0.030673, 0.052792, -0.050863, 0.016695, 0.019070, -0.008761, -0.001218, 0.027829, -0.051530, 0.010360, 0.024818, -0.046049, 0.010695, 0.000000, 0.000000, 0.005898, -0.025737, -0.014538, -0.025736, -0.002722, 0.017121, -0.075093, 0.039651, -0.028590, 0.007138, -0.003454, -0.008214, -0.001883, -0.002270, 0.000000, 0.000000, -0.062434, 0.008768, 0.008916, -0.012777, 0.001483, 0.004335, -0.032016, 0.027778, -0.001288, -0.016104, 0.029530, -0.007892, -0.021571, 0.056847, 0.000000, 0.000000, 0.002031, 0.000416, -0.021210, -0.062341, -0.025233, -0.008266, 0.007913, 0.082269, -0.005710, -0.023651, -0.039735, 0.012046, -0.016721, -0.007158, 0.000000, 0.000000, -0.031066, 0.008841, -0.020764, 0.007471, 0.034703, 0.012208, 0.011153, 0.001280, 0.006122, 0.053200, -0.012510, -0.004185, -0.052756, -0.003645, 0.000000, 0.000000, 0.007344, 0.010508, -0.003846, -0.065313, -0.057421, 0.047096, -0.053222, 0.041712, 0.030996, -0.011146, 0.032121, -0.012794, -0.006414, 0.033415, 0.000000, 0.000000, -0.019356, 0.011359, -0.029974, 0.016489, -0.036282, 0.027536, 0.018250, 0.002360, 0.033518, 0.005147, -0.005602, 0.013842, -0.004585, -0.000085, 0.000000, 0.000000, 0.002424, 0.009655, 0.001507, -0.065893, -0.012072, -0.009845, -0.030916, 0.029519, 0.046769, -0.010324, 0.002080, -0.007288, -0.020440, -0.020895, 0.000000, 0.000000, -0.014939, 0.059827, 0.019887, -0.019631, 0.051249, 0.017616, -0.002393, -0.042834, -0.003354, 0.040273, 0.011163, 0.008892, 0.014251, 0.008830, 0.000000, 0.000000, -0.025474, -0.007652, 
0.020019, -0.048488, 0.006897, 0.027431, 0.003300, 0.078193, 0.014522, -0.008891, 0.029299, -0.093789, 0.005228, -0.006037, 0.000000, 0.000000, 0.034539, 0.026061, 0.048205, -0.035411, 0.001459, 0.040639, -0.000779, -0.026151, 0.046656, -0.079887, 0.011767, 0.044885, -0.059344, 0.002555, 0.000000, 0.000000, 0.008696, -0.025575, -0.003256, -0.015172, -0.004955, 0.013139, -0.079981, 0.037793, -0.032125, 0.006152, 0.003984, -0.009258, -0.009095, -0.003347, 0.000000, 0.000000, -0.061722, 0.011581, -0.003163, -0.017436, -0.001961, 0.011995, -0.027526, 0.028089, -0.009799, -0.012150, 0.028877, -0.014013, -0.011603, 0.045190, 0.000000, 0.000000, 0.000118, 0.006658, -0.029525, -0.055289, -0.031108, 0.001370, 0.009453, 0.073650, 0.006026, -0.029912, -0.032234, 0.009040, -0.018724, -0.013876, 0.000000, 0.000000, -0.021501, 0.007477, -0.038414, 0.005500, 0.029643, 0.023328, 0.023697, 0.007772, 0.009896, 0.053080, -0.005200, -0.001391, -0.056499, 0.004440, 0.000000, 0.000000, 0.005631, 0.004114, 0.002838, -0.073218, -0.051096, 0.047593, -0.047684, 0.035445, 0.023893, -0.013806, 0.039519, -0.005555, 0.000087, 0.037825, 0.000000, 0.000000, -0.025578, 0.008853, -0.017828, 0.013895, -0.029909, 0.010239, 0.005986, -0.006856, 0.030148, -0.000537, -0.020015, 0.011892, -0.005715, -0.013133, 0.000000, 0.000000, -0.002303, 0.019687, -0.017908, -0.059415, -0.013851, -0.024215, -0.037525, 0.046203, 0.039279, -0.002580, -0.000166, -0.011765, -0.014826, -0.024428, 0.000000, 0.000000, -0.016619, 0.062958, 0.020144, -0.013949, 0.046894, 0.033951, 0.003175, -0.048235, 0.010283, 0.029901, 0.019853, -0.001472, 0.019403, 0.002377, 0.000000, 0.000000, -0.022508, -0.016224, 
0.011072, -0.014374, 0.003776, 0.028131, 0.012063, 0.047329, 0.010410, -0.006218, 0.022889, -0.103041, 0.015765, -0.012105, 0.000000, 0.000000, 0.039232, 0.032275, 0.059707, -0.036497, 0.023445, 0.016186, -0.023432, -0.003826, 0.027760, -0.057992, 0.011702, 0.021326, -0.045175, 0.002928, 0.000000, 0.000000, 0.006544, -0.010403, -0.003374, -0.016259, -0.009546, 0.000803, -0.081723, 0.042730, -0.038185, 0.014939, 0.001374, -0.006731, -0.001169, -0.000844, 0.000000, 0.000000, -0.058424, 0.014665, -0.000568, -0.018871, -0.008859, 0.016186, -0.018540, 0.002507, -0.001219, -0.020734, 0.034109, -0.001861, -0.014657, 0.049826, 0.000000, 0.000000, 0.006312, 0.013302, -0.024159, -0.067416, -0.017841, -0.002008, -0.000840, 0.086636, -0.011425, -0.033221, -0.023911, -0.005498, -0.008976, -0.007765, 0.000000, 0.000000, -0.031785, 0.002072, -0.037401, 0.006412, 0.040539, 0.031492, 0.031581, 0.006854, -0.005822, 0.069273, -0.001079, -0.005928, -0.045689, 0.001100, 0.000000, 0.000000, -0.000459, -0.002830, 0.003229, -0.055614, -0.046545, 0.046193, -0.032402, 0.009134, 0.033777, -0.006975, 0.030633, -0.000683, -0.002157, 0.029329, 0.000000, 0.000000, -0.028971, -0.000864, -0.005737, 0.013676, -0.031042, 0.010844, -0.010723, 0.004775, 0.025561, 0.001546, -0.015553, 0.011263, -0.016216, -0.006281, 0.000000, 0.000000, -0.002696, 0.010925, -0.010407, -0.071305, -0.011892, -0.023856, -0.047914, 0.051926, 0.026890, -0.002703, -0.000867, -0.002016, -0.016518, -0.021916, 0.000000, 0.000000, -0.013533, 0.065574, 0.008250, -0.013578, 0.045589, 0.039702, 0.009588, -0.049756, 0.008257, 0.028018, 0.018213, 0.007796, 0.010664, 0.001079, 0.000000, 0.000000, -0.011738, -0.005130, 
0.033741, -0.052285, 0.022235, 0.013350, 0.017427, 0.072395, -0.011197, 0.010103, -0.007513, -0.095080, 0.031171, -0.020175, 0.000000, 0.000000, 0.046163, 0.036737, 0.042903, -0.014187, 0.024890, 0.020902, 0.006356, -0.038717, 0.023760, -0.052536, -0.012501, 0.050399, -0.038638, -0.003584, 0.000000, 0.000000, -0.007973, 0.007730, -0.011471, -0.010952, -0.008590, -0.009422, -0.074999, 0.037681, -0.020181, 0.020307, -0.004231, -0.008185, -0.013136, -0.000538, 0.000000, 0.000000, -0.044540, 0.011140, 0.005984, -0.018026, -0.004383, 0.006661, -0.031089, 0.008901, -0.014973, 0.003797, 0.040677, -0.006573, -0.020734, 0.057793, 0.000000, 0.000000, 0.008486, 0.019899, -0.013564, -0.088213, -0.020896, 0.004579, -0.003325, 0.086630, -0.003577, -0.034260, -0.012633, 0.001244, -0.019809, -0.003199, 0.000000, 0.000000, -0.027217, -0.003701, -0.005918, 0.000845, 0.044044, 0.027899, 0.013118, 0.009013, -0.012845, 0.075668, -0.007478, -0.007165, -0.032592, -0.010033, 0.000000, 0.000000, -0.004761, -0.011277, -0.015034, -0.044004, -0.044146, 0.036196, -0.021401, 0.010419, 0.019344, 0.012502, 0.029868, -0.002963, 0.001826, 0.017945, 0.000000, 0.000000, -0.023651, 0.003180, -0.012348, 0.008478, -0.021726, 0.011894, -0.015607, 0.001240, 0.038514, -0.010236, 0.009783, 0.020848, -0.017191, 0.003243, 0.000000, 0.000000, -0.006481, 0.000255, -0.000452, -0.086889, -0.016598, -0.013627, -0.052287, 0.062631, 0.040383, -0.022204, 0.001654, -0.009814, -0.024887, -0.018602, 0.000000, 0.000000, -0.002974, 0.066847, 0.012445, -0.000538, 0.034059, 0.037750, 0.011719, -0.056661, 0.004820, 0.030180, 0.012770, -0.004431, 0.005625, 0.005903, 0.000000, 0.000000, -0.003311, -0.003335, 
0.059177, -0.064363, 0.026247, -0.001267, 0.003706, 0.051765, 0.007083, 0.015998, -0.017992, -0.083599, 0.032209, -0.028739, 0.000000, 0.000000, 0.040304, 0.032384, 0.052150, -0.019882, 0.034230, 0.017532, 0.002853, -0.032695, 0.010227, -0.039282, -0.015161, 0.044176, -0.026761, -0.011150, 0.000000, 0.000000, -0.010101, 0.009285, -0.017637, -0.015100, -0.015824, -0.017988, -0.060997, 0.039541, -0.009455, 0.029575, -0.008947, -0.002764, -0.029141, 0.005193, 0.000000, 0.000000, -0.025978, 0.008535, 0.000391, -0.016484, 0.009069, 0.008011, -0.020256, 0.005314, -0.012703, -0.003840, 0.035046, -0.011706, -0.027553, 0.062007, 0.000000, 0.000000, 0.008621, 0.022447, -0.011098, -0.085862, -0.022248, 0.000108, -0.008882, 0.088679, 0.012631, -0.039752, -0.006022, 0.002554, -0.027941, 0.002884, 0.000000, 0.000000, -0.024791, 0.004572, -0.023638, 0.011436, 0.044855, 0.030454, 0.015690, 0.013612, -0.004464, 0.065525, -0.013817, -0.001839, -0.028720, -0.017030, 0.000000, 0.000000, -0.000940, -0.018360, -0.022137, -0.030235, -0.029750, 0.029266, -0.020022, 0.004380, 0.007535, 0.008769, 0.019789, -0.003290, 0.007898, 0.018683, 0.000000, 0.000000, -0.021352, 0.000474, -0.000472, -0.001528, -0.011039, 0.008931, -0.021165, -0.015626, 0.045326, 0.003487, 0.032532, 0.020510, -0.028486, 0.006413, 0.000000, 0.000000, -0.013812, 0.002827, -0.004548, -0.102713, -0.024590, -0.016896, -0.051690, 0.071277, 0.043224, -0.013045, 0.004560, -0.011761, -0.030475, -0.026131, 0.000000, 0.000000, -0.005854, 0.061023, 0.004513, 0.014481, 0.026624, 0.036722, 0.007460, -0.050950, 0.006762, 0.020019, -0.000716, 0.005449, 0.013166, 0.000296, 0.000000, 0.000000, 0.007730, -0.010542, 
0.051701, -0.062498, 0.024878, -0.005872, 0.001240, 0.074552, -0.012866, 0.043300, -0.009348, -0.121734, 0.054363, -0.052291, 0.000000, 0.000000, 0.046202, 0.034515, 0.074327, -0.036806, 0.041650, 0.011836, -0.021510, -0.020999, -0.003392, -0.027005, 0.009879, 0.033123, -0.020195, -0.015380, 0.000000, 0.000000, -0.020570, 0.021103, -0.008771, -0.017189, -0.011806, -0.019663, -0.061161, 0.025878, -0.004230, 0.029441, -0.014811, 0.003336, -0.024264, -0.005251, 0.000000, 0.000000, -0.035360, 0.009850, 0.010046, -0.015652, 0.011163, 0.006666, -0.027773, 0.005830, -0.004028, -0.002792, 0.023365, -0.005286, -0.027984, 0.054593, 0.000000, 0.000000, -0.003803, 0.023804, 0.002960, -0.094868, -0.026761, 0.007110, -0.004859, 0.078310, 0.022296, -0.045262, -0.012216, -0.001942, -0.022481, 0.000901, 0.000000, 0.000000, -0.025855, 0.001715, -0.029285, 0.009430, 0.057731, 0.031586, 0.034107, 0.005671, -0.011920, 0.076551, -0.030734, -0.001153, -0.028063, -0.017018, 0.000000, 0.000000, 0.009906, -0.007135, -0.030822, -0.025165, -0.025717, 0.018851, -0.016767, -0.008504, 0.003604, 0.017603, 0.024751, 0.003717, 0.013165, -0.000152, 0.000000, 0.000000, -0.024912, 0.006671, 0.007059, 0.013562, -0.005864, 0.010154, -0.045507, -0.002938, 0.053683, -0.004537, 0.058901, 0.010543, -0.042605, 0.012091, 0.000000, 0.000000, 0.000226, -0.000627, 0.005401, -0.103650, -0.017982, -0.020326, -0.047287, 0.057960, 0.051916, -0.024770, -0.010415, -0.009538, -0.041479, -0.003446, 0.000000, 0.000000, -0.001487, 0.058420, 0.010208, 0.009901, 0.014093, 0.029784, 0.005093, -0.065674, 0.012225, 0.016312, -0.011423, 0.019309, 0.013330, -0.003298, 0.000000, 0.000000, -0.002731, 0.002616, 
0.031629, -0.040280, 0.029801, -0.009569, 0.013533, 0.062774, 0.006229, 0.034432, -0.020876, -0.109291, 0.060772, -0.048028, 0.000000, 0.000000, 0.024617, 0.038761, 0.082200, -0.041122, 0.045190, 0.004662, -0.047153, 0.010278, -0.020609, -0.026980, 0.021011, 0.030145, -0.026621, -0.006117, 0.000000, 0.000000, -0.024050, 0.008235, -0.009941, -0.015797, -0.022437, -0.018582, -0.065629, 0.030963, 0.006316, 0.025276, -0.013815, -0.002735, -0.027625, -0.010399, 0.000000, 0.000000, -0.030255, 0.013051, 0.009107, -0.014599, 0.012090, 0.006354, -0.007505, -0.005778, 0.002414, -0.002088, 0.008526, -0.006425, -0.021256, 0.040278, 0.000000, 0.000000, -0.002592, 0.027810, 0.005982, -0.104203, -0.035247, 0.009656, -0.012732, 0.087152, 0.020338, -0.044548, -0.013346, -0.004314, -0.018216, 0.004421, 0.000000, 0.000000, -0.029338, 0.002913, -0.041188, 0.014409, 0.044072, 0.038107, 0.026003, 0.019306, -0.019346, 0.082961, -0.021920, -0.006189, -0.026204, -0.021125, 0.000000, 0.000000, -0.000584, 0.005184, -0.028488, -0.018964, -0.023159, 0.018111, -0.013850, -0.009654, -0.004848, 0.002568, 0.014260, -0.006248, 0.008173, 0.008631, 0.000000, 0.000000, -0.016971, 0.006168, 0.011685, 0.011650, -0.005255, 0.010058, -0.042595, 0.001740, 0.055001, -0.008458, 0.054109, 0.012151, -0.056441, 0.014594, 0.000000, 0.000000, -0.001783, -0.008522, 0.009231, -0.100892, -0.024531, -0.018181, -0.046663, 0.060855, 0.055941, -0.016567, 0.015413, -0.008111, -0.043292, -0.004382, 0.000000, 0.000000, -0.011795, 0.055284, 0.008828, -0.000674, 0.012856, 0.027784, 0.002310, -0.071399, 0.009824, 0.023914, -0.006174, 0.022831, 0.014542, 0.002686, 0.000000, 0.000000, -0.001354, 0.014369, 
0.031285, -0.044721, 0.030738, 0.004064, 0.018128, 0.090136, -0.007330, 0.021895, -0.046091, -0.089972, 0.046993, -0.043246, 0.000000, 0.000000, 0.022763, 0.044277, 0.083463, -0.055091, 0.062847, -0.007451, -0.046716, 0.035682, -0.035486, -0.014753, 0.012190, -0.000556, -0.011536, -0.001162, 0.000000, 0.000000, -0.016376, -0.000200, -0.008067, -0.035825, -0.012375, -0.007414, -0.053964, 0.044069, 0.003192, 0.004146, -0.016350, -0.002164, -0.023016, 0.002487, 0.000000, 0.000000, -0.039209, 0.014990, -0.002446, -0.013834, 0.009902, -0.001512, -0.004493, -0.005748, -0.002190, -0.002942, 0.007566, -0.002534, -0.015069, 0.047829, 0.000000, 0.000000, 0.001047, 0.019651, 0.002779, -0.090613, -0.036075, 0.009149, -0.014567, 0.067474, 0.022800, -0.054854, -0.009020, -0.000517, -0.026788, 0.015867, 0.000000, 0.000000, -0.016876, 0.005312, -0.019868, 0.010485, 0.029736, 0.063188, -0.013097, 0.046262, -0.020688, 0.071392, -0.015374, -0.019911, -0.025549, -0.019085, 0.000000, 0.000000, -0.003785, 0.005345, -0.031078, -0.015583, -0.025192, 0.031059, -0.018903, -0.005432, -0.004201, -0.008707, 0.030469, -0.024034, 0.015749, 0.010889, 0.000000, 0.000000, -0.007317, -0.007979, -0.005057, 0.031261, -0.015184, 0.018249, -0.006492, -0.025614, 0.049740, -0.006821, 0.038770, 0.010722, -0.050492, 0.011655, 0.000000, 0.000000, 0.000770, -0.014278, 0.005234, -0.108305, -0.013282, -0.022878, -0.051989, 0.059462, 0.048322, -0.003418, 0.007056, -0.010137, -0.047572, -0.010076, 0.000000, 0.000000, -0.006969, 0.064855, 0.003625, -0.017093, 0.023866, 0.020549, -0.000014, -0.050849, 0.014126, 0.028721, 0.009761, 0.014899, 0.004925, -0.000738, 0.000000, 0.000000, 0.005287, 0.004918, 
0.052400, -0.036139, 0.019556, 0.027576, 0.002458, 0.056037, 0.001015, -0.011870, 0.030404, -0.109724, 0.062581, -0.033336, 0.000000, 0.000000, 0.017278, 0.022647, 0.057133, -0.032489, 0.039002, -0.005070, -0.013425, 0.005794, -0.010553, -0.011689, -0.007978, 0.015612, -0.020826, -0.015515, 0.000000, 0.000000, -0.021680, 0.005629, -0.008148, -0.047622, -0.010984, -0.004826, -0.066184, 0.050454, -0.009944, 0.002232, -0.004926, -0.015643, -0.014331, 0.004027, 0.000000, 0.000000, -0.037625, 0.014161, 0.001047, -0.009617, -0.003474, 0.013546, -0.018836, -0.008333, 0.007332, -0.013196, 0.008015, -0.005489, -0.007728, 0.041168, 0.000000, 0.000000, 0.001846, 0.020356, 0.004093, -0.084275, -0.041321, 0.015095, -0.002115, 0.060890, 0.030611, -0.046007, -0.017207, 0.009114, -0.027024, 0.003462, 0.000000, 0.000000, -0.015270, 0.007304, -0.042104, 0.001474, 0.042927, 0.040810, 0.000963, 0.054912, -0.023006, 0.064077, -0.005886, -0.029626, -0.029747, -0.026071, 0.000000, 0.000000, -0.005607, 0.009991, -0.028865, -0.035164, -0.036851, 0.037844, -0.021020, -0.002332, -0.012304, -0.019982, 0.026727, -0.042110, 0.024426, 0.016409, 0.000000, 0.000000, -0.010507, -0.017525, 0.000848, 0.030983, -0.009742, 0.027905, 0.011676, -0.036819, 0.027283, 0.000366, 0.041239, 0.009732, -0.032803, 0.007367, 0.000000, 0.000000, 0.007419, -0.007536, 0.005547, -0.091326, -0.016516, -0.027961, -0.061929, 0.048576, 0.076083, -0.006496, 0.010170, 0.010514, -0.056768, -0.017587, 0.000000, 0.000000, -0.005386, 0.061492, 0.001873, -0.017160, 0.016253, 0.015303, -0.003518, -0.045153, 0.021927, 0.024983, -0.007748, 0.004013, 0.003732, 0.003585, 0.000000, 0.000000, -0.002195, 0.001724, 
0.044754, -0.042544, 0.020754, 0.036603, 0.010813, 0.065871, -0.002580, -0.009406, 0.005600, -0.100987, 0.052937, -0.030124, 0.000000, 0.000000, 0.014946, 0.031008, 0.063287, -0.059219, 0.054485, -0.009077, -0.013795, 0.017888, -0.011201, -0.036516, -0.002046, 0.008739, -0.010144, 0.002245, 0.000000, 0.000000, -0.029959, 0.005082, -0.011573, -0.057726, 0.004009, -0.017308, -0.057693, 0.056910, -0.023160, -0.001358, -0.022245, -0.000830, 0.000436, 0.012273, 0.000000, 0.000000, -0.044856, 0.013107, 0.009443, -0.001302, -0.013826, 0.015795, -0.023711, -0.013490, 0.019937, -0.022410, 0.013744, 0.000917, -0.017403, 0.036977, 0.000000, 0.000000, 0.003830, 0.010859, -0.001796, -0.073922, -0.039997, 0.012298, 0.007860, 0.052314, 0.032158, -0.038493, -0.025496, 0.001902, -0.026831, 0.005662, 0.000000, 0.000000, -0.000640, 0.007923, -0.046657, 0.005884, 0.054613, 0.026825, -0.011088, 0.071867, -0.043595, 0.071139, -0.000051, -0.049964, -0.012909, -0.025635, 0.000000, 0.000000, -0.000004, 0.010385, -0.023233, -0.035102, -0.027177, 0.031981, -0.039920, 0.001728, 0.006138, -0.021845, 0.025103, -0.046104, 0.015032, 0.008401, 0.000000, 0.000000, -0.011794, -0.015617, 0.027749, 0.013110, -0.011349, 0.020508, 0.001284, -0.036941, 0.036022, 0.010714, 0.021329, 0.013201, -0.026417, 0.000245, 0.000000, 0.000000, 0.005331, -0.000835, -0.000821, -0.089201, -0.030986, -0.021941, -0.063185, 0.056784, 0.067293, -0.014932, -0.006072, 0.024673, -0.066866, -0.003813, 0.000000, 0.000000, -0.007234, 0.058491, -0.012703, -0.003241, 0.017772, 0.032048, 0.005118, -0.043086, 0.006544, 0.022682, -0.001322, 0.008136, 0.000427, -0.003825, 0.000000, 0.000000, -0.000078, 0.002724, 
0.045946, -0.042693, 0.005307, 0.042439, 0.028324, 0.062010, 0.013595, -0.017691, -0.006109, -0.093882, 0.051665, -0.030403, 0.000000, 0.000000, 0.001000, 0.032357, 0.053857, -0.059195, 0.049565, -0.013225, -0.030143, 0.053288, -0.031844, -0.002243, 0.005608, -0.010132, -0.003591, -0.002114, 0.000000, 0.000000, -0.030719, 0.013674, -0.007331, -0.051403, 0.002806, -0.000623, -0.056083, 0.043850, -0.031181, -0.026611, -0.027524, 0.004396, -0.002657, 0.027245, 0.000000, 0.000000, -0.044274, 0.029082, 0.012095, -0.001386, -0.019506, 0.035637, -0.029352, -0.005261, 0.024867, -0.029057, 0.012632, -0.009723, -0.009861, 0.030413, 0.000000, 0.000000, 0.002838, 0.013353, 0.002789, -0.066170, -0.039556, 0.001705, 0.019961, 0.025564, 0.035479, -0.024049, -0.029981, 0.009230, -0.021991, 0.002463, 0.000000, 0.000000, -0.000266, -0.002509, -0.067426, 0.013844, 0.050200, 0.022217, 0.031328, 0.038581, -0.046344, 0.072013, -0.005905, -0.040942, 0.010162, -0.031217, 0.000000, 0.000000, -0.007819, 0.013454, -0.018478, -0.012736, -0.039376, 0.048406, -0.030702, -0.029708, 0.017792, -0.041068, 0.013374, -0.030437, 0.017655, 0.017061, 0.000000, 0.000000, -0.024522, -0.008460, 0.018300, 0.024886, -0.013413, 0.034216, -0.009331, -0.021737, 0.033799, 0.013361, 0.014632, -0.000376, -0.032552, -0.004970, 0.000000, 0.000000, 0.010263, 0.001721, 0.006320, -0.105191, -0.026312, -0.026726, -0.067407, 0.054750, 0.069015, -0.023185, -0.001155, 0.022043, -0.068988, -0.014502, 0.000000, 0.000000, -0.010759, 0.062923, -0.001885, 0.000054, 0.034765, 0.022301, 0.003405, -0.048668, -0.011139, 0.039765, -0.009401, 0.021348, 0.002926, -0.015169, 0.000000, 0.000000, -0.007458, 0.004116, 
0.054857, -0.070632, 0.019915, 0.034573, 0.040202, 0.076273, 0.016068, -0.017511, -0.039498, -0.086835, 0.043880, -0.025651, 0.000000, 0.000000, -0.009171, 0.045679, 0.050045, -0.062050, 0.042624, -0.016240, -0.038515, 0.068273, -0.017752, -0.010618, 0.017212, -0.021472, -0.008656, 0.008521, 0.000000, 0.000000, -0.023088, 0.005061, -0.022663, -0.044775, -0.007306, -0.001268, -0.053767, 0.053438, -0.030690, -0.029207, -0.021801, -0.008368, -0.002830, 0.029920, 0.000000, 0.000000, -0.041881, 0.039328, -0.002713, -0.001603, -0.006603, 0.029055, -0.003749, -0.026824, 0.004050, -0.017429, 0.006428, 0.001534, -0.003890, 0.026666, 0.000000, 0.000000, -0.004047, 0.025405, 0.009003, -0.062269, -0.046965, 0.006929, -0.001896, 0.029885, 0.049933, -0.020142, -0.029074, 0.006590, -0.025936, -0.000763, 0.000000, 0.000000, 0.006888, 0.002879, -0.036283, 0.001579, 0.035738, 0.019186, -0.002458, 0.047420, -0.030627, 0.057840, -0.009525, -0.051674, 0.021187, -0.033482, 0.000000, 0.000000, -0.017739, 0.023358, -0.013808, -0.020608, -0.040676, 0.036239, -0.039256, -0.029611, 0.022978, -0.050674, 0.022186, -0.014667, -0.000664, 0.037161, 0.000000, 0.000000, -0.029457, -0.005063, -0.011749, 0.033952, -0.015665, 0.047232, 0.011587, -0.027709, 0.034158, 0.006774, 0.013397, 0.009274, -0.019325, 0.002882, 0.000000, 0.000000, 0.015947, -0.015451, -0.005136, -0.083630, -0.036188, -0.019102, -0.054432, 0.057047, 0.057187, -0.025438, -0.007554, 0.020227, -0.071414, -0.011217, 0.000000, 0.000000, -0.014889, 0.063948, 0.004909, -0.005998, 0.029354, 0.029170, -0.009962, -0.039337, -0.006353, 0.037397, -0.007169, 0.020591, -0.010161, -0.014850, 0.000000, 0.000000, -0.014808, 0.009812, 
0.057056, -0.070713, 0.017094, 0.040332, 0.030660, 0.084588, 0.007200, -0.018849, -0.039811, -0.098155, 0.051192, -0.021747, 0.000000, 0.000000, -0.008260, 0.050399, 0.044761, -0.057513, 0.034472, -0.013374, -0.045209, 0.056529, 0.000200, -0.014129, 0.027780, -0.028600, -0.021373, 0.014500, 0.000000, 0.000000, -0.015951, -0.003566, -0.017062, -0.047837, -0.002765, 0.000647, -0.044472, 0.046408, -0.024578, -0.020938, -0.025201, -0.002666, -0.004179, 0.033228, 0.000000, 0.000000, -0.040751, 0.038565, 0.000685, -0.005655, -0.018777, 0.029658, -0.004784, -0.020693, 0.012994, -0.012391, 0.012068, -0.001305, -0.008539, 0.028025, 0.000000, 0.000000, 0.007788, 0.016778, 0.006646, -0.056079, -0.046832, 0.002534, -0.007360, 0.029841, 0.048787, -0.020622, -0.025589, 0.001380, -0.030622, -0.003525, 0.000000, 0.000000, 0.004242, 0.000552, -0.040815, 0.006874, 0.024011, 0.022201, 0.012459, 0.035450, -0.027662, 0.059745, -0.006867, -0.041209, 0.020708, -0.037528, 0.000000, 0.000000, -0.018216, 0.012902, -0.008556, -0.025191, -0.042673, 0.033071, -0.036130, -0.024467, 0.019798, -0.050288, 0.016466, -0.004821, 0.003313, 0.048961, 0.000000, 0.000000, -0.028159, -0.008818, -0.015197, 0.037912, -0.018999, 0.038308, 0.004579, -0.025477, 0.038868, 0.019140, 0.010312, 0.013706, -0.009175, 0.008751, 0.000000, 0.000000, 0.010578, -0.004078, 0.002689, -0.093352, -0.030758, -0.011588, -0.054895, 0.058814, 0.055544, -0.023595, 0.015301, 0.005420, -0.064271, -0.021106, 0.000000, 0.000000, -0.014795, 0.057946, 0.017470, -0.010037, 0.032717, 0.033720, -0.016656, -0.038061, -0.006233, 0.030489, -0.006402, 0.009896, -0.014210, -0.016814, 0.000000, 0.000000, -0.019579, 0.007793, 
