284,-6.0197179e-002,-1.2959906e-002,-2.0454112e-002,4.1600137e-003,1.6537574e-001,-1.5165187e-001,9.2093283e-002,6.4527963e-002,-8.5308927e-002,7.1625315e-002,7.1448875e-003,-7.4953697e-002,0.0000000e+000,0.0000000e+000,-2.9803853e-002,-4.7091377e-002,-1.0534965e-001,3.5929668e-002,1.6369990e-002,3.2132559e-003,1.2630065e-001,5.8951938e-003,-8.9155715e-002,3.1902614e-002,-9.1209872e-002,3.9831300e-002,-1.7293077e-002,7.2948843e-002,0.0000000e+000,0.0000000e+000,-1.4575158e-002,5.0646815e-002,3.1768283e-002,-1.4153783e-002,5.8662545e-002,5.9694386e-002,6.4675982e-003,4.9249464e-003,-4.2968772e-002,-5.8220411e-002,-4.5671326e-002,5.9629833e-002,3.7298586e-002,3.9058871e-003,0.0000000e+000,0.0000000e+000,-8.5466704e-002,3.2058521e-002,7.5721759e-002,-8.8614155e-003,1.3391511e-002,-3.2310114e-002,-5.5222247e-002,3.8193002e-003,-1.1491356e-002,3.8111381e-002,-2.0533546e-002,1.5053569e-002,-5.4350101e-002,1.8156154e-002,0.0000000e+000,0.0000000e+000,3.7505431e-002,-1.7568793e-002,3.0942038e-002,-1.2915044e-002,4.0732458e-002,2.9155424e-002,4.3073752e-002,-6.1531272e-002,-1.1198985e-002,2.0831352e-002,-4.0089651e-002,6.2575920e-002,-1.1271103e-002,-4.6058016e-002,0.0000000e+000,0.0000000e+000,-2.3921246e-002,9.8411038e-003,-1.3744137e-002,-7.6691516e-003,-1.3586909e-002,5.7093619e-002,-7.2714424e-003,-2.5865962e-003,-2.0566273e-002,5.5258783e-002,2.7784773e-002,-3.8703081e-002,-5.8816891e-002,-1.8097854e-002,0.0000000e+000,0.0000000e+000,-1.8459666e-002,-1.8774652e-002,-3.4387666e-002,4.1528204e-003,-5.5684933e-002,5.5561980e-002,-1.9919194e-002,4.2368830e-002,-4.0635719e-003,-1.2655185e-002,-1.1943487e-003,7.7552796e-003,-8.5668128e-004,-1.7858220e-002,0.0000000e+000,0.0000000e+000,-2.7398479e-002,-1.7581453e-002,2.5594606e-002,-7.5880149e-003,-5.2208905e-002,2.7596089e-002,-4.7838456e-002,2.4297180e-002,5.1799598e-003,4.7381185e-003,9.6140522e-003,-1.7127935e-002,-5.6276331e-002,3.6503920e-002,0.0000000e+000,0.0000000e+000,6.3641242e-002,-3.8541349e-002,5.5473018e-002,3.0889559e-002,3.0364724e-002,1.3879234e-002,4.3256016e-002,-1.9570219e-002,-1.9701546e-002,-7.4647749e-003,4.8536802e-002,-2.6634299e-002,7.5434764e-002,-4.0341602e-002,0.0000000e+000,0.0000000e+000,1.6150483e-004,-3.5754296e-002,6.5180668e-003,-2.1620299e-002,1.0278379e-002,4.6456609e-002,-1.9510144e-002,2.9390044e-002,1.4917978e-002,3.9547601e-003,-7.0380761e-002,8.2725686e-002,-7.0466180e-002,-1.7407862e-002,0.0000000e+000,0.0000000e+000,-1.3635701e-002,-1.9923497e-002,
,297,-1.0266750e-001,4.7978303e-002,-1.3674514e-001,2.4732256e-002,1.1090270e-001,-6.6533715e-002,1.1044333e-001,-1.3835575e-002,-1.2019469e-001,-6.1965069e-002,-9.7408662e-002,3.1694015e-002,0.0000000e+000,0.0000000e+000,6.2373539e-002,4.1693973e-002,1.4144911e-001,-6.7627455e-002,9.6000470e-002,-6.0433869e-002,-1.0175265e-001,-2.1912016e-002,-2.4909087e-002,-2.4815868e-002,6.9345454e-002,5.4137906e-002,-8.5897859e-002,1.4651712e-001,0.0000000e+000,0.0000000e+000,3.3732930e-002,-7.9526341e-002,4.6541144e-002,-3.9173808e-003,5.4755071e-002,-2.8649143e-003,5.3401037e-002,2.2027068e-002,-4.1833560e-002,9.1310602e-003,-3.8891317e-002,5.3026594e-002,1.2149583e-002,-3.2760928e-002,0.0000000e+000,0.0000000e+000,-5.5318514e-002,3.7033180e-003,-1.0731228e-002,1.4537699e-002,-2.9936175e-002,7.6449315e-003,7.9642365e-003,-3.9007666e-002,-5.5801442e-003,5.6006464e-002,-6.7694382e-003,-2.3948297e-003,-4.2766771e-002,-4.5316988e-002,0.0000000e+000,0.0000000e+000,2.7188754e-002,-1.6905265e-002,1.2087326e-001,-6.0825342e-002,-5.9729563e-002,4.8046178e-002,7.8897434e-003,-3.1941401e-002,7.7308862e-002,-9.6083186e-003,-4.8897923e-002,7.8825798e-002,9.7684979e-004,2.3140751e-002,0.0000000e+000,0.0000000e+000,-6.4480005e-002,5.5395149e-002,3.6134965e-003,-1.9020300e-002,-3.0004825e-002,5.3706038e-002,-5.6405651e-002,-4.3151980e-002,4.8121474e-002,-3.9062569e-003,2.8338802e-002,3.1390295e-002,-5.5596459e-002,1.5033530e-002,0.0000000e+000,0.0000000e+000,-6.2120174e-002,-3.3056078e-002,3.6328923e-002,1.0932286e-001,-7.0900274e-002,-2.5591013e-002,-1.0153663e-001,-5.8439329e-002,1.1828422e-001,-1.9714598e-002,3.0109472e-003,-4.4868326e-002,-1.1133274e-002,-2.1367878e-005,0.0000000e+000,0.0000000e+000,-1.5717844e-002,-1.5904023e-002,5.8492995e-002,-5.5404347e-002,2.0401823e-002,-9.5969156e-003,4.6813710e-003,3.4622357e-002,-5.3700850e-002,4.5911145e-002,-6.3813195e-002,5.1484296e-002,-6.0852715e-002,-2.9410147e-003,0.0000000e+000,0.0000000e+000,9.5840527e-002,7.7476894e-003,8.6217245e-003,2.5497121e-002,2.6209432e-002,6.9735335e-003,1.3409253e-001,8.4218770e-003,2.1662213e-002,-1.0626876e-002,-3.5247653e-002,1.9331612e-002,-3.0075668e-002,-1.7949274e-002,0.0000000e+000,0.0000000e+000,-2.5888253e-002,3.6416983e-002,4.5855898e-004,-8.8548313e-003,-5.0145866e-002,8.2497855e-002,-3.4787843e-002,8.9270344e-003,4.5448688e-002,-4.3117131e-002,-1.4526104e-002,-5.9716246e-002,4.8838723e-003,-4.4303228e-002,0.0000000e+000,0.0000000e+000,1.3066380e-002,2.0715950e-002,
,309,-4.5007545e-002,-4.2501843e-002,-5.0685605e-002,3.3615064e-002,-4.5019961e-002,-4.4267647e-002,1.9977323e-001,-1.0641098e-001,2.9144485e-001,-1.8555313e-001,-2.8158113e-002,1.5491729e-003,0.0000000e+000,0.0000000e+000,-2.7539498e-002,-1.1345070e-001,1.9015592e-002,5.4516575e-002,-8.8454094e-002,4.4113088e-002,-1.0066218e-001,1.5176144e-002,5.2598331e-002,-1.1084449e-002,5.4278665e-002,-2.5745040e-002,-1.4579048e-001,1.1292369e-001,0.0000000e+000,0.0000000e+000,1.5142690e-001,2.8376113e-002,3.2885555e-002,-7.3563648e-003,-5.3993925e-002,4.6517125e-003,-6.4110215e-002,-3.8999233e-003,-6.0306065e-003,2.1662804e-002,-6.3567850e-002,2.4411640e-002,-3.0378010e-002,-1.5954785e-002,0.0000000e+000,0.0000000e+000,-9.8791750e-002,3.8770514e-002,-2.1472339e-002,-1.4559539e-002,-3.1159028e-002,3.5001452e-002,-3.4386615e-003,-5.2173688e-002,7.1558125e-002,-5.7434568e-002,-1.5130964e-002,1.7389341e-002,-5.8191732e-002,7.3916529e-002,0.0000000e+000,0.0000000e+000,-3.3915190e-002,-9.1036226e-004,8.7194779e-002,6.9587608e-002,4.5943869e-002,-1.0828719e-002,8.4731115e-002,-1.4638708e-001,8.1036156e-002,-4.7514566e-002,2.8582363e-002,3.7136298e-002,4.3948471e-002,2.8365048e-002,0.0000000e+000,0.0000000e+000,-5.8214841e-002,2.8506730e-002,-2.2762337e-002,8.6577039e-002,-3.1617067e-002,9.3793443e-002,-3.1404075e-002,-6.0590347e-002,-7.6125078e-002,1.2284128e-001,6.9916130e-003,8.5905228e-002,-1.2988096e-001,4.8829887e-002,0.0000000e+000,0.0000000e+000,-8.4777205e-003,1.7772922e-002,-2.5864217e-002,7.3606495e-002,-1.4574179e-001,2.7226512e-002,-1.1392772e-001,9.1721285e-002,-6.1982788e-002,-1.6246962e-002,4.0648695e-002,1.7162373e-003,9.5274877e-003,2.4638810e-002,0.0000000e+000,0.0000000e+000,-6.0068522e-002,-4.6785198e-003,-8.6247639e-002,1.3267424e-002,-6.6101163e-002,8.8937345e-002,-3.2848060e-002,2.9249461e-002,5.6334292e-002,-9.5024466e-002,5.0557974e-002,-4.4803521e-002,-2.7417292e-002,-9.7796534e-002,0.0000000e+000,0.0000000e+000,7.8239024e-003,-5.0405075e-003,8.4847968e-002,-6.1017644e-002,-1.0467303e-001,4.5177876e-002,5.2184559e-002,-2.5375674e-002,9.8010957e-002,2.8620752e-002,-5.6276923e-004,6.8530937e-002,5.7685050e-002,-1.0014632e-001,0.0000000e+000,0.0000000e+000,-4.5741967e-002,-2.1646986e-002,-5.4195308e-003,-2.7686521e-002,-5.0157917e-002,9.3296711e-003,4.0378038e-002,-4.8070380e-003,-2.4532920e-002,1.2967180e-001,-2.2001006e-002,-2.5507543e-004,-8.4490220e-002,4.2731300e-002,0.0000000e+000,0.0000000e+000,2.0603883e-002,-1.3071750e-002,
,321,2.5228159e-002,-8.7433129e-002,2.4310215e-002,-5.9181089e-002,3.1130681e-002,-5.6253866e-002,3.2376838e-003,-6.2706823e-002,4.1531168e-002,-8.4152448e-002,-8.5960561e-002,5.2479614e-002,0.0000000e+000,0.0000000e+000,1.2224618e-001,1.4764471e-002,-2.8639770e-002,8.4029671e-002,-8.5901528e-002,4.8846638e-002,-2.5424089e-003,-1.1050574e-001,1.1170540e-001,-5.9317604e-002,1.0639975e-001,6.0049839e-002,-1.2636896e-001,7.1005913e-002,0.0000000e+000,0.0000000e+000,6.4284199e-002,-5.5910156e-002,7.3289867e-002,-2.8232836e-002,-2.9732081e-002,6.1463452e-002,-7.3686244e-002,-9.3651036e-002,-1.8622531e-002,-4.3681124e-002,2.0100156e-002,6.0207117e-002,-2.9257050e-002,5.4099508e-002,0.0000000e+000,0.0000000e+000,-5.9057513e-002,1.4965020e-002,-7.8960306e-002,8.1049999e-002,6.6649639e-002,-5.1213104e-002,1.4268871e-002,-1.6152865e-002,-5.9991010e-002,9.3760807e-002,-6.2054935e-002,6.3974498e-002,-6.9717607e-002,-3.4742610e-002,0.0000000e+000,0.0000000e+000,4.8587207e-002,6.3476766e-002,1.4631741e-002,6.2855497e-002,-1.7276601e-001,1.1872925e-002,1.7272925e-002,8.2446046e-002,5.2142894e-002,1.3770461e-002,-1.7354683e-001,1.4108057e-001,3.1805605e-003,-4.2735417e-002,0.0000000e+000,0.0000000e+000,-1.4285098e-001,-6.2604652e-003,1.6084912e-001,-1.7883402e-002,-1.1605730e-001,-8.8320708e-003,-1.9666310e-001,6.3544653e-003,8.4953389e-002,1.4001388e-002,1.1957320e-001,-4.4533721e-002,-5.8778349e-002,-4.4314473e-002,0.0000000e+000,0.0000000e+000,5.0521794e-002,-3.9695784e-002,1.2961275e-001,9.9553261e-002,3.2286952e-002,4.3138410e-002,-1.5150881e-001,-1.3950637e-001,-1.0869818e-001,-5.4969263e-002,1.0590542e-001,3.5097766e-002,6.6682880e-002,6.3628015e-004,0.0000000e+000,0.0000000e+000,-3.8108730e-002,-7.6385904e-002,-4.7949669e-002,3.2142401e-002,-4.5859468e-002,1.2637960e-002,1.8367497e-002,-5.6117613e-002,-2.0225783e-002,-9.0387995e-003,1.5463949e-002,4.7239675e-002,-5.3506467e-002,5.8806920e-002,0.0000000e+000,0.0000000e+000,-5.4653721e-002,3.3868189e-002,1.0126994e-001,-2.4547156e-002,-4.7463574e-002,2.9699828e-002,8.5468454e-002,1.4922147e-001,1.1779887e-001,-5.2898859e-002,-1.0348431e-001,-6.0632955e-002,-2.1553976e-002,1.1190969e-002,0.0000000e+000,0.0000000e+000,5.2275876e-003,5.9961845e-002,1.1270548e-002,-1.0493501e-001,2.3388842e-002,3.7065310e-003,-7.8863585e-002,1.8237895e-001,4.8485010e-002,-8.3017439e-002,-5.9223833e-003,-1.2679209e-003,-7.7489765e-002,-9.2887791e-003,0.0000000e+000,0.0000000e+000,7.5627410e-002,-1.2171369e-002,
,333,-1.2006358e-001,-8.5909412e-002,3.7261435e-002,1.1250580e-002,5.6125744e-002,1.0563042e-001,-5.5262515e-002,-4.3104560e-002,-2.0838671e-001,-5.0572027e-002,-3.5262903e-002,2.2448704e-002,0.0000000e+000,0.0000000e+000,6.6852186e-002,8.5001568e-002,-7.7024660e-003,-4.4221709e-002,-5.8438020e-002,3.2349491e-002,-1.7799907e-001,1.8280850e-001,-9.6331530e-002,-2.7408723e-002,2.1146611e-002,9.9698413e-002,-4.3588052e-002,4.2437763e-002,0.0000000e+000,0.0000000e+000,2.1027228e-003,-8.2552649e-002,1.0128805e-001,-5.0864946e-002,6.5252474e-003,-6.2049004e-002,1.4579978e-003,-9.9355347e-002,4.4594613e-002,1.9861054e-002,3.9289458e-002,1.5518948e-002,-1.0165672e-001,4.1545704e-002,0.0000000e+000,0.0000000e+000,-1.9296037e-002,-3.4787893e-002,2.8493441e-002,3.9831140e-002,1.8594279e-002,-5.4754235e-002,-7.7582248e-002,-1.6097671e-002,-5.5949583e-002,4.8213961e-002,1.2153033e-001,-2.6064673e-003,-1.7293129e-002,-9.0460248e-002,0.0000000e+000,0.0000000e+000,-2.2207934e-002,-2.0551528e-002,6.6005700e-002,-4.4917080e-002,7.3985554e-003,2.1956480e-003,-1.4434269e-001,5.1733023e-002,5.2540214e-002,-4.7831612e-002,1.0251178e-002,-1.4777933e-002,3.1385419e-002,3.5361725e-002,0.0000000e+000,0.0000000e+000,-3.4453356e-002,-6.8672837e-003,-2.0933744e-002,1.4033147e-002,-2.1100104e-002,-1.6924007e-002,-9.0725853e-002,6.6059299e-002,-6.8392491e-002,9.5870335e-002,-2.5449821e-002,-1.7432605e-002,-4.4645542e-002,1.1446718e-002,0.0000000e+000,0.0000000e+000,-6.6295745e-002,5.9272854e-002,1.6529896e-002,4.3661406e-002,-8.8869978e-002,2.4943893e-002,-7.0362439e-002,2.4768192e-002,-7.3998657e-003,-2.9342773e-002,-6.5167885e-004,2.5339907e-002,-2.8846541e-002,-2.5973562e-002,0.0000000e+000,0.0000000e+000,-1.5532218e-001,3.0978965e-002,-6.7864678e-002,-8.8018931e-002,-9.7682506e-002,3.9357248e-002,6.4103570e-002,8.2523338e-002,-6.4247352e-002,8.0751174e-002,-3.4785610e-002,-3.3031264e-002,-4.3556055e-003,-5.5030598e-002,0.0000000e+000,0.0000000e+000,3.3986874e-002,-6.0191767e-003,1.1374353e-001,7.6391975e-003,-1.0013035e-001,4.4648211e-003,1.0569240e-001,7.6047869e-002,1.0554547e-001,-1.8653488e-002,-1.9111517e-002,-1.4277823e-001,-1.0202513e-002,8.3326598e-003,0.0000000e+000,0.0000000e+000,1.7154623e-002,-5.0308220e-002,1.0772838e-002,7.0913817e-002,1.1334015e-002,4.8105904e-002,-5.9369550e-002,-8.3398867e-002,-5.0295215e-002,5.5861587e-003,6.5307313e-002,-6.8308760e-003,7.4287604e-002,-3.8725056e-002,0.0000000e+000,0.0000000e+000,3.2117258e-003,-2.0837785e-002,
,345,-1.3570704e-001,7.3737707e-002,-5.3214052e-003,-2.3530687e-002,5.4695378e-002,1.6532331e-002,1.6206887e-001,-1.1664653e-001,-2.0171937e-001,-1.0193736e-001,-1.4161843e-001,1.8650027e-001,0.0000000e+000,0.0000000e+000,7.0533410e-002,1.9272365e-001,2.5688957e-003,-2.7758617e-002,-6.3011058e-002,-7.0352762e-002,1.0599374e-001,-1.0886934e-001,1.2462281e-001,-1.3038262e-001,-1.3373316e-001,2.1328319e-001,-2.3304908e-001,1.6932355e-001,0.0000000e+000,0.0000000e+000,5.2568097e-002,5.8698989e-003,3.7207577e-002,-8.7494105e-003,-2.0997397e-003,-7.0182761e-003,2.8286781e-002,-5.5398467e-002,1.4026898e-001,-1.1955978e-002,-7.3452703e-002,1.2877571e-001,-4.3428710e-002,7.7904423e-003,0.0000000e+000,0.0000000e+000,-1.0157036e-001,5.4272680e-003,5.3219701e-003,6.1207087e-002,4.6725994e-002,-6.2075698e-002,-3.4821654e-002,-1.3943335e-002,-5.3938759e-002,6.2890159e-002,-6.8534279e-002,-1.7505198e-002,-2.8118768e-002,-2.2064093e-002,0.0000000e+000,0.0000000e+000,-3.8901439e-002,2.2334470e-002,5.1290742e-002,7.9285111e-002,-5.4203831e-005,1.3016412e-001,1.1310477e-001,-1.4380969e-002,-9.8372586e-002,-3.8438372e-002,9.0250317e-002,-8.0747389e-002,1.3004073e-001,-1.9021757e-002,0.0000000e+000,0.0000000e+000,-1.0460501e-001,-1.0889397e-002,-1.2397860e-001,5.4878632e-002,5.3819892e-002,5.6514478e-002,-1.6520501e-002,-9.3987111e-003,-1.9018964e-001,1.0986412e-001,3.7962924e-002,2.4965699e-002,4.7236262e-002,-8.2614018e-002,0.0000000e+000,0.0000000e+000,8.5821354e-002,-5.8670545e-002,-4.7744991e-002,-1.1022276e-001,1.2419415e-001,-5.4269802e-002,-2.2452329e-002,1.1037921e-001,4.1797560e-002,-7.6528526e-003,-1.1034976e-001,-1.9916731e-002,-1.5495121e-001,-1.8767308e-002,0.0000000e+000,0.0000000e+000,-1.3068212e-002,-4.6366024e-002,-2.0326792e-002,-6.5125289e-002,-1.1943322e-001,5.0471390e-002,1.2032367e-002,-2.0303651e-002,1.4931246e-001,-7.4388522e-002,5.9142916e-002,-3.3059627e-002,-1.9328805e-001,2.4728020e-002,0.0000000e+000,0.0000000e+000,3.2193894e-002,-5.0705438e-002,7.5662751e-002,8.8351558e-002,-5.2240385e-002,8.2764813e-003,-1.0521115e-001,1.6459627e-002,2.6664617e-002,-1.7017769e-002,9.8961386e-002,-8.8231100e-003,-2.8831525e-002,6.7514434e-002,0.0000000e+000,0.0000000e+000,5.7884012e-002,4.9431304e-002,1.8007748e-001,-8.2173848e-002,-1.7538778e-002,4.5290911e-002,-7.5343837e-002,1.4966067e-002,-1.3011512e-001,6.0409766e-002,3.4260107e-003,2.5195555e-002,6.3908461e-002,4.1738023e-002,0.0000000e+000,0.0000000e+000,1.2948598e-002,-2.3156872e-002,
,357,-1.8638921e-002,-1.2508200e-001,1.4203373e-003,-1.3725772e-002,-7.6570965e-002,1.8767308e-001,-5.6735544e-002,-1.9579880e-002,-1.3759646e-001,-1.9953903e-002,1.7854700e-001,-1.6646935e-002,0.0000000e+000,0.0000000e+000,-1.6632891e-001,1.4971771e-001,3.2314735e-002,-2.5692411e-001,1.3009926e-001,-2.8788257e-002,-7.8756625e-002,2.7774357e-001,3.0090317e-002,-8.5447873e-003,4.4238008e-002,-1.6957954e-001,-1.2176672e-001,9.3706187e-002,0.0000000e+000,0.0000000e+000,7.6953611e-002,7.9603796e-002,4.9120690e-002,-4.1176414e-002,1.0778672e-001,-3.7845713e-003,5.4732327e-002,1.0208248e-001,-1.4946009e-001,8.4389209e-002,-5.2768877e-002,3.6105435e-002,-7.3258909e-002,-7.9876699e-003,0.0000000e+000,0.0000000e+000,3.5870991e-002,-8.7007462e-002,9.1621759e-002,-1.2361326e-002,2.3474567e-002,-8.1534351e-002,-9.5581962e-002,-6.2172920e-002,8.7104900e-003,3.2722915e-002,-2.5293513e-002,6.6283306e-002,-6.9281662e-003,-3.8527705e-002,0.0000000e+000,0.0000000e+000,-1.3482549e-002,-2.9098903e-002,1.9154880e-002,3.2740471e-002,-8.8424864e-002,5.4424284e-002,-1.6618662e-002,-5.8742442e-002,1.1606877e-001,-7.4961852e-002,-3.1615533e-002,-1.5894854e-002,3.2496383e-002,2.7633509e-002,0.0000000e+000,0.0000000e+000,-1.4511466e-001,4.9313989e-002,-1.6253375e-001,2.8784691e-002,-7.1595924e-003,9.9824299e-002,7.6901875e-002,-2.7049175e-002,-1.4427384e-001,1.4933792e-001,7.5177774e-004,6.4597773e-002,-1.9148375e-002,-1.0865398e-001,0.0000000e+000,0.0000000e+000,1.6565075e-003,4.2636532e-002,3.7855737e-002,1.0502782e-002,-9.2630936e-002,-4.4471778e-002,3.6136086e-002,4.1384515e-002,-6.2434192e-002,1.2174758e-001,3.9684467e-004,6.0447139e-002,-7.9645241e-002,-7.3601228e-002,0.0000000e+000,0.0000000e+000,4.2605471e-002,-1.9025525e-002,7.4559773e-002,5.8764886e-002,-9.2402579e-003,3.9056034e-002,-1.4858734e-001,2.4972331e-003,1.0160126e-001,-5.0805988e-002,7.8749964e-002,-8.2635178e-002,-6.9279065e-002,5.7257789e-002,0.0000000e+000,0.0000000e+000,5.7672150e-002,-1.7164970e-002,8.1531993e-002,1.5875811e-001,-6.7585532e-002,-1.0693095e-001,-3.5003903e-002,6.3936098e-002,-7.1507681e-002,6.3292895e-002,-3.3246846e-002,-4.3105113e-002,1.2550946e-001,-1.0723632e-001,0.0000000e+000,0.0000000e+000,-1.1932470e-001,-6.2055439e-002,-4.9563673e-002,5.2877204e-002,-1.9756664e-001,8.9640399e-002,8.7280159e-002,-5.0477853e-002,5.7885039e-002,-5.4331664e-002,-4.0811898e-002,-3.7959483e-003,-2.6032483e-002,1.5568450e-002,0.0000000e+000,0.0000000e+000,-5.5718713e-002,8.3878993e-002,
,369,-1.4081577e-001,-8.3191662e-003,1.4391450e-001,-1.2831628e-002,1.8074325e-002,2.1355923e-001,-5.7551042e-002,-4.2051939e-002,-5.3732775e-002,-8.4677459e-002,3.3377418e-002,2.0995819e-003,0.0000000e+000,0.0000000e+000,3.6412021e-002,7.5954713e-003,7.2619318e-002,2.5529303e-002,9.4605210e-002,5.9423737e-002,-1.7619885e-001,2.3372911e-002,-1.0113921e-001,8.1817164e-002,1.7021163e-001,7.9648656e-002,-4.2724109e-002,-5.4560338e-002,0.0000000e+000,0.0000000e+000,2.5858050e-002,-6.6672284e-002,2.0946907e-002,1.0948980e-002,-1.9465213e-001,2.5402628e-002,1.3989604e-002,2.4328242e-002,-4.1865993e-002,1.9369491e-002,-1.0390855e-001,1.0908124e-001,5.8399345e-003,9.0893602e-002,0.0000000e+000,0.0000000e+000,-1.6216069e-001,1.4653348e-001,-1.9256561e-002,3.8521030e-002,5.2457152e-002,9.1437209e-002,4.4023694e-002,-8.2428952e-002,-7.9078613e-002,-9.0766292e-002,-1.0881413e-001,1.6674072e-001,-1.3500356e-002,1.4152736e-001,0.0000000e+000,0.0000000e+000,-1.1751420e-002,-5.2925700e-002,1.4651540e-001,2.4780288e-002,8.7397942e-002,-3.3860255e-002,8.3270282e-003,-1.7978239e-001,7.9718989e-002,-1.6474252e-001,4.5354213e-002,-3.8286480e-004,5.6703376e-002,3.3485756e-002,0.0000000e+000,0.0000000e+000,-4.5749755e-002,-1.6886082e-001,-1.5476358e-001,2.2600188e-002,2.0846718e-002,1.0418785e-001,1.1750006e-001,-4.3860704e-002,-1.5966728e-002,9.2761505e-002,-4.4003999e-002,1.5256503e-002,4.2621570e-002,-7.4622392e-002,0.0000000e+000,0.0000000e+000,8.0640609e-002,2.9095019e-002,-2.8383790e-002,2.9050377e-002,-7.4109713e-002,1.5594507e-001,1.3175457e-001,9.1544225e-002,7.3363409e-002,-4.8388304e-002,-6.4416854e-002,-8.9926334e-002,-2.5030834e-002,2.8770379e-002,0.0000000e+000,0.0000000e+000,-8.3845080e-002,2.2108958e-002,6.7218451e-002,-9.0977236e-002,-5.6439342e-002,3.0230479e-002,4.2751265e-003,-1.6991560e-002,1.1219601e-001,-1.0668039e-001,-2.5213273e-002,-3.8227967e-002,-5.1654333e-002,6.5730503e-002,0.0000000e+000,0.0000000e+000,-5.4557992e-002,1.0936469e-002,5.2651207e-002,4.9260691e-002,6.3120493e-002,-5.3955554e-002,-8.1284077e-002,-9.4897592e-002,7.5650102e-002,6.9238408e-002,6.9010227e-002,-5.6719325e-002,5.5918680e-003,-1.9467475e-002,0.0000000e+000,0.0000000e+000,9.5476368e-002,-8.6043859e-003,2.0257883e-002,-3.6764833e-002,-7.4967617e-002,9.5141579e-002,-9.3685618e-002,-2.9946100e-002,1.2994075e-002,1.5213564e-002,5.1949048e-002,7.2290554e-002,-5.6401548e-002,6.6235899e-002,0.0000000e+000,0.0000000e+000,-5.9080356e-002,9.3418832e-003,
,381,-1.9924639e-001,-1.6712877e-002,-1.0871761e-001,2.6072275e-001,2.3169058e-001,-2.4478620e-001,4.1997148e-001,-4.0017577e-001,-3.1528688e-001,-5.2182981e-002,-2.1799318e-001,1.5369735e-001,0.0000000e+000,0.0000000e+000,1.0461986e-001,2.2097697e-001,1.0191410e-001,-1.2313309e-001,6.5926944e-002,-1.1656200e-001,-1.2283029e-001,5.9001746e-003,-1.8012901e-002,5.4849978e-002,5.7874249e-002,-5.0663210e-002,3.1976140e-002,9.2514243e-002,0.0000000e+000,0.0000000e+000,-1.0243417e-002,-1.9871005e-002,-2.2726168e-002,-4.6130312e-002,7.8351595e-003,3.5104286e-002,-3.9289332e-002,-4.7254440e-002,6.4996737e-002,-1.3157694e-001,7.8631832e-002,-6.8543291e-002,-8.7704334e-002,1.1778233e-001,0.0000000e+000,0.0000000e+000,-1.7192989e-002,4.0392169e-002,-1.0637701e-001,1.0392773e-001,-1.8153750e-003,2.3915190e-002,1.1791541e-001,9.1427652e-003,-6.4380297e-002,-5.3616922e-002,-1.0901744e-001,8.0796877e-002,-1.8948547e-002,1.3993546e-001,0.0000000e+000,0.0000000e+000,1.5350749e-002,-1.4444818e-002,1.0071696e-001,6.6985485e-002,-3.0455029e-002,3.3460288e-002,1.1534383e-001,4.8837742e-002,-2.3076035e-002,2.0175214e-002,-1.5767249e-001,-1.0204003e-001,-8.3696790e-002,-7.0803674e-002,0.0000000e+000,0.0000000e+000,-5.3811896e-002,1.6403894e-001,1.9417306e-002,-5.7257500e-002,-4.1423743e-003,1.3222505e-001,-2.2680553e-001,6.3073703e-002,-2.3850420e-001,1.7628921e-001,4.0503785e-002,-2.6209600e-001,1.8922130e-001,-1.6709103e-001,0.0000000e+000,0.0000000e+000,-3.2267420e-003,4.4850737e-002,-1.4685464e-002,-6.8982650e-002,8.4660230e-002,5.9900335e-002,-1.3174231e-001,8.2808723e-003,-7.5915601e-003,-6.5896337e-002,1.2235031e-001,-3.5291538e-002,1.2325458e-001,-6.6105551e-002,0.0000000e+000,0.0000000e+000,-6.8637583e-002,-5.6472857e-002,1.6501084e-001,-1.6069753e-002,-5.4903469e-002,6.8909332e-002,3.3642517e-002,5.0644110e-002,7.2610887e-002,-1.1991319e-002,6.1659250e-002,5.7322383e-002,-8.9946557e-002,5.2179665e-002,0.0000000e+000,0.0000000e+000,3.5503557e-002,2.6018837e-002,8.5766217e-002,2.2838421e-001,-1.1124241e-002,7.8820485e-003,-3.1623802e-002,4.5019183e-002,2.1681791e-003,-4.9894613e-002,-1.3280491e-001,-2.3865734e-004,-7.8162710e-002,-1.0392465e-001,0.0000000e+000,0.0000000e+000,8.7709402e-002,3.0619763e-002,1.6720788e-002,-1.5367832e-001,8.3042247e-002,-7.3864206e-003,-4.1610083e-002,-5.6018080e-002,1.7491662e-003,-1.3068852e-001,-1.2024425e-001,-3.1432263e-002,1.2596092e-001,-2.4574944e-002,0.0000000e+000,0.0000000e+000,-4.2665068e-002,-2.7471071e-002,
,393,-2.6945997e-002,-3.3421285e-002,-5.4960530e-002,-7.9988497e-002,-1.2068858e-001,-5.7884332e-003,1.7990569e-001,-1.6391729e-001,1.4618518e-002,-2.0348845e-001,-9.1774415e-002,1.4402943e-001,0.0000000e+000,0.0000000e+000,1.2875679e-001,9.5239360e-003,1.4128463e-001,1.5435683e-003,2.5913558e-002,2.3777426e-001,-1.8261135e-001,9.4541334e-002,-8.8679766e-002,-2.8171292e-001,-2.7878931e-002,1.5150011e-002,-1.3317565e-002,2.2399460e-001,0.0000000e+000,0.0000000e+000,-8.1104244e-002,-1.6692793e-003,7.6549879e-002,4.1996220e-002,-3.5351649e-001,8.1141666e-002,9.3574422e-002,4.9048103e-002,8.9408963e-002,2.2468026e-002,8.5721141e-002,-8.3749338e-002,-3.7064107e-002,-5.0004654e-002,0.0000000e+000,0.0000000e+000,-9.7143531e-002,2.9105191e-002,8.8904557e-003,5.1207927e-002,-1.8418436e-002,2.2184020e-002,7.7602349e-002,-1.2920376e-001,-4.1768342e-002,6.3627338e-002,5.5069294e-002,1.0937620e-001,-5.1510192e-002,-1.1698060e-001,0.0000000e+000,0.0000000e+000,-1.6822392e-002,2.9060610e-002,7.3578126e-002,1.7702634e-002,-9.4988478e-003,-1.4749775e-002,-1.8697413e-001,9.7699128e-002,6.4689017e-002,1.8823459e-001,1.5144146e-001,2.0107279e-002,-1.1121112e-001,-8.8309781e-002,0.0000000e+000,0.0000000e+000,-3.0255959e-002,-4.2374902e-002,-7.7892767e-002,1.0049210e-002,-7.1953429e-002,1.2687041e-001,-6.2690946e-003,5.2447785e-003,-1.0764118e-001,-2.2203381e-002,-1.0051556e-002,-3.1985254e-002,-2.5457778e-002,8.6606706e-002,0.0000000e+000,0.0000000e+000,8.0526147e-002,-9.7818850e-002,-1.1882921e-001,-7.9541196e-002,-7.7730669e-002,2.6936485e-002,1.1431414e-001,1.9178566e-002,-2.9786056e-002,-9.0709812e-003,-1.1286473e-002,-8.7473269e-004,-6.1449391e-002,-1.5284608e-002,0.0000000e+000,0.0000000e+000,6.5842324e-002,-3.7084255e-002,5.8446214e-002,-6.9198156e-002,2.4064812e-002,-1.0861836e-001,4.7818738e-002,3.8515926e-002,7.7482638e-003,-6.6530750e-002,-1.7749272e-002,-7.3857377e-002,-7.7672108e-002,-5.5077280e-003,0.0000000e+000,0.0000000e+000,-7.9027874e-002,5.9424646e-002,6.5545821e-002,9.0669849e-002,-1.3228330e-001,4.0777812e-002,2.3296462e-002,-1.3320137e-002,5.6911994e-002,-5.9718567e-002,-4.6277666e-002,6.0231753e-002,1.3464520e-001,-3.7753544e-002,0.0000000e+000,0.0000000e+000,-9.9587707e-002,1.5028967e-001,-1.0068521e-001,8.9301690e-002,-1.0177660e-001,5.4650013e-002,-4.3595256e-002,-1.2961848e-002,-1.0625902e-002,5.5138555e-004,6.4752097e-003,-7.4339266e-002,-2.4291322e-002,5.9205149e-002,0.0000000e+000,0.0000000e+000,1.2338277e-001,-2.4124769e-002,
,405,-7.9963337e-002,2.0016140e-001,-9.1551689e-002,-1.9378279e-003,2.0934773e-001,-3.3846248e-001,-1.0103820e-001,1.0363932e-001,7.0902460e-002,-1.2726736e-001,1.9665650e-001,-2.2949401e-001,0.0000000e+000,0.0000000e+000,-9.1755859e-002,3.7268851e-002,-1.9798778e-001,-9.1798366e-002,1.3872812e-002,2.7548222e-002,4.2155509e-001,-2.7593181e-002,-6.1454226e-002,-5.7499685e-002,-1.1838114e-001,8.5817231e-002,-1.7747415e-001,1.4758116e-001,0.0000000e+000,0.0000000e+000,1.0683515e-001,-7.7305495e-002,8.5969109e-002,-2.6436767e-002,-1.4107839e-002,2.9840790e-002,1.2854293e-001,-1.8776263e-002,1.7313034e-002,-3.6044893e-002,2.7504997e-002,-4.7079952e-002,1.5681153e-001,1.1138426e-002,0.0000000e+000,0.0000000e+000,-1.1685706e-001,4.8209665e-002,1.2082068e-001,-8.7258180e-002,-5.8155730e-002,1.1318926e-001,-8.9799602e-002,-8.0047456e-004,5.7254679e-002,-1.7569423e-001,6.3092544e-002,1.3999715e-001,-2.5050600e-001,2.8929528e-002,0.0000000e+000,0.0000000e+000,-4.7101354e-002,1.6031956e-004,3.3192341e-002,1.6031466e-001,-1.9357612e-001,6.8269243e-002,1.4807580e-002,-1.0782974e-001,5.5883589e-002,5.1948084e-002,-9.7821063e-002,-8.5238572e-002,-3.7856118e-002,4.1453907e-002,0.0000000e+000,0.0000000e+000,1.4433261e-003,5.7115388e-002,1.0402799e-002,-2.6211030e-002,-2.5139159e-002,-5.4148960e-002,-1.8380791e-001,1.9036073e-002,-3.9999402e-002,9.1806624e-002,2.6898849e-002,-1.0470351e-002,-1.9785701e-002,-4.5660357e-002,0.0000000e+000,0.0000000e+000,6.4040156e-002,-1.4223735e-001,5.1236823e-003,-5.2186341e-002,1.2289586e-001,5.6425288e-003,-4.9338244e-002,8.7241409e-002,-1.5548593e-001,-1.4936888e-001,1.8618752e-002,5.5801435e-002,1.2999653e-001,-7.4613429e-003,0.0000000e+000,0.0000000e+000,3.5062463e-002,-7.1460068e-002,-1.1822760e-001,1.1039781e-001,-2.3648991e-001,2.5320251e-002,8.6282683e-002,7.1610623e-002,9.8314482e-002,9.9165605e-002,5.2597308e-003,5.5125365e-002,-1.2368445e-001,-1.2418039e-001,0.0000000e+000,0.0000000e+000,5.2786425e-002,7.0474419e-002,1.0488659e-001,4.1274462e-002,-3.6120225e-002,-2.0059341e-002,-2.9159909e-002,-3.8113013e-002,6.0873982e-002,5.9485309e-002,-1.7589325e-002,-4.2550013e-002,3.4784042e-002,7.2878363e-003,0.0000000e+000,0.0000000e+000,-6.5489306e-002,1.4262813e-002,6.2059063e-002,-4.0127736e-002,1.2220870e-001,1.5969440e-002,1.1407662e-001,-4.5721002e-003,-1.9993712e-001,5.2009767e-002,4.7563786e-002,-9.3786983e-002,-5.4975381e-003,2.3373630e-001,0.0000000e+000,0.0000000e+000,5.0346992e-004,-1.3950764e-001,
,417,7.9378986e-002,-8.8801380e-002,-2.5898582e-002,-1.1811776e-001,3.5392518e-002,-2.4063327e-001,2.5503373e-001,1.3109695e-001,-5.1067295e-002,-2.5982934e-004,-2.4835296e-001,3.6782517e-002,0.0000000e+000,0.0000000e+000,-6.2922170e-002,9.4453841e-002,-1.3918042e-001,2.3091057e-002,-2.5442181e-002,4.0657601e-002,4.2554821e-001,-2.9860454e-001,1.9563309e-001,-1.0719723e-001,-1.9360629e-001,3.0167197e-001,-2.3476069e-001,1.6307241e-001,0.0000000e+000,0.0000000e+000,4.7186449e-002,1.0438228e-002,1.9620093e-002,4.4859712e-002,9.5307125e-002,-2.0151402e-001,6.0396555e-004,3.6975516e-002,-2.7012309e-002,2.2397328e-001,-1.8366129e-002,-1.7309783e-002,-3.1545243e-003,-1.5576513e-001,0.0000000e+000,0.0000000e+000,-1.6863641e-002,1.0712526e-002,5.5946363e-002,-1.0008829e-001,8.7527597e-002,-6.5128015e-002,1.1564318e-001,-4.8829869e-002,1.1197010e-003,5.8861020e-002,-1.0098452e-001,6.5919120e-002,-4.8462126e-002,-3.2952081e-002,0.0000000e+000,0.0000000e+000,-2.4904611e-002,1.9636015e-002,-4.4216636e-002,-6.5075844e-003,8.1291859e-002,5.6377199e-002,1.5088354e-001,5.6783095e-002,9.9866370e-002,-7.2941065e-002,-9.1555304e-002,-4.2191522e-002,-6.9742297e-002,-3.3083565e-002,0.0000000e+000,0.0000000e+000,-5.5545133e-002,2.7681085e-003,-3.4804577e-002,-2.4272780e-002,-6.5252110e-002,-1.2404918e-001,7.4248582e-002,-1.6126110e-001,4.4781285e-002,1.0431172e-001,8.1324698e-002,-1.2786669e-002,4.5754910e-002,-1.1577636e-001,0.0000000e+000,0.0000000e+000,1.0965562e-002,-4.1924975e-002,5.1140723e-002,4.4270104e-003,-1.3472011e-001,9.3059002e-002,-1.3427588e-001,-7.5746994e-002,-7.5439487e-002,2.8373172e-002,6.0137481e-002,1.1562132e-001,1.0628015e-001,-4.7224041e-002,0.0000000e+000,0.0000000e+000,-1.5389752e-001,-4.8953408e-002,-2.1626923e-001,1.0449253e-001,-9.7521960e-002,1.1444931e-001,1.0242353e-001,6.8164932e-002,-5.8208644e-002,2.7054013e-002,4.1266495e-002,4.9044906e-003,-1.0371858e-001,5.8984949e-002,0.0000000e+000,0.0000000e+000,7.5778718e-002,5.3569125e-002,1.8434305e-001,-7.1455843e-002,-1.4121551e-001,8.2062499e-002,3.1157914e-002,-1.2005412e-001,1.9048032e-001,-3.2979940e-002,5.4232062e-002,-6.3499524e-002,-1.0867444e-001,-6.9011612e-002,0.0000000e+000,0.0000000e+000,-7.8693591e-002,-6.7015344e-005,5.7690788e-002,-1.2071427e-001,3.6774964e-002,-3.1968439e-002,-1.3340577e-001,1.0157729e-001,8.0903043e-002,4.6619847e-002,8.3259595e-002,-5.0583819e-002,-7.1082226e-002,-9.6784609e-002,0.0000000e+000,0.0000000e+000,1.3144015e-001,-8.2524574e-002,
,429,6.5142163e-003,1.5657298e-001,-1.3318160e-001,4.9930598e-002,-1.6305915e-001,-6.5805022e-002,-6.7579240e-002,-4.4175252e-002,1.6248884e-001,-7.8000560e-002,1.1499420e-001,-2.6709497e-003,0.0000000e+000,0.0000000e+000,-7.5434612e-002,1.5998427e-002,2.7530057e-001,-2.3615760e-001,2.3054895e-001,-4.5138833e-002,-2.6979856e-001,1.6917087e-001,-3.2049352e-002,-5.8513945e-002,1.8075172e-001,-2.2818962e-001,-5.5696769e-003,7.9405840e-002,0.0000000e+000,0.0000000e+000,4.3452837e-002,-1.1973325e-001,6.3522176e-002,-1.1953205e-001,-1.2879511e-001,6.6077657e-002,1.8214058e-001,2.2658948e-002,1.7726332e-001,-5.6620261e-002,-1.2227270e-001,2.8040815e-002,-1.3615387e-001,8.6970005e-002,0.0000000e+000,0.0000000e+000,-1.6452039e-002,8.4401466e-002,1.1479851e-001,4.6359884e-002,4.3648992e-003,3.2953166e-002,-1.9046202e-002,-1.1091517e-001,-1.4106574e-002,-1.0033837e-001,1.2461477e-001,-5.9542621e-002,6.4022958e-002,-1.4844087e-001,0.0000000e+000,0.0000000e+000,1.1067678e-002,-8.5213362e-002,-1.3111233e-002,3.0405546e-002,-9.6449535e-002,3.6001720e-002,-2.0550127e-001,1.7692486e-001,-3.5587962e-002,-4.9017319e-002,9.5100780e-002,-2.6260660e-001,6.2441850e-002,5.0767599e-002,0.0000000e+000,0.0000000e+000,-1.5782877e-001,8.4808000e-002,-2.6628698e-001,2.0817226e-001,-8.9676791e-002,4.1543189e-002,2.5428230e-001,-1.9979173e-001,2.6450483e-002,-1.0121963e-001,-1.9694025e-001,6.5261446e-002,-1.0617899e-001,2.7526723e-002,0.0000000e+000,0.0000000e+000,-1.9347721e-002,6.0438623e-002,-5.3886695e-002,8.3282136e-003,4.1617008e-003,-4.6276585e-002,-4.2420080e-002,-6.9167705e-002,-9.6345567e-002,8.5271802e-003,8.7342918e-002,9.6495132e-002,-1.2434103e-001,6.4879618e-002,0.0000000e+000,0.0000000e+000,7.0015415e-002,-4.1180254e-002,3.8345234e-002,-1.4701221e-001,2.4011461e-002,6.6607196e-003,-2.3943937e-001,1.3992361e-001,9.1095916e-002,7.4562033e-002,2.1949443e-001,-1.9644929e-001,1.9900400e-002,-8.4270782e-003,0.0000000e+000,0.0000000e+000,-8.9464281e-002,1.3009853e-002,6.3673768e-002,1.3851722e-001,-1.4903416e-001,3.7590113e-002,9.1927524e-002,2.1270364e-001,-2.0356781e-002,-2.6954287e-002,4.3727627e-002,-8.1366630e-002,-1.0878200e-001,1.0384037e-001,0.0000000e+000,0.0000000e+000,-4.1686791e-002,1.3088992e-001,6.2064574e-003,3.9254098e-002,-3.9473075e-002,1.4822117e-001,-2.4624998e-002,-5.3227305e-002,-7.3090703e-002,-5.2784455e-002,-3.2802195e-002,9.7562511e-002,-1.6621193e-001,-2.3123799e-003,0.0000000e+000,0.0000000e+000,1.3244504e-001,6.0263375e-003,
,441,-2.3684304e-001,6.8352356e-002,-2.2365049e-001,9.5447302e-002,9.5042152e-002,1.9035355e-001,1.4416002e-001,-1.6438438e-002,-8.8239672e-002,-2.2452682e-001,5.1727968e-003,-1.3433272e-001,0.0000000e+000,0.0000000e+000,2.8025547e-002,1.3463574e-001,3.3315457e-002,4.3708939e-004,5.3914866e-002,-6.8910963e-002,3.0286488e-001,-4.5020839e-002,-1.0949131e-001,2.1955545e-001,-2.4929356e-001,1.2184401e-001,-8.6547484e-003,-7.1524978e-002,0.0000000e+000,0.0000000e+000,-3.8344793e-002,7.3574806e-003,2.9908896e-002,2.6638312e-002,-3.6116948e-002,1.1178487e-001,-5.6408527e-004,1.1735700e-003,-2.4444163e-002,-2.8161367e-002,6.0403884e-002,-4.5656981e-005,3.1472338e-002,-6.0209942e-002,0.0000000e+000,0.0000000e+000,-1.2127632e-002,-3.2034689e-002,3.6962754e-002,8.4911277e-002,3.1314718e-002,2.8492472e-002,-1.2542743e-001,4.2538181e-002,-4.4895818e-002,-1.9906804e-002,-5.7367265e-003,-1.2616971e-002,-1.8669656e-002,6.2496825e-002,0.0000000e+000,0.0000000e+000,-1.3910680e-002,8.7662914e-003,7.2671421e-002,-9.9094326e-002,-5.5015056e-003,2.5301762e-002,1.8814221e-001,-7.5845528e-003,1.7432746e-001,-5.9305941e-002,-2.1157446e-001,1.2380006e-001,-4.1563824e-002,-6.9337632e-002,0.0000000e+000,0.0000000e+000,-1.4553099e-001,9.0861602e-002,-1.2469038e-001,7.2041384e-002,-5.5408866e-002,1.2669714e-001,-3.8562178e-002,6.4480246e-002,-1.4286351e-001,5.6303883e-002,-6.0294693e-002,7.6782553e-002,2.2609819e-002,-1.6766227e-002,0.0000000e+000,0.0000000e+000,4.0349637e-002,-4.7217386e-002,8.7858264e-002,2.2917259e-002,-1.4874666e-001,-8.1521840e-004,-2.9141902e-002,-8.9390580e-002,1.1852798e-001,-8.0347885e-002,6.1557818e-002,2.3040793e-002,-6.4750220e-002,1.1199899e-001,0.0000000e+000,0.0000000e+000,8.0836267e-002,-4.5672494e-002,4.7010474e-002,-1.6591336e-003,-1.0733473e-001,1.3985617e-001,2.3696869e-001,-9.3290124e-002,1.9731952e-002,5.0702267e-002,-4.2488425e-002,1.5750059e-002,-4.0088889e-002,2.0053175e-002,0.0000000e+000,0.0000000e+000,1.0969289e-002,5.0857125e-002,9.9931161e-002,1.9929757e-001,3.6857751e-002,5.3399628e-002,-7.8594549e-003,-3.2846892e-002,-5.2767974e-002,1.9826487e-002,-8.5194752e-002,-3.9026177e-002,1.0008645e-001,-4.8004834e-002,0.0000000e+000,0.0000000e+000,-1.4408448e-001,7.7157183e-002,5.1735774e-002,9.6798499e-002,6.3640538e-002,-1.2428140e-001,-3.6534374e-001,-4.0232967e-002,-8.5179496e-002,-3.0543669e-002,-2.2533244e-002,9.1698475e-002,-3.1054642e-002,-3.3684137e-002,0.0000000e+000,0.0000000e+000,1.1218049e-001,1.2830013e-002,
,453,-1.3525540e-001,9.4903798e-002,-2.4723733e-002,3.1295045e-002,-2.7173337e-002,-7.2848233e-002,9.3646784e-002,-9.3244722e-002,-3.4044107e-001,2.2981889e-001,-2.2555086e-001,1.8851000e-001,0.0000000e+000,0.0000000e+000,1.2877001e-001,1.3479454e-001,-1.1784116e-001,-1.7836640e-001,-2.0965149e-003,1.4715120e-001,1.3025858e-001,2.7192156e-001,9.3727032e-002,-1.6951239e-001,6.2668624e-003,-1.0804664e-001,-1.4863424e-001,1.4817113e-001,0.0000000e+000,0.0000000e+000,6.7671140e-002,-1.4781473e-001,1.0152481e-002,-2.9977640e-002,-1.1212789e-001,1.2872846e-001,-7.8699388e-002,6.5700781e-002,-1.2173793e-002,-6.4501889e-002,1.6828943e-002,-5.5099482e-003,1.1750835e-001,-1.3458180e-001,0.0000000e+000,0.0000000e+000,-1.8427280e-001,-8.2956091e-003,8.7175091e-002,3.9232166e-003,-9.5404255e-002,1.9046399e-001,-1.7194670e-001,-1.1558942e-002,3.4028880e-002,-9.2395375e-002,1.0450695e-001,-3.6465964e-002,-5.5430363e-002,4.5817659e-002,0.0000000e+000,0.0000000e+000,-6.5496560e-003,-5.2131077e-002,7.1651279e-002,5.8504545e-003,-1.8881046e-001,3.1714222e-002,1.3200970e-002,3.7682344e-002,8.5403539e-002,-1.1909511e-001,5.0735374e-002,-4.6139529e-002,-6.7945613e-002,1.5449141e-001,0.0000000e+000,0.0000000e+000,-1.7560448e-001,1.9314776e-002,-2.5033473e-003,-7.1989940e-002,3.6652055e-002,-5.6216446e-002,-6.6230785e-002,7.8139897e-002,6.3070136e-002,-2.7874033e-002,4.2887376e-002,-6.9005457e-002,-1.1786859e-001,1.4856808e-001,0.0000000e+000,0.0000000e+000,1.9326803e-001,4.1148987e-002,2.3372579e-003,-1.5409219e-001,1.8191583e-001,7.5569240e-003,1.4206052e-001,2.5797926e-002,1.3798078e-001,-2.1444275e-002,-1.0791886e-001,2.5574483e-002,-3.4039693e-002,-7.5554651e-002,0.0000000e+000,0.0000000e+000,1.4409006e-001,1.6325990e-002,3.2405575e-002,9.1008015e-002,-1.7058734e-001,1.1098600e-001,-1.0915504e-001,-6.1979133e-002,-2.1268791e-001,1.1194874e-001,2.3091332e-002,8.0644119e-002,2.8180404e-002,-9.3497312e-002,0.0000000e+000,0.0000000e+000,-6.3512186e-002,-1.8632151e-002,7.9279052e-002,1.3309067e-001,-2.6190599e-001,1.4445760e-001,-9.6680842e-002,-1.2855554e-001,1.3882751e-001,-4.9810675e-003,9.4659623e-002,1.5606275e-001,-3.1875485e-002,-3.8858638e-002,0.0000000e+000,0.0000000e+000,-2.1199587e-001,-9.4486685e-002,-5.5754895e-002,-5.4117668e-002,1.7313381e-001,-8.9462621e-002,-3.7086098e-002,1.3441698e-001,-2.6421321e-002,-5.7202869e-002,6.1689973e-002,-4.5788858e-003,-6.1930709e-002,-9.8132917e-002,0.0000000e+000,0.0000000e+000,1.2090349e-001,-2.9851713e-002,
,465,1.3650450e-001,-2.9060202e-001,9.0475167e-002,-2.4483021e-002,9.3311060e-002,1.6818138e-001,-2.0483401e-002,2.7035592e-002,-5.6726874e-002,-3.3957943e-001,8.9887450e-002,-8.9284692e-002,0.0000000e+000,0.0000000e+000,1.5897405e-001,2.7246588e-002,2.7890060e-001,-6.8806918e-002,1.4862579e-001,-9.9491732e-002,-1.4924564e-001,1.2023161e-002,1.4445637e-001,-1.3031480e-001,-3.0037839e-002,-1.7543521e-002,-1.2844570e-001,2.0379406e-001,0.0000000e+000,0.0000000e+000,8.3118259e-002,-1.9019910e-002,4.8748708e-002,-2.4332290e-002,4.3713037e-003,-1.0692839e-002,3.3942862e-002,1.9798693e-002,2.0975228e-002,-3.7495791e-002,2.7800967e-002,-3.6956633e-002,3.7773059e-002,1.1841820e-002,0.0000000e+000,0.0000000e+000,-1.0531966e-001,-9.4212927e-002,-1.5530977e-001,6.6247960e-002,-6.1425657e-002,-2.1941711e-002,1.1760659e-001,-1.1852539e-001,1.5367537e-001,-3.9216144e-002,1.3195432e-002,3.0052612e-002,-4.1496225e-002,-3.4976629e-002,0.0000000e+000,0.0000000e+000,8.0045708e-003,-3.6613441e-002,7.6442604e-002,-1.9243858e-002,-4.1859941e-002,1.5154819e-002,-6.0537878e-002,-3.8021224e-002,4.2679001e-002,-1.5210721e-002,7.4114442e-002,6.9642098e-002,-9.7174404e-002,3.6747685e-002,0.0000000e+000,0.0000000e+000,-7.5745907e-002,3.4616116e-002,1.8956656e-001,-4.9869705e-002,-1.6233852e-002,8.9147208e-002,-2.1557182e-001,3.7592868e-002,-1.1226204e-002,-1.4517091e-001,1.3523480e-001,7.3397294e-002,-1.5046904e-001,1.9138222e-001,0.0000000e+000,0.0000000e+000,3.1242958e-002,1.8986135e-002,-1.1643557e-001,1.9907601e-002,2.2880862e-002,-9.6644408e-002,2.3279003e-002,5.4302817e-002,-3.8530568e-002,1.5472883e-002,3.7451473e-002,-9.5276164e-002,3.4032632e-002,1.9013259e-002,0.0000000e+000,0.0000000e+000,-1.6998774e-001,-4.8439787e-002,-1.6013265e-001,5.6278031e-002,-7.8004949e-002,1.2168616e-002,1.8506445e-001,1.4360805e-001,-1.4733465e-001,9.2713710e-003,-1.9091041e-001,-2.1671690e-001,7.5813948e-002,-1.0420410e-001,0.0000000e+000,0.0000000e+000,-2.1910737e-002,1.4934118e-001,1.4209574e-001,-1.1022856e-002,-6.6967259e-002,5.8606858e-002,1.0110087e-001,-4.6765061e-002,4.5055090e-002,-7.8711730e-002,-4.5454098e-003,4.9407431e-002,3.0331224e-002,-2.3699107e-002,0.0000000e+000,0.0000000e+000,4.7676123e-002,2.6424989e-002,-1.2668699e-001,-7.5493501e-002,-6.1693296e-002,-2.1654803e-002,2.6101885e-002,7.6903653e-002,9.8389041e-002,2.7845982e-001,1.4164249e-001,-6.9748870e-002,-1.3267901e-001,-4.7285504e-002,0.0000000e+000,0.0000000e+000,-3.9504169e-002,1.3569199e-002,
,477,-5.8222678e-002,1.3774980e-001,-1.8103593e-002,-2.7604821e-002,8.5799478e-003,2.4007297e-002,-2.6915917e-001,7.3673171e-002,-1.6595231e-001,2.1048715e-002,1.4232379e-001,-1.3643846e-001,0.0000000e+000,0.0000000e+000,3.3717099e-003,6.5699105e-002,-2.6838068e-001,2.1379325e-001,-5.8031564e-002,5.2105933e-002,2.2968782e-001,-4.2412541e-002,1.4955701e-001,-7.3151738e-002,8.1032603e-002,-1.3927445e-001,-1.2341047e-001,3.6430664e-002,0.0000000e+000,0.0000000e+000,4.4389332e-002,-2.5135052e-002,1.1781670e-001,-7.2995815e-002,6.0993141e-002,-1.2505053e-001,1.1479945e-001,-1.4298144e-001,1.0232284e-002,1.3768103e-001,-1.7819990e-001,2.2832794e-002,1.1282537e-001,-1.2358039e-001,0.0000000e+000,0.0000000e+000,-5.9914971e-002,1.0230274e-001,-1.1628650e-001,-8.2526407e-003,1.0385583e-001,-7.0147573e-003,1.0347408e-001,9.8101069e-003,4.5461442e-002,1.0868946e-002,2.2065240e-002,2.0787212e-002,-5.7322661e-002,-5.7224666e-002,0.0000000e+000,0.0000000e+000,1.8576610e-002,-4.1156206e-002,-1.0088035e-001,5.0856231e-002,-4.0054074e-002,-8.4933589e-003,-5.0725916e-002,5.7685061e-002,1.1398357e-002,1.8303527e-002,1.1504982e-001,-3.5847136e-002,-5.6739698e-002,5.9715263e-002,0.0000000e+000,0.0000000e+000,-3.8377773e-002,-4.5487120e-002,4.1411435e-002,-1.5542725e-001,-4.5618994e-002,9.2848661e-004,-1.2272241e-001,1.5970524e-001,1.6581885e-001,-1.3661841e-001,8.9642396e-003,-2.9318929e-002,-2.3692352e-001,2.2098362e-001,0.0000000e+000,0.0000000e+000,1.1793743e-001,-2.9034961e-003,1.5178681e-002,-6.8732772e-002,-1.6859612e-001,-9.9351087e-003,-2.3403907e-002,5.7953353e-003,8.6047809e-002,-5.5161575e-002,7.6622528e-003,9.0129357e-002,-1.1982402e-001,8.7447933e-002,0.0000000e+000,0.0000000e+000,2.6382422e-002,-9.7965548e-002,-1.7987465e-001,-1.0869880e-001,-2.4087596e-001,1.3664717e-001,1.7928815e-002,3.6008992e-002,1.5556082e-001,8.4348760e-002,1.6409329e-001,-1.9898287e-002,-2.2840027e-002,-7.0226020e-002,0.0000000e+000,0.0000000e+000,-3.9353691e-003,1.8700290e-002,9.8420088e-002,1.1555544e-001,1.9749125e-002,2.8853188e-002,6.7575777e-002,-7.5880374e-002,1.9919050e-002,3.1869542e-002,-9.6401687e-002,-3.4414703e-002,2.3822681e-002,-1.6870433e-002,0.0000000e+000,0.0000000e+000,-4.8037491e-002,3.8707739e-002,-1.4192969e-003,1.6285970e-001,4.8833055e-002,-3.3270960e-002,5.2953944e-003,-3.3090548e-002,-1.3034185e-001,2.4553421e-002,-1.1094350e-001,1.0064865e-001,-1.2736007e-001,-1.7984939e-001,0.0000000e+000,0.0000000e+000,-1.8265180e-002,6.5834414e-002,
,489,-1.5446330e-001,-5.2547450e-002,-1.4173864e-001,8.0343354e-002,1.0820167e-001,1.9441545e-001,5.1301654e-002,-2.1028082e-001,7.0772904e-002,-2.8849051e-001,2.2833296e-002,5.6762452e-002,0.0000000e+000,0.0000000e+000,4.8191284e-002,-8.0055580e-003,1.2615099e-001,-3.5204524e-002,8.0830561e-002,-8.5716828e-002,1.9807961e-001,-7.3925796e-002,9.2611111e-002,9.3805652e-003,-2.4453785e-001,1.8232803e-001,-1.1457645e-001,2.1977362e-002,0.0000000e+000,0.0000000e+000,-5.8791735e-002,4.1136037e-002,2.9647019e-003,-3.6793524e-002,-4.9791258e-002,-5.8401514e-003,-7.7005996e-002,-1.0940406e-001,1.4870369e-001,-7.3042854e-003,2.3894020e-002,7.8855131e-002,-9.1455547e-002,9.9895649e-003,0.0000000e+000,0.0000000e+000,-3.0031007e-002,1.1288119e-002,1.7273129e-001,-1.1321792e-001,9.7684010e-002,5.4915710e-002,-1.6351654e-001,1.4128854e-002,-4.5300633e-002,5.9818327e-003,1.0241247e-001,-5.7112303e-002,4.8781316e-002,2.8709809e-002,0.0000000e+000,0.0000000e+000,-9.1789524e-002,4.5718217e-003,6.1991704e-002,-1.5924058e-002,-2.0613324e-002,-8.3229610e-002,1.8067609e-001,-3.9551359e-002,3.8967075e-002,-2.7880556e-002,-2.7642013e-002,-1.4487184e-001,-6.2647405e-002,9.2197538e-002,0.0000000e+000,0.0000000e+000,-5.9783664e-002,-1.1688950e-002,1.0355593e-002,5.5138969e-002,-3.1303303e-001,1.7933499e-001,-1.2011364e-001,2.0283770e-001,9.9555368e-002,-2.3046096e-002,9.6362801e-002,-6.4520700e-002,-9.8688436e-002,5.9136805e-002,0.0000000e+000,0.0000000e+000,-5.7037546e-003,-1.3171876e-001,1.0240696e-001,1.5086907e-001,-3.3683298e-001,6.7628154e-002,-1.2288357e-001,-5.7804817e-002,1.0611513e-001,-2.0231120e-003,2.4329213e-002,8.5597130e-002,-2.9536492e-002,-1.1151459e-001,0.0000000e+000,0.0000000e+000,-2.9944672e-003,-6.1797175e-002,-4.3828425e-002,-8.0607559e-002,3.8908609e-002,-5.8799446e-002,6.3685187e-002,3.0124917e-002,-1.0635698e-001,4.5133496e-002,-3.7085707e-002,3.3763406e-002,8.2168591e-002,-8.5495087e-002,0.0000000e+000,0.0000000e+000,-1.0417213e-001,-7.3216118e-002,4.3054881e-002,3.0438601e-002,2.7516250e-001,-2.2767169e-001,-4.7455383e-002,-2.8464784e-002,-3.3457690e-003,1.9595943e-001,1.3456150e-001,-2.6647712e-001,-4.2711353e-002,-7.6785450e-002,0.0000000e+000,0.0000000e+000,-5.0268307e-002,3.0099318e-002,1.0754290e-001,-8.7024385e-002,2.1107028e-001,-7.8859380e-002,-8.7688944e-002,-2.9688662e-002,3.6017881e-002,4.5368185e-002,1.2439404e-001,-1.0327072e-001,-2.2381693e-001,4.9671813e-002,0.0000000e+000,0.0000000e+000,1.4948555e-001,-3.6986564e-002,
,501,-7.7957072e-002,1.4807036e-002,-4.1806829e-003,-6.3923741e-002,1.1313383e-001,-7.7970889e-002,1.1893065e-001,-2.5970199e-002,-2.7647934e-001,1.5628198e-001,-1.0175976e-001,4.5569171e-002,0.0000000e+000,0.0000000e+000,-4.8560334e-003,6.9237165e-002,2.0118166e-001,-6.6984848e-002,2.2801413e-001,-1.0928959e-002,-1.9313605e-001,1.5135044e-001,-2.3684282e-001,7.4414166e-002,-4.5493646e-002,9.5134447e-002,9.9884188e-002,3.3320812e-003,0.0000000e+000,0.0000000e+000,-9.8463966e-002,-6.4163755e-002,7.2281076e-002,-4.9631679e-003,-1.6592163e-001,2.6300505e-002,-5.3881073e-002,-5.7212703e-002,8.0833543e-002,-8.6444704e-002,2.3125438e-001,-2.0299801e-002,1.9695647e-002,6.2116622e-002,0.0000000e+000,0.0000000e+000,-1.5189895e-001,-1.7157369e-001,-3.1795191e-003,-3.4285348e-002,8.1809607e-003,-2.0880562e-002,-1.2104592e-002,1.4100238e-001,-1.1132218e-001,3.7893487e-002,1.8777377e-002,-2.5174051e-001,1.8476573e-001,-2.7135164e-002,0.0000000e+000,0.0000000e+000,-2.2114707e-002,1.4105150e-002,-1.3693589e-001,-6.8729346e-002,6.3173439e-002,6.6925954e-002,1.6720258e-001,7.1178890e-002,-2.3648380e-002,-5.9978717e-002,-6.0954422e-002,-4.8884379e-002,-5.9564698e-002,9.2643039e-002,0.0000000e+000,0.0000000e+000,1.0632097e-002,7.3158144e-003,-1.4404070e-001,6.4064689e-002,-9.1437689e-002,8.0700855e-002,3.7624571e-002,-6.4962298e-002,1.3398495e-001,-4.4039716e-002,-5.0745211e-002,-6.5492040e-002,-5.7184773e-002,-8.8497794e-003,0.0000000e+000,0.0000000e+000,6.2887701e-002,7.2176619e-002,-1.9703421e-003,1.5922109e-001,-1.3110033e-001,1.2364529e-001,7.2914791e-002,-2.7010835e-002,-4.6524579e-002,3.2884483e-002,-3.8089598e-002,3.0293491e-002,5.9171115e-002,-1.3780317e-001,0.0000000e+000,0.0000000e+000,-1.5316265e-001,-6.0608240e-002,7.2951370e-002,4.5457047e-002,-2.3925304e-002,-7.3979441e-002,4.0864318e-002,5.4858419e-002,-1.4921151e-001,3.5819753e-002,-9.6454544e-002,7.3679560e-002,-2.6325810e-002,-3.5578747e-002,0.0000000e+000,0.0000000e+000,-8.7115312e-002,6.4422583e-002,6.4188129e-002,-9.1508939e-002,2.2644827e-002,-2.4171610e-002,-1.4448060e-001,4.9812245e-002,-3.6581993e-003,-1.9520182e-002,-2.0516616e-002,-4.7162469e-002,1.8525943e-001,-3.7201208e-002,0.0000000e+000,0.0000000e+000,-6.5247094e-003,6.4928084e-002,-7.7927418e-002,-4.8621958e-002,1.8118538e-002,6.2895548e-002,-2.1759721e-002,-4.9867914e-002,1.3370572e-001,7.9954529e-002,4.8193422e-002,-2.0745981e-001,-5.4121101e-002,1.0931167e-001,0.0000000e+000,0.0000000e+000,-3.6944485e-002,6.4339157e-002,
,513,9.0342730e-002,1.3016210e-002,-3.7859921e-002,8.5478666e-002,-3.0479776e-001,1.4882543e-001,-2.8382135e-001,6.7849171e-002,4.6438382e-001,-2.5575450e-001,2.6350203e-001,-2.3573224e-001,0.0000000e+000,0.0000000e+000,-5.4745464e-002,-2.1004645e-001,5.0167390e-002,-1.9827258e-001,5.6176289e-002,5.7441586e-002,9.9724608e-002,-4.5513989e-002,1.8274523e-001,-2.9536642e-001,-4.5467650e-002,2.3427130e-001,-2.7516411e-001,3.0464996e-001,0.0000000e+000,0.0000000e+000,-1.9778329e-002,-1.0521918e-001,3.1532067e-002,1.2213319e-001,-2.0293094e-001,-1.7374216e-002,1.1584751e-001,-1.1774775e-001,1.0563107e-001,8.6548322e-002,-2.0453902e-001,5.7124232e-002,-2.2413532e-002,-3.5056179e-002,0.0000000e+000,0.0000000e+000,-2.0635165e-002,5.1546778e-002,-8.6170794e-002,4.1098329e-002,5.6698622e-002,-6.1238033e-002,1.4530812e-002,-1.6459035e-002,-9.5107358e-002,1.1996512e-001,2.2277045e-002,-1.2783416e-001,6.6122361e-002,-1.3015767e-001,0.0000000e+000,0.0000000e+000,-2.9436568e-002,4.7039862e-002,3.8211187e-002,-3.0183731e-002,1.8621395e-001,3.8081877e-002,-1.5675591e-003,-1.2526710e-001,-8.2784291e-002,-1.4432475e-001,-2.8549326e-002,2.0965975e-001,2.5313675e-001,5.1994182e-002,0.0000000e+000,0.0000000e+000,-1.1884448e-001,5.7673170e-002,8.1534433e-002,4.8111722e-002,7.0871097e-002,1.0592606e-001,-1.1752451e-001,-4.8284443e-002,2.4616681e-002,-1.1307235e-001,4.3336765e-002,5.5484008e-002,-1.1301188e-001,1.2943658e-001,0.0000000e+000,0.0000000e+000,1.2732170e-002,-4.0788639e-002,-1.1356325e-001,4.8090767e-004,-1.5635455e-001,-1.2635540e-001,6.0795334e-002,6.8812297e-002,1.2201005e-001,1.6621942e-001,4.4104812e-002,-9.2238049e-002,-3.5191515e-002,-3.8258487e-002,0.0000000e+000,0.0000000e+000,1.9728222e-002,-9.4650959e-002,-4.3655201e-002,-8.0994105e-002,-7.5866548e-002,1.4865159e-001,-2.4682004e-001,2.1298651e-001,-8.1677642e-003,-3.9955307e-002,1.5422186e-001,-1.7967179e-001,-2.9165249e-002,-6.3515226e-002,0.0000000e+000,0.0000000e+000,-2.8134228e-002,6.2046359e-004,5.3952156e-002,-3.9172001e-002,1.7466823e-001,3.5048407e-002,-5.9879488e-002,-1.5038156e-002,2.7811777e-003,-1.0729799e-001,2.9317664e-002,8.5694553e-002,-7.0488502e-002,3.8465954e-002,0.0000000e+000,0.0000000e+000,-1.0780367e-001,6.9778202e-003,7.1797869e-002,-9.0090739e-002,6.0614984e-002,3.8628744e-002,-6.5090675e-002,4.6691378e-002,-5.2510171e-002,-8.8934518e-002,-1.9015870e-002,1.2216370e-001,-6.3311013e-002,1.6889034e-002,0.0000000e+000,0.0000000e+000,-1.1609977e-002,8.2221357e-002,
,525,-1.0842442e-001,-2.3278186e-002,1.4254602e-002,-5.7684823e-002,2.2393982e-001,-7.0392482e-002,1.0277522e-001,2.1679276e-001,-4.2898079e-001,8.9687187e-003,-2.7538403e-001,-7.2283084e-002,0.0000000e+000,0.0000000e+000,3.1213825e-001,8.4405575e-002,1.9577638e-003,-3.6287965e-002,5.7570748e-002,-5.2857129e-002,3.4486642e-002,1.7381424e-002,-3.4607641e-002,-2.4744185e-003,7.4066053e-002,4.9027323e-002,-1.2774591e-002,7.5868921e-002,0.0000000e+000,0.0000000e+000,1.1958278e-001,-1.2665277e-001,2.1123762e-001,8.1632847e-003,-3.5889929e-002,4.8762471e-002,5.7989667e-003,-1.1538250e-001,-2.6316268e-002,-7.7679074e-002,9.9605330e-002,-3.7213573e-002,3.9590070e-002,1.6132683e-001,0.0000000e+000,0.0000000e+000,-2.2991426e-001,4.4297769e-002,7.2175844e-003,4.8794608e-003,4.8301711e-002,-4.7171284e-003,1.6804682e-001,-1.1548784e-002,-8.5673643e-002,2.1067955e-002,-8.2092926e-002,-1.3182677e-001,4.3943056e-002,-2.6971084e-002,0.0000000e+000,0.0000000e+000,1.9073540e-002,1.0056298e-001,4.1580739e-002,7.1636222e-002,-1.2852947e-001,-1.4440429e-001,-1.5921298e-001,1.4051290e-001,5.0021810e-002,1.7140578e-001,2.1307465e-002,4.8625595e-002,-7.7723669e-002,-4.2575437e-002,0.0000000e+000,0.0000000e+000,-5.5186350e-002,-7.6266924e-003,2.1226221e-001,-1.7134220e-001,7.6824120e-002,-3.6971418e-002,-8.9694990e-002,-5.9272812e-002,1.2166661e-001,-3.7365976e-002,5.0111204e-002,8.0202183e-002,-1.3419316e-001,8.6206525e-002,0.0000000e+000,0.0000000e+000,2.6499618e-002,3.2689588e-002,5.7339647e-002,-2.7022083e-002,-8.0996546e-002,-2.1887637e-002,5.9900348e-002,-4.3959483e-002,-3.1837197e-002,2.1259985e-002,5.9372170e-002,1.0607364e-002,-9.7161789e-002,-1.7757039e-002,0.0000000e+000,0.0000000e+000,4.0908923e-003,-4.7169643e-002,-1.0812142e-001,-8.4562796e-002,4.0274442e-002,7.6761888e-002,2.7455498e-001,-6.0813026e-002,1.8322107e-002,-3.8092814e-002,1.3015662e-001,-1.0995265e-001,6.7936597e-002,6.0645387e-003,0.0000000e+000,0.0000000e+000,2.1458660e-002,-1.0035000e-001,1.6414674e-001,-2.8347034e-002,2.2441989e-001,-3.4675524e-002,-6.9531480e-003,-8.2137324e-002,2.7834873e-002,-7.5183478e-002,1.4967956e-002,-9.2390679e-002,-3.2872159e-002,6.8440259e-002,0.0000000e+000,0.0000000e+000,5.4569033e-002,-7.7233462e-002,-2.8122458e-002,4.3463303e-002,-1.0138609e-002,1.3629084e-001,-8.2109156e-002,-6.5233013e-002,-9.0567148e-002,-1.0984645e-001,-8.7050502e-002,6.5672869e-002,-6.3241716e-002,1.6305839e-001,0.0000000e+000,0.0000000e+000,-1.0405292e-001,1.8721321e-002,
,537,-3.2634823e-002,-8.1670576e-002,2.1906689e-001,-1.5599768e-001,1.6852509e-001,-1.6679648e-001,1.6031450e-001,1.3746917e-002,-1.9836395e-001,5.4323620e-002,-1.2877965e-001,9.7209026e-003,0.0000000e+000,0.0000000e+000,3.2370626e-002,8.2280129e-002,-2.4439396e-001,1.8070981e-001,1.6020157e-001,-3.4569182e-001,3.2199413e-001,-1.2682440e-002,-1.9422689e-002,1.3874175e-002,-1.8643279e-001,1.8083058e-003,-9.1241014e-003,1.3330006e-001,0.0000000e+000,0.0000000e+000,3.9471723e-002,3.2587970e-002,-2.8640719e-002,-1.4851496e-002,-1.4878494e-002,8.1568529e-002,-4.0931465e-002,-6.4419357e-003,4.2104561e-002,-4.1746598e-002,7.9071649e-002,-5.2951301e-003,1.0495718e-001,-4.5842435e-002,0.0000000e+000,0.0000000e+000,-6.0413013e-002,-2.1050502e-002,1.4008946e-002,-1.0403772e-003,-5.7921622e-002,9.5858329e-002,-1.7290457e-002,-6.0365529e-002,-5.1168863e-002,-7.3441367e-002,-2.0779242e-002,2.2776703e-002,2.2474458e-002,-1.2481917e-002,0.0000000e+000,0.0000000e+000,-4.6214928e-002,-1.7413765e-002,1.0969015e-001,8.1655214e-002,-9.0420655e-002,-2.3423417e-002,9.9836719e-003,-1.5242436e-001,-4.5748060e-002,8.2487238e-002,5.3828255e-002,-8.6203686e-002,-4.0986454e-002,-1.4914384e-003,0.0000000e+000,0.0000000e+000,-8.4220963e-002,-1.8260071e-002,-1.1518769e-001,2.3811173e-002,-1.1553013e-001,1.3447920e-001,2.1247910e-003,-1.0790831e-001,-4.7340947e-002,4.2718094e-003,-6.1980469e-002,1.2022358e-001,-4.7612446e-002,1.1879216e-001,0.0000000e+000,0.0000000e+000,-1.6357971e-001,9.4318936e-002,-9.9314195e-002,-4.6686487e-002,7.3479440e-002,7.7904619e-003,-2.2290125e-001,-2.7750920e-002,9.0693142e-002,-1.5505844e-001,-2.0224456e-002,1.0592356e-002,2.0514682e-002,-1.3814894e-002,0.0000000e+000,0.0000000e+000,-1.1631364e-001,2.4591674e-002,-6.5362843e-002,-7.3502234e-002,-6.3558969e-002,-5.5301387e-002,-8.9343903e-003,1.3014132e-001,4.7342116e-002,-1.3130701e-001,9.3407165e-002,-8.0074353e-002,1.0494653e-001,-8.0847531e-002,0.0000000e+000,0.0000000e+000,5.7946683e-002,-1.2961310e-001,8.5186998e-002,1.9342057e-001,-1.3242783e-001,1.0391688e-001,1.7370751e-001,-4.2960230e-002,-7.5788126e-002,1.5030391e-001,-7.9729939e-002,9.7334807e-002,-3.2724013e-003,-1.2135428e-001,0.0000000e+000,0.0000000e+000,2.1478971e-001,-1.3589494e-002,-1.3212167e-002,-4.3529482e-002,-2.7495108e-002,3.0447768e-002,-8.1363989e-002,3.7328836e-002,-4.0307048e-002,5.4210432e-002,1.4778736e-001,-5.0947117e-002,-1.4915898e-001,8.4569114e-002,0.0000000e+000,0.0000000e+000,1.0494644e-001,2.3946614e-002,
,549,1.4567074e-002,-1.9286925e-002,-1.4144883e-001,4.0691182e-001,1.4804776e-001,-1.3702055e-001,9.5161686e-002,-3.5246726e-001,1.0396522e-002,-2.6590296e-001,7.3815494e-002,7.1006783e-002,0.0000000e+000,0.0000000e+000,-3.4195997e-002,3.6382148e-001,-2.7449577e-002,-1.8685631e-001,2.5632822e-001,-3.0271582e-001,3.0208747e-001,-1.4380729e-002,-1.5892325e-001,3.1956365e-001,-1.4944372e-001,-3.9470904e-002,1.9149572e-003,-7.1151065e-002,0.0000000e+000,0.0000000e+000,5.3760053e-002,4.1276996e-002,5.0778135e-002,9.3110928e-002,1.0988607e-002,2.7146660e-003,7.2082188e-002,-9.2614962e-002,-1.6115593e-001,-1.2084936e-002,-3.3430774e-003,-1.2283289e-002,1.4193455e-001,-4.3755346e-002,0.0000000e+000,0.0000000e+000,-1.2041869e-001,-6.7067807e-002,-3.0210332e-002,1.5779794e-001,-1.9753889e-001,7.1512600e-002,2.1709093e-002,-5.7767939e-002,-4.1035808e-003,-2.5300129e-002,1.5126333e-002,1.5394260e-001,-7.7951433e-002,8.2351016e-004,0.0000000e+000,0.0000000e+000,4.4169300e-002,-4.2526217e-002,3.3143049e-002,-1.3491295e-001,2.9139079e-002,1.5400818e-001,-1.1261579e-001,1.0089923e-001,1.8573568e-001,-1.3387195e-001,4.0119654e-002,8.3162310e-002,-1.6350469e-001,4.5192766e-002,0.0000000e+000,0.0000000e+000,-1.8101790e-003,4.6990998e-002,-1.2535368e-001,-5.9396733e-002,-5.0156935e-002,5.5638252e-003,4.9589290e-002,4.5748558e-002,-8.7943512e-002,1.1328505e-001,3.0168057e-002,-2.2454037e-001,7.3340731e-002,7.6546717e-002,0.0000000e+000,0.0000000e+000,-3.6760242e-002,-2.3656858e-002,-1.1295421e-001,9.7836514e-002,-1.4450645e-001,-5.1257096e-002,8.4240690e-002,9.4788080e-003,-1.4835645e-001,5.1205525e-002,1.8823886e-001,-1.2008535e-001,1.7181535e-001,-2.8224878e-002,0.0000000e+000,0.0000000e+000,3.8537700e-002,-6.2275017e-002,1.4049363e-001,-1.1870959e-002,4.3499466e-002,1.7975362e-001,-2.0027396e-001,-1.7491524e-002,1.4057909e-001,-2.7150588e-001,-2.6113538e-002,4.9633941e-002,-8.9150428e-002,1.0119075e-001,0.0000000e+000,0.0000000e+000,1.6426827e-001,-8.4151475e-003,9.7587027e-002,2.2739420e-002,1.6240233e-001,5.6191752e-002,4.2386738e-002,-2.6518097e-001,1.2988247e-001,-3.1547660e-002,-7.2833882e-002,1.3164380e-001,-8.9898192e-002,3.4365144e-002,0.0000000e+000,0.0000000e+000,-8.4010878e-002,-5.6480522e-002,-7.6744289e-002,-7.5013675e-002,7.5506796e-002,4.6180362e-003,1.0223953e-001,1.2059152e-001,-6.0910246e-002,7.1392032e-002,-1.2850558e-002,1.6163995e-002,-4.3053619e-002,-2.3595922e-001,0.0000000e+000,0.0000000e+000,-7.4381582e-002,-4.2226723e-002,
,561,-2.7650462e-002,-1.9965392e-002,-1.1384682e-001,2.1763776e-001,-1.2709585e-001,5.1767210e-002,2.2205350e-001,-2.4392821e-001,3.1577108e-002,-3.2757681e-001,1.2730133e-001,-1.3293171e-001,0.0000000e+000,0.0000000e+000,6.4483242e-002,1.9121057e-001,2.0789872e-001,4.1405104e-002,4.4306586e-002,1.0087911e-001,-8.6655048e-002,-1.9968963e-001,-7.9776645e-003,-1.1449757e-001,9.5965691e-002,1.8941353e-001,-5.7091481e-002,8.8223630e-002,0.0000000e+000,0.0000000e+000,-3.4462299e-002,-9.5903601e-002,-6.6778989e-002,3.5804156e-002,-4.7759381e-002,-6.8989312e-002,-9.5522753e-002,-4.0531534e-002,1.0272570e-001,-3.8557597e-002,6.8087690e-002,-1.1478727e-002,-5.4735483e-003,-1.0851365e-001,0.0000000e+000,0.0000000e+000,2.7407481e-002,-7.3505288e-003,1.6419918e-001,-1.3863490e-001,5.2197473e-002,3.6647651e-002,-8.0674662e-002,-1.1008126e-002,3.5254664e-003,1.0567837e-002,3.9182324e-002,9.5781704e-002,-8.1201495e-002,6.8622527e-002,0.0000000e+000,0.0000000e+000,-3.1522198e-002,-1.1354245e-001,2.0418087e-002,8.2979430e-003,-3.5797150e-002,1.6219104e-001,-2.0370802e-001,8.8410946e-002,-7.8813940e-002,-1.1943395e-001,6.1041165e-002,6.2881964e-002,6.6955349e-002,-3.3086364e-003,0.0000000e+000,0.0000000e+000,-9.9488290e-002,-1.0563283e-002,-7.7949938e-002,-5.8372440e-002,-2.0416613e-002,-2.3170746e-002,-8.7615909e-002,4.2208036e-002,1.3139604e-001,-1.0616864e-002,7.7794357e-002,1.8401563e-001,-2.2827843e-001,1.0223197e-001,0.0000000e+000,0.0000000e+000,-4.6816380e-003,-3.6069298e-002,-4.6797410e-002,-2.0832249e-001,3.9294921e-002,5.7878195e-002,1.7539935e-001,-6.9952683e-002,8.5631069e-002,-4.1911125e-002,4.0964830e-002,-1.3965893e-001,6.9965145e-003,-6.5670088e-002,0.0000000e+000,0.0000000e+000,-1.7722131e-002,-9.8172164e-002,-5.7754459e-002,8.1378240e-003,-1.7783498e-002,4.6455573e-002,-2.0321080e-001,1.1691353e-001,-1.1413610e-001,5.6721655e-002,-7.9954276e-002,-1.7948411e-001,8.1566268e-002,-4.4722983e-002,0.0000000e+000,0.0000000e+000,-8.3841599e-002,3.0184445e-002,1.3659748e-001,1.8831551e-001,3.5164356e-002,3.2290453e-002,-1.3247608e-001,-4.7184958e-002,1.5773292e-002,1.1004502e-002,5.5553338e-002,-1.3049750e-001,6.6395345e-002,-2.3084743e-002,0.0000000e+000,0.0000000e+000,5.2783335e-002,7.6518556e-002,1.2472221e-001,-5.7619118e-002,4.6216166e-002,-8.9976833e-002,-3.8176453e-002,-2.4436641e-002,-4.3316341e-002,-6.5107479e-003,1.0532411e-001,-1.2834204e-001,2.3523231e-002,3.6014877e-002,0.0000000e+000,0.0000000e+000,6.6567716e-002,-4.6567191e-003,
,573,-1.7371685e-001,-1.0201925e-001,-2.8254855e-001,5.4761011e-002,1.0923454e-002,3.7557716e-001,2.1917853e-001,-1.6413279e-001,-1.5983238e-001,-5.2692177e-001,-4.6674717e-002,9.1954191e-002,0.0000000e+000,0.0000000e+000,1.3360341e-001,2.7788101e-001,4.1060192e-002,-6.1911941e-002,-6.2916751e-003,1.0526225e-002,5.7384310e-002,1.0642819e-001,-1.6872076e-001,2.2861003e-002,2.0756020e-002,1.5221762e-002,3.0835418e-002,1.0427406e-001,0.0000000e+000,0.0000000e+000,-8.5996522e-002,6.6323092e-002,2.2555345e-002,-2.0813874e-001,8.0872912e-002,-4.2392508e-002,2.9401835e-003,-9.2054344e-003,1.2262450e-001,6.8987133e-002,2.6225430e-002,-9.4829196e-002,-8.2520655e-002,2.2601650e-002,0.0000000e+000,0.0000000e+000,-1.1135578e-002,4.6092530e-002,-2.0335351e-002,2.4931740e-002,-9.0839643e-002,-5.8861858e-003,2.4018260e-002,1.0160502e-001,-1.2300054e-002,-7.0090370e-002,-6.4316127e-002,-5.9410854e-002,8.4845002e-002,9.4818864e-003,0.0000000e+000,0.0000000e+000,-2.5840250e-002,5.2620522e-002,1.4244534e-001,1.0211012e-001,-1.2030825e-001,2.3343916e-001,-1.3334192e-001,-5.8569707e-002,5.3176822e-002,-9.5147183e-002,4.5371883e-002,-6.7753353e-002,1.1315773e-001,2.0167191e-002,0.0000000e+000,0.0000000e+000,-1.7145259e-001,-4.9284297e-002,-1.1240420e-001,9.6169838e-003,-1.6535533e-003,1.1661888e-001,1.0037405e-001,-1.6142095e-002,-1.7435317e-001,1.3827934e-001,-8.8509143e-003,6.0047033e-002,3.3024922e-003,7.4876299e-003,0.0000000e+000,0.0000000e+000,8.8535829e-003,-1.1902048e-001,4.5821292e-002,5.8830058e-002,-1.3981571e-001,-1.3639805e-001,-6.6477276e-003,-1.9055151e-001,-1.7394556e-002,1.1190127e-001,-1.0423225e-001,1.8629453e-001,-1.4066877e-002,-1.1750868e-001,0.0000000e+000,0.0000000e+000,-2.0261693e-001,-4.1863469e-002,-4.6869038e-002,-5.2074857e-002,1.3438140e-001,-1.1480408e-001,-5.7452159e-002,-1.0655807e-001,1.9399788e-003,4.4354864e-002,1.2629054e-001,6.5658784e-002,-8.9846903e-002,-1.1566133e-001,0.0000000e+000,0.0000000e+000,-1.4262910e-002,-9.7395655e-002,7.8868312e-002,-2.9585106e-002,-3.9728018e-002,1.2727790e-001,6.6983317e-002,5.1399894e-002,3.3411401e-001,-1.5652243e-001,-8.9323352e-003,4.0816764e-002,2.0694466e-002,7.4362625e-003,0.0000000e+000,0.0000000e+000,3.4061502e-002,3.5844694e-003,3.7093841e-002,-5.0719956e-002,5.1290985e-002,8.5565299e-002,-1.9411778e-002,1.1245474e-001,-1.0194175e-001,1.8356676e-003,-4.7056738e-002,-1.1243489e-001,3.0703971e-002,-3.8138909e-002,0.0000000e+000,0.0000000e+000,9.7727170e-002,2.1522331e-002,
,585,-7.8095353e-002,-1.7132192e-001,-5.9436461e-003,-9.5843325e-002,2.0019548e-001,1.0459713e-002,2.4855606e-001,3.5388447e-001,-2.1721100e-001,7.2542786e-002,-7.4140483e-002,-2.5148569e-001,0.0000000e+000,0.0000000e+000,-4.6800057e-002,8.0580429e-002,-6.5334238e-002,6.0510457e-002,1.0651061e-001,-1.5173822e-001,-6.6409178e-002,7.7196859e-002,4.3225593e-002,-6.8432951e-002,2.3217993e-002,-1.3674689e-001,-1.1004734e-002,4.1877379e-003,0.0000000e+000,0.0000000e+000,2.5968637e-001,-1.3699995e-001,2.2396139e-003,2.2862963e-002,-2.9568013e-002,3.2727142e-002,-7.6208764e-002,-5.2936121e-002,-2.9652879e-002,-1.1298504e-001,5.0124343e-002,3.7330054e-002,1.6161213e-001,-5.5063272e-003,0.0000000e+000,0.0000000e+000,-2.3702253e-001,-5.7063477e-002,2.0810281e-002,-3.0131215e-003,-7.0083124e-002,-1.1143931e-003,-1.1042646e-002,-1.2183329e-001,3.1629990e-002,-1.3146325e-001,1.2103357e-001,-5.7578754e-002,9.9681802e-002,-5.5235985e-002,0.0000000e+000,0.0000000e+000,3.2870777e-002,-4.2881006e-002,-2.1396321e-002,-3.4175068e-002,2.6630763e-002,8.5237274e-003,1.5049722e-002,6.0163307e-002,-1.2498750e-002,-8.8834821e-004,-9.2604077e-002,2.2924482e-002,-2.9206067e-002,3.8664883e-002,0.0000000e+000,0.0000000e+000,6.3388224e-002,4.5220625e-002,-1.2049193e-001,-3.9462068e-002,-1.6594892e-001,1.7249909e-001,-1.8818628e-002,9.9116254e-002,1.3941835e-001,-1.1176158e-001,-5.3122477e-002,5.2501358e-002,-2.9379897e-001,-4.5788328e-002,0.0000000e+000,0.0000000e+000,1.3353312e-001,4.3757190e-002,-5.5765985e-002,-1.8576292e-001,-1.2888314e-001,1.7139526e-001,2.9282229e-002,-1.1156405e-002,-5.0855731e-003,-2.7762875e-002,6.8568734e-003,4.9272160e-002,-2.8041221e-002,2.7246126e-002,0.0000000e+000,0.0000000e+000,-9.6489793e-002,-1.5218137e-001,-1.5125502e-001,-2.0613282e-001,-4.7984096e-002,1.9271805e-002,1.6472402e-001,8.1258064e-002,-5.2116018e-002,-1.1770691e-001,-5.0692458e-002,-1.5595165e-001,5.1817010e-002,1.5429857e-001,0.0000000e+000,0.0000000e+000,-7.4624127e-002,3.5659695e-002,9.2372303e-002,8.6253261e-002,-2.5793974e-002,-1.0973610e-001,1.4688565e-002,9.5806738e-002,8.4381884e-002,5.4939657e-002,5.9355876e-003,9.0386828e-003,-4.4704488e-002,-9.6146877e-002,0.0000000e+000,0.0000000e+000,5.7365847e-002,1.7010080e-001,9.8568718e-002,1.4374712e-001,-4.9360418e-002,1.9468554e-001,-1.2292802e-001,-2.2778108e-002,-1.3128240e-002,1.1170679e-001,3.5895427e-002,6.6624329e-002,-1.2916941e-001,-3.8049517e-003,0.0000000e+000,0.0000000e+000,9.1370938e-002,5.3866960e-002,
,597,-5.9244293e-002,2.6463059e-002,-1.2134718e-001,3.8861501e-002,2.4368957e-001,-1.7506376e-001,1.7996235e-001,2.2434736e-001,-2.1513353e-001,-1.6516111e-001,-1.3100929e-001,-2.0701780e-001,0.0000000e+000,0.0000000e+000,1.5193019e-001,1.8924651e-001,2.3755406e-001,-7.7649467e-002,-1.2438094e-001,1.8167457e-001,-2.7675276e-001,1.5706493e-001,5.6013017e-002,-1.7002769e-001,2.0200592e-001,-2.4174935e-001,7.4322671e-003,-1.1567369e-001,0.0000000e+000,0.0000000e+000,-3.9927214e-003,7.9932194e-002,9.9003885e-002,-2.3827335e-001,-9.4270341e-003,-8.7006660e-002,5.9630486e-002,1.1263600e-001,-1.0262743e-001,1.9594093e-001,6.3694725e-002,-2.8171627e-002,5.8622348e-003,-5.3204886e-002,0.0000000e+000,0.0000000e+000,-1.1122548e-001,-3.0863187e-002,-7.4010397e-002,-6.7359786e-002,-9.9422925e-004,6.2674085e-002,3.8962296e-002,1.0625821e-001,8.7254831e-002,2.9213165e-003,4.2858219e-002,-5.8466573e-003,-7.5718042e-002,4.0819578e-002,0.0000000e+000,0.0000000e+000,-1.1267064e-002,1.2006674e-002,-9.6392008e-002,2.5946576e-002,-8.3166529e-002,6.7630748e-002,5.6803904e-002,1.6614311e-002,7.9037782e-003,-4.6169522e-002,1.0034518e-001,1.1078608e-002,4.5675481e-002,-1.0965176e-001,0.0000000e+000,0.0000000e+000,-6.3077910e-002,-5.1470690e-002,-9.9093675e-003,-5.8237096e-002,-1.1573088e-001,-8.3522553e-002,-8.9553189e-003,-6.4530074e-002,1.1419518e-001,8.6670109e-002,3.3036018e-002,-5.7938789e-002,1.4296630e-003,-5.3878415e-002,0.0000000e+000,0.0000000e+000,-1.6827563e-002,1.1279132e-001,1.3963773e-001,5.2402847e-002,8.0092683e-002,1.5898943e-001,-8.5018274e-003,6.8704235e-002,-5.4762873e-002,1.1826602e-002,-2.8013168e-003,-2.7417170e-002,5.1029772e-002,-6.5901752e-003,0.0000000e+000,0.0000000e+000,-2.2769200e-002,1.3598363e-002,-1.4314792e-001,-6.3761265e-002,6.2247044e-002,2.3579170e-001,4.7046826e-002,-9.1267000e-003,-1.7644078e-001,-7.7001103e-002,8.7545745e-002,8.4187813e-002,9.4837794e-002,1.2279387e-002,0.0000000e+000,0.0000000e+000,1.6310397e-002,-3.4724664e-002,-3.5349204e-002,5.5810676e-002,-1.5764372e-001,3.2352740e-002,-3.2095383e-002,-5.2265135e-002,-4.7913021e-002,-6.5304860e-002,6.2222332e-002,8.5716740e-002,-1.7482690e-003,1.3334969e-001,0.0000000e+000,0.0000000e+000,-2.0138693e-001,-3.6818044e-002,6.6496932e-002,-9.2377047e-002,1.8135757e-002,-3.0940896e-002,-3.4316459e-002,4.9865930e-002,1.1655812e-001,5.3563774e-002,2.9756195e-002,-9.0961108e-002,-2.3517785e-001,-6.6144549e-003,0.0000000e+000,0.0000000e+000,1.1944831e-002,2.1775855e-002,
,609,-2.2800701e-001,3.5392255e-001,-1.9964488e-001,-2.3043418e-001,8.7039418e-002,-1.2387869e-001,6.1119954e-002,2.5083653e-001,-1.6718096e-001,-1.1651581e-001,-2.8320235e-001,-3.3598859e-002,0.0000000e+000,0.0000000e+000,2.7989452e-001,5.7670277e-002,1.8753853e-001,-2.3622593e-001,3.3815727e-001,-1.6199982e-001,1.2614810e-001,4.7035996e-002,-7.3744187e-002,-6.2173115e-002,-1.3785244e-001,5.9302914e-002,-4.7569349e-002,9.3765728e-002,0.0000000e+000,0.0000000e+000,-3.6986888e-002,4.7811472e-002,-4.7053402e-002,-1.5004370e-001,1.3513887e-001,3.7816394e-003,1.8231384e-001,1.5495081e-001,-5.3063257e-002,-4.6020424e-004,-1.8422915e-001,8.3344200e-002,-9.8858377e-002,7.7888010e-002,0.0000000e+000,0.0000000e+000,7.0343624e-002,-5.1727369e-003,5.2976041e-002,-2.1408552e-002,-2.8585783e-002,1.8891878e-002,1.2190215e-002,2.7361476e-002,1.6421388e-001,-4.8659229e-002,-1.0161863e-001,-6.5333678e-002,-4.4175608e-002,2.1191275e-002,0.0000000e+000,0.0000000e+000,3.5537263e-002,1.9767078e-002,1.2927467e-001,1.2521321e-001,-1.8760355e-001,8.5070848e-003,-1.8882179e-001,-1.2343528e-001,5.6505817e-002,-8.0104566e-002,-3.8916747e-002,-1.2083636e-001,5.2004166e-002,-1.0379032e-001,0.0000000e+000,0.0000000e+000,-2.8285952e-002,1.6071764e-001,-1.6392556e-001,-7.4099017e-003,-5.6392766e-002,-2.6210641e-002,2.8612868e-001,-2.0589515e-001,4.1860508e-002,9.3814650e-002,-1.1582056e-001,5.2767806e-002,-4.8121595e-002,-6.2418245e-002,0.0000000e+000,0.0000000e+000,-3.6052231e-002,-1.0793945e-001,9.2753300e-002,8.8280347e-002,-1.1402564e-001,1.5147238e-001,1.2547287e-001,3.4730061e-002,1.0718196e-001,-4.6987724e-002,-9.6365830e-003,3.1335412e-002,-4.3643719e-002,9.2305092e-002,0.0000000e+000,0.0000000e+000,-2.8524269e-002,-1.1084865e-001,1.9126037e-002,1.3419359e-001,-1.3194609e-001,3.7003431e-002,7.7121724e-002,2.2029507e-002,-3.4342915e-002,1.1312869e-001,-7.9840326e-002,8.8789162e-002,2.9722159e-002,-3.6281850e-002,0.0000000e+000,0.0000000e+000,1.0736221e-001,4.8357919e-002,3.9061395e-002,-2.2012978e-001,-1.6360710e-001,9.1426770e-002,2.0849079e-002,4.2367885e-003,-6.5940931e-002,-1.6661835e-001,9.2377207e-002,-2.3294513e-002,1.0810092e-002,4.4828250e-002,0.0000000e+000,0.0000000e+000,1.4517787e-002,-7.3970587e-004,9.9968291e-002,-6.2947949e-002,1.4262203e-001,6.8556352e-002,-7.3003406e-002,3.4747506e-002,-1.2899062e-001,9.7971990e-002,2.2411578e-003,2.0153587e-002,-2.5135624e-001,-2.2577881e-003,0.0000000e+000,0.0000000e+000,1.9593757e-002,-5.4956913e-002,
,621,-9.1380389e-003,-1.8882997e-001,1.8917592e-002,-1.7049122e-001,-6.3031245e-002,2.5276800e-001,-1.3661586e-002,9.7640687e-002,-1.8858890e-001,-1.9694777e-001,-1.7784214e-002,-9.4073384e-002,0.0000000e+000,0.0000000e+000,1.5093585e-001,2.1656735e-001,-2.1152065e-003,4.6521459e-002,1.1933738e-001,-9.7986443e-003,1.1853855e-001,-3.7761988e-003,-3.0538854e-002,-5.8352145e-002,1.5240617e-002,6.8533367e-002,-1.3869075e-001,1.6424936e-001,0.0000000e+000,0.0000000e+000,1.1030910e-002,-1.3160546e-002,-3.1783013e-002,1.1653531e-001,-5.0959585e-002,1.3861012e-003,1.0739727e-002,-1.7157783e-001,9.0996981e-002,-1.1129018e-002,-3.0340186e-004,7.4294925e-002,3.7826873e-002,-1.1697292e-002,0.0000000e+000,0.0000000e+000,-1.1424999e-001,-1.9333383e-002,-3.6887864e-002,-2.6494863e-003,8.1936535e-002,-1.1386543e-001,-5.3593016e-002,-4.6059679e-002,1.7557532e-001,-4.3105569e-002,1.9963437e-001,3.3399967e-002,-1.3078854e-001,3.5209608e-002,0.0000000e+000,0.0000000e+000,-8.6421777e-003,-7.1751759e-003,6.1932537e-002,-1.1655251e-001,-6.3908044e-002,2.2328274e-002,2.5127684e-002,1.0032950e-001,-2.6299087e-002,-1.6464022e-001,1.0372758e-001,8.8591745e-003,-5.4289384e-003,-1.4478756e-002,0.0000000e+000,0.0000000e+000,-2.0397133e-001,-7.6383813e-002,9.1863374e-002,-1.8484667e-002,-2.0212356e-001,1.0967175e-001,-2.0960077e-001,1.2431888e-001,8.9185458e-003,-1.3341165e-002,-1.3480916e-001,-1.0640867e-001,-4.8740431e-002,-1.1382841e-001,0.0000000e+000,0.0000000e+000,3.6537766e-002,5.3711729e-002,3.8648409e-002,1.5700856e-001,5.7020623e-002,1.0794122e-001,-6.5025397e-002,4.6349234e-002,-1.1663933e-001,-2.8018131e-002,-4.4679097e-002,6.4541713e-003,8.2282337e-002,2.2039812e-002,0.0000000e+000,0.0000000e+000,-5.7686530e-002,-8.1160566e-002,-1.9393247e-002,4.2918542e-002,-2.0213926e-002,1.6754686e-002,1.4183825e-002,2.1823370e-002,-4.6180453e-002,1.8146171e-001,1.7662747e-002,4.6050450e-003,7.6639307e-002,1.6367026e-002,0.0000000e+000,0.0000000e+000,-3.9421490e-002,-3.4253270e-002,1.2721080e-001,-3.6438981e-003,-4.5773233e-002,-1.0523794e-001,2.5697577e-002,-1.4684166e-001,-9.3946019e-004,-3.3304634e-002,1.0404924e-001,1.8136918e-002,-6.2131450e-002,-2.7693535e-002,0.0000000e+000,0.0000000e+000,1.1095147e-001,5.9714818e-002,5.9041961e-002,9.8931268e-002,-1.0203511e-001,7.4349965e-003,-1.4989382e-001,-1.2029873e-001,6.3394849e-002,6.3650573e-003,1.0021709e-001,-2.0584445e-002,-2.4162191e-001,9.7602265e-002,0.0000000e+000,0.0000000e+000,-2.1391970e-002,1.3274997e-001,
,633,-7.9508339e-003,1.1769431e-001,6.8838746e-002,-8.7088873e-002,1.9968128e-002,-3.7952809e-002,6.3313501e-003,-4.4291770e-002,-1.5991709e-001,-2.0014563e-001,3.0795884e-002,3.5658872e-003,0.0000000e+000,0.0000000e+000,-2.1166486e-002,1.6817333e-001,4.7702997e-002,-7.0697917e-002,-1.4328142e-001,1.3279040e-001,1.6815030e-001,-1.4617589e-001,9.2295204e-002,-2.0454510e-001,-5.4888586e-002,3.4985297e-002,1.2135892e-001,1.2974103e-001,0.0000000e+000,0.0000000e+000,2.0007269e-002,2.6737007e-002,3.2175019e-002,7.8849653e-002,-1.2059855e-002,1.0610563e-001,3.5334938e-002,-1.0117649e-001,2.8465264e-002,-1.7020768e-002,-9.4609191e-002,-3.0207938e-002,-5.9476060e-003,7.1474580e-002,0.0000000e+000,0.0000000e+000,-4.0407129e-002,-1.6558410e-002,-1.1806093e-002,-5.1222710e-002,7.4588609e-003,1.1140963e-001,-4.4602064e-002,1.3527494e-001,-1.7334665e-001,6.9940864e-002,-5.5525688e-002,-6.3147950e-002,6.3338636e-002,5.2106812e-002,0.0000000e+000,0.0000000e+000,5.6864202e-002,5.6134832e-002,1.2549929e-001,4.2353175e-002,-8.8818090e-002,-9.9233210e-002,3.8885223e-002,-9.2878031e-002,1.0918820e-001,9.5536563e-002,4.9800076e-002,6.2816769e-002,-7.1373003e-002,-1.0272998e-001,0.0000000e+000,0.0000000e+000,-1.0206914e-001,-7.0359390e-002,5.1008185e-002,-1.4775334e-001,-2.2279366e-002,3.3044311e-002,-2.6666606e-002,4.7004936e-002,5.0962814e-002,-3.3520278e-002,1.3210303e-001,-4.0788427e-002,-3.8137258e-002,-1.6178794e-001,0.0000000e+000,0.0000000e+000,4.6447100e-002,8.0855941e-002,-9.5889929e-002,-1.6573533e-001,-9.9019437e-002,1.2457915e-001,3.7553782e-002,7.9559301e-003,4.4909567e-002,1.7903981e-002,3.9864717e-002,-1.0676590e-001,-1.2009171e-001,1.2425322e-001,0.0000000e+000,0.0000000e+000,-3.4467845e-003,-3.1661063e-002,-1.0829461e-001,1.2339215e-001,-2.9456443e-002,4.6964051e-002,1.3867930e-001,-2.5936277e-001,1.2274810e-001,-6.4850585e-002,-1.2629948e-002,9.3885032e-002,1.2841541e-002,-3.3267942e-003,0.0000000e+000,0.0000000e+000,-4.7872593e-002,7.6287136e-002,8.0012035e-002,1.7398327e-001,3.9934553e-002,1.0241152e-002,1.2155481e-002,3.8794542e-002,4.6779962e-002,-8.4195353e-002,7.9797379e-002,-6.6649686e-002,4.9604956e-002,-2.2641189e-002,0.0000000e+000,0.0000000e+000,-3.5765680e-002,3.8669965e-003,-2.2156797e-002,7.0502212e-003,-8.9653448e-002,6.4736136e-002,-1.0048412e-001,1.2136387e-001,-1.4954859e-001,-2.0151086e-002,1.1691687e-002,2.0721807e-002,-4.4260563e-002,6.8220127e-002,0.0000000e+000,0.0000000e+000,1.1321455e-001,-9.5460094e-002,
,645,-1.4807596e-001,-6.8647439e-003,-1.7606137e-002,-1.4950743e-001,1.1800037e-001,6.2646789e-002,-1.0644047e-001,1.8970900e-001,7.2026407e-003,-6.7560046e-003,1.1227139e-001,-2.4486440e-001,0.0000000e+000,0.0000000e+000,3.4935240e-002,3.7477589e-002,-7.0555699e-002,2.4370879e-001,-2.8651792e-001,3.3551678e-001,-4.8477377e-002,-1.1674388e-001,4.6979214e-002,-3.8742214e-001,1.4683946e-001,-9.4376037e-002,2.1649891e-001,6.4912452e-002,0.0000000e+000,0.0000000e+000,-1.4181241e-001,-7.9001129e-002,1.0700710e-001,-1.1456806e-001,8.1510824e-002,-6.5267228e-002,-3.1398254e-002,5.7810803e-002,-1.8348912e-002,9.5986410e-002,-3.8879924e-002,2.6984274e-002,1.4032134e-001,1.5410762e-002,0.0000000e+000,0.0000000e+000,-5.3255274e-002,-3.0433073e-002,3.6913916e-002,4.6723037e-002,8.1669191e-002,3.5055084e-002,-4.9618681e-002,-8.2494805e-002,-6.0790641e-002,8.7610632e-002,-7.2004032e-002,-3.6069700e-002,-7.1669762e-003,-1.0583115e-001,0.0000000e+000,0.0000000e+000,6.3927366e-002,2.6135821e-002,-1.5423482e-001,2.0249392e-001,-3.4509329e-002,-3.1321947e-002,8.7102154e-002,-6.1856806e-002,3.3212174e-002,3.0301713e-002,9.9751222e-003,-9.3759375e-002,-6.4610869e-002,-1.1927265e-001,0.0000000e+000,0.0000000e+000,1.4200154e-002,-2.5501269e-002,3.2397758e-002,-1.5771518e-001,-9.7316709e-002,4.5349602e-002,-5.4060655e-002,2.7689858e-001,-1.1301721e-001,8.1666850e-002,-5.5864741e-002,-2.8782563e-002,-5.8886764e-002,-5.3176019e-002,0.0000000e+000,0.0000000e+000,4.9469474e-002,3.9953037e-002,6.7686646e-002,-1.3910222e-001,2.7431274e-002,-2.7519353e-002,7.3145204e-002,-1.3176553e-001,1.1269285e-001,-2.0370143e-002,-1.3809936e-002,1.5019782e-002,-8.4552378e-002,6.6024654e-002,0.0000000e+000,0.0000000e+000,-7.8033946e-002,1.1870454e-001,6.2098880e-002,5.2336370e-002,1.3596160e-003,8.8389502e-002,-2.4038368e-002,-3.9483904e-002,-1.7432608e-001,-3.4458960e-002,6.6504926e-002,-7.3711899e-002,7.1006979e-002,-1.7678914e-002,0.0000000e+000,0.0000000e+000,-9.3586100e-002,3.1229574e-002,6.3115479e-002,2.0544612e-001,-1.4657270e-001,1.1825670e-001,-9.4664199e-002,-1.2044988e-001,4.8613556e-002,1.0857870e-002,2.4284396e-001,-1.3251915e-001,7.2107037e-002,-8.0269273e-002,0.0000000e+000,0.0000000e+000,2.9744043e-002,-9.1710370e-002,-8.5444313e-002,-2.0032178e-001,-1.6744630e-002,8.0757568e-002,8.2623889e-002,-1.6986884e-002,1.2460863e-001,1.4630576e-002,-1.1649021e-001,4.0902621e-002,-8.4718379e-002,2.8023742e-002,0.0000000e+000,0.0000000e+000,1.4529753e-002,4.0216276e-002,
,657,-1.2948802e-001,-1.3746957e-001,9.7270989e-002,-9.1921498e-002,-2.1658826e-002,1.3209894e-001,-2.1558761e-002,1.8793154e-001,-2.6232894e-001,6.4906311e-002,3.2256928e-002,-2.0666508e-001,0.0000000e+000,0.0000000e+000,7.2471294e-002,6.7187116e-002,-9.1905396e-002,1.2458983e-001,-1.2621812e-002,1.7550705e-001,4.5781400e-002,-2.5670169e-001,1.2937033e-001,-1.4807474e-001,2.3159701e-001,4.0811880e-002,6.3462196e-002,1.0898259e-001,0.0000000e+000,0.0000000e+000,1.1147317e-002,3.3037209e-002,2.6809710e-002,5.7711331e-003,9.0371895e-002,-1.2825146e-002,4.0670332e-001,8.9703737e-003,-1.9897863e-001,3.9796053e-002,-3.0358940e-001,2.3352975e-001,9.0541901e-002,6.6058617e-003,0.0000000e+000,0.0000000e+000,-1.0205720e-001,-1.7213476e-002,4.8623679e-004,-1.1939798e-001,2.2299180e-003,-3.0116872e-004,-4.9504083e-002,1.7924844e-001,-2.0840862e-002,-4.3761840e-002,-1.3454719e-001,9.6889356e-002,-6.4812678e-002,-1.6361259e-002,0.0000000e+000,0.0000000e+000,1.6001004e-001,-4.8828370e-002,1.1131234e-001,-9.8334129e-002,1.0462967e-001,1.0278938e-001,-1.3442499e-001,1.5311451e-001,-2.0000137e-001,-9.8079280e-002,4.6446808e-003,-8.4334653e-003,-1.9295837e-002,1.5101031e-003,0.0000000e+000,0.0000000e+000,-1.7161643e-001,-7.6163656e-002,-2.2724636e-001,8.6038382e-002,3.4802221e-002,1.6867072e-001,1.1251234e-001,3.0970044e-002,-4.7358106e-002,-9.1137651e-003,2.0028283e-001,-3.1406852e-002,-4.7590498e-002,5.4501110e-002,0.0000000e+000,0.0000000e+000,-9.9641113e-002,-2.1269434e-002,-4.2782146e-003,-1.0926374e-001,5.9870095e-002,4.5505076e-002,2.5910469e-001,1.6678330e-001,1.7749398e-001,2.0754596e-002,1.3482425e-002,-1.6549541e-001,-1.2310251e-001,-1.5528008e-001,0.0000000e+000,0.0000000e+000,-4.3173854e-002,8.0976363e-002,3.6181804e-001,9.7338167e-002,-3.1072401e-001,3.2749853e-001,-3.1587248e-001,-6.7430198e-002,1.4407817e-001,-1.9010618e-001,6.3106706e-002,3.4881556e-002,-1.3384994e-001,8.6610976e-002,0.0000000e+000,0.0000000e+000,1.8251679e-002,-6.4359471e-003,-2.4577720e-002,2.6742017e-001,-2.4968691e-001,6.4607047e-003,-1.2881048e-001,-4.6502088e-001,3.3838588e-002,9.1919212e-002,-3.9779727e-002,1.2250793e-001,1.9618714e-001,-8.7719198e-002,0.0000000e+000,0.0000000e+000,4.0024069e-002,-1.3549220e-002,-1.1562093e-001,-6.6119693e-002,2.6702844e-001,-1.5716155e-001,9.7305499e-002,-4.8628765e-002,-2.8634228e-001,1.3691288e-001,1.9113289e-002,-1.1412747e-001,-6.3001957e-003,6.1850388e-003,0.0000000e+000,0.0000000e+000,5.1784528e-002,-2.9324433e-002,
,669,-2.5691928e-002,1.4268225e-001,-1.2202085e-001,6.4812279e-002,-1.5316448e-002,-2.5603096e-001,1.7361289e-001,-2.5386979e-001,1.4337261e-001,-1.1624026e-001,-1.9833225e-001,1.2968266e-001,0.0000000e+000,0.0000000e+000,3.4466018e-001,-5.5288080e-002,-1.2349641e-001,2.7083406e-001,-1.4941951e-001,2.9893400e-002,1.7741384e-001,-2.2968186e-001,5.9217242e-002,8.9966627e-002,4.1284068e-003,2.4849975e-001,8.8140273e-003,-6.5033017e-003,0.0000000e+000,0.0000000e+000,-8.8123979e-002,-4.7933651e-002,2.5571626e-002,-6.3118861e-002,-3.4848233e-002,6.6462789e-002,3.1390182e-002,-6.9663468e-002,7.8649388e-002,3.3759300e-002,-4.4682564e-002,1.1615655e-001,4.0629008e-002,-3.2506226e-002,0.0000000e+000,0.0000000e+000,-1.0199558e-001,-8.4879484e-002,2.0103914e-002,-1.5930511e-001,2.1548549e-001,-1.2282584e-001,8.2752250e-002,-3.3952327e-002,7.9681664e-002,2.2889734e-002,-6.3644944e-002,5.9116564e-004,-6.1819590e-002,2.2432781e-002,0.0000000e+000,0.0000000e+000,8.4624363e-003,-5.2945223e-002,2.4625195e-002,-1.1569490e-001,-1.3597800e-003,5.6653081e-002,6.0487433e-002,1.0009536e-001,1.9483481e-002,-1.1151076e-001,3.1779256e-002,-1.2153867e-001,5.7175495e-002,-8.7009979e-002,0.0000000e+000,0.0000000e+000,4.5708310e-002,-4.7204080e-003,1.6776670e-002,-6.0816813e-002,-1.6327875e-001,8.2201089e-002,1.5805092e-002,6.9910913e-002,1.7750142e-001,-2.6599668e-002,-9.2371712e-002,4.6183281e-002,-1.9643033e-001,-1.2263551e-001,0.0000000e+000,0.0000000e+000,1.8375569e-001,7.3142435e-003,6.8116688e-002,-9.5462136e-002,-1.2306532e-001,1.3601134e-001,-5.0520836e-002,2.3022034e-002,5.1400138e-002,6.0979112e-002,-7.6463541e-004,-6.8125853e-002,-4.6319084e-002,6.9809018e-002,0.0000000e+000,0.0000000e+000,1.3488636e-002,-1.1241420e-001,-1.3438484e-001,7.1282750e-002,-2.4303000e-001,1.7694290e-001,7.3650293e-002,1.1060801e-002,-6.9457935e-002,3.2140705e-003,4.4164887e-002,-8.5680847e-002,6.8760433e-002,1.2737506e-001,0.0000000e+000,0.0000000e+000,-1.8105128e-001,1.1483073e-003,-1.1185450e-001,1.3926319e-001,-1.9632714e-001,-4.5908741e-003,1.4108629e-001,2.6270146e-002,1.8845809e-002,-1.7436179e-002,-1.3075144e-002,1.2529806e-001,-1.4361325e-002,1.1509950e-002,0.0000000e+000,0.0000000e+000,-4.3910548e-002,-8.3725495e-003,5.2427774e-002,-3.7481959e-002,2.9697932e-001,-3.1151293e-002,9.7532425e-002,-3.6976087e-002,-9.8971963e-002,5.8640820e-002,-1.0833854e-001,-1.3137314e-001,1.9149752e-002,-1.7889155e-001,0.0000000e+000,0.0000000e+000,2.3203483e-002,1.6428132e-001,
,681,-1.8377523e-001,2.6909110e-001,3.5363778e-002,4.4291531e-003,1.3835538e-001,-1.7304288e-001,3.7892884e-002,-1.1962856e-001,-4.5460076e-001,3.8812911e-001,-6.5558951e-002,8.0949248e-002,0.0000000e+000,0.0000000e+000,-2.7831416e-002,2.4406673e-001,8.7657237e-003,-8.6379504e-002,-3.7368307e-002,5.1089154e-002,1.6349675e-001,5.6127131e-002,6.2967270e-002,-1.8500135e-001,-3.7727630e-003,-1.2949708e-001,-1.2115465e-001,2.5841388e-001,0.0000000e+000,0.0000000e+000,1.1219145e-001,-1.3506033e-001,3.0698907e-002,3.9488204e-002,-1.3662919e-002,-6.3679119e-002,7.1892260e-002,1.4887049e-002,-7.3804936e-002,1.8689953e-002,1.3267949e-002,-3.3612760e-003,1.7033582e-001,-1.0345642e-001,0.0000000e+000,0.0000000e+000,-2.0742715e-001,5.2799740e-002,1.5775049e-001,3.7002857e-002,-1.9417149e-001,1.2728647e-001,-1.6672983e-001,-1.2750592e-001,1.9514656e-001,-1.0641254e-001,5.0222355e-002,1.6627832e-002,-2.3155001e-002,8.2817109e-002,0.0000000e+000,0.0000000e+000,-1.6017481e-003,-8.9008956e-003,1.5405923e-001,6.8758503e-002,-2.0339039e-001,1.3307901e-001,-1.6280228e-001,-1.5673407e-001,-2.2267532e-002,-1.0088448e-001,1.9803346e-002,1.8883472e-001,-2.7233989e-002,-3.0803561e-002,0.0000000e+000,0.0000000e+000,-1.4709611e-001,-6.0184786e-002,1.3031560e-001,-2.5430793e-002,-1.4654373e-001,3.8346455e-002,-3.5661039e-002,-2.0174342e-001,1.1307091e-001,-5.1079692e-002,9.2141094e-002,9.4647472e-002,-1.9386906e-001,-2.7558432e-002,0.0000000e+000,0.0000000e+000,3.8675624e-002,7.0924571e-002,4.5983860e-002,3.5365695e-002,-1.9850218e-001,3.3558001e-002,7.5882062e-003,-3.7267436e-002,2.4185296e-001,-7.9571864e-002,-1.2258173e-001,-8.7956345e-002,8.3980482e-002,1.0034726e-001,0.0000000e+000,0.0000000e+000,-6.0301875e-003,-2.3976223e-002,8.4615226e-003,6.9398979e-002,-7.5483373e-002,-5.0920350e-002,-4.8378369e-003,1.5275907e-002,-9.5459407e-002,1.3079458e-001,-2.8287672e-002,-2.1347335e-001,1.4548804e-001,5.8471339e-002,0.0000000e+000,0.0000000e+000,6.2886918e-002,-4.4031867e-002,-5.7695437e-002,1.9271145e-002,9.5945720e-002,-3.3086679e-002,4.5651626e-002,9.7414443e-002,-1.2569120e-001,4.9227046e-002,1.0480599e-001,-1.2785086e-002,-2.9514213e-002,-1.9973741e-002,0.0000000e+000,0.0000000e+000,3.6525142e-002,-2.2026096e-002,1.8924255e-002,-1.0505465e-001,1.7822623e-001,9.3006477e-002,-1.4596143e-002,1.2994543e-002,7.4833253e-002,-1.6905773e-002,-1.1185877e-002,1.1418105e-001,-2.2309085e-001,-1.1015214e-001,0.0000000e+000,0.0000000e+000,9.7717472e-002,-8.3505822e-002,
,693,-2.2458685e-001,1.8696953e-001,-1.7952244e-001,1.4280172e-001,-9.8060537e-002,-1.9156772e-001,-1.0264417e-001,9.6771968e-003,-2.0804804e-001,6.8311453e-001,-1.6191614e-003,6.4803499e-002,0.0000000e+000,0.0000000e+000,-2.9082827e-001,-1.8788417e-001,5.9372007e-001,-3.3742870e-001,-2.9561390e-002,1.4996964e-001,-5.7297662e-001,1.6981956e-001,1.6887710e-003,-6.8044110e-002,2.9152727e-001,-1.9557388e-001,-9.5253663e-002,1.1890292e-001,0.0000000e+000,0.0000000e+000,8.5055913e-002,-8.0871918e-002,4.3281943e-002,8.7650124e-002,-5.5846584e-002,-2.5559463e-002,1.1243892e-001,7.6182876e-003,-5.0020424e-004,-6.2719458e-002,4.3608931e-003,4.6063510e-002,-1.0074013e-001,1.1616043e-001,0.0000000e+000,0.0000000e+000,7.6554356e-003,-2.9909012e-002,-5.7818925e-002,2.3856772e-001,-2.5186794e-001,1.3410108e-001,-1.9260090e-001,-4.4804084e-003,5.4744284e-002,-1.0208909e-002,2.2325055e-001,-1.0900328e-001,9.2998890e-002,5.7525043e-002,0.0000000e+000,0.0000000e+000,-1.0182501e-002,-5.8001977e-002,1.1491579e-002,-2.4615826e-002,-7.6998114e-002,7.2934154e-003,-9.8249601e-002,3.1825403e-002,3.4727062e-002,-1.0334350e-002,-5.0092626e-002,-2.3403513e-002,2.2897058e-001,-2.7027048e-003,0.0000000e+000,0.0000000e+000,-1.7041586e-001,-6.7370283e-002,6.5953600e-002,-4.6626908e-002,-7.8749251e-002,8.7411072e-002,1.7714901e-001,3.4625402e-002,-1.1050363e-001,1.1011719e-001,-1.1105208e-001,-1.1862058e-001,7.1472984e-003,-3.1451026e-002,0.0000000e+000,0.0000000e+000,1.6374396e-001,-1.6713631e-001,-1.9856033e-001,4.7985222e-002,-1.6955397e-001,1.7192391e-002,2.8550966e-001,-4.3998522e-003,1.4665579e-001,-1.7672977e-002,-3.1832531e-002,6.0472325e-002,-1.9287643e-001,6.1812668e-003,0.0000000e+000,0.0000000e+000,-1.2438772e-003,1.3759170e-001,-8.4139788e-002,-1.2330600e-001,6.4028459e-002,8.9078767e-002,6.7908113e-002,2.1024599e-002,1.1184371e-001,1.3505547e-002,1.5234985e-001,-2.1959630e-002,-1.1803348e-001,-1.2165270e-001,0.0000000e+000,0.0000000e+000,-4.1705284e-002,1.0102699e-001,1.4818375e-001,2.3207053e-001,-9.9756797e-002,9.6737373e-002,-4.2737867e-002,-1.3528551e-001,-2.7319282e-002,-4.2142382e-002,-4.0755874e-002,-5.5338553e-002,-4.2755096e-003,-5.4900361e-002,0.0000000e+000,0.0000000e+000,-6.7478190e-002,9.2780086e-002,4.5764727e-002,8.5825276e-002,-1.2289426e-001,1.4189292e-001,-1.4822490e-001,1.6271499e-001,-1.4924855e-001,2.4073172e-002,-1.2522783e-001,-9.5284599e-002,-8.9928674e-002,1.1033213e-001,0.0000000e+000,0.0000000e+000,1.5929648e-001,-3.1262272e-002,
,705,-1.4458284e-001,-2.0242947e-002,-9.1480988e-002,7.2106014e-002,-1.1243800e-001,3.0171819e-001,2.4506773e-001,-1.1000863e-001,-1.8188589e-001,-2.8675383e-001,-1.6092742e-001,-9.2142405e-003,0.0000000e+000,0.0000000e+000,9.8939669e-002,3.5963651e-001,3.9095978e-001,-4.0837478e-001,3.3742762e-001,-1.6459499e-001,-2.0501620e-001,1.3606153e-001,5.0634221e-002,3.0963025e-002,2.6355058e-001,-1.4761716e-001,-8.2358340e-002,-3.4725101e-002,0.0000000e+000,0.0000000e+000,1.5531553e-001,-3.6640530e-002,-6.6258187e-003,-2.4937857e-002,5.8660978e-002,-1.1774487e-001,1.0137788e-001,-8.1521759e-002,3.1388422e-002,1.3161791e-001,-5.3187842e-002,1.5272547e-001,-3.6864295e-002,9.1777111e-002,0.0000000e+000,0.0000000e+000,-3.6135436e-002,-1.3850315e-001,-1.2179821e-002,1.3448161e-001,-1.4944824e-001,2.8990110e-002,6.5833619e-002,-1.5256765e-001,1.9042102e-001,-2.9549763e-002,-1.5067529e-001,1.7245337e-001,-2.1330875e-001,2.9805709e-002,0.0000000e+000,0.0000000e+000,2.7192903e-002,-2.4225416e-003,3.9106318e-002,6.8499922e-002,1.8548150e-002,3.5973547e-002,1.6669889e-001,-3.1467715e-002,-6.5692677e-002,-5.3998248e-002,-1.5277869e-001,1.0281676e-001,-2.6174848e-002,8.6087862e-002,0.0000000e+000,0.0000000e+000,-1.2614197e-001,1.6644359e-001,2.2243537e-002,-1.6677621e-002,-5.9021106e-002,1.9378064e-001,-5.5288071e-002,-5.5438762e-002,-2.1226207e-002,7.3071786e-002,9.1133249e-002,4.5286990e-002,-1.7439005e-001,6.7494926e-002,0.0000000e+000,0.0000000e+000,5.8111640e-002,1.3702501e-001,1.4591780e-001,-8.5483122e-003,-7.4430512e-002,1.5862152e-001,-1.7995112e-001,-1.6648308e-001,4.4003228e-002,-1.0228138e-001,-5.4530436e-002,-1.1272866e-001,1.4946614e-001,2.4531671e-002,0.0000000e+000,0.0000000e+000,2.6661199e-002,7.5295146e-002,-2.9324678e-002,-1.1913400e-001,8.0386756e-002,-1.8219275e-001,3.7016889e-003,8.5472194e-002,-4.4996998e-002,-4.1033970e-002,-7.8815039e-002,-8.5179627e-002,1.2449937e-001,-1.1882944e-001,0.0000000e+000,0.0000000e+000,1.2495152e-001,-2.9057914e-001,7.6043440e-003,3.3310431e-002,-8.8198209e-002,-4.0554261e-002,1.1395033e-001,1.5882764e-001,-4.1767901e-002,-8.9549472e-003,-1.9750956e-003,5.3725923e-002,-1.3434070e-001,-2.7945102e-002,0.0000000e+000,0.0000000e+000,3.8796523e-002,-8.3450933e-002,-1.0554324e-001,-8.4451460e-002,6.8981254e-002,9.8012880e-002,1.4177398e-001,3.8496176e-002,-5.7179691e-002,-1.0601567e-001,1.6338923e-001,-3.2366823e-002,-9.9563645e-002,1.3376863e-001,0.0000000e+000,0.0000000e+000,-5.7426022e-002,1.1880345e-001,
,717,-1.6979268e-001,2.7386410e-001,-1.1261864e-001,1.6261658e-001,-8.4997059e-002,-7.8480832e-002,1.0155934e-002,-1.7624930e-001,-1.5735159e-001,1.3324675e-001,1.8093931e-001,-1.0206182e-001,0.0000000e+000,0.0000000e+000,-1.5445465e-001,2.4428442e-001,1.5266953e-002,-6.2852373e-002,7.9144487e-002,-1.2049060e-001,1.3542265e-002,2.8621983e-001,-6.3308027e-002,4.6120264e-002,2.2629651e-001,-4.4299621e-001,1.0638957e-001,-1.4293117e-001,0.0000000e+000,0.0000000e+000,7.0976374e-002,1.0333738e-001,9.1277950e-002,-6.5080213e-002,-1.5962513e-002,8.1285817e-002,1.0218510e-001,7.5015417e-002,5.7314568e-003,-1.5256203e-001,7.3921777e-003,1.7419090e-002,1.9315114e-002,5.1585614e-002,0.0000000e+000,0.0000000e+000,-1.6162210e-001,-7.6095379e-002,-7.0267532e-003,-2.9574990e-002,1.1430508e-001,4.3399268e-002,-1.2246811e-002,1.1774519e-001,-7.2396948e-002,-1.0514378e-002,1.1146381e-001,-2.3786194e-002,-6.1589634e-002,5.9801854e-002,0.0000000e+000,0.0000000e+000,-1.8597925e-002,-5.3998210e-002,1.0567408e-001,2.6468612e-001,-1.0490327e-001,-1.5257093e-002,1.6733060e-002,-3.3035316e-001,7.5200870e-002,4.3943679e-002,-8.9896942e-002,1.7359640e-001,-1.3712889e-002,-9.5278330e-003,0.0000000e+000,0.0000000e+000,-1.1716566e-001,6.9796895e-002,-1.2511795e-002,6.8582932e-002,-7.9308958e-002,5.8601265e-002,9.4846411e-002,-9.4581476e-002,6.0492472e-002,-7.1618354e-002,1.1929543e-001,-6.5749105e-002,7.7799777e-002,-7.3094758e-002,0.0000000e+000,0.0000000e+000,5.3079619e-002,-4.1980233e-002,-8.4065546e-002,-5.5834466e-002,-1.8878206e-001,2.1285321e-001,5.6367869e-002,-4.0750287e-002,2.7806818e-001,-1.5756971e-001,5.7372211e-002,-1.0477385e-001,-8.9035233e-002,-7.7141232e-002,0.0000000e+000,0.0000000e+000,2.2623439e-001,-7.6817177e-002,-1.0705557e-002,3.0592155e-002,-1.4926723e-002,2.0752327e-001,-1.5971131e-004,-3.4249164e-002,6.5767325e-002,-4.4854355e-002,-1.1703613e-001,6.0298500e-002,-7.8405117e-002,7.7853951e-002,0.0000000e+000,0.0000000e+000,-1.2568082e-001,3.4958110e-002,-4.3773134e-002,1.0399594e-001,2.4755568e-002,-1.3484909e-001,2.1057522e-001,1.1886232e-001,-1.3411217e-001,-3.0358870e-002,-1.4739436e-001,4.5213693e-002,6.7368202e-002,1.6011489e-001,0.0000000e+000,0.0000000e+000,-2.1610608e-001,8.8892573e-002,-4.2812359e-002,2.1441017e-002,-1.8815816e-001,3.5330754e-002,5.5779296e-002,-2.8591196e-002,-1.4879623e-002,1.1756019e-001,5.6973397e-002,-1.2613254e-001,-1.6576576e-002,-1.4363735e-001,0.0000000e+000,0.0000000e+000,1.3584670e-001,2.3141700e-002,
,729,1.4064094e-001,-4.2905446e-001,2.6496195e-001,-2.2432037e-001,-1.2989652e-001,3.1073176e-001,-6.4723504e-002,1.1827440e-001,-6.0593388e-002,-2.7494908e-001,-3.8491489e-002,-6.8167447e-002,0.0000000e+000,0.0000000e+000,1.5667598e-001,5.3878390e-002,-4.0612044e-003,-5.5018143e-002,2.7336626e-002,4.0731144e-002,9.1148190e-002,-1.1994964e-001,-6.8730939e-002,-1.6069510e-002,3.1589068e-002,1.1889994e-001,2.6069925e-002,1.2322566e-002,0.0000000e+000,0.0000000e+000,4.3241475e-002,-3.5111401e-002,-6.0635841e-003,-6.7424426e-002,-7.6890843e-003,3.8211562e-004,-1.5493753e-002,1.2571503e-001,-5.0669589e-002,-7.5801549e-002,-1.9519821e-001,1.2272391e-001,-1.7501312e-002,2.4730038e-002,0.0000000e+000,0.0000000e+000,-9.6227586e-002,4.1374537e-002,-3.1977409e-002,-2.1559349e-002,1.6542833e-001,2.2045123e-002,1.3918539e-001,-1.5448225e-001,2.5005108e-002,-5.5705378e-002,-1.0246299e-001,8.3622004e-002,1.6473640e-002,2.0847086e-002,0.0000000e+000,0.0000000e+000,-3.1925517e-002,-8.6748877e-002,-8.0219394e-002,1.7981151e-002,-9.6646543e-002,1.4458239e-001,2.6141247e-002,8.9862049e-002,4.1568359e-002,-3.8686917e-003,1.6098026e-001,1.3567598e-002,-1.0027403e-001,-1.5893596e-002,0.0000000e+000,0.0000000e+000,-1.3636289e-001,2.9025400e-002,-1.7535606e-001,5.8849435e-002,-2.8810536e-001,2.5484274e-001,-1.3554071e-001,5.1833972e-002,-8.7723420e-003,-5.9757661e-002,-4.0200598e-002,1.1759010e-001,-1.7386648e-001,5.0947352e-002,0.0000000e+000,0.0000000e+000,1.1608329e-001,-3.8367434e-002,-4.3394148e-002,-1.6128113e-001,-1.1668304e-001,-1.0422462e-001,-1.6288474e-002,3.0165319e-002,1.7410394e-002,3.4055841e-003,-8.7707709e-002,6.0065739e-002,-5.3027851e-003,8.0156740e-002,0.0000000e+000,0.0000000e+000,5.2918494e-003,5.1469541e-003,4.7056364e-002,-2.5311669e-001,1.9564432e-001,-1.4186849e-001,7.7425664e-002,5.1186056e-002,-1.0670995e-003,-3.4933602e-002,1.3426158e-001,-1.3138036e-001,2.2834484e-001,-4.6727100e-002,0.0000000e+000,0.0000000e+000,-6.5970635e-002,1.5246515e-002,5.1604393e-002,3.8445610e-002,1.2066370e-001,4.1915252e-002,-1.0450534e-001,-1.8099067e-002,-3.5221126e-002,-7.4733472e-002,1.5922544e-002,1.9533435e-001,4.8886916e-003,-9.3956317e-002,0.0000000e+000,0.0000000e+000,3.1581221e-002,5.9166857e-002,1.3483364e-001,1.4725080e-002,-4.2842354e-002,1.6914208e-001,-7.4044005e-002,6.2311831e-002,-7.4103620e-002,4.0683081e-002,-1.3376058e-001,8.2412275e-002,-9.9990301e-002,-1.1352191e-001,0.0000000e+000,0.0000000e+000,2.0651485e-002,1.0571572e-004,
,741,-3.9339226e-002,-8.3702508e-002,6.8913870e-002,-3.3559588e-002,-1.5922563e-001,-5.2586029e-002,5.6628074e-002,-1.1400593e-001,3.7349966e-001,-1.7658665e-001,1.9765155e-002,-9.7053397e-002,0.0000000e+000,0.0000000e+000,-1.4367508e-001,7.5649374e-002,-8.1654436e-002,1.5385592e-001,-2.5056667e-002,2.0741127e-001,1.1174432e-001,-8.7666846e-002,-9.5419395e-002,-9.6209602e-002,-1.4904798e-001,1.4835966e-001,-4.2268269e-002,1.2765086e-001,0.0000000e+000,0.0000000e+000,-1.1679394e-001,1.0955588e-001,2.9036013e-002,1.2538229e-001,-8.3899458e-002,5.1236759e-002,4.6097297e-003,-6.6675791e-002,-2.9837251e-002,-3.5970716e-002,-2.3403843e-001,2.8053892e-001,2.0835130e-002,-2.9596533e-002,0.0000000e+000,0.0000000e+000,-8.2785339e-002,9.5957367e-003,2.2277322e-001,-3.2122995e-002,-1.0967995e-001,1.1127732e-002,-8.7528489e-002,-6.1071027e-002,-7.2940600e-002,2.0017354e-001,9.6407683e-002,1.2150825e-001,-7.4111155e-002,-2.1080832e-001,0.0000000e+000,0.0000000e+000,1.3482084e-001,-1.6640209e-001,-7.8413804e-002,-1.3983593e-001,1.1386098e-002,-6.5501511e-002,-4.8872420e-002,1.8226230e-001,-8.5056835e-003,-3.0921215e-002,2.2903747e-001,-3.6829400e-002,3.9421513e-002,-3.3745295e-002,0.0000000e+000,0.0000000e+000,-1.8951096e-001,-1.6173319e-001,-5.7434760e-002,6.3913522e-002,-3.1388700e-002,1.5299671e-001,-2.4582324e-001,1.0158000e-001,-2.2405821e-001,3.3036938e-002,8.9587011e-002,-3.2673132e-002,1.1201265e-001,8.9505325e-002,0.0000000e+000,0.0000000e+000,5.2402274e-002,-8.1019142e-002,4.7733418e-003,1.4271033e-001,-1.6855789e-001,6.5529581e-002,-2.5708543e-002,-7.1503385e-002,-2.1543477e-002,-2.0093238e-002,6.1805220e-002,-1.7494514e-001,1.3714586e-001,-3.9832677e-002,0.0000000e+000,0.0000000e+000,2.7835968e-002,1.0407280e-001,1.2751361e-001,2.6461462e-002,-1.0818189e-001,-3.7835583e-002,-7.0155471e-002,6.9483420e-002,-3.2527238e-002,2.0017001e-001,1.9095406e-001,-2.5757184e-001,-1.0814795e-001,-3.8204416e-005,0.0000000e+000,0.0000000e+000,7.0184739e-002,-5.5020566e-002,7.7961520e-002,-3.3923266e-002,9.0922803e-002,-8.5276726e-002,-2.7998961e-002,2.0355184e-002,2.3221653e-001,-1.6967515e-002,-1.2798314e-001,6.4271415e-002,-1.5773293e-001,9.2672682e-002,0.0000000e+000,0.0000000e+000,6.0518721e-003,-2.2209893e-002,4.1430311e-002,-9.5539545e-002,-4.2390260e-002,6.7740522e-002,-1.0307400e-001,-9.1593393e-002,3.3786153e-002,-7.6629096e-002,4.8472897e-002,1.6058931e-001,-1.7026633e-002,-1.0449871e-001,0.0000000e+000,0.0000000e+000,1.0074750e-001,3.8290801e-002,
,