-0.006031, -0.006185, -0.017987, -0.006994, -0.025745, 0.022919, -0.007017, 0.002472, 0.003444, -0.001551, 0.015006, 0.026416, 0.000000, 0.000000, -0.017986, 0.001879, -0.013004, 0.013293, -0.040834, 0.036990, -0.016799, -0.005134, 0.002574, -0.014490, 0.032810, -0.012779, 0.001493, 0.012468, 0.000000, 0.000000, 0.022273, -0.010415, 0.025391, 0.006151, 0.015244, -0.010689, 0.027776, -0.030388, 0.001554, 0.024430, -0.004670, 0.012942, 0.020296, -0.018873, 0.000000, 0.000000, -0.027538, 0.015784, 0.028935, -0.008035, 0.017044, -0.001779, -0.011256, -0.005567, 0.003157, -0.000425, 0.002498, -0.001454, -0.002195, -0.001312, 0.000000, 0.000000, -0.010327, 0.001222, 0.000288, -0.000848, -0.020268, -0.006120, 0.010550, 0.025231, 0.006357, 0.004643, -0.003555, -0.010710, 0.001489, 0.012262, 0.000000, 0.000000, -0.015629, -0.004632, -0.022741, -0.011131, -0.003123, 0.018563, 0.024392, -0.013097, -0.002412, -0.015029, -0.001580, -0.001269, -0.015254, 0.009561, 0.000000, 0.000000, 0.013351, -0.003476, 0.024381, -0.002653, -0.036073, 0.019212, -0.007926, -0.014417, 0.006425, -0.000545, 0.017640, 0.009053, -0.015992, 0.023401, 0.000000, 0.000000, -0.015667, -0.025353, 0.020503, 0.023307, -0.024055, 0.012910, -0.033461, -0.026453, 0.022270, 0.009504, 0.015886, -0.004177, -0.018765, -0.006066, 0.000000, 0.000000, 0.011285, 0.005159, 0.013723, -0.001235, 0.007526, 0.004359, 0.004640, -0.015858, 0.035300, -0.017026, -0.000615, 0.011778, 0.024837, -0.015253, 0.000000, 0.000000, -0.012617, 0.006023, 0.006386, -0.028769, 0.033450, 0.001232, 0.009384, 0.007539, -0.036954, -0.019141, -0.026625, 0.012418, 0.012858, -0.001473, 0.000000, 0.000000, -0.020720, 0.003656, 
-0.011459, -0.011751, -0.034175, -0.013289, -0.048916, 0.043546, -0.013333, 0.004696, 0.006544, -0.002946, 0.028511, 0.050191, 0.000000, 0.000000, -0.034174, 0.003570, -0.024708, 0.025257, -0.077585, 0.070281, -0.031918, -0.009754, 0.004890, -0.027532, 0.062339, -0.024280, 0.002837, 0.023689, 0.000000, 0.000000, 0.042319, -0.019789, 0.048243, 0.011686, 0.028963, -0.020309, 0.052774, -0.057737, 0.002952, 0.046417, -0.008873, 0.024590, 0.038562, -0.035859, 0.000000, 0.000000, -0.052323, 0.029990, 0.054977, -0.015267, 0.032384, -0.003380, -0.021386, -0.010577, 0.005998, -0.000807, 0.004746, -0.002763, -0.004170, -0.002492, 0.000000, 0.000000, -0.019622, 0.002322, 0.000548, -0.001611, -0.038509, -0.011628, 0.020046, 0.047939, 0.012079, 0.008822, -0.006754, -0.020349, 0.002830, 0.023298, 0.000000, 0.000000, -0.029695, -0.008802, -0.043207, -0.021149, -0.005934, 0.035270, 0.046345, -0.024885, -0.004583, -0.028556, -0.003003, -0.002410, -0.028982, 0.018166, 0.000000, 0.000000, 0.025367, -0.006605, 0.046324, -0.005041, -0.068538, 0.036502, -0.015059, -0.027392, 0.012207, -0.001035, 0.033517, 0.017200, -0.030385, 0.044461, 0.000000, 0.000000, -0.029766, -0.048171, 0.038956, 0.044284, -0.045704, 0.024529, -0.063575, -0.050260, 0.042313, 0.018059, 0.030183, -0.007936, -0.035654, -0.011525, 0.000000, 0.000000, 0.021442, 0.009801, 0.026073, -0.002346, 0.014300, 0.008281, 0.008816, -0.030129, 0.067071, -0.032349, -0.001168, 0.022379, 0.047191, -0.028980, 0.000000, 0.000000, -0.023972, 0.011443, 0.012134, -0.054660, 0.063555, 0.002340, 0.017829, 0.014323, -0.070213, -0.036367, -0.050588, 0.023595, 0.024431, -0.002800, 0.000000, 0.000000, -0.039367, 0.006946, 
-0.016333, -0.011872, -0.032803, -0.011544, -0.027487, 0.024026, -0.002790, 0.010679, -0.002642, 0.004511, 0.026375, 0.037676, 0.000000, 0.000000, -0.033737, -0.001496, -0.032772, 0.026324, -0.068189, 0.063574, -0.016096, -0.008189, -0.004514, -0.021588, 0.046984, -0.017869, 0.000824, 0.028615, 0.000000, 0.000000, 0.036630, -0.012745, 0.046595, 0.009102, 0.031933, -0.012309, 0.048143, -0.051471, -0.001640, 0.035954, -0.012553, 0.028094, 0.038436, -0.031882, 0.000000, 0.000000, -0.055637, 0.030197, 0.057052, -0.014627, 0.030485, -0.006273, -0.024770, -0.009138, 0.004249, 0.003085, 0.002218, -0.000981, -0.009188, -0.000427, 0.000000, 0.000000, -0.013909, 0.000333, 0.003587, -0.002741, -0.030585, -0.007550, 0.022349, 0.036992, 0.009751, 0.010023, -0.010088, -0.012056, 0.001420, 0.016363, 0.000000, 0.000000, -0.029117, -0.006937, -0.040261, -0.019801, -0.006699, 0.037452, 0.040984, -0.022655, -0.006181, -0.020174, 0.000076, -0.006040, -0.031965, 0.014539, 0.000000, 0.000000, 0.020985, -0.007822, 0.038253, -0.004122, -0.067252, 0.038408, -0.015545, -0.020416, 0.010580, -0.002197, 0.030046, 0.016256, -0.027432, 0.038229, 0.000000, 0.000000, -0.029530, -0.045112, 0.037620, 0.039097, -0.046355, 0.024836, -0.062001, -0.042805, 0.038599, 0.016726, 0.028126, -0.008855, -0.037716, -0.006722, 0.000000, 0.000000, 0.025662, 0.004967, 0.029013, 0.000977, 0.015907, 0.008841, 0.012260, -0.029073, 0.058393, -0.029860, 0.003803, 0.017477, 0.050015, -0.030116, 0.000000, 0.000000, -0.021559, 0.006724, 0.011572, -0.051356, 0.058228, 0.006752, 0.014095, 0.015830, -0.061700, -0.032335, -0.052567, 0.029508, 0.014941, -0.004260, 0.000000, 0.000000, -0.036794, 0.004259, 
-0.024966, -0.005887, -0.043197, -0.007916, -0.013648, 0.014970, 0.008533, 0.008228, -0.014397, -0.002137, 0.013996, 0.037078, 0.000000, 0.000000, -0.024126, 0.002823, -0.015350, 0.016929, -0.051770, 0.051173, -0.024662, -0.009562, -0.006554, -0.021911, 0.049221, -0.010668, -0.007848, 0.040406, 0.000000, 0.000000, 0.036340, -0.019423, 0.046590, 0.007800, 0.034215, -0.011364, 0.048669, -0.044121, -0.005659, 0.033271, -0.015187, 0.030587, 0.035807, -0.031970, 0.000000, 0.000000, -0.055605, 0.027547, 0.050273, -0.011710, 0.024443, -0.004882, -0.021496, -0.012125, 0.003266, 0.008377, 0.001319, -0.001123, -0.012546, -0.004916, 0.000000, 0.000000, -0.009799, -0.001391, 0.015316, -0.008549, -0.033499, -0.001990, 0.020903, 0.030099, 0.016507, 0.008060, -0.013969, -0.002968, 0.001375, 0.017041, 0.000000, 0.000000, -0.032654, -0.000704, -0.035873, -0.019723, -0.009029, 0.039078, 0.031245, -0.024705, -0.000751, -0.018547, 0.002902, -0.002297, -0.034329, 0.014589, 0.000000, 0.000000, 0.012674, -0.010345, 0.038060, 0.007223, -0.067617, 0.032008, -0.024145, -0.024218, 0.021351, -0.003949, 0.027342, 0.010144, -0.025802, 0.034404, 0.000000, 0.000000, -0.028148, -0.042191, 0.039707, 0.029647, -0.039679, 0.021393, -0.055333, -0.035062, 0.029369, 0.019645, 0.018932, -0.002821, -0.040030, -0.006344, 0.000000, 0.000000, 0.032680, 0.005245, 0.026974, 0.003429, 0.016937, 0.008654, 0.024443, -0.025324, 0.054720, -0.027937, -0.000102, 0.017663, 0.042006, -0.028899, 0.000000, 0.000000, -0.021992, 0.009693, 0.010461, -0.047106, 0.047390, 0.014326, 0.009207, 0.015140, -0.050985, -0.033413, -0.048763, 0.020586, 0.013936, -0.008265, 0.000000, 0.000000, -0.031808, 0.005905, 
-0.026970, -0.009548, -0.043946, -0.003763, -0.016785, 0.009046, 0.027657, -0.003236, 0.016187, -0.020478, 0.009781, 0.033525, 0.000000, 0.000000, -0.024467, -0.008804, -0.011913, 0.020687, -0.055439, 0.050467, -0.032262, -0.007088, -0.000639, -0.020828, 0.049726, -0.012176, -0.021642, 0.047657, 0.000000, 0.000000, 0.047849, -0.014643, 0.045220, 0.006285, 0.025394, -0.009763, 0.037391, -0.040099, -0.005696, 0.032111, -0.020025, 0.029970, 0.029189, -0.030369, 0.000000, 0.000000, -0.059924, 0.028670, 0.043099, -0.011995, 0.018882, -0.000893, -0.019690, -0.016130, 0.010096, 0.001796, -0.000326, 0.000729, -0.017111, 0.002967, 0.000000, 0.000000, -0.012211, -0.001343, 0.022504, -0.000736, -0.025555, -0.002874, 0.027286, 0.012450, 0.022960, 0.002502, -0.009714, 0.001042, 0.005633, 0.018173, 0.000000, 0.000000, -0.035210, 0.002217, -0.034562, -0.009093, -0.011288, 0.044549, 0.024980, -0.028294, -0.008288, -0.004409, 0.003311, 0.006523, -0.043884, 0.018013, 0.000000, 0.000000, 0.010559, -0.007533, 0.031668, 0.013861, -0.075430, 0.031530, -0.033123, -0.012624, 0.013017, -0.005179, 0.028673, 0.009301, -0.022269, 0.033428, 0.000000, 0.000000, -0.031340, -0.038440, 0.027112, 0.028009, -0.042321, 0.028147, -0.053085, -0.028631, 0.032066, 0.008178, 0.022095, -0.007019, -0.038769, -0.015489, 0.000000, 0.000000, 0.030194, 0.004216, 0.032762, -0.003015, 0.004776, 0.012307, 0.027217, -0.025329, 0.059049, -0.022281, -0.000148, 0.022750, 0.043574, -0.036024, 0.000000, 0.000000, -0.024367, 0.006559, 0.008873, -0.045164, 0.037635, 0.013827, 0.012324, 0.013145, -0.048340, -0.017105, -0.046087, 0.018502, 0.004093, -0.003165, 0.000000, 0.000000, -0.026567, 0.004007, 
-0.021750, -0.017337, -0.037121, -0.009305, -0.011994, 0.002516, 0.025215, -0.009183, 0.018722, -0.026846, 0.000207, 0.035421, 0.000000, 0.000000, -0.009796, -0.006447, -0.013586, 0.027022, -0.058485, 0.050305, -0.029290, -0.017430, 0.010596, -0.024677, 0.055394, -0.004953, -0.032115, 0.049992, 0.000000, 0.000000, 0.049492, -0.018770, 0.048027, 0.002833, 0.019881, -0.002640, 0.026283, -0.045454, -0.006989, 0.024531, -0.016012, 0.032994, 0.023344, -0.021922, 0.000000, 0.000000, -0.059837, 0.027299, 0.030893, -0.002691, 0.023659, -0.005925, -0.016294, -0.016132, 0.003087, 0.010992, -0.006499, 0.007053, -0.022371, -0.000804, 0.000000, 0.000000, -0.006131, 0.005139, 0.021717, 0.005623, -0.040276, -0.001400, 0.026284, 0.019450, 0.025878, 0.003629, -0.026097, 0.015046, 0.005387, 0.012082, 0.000000, 0.000000, -0.045974, 0.001369, -0.015021, -0.009972, -0.021765, 0.039211, 0.002816, -0.024829, 0.001036, -0.002568, 0.014937, 0.001418, -0.045373, 0.011780, 0.000000, 0.000000, 0.014555, -0.010750, 0.041462, 0.022430, -0.064658, 0.032691, -0.044961, -0.025312, 0.000846, -0.010158, 0.036396, 0.011880, -0.013374, 0.030149, 0.000000, 0.000000, -0.032017, -0.042234, 0.019606, 0.028422, -0.042675, 0.026596, -0.045939, -0.031379, 0.026837, 0.006456, 0.021432, -0.001593, -0.040243, -0.008060, 0.000000, 0.000000, 0.021709, 0.007182, 0.039612, -0.005169, -0.000448, 0.014046, 0.033042, -0.007874, 0.064924, -0.025343, -0.010482, 0.014411, 0.037061, -0.031303, 0.000000, 0.000000, -0.021407, 0.011899, 0.009113, -0.051141, 0.036211, 0.012815, 0.003205, 0.030069, -0.038658, -0.023696, -0.042071, 0.016525, -0.004065, -0.003777, 0.000000, 0.000000, -0.016347, 0.002389, 
-0.031582, -0.024194, -0.029682, -0.007249, -0.005182, 0.012828, 0.017167, -0.012575, -0.003989, -0.029219, -0.003340, 0.034123, 0.000000, 0.000000, -0.002131, 0.002697, -0.012997, 0.019897, -0.058480, 0.048510, -0.044161, 0.002594, -0.000097, -0.024950, 0.051969, 0.005512, -0.033262, 0.049237, 0.000000, 0.000000, 0.044753, -0.025148, 0.053353, -0.002537, 0.018546, -0.008581, 0.023801, -0.050844, -0.001831, 0.024064, -0.010482, 0.031246, 0.010844, -0.015575, 0.000000, 0.000000, -0.055783, 0.021090, 0.030653, 0.001561, 0.023153, -0.010808, -0.022423, -0.016129, -0.002817, 0.014714, 0.006304, 0.006087, -0.021864, -0.009770, 0.000000, 0.000000, -0.007739, 0.002570, 0.026146, 0.000569, -0.035509, -0.001040, 0.009222, 0.022678, 0.028544, -0.001517, -0.022462, 0.012064, 0.007987, 0.014410, 0.000000, 0.000000, -0.044822, 0.000546, -0.015612, -0.007571, -0.021699, 0.033598, -0.006539, -0.015740, -0.005907, 0.007276, 0.010899, -0.000467, -0.045300, 0.011747, 0.000000, 0.000000, 0.006470, -0.003747, 0.038969, 0.024554, -0.067079, 0.031916, -0.047502, -0.020304, 0.000021, -0.012076, 0.032691, 0.013226, -0.014921, 0.024536, 0.000000, 0.000000, -0.044348, -0.034913, 0.010859, 0.016778, -0.048176, 0.027872, -0.034935, -0.019989, 0.017728, 0.013886, 0.015810, -0.004737, -0.036654, -0.012757, 0.000000, 0.000000, 0.022937, 0.005862, 0.047025, -0.003888, -0.010416, 0.013088, 0.040307, 0.000518, 0.068986, -0.024674, -0.011345, -0.001308, 0.032335, -0.027339, 0.000000, 0.000000, -0.017551, 0.005678, 0.009279, -0.038936, 0.033723, 0.016344, -0.003052, 0.018722, -0.039821, -0.020768, -0.031333, 0.014189, 0.003770, -0.007272, 0.000000, 0.000000, -0.014392, 0.000067, 
-0.041994, -0.014401, -0.027246, -0.008878, 0.000806, 0.013198, 0.031657, -0.022982, -0.023762, -0.036490, -0.017168, 0.049361, 0.000000, 0.000000, 0.005135, 0.021700, -0.011441, 0.015132, -0.058933, 0.036624, -0.029145, -0.008552, 0.012375, -0.035494, 0.033399, 0.026289, -0.053241, 0.061245, 0.000000, 0.000000, 0.045535, -0.022046, 0.051738, -0.003158, 0.016481, -0.008425, 0.024249, -0.051300, 0.012379, 0.020462, -0.016779, 0.040999, 0.005417, -0.013239, 0.000000, 0.000000, -0.060362, 0.019524, 0.028120, 0.007526, 0.025510, -0.015935, -0.023663, -0.015910, -0.007929, 0.019532, -0.001180, 0.003728, -0.022489, -0.010999, 0.000000, 0.000000, -0.010855, 0.004546, 0.028660, 0.008441, -0.031963, 0.012080, 0.019610, 0.018972, 0.015852, -0.005209, -0.011191, 0.002783, 0.020193, 0.011067, 0.000000, 0.000000, -0.050800, -0.000598, -0.026449, -0.001326, -0.014147, 0.035889, -0.007537, -0.015106, -0.024335, 0.017535, 0.013605, 0.002076, -0.036047, 0.002311, 0.000000, 0.000000, 0.014405, -0.009240, 0.030298, 0.011076, -0.047952, 0.023298, -0.044997, -0.007236, 0.004199, -0.011634, 0.018387, 0.009912, -0.028924, 0.020206, 0.000000, 0.000000, -0.041220, -0.036058, 0.007740, 0.008588, -0.055302, 0.030132, -0.030238, -0.020021, 0.030887, 0.005058, 0.020143, -0.007569, -0.052317, -0.009008, 0.000000, 0.000000, 0.023863, 0.000205, 0.049889, 0.005336, -0.014599, 0.012607, 0.025756, 0.002112, 0.064754, -0.023908, -0.000314, -0.002059, 0.026218, -0.017854, 0.000000, 0.000000, -0.010008, 0.010054, 0.026359, -0.043260, 0.028597, 0.019238, -0.010281, 0.018346, -0.048851, -0.012650, -0.027857, 0.015290, 0.009784, -0.002371, 0.000000, 0.000000, -0.011657, -0.002256, 
-0.039659, -0.025469, -0.024380, -0.009362, -0.006932, 0.030646, 0.022818, -0.022642, -0.035146, -0.034837, 0.002403, 0.042760, 0.000000, 0.000000, -0.012011, 0.034502, -0.007065, -0.012074, -0.040030, 0.030082, -0.034107, 0.020077, 0.014147, -0.032799, 0.034483, 0.006702, -0.060093, 0.064492, 0.000000, 0.000000, 0.048677, -0.011881, 0.051476, -0.006960, 0.025612, -0.007961, 0.027298, -0.035961, -0.003805, 0.026855, -0.020378, 0.040510, -0.002451, -0.012713, 0.000000, 0.000000, -0.050739, 0.008871, 0.034470, 0.005537, 0.025306, -0.022495, -0.030855, -0.020536, -0.006265, 0.020851, -0.003591, 0.009983, -0.020933, -0.013752, 0.000000, 0.000000, -0.011118, 0.001182, 0.027710, 0.010871, -0.037609, 0.016315, 0.015987, 0.011201, 0.025874, -0.012184, -0.013233, 0.000915, 0.021423, 0.012724, 0.000000, 0.000000, -0.060232, 0.004393, -0.040058, 0.001685, -0.013448, 0.042283, 0.000907, -0.016300, -0.036329, 0.030715, 0.012320, 0.008328, -0.034357, -0.008786, 0.000000, 0.000000, 0.013130, -0.004052, 0.031053, 0.011019, -0.052420, 0.016521, -0.036883, -0.002374, -0.002464, 0.001704, 0.016588, 0.014966, -0.033996, 0.010825, 0.000000, 0.000000, -0.032837, -0.034355, 0.014422, 0.013605, -0.050696, 0.031025, -0.042073, -0.017769, 0.037958, -0.000528, 0.026004, -0.015076, -0.054013, -0.002382, 0.000000, 0.000000, 0.027244, -0.001532, 0.053053, 0.020678, -0.019897, 0.000653, 0.019680, 0.008295, 0.051128, -0.015188, -0.003607, -0.006164, 0.036147, -0.026792, 0.000000, 0.000000, -0.020939, 0.002843, 0.018766, -0.033646, 0.005981, 0.026279, -0.000525, 0.011464, -0.038177, -0.016818, -0.029152, 0.013381, 0.006202, -0.000577, 0.000000, 0.000000, -0.016064, 0.006358, 
-0.049774, -0.023754, -0.007550, -0.009709, -0.004431, 0.048937, 0.014781, -0.024583, -0.037004, -0.039821, 0.005501, 0.038694, 0.000000, 0.000000, -0.007169, 0.031811, 0.000903, -0.008314, -0.026566, 0.033016, -0.048316, 0.020407, 0.002618, -0.021337, 0.048056, 0.013997, -0.058357, 0.052586, 0.000000, 0.000000, 0.046395, -0.017360, 0.048424, -0.005169, 0.003585, -0.004624, 0.025967, -0.029932, -0.007611, 0.026106, -0.028731, 0.047367, -0.001622, -0.002353, 0.000000, 0.000000, -0.061881, 0.022637, 0.029097, 0.008836, 0.028022, -0.011102, -0.023367, -0.026726, -0.013546, 0.009689, -0.014113, 0.025659, -0.020190, 0.001776, 0.000000, 0.000000, -0.011181, -0.004229, 0.039590, 0.012262, -0.025109, 0.011297, 0.015221, -0.007898, 0.031259, -0.027440, -0.007375, 0.000785, 0.024951, 0.014800, 0.000000, 0.000000, -0.058783, -0.012932, -0.051528, 0.003776, -0.010019, 0.048473, 0.012566, -0.019056, -0.034293, 0.036920, 0.006687, 0.009021, -0.026659, -0.015369, 0.000000, 0.000000, 0.019881, -0.000737, 0.025110, 0.012822, -0.054589, 0.030463, -0.020020, 0.007018, 0.005118, -0.003305, 0.008488, 0.004476, -0.033100, 0.012620, 0.000000, 0.000000, -0.037938, -0.028709, 0.019702, 0.003147, -0.051270, 0.030945, -0.037438, -0.017691, 0.045382, -0.011143, 0.020882, -0.017391, -0.053778, 0.004430, 0.000000, 0.000000, 0.019063, -0.000285, 0.053013, 0.023537, -0.011596, -0.004808, 0.009583, -0.002025, 0.053580, -0.006746, 0.003654, -0.011219, 0.033092, -0.026060, 0.000000, 0.000000, -0.009298, 0.001698, 0.018915, -0.033958, -0.002114, 0.033165, -0.009841, 0.007323, -0.033060, -0.013615, -0.021042, 0.019272, -0.000058, 0.006104, 0.000000, 0.000000, -0.020365, 0.006656, 
-0.064722, -0.023050, -0.017667, 0.017334, 0.019181, 0.019565, 0.055300, -0.062142, -0.064833, -0.041057, -0.016849, 0.050195, 0.000000, 0.000000, 0.004010, 0.050728, 0.011004, -0.019795, -0.017317, 0.018059, -0.055767, 0.018956, 0.000555, -0.013718, 0.049037, 0.007531, -0.049323, 0.056579, 0.000000, 0.000000, 0.040731, -0.017611, 0.041309, -0.009265, 0.004010, -0.000651, 0.019441, -0.031665, -0.000350, 0.010338, -0.017995, 0.035776, -0.010230, 0.009661, 0.000000, 0.000000, -0.057412, 0.024413, 0.015550, 0.018345, 0.025038, -0.007600, -0.009239, -0.023139, -0.018630, 0.003359, -0.023604, 0.031173, -0.020066, 0.015592, 0.000000, 0.000000, -0.008528, -0.005250, 0.045703, 0.017734, -0.025643, 0.013514, 0.025233, -0.002224, 0.025825, -0.022679, -0.022404, -0.009497, 0.014086, 0.006239, 0.000000, 0.000000, -0.058286, 0.004765, -0.044434, -0.002327, -0.009431, 0.056848, -0.011371, -0.010843, -0.054714, 0.050857, 0.010069, -0.018091, -0.005071, -0.030542, 0.000000, 0.000000, 0.017571, 0.003821, 0.021130, 0.004641, -0.040664, 0.033407, -0.031192, 0.007144, 0.003847, -0.009564, 0.019874, 0.000500, -0.017464, 0.004747, 0.000000, 0.000000, -0.041008, -0.031485, 0.034233, 0.001225, -0.051633, 0.034742, -0.030330, -0.010858, 0.048105, -0.011228, 0.024960, -0.009920, -0.057394, 0.009205, 0.000000, 0.000000, 0.020707, 0.002345, 0.056289, 0.044021, -0.011548, -0.003539, 0.005463, 0.002680, 0.048439, -0.011060, -0.009992, -0.010121, 0.021966, -0.033846, 0.000000, 0.000000, 0.000403, 0.004590, 0.018696, -0.045930, 0.006401, 0.029110, -0.013018, 0.000989, -0.029579, -0.025322, -0.030962, 0.014202, 0.012544, 0.003036, 0.000000, 0.000000, -0.022595, 0.003243, 
-0.060944, -0.024087, -0.021396, 0.007602, 0.005194, 0.017029, 0.067761, -0.072320, -0.056887, -0.057300, -0.024341, 0.059578, 0.000000, 0.000000, 0.016485, 0.046607, 0.024032, -0.017662, -0.012994, 0.040030, -0.068452, 0.026515, -0.008369, -0.040518, 0.041346, 0.008293, -0.045723, 0.073321, 0.000000, 0.000000, 0.028548, -0.016017, 0.044833, -0.004139, -0.031742, 0.007528, 0.026855, -0.023593, 0.008626, 0.011551, -0.007623, 0.023823, -0.012913, 0.003694, 0.000000, 0.000000, -0.061385, 0.024882, 0.014884, 0.021631, 0.020692, -0.004622, -0.000555, -0.033745, -0.020944, 0.009386, -0.015737, 0.038993, -0.023210, 0.002335, 0.000000, 0.000000, -0.009357, -0.001819, 0.048490, 0.017731, -0.024029, 0.010687, 0.004013, 0.007768, 0.029712, -0.001587, -0.005020, -0.006537, 0.001557, -0.003215, 0.000000, 0.000000, -0.055483, 0.000051, -0.047780, -0.001089, -0.015683, 0.063851, -0.010861, -0.009234, -0.060007, 0.043551, 0.008057, -0.019480, -0.007110, -0.018827, 0.000000, 0.000000, 0.023866, -0.006343, 0.007134, -0.003777, -0.044371, 0.032760, -0.016641, 0.008348, 0.000484, -0.009515, 0.016758, 0.000362, -0.021863, 0.002744, 0.000000, 0.000000, -0.030323, -0.032045, 0.036654, -0.005817, -0.044063, 0.020406, -0.022515, -0.005920, 0.044069, -0.016758, 0.020689, -0.016314, -0.059422, 0.007733, 0.000000, 0.000000, 0.010734, 0.008053, 0.057214, 0.048686, -0.023622, 0.000893, 0.007246, 0.001080, 0.049286, -0.015926, -0.013620, -0.003086, 0.033234, -0.034237, 0.000000, 0.000000, -0.009596, 0.019160, 0.006758, -0.032407, -0.004416, 0.031664, -0.016076, -0.000406, -0.027684, -0.022735, -0.027219, 0.005348, 0.008860, 0.008653, 0.000000, 0.000000, -0.007997, 0.000507, 
-0.062846, -0.001662, -0.028412, 0.006648, 0.025610, -0.018520, 0.050881, -0.054724, -0.044108, -0.064297, -0.002241, 0.030671, 0.000000, 0.000000, 0.005661, 0.045674, 0.001830, -0.025075, -0.010307, 0.038782, -0.019451, 0.021104, -0.013677, -0.042216, 0.025373, 0.016045, -0.058898, 0.080747, 0.000000, 0.000000, 0.036376, -0.022146, 0.048946, -0.006369, -0.029979, 0.009759, 0.037023, -0.023112, 0.009495, 0.006792, -0.004110, 0.016733, 0.004059, 0.004439, 0.000000, 0.000000, -0.066932, 0.027215, 0.025478, 0.010742, 0.012807, 0.007160, -0.009479, -0.030451, -0.013124, -0.009122, -0.007854, 0.049094, -0.045940, 0.004994, 0.000000, 0.000000, -0.013132, -0.001621, 0.046961, 0.031989, -0.040983, 0.016445, 0.005092, -0.003792, 0.032329, 0.003766, -0.014300, -0.014407, -0.002385, 0.001251, 0.000000, 0.000000, -0.049791, 0.005757, -0.041961, -0.003602, -0.016629, 0.052051, -0.028155, -0.006407, -0.058006, 0.048376, 0.009941, -0.018579, -0.008377, -0.021510, 0.000000, 0.000000, 0.027884, -0.019932, 0.006933, -0.008618, -0.027644, 0.030048, -0.019911, 0.016237, -0.015113, -0.023500, 0.016944, 0.005906, -0.006677, 0.001724, 0.000000, 0.000000, -0.023784, -0.035986, 0.021166, 0.005805, -0.063306, 0.020897, -0.011636, 0.001833, 0.049494, -0.005166, 0.019146, -0.009170, -0.065848, -0.005458, 0.000000, 0.000000, 0.014939, 0.014295, 0.061982, 0.047945, -0.024872, -0.001202, 0.003605, -0.002839, 0.050445, -0.008385, -0.014017, -0.007032, 0.033389, -0.030084, 0.000000, 0.000000, -0.015185, 0.018670, 0.012288, -0.033179, 0.008246, 0.030094, -0.003061, -0.000823, -0.044909, -0.015260, -0.019740, -0.004566, 0.007424, 0.031161, 0.000000, 0.000000, -0.007147, -0.013495, 
-0.048623, -0.010376, -0.028160, -0.005829, 0.026588, -0.040731, 0.071296, -0.036142, -0.044804, -0.057893, -0.026853, 0.031282, 0.000000, 0.000000, -0.001198, 0.050552, -0.012271, -0.020259, -0.011821, 0.038970, 0.025049, -0.010867, 0.007254, -0.048714, 0.003475, 0.044608, -0.076484, 0.088979, 0.000000, 0.000000, 0.037457, -0.018888, 0.046014, -0.001246, -0.017450, -0.011368, 0.033382, -0.017103, 0.005844, 0.028510, -0.005536, 0.013329, 0.003338, -0.011582, 0.000000, 0.000000, -0.061925, 0.025564, 0.028525, -0.000341, 0.020279, -0.000069, 0.003033, -0.032289, -0.011699, -0.002324, -0.017167, 0.050776, -0.046192, 0.001200, 0.000000, 0.000000, -0.014309, 0.000504, 0.037843, 0.028140, -0.028756, 0.020439, 0.019671, 0.002266, 0.039082, -0.003904, -0.022025, -0.017186, -0.009121, -0.002182, 0.000000, 0.000000, -0.050366, 0.005459, -0.041246, -0.005669, -0.021491, 0.034441, -0.017915, -0.021893, -0.047727, 0.053970, 0.017079, -0.018000, -0.002964, -0.030937, 0.000000, 0.000000, 0.026192, -0.022131, 0.011354, -0.007313, -0.038352, 0.036349, -0.031347, 0.007039, -0.021146, -0.018313, 0.021263, 0.016878, 0.004619, -0.003171, 0.000000, 0.000000, -0.036796, -0.037283, -0.002578, 0.015673, -0.066728, 0.030252, -0.000230, 0.008466, 0.038723, -0.001944, 0.021358, -0.007762, -0.069635, 0.000986, 0.000000, 0.000000, 0.021023, 0.018223, 0.074218, 0.036005, -0.036506, 0.007124, 0.006361, -0.014561, 0.064449, -0.010845, -0.007192, -0.012679, 0.019183, -0.033977, 0.000000, 0.000000, -0.021536, 0.016797, 0.016828, -0.041932, 0.011099, 0.023888, -0.016095, 0.009417, -0.032328, -0.009072, -0.009440, -0.009168, -0.000426, 0.018367, 0.000000, 0.000000, 0.006711, -0.020398, 
-0.043110, 0.006319, -0.038663, -0.000253, 0.007623, -0.043239, 0.057409, -0.036945, -0.024075, -0.059904, -0.012668, 0.027887, 0.000000, 0.000000, -0.008621, 0.047096, 0.016486, -0.041849, 0.012416, 0.030559, -0.004436, 0.007137, 0.003324, -0.049694, 0.021203, 0.017328, -0.069393, 0.088022, 0.000000, 0.000000, 0.038057, -0.028972, 0.047765, -0.013075, -0.028585, -0.003624, 0.048257, -0.013127, 0.022986, 0.019997, -0.017210, 0.014800, -0.010611, -0.001727, 0.000000, 0.000000, -0.057378, 0.031448, 0.037152, 0.004329, 0.018688, 0.003233, 0.000825, -0.040151, -0.011940, -0.012125, -0.002989, 0.039744, -0.035170, -0.013764, 0.000000, 0.000000, -0.011771, -0.008067, 0.032747, 0.028366, -0.035525, 0.021995, -0.002846, 0.019732, 0.031615, -0.008416, -0.010313, -0.041728, -0.001964, 0.003113, 0.000000, 0.000000, -0.061112, 0.013393, -0.063750, 0.015715, -0.028310, 0.035151, 0.009305, -0.039683, -0.040309, 0.038451, -0.004322, -0.009674, -0.013286, -0.025090, 0.000000, 0.000000, 0.021638, -0.013874, 0.004830, -0.005749, -0.034100, 0.028087, -0.032455, -0.000582, -0.028666, -0.015629, 0.027871, 0.024839, -0.008277, 0.003634, 0.000000, 0.000000, -0.026115, -0.037673, 0.001515, -0.000595, -0.057654, 0.027893, -0.024151, 0.021612, 0.043961, 0.005707, 0.041172, -0.026631, -0.060682, 0.000045, 0.000000, 0.000000, 0.009974, 0.017701, 0.073163, 0.046256, -0.047759, 0.010171, 0.014917, 0.008166, 0.055968, -0.012456, -0.002100, -0.019548, 0.006386, -0.020195, 0.000000, 0.000000, -0.023551, 0.028206, 0.015766, -0.033814, 0.006042, 0.036321, -0.016948, 0.003153, -0.036404, -0.013444, -0.011777, 0.001505, -0.017005, 0.016299, 0.000000, 0.000000, 0.019285, -0.017755, 
-0.062483, 0.012522, -0.057161, 0.009317, 0.016365, -0.019879, 0.066084, -0.034895, -0.030491, -0.076366, -0.010884, 0.011665, 0.000000, 0.000000, -0.004957, 0.055850, 0.018169, -0.037620, 0.016566, 0.020612, 0.026294, 0.001921, -0.007958, -0.022769, -0.005847, 0.027780, -0.063319, 0.072067, 0.000000, 0.000000, 0.030417, -0.025339, 0.045979, -0.009103, -0.029338, 0.007917, 0.043375, -0.011697, 0.018243, 0.015181, -0.009448, 0.013315, -0.006403, -0.007575, 0.000000, 0.000000, -0.052853, 0.025100, 0.037133, 0.012387, 0.019951, 0.005759, -0.011800, -0.031882, -0.015236, -0.012904, -0.003263, 0.034508, -0.033520, -0.006138, 0.000000, 0.000000, -0.011985, -0.006384, 0.036740, 0.015620, -0.032523, 0.022326, 0.016253, 0.017000, 0.045887, -0.013505, -0.030439, -0.025175, -0.005924, -0.004132, 0.000000, 0.000000, -0.069554, 0.021140, -0.069844, 0.021348, -0.031020, 0.044306, 0.004518, -0.029266, -0.050565, 0.040236, -0.009920, -0.001028, -0.009696, -0.024258, 0.000000, 0.000000, 0.023509, -0.017209, 0.013133, -0.002883, -0.045565, 0.025196, -0.032123, -0.009463, -0.013946, -0.022101, 0.031240, 0.024660, -0.013925, 0.014470, 0.000000, 0.000000, -0.015420, -0.038473, 0.006064, -0.000702, -0.062622, 0.039089, 0.001961, 0.010122, 0.041538, 0.010206, 0.032806, -0.022393, -0.058623, 0.002046, 0.000000, 0.000000, 0.010074, 0.021017, 0.075840, 0.061560, -0.039297, 0.014494, 0.012640, 0.004064, 0.045094, -0.009227, -0.010410, -0.021496, 0.015756, -0.022976, 0.000000, 0.000000, -0.035605, 0.033101, 0.019363, -0.020752, 0.011802, 0.020261, -0.051788, -0.001186, -0.041282, -0.015154, -0.012852, 0.010525, -0.018410, 0.011301, 0.000000, 0.000000, 0.028574, -0.014697, 
-0.069760, 0.020760, -0.053918, 0.011515, 0.012011, -0.025176, 0.068840, -0.040730, -0.061486, -0.045748, -0.032351, 0.029349, 0.000000, 0.000000, 0.008416, 0.063745, 0.004568, -0.051695, 0.014700, 0.033266, 0.036691, 0.028921, 0.002211, -0.037444, -0.004635, 0.014197, -0.071850, 0.079678, 0.000000, 0.000000, 0.034142, -0.037587, 0.042396, -0.011191, -0.037617, 0.019998, 0.031168, -0.003957, 0.015201, 0.007213, -0.006821, 0.011433, 0.005988, -0.020276, 0.000000, 0.000000, -0.065995, 0.021760, 0.042137, 0.011541, 0.008415, 0.024229, -0.027815, -0.029850, -0.010309, -0.020853, 0.007514, 0.027411, -0.035711, -0.000943, 0.000000, 0.000000, -0.011442, -0.010959, 0.040231, 0.014643, -0.048152, 0.023264, 0.015948, 0.019068, 0.049838, -0.024064, -0.022322, -0.027271, -0.012126, 0.011730, 0.000000, 0.000000, -0.080159, 0.020958, -0.063110, 0.012014, -0.024252, 0.034253, -0.002557, -0.018526, -0.039201, 0.033425, -0.004639, -0.007826, -0.020513, -0.006975, 0.000000, 0.000000, 0.040485, -0.011373, 0.012053, -0.018004, -0.022817, 0.023433, -0.014705, -0.005937, 0.001246, -0.022035, 0.017324, 0.024751, -0.015936, 0.005468, 0.000000, 0.000000, 0.000531, -0.032993, 0.008698, 0.008469, -0.073418, 0.046279, -0.009150, 0.002912, 0.016115, 0.020380, 0.031834, -0.012089, -0.049942, -0.007509, 0.000000, 0.000000, 0.002715, 0.017052, 0.076184, 0.068713, -0.061558, 0.027490, 0.001708, -0.009198, 0.054468, -0.008803, 0.000097, -0.003740, 0.010993, -0.024564, 0.000000, 0.000000, -0.053244, 0.020342, 0.011851, -0.024089, 0.027935, 0.009289, -0.050318, 0.012374, -0.039796, -0.019359, -0.005398, 0.009014, -0.022762, 0.000357, 0.000000, 0.000000, 0.037807, -0.016212, 
-0.049134, -0.010376, -0.039478, 0.007915, 0.020141, -0.005840, 0.059908, -0.033953, -0.061010, -0.075131, -0.020127, 0.017486, 0.000000, 0.000000, 0.023472, 0.060095, 0.032001, -0.053406, 0.028092, 0.019990, 0.018097, 0.027231, 0.016435, -0.046731, -0.007176, 0.011023, -0.077510, 0.092089, 0.000000, 0.000000, 0.039040, -0.035730, 0.043032, -0.012505, -0.033418, 0.016929, 0.031445, -0.001581, 0.015779, 0.002742, -0.003358, 0.006594, 0.009167, -0.017064, 0.000000, 0.000000, -0.069927, 0.010163, 0.022393, 0.017012, 0.001431, 0.019612, -0.013273, -0.038718, 0.006089, -0.022689, 0.008082, 0.027675, -0.036290, -0.004346, 0.000000, 0.000000, -0.009497, -0.013524, 0.043852, 0.011255, -0.047523, 0.022454, 0.008299, 0.013359, 0.049122, -0.023179, -0.012678, -0.017580, -0.020631, 0.014232, 0.000000, 0.000000, -0.079718, 0.022324, -0.037842, 0.005826, -0.023451, 0.039743, -0.023858, -0.012914, -0.036404, 0.015566, 0.009348, 0.000296, -0.033509, 0.012860, 0.000000, 0.000000, 0.039561, -0.008337, -0.000796, -0.014212, -0.018247, 0.011425, -0.010907, 0.000087, -0.002731, -0.018284, 0.019337, 0.012748, -0.010939, 0.006822, 0.000000, 0.000000, -0.016520, -0.034538, -0.008185, 0.013250, -0.073877, 0.042868, 0.010271, 0.016981, -0.000230, 0.019270, 0.009560, -0.032552, -0.037367, -0.017178, 0.000000, 0.000000, 0.000253, 0.030281, 0.082775, 0.060740, -0.062099, 0.030602, 0.011647, -0.012954, 0.053527, -0.015794, -0.000367, 0.001575, 0.012927, -0.024478, 0.000000, 0.000000, -0.043152, 0.020951, -0.002003, -0.029229, 0.018972, 0.006194, -0.042676, 0.018827, -0.025977, 0.010423, 0.009306, 0.001138, -0.033754, -0.004407, 0.000000, 0.000000, 0.030076, -0.013234, 
-0.050043, 0.004437, -0.037341, 0.004363, 0.018985, -0.002856, 0.027001, -0.023190, -0.071505, -0.065513, -0.003882, 0.002093, 0.000000, 0.000000, 0.021462, 0.060655, 0.001963, -0.026686, 0.019480, 0.023202, 0.039256, 0.020267, 0.029747, -0.049373, 0.001645, -0.004007, -0.082100, 0.086523, 0.000000, 0.000000, 0.039575, -0.034671, 0.050510, -0.018554, -0.023977, 0.002731, 0.039781, -0.015721, 0.015224, 0.016236, -0.020843, 0.008218, 0.019532, -0.027716, 0.000000, 0.000000, -0.068926, 0.019377, 0.008525, 0.014485, 0.011674, 0.016950, -0.001598, -0.033865, 0.010026, -0.019333, 0.009480, 0.026986, -0.038393, -0.009634, 0.000000, 0.000000, -0.006690, -0.016287, 0.029379, 0.015215, -0.046776, 0.019359, 0.002397, 0.017792, 0.045350, -0.019030, 0.000095, -0.019407, -0.024242, 0.018780, 0.000000, 0.000000, -0.075584, 0.015542, -0.029917, -0.010299, -0.025667, 0.035861, -0.033745, 0.004348, -0.016182, 0.000347, 0.009310, -0.002665, -0.053850, 0.033673, 0.000000, 0.000000, 0.047398, -0.007794, 0.000802, -0.019664, -0.033282, 0.009289, -0.012156, 0.000658, 0.006147, -0.021972, 0.018169, 0.020486, -0.021828, 0.014885, 0.000000, 0.000000, -0.012230, -0.040880, -0.025354, 0.001055, -0.090577, 0.052246, 0.011037, 0.018884, 0.015349, 0.025777, 0.025013, -0.031287, -0.035914, -0.022483, 0.000000, 0.000000, -0.000166, 0.029123, 0.084340, 0.066221, -0.053914, 0.030427, 0.017240, -0.019247, 0.050166, -0.011027, -0.009970, -0.002024, 0.014017, -0.023717, 0.000000, 0.000000, -0.043640, 0.022726, -0.001944, -0.010021, 0.021958, 0.002248, -0.037878, 0.013636, -0.036414, 0.011836, -0.002719, 0.011089, -0.043114, -0.021951, 0.000000, 0.000000, 0.025242, -0.005327, 
-0.060485, -0.001262, -0.047781, 0.011961, 0.027907, 0.016871, 0.029431, -0.041899, -0.057277, -0.087811, -0.001210, 0.007560, 0.000000, 0.000000, 0.024135, 0.053789, 0.014382, -0.027538, 0.025615, 0.012310, 0.055138, 0.010848, 0.036034, -0.043497, -0.022973, 0.014627, -0.085348, 0.080069, 0.000000, 0.000000, 0.029738, -0.027090, 0.045756, -0.020378, -0.026558, 0.001874, 0.028102, -0.025090, 0.028572, 0.013882, -0.016369, 0.015282, 0.008434, -0.023945, 0.000000, 0.000000, -0.065037, 0.018568, 0.024945, 0.001715, 0.020275, 0.020746, -0.017790, -0.029065, 0.004494, -0.016802, 0.018773, 0.018576, -0.029676, -0.005800, 0.000000, 0.000000, -0.015200, -0.014201, 0.032640, 0.012101, -0.044159, 0.009100, 0.020225, 0.012058, 0.044712, -0.019915, -0.002679, -0.031953, -0.028083, 0.026122, 0.000000, 0.000000, -0.074004, 0.012819, -0.025890, -0.003756, -0.054404, 0.050209, -0.042382, 0.024197, -0.004608, -0.001992, 0.018015, -0.008851, -0.058334, 0.036219, 0.000000, 0.000000, 0.042088, -0.020186, 0.010962, -0.002611, -0.063637, 0.015123, -0.023229, -0.005188, 0.016143, -0.019977, 0.018785, 0.026997, -0.022599, 0.002245, 0.000000, 0.000000, -0.011307, -0.042972, -0.027201, -0.007111, -0.077628, 0.041141, 0.016302, 0.020008, 0.003179, 0.027713, 0.018803, -0.024782, -0.024106, -0.028784, 0.000000, 0.000000, -0.010567, 0.018889, 0.080211, 0.062643, -0.021007, 0.004617, 0.010770, -0.020169, 0.044815, 0.009671, 0.004483, -0.028469, 0.008344, -0.029024, 0.000000, 0.000000, -0.044303, 0.023464, 0.009004, -0.017721, 0.040869, -0.005863, -0.042860, 0.009303, -0.029171, 0.015189, 0.009992, -0.000347, -0.061184, -0.014789, 0.000000, 0.000000, 0.037666, -0.008493, 
-0.062232, 0.000345, -0.043421, 0.004373, 0.036429, 0.007387, 0.038381, -0.040307, -0.079197, -0.063401, -0.011265, 0.011361, 0.000000, 0.000000, 0.021236, 0.055334, 0.033062, -0.031482, 0.045855, 0.009986, 0.030311, 0.024898, 0.008746, -0.031706, -0.025225, 0.022677, -0.066824, 0.072395, 0.000000, 0.000000, 0.016918, -0.030797, 0.048408, -0.018836, -0.040495, 0.004317, 0.019904, -0.028302, 0.033798, 0.003849, 0.008393, 0.011723, 0.009560, -0.015339, 0.000000, 0.000000, -0.073723, -0.000446, 0.022133, -0.001885, 0.019065, 0.016584, -0.017221, -0.012059, -0.007088, -0.011332, 0.018774, -0.008455, -0.008232, -0.007933, 0.000000, 0.000000, -0.015891, -0.011371, 0.015683, 0.004018, -0.033426, 0.014883, 0.034922, 0.017970, 0.037876, -0.023922, -0.008506, -0.033646, -0.031231, 0.032774, 0.000000, 0.000000, -0.065540, 0.012269, -0.037705, 0.003026, -0.058107, 0.053258, -0.034381, 0.015281, 0.009251, -0.006197, 0.011139, -0.014515, -0.058219, 0.031712, 0.000000, 0.000000, 0.044168, -0.010950, 0.009669, 0.013572, -0.070383, 0.025975, -0.013615, -0.007371, 0.009877, -0.014691, 0.013098, 0.027327, -0.014422, -0.011760, 0.000000, 0.000000, -0.025492, -0.044736, -0.017186, -0.001854, -0.072258, 0.029629, 0.018758, 0.023493, -0.012060, 0.028524, 0.007277, -0.014935, -0.024328, -0.029464, 0.000000, 0.000000, -0.018222, 0.023442, 0.078609, 0.047228, -0.016641, 0.001738, -0.004755, -0.013171, 0.039967, 0.006752, 0.001983, -0.030339, 0.026035, -0.029842, 0.000000, 0.000000, -0.040525, 0.027610, 0.000311, -0.020811, 0.038594, 0.001013, -0.040750, 0.003386, -0.012883, 0.021666, 0.013812, -0.021058, -0.060478, -0.002379, 0.000000, 0.000000, 0.030205, -0.001210, 
-0.046975, 0.001612, -0.042865, 0.012483, 0.002307, 0.021531, 0.006161, -0.029491, -0.024839, -0.082637, 0.016212, -0.013348, 0.000000, 0.000000, 0.013638, 0.028796, 0.034773, -0.048161, 0.046887, 0.014731, 0.037252, 0.017857, 0.026146, -0.058072, -0.027249, 0.043837, -0.087658, 0.095621, 0.000000, 0.000000, 0.013248, -0.038240, 0.046720, -0.004739, -0.056738, 0.002148, 0.029498, -0.037247, 0.040981, 0.012119, -0.012900, 0.016263, 0.006363, -0.017311, 0.000000, 0.000000, -0.068414, 0.004753, 0.011302, 0.002413, 0.022829, 0.008801, -0.014046, -0.012499, -0.015890, 0.001797, 0.019124, -0.020393, -0.000796, -0.020156, 0.000000, 0.000000, -0.017246, -0.005530, 0.017935, 0.000598, -0.011462, 0.017203, 0.031273, 0.003646, 0.025810, -0.035962, -0.010511, -0.009316, -0.002794, 0.034696, 0.000000, 0.000000, -0.070871, 0.016809, -0.025781, 0.007535, -0.045210, 0.058525, -0.042695, 0.008925, 0.010788, -0.016884, 0.014359, -0.007515, -0.063698, 0.041485, 0.000000, 0.000000, 0.041025, -0.013934, -0.002654, 0.012263, -0.078980, 0.010742, -0.006174, 0.000248, 0.021090, 0.003400, 0.016199, 0.015371, -0.016499, -0.014410, 0.000000, 0.000000, -0.020970, -0.049727, -0.019833, -0.009768, -0.072619, 0.041532, -0.007800, 0.042442, -0.011671, 0.021676, 0.021972, -0.031409, -0.024811, -0.032869, 0.000000, 0.000000, -0.019213, 0.021160, 0.076143, 0.038588, 0.002490, 0.005069, -0.010267, -0.013357, 0.036249, -0.004653, 0.004716, -0.018735, 0.016383, -0.023011, 0.000000, 0.000000, -0.047253, 0.025547, 0.007460, -0.027739, 0.040796, 0.004775, -0.043184, 0.007717, -0.016846, 0.010606, 0.010530, -0.006736, -0.060761, -0.000452, 0.000000, 0.000000, 0.026024, 0.007133, 
-0.053119, -0.000877, -0.037153, 0.005466, 0.024470, 0.012339, 0.015822, -0.004863, -0.065253, -0.073476, -0.012948, -0.019242, 0.000000, 0.000000, 0.043488, 0.034357, 0.031491, -0.046974, 0.047955, 0.007973, 0.036976, 0.017809, 0.020071, -0.052512, -0.017118, 0.044356, -0.080170, 0.093645, 0.000000, 0.000000, 0.023882, -0.047081, 0.063172, -0.003449, -0.054654, 0.006809, 0.027128, -0.045060, 0.034252, 0.003139, -0.001649, 0.010916, 0.009685, 0.000553, 0.000000, 0.000000, -0.084564, 0.008708, 0.010894, 0.002660, 0.025376, 0.007450, 0.004163, -0.012404, -0.022868, 0.003725, 0.009002, -0.031537, 0.003678, -0.020837, 0.000000, 0.000000, -0.013614, 0.005080, 0.020300, 0.007702, -0.023169, 0.001042, 0.012225, 0.017333, 0.028231, -0.015225, -0.007329, -0.003522, -0.010287, 0.026969, 0.000000, 0.000000, -0.069302, 0.014366, -0.001976, -0.010353, -0.033006, 0.048975, -0.047395, 0.002105, 0.021876, -0.018933, 0.017934, 0.001257, -0.070748, 0.045957, 0.000000, 0.000000, 0.039572, -0.009271, 0.003345, 0.008334, -0.079182, 0.007479, 0.000434, -0.004173, 0.015797, 0.005186, 0.020516, 0.014894, -0.024565, -0.014744, 0.000000, 0.000000, -0.018464, -0.049471, -0.028662, -0.017248, -0.061330, 0.045055, 0.020436, 0.032117, -0.008672, 0.015699, 0.032790, -0.039263, -0.015537, -0.028975, 0.000000, 0.000000, -0.015146, 0.009009, 0.084944, 0.031894, 0.024683, 0.001095, -0.009936, -0.020235, 0.035407, -0.011706, 0.005741, -0.026101, 0.011457, -0.013866, 0.000000, 0.000000, -0.037071, 0.015269, 0.003902, -0.020619, 0.035703, 0.017926, -0.047076, 0.000422, -0.024218, -0.001439, 0.000772, 0.000505, -0.061009, 0.015899, 0.000000, 0.000000, 0.013016, 0.008292, 
-0.051071, -0.008956, -0.011531, -0.010680, 0.038876, -0.005575, 0.030271, -0.003002, -0.078564, -0.060696, -0.024531, -0.016345, 0.000000, 0.000000, 0.042376, 0.039149, 0.003903, -0.024206, 0.059180, -0.027394, 0.065478, 0.014760, 0.016121, -0.045874, -0.034049, 0.040101, -0.073065, 0.097611, 0.000000, 0.000000, 0.025441, -0.039114, 0.053991, -0.004589, -0.050676, 0.014285, 0.020322, -0.041198, 0.035037, -0.001349, 0.006423, 0.009295, 0.019212, -0.004086, 0.000000, 0.000000, -0.082149, 0.005732, 0.011205, 0.002290, 0.017046, 0.016290, 0.002018, -0.017200, -0.025698, -0.003992, 0.006024, -0.026105, 0.005557, -0.020002, 0.000000, 0.000000, -0.016874, 0.002830, 0.029239, 0.015097, -0.029894, -0.001405, 0.012001, 0.000357, 0.020833, -0.005454, -0.001213, -0.011790, -0.013357, 0.024123, 0.000000, 0.000000, -0.070794, 0.011103, -0.013298, -0.006936, -0.041259, 0.057526, -0.042443, -0.008897, 0.014954, -0.016612, 0.009943, 0.013153, -0.068434, 0.053240, 0.000000, 0.000000, 0.019257, 0.001088, -0.006921, 0.002832, -0.063916, 0.007510, -0.021900, -0.006531, 0.023287, -0.010838, 0.016442, 0.014464, -0.020057, -0.014651, 0.000000, 0.000000, -0.028249, -0.042065, -0.032332, -0.022873, -0.061553, 0.035019, 0.017499, 0.041919, -0.003070, 0.000998, 0.038852, -0.043345, -0.003488, -0.034163, 0.000000, 0.000000, -0.007836, -0.004853, 0.084968, 0.048047, 0.008972, 0.011377, 0.008428, -0.022508, 0.024288, 0.004495, -0.002806, -0.013757, 0.009984, -0.024615, 0.000000, 0.000000, -0.011885, 0.012383, 0.002190, -0.022910, 0.029383, 0.019178, -0.050505, 0.004112, -0.025827, 0.004126, 0.015473, -0.004640, -0.069824, 0.022766, 0.000000, 0.000000, 0.022209, 0.009857, 
-0.044507, -0.009989, -0.024523, 0.031079, 0.049793, -0.018719, 0.036760, -0.037948, -0.069668, -0.081217, -0.014696, -0.007610, 0.000000, 0.000000, 0.034719, 0.071616, 0.000767, -0.040471, 0.078895, -0.054926, 0.089139, 0.011846, -0.001383, -0.009330, -0.045589, 0.032144, -0.065567, 0.080735, 0.000000, 0.000000, 0.028273, -0.031075, 0.053670, 0.005181, -0.044510, 0.013128, 0.025498, -0.046340, 0.015418, -0.002423, 0.005446, 0.007137, 0.031485, -0.008053, 0.000000, 0.000000, -0.085976, -0.001548, 0.007064, 0.017841, -0.004412, 0.021813, 0.003987, -0.021257, -0.023539, -0.006123, 0.006934, -0.008100, -0.002793, -0.017919, 0.000000, 0.000000, -0.010770, -0.001705, 0.029629, 0.000096, -0.023991, 0.014137, -0.000461, 0.010411, 0.037323, -0.018296, 0.002920, -0.002295, -0.028372, 0.026230, 0.000000, 0.000000, -0.063896, 0.014692, -0.024503, -0.012182, -0.042148, 0.052329, -0.033240, -0.003432, 0.004664, -0.003622, 0.011965, -0.010616, -0.054257, 0.055571, 0.000000, 0.000000, 0.013655, -0.001387, -0.017524, 0.012333, -0.071975, 0.001633, -0.011286, -0.004930, 0.006123, -0.004634, 0.033622, 0.001009, -0.000870, -0.016009, 0.000000, 0.000000, -0.021570, -0.044086, -0.015049, -0.021773, -0.051047, 0.049492, -0.004279, 0.035978, 0.011295, -0.026252, 0.032356, -0.034047, -0.012055, -0.020627, 0.000000, 0.000000, 0.009374, -0.005209, 0.086230, 0.045516, 0.024315, 0.015858, 0.011824, -0.046775, 0.034847, 0.000891, -0.009809, 0.000783, -0.000004, -0.018717, 0.000000, 0.000000, -0.019097, 0.005497, -0.005703, -0.028120, 0.033995, 0.017722, -0.035231, 0.015760, -0.029335, 0.010852, 0.012641, -0.002560, -0.067147, -0.003107, 0.000000, 0.000000, 0.012550, 0.004649, 
-0.042822, -0.010987, -0.033455, 0.049735, 0.032104, -0.011671, 0.055290, -0.058546, -0.059544, -0.105853, -0.000497, -0.020142, 0.000000, 0.000000, 0.037695, 0.083576, 0.021480, -0.032283, 0.075436, -0.039346, 0.071559, -0.009308, -0.002043, -0.019847, -0.031433, 0.047871, -0.064720, 0.081484, 0.000000, 0.000000, 0.021999, -0.037558, 0.041625, 0.008243, -0.044835, 0.004916, 0.013396, -0.045759, 0.024148, -0.006036, 0.011710, 0.005275, 0.027789, -0.018099, 0.000000, 0.000000, -0.074638, -0.002128, 0.022777, 0.002193, 0.001249, 0.023296, -0.004479, -0.020232, -0.020832, -0.004454, 0.010159, 0.002288, -0.010634, -0.009265, 0.000000, 0.000000, -0.012845, -0.012889, 0.028708, 0.000916, -0.025171, 0.028942, -0.020786, 0.018211, 0.025710, -0.028410, 0.008732, 0.004223, -0.018839, 0.023276, 0.000000, 0.000000, -0.067455, 0.012166, -0.029848, -0.016801, -0.039975, 0.044779, -0.038678, 0.001132, 0.017338, -0.004322, 0.018548, 0.008847, -0.071659, 0.060237, 0.000000, 0.000000, 0.011821, -0.004855, -0.020451, -0.009733, -0.060848, 0.007258, 0.007383, -0.011432, 0.014073, -0.008362, 0.034356, -0.013058, -0.000083, -0.020975, 0.000000, 0.000000, -0.021186, -0.049495, -0.019320, -0.018782, -0.047721, 0.049189, -0.024172, 0.044072, -0.001248, -0.017955, 0.021125, -0.048590, -0.002692, -0.023037, 0.000000, 0.000000, 0.000052, -0.001670, 0.091267, 0.059796, 0.025400, 0.017502, -0.002606, -0.046816, 0.032940, 0.001902, -0.003272, -0.012345, 0.006636, -0.019154, 0.000000, 0.000000, -0.011909, 0.012599, 0.007339, -0.031070, 0.035218, 0.006952, -0.035525, 0.011741, -0.030733, 0.009116, 0.021909, -0.015138, -0.058080, 0.000806, 0.000000, 0.000000, 0.017952, 0.003718, 
-0.055911, -0.020090, -0.058364, 0.050238, 0.029986, 0.027054, 0.071679, -0.069105, -0.069573, -0.147960, -0.005115, -0.008933, 0.000000, 0.000000, 0.047286, 0.103006, 0.023438, -0.035246, 0.067263, -0.034358, 0.070142, 0.002266, -0.018710, -0.015576, -0.026214, 0.044606, -0.055164, 0.083763, 0.000000, 0.000000, 0.011200, -0.027170, 0.039718, -0.013395, -0.032264, 0.000185, 0.012351, -0.042104, 0.033996, 0.001466, 0.013162, -0.004735, 0.016758, -0.014029, 0.000000, 0.000000, -0.068287, 0.002694, 0.018466, 0.004467, -0.007960, 0.020378, -0.001629, -0.008048, -0.019979, -0.011017, 0.002712, -0.003882, -0.001086, -0.007390, 0.000000, 0.000000, -0.014144, -0.006338, 0.040082, 0.011035, -0.034685, 0.049392, -0.032041, 0.010533, 0.028456, -0.035083, 0.012396, -0.002975, -0.005639, 0.022965, 0.000000, 0.000000, -0.077855, 0.006021, -0.038103, -0.014160, -0.036143, 0.051963, -0.024772, -0.000595, -0.001832, 0.009938, 0.015808, 0.013967, -0.064163, 0.054962, 0.000000, 0.000000, 0.011525, -0.016272, -0.013824, -0.002876, -0.068745, -0.007108, 0.005980, -0.029344, 0.010927, 0.003665, 0.020497, 0.006878, -0.001481, -0.030628, 0.000000, 0.000000, -0.039329, -0.048732, -0.022075, -0.022111, -0.029511, 0.032789, -0.027500, 0.029009, -0.000930, -0.011724, 0.031641, -0.037165, -0.011408, -0.032299, 0.000000, 0.000000, -0.001379, -0.011243, 0.090027, 0.050858, 0.018887, 0.028479, 0.004353, -0.036995, 0.063057, -0.013940, -0.003838, -0.007029, 0.008042, -0.016495, 0.000000, 0.000000, -0.007312, 0.011697, 0.010315, -0.033035, 0.036825, 0.014814, -0.033914, 0.021812, -0.037854, 0.008388, 0.015013, -0.024868, -0.049202, -0.003089, 0.000000, 0.000000, 0.025929, 0.005499, 
-0.058129, -0.035213, -0.053122, 0.035630, 0.047007, 0.025395, 0.089366, -0.026806, -0.084336, -0.125909, -0.012017, -0.033188, 0.000000, 0.000000, 0.037877, 0.100764, 0.014561, -0.025670, 0.071188, -0.046096, 0.056487, 0.009759, -0.012517, -0.020862, -0.021271, 0.026471, -0.050748, 0.075805, 0.000000, 0.000000, 0.036048, -0.038153, 0.035970, -0.009769, -0.031994, 0.003440, 0.003495, -0.043187, 0.027631, -0.009979, 0.016858, -0.000529, 0.031243, -0.013177, 0.000000, 0.000000, -0.085161, -0.003282, 0.018701, 0.003719, -0.014172, 0.018229, -0.002571, -0.019427, -0.014818, -0.023062, 0.014544, -0.009252, 0.008990, -0.012175, 0.000000, 0.000000, -0.009443, -0.009992, 0.033934, 0.006514, -0.028553, 0.045305, -0.027332, 0.015496, 0.024361, -0.031664, 0.001896, -0.000385, -0.007996, 0.024535, 0.000000, 0.000000, -0.063730, 0.009941, -0.046342, -0.016690, -0.049124, 0.064017, -0.024177, 0.009376, 0.012293, -0.002232, 0.008915, 0.017821, -0.087126, 0.044887, 0.000000, 0.000000, 0.023726, -0.010269, -0.018018, -0.021165, -0.074759, 0.010743, 0.008310, -0.027525, 0.009325, 0.000522, 0.019133, 0.011117, -0.004137, -0.024841, 0.000000, 0.000000, -0.045045, -0.059077, -0.034993, -0.040513, -0.031358, 0.031438, -0.008277, 0.034234, -0.006048, -0.022322, 0.023408, -0.049044, -0.005085, -0.013640, 0.000000, 0.000000, -0.008704, -0.006552, 0.090261, 0.054398, 0.014419, 0.014658, 0.005387, -0.023714, 0.065190, -0.007052, -0.002861, -0.005422, 0.002767, -0.024460, 0.000000, 0.000000, -0.000844, 0.027538, 0.019140, -0.015357, 0.028206, 0.032801, -0.042815, 0.017353, -0.035381, 0.018720, 0.017101, -0.015719, -0.057199, -0.003160, 0.000000, 0.000000, 0.032473, 0.010336, 
-0.058241, -0.029046, -0.059945, 0.035953, 0.066675, 0.005349, 0.098426, -0.001691, -0.097416, -0.129835, -0.023916, -0.050571, 0.000000, 0.000000, 0.049283, 0.109612, 0.036860, -0.030868, 0.051631, -0.023319, 0.023163, 0.024490, -0.005664, -0.035778, 0.001057, -0.000351, -0.044930, 0.056657, 0.000000, 0.000000, 0.032044, -0.026344, 0.042273, -0.032620, -0.029737, -0.005605, 0.009108, -0.027605, 0.014605, 0.010613, 0.021542, -0.003293, 0.028705, -0.017180, 0.000000, 0.000000, -0.087767, -0.006040, 0.009429, -0.003389, -0.012855, 0.022673, 0.001583, -0.006858, -0.004611, -0.020464, 0.017375, -0.008911, 0.000520, -0.006875, 0.000000, 0.000000, -0.009625, -0.007793, 0.020902, 0.008458, -0.034015, 0.047538, -0.018919, 0.015608, 0.022715, -0.033114, 0.011741, 0.000762, -0.002629, 0.011116, 0.000000, 0.000000, -0.063665, 0.003800, -0.042699, -0.020845, -0.055784, 0.049263, -0.022655, 0.001985, 0.022484, 0.006658, 0.011327, 0.010245, -0.078271, 0.035011, 0.000000, 0.000000, 0.019670, 0.002037, -0.002253, -0.013808, -0.059273, 0.025567, 0.006629, -0.017902, 0.002917, 0.001652, 0.016940, 0.007264, 0.001379, -0.023016, 0.000000, 0.000000, -0.042817, -0.051809, -0.045808, -0.042838, -0.021998, 0.051873, -0.002745, 0.029898, -0.023088, -0.027790, 0.029822, -0.035721, 0.004907, -0.011048, 0.000000, 0.000000, -0.006202, -0.009370, 0.077700, 0.054539, -0.002787, 0.016427, 0.001638, -0.026570, 0.053879, -0.012878, 0.003647, 0.003692, 0.002316, -0.008679, 0.000000, 0.000000, -0.020899, 0.021102, 0.023876, -0.023059, 0.027199, 0.026427, -0.041965, 0.020604, -0.020187, 0.022204, 0.018366, -0.023243, -0.074997, -0.003506, 0.000000, 0.000000, 0.030421, 0.011480, 
-0.075218, 0.009251, -0.073915, 0.009314, 0.068712, -0.007574, 0.094695, 0.023562, -0.104393, -0.128503, -0.049845, -0.048874, 0.000000, 0.000000, 0.072344, 0.104418, 0.051928, -0.051404, 0.080284, -0.037187, 0.033461, 0.026744, -0.012472, -0.038418, -0.012834, 0.005614, -0.045194, 0.060368, 0.000000, 0.000000, 0.025141, -0.018929, 0.033341, -0.044362, -0.013250, -0.004666, 0.026429, -0.009349, 0.007838, 0.009506, 0.000965, 0.005371, 0.015949, -0.007673, 0.000000, 0.000000, -0.071956, -0.005953, 0.013784, -0.005191, -0.014428, 0.022295, 0.002643, -0.003436, 0.012272, -0.023283, 0.005476, -0.014554, -0.003950, -0.004069, 0.000000, 0.000000, -0.005109, -0.005037, 0.031739, 0.020133, -0.049374, 0.043634, -0.035909, 0.001704, 0.026094, -0.037813, 0.006675, -0.011398, 0.002834, -0.000374, 0.000000, 0.000000, -0.060127, 0.019492, -0.054822, -0.019501, -0.055845, 0.041716, 0.008223, -0.018803, 0.024421, 0.015374, -0.001388, 0.014497, -0.075256, 0.025268, 0.000000, 0.000000, 0.014098, -0.008960, 0.007248, -0.003599, -0.064749, 0.038158, 0.018513, -0.012639, 0.013343, -0.003212, 0.014282, 0.009671, -0.003123, -0.011484, 0.000000, 0.000000, -0.041388, -0.057713, -0.039315, -0.025135, -0.032992, 0.050386, 0.005242, 0.029111, -0.024213, -0.013698, 0.018855, -0.023270, 0.007388, -0.013571, 0.000000, 0.000000, 0.005154, -0.003597, 0.073836, 0.027072, -0.018869, 0.023927, 0.003560, -0.023489, 0.041897, -0.028252, 0.012520, 0.000993, 0.003165, -0.003328, 0.000000, 0.000000, -0.017357, 0.018918, 0.031485, -0.027048, 0.038742, 0.030640, -0.045069, 0.022019, -0.031068, 0.029781, 0.016754, -0.018903, -0.092632, -0.003381, 0.000000, 0.000000, 0.029338, 0.004836, 
-0.068610, -0.010557, -0.064632, -0.008666, 0.055537, 0.018460, 0.083860, 0.030970, -0.112812, -0.135347, -0.046639, -0.053394, 0.000000, 0.000000, 0.080203, 0.115633, 0.046524, -0.041612, 0.084189, -0.034448, 0.041969, 0.023692, -0.014279, -0.040411, -0.010027, 0.011906, -0.054544, 0.070756, 0.000000, 0.000000, 0.023730, -0.018352, 0.026828, -0.028272, -0.017021, -0.004061, 0.024860, -0.025572, 0.016154, 0.007442, 0.000838, 0.012263, 0.018137, -0.008075, 0.000000, 0.000000, -0.076186, -0.007291, 0.008717, -0.004937, -0.004791, 0.008679, -0.002980, -0.007699, 0.028602, -0.025265, 0.024892, -0.009758, -0.016634, -0.000141, 0.000000, 0.000000, -0.005462, -0.005250, 0.034758, 0.006465, -0.050827, 0.041504, -0.029805, 0.011566, 0.020855, -0.050496, 0.016381, -0.009372, 0.002008, -0.001785, 0.000000, 0.000000, -0.074512, 0.009904, -0.040153, -0.019399, -0.070473, 0.048511, -0.013559, -0.004491, 0.022871, 0.012503, -0.014730, 0.002406, -0.072604, 0.011358, 0.000000, 0.000000, 0.016342, -0.002693, 0.010388, 0.012461, -0.052572, 0.045136, 0.010159, -0.006740, 0.000345, -0.005692, 0.008386, 0.009349, 0.005418, -0.008131, 0.000000, 0.000000, -0.043018, -0.060058, -0.037323, -0.018330, -0.031715, 0.047023, 0.006136, 0.028382, -0.026410, 0.005818, 0.018736, -0.020482, 0.014314, -0.010577, 0.000000, 0.000000, 0.000697, -0.006662, 0.079174, 0.024000, -0.021560, 0.011011, 0.005773, -0.035824, 0.037614, -0.028757, 0.021673, 0.002707, -0.003364, -0.005765, 0.000000, 0.000000, -0.004526, 0.022998, 0.034241, -0.014450, 0.024664, 0.028319, -0.055552, 0.007787, -0.021622, 0.027439, 0.025100, -0.019071, -0.107531, 0.006717, 0.000000, 0.000000, 0.024265, 0.017627, 
-0.062544, 0.002268, -0.051284, -0.016509, 0.051980, 0.012819, 0.076107, 0.023444, -0.117523, -0.141827, -0.038895, -0.047698, 0.000000, 0.000000, 0.070066, 0.120887, 0.046642, -0.044520, 0.061442, -0.017725, 0.054587, 0.006705, -0.003621, -0.056825, -0.014513, 0.014214, -0.036954, 0.076655, 0.000000, 0.000000, 0.023358, -0.013843, 0.027363, -0.017560, -0.016525, 0.006956, 0.025907, -0.033132, 0.017385, 0.004996, -0.008707, 0.008016, 0.015728, -0.000120, 0.000000, 0.000000, -0.072608, -0.008218, 0.006665, -0.009565, -0.003566, 0.018952, -0.007143, 0.006599, 0.008407, -0.015745, 0.016850, -0.015097, -0.008637, 0.005084, 0.000000, 0.000000, 0.000770, 0.000888, 0.043832, 0.010053, -0.054626, 0.027430, -0.022936, 0.001122, 0.029688, -0.035893, 0.019722, -0.002153, -0.005330, -0.011879, 0.000000, 0.000000, -0.077267, 0.001878, -0.031037, -0.032235, -0.065654, 0.046964, -0.014870, 0.000659, 0.025680, 0.007900, -0.000046, -0.001913, -0.069158, -0.005957, 0.000000, 0.000000, 0.019352, 0.005662, -0.000240, -0.005358, -0.057217, 0.053080, 0.012899, -0.005271, 0.004801, -0.003333, 0.011534, -0.002262, -0.007133, 0.005107, 0.000000, 0.000000, -0.039061, -0.057218, -0.044420, -0.004157, -0.031489, 0.047017, 0.019390, -0.000392, -0.011494, -0.001249, 0.015600, -0.009046, 0.014166, -0.009852, 0.000000, 0.000000, -0.004160, 0.001633, 0.079258, 0.038999, -0.015410, 0.010934, 0.006412, -0.028362, 0.038530, -0.034301, 0.027486, -0.004228, 0.001932, -0.007452, 0.000000, 0.000000, -0.007650, 0.021085, 0.028601, -0.012300, 0.013232, 0.031961, -0.060045, 0.019145, -0.034414, 0.022680, 0.023759, -0.015092, -0.101204, 0.012868, 0.000000, 0.000000, 0.033160, 0.006319, 
-0.071097, 0.001355, -0.047917, -0.029809, 0.058582, 0.017802, 0.057852, 0.040070, -0.105050, -0.128320, -0.023779, -0.067414, 0.000000, 0.000000, 0.066553, 0.112546, 0.034922, -0.015697, 0.026646, 0.017600, 0.044281, -0.005639, 0.001439, -0.089884, 0.001622, 0.003355, -0.011608, 0.075480, 0.000000, 0.000000, 0.006841, -0.020359, 0.035327, -0.027261, -0.006721, -0.000267, 0.020177, -0.024038, 0.013812, 0.014095, -0.011724, 0.009913, 0.028188, 0.001433, 0.000000, 0.000000, -0.070673, -0.010440, 0.009690, -0.003936, 0.004957, 0.020562, -0.011390, -0.002311, 0.001487, -0.005409, 0.007965, -0.017194, -0.008490, -0.006008, 0.000000, 0.000000, 0.007086, 0.003413, 0.024026, 0.029298, -0.052615, 0.021555, -0.011932, -0.005176, 0.030041, -0.029273, 0.018748, -0.011314, -0.011258, -0.022619, 0.000000, 0.000000, -0.068121, -0.000860, -0.024694, -0.044783, -0.068820, 0.046803, -0.018789, 0.028283, 0.011810, 0.015277, -0.005628, -0.004600, -0.068131, -0.010678, 0.000000, 0.000000, 0.022364, 0.009091, 0.006553, -0.018733, -0.048752, 0.045020, 0.018923, -0.017920, 0.015590, -0.005036, 0.008999, -0.000534, -0.014875, 0.011199, 0.000000, 0.000000, -0.042958, -0.039626, -0.033768, 0.001492, -0.028204, 0.051154, 0.015047, -0.004302, -0.027777, -0.004570, 0.020690, -0.015512, 0.019850, -0.010635, 0.000000, 0.000000, -0.013103, 0.004592, 0.077643, 0.055643, -0.028527, 0.021666, -0.003696, -0.037571, 0.039539, -0.029785, 0.049022, -0.017057, 0.008950, -0.014734, 0.000000, 0.000000, -0.003911, 0.009805, 0.017197, -0.031102, 0.010234, 0.036841, -0.045778, 0.015531, -0.018512, 0.021875, 0.009734, -0.009493, -0.099556, 0.014383, 0.000000, 0.000000, 0.031297, 0.009708, 
-0.076936, -0.012528, -0.033398, -0.036020, 0.050558, 0.029231, 0.049911, 0.054856, -0.120778, -0.108997, -0.018175, -0.081339, 0.000000, 0.000000, 0.067145, 0.108010, 0.022239, -0.001669, 0.022719, 0.033390, 0.044431, -0.030746, 0.014232, -0.095703, 0.024620, 0.007101, -0.004101, 0.078831, 0.000000, 0.000000, 0.007271, -0.015019, 0.034476, -0.023958, 0.002988, -0.001523, 0.058829, -0.020737, -0.007467, 0.016665, -0.040911, 0.032275, 0.034423, 0.001950, 0.000000, 0.000000, -0.073811, -0.011117, 0.008769, -0.015483, 0.004684, 0.018476, -0.015202, 0.015845, -0.000746, -0.009245, -0.006287, -0.005786, -0.014122, -0.007043, 0.000000, 0.000000, 0.022378, -0.001811, 0.032754, 0.016534, -0.036890, 0.029678, -0.024182, 0.010653, 0.007036, -0.036154, 0.017337, -0.011026, -0.012062, -0.020206, 0.000000, 0.000000, -0.078470, -0.008390, -0.044949, -0.031701, -0.058458, 0.058990, -0.005659, 0.028552, 0.005894, 0.012838, 0.014963, -0.007281, -0.066077, -0.004161, 0.000000, 0.000000, 0.010164, 0.006055, 0.005470, -0.027786, -0.037890, 0.045069, 0.042942, 0.000550, 0.031781, -0.002457, 0.009448, -0.017030, -0.025698, -0.005449, 0.000000, 0.000000, -0.042980, -0.027566, 0.005791, 0.011077, -0.056456, 0.078789, -0.018045, -0.010614, -0.010592, -0.023124, 0.024932, -0.010473, 0.004480, -0.000910, 0.000000, 0.000000, -0.009967, 0.003489, 0.067421, 0.076821, -0.050643, 0.020145, -0.016207, -0.080316, 0.038969, -0.017614, 0.040141, -0.003101, 0.027674, -0.022033, 0.000000, 0.000000, 0.000483, 0.007470, 0.003915, -0.034604, 0.035914, 0.017440, -0.031470, 0.009115, -0.045295, 0.033379, 0.010672, -0.019956, -0.090230, 0.013563, 0.000000, 0.000000, 0.033346, 0.005805, 
-0.071812, 0.002993, -0.042260, -0.025937, 0.043971, 0.000705, 0.062281, 0.023984, -0.094363, -0.109722, -0.036191, -0.060237, 0.000000, 0.000000, 0.094896, 0.091680, 0.007666, 0.025582, 0.005505, 0.033041, 0.057729, -0.050639, 0.018731, -0.077136, 0.022571, 0.031241, -0.002810, 0.070297, 0.000000, 0.000000, -0.002268, -0.018311, 0.033585, -0.027874, -0.000796, 0.005276, 0.056086, -0.025630, 0.001145, 0.018374, -0.041288, 0.040663, 0.035044, -0.001496, 0.000000, 0.000000, -0.076629, -0.018493, 0.009903, -0.029865, 0.025765, 0.004346, -0.005406, 0.010866, 0.007297, -0.006031, -0.012022, -0.005148, -0.018892, -0.004095, 0.000000, 0.000000, 0.020987, -0.006925, 0.031941, 0.003311, -0.033337, 0.032376, -0.015715, 0.019597, 0.008281, -0.043690, 0.018782, -0.022077, -0.005138, -0.026886, 0.000000, 0.000000, -0.066052, -0.008023, -0.038776, -0.034612, -0.068940, 0.061311, -0.003512, 0.032688, 0.023054, 0.008894, 0.004229, -0.001934, -0.079112, -0.016008, 0.000000, 0.000000, 0.027523, 0.006181, 0.011734, -0.034553, -0.046407, 0.054163, 0.033595, 0.002797, 0.033743, 0.003886, 0.008426, -0.022140, -0.027760, 0.002077, 0.000000, 0.000000, -0.037333, -0.036050, -0.008227, 0.017097, -0.075113, 0.088604, -0.008875, -0.008447, -0.016478, -0.020490, 0.026855, -0.017994, 0.010908, 0.011918, 0.000000, 0.000000, -0.027076, 0.003255, 0.049494, 0.083065, -0.065211, 0.017672, -0.000478, -0.069657, 0.036956, -0.017597, 0.034820, 0.009739, 0.023470, -0.018678, 0.000000, 0.000000, -0.003957, 0.005885, 0.008766, -0.034892, 0.062020, 0.012581, -0.018569, 0.004506, -0.050663, 0.035905, -0.001229, -0.031098, -0.079292, -0.005682, 0.000000, 0.000000, 0.032331, 0.021653, 
-0.083008, 0.029603, -0.034498, -0.022900, 0.053409, -0.016670, 0.059842, 0.009623, -0.130387, -0.059937, -0.039128, -0.046119, 0.000000, 0.000000, 0.082624, 0.106919, 0.007776, 0.014386, 0.001218, 0.034845, 0.068306, -0.039963, 0.023154, -0.087923, 0.019936, 0.015167, -0.014644, 0.089109, 0.000000, 0.000000, 0.009178, -0.029986, 0.033297, -0.021138, -0.002082, -0.001620, 0.057666, -0.021578, -0.006350, 0.018406, -0.035832, 0.036260, 0.048573, -0.011692, 0.000000, 0.000000, -0.089709, -0.011364, 0.024687, -0.023178, 0.003771, 0.016640, -0.021539, -0.002972, 0.026082, -0.016069, -0.005798, -0.002971, -0.019318, 0.004596, 0.000000, 0.000000, 0.018728, -0.007122, 0.044153, 0.009856, -0.050342, 0.042446, -0.030423, 0.001964, 0.005226, -0.049409, 0.018884, -0.000986, -0.007348, -0.027278, 0.000000, 0.000000, -0.074157, -0.013240, -0.021867, -0.033694, -0.076700, 0.059014, -0.006727, 0.009244, 0.032056, 0.002897, 0.013021, 0.007724, -0.090588, -0.017163, 0.000000, 0.000000, 0.028638, 0.012655, 0.015159, -0.027562, -0.061617, 0.052103, 0.030995, -0.001209, 0.054554, -0.004460, -0.004674, -0.028722, -0.016586, 0.011904, 0.000000, 0.000000, -0.034203, -0.034843, -0.006558, 0.022327, -0.075150, 0.074652, -0.008471, -0.006075, -0.024376, -0.005361, 0.021341, -0.037542, 0.024366, 0.016574, 0.000000, 0.000000, -0.018080, -0.001473, 0.038775, 0.076686, -0.049095, 0.012596, 0.004135, -0.052950, 0.020692, -0.010914, 0.041818, 0.007487, 0.018172, -0.018808, 0.000000, 0.000000, 0.000092, 0.003094, 0.009782, -0.041908, 0.073641, 0.020624, -0.018172, 0.005355, -0.038113, 0.030624, -0.002225, -0.016570, -0.093672, -0.016129, 0.000000, 0.000000, 0.038870, 0.011137, 
-0.097166, 0.045340, -0.049000, -0.006330, 0.038262, -0.034159, 0.043594, 0.009628, -0.138153, 0.014369, -0.035377, -0.035026, 0.000000, 0.000000, 0.045278, 0.077439, 0.066370, -0.020796, -0.001860, 0.046358, 0.004178, -0.018984, 0.021008, -0.085935, 0.047095, -0.005907, -0.022705, 0.092088, 0.000000, 0.000000, 0.016766, -0.035074, 0.034295, -0.010259, -0.007459, -0.004014, 0.063143, -0.018659, -0.005765, 0.010293, -0.031813, 0.037241, 0.033642, 0.001094, 0.000000, 0.000000, -0.079973, -0.013218, 0.016437, 0.002996, -0.021793, 0.028386, -0.038645, -0.003122, 0.028948, -0.015483, 0.017107, -0.013574, -0.008086, 0.009889, 0.000000, 0.000000, 0.015837, -0.012210, 0.040887, 0.006409, -0.053008, 0.038931, -0.037206, 0.004950, 0.008176, -0.045502, 0.011986, -0.003228, 0.016284, -0.024820, 0.000000, 0.000000, -0.083783, -0.018653, -0.013085, -0.034987, -0.076905, 0.061854, 0.011660, 0.011783, 0.017800, 0.013619, 0.000613, -0.004911, -0.080814, -0.018592, 0.000000, 0.000000, 0.042149, -0.005324, -0.006213, -0.020007, -0.072410, 0.048612, 0.056446, -0.001528, 0.063764, -0.005781, -0.007390, -0.019802, -0.034215, 0.011332, 0.000000, 0.000000, -0.030907, -0.017600, -0.014316, 0.007764, -0.061232, 0.076094, -0.000833, -0.003365, -0.010754, -0.003475, 0.034442, -0.035983, 0.010126, 0.002751, 0.000000, 0.000000, -0.020442, 0.008777, 0.049716, 0.092224, -0.054162, 0.021010, -0.000552, -0.061184, 0.015891, -0.014037, 0.033561, 0.001204, 0.015927, -0.022417, 0.000000, 0.000000, -0.006665, 0.012063, 0.013380, -0.029135, 0.053987, 0.032751, -0.031177, 0.021091, -0.049227, 0.029969, -0.014525, -0.024441, -0.093298, -0.003483, 0.000000, 0.000000, 0.050913, 0.006897, 
-0.101908, 0.038782, -0.053248, 0.001514, 0.023192, -0.000572, 0.063741, -0.002336, -0.142526, -0.015744, -0.047932, -0.032445, 0.000000, 0.000000, 0.050645, 0.105658, 0.098829, -0.059554, 0.032069, 0.025263, -0.016742, -0.003480, 0.023970, -0.074245, 0.068741, -0.020078, -0.028670, 0.079407, 0.000000, 0.000000, 0.030621, -0.035231, 0.030203, -0.011727, -0.000847, -0.015387, 0.066967, -0.024945, -0.002050, 0.022426, -0.033950, 0.048789, 0.026591, 0.010162, 0.000000, 0.000000, -0.075589, -0.025747, 0.013575, 0.016145, -0.034558, 0.028446, -0.028197, -0.018067, 0.045096, -0.016890, 0.000329, 0.005029, -0.028609, 0.011880, 0.000000, 0.000000, 0.016973, -0.011231, 0.040709, 0.012618, -0.045852, 0.038635, -0.016816, 0.001308, 0.000789, -0.046351, -0.004490, 0.007377, 0.012038, -0.013730, 0.000000, 0.000000, -0.088019, -0.000143, -0.009552, -0.033156, -0.075117, 0.075047, 0.004966, 0.005060, 0.013897, 0.019564, 0.009665, 0.000109, -0.090172, -0.009983, 0.000000, 0.000000, 0.043745, 0.008911, 0.009000, -0.018861, -0.072612, 0.059613, 0.032806, -0.018024, 0.061788, -0.015431, -0.012104, -0.029095, -0.015847, 0.012652, 0.000000, 0.000000, -0.025150, -0.008310, -0.015817, -0.004926, -0.047071, 0.050266, -0.000380, 0.005519, -0.014179, -0.007231, 0.023116, -0.040903, 0.021564, -0.009407, 0.000000, 0.000000, -0.005903, -0.021159, 0.045505, 0.086333, -0.057565, 0.014854, 0.010898, -0.039183, 0.010125, -0.013529, 0.030007, 0.006456, 0.000900, -0.022970, 0.000000, 0.000000, -0.002119, 0.002511, 0.001488, -0.034666, 0.055487, 0.039277, -0.013882, 0.022832, -0.050022, 0.016371, 0.003267, -0.025234, -0.093924, 0.010242, 0.000000, 0.000000, 0.040079, 0.018088, 
-0.108696, 0.062290, -0.059185, 0.017624, 0.012373, -0.008363, 0.058383, -0.019727, -0.144009, -0.000845, -0.025045, -0.039407, 0.000000, 0.000000, 0.030135, 0.119521, 0.090473, -0.059884, 0.036776, 0.010687, -0.013713, 0.025490, 0.015242, -0.062209, 0.084496, -0.062370, -0.015164, 0.057173, 0.000000, 0.000000, 0.034656, -0.021374, 0.036311, -0.017062, -0.002358, -0.005719, 0.070489, -0.014949, -0.001272, 0.004927, -0.029816, 0.045652, 0.025863, 0.014304, 0.000000, 0.000000, -0.084192, -0.030782, 0.011515, 0.011573, -0.019672, 0.029942, -0.026602, -0.004486, 0.033346, -0.016252, 0.011442, 0.002147, -0.031907, 0.016673, 0.000000, 0.000000, 0.013415, -0.015508, 0.047205, 0.037825, -0.051757, 0.033246, -0.013461, -0.031858, 0.008231, -0.037322, -0.013031, 0.023999, 0.009463, -0.013309, 0.000000, 0.000000, -0.090933, 0.006851, -0.009848, -0.022983, -0.075536, 0.073402, 0.013954, -0.004904, 0.018557, 0.010446, 0.020628, -0.006477, -0.073375, -0.016294, 0.000000, 0.000000, 0.044678, 0.003822, -0.000306, -0.022558, -0.084229, 0.074937, 0.035163, -0.020296, 0.083416, -0.029645, -0.005157, -0.036663, -0.023166, 0.003672, 0.000000, 0.000000, -0.000011, -0.015161, -0.015306, -0.001374, -0.043856, 0.065991, -0.000358, 0.001542, -0.006184, -0.010993, 0.009101, -0.030783, 0.011567, -0.000681, 0.000000, 0.000000, -0.017881, -0.015547, 0.036577, 0.088099, -0.049333, -0.000117, 0.030866, -0.023378, -0.004299, -0.015212, 0.012267, 0.010332, 0.007547, -0.004661, 0.000000, 0.000000, -0.023518, 0.011150, -0.002942, -0.029056, 0.031122, 0.038882, -0.006916, 0.017689, -0.046508, 0.026490, 0.008637, -0.035324, -0.086190, -0.005146, 0.000000, 0.000000, 0.049656, 0.018593, 
-0.083762, 0.013155, -0.026771, -0.006570, -0.001854, 0.023547, 0.046072, -0.005927, -0.135667, -0.028255, -0.026389, -0.042283, 0.000000, 0.000000, 0.042789, 0.112957, 0.081020, -0.059397, 0.035832, 0.013692, -0.003227, 0.010946, 0.006845, -0.057595, 0.079206, -0.044243, -0.011041, 0.052688, 0.000000, 0.000000, 0.035515, -0.022748, 0.032073, -0.022098, -0.002891, -0.005109, 0.061890, -0.000882, -0.006212, -0.003146, -0.046354, 0.053359, 0.021527, 0.015347, 0.000000, 0.000000, -0.085396, -0.023566, 0.007166, 0.008260, -0.001162, 0.029152, -0.010023, -0.019485, 0.032512, -0.020198, 0.000052, 0.010295, -0.027069, 0.017090, 0.000000, 0.000000, 0.008881, -0.022632, 0.034463, 0.035840, -0.056246, 0.044380, -0.009501, -0.019686, 0.011564, -0.033976, 0.004370, 0.022956, -0.001511, -0.013568, 0.000000, 0.000000, -0.095476, 0.009068, -0.026399, -0.014799, -0.096793, 0.091546, -0.000996, 0.000770, 0.015824, 0.003425, 0.014545, 0.005930, -0.083424, -0.009570, 0.000000, 0.000000, 0.051819, -0.000397, -0.004615, -0.036431, -0.087475, 0.057021, 0.030017, -0.015250, 0.076815, -0.026340, -0.013412, -0.026990, -0.021380, 0.011321, 0.000000, 0.000000, 0.000519, -0.013130, -0.009070, -0.026548, -0.019906, 0.045205, 0.007420, 0.006507, -0.005672, -0.013387, 0.021617, -0.040843, 0.033245, -0.005286, 0.000000, 0.000000, -0.022690, -0.012468, 0.038080, 0.083134, -0.032333, 0.004087, 0.017329, -0.022850, -0.007391, -0.021164, 0.012633, 0.028832, 0.007281, -0.013591, 0.000000, 0.000000, -0.018008, 0.015951, 0.010835, -0.024677, 0.023726, 0.051908, -0.013629, 0.022152, -0.049267, 0.027909, -0.005603, -0.023550, -0.087570, -0.015983, 0.000000, 0.000000, 0.046755, 0.016744, 
-0.079320, 0.003470, -0.017202, -0.009269, -0.017591, 0.015934, 0.047128, -0.016735, -0.084751, -0.043088, -0.021774, -0.047760, 0.000000, 0.000000, 0.024142, 0.109226, 0.064752, -0.038072, 0.029744, 0.033064, 0.008270, 0.001085, -0.003381, -0.061456, 0.056380, -0.024983, -0.014164, 0.060184, 0.000000, 0.000000, 0.020284, -0.009517, 0.031769, -0.007350, -0.010992, 0.000525, 0.056162, -0.007462, -0.008574, -0.006428, -0.065123, 0.076077, 0.021458, 0.010853, 0.000000, 0.000000, -0.085135, -0.020250, 0.028726, 0.004221, -0.012014, 0.027350, -0.017774, -0.023644, 0.021967, 0.001839, 0.009687, 0.021416, -0.031773, -0.005700, 0.000000, 0.000000, 0.021475, -0.037009, 0.023175, 0.018273, -0.049483, 0.033391, -0.013438, 0.000509, 0.009557, -0.033671, 0.026837, 0.016977, 0.002583, -0.015586, 0.000000, 0.000000, -0.104880, -0.008012, -0.029503, -0.006928, -0.090252, 0.097691, -0.025479, 0.010851, -0.008164, 0.006387, 0.022050, 0.002070, -0.063880, 0.000337, 0.000000, 0.000000, 0.051877, -0.008459, -0.003676, -0.018517, -0.095583, 0.057871, 0.024445, -0.020875, 0.066979, -0.025715, -0.005890, -0.041785, -0.005527, 0.006205, 0.000000, 0.000000, 0.003251, -0.001410, 0.004589, -0.021247, -0.028734, 0.036901, -0.000337, 0.012804, -0.008358, 0.007969, 0.038551, -0.062516, 0.019105, -0.004761, 0.000000, 0.000000, -0.013402, -0.016723, 0.042068, 0.071428, -0.020008, -0.004850, 0.012796, -0.018530, 0.016570, -0.020744, -0.001429, 0.032376, -0.009220, -0.002965, 0.000000, 0.000000, -0.015602, 0.012135, 0.013895, -0.031764, 0.017114, 0.053491, -0.022573, 0.010777, -0.040962, 0.017455, -0.000195, -0.005136, -0.080515, -0.024835, 0.000000, 0.000000, 0.052154, 0.018899, 
