 -3.9339226e-002
 -8.3702508e-002
  6.8913870e-002
 -3.3559588e-002
 -1.5922563e-001
 -5.2586029e-002
  5.6628074e-002
 -1.1400593e-001
  3.7349966e-001
 -1.7658665e-001
  1.9765155e-002
 -9.7053397e-002
  0.0000000e+000
  0.0000000e+000
 -1.4367508e-001
  7.5649374e-002
 -8.1654436e-002
  1.5385592e-001
 -2.5056667e-002
  2.0741127e-001
  1.1174432e-001
 -8.7666846e-002
 -9.5419395e-002
 -9.6209602e-002
 -1.4904798e-001
  1.4835966e-001
 -4.2268269e-002
  1.2765086e-001
  0.0000000e+000
  0.0000000e+000
 -1.1679394e-001
  1.0955588e-001
  2.9036013e-002
  1.2538229e-001
 -8.3899458e-002
  5.1236759e-002
  4.6097297e-003
 -6.6675791e-002
 -2.9837251e-002
 -3.5970716e-002
 -2.3403843e-001
  2.8053892e-001
  2.0835130e-002
 -2.9596533e-002
  0.0000000e+000
  0.0000000e+000
 -8.2785339e-002
  9.5957367e-003
  2.2277322e-001
 -3.2122995e-002
 -1.0967995e-001
  1.1127732e-002
 -8.7528489e-002
 -6.1071027e-002
 -7.2940600e-002
  2.0017354e-001
  9.6407683e-002
  1.2150825e-001
 -7.4111155e-002
 -2.1080832e-001
  0.0000000e+000
  0.0000000e+000
  1.3482084e-001
 -1.6640209e-001
 -7.8413804e-002
 -1.3983593e-001
  1.1386098e-002
 -6.5501511e-002
 -4.8872420e-002
  1.8226230e-001
 -8.5056835e-003
 -3.0921215e-002
  2.2903747e-001
 -3.6829400e-002
  3.9421513e-002
 -3.3745295e-002
  0.0000000e+000
  0.0000000e+000
 -1.8951096e-001
 -1.6173319e-001
 -5.7434760e-002
  6.3913522e-002
 -3.1388700e-002
  1.5299671e-001
 -2.4582324e-001
  1.0158000e-001
 -2.2405821e-001
  3.3036938e-002
  8.9587011e-002
 -3.2673132e-002
  1.1201265e-001
  8.9505325e-002
  0.0000000e+000
  0.0000000e+000
  5.2402274e-002
 -8.1019142e-002
  4.7733418e-003
  1.4271033e-001
 -1.6855789e-001
  6.5529581e-002
 -2.5708543e-002
 -7.1503385e-002
 -2.1543477e-002
 -2.0093238e-002
  6.1805220e-002
 -1.7494514e-001
  1.3714586e-001
 -3.9832677e-002
  0.0000000e+000
  0.0000000e+000
  2.7835968e-002
  1.0407280e-001
  1.2751361e-001
  2.6461462e-002
 -1.0818189e-001
 -3.7835583e-002
 -7.0155471e-002
  6.9483420e-002
 -3.2527238e-002
  2.0017001e-001
  1.9095406e-001
 -2.5757184e-001
 -1.0814795e-001
 -3.8204416e-005
  0.0000000e+000
  0.0000000e+000
  7.0184739e-002
 -5.5020566e-002
  7.7961520e-002
 -3.3923266e-002
  9.0922803e-002
 -8.5276726e-002
 -2.7998961e-002
  2.0355184e-002
  2.3221653e-001
 -1.6967515e-002
 -1.2798314e-001
  6.4271415e-002
 -1.5773293e-001
  9.2672682e-002
  0.0000000e+000
  0.0000000e+000
  6.0518721e-003
 -2.2209893e-002
  4.1430311e-002
 -9.5539545e-002
 -4.2390260e-002
  6.7740522e-002
 -1.0307400e-001
 -9.1593393e-002
  3.3786153e-002
 -7.6629096e-002
  4.8472897e-002
  1.6058931e-001
 -1.7026633e-002
 -1.0449871e-001
  0.0000000e+000
  0.0000000e+000
  1.0074750e-001
  3.8290801e-002
