284,3.0749881e-003,-1.7443217e-001,-4.7499777e-002,1.2319340e-001,1.3259776e-001,5.6882898e-002,2.8543721e-002,-2.0152997e-002,-1.6079016e-002,2.4578717e-003,2.1720445e-002,-9.6445988e-003,0.0000000e+000,0.0000000e+000,-5.6351146e-002,-4.5621980e-002,2.6568880e-002,-1.4849608e-001,1.4007611e-001,-1.0709311e-001,1.2416793e-001,1.6636721e-001,-1.8630976e-001,1.5162575e-001,-2.1389584e-001,-1.6162067e-002,-5.8146690e-003,2.3860613e-003,0.0000000e+000,0.0000000e+000,1.4505701e-002,6.3632231e-002,6.2162470e-002,-1.1497478e-001,8.2397261e-003,2.7101437e-002,-9.4817561e-002,7.2648750e-002,-4.0640615e-002,1.4899761e-002,-6.1926599e-002,4.2233007e-002,5.4257415e-002,-4.6760274e-002,0.0000000e+000,0.0000000e+000,-1.2176374e-001,5.1529869e-002,9.3424828e-002,4.8230705e-002,-3.1196204e-002,-6.0459508e-002,-7.8216912e-003,-1.6084087e-002,7.6050311e-002,4.0822240e-003,-4.7295516e-002,-3.9087058e-003,-5.2560743e-002,4.3827433e-002,0.0000000e+000,0.0000000e+000,3.8205234e-002,2.0599677e-002,4.2301020e-003,-1.5256218e-001,3.9777549e-002,5.6312922e-002,2.0392195e-002,2.8236408e-002,-3.1072247e-002,4.5010576e-003,-5.8640538e-002,-2.9730457e-003,-2.9439075e-002,-2.8702859e-002,0.0000000e+000,0.0000000e+000,-3.9576995e-002,4.1963259e-003,5.7813990e-002,4.3327193e-003,5.3647194e-002,-2.8054533e-002,-1.1137288e-001,2.8422780e-002,-4.2928442e-002,4.9469673e-002,8.3683788e-002,-2.6196677e-002,-4.9079835e-002,2.1337787e-002,0.0000000e+000,0.0000000e+000,-1.6818303e-002,-6.2105503e-002,-2.3082459e-002,-9.2468099e-003,-8.5120514e-002,8.5530966e-003,-2.3498829e-002,-3.8474520e-002,2.7078443e-002,-6.9272974e-002,-2.7876552e-002,5.3340706e-002,3.0719466e-003,-3.1620507e-002,0.0000000e+000,0.0000000e+000,-3.6889298e-004,2.4409121e-002,5.2449403e-002,-3.5035497e-002,-1.4729503e-002,-3.4042540e-003,-1.1802863e-002,-3.3757226e-002,5.9863240e-002,3.7553161e-002,-4.2050677e-002,-3.0140727e-002,-2.1463615e-002,-1.2165152e-002,0.0000000e+000,0.0000000e+000,2.6150833e-002,-1.7995339e-002,-5.5909852e-003,-6.7040526e-002,4.8057770e-002,5.4676300e-002,-5.5768383e-003,6.7012098e-002,1.4763722e-002,2.2312048e-002,2.1444229e-002,-4.2268109e-002,8.3538965e-002,-2.1635415e-002,0.0000000e+000,0.0000000e+000,8.0906680e-003,-2.0926744e-002,-1.2947903e-002,3.1019967e-002,6.8822216e-002,8.1287530e-003,-9.3397783e-003,-5.7516194e-004,1.8450225e-002,1.8181317e-002,-1.0461724e-001,6.0935363e-002,-4.6388773e-002,8.3435782e-002,0.0000000e+000,0.0000000e+000,-1.6669514e-002,2.1050505e-002,
,297,-2.3416508e-002,-1.2611424e-001,-2.5976736e-001,6.9321320e-002,1.4258060e-001,8.2336629e-002,1.0563972e-001,9.3271006e-002,-1.2233442e-001,-9.0924693e-002,-2.1124283e-001,8.1854197e-002,0.0000000e+000,0.0000000e+000,-2.2120848e-002,-2.8324674e-002,4.4111920e-002,2.1542621e-002,-2.2934832e-002,5.6884229e-002,2.3939363e-002,1.4315028e-002,1.2813757e-002,-1.0174719e-001,-3.7900519e-002,4.8489056e-002,-1.0930322e-001,1.2927650e-001,0.0000000e+000,0.0000000e+000,1.1836181e-001,-6.8895447e-002,7.3209360e-002,-1.6277449e-001,-1.1859316e-002,-5.3595811e-002,-1.3131912e-001,9.6219529e-002,-4.2295363e-003,9.4152819e-003,-5.5312705e-002,6.0928114e-002,-1.2172755e-002,-5.7826631e-003,0.0000000e+000,0.0000000e+000,-1.7983530e-001,3.0596292e-002,7.7530888e-002,-1.6924073e-002,-6.0027816e-002,1.9866634e-002,-5.9162482e-002,-3.8922310e-002,2.8073183e-002,2.2195641e-002,-3.3663613e-002,5.7859456e-002,-8.7771438e-002,5.4165094e-002,0.0000000e+000,0.0000000e+000,1.6307348e-002,-6.8362796e-003,2.0149641e-002,-1.0634700e-001,-6.3336976e-002,8.6488788e-003,-7.2508685e-002,3.6802782e-002,5.3627200e-002,1.0929671e-001,-8.5287846e-002,-1.4992180e-002,-9.4694987e-002,-3.0628445e-002,0.0000000e+000,0.0000000e+000,-3.4852726e-002,2.6915049e-002,-1.1517628e-002,-1.4785846e-002,-4.6197103e-002,7.3727391e-002,-1.9033553e-002,1.6227016e-002,1.1427006e-003,7.2750290e-002,2.6478354e-002,-2.7428124e-002,2.6417624e-002,-4.0081736e-003,0.0000000e+000,0.0000000e+000,4.8906424e-003,1.8488773e-002,8.1448052e-003,-5.7160142e-002,-1.7542667e-002,-3.1140188e-003,-2.9694427e-002,3.3551933e-002,9.3955876e-002,-5.1393354e-002,3.3119296e-002,-6.7847845e-004,-3.1383111e-002,-2.7767917e-002,0.0000000e+000,0.0000000e+000,-1.9100833e-002,-4.4757601e-003,9.6287916e-002,2.8495838e-002,-6.0425290e-003,-5.6233510e-002,-5.9268019e-002,-6.0917755e-002,1.3943825e-001,-2.2249080e-002,-4.6801672e-002,1.4523367e-002,9.8349762e-003,-6.6508488e-002,0.0000000e+000,0.0000000e+000,9.1657261e-002,1.5934713e-002,5.1992135e-002,-1.2113867e-001,2.7260576e-002,3.9701055e-002,5.6599317e-002,-2.6989441e-002,-1.5147810e-002,-4.6676638e-002,-1.1190169e-003,-3.9879398e-002,8.0019781e-003,-9.3226249e-003,0.0000000e+000,0.0000000e+000,-1.7410759e-002,3.9589280e-002,2.5756974e-002,-2.2828199e-002,9.9004333e-003,7.3931014e-002,-2.9689496e-002,-3.0872524e-003,5.7313668e-003,3.6790615e-002,-2.4913938e-002,-1.8305353e-002,-9.5668265e-002,7.5059897e-003,0.0000000e+000,0.0000000e+000,6.1200271e-003,-1.4527389e-002,
,309,1.0395408e-002,-2.1311223e-001,-1.5224838e-002,2.0056280e-001,-1.3640976e-002,1.6254138e-001,-6.9072004e-002,-3.0899487e-001,-3.7096364e-002,-1.0628166e-001,8.0158477e-002,1.7530716e-001,0.0000000e+000,0.0000000e+000,-6.0830553e-002,1.3520380e-001,1.5712974e-001,-1.2662505e-001,1.2413163e-001,-4.1062052e-002,-7.2982979e-002,5.1415126e-002,-2.8908222e-001,1.2277670e-001,-4.1171446e-002,2.1308808e-002,3.3536209e-002,-1.3745468e-002,0.0000000e+000,0.0000000e+000,4.5478011e-002,3.2805214e-002,2.1679132e-002,1.7015626e-002,-1.1086656e-001,1.0253951e-002,-1.7075297e-001,-2.5095029e-002,1.5360715e-001,-4.0023163e-002,-6.2449572e-002,-5.8716323e-002,-4.2494199e-002,9.9449448e-002,0.0000000e+000,0.0000000e+000,-5.3614837e-002,4.1315936e-002,4.4414484e-002,3.4381821e-002,-1.6656728e-002,-2.6975874e-002,-2.4759259e-002,-8.5240488e-002,-1.1349144e-002,3.1934753e-002,-2.2787674e-002,8.1137337e-002,-1.0598275e-001,6.5913990e-002,0.0000000e+000,0.0000000e+000,-6.1981467e-002,-3.9916958e-002,-4.8984854e-004,-5.4631027e-002,-5.1868705e-002,7.9662034e-002,2.0829949e-002,5.7296400e-002,-7.4547619e-002,-2.0258205e-002,-6.8894690e-003,-1.8533029e-002,7.1528519e-002,-5.9240287e-002,0.0000000e+000,0.0000000e+000,-6.5763417e-002,1.0602906e-003,7.1053129e-002,8.6682301e-003,-7.0886155e-002,4.5866454e-002,-2.1427003e-002,-7.3439543e-002,3.9740984e-002,2.1852516e-002,2.0403772e-002,4.3598435e-002,-1.0447475e-001,3.1247589e-002,0.0000000e+000,0.0000000e+000,1.8532567e-002,-1.7087109e-002,-8.3135397e-002,1.7340116e-001,-1.1572066e-001,-8.4135277e-002,-9.7491206e-002,-1.6508802e-002,1.3137865e-002,-2.3658698e-002,3.4080389e-002,1.3838425e-002,-1.4678722e-001,4.7521916e-002,0.0000000e+000,0.0000000e+000,-1.4261876e-001,8.1075742e-002,-2.7906492e-002,1.0653718e-001,-4.6090885e-002,4.3152374e-002,2.5683191e-002,-1.1968971e-002,4.6729772e-002,-4.7038129e-002,1.7225544e-002,-1.2185798e-002,-1.4092106e-002,6.9576241e-002,0.0000000e+000,0.0000000e+000,6.7737770e-002,1.3479929e-002,1.3627285e-001,-1.6715035e-001,-2.6198863e-002,1.4030874e-001,-1.5922955e-002,5.7447849e-002,-1.3469874e-001,-4.0922440e-003,3.6760694e-002,1.9467157e-002,1.2017145e-001,-2.7737381e-002,0.0000000e+000,0.0000000e+000,-3.9922374e-002,-7.6802595e-002,-1.0423773e-002,-8.6038998e-002,6.0731678e-002,5.5856712e-002,1.0215389e-002,-4.7564474e-003,2.1589882e-002,3.3133910e-002,-6.2918678e-002,-5.6435722e-002,1.1371496e-001,-3.5784405e-003,0.0000000e+000,0.0000000e+000,-3.5358295e-002,-1.7409249e-002,
,321,2.2195731e-001,-4.2725067e-001,1.3802486e-001,-1.2915657e-001,1.7271128e-001,1.7296005e-001,-1.7060598e-001,1.7282556e-001,-2.9040296e-001,9.4920514e-003,2.1194955e-002,-1.2841643e-001,0.0000000e+000,0.0000000e+000,-6.8795929e-003,1.2102824e-001,-9.0908646e-002,-1.8450402e-003,3.5406503e-002,-4.9285075e-002,7.4417489e-002,-4.3740483e-002,-4.3587522e-002,4.0774183e-002,6.2219550e-002,-7.0177213e-002,1.7628044e-001,-8.2756285e-002,0.0000000e+000,0.0000000e+000,3.9095495e-002,-1.1921405e-002,1.4702172e-003,-1.5415960e-002,-6.3456271e-002,-1.8660404e-002,-2.5403867e-002,-1.2828570e-002,-6.5915207e-003,2.9159027e-002,4.3236411e-002,9.2809578e-003,5.2548898e-002,-1.0854812e-002,0.0000000e+000,0.0000000e+000,-1.6107711e-001,-9.1582388e-004,-1.2170578e-002,1.2679082e-001,-1.2700074e-001,-2.6587855e-002,-1.5679064e-002,-7.8463247e-002,5.1942320e-002,1.1174979e-001,7.0406819e-003,4.8813629e-002,-3.2101651e-002,-4.8393477e-002,0.0000000e+000,0.0000000e+000,7.4348562e-002,-2.8062091e-003,3.9151868e-003,-1.0696433e-003,-9.1472378e-002,6.2260782e-002,-5.8332673e-002,9.6866533e-002,1.2624755e-002,-5.7348492e-002,-1.5210521e-001,2.8984262e-004,-7.3363507e-002,3.9389483e-002,0.0000000e+000,0.0000000e+000,3.0186573e-002,8.9870934e-002,9.3300617e-002,-3.4507508e-002,-2.3183394e-003,2.0824253e-002,-6.6987003e-003,-1.0186325e-001,2.2044842e-002,6.0387568e-002,3.6160067e-002,1.4353696e-002,-1.1624132e-001,1.0692171e-001,0.0000000e+000,0.0000000e+000,8.0136338e-002,-2.8819108e-002,5.5642780e-002,-8.4654765e-002,-1.0142676e-001,3.7593752e-002,-1.6467912e-001,-5.0123801e-002,-9.8583304e-003,8.0827164e-002,-3.2635227e-002,1.4930590e-001,-7.1626855e-002,-3.7311014e-002,0.0000000e+000,0.0000000e+000,-8.4446128e-002,5.0197973e-002,-8.9600879e-002,1.0946130e-001,5.3270301e-002,-7.9574443e-002,3.1951542e-003,3.1520513e-002,-1.1798793e-002,7.9403555e-002,-2.1993841e-002,-2.2857966e-002,-1.4441649e-002,1.9781870e-003,0.0000000e+000,0.0000000e+000,-7.7067685e-002,2.5370855e-002,2.9894292e-002,-1.1431859e-001,-2.5890451e-003,7.2631466e-002,8.4008816e-002,1.1706462e-001,1.1788790e-001,-2.7818817e-002,-5.2204949e-002,-5.6516719e-002,9.0183682e-003,6.1156880e-003,0.0000000e+000,0.0000000e+000,-6.7326640e-002,1.8854074e-002,5.9973802e-002,-5.1343035e-002,-6.0397156e-002,4.9709015e-002,-1.3205251e-001,-2.1414930e-003,6.4316551e-002,-9.1246086e-002,3.0188632e-002,3.7389547e-002,-5.3909398e-002,3.1469682e-002,0.0000000e+000,0.0000000e+000,4.0693226e-002,-2.7911383e-002,
,333,-1.2424593e-001,-1.1382556e-001,9.6265269e-002,6.5736487e-002,4.8889336e-002,2.0019609e-001,-5.3495041e-002,-4.6169257e-002,-1.1055408e-001,-4.7549114e-002,-9.3683282e-002,4.0862836e-002,0.0000000e+000,0.0000000e+000,-1.7775787e-003,1.0511998e-001,-3.1757988e-002,-5.7258459e-002,1.4750273e-001,-1.2585176e-001,-2.7580063e-002,1.8867752e-002,2.7077104e-002,1.0411640e-003,6.2039497e-003,2.6299354e-002,2.2769529e-002,-4.3999433e-002,0.0000000e+000,0.0000000e+000,2.6891282e-002,1.8549872e-002,1.0694635e-002,3.7868603e-003,-7.5781908e-002,-5.6022583e-003,-6.6806952e-002,-5.7741734e-003,-4.1861048e-002,-5.3208017e-002,5.7342776e-003,2.6794051e-002,-7.2246257e-002,4.8846159e-003,0.0000000e+000,0.0000000e+000,-7.6408986e-002,-4.2502563e-002,-5.1219537e-002,3.7272178e-002,-4.5872447e-002,-9.6954810e-003,4.4774481e-002,-2.7749415e-002,5.3545463e-003,-1.0669007e-002,-3.6310281e-002,1.3295289e-002,-5.2029731e-002,1.6332529e-002,0.0000000e+000,0.0000000e+000,4.6518891e-002,1.2609923e-002,2.9558361e-002,-3.9150420e-002,-1.6639738e-002,6.4588278e-002,-1.4029093e-001,1.1708427e-001,-9.4521461e-002,6.0104919e-003,-1.6582008e-001,8.4470969e-002,-1.4886982e-002,1.2340184e-002,0.0000000e+000,0.0000000e+000,-7.3065595e-002,7.5064727e-002,3.0628070e-002,-7.8542876e-002,7.7423622e-002,-9.2979365e-002,-2.3212659e-003,6.6467495e-003,1.0404514e-001,8.7904734e-002,6.1348638e-003,3.7402901e-002,-1.9008191e-002,-8.2221785e-003,0.0000000e+000,0.0000000e+000,-7.2784672e-002,-5.0229704e-002,-1.1864614e-001,-2.1903045e-001,-1.3905965e-003,-5.5674131e-002,-6.6516977e-003,2.2212353e-001,2.0028982e-001,-2.2374277e-002,5.1007990e-002,-5.2064782e-002,-7.4602623e-002,-1.1721468e-002,0.0000000e+000,0.0000000e+000,-2.8117386e-002,2.8067924e-002,-3.7127480e-002,1.0633981e-001,-3.1948205e-002,-2.9484428e-002,-4.5331294e-002,-1.0024251e-001,-7.1691346e-002,8.5877257e-002,-1.6437190e-002,3.4037517e-002,-3.1628683e-002,5.1011249e-002,0.0000000e+000,0.0000000e+000,9.0592013e-002,-5.1427867e-002,2.4336031e-002,1.1408682e-002,-1.2730585e-001,1.0072739e-001,-9.0527595e-002,-1.8641524e-002,-4.6612724e-002,-7.7919124e-002,-6.5043749e-002,-1.1680968e-002,5.1284005e-002,1.2740542e-002,0.0000000e+000,0.0000000e+000,-4.8868556e-002,-3.6766755e-002,2.9672021e-002,1.5326455e-002,5.1145886e-002,1.4303401e-002,3.1328834e-002,3.2762250e-002,2.1669965e-002,-3.6315090e-002,-1.1907491e-001,3.9510054e-003,-4.9890049e-003,5.3115450e-002,0.0000000e+000,0.0000000e+000,-2.0865360e-002,1.0735012e-001,
,345,5.7483635e-003,-1.5657841e-001,7.9582727e-002,-9.3283293e-002,1.4455680e-001,7.6531017e-002,-2.1014187e-002,5.7110591e-002,-4.0830687e-002,8.4685369e-002,6.7706103e-002,-2.2720116e-002,0.0000000e+000,0.0000000e+000,-1.1364449e-001,9.9269043e-003,7.4875689e-003,1.4415432e-001,1.4665613e-002,-2.4306693e-002,-1.4755598e-001,1.5541797e-002,-2.1583560e-001,6.8121846e-002,7.3155056e-002,-2.8947968e-002,1.0192291e-001,3.0227103e-002,0.0000000e+000,0.0000000e+000,4.6222510e-002,-1.0764404e-001,-1.4363607e-002,-1.1326502e-001,-6.1986099e-002,-7.1719115e-002,-2.3203271e-002,-5.8416754e-002,8.9551811e-002,5.7608139e-002,-1.1200167e-001,1.1183912e-001,-1.8970895e-002,-3.9183062e-002,0.0000000e+000,0.0000000e+000,-1.3385274e-001,3.6242394e-002,-2.2734510e-002,-5.4644324e-002,8.9402195e-002,4.3131455e-002,4.6507062e-003,1.4335955e-001,-1.4633122e-001,7.3071305e-002,-1.0730993e-001,4.7154087e-002,-1.3196452e-001,6.3968476e-002,0.0000000e+000,0.0000000e+000,-2.3029777e-003,8.3123201e-002,2.3798091e-001,-2.1396250e-001,1.6272370e-001,8.3343316e-002,-8.5103913e-002,1.2866738e-001,-7.8799871e-002,-8.3994913e-002,1.3625266e-001,-1.8275699e-002,6.6842554e-003,3.5048578e-002,0.0000000e+000,0.0000000e+000,-1.0132459e-001,-7.3709731e-002,-2.1251955e-002,-6.5707374e-003,5.5092648e-002,-1.3094285e-002,2.5563849e-002,-5.1486048e-002,6.3329730e-002,4.9549134e-002,2.0323961e-002,-1.1584542e-002,-4.5384568e-003,2.9477368e-002,0.0000000e+000,0.0000000e+000,8.4915254e-002,-7.3078596e-002,4.8099745e-002,-4.5878637e-002,-1.2114329e-001,-3.3822305e-003,9.2704857e-002,3.8017947e-003,1.9180161e-002,2.3615239e-002,-1.1630770e-001,9.1156159e-002,2.2968301e-002,-2.3939241e-002,0.0000000e+000,0.0000000e+000,-1.1435646e-001,8.1552519e-002,-1.3150649e-001,7.9223836e-002,-1.3607916e-001,7.9970469e-002,4.9913699e-002,1.4468330e-002,6.8380990e-002,1.6706636e-001,-3.8723777e-002,-2.7833942e-002,-1.3224118e-001,-3.1303904e-002,0.0000000e+000,0.0000000e+000,4.7119384e-002,8.6833752e-002,-9.5520270e-002,-1.1157922e-001,-1.5078605e-002,2.3677006e-002,-1.8985105e-001,5.9878513e-002,6.5369772e-002,-7.3592950e-003,5.5335000e-002,-6.1629206e-002,-1.2672095e-001,1.0039899e-001,0.0000000e+000,0.0000000e+000,4.7927482e-002,-2.6652524e-002,8.3598763e-002,-6.8310524e-002,-5.1903700e-002,2.1681863e-002,7.0329926e-002,-7.0876647e-002,1.8817616e-002,2.4715619e-003,2.3363755e-002,4.1758709e-002,-1.2505499e-001,3.6877666e-002,0.0000000e+000,0.0000000e+000,-1.0757168e-001,-2.3299936e-002,
,357,1.2049841e-001,-8.9489409e-002,-1.3841542e-001,3.0009189e-002,-9.7812472e-002,1.1458061e-001,1.8817594e-001,-8.1206308e-002,2.7546145e-001,-2.6710539e-001,-1.1184596e-001,7.2921613e-002,0.0000000e+000,0.0000000e+000,1.0379037e-001,-1.6192725e-001,7.5580200e-002,-1.3074752e-001,6.1364197e-002,1.5936763e-001,-1.6326377e-001,2.4292544e-001,-2.0459626e-001,-2.9051401e-002,8.4471508e-002,-1.5477523e-001,8.2887431e-002,6.4494398e-002,0.0000000e+000,0.0000000e+000,3.1397870e-002,1.7175277e-002,-1.4398116e-002,-6.4953826e-002,-6.0339210e-002,-6.6786944e-002,-1.6008239e-001,1.0768728e-001,-5.6250050e-002,9.9023620e-002,1.6755010e-001,-1.8461542e-001,-3.5975729e-002,-1.0208680e-002,0.0000000e+000,0.0000000e+000,6.4883280e-002,-1.2580270e-002,1.2926203e-001,-5.3598373e-002,7.3093217e-002,-9.3705114e-002,-1.6027165e-001,1.3003095e-002,-3.9510035e-002,3.7742460e-002,3.9428117e-002,-6.3196646e-002,2.2734187e-002,7.2240426e-002,0.0000000e+000,0.0000000e+000,2.2298228e-002,-1.7541379e-002,-7.1931477e-002,-1.2246102e-001,-8.7846555e-002,-2.0693220e-002,5.8392841e-002,4.6976650e-002,1.1372875e-001,-7.2291438e-002,-5.9556951e-002,5.1866561e-002,5.2813688e-002,7.5526825e-003,0.0000000e+000,0.0000000e+000,-1.6888882e-001,4.8757566e-002,3.5781080e-002,-8.1955435e-002,3.4480619e-002,-2.4514917e-002,5.2441333e-002,2.2173532e-002,9.1877728e-002,-1.0022998e-002,-4.2966672e-002,5.9080069e-002,-4.6307825e-002,1.3315156e-001,0.0000000e+000,0.0000000e+000,-6.6997561e-003,1.0941158e-001,2.8827362e-002,-1.2628786e-002,2.8720716e-002,-2.1808156e-002,-2.4790556e-001,1.7869326e-001,-1.3356241e-001,4.8769927e-002,9.5248949e-002,-2.4548159e-002,-9.7751417e-002,5.3113832e-002,0.0000000e+000,0.0000000e+000,1.5871333e-001,-4.8689694e-002,-3.9424146e-002,1.9357449e-001,-1.3196398e-001,-6.5574654e-004,-3.3835228e-002,-8.7597278e-002,-4.6176165e-002,7.9303023e-002,9.2903650e-002,-1.0803732e-002,5.5636465e-002,-5.8759714e-002,0.0000000e+000,0.0000000e+000,6.8437522e-002,-1.2617198e-001,7.2593008e-002,-1.0941435e-001,-1.2023994e-002,-1.0338756e-001,1.1189158e-001,1.7110538e-001,-3.4313218e-002,7.8110509e-002,-5.2765408e-002,-4.2818667e-002,-2.4467434e-002,-1.2720499e-001,0.0000000e+000,0.0000000e+000,-4.1203478e-002,-5.4219543e-002,2.6585314e-002,9.7193970e-004,4.7777675e-002,8.7524782e-002,-8.6579151e-002,1.0130953e-001,-2.3314424e-002,4.1358045e-002,2.8489939e-002,-4.2386369e-002,-1.4991427e-001,1.0224972e-001,0.0000000e+000,0.0000000e+000,-5.7106418e-003,4.2080504e-002,
,369,-1.1332361e-002,8.6031180e-002,-1.8653659e-001,1.2296272e-001,-3.0551272e-002,2.6030802e-001,-7.2908291e-002,-1.6058352e-001,-2.0746319e-001,-4.5328314e-002,3.0632897e-002,9.4159012e-002,0.0000000e+000,0.0000000e+000,2.3349506e-002,8.4695440e-002,7.4682806e-002,-1.3515283e-001,1.9095329e-001,-1.1123148e-002,-1.5673208e-001,1.6132462e-001,-1.5446946e-001,-4.0760467e-002,1.4757080e-001,-8.4301598e-002,2.3101880e-001,-1.5350945e-001,0.0000000e+000,0.0000000e+000,-4.9257953e-002,-1.8838385e-002,4.4385474e-003,-1.4779718e-001,-6.1418028e-002,8.2498393e-002,-5.8849556e-002,9.2117330e-002,6.6724558e-002,-8.5001982e-002,-5.9949098e-002,2.6618513e-002,3.3735617e-002,6.7102557e-002,0.0000000e+000,0.0000000e+000,-7.1420675e-002,6.4640117e-002,-5.2033964e-003,8.6306358e-003,2.7023595e-002,-3.1285122e-002,6.6203788e-002,9.3320200e-002,-9.4269400e-002,-1.9120839e-002,-7.9702956e-002,-1.0272153e-001,2.0908642e-002,1.2762328e-001,0.0000000e+000,0.0000000e+000,-3.4230219e-002,1.4641284e-002,-3.7582382e-002,9.2535156e-002,1.2528904e-002,-3.4241672e-002,-7.5623799e-002,-3.0739324e-002,-3.9459832e-002,-3.8104545e-002,8.4345701e-002,9.8634232e-003,-3.8981953e-002,-2.7236539e-002,0.0000000e+000,0.0000000e+000,-9.2182092e-002,-1.5761803e-003,-6.0739325e-002,-2.4756027e-002,8.0467486e-002,1.2770785e-002,6.6492948e-002,-1.3533067e-002,-1.6458952e-002,2.3295463e-001,-3.1299827e-002,-1.0905543e-002,-2.7525883e-003,-2.1412880e-001,0.0000000e+000,0.0000000e+000,1.3344953e-002,1.3066121e-001,7.6551326e-003,-1.4349077e-001,-5.0194861e-002,-4.3296476e-002,5.4630041e-002,1.2666524e-002,1.3169412e-001,-1.1054793e-001,3.6121051e-002,-4.8824930e-002,-4.2590928e-002,8.9741067e-002,0.0000000e+000,0.0000000e+000,-3.0488576e-002,-4.3409681e-002,-1.9824912e-002,2.2798060e-002,5.5762608e-002,4.9456862e-002,2.7321646e-002,-6.6556889e-002,-7.3396459e-002,-5.1228989e-004,1.1921193e-002,4.8862002e-003,-7.9528994e-002,1.1947190e-001,0.0000000e+000,0.0000000e+000,2.4558848e-002,-6.6916946e-002,1.3024079e-001,-4.6523149e-002,-9.6864623e-002,6.6275715e-002,-9.7473749e-002,6.4736063e-002,-3.5477501e-002,1.8660179e-002,-7.3296369e-002,3.5403893e-002,-2.9288628e-002,-7.9068151e-002,0.0000000e+000,0.0000000e+000,6.9615434e-002,-9.1195855e-003,7.4542420e-003,3.8253908e-002,-1.0617718e-002,-8.8244373e-002,1.9261741e-002,-1.4022376e-002,9.1958622e-002,4.6296751e-002,2.9283424e-002,5.2635496e-002,-5.2304918e-002,-2.4278697e-002,0.0000000e+000,0.0000000e+000,-1.7483799e-004,2.5903536e-002,
,381,-2.6533799e-002,-1.3715398e-001,-4.7262788e-002,-1.1233206e-002,9.4518837e-002,-2.3073311e-002,1.8510957e-001,-1.1032994e-002,-9.6682424e-002,-2.3497608e-001,2.0415384e-002,-1.1272943e-001,0.0000000e+000,0.0000000e+000,5.0672077e-002,7.1926659e-002,-1.7763969e-001,1.1126484e-001,7.6707347e-002,-8.3789846e-003,2.9341895e-001,-1.9088979e-001,-7.4822635e-002,-6.0688530e-002,6.4889390e-003,6.8674354e-002,1.2040463e-001,-6.6118165e-002,0.0000000e+000,0.0000000e+000,-3.4975897e-002,3.3540126e-004,-1.0181788e-002,2.0365067e-002,-2.0587117e-002,6.4729228e-002,-1.4488836e-001,-7.1862603e-002,2.0587975e-002,-5.4918165e-002,-3.9403921e-002,2.0723167e-002,-7.5852009e-003,1.9632921e-002,0.0000000e+000,0.0000000e+000,-1.1702035e-001,9.9228869e-002,2.2340806e-002,-1.2245404e-002,-8.0112426e-003,-3.3934013e-002,6.0919933e-002,-7.4191039e-003,1.1498402e-001,-7.4962727e-002,-6.3999575e-002,1.5125599e-002,-8.4059266e-002,8.6224692e-002,0.0000000e+000,0.0000000e+000,3.8889163e-003,7.3993197e-002,1.0985195e-001,-1.6722538e-002,9.9960161e-003,6.8645739e-002,-4.1209429e-002,-8.1458267e-002,5.2747758e-002,-8.3243963e-002,-2.2194986e-002,1.8676859e-002,5.9690281e-003,4.4198300e-002,0.0000000e+000,0.0000000e+000,3.8279838e-004,6.3854000e-002,-4.5277941e-002,1.4956259e-001,1.6559592e-004,8.1751075e-002,-1.8798468e-002,9.6435606e-002,-1.6792226e-001,8.9239276e-002,3.9452603e-002,-1.7380293e-001,1.6313835e-001,-2.1532911e-002,0.0000000e+000,0.0000000e+000,-7.2041171e-002,1.2615283e-001,1.5931830e-002,-2.5562590e-001,-4.6692017e-002,-3.6873950e-002,-2.8422792e-002,3.2611711e-002,3.2286339e-002,3.6935027e-002,1.6973573e-002,-2.2738751e-002,-2.7132589e-002,-8.1731689e-002,0.0000000e+000,0.0000000e+000,-3.1348096e-002,8.0533302e-002,-2.3039242e-002,4.1501690e-002,-8.3589634e-002,-4.3390985e-002,-1.2997093e-003,-4.9891913e-003,1.4465927e-002,2.1320988e-002,2.1738229e-002,8.0157308e-002,-7.2605975e-002,1.4873883e-002,0.0000000e+000,0.0000000e+000,-2.8185388e-002,-6.2364576e-002,-1.2439002e-003,6.5827791e-002,2.5358383e-002,1.9622860e-002,-1.2672651e-001,9.3643511e-002,9.8430698e-002,-7.7379106e-002,-5.6743985e-002,4.2936729e-002,-4.8025237e-002,-2.3038791e-002,0.0000000e+000,0.0000000e+000,-3.2024194e-002,5.5446256e-003,6.3820412e-002,-1.1439962e-001,-2.3651543e-002,5.1592499e-002,7.4109884e-002,-4.7245355e-002,7.9191800e-002,-5.1470184e-002,1.5233590e-002,-1.0266438e-001,2.7034986e-002,4.5872526e-002,0.0000000e+000,0.0000000e+000,6.3249445e-002,1.1833484e-002,
,393,-2.2734203e-002,-3.1138211e-001,4.0777434e-002,-2.0657765e-001,-1.6568304e-001,3.2681018e-001,8.2604369e-002,1.9575277e-001,1.6745574e-001,-3.0362116e-001,1.0303134e-001,-1.7636661e-001,0.0000000e+000,0.0000000e+000,9.6665221e-003,1.1016077e-001,-7.0768563e-002,1.2664648e-001,-1.3476916e-001,1.5206118e-001,-1.3351626e-001,-2.8077307e-002,1.1531479e-001,-2.6659383e-001,6.2834900e-002,3.2389907e-002,-1.0870008e-001,2.7956121e-001,0.0000000e+000,0.0000000e+000,-2.6660000e-002,5.5932729e-002,-1.8169854e-002,1.9631012e-003,-2.0367696e-002,5.4174492e-002,7.9017538e-002,2.9854781e-002,-1.5841823e-002,-3.6993851e-002,9.0403448e-002,-8.5039847e-002,-9.3769011e-002,3.7805142e-002,0.0000000e+000,0.0000000e+000,-6.6903082e-002,2.5206108e-003,2.4302270e-002,-5.8258763e-002,8.9143789e-002,-1.2351902e-002,-3.7113862e-002,3.3308214e-002,3.6595626e-003,-7.8386003e-003,4.9547595e-002,1.6752794e-002,1.0827820e-002,-8.1068817e-002,0.0000000e+000,0.0000000e+000,4.5678880e-002,6.8978624e-002,-1.1741145e-002,-7.3975015e-002,-1.0512022e-001,9.4635564e-002,-6.6347237e-002,1.3657736e-001,3.6008814e-002,-5.8768012e-002,-8.2223544e-002,3.7473473e-002,7.7068104e-002,-1.1346004e-001,0.0000000e+000,0.0000000e+000,-6.5135346e-002,-6.9545453e-003,7.7405173e-002,8.4377703e-003,-2.0251393e-002,-5.2372081e-002,7.0108383e-002,-1.4843937e-001,-2.3361661e-002,1.0563760e-001,-1.2630064e-001,1.1107389e-001,1.1867842e-002,4.1126115e-002,0.0000000e+000,0.0000000e+000,2.6228144e-003,6.8319163e-002,-5.9184322e-002,-1.3995158e-001,1.5468470e-002,-7.1299792e-002,-2.1679805e-002,1.1730554e-001,-6.3407388e-002,1.4050981e-001,9.6135018e-003,1.1206285e-001,-1.7517044e-001,1.2562823e-002,0.0000000e+000,0.0000000e+000,2.0731091e-002,-1.0938168e-002,-1.4976948e-002,1.0222838e-001,-5.4754602e-002,-3.6109706e-002,4.8508144e-002,-1.4615560e-001,8.1830304e-002,3.9268928e-002,-5.8119080e-002,-4.7121752e-002,-1.1660101e-001,1.8663598e-002,0.0000000e+000,0.0000000e+000,5.7283942e-003,-1.6985209e-001,1.8751028e-001,-3.0813364e-002,-7.4691830e-002,8.2010675e-002,-4.9461570e-002,6.2188466e-003,-3.4338044e-002,-1.2653625e-001,-3.1128199e-002,3.3342618e-002,2.0169885e-001,1.0409325e-001,0.0000000e+000,0.0000000e+000,-6.7538528e-002,-1.5325341e-002,7.8346470e-002,-2.3054576e-002,3.3809971e-003,-1.4397268e-002,-6.0910701e-002,-9.6462379e-002,5.3795706e-002,7.5134644e-002,-3.6293527e-002,-3.0847485e-002,-6.4686748e-002,6.8031756e-002,0.0000000e+000,0.0000000e+000,3.3452360e-002,1.0005706e-001,
,405,-8.6051114e-002,-1.6114923e-002,-2.0923973e-002,1.1033538e-001,1.0854110e-001,2.2455043e-001,-1.5306409e-001,-7.4130360e-002,-2.0667289e-001,-7.2849257e-002,1.5365529e-001,3.4830094e-002,0.0000000e+000,0.0000000e+000,-1.4950618e-001,1.3351848e-001,8.2280024e-002,7.2629092e-003,9.2006578e-002,-1.3937110e-001,-1.1573041e-002,-1.0225361e-001,-2.2404350e-002,7.4292663e-002,1.2894724e-001,1.0919672e-001,-9.8858697e-002,5.7087546e-002,0.0000000e+000,0.0000000e+000,5.7263796e-002,-1.1045023e-001,8.3875950e-002,-5.2736562e-002,-3.3879730e-002,7.2068498e-002,-5.8013600e-002,3.3384330e-003,3.4610933e-002,2.5817121e-002,1.2094459e-002,-1.5119207e-001,5.1792174e-002,-4.3815880e-002,0.0000000e+000,0.0000000e+000,-8.8368693e-002,8.7353376e-002,-1.3215917e-001,1.0489271e-001,-9.8386489e-002,3.3525930e-002,1.4237147e-001,6.1729975e-003,-5.5033382e-002,1.7124500e-002,1.2499584e-003,1.9752202e-002,-1.0751159e-002,5.4899212e-003,0.0000000e+000,0.0000000e+000,8.4390528e-002,-8.7718248e-002,1.1580955e-001,-1.1260037e-001,-8.6307618e-002,-3.6124351e-002,-1.1669111e-001,-2.1546958e-002,1.5213965e-001,2.1374771e-003,1.6580871e-002,5.8129476e-003,-3.8191912e-002,1.6891530e-001,0.0000000e+000,0.0000000e+000,-5.0282058e-002,-6.9610304e-002,1.7506655e-001,-1.4433589e-002,-9.9162193e-003,-4.9168995e-002,-3.0870117e-002,-1.2023844e-001,1.0669068e-001,2.2944317e-002,-2.6434690e-002,3.5535837e-002,-5.1959953e-002,7.3946196e-002,0.0000000e+000,0.0000000e+000,2.8767201e-002,-3.4247223e-002,-1.5089197e-001,-5.6533988e-002,-4.1430535e-002,7.5244492e-004,1.8152990e-002,-4.4295829e-002,-7.2348990e-002,-4.1972538e-002,1.7342798e-001,-7.6181359e-002,6.9781224e-002,-9.9193186e-002,0.0000000e+000,0.0000000e+000,2.1834297e-002,8.8771686e-002,5.8812696e-002,-2.9749848e-002,-5.4568672e-002,1.5776231e-002,-1.2438237e-001,2.0405234e-002,-4.5762752e-002,1.6845372e-001,-4.0190652e-002,2.3337888e-001,-2.6254522e-003,-4.7417583e-002,0.0000000e+000,0.0000000e+000,-4.6880535e-003,-9.1209892e-002,7.5857318e-002,-1.1910722e-001,7.3862442e-002,2.0604730e-003,-8.9248745e-003,7.0242889e-002,1.8075347e-001,3.7345665e-002,-9.9457383e-003,-3.4278002e-002,-3.9638047e-002,-1.2053876e-001,0.0000000e+000,0.0000000e+000,5.9855485e-002,-1.3683752e-002,-1.2777450e-002,-6.1129983e-002,1.3013153e-001,7.5399639e-002,2.3304365e-002,3.2704885e-002,2.6797737e-002,-8.3184370e-002,1.5259826e-001,-1.8714780e-001,-9.1379479e-004,6.1785876e-002,0.0000000e+000,0.0000000e+000,-6.4794570e-002,-2.9094981e-002,
,417,1.4183761e-001,-5.0156211e-002,-4.4784850e-003,1.2038325e-001,-1.3633321e-001,-2.8913983e-001,2.1796856e-001,-8.4330025e-002,3.4661940e-002,2.0372722e-001,7.4763716e-002,-8.8228686e-002,0.0000000e+000,0.0000000e+000,-2.2556305e-001,9.1772375e-002,-1.5164127e-002,-1.5636424e-001,-2.7184728e-002,5.4190047e-002,7.6827617e-002,1.7447819e-001,9.2349672e-002,-4.7241713e-002,6.6696185e-002,-1.7639340e-001,-6.2104516e-002,3.6105863e-002,0.0000000e+000,0.0000000e+000,1.5514785e-001,-1.0198963e-001,2.7044762e-002,-1.4863873e-001,3.5316964e-002,-1.3390959e-001,6.9118635e-002,4.1854053e-002,-2.4241888e-002,9.9003457e-002,-3.2936396e-002,-1.3290687e-001,-2.7230992e-002,-6.5937765e-002,0.0000000e+000,0.0000000e+000,2.4950987e-002,4.4897506e-003,6.8313548e-002,-1.1899735e-001,8.5813584e-002,5.0173775e-002,8.4089902e-002,-8.8420651e-002,3.4437089e-002,3.1296733e-002,-1.2446015e-001,9.6936825e-002,1.6933734e-002,1.9349889e-002,0.0000000e+000,0.0000000e+000,-4.4517174e-002,1.8017319e-002,4.2668776e-002,3.5705859e-002,-4.4039895e-002,4.6335272e-002,-1.1735070e-001,-7.2585809e-002,1.6307696e-002,3.3060488e-002,7.1707654e-002,-7.9767866e-002,-3.7300420e-002,-1.2850475e-002,0.0000000e+000,0.0000000e+000,2.5712142e-002,1.1720906e-001,2.1234459e-002,1.0847985e-001,1.9659571e-002,-9.2835358e-002,-1.8531666e-003,-9.5516301e-002,2.7525326e-002,6.5803316e-002,1.6822972e-001,2.9707064e-002,3.9995002e-003,-3.0757555e-002,0.0000000e+000,0.0000000e+000,-1.1008624e-002,7.5698136e-002,-8.2998810e-002,-2.2329429e-001,-2.4892971e-002,-3.5422312e-002,-7.7956300e-002,2.9331779e-001,9.2443215e-002,-5.4880858e-002,8.6573418e-002,-4.6135204e-002,-1.0981791e-001,5.8230392e-002,0.0000000e+000,0.0000000e+000,-1.2087676e-001,-1.3450665e-001,-1.4870542e-001,4.9710941e-002,-1.9703421e-002,8.3579594e-002,-5.5271437e-003,5.7498147e-002,1.0061094e-001,-8.1808930e-002,-9.6500498e-002,2.2476967e-002,-2.6120183e-003,1.3033112e-001,0.0000000e+000,0.0000000e+000,-9.7941844e-002,-9.6445465e-002,8.7627235e-002,2.0946028e-002,-2.1097362e-001,-2.0695055e-002,5.4803458e-002,1.0565235e-002,1.4033741e-001,-3.7216687e-002,7.0385741e-002,-1.1011181e-001,5.5439345e-002,-8.7372692e-002,0.0000000e+000,0.0000000e+000,4.0646709e-002,1.6282855e-002,1.1550201e-001,-6.2140934e-002,4.6120736e-002,1.8099943e-002,3.5424886e-002,8.1227391e-002,-1.0362783e-001,5.2315645e-002,-2.6983211e-002,-2.3952197e-002,2.5997359e-003,-7.3454681e-003,0.0000000e+000,0.0000000e+000,1.1190970e-002,3.1692567e-002,
,429,-2.9750827e-002,-2.5478874e-001,1.5577355e-001,1.6310698e-001,-6.1668222e-002,4.1918026e-001,-3.1341253e-001,-1.1953329e-001,9.3476050e-002,-1.2256558e-001,1.6780633e-001,-3.5877573e-002,0.0000000e+000,0.0000000e+000,-9.7805177e-002,-1.9270475e-002,1.2927620e-001,-1.4706207e-001,5.5958445e-002,5.2119097e-002,-2.5499915e-001,1.9134155e-001,-1.0113660e-001,-1.3404640e-002,1.0375588e-001,-3.9687957e-002,1.9114456e-001,9.0102684e-003,0.0000000e+000,0.0000000e+000,-2.1302195e-001,2.0970629e-002,-3.5415537e-002,1.7642729e-001,-1.2139638e-001,2.9790432e-002,-8.6687498e-002,6.1003471e-002,-5.4961794e-004,1.6974898e-002,-1.5709153e-001,7.4697344e-002,-5.6705618e-002,-9.8687884e-003,0.0000000e+000,0.0000000e+000,-5.5372973e-002,-7.9971738e-003,-3.5701155e-002,-6.8181674e-002,4.6900957e-002,1.2247476e-001,-1.8908209e-002,1.1519770e-001,-2.8298332e-002,-1.6243067e-002,1.0096920e-001,1.2105549e-001,-1.8028157e-001,1.5782158e-001,0.0000000e+000,0.0000000e+000,-2.5236671e-002,-8.2782549e-002,-1.0886405e-002,4.8266378e-002,5.0674269e-002,-4.1214653e-002,-9.2283140e-002,-1.0966886e-001,6.8729819e-002,-2.6660377e-002,1.7750228e-001,1.3759648e-001,8.9554686e-002,8.8877266e-003,0.0000000e+000,0.0000000e+000,-1.3447061e-001,-3.5710793e-002,4.7032510e-002,1.0353919e-001,-1.5662538e-001,-4.5503712e-002,-3.4403408e-002,-1.6315902e-001,1.2527941e-001,-4.2134040e-002,-7.7348278e-002,7.0087108e-002,-1.1581976e-001,4.0980993e-002,0.0000000e+000,0.0000000e+000,7.0200380e-002,2.0569340e-002,1.9053012e-002,-3.3633491e-001,-7.3306080e-002,-5.5605797e-002,1.0620863e-001,1.9772851e-001,-2.0723462e-003,7.4171970e-002,-1.9052906e-001,1.7897154e-002,-1.0654461e-002,-4.7932395e-002,0.0000000e+000,0.0000000e+000,-5.6789636e-002,9.0697954e-002,-2.0637980e-001,2.0202551e-001,1.6015837e-001,1.2248537e-001,2.0966060e-001,9.0770485e-003,-1.3503002e-001,1.9880735e-001,-1.0136361e-001,-4.9976565e-002,4.4607833e-002,1.5123885e-002,0.0000000e+000,0.0000000e+000,2.8309788e-003,4.9258309e-002,4.6359471e-002,2.1426751e-001,-1.1534095e-001,1.3757874e-001,-1.3511368e-001,-9.0796873e-002,4.1067446e-002,-1.3761014e-001,-3.7371714e-002,2.3055560e-004,9.4119918e-002,9.0891845e-002,0.0000000e+000,0.0000000e+000,-3.7846197e-002,-8.0040001e-002,3.5396300e-002,-1.0045083e-001,-1.2420581e-001,2.2556411e-002,-4.6931336e-002,9.6119034e-002,5.5827356e-002,-2.9928615e-002,-7.3686462e-002,-6.8887760e-002,-2.9911129e-002,4.8679015e-002,0.0000000e+000,0.0000000e+000,8.7693585e-002,3.6935246e-003,
,441,-8.2480715e-002,-1.7180432e-001,-2.6032525e-004,-2.0052556e-001,-6.6922237e-002,2.9501261e-001,-8.5583222e-002,1.6343712e-001,8.0411788e-002,-2.4879809e-001,1.0680348e-001,1.4642460e-002,0.0000000e+000,0.0000000e+000,-6.2881288e-003,8.1883983e-002,2.3432467e-001,-1.2281733e-001,9.9880449e-002,-1.0709760e-001,-1.2252599e-001,-2.2450219e-002,-8.9890981e-002,4.8609662e-002,1.2268767e-001,3.3462781e-002,1.1413757e-001,2.9205407e-002,0.0000000e+000,0.0000000e+000,-5.1042910e-002,-1.5604131e-001,-1.8765762e-002,-1.3921521e-001,-9.2219051e-002,4.7426171e-002,-3.2048381e-002,8.7063900e-002,-3.1930238e-002,-3.2370129e-002,5.7529191e-002,-3.1282975e-002,1.6467621e-001,-7.5826163e-002,0.0000000e+000,0.0000000e+000,-1.3139655e-001,1.1661185e-002,2.4573878e-002,1.9327965e-001,-1.2930908e-001,8.7891901e-002,-1.0133016e-001,-4.0444483e-002,5.6638022e-002,1.9181763e-002,6.2359927e-002,1.5301462e-001,-2.2756945e-001,9.1418596e-002,0.0000000e+000,0.0000000e+000,8.7031157e-002,-1.2575352e-001,-1.0766154e-002,-1.5329194e-001,2.7840258e-002,-6.7791526e-002,3.5375940e-002,2.1181449e-001,3.0054535e-002,9.5959160e-002,2.1153668e-003,-8.4092452e-002,-1.6059981e-001,8.0469696e-003,0.0000000e+000,0.0000000e+000,-6.1504709e-002,-6.6336060e-002,-7.6232611e-003,6.8056050e-002,-3.2429110e-002,1.0684476e-001,3.4185159e-002,-1.2107175e-001,-5.3595624e-002,5.8103177e-002,3.8189479e-002,-5.9158514e-002,3.0701443e-003,7.2939780e-002,0.0000000e+000,0.0000000e+000,-2.6487617e-003,1.4546850e-002,-6.7668928e-002,-7.5630013e-002,-1.7281434e-001,4.5710909e-002,5.6623286e-002,-5.0783335e-002,2.5322965e-002,3.4197748e-002,1.5388758e-003,7.4821931e-002,7.9533578e-002,-1.0116717e-001,0.0000000e+000,0.0000000e+000,-6.2228589e-003,-4.3978205e-002,1.6393381e-001,3.4823226e-002,1.3553769e-001,-7.4443828e-002,-1.6718884e-001,-8.2654505e-002,1.1581029e-001,-7.4763454e-002,5.9593082e-003,2.0433864e-001,-9.0656387e-002,9.0685732e-002,0.0000000e+000,0.0000000e+000,-5.5969375e-002,-8.6244779e-002,1.5241174e-001,-1.1515784e-001,6.4208496e-002,2.3421277e-002,-1.4773774e-001,1.0529384e-001,9.2105087e-002,-1.4224394e-001,-2.5036999e-002,-4.5356547e-002,2.9573920e-002,1.1390474e-001,0.0000000e+000,0.0000000e+000,2.0526191e-003,7.1299805e-002,1.4185178e-002,2.0753429e-002,-1.0690070e-001,8.6222217e-002,9.2330702e-002,4.0055057e-002,-5.2848797e-002,4.7840985e-002,3.8343928e-002,-1.6152086e-001,2.4369982e-002,-7.3511377e-003,0.0000000e+000,0.0000000e+000,-1.1992294e-001,8.5763974e-002,
,453,-1.1969285e-001,9.0253739e-002,-1.2205990e-001,9.8658768e-002,1.8372210e-001,5.3047161e-002,8.3115193e-002,-1.0894778e-001,-2.3447815e-002,-1.6555922e-001,2.7056429e-003,4.9465240e-002,0.0000000e+000,0.0000000e+000,8.8712225e-002,-1.0063997e-001,-1.3098424e-001,1.1185380e-002,-1.0456095e-001,1.5963524e-001,3.1395278e-001,-1.9961613e-001,1.1968406e-001,-9.4788490e-002,6.2136654e-002,4.6068244e-002,-1.1608227e-001,-3.2053983e-002,0.0000000e+000,0.0000000e+000,5.0007537e-002,-3.7925004e-002,1.4838686e-001,-9.5891526e-002,-2.0352312e-002,-8.5629284e-002,-2.8467827e-001,9.9251827e-002,-6.1847312e-003,5.8031378e-002,4.5503170e-002,-5.6318209e-002,7.6914590e-002,-8.6916136e-002,0.0000000e+000,0.0000000e+000,-1.3517271e-001,6.2590889e-002,-6.7158359e-002,7.2696450e-002,-1.1302336e-001,7.2635025e-002,1.5872073e-001,-9.2615964e-002,1.3341912e-001,-1.7225732e-001,-4.0435654e-002,1.1086872e-001,-6.2653436e-002,7.4860262e-002,0.0000000e+000,0.0000000e+000,3.9985678e-002,-2.0848957e-002,-1.1313452e-001,1.3826383e-002,-1.3203950e-001,8.3241093e-002,1.5079270e-001,-6.3390526e-002,1.1742958e-001,-1.1788823e-001,-8.7629848e-002,1.7082150e-002,-8.5667376e-002,1.1005987e-001,0.0000000e+000,0.0000000e+000,9.7022447e-005,1.7986043e-002,-1.2106325e-001,6.3086134e-002,-7.3776414e-002,1.9326284e-002,4.8922162e-002,-6.1252013e-003,2.2685373e-001,-1.2834003e-001,-1.3812314e-001,3.9466274e-002,-1.2687752e-001,1.2161186e-001,0.0000000e+000,0.0000000e+000,8.9628674e-002,3.5256137e-002,9.3164761e-002,-1.3756596e-002,7.4856869e-002,-1.4614431e-001,-1.2218830e-001,2.2191434e-001,7.7180514e-002,1.2932244e-001,7.1116229e-002,-8.4652135e-002,-8.4002946e-002,-6.1000321e-002,0.0000000e+000,0.0000000e+000,-3.7206488e-002,-6.0334238e-002,-1.7004574e-001,-7.5484114e-002,2.3434158e-001,-2.5509110e-002,1.3415665e-001,1.7715172e-001,-1.1875648e-001,2.1371445e-001,1.0907400e-001,-2.2984466e-002,6.3244197e-002,-2.9381781e-002,0.0000000e+000,0.0000000e+000,-8.4752172e-002,3.5694270e-002,1.1437756e-001,-1.0409753e-001,-1.4347830e-001,4.9252418e-002,2.2507164e-002,-2.1606901e-002,1.3547542e-001,-1.1792344e-001,2.8553300e-002,-4.7169145e-002,-8.3467309e-002,6.3640436e-002,0.0000000e+000,0.0000000e+000,3.5468018e-002,-7.5052080e-002,1.1501374e-001,8.8874862e-004,-1.4042172e-001,7.9328557e-002,2.8317141e-002,-1.4787321e-001,1.5415637e-001,-1.1018644e-001,5.2377549e-002,3.4120378e-002,-2.3944126e-002,-4.8597597e-002,0.0000000e+000,0.0000000e+000,4.4519921e-002,-1.7726823e-001,
,465,5.0100247e-002,-6.3353699e-002,-1.1820169e-001,1.2564359e-001,-8.2169405e-002,2.0485293e-001,2.4056063e-001,-8.0356244e-002,2.8556684e-001,-3.9459908e-001,-9.4429334e-002,3.0649740e-002,0.0000000e+000,0.0000000e+000,-9.8114003e-003,3.4337889e-003,-9.5159577e-002,2.1924291e-001,4.5306046e-002,1.4674393e-001,1.6569807e-001,-3.5118194e-001,-1.1057018e-001,-1.6378433e-001,-1.8974500e-001,3.8372638e-001,7.5319349e-002,1.5878690e-001,0.0000000e+000,0.0000000e+000,-1.5275896e-001,1.1533359e-002,1.2984079e-002,-1.5628558e-001,-8.1604209e-002,-1.0728862e-003,-9.2568129e-002,9.7164837e-002,1.9926270e-002,1.8437988e-003,-7.6420965e-002,-4.4460470e-004,3.5937453e-002,7.6676588e-003,0.0000000e+000,0.0000000e+000,-7.9667929e-002,1.3605698e-001,-2.1318545e-002,-1.2428161e-002,-4.4577578e-002,-9.6095808e-002,9.5937955e-002,-2.7567848e-002,1.5959492e-002,8.4342359e-002,-2.7940213e-003,-1.9627403e-002,-3.2532315e-002,-1.2132863e-001,0.0000000e+000,0.0000000e+000,4.5707575e-002,5.2589424e-003,-1.8483862e-002,2.2376981e-002,1.7671596e-002,6.4827767e-003,-9.4854425e-002,-4.6867092e-002,7.7565713e-002,-2.5558447e-002,5.3187017e-002,-2.7870822e-002,-5.9400643e-002,-9.2279008e-003,0.0000000e+000,0.0000000e+000,-6.9118822e-002,-2.6670616e-002,2.2252974e-002,-3.1144511e-002,4.9986279e-002,7.0049530e-002,-3.7989967e-002,-6.0459321e-002,-1.2828519e-001,-1.0507532e-003,5.1511479e-002,6.6649130e-002,-5.7848585e-002,1.0973747e-001,0.0000000e+000,0.0000000e+000,-8.4246665e-002,-3.2892498e-002,-9.2863173e-002,-2.5424091e-002,1.1020441e-001,-8.3180519e-002,2.5069541e-002,3.6774000e-002,-1.4949261e-001,-2.0478010e-002,1.0752694e-001,8.1635032e-003,2.6403536e-002,8.1705033e-002,0.0000000e+000,0.0000000e+000,5.4741289e-002,-3.8801515e-002,-4.1681115e-002,1.4283590e-001,-7.7130944e-002,1.3410442e-001,5.5231588e-002,-5.5911336e-002,1.7833204e-001,-6.9732254e-002,-7.5672436e-002,-1.7938574e-002,-6.6930452e-002,-5.2114205e-003,0.0000000e+000,0.0000000e+000,4.8264687e-002,-3.3461120e-002,-3.7128023e-002,-4.5085254e-002,-4.1227266e-002,3.6814882e-002,-5.7885640e-002,3.0948793e-002,1.3473290e-001,2.0576340e-002,-2.9259890e-002,1.1232461e-001,-4.8657700e-002,-4.0961337e-002,0.0000000e+000,0.0000000e+000,-1.4653528e-001,-5.0745478e-002,-3.7740364e-002,-1.2938845e-001,7.1053596e-002,3.3559950e-002,1.3561652e-002,1.0256882e-001,-1.2304503e-001,3.6048483e-002,3.8371461e-002,-4.6353946e-002,-5.4737376e-003,2.4367604e-001,0.0000000e+000,0.0000000e+000,-2.3922247e-002,2.3339694e-002,
,477,9.8598815e-002,-7.2294593e-002,8.7724856e-002,-5.2882895e-002,8.5114696e-002,-5.1171027e-002,6.5861143e-002,1.9965408e-001,-2.5877979e-001,1.6937773e-002,-1.8283404e-002,-1.0445756e-001,0.0000000e+000,0.0000000e+000,1.5729167e-001,3.4300024e-002,3.5602476e-002,5.1621780e-002,8.5828518e-002,-5.1841774e-002,1.3962718e-002,-1.0226628e-001,8.2803204e-002,-1.2082035e-001,-1.0067642e-002,5.5952526e-002,-1.3351412e-001,1.5141384e-001,0.0000000e+000,0.0000000e+000,-1.2917688e-002,-4.9765977e-002,5.0644965e-002,-5.6944586e-002,-6.3208504e-003,-1.3142859e-001,7.3382327e-003,-2.5338881e-002,1.8298298e-002,4.2061511e-002,-2.4097755e-001,1.3512231e-001,1.3970370e-002,1.4963824e-002,0.0000000e+000,0.0000000e+000,-5.1275332e-002,6.7203122e-002,-7.0332093e-002,-3.3090869e-002,1.4956573e-002,3.0175165e-002,2.3649847e-002,1.2613434e-001,-1.4128861e-001,9.3281944e-002,-1.1149378e-002,-9.4060210e-002,2.7018649e-002,-1.3497886e-001,0.0000000e+000,0.0000000e+000,5.8795121e-002,5.3173346e-002,8.5193031e-003,-6.5153733e-002,-1.2625535e-001,1.4123587e-001,1.0400826e-004,1.6610422e-002,1.4286225e-001,-3.2721088e-002,2.5103378e-002,9.2206564e-002,-7.5691532e-002,7.6547694e-002,0.0000000e+000,0.0000000e+000,-7.1191979e-002,-6.4492140e-002,5.3210336e-002,-7.4524266e-002,2.0038654e-002,-2.1497195e-002,-1.4678298e-001,-9.2351852e-003,-1.0787021e-002,1.6294425e-001,-2.2396597e-002,-6.1644397e-002,-5.6937201e-002,-1.5246641e-003,0.0000000e+000,0.0000000e+000,4.6172275e-002,5.6775244e-002,3.0184169e-003,-1.7444105e-001,1.0243077e-001,-9.3089960e-002,-8.0995744e-002,1.1507305e-001,5.5799415e-002,-1.5960727e-002,2.0103369e-003,-9.8819955e-003,-3.0957285e-002,-2.7868947e-002,0.0000000e+000,0.0000000e+000,3.0117709e-002,-6.7540911e-002,4.7911082e-002,-1.7936155e-002,-2.4510353e-001,1.3863705e-001,-5.1506939e-002,5.2204876e-002,6.5302438e-002,7.5974735e-002,7.9323934e-002,-1.2837536e-001,-3.6113328e-002,1.1285778e-001,0.0000000e+000,0.0000000e+000,3.3095809e-002,-1.0787048e-001,-3.4609063e-002,-1.1817297e-001,-1.3458267e-001,6.4182711e-002,8.2383734e-002,-2.6786349e-002,1.3150876e-001,-4.4230088e-002,-3.6688885e-002,2.6110817e-002,-3.5670996e-002,1.2103217e-001,0.0000000e+000,0.0000000e+000,-5.6164146e-002,9.6903386e-002,-7.6156849e-003,1.6266926e-001,9.3215683e-002,-2.1840218e-002,1.1520621e-001,-1.0311723e-001,-8.0797134e-002,1.1515634e-001,1.1908466e-002,1.0110020e-001,2.1695838e-002,-1.7621439e-001,0.0000000e+000,0.0000000e+000,1.3323572e-002,4.6854596e-002,
,489,8.3666506e-002,4.6674002e-002,7.8703171e-002,1.0235369e-001,2.3397651e-002,-7.9929910e-002,-2.7880192e-002,-1.9550074e-001,-1.7563807e-001,1.4668390e-001,-1.3045276e-001,-2.1411800e-002,0.0000000e+000,0.0000000e+000,4.3210356e-002,4.7095601e-002,2.1992024e-001,6.3665358e-002,1.1618652e-001,-1.8031735e-001,-1.9480206e-001,-9.9211897e-002,1.1414168e-001,3.0938579e-002,8.1548116e-002,9.7693827e-002,-8.9395214e-002,1.0199616e-001,0.0000000e+000,0.0000000e+000,1.2793048e-002,-1.6918939e-001,-1.0370113e-002,-1.2859171e-001,-3.8056277e-002,-9.4124446e-002,-1.0972410e-001,3.1716801e-003,1.0103027e-002,9.1316911e-003,2.8435429e-002,-1.2499126e-002,4.1036087e-002,5.6215262e-002,0.0000000e+000,0.0000000e+000,-1.7878908e-001,6.5444574e-002,4.5841038e-002,-1.5570611e-001,1.0814658e-001,-7.6377998e-002,-7.7027972e-002,1.3477754e-001,-3.2069035e-003,1.0922684e-001,1.0059693e-001,-1.1698423e-001,-1.8178482e-002,6.5540371e-002,0.0000000e+000,0.0000000e+000,-9.6639888e-002,-1.4290064e-001,6.9862692e-002,-1.0652251e-001,-5.3381888e-002,1.1461489e-001,4.6470060e-002,-1.2316591e-001,7.5189132e-002,-1.1049336e-001,4.0245237e-002,4.5075314e-002,-8.6630057e-002,7.8651230e-002,0.0000000e+000,0.0000000e+000,-1.9532702e-002,-4.3216266e-002,2.8940158e-002,-1.0796516e-002,1.5709892e-002,1.5685262e-002,6.9260268e-002,5.0861640e-002,-3.0542771e-002,-7.8935650e-002,-1.0983307e-001,-8.8698591e-002,1.3377669e-001,1.5278649e-001,0.0000000e+000,0.0000000e+000,-3.4866317e-002,8.5568355e-002,-1.0537296e-002,2.0527877e-001,-8.0317489e-002,1.1999932e-001,1.2603488e-002,-1.0221997e-001,1.0018691e-001,-1.4050925e-001,-4.4906043e-002,7.6440474e-002,-3.3258650e-002,1.0919710e-002,0.0000000e+000,0.0000000e+000,3.0938371e-002,5.9820205e-002,9.9273982e-003,-7.0642679e-002,4.1812149e-002,1.7475200e-001,1.4368295e-001,-2.5750254e-002,-1.1687538e-001,-7.7732126e-002,-1.0600559e-001,1.9298568e-001,1.1472178e-001,-1.8770799e-001,0.0000000e+000,0.0000000e+000,-6.5328207e-002,1.6318588e-002,4.4316128e-003,-1.8296750e-001,1.1742905e-001,-6.4978940e-002,-2.1248362e-001,-6.2299122e-003,-4.2005874e-002,1.0726348e-001,1.7812698e-002,-3.0197683e-003,5.8513968e-002,-1.8707540e-002,0.0000000e+000,0.0000000e+000,-1.2475859e-001,2.8545253e-002,-4.9333010e-003,7.2757791e-002,3.2325676e-002,-1.1939609e-002,-5.8377904e-002,3.4987953e-002,-1.1197415e-002,8.0998544e-002,4.8291457e-002,-1.6059105e-002,-1.6827606e-002,1.8239169e-001,0.0000000e+000,0.0000000e+000,-1.2727701e-001,-7.6052827e-002,
,501,-1.1963961e-001,-2.3023190e-002,9.9577029e-002,-4.0217230e-002,1.0560132e-001,1.7964172e-001,-1.9356228e-001,4.5526095e-002,-2.9565458e-001,1.0602100e-001,3.3732138e-002,-8.7191670e-003,0.0000000e+000,0.0000000e+000,-5.7355464e-002,1.2052151e-001,-4.0674415e-002,2.1753239e-003,6.9275854e-002,-6.5735854e-002,-2.2812274e-002,2.1128373e-001,-2.0838764e-002,-2.7826469e-002,-8.9330550e-002,-2.5481610e-002,1.3607526e-002,5.9233480e-002,0.0000000e+000,0.0000000e+000,2.3688924e-002,-3.6163863e-002,4.4355841e-002,-1.1106362e-001,-2.2751656e-002,-1.2558645e-003,-1.0268785e-002,5.9395664e-002,1.1828527e-002,3.2346880e-002,1.0800968e-001,-8.4874818e-002,-1.8532204e-002,-9.6191945e-002,0.0000000e+000,0.0000000e+000,3.1276870e-002,-1.2074041e-001,-1.4730236e-002,-2.3362610e-002,-2.2601715e-003,2.4126098e-002,-1.1835524e-002,6.2059194e-002,-7.6718776e-003,-2.6651280e-002,1.1316547e-003,-8.8264158e-002,1.7762680e-003,9.3284491e-002,0.0000000e+000,0.0000000e+000,3.2086889e-002,2.7659526e-002,5.5838450e-002,-2.3642537e-001,-3.8058111e-002,4.5967479e-002,8.5496468e-002,9.2095582e-002,6.9896375e-002,-7.6254796e-002,-1.0266579e-001,-7.3075038e-002,-3.0117698e-002,8.9256392e-002,0.0000000e+000,0.0000000e+000,-2.2843243e-002,9.6363711e-002,-1.3639394e-002,9.1511647e-002,-6.0173349e-002,-9.4319953e-002,1.5004857e-001,-1.1156647e-001,-6.6048347e-002,1.4154508e-001,-8.7487028e-002,9.5568636e-002,5.2542411e-002,-2.3762938e-002,0.0000000e+000,0.0000000e+000,5.6307015e-002,-1.0251814e-002,-1.6795177e-001,3.0507911e-003,2.7098848e-003,1.4715239e-001,-7.2912033e-002,-3.9183373e-002,1.8420307e-002,5.4764806e-002,1.4632932e-001,1.0690527e-001,9.4203176e-002,-8.1063504e-002,0.0000000e+000,0.0000000e+000,-4.1053121e-002,-9.4008447e-002,1.3883457e-002,1.6244607e-001,-3.6505826e-002,3.0791583e-002,-1.8145604e-001,-8.1909212e-005,3.7695591e-002,7.5886350e-002,1.0718443e-001,-1.8520368e-001,6.4641675e-003,-6.0581286e-003,0.0000000e+000,0.0000000e+000,3.2647842e-002,1.6772379e-002,1.6743392e-002,-1.6550940e-001,-3.8172994e-002,-1.0367283e-001,-1.2911362e-001,1.7872694e-001,1.0350478e-001,-3.6781289e-002,-7.3647865e-002,-2.1113959e-001,-1.9521150e-002,-4.0269465e-002,0.0000000e+000,0.0000000e+000,1.6825930e-001,4.6783135e-002,-1.9033076e-002,5.0278460e-002,-3.0554415e-002,4.5819866e-002,4.1082847e-002,-1.4169472e-001,1.1646610e-001,-1.4694090e-001,2.9654075e-002,5.3437851e-003,2.3746925e-003,9.0886689e-002,0.0000000e+000,0.0000000e+000,-9.7138788e-002,3.3455199e-002,
,513,1.1844024e-002,-2.8889963e-002,-1.9009117e-001,2.5029017e-001,1.6920060e-001,1.3807104e-003,1.3916658e-001,-9.5526160e-002,-1.9988832e-001,-6.6286205e-002,7.6862229e-002,-1.6550247e-001,0.0000000e+000,0.0000000e+000,-2.5295738e-002,1.1057735e-001,-7.2669532e-002,-8.2695566e-002,-1.0072458e-001,5.8116031e-002,7.4714900e-002,1.0975994e-001,1.3210837e-001,-1.8401955e-001,9.0146656e-002,-1.4065878e-001,-9.5123595e-002,1.4169144e-001,0.0000000e+000,0.0000000e+000,6.8736208e-002,5.1078674e-002,-3.4035067e-002,-1.6907025e-003,9.3877917e-003,8.8634526e-002,-9.1452381e-002,4.7454788e-002,-6.0554424e-002,-2.5983165e-002,9.8787027e-003,-5.2570799e-002,2.0019118e-003,3.2694074e-002,0.0000000e+000,0.0000000e+000,-2.5434903e-002,2.1773785e-002,7.1192377e-002,-1.1199265e-001,5.7711581e-002,-6.9958800e-002,-6.8113524e-002,7.3805773e-002,1.3248004e-002,4.3993374e-002,7.7231527e-002,-3.0945206e-002,4.5766262e-002,-2.6426458e-003,0.0000000e+000,0.0000000e+000,1.1776890e-002,-7.0165737e-002,1.9917770e-002,-1.3920947e-001,-6.6903636e-002,4.9580073e-002,-1.0452041e-001,1.4977151e-001,3.6914590e-002,-8.5534667e-002,-3.7704002e-002,-1.7654331e-002,7.0076415e-002,-6.0258795e-002,0.0000000e+000,0.0000000e+000,-6.0837624e-002,5.6520310e-002,8.0044793e-002,-1.0143781e-001,7.2939745e-002,9.3714651e-002,7.7899770e-002,2.0785135e-002,-6.4051307e-002,-3.2642553e-003,3.1871297e-003,-2.0211061e-002,-2.5706695e-002,3.9459346e-002,0.0000000e+000,0.0000000e+000,-3.8706693e-002,-5.6569182e-002,7.2093133e-002,-1.5484232e-001,1.1474398e-001,-6.2170116e-002,-1.6334908e-002,5.7164576e-002,-7.3221039e-002,7.4129008e-002,-9.8866626e-002,3.3367754e-003,-1.2899838e-001,6.6986039e-002,0.0000000e+000,0.0000000e+000,5.7198759e-002,2.4742897e-002,3.8915636e-002,3.6645698e-002,-3.3789243e-002,1.1713658e-001,-3.7570704e-002,3.1724963e-002,-4.3959229e-002,-6.5035058e-003,2.9681058e-002,-6.8068585e-002,-7.5914124e-003,-3.7370000e-002,0.0000000e+000,0.0000000e+000,-1.9591818e-002,-1.0245970e-002,1.0955833e-001,-8.7500954e-002,5.3391706e-002,-1.1659018e-002,-1.1428225e-001,1.2319894e-001,1.1016002e-001,-2.3865299e-002,-4.8922775e-002,7.3136492e-002,6.6263061e-003,2.8451437e-002,0.0000000e+000,0.0000000e+000,-4.7589091e-002,-3.0613109e-002,2.2815305e-002,-6.5290625e-002,1.3723883e-001,-8.0377527e-002,-1.4692284e-002,5.3608762e-002,-1.4386597e-002,-5.4447342e-003,-7.0878499e-002,2.1236875e-003,-2.4086914e-002,7.6762299e-002,0.0000000e+000,0.0000000e+000,6.1005167e-002,9.1047831e-003,
,525,1.3870107e-001,-3.8427943e-001,1.5821222e-001,-7.0066380e-003,-1.2120194e-001,2.5696170e-001,1.0173062e-001,1.7869587e-003,2.1622196e-001,-3.7131355e-001,-2.3165731e-001,1.4348874e-001,0.0000000e+000,0.0000000e+000,1.6215879e-001,2.7189613e-002,-7.5082759e-002,-9.6803898e-002,1.3395541e-001,-5.4335316e-004,-3.4338865e-002,6.7336064e-002,-1.1524510e-001,-4.2019956e-002,6.8253987e-002,3.0313280e-002,-4.8372690e-002,1.0064718e-001,0.0000000e+000,0.0000000e+000,2.9943270e-002,-1.1266690e-001,7.1652495e-003,-4.2115921e-002,-1.0562506e-001,6.9757833e-002,-1.3190859e-001,1.0685322e-001,-1.1814599e-001,-7.9116630e-002,8.5386606e-002,-4.6384138e-002,2.3478259e-002,1.3450277e-001,0.0000000e+000,0.0000000e+000,-4.8277708e-002,-3.5868806e-002,7.2061486e-002,7.6960364e-002,-6.2322889e-002,1.6037224e-002,-8.1509473e-002,3.6128218e-002,1.0489502e-002,-2.3872544e-002,-4.6292335e-002,8.9779336e-002,-8.6227183e-002,3.2366999e-002,0.0000000e+000,0.0000000e+000,8.1655584e-002,-7.7838272e-002,8.8043935e-002,-1.3189665e-001,-1.2810634e-002,-1.7512907e-001,-1.2377678e-001,6.2983684e-002,8.5977019e-002,8.7648084e-002,5.1996140e-002,-6.1753706e-002,-2.3644472e-002,-9.8211951e-002,0.0000000e+000,0.0000000e+000,-4.6109227e-002,3.2317878e-002,3.8167398e-002,3.7619342e-002,-2.5377757e-002,-1.7197256e-002,-4.3267959e-002,-5.9062206e-002,-2.9702245e-002,-3.0061877e-002,-5.8162339e-002,4.5205901e-002,6.5779029e-002,6.6334787e-002,0.0000000e+000,0.0000000e+000,-1.1877530e-001,1.0589522e-001,5.8141824e-002,-6.4831369e-002,-2.1975220e-001,9.8988464e-002,-1.9161692e-001,7.8852320e-002,1.2134373e-001,-5.9063284e-002,6.9517983e-002,2.0459445e-002,-1.6866593e-001,8.0674237e-002,0.0000000e+000,0.0000000e+000,-6.0187652e-003,-1.4044481e-002,1.1053920e-002,5.8071888e-002,4.6497637e-002,7.4193427e-002,1.0726711e-001,-3.2144572e-002,-8.6312933e-002,-1.0864575e-001,-3.1669354e-002,1.2398792e-002,4.8397413e-002,-2.8745874e-002,0.0000000e+000,0.0000000e+000,4.0493902e-003,-6.4704518e-002,1.5456871e-002,-1.0522686e-002,8.5718368e-002,-8.1141453e-002,1.0085119e-001,2.3270476e-002,1.2861764e-002,-9.0410902e-002,-3.5260273e-002,4.1726225e-002,-6.5335627e-002,3.9788997e-002,0.0000000e+000,0.0000000e+000,-5.6608581e-002,-5.1436797e-002,-1.6236581e-001,1.7636515e-001,1.0498151e-002,-8.3525484e-002,3.3018613e-002,-1.5954367e-002,1.1708993e-001,5.5375625e-002,-1.3942563e-001,1.2356602e-001,-1.0337267e-001,2.7532107e-004,0.0000000e+000,0.0000000e+000,5.3014121e-003,1.0275754e-002,
,537,1.3297432e-001,-1.2142928e-001,-1.6143801e-001,-8.4990535e-002,3.1418247e-001,-2.1304473e-001,4.7218438e-001,-4.0988879e-002,-6.0929838e-001,7.2711704e-002,-2.1636301e-001,1.0081785e-001,0.0000000e+000,0.0000000e+000,1.1431704e-001,2.6536089e-001,-3.0999355e-001,-1.1297053e-001,3.8647519e-003,1.0381690e-002,5.2944848e-001,3.8847736e-003,4.1772367e-002,-6.7481494e-002,-2.2570006e-001,-1.0675064e-001,-1.0237012e-001,7.4765866e-002,0.0000000e+000,0.0000000e+000,1.3968417e-001,1.0320903e-001,1.3340359e-001,-1.0927209e-001,1.9764361e-001,-2.2858974e-002,-9.7994367e-002,4.6314413e-002,-5.6178865e-002,4.6845840e-002,-1.4126391e-002,4.5137897e-002,-3.9169105e-002,5.5055325e-002,0.0000000e+000,0.0000000e+000,-5.3374239e-002,6.0269550e-002,-1.7494653e-001,1.9487431e-001,-3.9894218e-002,-2.9223263e-002,1.1469318e-001,1.7009082e-002,-1.5618784e-001,1.3347223e-001,3.7921650e-002,-1.4987744e-001,7.2292218e-002,5.7639231e-002,0.0000000e+000,0.0000000e+000,-4.5763443e-002,5.2624113e-002,-3.1737500e-002,1.6956080e-002,-9.5335243e-002,3.0413389e-002,-1.4445192e-002,-6.2193337e-003,7.5555196e-002,-4.2057370e-002,-4.0287788e-002,-7.7513297e-002,7.9659467e-002,-4.3331848e-002,0.0000000e+000,0.0000000e+000,2.3196903e-002,-5.3166672e-002,3.4255623e-002,1.3312568e-001,-1.0977740e-001,1.0592732e-001,-1.5261018e-001,-4.0592883e-002,-2.0224440e-002,1.3847624e-003,1.2093412e-001,6.5513403e-002,1.3629582e-001,-6.3126663e-003,0.0000000e+000,0.0000000e+000,-1.3045055e-001,-4.0150785e-003,2.2489148e-002,-6.4956362e-002,-1.1235588e-001,-9.4971593e-002,-1.7935068e-001,2.1955004e-001,5.1582552e-003,5.4793513e-003,7.4788314e-002,-1.3438104e-002,4.5226450e-002,1.3872583e-001,0.0000000e+000,0.0000000e+000,-2.0525427e-001,6.7950523e-002,4.5899238e-002,1.1925762e-001,-7.8372686e-002,5.3784909e-002,2.1963189e-002,-5.2653778e-002,-7.2839832e-002,1.7191158e-002,1.4631028e-002,4.8047100e-002,8.1668200e-002,-4.0350659e-002,0.0000000e+000,0.0000000e+000,-1.0080026e-001,5.7511931e-003,3.5839359e-002,-1.4144757e-002,-1.6744553e-002,8.4239657e-002,-2.2099189e-002,-6.0925757e-002,-9.5178899e-004,2.2121021e-003,5.5524069e-002,8.9423142e-003,-3.3603155e-002,1.8547064e-002,0.0000000e+000,0.0000000e+000,6.7146036e-003,-7.0765591e-002,3.8514726e-002,-1.3129974e-001,1.0034174e-001,-1.7932114e-001,1.3484191e-002,7.9271982e-002,-1.3713779e-001,1.4473090e-001,1.2955873e-002,-3.5641189e-002,3.6022294e-002,1.1697262e-001,0.0000000e+000,0.0000000e+000,1.0257324e-001,-4.7806946e-002,
,549,-1.3395414e-001,-8.8738518e-002,-2.9245999e-002,1.6069338e-001,-1.2742070e-001,3.7820506e-001,6.4309319e-002,-3.8994683e-001,-2.5695956e-002,-1.8363926e-001,-4.8867679e-002,2.5280292e-001,0.0000000e+000,0.0000000e+000,4.2358751e-002,1.1589556e-001,-4.6439655e-002,-9.6719901e-002,1.9096279e-001,-1.2215856e-001,2.4395476e-001,1.0957289e-002,-1.0718419e-001,1.1651921e-001,-1.6318424e-001,8.7635243e-002,-5.1629215e-002,-7.9147886e-002,0.0000000e+000,0.0000000e+000,-4.5639246e-002,-7.6837698e-003,-6.6837525e-002,1.6697167e-001,-1.0288735e-001,-4.0934947e-002,-1.5317693e-001,-2.5098548e-003,-1.4320316e-001,9.4633186e-002,1.3081702e-001,-4.8676744e-002,-1.0200714e-002,-1.6814303e-002,0.0000000e+000,0.0000000e+000,9.6240183e-003,1.5522958e-002,-5.8584247e-004,3.5323464e-002,4.9271980e-002,-3.5071709e-002,-2.9122070e-002,2.9033523e-003,-1.3698090e-001,1.1252292e-001,-2.8917624e-002,5.7982943e-002,-6.0546725e-002,5.0786692e-002,0.0000000e+000,0.0000000e+000,2.9452234e-002,-1.2874793e-002,-1.8599312e-002,-1.4086299e-001,9.0979147e-002,7.4499044e-004,-3.9508289e-002,4.5558548e-002,4.1596441e-002,-6.9744468e-003,-5.8466319e-002,4.5910770e-002,-1.7422582e-002,2.3922352e-002,0.0000000e+000,0.0000000e+000,-5.5701509e-002,2.5345000e-002,9.7408222e-004,8.4826235e-003,-2.4919134e-003,6.2339521e-002,1.4638784e-002,-7.3165973e-002,5.4908438e-002,6.6081706e-002,1.1900418e-001,-2.3584291e-002,-1.6225942e-002,-5.6238186e-002,0.0000000e+000,0.0000000e+000,2.6705284e-002,4.6115983e-003,8.5104819e-002,4.0076589e-002,7.5396834e-002,1.0989084e-002,-4.7079575e-002,1.2583734e-001,-6.7117517e-002,3.4591695e-002,-2.4531397e-002,-4.1585520e-002,3.8669144e-002,-9.5554966e-002,0.0000000e+000,0.0000000e+000,-2.1042479e-002,-4.7365969e-002,-1.6647421e-001,3.0311860e-002,1.3022467e-001,-1.4893242e-002,1.8369611e-002,6.6103821e-003,-2.7545166e-002,1.3392188e-002,4.7458655e-002,-5.5661644e-002,-5.2954123e-002,1.4306064e-001,0.0000000e+000,0.0000000e+000,-6.0016084e-002,6.1142244e-002,1.5776828e-002,-1.5768693e-001,-1.4269974e-001,9.9249526e-002,-4.0211134e-002,6.0433220e-002,1.0532289e-001,-1.3476995e-001,-4.3227605e-002,-1.2060812e-002,-1.4567245e-002,4.7277072e-002,0.0000000e+000,0.0000000e+000,-1.0083069e-002,1.0740332e-001,-1.2590554e-002,1.3811418e-002,-1.1299406e-001,5.3760339e-002,-7.4369697e-002,6.9464095e-002,5.3843384e-002,3.6543493e-002,-1.4970802e-002,-5.9649953e-002,5.5008548e-002,-1.5699195e-001,0.0000000e+000,0.0000000e+000,-1.5647412e-002,-3.1345353e-002,
,561,8.8779801e-002,-1.1363689e-001,-1.1546374e-001,2.5808401e-001,2.7373535e-004,1.4001770e-001,5.9543370e-002,-2.2672457e-001,-2.7498427e-001,-9.7284430e-003,3.0291366e-002,-2.2020850e-002,0.0000000e+000,0.0000000e+000,1.4682495e-001,2.5679627e-001,4.8149382e-002,-1.9806303e-001,7.3950259e-002,-6.9352388e-002,1.6596115e-001,7.0154124e-002,8.6090232e-002,-6.7650514e-002,-2.4772841e-001,5.8243424e-002,-8.2363034e-002,5.0250701e-003,0.0000000e+000,0.0000000e+000,-2.4540649e-002,2.2788153e-001,-1.0436714e-001,-1.2369545e-001,3.5324246e-003,4.1741503e-002,-1.6347547e-002,1.3390833e-001,-2.9816621e-002,9.0272382e-003,5.9297524e-003,-3.2639371e-002,4.1855245e-002,9.1977614e-002,0.0000000e+000,0.0000000e+000,-4.3146766e-002,-3.3070246e-002,-3.9242622e-002,9.7813459e-002,-8.3599586e-002,-2.5831364e-002,7.9248215e-002,-1.7953972e-001,1.9588978e-003,-4.1009365e-002,-2.2114999e-002,1.2456358e-001,-3.2311315e-002,8.3713606e-002,0.0000000e+000,0.0000000e+000,-1.1081100e-002,-4.4580128e-002,-2.7852206e-002,1.9871205e-002,2.9639410e-002,-7.0357955e-003,-1.9348279e-001,7.8933416e-002,4.3795072e-002,-5.1565146e-002,7.4688667e-003,-8.0220009e-002,-3.5439947e-002,-2.1048395e-002,0.0000000e+000,0.0000000e+000,-5.4878893e-003,5.2992268e-002,1.7048994e-001,-1.2251032e-002,2.7804897e-002,2.0966344e-001,-2.0781074e-001,1.3074525e-001,2.4483743e-002,-8.3299067e-003,1.8138653e-003,2.0234268e-002,-1.7367142e-002,-7.9791800e-002,0.0000000e+000,0.0000000e+000,-6.2031573e-002,1.1766039e-003,-6.3637797e-003,-9.4103241e-002,4.0020082e-003,2.5898493e-002,1.9547166e-002,-1.8420676e-001,1.4315849e-001,1.1160774e-001,7.6403413e-002,8.2859926e-002,-1.7428767e-002,-1.0721293e-001,0.0000000e+000,0.0000000e+000,-1.3424055e-001,-1.4857921e-002,1.7005063e-002,6.2666219e-002,-1.9544652e-001,5.7060667e-003,-1.0172581e-001,2.9440940e-002,3.9322012e-002,2.7946163e-002,-5.6741545e-003,-7.6574955e-002,8.6071874e-003,1.6718369e-002,0.0000000e+000,0.0000000e+000,3.7628421e-002,2.4100847e-002,-6.7994919e-002,2.1769071e-002,-9.3634870e-002,1.0202744e-002,2.7598992e-003,1.6598270e-001,5.4554483e-002,5.7220393e-002,-8.5311989e-002,-4.9609749e-002,-5.2595436e-002,3.7892381e-002,0.0000000e+000,0.0000000e+000,-3.4586338e-004,1.0220500e-002,-3.6469889e-002,1.1135683e-002,5.8623970e-002,7.4246731e-002,1.0124871e-001,-3.7126666e-002,-1.2496992e-001,8.0420919e-002,3.7513868e-002,2.7024122e-003,1.9104723e-002,1.6173257e-002,0.0000000e+000,0.0000000e+000,-6.6091467e-002,2.4765062e-002,
,573,-5.5658894e-002,-4.6531213e-002,1.0744728e-002,5.6116526e-005,2.6709234e-001,-4.9698015e-002,1.4052497e-001,4.7275374e-002,-6.3790773e-002,-2.0782358e-001,9.6246682e-002,-6.5303264e-002,0.0000000e+000,0.0000000e+000,4.2919934e-002,3.6881252e-002,2.3770963e-001,-1.9814171e-003,-7.1913298e-002,9.4627204e-002,-3.4759617e-001,2.9568578e-002,3.3358769e-002,-1.4954056e-001,1.3074898e-001,-1.0557191e-001,-1.0916175e-001,5.7338756e-002,0.0000000e+000,0.0000000e+000,1.5491830e-001,5.7239997e-002,1.3858913e-002,-7.2329148e-002,-3.5887347e-002,-2.0798348e-002,-1.8543875e-001,1.5681287e-001,1.1855931e-002,2.7979489e-002,8.6344276e-002,-8.0593128e-002,-5.1900736e-002,1.4892912e-002,0.0000000e+000,0.0000000e+000,-1.1769743e-001,-3.3034841e-002,8.1545681e-002,-1.0471471e-002,1.3319561e-002,-8.0646310e-002,-4.8206503e-002,8.9056936e-002,-5.1523264e-002,1.3351276e-001,-1.7425631e-002,-1.5449003e-002,-4.1953238e-002,-3.3346167e-004,0.0000000e+000,0.0000000e+000,2.9071413e-002,-2.3743769e-002,1.8546779e-001,-2.6883487e-001,1.6119334e-001,-9.6079645e-003,5.3516139e-002,-4.1928056e-002,-1.0732122e-001,7.8870168e-002,-6.4098109e-002,9.1119192e-002,1.6681634e-001,-1.3895431e-001,0.0000000e+000,0.0000000e+000,-9.6303126e-002,-9.1514503e-002,1.2879812e-001,-3.0913482e-002,8.5393613e-002,-2.6430741e-002,-8.1117541e-002,-4.3625353e-002,9.8612821e-002,-6.5764538e-002,5.1692174e-002,4.8849265e-002,-4.1943630e-002,6.8692544e-002,0.0000000e+000,0.0000000e+000,2.6791605e-002,-4.6531864e-002,1.2559174e-003,2.0999052e-002,-1.6211593e-001,-1.4059647e-001,1.3976973e-002,-8.2347813e-002,3.4951898e-002,2.0097459e-001,-1.5266769e-001,1.2914745e-001,-1.1499159e-001,-4.8119499e-002,0.0000000e+000,0.0000000e+000,-3.2164770e-002,1.5387277e-001,-5.3033950e-002,2.1084114e-002,3.3363527e-003,2.8287238e-003,1.5946345e-001,-8.1147084e-002,7.3747236e-002,4.5021424e-002,-1.7361467e-001,-2.8794787e-002,-4.3103531e-002,-2.7655850e-002,0.0000000e+000,0.0000000e+000,-2.0376586e-002,-1.1154342e-002,1.0638121e-001,-1.7923857e-001,-5.5337023e-002,-2.1507006e-002,-8.3069352e-002,1.8642285e-001,6.7760799e-002,-9.7250139e-002,6.1846082e-002,1.2048085e-001,-5.9228561e-003,3.2480824e-002,0.0000000e+000,0.0000000e+000,-7.6244318e-002,-5.0999434e-002,1.8116593e-002,7.2583986e-002,-3.1059225e-002,1.8007008e-003,1.5973724e-002,-4.8436500e-002,2.2383337e-002,3.1856132e-002,-8.7713708e-002,5.2717658e-002,-8.8026545e-002,2.4790640e-002,0.0000000e+000,0.0000000e+000,-1.0719366e-002,-1.0535746e-002,
,585,-1.0110268e-001,-2.0297393e-001,6.3249039e-002,4.4651831e-002,5.3340243e-002,1.5589681e-001,7.1374520e-002,-1.1939320e-001,1.7274491e-001,-4.1199804e-002,-1.1932812e-001,1.2079807e-001,0.0000000e+000,0.0000000e+000,-5.6120914e-002,-5.6043326e-002,1.0134570e-001,-2.0193928e-001,2.3658281e-001,-1.4012100e-001,-9.2856750e-002,1.1336646e-001,-1.2680425e-001,8.8270360e-002,7.9562863e-002,-1.9599459e-001,6.9966756e-002,2.1866862e-002,0.0000000e+000,0.0000000e+000,6.8323841e-003,2.0310838e-003,4.3636259e-002,-6.0687549e-003,8.1873337e-002,-2.5195895e-002,-1.1216915e-001,-7.1029697e-002,3.6413081e-002,-8.1725943e-002,5.8704179e-002,2.8509882e-002,3.2754705e-002,4.2520112e-002,0.0000000e+000,0.0000000e+000,-1.2812348e-001,4.1368705e-002,-1.9964605e-002,1.3980623e-001,-1.3954973e-002,-9.2381312e-003,-2.3989429e-002,-2.7030266e-002,3.8187761e-002,4.9116569e-002,-4.9936358e-002,6.6184097e-002,-1.1439896e-001,3.1837109e-002,0.0000000e+000,0.0000000e+000,-5.8363277e-002,5.3010590e-002,-4.6720017e-002,-1.7861163e-001,-4.2460066e-002,3.1598760e-002,-2.9854984e-002,2.4047925e-001,-8.1007031e-002,3.4762116e-002,5.1194043e-002,-1.2788072e-001,6.3318106e-002,-6.9828767e-002,0.0000000e+000,0.0000000e+000,-9.7148237e-002,-9.7707378e-003,-1.0724496e-001,2.8664751e-003,1.2230897e-001,-4.0539011e-003,2.0642932e-001,-7.5563558e-002,-2.3370358e-002,5.6745269e-002,-1.1231237e-001,3.8386425e-002,1.5808897e-002,5.1990492e-002,0.0000000e+000,0.0000000e+000,-9.7611977e-002,2.2429890e-002,-1.2058404e-002,8.0827236e-002,-2.1994639e-001,9.0336926e-002,-2.2331950e-002,-6.2821340e-002,3.2296384e-001,-3.0171786e-002,6.8955447e-002,-5.9026126e-003,-2.7051929e-002,1.0688570e-002,0.0000000e+000,0.0000000e+000,-3.9017346e-002,-3.3492642e-002,9.8757051e-002,7.8040855e-002,-4.3112916e-002,1.0246842e-001,-2.2128280e-001,1.1062748e-002,-1.2494977e-001,4.9183881e-002,4.9254975e-002,-1.1784239e-002,-1.4718650e-002,-8.9563980e-002,0.0000000e+000,0.0000000e+000,1.4243750e-001,-2.0827211e-002,-6.4009150e-002,-1.0623541e-001,2.2951053e-001,7.6876874e-002,1.0544271e-002,1.1975106e-001,-2.2172697e-001,-6.4279468e-002,-5.3979472e-002,4.2615468e-003,-2.8295678e-002,-3.8684464e-002,0.0000000e+000,0.0000000e+000,8.5198418e-002,-2.9284600e-003,-3.8136536e-002,1.4096076e-002,7.0544937e-002,-2.0892162e-002,9.1265888e-002,-1.3620676e-001,-2.7013064e-002,1.1875425e-001,-1.1777007e-003,5.1099952e-002,-5.1031565e-002,1.2238196e-001,0.0000000e+000,0.0000000e+000,-9.5616665e-002,2.9492175e-002,
,597,-7.9803164e-002,9.2751040e-002,-6.5554544e-002,2.7352776e-002,1.2781312e-001,-3.7679253e-002,-1.8173670e-001,-2.8385249e-002,-2.1779444e-001,1.0715226e-002,1.7164141e-001,-7.6967616e-002,0.0000000e+000,0.0000000e+000,-1.7279636e-001,1.3913433e-001,-3.4803273e-002,-2.5086531e-002,-4.0244145e-002,6.0917615e-002,5.3459758e-002,4.2725863e-002,2.0921861e-001,-2.0182666e-001,1.0294121e-002,1.2739835e-001,-1.6354849e-001,2.7672805e-002,0.0000000e+000,0.0000000e+000,-1.2687675e-001,8.6181760e-003,-6.5285373e-002,-1.7723253e-001,1.1480407e-001,-6.7995274e-002,5.0686349e-002,1.3058769e-001,4.0069633e-002,3.4708195e-002,-6.6526364e-002,-5.5108137e-002,-4.1464297e-002,3.2838490e-002,0.0000000e+000,0.0000000e+000,-8.8132330e-002,8.0017414e-002,-2.8274751e-002,-2.9510582e-002,1.0225942e-001,-2.1259585e-002,5.5309633e-002,-1.3316305e-002,1.5775834e-002,1.4283678e-002,7.1640449e-002,2.5198561e-003,-1.6186870e-001,1.6183148e-001,0.0000000e+000,0.0000000e+000,-3.7581855e-002,-6.4207116e-002,-3.6677316e-002,3.4455461e-003,-6.1286722e-002,1.8674922e-002,-1.1586462e-001,2.6166841e-002,-3.0324512e-002,-1.2458138e-001,-3.6206542e-002,1.2217840e-001,-1.4188260e-002,-2.9027936e-002,0.0000000e+000,0.0000000e+000,-1.3479904e-002,-2.1062588e-002,4.9945227e-002,1.5027315e-004,4.2777690e-002,-1.0693879e-001,-6.3891769e-002,1.4426840e-002,1.2985247e-001,-3.9462798e-002,9.8014315e-002,-8.0651483e-002,2.5603276e-002,-2.6233575e-002,0.0000000e+000,0.0000000e+000,-8.6080324e-003,8.9915205e-002,1.8045639e-002,-1.5146774e-001,-6.6733051e-003,1.0633634e-001,-1.5530604e-001,7.1741601e-002,-6.9569267e-002,2.0323281e-002,-4.7675993e-002,-2.7862718e-002,-1.6329916e-001,7.4940559e-002,0.0000000e+000,0.0000000e+000,1.2336037e-001,8.3535845e-002,1.7296491e-002,-6.4901367e-002,5.4463967e-002,7.1346075e-003,9.5239349e-003,6.6057381e-002,-1.1204743e-001,9.9960267e-002,1.3611735e-002,1.0642587e-001,-4.6662633e-002,4.1767687e-002,0.0000000e+000,0.0000000e+000,-9.7113993e-002,5.4754359e-002,3.2000668e-002,-5.5999913e-003,3.0896378e-002,5.3710764e-002,-8.4717483e-002,5.9508792e-002,1.1032190e-001,-6.0215484e-002,6.4503879e-002,-3.1270731e-002,1.0815692e-001,-4.8431995e-002,0.0000000e+000,0.0000000e+000,-1.3181414e-001,-3.9361787e-002,-9.5359913e-002,6.1452566e-004,4.2511339e-003,1.0414666e-001,5.6021109e-002,1.6047335e-002,9.5631480e-002,-9.5964982e-002,-7.7094714e-002,-7.1136615e-002,2.6520516e-002,-1.2143159e-001,0.0000000e+000,0.0000000e+000,2.3224877e-002,-4.1125125e-002,
,609,4.8548356e-002,-3.0202459e-001,1.0312911e-001,2.1473631e-002,9.5389454e-002,3.2261556e-001,-3.3904497e-002,6.5004903e-002,-1.1986774e-001,-2.8432424e-001,-1.3866773e-001,3.2222291e-002,0.0000000e+000,0.0000000e+000,3.3041806e-001,4.8143568e-002,2.5751003e-001,-1.0374084e-001,9.6513553e-002,-1.2034629e-001,-1.2456872e-001,-1.8283063e-001,2.0331726e-001,-1.8235016e-001,7.9411213e-002,-1.0607971e-002,-8.5397117e-003,1.1401380e-001,0.0000000e+000,0.0000000e+000,-1.5913943e-001,8.7299352e-002,-3.6051283e-002,2.4899210e-002,2.7555402e-002,-5.3503034e-002,-4.2544791e-002,1.8053312e-001,-1.5870263e-002,3.7815304e-004,-6.9129285e-002,-1.1635727e-001,4.6605847e-002,-1.5371473e-002,0.0000000e+000,0.0000000e+000,-2.3110923e-002,7.7182155e-002,-8.7544866e-002,4.2029479e-002,6.1213119e-002,-8.0473013e-002,2.3353850e-002,-1.3322672e-002,-2.2090857e-002,2.3541139e-002,-6.8172372e-002,1.7112662e-002,5.9367897e-002,1.2188590e-001,0.0000000e+000,0.0000000e+000,1.0736960e-001,4.6942022e-002,-7.6939575e-002,5.2864692e-002,-6.7139055e-002,-1.0746548e-001,-9.4002626e-003,-5.2448782e-002,1.6221082e-001,1.2903826e-003,-4.5631896e-002,7.1934308e-003,-3.2350080e-002,-5.0563139e-002,0.0000000e+000,0.0000000e+000,-1.1594144e-001,6.6420676e-002,1.0649161e-001,-9.5900051e-002,-1.2357025e-001,-3.0577207e-002,7.5280251e-002,-5.2869709e-002,3.0022777e-002,4.0160926e-003,1.3359923e-001,3.0898306e-002,-8.1931824e-002,-7.1170764e-002,0.0000000e+000,0.0000000e+000,-7.2921574e-002,2.9042073e-002,-1.0840297e-001,3.5006351e-002,1.3176786e-002,1.7042613e-001,-1.1487141e-001,-5.4787799e-002,-1.5493056e-002,-1.8871763e-001,5.7018305e-002,1.8902180e-002,-1.0295612e-001,-2.3415419e-002,0.0000000e+000,0.0000000e+000,1.7685777e-001,-5.8981400e-003,-1.2488718e-001,1.6152313e-001,-2.3494100e-002,8.8028765e-002,-1.8181925e-002,3.8170920e-002,1.4200066e-001,9.9047762e-002,-2.7814639e-001,1.8028463e-001,-1.0938426e-001,8.8361741e-003,0.0000000e+000,0.0000000e+000,-4.7294602e-002,2.5944175e-002,8.7691853e-002,-2.2429136e-001,-2.0772662e-002,-2.5555534e-002,-5.3088040e-003,1.5064909e-001,-2.2113852e-002,1.2324706e-003,4.1295168e-002,5.3133506e-002,8.3239371e-002,-2.6663927e-002,0.0000000e+000,0.0000000e+000,-1.6049777e-001,-2.7856574e-002,8.6636875e-002,-8.0090036e-002,1.6201329e-001,1.3389357e-002,-7.3528337e-002,-2.7783868e-002,8.6923998e-002,-1.7645421e-002,1.5421710e-001,-1.4745478e-001,-6.4462536e-003,6.6390001e-002,0.0000000e+000,0.0000000e+000,-3.7761623e-002,8.0478793e-002,
,621,-2.0612093e-001,-1.2877056e-001,-5.5917952e-002,-3.4915966e-002,1.7781319e-002,4.2566102e-001,3.2187318e-002,2.5420167e-002,4.6855024e-003,-2.6728241e-001,-5.1160244e-002,-1.7570189e-002,0.0000000e+000,0.0000000e+000,1.3521989e-001,1.0495679e-001,-1.3236113e-001,1.2311175e-001,1.7129507e-001,-1.0170484e-001,2.0581886e-001,-1.2722798e-001,-6.7027653e-002,-3.2474185e-002,2.9915078e-002,4.3226852e-002,-7.7300835e-002,2.1679598e-002,0.0000000e+000,0.0000000e+000,1.7252071e-002,-7.5856012e-003,1.3243994e-003,-2.6184150e-002,-7.4596338e-002,1.0765387e-001,-7.1496686e-002,-2.2039577e-002,2.4555933e-002,-6.6296370e-002,2.8767792e-002,-7.3200616e-002,1.5505664e-002,-5.8413332e-003,0.0000000e+000,0.0000000e+000,2.9259753e-002,2.1373117e-002,1.7878345e-001,-1.2241833e-001,-1.2121449e-001,1.9252446e-001,-1.1417109e-001,4.9497093e-002,1.0282441e-001,-6.6500067e-002,5.2084999e-002,1.3335638e-001,-2.4490610e-001,3.6245910e-002,0.0000000e+000,0.0000000e+000,-3.1221273e-002,-3.9023669e-002,-3.3028356e-002,-1.9603643e-001,5.5898931e-002,6.6932571e-002,-2.1779272e-001,2.3148830e-001,1.6067545e-002,-2.8776746e-002,8.3867717e-002,-6.6874614e-002,-1.0558417e-001,5.5001429e-002,0.0000000e+000,0.0000000e+000,-7.4167664e-002,-5.7601802e-002,-5.2352186e-002,-4.6798836e-002,6.8576759e-002,-1.5278725e-001,-1.9422466e-003,1.5354215e-001,7.4569332e-002,-1.9003888e-002,2.8734829e-002,-1.6793828e-001,4.7146879e-002,5.8580256e-002,0.0000000e+000,0.0000000e+000,7.1275375e-003,-1.3163479e-001,-1.2768627e-001,8.5783107e-002,-1.0063590e-001,-4.4517439e-002,2.7496022e-001,-8.9148130e-002,1.6902055e-001,2.6703861e-002,7.4117370e-003,4.5452486e-002,9.1789523e-002,-1.0010963e-001,0.0000000e+000,0.0000000e+000,1.1040967e-001,-3.7774897e-002,-4.5883537e-002,-2.8896645e-002,-6.6316212e-002,5.4898675e-002,-2.3862952e-001,5.9054949e-002,-2.2929188e-003,3.5723960e-002,-3.3684115e-003,2.0754797e-001,-7.4102026e-002,7.5824043e-002,0.0000000e+000,0.0000000e+000,3.4977927e-002,6.2129999e-003,1.0500576e-001,7.9515725e-003,-1.0023170e-002,-1.2086622e-002,-2.4923502e-001,1.2466683e-001,-7.9896834e-002,-1.5681433e-002,7.1791420e-002,-9.1228391e-002,7.3902026e-002,2.1899563e-002,0.0000000e+000,0.0000000e+000,-1.8603621e-001,-3.6316616e-003,5.4113376e-002,3.7502828e-002,1.0177670e-001,-8.3954905e-002,2.2877889e-002,-5.4883323e-002,5.6120975e-002,8.9113132e-002,2.3335986e-002,-7.2785271e-002,-9.0939163e-002,1.2608964e-001,0.0000000e+000,0.0000000e+000,1.1092791e-001,-1.1498256e-001,
,633,-1.0098320e-001,6.2957018e-002,7.9250552e-002,1.6538307e-001,9.3492485e-002,-1.2236416e-001,-9.4460748e-002,-1.0355890e-001,-2.0481349e-001,2.4823802e-001,1.2866480e-001,-5.7293609e-002,0.0000000e+000,0.0000000e+000,-2.4590044e-001,1.1924992e-001,3.5037563e-001,-2.0455814e-001,1.7041235e-001,-5.3972095e-002,-1.8614737e-001,-7.8512289e-002,3.1317908e-002,-4.5167474e-002,9.7308460e-002,1.2235850e-001,-1.5936950e-001,1.9908167e-001,0.0000000e+000,0.0000000e+000,1.4469522e-002,-1.7702891e-001,-1.7184198e-002,-1.5569018e-001,5.4869343e-003,1.3199852e-002,-2.4795306e-002,2.5708046e-001,-1.3845678e-001,1.9753578e-002,-1.2079077e-001,3.6983541e-002,-2.8077388e-002,-1.9772277e-002,0.0000000e+000,0.0000000e+000,-1.3381495e-002,-6.2314170e-002,1.9330297e-001,-2.3823825e-001,-1.0151546e-002,-6.6484881e-002,-1.6896817e-001,1.7543657e-001,-9.9917049e-002,1.1574341e-001,1.9866080e-002,1.1947632e-001,-7.6328358e-003,-4.4231274e-002,0.0000000e+000,0.0000000e+000,1.2209141e-001,-1.3439221e-001,5.9246687e-002,-1.3376053e-001,-1.2285586e-002,-1.6096444e-001,-1.6121801e-001,-1.0507145e-001,9.1932912e-002,9.6129010e-002,4.9392507e-002,-2.7718069e-002,4.4068925e-002,3.6586759e-003,0.0000000e+000,0.0000000e+000,-1.2969308e-001,-7.3994448e-002,3.4932068e-002,-3.0800418e-002,-4.1341047e-002,-8.5090277e-003,3.6032226e-002,3.1736941e-002,1.1326902e-001,-5.0682673e-002,5.6494905e-002,-9.9084610e-002,-3.9994887e-002,1.0677457e-001,0.0000000e+000,0.0000000e+000,1.3956758e-001,1.1639232e-001,8.4249588e-002,-4.3961338e-002,-4.3000018e-002,7.9437615e-003,-9.7587255e-003,-4.5358211e-002,1.2148013e-001,9.3356801e-002,1.4966544e-001,-2.1765491e-002,-5.9915435e-002,1.6738514e-002,0.0000000e+000,0.0000000e+000,-6.5665932e-002,-9.8569613e-003,-9.1213371e-002,8.1053600e-002,1.1983619e-001,-5.3624812e-002,-1.3063534e-001,-8.4621707e-003,8.4999060e-002,2.5017561e-002,-5.8432847e-002,1.1982541e-001,-6.2569951e-002,-2.7252412e-002,0.0000000e+000,0.0000000e+000,-1.5778016e-001,4.0503832e-002,-1.0015570e-001,-5.5325675e-002,-3.3277914e-002,8.0945166e-002,-4.4201598e-002,2.1142877e-001,-1.6567520e-001,-4.2938322e-002,-8.3795419e-002,-3.4839754e-002,-6.5539886e-002,-4.5981965e-002,0.0000000e+000,0.0000000e+000,1.2472588e-002,1.3069587e-001,-6.3092595e-002,1.0958519e-001,8.4029023e-003,-1.5653598e-002,1.8243310e-001,1.9550787e-002,-1.5644789e-001,1.0202196e-001,9.7482892e-003,-1.2400815e-001,-9.3347132e-002,3.8607470e-003,0.0000000e+000,0.0000000e+000,1.0642614e-002,-6.3371324e-003,
,645,-2.0979124e-002,-7.1012262e-002,1.9470198e-002,3.9916430e-002,-5.4468140e-002,3.4802410e-001,-9.8965099e-002,-7.2567900e-002,-3.6925630e-002,-1.6319856e-001,-4.5198118e-002,1.3242467e-001,0.0000000e+000,0.0000000e+000,1.0712805e-001,6.0308306e-002,-1.4964540e-001,3.5390414e-002,1.3622062e-002,5.9602902e-002,3.5707110e-001,-1.4123536e-001,-4.8037391e-002,-1.2093893e-001,-2.2811254e-001,8.0465607e-002,8.3826699e-002,2.1611869e-002,0.0000000e+000,0.0000000e+000,-1.0805104e-001,2.6001270e-002,-3.1059151e-002,-6.1933216e-002,-6.6880997e-003,-1.3394300e-001,-1.2779700e-001,6.3088841e-002,5.4649934e-002,1.1057993e-001,3.8234861e-002,-1.0547411e-001,-7.0697015e-003,-8.5647585e-002,0.0000000e+000,0.0000000e+000,9.0073680e-002,-2.0198871e-003,9.7781864e-002,1.6975592e-003,3.8805451e-002,-1.3153831e-002,-8.6313185e-002,-5.3988225e-002,8.6498523e-002,8.3766333e-002,-4.3995638e-003,3.3269118e-002,-7.5684640e-002,1.1662885e-002,0.0000000e+000,0.0000000e+000,1.1561333e-001,-4.6741309e-002,5.9015789e-003,-1.4775990e-002,-1.7603823e-001,1.0938437e-001,3.6980614e-002,6.4373777e-002,-2.6669082e-002,-3.3427546e-002,-3.8418314e-002,-6.0431103e-002,7.6923165e-002,-3.4218517e-002,0.0000000e+000,0.0000000e+000,-8.3228895e-002,2.8867435e-002,1.3671755e-001,-1.2486530e-001,3.8618538e-002,8.5450693e-002,-5.1993541e-003,7.1792987e-002,-9.4943637e-002,-6.3580173e-002,-3.4341730e-002,2.8379842e-002,-4.1996975e-003,3.5573006e-002,0.0000000e+000,0.0000000e+000,-1.3363198e-002,1.8783197e-002,1.0240270e-001,-2.0671488e-001,1.1818639e-001,-4.9723564e-002,-7.2869022e-002,1.0824707e-001,5.4432745e-002,-6.9437568e-002,-7.0496669e-002,8.3971494e-002,-1.1285534e-001,4.7319463e-002,0.0000000e+000,0.0000000e+000,-1.7192485e-002,1.4786478e-001,1.0913239e-001,1.4943561e-001,4.1774720e-002,-1.7587335e-002,1.5247680e-002,-4.8389534e-002,-3.8994384e-003,7.1017053e-002,-8.8805315e-004,-6.1261630e-002,-1.9270182e-002,-7.6439258e-002,0.0000000e+000,0.0000000e+000,2.0546792e-002,7.0081602e-002,-1.2763794e-001,-8.9737518e-002,-1.0007783e-001,2.0662271e-002,2.0303384e-002,5.1187485e-002,1.2578607e-002,-9.7583348e-002,5.1581646e-002,-2.4460224e-004,7.5393319e-002,1.0173835e-001,0.0000000e+000,0.0000000e+000,-1.0661126e-001,-3.8995333e-002,-5.3824514e-002,-1.1506841e-001,6.4980188e-002,-4.3386150e-002,1.1092872e-002,3.7248999e-002,-1.4409834e-002,1.0130825e-001,4.0614547e-002,3.3076383e-002,5.5359147e-002,-3.6614701e-002,0.0000000e+000,0.0000000e+000,-4.5172175e-002,-6.9898438e-002,
,657,8.5875664e-002,-4.8941662e-001,2.2189361e-003,-1.3643298e-002,3.4553637e-002,3.6452540e-001,4.0539677e-001,-1.6205238e-001,-1.2553029e-001,-3.5123256e-001,-2.9930575e-001,1.4081697e-001,0.0000000e+000,0.0000000e+000,2.1974674e-001,4.4847889e-002,-2.0662107e-001,2.6056137e-001,-8.9358338e-002,4.2376904e-002,3.7218363e-001,-1.9402569e-001,1.6965507e-002,-1.5453963e-001,-1.9180549e-001,8.6983554e-002,1.4741050e-001,-2.4055122e-002,0.0000000e+000,0.0000000e+000,8.0263288e-003,1.0466507e-001,-3.0865957e-002,-3.0092153e-003,-2.4931321e-003,-1.0617954e-001,-2.3183089e-003,-4.0556118e-002,5.5481591e-002,5.5481408e-002,1.0085937e-001,8.6729154e-002,-3.1555092e-002,-1.6023172e-002,0.0000000e+000,0.0000000e+000,-1.2110234e-001,-2.1118526e-002,-1.2863903e-003,1.0860716e-001,-1.0914827e-001,4.1921612e-002,-1.4517068e-001,-2.1922693e-002,8.8441811e-002,-1.1675692e-001,9.3062922e-002,1.1664931e-002,-1.3027013e-001,5.0984859e-002,0.0000000e+000,0.0000000e+000,9.2595204e-002,-4.3295854e-002,-4.4498816e-002,-1.3387365e-001,4.3087202e-003,1.0165013e-002,1.0479909e-001,1.6958553e-001,4.9966258e-002,-1.0018933e-003,-1.1020855e-001,-1.7041767e-001,1.9898774e-003,2.5203806e-002,0.0000000e+000,0.0000000e+000,-2.1492226e-002,-8.7408666e-002,1.9310659e-001,-1.7253564e-001,8.8292532e-002,-5.7834920e-003,-6.1557643e-002,9.4436558e-002,1.6894021e-001,-9.0268211e-002,3.1427638e-002,-4.1131779e-002,-7.4536749e-002,1.1676368e-001,0.0000000e+000,0.0000000e+000,3.1772332e-002,1.3650145e-002,1.2364800e-002,-1.8423787e-001,9.7732014e-002,-1.0734879e-001,-2.1409630e-001,1.5220659e-001,3.5683097e-002,8.4664684e-002,-1.1424162e-001,2.5164121e-002,5.9572889e-002,-7.3984110e-003,0.0000000e+000,0.0000000e+000,-1.0811834e-002,1.9734361e-001,-1.3102406e-001,1.7598133e-001,-1.5932529e-001,1.0782525e-001,9.0265180e-002,-1.6117332e-001,-1.1853843e-001,1.2868907e-001,-7.5700443e-003,1.5046590e-001,7.6849231e-002,-2.8225699e-002,0.0000000e+000,0.0000000e+000,-2.0958804e-002,9.3536297e-003,3.2438953e-002,-8.1699696e-002,-2.1290217e-001,9.2287806e-002,2.5733772e-002,7.9796433e-002,-3.0455642e-002,-4.4302682e-002,7.5593431e-002,6.1601222e-003,5.1288845e-002,-3.2047678e-002,0.0000000e+000,0.0000000e+000,-1.1750035e-001,-2.2542521e-002,-2.3050612e-002,5.5939815e-002,-8.6871983e-003,3.4368802e-002,-8.7371400e-002,-6.7778961e-002,6.1696711e-002,8.6149887e-002,-9.0190278e-003,1.1948387e-001,-8.2696262e-002,-5.6154061e-002,0.0000000e+000,0.0000000e+000,-8.0637605e-002,-7.8077659e-002,
,669,1.3437078e-001,-1.7536802e-001,5.3800161e-002,-1.8331197e-001,-1.0912321e-002,-7.0796382e-002,2.0517769e-001,-5.6574154e-002,6.2547021e-002,-2.4367491e-001,-2.6421818e-002,1.9432933e-001,0.0000000e+000,0.0000000e+000,-1.9746811e-002,1.6536478e-002,-5.7796601e-003,-5.9957399e-002,1.5867069e-001,-6.9628249e-002,1.0955266e-002,1.5863208e-001,-1.5356138e-001,1.5197558e-001,9.2526487e-002,-8.4826622e-002,9.1517629e-002,-2.1884153e-001,0.0000000e+000,0.0000000e+000,-5.2271199e-003,2.2327816e-002,-3.7631645e-002,-9.8259133e-002,-6.9773445e-002,-7.2005673e-002,-1.0263227e-002,7.1451886e-002,8.0504587e-002,4.9275335e-002,-1.9822294e-001,5.4516990e-002,-1.3909885e-002,-1.1155790e-001,0.0000000e+000,0.0000000e+000,-2.6393964e-002,4.7262433e-002,-1.2270681e-001,2.3696689e-002,1.4868530e-002,-1.6891813e-003,9.9552959e-002,-1.2994035e-001,8.5487014e-002,1.3214205e-001,-2.2574181e-002,1.6419928e-001,-8.9273901e-002,-6.9997268e-002,0.0000000e+000,0.0000000e+000,-8.5619438e-003,-8.8091817e-002,1.8103755e-001,-1.6828631e-002,-2.7800383e-002,-7.7108802e-002,-1.1508722e-001,-1.9528547e-002,1.1601516e-002,-2.0210773e-002,1.5660831e-001,-1.0685609e-001,2.1921666e-002,5.9027428e-002,0.0000000e+000,0.0000000e+000,-2.4017043e-002,3.0925080e-002,2.9100062e-002,1.0449336e-001,-1.3339196e-001,1.9062179e-001,-1.3387537e-001,7.6259320e-002,-6.4712341e-002,3.6081844e-003,-7.7499640e-002,1.3537004e-001,-2.3860057e-002,-4.9947063e-002,0.0000000e+000,0.0000000e+000,-4.1342548e-002,-3.1393962e-002,1.3252999e-002,-3.2116864e-002,-1.1442820e-001,1.0016964e-001,1.6762396e-002,-9.5056724e-003,9.1518478e-003,-3.7106019e-003,-2.2016170e-001,-9.6621984e-002,-3.3928457e-002,8.4856616e-002,0.0000000e+000,0.0000000e+000,1.2867731e-001,1.4684736e-001,1.4123506e-001,-1.2387681e-001,1.0038269e-001,-9.6665869e-002,3.6935944e-002,-8.6182745e-002,4.8652146e-002,8.2597841e-002,2.6541707e-001,-1.5280812e-001,7.0192968e-003,2.2853612e-001,0.0000000e+000,0.0000000e+000,-1.0254247e-001,-2.9696228e-002,4.0352437e-002,2.8642669e-002,-1.9012211e-001,-8.7584064e-002,-3.1802413e-002,8.2624085e-002,-3.0848124e-002,1.1082412e-001,1.0759282e-001,-7.2502105e-002,1.1804961e-001,-1.1392678e-001,0.0000000e+000,0.0000000e+000,-1.3644916e-001,-8.5537044e-002,-1.7297725e-001,5.2086162e-002,5.5568198e-002,1.6755388e-001,6.7086544e-002,3.8159273e-002,-4.1391339e-002,-1.1827939e-001,-1.8300391e-001,2.7495756e-002,6.5761265e-002,-5.5096366e-002,0.0000000e+000,0.0000000e+000,5.0022956e-002,5.7669334e-002,
,681,4.1215384e-002,8.3606970e-003,-4.3400759e-002,-2.7059230e-001,1.3675565e-001,-2.7774097e-001,7.4349035e-002,1.1802798e-001,-1.6167249e-001,1.7216320e-001,-9.7993174e-002,1.0009513e-001,0.0000000e+000,0.0000000e+000,-1.8554698e-002,1.0436773e-001,1.4307880e-001,2.4197356e-001,-1.2197067e-001,1.2065127e-001,-1.2667062e-001,-2.9728503e-001,-9.6071472e-002,-2.2876596e-002,1.5031388e-001,-1.2627186e-001,1.9549586e-001,5.8801277e-003,0.0000000e+000,0.0000000e+000,7.1332942e-002,-9.6436239e-002,-6.3868181e-002,-1.8839731e-002,1.0480502e-001,-1.1455872e-001,-4.2009216e-002,7.9387393e-002,-1.3043867e-001,1.5918825e-001,1.1615260e-001,-7.9262844e-002,1.1551056e-001,-5.9185780e-005,0.0000000e+000,0.0000000e+000,-1.1429168e-001,-2.0192573e-002,-7.4087721e-002,1.2870227e-001,-3.6621130e-002,-3.2529041e-002,2.6261787e-002,-6.2150850e-002,9.3539923e-002,-5.3241128e-002,-3.2657942e-002,1.0439644e-001,-1.3926829e-001,1.6598104e-001,0.0000000e+000,0.0000000e+000,-7.3327453e-003,9.1798499e-003,-1.6128615e-002,-2.3218172e-002,-6.8273472e-004,5.5024599e-002,-1.5806963e-001,1.2841967e-001,-5.5160047e-002,8.9780434e-003,7.5117894e-002,1.3278350e-001,-4.2576777e-002,-8.6956875e-002,0.0000000e+000,0.0000000e+000,-1.9010741e-002,-8.5182379e-002,2.1239335e-001,7.9017633e-002,5.5182296e-002,1.4159063e-002,-1.7946381e-001,-5.1930504e-002,7.4914608e-002,-6.6415762e-002,6.4448078e-002,-8.9074306e-002,-6.3556252e-002,-3.2396091e-002,0.0000000e+000,0.0000000e+000,1.4810085e-001,-1.3316284e-002,-1.4139417e-002,-6.4273011e-002,-2.5819565e-001,1.0632913e-003,6.6594479e-002,-1.3463491e-001,2.0523697e-001,-4.2404177e-002,-2.4695013e-002,-1.0383129e-001,8.2854434e-002,7.9272891e-002,0.0000000e+000,0.0000000e+000,-1.0284370e-001,8.1385696e-002,8.7977547e-002,-1.4594244e-002,-4.7069146e-002,2.0006303e-003,-2.3983970e-001,8.2609891e-002,-4.3904043e-002,2.5012260e-001,9.4689203e-002,-1.3651068e-001,-4.5359795e-002,1.7384703e-002,0.0000000e+000,0.0000000e+000,-1.8168034e-002,-8.0661560e-002,2.2682831e-001,-6.3894458e-002,5.4793828e-002,-8.0163493e-002,-1.5596598e-001,1.5069903e-001,-5.8717720e-002,5.7250911e-002,6.1803203e-002,3.7445028e-002,2.8404457e-003,-9.8126934e-002,0.0000000e+000,0.0000000e+000,1.3945574e-002,-1.4662249e-002,-4.4537505e-002,4.2070294e-002,9.3093137e-002,-9.0184698e-002,1.4275190e-001,-1.1540578e-001,1.8513296e-002,8.0045457e-002,-8.0374884e-002,5.0944058e-002,6.0816156e-002,3.1709448e-002,0.0000000e+000,0.0000000e+000,-6.3446486e-002,1.6030971e-001,
,693,-4.3274370e-003,1.9731112e-002,-3.0163736e-002,-5.9636481e-002,-2.5197480e-001,2.7181984e-001,-9.0071578e-002,2.1643146e-001,2.0945837e-001,-3.5656710e-001,1.0089206e-002,-9.4328382e-002,0.0000000e+000,0.0000000e+000,1.2197433e-001,-1.7573614e-001,7.4385435e-002,-7.8280555e-002,8.9216934e-002,-2.1822043e-001,-1.8211210e-001,8.2965941e-002,-1.1112496e-001,8.5835826e-002,8.4325535e-002,1.2293268e-001,-6.5852219e-002,6.8107232e-002,0.0000000e+000,0.0000000e+000,-1.3554656e-001,1.0050625e-001,-1.1582469e-002,-5.7609441e-002,-7.1889712e-002,-1.0518018e-002,-5.9443344e-002,5.4817823e-003,1.1960392e-001,-5.3438731e-002,1.0820093e-001,-7.2945749e-002,6.6875915e-002,5.2355409e-002,0.0000000e+000,0.0000000e+000,1.1643482e-002,6.1613836e-002,-3.4952080e-002,1.4413115e-002,-6.5219921e-003,-4.8377710e-002,-3.0572315e-002,4.4086472e-002,-1.9195895e-001,6.9038135e-002,7.7646027e-002,1.2092820e-001,5.7487941e-002,3.2357446e-002,0.0000000e+000,0.0000000e+000,9.8290843e-003,-8.8317016e-002,-9.3201655e-002,5.5869585e-002,-9.1926888e-005,1.5101547e-001,3.0411813e-002,-2.4048495e-002,-5.0976615e-002,-8.9636529e-002,-2.9293760e-002,4.3441151e-004,1.6257067e-001,-4.1983646e-002,0.0000000e+000,0.0000000e+000,-1.2601422e-001,-2.5277358e-002,-1.6587783e-002,1.9687092e-002,-1.1135849e-001,2.0507217e-004,6.3202874e-002,9.8197555e-003,7.5643757e-002,1.6035152e-001,-1.2263543e-001,-7.8940607e-002,-5.4179817e-002,-2.4513670e-001,0.0000000e+000,0.0000000e+000,7.7578665e-002,-6.8266159e-002,4.4172578e-002,-1.2465408e-001,-4.3109125e-002,1.9644494e-002,-1.9235886e-001,1.5033998e-001,-1.8555273e-001,9.1368645e-002,1.9297767e-001,-6.0226038e-003,-9.9608314e-002,-1.1505774e-002,0.0000000e+000,0.0000000e+000,5.8914828e-002,2.4627546e-002,5.7396469e-002,-3.1303979e-002,8.2723928e-002,-8.2602357e-002,-1.0543942e-001,-5.2453419e-002,6.8388243e-002,4.7649699e-002,-7.3483096e-003,1.1438202e-001,-3.6954734e-002,1.0397828e-001,0.0000000e+000,0.0000000e+000,-1.0080084e-001,1.5720884e-001,1.1059575e-001,-1.4834383e-001,-1.0664874e-001,1.3455168e-001,-8.9744933e-003,-6.4933821e-004,2.3524768e-001,-1.2499727e-001,-9.1622734e-002,-2.8151711e-004,-1.3650689e-001,-7.5581788e-003,0.0000000e+000,0.0000000e+000,2.3046216e-002,8.6320781e-002,7.5008171e-003,3.8918934e-002,3.6234100e-002,5.8169873e-002,-4.7607887e-002,7.3745406e-002,-1.1287521e-001,1.3451635e-001,2.7662963e-002,-5.0880934e-002,-6.4577830e-002,-5.0154569e-002,0.0000000e+000,0.0000000e+000,9.8189072e-002,-6.0317194e-002,
,705,-1.0825714e-002,-9.7321975e-002,9.7472835e-002,7.8406423e-002,1.1474423e-001,3.0791497e-001,-8.4639363e-002,-1.4443162e-001,-3.1430629e-001,-1.6173466e-001,3.6829703e-002,1.2440292e-001,0.0000000e+000,0.0000000e+000,6.1241313e-002,1.9904150e-001,-1.3308940e-001,-3.8835065e-002,1.4091955e-001,-6.6812506e-002,2.6457539e-001,-2.2329802e-001,7.5952194e-003,6.7316429e-002,4.5074024e-002,-2.2415232e-002,1.5245709e-001,-1.0520828e-001,0.0000000e+000,0.0000000e+000,-1.6451290e-001,5.0525735e-002,4.9820179e-002,-1.6694462e-001,1.9670042e-002,1.6493204e-005,-1.0491866e-001,1.2877030e-001,-6.8562625e-002,9.0193476e-002,4.6557372e-002,5.9082068e-004,1.3706909e-001,-7.4119156e-002,0.0000000e+000,0.0000000e+000,-9.3842856e-002,-5.6637178e-002,-7.3240568e-002,6.4897200e-002,-1.7957634e-002,-5.6390239e-002,3.7252020e-002,-1.4189456e-001,5.0600336e-002,-4.8969277e-002,-1.8154469e-003,1.4636868e-001,3.6758068e-002,1.4936653e-002,0.0000000e+000,0.0000000e+000,-6.6048882e-002,3.5838916e-003,7.1800240e-002,-1.9191430e-001,-1.5043343e-002,3.2389121e-002,-2.0178549e-002,1.8299630e-001,-7.3195668e-002,-1.3590145e-003,-1.1433020e-001,3.2513086e-002,-9.6328752e-002,6.1645093e-002,0.0000000e+000,0.0000000e+000,-5.6728525e-002,9.7253394e-002,4.2112311e-002,-3.8849278e-002,1.9731888e-001,-3.6493342e-002,-6.1976227e-002,-7.4890258e-002,-1.0907150e-001,1.8471240e-001,2.8950014e-002,8.7360184e-002,-1.1796227e-001,-1.9144673e-002,0.0000000e+000,0.0000000e+000,3.8295191e-003,-1.0022870e-001,3.6609472e-002,-8.7644499e-002,-2.1360453e-002,-5.6202735e-002,-4.4568493e-003,1.0117919e-003,4.1729364e-002,-4.7198633e-002,1.0186376e-001,-2.0136885e-001,9.6086437e-003,-7.4724091e-002,0.0000000e+000,0.0000000e+000,-4.7157689e-002,-1.8807561e-002,3.3293315e-002,7.6332448e-002,-2.3165094e-002,-2.8052511e-002,-1.2939939e-001,-1.4495407e-001,-1.0234085e-001,8.9402317e-002,1.1634875e-001,1.8175802e-001,-1.9701982e-002,7.8788696e-002,0.0000000e+000,0.0000000e+000,-1.1633377e-001,1.5283099e-002,-3.7781355e-002,-4.3228514e-002,-7.7252514e-002,-7.8525208e-002,3.0533457e-002,1.2754311e-001,-2.3752216e-002,1.7652351e-001,-5.2949279e-002,1.8465889e-001,1.1643773e-002,-1.1543005e-001,0.0000000e+000,0.0000000e+000,2.2925264e-002,6.0491555e-002,-2.8556349e-002,-7.4147561e-004,1.1293311e-001,9.1443748e-002,1.0196258e-001,6.4296540e-002,-6.1825443e-002,-9.8307018e-002,-8.4661641e-002,-3.3873835e-002,5.4035950e-002,-2.1596090e-002,0.0000000e+000,0.0000000e+000,-8.2441473e-002,-3.3144064e-002,
,717,-4.4651600e-003,6.8820464e-002,-8.5403573e-002,4.4416672e-002,-4.0871397e-002,1.3821685e-002,1.4028042e-001,-5.3989859e-002,-5.1144035e-002,-1.3463390e-001,1.6026393e-001,-4.6485985e-002,0.0000000e+000,0.0000000e+000,-5.8208519e-002,1.8329146e-001,-1.5590402e-001,2.4222322e-002,1.0790218e-001,-5.6658222e-002,2.6096893e-001,-8.6108559e-003,-1.5788702e-001,-2.6947034e-002,-1.0393203e-001,-5.1264622e-002,1.0309278e-001,-3.9066293e-002,0.0000000e+000,0.0000000e+000,-2.1588931e-002,1.9887380e-002,6.7182094e-003,-5.7234663e-002,-8.7747406e-002,5.2696616e-002,-5.8614476e-002,5.6303736e-002,-1.1520832e-002,1.9174888e-002,3.6774516e-003,2.1293239e-005,7.6727981e-002,3.6115699e-003,0.0000000e+000,0.0000000e+000,-1.6377059e-001,-9.9172278e-003,1.8424051e-002,-1.4663287e-002,8.5877429e-002,3.4711946e-002,-2.7908633e-002,9.9477459e-002,-1.9395746e-001,5.0314640e-002,6.6483282e-002,-8.3287741e-003,-4.7060356e-002,8.7293999e-002,0.0000000e+000,0.0000000e+000,7.6453279e-002,-8.8223821e-002,1.4407466e-001,-3.5466343e-002,2.4385561e-002,5.1285680e-002,-7.3462898e-002,-1.1862780e-001,6.6707538e-002,-1.0057074e-001,-5.4010653e-002,9.8969552e-002,-5.5679903e-002,4.3541458e-003,0.0000000e+000,0.0000000e+000,-5.0493367e-003,7.9607158e-003,1.1110778e-002,-6.3288099e-002,6.0277841e-002,-4.8097941e-002,3.6151734e-002,-5.1952440e-002,1.8536062e-001,3.6696383e-002,-3.6128372e-002,4.5654127e-002,-1.4946717e-001,-2.1259780e-002,0.0000000e+000,0.0000000e+000,-4.2121406e-002,6.4258653e-003,-1.8369275e-001,4.5230112e-002,-1.8329100e-001,9.7627304e-002,1.0887687e-001,1.5996997e-001,5.3767816e-002,-9.2194620e-002,1.6561050e-003,-8.4169190e-002,-8.8398878e-002,9.5115922e-002,0.0000000e+000,0.0000000e+000,-9.2318055e-002,1.3044454e-001,1.8156779e-002,1.3211661e-001,-1.8385783e-001,2.1915187e-001,-4.9285172e-002,1.2160669e-001,-7.5792017e-002,-5.3563370e-002,1.0844693e-003,-8.0004846e-002,6.3933159e-002,1.3749265e-001,0.0000000e+000,0.0000000e+000,-6.8912385e-002,-1.2061813e-001,8.0121720e-002,-5.0867210e-002,9.0868159e-002,-4.7382091e-002,-5.3309030e-002,-4.9163435e-002,2.2999862e-002,6.8819876e-002,-6.8028858e-002,3.7151755e-002,6.1423629e-002,-1.1417991e-002,0.0000000e+000,0.0000000e+000,-4.6709250e-002,-4.9899201e-002,9.2449903e-002,-9.4915080e-002,3.6272773e-002,-7.1266438e-002,-4.6868163e-002,-2.1292165e-002,1.6202173e-001,3.9233652e-002,-1.4643574e-002,-4.9619151e-002,-1.1981404e-001,-1.2260041e-001,0.0000000e+000,0.0000000e+000,1.5870657e-002,7.9545401e-002,
,729,2.6523077e-002,-4.1483215e-001,1.0079287e-001,7.9388666e-002,9.5396949e-002,5.2997841e-001,-2.2735658e-001,1.8028938e-001,-3.4763622e-001,1.0417593e-001,2.0493231e-001,-1.7165654e-001,0.0000000e+000,0.0000000e+000,-1.3150116e-001,-1.1858431e-001,2.5743145e-001,-4.3719835e-001,1.2294001e-001,-1.7318065e-001,-1.7317466e-001,1.9804405e-001,-3.8255503e-002,-1.0098263e-001,-1.0447031e-002,4.9182900e-002,-1.3544446e-001,2.5136481e-001,0.0000000e+000,0.0000000e+000,-2.7543607e-002,-2.1137960e-002,5.7103976e-002,9.3505218e-003,-1.8807526e-001,1.1058290e-001,-1.1116112e-001,-3.5533492e-002,7.2560665e-002,-1.1627729e-001,-1.2659880e-001,8.2357603e-002,-1.7691131e-002,8.4090553e-002,0.0000000e+000,0.0000000e+000,-7.9326211e-002,1.3443003e-001,-1.3059718e-001,1.5605170e-001,-8.9331270e-002,3.7991000e-002,3.7214229e-002,-1.9073230e-001,4.7571797e-002,6.3439727e-002,-7.8964358e-002,2.5682873e-001,-8.7646754e-002,-9.1622841e-003,0.0000000e+000,0.0000000e+000,3.1774332e-002,-1.1628467e-001,4.8599011e-002,4.4956939e-002,-1.2671253e-001,-9.8544231e-002,-1.7603046e-001,9.0429523e-002,3.0539866e-002,1.5995456e-001,2.7752238e-001,-2.2136118e-001,4.0425550e-002,-1.7337537e-001,0.0000000e+000,0.0000000e+000,-5.4000818e-002,8.4352755e-002,-2.1062867e-001,7.0340329e-003,-1.1813362e-001,1.9969676e-001,9.1864573e-002,-1.8130002e-002,-5.3612361e-002,-9.3011979e-002,8.1886161e-002,7.6548157e-002,1.3828031e-002,1.7716897e-001,0.0000000e+000,0.0000000e+000,-2.5178062e-002,-1.2164801e-002,6.8447572e-002,-3.4928047e-001,-2.0608006e-002,3.5552302e-002,1.8712261e-001,-4.5833600e-002,-9.7497739e-003,9.7158608e-002,-1.6797343e-001,9.9376060e-002,1.4920209e-001,-2.8943599e-003,0.0000000e+000,0.0000000e+000,-1.8383652e-001,-6.3672119e-003,1.2005267e-001,-1.0524511e-001,2.2173673e-001,-1.6404379e-001,1.2396251e-001,-4.9814566e-003,1.7561859e-001,-9.6987714e-003,3.0280327e-002,1.9823668e-002,-1.9327338e-001,4.7738780e-002,0.0000000e+000,0.0000000e+000,6.8499663e-002,-1.8289561e-001,1.0402105e-001,-2.1495293e-002,-2.3947903e-001,2.7095243e-001,-2.1900642e-001,1.9509363e-001,8.9087598e-002,-1.2178227e-001,2.2446698e-002,-2.6001575e-002,6.1966400e-002,-7.2543119e-004,0.0000000e+000,0.0000000e+000,-2.9186526e-002,-1.0356372e-003,-5.2657245e-003,9.5417060e-002,-1.7583801e-001,5.3204008e-002,-4.5554868e-002,3.5254713e-002,1.4062668e-002,2.5663516e-002,-2.3769036e-002,-1.5204459e-001,4.3882746e-002,-1.7150882e-002,0.0000000e+000,0.0000000e+000,2.4333247e-003,2.2450847e-002,
,741,7.0795912e-003,-2.7443445e-002,-2.7566724e-001,1.2498031e-001,-9.5262695e-002,3.2805627e-002,5.3050186e-002,-1.3055508e-001,1.2215518e-001,-5.0652548e-003,-8.1703969e-002,1.3439833e-001,0.0000000e+000,0.0000000e+000,1.1989048e-001,-1.2023264e-001,2.3784503e-001,1.7406038e-001,-2.8616921e-001,1.1727807e-001,-1.6032078e-001,-3.4686253e-001,1.5739452e-001,-1.5210556e-001,1.4911365e-002,2.4996854e-001,-6.6542664e-002,-5.0531212e-003,0.0000000e+000,0.0000000e+000,-9.6261819e-002,-6.6580792e-002,4.5186554e-002,-6.4100409e-003,-1.8825800e-001,1.0228649e-001,-1.0602220e-001,4.2423643e-002,3.5921755e-004,4.1638724e-002,-1.2091318e-001,1.5104376e-001,1.3482011e-001,-2.1107219e-001,0.0000000e+000,0.0000000e+000,-9.3665327e-002,9.2593828e-002,2.1010454e-001,-8.4330525e-002,-3.5530171e-002,-1.5614296e-002,-1.4513503e-001,-8.6287879e-002,3.0340118e-002,1.0267708e-001,2.0010352e-001,-1.3387608e-002,8.5693980e-003,6.2597493e-003,0.0000000e+000,0.0000000e+000,5.2070792e-002,1.3139940e-002,2.1375774e-002,-9.3481553e-002,-2.3185015e-002,7.9404510e-002,-1.7371560e-001,-6.7349071e-002,-5.9413102e-002,-5.9297862e-002,1.5993286e-001,-1.4105072e-002,-9.3881058e-002,2.1619846e-002,0.0000000e+000,0.0000000e+000,3.0640417e-002,7.4944284e-002,4.8595500e-002,-8.0855075e-003,7.3540965e-003,4.5619495e-002,-9.2563033e-002,2.3026325e-001,-1.1188818e-001,1.1921827e-001,-5.6726368e-003,-7.1738979e-002,8.5481557e-002,-3.8583691e-002,0.0000000e+000,0.0000000e+000,-5.4469821e-002,-1.0006325e-001,-6.4247647e-002,-2.7819480e-002,-1.6136821e-001,1.7162568e-001,-3.0588070e-002,2.0561930e-002,9.1274570e-002,7.9453189e-003,-1.1981630e-001,-1.5416346e-001,-1.1442185e-001,4.0754462e-002,0.0000000e+000,0.0000000e+000,-3.4888782e-002,5.3158873e-002,-7.4409455e-002,1.8564579e-002,-2.7283258e-002,-2.6031785e-002,-3.3643683e-002,5.0567493e-002,3.2485557e-002,-7.1348538e-002,-5.5096354e-002,-2.9726159e-002,-1.8086837e-001,5.4509287e-002,0.0000000e+000,0.0000000e+000,2.2817303e-002,1.2675942e-001,1.3681006e-002,-1.3120333e-001,2.2451704e-001,-2.9827192e-002,1.4219891e-002,1.3062308e-002,-4.6225548e-002,-2.9503942e-002,2.0944887e-001,3.5317289e-002,6.9839216e-002,-5.3787222e-002,0.0000000e+000,0.0000000e+000,-3.6189088e-002,-5.3644624e-002,-6.8801067e-002,9.1995224e-002,-2.6924737e-002,1.9850638e-001,1.5507032e-001,-1.9441213e-001,-4.7224026e-002,3.6064139e-002,6.7382840e-002,8.4036059e-002,4.5136083e-002,-5.7069548e-002,0.0000000e+000,0.0000000e+000,9.0035300e-003,-1.6268467e-001,
,