  7.0795912e-003
 -2.7443445e-002
 -2.7566724e-001
  1.2498031e-001
 -9.5262695e-002
  3.2805627e-002
  5.3050186e-002
 -1.3055508e-001
  1.2215518e-001
 -5.0652548e-003
 -8.1703969e-002
  1.3439833e-001
  0.0000000e+000
  0.0000000e+000
  1.1989048e-001
 -1.2023264e-001
  2.3784503e-001
  1.7406038e-001
 -2.8616921e-001
  1.1727807e-001
 -1.6032078e-001
 -3.4686253e-001
  1.5739452e-001
 -1.5210556e-001
  1.4911365e-002
  2.4996854e-001
 -6.6542664e-002
 -5.0531212e-003
  0.0000000e+000
  0.0000000e+000
 -9.6261819e-002
 -6.6580792e-002
  4.5186554e-002
 -6.4100409e-003
 -1.8825800e-001
  1.0228649e-001
 -1.0602220e-001
  4.2423643e-002
  3.5921755e-004
  4.1638724e-002
 -1.2091318e-001
  1.5104376e-001
  1.3482011e-001
 -2.1107219e-001
  0.0000000e+000
  0.0000000e+000
 -9.3665327e-002
  9.2593828e-002
  2.1010454e-001
 -8.4330525e-002
 -3.5530171e-002
 -1.5614296e-002
 -1.4513503e-001
 -8.6287879e-002
  3.0340118e-002
  1.0267708e-001
  2.0010352e-001
 -1.3387608e-002
  8.5693980e-003
  6.2597493e-003
  0.0000000e+000
  0.0000000e+000
  5.2070792e-002
  1.3139940e-002
  2.1375774e-002
 -9.3481553e-002
 -2.3185015e-002
  7.9404510e-002
 -1.7371560e-001
 -6.7349071e-002
 -5.9413102e-002
 -5.9297862e-002
  1.5993286e-001
 -1.4105072e-002
 -9.3881058e-002
  2.1619846e-002
  0.0000000e+000
  0.0000000e+000
  3.0640417e-002
  7.4944284e-002
  4.8595500e-002
 -8.0855075e-003
  7.3540965e-003
  4.5619495e-002
 -9.2563033e-002
  2.3026325e-001
 -1.1188818e-001
  1.1921827e-001
 -5.6726368e-003
 -7.1738979e-002
  8.5481557e-002
 -3.8583691e-002
  0.0000000e+000
  0.0000000e+000
 -5.4469821e-002
 -1.0006325e-001
 -6.4247647e-002
 -2.7819480e-002
 -1.6136821e-001
  1.7162568e-001
 -3.0588070e-002
  2.0561930e-002
  9.1274570e-002
  7.9453189e-003
 -1.1981630e-001
 -1.5416346e-001
 -1.1442185e-001
  4.0754462e-002
  0.0000000e+000
  0.0000000e+000
 -3.4888782e-002
  5.3158873e-002
 -7.4409455e-002
  1.8564579e-002
 -2.7283258e-002
 -2.6031785e-002
 -3.3643683e-002
  5.0567493e-002
  3.2485557e-002
 -7.1348538e-002
 -5.5096354e-002
 -2.9726159e-002
 -1.8086837e-001
  5.4509287e-002
  0.0000000e+000
  0.0000000e+000
  2.2817303e-002
  1.2675942e-001
  1.3681006e-002
 -1.3120333e-001
  2.2451704e-001
 -2.9827192e-002
  1.4219891e-002
  1.3062308e-002
 -4.6225548e-002
 -2.9503942e-002
  2.0944887e-001
  3.5317289e-002
  6.9839216e-002
 -5.3787222e-002
  0.0000000e+000
  0.0000000e+000
 -3.6189088e-002
 -5.3644624e-002
 -6.8801067e-002
  9.1995224e-002
 -2.6924737e-002
  1.9850638e-001
  1.5507032e-001
 -1.9441213e-001
 -4.7224026e-002
  3.6064139e-002
  6.7382840e-002
  8.4036059e-002
  4.5136083e-002
 -5.7069548e-002
  0.0000000e+000
  0.0000000e+000
  9.0035300e-003
 -1.6268467e-001
