-0.019679, -0.013550, 0.005638, -0.017781, 0.003562, 0.013943, 0.031914, 0.007971, 0.008636, -0.023489, -0.049441, 0.019447, 0.000000, 0.000000, 0.033166, 0.003297, 0.003340, 0.014624, -0.000957, 0.005798, 0.000833, -0.027859, 0.013570, -0.010994, 0.026693, 0.016356, -0.009809, 0.006066, 0.000000, 0.000000, 0.004388, -0.010668, 0.001120, -0.001519, -0.010206, 0.019396, 0.004617, -0.008554, 0.008455, -0.000426, -0.005707, -0.018523, -0.010366, -0.007410, 0.000000, 0.000000, 0.026249, -0.002912, -0.004857, 0.032191, -0.024456, -0.008924, -0.011596, 0.009911, 0.018921, 0.011794, -0.006581, -0.002230, -0.015268, -0.005516, 0.000000, 0.000000, -0.002331, 0.004766, -0.009822, -0.020709, -0.010849, -0.025878, -0.024955, 0.013444, 0.012432, 0.014209, 0.026569, -0.023885, 0.007973, -0.035650, 0.000000, 0.000000, -0.022817, 0.005263, -0.020617, 0.006232, -0.007480, 0.016160, 0.026587, -0.009939, -0.029588, -0.000377, -0.011963, 0.023220, 0.005602, -0.001408, 0.000000, 0.000000, 0.021582, -0.004662, 0.021349, -0.023184, -0.019224, 0.039605, -0.011389, 0.020445, 0.009754, -0.006605, -0.000890, 0.007405, -0.002499, 0.010217, 0.000000, 0.000000, 0.004445, 0.041065, 0.040409, -0.022162, 0.024387, 0.000538, -0.024944, -0.003053, 0.025318, 0.013098, 0.019844, -0.020044, -0.014420, 0.001662, 0.000000, 0.000000, -0.027997, 0.024892, -0.008423, -0.001658, 0.024872, -0.037313, -0.007676, -0.002539, -0.010255, -0.022967, 0.037032, -0.006067, 0.000208, 0.011895, 0.000000, 0.000000, -0.010191, -0.024425, -0.008994, 0.005044, -0.005130, 0.006468, 0.020051, 0.003903, 0.000164, -0.022466, -0.016593, 0.010633, 0.019775, 0.019397, 0.000000, 0.000000, -0.008938, -0.030297, 
-0.037391, -0.025745, 0.010713, -0.033784, 0.006768, 0.026492, 0.060636, 0.015145, 0.016408, -0.044629, -0.093937, 0.036950, 0.000000, 0.000000, 0.063015, 0.006264, 0.006345, 0.027787, -0.001818, 0.011017, 0.001583, -0.052932, 0.025783, -0.020888, 0.050716, 0.031077, -0.018638, 0.011526, 0.000000, 0.000000, 0.008338, -0.020270, 0.002128, -0.002886, -0.019391, 0.036852, 0.008773, -0.016253, 0.016065, -0.000810, -0.010844, -0.035195, -0.019696, -0.014078, 0.000000, 0.000000, 0.049873, -0.005532, -0.009229, 0.061164, -0.046466, -0.016957, -0.022032, 0.018830, 0.035950, 0.022409, -0.012503, -0.004237, -0.029009, -0.010480, 0.000000, 0.000000, -0.004429, 0.009055, -0.018661, -0.039347, -0.020613, -0.049168, -0.047414, 0.025543, 0.023620, 0.026996, 0.050482, -0.045381, 0.015148, -0.067735, 0.000000, 0.000000, -0.043353, 0.009999, -0.039173, 0.011840, -0.014212, 0.030704, 0.050515, -0.018885, -0.056216, -0.000716, -0.022730, 0.044118, 0.010645, -0.002675, 0.000000, 0.000000, 0.041006, -0.008858, 0.040564, -0.044050, -0.036526, 0.075250, -0.021638, 0.038845, 0.018533, -0.012549, -0.001690, 0.014069, -0.004747, 0.019413, 0.000000, 0.000000, 0.008445, 0.078023, 0.076777, -0.042107, 0.046336, 0.001023, -0.047393, -0.005800, 0.048105, 0.024886, 0.037703, -0.038083, -0.027399, 0.003158, 0.000000, 0.000000, -0.053193, 0.047296, -0.016003, -0.003151, 0.047256, -0.070894, -0.014585, -0.004824, -0.019484, -0.043638, 0.070361, -0.011527, 0.000396, 0.022600, 0.000000, 0.000000, -0.019363, -0.046408, -0.017089, 0.009584, -0.009748, 0.012289, 0.038096, 0.007417, 0.000312, -0.042685, -0.031527, 0.020203, 0.037573, 0.036854, 0.000000, 0.000000, -0.016982, -0.057564, 
-0.033344, -0.040614, 0.004891, -0.018086, 0.019351, 0.029531, 0.057427, 0.011615, 0.013160, -0.039920, -0.082372, 0.032291, 0.000000, 0.000000, 0.051079, 0.001076, 0.008368, 0.010158, 0.012371, -0.000794, 0.013841, -0.031002, 0.004573, -0.003637, 0.024255, 0.026353, -0.017355, 0.010612, 0.000000, 0.000000, 0.008955, -0.011879, 0.008131, -0.014095, -0.016628, 0.035877, -0.001586, -0.007363, 0.010395, 0.000761, -0.015952, -0.027452, -0.012301, -0.017346, 0.000000, 0.000000, 0.032710, 0.000174, 0.001037, 0.059870, -0.044939, -0.021307, -0.020611, 0.015339, 0.039960, 0.020576, -0.015982, -0.004204, -0.031364, -0.005050, 0.000000, 0.000000, -0.000165, 0.010209, -0.016372, -0.050668, -0.014574, -0.038620, -0.040633, 0.025812, 0.018151, 0.024747, 0.039569, -0.041140, 0.010689, -0.063832, 0.000000, 0.000000, -0.042975, 0.009419, -0.029474, 0.011090, -0.007426, 0.024828, 0.034326, -0.014154, -0.054888, 0.004302, -0.012088, 0.037087, 0.004672, -0.000274, 0.000000, 0.000000, 0.035223, -0.014183, 0.034199, -0.040570, -0.041385, 0.068581, -0.021824, 0.031113, 0.019388, -0.018222, -0.004309, 0.017996, -0.003966, 0.014310, 0.000000, 0.000000, 0.007564, 0.072662, 0.074344, -0.041400, 0.040229, 0.000580, -0.043834, -0.008596, 0.049281, 0.026153, 0.029728, -0.037289, -0.026805, 0.001626, 0.000000, 0.000000, -0.045259, 0.040766, -0.014962, -0.009540, 0.047336, -0.058337, -0.013684, 0.002360, -0.016060, -0.037043, 0.065470, -0.014601, 0.008710, 0.018177, 0.000000, 0.000000, -0.016618, -0.043860, -0.016675, 0.011728, -0.001891, 0.011873, 0.033353, 0.006617, 0.002126, -0.036598, -0.038836, 0.024277, 0.029177, 0.041512, 0.000000, 0.000000, -0.016950, -0.049703, 
-0.032351, -0.049164, -0.021575, -0.009345, 0.031674, 0.034811, 0.062248, 0.019781, -0.000390, -0.045020, -0.095259, 0.037247, 0.000000, 0.000000, 0.043759, -0.001864, 0.011942, 0.011297, 0.008841, 0.004974, 0.014851, -0.026470, 0.005397, -0.013448, 0.018039, 0.028566, -0.026550, 0.022478, 0.000000, 0.000000, 0.019895, -0.017581, 0.014639, -0.028963, -0.016151, 0.026930, -0.014559, 0.002996, 0.008932, 0.001627, -0.019888, -0.018614, -0.012288, -0.016190, 0.000000, 0.000000, 0.011455, 0.003216, 0.008686, 0.052191, -0.046448, -0.017189, -0.024466, 0.009913, 0.038771, 0.020738, -0.017750, 0.002002, -0.037005, 0.000872, 0.000000, 0.000000, 0.001482, 0.008505, -0.012720, -0.056236, -0.019450, -0.033893, -0.043821, 0.026911, 0.021699, 0.033202, 0.027084, -0.038525, 0.000151, -0.060512, 0.000000, 0.000000, -0.042163, 0.011169, -0.027678, 0.008502, -0.011303, 0.029718, 0.028990, -0.011116, -0.049285, 0.011147, -0.008232, 0.030635, 0.006847, -0.000647, 0.000000, 0.000000, 0.032190, -0.010915, 0.031594, -0.042229, -0.039001, 0.061411, -0.022611, 0.031357, 0.026845, -0.021539, -0.000566, 0.016129, -0.006707, 0.010102, 0.000000, 0.000000, 0.004897, 0.064948, 0.076538, -0.034411, 0.035602, -0.005101, -0.045377, -0.013828, 0.058296, 0.021313, 0.022075, -0.032108, -0.023141, -0.005187, 0.000000, 0.000000, -0.031567, 0.038283, -0.008267, -0.020699, 0.045329, -0.048533, -0.006655, -0.000575, -0.015968, -0.038006, 0.058811, -0.017129, 0.008640, 0.015427, 0.000000, 0.000000, -0.016697, -0.035515, -0.012432, 0.008272, -0.000711, 0.018079, 0.027048, 0.005647, 0.002487, -0.029259, -0.037443, 0.020018, 0.016693, 0.038112, 0.000000, 0.000000, -0.014643, -0.046185, 
-0.028077, -0.065559, -0.020940, 0.011646, 0.027142, 0.047584, 0.049116, -0.013097, -0.004060, -0.051147, -0.077717, 0.051053, 0.000000, 0.000000, 0.033300, 0.011842, 0.026461, -0.002495, 0.020370, 0.000370, 0.006068, -0.018682, -0.024051, 0.000175, 0.012118, 0.027841, -0.020542, 0.018856, 0.000000, 0.000000, 0.022454, -0.012542, 0.015343, -0.024365, -0.025623, 0.025262, -0.030179, 0.000186, 0.023400, -0.002538, -0.024144, -0.022624, -0.015309, -0.004626, 0.000000, 0.000000, 0.004948, 0.007026, 0.012259, 0.050410, -0.043469, -0.018168, -0.024495, 0.000397, 0.033759, 0.021858, -0.018254, 0.009916, -0.043903, 0.007376, 0.000000, 0.000000, -0.004865, 0.003662, -0.011497, -0.056076, -0.022692, -0.022537, -0.037356, 0.029950, 0.012074, 0.027856, 0.023686, -0.036526, 0.007289, -0.060384, 0.000000, 0.000000, -0.044523, 0.010158, -0.017805, 0.008519, -0.017262, 0.031333, 0.023948, -0.017348, -0.040382, 0.012218, -0.005368, 0.031932, -0.004285, 0.002542, 0.000000, 0.000000, 0.030824, -0.011533, 0.020121, -0.020666, -0.046673, 0.046857, -0.030099, 0.026571, 0.025474, -0.021751, 0.002899, 0.015900, -0.020715, 0.013844, 0.000000, 0.000000, -0.009854, 0.066561, 0.066094, -0.020316, 0.027433, -0.000276, -0.038271, -0.013642, 0.057140, 0.014478, 0.021590, -0.030116, -0.022236, 0.002289, 0.000000, 0.000000, -0.021637, 0.035803, 0.006187, -0.035345, 0.038176, -0.029649, -0.007582, 0.005227, -0.027841, -0.034615, 0.056606, -0.013469, 0.019793, 0.011110, 0.000000, 0.000000, -0.019019, -0.039643, -0.012231, -0.001159, 0.005433, 0.021857, 0.025365, 0.004607, 0.004397, -0.023020, -0.039991, 0.012373, 0.026395, 0.033943, 0.000000, 0.000000, -0.016715, -0.043308, 
-0.003073, -0.101728, -0.005043, -0.002435, 0.041699, 0.060122, 0.027144, 0.005496, -0.032695, -0.045083, -0.067826, 0.033106, 0.000000, 0.000000, 0.029282, 0.022761, 0.014724, -0.002430, 0.021874, -0.004595, 0.012903, -0.021188, -0.026004, 0.004235, 0.017128, 0.018039, -0.000859, 0.008695, 0.000000, 0.000000, 0.024118, -0.012480, 0.013956, -0.023470, -0.029406, 0.020870, -0.029701, -0.001115, 0.020401, 0.000631, -0.017406, -0.019434, -0.008523, -0.005249, 0.000000, 0.000000, -0.011654, 0.006232, 0.009816, 0.058048, -0.051822, -0.019010, -0.023613, -0.007489, 0.035578, 0.030847, -0.015725, 0.013806, -0.042722, 0.001799, 0.000000, 0.000000, 0.003057, 0.003016, -0.009956, -0.050575, -0.029570, -0.014058, -0.039453, 0.036641, 0.012129, 0.019335, 0.006107, -0.032845, -0.000776, -0.050407, 0.000000, 0.000000, -0.037052, 0.018129, -0.006695, 0.004216, -0.015767, 0.030282, 0.020884, -0.025800, -0.034139, 0.017035, -0.001215, 0.030174, -0.015481, 0.012980, 0.000000, 0.000000, 0.035755, -0.013261, 0.023673, -0.027065, -0.052148, 0.045930, -0.043557, 0.018901, 0.021941, -0.011493, -0.000655, 0.029240, -0.025806, 0.008728, 0.000000, 0.000000, -0.017313, 0.064924, 0.050524, -0.007338, 0.030017, -0.008206, -0.034125, -0.009126, 0.050246, 0.020970, 0.017232, -0.029390, -0.021457, 0.002258, 0.000000, 0.000000, -0.027180, 0.034760, 0.008558, -0.043242, 0.034100, -0.019421, 0.001577, 0.016411, -0.013269, -0.033935, 0.045725, -0.017774, 0.018715, 0.010611, 0.000000, 0.000000, -0.023850, -0.033794, -0.005011, -0.006177, -0.001150, 0.024642, 0.009623, 0.003932, 0.010389, -0.029843, -0.032973, 0.014875, 0.018364, 0.033695, 0.000000, 0.000000, -0.010974, -0.041768, 
-0.015191, -0.102938, 0.005088, 0.004382, 0.042418, 0.074129, 0.019080, 0.000329, -0.040481, -0.045329, -0.070412, 0.033882, 0.000000, 0.000000, 0.026176, 0.030997, 0.010076, -0.007913, 0.034436, -0.016721, 0.008854, -0.017182, -0.020696, 0.003915, 0.016036, 0.018865, 0.001503, 0.003425, 0.000000, 0.000000, 0.024395, -0.009377, 0.013630, -0.020744, -0.034044, 0.018223, -0.033412, -0.001581, 0.014174, -0.004752, -0.015092, -0.014811, -0.014895, -0.004236, 0.000000, 0.000000, -0.018130, 0.001358, 0.003713, 0.055970, -0.051227, -0.018079, -0.016775, -0.009515, 0.032555, 0.026695, -0.017783, 0.013755, -0.043653, 0.003252, 0.000000, 0.000000, 0.007403, 0.003975, -0.006004, -0.049433, -0.028277, -0.006193, -0.049537, 0.044686, 0.001464, 0.018003, -0.011085, -0.021113, -0.002188, -0.044132, 0.000000, 0.000000, -0.040653, 0.023823, -0.002962, -0.004060, -0.006448, 0.017956, 0.018563, -0.022555, -0.020321, 0.024122, -0.000480, 0.030897, -0.015834, 0.010860, 0.000000, 0.000000, 0.024901, -0.016958, 0.009441, -0.046261, -0.047072, 0.035770, -0.039867, 0.039223, 0.039776, -0.012581, 0.004511, 0.021110, -0.030686, 0.006683, 0.000000, 0.000000, -0.018394, 0.061239, 0.041759, 0.004030, 0.023820, -0.010333, -0.035245, -0.018237, 0.038052, 0.027461, 0.013865, -0.023047, -0.022474, 0.007133, 0.000000, 0.000000, -0.015403, 0.026141, 0.010136, -0.037777, 0.017959, -0.007406, -0.007634, 0.012906, -0.016603, -0.038333, 0.034648, -0.017165, 0.021972, 0.010824, 0.000000, 0.000000, -0.026352, -0.034091, -0.001542, -0.004027, 0.004079, 0.023608, 0.011794, 0.006815, 0.011517, -0.030490, -0.041583, 0.013782, 0.016029, 0.035637, 0.000000, 0.000000, -0.011963, -0.026856, 
-0.013097, -0.108302, 0.012537, -0.005384, 0.052632, 0.074370, 0.015071, 0.006007, -0.040516, -0.032328, -0.056600, 0.028222, 0.000000, 0.000000, 0.012194, 0.028890, 0.009817, 0.007294, 0.032459, -0.017480, -0.006787, -0.013910, -0.040210, 0.010336, 0.021748, 0.014084, 0.011545, 0.006105, 0.000000, 0.000000, 0.026578, -0.019204, 0.010830, -0.029997, -0.036838, 0.009229, -0.032391, -0.007265, 0.021712, 0.001484, -0.024783, -0.002146, -0.015303, -0.007730, 0.000000, 0.000000, -0.029702, 0.004847, 0.001068, 0.044909, -0.037164, -0.011958, -0.014632, 0.005773, 0.014667, 0.031333, -0.026736, 0.017094, -0.052484, 0.009324, 0.000000, 0.000000, 0.006432, 0.011890, 0.018394, -0.065886, -0.009177, 0.002761, -0.053094, 0.053084, -0.006562, 0.007803, 0.003648, -0.020829, -0.001300, -0.036214, 0.000000, 0.000000, -0.046721, 0.014070, -0.004791, -0.004311, -0.000294, 0.014851, 0.019263, -0.025448, -0.011956, 0.026664, 0.001600, 0.026649, -0.014704, 0.012722, 0.000000, 0.000000, 0.030903, -0.022570, 0.013307, -0.046223, -0.054480, 0.031855, -0.026610, 0.035681, 0.037716, -0.008961, -0.007570, 0.028114, -0.025321, 0.003621, 0.000000, 0.000000, -0.027990, 0.063270, 0.024433, 0.011549, 0.007830, -0.001303, -0.026729, -0.014967, 0.041085, 0.041421, 0.008606, -0.023526, -0.033451, 0.003290, 0.000000, 0.000000, -0.009150, 0.032210, -0.000430, -0.045157, 0.014655, -0.004298, -0.025855, 0.017603, -0.008406, -0.035236, 0.036717, -0.021611, 0.007103, 0.019781, 0.000000, 0.000000, -0.018924, -0.033347, 0.006972, -0.010455, -0.001519, 0.023416, 0.017648, -0.000954, 0.012247, -0.027194, -0.035088, 0.016580, 0.001921, 0.035761, 0.000000, 0.000000, -0.021524, -0.026501, 
0.000263, -0.106420, -0.002558, -0.001845, 0.037587, 0.078391, 0.032381, -0.002714, -0.008918, -0.055806, -0.062124, 0.032692, 0.000000, 0.000000, 0.021353, 0.009808, 0.016393, -0.006511, 0.035350, 0.000205, -0.022434, 0.011774, -0.056649, 0.006397, 0.028020, -0.002802, 0.018680, 0.011944, 0.000000, 0.000000, 0.027060, -0.015566, 0.008308, -0.033492, -0.039188, 0.001627, -0.045160, 0.004231, 0.013916, 0.011238, -0.005550, -0.020393, -0.017370, -0.007978, 0.000000, 0.000000, -0.020244, 0.003104, 0.013887, 0.035058, -0.026138, -0.020132, -0.029196, 0.006496, 0.009249, 0.031974, -0.020119, 0.009065, -0.044962, 0.015616, 0.000000, 0.000000, 0.008019, 0.008947, 0.009362, -0.071543, -0.017044, 0.000415, -0.041945, 0.052473, 0.005467, -0.000206, -0.002672, -0.013560, 0.004111, -0.031838, 0.000000, 0.000000, -0.058937, 0.017538, -0.000734, -0.012075, 0.003183, 0.010914, 0.022581, -0.020686, -0.001573, 0.022996, -0.002857, 0.029892, -0.017865, 0.024765, 0.000000, 0.000000, 0.027143, -0.009372, 0.014859, -0.042864, -0.046160, 0.026488, -0.048739, 0.049983, 0.020588, -0.003188, 0.002711, 0.022848, -0.032564, 0.008570, 0.000000, 0.000000, -0.009320, 0.052074, 0.018047, 0.029752, -0.006149, -0.001238, -0.027440, -0.022230, 0.032359, 0.045210, 0.017036, -0.022254, -0.024542, -0.002915, 0.000000, 0.000000, -0.001392, 0.016372, 0.006872, -0.051583, 0.011987, -0.014207, -0.012081, 0.032953, -0.010996, -0.023901, 0.027768, -0.023732, 0.003946, 0.005083, 0.000000, 0.000000, -0.021152, -0.035434, 0.008933, -0.009313, 0.003411, 0.029826, 0.007225, 0.009272, 0.008691, -0.020338, -0.028731, 0.010683, -0.013263, 0.042410, 0.000000, 0.000000, -0.019943, -0.019643, 
-0.000897, -0.087175, -0.020956, 0.010636, 0.030774, 0.096582, 0.021852, -0.018501, -0.028772, -0.054758, -0.052849, 0.038838, 0.000000, 0.000000, 0.021553, 0.017297, 0.022222, -0.019375, 0.050910, -0.000928, -0.035864, 0.026729, -0.066431, 0.001682, 0.039975, -0.010952, 0.039914, -0.004601, 0.000000, 0.000000, 0.019428, -0.015893, 0.007921, -0.044923, -0.041411, 0.009714, -0.046529, 0.013019, 0.019197, 0.001614, -0.010990, -0.015692, -0.012260, -0.000470, 0.000000, 0.000000, -0.025361, 0.009258, 0.011978, 0.032415, -0.020822, -0.021248, -0.019656, 0.015178, -0.001103, 0.026864, -0.026078, -0.002113, -0.038375, 0.026816, 0.000000, 0.000000, 0.003794, 0.009516, 0.004667, -0.055135, -0.014087, -0.003050, -0.045313, 0.044152, 0.000974, -0.003996, 0.006030, -0.011217, -0.000198, -0.031377, 0.000000, 0.000000, -0.062262, 0.015627, -0.006735, -0.013343, 0.010912, 0.011100, 0.026972, -0.019971, -0.003061, 0.043992, -0.005701, 0.025812, -0.016353, 0.000875, 0.000000, 0.000000, 0.025763, 0.004631, 0.014139, -0.052926, -0.046563, 0.019510, -0.038402, 0.046251, 0.031699, -0.013924, 0.006052, 0.015681, -0.033566, 0.016687, 0.000000, 0.000000, -0.011437, 0.042526, 0.014260, 0.029056, 0.000042, 0.003831, -0.021964, -0.026663, 0.021783, 0.040637, 0.016524, -0.019540, -0.030041, 0.009323, 0.000000, 0.000000, 0.001203, 0.008043, 0.019209, -0.051077, 0.001102, -0.006159, -0.020620, 0.036132, -0.013445, -0.019645, 0.017662, -0.017818, 0.000622, -0.003332, 0.000000, 0.000000, -0.012075, -0.032803, 0.008785, -0.004556, 0.002008, 0.018019, 0.008429, 0.006943, 0.017018, -0.013675, -0.022929, 0.014878, -0.017167, 0.035741, 0.000000, 0.000000, -0.017966, -0.015088, 
-0.003460, -0.092173, -0.023587, 0.008449, 0.037148, 0.084617, 0.038178, -0.017754, -0.035563, -0.072780, -0.045522, 0.023682, 0.000000, 0.000000, 0.024465, 0.022760, 0.002236, -0.006311, 0.053490, -0.001673, -0.002936, 0.004967, -0.067270, -0.004555, 0.036627, -0.002990, 0.047963, -0.010753, 0.000000, 0.000000, 0.013988, -0.014270, 0.006110, -0.038394, -0.039329, 0.015216, -0.056365, 0.004531, 0.019336, -0.004040, -0.013831, -0.012050, -0.011792, 0.001540, 0.000000, 0.000000, -0.034527, 0.018255, 0.013014, 0.027949, -0.019541, -0.022516, -0.011599, 0.012918, 0.010506, 0.016682, -0.029870, -0.000389, -0.042944, 0.032757, 0.000000, 0.000000, 0.003804, 0.015964, 0.015186, -0.051294, -0.011678, 0.004119, -0.044903, 0.031591, 0.006151, -0.011921, 0.003207, -0.008228, 0.000418, -0.023820, 0.000000, 0.000000, -0.055997, 0.020450, -0.010589, 0.002947, 0.009837, 0.018165, 0.022395, -0.008330, -0.019547, 0.048516, -0.001186, 0.005850, 0.001596, -0.001365, 0.000000, 0.000000, 0.015982, 0.016784, 0.014318, -0.073196, -0.046576, 0.013871, -0.037404, 0.044887, 0.031758, -0.008838, 0.007145, 0.011839, -0.032923, 0.006846, 0.000000, 0.000000, -0.013428, 0.046326, 0.010530, 0.030301, -0.008321, -0.000891, -0.019897, -0.024495, 0.021052, 0.038706, 0.017046, -0.009570, -0.034297, 0.009878, 0.000000, 0.000000, -0.001736, 0.001002, 0.017164, -0.039386, 0.003528, -0.003580, -0.031231, 0.041883, -0.002257, -0.025419, 0.010221, -0.011743, -0.004242, -0.005303, 0.000000, 0.000000, -0.014070, -0.028968, 0.014289, -0.015540, -0.000558, 0.021377, 0.014997, 0.001524, 0.023235, -0.017454, -0.019113, 0.003124, -0.012747, 0.036754, 0.000000, 0.000000, -0.009844, -0.012396, 
-0.005388, -0.114094, -0.017150, -0.013054, 0.016865, 0.108836, 0.042621, 0.003596, -0.015262, -0.095864, -0.030667, 0.003677, 0.000000, 0.000000, 0.022985, 0.031500, -0.005064, 0.006985, 0.034664, 0.013701, -0.015994, 0.001663, -0.049011, -0.030759, 0.039247, 0.000548, 0.032296, 0.018279, 0.000000, 0.000000, 0.009923, -0.007250, 0.003682, -0.034358, -0.037433, 0.019112, -0.042827, 0.007063, 0.015818, -0.007335, -0.003408, -0.019349, -0.019990, 0.005167, 0.000000, 0.000000, -0.037765, 0.016681, 0.014143, 0.019329, -0.008673, -0.021500, -0.014150, 0.014957, 0.009821, 0.014230, -0.021928, 0.001325, -0.037567, 0.021375, 0.000000, 0.000000, 0.007991, 0.021265, 0.012493, -0.053562, -0.021023, 0.013171, -0.047047, 0.042090, 0.009137, -0.016606, -0.005336, -0.003658, 0.008083, -0.032784, 0.000000, 0.000000, -0.056911, 0.017709, -0.001790, 0.003496, 0.006828, 0.011111, 0.027166, -0.022341, -0.019929, 0.054228, -0.013697, 0.016373, 0.002623, 0.002884, 0.000000, 0.000000, 0.014646, 0.021937, 0.006968, -0.079872, -0.040372, 0.005354, -0.035832, 0.052129, 0.022241, 0.006096, 0.007391, 0.021861, -0.047148, 0.007417, 0.000000, 0.000000, -0.010012, 0.040600, 0.007979, 0.037494, -0.012964, -0.004413, -0.013057, -0.036661, 0.027129, 0.038762, 0.009529, -0.013325, -0.042528, 0.010757, 0.000000, 0.000000, -0.000989, -0.016083, 0.034199, -0.038529, -0.004294, 0.004979, -0.033054, 0.038316, -0.005465, -0.035530, 0.006086, -0.007234, 0.016352, 0.005637, 0.000000, 0.000000, -0.019417, -0.027604, 0.020695, -0.016292, -0.000164, 0.017799, 0.007406, -0.008275, 0.026291, -0.008196, -0.020831, -0.000273, -0.017941, 0.039882, 0.000000, 0.000000, -0.005515, -0.001150, 
-0.013454, -0.104296, -0.017528, -0.000715, 0.026033, 0.120408, 0.023052, -0.004176, -0.034403, -0.093562, -0.012235, 0.006792, 0.000000, 0.000000, 0.005736, 0.041702, 0.003670, 0.007013, 0.040398, -0.001607, -0.015552, -0.008729, -0.046351, -0.020254, 0.048217, 0.011413, 0.019181, 0.022160, 0.000000, 0.000000, 0.014657, -0.017570, 0.011702, -0.036196, -0.037077, 0.024407, -0.044345, 0.006691, 0.017697, -0.004020, -0.001858, -0.032533, -0.012812, 0.000268, 0.000000, 0.000000, -0.042825, 0.023749, -0.000487, 0.027885, -0.017644, -0.015997, 0.001502, 0.014079, 0.003336, 0.014519, -0.019610, 0.003168, -0.034885, 0.019786, 0.000000, 0.000000, 0.015631, 0.010367, 0.022825, -0.059466, -0.027551, 0.008241, -0.054012, 0.035726, 0.023437, -0.014731, -0.003144, -0.002711, 0.003456, -0.012614, 0.000000, 0.000000, -0.056248, 0.008977, 0.015896, 0.001703, 0.005154, 0.005083, 0.021363, -0.032131, -0.007267, 0.051100, -0.014971, 0.018289, -0.002835, 0.009990, 0.000000, 0.000000, 0.016058, 0.016319, -0.008818, -0.077538, -0.040477, 0.004894, -0.030433, 0.042486, 0.012782, 0.001290, 0.023995, 0.012057, -0.035455, -0.003244, 0.000000, 0.000000, -0.006827, 0.045417, 0.013063, 0.030769, -0.017125, -0.002394, -0.024189, -0.030955, 0.019840, 0.051731, 0.004557, 0.011345, -0.038537, 0.004939, 0.000000, 0.000000, -0.001359, -0.023596, 0.038364, -0.046587, 0.003521, 0.004687, -0.030641, 0.041509, 0.013157, -0.028243, 0.004483, -0.009939, 0.010753, -0.006981, 0.000000, 0.000000, -0.011490, -0.026212, 0.017347, -0.020776, 0.012865, 0.023559, 0.008996, -0.004177, 0.026342, -0.015694, -0.003488, -0.018960, -0.016238, 0.042073, 0.000000, 0.000000, -0.011443, -0.003945, 
0.002075, -0.098882, -0.016223, 0.011395, 0.009796, 0.079453, 0.042544, -0.012192, -0.027496, -0.063833, -0.003535, -0.002710, 0.000000, 0.000000, -0.017394, 0.046709, 0.001787, -0.009325, 0.033640, 0.003973, -0.006314, 0.009592, -0.032481, -0.022953, 0.050065, -0.007367, 0.011052, 0.023554, 0.000000, 0.000000, 0.028706, -0.026012, 0.013236, -0.047440, -0.029838, 0.008576, -0.032999, 0.010207, 0.013503, 0.006283, -0.004965, -0.042571, -0.014254, -0.006352, 0.000000, 0.000000, -0.036048, 0.021823, 0.006393, 0.013197, -0.007298, -0.009380, 0.009761, 0.003829, 0.006446, 0.016197, -0.030095, 0.012544, -0.029703, 0.019743, 0.000000, 0.000000, 0.009616, 0.011132, 0.024809, -0.049949, -0.029200, 0.012051, -0.060345, 0.024895, 0.022724, -0.009952, 0.004341, -0.010416, -0.000620, -0.012638, 0.000000, 0.000000, -0.048052, 0.019800, 0.016430, 0.012381, 0.006604, -0.004709, 0.019041, -0.038469, -0.003788, 0.052570, 0.003349, 0.019431, -0.002152, 0.005915, 0.000000, 0.000000, 0.013352, 0.022257, -0.016236, -0.092114, -0.038919, 0.000863, -0.035186, 0.067570, 0.020748, -0.004327, 0.030253, 0.006238, -0.042891, 0.002904, 0.000000, 0.000000, -0.018232, 0.027425, -0.003114, 0.032663, -0.017383, 0.006203, -0.022323, -0.022109, 0.027917, 0.038377, -0.005549, 0.012458, -0.034945, 0.017479, 0.000000, 0.000000, -0.011017, -0.030881, 0.043291, -0.039834, -0.017928, 0.002149, -0.022096, 0.038415, 0.025875, -0.029140, 0.011073, -0.019956, 0.015221, -0.015020, 0.000000, 0.000000, -0.006276, -0.021962, 0.027163, -0.024912, 0.016191, 0.023013, 0.011639, 0.004364, 0.013345, -0.008893, -0.005838, -0.019460, -0.014354, 0.037131, 0.000000, 0.000000, -0.009179, -0.000381, 
-0.001108, -0.114473, 0.000977, 0.026566, 0.002650, 0.113426, 0.006948, -0.022926, -0.015399, -0.069707, 0.013599, -0.006027, 0.000000, 0.000000, -0.025435, 0.040111, 0.014536, -0.023099, 0.035872, 0.008788, -0.031182, 0.027767, -0.039346, -0.021998, 0.055434, -0.010599, 0.029062, 0.022100, 0.000000, 0.000000, 0.004533, -0.021314, 0.008371, -0.025054, -0.038994, 0.010697, -0.038368, 0.015287, 0.012098, 0.007352, -0.020178, -0.030844, -0.018499, -0.006704, 0.000000, 0.000000, -0.037980, 0.018841, 0.002184, 0.005059, -0.001878, 0.003805, 0.006894, 0.014966, 0.002971, 0.012953, -0.016989, 0.023396, -0.044761, 0.033550, 0.000000, 0.000000, 0.006131, 0.001741, 0.021240, -0.040127, -0.021213, 0.006724, -0.063539, 0.011438, 0.027325, -0.011623, 0.021657, 0.004385, 0.008398, -0.010485, 0.000000, 0.000000, -0.056694, 0.014249, 0.019490, 0.021497, -0.009719, -0.008788, 0.013697, -0.050938, 0.009119, 0.043100, -0.004720, 0.024497, -0.013519, 0.009422, 0.000000, 0.000000, 0.019037, 0.022088, -0.012707, -0.116536, -0.042358, -0.004784, -0.021046, 0.080585, 0.018466, 0.003522, 0.008175, 0.007404, -0.039668, -0.002180, 0.000000, 0.000000, -0.022088, 0.033752, -0.023441, 0.049600, 0.000371, 0.017832, 0.000875, -0.018991, 0.011623, 0.054420, -0.015130, 0.006215, -0.026990, 0.017243, 0.000000, 0.000000, -0.009632, -0.022867, 0.043598, -0.014424, -0.027669, 0.015692, -0.033398, 0.025493, 0.027394, -0.039987, 0.006229, -0.017937, 0.023111, -0.004429, 0.000000, 0.000000, -0.009433, -0.027770, 0.027986, -0.032466, 0.002151, 0.022968, 0.005782, 0.013539, 0.017593, -0.010997, -0.012622, -0.024402, -0.015910, 0.038286, 0.000000, 0.000000, 0.000508, 0.000026, 
-0.009245, -0.120206, 0.000853, 0.003857, -0.004308, 0.131584, -0.002305, -0.004289, -0.005818, -0.087616, 0.022920, -0.003960, 0.000000, 0.000000, -0.023520, 0.044288, 0.036514, -0.033071, 0.042273, -0.002801, -0.040317, 0.022745, -0.044401, -0.014937, 0.062160, -0.006193, 0.037569, 0.022810, 0.000000, 0.000000, -0.001024, -0.034787, 0.005657, -0.036470, -0.044316, 0.014370, -0.037736, 0.022465, 0.007695, 0.003380, -0.012407, -0.030888, -0.000181, -0.013616, 0.000000, 0.000000, -0.047322, 0.018123, 0.004423, 0.023881, -0.014621, 0.012214, -0.003928, 0.009425, 0.008338, 0.013576, -0.009054, 0.036357, -0.063042, 0.039337, 0.000000, 0.000000, 0.014221, -0.011009, 0.018039, -0.051444, -0.016307, -0.000727, -0.053648, 0.031476, 0.027598, -0.000865, 0.019703, -0.004463, -0.008502, -0.008632, 0.000000, 0.000000, -0.057175, 0.006191, 0.016779, 0.026153, -0.011990, 0.002775, 0.015746, -0.057952, 0.002848, 0.044600, -0.000429, 0.016131, -0.011860, 0.015774, 0.000000, 0.000000, 0.016868, 0.021334, -0.018204, -0.112445, -0.055403, 0.000265, -0.013279, 0.067449, 0.019152, 0.006590, 0.007511, 0.014146, -0.027747, -0.012079, 0.000000, 0.000000, -0.020501, 0.025979, -0.004703, 0.048122, 0.013888, 0.008604, -0.015931, -0.025357, 0.022041, 0.041502, -0.013021, 0.026027, -0.033356, 0.024587, 0.000000, 0.000000, -0.014266, -0.029205, 0.054479, -0.024497, -0.018482, 0.016465, -0.044832, 0.033473, 0.033865, -0.050213, 0.003102, -0.020679, 0.023758, 0.007404, 0.000000, 0.000000, -0.008285, -0.017863, 0.026606, -0.027144, -0.008754, 0.029293, 0.014437, 0.016191, 0.010549, -0.005113, -0.007526, -0.038114, -0.011882, 0.033722, 0.000000, 0.000000, -0.011535, 0.008600, 
-0.020290, -0.099160, -0.011438, 0.013337, 0.014495, 0.123731, 0.006237, -0.014755, -0.007581, -0.095410, 0.020898, 0.001383, 0.000000, 0.000000, -0.012297, 0.029795, 0.019765, -0.028645, 0.027589, 0.013443, -0.004890, 0.000509, -0.027992, -0.022922, 0.062157, -0.000967, 0.022204, 0.017324, 0.000000, 0.000000, 0.004079, -0.035100, 0.019930, -0.042412, -0.041920, 0.004370, -0.062430, 0.030143, 0.006307, 0.008845, -0.006616, -0.033431, 0.007528, -0.020946, 0.000000, 0.000000, -0.056107, 0.022570, -0.002735, 0.028763, -0.024462, 0.018256, 0.012336, -0.000779, 0.020846, -0.005007, -0.012192, 0.043809, -0.063003, 0.042890, 0.000000, 0.000000, 0.016797, -0.011993, 0.004922, -0.044917, -0.027880, 0.007669, -0.033204, 0.021989, 0.036581, -0.012567, 0.008970, -0.002308, -0.016219, 0.003237, 0.000000, 0.000000, -0.051448, 0.007370, 0.002995, 0.029846, -0.018168, 0.004430, 0.019063, -0.052769, 0.025248, 0.027306, -0.014199, 0.018465, -0.023362, 0.026357, 0.000000, 0.000000, 0.024144, 0.022726, -0.007067, -0.102576, -0.042377, -0.014376, -0.024170, 0.082895, 0.024955, 0.018863, 0.013872, 0.004266, -0.033373, -0.016971, 0.000000, 0.000000, -0.022172, 0.017348, -0.021238, 0.035761, 0.035933, 0.005193, -0.000922, -0.005106, 0.007962, 0.058723, -0.000812, 0.021126, -0.023696, 0.019190, 0.000000, 0.000000, -0.021315, -0.022715, 0.060469, -0.032457, -0.030981, 0.019743, -0.038098, 0.027965, 0.044026, -0.056984, 0.005647, -0.023328, 0.013035, 0.013028, 0.000000, 0.000000, -0.003909, -0.023582, 0.035447, -0.024341, -0.021921, 0.034297, 0.015825, -0.000216, 0.024910, -0.015620, -0.001536, -0.030891, -0.013088, 0.025490, 0.000000, 0.000000, -0.005930, -0.009987, 
-0.013251, -0.095579, -0.022114, 0.024568, 0.004829, 0.131843, 0.029669, -0.021315, 0.021734, -0.125329, 0.009366, 0.004309, 0.000000, 0.000000, -0.012049, 0.027159, 0.008272, -0.003856, 0.029361, 0.026773, 0.012169, -0.034660, -0.036250, -0.037009, 0.036967, 0.037502, 0.027516, 0.031470, 0.000000, 0.000000, -0.011605, -0.030437, 0.019236, -0.053799, -0.045888, 0.003826, -0.065444, 0.036845, 0.007669, 0.008145, -0.013597, -0.030132, 0.010369, -0.018085, 0.000000, 0.000000, -0.058463, 0.033918, -0.004594, 0.024643, -0.026473, 0.006821, 0.020697, -0.003458, 0.020358, 0.003928, -0.011252, 0.037465, -0.059956, 0.026468, 0.000000, 0.000000, 0.019688, -0.010268, 0.002581, -0.038187, -0.023325, 0.007551, -0.039369, 0.015104, 0.040680, -0.013866, 0.013391, -0.004865, -0.020537, 0.001991, 0.000000, 0.000000, -0.053215, 0.003966, 0.004920, 0.023747, -0.011353, 0.010992, 0.013358, -0.053538, 0.009895, 0.024470, -0.007628, 0.023283, -0.026810, 0.034695, 0.000000, 0.000000, 0.013305, 0.017164, -0.015646, -0.094861, -0.027119, -0.021256, -0.019246, 0.078283, 0.007510, 0.014929, 0.023237, 0.004656, -0.027395, -0.007103, 0.000000, 0.000000, -0.014481, 0.011733, -0.023282, 0.046469, 0.024627, 0.018084, 0.004693, -0.010187, 0.024999, 0.045878, -0.008298, 0.017220, -0.028020, 0.016750, 0.000000, 0.000000, -0.014357, -0.023789, 0.050709, -0.033720, -0.032006, 0.021451, -0.040077, 0.028264, 0.053097, -0.049228, 0.002157, -0.009763, 0.006866, 0.007629, 0.000000, 0.000000, -0.018172, -0.026298, 0.028128, -0.034846, -0.012623, 0.034223, 0.015598, 0.010063, 0.010114, -0.010454, 0.002455, -0.032437, -0.012327, 0.047309, 0.000000, 0.000000, -0.007729, -0.006654, 
-0.002066, -0.093251, -0.011131, 0.016823, 0.012857, 0.113541, 0.033289, 0.000782, -0.006317, -0.111102, 0.006601, -0.006567, 0.000000, 0.000000, 0.004886, 0.027873, 0.011005, 0.001692, 0.035008, 0.018911, 0.012348, -0.041421, -0.024345, -0.045390, 0.032264, 0.039347, 0.011413, 0.043465, 0.000000, 0.000000, -0.011736, -0.032370, 0.022377, -0.054114, -0.041932, -0.009700, -0.058166, 0.030627, 0.008732, 0.011536, -0.036335, -0.013607, 0.010729, -0.014780, 0.000000, 0.000000, -0.057744, 0.037247, -0.011168, 0.018870, -0.022330, 0.009156, 0.020992, 0.009501, 0.004193, 0.012863, -0.011242, 0.024312, -0.051258, 0.010323, 0.000000, 0.000000, 0.023599, -0.003924, 0.003175, -0.040884, -0.033618, 0.020919, -0.035421, 0.015254, 0.050898, -0.015752, 0.014563, 0.004843, -0.026052, 0.009446, 0.000000, 0.000000, -0.055013, -0.002880, 0.009749, 0.013920, -0.008214, 0.007743, -0.002656, -0.049108, 0.007827, 0.038318, -0.009105, 0.014790, -0.029823, 0.031073, 0.000000, 0.000000, 0.016592, 0.021125, -0.013780, -0.102819, -0.014164, -0.028440, -0.025421, 0.081962, 0.012339, 0.011840, 0.021114, 0.003202, -0.027752, -0.009180, 0.000000, 0.000000, -0.010021, 0.003805, -0.016163, 0.040028, -0.002346, 0.030139, -0.000927, -0.003948, 0.029029, 0.048887, 0.000464, 0.002660, -0.028829, 0.026361, 0.000000, 0.000000, -0.009612, -0.032197, 0.042177, -0.042165, -0.042264, 0.025724, -0.027831, 0.022759, 0.060938, -0.048728, -0.001728, -0.006176, 0.002612, 0.018969, 0.000000, 0.000000, -0.021971, -0.013978, 0.024554, -0.015094, -0.002039, 0.028617, 0.025559, -0.001255, 0.001023, 0.002107, 0.003401, -0.019083, -0.008925, 0.024956, 0.000000, 0.000000, -0.005624, -0.001303, 
0.006507, -0.079258, -0.002147, 0.025376, 0.013912, 0.094194, 0.027172, -0.018847, -0.023250, -0.085324, -0.007105, -0.008052, 0.000000, 0.000000, 0.008718, 0.029796, 0.031897, 0.007889, 0.043126, -0.001011, -0.008367, -0.047200, -0.010496, -0.037757, 0.037192, 0.045182, 0.001332, 0.049318, 0.000000, 0.000000, -0.009283, -0.046052, 0.019102, -0.061562, -0.041544, -0.018142, -0.063322, 0.027882, 0.008869, 0.011296, -0.029858, -0.013496, 0.013760, -0.007680, 0.000000, 0.000000, -0.069849, 0.040067, -0.005467, 0.001412, -0.009283, 0.000603, 0.011190, 0.022029, 0.003453, 0.022499, -0.000058, 0.010183, -0.047950, 0.015845, 0.000000, 0.000000, 0.011575, -0.017821, 0.009844, -0.047448, -0.035595, 0.030289, -0.027232, 0.001412, 0.053327, -0.025226, 0.017131, 0.008866, -0.032110, 0.016367, 0.000000, 0.000000, -0.051465, -0.006913, 0.011669, 0.011448, -0.005821, 0.008537, 0.004535, -0.039111, 0.003990, 0.026593, -0.019178, 0.004441, -0.013463, 0.043245, 0.000000, 0.000000, 0.011446, 0.027570, -0.013456, -0.072009, -0.020779, -0.013596, -0.021619, 0.063544, 0.021124, -0.003395, 0.014512, 0.010526, -0.028302, -0.007170, 0.000000, 0.000000, -0.005925, 0.009407, -0.013554, 0.028961, 0.002070, 0.044600, 0.013534, -0.006128, 0.014439, 0.036225, -0.010183, 0.021693, -0.014474, 0.004954, 0.000000, 0.000000, -0.015183, -0.027346, 0.038403, -0.056245, -0.026294, 0.016654, -0.046296, 0.019860, 0.050644, -0.033129, 0.000226, -0.005860, 0.008202, 0.015202, 0.000000, 0.000000, -0.032250, -0.009726, 0.021605, -0.006309, 0.001397, 0.024561, 0.017165, 0.002369, -0.000199, 0.009997, 0.007890, -0.018781, -0.009715, 0.040700, 0.000000, 0.000000, -0.017789, -0.008778, 
-0.006107, -0.073635, 0.008025, 0.018817, 0.023080, 0.102739, 0.005098, -0.012409, -0.050490, -0.066189, -0.003021, -0.008119, 0.000000, 0.000000, 0.002111, 0.038868, 0.024640, 0.007318, 0.045741, -0.007484, -0.009811, -0.021352, -0.011530, -0.036764, 0.024540, 0.038116, 0.002559, 0.050309, 0.000000, 0.000000, -0.005986, -0.045063, 0.021627, -0.066512, -0.039665, -0.016454, -0.058016, 0.031033, 0.009165, 0.013401, -0.016071, -0.020634, 0.010531, -0.016531, 0.000000, 0.000000, -0.059736, 0.023986, -0.006393, -0.001065, -0.008580, 0.002955, 0.008887, 0.026032, 0.002340, 0.017584, 0.000061, 0.000338, -0.042978, 0.023589, 0.000000, 0.000000, 0.013626, -0.013273, 0.014443, -0.066346, -0.035841, 0.031857, -0.015959, 0.010481, 0.054984, -0.030329, 0.005151, 0.000672, -0.031911, 0.023656, 0.000000, 0.000000, -0.048603, 0.003414, 0.009138, 0.019455, -0.011257, -0.001748, 0.019087, -0.046356, -0.003014, 0.038088, -0.026008, 0.013554, -0.006862, 0.036544, 0.000000, 0.000000, 0.015932, 0.023787, -0.028905, -0.064503, -0.018431, 0.002479, -0.026748, 0.053271, 0.020853, 0.002421, 0.027694, 0.020164, -0.016052, -0.014559, 0.000000, 0.000000, -0.009438, -0.000935, -0.010810, 0.042310, -0.001788, 0.043220, -0.005965, -0.005523, 0.016764, 0.040191, 0.001554, 0.001003, -0.012380, 0.003853, 0.000000, 0.000000, -0.010400, -0.022934, 0.036237, -0.067172, -0.027482, 0.004621, -0.054578, 0.035747, 0.055930, -0.033494, -0.007161, -0.026388, 0.005430, 0.009655, 0.000000, 0.000000, -0.012199, -0.004075, 0.017541, -0.000650, -0.001798, 0.026687, 0.019557, -0.012037, 0.011468, -0.005697, 0.010066, -0.016368, -0.008506, 0.045718, 0.000000, 0.000000, -0.025724, -0.004555, 
-0.004312, -0.069160, -0.011786, 0.041964, 0.037693, 0.092603, 0.018505, -0.020721, -0.065430, -0.066199, 0.004967, -0.023857, 0.000000, 0.000000, -0.000630, 0.046039, 0.014909, -0.001684, 0.031094, -0.000924, -0.001359, -0.008240, 0.002834, -0.051489, 0.031100, 0.020238, -0.007209, 0.059448, 0.000000, 0.000000, 0.001486, -0.035449, 0.016061, -0.060030, -0.034760, -0.005945, -0.061360, 0.032675, 0.002193, 0.009463, -0.013476, -0.023828, 0.009678, -0.011609, 0.000000, 0.000000, -0.056306, 0.023765, 0.001365, -0.012158, -0.001951, -0.004336, 0.001187, 0.030809, 0.003431, 0.020225, 0.007778, -0.002790, -0.034103, 0.020966, 0.000000, 0.000000, 0.013441, -0.018962, 0.014991, -0.073632, -0.038947, 0.033629, -0.024816, 0.024410, 0.053177, -0.035849, 0.000866, -0.001161, -0.021712, 0.015264, 0.000000, 0.000000, -0.049826, 0.008725, 0.016228, 0.007365, -0.002837, 0.007798, 0.024968, -0.039642, -0.009118, 0.033953, -0.023089, 0.010178, -0.008747, 0.036835, 0.000000, 0.000000, 0.010468, 0.015752, -0.018805, -0.073537, -0.005113, -0.003986, -0.025707, 0.053660, 0.011446, 0.009592, 0.015038, 0.018481, -0.027346, -0.006405, 0.000000, 0.000000, -0.002774, 0.001633, -0.005837, 0.041743, -0.004988, 0.050611, -0.009126, -0.001798, 0.010692, 0.035522, 0.004367, -0.005904, -0.011901, -0.000269, 0.000000, 0.000000, -0.011319, -0.021665, 0.043569, -0.069205, -0.019395, 0.002993, -0.060548, 0.044492, 0.061353, -0.032531, -0.011337, -0.016435, 0.005550, 0.011534, 0.000000, 0.000000, -0.015738, -0.006729, 0.018069, -0.007114, 0.012106, 0.015980, 0.016132, -0.005473, 0.008882, -0.005672, 0.001972, -0.014519, -0.010064, 0.048823, 0.000000, 0.000000, -0.017051, -0.003189, 
0.009989, -0.100672, 0.005213, 0.037067, 0.021803, 0.109039, 0.026828, -0.018470, -0.037265, -0.096710, -0.018695, -0.007122, 0.000000, 0.000000, 0.015649, 0.044154, 0.005910, -0.011196, 0.041380, -0.000886, -0.004657, -0.000683, -0.008974, -0.050542, 0.034816, 0.021246, -0.011325, 0.063567, 0.000000, 0.000000, 0.004332, -0.043171, 0.015171, -0.058238, -0.041846, 0.001626, -0.068415, 0.040093, -0.009841, 0.000605, -0.003590, -0.026083, 0.011058, 0.003002, 0.000000, 0.000000, -0.055503, 0.017801, 0.008435, -0.003246, -0.007988, -0.002299, -0.007082, 0.031341, 0.004137, 0.015815, 0.002371, 0.006467, -0.039316, 0.022106, 0.000000, 0.000000, 0.020263, -0.024850, 0.022296, -0.079458, -0.036334, 0.012753, -0.034712, 0.028267, 0.056457, -0.023500, 0.005979, -0.007220, -0.021905, 0.003917, 0.000000, 0.000000, -0.049454, 0.011084, 0.018422, 0.010391, -0.005091, 0.005298, 0.018144, -0.041584, -0.011176, 0.027551, -0.026596, 0.013680, -0.001294, 0.039785, 0.000000, 0.000000, -0.002456, 0.024766, -0.011111, -0.072667, -0.026577, 0.006312, -0.042298, 0.056180, 0.022436, 0.002726, 0.020486, 0.018679, -0.041478, 0.002303, 0.000000, 0.000000, -0.003099, 0.000065, -0.004148, 0.043376, 0.000161, 0.052970, 0.002514, -0.004833, 0.000991, 0.021105, 0.000763, -0.004074, -0.005871, -0.003117, 0.000000, 0.000000, -0.009782, -0.025969, 0.040758, -0.063336, -0.008883, -0.005421, -0.044408, 0.042370, 0.056504, -0.038319, -0.013730, -0.010619, -0.001539, 0.014360, 0.000000, 0.000000, -0.019825, -0.011200, 0.000025, 0.011234, 0.011945, 0.006030, 0.017821, -0.006521, 0.019703, 0.000433, -0.012168, -0.000711, -0.019395, 0.043968, 0.000000, 0.000000, -0.014816, -0.001842, 
0.022288, -0.102748, -0.011452, 0.024861, 0.051041, 0.076831, 0.071363, -0.020722, -0.094468, -0.079768, -0.038462, 0.003672, 0.000000, 0.000000, 0.025516, 0.066275, -0.025681, -0.021373, 0.037629, 0.000241, 0.048754, -0.000226, -0.003900, -0.052236, 0.008764, 0.008446, -0.020430, 0.064687, 0.000000, 0.000000, 0.017867, -0.028533, 0.026995, -0.063342, -0.017897, -0.000823, -0.071373, 0.040715, -0.014475, 0.005229, -0.004643, -0.018961, 0.006035, 0.008208, 0.000000, 0.000000, -0.055290, 0.022048, -0.009903, 0.016566, -0.011179, -0.004991, 0.005095, 0.029908, -0.011895, 0.027581, 0.005926, -0.009168, -0.028155, 0.025659, 0.000000, 0.000000, 0.013660, -0.017103, 0.016893, -0.069817, -0.042234, 0.014519, -0.032685, 0.024818, 0.058367, -0.025355, 0.001352, -0.014249, -0.011749, -0.000808, 0.000000, 0.000000, -0.042189, 0.004659, 0.020006, 0.022664, -0.015560, 0.015361, 0.001069, -0.041485, -0.012081, 0.024934, -0.011843, 0.018864, 0.012465, 0.035176, 0.000000, 0.000000, -0.015256, 0.021888, -0.007751, -0.071896, -0.035155, -0.003817, -0.056003, 0.072517, 0.020708, 0.003002, 0.025916, 0.015467, -0.032808, 0.015945, 0.000000, 0.000000, -0.023314, 0.006854, 0.000857, 0.050964, -0.007693, 0.053051, 0.004459, -0.009615, -0.006392, 0.020714, 0.002150, 0.001138, 0.002883, -0.006840, 0.000000, 0.000000, -0.018884, -0.022797, 0.040266, -0.058417, -0.009670, 0.003545, -0.042177, 0.032040, 0.050758, -0.034266, -0.006804, -0.008663, -0.004745, 0.014778, 0.000000, 0.000000, -0.017171, -0.017156, 0.003874, -0.003020, 0.020785, -0.012505, 0.017387, 0.002058, 0.004019, 0.014863, -0.009656, -0.004204, -0.013853, 0.051269, 0.000000, 0.000000, -0.003077, -0.006439, 
0.006664, -0.101347, -0.013231, 0.038444, 0.033195, 0.106968, 0.070658, -0.057645, -0.087591, -0.090155, -0.039503, 0.028585, 0.000000, 0.000000, 0.027200, 0.071237, -0.027757, -0.028908, 0.052962, -0.011999, 0.068274, 0.000892, -0.014228, -0.035361, -0.008431, 0.016365, -0.023550, 0.050304, 0.000000, 0.000000, 0.011516, -0.026448, 0.017611, -0.040310, -0.026396, -0.004834, -0.079553, 0.036393, -0.027347, 0.014169, 0.008903, -0.021933, 0.004412, 0.005705, 0.000000, 0.000000, -0.048799, 0.021396, -0.008971, 0.018442, -0.005134, -0.007999, 0.001673, 0.027207, -0.024404, 0.036075, 0.002442, -0.002453, -0.031394, 0.028172, 0.000000, 0.000000, 0.015239, -0.016680, 0.013343, -0.076922, -0.028912, 0.013142, -0.033367, 0.026892, 0.056690, -0.023517, -0.004630, -0.008233, -0.012316, 0.001665, 0.000000, 0.000000, -0.043540, 0.006728, 0.018102, 0.021246, -0.014253, 0.020059, 0.002426, -0.044653, -0.005382, 0.029049, 0.001242, 0.014619, 0.009596, 0.026034, 0.000000, 0.000000, -0.011060, 0.020160, 0.001535, -0.060698, -0.024100, -0.002336, -0.055111, 0.077849, 0.011925, 0.006161, 0.020872, 0.009762, -0.025660, 0.004795, 0.000000, 0.000000, -0.023087, 0.001432, -0.015877, 0.048899, 0.006099, 0.046257, 0.005850, -0.007993, -0.008507, 0.019982, 0.006681, -0.004542, -0.002701, 0.008150, 0.000000, 0.000000, -0.022997, -0.014403, 0.037817, -0.068344, -0.022973, 0.013116, -0.041981, 0.034879, 0.056215, -0.044316, -0.010447, -0.009003, -0.005728, 0.018028, 0.000000, 0.000000, -0.016462, -0.004700, 0.002228, -0.001336, 0.007407, -0.005879, 0.008212, 0.008799, 0.009001, 0.017031, -0.010187, -0.009748, -0.006967, 0.030443, 0.000000, 0.000000, -0.004334, -0.008930, 
0.014875, -0.102576, -0.023454, 0.060408, 0.029903, 0.110273, 0.069546, -0.074553, -0.106330, -0.082113, -0.032523, 0.023524, 0.000000, 0.000000, 0.039162, 0.089793, -0.020166, -0.045823, 0.055061, -0.017734, 0.078043, 0.007818, -0.004196, -0.038590, -0.032360, 0.020553, -0.029431, 0.045776, 0.000000, 0.000000, 0.007911, -0.001015, 0.005414, -0.048649, -0.023403, -0.000177, -0.073233, 0.046144, -0.027594, 0.013655, 0.008605, -0.023003, 0.008156, 0.014333, 0.000000, 0.000000, -0.048234, 0.015949, -0.011998, 0.026379, -0.012980, -0.009783, 0.009431, 0.006533, -0.021768, 0.028367, -0.000014, 0.010249, -0.031486, 0.033726, 0.000000, 0.000000, 0.012607, -0.019470, 0.009224, -0.067242, -0.023057, 0.011124, -0.049379, 0.032097, 0.055400, -0.026322, -0.003420, -0.015432, -0.014629, -0.000606, 0.000000, 0.000000, -0.039735, 0.011354, 0.033341, 0.017896, -0.010047, 0.039020, -0.018598, -0.027113, -0.002396, 0.025311, 0.001299, 0.015180, 0.006899, 0.015452, 0.000000, 0.000000, -0.016157, 0.018262, 0.000745, -0.064039, -0.021290, 0.000487, -0.047645, 0.051643, 0.025049, 0.016705, 0.026425, 0.017072, -0.024837, -0.006405, 0.000000, 0.000000, -0.034202, -0.000197, -0.012588, 0.050276, -0.014056, 0.042202, -0.004908, -0.004249, -0.003724, 0.020778, 0.005445, -0.011745, -0.001570, 0.009007, 0.000000, 0.000000, -0.016935, -0.010553, 0.027236, -0.059333, -0.030039, 0.012825, -0.037507, 0.047990, 0.056049, -0.034163, -0.017933, -0.013064, -0.010414, 0.020015, 0.000000, 0.000000, -0.014851, -0.003208, -0.001642, -0.000089, 0.012528, 0.002134, 0.017515, 0.004206, -0.004396, 0.023370, -0.005417, -0.008503, -0.004360, 0.029016, 0.000000, 0.000000, -0.010510, -0.005560, 
0.007822, -0.096972, -0.020034, 0.054373, 0.053622, 0.094276, 0.076644, -0.062370, -0.102076, -0.094684, -0.019646, 0.014641, 0.000000, 0.000000, 0.039538, 0.084502, 0.005622, -0.041439, 0.042363, -0.006498, 0.035479, 0.009993, -0.000441, -0.049685, -0.016049, 0.007940, -0.037404, 0.046932, 0.000000, 0.000000, 0.022612, 0.004811, 0.006258, -0.051017, -0.024652, -0.002239, -0.084453, 0.057211, -0.023649, 0.015087, 0.016379, -0.028762, 0.002150, 0.014389, 0.000000, 0.000000, -0.055180, 0.011051, -0.002644, 0.022694, -0.010350, -0.016869, 0.003667, 0.014785, -0.024743, 0.038881, -0.001755, 0.007679, -0.032533, 0.030320, 0.000000, 0.000000, 0.014254, -0.019897, 0.026848, -0.087402, -0.004632, 0.009051, -0.039089, 0.024694, 0.039128, -0.015803, -0.009488, -0.004777, 0.003516, -0.014441, 0.000000, 0.000000, -0.045392, 0.001067, 0.042887, 0.013015, -0.000503, 0.032475, -0.024850, -0.028765, 0.007705, 0.016204, 0.006338, 0.018547, 0.002015, 0.020776, 0.000000, 0.000000, -0.011862, 0.011783, 0.000796, -0.055535, -0.035372, -0.013621, -0.041483, 0.038244, 0.026039, 0.035132, 0.008515, 0.028279, -0.033852, -0.010577, 0.000000, 0.000000, -0.033999, 0.015210, -0.016633, 0.047357, -0.012316, 0.038264, 0.011529, -0.011939, 0.004023, 0.023202, -0.012461, -0.013450, -0.005724, 0.005340, 0.000000, 0.000000, -0.017279, -0.010613, 0.035150, -0.071324, -0.032569, 0.009391, -0.042063, 0.061833, 0.057220, -0.040472, -0.009955, 0.000291, -0.009965, 0.021261, 0.000000, 0.000000, -0.020990, -0.007987, 0.000334, 0.007178, 0.008170, 0.002101, 0.017361, -0.001058, -0.001718, 0.024218, -0.013647, -0.002381, -0.012726, 0.028593, 0.000000, 0.000000, -0.010531, -0.006058, 
-0.003071, -0.107572, -0.011706, 0.053401, 0.053594, 0.100438, 0.076117, -0.068072, -0.074594, -0.089335, -0.029614, 0.025257, 0.000000, 0.000000, 0.029972, 0.070447, 0.015194, -0.057489, 0.061785, -0.019861, 0.022645, 0.020331, -0.013077, -0.035889, -0.006488, -0.012453, -0.026667, 0.044426, 0.000000, 0.000000, 0.021034, 0.004533, 0.009996, -0.046522, -0.013999, -0.004534, -0.087225, 0.044387, -0.017643, 0.005406, 0.020612, -0.023035, 0.005211, 0.017202, 0.000000, 0.000000, -0.062474, 0.014082, -0.004376, 0.034405, -0.010711, -0.016106, 0.000902, 0.010604, -0.018450, 0.039905, -0.006573, 0.013530, -0.040719, 0.030472, 0.000000, 0.000000, 0.006992, -0.012606, 0.019491, -0.096523, -0.008415, 0.011306, -0.038166, 0.046273, 0.027115, -0.010746, -0.003420, -0.017087, 0.009496, -0.019980, 0.000000, 0.000000, -0.050568, -0.000016, 0.027874, 0.012000, 0.011778, 0.028822, -0.001722, -0.033444, 0.004598, 0.020258, -0.005527, 0.020531, 0.003394, 0.023897, 0.000000, 0.000000, -0.020437, 0.012847, -0.000489, -0.041899, -0.053830, -0.003225, -0.039568, 0.028138, 0.055732, 0.028602, 0.014559, 0.024861, -0.033172, -0.008450, 0.000000, 0.000000, -0.034500, 0.010340, -0.005094, 0.050425, -0.015396, 0.044685, -0.011752, -0.009639, -0.008874, 0.025801, -0.006289, -0.013283, -0.006623, -0.004150, 0.000000, 0.000000, -0.001307, -0.011634, 0.025234, -0.074815, -0.006361, 0.016140, -0.036802, 0.067625, 0.029325, -0.042852, -0.014358, 0.000688, -0.011798, 0.015267, 0.000000, 0.000000, -0.010371, -0.007481, -0.003513, 0.007870, 0.014407, -0.000199, 0.024752, -0.014573, -0.004247, 0.033672, -0.012400, 0.002967, -0.016557, 0.037972, 0.000000, 0.000000, -0.019039, -0.002503, 
-0.010744, -0.087539, -0.017091, 0.050796, 0.061015, 0.086626, 0.050332, -0.064103, -0.088914, -0.079330, -0.009489, 0.015035, 0.000000, 0.000000, 0.009695, 0.077316, 0.010194, -0.054249, 0.051582, -0.011783, 0.025727, 0.022570, 0.009152, -0.052483, -0.004810, 0.001532, -0.040355, 0.042750, 0.000000, 0.000000, 0.006243, 0.004941, 0.002468, -0.059593, -0.001119, -0.010881, -0.073434, 0.053007, -0.011872, 0.008336, 0.011898, -0.026242, 0.000543, 0.018765, 0.000000, 0.000000, -0.065040, 0.020676, -0.006766, 0.028014, 0.000586, -0.016621, 0.006342, 0.008212, -0.015028, 0.037343, 0.001248, 0.012429, -0.052834, 0.043608, 0.000000, 0.000000, 0.002535, -0.017767, 0.013875, -0.086526, -0.013702, 0.012043, -0.045936, 0.044262, 0.021371, -0.022130, -0.006698, -0.003161, 0.007128, -0.020885, 0.000000, 0.000000, -0.046859, -0.002121, 0.030081, 0.010815, 0.014878, 0.015246, -0.007939, -0.028657, 0.017123, 0.014286, 0.004827, 0.010413, 0.005615, 0.018884, 0.000000, 0.000000, -0.019254, 0.020554, 0.001364, -0.052856, -0.049114, 0.007731, -0.051141, 0.032498, 0.043201, 0.027774, 0.008336, 0.019589, -0.046185, -0.000111, 0.000000, 0.000000, -0.018714, 0.017659, -0.002855, 0.038892, -0.008410, 0.040930, -0.009624, -0.002069, -0.019192, 0.033217, -0.004299, -0.001312, -0.010627, 0.000442, 0.000000, 0.000000, -0.010888, -0.004995, 0.025911, -0.067893, -0.002635, 0.019897, -0.041594, 0.066813, 0.037425, -0.044589, -0.006472, -0.002508, 0.000197, 0.008897, 0.000000, 0.000000, -0.022515, -0.010669, -0.012698, 0.007144, 0.013392, 0.010236, 0.027879, -0.011511, 0.005740, 0.020708, -0.018869, -0.004443, -0.012249, 0.022032, 0.000000, 0.000000, -0.014813, -0.006365, 
-0.004815, -0.108988, -0.005069, 0.047864, 0.064453, 0.110225, 0.041908, -0.051193, -0.092010, -0.099830, -0.022407, 0.016753, 0.000000, 0.000000, 0.041768, 0.074399, 0.034926, -0.059198, 0.056076, -0.022639, 0.010697, 0.002030, 0.028569, -0.065470, 0.003612, 0.000318, -0.037174, 0.049877, 0.000000, 0.000000, -0.010296, 0.013177, -0.001384, -0.051144, 0.001749, -0.015143, -0.070345, 0.065760, -0.012272, 0.007541, 0.003795, -0.035254, 0.005150, 0.015352, 0.000000, 0.000000, -0.060847, 0.026327, -0.014844, 0.029415, 0.006649, -0.023006, 0.008043, 0.006058, -0.015734, 0.035963, -0.005694, 0.012897, -0.041614, 0.051436, 0.000000, 0.000000, 0.013018, -0.011296, 0.004793, -0.072587, -0.019046, 0.000092, -0.042282, 0.034591, 0.035455, -0.019788, -0.010592, -0.002125, 0.003180, -0.023853, 0.000000, 0.000000, -0.053767, 0.004733, 0.037722, 0.000144, 0.001033, 0.010663, 0.000383, -0.031079, 0.018413, 0.013259, 0.017704, 0.012462, -0.003139, 0.009879, 0.000000, 0.000000, -0.024621, 0.021403, -0.009613, -0.044070, -0.042885, 0.024000, -0.057514, 0.023769, 0.037332, 0.006125, 0.013204, 0.019520, -0.051862, -0.002442, 0.000000, 0.000000, 0.000843, 0.015304, -0.015058, 0.051155, -0.009918, 0.045640, -0.010480, 0.001955, -0.003072, 0.039800, -0.031684, 0.016847, -0.020503, 0.001281, 0.000000, 0.000000, -0.014529, -0.001902, 0.032089, -0.083533, -0.004449, 0.015352, -0.037965, 0.075197, 0.031471, -0.040007, -0.001695, 0.003056, 0.008501, 0.005341, 0.000000, 0.000000, -0.036314, -0.012388, -0.002764, -0.001579, 0.028254, 0.010551, 0.017738, -0.013138, 0.013859, 0.016873, -0.001561, -0.018745, -0.011669, 0.026467, 0.000000, 0.000000, -0.017108, 0.002319, 
-0.024945, -0.110966, -0.010154, 0.039586, 0.059786, 0.141769, 0.040936, -0.043531, -0.082340, -0.116575, -0.025282, 0.013321, 0.000000, 0.000000, 0.051113, 0.077454, 0.018197, -0.040967, 0.067598, -0.030546, 0.030209, -0.010896, 0.019009, -0.062170, 0.006242, 0.004609, -0.041186, 0.047057, 0.000000, 0.000000, -0.007541, 0.011101, -0.001113, -0.048648, -0.005886, -0.002863, -0.070460, 0.056980, -0.008589, 0.000157, 0.006292, -0.039049, 0.006185, 0.013232, 0.000000, 0.000000, -0.051837, 0.025831, 0.004519, 0.014232, -0.006137, -0.001453, -0.004178, 0.010402, -0.003878, 0.025716, 0.000084, 0.024943, -0.061943, 0.049917, 0.000000, 0.000000, 0.008594, -0.014068, 0.001011, -0.084932, -0.011551, 0.006776, -0.059833, 0.054281, 0.033516, -0.020687, -0.001146, -0.008600, -0.007696, -0.015967, 0.000000, 0.000000, -0.055807, -0.001500, 0.028715, -0.004550, 0.007788, -0.005682, 0.000151, -0.012616, 0.024029, 0.010033, 0.018807, -0.005578, 0.001889, 0.014749, 0.000000, 0.000000, -0.021446, 0.006099, -0.021420, -0.031084, -0.048660, 0.017149, -0.024267, 0.012478, 0.050501, 0.008183, 0.012625, 0.022113, -0.037497, -0.012208, 0.000000, 0.000000, 0.011800, 0.009996, -0.018141, 0.043150, -0.015558, 0.046565, -0.033295, 0.007665, -0.002994, 0.039392, -0.028852, 0.035917, -0.025863, 0.008735, 0.000000, 0.000000, -0.009578, -0.001090, 0.039381, -0.074385, -0.005006, 0.012608, -0.059092, 0.080144, 0.020334, -0.037574, 0.005654, -0.006372, 0.015042, 0.006997, 0.000000, 0.000000, -0.051286, -0.011513, 0.002923, 0.002329, 0.035606, 0.001101, 0.018252, -0.017313, 0.018085, 0.024097, 0.000929, -0.024149, -0.019596, 0.036430, 0.000000, 0.000000, -0.004304, -0.009411, 
-0.032549, -0.093574, -0.001213, 0.052166, 0.063156, 0.115355, 0.027397, -0.049534, -0.094587, -0.080094, -0.009887, 0.006260, 0.000000, 0.000000, 0.021412, 0.081634, 0.051415, -0.057326, 0.077879, -0.032888, 0.008574, -0.017657, 0.020240, -0.060470, 0.015349, 0.016384, -0.053005, 0.062259, 0.000000, 0.000000, -0.005340, -0.007712, -0.002720, -0.059352, -0.004749, -0.001257, -0.065893, 0.076990, -0.021576, 0.002116, -0.006416, -0.031445, 0.002759, 0.009932, 0.000000, 0.000000, -0.047991, 0.017017, 0.023397, -0.011015, -0.006539, -0.007956, -0.020657, 0.026906, -0.013482, 0.034719, 0.002062, 0.034396, -0.056512, 0.040502, 0.000000, 0.000000, 0.019944, -0.026101, 0.006835, -0.089815, -0.011625, -0.009998, -0.069972, 0.038345, 0.039358, -0.009005, 0.003908, -0.010512, -0.002520, -0.014005, 0.000000, 0.000000, -0.063196, -0.008750, 0.029336, -0.007175, 0.002875, -0.005964, 0.003739, -0.008181, 0.032953, 0.003961, 0.022576, -0.014929, -0.002299, 0.023951, 0.000000, 0.000000, -0.005345, 0.017128, -0.010853, -0.032372, -0.048094, 0.016228, -0.022816, 0.006694, 0.057599, 0.016700, 0.026329, 0.017725, -0.039739, -0.009314, 0.000000, 0.000000, 0.004053, 0.008010, -0.025448, 0.046941, -0.002019, 0.036546, -0.043029, 0.006052, 0.005805, 0.037955, -0.031810, 0.044308, -0.029533, 0.005137, 0.000000, 0.000000, -0.024398, 0.003069, 0.025427, -0.072479, -0.007833, 0.019442, -0.057603, 0.093272, 0.001733, -0.038110, -0.003291, -0.009219, 0.006983, 0.001699, 0.000000, 0.000000, -0.044910, 0.002708, -0.003678, 0.013055, 0.032886, -0.000575, 0.034670, -0.013626, 0.000632, 0.031889, 0.001811, -0.034135, -0.026971, 0.033173, 0.000000, 0.000000, -0.002809, -0.009103, 
-0.031392, -0.091318, 0.000855, 0.050941, 0.051394, 0.138622, 0.014760, -0.051837, -0.088821, -0.088404, -0.013418, 0.018876, 0.000000, 0.000000, 0.029983, 0.079501, 0.031309, -0.048055, 0.071453, -0.023639, 0.043423, -0.030015, 0.013412, -0.066517, -0.008997, 0.022792, -0.039322, 0.058195, 0.000000, 0.000000, -0.015611, -0.004341, -0.005554, -0.059610, -0.004943, -0.014525, -0.072084, 0.075600, -0.013953, 0.012963, -0.001951, -0.038848, 0.001776, 0.000374, 0.000000, 0.000000, -0.034185, 0.015113, 0.030836, -0.009744, -0.002004, -0.008476, -0.027223, 0.018816, -0.003484, 0.039624, 0.001416, 0.034284, -0.058429, 0.037618, 0.000000, 0.000000, 0.029511, -0.028165, 0.006741, -0.082311, -0.028066, 0.001940, -0.059277, 0.040948, 0.032755, -0.011447, -0.000325, -0.015504, 0.005424, -0.016026, 0.000000, 0.000000, -0.065199, -0.004988, 0.040074, -0.018944, 0.006449, 0.003177, 0.002845, -0.000184, 0.020163, -0.002793, 0.016884, -0.010598, -0.002489, 0.025114, 0.000000, 0.000000, -0.006146, 0.017294, 0.000473, -0.049806, -0.031466, 0.009633, -0.027821, 0.016849, 0.057282, 0.008086, 0.016646, 0.024350, -0.047051, -0.003650, 0.000000, 0.000000, 0.001928, 0.021996, -0.011990, 0.057190, 0.002361, 0.031133, -0.037201, 0.000608, 0.004834, 0.041261, -0.028718, 0.033751, -0.028507, -0.003021, 0.000000, 0.000000, -0.019904, 0.009771, 0.010121, -0.074205, -0.017058, 0.019564, -0.049813, 0.089064, 0.002818, -0.044058, 0.002196, -0.008322, 0.013824, 0.011703, 0.000000, 0.000000, -0.051080, -0.001462, -0.008693, 0.000242, 0.036095, -0.004856, 0.032312, -0.008539, -0.000872, 0.038831, 0.005691, -0.027414, -0.018738, 0.026194, 0.000000, 0.000000, -0.007046, -0.015183, 
-0.019665, -0.131128, 0.000991, 0.044482, 0.049710, 0.161213, 0.053824, -0.062859, -0.092492, -0.114687, -0.042007, 0.031070, 0.000000, 0.000000, 0.048960, 0.076036, 0.007516, -0.017193, 0.055372, -0.017038, 0.076299, -0.046416, 0.013768, -0.075319, -0.027278, 0.029211, -0.020648, 0.049970, 0.000000, 0.000000, -0.013247, 0.006560, -0.008085, -0.053950, -0.004698, -0.023691, -0.065107, 0.063984, -0.007010, 0.017215, 0.008330, -0.026290, -0.001557, -0.001266, 0.000000, 0.000000, -0.042876, 0.011490, 0.027624, 0.002091, -0.012719, -0.003436, -0.039017, 0.014742, 0.005709, 0.023986, 0.010581, 0.032022, -0.065613, 0.038955, 0.000000, 0.000000, 0.035819, -0.029678, 0.001617, -0.087467, -0.024829, 0.002763, -0.042869, 0.053812, 0.034476, -0.010403, -0.011313, -0.030995, 0.005081, -0.011903, 0.000000, 0.000000, -0.060828, -0.013230, 0.055378, -0.034303, 0.014633, 0.002281, -0.003595, 0.009278, 0.035041, -0.011541, 0.018339, -0.013652, -0.009694, 0.034279, 0.000000, 0.000000, -0.002355, 0.016930, 0.001662, -0.063249, -0.018546, -0.002065, -0.046449, 0.030385, 0.055122, 0.015744, 0.003558, 0.024431, -0.036388, -0.004025, 0.000000, 0.000000, 0.000654, 0.039531, -0.023893, 0.069069, -0.013808, 0.038802, -0.024455, -0.015570, -0.007503, 0.050004, -0.026603, 0.045423, -0.017971, -0.005541, 0.000000, 0.000000, -0.020009, 0.009729, 0.012352, -0.074954, -0.036642, 0.026836, -0.042258, 0.088137, -0.000510, -0.044082, 0.009536, -0.006873, 0.017571, 0.007328, 0.000000, 0.000000, -0.057722, -0.003570, -0.010129, 0.005812, 0.031617, -0.000933, 0.020344, -0.014463, 0.005384, 0.043563, 0.004220, -0.012724, -0.025134, 0.017959, 0.000000, 0.000000, -0.014405, -0.021472, 
-0.004262, -0.135552, 0.006272, 0.021703, 0.043648, 0.138012, 0.068959, -0.062230, -0.076988, -0.127586, -0.040449, 0.047396, 0.000000, 0.000000, 0.042089, 0.070086, 0.006186, -0.021469, 0.065702, -0.022297, 0.069765, -0.025911, -0.002965, -0.052590, -0.015298, 0.017807, -0.009432, 0.023089, 0.000000, 0.000000, -0.012445, 0.008137, -0.011040, -0.058381, -0.011205, -0.028522, -0.059623, 0.064731, 0.001742, 0.020421, -0.012325, -0.018210, -0.002792, -0.012295, 0.000000, 0.000000, -0.041228, 0.015067, 0.012590, 0.004252, -0.009960, -0.003262, -0.025160, 0.000274, 0.013687, 0.034801, 0.007265, 0.045240, -0.067980, 0.028059, 0.000000, 0.000000, 0.031381, -0.035519, 0.019559, -0.080403, -0.025126, -0.005225, -0.050091, 0.046478, 0.032189, -0.011384, 0.005479, -0.038581, 0.006765, -0.004810, 0.000000, 0.000000, -0.057147, -0.008815, 0.052750, -0.020424, -0.000169, 0.021115, -0.016623, 0.015976, 0.025066, -0.010026, 0.008755, 0.001251, -0.011111, 0.025856, 0.000000, 0.000000, -0.006253, 0.012097, 0.002821, -0.060136, -0.028134, 0.008158, -0.040128, 0.026396, 0.050525, 0.013799, -0.018814, 0.012326, -0.036142, 0.004863, 0.000000, 0.000000, 0.013457, 0.050262, -0.007380, 0.049775, -0.002389, 0.025255, -0.018316, -0.022631, -0.001887, 0.053263, 0.002599, 0.025600, -0.015472, 0.017866, 0.000000, 0.000000, -0.028263, 0.005786, 0.015152, -0.064594, -0.051990, 0.015394, -0.041212, 0.087586, -0.003543, -0.028592, 0.019342, -0.013436, 0.027619, -0.004798, 0.000000, 0.000000, -0.065595, -0.011767, -0.026414, 0.010440, 0.034012, 0.015915, 0.025018, -0.009201, 0.000707, 0.027379, -0.014502, -0.008702, -0.016044, 0.010654, 0.000000, 0.000000, -0.007962, -0.013558, 
0.000286, -0.121160, 0.001305, -0.007527, 0.052958, 0.096436, 0.069498, -0.044205, -0.085457, -0.097611, -0.046203, 0.052666, 0.000000, 0.000000, 0.036025, 0.073514, 0.019876, 0.004875, 0.046935, -0.008002, 0.050121, -0.053049, -0.012276, -0.049618, 0.001264, 0.003399, 0.011061, 0.021368, 0.000000, 0.000000, -0.004067, -0.002321, -0.016323, -0.054427, 0.000396, -0.037126, -0.057862, 0.066197, -0.011476, 0.034298, 0.000523, -0.024315, 0.009038, -0.011071, 0.000000, 0.000000, -0.048534, 0.011541, 0.003923, 0.016697, -0.012626, -0.006188, -0.020018, -0.005968, 0.021672, 0.025997, 0.003273, 0.051155, -0.075108, 0.041852, 0.000000, 0.000000, 0.027510, -0.031049, 0.015990, -0.074685, -0.022682, 0.000800, -0.060889, 0.054672, 0.023454, -0.009347, 0.012443, -0.021445, 0.001831, -0.013025, 0.000000, 0.000000, -0.053334, -0.016451, 0.068714, -0.010480, 0.005366, 0.020420, -0.032907, 0.009186, 0.030050, -0.015665, 0.014324, -0.007782, -0.016355, 0.020031, 0.000000, 0.000000, 0.009182, 0.009556, 0.001125, -0.060550, -0.051140, 0.007449, -0.029456, 0.010293, 0.065996, 0.008178, -0.019402, 0.000710, -0.024243, 0.012304, 0.000000, 0.000000, 0.001827, 0.053375, 0.002155, 0.043338, -0.006857, 0.022930, -0.040468, -0.012107, -0.006089, 0.072949, 0.011808, 0.009389, -0.018461, 0.017818, 0.000000, 0.000000, -0.027253, -0.002858, 0.036320, -0.064524, -0.041312, 0.005838, -0.052688, 0.093897, -0.009061, -0.020007, 0.023588, -0.008348, 0.025141, -0.014131, 0.000000, 0.000000, -0.057641, -0.012056, -0.028226, 0.013603, 0.039920, 0.005305, 0.036792, -0.019821, 0.002488, 0.032646, -0.021089, -0.002737, -0.008358, 0.012759, 0.000000, 0.000000, -0.013511, 0.003829, 
-0.000175, -0.107071, -0.001842, -0.012738, 0.022465, 0.113975, 0.053541, -0.018141, -0.055965, -0.123506, -0.040574, 0.037967, 0.000000, 0.000000, 0.044620, 0.048589, 0.025327, -0.003441, 0.051163, -0.029024, 0.026898, -0.039447, -0.022161, -0.036073, 0.009570, 0.015353, 0.003370, 0.026042, 0.000000, 0.000000, -0.017215, 0.007962, -0.015849, -0.054745, -0.006833, -0.034465, -0.058020, 0.060125, 0.001632, 0.025524, 0.011290, -0.029178, 0.014822, -0.004729, 0.000000, 0.000000, -0.042517, 0.016548, 0.000035, 0.016468, -0.012016, -0.010407, -0.021074, -0.000963, 0.000309, 0.030301, 0.010710, 0.058133, -0.061849, 0.040902, 0.000000, 0.000000, 0.025742, -0.036776, 0.005071, -0.061629, -0.020423, 0.015822, -0.051759, 0.046800, 0.016011, -0.017376, 0.008269, -0.019257, 0.017905, -0.015921, 0.000000, 0.000000, -0.060602, -0.017334, 0.060184, -0.007463, -0.006306, 0.018398, -0.023296, 0.009249, 0.034610, 0.001937, 0.000628, -0.014898, -0.020138, -0.006486, 0.000000, 0.000000, 0.016022, 0.001774, 0.005430, -0.066960, -0.050337, 0.008668, -0.045746, 0.024298, 0.040841, 0.016497, 0.001836, 0.000037, -0.031779, 0.009923, 0.000000, 0.000000, 0.007535, 0.050500, 0.007679, 0.035874, 0.002101, 0.012377, -0.046965, -0.016142, 0.001359, 0.070419, 0.009892, 0.019888, -0.020310, 0.026434, 0.000000, 0.000000, -0.034608, 0.013148, 0.043748, -0.072906, -0.047846, 0.018710, -0.048316, 0.084442, 0.015370, -0.030506, 0.012067, -0.007541, 0.008976, -0.013473, 0.000000, 0.000000, -0.049572, -0.002219, -0.024653, 0.016134, 0.039552, 0.010592, 0.028352, -0.010464, -0.009049, 0.042833, -0.016214, -0.007552, -0.013980, 0.006468, 0.000000, 0.000000, -0.002341, -0.002586, 
-0.001240, -0.106096, 0.008090, -0.003623, 0.031693, 0.133369, 0.039723, -0.030770, -0.081799, -0.127329, -0.032833, 0.046610, 0.000000, 0.000000, 0.046282, 0.063634, 0.009485, -0.006980, 0.060139, -0.032803, 0.050666, -0.057832, -0.019185, -0.025734, 0.013120, 0.011576, 0.018278, 0.012917, 0.000000, 0.000000, -0.031945, 0.012218, -0.009282, -0.065965, -0.004182, -0.031017, -0.062710, 0.066990, -0.005388, 0.031991, 0.014817, -0.026201, 0.027046, -0.011668, 0.000000, 0.000000, -0.047649, 0.009230, -0.007292, 0.021311, -0.012610, -0.015006, -0.015241, -0.015056, 0.005338, 0.022374, 0.009458, 0.066956, -0.051988, 0.038306, 0.000000, 0.000000, 0.016563, -0.032740, 0.011744, -0.074658, -0.019885, 0.017479, -0.048601, 0.060420, 0.007090, -0.015775, -0.003991, -0.014080, 0.006481, -0.008164, 0.000000, 0.000000, -0.060214, -0.005875, 0.058377, -0.010602, 0.014056, 0.012909, -0.027164, 0.000835, 0.020242, 0.020214, 0.003460, -0.004672, -0.029920, -0.007752, 0.000000, 0.000000, 0.014803, -0.008427, 0.008548, -0.069029, -0.047440, 0.002181, -0.041617, 0.021969, 0.040930, 0.010128, 0.011838, -0.020104, -0.027640, 0.001458, 0.000000, 0.000000, 0.002066, 0.043569, 0.010241, 0.039919, -0.000425, 0.008334, -0.055209, -0.029023, -0.009011, 0.072317, 0.020538, 0.036075, -0.020250, 0.031670, 0.000000, 0.000000, -0.042780, 0.013362, 0.035595, -0.069939, -0.050786, 0.008986, -0.040431, 0.088753, 0.011458, -0.009803, 0.005565, 0.011679, 0.009243, -0.023669, 0.000000, 0.000000, -0.042322, 0.004052, -0.025044, 0.014447, 0.046890, 0.018677, 0.035713, -0.002988, -0.014326, 0.028719, -0.023059, -0.010184, -0.007179, 0.003661, 0.000000, 0.000000, -0.010351, -0.005642, 
-0.001563, -0.088605, -0.001260, 0.001181, 0.024437, 0.121414, 0.049779, -0.033092, -0.078734, -0.128060, -0.013524, 0.037301, 0.000000, 0.000000, 0.035833, 0.075600, -0.007054, -0.003860, 0.064915, -0.035188, 0.071696, -0.052910, -0.033055, -0.025855, 0.001415, 0.005292, 0.026760, 0.007718, 0.000000, 0.000000, -0.030909, 0.012985, -0.007682, -0.065092, -0.012539, -0.022646, -0.062300, 0.065921, -0.006001, 0.030709, 0.013703, -0.023579, 0.032015, -0.010140, 0.000000, 0.000000, -0.059261, 0.007315, -0.004721, 0.017714, -0.002761, -0.010034, -0.016508, -0.003603, -0.014592, 0.025168, 0.015160, 0.059428, -0.051495, 0.043204, 0.000000, 0.000000, 0.022552, -0.038289, 0.024977, -0.070739, -0.015458, 0.020859, -0.051087, 0.042515, 0.013052, -0.024254, -0.008993, -0.002775, 0.000265, -0.006912, 0.000000, 0.000000, -0.054698, -0.004492, 0.053650, -0.015870, 0.018678, 0.006808, -0.020833, -0.004444, 0.036754, 0.021863, -0.000498, 0.000361, -0.041875, -0.009103, 0.000000, 0.000000, 0.009110, -0.006941, -0.010676, -0.057603, -0.061025, 0.011726, -0.026568, 0.035769, 0.042214, -0.000104, 0.010820, -0.026510, -0.033716, 0.010824, 0.000000, 0.000000, -0.007372, 0.052257, 0.011032, 0.049139, -0.018769, 0.029416, -0.054616, -0.013960, -0.015689, 0.059729, 0.018593, 0.024467, -0.011831, 0.042252, 0.000000, 0.000000, -0.045394, -0.000036, 0.040047, -0.068031, -0.036621, 0.003349, -0.041719, 0.074961, 0.012612, -0.001941, -0.001794, 0.014226, 0.014461, -0.022444, 0.000000, 0.000000, -0.042761, -0.001343, -0.013294, 0.003510, 0.045828, 0.009683, 0.027455, -0.004819, 0.003308, 0.029770, -0.022217, -0.014127, -0.018442, -0.008965, 0.000000, 0.000000, -0.007729, 0.002877, 
0.001246, -0.121227, 0.008945, 0.009002, 0.031533, 0.162271, 0.022065, -0.011754, -0.105624, -0.104836, 0.008322, 0.016405, 0.000000, 0.000000, 0.019099, 0.056182, 0.019395, -0.047194, 0.070717, -0.048987, 0.047209, -0.027815, -0.033575, -0.033368, 0.000229, 0.009681, 0.010539, 0.032083, 0.000000, 0.000000, -0.030573, 0.009573, -0.001203, -0.057648, -0.030093, -0.009323, -0.067186, 0.055776, 0.001855, 0.016011, -0.000327, -0.012985, 0.027044, -0.000717, 0.000000, 0.000000, -0.061268, 0.020027, -0.017308, 0.031548, -0.011418, -0.005231, -0.011136, -0.022316, -0.008375, 0.028995, 0.005748, 0.079168, -0.055110, 0.037968, 0.000000, 0.000000, 0.023474, -0.046088, 0.027339, -0.059169, -0.026583, 0.008919, -0.063581, 0.047306, 0.014801, -0.005833, 0.019659, -0.024634, 0.004281, -0.023558, 0.000000, 0.000000, -0.054628, 0.004393, 0.027222, -0.013580, 0.004997, 0.026097, -0.009563, -0.005812, 0.027717, 0.010375, 0.007740, 0.007979, -0.036305, 0.009525, 0.000000, 0.000000, 0.005681, -0.007464, -0.002764, -0.086771, -0.056983, 0.014108, -0.005199, 0.027609, 0.037018, 0.009622, -0.007059, -0.013921, -0.015424, 0.009452, 0.000000, 0.000000, -0.025019, 0.046394, 0.021934, 0.033701, 0.005282, 0.010070, -0.036758, -0.013062, 0.003441, 0.052787, 0.019761, 0.024003, -0.029976, 0.042801, 0.000000, 0.000000, -0.034004, -0.018322, 0.046445, -0.063378, -0.056907, 0.030110, -0.059448, 0.086974, 0.020260, -0.013925, 0.000630, 0.010203, 0.019211, -0.020272, 0.000000, 0.000000, -0.041404, -0.001312, -0.012491, 0.012701, 0.023661, 0.014035, 0.020154, -0.000811, 0.004384, 0.029360, -0.022373, -0.027919, -0.012210, -0.009783, 0.000000, 0.000000, -0.006712, 0.004834, 
0.001829, -0.111849, -0.019516, 0.020599, 0.018853, 0.149324, 0.025164, -0.023634, -0.082846, -0.094859, -0.000681, 0.028204, 0.000000, 0.000000, 0.029178, 0.038540, 0.041240, -0.025068, 0.035029, -0.032361, 0.026456, -0.059720, -0.014478, -0.045242, 0.001697, 0.033710, 0.002831, 0.028369, 0.000000, 0.000000, -0.037142, 0.001958, 0.003436, -0.052524, -0.045909, 0.001838, -0.071070, 0.054440, 0.001706, 0.018573, -0.012386, 0.003418, 0.037822, -0.021752, 0.000000, 0.000000, -0.064508, 0.027283, 0.005433, 0.019960, -0.013829, -0.006270, -0.024536, -0.028713, -0.004504, 0.036364, 0.025183, 0.069912, -0.048742, 0.034797, 0.000000, 0.000000, 0.026334, -0.040165, 0.026743, -0.062600, -0.026243, 0.015967, -0.074595, 0.035841, 0.007379, -0.011180, 0.033686, -0.023581, -0.005535, -0.019041, 0.000000, 0.000000, -0.046101, 0.011448, 0.029360, -0.013030, 0.005233, 0.028049, -0.017863, 0.017795, 0.013756, 0.021259, 0.006399, 0.000008, -0.024126, 0.004714, 0.000000, 0.000000, -0.000334, -0.016724, -0.008912, -0.080875, -0.067422, 0.029860, -0.007738, 0.026904, 0.042443, 0.009454, -0.018335, -0.027946, -0.025324, 0.012582, 0.000000, 0.000000, -0.026006, 0.047071, 0.012300, 0.032187, 0.002025, 0.006460, -0.036447, -0.006699, 0.006346, 0.040373, 0.012276, 0.018630, -0.045065, 0.043971, 0.000000, 0.000000, -0.028322, -0.003814, 0.043168, -0.070160, -0.028764, 0.024116, -0.052081, 0.079583, 0.013611, -0.015483, 0.021512, 0.012715, 0.024274, -0.023624, 0.000000, 0.000000, -0.040882, -0.006545, -0.018122, 0.020631, 0.018603, 0.032482, 0.033645, -0.020171, -0.000777, 0.030030, -0.013397, -0.016724, -0.006475, -0.014512, 0.000000, 0.000000, -0.005141, -0.011918, 
