52
2.1562850e-001
1.2409470e-001
-1.0953432e-001
2.3700129e-001
-2.1910949e-001
8.0454462e-002
2.5070835e-001
1.3602124e-001
5.1375230e-001
-1.0199257e+000
-1.0481293e-001
-2.1097880e-001
0.0000000e+000
0.0000000e+000
6.0436442e-001
-3.2439034e-001
4.8171356e-003
2.5034479e-001
-2.3438873e-001
1.2163473e-001
1.6391444e-002
-5.6086011e-001
2.5624167e-001
-1.2226430e-001
4.9545922e-003
3.0538604e-001
-1.5491096e-001
4.6523158e-002
0.0000000e+000
0.0000000e+000
-6.9645707e-002
2.6250444e-002
7.6107703e-002
-7.3845172e-002
5.5268123e-002
6.1688203e-003
1.2311465e-001
-2.2011669e-002
-8.9439751e-002
1.8440549e-002
-1.9729025e-001
1.5014695e-001
-5.1125589e-002
-1.0239580e-001
0.0000000e+000
0.0000000e+000
-6.0038797e-002
-2.8279512e-002
1.1025097e-001
9.6932870e-002
-2.6739100e-001
4.3082045e-002
-1.2688786e-001
5.7647077e-003
-8.8278858e-003
4.7684560e-002
2.0013138e-001
2.6016349e-002
1.3126979e-001
-7.2749473e-002
0.0000000e+000
0.0000000e+000
1.1352187e-001
3.6547910e-002
2.5782442e-002
7.3609088e-003
-8.0609671e-003
2.6823122e-002
-3.9715006e-002
-7.6212375e-002
-5.6521968e-002
-1.0489017e-001
-5.3887721e-002
1.2607699e-001
3.2823327e-001
-5.2896502e-002
0.0000000e+000
0.0000000e+000
-2.5897296e-001
2.5127943e-002
1.2281104e-001
1.1300110e-001
-1.4710008e-001
8.1799445e-002
-3.8967028e-001
1.7058321e-001
2.5700005e-002
1.2157433e-001
1.6331221e-001
6.5928361e-002
-3.7775347e-001
1.5216731e-001
0.0000000e+000
0.0000000e+000
2.3536135e-002
-8.5002879e-003
-9.0613685e-002
9.5178622e-002
-8.0260665e-002
-1.9726513e-001
-2.4001035e-001
-1.4606420e-001
-1.6727159e-002
9.4979361e-002
2.0659975e-001
-1.9099282e-002
1.6831052e-001
-1.8591956e-001
0.0000000e+000
0.0000000e+000
-1.0970660e-001
-4.3173513e-002
-6.3167350e-002
1.0643384e-002
-8.1048792e-002
8.9811640e-004
1.2115195e-001
7.0176421e-002
9.6583731e-002
-2.1038354e-001
-5.2659152e-001
1.5297766e-001
-3.2372432e-002
7.3097901e-002
0.0000000e+000
0.0000000e+000
4.6066841e-002
-3.9394576e-002
3.9860269e-001
1.2999152e-003
-6.7153853e-002
-5.3478922e-002
1.1821862e-001
3.3425939e-001
3.4091142e-001
8.6367253e-002
7.7852889e-002
8.9307150e-002
-1.6977618e-001
-1.7185174e-001
0.0000000e+000
0.0000000e+000
-1.3688761e-002
-1.0129326e-001
2.3778843e-002
-1.8500412e-002
-1.1026672e-001
2.0950699e-001
3.2861086e-001
-2.0451534e-001
-6.6571778e-002
5.9296806e-002
-4.9248748e-002
-4.4020149e-003
5.0828937e-002
-1.0267623e-001
0.0000000e+000
0.0000000e+000
3.5814573e-002
-2.1168775e-001
57
-4.1122467e-002
6.6371675e-002
-1.3947136e-001
2.6891135e-002
-9.5340129e-002
9.4286914e-002
2.3215525e-001
-1.5514392e-001
-2.1676594e-001
1.2316764e-001
-2.7748977e-001
1.2426951e-002
0.0000000e+000
0.0000000e+000
-2.5403423e-002
2.4260620e-001
-1.0556761e-001
-1.7728799e-002
-1.4538656e-001
1.4401889e-002
-1.7505920e-001
3.8735634e-001
-9.3424655e-002
1.2850041e-002
1.8083951e-001
-2.3382472e-001
1.0581304e-001
-7.9122575e-002
0.0000000e+000
0.0000000e+000
-3.8225414e-002
7.3381501e-002
1.6595807e-001
-1.2017136e-001
6.7253183e-002
-7.9301897e-002
1.4584897e-001
-8.9538604e-002
2.0215872e-002
-7.6458201e-003
-1.1923367e-001
4.0195436e-002
3.3087468e-002
5.7103251e-002
0.0000000e+000
0.0000000e+000
-3.6352705e-003
5.8344751e-003
2.2975155e-001
-5.5879681e-002
-1.6463554e-002
-1.2586464e-004
-2.1462795e-001
4.7480282e-002
5.2962323e-002
-1.5294549e-002
1.9260348e-001
-5.0403559e-002
-3.3789982e-002
-2.7171835e-002
0.0000000e+000
0.0000000e+000
-2.8842135e-002
-1.3978486e-001
-5.0547204e-002
1.3257219e-001
-1.6134812e-001
-6.9157583e-003
5.1647057e-002
3.1633000e-002
8.4141527e-002
-1.8944865e-001
8.8101824e-002
-2.4936142e-001
-1.4911897e-001
2.5385446e-001
0.0000000e+000
0.0000000e+000
7.0796463e-002
7.2027136e-002
2.2041601e-001
-6.6307857e-002
-5.1686913e-002
6.0524634e-002
-3.5332255e-001
5.4177028e-002
-2.1593417e-002
-1.2823569e-001
1.3807470e-001
-8.4903424e-002
1.3163047e-001
2.1248093e-002
0.0000000e+000
0.0000000e+000
1.0086621e-001
-5.4204895e-002
1.5830729e-001
2.4174637e-001
-1.0950746e-001
3.2395978e-001
1.0518977e-001
-1.8420353e-001
7.6981374e-002
-1.0957951e-001
4.2458700e-002
4.5697868e-002
-5.4788816e-002
2.6899252e-003
0.0000000e+000
0.0000000e+000
4.0051875e-003
-1.2798832e-001
-1.4519169e-001
-5.1123584e-003
1.0373236e-001
-4.5730607e-002
3.1857541e-001
-4.8683260e-002
-1.4047185e-001
1.0991181e-001
-1.2665671e-001
-1.1876640e-001
1.0290210e-001
1.2297893e-003
0.0000000e+000
0.0000000e+000
-2.7048097e-002
1.4458558e-001
7.6436116e-002
-1.0954076e-001
3.5318831e-002
-3.1067456e-002
2.3566055e-001
-3.9926928e-002
-1.6288347e-001
9.4690969e-002
8.6496486e-002
-1.1623387e-001
4.4883640e-002
7.3560483e-002
0.0000000e+000
0.0000000e+000
-2.2948109e-001
-1.2394793e-001
6.9364152e-002
-1.0943820e-001
7.8020569e-002
-5.3739104e-002
-1.6000780e-001
2.5081792e-002
-1.3548886e-002
-1.1371390e-002
5.8193365e-002
1.4196373e-001
-1.3957692e-001
9.8262472e-002
0.0000000e+000
0.0000000e+000
-7.7712916e-002
-1.0836903e-001
50
51
-3.2472108e-004
-9.9246856e-003
7.7435114e-003
-4.1310868e-002
2.0010289e-001
-2.7615163e-001
2.2642183e-001
-1.4330648e-001
-3.1283269e-001
5.9466480e-002
-2.3272314e-001
1.2319892e-001
0.0000000e+000
0.0000000e+000
1.5679434e-001
1.2332145e-001
1.7310017e-001
-5.5496091e-002
4.2530997e-002
-9.2199807e-002
-1.1128229e-001
-4.4773519e-002
1.6009189e-001
3.6769980e-002
7.3928196e-002
-2.2708721e-002
-3.5575316e-002
-4.7382700e-002
0.0000000e+000
0.0000000e+000
4.4032131e-002
-5.9379618e-002
6.7628383e-002
5.8326478e-002
-1.7860784e-002
5.3892952e-002
6.1689597e-002
1.2015344e-002
-5.8875096e-002
1.0507413e-001
-1.0320058e-001
7.3549555e-002
7.9928171e-002
-5.5238238e-002
0.0000000e+000
0.0000000e+000
-1.2219374e-001
6.5327813e-002
2.8184439e-002
-1.3036305e-001
5.8115846e-002
-6.3374088e-002
2.8597289e-002
6.6950042e-002
2.6548815e-002
1.0127699e-001
-9.0092547e-003
-7.5876977e-002
-8.4911145e-002
-8.2529260e-002
0.0000000e+000
0.0000000e+000
1.3535583e-001
-4.2096801e-002
1.9613547e-001
-8.3365283e-002
2.7306399e-002
-1.0177821e-001
-8.6713821e-002
-2.8625442e-003
1.3256080e-001
6.2761804e-002
7.0773266e-002
-1.3668685e-001
-3.6425219e-002
1.6315643e-002
0.0000000e+000
0.0000000e+000
-1.3263457e-002
-2.2795237e-002
6.3836149e-002
1.1560317e-002
9.6812260e-003
-1.0543813e-002
-1.8178956e-001
-7.2042524e-003
-3.5896619e-002
1.0185786e-002
4.6224754e-002
4.0865831e-002
8.0304461e-002
-1.6821955e-001
0.0000000e+000
0.0000000e+000
2.1288429e-002
4.2985482e-002
-1.1391268e-001
-6.6994495e-002
-6.4873131e-002
5.4191814e-002
2.1236467e-002
1.1284594e-001
5.1941542e-002
1.9931849e-002
-1.0047172e-001
6.3880180e-003
-7.3935728e-002
-1.6482802e-001
0.0000000e+000
0.0000000e+000
5.0821687e-003
4.0178671e-002
4.4712592e-002
-7.6910751e-002
4.3011070e-002
-1.9138271e-002
-2.3882337e-002
9.3852714e-002
2.5401174e-002
-9.5853002e-002
8.7582993e-002
-4.8777838e-002
-1.3004257e-001
8.0104433e-002
0.0000000e+000
0.0000000e+000
-3.8149797e-002
-3.0843495e-002
4.8943650e-002
3.2498969e-002
-8.3659934e-002
-1.0528811e-001
2.1477609e-002
-9.3509889e-002
9.3036200e-002
1.7203348e-001
1.2998158e-001
1.5636784e-004
1.1180668e-002
-3.7816390e-002
0.0000000e+000
0.0000000e+000
-9.9605359e-002
-1.6668919e-002
-1.2018531e-001
5.9951508e-003
-6.2919130e-002
1.0520965e-001
3.3701452e-002
-8.4846427e-002
-1.9372437e-002
4.2995667e-002
-1.5026304e-002
4.4181555e-002
2.0465088e-002
1.9219031e-002
0.0000000e+000
0.0000000e+000
1.0863572e-001
3.7011492e-002
51
53
-4.7998189e-002
1.3777885e-001
-1.3084128e-002
1.4322366e-001
7.7099344e-002
-2.3559013e-001
-4.5226262e-002
-1.6936948e-001
-3.6507598e-002
1.4283487e-002
1.3806096e-001
7.5311590e-002
0.0000000e+000
0.0000000e+000
-9.9474084e-002
-4.5574169e-002
-1.1880506e-002
-1.5032821e-001
7.4825381e-002
-1.7944715e-002
9.8508730e-002
2.6996656e-001
-7.6608090e-003
-1.2589633e-001
-8.5772474e-002
-2.3452224e-001
6.1685308e-002
7.5651962e-002
0.0000000e+000
0.0000000e+000
1.2999303e-001
7.2523265e-002
8.7820638e-002
5.6875733e-002
-1.6171061e-001
5.6121016e-003
1.6264134e-002
-1.1264446e-001
8.2267069e-002
-5.5299190e-002
-4.4951861e-002
9.3436484e-002
-4.7419051e-002
1.6280535e-001
0.0000000e+000
0.0000000e+000
4.2012136e-002
2.4561711e-002
-5.2538325e-002
1.2201350e-001
8.6979740e-002
5.6359770e-003
1.3212328e-001
-1.3834076e-001
2.1219849e-002
-2.4657724e-002
-1.8976778e-001
2.2525907e-001
-5.9224730e-002
2.1707486e-002
0.0000000e+000
0.0000000e+000
4.0734190e-002
-4.8835811e-002
1.2180483e-001
5.8773452e-002
-2.1234993e-002
5.2034573e-002
7.5912037e-002
-8.8883535e-002
-9.6962810e-002
-1.2010664e-001
5.1440684e-004
2.9816139e-002
6.8199448e-003
-1.1893521e-001
0.0000000e+000
0.0000000e+000
-1.0138079e-001
-4.2841682e-002
-1.6962502e-001
-1.8573319e-001
-2.0298578e-001
6.2890125e-002
1.4351197e-001
1.7960861e-001
8.3979495e-002
-1.7956236e-002
2.3153074e-001
-3.0490309e-001
1.9190754e-002
-1.0921068e-001
0.0000000e+000
0.0000000e+000
2.0251750e-001
-4.0085824e-003
7.4272068e-002
-5.8081388e-002
4.2026807e-002
-5.2792930e-002
-1.2337133e-001
1.0814969e-001
3.9195386e-003
2.0356635e-001
-3.2697401e-002
-1.4493849e-002
5.5429330e-002
-2.7922505e-002
0.0000000e+000
0.0000000e+000
-4.6433538e-005
3.0334504e-002
1.4850310e-001
-7.5412857e-002
1.1839747e-001
9.6559056e-002
5.3300687e-002
4.7441352e-002
-2.1169872e-001
9.2826969e-002
-1.1994662e-001
4.4458002e-002
-2.7924825e-002
1.1757398e-001
0.0000000e+000
0.0000000e+000
-1.5535825e-001
1.4554438e-001
1.1035848e-001
-2.3330991e-002
-6.0595772e-002
-1.7148164e-003
4.8989036e-002
-6.5474294e-002
-3.7676464e-003
6.2389170e-002
2.4427096e-002
2.9009983e-002
8.6694468e-003
5.8085530e-003
0.0000000e+000
0.0000000e+000
-8.2229800e-002
-1.6079641e-002
-7.4292618e-002
7.0557954e-002
-8.0633623e-002
-6.2420786e-002
-2.0491699e-001
-5.0524922e-002
1.8145208e-001
-5.1691519e-002
-2.3828687e-002
1.3891997e-001
-1.4453102e-001
2.9534978e-002
0.0000000e+000
0.0000000e+000
-4.7149780e-002
6.6327662e-002
52
55
-1.9059838e-002
1.4098030e-001
-6.0924646e-002
1.1773148e-001
8.9229056e-002
-2.4052631e-001
1.3070776e-001
-6.7142407e-002
-1.9101113e-001
-1.6723795e-001
-1.5476757e-001
2.0299697e-002
0.0000000e+000
0.0000000e+000
1.7560455e-001
1.6717137e-001
1.8744400e-001
-2.0202808e-001
-1.2481495e-001
9.0567165e-002
-2.4449867e-001
4.8096667e-001
-1.8399608e-001
-1.1069250e-001
-7.3373398e-002
-2.8705880e-001
2.8080868e-002
2.7456476e-001
0.0000000e+000
0.0000000e+000
1.8185016e-001
-7.5402986e-002
1.1100142e-001
-3.2702087e-002
8.1108089e-002
-1.7383630e-001
8.7190787e-002
-1.0162472e-001
7.2803041e-002
7.7986545e-002
-1.9399142e-001
1.3414407e-001
-4.3041716e-002
1.0098997e-001
0.0000000e+000
0.0000000e+000
-9.9869966e-002
6.5918282e-002
-1.6477278e-001
6.9099427e-003
-6.3706855e-002
2.1762373e-001
2.5252882e-001
-1.0368765e-001
-1.0799527e-001
-1.5371423e-001
6.1325085e-002
-8.7681821e-002
4.2698062e-002
8.5442974e-002
0.0000000e+000
0.0000000e+000
3.0602391e-002
5.5804994e-002
-1.2072440e-001
3.1089513e-001
-2.7295786e-001
9.6021279e-002
1.4626765e-001
-1.7606065e-001
1.1997714e-001
-1.1307090e-001
-6.9749416e-002
1.4947925e-001
-1.4152724e-001
1.9067775e-001
0.0000000e+000
0.0000000e+000
-1.4590326e-001
-4.2447373e-004
6.2817515e-002
-7.5642423e-002
-2.0906722e-002
3.1602531e-002
8.0906597e-002
9.8004520e-002
2.3207747e-001
-9.6927565e-002
-4.0456687e-002
9.5407770e-002
-1.6895312e-001
4.9423944e-003
0.0000000e+000
0.0000000e+000
6.6964137e-002
-3.9326758e-002
9.5364461e-002
2.6583711e-003
-6.3133289e-003
1.5802460e-001
-3.0611232e-003
-1.6675959e-001
-5.1243244e-002
-8.5161831e-003
-5.6705418e-002
2.8771325e-002
1.3617571e-001
-4.2713375e-002
0.0000000e+000
0.0000000e+000
-4.9198528e-002
6.0222239e-002
-2.4879044e-001
-1.2380081e-002
-1.0720705e-001
-4.6700987e-002
2.7226042e-001
-1.3081988e-001
-1.8851869e-002
1.7763515e-001
-9.7105195e-002
-7.3761630e-002
2.4265294e-002
-2.3504902e-001
0.0000000e+000
0.0000000e+000
1.9973336e-004
-4.6011133e-002
-8.1358492e-003
3.7467456e-002
-7.9956113e-002
-9.5911212e-002
-4.9812566e-002
-8.5747803e-002
1.5408672e-001
-3.8537532e-002
-2.0601116e-002
4.2671401e-002
-1.0149792e-001
-2.2050983e-001
0.0000000e+000
0.0000000e+000
6.2427094e-002
-3.1811079e-002
1.6005531e-001
-7.8993951e-002
5.1234052e-002
1.4952029e-001
-2.1481891e-001
4.9225762e-002
2.2284390e-002
-1.8079630e-001
-1.1917840e-001
4.8215207e-002
1.0435892e-001
-6.0264584e-002
0.0000000e+000
0.0000000e+000
3.3426323e-002
5.8136824e-002
54
50
-3.6597227e-002
6.1162813e-002
4.6864906e-002
-7.0647391e-003
9.8707634e-002
-1.6808901e-001
1.0988069e-002
-5.9982138e-002
-2.2357810e-001
1.0098250e-001
-1.3795581e-003
3.8052551e-002
0.0000000e+000
0.0000000e+000
-6.3015576e-002
1.1220564e-001
1.9131322e-001
-6.4651361e-003
8.6579890e-002
-3.8815912e-002
-2.0651038e-001
-6.0800195e-002
-5.2994176e-002
-1.7419832e-002
1.0352375e-001
6.2031068e-002
1.0858109e-001
-5.9319940e-002
0.0000000e+000
0.0000000e+000
2.0171793e-002
-6.4742804e-002
5.7868568e-002
-1.9490233e-002
-3.4894033e-002
1.0589343e-001
6.7218962e-002
7.7943442e-003
1.4681984e-002
-4.8237738e-002
-9.2225358e-002
2.6291902e-002
-1.0066537e-002
6.0399189e-002
0.0000000e+000
0.0000000e+000
-1.3728480e-002
-7.0583816e-003
-3.2506223e-002
-9.1119100e-003
-7.7328933e-004
6.4085505e-003
1.7171933e-002
-1.3627987e-002
8.7161082e-002
-5.4169827e-002
-3.2356102e-002
1.4253018e-002
-1.4405327e-001
4.5605625e-002
0.0000000e+000
0.0000000e+000
2.6049451e-002
-1.6874803e-002
1.0460595e-001
7.6133452e-003
-1.2385770e-002
-6.2568622e-002
6.0289589e-002
2.0023333e-002
-1.4966747e-002
9.1421353e-003
-6.2172910e-002
-6.5807878e-002
6.9999307e-002
5.7246947e-002
0.0000000e+000
0.0000000e+000
6.8107862e-002
-4.5421136e-002
-5.4580983e-002
-4.9933932e-002
4.3911743e-002
1.1196516e-001
-4.1707646e-002
6.1200018e-002
-1.3143694e-001
2.4955148e-002
-6.2323645e-004
2.4106170e-002
2.7825480e-002
-1.7731855e-003
0.0000000e+000
0.0000000e+000
-1.4350487e-002
3.3834510e-002
-3.9079302e-002
1.5378913e-001
-5.1579674e-002
6.2531959e-002
1.0430643e-002
-1.4159580e-002
-1.3953362e-002
1.1409959e-001
5.2191270e-003
6.4797937e-002
-1.0787486e-002
-1.9601085e-001
0.0000000e+000
0.0000000e+000
-3.5514345e-002
1.5991720e-002
2.7200659e-002
-9.4688847e-002
3.1521736e-003
-2.8196718e-002
6.0957918e-002
-1.6912661e-002
2.8745779e-002
-3.1749102e-003
5.6521356e-002
-6.5158388e-002
2.4400419e-002
-5.0956797e-002
0.0000000e+000
0.0000000e+000
1.3328343e-002
-1.2987279e-002
3.8133848e-002
-2.1663752e-002
-5.8945732e-002
9.2127026e-002
-2.7954239e-002
1.5815114e-002
-7.4610033e-003
-1.4437757e-001
6.6161307e-002
-7.7433551e-002
-8.5693237e-003
7.9503405e-002
0.0000000e+000
0.0000000e+000
-5.4747584e-002
-6.3291360e-002
5.4913377e-002
-6.3622188e-002
-3.1884422e-002
5.1441147e-002
-5.2942179e-002
-4.6443387e-002
-2.4278026e-002
-6.8519299e-002
-7.9322590e-002
8.4332309e-002
5.4924985e-002
1.9462121e-002
0.0000000e+000
0.0000000e+000
2.8072429e-002
2.0439949e-002
55
52
-6.0801858e-002
1.1768814e-001
-1.3801947e-001
3.5449470e-002
-7.1408944e-002
-1.2858346e-001
1.5870003e-001
-4.1619677e-002
1.2245007e-001
-4.6967192e-002
-1.1011157e-001
1.1583344e-001
0.0000000e+000
0.0000000e+000
3.0085009e-003
2.3172828e-002
1.5404467e-001
1.0233840e-001
5.4717546e-002
2.5105433e-002
5.3288406e-002
-1.5656346e-001
1.6806939e-001
-1.0141219e-001
-5.0027242e-002
1.9957805e-002
-1.4968952e-001
7.0795496e-002
0.0000000e+000
0.0000000e+000
-5.6696613e-003
2.5467780e-002
3.8060104e-002
1.7680758e-003
-1.5479555e-002
-1.6563671e-001
-6.1913352e-003
4.7885866e-003
-1.5566691e-001
1.4571857e-002
-1.1314753e-001
1.3960208e-001
1.5890304e-001
8.1644538e-003
0.0000000e+000
0.0000000e+000
-2.3042395e-001
4.2928869e-002
-7.4149251e-002
6.4779008e-002
-1.2929008e-002
1.3014117e-003
2.2047729e-002
-9.9961020e-002
-7.2090916e-002
1.2808799e-001
-1.0029047e-001
1.1894917e-001
8.0439690e-003
-1.4602405e-002
0.0000000e+000
0.0000000e+000
-3.4996242e-002
-1.4242363e-002
2.1836680e-002
-5.3484268e-002
-4.8477190e-002
4.8244113e-002
1.8303242e-001
4.4113876e-002
4.0341941e-002
7.0931863e-002
-2.3981111e-001
8.1552779e-002
-6.3496173e-002
-2.7016414e-002
0.0000000e+000
0.0000000e+000
-4.1374822e-002
-1.0931110e-002
1.8664622e-001
-2.1084496e-002
-1.9175497e-002
-2.0520868e-002
-4.9342207e-002
-1.1256469e-001
7.1114078e-002
-6.4538292e-002
-2.0453295e-002
1.8330302e-002
3.1348085e-003
-5.7393910e-002
0.0000000e+000
0.0000000e+000
-3.2521177e-002
-1.3581165e-003
-1.8608206e-001
1.9859424e-001
-2.6649714e-002
-8.6579681e-002
5.1470177e-002
-9.9630496e-002
-2.3223874e-002
-4.7311910e-002
3.5339930e-002
-1.6056169e-002
1.4457508e-001
-3.9146777e-002
0.0000000e+000
0.0000000e+000
-6.5854276e-002
5.7153934e-002
2.2974608e-002
1.0936953e-001
-8.9781617e-002
3.8145355e-002
-5.2866935e-002
-1.0148107e-002
-1.2256631e-001
4.1080888e-002
9.2624329e-002
1.0820595e-002
6.7842378e-002
-8.5728814e-002
0.0000000e+000
0.0000000e+000
8.7751166e-002
5.6925619e-002
2.5223754e-001
5.5535829e-002
1.7656561e-002
1.2404707e-001
-1.3652654e-001
4.8529321e-002
-3.3338868e-002
-1.8856370e-002
5.5898561e-003
5.8185313e-002
-3.1262844e-002
-4.3750951e-002
0.0000000e+000
0.0000000e+000
-9.2784989e-002
8.5471424e-003
-9.0066764e-002
7.7601770e-002
-1.1974576e-001
1.1207298e-001
6.4658807e-002
-1.3714134e-001
1.0484463e-001
4.2176721e-002
-2.2623203e-002
-2.5460179e-002
-4.2369080e-003
8.5008027e-003
0.0000000e+000
0.0000000e+000
-9.2827365e-003
-6.1579582e-002
56
55
-2.9663373e-002
1.4378632e-002
-3.5156442e-003
-4.8221473e-003
7.0979283e-002
-6.2636510e-002
-7.1202561e-003
6.4301120e-002
-2.5215934e-001
6.5608880e-002
-2.2169577e-003
-7.0195530e-002
0.0000000e+000
0.0000000e+000
4.5238499e-002
1.1814988e-001
1.1237005e-001
-1.4176102e-001
1.7810602e-001
1.1366985e-003
-1.2763642e-001
1.2649048e-001
-8.3347246e-002
-5.9506319e-002
3.1874592e-003
-3.8916565e-002
-4.9389372e-002
5.0486137e-002
0.0000000e+000
0.0000000e+000
3.4516800e-002
1.7080871e-002
8.6161684e-002
1.6846750e-003
-1.5854604e-002
5.3978776e-002
1.0385756e-001
-7.0938786e-002
5.9746569e-002
-1.7245813e-002
-1.9943255e-002
2.9262249e-002
-1.5927569e-001
8.8977772e-002
0.0000000e+000
0.0000000e+000
1.3176202e-002
-2.9790714e-003
7.7360577e-002
5.8805222e-002
-2.1665323e-002
-2.1521019e-002
-3.3309498e-002
-7.1538393e-002
2.4691869e-002
7.4299347e-002
-4.8519988e-002
8.0748157e-002
-7.5355239e-002
-2.1475427e-002
0.0000000e+000
0.0000000e+000
-5.4762948e-003
-1.8285951e-003
-5.4861792e-003
4.5173121e-002
-1.1093560e-001
4.7885809e-002
5.7094642e-002
-9.6773983e-002
1.2417301e-001
-1.7086943e-001
5.2149580e-002
3.1181116e-003
-3.0389332e-002
6.2776114e-002
0.0000000e+000
0.0000000e+000
-3.6954464e-002
-4.1878426e-002
-5.6890833e-002
-4.9103647e-002
-2.2208167e-002
1.6632116e-002
2.3374494e-003
-3.7217428e-002
7.4573823e-002
-1.0314140e-001
-2.3604958e-002
3.5912801e-002
-3.3911463e-002
3.2041610e-002
0.0000000e+000
0.0000000e+000
1.1605382e-001
3.3710500e-002
-2.6701308e-002
8.0290595e-002
9.9416489e-002
1.7949879e-002
1.2597762e-001
1.4313843e-002
-4.4629727e-002
8.3193953e-003
-7.5068461e-002
-5.0484419e-002
7.0645882e-002
-2.8800256e-002
0.0000000e+000
0.0000000e+000
4.8875154e-002
7.3816184e-002
1.9044232e-002
2.3184018e-002
-4.7245508e-002
7.7237911e-002
8.3795400e-002
-4.3807547e-002
-6.1988252e-002
1.2039027e-001
5.0418665e-002
-5.6958323e-002
5.2215908e-003
-1.2934715e-001
0.0000000e+000
0.0000000e+000
1.1421919e-002
-7.9242808e-002
7.2588825e-002
-9.2675392e-003
-1.8247094e-001
-7.0833858e-002
3.1195097e-002
-3.8348854e-002
9.8417545e-002
8.5725923e-002
9.1872401e-003
9.8741360e-002
-8.0298431e-002
3.2669373e-003
0.0000000e+000
0.0000000e+000
3.2634757e-002
-5.4663047e-002
-5.7518674e-002
-6.7109893e-002
1.2193538e-002
-5.7959740e-002
-3.5037468e-002
1.3229047e-003
-1.9629164e-002
1.8819055e-002
3.7798764e-002
1.0043362e-001
-8.8560904e-002
6.8976731e-002
0.0000000e+000
0.0000000e+000
-6.6384349e-002
4.5423775e-002
57
57
-1.0172833e-001
1.6141805e-001
-1.6927130e-001
-4.1663394e-003
1.2347606e-003
1.8587981e-002
1.1335467e-001
-8.0832303e-002
-1.3637728e-001
2.0070130e-002
-1.3065868e-001
8.9745139e-002
0.0000000e+000
0.0000000e+000
9.1045116e-002
5.1884109e-002
1.8226254e-001
9.1301555e-002
-4.6214232e-002
1.2436679e-001
-1.1346084e-001
-1.4309510e-001
6.1622470e-002
-1.6065111e-001
-4.9939786e-002
1.5407067e-001
-1.3700719e-001
9.1785072e-002
0.0000000e+000
0.0000000e+000
1.0869904e-002
6.4892823e-002
1.1765124e-001
-7.4419588e-003
2.8630318e-002
7.9141893e-002
5.2308782e-002
-6.6885651e-002
-8.8415071e-002
-1.2706636e-001
1.3145813e-002
5.0148431e-002
3.4393956e-002
4.7114059e-002
0.0000000e+000
0.0000000e+000
-5.1731870e-002
-9.7173249e-002
-1.3570519e-001
9.8111272e-002
-1.0138335e-001
-1.6565558e-002
1.4774187e-001
-8.1023992e-002
-8.2298125e-003
4.9778773e-002
-4.0946041e-002
-9.0431189e-003
-1.4315557e-002
1.5121110e-002
0.0000000e+000
0.0000000e+000
3.2612881e-002
3.7903330e-002
3.4464974e-002
1.1155651e-001
-6.0016867e-002
-2.3562065e-002
7.1776207e-002
-4.7715901e-002
1.2521607e-001
3.6472045e-003
-6.8782249e-002
5.9364621e-003
-6.1419645e-002
-6.4580389e-002
0.0000000e+000
0.0000000e+000
3.0718068e-002
-1.6185525e-002
2.6247837e-002
-6.9104350e-002
4.5563562e-002
-2.2969596e-002
-4.3550758e-002
-4.7397621e-002
-1.0665911e-001
1.0902740e-001
4.8287827e-003
-1.1497862e-002
6.2583252e-002
-1.2763930e-001
0.0000000e+000
0.0000000e+000
-1.2250983e-002
-2.9891888e-002
1.4884403e-001
-1.9851041e-002
-8.6093300e-002
-4.9991744e-002
1.3289830e-001
-4.6223770e-002
-4.2345960e-002
-4.8110632e-002
-8.6728113e-002
-3.0751525e-003
4.5117325e-003
8.6267049e-002
0.0000000e+000
0.0000000e+000
1.1405099e-002
7.9042639e-002
-1.4684809e-001
1.2067520e-001
4.1891619e-002
1.0133824e-001
2.2655874e-001
-4.5142552e-002
-1.5477088e-002
1.1047172e-002
-6.0984478e-002
-3.2643099e-002
3.2675305e-002
-4.7234956e-002
0.0000000e+000
0.0000000e+000
2.2479908e-002
1.3128047e-001
-3.6745888e-002
7.2309895e-002
-6.1701188e-002
5.4110059e-002
1.2553485e-001
-1.8063697e-002
1.5045134e-001
-2.4701642e-002
-6.8901951e-002
4.6059556e-002
-2.6032404e-002
2.0615962e-002
0.0000000e+000
0.0000000e+000
-3.8013266e-002
-1.0685334e-001
1.2483052e-001
-1.0870427e-001
-7.6651151e-002
3.7787497e-002
-8.2097194e-002
1.2576115e-001
-2.0280411e-002
3.3792044e-002
1.1221501e-002
-7.0345460e-003
-1.4879232e-001
9.6685777e-003
0.0000000e+000
0.0000000e+000
-4.5938334e-002
6.1920917e-002
49
49
49
1.8555915e-001
-9.7552310e-002
-8.9235140e-002
-7.7076210e-003
1.0536025e-002
-2.7148551e-001
9.4472252e-002
-1.0869625e-001
-7.5244743e-002
9.9395937e-002
-1.8797243e-002
9.5215546e-002
0.0000000e+000
0.0000000e+000
-6.1656307e-002
1.0337544e-001
3.9361519e-002
-1.9893149e-003
-3.2117323e-002
-2.6245424e-002
1.1634071e-002
-8.9463940e-002
1.4110034e-001
-3.2699134e-002
1.4330299e-001
3.3787042e-002
-1.3243807e-002
5.0777635e-002
0.0000000e+000
0.0000000e+000
-5.4894300e-002
-9.4331728e-003
-8.9644431e-003
7.3410057e-003
6.4885687e-002
2.8896576e-002
-7.5281479e-002
-2.4848802e-002
-2.9047176e-002
-1.9661630e-002
1.0525276e-001
8.0928490e-002
7.4628336e-002
-1.1261980e-001
0.0000000e+000
0.0000000e+000
-1.8121449e-001
4.0753706e-005
-4.4027657e-002
1.0371963e-002
-7.3384019e-002
7.0397467e-002
4.9891092e-002
-3.2871381e-002
-4.4636619e-002
5.1418577e-003
9.3469524e-003
-4.8369705e-002
1.0336056e-001
3.0577435e-002
0.0000000e+000
0.0000000e+000
-3.8622638e-002
-2.2854788e-002
1.2669007e-002
-3.5419697e-002
-1.3220745e-001
3.9549673e-002
9.1453206e-002
1.8171999e-001
-4.2910385e-002
9.3194525e-002
-2.1046643e-001
-9.7113369e-002
4.6034474e-002
6.8110138e-002
0.0000000e+000
0.0000000e+000
-9.9644898e-002
7.4649978e-002
-1.6842259e-001
1.3040671e-001
-8.1621096e-002
-2.0286135e-002
-1.4681090e-001
1.2010460e-002
-3.2154592e-002
1.7711589e-002
8.2740241e-002
6.3583152e-002
-1.3102203e-001
3.7582908e-002
0.0000000e+000
0.0000000e+000
-5.3024377e-002
2.6155701e-002
1.2351817e-001
-7.2717675e-005
-9.8726011e-002
1.2075064e-001
1.0764630e-002
-1.3058952e-001
-9.3241711e-002
-2.4682654e-001
-4.0620451e-002
2.2336708e-002
1.0187810e-001
-4.7661906e-002
0.0000000e+000
0.0000000e+000
1.4394059e-001
2.8052565e-002
2.1898336e-001
-1.5894672e-001
3.1514363e-002
1.2371259e-001
-1.6361691e-001
-3.7374752e-002
-2.1975662e-002
1.4995893e-001
-1.4775223e-001
2.0580522e-002
-6.8539010e-002
3.4171158e-002
0.0000000e+000
0.0000000e+000
8.3738604e-002
1.3512571e-001
1.8594951e-001
8.1850383e-002
5.7420790e-002
-1.5815592e-001
3.1404292e-002
1.2518574e-001
6.1085160e-002
1.7904391e-001
-6.4414028e-002
2.3681646e-002
-3.9976085e-002
-6.4759252e-002
0.0000000e+000
0.0000000e+000
-3.2493711e-002
-7.2361298e-002
1.0283157e-001
-6.8545040e-002
-8.4894460e-002
6.8460547e-002
-5.0627857e-003
8.3912570e-002
4.7793203e-002
-7.3067854e-002
9.6313233e-002
1.8116523e-002
-1.3575323e-001
-6.1665331e-002
0.0000000e+000
0.0000000e+000
-1.6435512e-002
-9.5067988e-002
49
50
51
-8.6816791e-002
1.2736184e-001
-5.2227531e-002
1.9094617e-002
1.9347469e-001
-2.6176918e-001
8.2289600e-002
-4.1259227e-002
-2.5042165e-001
1.7558180e-001
-3.6147675e-002
3.2292571e-002
0.0000000e+000
0.0000000e+000
-6.1238908e-002
1.1720651e-001
-2.3025510e-001
1.7909945e-001
-1.0675840e-001
4.5464695e-002
2.8273960e-001
-1.9378539e-001
1.6693317e-001
-1.9600940e-001
-1.0180413e-001
1.0492726e-001
-2.5699219e-001
2.8399898e-001
0.0000000e+000
0.0000000e+000
1.1310711e-001
3.5630316e-002
1.2304749e-002
3.6284718e-002
-5.1393095e-002
1.6127334e-001
4.9269058e-002
-4.4818463e-002
-2.4339277e-002
-7.9249084e-002
1.0528282e-001
-1.5043120e-002
1.0499879e-001
-1.0954344e-001
0.0000000e+000
0.0000000e+000
1.8701134e-002
3.2868173e-002
-2.4037478e-001
5.6215829e-002
-1.9619892e-002
9.3698308e-002
3.6489130e-001
-1.9106465e-001
5.7910413e-002
1.4970939e-002
-1.8199153e-001
2.6431047e-001
-1.7266617e-001
6.4497279e-002
0.0000000e+000
0.0000000e+000
-2.0554352e-002
-5.3267624e-002
3.1854310e-002
-4.5072698e-002
-1.4720353e-002
-1.8352794e-001
7.3062649e-002
3.2822867e-003
4.4576359e-002
1.2342992e-001
1.1554799e-001
-1.3414058e-001
1.3646292e-001
-3.5828513e-003
0.0000000e+000
0.0000000e+000
-6.8903173e-002
-1.0804552e-003
-4.5329326e-002
-2.2160710e-003
-7.9878861e-002
1.2738815e-001
2.5945903e-002
-6.2014213e-002
9.5304591e-003
-5.9787103e-002
-1.9137923e-001
-7.1343673e-002
-6.4155961e-003
3.0031207e-002
0.0000000e+000
0.0000000e+000
3.3154515e-003
7.3612234e-002
1.0176003e-001
-1.3353562e-002
-1.3143215e-001
5.1799448e-002
-1.2753080e-001
3.2567283e-002
-4.9390986e-002
-1.7891270e-001
3.8578697e-002
-6.8287566e-002
2.7283460e-002
1.2002462e-001
0.0000000e+000
0.0000000e+000
3.7551894e-002
-1.5027344e-002
-7.8040207e-002
-1.9925307e-001
-2.7663106e-002
7.9694580e-002
2.5494471e-001
6.6201390e-002
5.2082413e-002
-8.3581787e-002
9.1940493e-002
1.6305409e-001
-9.4997873e-002
3.5908864e-002
0.0000000e+000
0.0000000e+000
1.2397458e-001
-1.5926760e-001
1.7748926e-002
1.8354197e-001
3.7604864e-003
-3.6602723e-002
7.5116561e-002
-3.2994955e-002
1.3549549e-001
1.2268853e-001
1.8852327e-002
-1.3156668e-001
-3.1922857e-002
-6.7245956e-002
0.0000000e+000
0.0000000e+000
-8.8581725e-002
-1.3530159e-001
-2.6526561e-001
1.4057608e-001
3.0194246e-002
-4.3182119e-002
2.3790907e-001
-1.3760867e-001
-5.1332896e-002
1.5409550e-001
-2.2350389e-001
4.9066704e-002
-1.9083852e-002
-9.4704517e-002
0.0000000e+000
0.0000000e+000
4.0642969e-003
7.5618989e-002
49
51
53
-9.4551409e-002
2.0568199e-003
-7.0297229e-003
-5.0909266e-002
7.2620216e-002
-3.5885306e-002
-6.0735276e-002
1.1309356e-001
-1.9690861e-001
1.4970885e-001
-6.0991261e-002
-1.2926759e-001
0.0000000e+000
0.0000000e+000
1.3061665e-001
6.2673670e-002
2.5672797e-001
3.9900606e-002
-1.0617316e-001
9.8803014e-002
-2.2763474e-001
2.0934765e-002
9.2604275e-002
-1.6019045e-001
-4.8828383e-003
1.6748197e-001
-1.7355749e-001
1.7259846e-001
0.0000000e+000
0.0000000e+000
-3.2888417e-002
-5.3311198e-002
1.0430843e-001
6.8268602e-002
-4.6000948e-002
2.6045370e-002
-3.2082978e-002
-6.1833036e-002
-3.2661138e-002
-8.4643384e-002
3.8333175e-002
-7.3097084e-002
1.4853912e-002
-1.9004093e-002
0.0000000e+000
0.0000000e+000
-1.1002846e-001
6.2157537e-002
3.8200577e-002
-7.4058770e-002
2.7081556e-002
-6.0129240e-002
6.1332266e-002
-5.5989620e-002
6.1484977e-002
-5.9950018e-002
-1.4310767e-002
-6.6659387e-002
1.0340938e-001
4.1481208e-002
0.0000000e+000
0.0000000e+000
-3.0953957e-002
3.6673605e-003
2.9702261e-002
-2.2551712e-002
3.1609196e-002
2.9897266e-002
1.1991037e-001
-4.4425544e-002
1.4913444e-001
1.0442854e-002
-3.0940336e-003
-1.5206565e-002
-3.7455654e-002
-5.7163157e-003
0.0000000e+000
0.0000000e+000
6.3572535e-002
-1.1464604e-002
2.6667967e-003
1.8392289e-003
-3.4395519e-002
-1.7773550e-002
-2.9602597e-002
-1.4699978e-002
3.2466451e-002
7.1585129e-002
6.5414933e-002
1.2730441e-001
-1.0485650e-001
4.5277959e-002
0.0000000e+000
0.0000000e+000
-5.2101088e-002
-2.3566949e-002
9.2402095e-002
5.3756785e-002
-9.1694955e-002
9.4027224e-003
-5.7549044e-002
-5.0481052e-002
-1.0769312e-001
-7.7520146e-002
9.5859558e-002
6.0291791e-002
-3.1634188e-002
3.7561208e-002
0.0000000e+000
0.0000000e+000
-3.6856164e-002
-4.0233053e-002
1.7538102e-001
-6.2721605e-002
-5.2680362e-004
-1.9363509e-002
-6.9897164e-002
1.1853988e-001
1.4080747e-003
4.2550140e-002
1.2045568e-001
-1.8005038e-001
1.3789291e-001
-8.1496905e-002
0.0000000e+000
0.0000000e+000
5.7451418e-002
-3.3764482e-002
1.9511271e-001
-3.0919190e-002
5.9119916e-002
-1.2451765e-001
2.4668393e-002
-1.1998211e-001
1.0921130e-001
-1.0583117e-002
-4.6344597e-002
-8.8971263e-002
-2.2819772e-002
4.0894443e-002
0.0000000e+000
0.0000000e+000
7.0757848e-002
-3.6908763e-002
-2.1340194e-002
-2.0838766e-002
-6.2885211e-002
1.2359220e-001
8.6649485e-002
-4.8708893e-002
-9.8456450e-002
-4.6164746e-002
-1.2867730e-001
1.2322223e-001
-6.4680983e-002
-1.8776834e-002
0.0000000e+000
0.0000000e+000
-8.4419338e-002
1.3641753e-001
49
52
55
-2.5073401e-002
-2.0098007e-001
6.3777624e-002
8.8749622e-002
1.1983158e-001
1.1188692e-001
-2.3100364e-003
-3.0638140e-001
-2.6959630e-001
3.7750270e-002
-1.3792716e-001
2.1621495e-001
0.0000000e+000
0.0000000e+000
1.3532130e-001
9.7441616e-002
2.0488471e-001
-1.4157527e-001
1.9142259e-001
2.5649392e-002
-1.7192508e-001
1.8148017e-001
-1.2836612e-001
-1.1604194e-001
1.5324977e-002
-1.1314124e-001
1.0754514e-001
7.2572606e-002
0.0000000e+000
0.0000000e+000
-2.7891627e-002
6.4591446e-002
-6.4446730e-003
3.5225667e-002
-1.8071239e-001
3.9929568e-002
5.3546104e-002
-3.3623151e-002
8.8743413e-002
-8.0914910e-002
-1.6888130e-002
-3.8202557e-002
1.5712437e-003
6.3349492e-002
0.0000000e+000
0.0000000e+000
-5.9429402e-002
-5.1967784e-002
-2.2791367e-002
1.4075060e-002
4.4776335e-002
-1.8311839e-002
2.2068238e-002
7.5637275e-002
-6.7107859e-002
1.0537720e-001
-1.6459533e-002
5.7815812e-002
-8.6802491e-002
-5.4416221e-002
0.0000000e+000
0.0000000e+000
3.4269536e-002
-4.0057056e-002
1.7507552e-001
1.4759182e-001
-5.5643072e-003
-5.5758016e-004
5.2462789e-002
-2.3335696e-001
3.0320731e-002
3.9620406e-003
-3.3804075e-002
1.1125012e-001
1.4952183e-002
-6.8309419e-002
0.0000000e+000
0.0000000e+000
6.2316860e-005
3.5729547e-003
-8.8029209e-002
7.2244109e-002
-1.8620372e-003
-8.0730215e-003
-8.8157390e-003
-1.3322243e-002
-1.1137843e-001
9.2173712e-002
1.4746781e-001
1.7860147e-002
6.5436573e-002
-2.9607755e-002
0.0000000e+000
0.0000000e+000
7.0058425e-002
-4.2564976e-002
-3.8852027e-002
8.6347786e-002
7.1652372e-002
-7.1621951e-002
-1.2185869e-001
-5.5275288e-002
-1.4996481e-001
6.5388920e-002
-4.3037366e-002
7.3836654e-002
9.1838798e-002
2.6133170e-002
0.0000000e+000
0.0000000e+000
-8.0289569e-002
1.6002639e-002
-5.0514831e-002
1.8994312e-002
-1.7749440e-001
7.4784427e-002
3.8786880e-002
-1.1938196e-001
6.7096315e-002
1.1198565e-001
-3.3296205e-002
2.0147340e-001
-1.2256151e-001
-5.0407011e-002
0.0000000e+000
0.0000000e+000
-4.5608304e-003
-1.0219736e-001
-2.4779888e-002
7.2770657e-002
-5.3265405e-002
7.2954184e-002
7.1224540e-002
4.0786975e-002
1.6083141e-001
-9.1214465e-002
2.9690887e-002
-7.6926244e-002
-8.3504943e-002
-2.3094338e-003
0.0000000e+000
0.0000000e+000
-5.9394624e-003
-4.4986986e-002
3.6559405e-002
-5.5985438e-002
1.0608081e-001
5.5061584e-002
4.3417933e-002
2.2509104e-002
-8.5823435e-002
5.7514918e-002
-1.7401082e-001
2.8406368e-003
1.2352593e-003
3.5653701e-002
0.0000000e+000
0.0000000e+000
5.5978108e-002
1.1797157e-001
49
54
49
-6.3854167e-002
-1.0064685e-002
9.6989523e-002
5.8267683e-002
2.8084166e-001
-6.6385532e-002
-1.7468803e-002
1.1625577e-002
-4.4289731e-001
2.1939755e-001
-1.1665309e-002
-3.5372600e-002
0.0000000e+000
0.0000000e+000
-1.2439909e-002
1.7845323e-001
2.0750946e-001
-9.3713613e-002
9.7650451e-002
2.5033842e-003
-1.2577118e-001
1.1360870e-001
-9.4838985e-002
-1.6776430e-001
3.8166357e-002
-1.6290213e-003
-1.6123522e-002
4.1109373e-002
0.0000000e+000
0.0000000e+000
-6.8040298e-002
5.1066286e-002
4.0930966e-002
5.2547740e-002
2.8217795e-002
1.0947211e-002
-8.4612565e-002
-5.6550735e-002
-7.4043002e-003
-5.4817086e-003
5.0279465e-002
7.7591847e-002
-4.2241067e-002
8.0354278e-002
0.0000000e+000
0.0000000e+000
-3.5428352e-002
-3.9555313e-002
2.2235244e-002
-1.9073469e-002
5.2844460e-003
2.9071616e-002
-1.6957379e-001
7.2388461e-002
-3.6589400e-002
9.1158398e-003
1.4160475e-001
-3.0459812e-002
-2.9818600e-002
-3.4198325e-002
0.0000000e+000
0.0000000e+000
-2.3016307e-002
3.7152904e-003
1.1842536e-001
-3.1849463e-002
-8.7953064e-002
2.3902683e-002
9.6722882e-002
-4.0116727e-002
5.9449912e-002
-6.3630792e-002
-3.9594324e-002
-4.2862182e-002
5.9131530e-002
9.5434833e-002
0.0000000e+000
0.0000000e+000
1.2652730e-002
-2.3658147e-002
-5.5877699e-002
-2.4377408e-002
-4.5495798e-002
1.9609607e-002
4.6418786e-002
5.0732942e-003
-4.1772949e-002
1.7355322e-001
-6.2861981e-003
7.3296681e-002
-1.0799749e-001
6.0516568e-002
0.0000000e+000
0.0000000e+000
6.3013288e-003
-8.0782743e-003
-6.5549878e-002
7.1845886e-002
1.0072749e-001
-6.6647620e-003
-3.3476770e-003
5.8093823e-002
-1.4000483e-001
3.7539330e-002
9.4997578e-002
1.8170054e-002
-8.6418871e-002
-6.9243631e-002
0.0000000e+000
0.0000000e+000
4.0043520e-002
-6.9733863e-003
9.3230336e-002
-1.6217135e-001
7.2238147e-002
6.2391895e-002
1.8807875e-001
-2.9147363e-002
5.6022068e-002
-6.8078030e-002
-1.4518116e-001
-1.2850799e-001
-1.9049103e-002
3.5417410e-002
0.0000000e+000
0.0000000e+000
2.2251295e-002
1.6707498e-001
1.0825616e-001
2.2212140e-002
-1.6282982e-001
-7.9358294e-002
-3.0396850e-002
-5.9265548e-002
6.5605442e-002
7.9493128e-002
7.3661006e-002
-3.5921212e-002
-1.0099305e-002
5.5038281e-002
0.0000000e+000
0.0000000e+000
1.3184109e-002
-1.0496260e-001
6.7533606e-002
-2.8575606e-002
-1.6944031e-001
2.8298470e-002
-6.9001510e-002
1.6683721e-001
-8.4691244e-002
1.8645551e-002
1.6341663e-002
-5.9102954e-003
-4.8062125e-002
-5.5603548e-002
0.0000000e+000
0.0000000e+000
3.6780900e-002
-8.5495966e-002
49
55
51
-2.9917519e-002
-4.8957300e-002
-2.5396678e-002
-5.2067896e-002
-1.1076950e-001
-1.4290691e-001
1.6905521e-001
-1.2178483e-001
7.3857424e-002
5.4066423e-002
-1.5546026e-001
2.0881666e-001
0.0000000e+000
0.0000000e+000
3.1375029e-002
-1.2702720e-001
5.6773078e-003
3.2393367e-001
1.2458617e-001
4.6036749e-003
-1.4619112e-001
-1.7468076e-001
3.2352612e-002
-1.6164902e-001
2.7238897e-001
-1.0550731e-001
-5.5096406e-003
6.9541563e-002
0.0000000e+000
0.0000000e+000
7.1362312e-002
-5.8942208e-002
1.7022553e-001
3.7537333e-002
2.7259337e-002
-2.6872630e-002
1.9930094e-001
-1.7923928e-001
-5.4617892e-002
-1.2791717e-001
-1.0394777e-001
1.1297492e-001
8.1144390e-002
-2.3432510e-002
0.0000000e+000
0.0000000e+000
-4.6676218e-002
-1.6681493e-003
-4.0132551e-002
3.4484355e-002
-7.3671657e-002
8.9138744e-002
-1.5420206e-002
-9.0557051e-002
-2.7283151e-002
4.7969762e-002
1.1022444e-002
2.8695115e-002
6.3394932e-002
-8.1122303e-002
0.0000000e+000
0.0000000e+000
7.1710415e-002
3.4289813e-002
1.8472780e-001
-4.2768617e-002
-5.3231139e-002
3.2200773e-002
-8.8976494e-002
-8.6476135e-003
6.3242561e-002
3.4258145e-002
-9.1518267e-002
9.7764991e-002
-8.6346214e-002
3.5246071e-003
0.0000000e+000
0.0000000e+000
-2.3810653e-001
-1.4134127e-002
1.4114593e-001
1.1379305e-001
5.9276497e-002
4.4603125e-003
-5.0903857e-002
-2.2232763e-002
2.7458232e-002
-5.1332098e-003
-1.1016761e-001
-9.1516155e-002
1.3167227e-001
-2.4234496e-001
0.0000000e+000
0.0000000e+000
-1.3708193e-001
2.6290446e-002
-1.7355655e-002
-1.3334668e-002
3.3299431e-002
1.2084515e-001
1.2486842e-001
9.1118670e-003
-9.0530637e-003
-1.7042161e-001
-1.7386907e-001
-5.1335896e-002
-5.8154935e-002
3.5037681e-002
0.0000000e+000
0.0000000e+000
2.7450605e-001
1.1047225e-002
8.5275167e-002
-6.6001988e-002
3.3546594e-002
1.9644507e-002
-1.8886756e-001
-1.0959403e-002
-9.6840061e-002
1.7628413e-002
2.3692354e-001
1.0755227e-001
-3.0102672e-001
6.3323132e-002
0.0000000e+000
0.0000000e+000
1.4109062e-001
-3.9695460e-002
3.6980212e-002
1.0672491e-001
-2.3373750e-002
-2.4331095e-001
4.3026522e-002
-4.3296953e-002
2.8057140e-002
1.2310998e-001
5.9072292e-002
9.9153102e-002
6.0588250e-004
-8.4002240e-002
0.0000000e+000
0.0000000e+000
-2.9194213e-001
-8.7756167e-003
1.0295239e-001
-2.9067887e-002
-9.6844146e-002
3.5410317e-002
9.1634557e-002
2.7694262e-002
2.1153565e-001
2.9251853e-002
-2.2865974e-001
-2.7387093e-002
-1.3004988e-001
9.1756722e-002
0.0000000e+000
0.0000000e+000
-5.6103692e-002
-2.4486410e-002
49
56
53
-9.4993585e-002
-4.7992250e-002
3.7233783e-002
1.8118588e-001
4.5899244e-002
1.5878284e-001
-5.1195188e-002
-4.6807245e-002
-1.2709683e-001
-1.1508345e-001
2.1552831e-001
-3.2447544e-002
0.0000000e+000
0.0000000e+000
-1.1364173e-001
9.9509355e-003
-6.5421719e-002
-1.3602715e-001
3.0943257e-002
-7.0070843e-002
1.8382881e-001
6.5496412e-002
8.3565880e-002
-1.6560818e-002
-1.6940525e-001
9.2356633e-002
-9.5900929e-005
1.1029796e-001
0.0000000e+000
0.0000000e+000
5.7233009e-002
2.5109253e-002
8.5948453e-002
-7.8840434e-002
-5.5412355e-002
2.9223478e-002
1.3157319e-001
1.4473202e-002
-8.8330271e-003
7.4753792e-002
-2.1242558e-001
1.7834866e-001
-2.2132886e-001
1.6909711e-001
0.0000000e+000
0.0000000e+000
-5.2371068e-002
5.2055034e-002
-1.3405744e-001
6.3286986e-002
2.6195195e-002
-7.9743628e-002
-3.9856095e-002
9.5708821e-002
-1.1301227e-001
3.0363376e-002
-1.1095464e-001
-4.9541898e-002
-8.1161271e-003
4.0437221e-002
0.0000000e+000
0.0000000e+000
-1.3565524e-002
-1.3874593e-001
1.0782286e-001
1.3603803e-001
-9.9886666e-002
1.0218460e-001
3.5663229e-002
-1.1001800e-002
-1.2940896e-002
-2.1296677e-001
1.5006969e-001
-9.7918975e-002
-7.0529269e-003
5.4647524e-002
0.0000000e+000
0.0000000e+000
-8.8282132e-002
-1.5771127e-002
4.6447391e-002
-2.6907266e-001
2.9346233e-001
9.0775797e-002
-4.2376387e-002
3.2574752e-002
-8.1731921e-002
4.2574723e-002
2.4557136e-001
2.0006833e-001
-2.9930739e-001
9.4210514e-002
0.0000000e+000
0.0000000e+000
-2.5666128e-002
-7.1659929e-002
-2.3823597e-002
-7.0433555e-002
-9.3632087e-002
2.3076019e-002
1.5322580e-001
8.9551590e-002
1.7802287e-002
-4.0927076e-002
1.4154634e-002
1.0688368e-001
5.4170596e-003
2.9125768e-002
0.0000000e+000
0.0000000e+000
-1.3273360e-001
9.4766763e-003
-2.4871729e-001
2.6901242e-002
-1.3932736e-002
-6.0700537e-002
3.8744084e-001
-2.8915510e-001
-5.9752842e-002
-2.5559728e-002
-1.4839487e-001
-4.2282013e-002
1.9203368e-001
-2.0731558e-001
0.0000000e+000
0.0000000e+000
-2.6270560e-002
4.0352901e-001
1.1633883e-001
2.9079376e-002
-6.5509745e-002
-7.7329595e-002
-1.2983261e-001
-1.8440906e-001
1.7107949e-002
2.2899171e-002
3.9276646e-002
7.0660758e-002
6.9040976e-002
-1.3770619e-001
0.0000000e+000
0.0000000e+000
3.7053275e-003
-1.9345023e-003
2.7597776e-001
-1.6396720e-001
7.2279175e-002
1.0862835e-001
-3.6367920e-001
5.4519378e-002
3.6972029e-002
2.1538315e-002
2.8057260e-001
1.4495998e-001
-9.1287538e-002
-1.4308690e-003
0.0000000e+000
0.0000000e+000
-1.0084973e-001
-7.4109627e-002
