 -9.4993585e-002
 -4.7992250e-002
  3.7233783e-002
  1.8118588e-001
  4.5899244e-002
  1.5878284e-001
 -5.1195188e-002
 -4.6807245e-002
 -1.2709683e-001
 -1.1508345e-001
  2.1552831e-001
 -3.2447544e-002
  0.0000000e+000
  0.0000000e+000
 -1.1364173e-001
  9.9509355e-003
 -6.5421719e-002
 -1.3602715e-001
  3.0943257e-002
 -7.0070843e-002
  1.8382881e-001
  6.5496412e-002
  8.3565880e-002
 -1.6560818e-002
 -1.6940525e-001
  9.2356633e-002
 -9.5900929e-005
  1.1029796e-001
  0.0000000e+000
  0.0000000e+000
  5.7233009e-002
  2.5109253e-002
  8.5948453e-002
 -7.8840434e-002
 -5.5412355e-002
  2.9223478e-002
  1.3157319e-001
  1.4473202e-002
 -8.8330271e-003
  7.4753792e-002
 -2.1242558e-001
  1.7834866e-001
 -2.2132886e-001
  1.6909711e-001
  0.0000000e+000
  0.0000000e+000
 -5.2371068e-002
  5.2055034e-002
 -1.3405744e-001
  6.3286986e-002
  2.6195195e-002
 -7.9743628e-002
 -3.9856095e-002
  9.5708821e-002
 -1.1301227e-001
  3.0363376e-002
 -1.1095464e-001
 -4.9541898e-002
 -8.1161271e-003
  4.0437221e-002
  0.0000000e+000
  0.0000000e+000
 -1.3565524e-002
 -1.3874593e-001
  1.0782286e-001
  1.3603803e-001
 -9.9886666e-002
  1.0218460e-001
  3.5663229e-002
 -1.1001800e-002
 -1.2940896e-002
 -2.1296677e-001
  1.5006969e-001
 -9.7918975e-002
 -7.0529269e-003
  5.4647524e-002
  0.0000000e+000
  0.0000000e+000
 -8.8282132e-002
 -1.5771127e-002
  4.6447391e-002
 -2.6907266e-001
  2.9346233e-001
  9.0775797e-002
 -4.2376387e-002
  3.2574752e-002
 -8.1731921e-002
  4.2574723e-002
  2.4557136e-001
  2.0006833e-001
 -2.9930739e-001
  9.4210514e-002
  0.0000000e+000
  0.0000000e+000
 -2.5666128e-002
 -7.1659929e-002
 -2.3823597e-002
 -7.0433555e-002
 -9.3632087e-002
  2.3076019e-002
  1.5322580e-001
  8.9551590e-002
  1.7802287e-002
 -4.0927076e-002
  1.4154634e-002
  1.0688368e-001
  5.4170596e-003
  2.9125768e-002
  0.0000000e+000
  0.0000000e+000
 -1.3273360e-001
  9.4766763e-003
 -2.4871729e-001
  2.6901242e-002
 -1.3932736e-002
 -6.0700537e-002
  3.8744084e-001
 -2.8915510e-001
 -5.9752842e-002
 -2.5559728e-002
 -1.4839487e-001
 -4.2282013e-002
  1.9203368e-001
 -2.0731558e-001
  0.0000000e+000
  0.0000000e+000
 -2.6270560e-002
  4.0352901e-001
  1.1633883e-001
  2.9079376e-002
 -6.5509745e-002
 -7.7329595e-002
 -1.2983261e-001
 -1.8440906e-001
  1.7107949e-002
  2.2899171e-002
  3.9276646e-002
  7.0660758e-002
  6.9040976e-002
 -1.3770619e-001
  0.0000000e+000
  0.0000000e+000
  3.7053275e-003
 -1.9345023e-003
  2.7597776e-001
 -1.6396720e-001
  7.2279175e-002
  1.0862835e-001
 -3.6367920e-001
  5.4519378e-002
  3.6972029e-002
  2.1538315e-002
  2.8057260e-001
  1.4495998e-001
 -9.1287538e-002
 -1.4308690e-003
  0.0000000e+000
  0.0000000e+000
 -1.0084973e-001
 -7.4109627e-002
