 -1.0110734e-001
 -7.7644957e-002
 -4.5868307e-002
  7.7647280e-002
 -5.0325635e-002
  3.1097187e-001
 -7.4722284e-002
 -6.0387288e-002
  7.2859264e-002
 -1.8127159e-001
  1.3656992e-001
  4.2485815e-002
  0.0000000e+000
  0.0000000e+000
 -9.4797370e-002
  1.0986417e-002
 -2.7805874e-001
  2.4198531e-001
 -1.9796421e-001
 -1.6567425e-003
  3.5559365e-001
 -2.4272724e-001
  1.8036369e-001
 -4.3055169e-002
 -2.2779830e-001
  1.6141863e-001
 -9.9637299e-002
  1.8837488e-001
  0.0000000e+000
  0.0000000e+000
 -2.0489888e-002
  1.0252014e-001
  6.0407313e-002
 -4.0567434e-002
  3.0209228e-002
  2.2683719e-002
  1.5265762e-001
  7.1051738e-002
 -8.3196990e-002
 -1.3927036e-001
 -2.2206709e-001
  1.7449586e-001
 -3.6074670e-002
  1.4990779e-001
  0.0000000e+000
  0.0000000e+000
 -1.4054953e-001
  3.4323520e-002
  1.1763390e-001
  1.3367144e-001
 -8.3999098e-003
 -1.2470358e-001
 -1.7454914e-001
  7.9916446e-002
 -2.5024578e-001
  1.4194836e-001
  5.8845997e-002
 -6.0128377e-002
  1.4513048e-001
  2.8259460e-002
  0.0000000e+000
  0.0000000e+000
  1.5559250e-002
  2.1247013e-002
  2.3969489e-001
 -3.4708704e-002
 -1.3255232e-001
 -4.7257377e-003
 -3.6228672e-002
 -5.8582712e-002
  7.1612444e-002
 -7.2207781e-002
  4.8950878e-002
 -3.6688935e-002
 -1.0495649e-001
 -6.3098661e-002
  0.0000000e+000
  0.0000000e+000
 -1.5412013e-001
 -5.4543028e-002
 -2.7318016e-001
 -1.4260852e-001
  1.1640091e-001
 -1.7621489e-003
  1.5331954e-001
  1.1841024e-001
 -2.3222739e-002
  1.0094086e-001
  1.6737111e-001
  2.4262919e-003
 -8.0421156e-002
  6.6674471e-002
  0.0000000e+000
  0.0000000e+000
  1.2075394e-001
 -2.9216386e-001
 -1.6720719e-001
  6.0547345e-002
 -8.8541110e-002
 -4.7721271e-002
  2.1552622e-002
  4.8829017e-002
  1.2008914e-001
 -1.1512208e-001
  2.2369333e-002
  6.9830498e-002
  6.1684231e-002
  2.0540143e-001
  0.0000000e+000
  0.0000000e+000
 -5.8935309e-002
  6.3528363e-002
  1.3948698e-001
  2.7360812e-002
 -1.0953873e-001
  8.7305941e-002
 -2.4804088e-002
 -1.1307653e-001
  2.7817014e-002
 -7.7762412e-002
  2.3240840e-001
  8.1672448e-002
 -1.0087588e-001
 -2.6308914e-002
  0.0000000e+000
  0.0000000e+000
  1.4774720e-001
 -5.3916890e-002
  1.2005449e-001
 -1.9171735e-001
 -6.3516165e-003
  4.1804326e-002
 -9.3593051e-002
 -5.0446946e-002
 -7.9592585e-002
  4.1164977e-002
 -1.6814938e-002
  1.0474223e-001
 -3.0222032e-002
 -1.0990821e-001
  0.0000000e+000
  0.0000000e+000
 -6.3546374e-002
 -2.6488655e-002
  2.2318753e-001
 -8.5614351e-002
  2.5070117e-001
 -9.8670981e-003
 -1.8255762e-001
 -3.5858234e-002
 -2.1496211e-002
 -2.8709916e-002
 -7.6627591e-002
  1.3483021e-001
  5.5804766e-003
  1.7717111e-001
  0.0000000e+000
  0.0000000e+000
 -1.5966407e-001
  1.2336573e-002
