 -7.0703063e-002
  2.5034490e-001
 -1.0667696e-002
 -2.1249544e-003
 -1.4413399e-001
 -3.8161834e-001
  9.2511744e-002
 -2.6504464e-002
  3.4328073e-001
 -5.0039181e-002
  2.5551657e-002
 -3.0362049e-003
  0.0000000e+000
  0.0000000e+000
  5.8081625e-002
 -5.2702304e-002
  1.1179239e-001
 -3.7830867e-002
  3.0469458e-002
  7.2514453e-002
  9.2884408e-002
 -1.0317028e-001
 -9.5567668e-003
 -2.2733838e-002
 -9.9116981e-002
  1.6797046e-001
 -3.6320714e-002
  5.0839362e-002
  0.0000000e+000
  0.0000000e+000
 -2.7001567e-002
 -1.0966682e-001
  2.7205925e-001
  9.9314302e-002
 -8.1437652e-002
  1.3958642e-001
 -1.0767024e-001
 -1.3275719e-001
 -6.1794228e-003
 -1.6937015e-001
  3.7225690e-002
 -9.2555394e-004
  1.3170079e-001
 -5.1572502e-003
  0.0000000e+000
  0.0000000e+000
 -1.4723952e-001
  2.8547944e-002
 -5.7804484e-002
 -6.0429047e-002
  1.8201898e-002
  9.6798788e-003
 -1.7985632e-001
  1.2891198e-001
  5.1150493e-002
 -1.8933619e-002
  1.4477961e-001
 -1.1872389e-001
 -2.0586597e-002
  5.3066392e-002
  0.0000000e+000
  0.0000000e+000
  4.8983053e-002
 -8.7377344e-002
 -1.4939532e-002
  1.2737067e-001
 -9.4911965e-002
 -9.7939995e-003
  8.4507791e-002
 -1.5240613e-001
  1.3232262e-001
 -2.5141577e-002
 -5.3942159e-002
  2.1643342e-001
 -8.5964247e-002
  3.3492349e-004
  0.0000000e+000
  0.0000000e+000
  1.0767240e-001
 -3.4935413e-002
 -1.2337756e-002
  7.6771399e-002
 -1.6381123e-001
 -1.3051798e-002
  5.8119585e-003
 -1.4460710e-001
  2.2953082e-002
 -1.2954840e-002
 -2.2452697e-001
  1.7822332e-001
 -4.7473815e-002
 -1.4532936e-002
  0.0000000e+000
  0.0000000e+000
  7.5539697e-002
  5.0451968e-002
  1.7195874e-001
  1.7116041e-001
  6.0672623e-002
 -1.6371056e-001
 -2.7034132e-002
 -2.1024704e-001
 -6.4845926e-002
  9.2279352e-003
 -1.4488641e-001
  1.3639639e-001
  1.6509991e-001
  6.1405220e-002
  0.0000000e+000
  0.0000000e+000
 -2.7413310e-001
  1.6777596e-001
  1.2738130e-001
 -1.7258351e-001
  1.3551898e-002
  5.3204222e-002
  8.2990966e-002
  8.7377798e-002
 -2.0320143e-001
 -7.8565986e-004
 -1.3200338e-002
  1.2013562e-002
  1.2104775e-002
 -4.2881706e-003
  0.0000000e+000
  0.0000000e+000
  4.8858636e-003
  2.8960509e-002
 -1.1507951e-001
 -3.4196146e-001
 -6.6038973e-002
  1.2560229e-001
  5.2230123e-002
  2.9317400e-001
  2.6779180e-001
  2.0501565e-001
  1.0631916e-001
 -3.0258351e-001
 -2.8038511e-001
 -2.1223202e-002
  0.0000000e+000
  0.0000000e+000
  1.3762126e-001
 -2.3178681e-001
 -1.0419759e-001
 -3.0311777e-002
  2.9455392e-002
  1.5963409e-001
 -9.3880959e-003
 -5.4289431e-002
  1.5724036e-001
  5.8785712e-002
 -2.1324396e-002
  7.1648073e-002
 -7.9591586e-002
 -3.9203585e-003
  0.0000000e+000
  0.0000000e+000
  7.1672176e-002
 -5.7780921e-002
