 -1.0660964e-001
  6.8769008e-002
  2.5187556e-002
 -2.0698736e-001
  2.2638122e-001
  1.0195963e-001
 -1.0386066e-001
  2.6299499e-001
  3.1624227e-001
 -1.9377129e-001
  1.0683670e-001
 -1.5499962e-001
  0.0000000e+000
  0.0000000e+000
 -4.1523178e-002
 -1.7456453e-001
  1.2361926e-001
 -2.9161037e-002
  7.8400757e-002
 -5.8380816e-002
 -1.5459450e-001
  1.3891827e-001
 -9.5196054e-002
 -8.0148325e-002
  7.7073089e-002
 -4.6108619e-002
  1.1698963e-001
 -7.2027647e-002
  0.0000000e+000
  0.0000000e+000
  8.0062999e-002
 -7.8328936e-002
  2.2021380e-002
 -1.0465651e-001
 -7.0761538e-002
  9.8603601e-002
  8.7744491e-002
 -1.4214358e-001
  1.4244740e-001
 -6.2746964e-002
 -4.9130597e-003
 -2.8357745e-002
 -1.5027174e-001
  6.0887157e-002
  0.0000000e+000
  0.0000000e+000
  1.0674406e-001
 -3.1163355e-002
 -7.5394998e-002
  2.9540771e-002
  8.0313990e-002
  2.7504280e-002
  9.0738230e-002
 -4.5375081e-002
 -1.9706313e-001
  2.4489988e-002
 -9.5966408e-002
  9.4487202e-002
  1.3994485e-001
  7.2923992e-002
  0.0000000e+000
  0.0000000e+000
 -8.0116659e-002
  5.3675825e-002
 -5.3536067e-002
 -1.8827483e-002
  1.4585829e-002
 -1.4772363e-001
 -1.5480348e-001
  2.1074088e-001
 -5.5899718e-002
  1.2920796e-001
  1.9711170e-002
 -4.7901803e-002
  1.0460174e-001
 -1.1166653e-001
  0.0000000e+000
  0.0000000e+000
 -1.3215863e-001
  5.3888392e-002
  4.1207218e-002
 -6.5292303e-002
  6.3598732e-002
  1.1325874e-001
 -6.7198782e-002
  2.2292218e-002
 -6.9641639e-003
  3.2144602e-001
  3.1853296e-002
  6.5313498e-002
 -8.6385810e-002
  4.0283558e-002
  0.0000000e+000
  0.0000000e+000
 -6.8650787e-002
  1.6049585e-002
 -3.9205988e-002
 -5.1326692e-002
  1.5588520e-002
  1.6493706e-001
  2.1485046e-001
 -5.0041934e-002
 -1.5114741e-001
 -1.9993779e-001
  1.1656980e-001
 -2.0975457e-001
 -3.1914246e-002
 -6.7788737e-002
  0.0000000e+000
  0.0000000e+000
  1.1632485e-001
  3.8079894e-002
 -2.5908023e-002
  3.5495475e-002
  7.8896723e-002
 -1.3934908e-001
  1.5776075e-001
 -3.4189787e-002
  6.9189207e-002
 -1.7709225e-002
 -1.8096744e-001
  1.7471734e-001
 -6.1851360e-002
 -3.0258770e-003
  0.0000000e+000
  0.0000000e+000
 -5.8618353e-002
  1.2971415e-002
  2.9998611e-001
 -3.2523447e-001
  9.1532680e-002
 -1.8355770e-002
 -1.5828353e-001
 -1.7812745e-001
  5.7703405e-002
 -9.7670577e-002
  2.7301517e-002
  6.4207981e-002
  1.5514410e-001
  4.6967824e-001
  0.0000000e+000
  0.0000000e+000
  5.5840556e-002
 -1.9212602e-001
 -4.0008928e-002
  1.4825395e-001
 -2.0017927e-002
  6.2802262e-003
 -1.7849700e-002
 -6.8067138e-002
 -9.7105979e-002
  5.6459596e-002
  1.1564673e-001
 -3.7319622e-002
  1.3036596e-001
 -6.0599162e-002
  0.0000000e+000
  0.0000000e+000
 -2.8456287e-002
 -1.7679415e-001
